encog,BasicNetwork,java,3.2.0,1,1406086182679
[BASIC]
[BASIC:PARAMS]
[BASIC:NETWORK]
beginTraining=0
connectionLimit=0
contextTargetOffset=0,0,0
contextTargetSize=0,0,0
endTraining=2
hasContext=f
inputCount=6
layerCounts=6,81,7
layerFeedCounts=6,80,6
layerContextCount=0,0,0
layerIndex=0,6,87
output=0,0,0,0,0,0,0,0,0,0,0,0,0,0,0,0,0,0,0,0,0,0,0,0,0,0,0,0,0,0,0,0,0,0,0,0,0,0,0,0,0,0,0,0,0,0,0,0,0,0,0,0,0,0,0,0,0,0,0,0,0,0,0,0,0,0,0,0,0,0,0,0,0,0,0,0,0,0,0,0,0,0,0,0,0,0,1,0,0,0,0,0,0,1
outputCount=6
weightIndex=0,486,1046
weights=1.0455389415,0.5260257522,-0.5958944396,-0.8654625504,0.7236628683,0.4100780918,-0.3463542116,0.4966022217,-0.6819530841,-0.0269051777,-0.3913633535,-0.2207438466,0.9390113175,-0.8118946349,-0.7938953458,0.8026378752,0.6504726608,-0.0020051375,0.6162427436,0.6262804595,0.6874193329,-0.171556548,-0.041012883,0.6522981348,0.3689603328,-0.2135124515,0.1019036406,0.1308482354,-1.0956285826,-0.2217597222,-0.7909727904,0.1147325483,0.1907611585,-0.0208536886,0.5899170246,0.1420125488,-0.789291264,0.1428208231,0.9213184738,0.062397258,-0.0257596405,-0.5455101998,-0.2648076822,0.4919859743,-0.5813376983,0.2013473351,-0.24482802,0.8463218157,0.2351023075,-0.6487147468,-1.0722785869,-0.9198504427,0.4768079826,0.831010185,1.063834526,-0.0865288537,0.3887124737,-1.0708627549,0.0116657177,0.4298511377,0.8901088708,0.469667568,-0.6909504154,-0.5627553129,-0.3744331495,0.4175488755,-0.620859019,-0.2214698585,0.7180902399,-0.4344472703,-1.0932140438,-0.5874902713,0.0003927288,1.0017348926,-0.5541705032,-0.4379599829,-0.9271765157,0.7259089503,-0.5227792835,0.2658263854,-0.7992878573,0.3495814928,-0.4466302637,-0.3979189094,-0.1039141471,1.0470511492,0.2323021454,0.2468103174,-0.2805909362,0.5350186297,0.3712720325,0.7530910718,0.5645902706,-0.2924228814,-0.0663974651,0.5357219802,-0.1497321457,0.513388998,0.2352002886,0.2108776308,-0.839733923,-0.4124022406,-0.1334575065,0.0739751912,0.7054850486,0.2783324684,-1.0484769331,-0.9912137684,0.9489327332,-0.7725673727,0.6470257487,0.6876419402,0.250193286,-1.185556946,0.544157568,-0.8198817145,-0.8818624794,-0.4360699916,-0.4576541371,-0.6839838099,0.6581446149,-0.2947900732,-0.5547713431,-0.1682134423,0.4570322771,-0.2977203687,0.7716571224,-0.6443752454,0.3100421645,-0.4067550681,0.7567233758,0.7554778597,-1.25856488,-0.9065295238,0.7991983843,-0.488710727,-1.0985952133,0.5459809618,0.2686291969,0.9151888815,-0.6549644904,0.1562179949,0.797991086,-0.4174066316,-0.6279965621,-0.0009541953,-0.8492243981,1.1936892172,-0.1177066523,0.604223217,-0.6741904742,0.1034173296,-0.430947072,0.6204802884,-0.137783301,0.654378273,-0.2819275271,0.3277869143,-0.015887677,0.7308194378,-0.8819137349,0.2727662413,-0.5599944119,1.1541132865,0.30031024,-0.3214439994,0.3502083113,0.8434161744,0.2729517522,0.1226444947,-0.8988899202,-0.6399698568,-0.3375258357,0.4345582692,-0.4299275324,-0.0603229932,-0.414105881,-0.0461419523,-0.5094729536,1.0202830943,-0.4608029874,0.2250351368,-0.0191600941,-0.9699614824,-0.4992392198,-0.0728495909,0.2206211779,1.356259147,0.5718315412,0.9472259978,-0.2987699442,1.1733558492,-0.5504480633,-0.662682768,-0.0712811662,-0.0082431472,-0.6527344815,0.2251262546,0.1966617415,-0.21778899,-0.4230280371,-0.8927023946,-0.1982914978,-0.132268324,-0.693401735,-0.547400866,0.6217445143,0.35149241,0.9710457626,-0.3816388963,-0.9918488702,-0.2063287842,-0.928944901,-0.8488568638,0.1227062693,-0.4021911983,0.4955899493,-0.8615447873,-0.5000792194,0.2350485577,-0.6308693066,-0.2199704838,-0.6138473624,0.9302610496,-0.6411274861,0.5125438898,0.3726801141,0.5769077415,0.7370963797,0.6213581634,-0.1157192968,-0.3514748513,-0.4212071544,-0.3375928634,-0.785489669,-0.0302672111,0.3198010226,-0.489688075,-0.6082561042,-0.4083313026,0.429175851,-0.4282608005,-0.2839889712,-0.1718701059,0.6398840341,-0.313101448,-0.4600690993,-0.9345645371,-0.5778595711,-0.8944883516,-0.8302774549,-0.6338662252,0.5336717319,-0.3364482838,-0.2636953362,-0.7804017583,0.1745016074,-0.0452217368,-0.3389457329,-0.3726405284,0.0564968522,0.6446731643,0.2711628006,0.7037806083,0.6633198641,-0.2539960378,1.0206892635,-0.7166534881,0.0674505768,0.3615122963,0.7170844909,0.5394320602,0.8381553092,-0.2965164432,-0.0697239508,-1.1925039246,0.3917908934,-0.1600698348,-0.4893004973,-0.034575242,0.1850967709,0.4984555137,-0.2176565651,-0.3031502967,0.3363916238,-0.1464481307,-0.898564449,0.1477896262,0.3033829377,1.0039086539,0.3716847452,0.5528627781,0.2772791227,0.9229478786,0.1528866767,0.3124754212,-0.597670379,-0.2329126386,-1.1364408813,-0.0717526702,-0.0699524055,0.5046738114,-1.0954206952,0.8629774167,0.5110893107,0.7064317642,0.3883208986,-0.031887855,0.4227446836,-0.9058060068,-0.2649195241,-1.2602414247,-0.0714320525,0.2036560101,-0.0347783531,0.5863117326,-0.5156206978,0.2791078866,-0.213277814,-0.0888923946,0.1997009968,-0.5203850708,0.4769124291,-0.6855325729,-0.309233637,-0.5561058028,-0.9741178799,-0.2976927703,-0.3599331096,-0.4177204562,-0.046127971,0.1166111208,0.0126170387,0.6216434532,-0.7274196136,0.5275484885,-0.6751988668,-0.918709085,-0.9295328849,0.6667280273,-0.4256435081,0.1625111857,0.0742366805,-0.1883880657,0.6126347937,-0.9125186161,-0.7708653956,0.7942032099,0.1773797238,1.1001642267,-0.8554955774,0.5558343221,0.8629528741,-0.3094435773,-0.8868063504,-0.349798325,0.3791507439,0.3355594409,0.3228937323,0.8373059379,-0.9142668875,0.0973358231,-0.4391706519,-0.9293200184,0.6299960505,0.0655655675,-0.7784607624,0.1213311643,0.6438048638,-0.4361716586,0.8436097669,0.4652147927,0.0774393325,0.9181515717,0.9117096815,-0.528352656,-0.4875130828,-0.0817581902,0.1523612756,0.3406018114,0.0095216723,1.0229958704,-0.3959515728,0.8032531937,0.093792277,0.1184677665,-0.0686797875,-0.3872984818,-0.2205400106,-0.5424934999,-0.932400058,0.4899305899,-0.328665052,-0.8895079286,-1.0519179053,0.848982335,0.9136332526,-0.2023736017,0.5444546984,-0.1779650469,-0.5697267495,-0.4146678783,0.2195617208,-0.8322294901,-0.2776789168,-0.6715200217,0.8274580901,-0.1349260093,-0.6547120301,-0.6736582091,0.9652217473,-0.9866405942,0.2691625594,-0.1953087151,-0.9670769133,0.8314046516,0.021203567,-1.0538882381,0.2344963489,-0.1674405602,0.2602948193,-0.4203537575,0.0065946461,-0.1545831309,1.0959707099,-0.1962888848,-0.3797154562,0.408057217,-0.1511553197,0.1189557133,0.2083846165,0.9635834388,-0.4681780754,0.5833462787,0.006680636,0.504110467,0.6189424719,0.4561335373,0.1728651694,-0.2376975299,0.3935082863,0.2670497345,-0.4149410839,-0.5990901742,0.0639421797,-0.2041956975,-0.4201955491,-0.5399536546,0.5293089073,-0.804055263,0.3781790398,-0.3319732066,0.1461158078,0.5605330289,-0.0164666006,0.0779035945,-0.5218655483,-0.2023351893,-0.753855239,0.3792132998,-0.6174523251,0.6398254044,-0.3697211391,0.8226718985,0.3982753081,-0.6445807623,-1.2781375724,-0.5851819167,0.5093655588,0.4107391549,0.0698301594,-0.6683237132,0.5589575498,-0.6035197486,-0.0625106159,-1.3829643196,-0.1501371476,-0.5960703825,0.4296877354,0.9403177594,0.6954319778,-0.8477808496,-0.0375497409,0.4602590203,0.3261600168,0.5461442764,0.1259463307,0.6431323398,0.720239724,0.2911245288,-0.4445921879,-0.9086465076,-0.8778892577,1.0185508068,0.7606292398,0.9912230823,-0.2045796346,-0.2009865152,-0.0708440872,0.7758731896,0.1916360207,-0.043718763,-0.6168695654,-0.2921745484,0.7261691158,0.3012281321,0.8681679741,0.2359834968,-0.3191027499,-0.1148454608,-0.5676308359,0.8475155616,0.1240098671,-0.8788927772,-0.2581448611,0.7442422956,0.9711727943,0.1354225661,-0.4640252352,0.3555379721,-0.1522592361,0.2629797833,0.641962036,0.1912550891,-0.7345677835,0.3965640593,1.2064570991,-0.8649016154,-0.2619312209,0.4821564979,0.0466473306,-0.7795176765,-0.126878262,-0.9635935039,0.3409106845,0.6315822633,0.4605118293,0.9638985736,-0.8540824587,-0.1791043102,0.0142618326,0.1783830679,0.5829763283,-0.5927053326,-0.9825462586,-0.6532932911,-0.3582657063,0.4384353171,0.709965803,-0.7642636482,-0.4289699903,-1.0246298832,0.9952783593,0.2124543732,0.3579002766,0.2897168176,-0.7742554007,0.9559395636,-0.4557997446,-0.3474185232,0.3868535278,0.7314896384,-0.4620453724,-0.1633435977,-0.2800390919,0.4800803122,0.4192381829,-0.195444853,0.6866506348,0.9077640136,0.6811579667,0.3445777642,-0.9608648837,-0.2987759026,-0.8718423211,-0.9764016896,-0.1775759663,0.2897045949,-0.892188266,0.6605588594,-0.10393567,0.4271988844,-0.88930749,-0.9595963079,-0.4967066223,0.3115961343,0.8763674755,0.7419934436,-0.490527515,-0.910083926,-0.9061861034,0.7165836502,0.6700130034,0.9135136724,-1.1604224178,-0.7261996478,-0.404431749,-0.8574766795,1.0240234011,0.7126156321,-0.9723761538,0.3082840011,0.7036437422,-0.997005123,0.4274943662,-0.1634597422,0.8490256174,0.3214745014,-0.4595138493,0.0050583453,-0.1192669514,-0.0509367129,-0.0046912398,-0.0136922918,0.5277800141,0.4509522309,-0.9583987805,0.6667657391,0.4932208193,0.3028597155,-0.1296186187,-0.6095421512,-0.633036792,0.5275084528,1.0442664578,-0.3186701019,-0.5372127105,-0.1000604023,-0.2342452064,0.9901992906,0.7634994211,0.1064079767,0.4398914781,-0.7933882668,-0.5904112492,-0.9094595138,-0.1700132752,0.3838932448,-0.6337513313,0.169601145,0.4697526118,0.7265129513,-0.0443151947,0.5293267335,-0.9218104722,0.6625769074,0.5922974365,0.9478921825,-0.1211214969,0.9531554414,0.6056357358,0.5881706344,-1.1820299053,-0.2619944988,-0.221097269,-0.2085655192,-0.8518436463,0.2504140385,-0.3347873825,1.0423875225,-0.3856684942,0.2924152967,-1.1021665897,0.9415225309,0.3074723146,1.0063873122,1.0946143277,-0.8939513375,-0.3197345948,-0.0460487559,0.1513424723,-0.4547841523,-0.4899533651,0.3429088658,-0.3135910996,-0.8004525436,1.2178701194,0.2351127038,-0.000472608,0.4726863187,-0.3947791624,0.2097600259,-1.1705307061,-0.2788572185,0.742668008,-0.2295965798,0.8123909523,-0.6678803379,0.2851398698,0.5003796959,-0.1862499292,1.3108550813,0.9475376178,-0.0994603368,0.3316139826,-0.6354216421,0.7784351336,-0.7229188911,0.5190072321,-0.6814364533,-0.8469314055,-1.007943562,-0.7894628606,-0.5749805586,-0.7895161391,0.1760745063,-0.8493299812,0.2121987027,0.9133206086,-0.2208129592,-0.2597006208,-1.238331973,0.1625166612,-0.9741838324,-0.3685097579,-0.2591192795,0.4743660001,-0.8748009308,-0.3593288539,-0.8012563814,-0.5347169559,0.9388459971,0.3884442833,-0.0886939014,-0.3395279345,-0.4922375456,-0.9794995071,-0.8266917535,0.5201918872,-0.1938060393,0.3381791749,0.296624005,0.6796763592,0.2232784978,0.1465497348,0.4846208874,0.0543115099,0.425308443,-0.5835335514,0.3961081783,-0.5363227636,-0.7050319361,-0.6984791194,-0.2926434113,0.8901680901,-0.5095415601,-0.1691199165,0.3682003326,0.0601118565,0.4152493284,0.0949630856,0.9680196803,1.1073158911,-0.0060825813,0.0450263728,-0.0319461572,-0.9912836898,0.2188585678,-0.9428590655,0.1363436495,0.3587042467,-0.394326966,-0.7517140008,-0.6827477676,0.2255302894,-0.3437770574,-0.6496754323,-0.6954906666,0.0512712573,0.5642015409,0.8867387,0.5572008973,-0.3677902159,0.5074551823,0.3310295053,0.3404909049,0.9217529369,0.5108433441,0.2581197916,0.2397946051,0.707966516,0.3971883799,0.0884226965,-0.6636176015,-0.932530742,0.2881962148,0.1071886026,0.8074386372,-0.7496958974,0.9538963389,-0.5065762259,-0.7664866041,-0.4515236014,-0.830149641,-0.4738699876,-0.0754833835,0.8736341606,0.1088895547,0.3785901793,0.4374557229,-0.9139849772,-0.3715614747,0.3905482307,0.0397129543,-0.2717282225,-0.8345876779,0.6950121248,0.3378752862,0.0441113767,0.8549160746,0.194957138,0.1394588275,0.7355921953,-0.4033119555,-0.4426816524,-0.6300590814,0.6534107125,0.826859173,-0.523936965,0.7057426609,-0.6473226769,0.5792391339,-0.983324902,0.3117338225,0.0589624709,0.3210652052,0.0089072807,-0.8717102483,-0.9233731681,-0.4533203656,0.087021143,0.0825616462,0.5868027018,0.0804267553,0.7437077762,0.3368635794,0.0862734948,0.9194429056,-1.0550352491,0.1789652044,1.1914171942,-0.181974088,-0.8160334801,-0.241690603,-0.4220464334,-0.9200148321,-0.6536810859,-0.6686570281,0.10340392,0.8185614823,-0.8535861842,0.1517427944,-0.1980184732,-0.5013971549,-0.4556562092,0.6942122901,0.872611562,0.9618853476,0.9424441068,0.6033908962,-0.8620253044,-0.3115381372,-0.3111043124,-0.4193647757,-0.3449569997,0.6056855342,0.759500949,-0.9343242417,-0.8174575191,0.6070438422,-0.3967995272,-0.5100677066,0.3280602162,-0.5764338711,-0.9318952966,-0.4753689441,0.8168276231,-0.2657941626,-0.9056106441,0.1189566335,-0.5594198719,0.8328705587,0.7585009116,-0.1796145796,-1.1435152576,-0.8041748202,0.4243585334,-0.3525296151,0.1648904511,1.1668080864,0.5284602182,-0.103385814,0.8016035968,0.5283429038,0.6096403622,0.7051499756,-0.9173099747,0.4675802161,-0.8209314938,-0.1469292178,0.60489185,-0.2302378839,-0.6816213869,-0.4814391241,1.0377493806,0.7527397997,0.0159245074,1.0847555751,-0.0177783355,0.3509249746,-0.0515113917,-0.3534570599,-0.4544996496,0.686581631,1.1205768565,0.5081133281,-0.6714916664,-0.5046092433,-1.2732646734,-0.1776123332,-0.8801929751,-0.5822935049,0.4098581061,0.4237496643,-0.7785297017,0.087336502,0.1046851508,0.0611705475,-0.4493571854,-0.6938179802,0.184387454,-0.7236088727,0.0223584886,0.2026747109,-0.3974395993,-0.8754876382,-0.225577481,-0.209333065,0.7365884792,0.5347433352,0.1868080901,1.0619818837,0.8885883748,-0.49346848,-0.6557254714,-0.2897490484,0.8536602944,0.2718414731,0.9795190757,0.9658580678,0.559829927,-0.6989456156,-0.5909797115,-0.5789537623,-0.6597808764,0.6179117971,-0.3814478535,-0.0107128076,0.7796448386,-0.5448620311,0.0016673195,0.2318345679,-0.2336356287,-0.5133549691,0.2338027553,-0.7975975586,0.0584226185,0.5525512704,-0.4438029689,-0.2797795501,-0.2416202045,-0.9126270519,0.5903434825,0.6097879538,-0.0426288132,0.1780315156,-0.5459943222,0.7136069646,-0.7393006168,1.0685135706,-0.7457411113,-1.0700752374,0.3402711601,0.1700346567,0.5629911135,0.6938002214,-0.5633536579,0.2316875843,-0.0925083903,0.9155846501,0.8075817709,-0.4258897513,-0.8016424461,-0.757505626,0.2093496602,-0.929476849,-0.7418149644,0.4514138641,-0.6908029144,-0.1461487937,-1.0891186283,0.5188422615,0.6978277928,0.2225885346,0.3010342376,0.5934178709,0.2575961494,-0.8769212819,1.196311592,0.8051452598,-1.0589989948,-0.5729808605,-0.3342049862,0.6826036793,-0.378938443,-0.4305757077,1.0062934181,-0.2169372365,-1.0826439773,-0.8649584759,-0.457753802,0.4008081646,-1.0155550298,0.3047695331,-0.1551416233,0.8648282075,0.4421266796,-0.6738018,0.7342867254,0.6238897792,-0.7773689131,0.7395064595,0.2932841788,0.0952415928,0.5057866223,0.3585891828,1.0075987628,0.4866588335,-0.9202484326,0.7523021616,-0.4383993113,0.432489908,-0.2512731588,0.6178491781,-0.8163388168,-1.0205793515
biasActivation=0,1,1
[BASIC:ACTIVATION]
"org.encog.engine.network.activation.ActivationSigmoid"
"org.encog.engine.network.activation.ActivationSigmoid"
"org.encog.engine.network.activation.ActivationLinear"
