encog,BasicNetwork,java,3.2.0,1,1406094555322
[BASIC]
[BASIC:PARAMS]
[BASIC:NETWORK]
beginTraining=0
connectionLimit=0
contextTargetOffset=0,0,0
contextTargetSize=0,0,0
endTraining=2
hasContext=f
inputCount=28
layerCounts=28,81,29
layerFeedCounts=28,80,28
layerContextCount=0,0,0
layerIndex=0,28,109
output=0,0,0,0,0,0,0,0,0,0,0,0,0,0,0,0,0,0,0,0,0,0,0,0,0,0,0,0,0,0,0,0,0,0,0,0,0,0,0,0,0,0,0,0,0,0,0,0,0,0,0,0,0,0,0,0,0,0,0,0,0,0,0,0,0,0,0,0,0,0,0,0,0,0,0,0,0,0,0,0,0,0,0,0,0,0,0,0,0,0,0,0,0,0,0,0,0,0,0,0,0,0,0,0,0,0,0,0,1,0,0,0,0,0,0,0,0,0,0,0,0,0,0,0,0,0,0,0,0,0,0,0,0,0,0,0,0,1
outputCount=28
weightIndex=0,2268,4588
weights=##0
##double#4588
   -1.4277165963,0.8990612045,2.2627560059,-1.2716169898,0.7331102808,0.9499718998,0.7339670836,0.1496351724,-0.3557512486,-0.6029470491,-0.1050056701,1.0769329708,-0.3002070685,0.3151163033,-0.5308423641,-0.3142798026,0.2698977732,-0.9561348226,-0.9519650043,-0.1533462146,-0.7273805533,-0.080567083,-0.1999931761,0.192521165,-0.2312235192,0.1131347081,1.4239189807,0.9834230637,-0.4269906273,0.4613084137,-0.1841928439,-1.0701805999,1.0502437895,-0.4794363886,0.9050333506,0.9644389046,-0.3316696116,0.0307976318,-1.0001548567,-0.8439126154,0.1498099567,0.6039825692,1.1409821365,0.4498016631,-0.0781255963,0.5600458875,-0.3113885033,0.0903330976,-1.2362011301,-0.4015577908,-0.1376253238,0.2278024781,0.2913590258,-0.5934920481,-0.713530855,-0.8125498199,1.8272156494,-0.1486130446,1.5588909395,0.6379508935,-0.2893678874,0.0065192787,-1.943342576,-0.6865435975,-0.678189859,-0.8460511702,-1.3137485499,-1.017157902,-0.7011866726,-0.5927273606,-1.1288830803,-0.2636726799,0.2260689785,1.0124825139,-0.9128374287,-1.1113387229,1.0335303994,0.6312610383,-0.3238455407,0.8025143985,1.4386740958,-1.4710413549,0.7683798222,1.5602108958,0.6284376471,-0.7522327708,-0.2129281008,0.3494183005,-0.7827525717,-0.3683100688,-0.8249854871,0.1176777031,0.6489446819,-0.1730007496,-0.9891416565,-0.4550138973,-0.3176517134,1.0196053263,0.4709579845,-1.0384740284,-1.3447210629,-1.5393887596,0.212180203,-0.4639210786,-0.0287351423,-0.4126877656,0.4190370023,1.753876317,-0.1728863671,0.4886630212,0.89593044,-0.0288633712,-0.6504303216,1.3070322796,-1.2620072138,-1.1755560549,1.2388885075,-2.0655740045,0.6076708568,-0.1866394377,-1.330183807,-0.5625502532,1.1864263579,-0.074004037,0.1153312066,-0.9090923641,0.0340571869,0.1624400891,-0.5094414221,0.8386882104,0.3092884461,1.027597126,0.8014558417,0.1232739948,0.7461991771,-0.2844844635,-0.3690648332,0.5381174667,-0.0397685061,1.8721287731,1.0608108044,-0.1217337414,-0.1086477975,-1.053143425,0.6222394211,0.1794372085,-0.6923998932,-0.4375820756,-1.9587779565,-0.6317325348,-0.3771426194,0.0377234492,-0.7884500054,0.7944324865,0.7925700567,-0.1019974853,0.0608701179,0.0872954403,1.4177801292,-0.7021677799,-1.0509249452,0.1566414526,-0.7202472392,1.2256197755,1.718982854,-0.6877488598,-1.0441173817,0.500441452,1.7834675865,0.3030007085,-0.766065579,0.5600041145,-0.6260750947,1.5634334786,-2.1675803114,-1.9989113091,-0.8035138125,1.2942773238,0.8790334317,0.5039284544,-0.1631900926,-0.1143356933,-1.8182090797,1.229436091,1.4266848511,-1.0806271385,-0.3901082566,1.5594256571,0.7155209475,0.5985441604,-1.4127741738,1.2522932748,1.3688019015,-2.2771125686,2.5820069885,-1.1105925784,-1.0677820686,0.078704674,-0.4941794517,0.9826763345,0.851031817,-1.8814886157,0.6043677699,1.4432845071,-0.3217836569,0.405480334,1.0600124169,-0.6690605973,0.3342595087,0.9067929364,0.2917041179,-0.5762975883,-0.0804402903,1.4094005111,-0.5274742276,-0.770020472,-2.0223537173,-0.761259059,1.7265287036,-0.3450455743,1.3699935298,2.380695447,-1.1412054573,1.3058053221,-1.4674125468,-0.0821925931,0.9184197324,-1.4088623136,0.2385368899,-1.0499128129,-2.3064555866,-0.9753038126,-0.5253523069,-2.0620327305,0.3996454701,-0.0291703116,-0.7799510493,-0.6131658892,0.2558036957,0.2973317823,-1.4758740702,-1.3043812017,0.2962636584,-1.5072794362,0.9146334656,1.0881298158,-1.4881216164,-1.1364078988,0.0328088602,1.4651142168,-1.1020897425,-2.2136894001,0.8784822655,-0.9253188242,0.4373883239,0.5483484083,0.5771803211,-1.3075050649,0.3080564552,2.3552450301,0.6672313092,-1.1899140825,0.7507662665,-0.1074329322,-0.3910283299,0.4806386709,-2.4251825932,-2.8599157051,1.6778348012,1.6848332152,0.4881536609,-0.8172249139,1.5226752099,0.8616020355,-2.662385832,1.5357408299,-2.1972543949,-1.6927508653,0.2258641279,-0.8057140023,-0.6958930473,0.0377257588,-1.3214758583,0.8257861766,2.3057465954,-0.7038283343,-0.6924993263,-0.1303780776,0.8697784199,-1.0133363789,-0.2300977489,0.5121558844,-0.2614300657,0.8961852279,1.3380085348,1.4880084538,-0.0753048505,-1.4415674666,-1.2433402807,1.9293968495,0.3373242006,2.8046578758,1.0198962907,0.6920646119,0.7544153698,-1.2331981238,-0.7446962829,0.0575070389,-0.7635190905,0.5196398311,-1.4517229204,-0.1869565066,-0.745593303,-1.3809290218,-2.1245053287,1.5080725153,0.3825965154,-1.3749299562,-1.0662748888,-0.5391084688,1.5104791755,-2.4468063028,-0.4637502657,1.1896116644,-1.8130568477,-0.3653294825,2.9857963058,0.1793810994,0.2408624603,-0.1503873908,1.8004552515,-1.4954275166,-1.2784891591,0.8248309279,-0.6626173264,0.502672178,-1.8355968631,-2.1472358077,-1.778726268,1.1839247925,1.1450353716,1.1325993507,-0.7655427128,0.4190502525,-2.331781802,1.4022415863,-1.7593624436,0.1041145339,-0.7835765946,1.5271314217,1.1691884682,1.6845980306,-0.6873259452,1.7423076754,0.40898274,-2.7401211782,1.8896411098,-1.7393397004,0.5581849305,-1.4815761825,-2.4807888214,1.8540833091,1.2509938313,-0.5194512138,1.4038383759,2.526145319,0.6949472147,0.9453265957,-1.0346680897,-0.7093631961,-1.0776778261,0.3505477131,2.3220118551,1.0523859618,1.7504997032,0.9325731493,0.186017789,1.3509177007,-1.7221636313,-0.5880325452,2.8011032385,-0.942814742,1.0718190456,3.2563734529,1.1573049055,-1.2930811452,-2.3608919387,1.033888946,-2.0608470661,-1.7652523737,0.6627938192,-2.3915256701,-1.4456387274,-1.2527169975,-1.5787600935,-1.9366768388,1.8223491917,-0.0172113254,-1.6913032198,-2.3334465769,0.5039772596,0.3772054491,-1.9651702302,-0.7668663739,0.3123790485,-1.1541975573,-0.6995286242,2.7667540416,-0.5150702307,-1.4466369199,-0.3217273532,-0.4108947694,-1.3838193888,-1.6394145032,0.6966217345,-0.6876073037,0.5677454216,-0.213480425,-1.8283705993,-1.5670282656,0.592201227,1.2010600923,0.2295187377,-1.0487610519,-0.5152257849,-1.1630082313,-0.0211223836,-0.7950913546,-0.1392205016,-0.2394909607,0.825906625,1.1765803142,2.2177350066,-0.4832290619,2.131827843,1.0402980957,-1.6929276987,2.0086402371,-1.5880911831,-0.7822298127,0.2637410547,-0.6788932865,0.7216067894,1.1378509289,0.4652728693,1.4747149532,2.5378255133,-0.8142066573,0.0830329922,1.289905493,0.4467039626,-1.3841837204,0.2237233048,0.178325024,0.9265090474,0.6680633966,-0.4071519076,0.5872951594,1.5869597128,-2.1292037819,0.2844212669,2.3805984576,-1.7287965903,1.7842165823,2.351060156,-0.1080013908,-0.5236379387,-1.0808444069,-0.5539607089,-1.4034619566,-1.0153744677,1.2337342144,-2.9986559479,-1.7748769978,-1.9063968485,-0.5813805201,-1.6918854781,2.13520723,-1.0601097114,-1.7273279797,-2.3605775547,1.5237139707,1.5348022729,-1.455761396,-0.6093444754,0.1316852157,-2.6812141353,2.2828513391,1.6807343012,0.4898240373,0.1838832916,-1.6987571706,-1.0799909719,-1.6859938593,-2.2792408421,-0.9225881055,-2.1991516064,2.1092829557,0.3431281817,-0.4460833267,0.0122887081,0.6185351517,-0.0985302165,0.1632968082,-1.5716335372,0.2272512715,0.3226855733,1.7703530747,-1.4727379464,0.3698425371,-1.5632017205,1.807442314,2.6468459638,0.6254316584,-1.2987655419,2.8103699404,2.3116934578,-2.1229239383,2.3133535209,-1.3174174228,-1.012100912,0.1848831443,-2.3152700131,-0.1341853963,0.9087940379,-2.2157235932,1.302521772,1.971752214,-0.7527890387,-1.1743043508,0.7594749485,0.2159653083,-0.7794980325,2.1967521465,0.8929172998,-2.04152327,1.255564236,-1.442958474,1.1998045828,-0.5706822516,-1.8446253552,0.4774143494,3.045344058,-1.9759841651,1.6465736425,1.8307883178,0.3203372002,0.0564527705,-0.8763959477,1.0355361524,-0.6082059872,-2.025267315,1.4036792977,-2.0484803473,-0.7882848497,-2.2250847034,-0.632637131,-1.7704868961,1.806488696,1.0981317856,-0.9079575081,-1.325583702,0.5032690781,1.3554368973,-1.9123121265,-0.6377348651,1.5353048039,0.0362464846,0.3126786136,0.2728985958,1.2277842644,-1.6125095773,-1.600325538,-0.3020052366,-1.7801522128,0.1735139596,0.5050634921,0.0225952977,0.3490707689,-0.0459240915,-0.9693771005,0.0686675101,0.1991042565,0.5369137467,1.5080109875,-0.2519942521,-1.453841955,0.2908985162,0.6193240139,-0.6875268487,-0.3374989522,0.0214117959,0.1685613645,-0.623783179,-0.8756378229,0.8751048987,0.3910236661,0.1637386114,0.2024258191,0.6045951422,-0.6589714669,-2.4010457696,-0.6617750889,-2.5674591562,0.7478951665,1.0504880598,-1.0271578374,-0.5755542368,0.5159536752,-1.3090507165,-0.4038369552,-0.7089226838,-1.1314763033,0.4449259344,-0.4729290451,1.8578906301,1.3102627163,1.5986921431,-0.1400024938,-0.3760236355,1.9388219171,-0.0151121856,0.3202482318,-0.6478372326,0.0515881415,0.6983724708,0.3257248266,0.1638338342,0.1228354393,0.6811472919,1.2722729685,0.2212596713,0.032204025,1.2986606308,-1.196714184,-0.4520797209,-0.0392231283,1.2129439485,-0.1819952239,1.0071891115,-0.7998441281,0.7120293526,0.9739480625,-0.4590285879,0.5719455331,-1.0366724722,-2.1600503855,0.8514793996,0.8511583103,0.9530544686,-0.4755021342,0.1628686843,-1.440196035,-0.4704476974,0.7515039788,-0.3961910649,-0.6616160695,1.2406822317,-0.8858889807,0.0621383856,-1.3199337655,-1.0523850354,0.2612061674,1.1469298532,0.9033477342,1.3356503824,0.2019141517,0.1274107787,-0.5474016119,0.0235127137,1.5516667132,-0.1607767275,1.2998978054,0.9355624471,-0.3487885584,-0.8708703068,-0.3268475123,0.8641152961,1.9155740412,-0.9291009853,1.363597516,-0.8044750962,-1.8878519442,-1.1585114758,-1.2302676713,0.4066041505,2.012344143,-1.7577730209,0.4784134533,0.549315384,-1.49154577,-0.227978659,0.5846392076,-1.2360941416,0.6873744506,0.4025910997,1.9605622152,0.2324902113,0.468462507,-0.139909752,-0.4656107053,0.4509864197,-1.2490726048,-0.3493627633,0.0332190497,-0.3420535113,-0.5793533575,0.8332032568,-0.8360954206,1.0959902433,0.8497680432,-0.2877583789,1.2540554688,-0.1168070435,1.2003187759,-0.6275051305,-1.4177354451,-0.4313131189,0.8221299366,-1.5728370582,0.4394979725,-1.0392130974,-0.0231180225,1.4158332009,-0.9235478216,-0.0186940729,-1.4903359322,-2.5597325408,0.5386223329,0.0095069015,0.1541846804,-1.3159520074,-0.5004311084,-1.8605632853,-1.4926566779,0.3286157858,-2.0567781051,-2.0764107904,1.1888166523,-1.2926214239,-0.3582178676,0.0408004561,-0.6402925057,-0.7613198983,0.8241325041,2.2104458818,1.3284934174,-0.4260380993,0.9318131774,0.849140023,-0.618071338,0.242043001,-1.3829993702,-0.3133198015,2.1813865023,0.3188429768,-0.4475124439,-0.1634243513,1.0768740276,1.4395423288,-1.5601278419,0.7120830344,-1.6202748329,-2.3272492757,-1.0178686241,-0.6414710195,-0.7008866341,1.7911976508,-1.0209433293,0.8326132159,1.3600269313,-2.2613199645,-0.7515557373,-0.0887920622,0.3991880103,-0.615585082,-0.6076323246,1.2347732929,-0.3081076227,1.7315024833,0.9474054239,0.9134101467,1.3832117873,-0.3208458624,-0.2075280763,0.3584553762,0.2760340413,0.7446214545,0.2223934031,1.0766444062,-0.366834657,0.758997433,-0.6068961723,1.0424386537,0.1192154683,1.6478171904,-0.2947699823,0.3319918597,-0.2139237112,-0.336725388,-1.6466376515,1.5458860822,-0.4497015452,-0.7931882663,0.5295307057,-1.724311286,0.8751370961,-2.1984934543,-2.3924997452,0.972612956,-0.6943659948,-0.1557910106,1.7762420119,0.3182331168,-0.3611701653,-1.8395579332,-0.2755577666,-3.5286931185,-1.734962102,2.1658033712,-1.1123826273,-0.3098191126,-1.3290783453,-2.2334675407,-0.7110683346,2.1180109591,1.2486534986,2.6197505515,0.5087421901,1.1444400325,-0.3578869317,0.1229503526,-1.5292726073,0.0556657312,-0.7416668904,2.3404061601,-0.862261616,0.21151513,-0.751272641,1.0147206279,1.5653441719,-1.6731634786,0.8941783507,-1.1011442477,-1.9850499489,-2.8742550442,-2.8175994671,1.0487861518,2.3747456775,0.3610198952,1.7716997713,1.8348481494,-0.77044112,0.6839171025,-0.726830123,-1.0203500793,-0.5978921854,0.2042671032,3.1151230938,1.1551550251,2.4563083696,0.6920824413,0.2905117459,3.630292329,-1.7642591924,0.0542066478,1.8137357691,-0.0738942001,-0.7435321985,1.419613089,1.5319908621,-0.6915886183,-0.2681512415,1.4252199081,-1.1375839608,-1.276198615,1.5197840904,-0.9442111448,-1.2299151039,-1.1444894639,-0.3786128545,-1.2440100648,1.3913741929,-1.0460604152,-1.337416263,-0.9687742842,-0.372586461,0.1803169695,-1.8770302347,-2.273552498,0.5496319598,0.8777382614,-1.3296505832,0.4864486319,-0.5074589696,-2.6614977389,-1.7729119739,-1.2735068383,-2.2905099971,-1.8619586764,1.3763418896,-1.1271972291,-0.5621863965,0.2328597169,-2.652707117,-0.8070518927,1.321034214,1.8786838854,1.2928232786,-0.103757233,-1.4163625968,0.0234650373,0.151451304,-0.7241456718,-0.0492245798,1.1997173779,0.879264081,-1.1817114274,-0.0840997787,0.0284645548,1.9677573896,2.1924502602,-1.0633305988,1.1104623979,-1.0623767485,-1.6220293092,-1.476637748,-0.0944263264,-1.1037566927,2.6641303823,0.8140056203,1.5247561397,1.4103441696,-3.0124001678,-0.0296737739,2.3840372972,-0.4643598923,-1.4372558683,0.7169439187,0.500034272,0.3557795569,1.0126338675,-1.6698769548,0.1531013559,2.9773055693,-0.7849942632,0.8272602811,0.9376827566,-2.0619340545,0.5987662926,1.9100906279,0.167891564,-1.0970363873,1.5738049976,0.0498031827,0.2677439461,-0.3539466123,3.4737921623,-1.8026141344,-1.5113624518,-1.2771928056,1.1931295875,-1.3797547447,2.3347289946,-2.3813305043,-1.0400205418,-1.0047530712,0.314242347,0.7685101868,-0.7929551555,-1.3434240281,0.755447479,-0.2122853555,0.5207263012,-0.9323631297,1.7568016191,-0.1792926991,-3.0466181021,-1.3620821995,-2.2727536768,-2.5431120393,1.0874777623,-2.7963678698,0.333754394,0.3078914786,-0.5367765335,0.4995081653,1.8669314246,-0.3930274401,0.8881812953,-0.5751952506,0.7902063573,2.1096189218,2.1589330326,-1.4964472615,-0.283930881,-1.3717087165,2.373268724,-0.5391850498,0.6393937161,-0.9926770055,1.9068166448,1.8881144152,-1.2843500116,0.534802838,-0.4160397885,-1.6880885494,-0.2909524233,-2.5396177994,0.4027712513,2.7481265578,-0.4485233249,1.9021252364,0.7003151105,-1.9012696204,-0.8482312273,0.4439498925,-0.9479614443,-1.0821282422,0.9192569019,1.2848632358,-0.6935289161,2.2390564982,-2.3840213511,1.5830701273,0.7622998936,-2.229857244,1.729101789,1.9633193572,-1.6617850758,-0.0761115542,1.2886788122,0.3725055157,0.5024475124,2.0327563384,2.8311000875,-0.4894006652,-1.1411570212,2.6828225901,-1.2016408749,0.1155541797,-2.7427182204,0.3973855295,-1.4318944771,1.5832501501,-0.3574332349,0.3670429426,-0.4213263008,-1.9069418593,1.3825994346,-1.6330387985,-1.518525397,0.499619571,0.2132076691,1.1406805237,0.513914998,-1.7434315979,-0.6275774499,0.4186466477,1.6842291709,1.5324013532,-0.1503995821,0.5043133167,-0.7901665279,1.272871733,-1.8773113353,-1.3075888594,0.0008619037,1.1656801543,0.4709232287,0.4386745458,0.4437742736,1.2293130333,-0.2703028681,0.132447114,1.5150124503,-0.1770201902,-0.3219786936,0.8654912978,-0.2004829063,1.2931333223,-1.3590191031,0.6923051619,1.6362279294,-1.2295036073,1.1277132835,-0.0958732868,-0.0411533606,-0.7022264042,1.2363426037,-0.1776200274,1.0767544077,-0.6740128588,0.7470247433,-0.0185328845,-0.2657193696,0.6340744621,1.2161229407,0.0063959468,0.1776778629,0.8531254332,-0.3842819599,-1.0774163701,-0.7454702579,0.2935843735,-0.207038292,-1.0846662706,-1.7482912832,-0.0956930661,1.1893468466,-0.2737723976,-1.3872484882,0.6560147045,-0.7980496246,0.9564973797,-0.693046745,-0.5376921717,0.7274055403,-0.7286592521,-0.078817698,0.8125192404,-1.5056326514,-1.0546699346,-0.6077400209,-1.3590309105,-0.2738204898,-0.009625823,-0.568087304,-0.7915651153,-0.1018835589,-1.1457207128,-0.1908407983,0.4066199287,-0.7236717333,-0.0278939735,-0.3483827928,-0.4436663834,-2.1048584647,-0.3720577771,-0.2786388788,1.0331659682,-0.0236253304,-2.0325394361,0.7114726872,-1.3972282407,-0.3584046699,0.2758099579,0.2258722712,-0.829631323,0.8267244593,1.8191429991,0.4232115985,-0.0322942875,2.3181137028,0.5822603132,-1.6247012676,0.6117701986,-1.8090197221,-0.491002349,1.7442904009,-0.1629118094,0.7552415054,-1.6654450937,0.9347245183,1.10683807,-1.8966687715,0.0766935982,-0.712429869,0.283222199,-0.8854649433,1.3873456408,-0.8066026473,0.4410999203,0.6542048263,1.5879707477,1.1563176022,-0.6397032171,0.0653306434,0.9052382745,1.5397041776,-1.2434156084,0.5722777806,-0.2974314522,-1.9315438195,-0.0847681211,-0.0136610574,1.6321827427,-0.5804291257,-0.9788840426,-0.0564551112,1.1409205812,-0.1480108663,-0.524473266,-0.2813499044,1.2635558411,0.223468507,-0.2277215075,-1.6624195549,-0.1060689254,-0.2080591123,0.8917525151,1.4867458562,0.0501479027,-0.6406516671,-1.4399091195,-1.4018766923,0.5759321545,-0.02124486,-1.1921734695,-0.7407633156,-0.6289837014,0.1315104524,-1.1616134494,0.3533702134,0.3645942287,-0.2919630612,-0.4519137015,1.5401616803,-0.8082493325,0.5249978376,-0.0756035321,0.8473278914,-0.4978754049,-2.0477301438,2.2030530202,-1.2929177223,-0.3251380881,-1.0391393813,-1.2200573473,-0.6334866472,1.9234832817,0.6022996792,0.8263451962,0.8534951883,3.1901764307,-0.5478175896,1.7567274144,-0.755495209,0.4874686709,-1.4325928305,2.5978245378,-1.5919497213,1.1852019214,-1.9496010892,0.5358743878,0.8332074096,-2.0171419183,0.3499484434,-0.6058105696,0.4105382924,-2.1501252587,0.2218946616,0.3447861825,1.5191611374,0.339297366,2.3142435392,0.9530229335,0.2841000897,1.6309792394,0.7704305863,-0.5407078103,-1.0878049429,1.0389470734,1.1925202051,-0.5157104439,0.598967026,-0.2912526964,1.126057559,0.9691312346,-2.1404143499,1.0219050139,3.3101670514,-0.5875264535,-1.6282286251,1.6833039561,1.6899197124,-0.1281551731,-0.7789811134,0.5632612918,-2.2697657358,-1.3494467049,0.7028012721,0.3665617021,-1.6202767176,-1.2334405881,-2.439768673,-1.1141399775,0.5686498515,-0.7399152664,-0.7712132276,-1.6290130552,1.0151232565,-0.3982858819,-1.1203487505,-0.2070001031,-0.8018501563,-0.0866742916,-0.9235093106,1.2853316803,-2.7095147179,-1.0070006033,-0.3899077761,-1.0551842462,0.0230694998,-1.4644847229,0.1026328653,-1.4710027525,-1.1204670664,0.9420476234,-2.1055447865,-1.2162643735,0.9779182117,1.450064706,-0.2488760097,0.3839354628,0.4978969992,0.0091355166,-0.3974571572,-0.4749977169,0.2793334602,0.7938878219,1.4962803498,-0.8991816436,1.1369562275,-1.602482631,1.7436573969,1.9898694527,-1.5996950079,0.2858601439,0.0999792821,1.7317444774,-0.7374858434,2.3180502089,-1.8741984555,2.0292852774,2.3662746822,2.7790326977,1.1195091725,-1.3142180621,0.7885031686,2.7865626432,1.1915423133,-1.3920493213,1.8590028634,-1.7979748189,-0.8844170769,-0.4876204433,-2.6490375146,0.7929792417,0.1247425041,-1.0132284573,-0.0207989988,2.3058562968,-2.5568616255,-0.9204322236,1.3771775624,-0.4142101609,-0.6905346468,0.7294045671,-0.8357060265,-0.7042144847,-0.5371211701,1.801983182,-0.1273356934,-1.7926507014,-1.8181135402,-0.3353536605,-1.290208335,1.615492967,-0.8700424371,-2.31468378,-3.8344873106,2.1702801445,0.2353740551,0.8141871756,0.8227834568,-0.3392457772,-0.6876250839,1.0775179514,-0.474988608,-0.4467186739,0.7250237144,-2.2242313164,-2.3198934471,-1.4598307299,-2.4656477619,0.2409817142,-3.1322352502,0.6072000118,-0.2888301164,0.1931290931,0.3601230277,1.7432190847,-0.0941869868,-0.6350503503,-0.1218753878,2.3253514256,2.7624799636,1.1150730194,-0.6828305227,0.3546782118,-2.8172466259,2.9972589523,0.0262806717,1.6091635628,-2.0470418758,1.8631017131,1.0569518252,-1.9159012648,0.2650685115,0.0387171321,0.6775463123,0.4702891018,0.030673253,-0.2469599591,1.5099287385,-0.2923551606,2.4684719437,0.0388018912,-0.5162548343,-0.1034828537,1.5016199399,0.479783742,-1.496190147,2.1895723764,-0.5017334345,-2.6126252942,0.7705486469,-2.7978136732,1.9188478397,-2.1464601228,-2.0373567517,1.2408765961,3.607331202,-2.2591784443,-0.3012902058,0.9812639275,0.6660883187,1.1796975964,1.1579139446,2.3694224964,-0.8296231374,-1.7917191109,1.6897848807,-0.0453512522,0.2040356113,-3.3977648017,-0.911917255,-1.4329249178,1.0147896178,1.0916536814,-0.1378840345,-1.1630544144,-0.1467743552,0.3048116155,-1.2432342923,0.7017989629,0.2888556307,-0.7266016333,-0.7649430885,-1.0364520568,-0.460822645,-0.303702693,-0.6462230962,-0.0864887509,-1.3102896725,-1.7085607352,-0.0300569363,-0.703621199,-0.8420972633,1.2197212925,1.2174262657,-0.886980422,-0.7255614044,1.6268008224,0.1769151752,-0.7644342836,0.4697864126,0.9941502582,-1.356349138,-0.7921620499,-1.0946872265,-0.5404031822,0.4888181667,1.0298830978,0.2509644461,0.1807614001,0.4189107832,-0.7987755229,-0.6205058443,-0.9189581284,-0.7183218282,-0.0795151533,-0.3294852864,0.3506782377,-1.5527206136,-0.5270893589,0.3490876407,0.3087137715,1.1257225717,-0.7038841238,-0.8434352648,-1.1124268855,1.694398974,-1.4923310508,-0.6358596842,0.3236697248,-0.6912122994,0.6592302011,0.1341398343,1.5664900672,0.2912287251,0.7374659129,-0.1097777385,0.0730712541,0.3363220323,1.0577113682,-0.5189060516,1.8665375492,-0.6882343074,0.605439608,-0.4652879135,-0.6727290763,0.3177285194,0.8225734845,0.1467952723,1.7990973343,0.1324151694,-0.9552772172,-0.2894860454,1.3580874058,0.2498572319,-0.6695587663,-0.6103555488,-0.3566558047,0.9514983972,-0.8538254684,-0.1178550471,0.5774070399,-0.9123856032,-1.0702185859,1.3315303787,-0.5840068065,1.0224185087,-0.6058702863,-0.6174033386,-1.6603975984,-1.1690255502,0.8059378843,-0.4602998322,-0.5600730479,1.0979804331,-0.7068844301,-1.1020600495,0.4197917619,0.2742426435,0.6081258671,-0.2233448164,0.5446396104,0.345260426,1.0449301749,-2.3992571357,0.4696212511,0.0856643648,1.2267701684,-0.3688050875,0.0787821455,-0.0075429859,0.1707184082,-0.8225738396,-0.4833749175,-0.9324652237,-0.6974282134,0.6696527686,-1.7265063766,-0.3395557577,0.4163132673,0.7873944911,0.890633604,1.3107123543,1.2010611418,0.481082453,0.864421508,-1.2223181476,0.0151383472,-1.3430372033,0.0100374307,1.2971558723,1.1050613075,1.496143594,-0.5477762758,0.5934936055,2.5566351482,0.0868025811,-0.281054435,1.8356942449,-0.1326685733,-0.2795737417,1.0694425554,1.9987755935,-1.3875017747,-0.3590624634,0.956196341,-2.3222340794,-0.9465581661,0.7553415694,-0.8551583101,0.2549250811,-0.2328824386,-1.9252531819,0.4480466574,1.6360985889,-0.2663951061,-1.1402798561,-2.1324692928,1.437011662,0.2939103771,-0.3263895119,0.0240673638,-0.8741249935,-0.0989170835,-1.6903243287,1.0489951463,0.0565774641,-1.5189173029,-1.100624985,-2.0894346476,-1.5442794348,-1.7089582103,0.3808208848,-0.2451215777,-1.6813645709,1.5900454519,-0.5573741879,-1.1093943494,-0.3281522343,0.7791670709,-0.2245587186,-0.4619338176,-0.9818620618,0.0226373741,-0.5936150453,-2.0677858469,0.1101905392,0.9500039548,0.0999737219,-0.6504013515,0.7119259219,-0.0420749062,0.9975278774,0.2747926955,-0.4767812726,0.1515469649,-0.4927313306,0.0319198687,-0.3285651275,1.1969303101,-1.3015729343,0.0117895725,2.256164723,1.3402645292,1.156775953,-0.7404003267,-0.502308698,0.8114565559,0.93067301,-1.8491902077,0.6457729716,-0.1507968612,0.4294199422,0.5292432052,-2.0327566067,0.9448673954,1.2865607629,0.1658685101,0.7116682583,1.2783480159,-1.8910368296,1.3315142194,1.2347711042,1.017355225,-1.9126583295,0.7518009977,0.2442050471,-2.0796183337,-0.0383293756,2.4187392661,-1.8950829947,0.3880463947,-1.1062961747,-0.6780765258,0.4152308361,2.1410794024,-0.6602121769,-1.5406522181,-2.2801487126,1.7903474541,0.7534018615,0.4281630625,0.8890222644,0.610713863,-1.3755912195,0.1078899397,-0.7049765525,1.5767533663,0.8069125145,-2.9922857583,-2.7712076252,-2.0740941135,-2.6500986097,-0.6247954684,-1.6327678343,-0.0686069136,1.8567940756,1.3558591967,0.3601274528,-0.6043702107,0.2451048891,0.0534890816,-1.0277689545,0.4483208316,2.9981138503,0.4113046127,-3.1339945687,0.9490327029,-0.8955913272,0.6621279596,1.2860023085,0.4358939438,-0.0418347017,1.8000056073,0.0807394633,0.0892845147,-1.0005890503,-0.5394628281,0.1535580532,-0.2537960216,-1.8446886567,-0.1334539781,0.2008477862,1.9171966517,1.0390795117,0.4718726683,-0.7426131515,-1.9177428603,-0.5438898246,0.689727033,-1.6169862303,1.328049624,0.0872271813,-1.453787403,1.8712950957,-2.1843904947,1.6863500632,1.0526670972,0.4770718683,1.5265211693,1.5641315834,-1.7360456664,0.7851935236,-0.2246002828,2.0754402606,-0.7981184832,1.0584997269,1.6879381721,-1.465534123,-0.779409082,2.2274633702,-1.2383274827,1.931738843,-1.9770393581,-0.1865041803,0.0405482196,1.9041309362,1.6642707135,0.2046336242,-1.5645801692,0.3061065126,1.3498028297,-0.6509453032,0.0265947488,-0.4811457224,-0.4221273856,-0.2426813149,1.4647311756,1.5528501937,1.6980616534,-0.248856911,-0.0573124613,-1.0354023925,0.0067550357,0.9717651875,0.0896113897,0.4896840306,-1.2623790474,-1.3537152233,-0.2069216162,1.2598448962,-1.2917589826,0.5460012212,0.1753189204,0.4884553179,-1.6340531916,1.80461481,-1.487886835,1.6232207154,-0.1179659022,0.3264856584,-1.3348342814,0.0549204892,-0.4334944799,0.2816979425,-0.2796481807,-0.2587332497,0.5541508999,0.0693380587,0.5346129737,-1.0098418542,-1.4897468316,2.1692134809,0.8895555242,0.51105914,1.1881931456,0.1134203061,1.068156152,1.4563761031,-0.6115224188,-2.0394211715,0.1083457497,0.7395080052,1.3190740882,1.1063374179,0.8411363057,-0.3223981766,-0.7250903842,1.8068165683,-0.8520483091,0.0173638474,1.526091555,-0.7037043598,-1.0635216159,1.6584435216,0.0996913429,-0.2173952848,-1.1957418116,1.6300077919,-1.7686747827,-1.4091374917,0.0260261354,-1.1880851547,-0.743850811,-0.5539811293,-0.2967804186,0.2240951203,0.2018551476,-0.5816053044,-0.3710452206,-1.1190807595,1.4530422101,-0.2883431897,0.1009579296,0.1440612714,-0.1507900961,0.6339765181,-0.7135321971,1.3036483888,0.4088313811,-0.1393548302,-0.337094162,-1.5264608364,-0.1084894602,0.053341244,0.5887383283,-0.5074002239,-0.2577436036,0.043797038,-2.2369650211,-0.2128527441,0.9395010485,-1.2466108962,-0.2529473286,0.4893924478,-1.3655246717,-0.4954176718,0.7411406073,-0.5010888286,1.1315662055,1.4612401641,-0.5092846511,-1.0988948869,0.3333651069,-0.5388750828,1.0006376398,1.0339840407,0.2068999862,0.7555319372,0.0374477226,0.9276634429,-0.0071782734,0.2715283443,0.5754196008,1.3741010028,2.0584141226,0.9694556899,0.1552260722,-0.7639115917,0.6388632781,2.005424075,-1.5863759293,-0.0752069372,1.6628994161,-0.9593075313,0.2225692645,-0.0855055164,-1.9387805134,-0.5103664671,0.6664218369,-1.0170056702,0.6849557992,0.7946017029,-2.1616209677,-0.2330481403,1.963117207,-0.9861796562,-0.0097203191,0.7864911204,1.0082053026,-0.7215847512,-0.7479267057,1.3963089466,-1.6807045202,-1.3184451108,-1.0403520815,0.5099195082,0.0257065581,0.687456452,-1.1019153803,-0.5753138403,-1.5412108368,1.6305231361,0.2294864067,0.7566122305,0.7820164235,-0.7380836828,-0.6199546078,1.5248644658,0.2599328148,1.2123688449,0.7546195632,-1.5420284644,-1.8961012006,-0.0522255518,-0.1597346313,-0.6635017406,-1.3409009689,1.7080230402,0.0596245286,-0.814672569,1.3649374715,0.5761844094,-1.95137686,-0.6141555696,-0.7260102508,-1.1952338936,1.2097488458,2.8084096091,-1.4674818621,1.6885507967,-0.495683442,0.5252275084,0.8710312543,0.0900495786,-0.3270281505,1.3874284372,0.8560608823,0.6441784455,0.8215449708,0.4783896269,0.3609396339,0.8303596082,-1.3346341117,0.6617819737,0.1353056807,-0.2887704944,0.9348275444,-0.1081856375,-0.1721679707,-1.1368124307,0.7131346379,-1.5064390999,0.4424207722,1.9555612889,-0.0426235473,-1.3608417776,0.7765408308,-2.493633797,-0.1218572359,-0.8891980584,-0.7956278139,1.464094391,1.2781119121,-2.3023029203,0.2528427005,1.4199450461,-0.7724964695,0.7041138879,0.6825210997,3.2800670378,-0.5923113022,-1.3727883071,1.0636227695,-1.5086936554,-0.1665580211,-1.8262286002,0.6170875371,-0.1452688111,0.4548095258,0.7262600273,1.0683307147,-0.6150740579,1.020392365,0.1607283213,0.2926657226,0.0513095203,-2.1008871637,0.7209453979,-0.3311078449,0.0562043135,-0.2094722671,-1.6168159091,-0.1895795164,-1.1449104491,0.6178349826,-0.3261800555,-0.7330403035,-0.3287029519,0.3417363369,0.9716453994,-0.2602546454,-0.1926507296,-0.455634714,0.478004488,-0.4468682606,-0.1543276202,-1.9132372988,0.6098074145,-0.7348392347,0.3048884312
   0.3491680648,0.6375574717,-0.7195701922,-0.2490793214,-0.0782668873,-0.1144481188,1.1156081538,0.9818520113,-0.0250441948,0.5804564219,0.0350052255,-0.5108004304,1.0272321555,1.2724455203,-1.7015153352,-0.1698300881,0.3579632994,-0.0326743261,-0.1131094394,-1.3648703948,-0.292324363,2.1326466617,0.5941952362,-0.7128151978,0.7991536939,-1.7774663338,-1.0272697789,-0.9861282792,-1.4258347499,0.2109678017,-0.8808496291,0.3077340567,0.8504326568,-0.382696119,-1.7146899936,1.3092763224,-0.0386928227,-1.266489389,0.0795203878,1.2255941538,-1.1090180448,0.8049136661,0.4047173815,1.1572270892,-0.4174523868,-0.6316100532,-0.6031202572,1.1660729982,-0.4859009116,0.4590135426,-0.5072599137,-0.3507446071,-0.2242987812,1.1084614438,0.7572133244,0.7257659793,-0.0005099286,0.6075400401,-0.486300552,1.2880087359,-1.6162501148,0.8618032546,0.213162343,-1.7251959849,-2.3655434175,0.4115248231,-0.7201818022,-1.8328850498,-1.4928612739,0.6768276673,1.5619272375,1.7135671352,1.1809788199,-0.5217496098,-1.1436710374,-1.1030923789,-1.0560418922,-0.7062192261,2.1555264812,0.9893438486,0.0880566306,-0.2090872421,-1.3980380133,-0.5817018421,1.4934095378,0.1514654312,-0.0884397586,1.3144207773,0.7872963923,0.3734822414,0.1033487767,0.1534369855,-0.0723356158,1.7154012548,-0.7314162906,-1.0461002078,-0.1592979885,0.1654069147,-0.2257136948,-0.2456962749,-1.2801619813,-1.7734866651,1.133953702,0.4347657213,-0.4890521937,1.5769949808,-1.3652476157,-2.0511823997,0.2746578646,-1.9964170283,1.1301192813,-2.7800927147,-0.3806668484,1.2630024314,-0.1224303356,-1.3180876139,1.1241015037,-0.5116492906,-0.7322007149,1.2649632244,1.6962999116,1.054898584,0.8249210869,-0.2782452252,0.9800851717,-0.4332342664,1.0469220077,-1.7200778679,1.1093155068,-0.0544483326,0.7382748484,1.3233026751,0.9102049786,0.706627724,-0.3890352097,0.8922862723,-0.4758225262,0.4922170544,-0.1483675144,-1.045366667,1.8104992938,-1.5644795355,1.6338876597,1.778539852,-1.2701220291,-0.6069511586,-0.109019269,-0.7251287787,-0.8480505329,-1.2836310647,0.8353563574,0.7273096732,1.6398741815,1.3773371668,-0.1305899508,-0.8397050011,-0.1345284561,-0.7562785065,1.1962624995,1.7315900891,1.9584888883,-0.9268758102,0.3469327561,-1.7401688433,0.971718056,0.9839175645,-0.7426882883,-0.3256947126,-0.0164773694,-0.1399609258,0.1507118825,-0.18464052,0.4166013714,-0.6367345625,0.7403296542,-1.9800457182,0.7377483413,-0.3069931329,-1.3616409515,0.0773781966,-0.5396346293,0.0451934148,-1.1047749647,-1.0139452485,-0.1955310487,0.4308943813,0.278113751,0.9564836694,-1.2052819507,1.0191903994,-0.6630207077,0.8332885984,-0.8353733608,-0.1249006271,0.3685397418,0.7577935249,0.0356554424,-0.4118976174,-0.3281925396,0.7830341445,0.9785572588,0.1541711533,1.3266647431,0.126038103,-0.8044509462,-0.1660987014,0.3974342311,1.2097141098,-0.7905153887,0.0011281667,-0.5530401395,-0.1559076137,1.4607268177,1.3259755955,1.1626758615,-1.5592134981,0.8067871287,-1.2449211163,-0.6053213488,0.1744771936,0.5987592763,0.2752713379,5.2893650007,1.2562260934,1.7665344786,1.9258263155,-1.4345386731,-0.4838985458,0.256654465,-2.0827233713,-0.1554333788,0.2143552242,-3.5243557091,-0.567995662,-1.2429975617,-2.8602124448,0.3162497345,1.2441942325,-1.8609269397,0.6231838794,3.0908286428,-3.9633849145,0.2673055025,-2.1407263168,2.4232406882,1.1924366846,0.3852119545,0.2283356846,-2.4915694611,2.486100894,2.7264003693,-1.4396706621,1.9589208244,-1.5148464126,1.9610553718,1.7951637414,-1.3696512407,3.7125614685,2.7529504001,-0.2537051142,-0.2006640225,0.7586101689,-1.4028087699,-0.7798179352,-0.1207523439,-0.1331949564,0.9021508851,0.022415598,-0.8882414119,-1.7551662295,-0.7739187089,-3.1165891956,0.5896287373,1.1735340895,0.7571902705,-3.6007906263,0.9945022592,-1.8953078115,-0.8373535933,0.3438860691,1.5987591206,-1.364852472,1.2613698936,-1.758941197,-1.0831455576,-0.7199188365,-1.6421569903,0.1054990334,-1.0968782254,-1.3399222826,-0.9821958948,-0.6829599938,0.3707844104,-2.2135326786,4.0219635361,-2.111922534,-1.1950196585,0.8824009342,2.5285378285,-0.6897064926,-0.0765412637,-0.0377219289,1.9358588659,1.8126442449,-1.271254732,1.9745748748,0.145501636,2.487497904,-3.3042151644,0.3838436735,-2.2750058352,2.6170291101,2.2414614557,-1.2737658534,1.3326971889,-0.2687820049,2.6658838384,0.3881735763,-2.1089275143,-3.023196048,2.4528515182,-1.300532045,-0.5454841851,-0.0197520068,-0.4105735639,0.7442990811,2.3289498392,0.4662802843,-2.8708544293,-1.7101298446,-3.6492534322,0.8277579307,0.4848678447,0.186915598,-0.9275334779,-2.5926859443,-0.926473393,2.0985257629,-1.123717096,-1.0591810228,-1.9971311372,1.6419989861,1.6459292034,0.6415509669,-1.0884107208,0.5993649882,1.5625044802,0.8167401698,-0.0529855039,-0.1151565538,-0.6722580564,-0.8830324942,-0.373102742,-2.0451713343,-0.6339090054,1.5853809622,-0.1443047151,0.6181573489,1.9246839286,-0.3452015166,-0.397317927,2.2032840252,1.641813029,-0.2069341532,-1.3111873619,1.9731343847,3.1333584658,-3.0732883174,2.6971542113,-2.4841489391,-1.2909152338,-2.0467172542,-1.5031093521,-0.5257134446,4.2126116863,-1.2435178928,-0.620270171,1.1326724447,3.938537937,0.6555738271,0.9709278974,-0.0565328408,-1.0176870636,-2.3423851904,3.4558869977,-0.6096813339,1.357650603,0.8494764347,-1.2278735853,-3.4935160685,1.3955736572,-1.3983472498,-0.2401943949,-0.2553900108,-2.5785576298,4.3621787117,-0.4537139847,-0.8779010963,-2.1824601646,-3.6974424949,-4.2154635981,-0.3098864803,-0.72205577,-2.6699692095,-1.9116397998,3.1858633166,2.0557722205,-0.3506826293,-3.5400926318,-2.7113794273,1.1654380007,3.0486847747,1.5419442865,-0.5979678755,3.0228424504,-0.233272149,-5.2768393957,0.3854196992,3.6346497265,2.459359913,-0.198967853,-1.4522305494,-3.8465147594,3.4719118194,4.9425859639,-0.9203803498,-2.3772420668,-0.8783256497,0.4079512477,-1.5588396114,-1.3860087456,0.5745641956,-1.7388526211,2.0088745379,0.6728884188,-2.2447615549,0.4280499233,4.2312542951,-0.0790547289,0.8678804877,-5.0265506053,-1.5338049505,-1.7980767505,0.0797366588,-0.5148742505,2.2423812016,-0.5607843142,4.6180884725,-0.1414571618,0.9914821486,1.3870785595,2.1415202687,3.2491315762,-2.3206004624,-0.0536908916,-2.2597202631,-2.0904999834,2.3731561608,0.9412043632,0.7961414987,0.2745883409,-1.5575578281,1.1128879417,0.2460822797,-0.3634125644,0.1276188149,-1.6334893012,3.2709293576,-1.4400923111,2.882301133,-1.5593567173,-2.2907711034,-1.2417317698,3.5756389479,-3.7457462423,3.1142180561,-2.0988678289,-2.2457951538,-2.3603338938,-0.4593558411,0.7702135317,-0.9692008374,-1.0459276903,-2.6097195133,-0.2246312189,-2.2745320447,1.0932794561,1.5387420992,1.0861414195,-1.7039014256,-1.4092994626,1.3401221013,0.9467932487,2.6771745515,1.3181955391,-0.216790058,0.4855066811,-0.5069950438,1.6026260716,-0.3821447737,1.2922086923,0.4907754209,0.8725687659,-0.9415800691,0.7039881805,0.0199003612,-2.2593396917,-2.2603444831,-1.0246790525,0.4875556886,-4.8358346918,2.6749882429,-2.0081642406,3.4503344356,-0.0636557037,4.5116695875,1.2628178192,-2.3726469016,0.4590396021,2.3146633397,-2.9944995494,0.3651987775,-1.8620643447,2.2160165529,2.1783587026,-0.3198313789,-2.2045262571,-0.483427987,-3.7097340562,-0.6009683133,-0.7048414916,0.1821437555,0.5781910086,2.4145294164,-4.0880093811,-0.9505614979,2.1546109185,-2.0904894994,-0.2073677946,-0.2084139006,2.0371686732,-1.4287149398,-0.8130498363,-1.2890749951,1.0884902254,-0.9535327355,1.7016859293,-2.5399704523,0.6486840104,-0.8600083413,0.1099252318,-2.7616591472,1.3117985868,0.0980417283,0.8598019393,3.7944604958,0.663015017,0.5027816319,0.7503077218,1.2370923997,-1.7174453708,1.4041004015,0.4668224853,-0.4290654889,0.034477136,-0.4229365988,0.9327128136,1.4976527413,0.8651678425,-1.1892109804,-2.7426889437,-0.2250033844,0.0874069961,0.6077324254,0.5853308381,0.0140106143,-2.8295190126,4.3961408472,0.4425366159,-0.1137492935,0.6198186658,0.1339333812,1.4193187756,0.3311681639,-1.2908299707,0.4312225517,0.2018449382,1.5802595568,-3.7334105002,-1.6392298684,-0.2608385821,-1.7048002614,2.4884632163,-0.1681613455,-3.286970602,0.4627194218,-2.4149761057,0.3886336171,-0.6601133759,0.7845399958,0.2504541264,0.6478287695,-2.3621598584,-1.0131380521,-0.1545309607,1.8997206243,-2.9302485048,0.2069733317,1.2290917216,-2.4761127568,-0.2050058158,-1.5785065961,0.8671216572,3.2241118127,-1.6816931899,0.999572823,-1.6683548368,-0.8251828236,3.9490719256,-2.4938172511,-0.4893246163,-0.3986619815,-0.5270278749,-0.6853806952,1.1054668597,1.3351173093,1.2195220195,0.299153959,3.8513550493,-1.9395914274,-1.9400489563,-3.3503785208,-3.419022404,-2.1651168221,-0.803612041,0.3252240225,-0.9634846628,1.5810783261,-0.3862774952,-1.5539767036,1.1057008486,1.2708720062,1.7910148296,0.0118129038,-1.1907431959,4.9221645436,0.4955701765,0.158146812,4.547315691,-0.7065653205,1.6767501528,-3.1904394048,-0.4621268193,2.7328949338,-4.4175476063,3.6064877365,1.9305954461,1.2859961078,-2.8618569897,0.9413921969,-2.5017757629,-1.9011017954,1.277921177,0.4699228358,2.031499443,-4.2055634943,0.4017466188,-0.5027256543,1.0577679072,0.0199287566,-0.996755874,0.7133931733,-3.170306551,0.3391242173,1.5751351839,-0.5074459561,-2.5623662748,0.0350575942,1.4259540653,3.7863595896,1.178669214,-2.6988908974,-0.7695462546,2.4852277953,0.3912632936,1.8962809394,-1.9133192949,-0.608002729,2.6811872014,-1.2569166992,3.1882420998,-0.6508508922,1.8401828342,0.3127334881,1.1967706409,0.8922995017,-2.4418727124,-1.2617194188,-0.1872902498,-0.2863979842,-2.2115410334,0.1514566233,1.0741218515,-0.8773700817,0.0893147843,1.5596981036,1.5926046639,-0.592707541,-0.2170145873,0.6148707322,0.1072563353,0.0319011357,0.2816878876,-0.2558792848,-1.8393418269,0.9544578375,1.3481241075,-0.4408790625,-0.564492132,-0.4865092776,4.47643048,1.3839082763,1.7070893725,-1.9106789859,-1.2297418392,0.2192404672,2.4831203514,-1.4124258053,0.6347607023,1.2852786339,-3.3439784279,-0.7038304875,0.3587960739,-2.5546154023,-0.5209877996,-0.2990877197,0.038590726,-1.3918133588,-0.0236341955,-1.0150469369,-0.7236334902,0.5936544884,0.1367077626,-0.366668296,0.2991554681,0.3988143264,-1.2264907728,1.0945116789,-1.1859313706,1.4088688603,-1.4736065077,-1.0036444355,0.4069216864,-2.0359250101,-2.8916520031,-2.4918313934,-1.5297008489,-1.9179828612,-0.6567190463,-1.4309767922,-0.2282585305,-2.0308883437,-1.5175946236,2.2168641337,-1.0118296272,1.7503419967,2.2938444672,1.0116105121,2.3192277256,0.7566627705,1.048795405,1.3233482144,0.3568909449,0.1447256606,-1.7396226443,0.0443468924,1.6450010578,-1.0669505774,1.0721457197,-0.0365869505,0.9097309641,-0.0445519361,0.1776624637,-1.8554607636,0.2070461138,0.134211778,1.2187783441,-0.6080156779,1.9969322305,-0.610730576,-3.4933539499,-0.3668403424,-0.4519404261,-0.7454658496,-0.122456503,-0.0803531975,0.1479376031,-3.136284754,0.8254243842,0.8016211314,-2.1614630415,2.2830241765,-1.0903021679,0.9520424627,1.9336938349,0.9415501426,2.012973619,-1.1646693235,-1.9632960274,-1.2261866761,-0.2773823116,-0.3020784156,0.9752555596,1.358125096,3.6909946365,1.6635159609,-3.7867839798,-0.9015801343,-0.607361671,-0.3525008529,1.4468195489,-1.2230508612,1.1601050282,1.4576637977,-2.3574815735,-1.0136132541,1.7344507701,-1.945507808,-4.1542808888,-0.8456825725,-2.4151705149,0.6970698305,0.5839185896,-1.0693232723,-2.0539142599,-0.6398148936,-1.186680224,2.5305336249,1.7386698355,0.469518606,0.155878548,-0.1640650771,-2.5033219617,-2.691057458,2.1942137813,-1.3528568304,-3.8779716431,-2.4962130959,0.9966497417,0.9360502783,2.6460492155,-2.4839508316,-0.4868056417,1.9826259492,-0.1350958013,0.9899098782,0.5924787466,-0.6128202175,2.9121438989,0.4736302089,0.8554342914,1.4614980041,0.2499285719,1.5067282948,-1.1532594957,-1.261099118,-3.2150975209,1.2933672184,-0.7408086625,0.0980154487,0.0942714488,-0.9570957384,0.4709969602,1.4465614576,0.0374758706,-3.5562477698,-2.9251714966,-0.2159117567,1.1672644885,1.1171113495,2.7721824692,-1.4816031016,-1.2338012513,1.7635321949,-0.8806889633,1.0169557891,-3.7702730783,5.2807901951,1.1469432154,1.2711899478,1.4789097363,-1.111594505,-4.0270971086,2.218561814,-3.864964793,2.2801298075,1.3380737966,-0.5543432019,-1.4357968614,1.8193740814,-0.4089093141,0.7382026949,0.0718331129,-1.1578665226,-4.0202733476,-0.5683488333,-1.4517536164,-4.6889417924,-0.1178532122,1.1528041791,-2.2550916713,-3.351687988,2.8920143374,-2.9069699717,1.1327748492,-2.0673688718,0.2009250425,-1.0194810217,-1.7421742219,0.8481321989,-1.4756279158,0.8386057127,-0.2396850721,1.7054743064,3.2942652545,-0.7669457439,-0.8597334512,0.5937469518,-1.829316592,-1.5745618564,-1.9745558924,-0.099294315,2.5660189574,-1.5369962799,-0.45772683,-1.238916105,-1.8805233115,0.4678836189,-1.1240663156,-0.1804443483,0.8308669212,-0.9403271688,-1.7768457636,2.1938176462,0.1493963536,1.0897054166,-1.6016732548,0.4244707464,-0.4889291454,-0.6718230126,2.3601700635,-1.0481663485,3.9222229412,-0.2696013901,-0.686201258,0.9845884075,0.2883384064,0.1687738472,-2.109265579,-1.3126333032,-0.8261239058,0.4546323668,-2.6796610185,2.1395769963,0.2064600849,-0.4522132612,2.0291175462,1.174658301,-1.4421474696,-3.3138130542,1.5222113577,1.5890962137,2.5080502095,0.670010171,0.0722829699,3.1207794326,-0.8154218536,-1.645559054,-3.8948304468,0.0201321517,-3.0633011751,-0.3307209626,1.4563165414,2.17685341,1.5661149525,-0.9224566069,0.386417125,0.4812414028,-2.3595852145,2.0718075354,0.4627748044,1.2995115169,-1.473035078,2.4358891105,1.6123881581,1.9749734713,-0.3367625671,1.2594031487,3.3173302247,-0.5322440773,-4.9072176355,-2.2748872599,4.5938680899,0.8001708354,1.2016884961,1.4758980577,-0.5102167648,0.0862608475,-2.0619552949,1.1012000381,-1.2536199889,-0.8078667466,1.9623590881,1.4430593036,0.0209812874,-0.8638961711,-1.8545902851,-1.9608441238,-0.0973519253,0.5586074042,1.7061557297,2.5573713069,0.7100068417,-0.5522096363,1.0512120666,0.0984849937,-0.1279851972,-1.4329383082,-0.9195629164,-2.9054442823,0.7227683472,-0.5226040237,-0.4036258465,-0.5947091019,2.1676414181,-2.4971762653,2.192605629,-1.3089206542,0.9358665641,-1.1090598439,-1.2781955143,-1.6404327853,0.005562608,4.3677385369,-1.2054664251,2.5103637198,1.076862894,-3.2493741623,-0.3078585124,-2.4977275429,1.4931519528,1.0596643907,-0.4798518722,-2.0595723641,1.0342562581,0.7876246948,2.943354656,-1.5333283092,0.1925828478,0.4750351896,0.9719899788,1.1038919647,1.0843067499,0.9669846362,1.4804089758,2.3113093361,2.7726812413,-5.9037642655,1.6752874769,0.2139054312,-0.2007118402,0.5021179593,2.3831575364,0.166317379,-2.4547731728,0.766875679,0.6131155538,0.1251800961,2.2914814919,-1.2461125473,1.605901832,-0.8151766188,1.7716892597,-0.4135856235,-4.6051737334,2.0342136214,-0.0009694204,0.3121507228,1.2342490851,-3.8027062218,1.7109012229,-1.8342642896,-0.4370868879,-0.3351910585,-1.331341198,-3.8172808746,-0.9728920047,0.0875187792,-3.7084778074,0.4298027777,-1.1148775181,-2.6261880759,-0.5004968958,-0.4170524212,-1.0399635625,-0.8529420024,-1.3887877499,0.8421247623,2.8698516117,0.5677823058,-1.3873666978,0.0035549,-1.5131473147,3.4677998518,-2.718834853,3.2889059413,0.9521722111,1.6953902294,-0.6953399536,2.1562757115,-1.9844644997,-1.9922594454,-1.6624942308,1.4551855938,1.8285525275,0.3339844321,3.5410984784,0.6652516249,-0.5323578561,0.5871441908,-1.7494256377,1.7096642937,2.6220968305,-1.5618156651,-1.8628786348,1.1935763826,-0.0421931731,1.465587306,-4.5017403364,-0.4851413713,2.7235393594,-0.9964574938,-0.8283863451,-1.6874697856,2.2328370547,0.500097042,-2.0163152783,-0.8014292599,-0.9568050804,-1.7453966601,-1.8702207507,-2.5061195117,-0.1030580993,1.8634615604,-0.6106568744,0.5665420273,-1.0645239266,0.5772308189,1.3488947828,0.8016408676,0.4914708189,2.6403962633,1.4831310761,0.2638024327,-1.6054215247,-3.6786661058,0.4567927522,-1.2121005092,0.9598701635,2.2732797136,2.4118923175,-1.6770434556,1.0206620994,-0.4943430974,0.9229047009,-0.8823515369,-0.4552222272,0.8851366481,-0.063006956,2.025528326,-0.1315884422,2.6853581805,1.9855789548,-1.6176834405,1.0887464423,0.2215703696,-1.2271558746,-0.2711568959,2.1412997947,-0.7996069153,0.9026991262,-3.1726754914,-0.0978008443,0.378862914,1.0370402861,-1.1841983375,-0.750447817,3.2675252941,-1.2084216736,1.598454163,-2.2158123836,-2.3342208048,0.8201200859,-2.2235050004,-3.3986017365,1.1400956795,-0.40098844,-2.7061325676,-1.1145213689,0.9967619784,-0.2972646383,-0.4164463212,0.9346908837,3.2060443498,-1.108187033,1.1020500472,-0.0747792699,0.9608061093,-1.4667880866,2.3018997292,2.4538429256,0.2518653933,-2.04285807,-1.3575040746,-0.5515809832,-0.6385093609,-1.2733235531,-0.0878534042,-1.9449609818,2.0874364502,1.3391325405,-0.6071897005,1.3175088468,-0.4402801898,-2.5972094732,-0.5598768059,2.1636881507,-1.3341487994,2.8100244149,-0.4208738807,-2.2381038497,-0.4947943917,-0.0131457612,0.3824336445,-0.5175014801,0.9360705643,1.1269493757,0.9758563459,-1.2551896779,0.3860692258,-0.9867451319,0.372712943,-1.3597799382,-0.9418656246,0.3310483174,1.1489115878,-0.9010422258,-2.1333660971,-0.2831068693,0.1704597256,-0.2567181415,-0.8824360231,1.7974189291,1.6892777434,-0.8087530547,0.006725144,-2.3037524233,-2.7707370782,0.5850353309,-1.1787542887,1.2879711966,0.170824243,0.9943622352,1.0290875896,0.24143334,2.1546247652,-1.0106084454,1.421346255,0.5202121397,-1.9137334868,0.9639144848,0.4341479933,1.5427609256,-0.575970233,-2.4644039422,2.1355974453,0.6045231395,-0.1650864598,1.5689715574,-0.5959343767,0.6535743276,1.088272762,0.0185778099,0.3574661912,1.4604097252,2.3994178235,2.6628299154,-1.1141886371,-2.2707268811,-0.0911161583,-1.2263964484,1.20643208,0.0915917778,-0.8817681604,-2.3026909356,-1.4571228521,2.1351163695,-0.386284121,-2.5722139284,2.8194259349,3.8757157815,-1.03182596,1.627890341,0.7834722604,2.6595676101,-5.4327616302,-2.2593686633,-0.1674707316,-3.0533284194,-1.4332199408,-0.8922608831,-3.5458407445,0.5199001376,-0.049246692,-1.4688769955,0.8713084131,-1.9121691888,-0.4883476029,1.8096316195,-2.6563267254,2.4082961896,0.8211787167,-0.8648833833,-0.9375946515,0.1346940324,2.4994482352,-1.5273672648,-0.1951772211,-1.1157111459,-2.2608933555,-2.4232089481,-2.5340407313,2.3110764114,1.2093350313,1.5531833744,-0.1510679457,3.0499693051,0.2245755166,-1.0618292298,-2.5526913877,0.8502598894,2.266604226,0.2493832769,-0.2219331716,-2.0640118172,-1.0973598514,-1.2290787024,-0.5098305271,-4.3218488162,-1.1102894648,3.6512918862,1.8256652753,2.8368765391,-0.80201095,-0.0006694185,1.5594656707,3.5086719749,1.0252929694,-1.7686728515,-2.1922720774,0.7247645026,0.6557884626,-0.4991813045,0.7020520586,1.2879456209,2.4244523128,0.1942982705,-0.1454335529,1.9623714217,0.3875541255,-3.9979087063,-0.7764635977,1.7036932289,0.9758236601,1.5204650892,1.7397066864,-0.2657573951,-6.384060029,4.7831787781,-0.3612831075,-0.7945767511,-0.2960713233,1.3478939595,-0.6899320856,-0.1103585985,2.0094395302,3.9526963957,-0.5716808923,1.4037595366,-2.1893311027,-2.1773679998,1.0137389043,-1.2625066913,2.3777493121,1.1394581167,-5.217817184,-2.2719602236,-0.6584640033,-1.1806500434,0.7216248961,0.6175642186,0.6960768478,1.5956703392,2.3883383823,2.5498250235,1.8089470598,-2.1920767063,1.7100219938,-1.4929049264,-0.0380815593,-0.2636250794,-2.3665330736,-2.9739234156,-0.854819252,-0.0081566213,0.3233428751,-1.8878344718,0.5854651387,-1.8131930355,0.4954497826,-1.4623221582,-2.7479505777,-3.2508851802,0.0853428942,-0.3832641562,-0.7223673724,1.1047345905,1.8407357416,1.3134175443,0.3901403634,-1.710378264,-1.7505002418,-0.3678718485,4.0150700856,-0.7034643756,0.3088560225,-1.7385332103,0.4847630872,0.0125205157,0.1810042714,1.8456461563,-1.3347962086,-0.4488861361,0.659440814,-2.3169085628,2.5763586382,-0.2531754559,-0.9377302406,-2.258055306,-1.7566869386,2.6768021781,-1.4844636876,0.7004507861,-1.8724436062,0.0045812114,2.8046291103,0.2239223866,0.616390776,-0.6497954244,-0.094718406,-0.7410235353,1.0104812801,1.3722506005,-2.7691544695,-0.8415610179,0.9009490372,-0.8909791124,3.1257143849,1.3451394132,1.1239603339,-1.3858438069,-1.0799536964,0.6352073535,0.2560650903,0.650936758,2.1632311501,0.2197220658,-2.5927276594,3.3921078397,-1.3224870952,0.6232755073,-2.2078062716,0.7582308327,-2.0651988968,-2.0815375265,1.8827218548,-2.0408245381,1.8648993041,2.6689719677,1.053978383,-0.7378501139,1.1975703041,-2.3848507594,-0.1442881565,0.3753830077,-0.5880317569,-2.91675216,-0.4767537344,0.6933633623,-0.5923822609,-0.5468625409,0.328366515,1.1778273747,-0.5394823197,-0.2278431336,4.1265376908,0.4770474267,-1.4912701286,-1.8583246874,-0.0708329766,-0.8254003605,-1.4347842112,0.9414976659,-2.2893206122,-1.0423765514,0.7804948539,-0.3658789564,0.8373143508,-0.6727635855,-3.3236588586,4.5894475804,-2.1207253496,-0.412861162,-0.3765421217,-1.4292643279,-0.9521348988,1.549488819,0.9912669627,0.9027360193,1.0100354714,1.275236463,0.0139497717,0.6254961922,-2.3390991469,2.5884352384,-1.6912650375,-0.260617812,-0.339921647,-0.9786681674,-0.0741336766,-1.1987416425,-1.2620335825,-2.0758699708,0.2282966345,-1.8086950881,0.496099867,2.5184064267,0.5706801757,0.0467427032,-3.014483862,-0.7600255347,0.2520328009,-2.4702617535,1.5013232622,1.2692015654,0.552946901,-2.5474829082,-2.9641422114,-1.7959558526,2.0996095015,1.5089999321,-1.4759218409,-1.451414941,2.6158617302,-2.1450312861,1.1917471161,2.4931157593,0.0510434514,3.4465197139,0.5856972832,-0.5570549811,-0.9612924301,1.5760275587,-0.7009573293,0.8753684648,-0.0656978689,0.708614493,3.5716105947,-1.1017032874,1.0852387958,-0.199001367,0.427922589,-0.9666613048,1.3165852497,4.288024133,1.2770146332,-1.7552194697,0.6120869017,-1.4225074178,-0.3188384401,1.6750830991,-0.2488053345,-0.092426713,2.8046497401,-1.3962519488,1.0686788264,0.259377859,-2.5038009747,-3.3427187087,-2.3257248549,2.3257369876,-1.8187762435,-1.5502055753,3.1607482385,-0.8325634337,-1.6926061592,-0.7125535063,-4.4180095189,0.8479951505,-2.4603676353,-1.237860192,0.1872678925,0.2877665945,2.5428954202,1.3704567108,0.917232562,0.8311659992,-0.9503607895,-1.1440384028,0.766831634,-1.0747004352,-0.3598911691,2.238482434,1.4789629531,1.0399975525,2.8763509729,0.9431310797,-0.2768737239,0.9044196241,-1.3620553644,1.9944030823,0.1385863191,0.1844224773,0.1122565142,1.3975845075,-0.9174164611,-0.1587710596,-3.0623704848,3.7792727917,0.8622580076,0.0192864154,1.6021270158,0.2240644791,1.4065563575,-2.9208305251,1.5195260365,0.3349738672,1.2540768069,-0.3007165306,0.2730930322,2.1234497502,0.8308961399,-1.2031798535,1.8395991499,-1.297467504,1.5569195956,0.3762926281,-0.7898123007,3.4110392521,-5.1921476189,1.5806905323,3.2591564804,-3.3870829166,2.0947640239,0.2461454731,-2.1709566447,-1.2013394042,-1.862930509,-0.2505604005,0.4932488118,1.9958638874,0.4163016588,-3.7635946452,1.742961924,3.1242536381,-2.535981936,2.6806380961,1.1923984081,0.6385549635,-0.3586224822,0.0361901466,1.8771796641,1.6822662394,-3.3874184109,-2.6498593612,-0.0907987222,1.490584804,-0.0243378779,-0.3736169811,0.430463767,0.6186569017,2.3200625632,-1.0775533913,-2.2399338026,-0.7375299643,-0.6498294365,-2.1370363271,2.5444700458,-2.5601111556,0.7972206049,-0.2010912587,0.0026468901,-0.7803978075,0.0303302753,-0.666914312,3.6664642971,-4.0469478224,0.1323060168,0.9850305931,-0.7190451113,0.6973286177,1.3009888565,1.4438237323,1.171897645,-0.4186511887,-0.9964476268,0.0468831627,-1.8969735396,-0.524931321,-0.8628418441,0.2064233331,-0.6218303464,-3.1441807598,1.380319166,3.0403521171,1.7033161679,2.5324757457,-0.8773943,0.1626636923,-1.7140381791,-1.6261376589,-3.0364285936,-3.216753975,2.1759471254,1.8983738285,-0.3443375717,1.5261745314,1.8591687533,2.0676770216,0.585435731,1.6580795049,0.8168245033,2.2690904755,-0.1282441523,0.4600976595,0.387200199,-5.1491371886,-0.1784520946,3.4764241749,-2.405183775,-0.1079156999,0.4699983853,-0.5929759434,-0.4345460914,-2.3978010407,-0.0630380849,1.057041375,0.0417172429,4.546453733,-1.5686694561,-0.1670324795,-2.4676448499,3.4488472522,-0.6428296574,-0.0098649029,-1.2361656929,-0.9805872581,-1.4816436488,-0.1232440816,-2.2563112299,0.1432720417,0.6185705096,0.2875594864,-2.1009248453,2.9232877111,-2.0674831376,1.2493755622,1.7363928378,1.847228325,-0.9993327557,-1.5981775621,-0.7435179055,-1.0570755101,-0.3310371568,-0.8186946883,2.1838334454,-0.7337034306,-1.4923849799,0.3151260666,-2.7496436696,-1.238439614,2.029194839,1.9116264936,-0.67763602,0.6079541312,3.6798225668,2.7559249369,-1.3409550968,-1.4204698162,-0.0519613931,3.7559802448,-0.538886618,-3.7793395477,0.7609682669,-2.2703751635,-1.0165549378,0.7337623468,-2.8417028601,-0.7331958063,-2.1203140793,0.7897739163,1.4482217789,1.5039376556,-1.3383571275,1.4181907353,1.3117841617,0.8225292483,0.0389101348,-0.9467104851,0.0612296078,1.2683598545,-0.8817136215,-0.6751790811,-0.7186900197,0.6892931387,0.8814135127,-0.0675889514,0.2554819996,0.6841704301,2.4983434473,0.3201405023,0.3987470611,2.2612938721,-0.2134383741,0.2783233683,-0.5059930748,-1.2363685504,-0.3279621975,3.4355763529,-1.0541713103,2.7710805285,-6.2167353883,-1.085613334,-3.3016820234,-0.7462676883,-0.2396501141,-2.9428636719,3.1041050482,-2.8553373882,1.5113627331,0.6412585667,2.5799573072,-3.6275247919,5.8126112709,-1.6964897523,-1.6993570636,-3.3675406905,-0.4838117262,-2.3839850078,-0.2643671087,0.5652770414,-1.9480410678,0.902553918,-3.8563143757,1.658572258,-0.2501787643,3.8883782443,1.3960732318,0.6139609066,-1.0116342389,1.4355208619,-2.7529232007,1.8685458028,0.8553454392,1.1604895343,0.5916904447,-0.1453528382,0.1299063564,0.8033469832,-4.9218368843,5.3576320852,0.9347443751,0.488741429,0.889958437,-0.4513944526,-2.3092825061,-2.1698286271,-0.7113208639,-2.3904781008,1.6724977913,0.917113719,-0.1673849962,2.2403282425,-0.6456427511,-0.2758082293,0.7682382526,-0.9543819242,-0.5205644787,-0.2587143783,1.3655269293,0.995038934,1.0297491314,0.4035222747,0.5464674446,-0.0397663606,0.6666223793,-1.4085250237,1.384157349,-1.8026054451,-0.0252198362,-1.3855566637,-3.9050617972,-1.1200262267,0.2454798372,0.0029336571,0.1430221197,1.4115470995,1.5378053299,-1.0786650813,-1.9669535759,0.8461752831,-0.0166557719,2.0201017311,0.4917534279,-0.6837904736,-0.0171766202,0.1606404311,1.9149236155,-0.3650159211,0.3129437366,-2.5804251988,-2.9515444416,0.6794281279,-1.3895867586,-1.3509733007,-1.0256773286,2.55155256,1.6646324945,2.699114367,2.9590648212,-0.6854002673,-1.820302936,-0.033534601,0.2524864551,-1.1231023012,-1.1168645211,1.2299463158,-2.8531039781,3.2472523753,0.2598888529,-1.2238272228,2.0991199951,-0.2015572514,0.5337131576,0.2634449825,0.9357262541,-1.1457926076,0.7488648848,-0.2040795778,-2.2921850099,-1.0301227348,1.5909794984,-0.4086654536,0.5019910655,1.7981054747,0.0141180449,0.8299190592,-3.1285774446,0.4714434488,-0.8294296024,0.4490912333,0.3457135862,0.5479916511,-5.0096454307,0.2756528534,1.0366150735,-1.5387026034,-0.7352789633,0.1544647165,-1.2948064531,0.9035518958,-0.7782553505,-1.4982265008,-2.1778375418,1.3450377312,-1.5474446601,0.2251208043,-1.1605883652,-0.9074260496,0.2977225105,1.2832919433,-4.0498048602,0.4253415484,-0.0048432264,-0.4718756088,0.0840089261,-0.9397763034,2.6392658455,0.0749321577,0.5880001525,-2.3371441621,1.5865198165,-2.2199126834,2.00677488,0.6041444381,0.0104673194,-0.0851362487,0.6949379301,-1.0878344607,1.9033733396,-0.2573156821,-1.7797417146,0.269838349,-0.3925691423,-3.1222875935,-0.1642946715,-0.8306722295,2.4528949292,-1.4987441471,-0.7722068815,1.2709229922,-0.8272681806,0.5615863037,3.1095149745,2.1021769913,1.2095473358,1.4172407667,-0.1382148797,-1.4312157128,0.8412686114,-0.890892371,1.2129496618,-2.3116910969,-0.9337272141,-1.6727101018,2.6802116917,1.6360925622,-1.7809199662
   -0.0848762175,-1.0167675149,2.9691008987,0.0562982549,2.608536133,1.3177079637,-3.269816111,0.9585267634,-1.2781609927,1.2579761409,3.3143915843,-1.188381045,1.1796369173,-2.2953908604,-0.6167380825,-0.5387158841,-2.2955983468,-3.8688725154,1.6461969534,-1.7137447071,-0.4337265929,-2.5674019817,-1.7361170705,1.1268449444,-1.7553074787,-0.6120468702,-0.2726645121,1.5578140145,-2.4752236089,-2.2767203572,1.7202065097,-2.6460993929,0.9913540868,2.0688280292,0.2970151765,1.4027488678,-2.5437660059,0.3105874036,2.1600108252,-1.5818301422,-2.3774239473,-1.2439849736,-3.0226918902,0.6795255282,1.7998513326,2.0925104088,-0.7017427421,0.2121914871,1.1037126661,0.1146667552,1.128051173,-1.4259286043,-1.8094612113,0.2347722248,1.495625651,1.4244214437,-1.1487264479,1.1594801316,2.6806757502,-2.890038509,0.0763482469,-0.1428514174,1.7388762472,1.1833518563,-1.5765768109,0.3700229929,1.1378955133,-0.9251870459,2.1697500259,2.3194744035,-0.6590423411,-3.8841652199,-1.8983160899,2.6679305191,-3.7178832307,1.0917052054,-1.8137547914,0.5715182128,-1.5574478344,2.0135409773,-1.8612336762,-2.8267574284,3.7220714856,-0.9126111854,-1.1397670021,2.5309861797,2.0151190818,2.0813887018,-0.6565418334,1.1562327589,-3.6894954071,-0.7054122473,-1.9172679866,-0.4269202664,-1.4056871197,0.8877499117,3.5459765066,0.443659286,1.1708220483,-0.0383004895,0.7355688252,-1.294676426,-1.4706407467,0.8369012651,-0.5041699823,2.1342725561,-2.3983091045,2.8252283797,-0.9749047496,1.1653986675,-0.9908969713,1.616814016,-1.7419060648,-0.8216343698,0.3958188558,0.390787855,1.4023355394,-2.6332182173,2.7324724824,-1.9390763311,-3.5031249902,-0.7312864698,-1.1566349577,-2.0907660596,0.4480723077,0.5813197122,1.3236806166,2.0589693579,1.7598864424,1.2874724751,-0.7422254803,0.1563818102,0.2271216978,-2.4533647926,-0.5414904859,-0.5861411236,-0.9053501955,0.859372765,-1.048484057,1.8201952336,0.5356271945,-1.7787216373,4.2846515171,-0.3005438615,-1.1861239168,-1.7752215,1.1013170528,1.6348371782,0.0669250931,0.2218467405,-1.8381562292,-2.1521810091,-1.6161197201,2.4606790739,-2.8154442799,-2.0651299265,-1.0014825159,-2.0615670248,-0.1441027177,-1.9666206163,1.7820269723,-1.9296683463,-1.3386060166,1.9878954545,0.6221197864,-0.8770422879,3.1770851482,-0.5622071304,1.4615332003,2.9522062401,0.4314836503,1.0453287483,0.3561156384,1.2840419759,-0.3493540246,0.9225237295,-2.306119091,1.5061220674,0.4904212215,0.1921151123,-0.014859925,1.3626484779,-2.4505088085,2.1993124652,0.7753539003,-0.7858252484,-3.0295574997,-0.0555889212,0.3197629337,-1.8463027964,3.7840060864,3.3154848533,0.0975864944,1.6223039683,-0.2376776282,-0.5362174882,-0.174023691,-2.0498577932,-1.6247728929,-3.483583193,1.9567458836,-0.3138263885,-1.2081149589,1.8624501995,-4.8255587044,-0.7398955571,-2.4997409991,1.2090986072,1.845843263,-0.2589456057,0.7387723202,-2.0006497035,-0.089092838,1.9952823299,0.2405136826,0.3674692002,0.2479788848,-1.2231219849,-0.3348969828,1.82777503,2.4235216292,-1.2219866047,-2.9329778625,1.7663540702,0.5045301152,-1.8431147809,0.0139598207,-0.4795292198,-2.2981548107,3.8647326566,2.0474858153,1.6540859875,4.45254813,1.9607146698,-3.3794293381,-0.3626330491,-1.1284720127,-0.925959506,-0.3684513031,2.1879386442,1.0693864379,-2.2290027824,-0.7000930856,-1.3145576863,-0.9994313553,-0.5672189493,1.4113774027,-1.4956996822,0.6788068495,0.5250541552,2.9214171357,-0.1354904303,2.3879891616,2.7077976763,-1.2646658812,0.6299519693,-0.4051936835,-1.4341095392,2.1247007897,-1.0865600662,0.5783463298,-2.0735579667,0.8719553082,-2.0289980401,-1.8695347852,2.1253328198,-2.0100545557,2.7033478462,-3.5851487504,0.5980003542,1.1427482795,0.5034379497,1.5738909583,0.3085600205,-2.6656956543,1.7272642567,-1.2936810497,-0.9796625668,-2.8743828859,-0.6072118377,1.2589840114,-0.9438239379,1.6084109237,0.8889613064,-2.7777142455,-0.150469558,-1.5729748353,3.0230997164,2.6113904795,-0.7948928301,-1.0385913579,-1.3410600104,-2.5260917049,0.682514517,-0.8407875744,-0.4127146385,1.1899365596,-1.7646460539,-1.7586356517,0.1124472938,1.6625105755,1.8881500861,3.2665730228,-0.9950664376,0.2005817749,-0.8750630522,0.593538346,1.9216369657,0.2019959007,-1.0920469814,1.4845008406,-0.9550247084,1.5737604476,-1.6197585241,0.2804048034,-1.3608516183,0.0616351893,-0.7532467964,0.8844159524,-1.416219984,2.2723301767,-2.1332706985,0.7586450732,2.3612734578,-1.7799253166,-0.9970538526,4.742558866,-0.0568983392,-1.4958153224,-1.7758497155,2.2511408617,-1.2524539233,1.6822075111,1.5678941658,-0.6424366624,-3.2208371589,-0.6737164636,-2.3061309184,-1.9613811352,2.8658006857,2.2648151044,2.4606171884,-0.6696092183,0.1782345916,-1.2420600276,-2.6694023063,-3.9253652085,-0.4546848424,-1.24474649,1.0031670839,1.4491919292,1.0218237111,2.354045104,0.7668273974,-0.4561762548,1.0308388067,2.4427659601,-0.1085584492,1.7065346315,-0.384132708,-1.7946148967,0.6884902131,2.5866084108,-0.2808171476,2.2728953741,0.91343412,-1.105175291,-4.0145590309,0.6498546673,-2.7482998373,-0.6629821665,-0.7176909386,-3.1940096044,-1.0202632152,-1.2174395534,-4.9333724584,-1.6492913794,-1.47502766,-0.2487001509,3.0027125467,-3.2786206024,0.4806744119,-0.4157730882,-0.6709891892,-0.3370552081,-0.0614851418,-1.0952829137,-1.2828121013,-1.5624054641,0.5594699062,-3.0769197176,-0.1162182996,-0.1614257376,1.1086360606,0.7648997105,-0.0027400163,-0.4997797691,0.2504836529,2.454017719,-1.1980314687,0.3862759613,0.9349581856,1.7503679428,-0.2378062787,0.0276299972,2.0083323302,0.374200312,1.1967537902,-1.9405329048,0.4428560023,0.103682304,1.7571729265,0.1793849723,-2.9861497448,-0.1269948433,-0.8086386442,0.6741796111,0.3708941367,2.0357837261,1.0477559681,-2.1876762293,-2.158936907,2.9570835806,-1.5403430813,-1.0341784341,-0.389800614,0.7778026708,1.7067762239,2.866516625,-0.0647346235,-3.3974752753,-3.0185774655,-0.6440554977,-0.745296974,0.2459729412,1.0365200831,1.7848150504,2.2337896871,-1.3733296844,-1.4549994859,-0.0014827499,-1.1144571224,-0.086971091,-1.8086356259,2.7183110099,0.1460337329,-3.5947069178,-1.3056701356,0.5332064462,2.4885808555,-0.4416259506,-2.5230074356,-0.4411683016,-4.7168853003,4.3149635145,2.127308665,0.6457844679,-2.5045976689,-0.4678299673,0.4811608018,-1.4856518515,-1.6626354255,0.5750589187,2.3957514355,0.4782512186,-1.2897526834,-0.0291110182,-1.7595772642,-1.8937579671,-0.4639225705,1.4378235179,1.8775319636,-3.3691375649,3.0573690608,-3.0958919504,0.7100742603,0.5527793299,-2.5271899828,-2.2828487339,-2.5943443961,0.1995456999,0.6197806488,-0.8048093202,-2.2018016008,0.1559717425,-0.4036138116,2.8328020952,-1.3921238482,2.0541106504,-2.0586623376,-2.5655454621,0.9267587312
##end
biasActivation=0,1,1
[BASIC:ACTIVATION]
"org.encog.engine.network.activation.ActivationSigmoid"
"org.encog.engine.network.activation.ActivationSigmoid"
"org.encog.engine.network.activation.ActivationLinear"
