encog,BasicNetwork,java,3.2.0,1,1406076799938
[BASIC]
[BASIC:PARAMS]
[BASIC:NETWORK]
beginTraining=0
connectionLimit=0
contextTargetOffset=0,0,0
contextTargetSize=0,0,0
endTraining=2
hasContext=f
inputCount=21
layerCounts=21,81,22
layerFeedCounts=21,80,21
layerContextCount=0,0,0
layerIndex=0,21,102
output=0,0,0,0,0,0,0,0,0,0,0,0,0,0,0,0,0,0,0,0,0,0,0,0,0,0,0,0,0,0,0,0,0,0,0,0,0,0,0,0,0,0,0,0,0,0,0,0,0,0,0,0,0,0,0,0,0,0,0,0,0,0,0,0,0,0,0,0,0,0,0,0,0,0,0,0,0,0,0,0,0,0,0,0,0,0,0,0,0,0,0,0,0,0,0,0,0,0,0,0,0,1,0,0,0,0,0,0,0,0,0,0,0,0,0,0,0,0,0,0,0,0,0,1
outputCount=21
weightIndex=0,1701,3461
weights=##0
##double#3461
   0.3953840242,-0.2275087467,-1.3710097066,-0.1305477355,-0.3863817491,1.2532647621,0.3793212109,-1.4195668027,-1.85142744,-0.2943931482,1.4050665911,-0.5733598052,-0.6559838971,-0.0681466325,1.0968940864,0.7693711879,-0.3974949245,-0.2851800314,-0.63157764,-0.3233410883,-0.6359482795,1.5721366912,1.0924204018,0.001802835,0.8657502142,1.7255565114,1.8973229511,-0.5097074017,0.0551006894,-0.9815682267,-1.9434833635,-0.793661711,1.5506190212,-1.3032027426,0.3782338618,-0.3009095856,0.0780299423,-0.0667496602,-0.9105680103,1.3188527418,-0.0030731641,-0.4187893705,-0.0489523025,-0.7229410595,1.6665001774,1.3868708526,0.1731812976,0.0806121075,1.8469590026,0.2874212194,1.5148434665,0.3228280403,1.3014706639,-1.8204555374,0.1359387319,-2.0407822661,-0.7648106908,-0.1124366686,1.3616875695,-0.1314992473,0.4655342584,-1.4423721322,-0.6830252758,-0.96562052,-1.6875279293,0.4075666892,0.5990569604,-0.3927225248,-0.9400796615,0.616556347,-1.1210703193,-0.9150135894,0.8283293167,-1.3977261626,-2.0111754149,-0.692169064,-0.245459082,1.5379477426,-0.2527632336,1.4623778067,0.1272360222,-0.0968505604,-1.0583886767,-0.5746152296,1.0987446109,0.1988388493,2.3870273057,0.3071242253,-1.2074093374,-2.0314227228,0.0240760207,0.482095829,-0.3861473998,-0.3902679457,0.0181426199,-0.4541099537,0.1398032373,-0.5999884491,-0.6548020316,-0.2757692301,-0.2673761716,-1.7904598121,1.0009639124,-0.0955758449,1.3555739327,1.2187212914,1.4065328271,1.1327244616,-1.7745675599,1.4341630942,0.120985475,0.1850484958,-1.3001587449,0.6648409429,-0.4447946471,0.5990748833,1.3672036507,0.6339836996,0.2711258992,-2.0364535661,0.6520024745,0.5277623806,-1.1769345062,-0.3013798874,-1.4517481741,1.1428480691,-0.1288831267,-0.1446344393,-0.0395118746,0.7821550927,0.4545676811,0.6195807802,-1.25835046,1.5413196003,-0.5354790802,0.1536082936,-1.0373986453,-0.1691245379,-1.3226192053,1.3143422914,1.2786761516,1.968279446,-1.2474477358,-1.0937336313,0.3719644733,-1.070513841,-0.3281077987,1.1352216869,0.1269357957,-1.6579115147,-0.3236868106,-1.081489979,-1.0230063172,-0.2935756803,-0.0753989,-0.7919404977,-0.1810703993,0.8452198581,0.4286365444,-0.9277007859,-0.8559464423,0.7231002612,-1.5346903358,-1.2032567394,-1.8632181579,0.163034354,0.9531444551,1.9626858505,1.278372099,-1.2585048903,-2.3021316798,0.233647609,1.3387627684,-1.4482862076,-0.2253709743,-1.2488832037,0.8563744966,2.0574046255,-0.132907864,-1.5217425126,-2.6170601337,0.0395266078,-1.0324630075,1.320914799,-0.3978415706,1.0728160827,1.488985377,0.0156121158,0.7966215793,-0.2641667436,1.1329838741,2.6283980532,1.801003736,-1.6749908822,1.3369345466,-0.0130996951,-1.318853306,0.4267253522,-0.943325449,1.1163023909,-1.4495341555,1.343593609,0.8478541307,0.9326901569,0.9626621249,-1.1722426763,2.1526828558,0.9692743355,-0.5506856003,1.1759071202,-1.3123934021,0.2005987607,0.3351336424,-1.185559472,0.6881329436,-2.1600390383,0.2427793992,-2.9500220594,-1.7789104926,-0.5200784121,2.1819317327,1.2495115363,-2.2478489118,-1.6629425817,-0.1796313368,0.4462237592,-0.7269174324,-1.0430354914,1.326148301,0.9593238058,-2.6838868013,0.3676263109,-0.1818362189,0.7994560618,-1.8969743231,-0.2825058387,-2.3565504771,-1.7078419547,1.2300001602,0.7547889565,-0.8625397249,0.0597156037,1.5663425989,-1.3842401363,-1.6326824678,0.0527514004,-1.4092805261,-0.2926357248,0.9388943957,-1.1198142165,-1.4277438822,-1.5690469627,-1.081373048,1.7576978186,-2.4423726026,-1.4710133538,-2.1565836286,0.8399533013,1.7362573108,-0.0414203829,-1.2543462264,-1.9171703106,1.8277489372,-2.0584241297,1.7525494225,-0.9152775749,1.7158057555,-1.3529169445,2.0508930122,0.9314422857,0.2776928144,1.9306911769,0.9582830136,0.0652040393,-1.7932785025,0.683630597,-0.849893853,0.3940178667,-0.7200225218,-0.8526470089,0.7384462563,-0.9488366248,2.1817967273,0.5851522818,0.9219913294,0.7558725486,-1.8996313598,0.2337866751,-0.4507300568,-0.7724994501,1.0785057529,-0.1610119358,-0.4999510098,1.3891939572,-0.0457715903,2.3426226511,-1.8636230642,1.5779618964,-1.8212563408,-0.3691765966,-0.8104262717,1.3903822411,1.890689681,-0.2373906313,-2.0747956973,-1.2931043687,-0.5064377942,-1.8585780845,1.2053276805,1.2612625691,1.0045394122,-1.3486770921,1.6230414761,-1.2934060313,0.3048544444,1.5661698954,-0.6668209703,-2.1124736087,0.1700626191,0.6162438559,0.4437762006,-1.4400705066,0.3097621165,0.9174763108,-1.4138425738,-2.4170087811,0.6521066378,1.0791781339,-0.4362806975,0.7231995601,-0.4728863702,-3.1167610785,-2.383929529,2.7953978422,2.481537078,-1.3264473426,0.6034989935,-3.6322182744,1.4545900963,1.6892549099,1.3403987654,-2.5520764332,-0.8110019957,-0.5261188222,-1.5670817716,1.7879481134,-1.5601235097,2.8432890477,1.2157797085,1.2478455134,-0.3017637002,-0.7715151284,2.4381667452,0.2164460997,-0.833043777,-2.8900505838,-0.211950388,-1.5354234702,-0.7163652591,-1.2185276854,-1.2506631327,-0.3985773999,-1.7025579917,2.2353305381,-0.2188460992,-0.0604116276,0.7682632668,-2.1367106446,0.4459878437,0.9466160688,-0.9862459768,2.2461573354,-1.0641270816,1.937877216,2.7799323828,-0.6469901803,1.777929936,-1.6470253561,1.5767693273,-1.6684874829,-0.7905005954,-1.2967560911,0.2095639115,0.1243333514,0.1485111568,-2.2839261479,-1.3046703254,0.5353864177,-0.9297163348,0.1917276108,2.4883704692,2.1170636386,-3.5434068691,1.2941072857,-1.8360019394,1.4710637553,-0.3390406451,-1.4422466132,-2.6654435652,-1.3369439562,1.6916743486,2.0661710913,-1.2096335745,0.2596857636,0.3982379914,-0.2120987607,-3.2058969622,-1.6902252412,-1.3763218485,-1.820031302,0.7806934441,0.8713621218,-1.1621451012,-1.0837224356,2.1626594398,2.7738645656,-2.4274305293,-0.6951181924,-1.3316929566,2.4462887803,2.7846571165,2.2142194108,-2.4554992238,-1.4869379298,-0.0433202707,-2.4251602271,1.9925899327,-1.6979263215,4.1744576523,-0.5234600734,2.4780105657,0.6162696136,-1.7458197943,2.7313738591,0.2822573728,-1.1969061469,-2.4143801576,-0.4573115138,-0.5338431134,-0.287197625,-1.9539544112,-1.395848408,0.8755155262,-2.6502297919,2.0024643237,2.648773488,-0.2624733441,0.6860499218,-2.4449261721,1.5724329834,-0.6494736407,-0.7062881292,1.9151721996,0.2952153758,0.5900153885,0.0388216482,-2.5402045663,2.3989930017,-1.803768285,2.0366428154,-1.3162869114,-1.6653766275,0.3111476782,-0.9318099013,1.1880713079,-0.5895886359,-3.0400676823,-1.287121423,1.4527368119,-1.1277712758,1.5676344854,3.7256484058,2.2985407777,-1.7332053936,2.3965995521,-2.7721106348,-0.5633922164,1.039967371,-2.4200145388,-3.1627560482,-0.6645884712,0.7120138278,1.6482687282,-2.1888219755,-1.7349380921,0.3739235423,-0.0728862624,-1.0622229747,1.8209816648,0.3120098283,-0.4845105501,1.8952589336,0.3390495469,-0.7317513523,-0.1820683265,-0.4274147295,-0.2148391269,-0.1950936832,1.2749521003,0.1443018155,-1.0676072211,-1.3437464698,1.1270429855,-0.8713325156,0.3385555688,-0.3170990285,-0.758108569,0.7183165498,-1.517043025,1.4084274719,0.0423284585,0.8645364963,-0.4482983826,-0.5881899797,1.2571520086,0.7286769276,1.4565992252,-0.7643141539,-0.5324577131,0.5267424461,-0.6596730049,1.8602085361,0.4255611663,-0.0224651519,-1.8012700931,-1.0169564628,0.4249750969,-0.3823429691,-0.6855767083,-0.8707400547,-0.4389501008,-1.9987924901,-1.0703538301,0.3932072816,-1.2522586291,0.1410559361,-0.604598894,-1.1622130268,0.3832108809,0.5098575487,0.368676751,0.3372005778,0.3329673895,-0.9416898419,0.2325920196,1.3286600256,0.9682679043,0.4875040684,-0.1653702155,2.6355536336,0.5530602352,-0.928623982,1.1830902711,0.7353737931,-0.833553608,-1.3890869329,0.2265492143,-0.1689106754,-0.5256310618,1.2621753543,0.1788937224,-0.0888102279,-1.5668683172,-0.7935605408,-0.7594961747,-1.7914474435,1.2923426521,-0.7666659864,-0.6392462552,-0.2417766058,0.4654209738,2.0499487435,1.1575605482,0.8634588653,-0.118664373,-0.5937512564,1.4722765278,0.2370850842,-0.8618824232,2.2123523862,-1.2880467681,-0.120052283,1.1370929977,0.9003505723,-1.3709021787,-2.437422457,0.2099973748,-1.2657446704,-0.6573208682,-0.9200363623,0.9951465408,-0.196269301,-0.8065460582,-1.3697106889,-0.1039315522,0.3855704614,3.1120920618,2.5982531412,-0.3475955681,-0.0860364534,1.4562960084,-2.6233668445,0.0424393851,-1.1291034242,1.2381729976,-0.9504899151,-0.019067712,-0.0394084887,0.9959153651,1.2766358108,-0.9766988378,0.350315808,-0.4953786237,-1.196907231,1.0362297097,-2.6472927032,-0.2335951583,-1.172531978,-1.0190338309,-0.484794336,-0.9656854053,0.1139725089,-0.9309457092,-1.2024959534,-0.6211262221,-0.0089814799,0.5495988742,-1.2509627164,-0.0357552703,0.0742844088,1.7661023655,1.6512814377,-1.672141856,0.8125139516,1.5046519541,-1.7441004145,0.0297548019,1.2428093207,1.3195047937,-2.0749927412,0.3454652247,-0.5150596237,-1.3645553244,1.0348826029,-0.6234845081,-0.4859306055,-1.3051924703,1.656666785,-2.1637565466,-1.8189164,1.0396338205,-1.6698900571,-2.4692502182,0.4711214857,-1.5513374854,0.3612817425,0.1425358417,-0.6351876651,0.3372081478,-1.5370782566,0.4476123547,-1.2104184836,0.0364954493,0.7270792724,1.2412347223,-1.2147773033,-1.5288142822,1.673271496,-1.6865870862,-0.3562245707,-1.566678197,2.0945553018,-2.5266730692,0.5428798523,-0.7393540894,0.390592473,1.5275306878,2.6129345417,1.8353722435,-0.9148196308,-0.200576092,0.3887600334,-1.3287690379,0.0222244147,-0.8140600567,1.0012702046,-0.3179065957,1.5349203927,0.5238179042,1.8375189129,0.801375911,-0.9474650411,-1.5091683368,-2.2017353905,-1.3213374164,1.1732100017,-1.8904526381,-1.1822485494,0.0541985204,0.7344636775,0.3112019677,-1.8432423672,1.1911449242,0.9265387946,-0.1653442008,-0.0100209952,0.7537151308,2.1888047225,-1.3930958453,-0.019185371,-0.3650614536,0.8896300313,0.4868586455,0.0135339064,0.9811480819,1.6180735729,-1.9315003946,1.1531812874,0.4368396934,1.8407740235,0.4042845501,0.9515804027,-0.2658077489,0.9641807968,-1.7743035881,-1.1781390397,-1.7075144494,-1.0534771677,0.3937003842,-0.9419449653,-1.9659612331,1.787907386,0.2706578057,0.1055743126,0.2440618051,-1.1182860273,-1.4722486548,0.2835804964,1.302199742,0.7144946428,-1.330997501,1.809935775,-2.4532471074,1.1980040204,0.2747835574,3.0317972379,-2.5025627874,-1.1990285298,0.1942979351,-2.4424357926,0.7061748181,-2.2254201911,2.6248973296,0.5096718357,0.2245068903,-2.0859051598,-0.6133840873,2.0644839965,0.4424012729,0.2539603516,-1.7824879665,-1.8855181583,0.1240148295,-2.2015437996,-1.1389886673,-1.5239062931,-0.2113633847,-1.1036394243,0.7932734269,-0.2475512725,0.0902041851,1.2390644778,-1.7240399867,-1.0498834499,-1.1477599953,-1.3360666805,2.1663957395,-2.153341251,2.1795174838,1.2804442978,-0.5285707868,0.5782650325,1.021917191,1.6350722145,0.3504495666,-0.2087237056,-1.5194151308,-0.9374899179,-0.8050450172,0.4668781527,-0.6539819322,-0.553455834,1.998690727,2.267693232,-0.1362935656,1.8774881431,2.1617495748,-2.4376785759,1.6647236474,-0.3203403887,1.9824826329,-0.9032068843,-0.0797563534,-0.7180452031,-1.0855021879,0.0099811327,0.368631804,-0.5375596748,-1.5439502981,0.7021378308,-0.8962486894,-2.9428731406,-0.6731048731,-0.8916157528,-1.6015609807,-0.5710191044,0.0491228226,0.1652681551,0.9095387405,1.6545453775,1.3266499483,-1.3133317537,1.9573673533,0.0876173294,1.6529238242,-0.0480713304,3.4462229826,-2.4991407933,-1.7419850896,0.1868799138,-2.1066938755,-0.4419863338,-2.4093406664,4.0642058381,-0.9937516512,1.2941926537,-1.8390063999,-2.0905495706,2.2377458147,0.6970340707,0.6057377262,-1.4821528559,-2.3241639274,0.8184089349,-1.3181297741,-1.3551423014,-1.6368499126,1.8070085897,-1.9519723685,1.6285101358,2.0910947491,0.6058088196,1.4813552415,-2.226412089,-0.1130351574,-2.9879725622,-1.1154810259,2.399567605,-0.3316807037,-0.7384299582,-1.6913912362,-1.8117113093,0.7241333415,0.5705757217,1.564035333,1.218433754,-0.8740554516,0.9133026563,-2.4746120012,1.5390048468,-0.3241104416,-1.6391963032,-1.3031063648,3.0749958176,1.4977113268,0.8840862658,2.4238390345,2.3812172259,-1.815199793,2.1194267572,-1.0254592761,1.5878150862,0.4927660968,-0.3328085113,-0.6779726991,-0.5711911823,-1.7035440916,-0.4630357362,-2.0629644342,-3.4412839203,1.1078483287,-1.2575568149,-0.0538645674,-1.1651201947,-0.6200130012,1.4243363762,-1.8084191358,0.4521671398,0.4353760307,0.3137275385,1.2541143408,0.8018364733,-1.2339156854,0.9334399274,-1.7140841029,1.7385491488,1.7946332186,1.0322293899,-1.1456143601,-2.5745311096,0.0644761538,-0.1909513871,-0.4749748752,-0.3617614716,-0.2848191294,0.1959190677,-1.4120615382,-1.5518807283,0.8443764352,-0.6075183023,2.3492614465,0.4240095035,-0.1910853894,0.1990561984,0.8480938329,-1.8908310434,-1.4373385235,-2.1260977492,1.2251021117,1.030065157,1.5995941732,0.4540763424,2.3487920771,2.5761610479,-0.3116950948,0.2120903216,0.8238238502,-0.1152112562,1.3207711002,-1.3593351776,-0.4702295356,-0.2428336153,0.6241482491,-0.391840399,-0.8324234011,0.3745240062,-0.8518908434,-1.656572724,0.8045647032,0.3437073285,0.291291459,-3.1512443611,-0.6198383963,-0.2875149405,-0.5808199895,0.433894604,-0.3129183856,-0.6626252325,1.2052964742,-1.875237065,1.8098046699,1.039029134,1.9587426139,-0.9289431924,-0.6783015698,-1.2482443457,-1.0027154285,2.1123938302,0.1119045032,0.0972128445,-0.0555709137,-1.0370679638,-2.2116383965,-0.7860415228,-0.0966815331,-1.1977244257,-0.265349173,-2.286398727,-1.7576987899,0.5660326868,-0.1600056117,0.0124818019,0.7863049078,-2.4679741045,-1.4138134046,-0.685589048,1.2021478882,1.4534926245,0.9881460869,-0.7605749959,-1.4342828795,2.2969951964,-1.2680587015,0.7660459752,-0.8143265674,0.7674643306,-0.9286698166,-0.5335904706,-0.0969768601,0.0467861961,0.3149780208,1.6856901547,-0.0264168123,-0.8253707437,-0.1381452091,-0.1192683372,-0.998518677,-1.5000912625,-1.6921930828,0.658488268,1.4797113926,2.2457355537,-0.8074678445,2.9029651862,1.9988174887,-0.6485991062,-1.6476901288,-0.6110521708,-0.4250344762,1.2827556628,-0.2038779599,-1.7684909568,0.5815649649,1.6660864526,0.9379355148,-1.4090088599,1.1591409545,0.8965448571,-0.4660843704,1.0403080227,-0.426550151,0.2293546434,-2.0944501109,-0.269673672,0.1185647243,-1.4207414869,0.9070448684,1.309795544,-0.9035031814,0.2227635453,-0.0148254727,2.8267540674,0.1634903892,1.7427450982,1.8462636023,-0.1637587994,-0.6842377592,0.8990796592,0.4860869397,-0.9935139267,-0.831328452,0.2836203621,-0.9723944495,-1.3665560756,-0.9922157373,0.4913814522,0.5064169801,0.4265940468,-2.468355226,-1.9107907053,-1.0678567537,0.289798086,1.8211820825,1.9687218927,-0.9068715093,0.0080395088,-3.0082028479,2.2490285697,1.5309858419,2.1883349858,-1.1850743335,-1.0070088669,0.1900004272,-1.2464953423,1.2208812392,-1.2870017018,1.4627870079,-0.2233722258,-0.4272340512,-0.6709742152,-0.1872351925,0.6086759863,0.3488005767,-1.4639792754,-1.4250316356,-1.2233753119,-0.7542256956,-0.7900945875,-3.3320177646,-2.3309408057,-0.4822351471,0.8400287111,2.1635748965,-1.0671493373,1.1784494837,1.1648479678,-1.2027921612,-2.0854567453,0.5781032581,-0.3339651476,2.2142020332,-1.3482165962,1.2578094659,1.4362773573,1.1308455035,0.6075510396,-0.8516770514,1.393848412,0.0744744581,-0.6330816185,-0.1471610405,-1.3933190836,-1.3439953901,-0.636694061,-1.1954364551,0.0359091248,-0.9523765402,0.5967807548,0.5210852019,0.6244559359,1.7154355414,-1.9302175833,2.2573692418,-1.091593648,2.7398389952,0.5274735682,-2.0190504063,-1.786007365,-1.1037208909,2.0364600776,1.2192548002,-0.1695347921,0.687141262,0.7166186851,0.936845308,-1.9774827001,-1.6443888891,-2.5545632574,-0.8455120688,-2.3810807697,-0.2524981143,0.478752969,0.6850246075,0.5126569558,1.6376109975,-1.7044451173,0.1119655205,0.7656063642,1.8616213585,1.1509932818,2.4715064867,-2.0264045563,-1.9063796438,-0.0074761533,-0.829706985,1.249104256,-1.2169149297,2.7043031781,0.5163067708,0.4981616863,-1.0171919482,0.0153207637,1.0930481569,0.6672058663,-1.0847933216,-1.3666315396,-1.6125285437,0.4037802546,-0.2398055258,-3.0471741109,-2.4822747023,1.1855234339,0.5528313385,2.1818323001,1.6630933128,1.8780457141,1.1138664082,-1.1089486143,0.0800064424,-1.4335718234,0.0278847942,2.3237965983,0.5936661337,-0.6985393218,-0.8775600864,0.4315061663,1.0478494475,-1.064273553,1.4660580262,0.4970222831,-1.3034496957,1.9161039706,-1.5305953032,0.4653556834,-3.1259086043,-1.425274205,-0.567542855,-0.2197850081,0.6762910901,1.5273564754,2.1216905025,1.3612046348,-1.2888441128,3.0036146941,-1.1127616041,1.3173533218,1.0293743104,-2.4460326295,-2.0954593748,-0.5702282928,-0.1269463206,0.8627994823,-1.7792408195,-0.7551185472,-0.7432482443,-0.0607373043,-1.4309882634,1.4732334463,-1.6122632198,-0.9625091542,-0.9984813046,-2.04581878,0.4853106084,0.6482385623,-1.1488355034,0.6624982617,-1.5898686392,-1.7223355809,-0.929122036,0.1261044328,-0.4369757323,0.3337772806,-0.2585575958,-0.871033188,2.2781344889,-1.5942981874,-0.8400123703,-0.8702154543,1.9265755312,-2.6303148887,1.9625716237,1.278504806,0.796047171,0.9519263813,-1.1821805857,-0.9267615204,-0.6497341308,0.0390017183,-1.0371673387,0.4239060197,-0.8469167231,0.1623405214,-0.9298542532,-0.2051141163,0.99711717,-0.935286398,1.374634871,0.5555295144,-0.5862197676,-1.1208640608,-1.8347443848,-0.4972992256,0.2439436335,0.7432945251,-0.6649100913,1.3160285416,0.9932848291,1.7571601027,-1.9511511567,0.9356176696,1.7986197896,0.703158337,-0.2240573138,-0.8944041187,1.0253228843,0.3480797432,-0.4793710725,-1.2131669565,-0.779336223,-0.1765022733,1.592771242,-0.020399627,0.4864659879,0.6230604451,1.8500575845,-0.3883291002,-0.4869187142,2.8274874185,0.1308313876,-0.5014822043,2.871574022,-1.5179326741,-0.7851226298,-1.6484333985,-0.1013508478,0.4001390604,1.5344829309,-1.2952915935,1.0260517658,1.289149235,-0.7117473043,-1.5589935797,-2.044856564,-1.6327726822,0.0686258414,1.6887648836,0.7964328511,-0.2037196946,-0.5117695607,-1.6190129975,0.3208105345,-0.5428044731,1.3023557685,-0.6243930558,1.4669642447,-0.2887053233,-0.7995754035,0.1739222667,-1.2917472505,1.5434666055,-0.1086240229,1.3654313102,0.4652400872,-0.9355047488,1.0508258093,-2.224094162,-1.5330495292,-1.0553308266,-1.3412554989,-1.7349360453,1.4359100651,-1.5865136646,-0.0939401112,-1.6895424737,-0.926129871,0.4076907281,-1.0733796647,-0.672909199,-0.0455909814,-0.8347736524,-0.6297808522,0.8458312495,-0.6766220598,1.0927091706,0.7265218765,1.9532133163,1.4512661904,0.8548606378,1.2771484956,-0.3621526045,1.6704452148,0.7257224356,1.0455247554,-1.4800216291,-1.6918450153,-0.8239919829,1.8041343113,-1.1008870188,-1.0179815,-0.2600201027,-0.1060066214,1.3263406229,0.9805568742,0.7852233823,-1.6992415736,1.6977155828,-1.6288191794,0.6002525518,0.6745314331,-0.9680849081,-0.001687022,0.6554588801,-0.5020759669,1.5752226491,-0.3792126211,0.3670445662,-0.0736306126,2.3454659416,-2.1582589463,-0.5533127596,-0.6209397519,-0.7126200043,-1.500323318,-1.4363241054,0.8033911701,0.7458025136,0.8755794521,0.8045346091,-0.2671307092,-1.1441601801,1.1624704312,1.0676512864,-0.618307612,1.7886920304,-1.2835531514,1.5281024886,0.7809457215,-1.1501305462,-0.6564478401,-1.3677268518,3.3855391381,-0.2571016791,1.9161164852,0.6276032078,-1.445260194,1.465523344,-2.0190676898,-1.4744509243,-1.0809288416,-0.9009941921,-0.468603894,1.3899163253,-1.8166397667,-0.2938506061,0.5239054538,-0.3370032747,0.5150005651,1.1447562653,0.3627938275,-0.0905567214,-1.1010225217,-0.0150005497,-1.6481982381,-0.1712347313,1.1867059476,1.7708272908,0.2021308135,-0.5119105608,-1.1560198816,1.1467430153,-0.9285151704,1.3463255331,1.8184331817,0.2169334476,1.062368995,-3.9569360235,1.2139165972,-0.5925143896,-0.7574052455,-1.945602558,0.4118315929,-0.2760425853,2.4481470713,2.0123530965,0.5432804857,0.2120665105,2.0002782901,-1.9188666413,-0.4062522317,2.1529688012,-1.9200945609,-0.2551940368,1.2546245492,-2.1783463006,0.6205547671,-1.730494898,-2.0201599107,-1.1928929184,-0.3580045694,-0.5059658656,-0.0135103615,2.4943387602,0.2112138526,-0.3811339783,0.093512889,-1.9090786861,-0.7692915619,1.7001274976,0.6349458983,0.74615099,1.4203354076,-1.8578022992,0.2829826556,0.2762804396,0.6796821452,-0.2713628447,-0.1892106077,-2.0653292438,-0.7186104015,1.6478271932,-0.739699759,-0.196142148,1.9178775583,-0.2058422485,-0.8679564759,-0.5925373519,0.8298456495,-0.2529721934,-0.2234372508,-0.8072782066,-0.7683412728,-0.3221266284,0.1421498271,-0.1807640381,-0.6149237737,-0.70004653,-0.4852036818,0.120511613,-0.0507276704,-1.6250759965,-0.7902869103,-0.4394949775,-0.6974637078,2.44387565,0.414882242,0.8033387203,-0.3413555921,2.5394638127,0.4972970701,0.5620800872,0.1037646997,0.6582424403,0.488261543,-1.2776166612,0.1180283746,-1.0584595396,-0.6637451407,-1.7713377487,0.9693585043,-0.5054033715,0.3053972406,0.1810087671,1.1552714053,0.1678720624,1.4304456705,0.4847375652,-1.2352305038,-0.2051564591,-0.8566958682,0.7082726832,-1.2794218436,-1.5072637737,-0.6538807494,-1.3503877415,1.5222433422,2.3255453361,0.5121015534,0.2921370672,-1.4386117575,2.3402027802,-1.4959730109,-1.157572751,0.3187831367,0.4803689154,-0.1819212185,1.1095785888,-0.6486839418,0.2611338067,0.3995603774,1.0814963928,0.0082224209,1.4663355122,0.6971824168,1.1347604747,0.0794912646,2.3559281328,-1.5523273234,-0.6551111661,-1.4547869756,-0.63903386,0.4247819459,-1.2832252895,2.1320133204,1.2042484823,0.5815998544,-1.0336915764,-1.9755335028,0.7412925588,-0.8288247701,-1.111013713,-0.935262201,-1.8290436929,0.6073110462,-0.2935477162,-1.1634713128,-0.835011001,0.3044828584,-1.3383211461,0.1518025748,1.502496866,-1.439772144,-0.6894714186,-1.0090903057,1.1978860664,-0.136848545,0.3856891029,1.2152983867,0.4679895149,1.4264768221,-1.4399847431,-1.1757634032,0.0539771118,0.9986289306,1.0579449743,-0.4474925824,-0.9292839745,0.6976105406,-1.187555623,-0.154448893,-0.2708770195,-0.7896761562,-0.3694466056,1.4969850649,0.9283622132,0.0477727856,2.2476388742,1.333417626,-0.8639786309,0.1618167842,-1.2482346053,0.6398958476,-0.4107545281,-1.5832203321,-0.6489744649,-2.2993471989,-0.414486377,1.7798043188,-0.663536388,-1.2606985069,1.0905358471,1.67645048,-1.005329659,-2.4413309935,-1.2575458655,0.2749472818,-0.4418783462,1.2485546706,1.3629618533,0.8339707463,-0.5997144754,0.2131503711,-0.5782395394,-0.5575408387,2.4114749574,0.2978805578,0.0840240482,0.8035331797,-0.3473662848,-0.7192803951,0.5278964135,-0.6328811508,0.5135254331,-0.2976902283,1.793344251,-0.9197732924,1.0390295609,0.4068041124,-1.2963929794,0.0839743086,0.6493872734,0.3452795777,0.1911627386,-0.614024747,1.0531437053,0.5245058219,-0.8192359913,-0.5210346423,1.2109750633,-0.9427924359,0.0077327844,2.6415141197,0.2692991285,-0.3906751836,-0.5309040674,1.1548057202,-2.1305912265,-0.1037505016,0.3707431117,1.9011678256,-1.4198835562,-2.0249549875,-1.4049583337,0.5057690658,0.3741185191,0.4273183007,0.5668745233,-0.5527307178,1.6155445375,-1.8303871696,1.5166804141,-0.6408794145,-0.6514179572,-1.0761986621,0.6040808277,0.264264011,1.0215518669,1.4637947713,0.3837059385,0.0597761174,0.7768375124,-0.6469039669,-0.889750788,0.9796394627,-1.0990947753,-0.5320866571,0.4847436106,-1.4952250981,-0.1520227479,-1.1452945855,-1.6222870842,-0.9188625452,-0.3348149691,-0.1242217965,-0.262466885,-0.376397266,0.4451237803,-0.7401725934,-1.7590201871,2.9397690851,0.4111017124,-0.9225541498,-1.4705910441,-1.1476066503,-1.515842822,-0.8721295015,1.0608507542,0.1985265927,2.1352962631,2.6524909794,-0.6616051097,0.3166457455,-0.2830910155,-1.6710346648,2.3515092391,3.5985379086,3.4121210558,2.831353894,-1.059767675,1.3630450373,6.3846545439,-1.8279500742,0.7768328413,-0.5646090766,0.0818633382,5.2492764629,2.7989402791,-1.8213681331,-2.7694689517,-2.9132192353,1.4567049809,-1.1054326191,-0.9216097761,-7.0041924194,-3.0851351718,-0.8962232156,1.4452959568,-1.0112655514,-1.6845986904,1.5970835684,2.0652983886,-1.3703816566,1.0234974018,-2.825496808,0.4559534924,-0.2454967968,2.6307240459,-0.642298501,-2.9740201115,-0.747514582,0.3614785157,0.028015851,1.6176781847,-2.6272169981,2.1059320059,0.9691329192,2.1266776155,-1.1368047046,-1.5643391556,2.0114773033,0.8730690296,-1.5965053122,-0.2454369026,0.5682534,-2.1618234945,1.0849209375,1.6625007426,-1.0853739989,-0.18496762,-0.8066663443,-1.5443638177,0.9935795089,-2.1565227487,0.068059502,2.4172128378,2.0371143284,2.2093569965,-2.284739667,-1.739128673,-0.290971353,0.3640428846,-0.2999853919,0.5785979488,0.289159989,0.5954116814,-0.5697230771,-0.4632919032,-1.5752798517,0.4701408377,2.4731718087,1.3829836664,1.7755324693,-0.3722789572,-0.1834864802,-0.2293114699,0.1665659972,-1.866295516,-0.7192147206,-0.2340400609,0.2753447188,2.3641546992,-0.9949902017,0.9884293868,-0.0000007454,-0.8519902977,-2.3922978221,2.6110611746,3.6312397704,0.0487471626,-0.5190286974,-0.2344142261,0.2954243278,0.0260239603,0.4456616045,-0.1783290274,0.289495491,1.0094211349,1.1467058393,-1.8274218861,1.8633835549,-0.0611485945,-0.6688164143,-1.0911789271,-2.2774446233,2.1819514674,2.2664289285,-1.2976884721,-2.3139281483,1.6046864351,0.1696844254,-0.0580653478,0.6185104535,-1.9867523914,0.1083887301,0.4194803671,0.6234011802,-4.49190379,1.1009103185,0.6250554475,1.4508105715,2.4144119381,-2.6160630908,0.3234203268,-0.9289341216,2.8890407406,-1.6536009857,-0.2831401057,3.7943059696,0.5232712673,-2.797042399,1.6026716326,-1.5075684706,2.5883449542,-1.013126417,-1.678365129,-1.3463533506,-1.2962267396,1.5281933573,2.1965784942,0.8403049979,-4.4501074159,-0.8528307601,1.42773274,-0.1399886503,-1.3638317439,0.1831480169,-1.0658301176,-1.358867375,3.3293268696,-3.508732585,-2.2278253538,-2.6101403615,-1.4296337911,1.2143466006,3.7992284255,-0.3208340415,-0.5733526894,1.723786841,-0.9568482516,-1.2907188466,-0.672806888,1.1135265259,-1.0327160893,3.6375205367,0.2927236692,-3.6524963388,-2.2193397522,0.772495129,2.2703316922,-0.7278398178,-2.1618605656,-0.1186709508,-1.2630216874,2.4763561405,-0.6263607375,1.229466856,1.7653254335,2.6838409542,2.8616817941,-3.5844738855,-3.1032255701,-1.0775244859,1.804232398,1.8718288667,0.6489233034,1.2405862794,0.6019586124,-1.0359041742,0.2773200765,2.349569416,-0.7891303032,1.2987608988,-2.630233583,-0.1505033378,1.0100190775,-1.6937976033,0.3473695459,2.078466618,1.0061536267,-4.4922974434,-1.0992064156,-3.6394146493,-2.0698750117,3.6222330868,-0.6905228405,2.1315679575,2.7849646107,2.2624609873,-0.9240008044,-0.1078891798,0.8549724812,-0.858698182,0.8648176716,0.5051900159,0.8981879053,-0.5759016269,0.1629115973,0.2152188404,-5.9998924532,1.6361576991,-0.1138347909,1.1920107342,0.1728185804,4.2280117492,-1.089760692,-0.3718590811,-3.2171455765,2.6089825177,-1.7862782605,-1.5088455019,2.3488573516,1.0826543509,4.3797202845,-3.288418972,-1.4200310979,4.7143788641,1.8685930104,-0.3798496389,-2.2090580033,-0.0609090791,-2.4463548889,-2.7385212288,0.3212233259,-0.9185535066,-0.3639145776,-1.0788830887,0.2535517662,-1.9026897733,-0.7511302459,-1.6146677924,-2.8387260375,2.1390552467,3.6268497574,-0.3089980299,-0.1238659904,1.6484717323,1.3073968092,-1.5966758348,-1.4489760407,-1.0653234255,1.43709955,0.6372666651,1.2614136312,-0.6947454578,-1.1881800765,-4.3178787514,-0.0517785746,0.8722142057,0.5145970684,-0.4019693583,-2.4263828407,-0.0181974735,-0.2792032281,1.9524334061,1.0284387688,-3.1611638119,0.9875551819,0.2876395189,-0.6278015779,0.1303875203,-1.4037480233,0.4241724027,0.6482963857,-0.4684569426,-1.0778144428,1.0131210044,-0.9207210378,1.5519917412,0.6110559729,-4.3237745984,0.2121157507,-0.3300054569,-0.5767946568,-0.7242604347,0.0501933198,0.0350860744,-1.4283336109,-2.0425431731,0.3473546843,-3.7872144797,4.2163313388,2.2387420054,1.6498014421,0.1420567678,3.0399631695,-1.3950570239,-0.0844973642,-1.7451228105,-0.9781120641,-0.3438137985,0.4163821499,0.4063174103,0.5607853128,-0.9559772678,-2.0838572155,0.0642365964,-3.3305440083,3.7270362447,-0.7428141334
   -0.9263337205,-0.240590743,1.9363685955,0.1394859911,-1.9366237183,-0.5661214582,1.6690645277,-0.7016872671,2.1211597102,-0.763477749,0.6678457426,-1.7408889445,-2.4560414423,-0.5800203198,2.5733695365,-2.6142286931,-1.3984147986,1.5724880131,1.7566567114,-1.933377543,-1.8495400791,-2.4322574403,4.4054559571,1.3687729244,2.8368922941,-2.8389746915,1.4011632045,-0.2765441875,3.3138719196,-0.3296223944,-0.4893847532,-0.1854918445,-0.0106597256,-1.0187067701,0.6836460197,-0.1702748671,4.5395315543,-2.6028622407,1.9474973845,-2.6215208867,1.3181787996,-1.6679737566,-1.5850842741,-0.1914155095,-1.5008664457,1.1621678992,-0.2529673009,0.2114208507,-0.6992646798,2.139976739,-1.317811239,3.1510688452,-3.2495738638,0.3847595685,2.4995595115,0.0101001334,-1.4478091525,1.0061402306,-1.0704900597,3.3766837084,0.735094977,0.1782719634,-1.9034023754,-1.269951477,-1.7285754216,-2.0171658295,-1.5864024406,1.6162512407,-3.9945937837,-0.597309917,-2.0697599245,0.9259944822,0.2411783334,-4.1137984976,1.7864575537,-2.970702266,-0.8417713243,-2.0955937093,2.0182865215,-0.1503324334,-0.2586111309,0.0095574425,-4.3724096736,0.8461637098,2.6514609106,-1.1604177362,-1.4376516095,2.7207030337,0.4169295344,-0.4250519365,-0.6533069469,0.3098508605,1.1584244252,-3.2515988648,1.0811912189,-1.5853456367,1.6799481805,4.4082794435,1.5051148893,-0.4063929422,0.5848774638,-0.9441398813,1.5609581239,-1.1058733682,-1.3704213952,-4.5410347124,-1.4171354784,-0.4147730257,1.8663557879,-4.4211650949,-2.6343281326,-1.0493713699,-1.2464714554,1.6995505537,1.4478905978,-1.288046629,0.0705031406,-2.8104666095,0.2204938139,1.9994846521,-1.2949472382,0.8937002627,-0.6963869565,-1.6505726944,1.6315834331,0.1688234121,1.2970440866,0.605934328,0.5191302381,-2.3850070118,-0.2076953679,-0.7445525219,-0.9075553977,-0.4202685208,-1.6349884687,2.4140781605,-0.4859293958,0.5075004605,1.6709752484,0.0844335121,-0.8943649351,-2.1955283969,-2.0494008336,0.5594302497,-1.0754712606,-1.8422597947,1.4814285554,0.9960251818,-0.4581914974,1.8569601375,-2.5545125463,-0.6865487243,-0.2094153168,-1.2595283657,-2.4945543677,3.084436607,0.6280387222,3.5562544014,1.4516403393,1.0108157789,0.9707788376,2.9342123892,1.3118000498,-0.6309345194,0.3849848806,3.7108618032,-0.2678030338,-1.4495609326,-0.1027331878,-0.7015166876,3.734229394,2.4591646347,-2.2675713349,-3.1993512758,0.1854696454,1.2843106592,-1.842757772,-0.7448548195,-3.7852797214,-1.8204075742,0.6769284601,2.300303798,-1.7964133919,-1.5358401791,-2.0028591363,-1.5459523619,0.2570775821,1.889493144,2.3972064016,1.0384553037,-1.1274694377,-2.5252900006,-2.3797398479,-0.1269558442,2.2629352163,0.969169925,1.4319951636,0.3630042233,-1.64815358,-0.1321346573,-0.3708346205,-1.3937325064,0.0865828924,-1.7522262114,-3.2956544535,3.5696776653,1.7587979024,-0.3655909958,0.031652511,-2.0168534197,1.8288583904,0.249851651,1.9288293212,1.5109950602,-0.6501852143,-1.4954234304,2.4614407382,-0.7647209322,-0.2492786279,3.3368975352,-2.7895694533,-2.6657412443,0.10707383,-0.1899767943,3.5467657775,0.4126466704,0.4996415028,-0.2371110391,-1.3648391514,-2.5295570355,-0.9446354155,1.3163378508,-0.6873824571,-1.3653380291,-2.1335665755,-0.5191824349,0.9201139887,-2.2148765971,-1.9531129108,-1.4127109375,4.0450286107,3.7376611498,-2.0927235895,1.1092309439,1.3109270689,1.749243785,-1.7622096326,-3.5744836438,4.9663174666,0.0131313329,-2.2617549096,0.7606522419,-0.3562997082,-1.7258166619,0.4075321917,-0.2122340006,0.0344824096,-1.2454652407,-2.3447742795,1.6231768173,0.5072314234,-0.7889236747,2.7925609691,0.068993146,-0.3386535225,3.4181530294,-0.5300827106,-1.5553326916,-0.5543377702,-3.4386428739,-0.2688407777,1.3623090458,1.2323230651,2.9244716,0.4343787836,-4.9535902933,0.5973575145,1.9533732972,3.2421675208,-1.0390978358,-0.4402096206,0.1564678355,-2.991084395,-1.8132108479,0.0571277538,0.6940629922,-0.5180680244,3.2644160688,-1.0972251577,-1.1385479662,0.9834010544,2.7817941307,0.6111770996,1.1567435407,-1.2025389786,3.0577009279,1.2157345745,-0.9565335401,-3.8530743263,4.2536953849,0.691076427,-0.7349529307,1.2811752273,-1.6882121059,-1.8281442453,-1.8408705912,-0.5340749231,1.391512953,2.2107583401,-1.7073635251,1.2132420143,-0.3076886036,2.1589460574,-0.1887509044,-1.2049060544,2.0456071003,-1.4900398114,-2.2059451016,-1.5201809666,-1.1328080833,1.0264695479,-0.859107101,-1.936498139,2.5880868114,-2.3270882799,1.3696090999,1.0461755219,1.1055025476,-1.2393039736,-0.7239729282,-1.2473366588,-0.4631900034,-1.8919265967,-0.1509641957,1.224572125,-0.0930301567,-1.4117081444,-0.9010423285,-1.4942677955,2.2960842056,1.2965191897,-1.8108997748,1.4268445054,2.1961737989,1.3082106092,-1.0964304294,0.0327397537,1.1520069775,-0.7046971352,-2.1638063859,0.2454075492,0.8598527132,-1.0992743872,0.5906953899,-3.9918911682,-2.0769649899,1.9382618514,-0.1753314202,-3.1367870649,0.169268507,-2.7022165481,-1.3042584296,-4.4445872397,0.4303185661,-1.0113196796,-1.0309302206,0.3136855743,2.291319647,0.2940169782,-0.3798981334,3.3360621748,-2.776797294,3.7283574871,0.8877300697,-2.9093736521,-1.5774188598,3.7598987144,0.0231262992,-0.5098664186,-1.5446238811,0.4191195249,-3.2370202905,-1.819583272,-0.7704789868,1.8312153895,0.4215569628,-1.8046480533,1.8421555566,-3.196030813,-0.4946699402,3.0261213035,1.1821973054,0.6980371924,2.2146064931,-0.5541764743,0.8900930425,-0.980486229,2.769290611,-0.6649529797,2.5330002786,-1.3512376553,-0.4333999223,0.6391984979,-2.1652794412,0.4799642555,1.470113842,-0.6025105311,0.5682769301,0.1952623359,1.0383127659,-0.9138697685,1.0064167278,0.7458319871,-2.6119403195,1.6556693518,2.8994816735,-0.7173973648,-3.8777486725,0.6812124138,-2.5123101743,0.6414616823,-0.3482475277,-0.0677167175,1.5898651052,-0.6555590432,0.5848837981,0.6427842968,1.5603552568,-0.6646569261,1.5162349471,2.1600101427,-5.1758890909,1.1469731073,-1.3443320678,1.2857784968,2.4211112623,-3.1202781865,-0.8315584137,-0.105454745,0.0038054557,0.839937377,-1.0014704624,-0.1776362174,1.8469026202,-0.6190320677,0.9178415378,1.4482439451,-0.3914560136,0.5055858299,-3.0551774552,-0.6751209402,3.0348059041,-3.6091162012,0.1925578971,-3.787430957,-1.303017582,-1.5604280421,-0.3887039541,0.5027316544,0.669746244,1.6337442541,4.9977253542,2.6578176882,1.4392847707,1.8156282455,-0.3895403816,1.7403383908,-1.3119236191,3.9130064497,1.2220269136,-0.2475196987,1.4180254287,-0.7330141783,1.9779549224,-0.5737755637,0.0360800462,0.7549922368,-0.5099712769,-2.2919408384,-2.4725033453,0.8434151242,-0.3228138104,0.3898249068,2.2132122218,0.6175801628,-2.0519651537,-0.3343897383,-0.9042533243,0.1744817475,0.2216085526,-0.8811164443,3.2477569667,1.3223691757,-3.2475304775,-0.2309990674,-3.4406164275,-2.2457455639,-2.22386804,-0.8810990703,2.555031763,4.1435097462,-2.4395972938,-0.2770963096,0.7099136366,-1.1655250444,4.139529144,0.8491039853,0.359034548,-3.3371321019,-0.6389806609,0.8918498823,2.1018112547,0.1982314381,-2.7079807831,-0.1580112817,-0.4601907783,-1.8028731378,-2.4979274188,1.4500091536,5.0483660691,0.2673101448,2.4206011487,0.7106221863,-2.168285882,2.2908855009,1.0196651176,1.4674287511,-2.5221579595,-0.764167821,-0.3259804614,1.3199760268,2.2343117617,-3.05857847,-3.2007645795,-4.3651851383,0.3956464925,1.3766541992,3.0884564639,2.3125815374,-0.0002046175,1.0860719372,1.5010542864,-0.1180330091,-0.9820576041,-0.3565068648,-0.4875568089,-1.59585832,3.8036862653,-1.264811935,0.8933453123,0.2702514351,-0.4344841778,1.2344243588,-0.6706126207,-0.1281472846,2.3727008456,2.1586085815,2.4258074805,-0.6337130705,0.3927732056,1.2448080462,-1.0527558706,0.0660008174,0.4910260776,0.3825221102,-1.6717010454,0.3133120239,-0.0340516688,0.5431980788,-2.1282308221,-1.0984449811,2.4421907947,-0.7578969501,0.339228427,0.8241640667,-1.6412389568,-2.851214574,1.7501318261,-0.1934394455,0.0033532095,-2.9328466003,-1.0798218153,0.2286119071,0.0873521179,-0.3702610462,-2.36000095,1.0795214537,2.1707191824,1.1333817629,1.0213412912,0.0628173616,0.4685364209,-0.6211927731,-2.0959334712,2.3667184767,-1.5310075115,-1.4570005166,-2.0417563839,0.826504225,1.4737213169,-7.0418966569,2.4550215468,1.7713784242,-3.3698212217,-0.9595598353,-2.2727773176,-2.6326101936,1.9822575729,-3.05061041,1.71625405,3.2774473151,2.1746080699,1.7551392712,-0.5289129335,0.1872487875,2.3886488481,1.209442244,0.6860013579,0.2656935234,0.1877839006,1.6102796583,-1.239916616,1.0328745661,2.8754787267,-1.5284218461,1.7081643642,-1.2343746972,-1.5551366289,1.5126010642,0.0583787105,1.4077359607,-0.5394213166,0.751705041,-0.9298424029,-1.0731862341,2.56006486,-1.8388133677,0.8911456673,-1.948515975,-2.7199117925,0.6520349425,-0.5854936791,-2.3845734139,0.6563382993,1.426088443,-1.3622482692,-1.9957144695,-1.4491982631,0.3676646296,2.4643223946,-2.4078335688,-0.5701731403,0.1493947516,1.9955776156,0.8533561673,2.8048806167,-0.6355592036,-0.0290716125,0.6929607157,1.4464620356,-1.3182163294,-1.7774547777,0.8348808048,-1.8461886771,-1.2240583013,2.4269246675,1.1075117731,-2.0420208537,-0.2241443033,3.1847010443,-0.8065996024,-1.7774154586,-2.6575045567,-3.1445579033,-1.2965421307,3.1922058681,0.3194098009,-0.0558543672,1.3936832798,-1.1859588586,-1.775805626,-2.5792131341,0.2887732246,1.2685613568,3.0995199398,-0.8087599143,2.8955074544,0.0070663445,-1.3424553262,0.8649844069,-4.5678399411,0.742574538,-2.4716560138,5.1492020116,-0.2548626606,-1.1479116007,-1.6315109794,5.1733229509,3.676958774,2.9031145549,-2.8580833563,3.2873315323,-0.2406904092,2.0509164009,-3.656514565,-1.8287149756,-1.9093313397,4.469646656,-3.1918847427,-1.1179774471,1.1032940599,2.8619823784,-0.1302609491,-1.1816463208,-0.3669864403,-2.0399055939,-4.7775448756,0.3535688659,-0.5399707679,0.9715228323,-1.0260529661,0.0339677678,0.4940810963,-2.0554825422,2.3190369333,2.5959385585,-1.932923359,2.8726155702,1.2283898932,0.7322233305,0.6052396042,-0.7995954397,1.3789980559,3.4254073368,-2.0183870116,-0.9027884032,-0.8240711095,-0.7385573798,-0.4349130597,2.3176335296,-0.0087902833,3.738118044,0.873605087,-3.1124352452,0.5509833321,-1.1300932135,1.8459841674,2.3654818225,2.1945081703,-1.6100019748,0.2290349675,-0.7531186421,-1.8646844237,-0.2883145782,0.9336692191,-1.8115637227,0.8326191877,3.5332976418,-0.4410372169,0.0629836158,-1.6576925138,0.3030563608,2.5905993221,-4.8756996227,0.3286777444,-0.6201931407,0.252265177,0.303402487,-2.2570974158,-0.8485287798,-0.2909965611,-0.6260919331,0.2234090094,0.9287567407,1.0672294345,-0.4273891817,0.0994759923,1.4869791341,-2.1439416055,1.539865171,1.4451057798,2.2383610312,1.6730082282,-0.8464735491,-3.1939350197,-0.8541230873,-0.1354763817,1.8264036569,-1.3827239287,0.2528072118,-2.242469512,0.6584352348,-1.9665145006,1.2418240157,-0.565637332,-1.0516968222,-2.4163239737,-3.11960994,0.1669177285,-0.7337729103,-0.4142576074,-1.0938393223,2.1600493529,1.1259221895,2.0338688799,-1.1551359354,-0.1593918472,-0.5459527512,-1.4636198866,0.3273571611,-0.2208484469,-1.5931435257,2.4565407346,-0.813925132,1.1099862204,2.5055695886,-0.0041077364,-2.0620763495,3.3449856184,-0.2249230111,3.2550308817,1.4589291732,-1.9782878028,-3.5487594746,-1.5322988656,0.4632059771,-1.5278841567,-0.8297124813,-0.1267059654,0.5745315617,0.1078435195,2.3840071057,0.3661008012,-1.6514311724,1.4983771398,0.4971844866,1.1047745252,-0.0915523059,2.0909611893,-1.6639648686,-1.5023286901,-1.1524185321,4.564599546,-0.6615877304,-2.0719712723,-1.5732043034,-1.1832507811,-0.8818581816,-0.5667111173,0.8512743549,1.8017034289,-3.2797849051,0.328739214,2.5847295523,-2.0555501874,-0.4759531404,-0.6275547987,3.4102567444,-3.091586856,2.3553326102,1.6519977917,4.9848844872,0.1599127142,-0.240327125,2.8826438999,0.219558802,-5.3042483006,1.6177010214,0.8120637364,0.1442479813,0.294406656,-1.8286863938,1.4366463954,1.9425380062,1.7729079772,1.3697802354,-1.23458171,-1.0565221464,0.2164531502,1.3958609571,0.7120857198,-3.8109924556,-0.557703456,-0.4931344294,0.3893056466,1.2104290961,0.1840714405,-2.8061810698,-0.5347764642,-2.6125542377,3.0686883521,3.1257473349,-2.5752452286,-2.7427050629,-3.8742714535,-0.5340003749,-1.4839704294,-0.007408531,3.6733346898,2.6738262064,3.8323900342,0.7193648921,2.646887961,-2.5341473608,-0.6263013664,0.1217735914,-1.2564974633,-0.814282882,-1.2861017184,-2.0125822608,1.4231892366,2.1305873549,-0.149009884,-1.2495806903,-0.4647857388,2.3813402885,0.6240312197,0.8925601753,-1.4875133457,1.1058138477,-2.6448406401,0.1497670096,-1.6097008838,-2.4604075522,5.923218824,1.3143413266,-0.2315735932,0.4530963168,-0.5432178532,1.6955445115,1.1186168117,1.2698629215,0.4667817817,-3.1982194096,-0.5353284971,0.5170008932,0.2437631023,1.3236168299,1.4999802954,0.8841272921,0.96980534,-1.141897555,0.4607083421,-1.3175537939,-0.9554409189,1.0238108809,-0.8579863707,-0.8909775836,-2.847514018,-0.7268104098,0.5449453738,1.4490183607,3.353590434,-0.8546874255,-0.6543928836,-0.792152459,-1.5768851905,1.4654755708,-3.6239376077,-0.8768341075,-1.628829198,2.2095599366,0.8402571356,0.7703570876,-1.9899118379,-1.1701052274,0.2100431956,0.2440624298,-0.8402267248,-0.6210288077,-0.4139938803,0.5431849984,0.945039554,-0.1899470649,1.0133001423,0.880482024,1.1000079186,1.6699145509,-0.5799048103,0.0617201465,0.0426283317,-1.1656519286,-4.9036586204,-0.9620274396,1.1526390476,-1.883865098,-3.8836932376,1.9102740411,-0.4301572642,0.4243605653,0.1027232572,-0.9376745581,-1.0428277942,-1.5117009465,0.127878462,-2.9350380248,1.1647807374,0.3699740755,-1.7863648408,-3.5037554393,-0.5280032422,1.1795323668,2.3522335473,2.8312367325,0.9295232982,-1.321379501,1.0446951814,0.1306766525,0.6409190216,1.5700225952,2.2877913319,-3.2527503009,-0.6355298853,-0.1059605538,1.022621583,1.1038218149,-0.8400603524,-0.2669944434,1.9255758088,0.6778966666,-0.8232832436,-3.4262139405,0.483249791,-2.2917518738,-2.6862037502,0.362131163,1.216072627,0.3177896554,-1.6800748199,0.1451934043,0.040474394,4.4641757179,0.9132434928,2.5133903819,-2.1084886386,1.9371387165,3.2912841655,-0.6998144371,0.2691413924,1.991548213,0.6557771118,0.4441284063,-0.4118550098,-3.9542691758,-2.7526287708,-0.473524869,0.1066355803,1.0067617737,0.6742272214,5.3051978297,1.7709818865,-0.521909588,1.518331303,-1.3317605785,-0.246887953,1.0528024759,-1.1159154802,-0.162330858,-0.2666345968,-1.6547674813,-1.4340159794,1.0886184507,-0.1680205414,-0.4828689528,0.6111156528,3.1261561948,-0.482565982,1.2357298965,-0.3026649199,0.2365066135,-0.7287262384,1.9268920284,-1.6517201991,-1.6027939526,-1.6678020774,1.0130328416,-0.4329743697,-2.0660811577,-2.4858840656,-1.0953103551,-2.3970977204,0.7808636721,1.2844348246,2.7097195954,-1.6115435837,1.9087075026,0.0323230272,-1.0064249661,0.7729391137,2.4959322971,1.4856108076,0.265568031,-0.1502870829,-0.866090078,1.7296777821,-0.7915756868,-0.8208815771,-2.6572390549,-0.495268651,-1.8617984293,1.2625715878,1.4433832556,-3.2791674319,1.4284866602,-0.6206022489,3.1558467173,0.8744642363,-0.3040287656,-2.3270346087,-3.4272006116,-0.4903840821,-0.0716114127,-1.458013652,1.0062044092,-0.8319803051,0.1832695339,1.6653847608,-1.8484435643,1.6731068358,-2.3656348068,-0.8990002891,-0.97127543,1.348788609,-1.7956008277,-0.8901162001,1.4707345949,2.5030620792,1.1660281669,-1.9513433944,-0.6161833722,-0.6487751506,-1.1967267157,-3.3859639202,0.8360530112,0.174180413,-3.3281727223,0.4059833815,-3.0977403595,0.0598907692,1.5487319641,2.7524996888,-2.0799580182,1.5925128466,1.3767846225,-4.5782588653,1.0824538148,-0.6807648088,-2.3392386771,2.6034596315,0.2261135381,-2.1033818868,-0.6264490844,-2.5809418202,2.6264725926,1.5818887144,3.1962432142,1.0307480322,-1.7535769272,1.7210582892,-4.5244083142,-2.0339258128,-0.0362468357,0.3890556653,1.4155525255,0.1998683502,-1.6012161114,0.5123837622,-3.7231144305,2.6213774644,-2.9194119463,-0.3850358954,-0.4257524475,1.4568746413,-2.9301586196,1.6190153521,0.4588755583,0.4790424765,-0.0137097594,-0.7553359814,-2.1058665608,0.8580481277,0.2130263186,2.020742282,-1.7383390767,-0.0166510969,2.2436076306,1.0181445581,2.5167130994,0.3858277553,0.6803279294,0.5609562632,-0.439167057,-2.3648953296,-1.0429557112,-3.2483485019,0.2027689816,2.693148553,-1.5190464164,-0.3054612992,0.6143558241,1.436823307,1.0937799078,-2.3861734257,-2.3082880229,2.9580324156,-3.0686380081,0.1620247866,-1.6117656393,2.4278781739,-3.936421238,3.4212880519,0.1879233934,1.4141392175,-1.5252422921,1.9375393119,-1.621321664,-1.5860235631,1.859470856,-2.1174502058,2.1366789724,1.2488810959,0.4711330503,0.3973147846,-2.4062787426,1.7026708808,-2.0718816205,-1.0243474951,-2.4126969918,0.2026533862,0.4748970778,3.716257972,0.4254543761,-1.6906436318,0.971165896,0.874288887,-0.0273756949,-0.0315132005,2.4156173262,-0.7970669292,1.1532632046,-3.1387707714,-1.5759512903,-0.3623821926,0.1822792237,3.4568095111,0.5350660393,-0.4478830981,0.1455548325,0.0146099306,-0.518235622,1.424897712,0.2380036002,1.991167611,1.2211739326,-1.4496341238,-3.5587565558,-0.8198591526,-2.6579067425,-0.0949097275,-4.0970022987,-0.4047900077,1.0891592336,-1.7853160139,1.0235126502,2.0099005784,-0.4443954509,-2.7218907311,2.2556060504,-2.7385673686,-1.8230190823,1.3393753778,-1.1427431587,0.9690829244,0.5120715013,0.0550273335,0.1333078672,0.5244509793,-1.1198530299,-0.5516763412,0.5295241475,1.4837054403,0.808007559,-0.6853652787,-3.673226939,0.4659096979,3.1930577253,-1.7178043183,-2.8115797056,0.4007475227,1.4969624019,2.6398971999,-1.6742444849,-0.2759076175,0.0821328176,0.4093759124,-2.4545820367,0.1548559108,-1.8908769596,-3.9879841106,1.3160470663,2.8017227436,3.2726745953,-0.9484851163,-0.1945541419,-0.6956071453,0.9474102319,0.4575212633,-3.0737675418,-0.9570840693,-0.6527927544,-2.2458464948,1.6499077719,1.4632711007,1.8897782202,0.1240197255,-2.8821005246,-0.1354835653,3.9084913879,2.9359063633,-2.4091993659,-0.2487764598,3.2260836105,-0.3393977747,2.0893323334,-0.0669850663,-1.3886285888,-2.8022355586,-0.545760424,0.3943465509,-0.9905783619,1.599915906,0.1354929987,0.7381096366,-0.6531030601,-0.8619041781,-1.6413293756,-2.4842100558,0.0327023049,-0.7941051138,-0.703915587,-0.7088249985,2.0383498936,0.3573459099,-1.3541042974,-0.0030253529,-0.1776472086,2.0028396489,0.995079432,1.0034116736,-1.661300814,0.9996983889,1.0687407851,1.0914824088,-0.6075133506,-1.2861654206,-3.7641237304,2.727133723,-3.2990796134,1.3863819965,1.5242852496,-1.9349254951,-1.1622461902,-0.8830037083,-3.0401557239,-0.9708792414,3.200937017,1.1673627121,-1.1463227254,1.5897404796,1.7807514391,-0.6658901149,0.4075099326,3.1923717501,3.9293822399,-1.1440882907,-2.9480025422,3.4637986813,-1.4248479807,-1.446684535,-1.2669467029,3.2450599786,-3.125128186,-1.2920854376,1.0361273478,-1.3574550794,0.6964289911,-1.765085032,0.6014682455,-2.4699359323,2.7197354283,0.9583814232,0.4396704687,-1.3396547926,0.4533121524,-2.8478403413,0.993249027,-0.3713148351,0.9104290008,0.0496893635,1.3360912592,-2.7874610211,3.9360206744,-0.5550766577,2.8854329205,0.1653019921,-1.559005185,0.1734829783,1.3126545912,2.1711701431,-3.8460807709,0.0658602222,-0.9233899771,0.5185396603
##end
biasActivation=0,1,1
[BASIC:ACTIVATION]
"org.encog.engine.network.activation.ActivationSigmoid"
"org.encog.engine.network.activation.ActivationSigmoid"
"org.encog.engine.network.activation.ActivationLinear"
