encog,BasicNetwork,java,3.2.0,1,1406081511102
[BASIC]
[BASIC:PARAMS]
[BASIC:NETWORK]
beginTraining=0
connectionLimit=0
contextTargetOffset=0,0,0
contextTargetSize=0,0,0
endTraining=2
hasContext=f
inputCount=15
layerCounts=15,81,16
layerFeedCounts=15,80,15
layerContextCount=0,0,0
layerIndex=0,15,96
output=0,0,0,0,0,0,0,0,0,0,0,0,0,0,0,0,0,0,0,0,0,0,0,0,0,0,0,0,0,0,0,0,0,0,0,0,0,0,0,0,0,0,0,0,0,0,0,0,0,0,0,0,0,0,0,0,0,0,0,0,0,0,0,0,0,0,0,0,0,0,0,0,0,0,0,0,0,0,0,0,0,0,0,0,0,0,0,0,0,0,0,0,0,0,0,1,0,0,0,0,0,0,0,0,0,0,0,0,0,0,0,1
outputCount=15
weightIndex=0,1215,2495
weights=##0
##double#2495
   1.0503621902,0.2800716687,-0.8698083171,-0.4840229811,1.3789660864,0.2285358026,0.139116278,-0.4485359046,-1.368943169,-0.5686093181,0.0522912789,1.1142441985,-0.9418523368,-0.5281875122,1.5449094455,-1.3905981264,0.2162150222,-0.1465524494,-0.0707067655,0.7717215269,0.6555129485,-1.473946284,-0.7064868469,0.9234159193,0.1949747772,1.3700556106,-0.7344220269,-1.9740425236,1.3918836786,-1.4105979011,0.9583240937,0.6186020329,-0.9742133354,1.3138748422,0.076359568,-0.7103016249,-0.0692463822,0.1037823774,-1.9231481343,0.7487337778,-0.4977930029,0.5495312502,-1.166215036,0.1514971309,-0.2771844706,0.5814729377,-1.0415020777,0.5344078047,-0.8052149033,-2.1648017318,0.3369499245,-0.3662338406,-1.0827041607,-0.6537416027,0.2291686769,1.4487016792,-0.362453665,-0.2483719797,2.4150194969,-1.570950588,0.4044973404,-0.7293949171,0.8497520541,-1.0733647774,-0.2627833894,1.8796802898,-0.4949796284,1.62253888,-1.5976426305,0.0569492397,0.5077129054,-0.5829440025,-1.0577393141,-1.1204823183,-0.0819785776,-0.7728590802,0.361015489,2.1188132195,0.3298589911,1.6806950441,0.6005362474,0.6619928958,-1.9910089491,0.3751505899,-2.6809430404,0.2285172413,0.9831917573,-0.2280691372,1.3106502583,0.4722823098,2.2958085754,0.42912587,0.7815558031,-0.3872771127,1.5492472356,0.640661465,-1.8664855588,-0.0478203547,0.9666904818,-0.9668463908,-0.186416909,-0.3338502112,-1.3788081202,-0.2783069767,-0.5411921127,-1.6222782823,0.7868173537,0.3412934921,-2.074609876,-0.9262538994,1.3040861683,0.3364714503,1.2898117038,-0.3614924696,2.4981860668,0.291810239,0.5188966436,1.4131510188,0.3472779427,-0.3659586319,1.5677271012,-1.3065260188,-0.2018268963,-0.2404622176,-1.1450925483,-0.4163429532,-1.7512871706,-2.2945163506,0.3110082962,-0.5516951263,0.6047560364,-0.3294901107,0.2793293048,1.2921265346,0.4750726955,-1.7500874523,-0.0542419699,-1.4298952646,1.6543280179,0.317415401,0.5767038696,-1.2204159019,0.2929987741,0.644467869,-1.6987944191,-1.4243633444,1.4094341689,-0.4578859152,1.5803794763,0.5363997646,-0.9283437156,0.0282776949,-1.721348756,-0.7967735487,0.719491512,-2.0340377602,0.3627086746,0.0035057246,1.6284204247,0.2959318887,1.4390938456,-0.2027246041,2.7340112683,-0.8638465674,1.2961901635,-0.0879638269,0.8809734817,-0.213601162,1.4224353268,1.4164508337,0.6287994759,0.9824671015,-0.756708438,1.5524031988,-0.6187686858,-0.1015738125,0.970685948,-1.8878822536,-0.4522666475,-0.0564523215,-0.9329366392,-0.5811311669,0.961091367,-1.1872657492,0.0692733674,1.1865796756,-1.1615574902,-1.1715167682,1.0983461654,-1.5121910529,0.6020935492,0.3099258922,1.7653376619,1.1359489576,-1.0152022893,1.0297835148,1.1135553008,1.356837281,-0.0671159051,1.7990028597,-0.3737677808,1.6866427479,0.5379510995,2.2055153884,-1.3926675934,0.6084378792,0.9921441021,-1.2284134784,0.8768964867,1.2338289406,-0.2386881256,-0.3509552084,-0.4081972625,-0.6966066116,-1.7784799632,-1.9403220508,-0.8364681696,-1.179100502,-2.0843001054,0.3276610732,-0.3551529911,0.2032221703,0.0707363595,-1.9367638566,0.4615804107,0.6409025542,-1.6567153636,1.7171987343,-2.5729064053,0.487973628,0.2940084013,-1.1539160902,-1.7508446695,-1.3769246015,-0.6615853462,-1.1225018806,-0.3315425134,-0.4647257077,0.5549395714,0.2594310451,0.0693584519,0.3085257818,-0.6830640972,2.4141868038,-1.081251826,1.4384553421,-1.3405069745,-1.5478501471,1.3493793878,0.1598970284,0.9758008921,0.9064358868,-0.3805955656,-1.0598646662,0.9631678895,-0.1256064484,0.6192690052,0.5083314585,0.90147624,-0.0231313933,-0.8747075523,0.839745515,1.4547578648,-1.0703570693,-2.2466943098,-0.2157715419,-0.7678901804,0.2782181832,-0.7522732561,1.8238845542,-0.040966115,-1.0461955099,0.1791337502,-1.2204167737,0.6234825666,-1.1933422483,1.4789211174,1.1192575584,0.7259847709,0.1891956035,0.5930290013,0.4484318756,1.2830291952,0.8651848982,-0.3290883085,0.4488775632,-0.2791250489,1.2029750491,-1.1260630072,-0.5507972323,-0.9116580034,0.4507709081,0.2954054822,-0.7081642413,-2.2010633059,0.1181511033,-0.9425081087,-1.1691133526,1.9272160632,-2.3769786334,1.7501492568,-0.853719228,-1.755805574,-1.6648834778,0.0134511695,2.6301278947,-2.3328211439,-0.0384747143,0.2791583533,-0.9030694886,2.2023064211,0.0590421901,-0.0903798076,-0.9432557515,-1.5328244347,-1.4511415548,0.8113568758,0.3442544211,0.4895797715,0.3752133032,1.9636242273,0.6455018089,0.3557346635,-0.9837294827,1.440156759,1.2425900577,-0.6716567772,-0.5807982704,0.4676157159,-1.7101451199,-1.0965653046,1.7883130635,-0.0091108483,0.7770624555,-0.4553410547,1.4720172415,-0.5317365619,-0.1442602162,-1.2661493648,-1.1964591422,0.8071440632,-1.7090132193,-0.9558637658,0.1145921901,0.9021112225,-2.4591612107,-1.9764223037,-0.854859627,0.7132387807,1.5139940849,-0.2561296799,-0.2060260872,0.4985009211,0.4085153475,0.0542678393,1.3185730598,-1.1559195492,2.1185231773,-0.025087263,-0.3643834376,2.5247180221,2.5837986252,-2.3827197218,0.5601837505,-2.3700776134,-0.4905996727,-0.5904942232,-0.4033331077,0.7971367537,-1.2529058986,0.8434403747,-1.3627658267,-0.597863432,-0.1510450948,-2.029116848,-2.1508615021,-0.9503496264,-0.855803343,-0.2520165436,2.4306418621,-1.4755191641,0.0108945824,0.9570353275,1.0555109003,-0.1136355214,1.4300148246,2.8252824947,0.6399617132,0.7792668317,-0.2588316345,-1.236117925,1.6098463407,-0.2532434798,0.8988579159,-0.7124138778,0.103032177,-1.7720093333,0.737798798,-0.334441112,-2.1916562766,0.0644504044,1.5962256083,2.8145210645,0.5412963462,0.0512213694,0.4470981801,-0.8763859089,0.9173193428,-0.2645309886,-0.838379565,0.0021266413,0.7319605736,0.8083759267,1.6537857469,1.0798964588,1.2215682597,-0.4560127792,0.9035321534,-0.2554255685,-0.6683709003,-0.3251534643,0.0890133048,2.7096478673,-1.4225618801,-0.7039743605,-0.1135337407,0.6521207167,0.2134688384,0.2771261055,-1.7200267382,0.3115292719,0.4011224342,-1.677483045,-0.3821139437,0.6833323812,-0.0632662293,1.0925381048,-0.740520421,0.5311785872,0.5483487527,0.9538388289,-0.1843678252,1.3919403635,-0.1147874341,0.2397824903,-1.7676470475,-1.3401797645,1.0650377535,-0.487472675,-1.2748940989,1.1573049788,-0.3447233533,1.2080837079,1.0553269278,1.1193505173,1.4037295617,0.3978395417,0.6627401243,0.9829407255,-1.6354072526,-1.5114192837,-0.5908733979,-1.2437776619,-0.6899284227,-0.2358702646,-2.2092303262,-0.8616122141,0.9737314584,0.28432673,0.7825265146,-1.0849682724,-1.2924326227,-0.7658741817,1.8837550366,-0.8460540052,0.2604850243,0.0304669484,0.5482653251,-0.1335563763,-0.8023573473,0.0141494321,-0.3383594286,-0.4763332707,-0.3134320301,-1.1883362099,0.7818586475,1.8506325821,-1.5946656291,2.8829063761,0.4584704514,-0.793961133,-1.048697903,1.8293967548,-0.411618103,2.6687477743,-0.7410216903,-0.5354852589,-0.3214821112,0.1269780177,-0.4507358496,-0.4113537535,1.1273824919,-1.7625060197,1.703592776,-1.7676586422,-0.6439216478,0.0916545219,-0.0599934265,1.5430654336,1.6945208469,-1.1789297963,-0.781516428,-0.7068669511,0.9147540138,-1.2067197187,-0.8469392646,0.128015745,1.2699065003,0.1724373906,0.5079539827,0.5804625224,2.2653379487,-0.6557995551,1.8649730344,1.1878807076,1.4405397138,-0.0021917559,-0.0295150316,-0.8954725195,0.1744452544,2.0980566435,0.1950481817,1.3533311867,-0.5778477947,0.6408574773,1.4766708616,0.4696547964,-1.7806303174,-1.547994268,-1.6208171541,-1.3254332963,0.395692285,-2.0201257123,-0.3591584889,-1.1325337641,1.6286456973,-0.7180211913,1.1707553154,0.4305014094,1.2769859992,0.2650520719,-0.97733929,-1.6100378789,0.0804032687,1.1558422171,-0.092190956,-1.9128744442,0.9818499907,0.0015741195,-0.5153283762,0.279922014,-0.3462601327,0.3494132609,-0.8166968023,-0.3002289144,-2.5015498742,-0.0488721524,2.5631204945,0.5965170553,1.3326426256,1.2523997057,-1.7677877435,-1.4781360075,2.7605468325,0.7630882053,1.7514687654,-0.2354961569,-0.9119409179,-0.2350302481,1.4330756354,-0.3078722279,-1.8906873459,0.0736353628,0.9867827226,2.0756671138,-0.5258978834,0.0992911204,-0.6741428551,-0.5512320349,0.2338140563,0.4940307642,0.2690754207,-1.672017262,-0.372787238,1.831834722,-1.9974821748,1.3428494508,-1.9462192354,-0.6470979796,-1.50876719,0.090109557,0.2344718449,1.0713916082,-0.1562833123,0.3576399389,0.1973802647,0.9936041087,0.480820318,2.058220484,0.806360322,0.2075795701,0.7164934162,0.3579017403,-0.4125514289,-0.9709099735,2.1768175337,1.6814242638,-0.6299187186,0.7760498281,0.0673021451,-0.6003173922,-1.104733404,0.200158382,-1.349886364,1.0223841996,-1.6581940428,0.809097196,-2.6277193471,0.5865673993,1.4411471229,0.2458191321,-0.6503714172,-1.676580298,-1.0096015932,-0.6157302653,1.1022002802,0.6684717906,-2.3928561799,-0.7873795783,-0.1222147032,-1.8292668283,0.0662481536,-0.2820687252,1.1239507397,-0.8596659277,-0.318495554,-1.2521233459,-0.7029397461,0.2879439373,0.9836775404,1.39536923,0.3014664738,-1.0896357515,-0.7264057665,-1.2988518387,0.8456834748,1.7808914693,0.5289371859,-0.4162286867,1.1045693854,0.509592601,0.3909675395,-1.9554444425,-1.1017165151,0.0442635739,-0.8933315592,-1.7649917443,-0.5257412888,1.9591668188,-0.3025216359,-1.0507287362,-0.4944449136,-0.1075171775,-0.755536155,1.6964849528,1.0226909231,-0.5335631633,1.6046889024,-0.462319588,0.9834733526,-1.6599683201,1.5398318928,1.8590213642,0.2385267218,-0.502795854,0.9795105039,0.3223663092,0.426511833,-0.2862723409,-0.5499551205,0.1200195756,2.0723465086,-1.2153340354,-0.7850558905,1.7117748469,-2.7760970127,0.1841465691,2.0709529994,-1.8940159408,-1.3974929202,0.5786080954,0.191090109,0.4257861922,1.1036019108,-0.9336415151,-1.4258671162,-1.7761246203,0.9257928342,-1.6203142828,0.7970343112,0.8858709975,0.4996937189,2.1452115384,-0.2808741278,-0.4166496241,-0.6646095892,0.8721870815,0.937390457,-1.3932275084,0.2155906691,-0.9214014939,-0.8062800079,0.6464584936,-1.7160792815,0.2172497118,-0.1191967375,2.0602315567,-0.8900941028,-0.7785890375,1.9219476647,0.2339140664,-0.939704675,0.4183733912,-0.0431427499,-0.4015680721,-0.104743221,0.0475782324,0.3422663065,-0.2522560825,-1.360496544,-0.1324753289,-0.2902188347,-2.3609898595,-0.0207220105,0.0045804509,0.9435603761,-0.2503871868,0.4342995525,0.840486888,0.3666630936,1.5628141373,0.2163248746,-1.401607051,0.0348857557,0.2197517764,1.0214888284,1.2312393543,0.5650358333,-0.5887369811,-1.2940412561,0.7284390287,0.118679341,0.8260162661,0.1551580684,1.8290644905,-0.7137422222,0.9483196871,0.216712028,0.6699891573,-0.3083178671,0.5826601363,-1.669252397,2.1536987209,1.7754090244,-1.4316310749,0.8645474685,0.7844940026,0.2148676207,0.0594308058,-0.4390992837,-0.1875079228,-2.6395597228,-1.9675323593,1.1582516725,-0.5831978514,-0.7042175913,1.2452567176,-0.4692032197,0.4907495417,0.617788731,-0.1816400986,-0.3783613139,-0.1973644043,1.0249710486,-0.4825074238,-0.3732295054,-0.9610943223,-0.4940868363,-0.6614220954,-0.7663094742,1.8375562447,0.0265463978,-0.6200576124,0.6632288155,0.0164407384,-0.9667175783,-1.074195643,0.1776885437,-1.1438845073,-0.54953167,2.4038927303,1.2656199657,1.1398803009,0.8119877515,-2.4158357274,0.0531880674,-0.8870385966,-0.7862716694,-0.2305511588,-1.8342826661,-0.9292446472,0.2512657201,-0.4338910905,-1.8854039435,-1.6134457007,2.7219273179,-1.09359652,1.8073562217,1.0865537598,2.7628433305,-0.8060203336,-0.5446026558,-0.2065098644,0.9065218305,1.5214318923,-0.3147821783,-0.1472840512,-0.1586730545,-1.6222901494,-0.3648236856,-0.9351094547,-1.3731372461,-1.0007663656,0.128523938,-0.6666391039,-0.269846048,1.9923762117,-1.2200769392,0.9749153386,-0.342974681,1.5938569218,1.1940229485,0.1489889869,1.3445352115,1.5668990085,0.3334829716,1.541766446,0.1252942376,2.7370087833,-0.4879184826,0.6068572191,-1.2609815948,-1.4282102864,-2.5343005046,1.5562454215,0.4207301926,-0.1960360458,-0.1317477308,-1.9637124516,1.351861447,-1.9055085897,2.2342214141,0.1891721928,0.5285377543,0.1768321857,0.2204935141,-1.0762150195,0.9204564044,-0.7699499948,1.07961778,-1.7992597169,-1.1166087526,0.9576787913,-1.402703703,0.9344015716,0.077298833,-1.6053284393,-1.0145222098,0.4951465172,-0.5507667534,-0.1422755688,1.6234227969,1.3136535524,0.2933426817,1.1109667303,0.19213064,-0.010905816,-1.2303726838,1.3237151548,-0.8382271069,-0.636868174,-2.2342834614,0.9998742044,0.2062158913,-0.8326582061,-2.2568968751,0.6969757484,-0.7267255221,0.0831952931,-0.3079854455,0.200824856,1.4891211087,-1.5590888836,-1.4652200374,0.318172775,1.1149761413,0.4349840093,1.7321574407,1.0473449525,0.8693053927,-0.4776833349,0.0915526121,0.0186483627,-1.2443685923,0.3239985517,-0.3922161126,-0.8348648399,-0.8653218591,-0.7805484158,-1.0399689768,-1.0410605756,0.9720456236,0.6627295299,-1.7011330248,2.490403614,0.3029185694,-0.0987668279,-0.1070530701,-0.9616186573,0.0308575208,-1.1172034824,-1.4190408982,-0.3498704995,-1.7261135201,-0.8854938556,1.6144349195,0.7752348203,-0.2061139792,-1.6556024334,0.5310155121,0.4550408368,0.6313982445,-0.1554479041,0.6970424272,2.1085359746,0.9017001925,1.45999308,-1.2512646672,0.1743571637,-1.5769890193,1.9003807999,-0.3809368451,1.0536663732,-0.7186470365,-0.7347553459,2.1549129187,-1.681900647,-0.5415177198,-0.0491767903,0.9665730022,0.7264905876,-0.2281259168,-1.0065518957,0.2834714975,-0.3937559429,-0.5720972722,0.043360822,-1.3745385892,-0.2396648352,-0.1693877126,0.1968323671,-1.0707942283,-0.6510178153,-0.7172331698,2.0734374483,-1.0862813483,0.0696857134,0.1191538619,0.0918518263,0.9744698334,0.6113050484,3.0420344421,-1.0776184425,-1.3608821259,0.3349391906,1.254035647,1.0131774881,-1.2184784082,-0.1059511782,-1.049186682,0.3252577305,-0.6023868897,-1.0886161245,-1.3165289194,-2.4361186165,-0.0167500998,-0.0691293004,-1.6646230623,1.3157284974,-0.8980673406,-0.9253042783,-0.8949343646,-0.0946210138,-0.0489514011,2.2469042171,-0.0002300664,-0.0153947377,-0.0090353432,0.5409249809,-0.7848416335,1.3572224474,0.449165621,0.2078631393,1.275552513,0.4686035897,0.1551028118,0.7963071747,0.6499777415,-0.5177026988,1.2399412646,-0.1493805317,-0.965063944,-1.4378318879,-0.1252900673,2.1688371746,-1.6079694653,0.4387672356,0.6997400442,-0.206439363,-0.0370834951,-0.1186264164,1.0816797041,-0.2020991177,-0.6843135894,0.3798181352,0.6071232365,0.4026939381,-0.1307122885,0.2352862876,-0.0671917348,0.6939288235,0.0313989271,0.8818967814,-0.3556547838,1.8667753407,-0.6775511794,0.981994594,-0.9887405148,-0.3632168244,-1.284401603,0.4749759461,-0.3128457091,0.6870744654,-1.0470650853,-0.6026446896,2.3111231358,1.0336130001,-2.0437916735,-0.5498022201,-1.8347607084,-0.4397637171,-0.3368057634,0.4417692125,1.2229397428,-0.2618289349,-2.9517368773,-1.5285432083,1.4639383656,0.8977644355,0.6587379476,0.0107688459,0.6087232091,0.9815536065,0.8285794561,-0.7660684176,-1.7831229184,1.2182997858,-2.3203390772,-0.7207335099,0.2152761738,-0.2294961791,-0.3385006134,-1.1748519325,1.0360889475,-0.0872323854,0.4276239524,1.0594659913,-0.2269748905,-0.0332780688,-0.1643522923,-1.688998772,0.9494112005,-1.1213100293,-1.0171120452,1.3961583779,1.2397197525,0.5970681167,1.7331937592,1.427642383,0.3291218808,-1.1848115943,-0.0064302011,-1.1750942081,-2.0088110096,-0.9765194361,1.1027124963,-0.3082024137,1.2547139887,2.4556296715,0.4064797006,-0.4892741607,-0.3929520277,1.8469852669,0.4373077012,-0.6548540308,-0.7681435324,1.0605997025,-0.2100570427,-1.1576355982,1.6530222679,1.1194731742,2.2407148897,0.2095327859,-0.6681552596,-0.5861001435,1.3522842328,-1.429225316,0.7838263103,1.3007666319,-0.754408059,-1.7041677244,1.0447534105,0.8819002765,2.5070068413,-1.1973540996,1.1183272023,-1.3207011483,0.8442655643,-0.9139896943,-1.379576674,0.5345387083,-1.9224110433,-1.7403732259,-0.763200352,2.1601694036,0.1409357372,-2.735979803,1.6470692391,0.5764377362,0.045860826,-0.1801285584,0.8326220052,1.0224761051,0.6091794858,1.4362683339,1.1086004161,-0.4818060739,0.8908864897,-0.2087353006,0.2338274069,-0.4393563528,1.5376991215,-0.5772040409,-1.1763416521,-1.7962852949,-0.547560452,-1.2221687366,0.6761940167,-0.3399392005,-1.1640962119,-0.5681728316,-1.5678093068,-0.4375299321,-0.1535190129,-2.390850102,-0.7136028619,-0.5608283717,0.4354274876,0.6980970579,0.6222210662,0.1805150199,-1.1119813581,0.8895621282,1.2129694186,1.1678074555,0.4614768692,0.3409312453,-0.2173480341,1.0090771383,0.4337469245,-0.1255986659,0.0538270107,-0.0512203691,0.8877060814,-0.3480280088,-0.3279421495,-1.4214932857,-0.9672303035,1.1233802865,-1.5485817895,0.185141325,0.6752977675,0.9443797578,0.6996281996,0.7174086985,-2.0491791397,2.5833171494,2.0622246204,0.0096199625,-0.3587182511,2.0358369038,-1.323906049,0.4916616708,0.4941341708,-2.0456790378,0.4654575149,2.8564742171,-1.7273430247,-1.9188775344,-2.3553779813,0.4017889823,1.8725407292,1.7223074412,1.8646944722,-0.900871064,-4.1340727308,-1.4736617181,4.5572229367,0.0902556113,0.571338278,0.0149020409,-0.0693463962,-0.6626967875,0.0098370191,0.5009624661,0.9593834399,0.6507372364,-1.1195718874,1.884075037,0.294139024,-1.2864462148,2.5755452888,-0.1315631013,4.233740317,-0.5100340859,-0.2760294069,-1.0137583685,0.0402571311,0.408575655,1.3725479335,-0.2483066648,0.9342432356,-3.168058879,1.6154324088,-2.215457959,1.0609020525,-1.1786168014,3.10360239,0.3672979573,-1.0519366091,-0.7298606497,0.3409578645,-0.9801909002,0.4470935791,-1.0749187689,-0.308275701,0.2374340788,0.4528065258,-1.7476137694,-1.7543060933,0.1926714485,-0.0120236616,-1.6049393924,0.0043832608,0.5381139862,-0.2484830912,0.4900100638,-2.9145397586,2.1618728117,1.4356099182,2.0628546255,2.0638600325,1.4103386237,0.0415014256,-2.0827631787,-1.3679960815,0.499233313,0.5400473023,-0.9372620762,0.2584397782,1.3507422045,-1.2858591408,-2.3310785404,1.7313315011,0.8257743927,-0.593816353,-1.4127476074,-0.6439150011,-0.3824231566,1.0609196122,0.155469109,0.2059838739,1.7277075469,-0.3251405096,-2.473843203,-1.1613469108,-2.0463108764,1.168215288,3.5766045097,-1.8982460286,1.5418337215,-1.2882343502,-0.7704884042,0.4053056582,1.1075007662,-0.9388118293,-0.5244189842,3.8427364702,-0.0054455559,2.49719949,-2.0955994159,1.4986775868,-1.0526457798,-0.558339833,-1.0074911148,-0.2119593715,-0.1935439538,1.4010643477,-0.4496440588,-0.6480892578,0.454137645,-0.2624020359,-1.9174270558,3.1887568363,-2.3788426941,-1.1303008848,1.3224487565,-2.8486936114,0.8847775045,-1.8592215921,1.0326290903,0.7356598208,-0.1838667567,0.8764312786,0.0995970554,1.3876545228,0.2575362816,-2.8898624696,0.1073682648,-2.130745955,0.8996595254,-1.4622933368,1.3224795206,-0.1623859859,2.2670309482,0.0821903864,-0.2846652462,-0.6348524894,-2.3063272349,2.3197514629,-0.718939558,-0.8241180945,0.546232777,0.3417027964,1.4113163618,-1.2621826763,1.98078945,0.1464096648,-0.3104370274,0.5673766675,2.4120407149,-2.0229708266,-0.8507665791,3.0077275436,-1.5676663656,0.0793392896,-1.0589314384,1.4465853469,1.9017440807,-1.9313090693,0.3816310498,-1.0884463151,-0.6130228718,1.7869971594,-1.769235032,-0.0942869043,1.2777135296,2.4916581609,2.139125378,0.3592363981,-0.4802369882,-1.897169731,-0.5976485387,-1.6630887442,-1.0417564546,1.2234751824,-0.4555991235,1.3784938552,1.7928668147,-1.9087203812,0.4138718722,-2.6628558387,-1.3659095595,-1.6218719312,-2.4145595946,0.1957266891,1.7813179477,-1.189145633,-0.0832805851,-0.2914121574,-2.9647692384,1.7285944555,-0.9305187077,0.1164110585,-1.4253955745,-1.3345965826,-0.1436495492,0.0936084287,-2.6422387717,-1.5243813759,-0.6675888453,-0.744773325,1.6159609658,0.6554543883,0.149057734,-0.6775164236,-1.1824006322,-2.5542450283,2.0611333805,-0.9843361751,-0.5264581931,2.9284326852,0.948757132,-0.3892560255,-1.8922025602,-1.4176903538,-1.2469670057,2.1619546,-1.9308202247,-2.9293655872,0.7672828991,0.1858934763,0.5853546317,-0.9967732817,1.829458069,3.3024528519,1.4190521624,-0.2043791097,-1.2311307746,-2.9456542819,-1.2171520792,-1.8779850123,-0.8858898338,2.1383727272,0.7630000815,-2.0222759908,-0.5931525011,-2.9245846575,-0.1766958725,-1.2158876775,-0.4821697459,1.6399366096,-0.6371315864,-1.614568622,-0.7975849644,1.3049387397,-1.7532071682,0.4180230956,-0.5474095262,-0.2978942978,0.2866119497,-0.0763069242,1.7055817835,-0.0302603146,-0.8661713096,0.0599537298,0.0414810778,1.0628239837,1.8022217138,0.3636718553,-1.6053406491,-1.3231352481,-0.1158905573,-0.2255220852,0.8432591265,2.2233495043,-0.7549803897,-1.6415383721,1.5640733089,-1.1224366601,1.157684035,-0.2619970972,-2.1377714652,-1.9073129303,-0.8843127903,0.8975063703,0.4792263285,-0.3915424902,0.8790172545,-0.2711702119,-1.1348301077,-2.4949768434,-1.1660895555,1.7888553656,0.6043497431,-0.7450672428,-2.1543286256,2.3724399758,0.5698370393,1.0296535738,-1.0814573453,0.2532276375,-0.320173395,0.5024782507,1.0829912993,0.8012136594,-0.1294401233,-0.8651306885,-0.5828353752,1.8142976643,-0.5524630796,-0.3826250986,0.4859344695,-4.8971465767,1.4062087479,-0.7186945337,0.8720969383,1.415182642,1.9569169049,3.5278444943,1.5652413384,0.1992131554,-0.7323546027,-0.5836690156,-2.3098600429,-0.6225436332,0.2021111984,-2.3883826242,-3.075100839,2.5670381554,1.0385859136,-0.9872217973,-0.417894229,-0.511574626,-1.859603523,-0.2324439744,-1.338563526,2.0863765924,-1.1460013137,2.6308350927,3.5971428725,-0.0371234517,0.5960287467,1.9806988458,-0.5442406094,-1.0109111895,0.9844342617,-0.2246532032,-0.7626941308,1.0979322483,3.8667740364,-0.3008111611,-0.7457195725,-0.9485355462,-1.8981414496,0.4261641752,-2.3710417737,0.6890708534,-1.7383565516,-1.0707219124,-4.1065146452,1.1486882013,3.6757695302,-1.4972467732,-1.0725838299,1.9683708912,-0.8572511016,0.5103368665,-0.3780287721,0.4635188288,-1.5462147403,-0.1062116982,0.0708586054,1.146818682,0.4279877183,-1.5971528468,-1.020228102,1.0513572496,0.9876712509,0.9116802264,-2.1569913024,-0.9490876754,-0.4259640632,-0.4479097975,-0.1288060743,-0.2765196579,1.7026968116,1.2605910547,-0.1968162265,-3.1552140446,-1.3618535102,-1.0414302708,0.905910075,1.7041597755,0.2726161894,0.199718933,-1.555161397,1.0721741049,1.2988427062,2.3458552423,2.4012060192,-0.8895834354,-0.0084305443,-1.2818863834,0.8878687987,0.6426681097,-0.4531552347,-0.473807514,-0.6864891195,-0.4633837463,-0.8360906181,-0.6822741663,-0.1205426028,-0.8841595109,0.7788083991,-1.8682113313,-0.8652153557,-1.4251792963,1.9942494205,-0.5614486405,2.2579930613,-0.4259204976,2.0283958744,-0.2442238105,0.3024433161,0.227513974,-0.0818670737,-4.1292186878,-0.0097469343,-0.2559469613,-0.0890033516,0.9014881875,-0.5496827909,-0.6677277061,-1.3655185869,0.396557399,-0.5379810456,2.8215060188,-0.2232925193,1.1136676604,0.3692103289,-1.2983285167,1.9004809396,0.5641029707,0.047047755,0.760373502,-1.3011225983,1.5722834956,-0.5981996895,-0.0693408117,0.0005402099,0.0476493643,-0.2517827341,0.11647913,-1.0393842562,0.4573558422,-2.1819414225,-2.884094385,-0.0206616229,-1.4571504909,0.4427959565,2.6055244664,1.3755802242,-0.4826023518,0.8423198767,-0.6217937869,-0.0832272098,1.8390257944,0.0216878487,-2.4563290901,0.3890386272,0.5130545618,0.7902655334,0.1856619782,0.8914991,0.5130934275,-0.852765306,-0.3158151706,-2.271185088,-1.8386695375,-2.1781749473,-0.7054076739,0.8064752756,0.6989780715,-2.0389759881,1.5944936569,-1.416537708,-0.3048231112,-0.2812901975,1.6143048593,0.8258014955,-2.5826572154,-0.2526081749,-1.0684748135,-0.7599530435,0.057604157,1.0053584871,1.7322291983,1.0676939601,0.7046378828,-0.7687316135,1.864981757,-0.8234588422,2.1937901389,-0.0322147732,-0.7003711941,-1.2305367671,-0.4982270981,-1.593874416,1.7691648542,-3.2458700373,-0.8935074451,-1.4028717343,1.7610976612,0.5704201702,1.4854772382,1.9772744119,0.3436223485,-0.079541846,0.8196875417,2.6950285629,-0.6763899927,-1.9688653005,-2.564523891,-1.6856484207,-1.3641071521,-1.9381895051,-0.0157116261,-0.2287263576,-2.4297388509,-1.8581109856,0.7878226485,-0.8864795095,0.5109390066,-1.6532073656,-0.842914143,0.8339446968,0.0121228669,2.1823555041,-0.8402367703,0.019458232,-1.2679910308,-0.6215937873,0.5289712831,1.4212493618,-1.7335466761,0.6953857285,1.1249738301,-0.9238897004,-0.5427657933,0.6508395557,-1.829791371,2.2759370713,0.2529215504,-0.0195212888,-0.728922839,2.2593775919,0.191236697,0.7832638487,0.0744071629,-0.442265646,-0.7764856431,1.6537450813,-4.6570673919,-2.8889590545,1.9225087635,-0.3885138819,-0.4763261063,0.9936607207,0.120588993,-0.2575753442,-2.4235928998,-0.1752060223,0.2623203461,-0.9214115998,-1.9191951234,-1.5459619498,-0.3421572017,1.2315811308,0.6849515296,0.5234219088,2.2288127037,-0.2703726711,2.8572783148,0.6041815189,-1.2814110439,0.587656043,1.6927848266,1.2418986214,0.1569305334,0.7456196453,-0.3775570811,0.4772072986,-0.4266207177,0.5162053396,1.2151882669,-0.8720323795,-3.3352118913,-1.1436865177,-4.6362547194,1.0886001225,-0.2966092574,0.3441142688,2.7272482886,-2.0541250119,0.1011465657,-0.7988791849,-1.838974169,0.7816050912,-1.1623913681,1.4082846659,-0.9339734484,1.2890156766,0.9393510496,1.3486268331,1.8746249231,-0.0850013743,-1.0622730173,-0.0678195919,-0.0448807116,0.7184659974,1.0515890132,-1.3881565782,-0.3545768766,-0.1768367996,-1.3835292796,-2.1625834983,1.9807957628,2.500684062,1.6008793883,0.6065144041,-0.4521267176,0.5541893989,-2.1844816806,0.9274015575,-0.321755217,-1.2418477426,0.7188505027,2.2670230432,1.2101521804,1.7737973904,-0.5508999343,-1.2224958883,1.255310327,-1.0410844158,0.9814748545,0.1892669639,-0.5137630203,1.7788197679,-2.3549693193,1.0509745392,2.4021061128,-1.2139163146,-0.6451749746,2.2457822126,-0.1959903111,-0.2921972295,0.7811060079,1.2004480545,0.5811721184,0.440418523,0.3921821187,-0.0726589816,-1.4724347797,-0.08230085,-1.3086193396,-2.0288475419,-1.3110109405,1.6051161621,0.0612599252,-0.5900488956,-0.0359125252,3.9579697581,-0.6705608005,2.0630357566,-0.1594939225,1.2748448746,0.3297153606,-0.2724810798,-0.7988275651,-1.7022611611,-0.4747136331,-0.6140077648,-0.9844963811,-1.6810163848,1.0749352671,-2.8483219288,-3.1023065512,-1.7996461168,-0.1689725711,-0.7489945116,1.2056266973,1.5306752808,2.4507855607,0.3108297409,2.2779298502,0.1095996008,-0.9444180231,-0.5408708387,-1.1586193569,-1.2509382347,-0.1446377834,0.8380594385,1.6103989511,1.4527116787,-1.4394739847,-0.2287638461,1.4466742591,2.2966975879,-2.1716733465,0.6867526054,-1.2688345436,0.1927119845,1.7357919256,-0.7701698947,0.1344187233,-1.7405075344,-0.6260467702,-0.0262982785,-0.6595503626,3.1513065275,0.5858632409,-0.5507014079,-0.2125046201,-0.8885419961,1.3924292958,-0.022681723,2.3355465,-1.5364998713,-2.1208411903,1.1195262073,1.0580179308,1.9553041003,-0.9430731896,-1.1425132908,0.4417614809,-0.842296847,-1.0681941938,-0.488138222,-1.431919671,-0.224758695,1.7871052766,0.3745412097,0.9704809054,0.5872918404,-1.3187753442,-0.02191575,-1.5785541729,0.858701295,-0.1060872132,-0.945513051,1.6776934966,1.839503978,0.5803462215,-0.0032144435,-1.4321679516,1.4115075828,1.0225456886,-0.6838991282,1.818544769,-4.4122845778,0.6434361011,-0.3393761107,-0.7335832021,0.4051795568,-0.3106677294,1.9767322455,0.1205697433,-0.7245134236,-2.2129822189,-0.4855284226,0.4084479628,1.1222407437,-0.9929234773,2.8290877801,1.5296688488,0.4594110373,1.152931602,-2.8084333799,-1.4682935608,-0.5615685704,1.7102194346,1.3659429601,0.7803820987,3.3792865521,0.0745380288,0.4032808054,0.8024357213,0.567882459,-0.8167197528,-0.0161095646,1.6673771018,-2.8962255082,-0.9759573238,-2.709308624,0.6133274556,-0.2881481001,-0.2963324223,0.830683962,0.2152492161,-1.0612543883,-1.1969498043,-1.4440006755,-1.2216951564,-0.2148921445,0.6280151663,-0.2631372898,-2.473974586,2.6841880304,2.3828116244,-0.5693998194,-2.0521964387,0.0754064024,1.1736567123,-1.707525554,0.0434661764,1.4656370725,0.6137784432,-0.8807669767,-0.5938797005,-2.5163779028,0.4601976547,0.1496261865,2.028919188,-0.4292385607,1.9254415469,0.3070243029,-2.2447075097
   1.1001207944,-0.2072678897,0.1807500948,0.4637698499,0.2737668035,1.5510520209,1.8573943793,0.1922712839,-0.8329073796,-2.7504330817,-0.0325946237,-2.9363430357,0.2619010817,-1.7225608143,0.5415655824,1.0404791091,1.4562597232,0.4773833726,-1.1293282616,-1.3595121412,0.2826198757,-3.7416623066,-1.6614232071,-0.3010266986,0.6339655272,0.9777688546,2.3296964329,1.7481880597,-1.7363860163,-2.2435438549,2.9497864264,-1.6609018996,3.8811042918,2.4432494588,-2.9499685786,-1.9650711174,-0.1235299461,0.2820878324,-1.2088578227,0.1616955494,0.5415899667,-0.8588136379,0.5834527217,-0.6056094011,0.9078692623,-0.9328994658,-0.1550444194,-1.5183716849,2.1375049004,-0.8013741996,-2.3836303796,0.1779863952,0.0680952058,-0.6634806614,2.8229161801,-1.7966839734,1.1703942536,2.0878069583,2.4373797966,-0.2209968467,-0.9948919618,-0.4758238273,0.184619212,-2.5678609416,0.7011316088,0.4259657079,2.0948289361,0.7302866302,2.4245801201,-4.7543359242,-1.0590331848,-0.5529026057,-2.8987334713,1.4633538949,1.5262683595,-3.4175704011,0.3727235803,-1.6454508296,1.6273531692,1.1611845654,-0.679342789,-0.9322204984,-1.8481295593,1.9638150699,1.6329519885,0.1981618067,1.7080493229,0.4910517154,-1.7391328822,0.3096260011,-1.3148053732,0.4666705879,0.8743284161,-1.6462682524,0.8114594581,1.1780527466,0.4210646949,-1.4120747694,-0.265244145,-1.4680054681,1.4381948941,-2.3897155167,1.1019003884,1.9561600889,2.5419695249,0.8125357829,-0.2598831209,-0.8608249706,1.1710241958,-0.9206825602,-0.1254150565,1.2355959731,1.9344053804,-0.1990925703,-0.2013589977,0.9006508381,-0.0697066404,0.5466383462,-2.1722119306,-0.7447226708,-0.7242282633,-2.0684324946,0.2475342789,-1.7307281517,-1.0701479481,2.1435136002,0.8290727004,-0.6889609922,1.8389010877,0.9244945681,1.7042201084,-1.4168719252,3.1354284308,0.3429350313,-0.7814068068,0.849833583,-0.5344710036,-1.2826930355,2.9846624183,0.6968026463,-3.5745011322,0.7784358437,-2.3689428186,-0.3573383903,2.0546743165,0.0704237147,-1.3775667592,-0.6518652637,-1.9388924243,-0.0555880588,1.7184779274,-1.1143588188,-0.4945248512,2.0393213956,1.0172999042,-0.8558833596,-1.9562909657,-0.4163487825,-1.3081738514,-2.5420034597,-0.5550905894,2.3480936993,2.0993324094,-0.7433457114,-0.0702627102,0.472047476,-2.4810898071,0.8899184405,0.1873219318,0.147041178,0.4162300594,3.0357400936,0.6584556776,0.9628330676,-0.9417214661,0.1384540298,-2.8382036488,-0.3318871215,-0.5477100542,-0.7760542391,0.1210057238,-0.8528570406,0.7279886783,0.3101516648,-1.3304028114,0.0225464728,0.6432311979,-0.7208745655,0.7872692207,-2.7961776268,3.2198449109,1.8220332385,-2.8162302937,-0.8293669761,-0.0112178269,-0.146129852,-0.2992800327,2.4889847882,1.1382392127,0.7658019644,-0.2604440842,0.5749903303,-1.2123250191,-1.2594184282,-1.1026662009,0.7297166793,-1.219572373,2.4999134463,1.6942177395,-2.1520105962,-0.9685390295,1.0539827973,1.1216098487,1.2894325884,1.4034198313,-0.4100465427,1.5634481327,-0.9399906639,1.0667602961,-0.3473789129,-1.0469087242,-2.0274039732,0.453071473,3.3334523368,1.0544636467,0.7823511188,-0.08369312,-0.3267304899,-1.6239116675,-0.0284526076,0.6922553841,-0.2570483797,-0.6689996019,-1.9195565462,-1.0590841013,-2.1393221977,-0.3553502566,1.30841582,-1.1022271787,2.2989696145,0.0906638106,-1.6527245238,0.0468898457,-0.1965078994,-0.0428715051,0.4657441396,0.1253261652,-3.407540146,-1.351417715,0.5076622675,0.3210178126,2.1063200456,-1.3394399047,0.0555571176,1.621032999,-0.0131948652,0.428586597,3.0551100351,-1.7110247989,1.2652198172,0.9053002935,0.8653424801,0.5259863453,0.6669240342,0.5152137598,-2.436110393,0.5314816478,-2.528330371,-0.4077585748,1.9725389376,-0.9297946096,-2.8464804435,0.5797994969,-0.5432543235,0.3179742938,2.7079671745,1.8768976888,-1.1936664061,1.8967219659,-0.1234266049,-2.0992524656,-1.6121820363,1.0203292441,0.3565596127,2.0686734475,0.5413170847,0.0559120142,-1.7383933827,1.3727561504,-0.389187993,1.3419816423,1.2969569421,-1.5663746087,1.6157714609,2.9727374797,-1.0349327385,-2.5875924379,-1.052134755,2.6376391486,-1.9680649141,2.3278060086,-1.1693900875,-0.5319304504,2.9813847908,0.123246331,0.5004034791,-0.7270734504,-0.6343019607,-0.4298903409,0.7265887516,-0.2347799319,-0.1966845866,1.6593598053,-2.9040844877,-0.2785541798,-1.4121255721,0.759227725,-0.1372228045,1.3698417505,0.7328335101,-1.3684903292,-2.2969174994,-0.1009226071,1.3230488395,-0.4478708506,-0.9137945637,2.3980113072,1.6770231887,-0.8279337808,1.1788947678,-0.2019322951,0.9671326315,0.5809417563,-1.9200006554,-0.2355889567,-0.201114905,-0.0097990346,0.5807205825,-2.0282550746,0.6369572206,0.3018281737,1.4528339291,-2.3679308905,1.4137167946,-1.9342151258,0.3753098861,1.2344415196,-0.2400270031,0.0847003725,-1.7795315467,-0.6536242372,0.3827824263,2.0040929493,-0.7258885279,-0.0782498772,1.5709721996,0.5593191505,-0.2715426281,1.1961211396,0.929763375,-1.6516121873,-0.0583762085,-1.4436431944,2.5067340591,-0.1569943514,0.7332115562,-1.7666188864,1.7431577176,-0.2066090871,1.2305605806,-1.2033863067,0.4279444862,0.6966549208,1.7960721111,-0.9129999859,-2.60514665,-0.689681955,1.8394130074,-0.9340992863,-1.8284112288,-0.8907949131,1.423919225,1.7763157418,-1.4372595876,-1.2246736688,-0.3694594765,0.4586977297,-0.9827980331,1.0067937431,-0.8867899311,-1.0303725548,0.5953155376,-1.5368471915,0.4286904475,-0.8930603511,-0.9452801364,-1.918638788,1.2445362262,0.276411548,4.0410438107,-0.2855336637,0.8808518922,0.6348476617,-0.0083389436,-0.2807330579,1.2956470496,-3.0502493589,1.2370795005,-2.7140688107,-1.2187067747,-0.0190207756,0.4023279067,-0.8342183492,1.1739052264,-0.922204374,-1.2300599263,-1.8327661216,1.9480041613,0.8186341798,3.0222906721,1.5645069086,-2.1269543628,-3.2701992469,2.3836755546,-1.2167500315,0.6656381636,0.3358618119,0.0191762642,-1.1193383722,2.3853918993,-2.3854810876,3.0750832269,-0.5136598606,0.3080049414,0.2126703717,0.138398488,-3.5592074183,-3.1397774893,0.6249849109,1.6607161214,0.684890282,0.125001929,-1.1994917616,1.3145925381,1.9284467955,-2.1899120157,0.5940663435
##end
biasActivation=0,1,1
[BASIC:ACTIVATION]
"org.encog.engine.network.activation.ActivationSigmoid"
"org.encog.engine.network.activation.ActivationSigmoid"
"org.encog.engine.network.activation.ActivationLinear"
