encog,BasicNetwork,java,3.2.0,1,1406087188143
[BASIC]
[BASIC:PARAMS]
[BASIC:NETWORK]
beginTraining=0
connectionLimit=0
contextTargetOffset=0,0,0
contextTargetSize=0,0,0
endTraining=2
hasContext=f
inputCount=3
layerCounts=3,81,4
layerFeedCounts=3,80,3
layerContextCount=0,0,0
layerIndex=0,3,84
output=0,0,0,0,0,0,0,0,0,0,0,0,0,0,0,0,0,0,0,0,0,0,0,0,0,0,0,0,0,0,0,0,0,0,0,0,0,0,0,0,0,0,0,0,0,0,0,0,0,0,0,0,0,0,0,0,0,0,0,0,0,0,0,0,0,0,0,0,0,0,0,0,0,0,0,0,0,0,0,0,0,0,0,1,0,0,0,1
outputCount=3
weightIndex=0,243,563
weights=-0.2304968786,1.0568622281,-0.1819303169,0.304558236,-0.9139543594,-0.5946431548,-0.6139592137,1.0697365834,-0.1088325528,0.2413387198,-0.6790520844,0.96005811,-1.0936396167,-0.4285484671,-1.7695821456,-0.5522368772,-0.064473133,-0.4512020823,-0.6657238136,0.8937112355,-0.2201187657,-0.6429549851,-0.7353791225,0.8370316928,0.1462990682,-0.2387761222,1.0550844614,-0.1507613746,0.5076838299,-0.1610579156,1.2064010687,-0.8832897705,-0.8097035334,1.2647428422,0.9950020561,0.9189521384,-0.9997728889,1.1311044534,-0.2599078791,0.4699776389,0.4962697204,-0.9960751091,-0.29390946,0.895774115,0.7739693147,0.9346245806,0.8477662307,-2.5818579275,0.4535804598,-0.5458831808,-0.7512770209,0.5751637623,1.0362551656,-0.6824433303,0.9426855676,-0.7100323391,0.750608859,0.9682516834,-1.376561005,0.3045151288,0.8012527731,0.285595884,-0.2146247211,-0.5931269328,0.3687500796,1.871235554,-1.3091335488,-0.147481387,-1.0371293512,0.6511965135,-0.5247752424,-0.2506883353,-0.8724290677,0.7470972267,0.5598221084,0.4321027177,-0.6192629934,0.7498824762,-0.8870845193,0.7335841132,1.0042753199,-0.1688539927,-0.4395464685,-0.2248571027,0.6239466169,0.5256242249,1.0424148211,0.9010998224,-1.2710775132,1.0975386493,0.7779262916,0.3541445387,0.5969581096,0.446922962,1.0364551682,-2.5203034709,0.1950826952,-0.1503217846,-0.2071640691,-0.5075439742,-0.9456178125,-0.6183781612,0.6675365088,-0.8284865548,-0.5458464788,0.5296357103,-1.3026161637,0.9128802591,0.3520250976,1.0228290209,0.7919723703,1.3502355181,-0.971520408,-0.4624197311,0.1344230013,-1.0542873943,0.1074131444,0.4218851889,-0.7603235431,-0.4193367889,0.5578392185,0.2291620713,0.6883227837,-0.3962260902,0.1900826938,0.1742870502,-0.3384196886,0.9236915981,1.9685470693,0.7831749202,0.7932738772,-0.3181491543,0.516082865,-0.5589630734,-1.3580104464,-0.776094218,0.2865941352,0.2110716161,-0.6377559152,-0.9307620469,0.8289499336,0.3678074447,-0.180910196,0.2761282495,-0.8189198431,0.0013588037,1.5735811549,-0.3373345939,-0.4351831358,0.3318411417,-1.1031469194,0.7231491322,-0.3269646704,0.1801931115,-0.3819087932,0.2765272549,-0.6479476428,-0.0341388883,-0.9518252182,-0.0625248123,-0.7837624828,0.1478667027,0.79327071,0.7395268868,-0.4772090281,-0.3195356486,-0.7950318882,-0.0966321127,0.7726037101,1.228928823,-0.2793052526,-0.6756325341,-0.6418205332,0.2156753255,-1.4986009563,0.5917779667,0.9448959092,1.2623707041,0.5333533118,-0.1843106988,1.1046075249,-0.7340483074,-1.1569353672,-0.3750051146,0.2379923118,0.0152097105,0.7088352387,0.8060444226,-0.6509789192,0.3023649343,-0.8776030281,0.9590680603,-1.0611985639,-0.6953588895,1.0220866285,-0.2932783481,0.8628110281,-0.1861745598,-1.1019757803,0.6105025826,-0.5754876236,0.522014723,0.6181666567,0.6673695216,-0.8778856043,0.5019495283,0.3081604268,0.5075816083,0.3133486808,-1.6688528884,-0.6224310929,-0.0833536147,-1.0829036329,0.8181624585,0.1987708843,1.3061539536,-0.1781782895,0.1204932712,-0.7092575966,-1.1377347906,0.4659878692,-0.1388591607,0.7260463184,-0.7717799894,0.8150052448,-0.3349914203,0.0604361387,1.8474807393,-0.310564525,-1.1397104396,-0.4427612511,0.1812133153,0.6887197718,-0.2262545413,-0.6639082225,-0.3697869702,0.3581300033,0.4840280926,-0.1928610905,-0.2161659651,-0.2277352242,-0.9646807045,-0.8066832742,0.1683731875,0.5319502794,0.7507540098,0.1689328377,0.6102098813,1.0651789871,0.7153432078,-1.0310369193,0.1060626844,0.0815636333,-0.6286645376,-0.1494075183,0.6703517995,-0.1089021711,0.0839060286,-0.7260192092,-0.9757528374,0.730246138,1.2866558752,0.0435602016,0.2070783612,0.6669295766,-0.1806263294,-0.2626880094,-0.4688184271,0.1790829994,0.6790953052,-0.9063999853,1.0591620125,1.7558862552,1.2473274107,-1.8856471676,0.7822210955,-0.7297396816,-1.0795732696,-0.9765307561,-0.9597524409,-0.8787625088,-1.066011051,0.9446171093,-0.7803560685,0.6952715042,-0.6958377092,-0.2910360038,-0.0735624827,-0.1704055806,0.4928726035,0.4131344049,1.5098261925,1.3674354035,-1.7522249174,-0.3792510926,0.3727314768,-0.8113720561,1.2596735262,-0.401863527,-4.7155997021,-0.2827521902,1.2631572159,2.0252892131,0.7693779532,0.6087500704,1.1242718987,-1.1932356675,0.6544697513,0.7187169871,-0.4851787412,0.392430593,-0.3305393687,0.5109717688,-0.2297204485,-0.3955733689,-0.9629727655,-0.6546075772,0.7945411931,0.4750430516,0.3072668948,0.284211534,-0.9662111553,0.1464124899,-0.7205158552,-0.4294009534,-0.5666493446,1.2145889443,-0.417496242,-0.4707827744,-0.6280956542,-0.1435836742,1.0293982702,0.7027208899,-0.0676275306,0.6543975464,0.750955655,-0.4362455795,0.9000703105,0.5289856354,-0.2847825597,-0.059699154,-0.6887161009,0.2806250369,-0.3906515168,-1.9307832251,0.8972182034,0.2377068162,-0.4337429124,0.6327688878,0.1887649436,-0.3510603584,-0.9489001744,0.6644615118,-0.0317767912,-0.1975039984,-0.9781016126,0.300852922,1.1232914705,-0.5365004227,0.5975374552,-0.6436664454,0.8377566345,0.5950391664,3.1228392387,-0.1301088938,-0.2476635954,-1.4087535242,0.1828517031,-1.1584804726,0.2180283157,-0.3962334606,0.2012582519,-0.9297121526,0.5676244134,-0.6331452936,-1.5655867823,-0.9328141736,-0.7736941389,-0.448029724,-0.9469766077,-1.0441766222,-1.0039750199,-0.9087249647,-0.2053391583,0.9307958763,0.0683810879,0.0671783169,-0.4755625555,0.4372895504,-0.7721916663,-0.622170136,-0.9331535904,-0.44339004,0.6482620835,0.005826254,1.1893869063,0.0495797545,-0.0617993772,0.0882282727,0.3695211049,0.6059397668,0.1024252351,-0.9020511707,-0.5861944782,-0.492060341,0.4754527826,0.4285121536,1.0611637102,0.7670204125,0.6031960981,0.7433088616,0.5937953124,0.146126049,0.0529325902,-0.6274667098,0.797175417,-0.5665309721,1.0320555787,-0.385412138,-0.191564084,-0.052406596,0.7963547492,-0.1181080576,-0.5133563282,0.3410047167,-0.0481581399,-0.378397252,-0.1637656256,1.4963830225,-0.0169296406,-0.3215869091,-1.9230116794,1.5275346568,4.4773616751,-2.0200750482,-0.8406445381,0.7418006236,0.2466567927,0.2237996038,-0.2781683843,-0.2172263981,0.1035782848,0.4304665168,0.8197658311,1.0336262368,-1.5432961499,0.0423482655,0.366890836,0.070364944,-0.2075323409,-1.0007137536,-1.2690724352,0.1085964297,-0.134732338,-0.5517601988,1.2495243436,1.0763287062,1.3255858369,-1.3945805253,-0.473354348,1.0091112773,0.3570383666,-0.736521922,-0.3943046141,0.4919360395,-0.1079587154,-0.8365030979,-0.7748529985,0.4628376667,-0.780553777,1.0370945919,-0.5149704258,0.562639899,-0.7423754854,0.3840120596,1.8715386444,0.4369472494,0.2198889226,0.5374642428,-0.1349915879,1.3135610767,-0.1180889839,-0.2494330062,-0.1129152765,1.3484155699,0.0615857663,-0.239030188,0.4926799458,0.566245531,-0.1482925811,-0.8857683891,-0.871049959,-0.6677969815,1.1204023183,0.0974742666,0.2130860901,-0.3559345054,-0.6214931576,0.5834839106,-0.5117757285,-0.9596662694,-0.3500595117,-0.2891270354,0.6607141938,4.0509008219,0.2913515339,-2.4615534481,1.9014568157,0.9421820173,0.2370843522,-0.0097847932,1.01066276,-0.0636296346,-0.8860963463,1.1252768136,0.0219154053,-0.6100553377,0.1077303383,-0.4782682172,0.097261509,0.2066657674,-1.1604990155,0.7284502462,-0.2728392021,0.7076448282,-0.2303908252,0.7817339533,0.260127124,0.503576631,0.8392495627,-0.490254512,0.4525772574,-0.8353061841,-0.5801991809,-0.9929661528,0.0929294404,-0.6551931578,-0.2720273698,-0.8814189872,0.5509496128,0.7363825884,0.2760596313,-1.0892201684,-0.662906744,-0.6231999421,0.8194450256,-0.1126516965,-0.5149550609,-0.979586056,-0.244370717,0.8095322835,0.5221698694,0.1398974274,-1.4004291405,0.7700035225,0.2766966188,-0.2525514092,0.0635164859,0.5085364758,0.8362889163,-0.1116065895,0.2595551934,-0.1183025605
biasActivation=0,1,1
[BASIC:ACTIVATION]
"org.encog.engine.network.activation.ActivationSigmoid"
"org.encog.engine.network.activation.ActivationSigmoid"
"org.encog.engine.network.activation.ActivationLinear"
