encog,BasicNetwork,java,3.2.0,1,1406086127052
[BASIC]
[BASIC:PARAMS]
[BASIC:NETWORK]
beginTraining=0
connectionLimit=0
contextTargetOffset=0,0,0
contextTargetSize=0,0,0
endTraining=2
hasContext=f
inputCount=10
layerCounts=10,81,11
layerFeedCounts=10,80,10
layerContextCount=0,0,0
layerIndex=0,10,91
output=0,0,0,0,0,0,0,0,0,0,0,0,0,0,0,0,0,0,0,0,0,0,0,0,0,0,0,0,0,0,0,0,0,0,0,0,0,0,0,0,0,0,0,0,0,0,0,0,0,0,0,0,0,0,0,0,0,0,0,0,0,0,0,0,0,0,0,0,0,0,0,0,0,0,0,0,0,0,0,0,0,0,0,0,0,0,0,0,0,0,1,0,0,0,0,0,0,0,0,0,0,1
outputCount=10
weightIndex=0,810,1690
weights=-0.4857946151,-0.5945453223,-0.0813115395,-0.5406460795,1.0144481393,0.5959830073,0.5834372459,0.8518912754,-0.5209100401,-0.1323741023,-0.955085019,0.9581111692,0.0719126617,-0.2864256529,-0.9582224398,0.1780878223,-0.6663783527,0.8847354425,-0.762995525,-0.1047201988,-0.5656333833,0.5356329423,-0.8361604929,1.3160154457,-1.1876537231,-0.3996555655,0.7510115854,0.6671942814,-0.3896157464,1.6505246313,1.2677349685,-1.7419782535,-0.3133593232,0.1355145609,1.3359320666,-0.1620796735,0.826078357,-1.0623431718,-0.3272802149,-0.4627453567,0.8954126983,0.226253338,-1.147397735,-0.1706881448,1.1650789654,0.8314215205,0.0695082171,-1.1081008855,-0.1203285482,-0.4990218104,-0.7570779643,-0.6622020701,0.6215847972,0.2691729338,-0.7160748775,1.1748811788,0.5182444903,0.4344016292,-0.9070659749,0.1269741693,-0.616688229,0.8940350518,-0.6584193327,0.7533936888,-0.4072814264,-1.1564444234,0.6485170971,-0.1877892287,0.7821350499,0.1688240835,-0.2495440377,-0.0203767579,0.7044824006,0.0528786781,0.5812114972,-0.5179882008,0.2632146027,0.121935748,0.3498010395,-0.7266831578,-0.6724102556,0.0377428575,-0.5790232155,1.9121418561,0.4195491983,0.2400905584,-0.9789541665,0.7820931927,-0.3720261341,-0.6769913579,-0.7014863143,0.3154020429,0.1200051233,0.5333174021,-0.2310378149,-0.2486084089,1.2704478783,0.0877230457,0.0348533913,-0.7552815652,-0.4378854823,-0.3890399032,-0.025132251,-0.2145246162,0.5301620557,0.3247503321,0.4728628908,-0.0276186153,-0.6200955234,0.1443662049,0.8802399309,0.7919205522,-1.5321424174,1.0674361133,-0.2812356029,0.75718674,-0.8825931069,-0.1722029645,-0.170771163,-0.708789092,0.9502311382,0.5639907388,0.8487933615,-1.4226056889,0.3020038006,0.5215920474,0.4397059029,-0.435105848,0.9830635617,-0.6039552235,-1.3124318893,0.0168509498,-0.3266162486,-0.3388555554,-0.8200720966,-0.7566060973,-0.1156842282,-0.9525650988,0.5663402181,-0.8692123095,0.7975523964,0.3528361016,-0.5098954649,-0.7799902145,0.9805646809,-1.4107995999,0.6038892589,0.6353847839,-1.0369292536,-0.1548638358,0.4802520363,0.1023686699,0.6021261325,-0.7710847736,-0.0544092002,0.794356019,0.3839943682,-1.4179018127,0.7210003885,0.3461977154,-1.1238368572,0.6205214346,0.1627329283,-1.4550035252,-0.5113318745,0.4349532412,-0.5377667249,-0.3533854021,-0.3038156499,0.8938787874,-0.4411554464,-0.5987161523,-0.0039940936,-0.0632083301,0.571577662,-0.2923281796,1.1829468854,0.0697362158,-0.578927865,-0.9940510032,-0.8250382502,0.3120722883,-0.5335387597,-0.0763777344,-0.1455162049,-0.9951180238,0.4826162258,1.0933396341,0.1250642969,-0.5818920782,0.1501251839,-0.3729275825,-0.2558107508,-0.8463735683,-1.1307615043,-0.1750007018,1.21493674,0.7485660996,-0.4062356463,1.3642738043,0.7099000437,0.3889923237,1.2363997112,0.096954155,-1.3928716053,0.5549743276,-0.3062451403,1.0202869719,0.6867181673,-0.6274218674,0.0774720645,0.3534136033,-0.5474947369,0.590309037,0.6708789787,0.6249877858,0.2300092429,-0.5117350906,-0.3114941334,-0.334941347,0.2930910953,0.4579962717,-0.7301078225,0.810202409,0.7696337038,-0.3586327655,-0.5890685833,0.3895242439,0.3593633705,-0.3669624341,-0.6431505973,0.0406580385,0.7799689959,1.4721414236,-0.8777540522,0.8485828205,1.1217086193,-0.9515793761,-0.3710738376,-1.0434129744,-0.931128114,0.610672648,-0.1604226413,-0.6408533084,-0.4545386341,0.2112624203,0.7135807356,0.8509624398,-0.3074244925,0.4529828606,0.874795599,0.0333732973,-0.637201589,0.0109505667,0.8059426684,0.4597950191,0.3411057641,0.5197433798,0.7387791917,-0.764690472,-0.1937378715,-0.5095498759,0.4358908761,-0.1370182639,0.5613395076,0.0893984657,-0.116995427,0.0757483628,-0.5433372694,-0.2706410624,0.4659011785,-0.3923069067,0.2253419249,-0.7802647507,-1.5356783474,-0.742539283,0.569501901,0.5372190221,-0.9405408365,-0.0321209841,1.4418918713,0.533568771,0.5331126406,0.572016552,-0.116860459,-0.1445191376,0.848286945,0.1741531608,-0.1995884379,-1.0588886434,-0.6483457597,0.7107605662,-0.422831322,-0.8935518771,0.1921719631,-0.1498205784,-0.5256694895,-0.0802270756,0.2023984807,0.0489278906,1.068129768,-0.4285633816,0.8962547334,0.6434976194,1.1264031623,-0.6167174377,-0.6677894773,-1.2112507399,-0.7540746215,-1.0956758512,0.8148460134,-0.2524091337,0.1318673122,0.6932398701,0.6539801305,-0.6788814914,-0.0547007369,-0.7902298676,-1.2727335164,-0.3026740638,0.2451011567,-0.5629268932,0.7664714425,-0.442106209,1.0310676981,0.8979171568,-0.3744560665,0.5081143366,0.5373507969,-0.5601680839,-0.2759234263,-0.2992908012,0.3160274745,-0.0134573845,-0.7267333745,-0.7408731475,-0.2880927533,-0.4597694611,-0.9434486199,0.36122567,0.0847151527,-0.851686535,0.3088210204,0.1046879774,0.5788968057,-0.4704824482,-0.6821335677,-0.8269644761,-0.6692913803,-0.5162791551,0.0458040858,1.0307247022,-0.0074831673,0.080462159,-0.287175753,0.9295286998,-0.4923093804,0.8300205677,0.4376869345,0.242896156,-1.135183554,1.6349921725,-0.0869964504,-0.7420746085,-0.2102380539,0.4138295122,-0.3750113169,-0.7267722978,0.7119455914,0.4035081218,0.3448909068,-0.4136572988,-0.292531534,-0.0254577093,-0.4025418953,0.1432736216,-0.0272721259,0.0426668816,-0.3151730449,-1.1232990189,-0.9378447805,-0.7005724995,0.6631274425,0.3706063459,-1.0039952086,0.5173209588,-1.0683516713,-0.5457686952,0.1161839499,1.0722083956,-0.8588871709,-0.5926361182,0.8059991277,1.3848377406,-0.8333042948,1.590333251,1.4092898726,0.096806393,-0.7240804282,-0.9798078345,-0.2981223937,1.5161825544,-0.3945054643,-0.5278878631,-0.8581306017,-0.5037662432,-0.7926334711,0.3226634388,-0.7770986385,-0.4262325228,0.6356473949,0.5676060291,0.733101122,-0.2160600932,-0.2745820883,-1.0154692289,0.9078953881,0.4375332571,0.1920390834,0.3686003602,-1.1832511063,0.5796496912,-1.1523923604,-0.3364327278,-0.1326612489,-0.3345529059,-1.148583575,-0.9935479564,-0.4462743693,0.8884755111,-0.2146654588,-0.292514531,-0.2798742148,-0.6380833621,0.51281514,-1.1352780512,1.3188464174,0.0149009981,0.7722643867,-0.2935505125,-0.1952558539,0.138213892,1.0566318132,0.8266282488,0.7978841914,-0.1557420626,-0.6290560413,0.3035435353,0.237039377,-0.1154243887,0.686728894,-1.200390163,-0.839335285,1.0440969169,-0.514271451,-1.0045078201,-0.220801974,0.340957637,-0.4297691399,-0.5872591901,0.5482292911,0.6094856038,-0.4959538673,0.5194849895,1.0893512616,-0.8692738278,-0.7901148425,-0.5298249269,0.7866774146,0.1002504359,0.6113234966,0.7656003949,-0.5746138659,-0.1017564972,1.0839482662,-0.0138488581,0.3679210932,-0.5715086057,0.5124244628,0.454407217,0.2134113222,-0.2007838559,-0.5699421034,1.1670783516,-0.4723850644,-0.4629017631,0.4084735057,0.8097896151,0.8922994859,-0.6470880039,0.0231577631,-0.1633508664,0.2733814454,-0.7078502507,0.6042106385,-0.2592877652,-1.1061249718,1.1360262689,0.3450637132,-1.0100598081,0.1270324868,-0.3628596352,-0.3938049976,-1.0355418646,-0.1056525807,0.1985221813,0.5695256617,1.3588705011,-0.2937656913,-1.1172242921,-0.8190394278,-0.7567359288,-0.5533960889,-0.3734501638,0.0324422781,-0.4327895548,0.0321453416,0.7467775493,-0.799728469,0.807158897,0.5832119736,-0.0238142107,-0.0100967987,0.5247976814,-1.0073437884,-0.1317012952,0.3994301135,-1.2950089624,0.0896260456,1.0710094296,-1.0236526509,0.2107563356,-0.7237589575,-0.947184823,-0.2560885691,0.7163227326,0.3927387225,0.8896746383,0.1845017391,1.1147250281,0.6918034358,-0.9951332639,0.870348718,0.4940129828,0.7803316753,0.5207262793,-0.4468020222,0.3129876153,-1.2249820189,-0.0711713782,-0.9337552431,1.0040851815,0.6571776868,-0.2530952489,0.3813290139,-0.6152024122,-0.5880704152,0.4331598033,-0.2695871689,-0.5817569325,-1.0208908675,-0.1304642097,-0.7380291636,-0.0778872215,0.5285952543,-1.0042769555,-0.4573167714,0.1967294563,0.3442530654,-0.8043390445,-1.071823637,0.4634162076,-1.0622459693,0.4919901808,1.371033715,0.9197654526,0.3087419142,-0.4063376464,-0.5102389864,0.0644117411,0.5598835043,0.2578107744,0.0721001522,0.4760224272,1.2133727038,-0.8458265656,1.0449799709,-1.1460554258,0.2268084041,0.1260490284,-1.1698529236,-0.0604685134,-0.6130220389,-0.6340681173,-1.034082022,-0.3491699625,0.3449432125,-0.1991195873,-0.1461768138,-0.7649878776,-0.4932166661,0.3738193662,-0.1648479928,-0.369684509,0.2153024184,0.6553326471,-0.3506416425,0.7009941242,-0.3842593508,-0.8476827254,0.6317250959,0.5588530345,-1.1287029117,-0.5045952564,-0.4837521117,0.0196142751,-0.2300657743,0.4271274362,0.9882328797,0.9354430665,0.9985418217,-1.037846829,-0.5092841736,1.575536907,0.4345976904,0.5904657221,-0.1921603298,-0.4761905307,0.5415454519,0.3557050211,-0.3428479029,0.4761910831,0.2853270564,0.2201250274,-0.3316823338,-0.1044743764,0.9045439375,-0.1764745055,-0.4194266337,-0.039110615,0.2903607746,0.7729634722,-0.5318202407,0.4993709494,0.2066929513,-1.0677352915,-0.7742719495,-0.7152788333,0.1907841263,-0.3458214779,-0.487954397,1.3515657603,1.1063028076,-0.1296921791,-0.3361108557,0.3499525096,0.3793486877,-1.0680937146,-0.1464533379,0.9929476363,0.4942065759,-0.8545286836,-0.3125038352,-1.7223660051,0.1508837274,-0.7303611073,0.2187422275,0.4880222319,0.3091039905,1.1005243075,-0.9666294377,0.0684298534,-0.575651763,-0.2701063589,-0.5690251828,0.195557288,-0.1095372931,-0.1972494476,0.4761535592,0.0686041329,0.5101510214,0.0568817103,0.0122894294,-1.4045816618,-0.8270699642,0.9130481471,-0.5994968401,-0.3041197166,-0.7494219221,-1.0232508611,0.9528008983,1.3556618969,0.2655179975,0.0545362476,-0.3713912764,0.5906868289,-0.539673219,-0.4415066965,-0.2018612631,-0.6918078016,1.2111639053,-0.1547954543,-0.3838453846,0.0643680898,-0.6073154569,-0.2017776803,0.3102933086,0.5584559089,0.8153376439,-0.3039462364,0.222324261,-0.7559888335,-0.2518477617,-0.6362507126,0.475920504,-0.754449782,-0.3734890205,-0.483463139,1.0754098523,-0.7774573812,1.6467230845,-0.8749592256,-0.2339822436,-0.8187270836,0.6215651146,-1.4666509398,-0.4192844615,1.2112616846,0.3562114702,0.3165356858,0.1692200793,0.2646528586,0.4498493573,0.5286641151,-0.5308610802,0.1530189407,-1.7765134665,0.60541008,-0.1748623551,-0.4447459139,0.5116746433,0.6845258182,-0.1411787288,0.4985915982,0.0900954971,0.2568274266,0.8354357678,-0.3003890055,0.7270088662,-0.8604688308,-0.5538631064,-0.518783169,0.2964390411,-0.5895067853,-0.7746457307,0.1696829573,0.1413790853,-0.2908221772,0.9259108513,0.2865239699,-0.9728599969,0.2406296923,-0.4401047229,0.847860677,0.527395185,-0.0939301022,0.1073681565,-0.2558121261,-0.1096408463,-0.3227905818,1.137880991,0.5269156932,-0.8496475112,0.9520983315,0.1952653825,-0.4577026046,-0.5880614807,-1.1254123599,0.7084610372,0.2899019894,-1.1707143434,0.7512957982,-0.0513367952,0.4646197614,0.0266342216,0.0213479019,-0.124470001,0.5282473441,0.0105539922,-0.2031529785,0.224152433,0.0337523692,-1.4697002385,0.9708337364,-0.3288012403,-0.4169215778,0.8152419477,0.1011168299,-1.2988495617,-0.5976962649,-1.4516367797,-0.523272599,-0.703369459,-0.5469490332,0.6972307003,-0.2030040963,-0.5009457491,-1.1543751394,0.1989241523,0.5346600407,-0.4838152991,0.8841702204,0.7366537597,-0.0173082162,-0.0732555785,-0.5950700551,-0.9420879039,0.6070709677,-0.4909896804,-0.7567144821,0.1963672992,1.5495464607,0.2436032535,1.588995546,-0.3793704447,0.1267905754,-0.3621580551,0.776937245,0.7912481906,-0.0433396439,0.5160738623,-0.1511804527,-0.5168525738,0.6725810905,-0.1028930421,-0.4806639526,2.218684731,0.6055047214,0.5895707623,-1.0253290314,-1.5425120726,0.3167499483,-0.4135062013,-0.0128457869,0.1681808306,-0.3642433533,-0.6601294196,0.9562434705,0.7244655768,-1.5485187734,-0.7883707677,0.3997456681,0.4102650014,-0.5754839379,-0.6894035351,0.9497156158,0.7376705835,0.5340797548,-0.308070054,0.5737343279,-0.4395761318,0.0629036459,-0.9242378143,0.833728107,0.5184569281,0.4839375923,-0.3615003235,-0.4597592957,-1.2242056303,0.3716266782,0.4801192951,-0.8136369148,-0.6571169007,0.0640500016,0.6278975598,-0.4282913258,0.0313564957,1.0440267885,0.4568262285,-0.1946226611,-0.2431183672,-0.5563666474,0.3858577304,1.0267490678,-0.4226568134,0.483251718,-0.3323454321,0.8843549317,0.6620697132,2.6856559563,0.105182549,-0.0944021469,0.4205354593,0.2707788445,0.5575751592,-0.9708000803,-0.4035930452,-1.8908639434,0.7944532041,-0.2630868738,-0.2782808052,-0.353010706,0.1010713901,0.575815739,1.0412119531,0.9678893551,-0.5267233122,-0.1256182345,-0.0907445434,-0.8483970238,-0.7860492573,-0.8270236105,0.4423445161,0.495271833,0.6657410875,-0.0148414865,0.7641944733,-0.3065670746,-0.9734122851,0.3266162186,-0.9945486289,0.7500583268,-0.9414690073,-0.302919486,0.0066756232,0.266472311,-0.5037385555,-0.8050371654,0.6390746446,-0.3591429142,0.3626120784,0.5866153692,-0.4204151163,0.4941006664,0.7927740352,-0.2281041633,0.4894848164,0.5185734095,0.8778565635,-0.5828820043,-0.1303451071,-0.6004473588,0.5125246721,0.2759278582,-0.7621499595,0.1587874168,-0.6213294005,-1.1508512125,-0.475438285,-0.1222053421,-0.0078720547,1.1783354465,-0.2982005251,0.243222069,-1.0520209708,0.4247535908,-0.7475521839,0.635166986,-0.7170422822,-0.8526060631,0.5509744832,-0.2499386208,0.94832836,0.2520036178,0.0889103347,0.0771100769,0.8712944385,0.6178820603,-0.0639608335,-1.5898720341,-1.4532421246,0.0664167009,0.7985035248,0.5445768042,-1.1377161238,0.8748104548,-0.1676861355,0.9513785609,-0.8681587354,-1.8265626717,-0.7245763059,-1.8122254239,0.0890682677,1.1695658244,1.091580182,0.1522068519,0.7058416324,1.1742915539,-1.0496434642,0.8251248024,0.5369093013,-0.2832362977,0.5539719646,-0.6092434398,0.6624303276,0.8567866743,-0.6164919154,-0.7631151978,0.8464349476,-0.27063894,-0.9131138913,-0.4821526479,-1.2409188511,0.4473228089,0.8442477994,0.0504172276,0.6125422235,-0.9075209931,-0.0922034183,-0.4869383209,0.3246577414,-0.6345536919,-0.5010621751,0.7652548729,0.1173837511,-1.5425025445,-1.0920467019,-0.2184850054,0.286105847,-0.064242417,-0.0097020616,-0.5100921156,-0.439402449,0.7770957318,0.5452531829,-0.2402139919,0.3504350267,-0.4029361313,0.5444573467,0.5417073492,-0.0664169323,-0.0402718592,-0.2553356029,0.9027577383,0.7532035078,0.0116329695,0.7374679626,-0.3566066055,-0.0741678092,-1.3595105458,-0.4941545724,-0.6015185073,-0.2468045743,-1.290781857,0.2263141546,0.0390225926,-0.305019676,0.6878440165,-0.6031220238,1.2833394377,1.5487656099,-0.7275849853,0.1286630506,0.0169742994,-0.3636243279,0.2804539387,-1.2020224724,0.2932843681,0.5002411373,-0.4148217103,-0.2230348861,-0.5376869398,0.4589301418,1.4765458765,-0.4700744123,-0.3434881648,0.2273317943,-0.1338189944,-2.7952103566,-0.0919151544,-0.9069389867,0.2917069975,0.363012259,1.3858129065,-0.3446089282,-0.2262944383,-0.0751688886,0.4510134733,-0.6957191086,1.6564374324,0.0388030369,1.0702310088,0.6027772898,-1.3465566483,-0.4185901153,0.0452807203,-1.1576260025,0.6509873726,0.2482070258,0.6042240381,0.5678381414,-1.2224517247,0.2745193231,-0.8985244753,0.507194137,-0.6599582877,-0.0177114408,0.0304675365,-0.1856246917,-0.3761138424,-0.2460255731,-0.0653446722,-0.5748494853,-0.3223743424,0.1626274015,0.2967701439,0.3004913461,-0.3715282697,1.2892950684,-0.1813113173,0.4431690966,0.5313218266,-0.0439590781,-0.1999694956,-1.4709872907,0.2547587656,1.0431180073,0.6522386103,-1.0187098878,-0.1739079679,0.9118995289,-0.2539243744,0.242359816,-0.8887531887,0.334184302,-0.4824414696,0.6621490478,-0.9910323442,0.5325727296,0.7095200589,-0.0578009209,1.4187345399,0.8598083883,-0.0084009931,1.0152115775,-0.8888765285,-0.7910159154,0.1599223668,-0.4915583498,-1.8239809661,1.391442103,-0.708051607,0.2942143191,-0.7470121577,-1.0447651223,-1.5881147208,-0.5680776551,0.5655824171,0.2052172427,0.0212810188,0.3687492049,-2.656013375,-0.5863630876,0.2788094873,-2.6175801251,1.0583098841,0.041899437,-1.2811586915,-0.0208507367,0.6261348556,1.7917051234,1.5584674128,-0.522181227,-1.0203652912,-0.1224454236,-1.6092304177,-0.6318835723,-1.1420393737,0.3455548727,1.361133287,0.7332354279,-0.0583053188,0.912745811,-1.2160158153,-0.6102955517,-1.149426602,-0.8746427041,1.4156304126,0.9053503625,0.4468666541,-0.3932791212,-0.2756014354,-0.6946963004,0.5668595862,-1.1838231547,-0.7815755703,-1.2647492154,-0.5127754042,1.0949304179,0.3539047528,0.7510492493,-0.5485656342,1.4581603285,0.2391930053,-0.1810134088,0.9360363201,0.7495739772,0.7510096097,0.3265286941,0.3971926299,-1.3555080055,-0.1198885779,0.2736493175,-1.3807744256,-0.6683248654,0.103314005,-0.2462959191,0.4193869036,-0.6127539126,-0.4581109824,-0.9155190024,-0.4535751747,1.3359169751,-0.7203590971,0.268719837,0.4120023495,-0.4981110552,-0.7250650202,-1.2044534371,0.077325946,0.2113102035,1.3238709492,-0.3283222736,2.3581785766,-1.0486611767,1.4892451635,0.4043971729,-1.7114572689,0.7647560507,-0.6830459357,-0.0803062251,-0.883228094,-1.4488877675,0.8155969497,-1.3481511091,0.4879415975,-0.3133004638,-0.2381537805,0.5937170833,-0.3340015763,0.3287666897,0.0849038496,-0.8148785304,-0.2397819022,0.7669676055,-0.1260117366,-0.8588827253,0.7177259787,1.0278297046,1.1126061443,-0.2036498489,-0.6719714833,0.3013128098,1.2022143701,0.5558161103,0.4207878185,-0.6176277241,0.5510928633,0.7216891172,-0.4288317776,1.1710203803,0.2867992305,0.8793620872,0.8140696539,-0.247418521,0.80370791,0.9291359668,0.4567144586,-0.9816836396,-1.7849539583,1.3396306684,0.1244859403,1.2024242336,-0.6276520123,-0.1206202134,-0.4827019328,-2.1371874735,1.0578954187,0.9801077552,0.0538192736,0.8104734451,1.4788804236,1.3934148017,0.1720036656,-0.9701149254,1.0770434133,-0.8604621391,-0.3070087946,-0.0637893911,-0.3861708507,-0.362802695,1.4937151384,-0.1736290485,0.5777894763,-0.14754417,0.4580731578,0.7966317994,-0.1591915198,0.3847173811,0.9705253151,-1.7678365549,-0.3008942116,0.1669423572,0.3314763973,-0.8841382474,-0.1879791701,0.6491026342,0.3052590026,0.1883444181,-0.3360306835,0.9773338515,0.3629043261,-1.6682351127,-0.2810891797,-0.7799639661,0.1415292226,0.3616525004,0.5353173198,0.5704369753,-0.1115425475,0.3204379413,-0.3035589966,-0.6678297776,-0.1324038879,-0.6433901023,-0.4606175101,0.9877116693,-0.9289761801,1.1154875016,0.8452358385,-0.6772258243,1.5428143617,-0.5792220498,0.4512095258,0.1354930909,-1.2927974659,-0.6641005915,0.6079723717,-1.1566175509,-0.1636372115,-0.7439185761,0.4240121909,-0.2115721596,-1.1812360176,-0.8054447953,-1.2758532397,-0.7994398801,0.2439726351,0.2637094029,-0.4524107348,-0.4219288637,0.5726125266,0.295939119,0.1499576697,0.4941277635,1.1497852461,0.7051580873,0.1965864606,0.0969272867,-0.2671709637,0.2111242366,0.1625210636,-0.9476251667,-0.0940175633,0.6435134925,0.6307371976,-0.1492307361,-0.8452536332,-0.9049378721,0.1537326396,-1.1029446057,0.0399588809,-0.0649143486,-0.9270913773,-1.0225901574,-0.5859689228,-0.1641758129,0.7641172391,-0.2958605303,-0.2099049842,-1.8881604568,0.7923561935,-0.6867531825,0.5244503202,0.2681561364,-0.1028776763,0.5579043642,0.7211039688,0.5910194192,0.4296198538,-0.2167415468,0.732181061,-0.0256970423,0.9426955315,-0.1316071405,0.9820434831,-1.1756390204,-0.4866346824,0.0522187994,-0.1776616317,-0.2212995578,0.4477242726,-0.1577599667,0.8486914492,-0.4007796495,0.1790861742,0.7684941701,-0.8031978677,-0.7457495301,0.3048068394,-0.2378263944,-0.233728845,-1.1013049273,0.8995601104,-0.7496136518,-0.0005920173,1.4356759818,-0.2312787755,-1.0053268637,-0.4616597405,0.6315717833,-0.6501783846,0.8214793464,-0.2512973597,0.6042370002,0.785450682,-0.4550037474,-0.2738594032,-0.906806483,0.5881806439,0.7886747892,-0.8096197141,-0.9294836676,-0.177905117,-0.9643740679,-1.4415441102,0.0630011978,-0.0863764565,0.3101313449,-0.2442493805,0.4070843331,0.1511439427,0.4260179819,0.0526710548,1.2645182551,0.4577695974,-1.0295827342,0.518842508,1.6919032237,0.374492409,1.0713058435,0.8539060119,-0.7395073319,0.2628679223,-0.4168856584,0.5883932936,0.2909300407,0.1022328318,0.7468097871,0.0366926958,1.1506845922,0.5955480362,-0.184265205,-1.1593613252,0.6934117537,0.8021579037,-1.3988669314,0.9668754462,0.4814923109,-0.0714791217,-0.1809446996,0.6316159463,-0.6075044092,0.5716713004,-0.1018121905,-0.1406873042,-0.7924251779,-0.0084795949,0.5230258906,-0.4806148535,-1.0189694197,0.4828980933,0.5967150994,0.6372023539,-1.0367934759,-0.1838690582,-1.1453601765,-0.0036762731,-0.0468602195,1.3200295994,0.8543070948,1.0467898596,-1.2918586113,-0.8839196737,0.7500275626,-0.1937318656,-0.6800070748,0.7278769659,0.5639285838,-1.2194378917,0.9854973823,0.658794584,-1.0113736922,0.7072431648,0.2746958863,-1.2897161002,0.0278583159,-1.0220684712,-0.3139149091,-0.2188760864,-0.6308973141,-0.28532755,-0.9672394697,1.2120631245,-0.6300218094,-0.9020460954,-1.6445127689,-0.5338131273,0.4805449593,0.0230723628,0.2630671921,-0.4968412077,0.4206766638,0.4251333894,1.7666907226,1.6043723793,1.0224059605,-0.7430470613,-0.1259139544,-0.6035434497,0.3373557629,0.5247319959,0.703510423,0.2790127732,0.614221516,-0.1523084261,0.6607692969,0.8970887098,0.7344311042,-0.5491501731,-0.2501910409,-0.2412903269,-0.0505890339,0.428397743,0.5708009489,0.2651129255,-1.1189168687,0.5999159258,0.0361383917,-0.3449667375,0.8018039126,-0.4017589762,-1.0574372412,-0.1452951553,0.8103047804,-0.774989631,-0.4725745883,-0.7251443711,-0.8303498924,-0.4914524782,0.05441521,-0.7789099255,0.6005240943,0.8435867372,-0.713575179,0.1679689008,0.0369093691,0.6799204387,-1.0451122897,-0.3268298133,-0.0713775607,-0.4620072974,0.61283083,0.5213138189,0.8711086436,-0.7173531256,0.9864559287,-0.3397659847,-2.0944489227,0.5089918418,0.2357727608,0.9029741997,-0.3957124931,1.6391630919,-0.9034184887,-0.6928529485,-0.170448106,0.9037720676,-0.1881500585,-0.6972182837,-0.0667260745,0.1488989452,1.290335894,1.8086577812,-0.2921296709,0.0230881062,-0.5949790327,0.6395543919,0.1587463659,-2.5536356171,0.5974405305,-1.0976737931,1.604462139,-1.0062862823,-0.9113790894,-0.9662747621,-1.2450614057,-1.077104674,-0.7310501167,1.0407098772,2.0901298962,-1.0329314063,1.0015868701,0.4201322204,-0.9661233902,-0.4996951528,-1.3466171747,0.4364047805,0.6089406416,0.4204604567,0.6241625628,0.3081313018,-0.9296883383,-0.571195572,0.3881132878,0.2558097707,-0.3442273472,-0.7512344151,0.7734109367,0.4171132195,-1.3458436174,0.3437898271,0.061637485,-0.9660952991,-0.3655312992,-0.9912950716,-0.6471007563,1.0166227491,-1.1607532498,-0.6667057479,0.7900945546,0.2960582022,-1.3366598835,-0.1677542078,1.0669448082,0.2634090929,-1.2259254814,-0.9509283937,-0.2126284315,0.0281731971,-0.5573023104,0.786952994,-0.867172152,-0.2747369058,0.0980917244,-1.10987862,-0.2863599296,0.0152604941,0.4296413759,-1.2280775623,0.9884534144,1.8774674986,-0.9428391814,0.6160211059,-1.754938262,-1.1003846328,0.7436919804,0.1571223825,0.7370104088,-0.2204069378,0.6623174243,0.7299260125,1.0616715452,0.9530600177,-0.5077409571,-0.8875161907,0.7295045143,-1.5027232368,0.3365748732,0.8966203986,-0.259271762,0.5458736631,-0.2036016788,0.5877710375,-1.0043962721,-0.9554067657,-0.7341460229,0.7561299415,0.0278128632,0.4261966274
biasActivation=0,1,1
[BASIC:ACTIVATION]
"org.encog.engine.network.activation.ActivationSigmoid"
"org.encog.engine.network.activation.ActivationSigmoid"
"org.encog.engine.network.activation.ActivationLinear"
