encog,SVM,java,3.2.0,1,1406057333476
[SVM]
[SVM:PARAMS]
[SVM:SVM-PARAM]
inputCount=6
C=1
cacheSize=100
coef0=0
degree=3
eps=0.001
gamma=1
kernelType=2
nrWeight=0
nu=0.5
p=0.1
probability=0
shrinking=1
svmType=3
weight=
weightLabel=
[SVM:SVM-MODEL]
svm_type epsilon_svr
kernel_type rbf
gamma 1.0
nr_class 2
total_sv 142
rho -0.5003411741645247
SV
0.02714436582664958 1:0.875 2:0.6875 3:0.75 4:0.1875 5:0.625 6:1.0 
1.0 1:0.6875 2:0.9375 3:0.75 4:0.625 5:0.4375 6:0.0 
0.5147078595298316 1:0.3125 2:0.0625 3:0.5 4:0.0 5:0.9375 6:1.0 
-1.0 1:0.1875 2:0.75 3:0.4375 4:0.8125 5:1.0 6:0.3125 
0.9792978462877294 1:0.4375 2:0.125 3:0.1875 4:0.1875 5:0.0 6:0.75 
0.9852857306231693 1:0.9375 2:0.1875 3:0.6875 4:0.125 5:0.3125 6:0.8125 
-0.29833303823104784 1:0.0625 2:0.4375 3:0.375 4:0.9375 5:0.6875 6:0.125 
-1.0 1:0.5 2:0.5625 3:0.125 4:0.375 5:0.0 6:0.1875 
1.0 1:0.125 2:0.25 3:0.5625 4:0.8125 5:1.0 6:0.9375 
0.43119724808874266 1:0.9375 2:0.8125 3:0.375 4:0.4375 5:0.0625 6:0.4375 
1.0 1:1.0 2:0.8125 3:1.0 4:0.5625 5:0.4375 6:0.125 
-0.2201214344813582 1:0.5625 2:0.9375 3:0.125 4:1.0 5:0.1875 6:0.0 
-1.0 1:0.8125 2:0.3125 3:0.6875 4:0.375 5:0.4375 6:0.9375 
-0.4897969985801008 1:0.0 2:0.0 3:0.0 4:0.5625 5:0.125 6:0.3125 
-1.0 1:0.5 2:0.625 3:0.5625 4:0.5 5:0.3125 6:0.1875 
1.0 1:0.6875 2:0.875 3:0.5 4:0.8125 5:0.4375 6:0.4375 
-1.0 1:1.0 2:0.6875 3:1.0 4:0.0625 5:0.375 6:0.875 
1.0 1:0.9375 2:0.8125 3:0.8125 4:0.1875 5:0.1875 6:0.375 
-1.0 1:0.5 2:0.375 3:0.625 4:0.5 5:0.5 6:0.8125 
-1.0 1:0.6875 2:0.875 3:0.5 4:0.75 5:0.3125 6:0.375 
-0.10149087797081444 1:0.8125 2:0.9375 3:0.6875 4:0.4375 5:0.25 6:0.0 
-0.48160075874995545 1:0.1875 2:0.3125 3:0.1875 4:0.6875 5:0.5 6:0.0 
1.0 1:0.3125 2:0.4375 3:0.25 4:0.375 5:0.1875 6:0.1875 
0.3145623272151906 1:0.5 2:0.0625 3:0.75 4:0.5 5:0.8125 6:0.9375 
0.20066659822474975 1:0.4375 2:0.625 3:0.5625 4:1.0 5:0.625 6:0.625 
0.571739608842832 1:0.625 2:0.875 3:0.5 4:0.6875 5:0.0625 6:0.375 
1.0 1:0.4375 2:0.4375 3:0.1875 4:0.25 5:0.0 6:0.0625 
-0.12109665426061003 1:0.3125 2:0.5625 3:0.875 4:0.625 5:0.9375 6:0.5 
1.0 1:0.125 2:0.5 3:0.0 4:1.0 5:0.5625 6:0.5 
-0.04077562453729458 1:0.0625 2:0.3125 3:0.5 4:0.5625 5:1.0 6:0.5 
-0.44366381877611616 1:0.1875 2:0.5 3:0.5 4:0.875 5:0.8125 6:0.75 
-1.0 1:1.0 2:0.8125 3:0.5 4:0.125 5:0.125 6:0.0 
1.0 1:0.6875 2:1.0 3:0.875 4:0.875 5:0.625 6:0.1875 
-1.0 1:0.4375 2:0.1875 3:0.5625 4:0.625 5:0.8125 6:1.0 
1.0 1:0.375 2:0.375 3:0.375 4:0.6875 5:0.8125 6:0.625 
1.0 1:0.125 2:0.5 3:0.5 4:0.9375 5:0.875 6:0.1875 
1.0 1:0.375 2:0.0625 3:0.3125 4:0.5 5:0.5 6:0.8125 
-1.0 1:0.5625 2:0.375 3:0.4375 4:0.25 5:0.5 6:0.9375 
1.0 1:0.75 2:1.0 3:0.75 4:0.625 5:0.0625 6:0.1875 
0.9018876766328964 1:0.125 2:0.75 3:0.5625 4:0.8125 5:0.5625 6:0.1875 
-1.0 1:0.9375 2:0.5625 3:0.875 4:0.1875 5:0.8125 6:0.8125 
-0.826186041255151 1:0.6875 2:0.5625 3:0.5 4:0.5625 5:0.4375 6:0.0 
-0.44151491659878317 1:0.375 2:0.0 3:0.0 4:0.5 5:0.0 6:0.1875 
-1.0 1:0.25 2:0.1875 3:0.5 4:0.9375 5:1.0 6:0.75 
-1.0 1:0.5 2:0.875 3:0.875 4:1.0 5:0.625 6:0.125 
-1.0 1:0.5625 2:0.25 3:0.4375 4:0.4375 5:0.4375 6:0.875 
1.0 1:0.5 2:0.8125 3:0.6875 4:0.9375 5:0.4375 6:0.125 
-1.0 1:0.9375 2:0.75 3:0.625 4:0.5625 5:0.1875 6:0.4375 
1.0 1:0.8125 2:0.5625 3:0.75 4:0.5 5:0.5 6:1.0 
-0.353773212018284 1:0.4375 2:0.1875 3:0.125 4:0.0 5:0.125 6:0.375 
1.0 1:0.875 2:0.4375 3:0.5625 4:0.375 5:0.3125 6:0.875 
-0.0731394893310155 1:0.0625 2:0.4375 3:0.5 4:1.0 5:1.0 6:1.0 
0.5243977473197197 1:0.0625 2:0.3125 3:0.875 4:0.5625 5:0.9375 6:0.75 
-0.8277255539183184 1:0.125 2:0.4375 3:0.0 4:1.0 5:0.8125 6:0.125 
-1.0 1:0.5 2:0.3125 3:0.25 4:0.1875 5:0.3125 6:0.8125 
1.0 1:0.375 2:0.6875 3:0.375 4:0.9375 5:0.8125 6:0.0625 
0.4876800748901095 1:0.5 2:0.5 3:0.875 4:0.6875 5:0.6875 6:1.0 
-1.0 1:0.5 2:0.1875 3:0.375 4:0.4375 5:0.4375 6:0.9375 
-1.0 1:0.4375 2:0.5 3:0.0625 4:0.4375 5:0.375 6:0.0 
0.3626779115539552 1:0.0625 2:0.3125 3:0.5 4:0.5 5:0.5625 6:0.9375 
-1.0 1:0.4375 2:0.375 3:0.5 4:0.25 5:0.9375 6:1.0 
1.0 1:0.5 2:0.25 3:0.5625 4:0.3125 5:0.375 6:0.9375 
-0.44902012514842105 1:0.3125 2:0.8125 3:0.5 4:0.75 5:0.75 6:0.5 
-1.0 1:0.1875 2:0.125 3:0.3125 4:0.625 5:0.5625 6:0.8125 
-1.0 1:0.5 2:0.625 3:0.6875 4:0.375 5:0.5 6:0.625 
-1.0 1:0.5 2:0.1875 3:0.375 4:0.0 5:0.25 6:1.0 
1.0 1:0.3125 2:0.1875 3:0.3125 4:0.375 5:0.375 6:0.8125 
0.06399201857526354 1:0.5625 2:0.3125 3:0.5625 4:0.4375 5:0.4375 6:0.875 
-1.0 1:0.125 2:0.5 3:0.4375 4:0.75 5:0.75 6:0.125 
-0.5192062757854348 1:0.5625 2:0.8125 3:0.8125 4:0.8125 5:0.8125 6:0.25 
-1.0 1:0.5 2:0.5 3:0.4375 4:0.8125 5:0.3125 6:0.3125 
0.7494024331997861 1:0.5 2:0.0 3:0.125 4:0.0625 5:0.4375 6:0.9375 
-0.8952858556240337 1:0.0625 2:0.25 3:0.125 4:0.375 5:0.5 6:0.8125 
-0.7165261599466741 1:0.3125 2:0.9375 3:0.5 4:0.9375 5:0.75 6:0.0625 
-1.0 1:0.875 2:0.9375 3:0.5 4:0.9375 5:0.5 6:0.0 
0.8902390465490839 1:0.0 2:0.0 3:0.0625 4:0.5625 5:0.75 6:0.875 
1.0 1:0.6875 2:0.5625 3:0.5625 4:0.375 5:0.1875 6:0.6875 
1.0 1:0.6875 2:0.375 3:0.5 4:0.25 5:0.5 6:1.0 
0.09950986529897524 1:0.0625 2:0.9375 3:0.6875 4:0.9375 5:0.9375 6:0.5 
-1.0 1:1.0 2:0.5625 3:0.625 4:0.25 5:0.375 6:0.3125 
-1.0 1:1.0 2:0.8125 3:0.5 4:0.5 5:0.125 6:0.5 
-0.514386049586677 1:0.0 2:0.6875 3:0.25 4:0.875 5:0.625 6:0.25 
-0.9187799028672117 1:0.9375 2:0.8125 3:0.8125 4:0.8125 5:0.5 6:0.5 
1.0 1:0.9375 2:0.625 3:0.5 4:0.25 5:0.1875 6:0.0625 
-1.0 1:0.5 2:0.625 3:1.0 4:0.4375 5:0.625 6:0.8125 
-1.0 1:0.875 2:0.9375 3:0.6875 4:0.5625 5:0.3125 6:0.5 
1.0 1:0.5 2:0.3125 3:0.5625 4:0.25 5:0.75 6:0.625 
-1.0 1:0.25 2:0.5 3:0.375 4:0.875 5:0.6875 6:0.0 
1.0 1:0.1875 2:0.4375 3:0.25 4:0.8125 5:0.75 6:0.0625 
-1.0 1:0.4375 2:0.0625 3:0.5 4:0.0625 5:0.6875 6:0.625 
0.1901019355971136 1:0.5 2:0.375 3:0.3125 4:0.1875 5:0.375 6:0.25 
1.0 1:0.9375 2:0.8125 3:0.6875 4:0.5625 5:0.5 6:0.0625 
0.06548603195391953 1:1.0 2:0.4375 3:0.8125 4:0.0625 5:0.75 6:1.0 
-1.0 1:0.625 2:0.5625 3:0.5 4:0.0 5:0.0 6:0.25 
1.0 1:0.5625 2:0.5 3:0.25 4:0.6875 5:0.1875 6:0.0625 
1.0 1:0.375 2:0.5625 3:0.5625 4:0.75 5:0.75 6:0.1875 
-0.22395005719648445 1:0.25 2:0.3125 3:0.0 4:1.0 5:0.5 6:0.0 
0.30214152155485213 1:0.5 2:0.9375 3:0.375 4:0.75 5:0.5 6:0.375 
0.5019831206496989 1:0.3125 2:0.375 3:0.5 4:0.875 5:0.6875 6:0.75 
0.7398236519615757 1:0.9375 2:1.0 3:0.375 4:0.5 5:0.125 6:0.375 
1.0 1:0.9375 2:0.5 3:0.875 4:0.0 5:0.125 6:0.9375 
0.07356994214304607 1:0.0 2:0.4375 3:0.0 4:1.0 5:0.625 6:0.5 
0.7142366536339763 1:0.8125 2:0.4375 3:0.5 4:0.25 5:0.5 6:1.0 
0.7127749015189745 1:0.9375 2:0.5 3:0.8125 4:0.0625 5:0.5625 6:0.5625 
-0.01865576568789487 1:0.6875 2:0.5 3:0.0625 4:0.125 5:0.1875 6:0.4375 
-0.06911992429710168 1:0.5 2:0.0 3:0.0 4:0.3125 5:0.375 6:0.3125 
-1.0 1:0.8125 2:0.375 3:0.6875 4:0.375 5:0.4375 6:0.8125 
1.0 1:0.0625 2:0.5625 3:0.1875 4:0.6875 5:0.625 6:0.0625 
-1.0 1:0.375 2:0.9375 3:0.5 4:0.875 5:0.6875 6:0.5 
-1.0 1:0.625 2:0.3125 3:0.25 4:0.25 5:0.0625 6:0.125 
1.0 1:0.625 2:0.75 3:0.625 4:0.9375 5:0.6875 6:0.25 
1.0 1:0.4375 2:0.1875 3:0.125 4:0.125 5:0.4375 6:1.0 
-1.0 1:0.875 2:0.1875 3:0.5 4:0.0625 5:0.0 6:0.875 
1.0 1:0.5 2:0.1875 3:0.1875 4:0.5 5:0.1875 6:0.125 
1.0 1:0.375 2:0.1875 3:0.5625 4:0.125 5:0.5625 6:0.75 
1.0 1:0.5625 2:0.875 3:0.5 4:0.9375 5:0.6875 6:0.125 
0.39947276367149187 1:0.875 2:0.5625 3:1.0 4:0.5 5:0.5625 6:1.0 
-1.0 1:0.6875 2:0.3125 3:0.4375 4:0.125 5:0.1875 6:0.9375 
-0.061981382305149046 1:0.6875 2:0.625 3:1.0 4:0.6875 5:1.0 6:0.5625 
-0.3019219001742787 1:0.0625 2:0.9375 3:0.3125 4:0.875 5:0.5625 6:0.0 
1.0 1:0.0625 2:0.625 3:0.1875 4:0.75 5:0.6875 6:0.0 
1.0 1:0.8125 2:0.375 3:0.1875 4:0.3125 5:0.125 6:0.25 
0.4906716703111981 1:0.875 2:0.5 3:0.5 4:0.0 5:0.1875 6:0.875 
1.0 1:0.5 2:0.5 3:0.25 4:0.1875 5:0.1875 6:0.25 
0.37092131043005505 1:0.3125 2:1.0 3:0.4375 4:0.9375 5:0.5625 6:0.375 
-0.005838223964295544 1:0.9375 2:0.75 3:0.3125 4:0.25 5:0.0625 6:0.0 
-1.0 1:0.4375 2:0.5 3:0.5 4:0.6875 5:0.5 6:0.0 
-1.0 1:0.8125 2:0.75 3:0.75 4:0.1875 5:0.5 6:0.875 
0.14040684386840022 1:0.875 2:1.0 3:0.625 4:0.125 5:0.375 6:0.4375 
-0.2539267477925818 1:0.0 2:0.1875 3:0.3125 4:0.5625 5:1.0 6:0.4375 
-1.0 1:0.0625 2:0.6875 3:0.125 4:0.75 5:0.5 6:0.3125 
0.5761769844836097 1:0.5 2:0.9375 3:0.625 4:0.5 5:0.5 6:0.5 
1.0 1:0.5 2:0.4375 3:0.5 4:0.4375 5:0.75 6:1.0 
1.0 1:0.5625 2:0.6875 3:0.875 4:0.375 5:0.625 6:0.5625 
-1.0 1:0.4375 2:0.0 3:0.25 4:0.3125 5:0.6875 6:0.8125 
0.4603196482759562 1:0.9375 2:0.625 3:0.8125 4:0.1875 5:0.4375 6:1.0 
-1.0 1:0.8125 2:1.0 3:0.75 4:0.4375 5:0.0625 6:0.0 
0.8899602505167306 1:0.875 2:0.875 3:1.0 4:0.5 5:0.9375 6:1.0 
-1.0 1:0.75 2:1.0 3:1.0 4:0.6875 5:0.5 6:0.125 
0.15017653770483638 1:0.75 2:0.5 3:0.625 4:0.1875 5:0.125 6:0.8125 
-1.0 1:0.5625 2:0.9375 3:0.6875 4:0.8125 5:0.625 6:0.0 
-0.21479533784903115 1:0.5 2:0.75 3:0.0 4:0.5 5:0.125 6:0.0 
