encog,SVM,java,3.2.0,1,1406057666339
[SVM]
[SVM:PARAMS]
[SVM:SVM-PARAM]
inputCount=15
C=1
cacheSize=100
coef0=0
degree=3
eps=0.001
gamma=1
kernelType=2
nrWeight=0
nu=0.5
p=0.1
probability=0
shrinking=1
svmType=3
weight=
weightLabel=
[SVM:SVM-MODEL]
svm_type epsilon_svr
kernel_type rbf
gamma 1.0
nr_class 2
total_sv 334
rho -0.4730737156898855
SV
-0.019135054807428314 1:0.5 2:0.875 3:0.125 4:0.5 5:0.8125 6:1.0 7:0.5 8:0.1875 9:0.6875 10:0.0625 11:0.0625 12:0.375 13:0.5 14:0.8125 15:0.75 
0.19819032781173665 1:0.8125 2:0.4375 3:0.6875 4:0.3125 5:0.625 6:0.3125 7:0.4375 8:0.0 9:0.1875 10:0.75 11:0.5625 12:0.75 13:0.25 14:0.1875 15:0.5625 
0.5992238939406441 1:0.3125 2:0.0625 3:0.0 4:0.5 5:0.0625 6:0.125 7:0.375 8:0.5 9:0.3125 10:0.375 11:0.5 12:0.6875 13:0.8125 14:0.625 15:0.3125 
0.0821372959512651 1:0.375 2:0.0 3:0.0 4:0.25 5:0.0625 6:0.375 7:0.0625 8:0.5 9:0.5 10:0.625 11:0.6875 12:0.5625 13:0.5 14:0.875 15:0.5 
-0.37909484703881413 1:0.5 2:0.625 3:0.4375 4:0.5 5:0.1875 6:0.875 7:0.8125 8:0.8125 9:0.5625 10:0.5 11:0.375 12:0.375 13:0.375 14:0.25 15:0.0625 
0.9688305907120331 1:0.75 2:0.75 3:0.6875 4:0.125 5:0.75 6:0.4375 7:0.125 8:0.1875 9:0.5 10:0.1875 11:0.125 12:0.5625 13:0.0 14:0.625 15:0.9375 
0.05176840588168904 1:0.5 2:0.125 3:0.25 4:0.5 5:0.75 6:0.0625 7:0.25 8:0.375 9:0.3125 10:0.5 11:0.8125 12:0.8125 13:0.5625 14:0.625 15:0.875 
-0.36602233720060523 1:0.875 2:0.625 3:0.625 4:0.4375 5:0.625 6:0.5 7:0.125 8:0.125 9:0.0 10:0.5 11:0.3125 12:0.125 13:0.5 14:0.4375 15:0.1875 
0.017020618959214334 1:0.5625 2:0.8125 3:0.8125 4:0.5 5:0.75 6:0.6875 7:0.6875 8:0.4375 9:1.0 10:0.0625 11:0.0625 12:0.8125 13:0.125 14:0.875 15:0.8125 
0.6504886666708647 1:0.625 2:0.5 3:0.0625 4:0.5625 5:0.6875 6:0.5 7:0.0 8:0.125 9:0.625 10:0.125 11:0.1875 12:0.6875 13:0.5 14:0.75 15:0.5625 
1.0 1:0.0625 2:0.3125 3:0.5 4:0.6875 5:0.1875 6:0.5625 7:0.5 8:0.5625 9:0.4375 10:0.625 11:0.8125 12:0.625 13:0.75 14:0.375 15:0.25 
-0.2707606426863226 1:0.625 2:0.25 3:0.375 4:0.5 5:0.375 6:0.375 7:0.1875 8:0.25 9:0.25 10:0.5625 11:0.4375 12:1.0 13:0.5 14:0.5 15:0.5625 
-0.14831173546342888 1:0.75 2:0.4375 3:0.875 4:0.5625 5:0.625 6:0.3125 7:0.875 8:0.5625 9:0.5 10:0.75 11:0.9375 12:0.5625 13:0.3125 14:0.0625 15:0.5 
-0.7644664094191328 1:0.125 2:0.75 3:0.375 4:0.375 5:0.5 6:0.875 7:0.75 8:0.625 9:1.0 10:0.1875 11:0.1875 12:0.1875 13:0.25 14:0.5 15:0.9375 
0.16860893943381744 1:0.3125 2:0.5 3:0.125 4:0.5 5:0.4375 6:1.0 7:0.5625 8:0.75 9:0.9375 10:0.25 11:0.4375 12:0.6875 13:0.8125 14:0.6875 15:0.75 
-0.08294975440568934 1:0.75 2:0.9375 3:0.8125 4:0.6875 5:0.9375 6:0.75 7:0.875 8:0.8125 9:0.625 10:0.0625 11:0.0625 12:0.4375 13:0.4375 14:0.375 15:0.625 
-1.0 1:0.5625 2:0.3125 3:0.625 4:0.8125 5:0.5625 6:0.5 7:0.5 8:0.6875 9:0.8125 10:0.5 11:0.625 12:0.75 13:0.5 14:0.625 15:0.75 
1.0 1:0.4375 2:0.5 3:0.5 4:0.5 5:0.5 6:0.875 7:0.75 8:0.75 9:0.6875 10:0.5625 11:0.4375 12:0.4375 13:0.25 14:0.3125 15:0.1875 
-0.4227699869502148 1:0.375 2:0.5 3:0.5 4:0.5 5:0.5 6:0.9375 7:0.9375 8:1.0 9:0.5 10:0.5 11:0.75 12:0.125 13:0.875 14:0.3125 15:0.25 
-1.0 1:0.9375 2:0.875 3:0.5625 4:0.75 5:0.6875 6:0.4375 7:0.25 8:0.375 9:0.5 10:0.3125 11:0.0 12:0.4375 13:0.4375 14:0.5 15:0.3125 
0.3181492900556172 1:0.5 2:0.875 3:0.8125 4:0.6875 5:0.3125 6:0.5 7:0.5 8:0.625 9:0.0 10:0.3125 11:0.3125 12:0.25 13:0.5 14:0.125 15:0.4375 
0.33760894433811756 1:0.5625 2:0.25 3:1.0 4:0.9375 5:0.625 6:0.4375 7:0.9375 8:0.625 9:0.75 10:0.8125 11:0.75 12:1.0 13:0.3125 14:0.4375 15:0.5625 
-0.4912611433524487 1:0.5 2:0.5 3:0.875 4:0.3125 5:0.8125 6:0.8125 7:0.875 8:0.5 9:0.875 10:0.625 11:0.0625 12:0.375 13:0.375 14:0.375 15:0.875 
0.6300498889906748 1:1.0 2:0.9375 3:0.625 4:0.75 5:0.8125 6:0.375 7:0.4375 8:0.0625 9:0.375 10:0.625 11:0.0625 12:0.125 13:0.25 14:0.375 15:0.6875 
-0.42832347698892637 1:0.625 2:0.75 3:0.625 4:0.0 5:0.4375 6:0.5625 7:0.5 8:0.0625 9:0.5 10:0.875 11:0.1875 12:0.5 13:0.0625 14:0.25 15:0.75 
-0.16760837840895815 1:0.0625 2:0.5 3:0.3125 4:0.625 5:0.25 6:0.9375 7:0.1875 8:0.5625 9:0.5 10:0.125 11:0.6875 12:0.1875 13:0.75 14:0.4375 15:0.0625 
-0.23232147110036153 1:0.4375 2:0.5625 3:0.5625 4:1.0 5:0.6875 6:0.625 7:0.8125 8:0.6875 9:0.875 10:0.5 11:0.6875 12:0.875 13:0.5 14:0.6875 15:0.25 
-0.6213176944354727 1:0.0 2:0.3125 3:0.4375 4:0.3125 5:0.125 6:0.25 7:0.875 8:0.75 9:0.4375 10:1.0 11:0.8125 12:0.8125 13:0.5 14:0.1875 15:0.3125 
-0.7266261072815501 1:0.3125 2:0.375 3:0.5 4:0.6875 5:0.1875 6:0.375 7:0.625 8:0.75 9:0.5 10:0.75 11:0.875 12:0.375 13:0.75 14:0.5625 15:0.1875 
0.49553129414392005 1:0.6875 2:0.5 3:0.375 4:0.1875 5:0.5 6:0.4375 7:0.0625 8:0.1875 9:0.5625 10:0.5625 11:0.1875 12:0.8125 13:0.5 14:0.6875 15:0.75 
0.5438347370618617 1:0.6875 2:0.0625 3:0.5 4:0.4375 5:0.0 6:0.375 7:0.3125 8:0.4375 9:0.1875 10:0.6875 11:0.5625 12:0.0625 13:0.625 14:0.375 15:0.25 
0.6541855310783625 1:0.8125 2:0.0 3:0.5 4:0.375 5:0.5 6:0.25 7:0.3125 8:0.4375 9:0.3125 10:0.5 11:0.5 12:0.875 13:0.5 14:0.8125 15:1.0 
-0.11123321805508221 1:0.375 2:0.5 3:0.0 4:0.6875 5:0.25 6:0.8125 7:0.125 8:0.5 9:0.0 10:0.3125 11:0.5625 12:0.0625 13:0.8125 14:0.3125 15:0.1875 
0.3745295669749436 1:0.6875 2:0.4375 3:0.75 4:0.8125 5:0.75 6:0.3125 7:0.5625 8:0.25 9:0.5625 10:1.0 11:0.625 12:0.875 13:0.1875 14:0.625 15:0.8125 
-0.7075516617218649 1:0.375 2:0.1875 3:0.375 4:0.0625 5:0.3125 6:0.25 7:0.375 8:0.0 9:0.625 10:0.8125 11:0.375 12:0.6875 13:0.4375 14:0.5 15:0.9375 
0.7232346859482938 1:0.5 2:0.625 3:0.1875 4:0.5625 5:0.4375 6:0.9375 7:0.25 8:0.3125 9:0.5 10:0.0 11:0.375 12:0.0 13:0.8125 14:0.5 15:0.25 
0.13796840022274987 1:0.5 2:0.625 3:1.0 4:0.4375 5:0.9375 6:0.4375 7:0.6875 8:0.4375 9:0.5 10:0.6875 11:0.375 12:0.8125 13:0.4375 14:0.5625 15:0.5625 
-0.8300405789837821 1:0.6875 2:0.5625 3:0.5 4:0.6875 5:0.5 6:0.3125 7:0.0 8:0.6875 9:0.375 10:0.4375 11:0.875 12:0.0 13:0.875 14:0.5 15:0.0625 
-0.5071197017838003 1:0.6875 2:0.625 3:0.875 4:0.5 5:0.5 6:0.0625 7:0.25 8:0.375 9:0.4375 10:0.5625 11:0.5 12:0.375 13:0.125 14:0.5 15:0.6875 
0.5357242187161216 1:0.375 2:1.0 3:0.75 4:0.1875 5:0.5 6:0.8125 7:0.875 8:0.25 9:0.75 10:0.5 11:0.1875 12:0.125 13:0.0 14:0.5 15:0.9375 
-0.11615193901571179 1:0.625 2:0.125 3:1.0 4:0.75 5:0.5 6:0.1875 7:0.9375 8:0.5625 9:0.0625 10:0.9375 11:0.625 12:0.375 13:0.3125 14:0.125 15:0.25 
-0.20095953123996477 1:0.9375 2:0.875 3:0.4375 4:0.6875 5:0.75 6:0.5625 7:0.125 8:0.3125 9:0.6875 10:0.375 11:0.0625 12:0.375 13:0.625 14:1.0 15:0.75 
-1.0 1:0.8125 2:0.625 3:0.875 4:0.4375 5:0.625 6:0.625 7:0.625 8:0.3125 9:0.8125 10:0.5 11:0.3125 12:0.9375 13:0.125 14:0.5625 15:0.625 
-0.5426904610802407 1:0.1875 2:0.25 3:0.4375 4:0.0625 5:0.4375 6:0.3125 7:1.0 8:0.125 9:0.5625 10:0.8125 11:0.375 12:1.0 13:0.125 14:0.0625 15:1.0 
-0.02914965609757713 1:0.625 2:0.5625 3:0.5 4:0.0625 5:0.6875 6:0.5625 7:0.5 8:0.4375 9:0.9375 10:0.4375 11:0.25 12:0.4375 13:0.25 14:1.0 15:1.0 
-0.36915856786640694 1:0.5 2:0.625 3:0.5 4:1.0 5:0.3125 6:0.9375 7:0.25 8:0.8125 9:0.125 10:0.1875 11:0.4375 12:0.1875 13:0.625 14:0.375 15:0.25 
-0.2241682508803735 1:0.5 2:0.75 3:0.625 4:0.875 5:0.125 6:1.0 7:0.625 8:0.6875 9:0.0625 10:0.375 11:0.5625 12:0.0 13:0.4375 14:0.0 15:0.1875 
0.6032724355510264 1:0.1875 2:0.5625 3:0.625 4:0.5625 5:0.3125 6:0.5625 7:0.625 8:0.625 9:0.0625 10:0.5 11:0.4375 12:0.375 13:0.4375 14:0.1875 15:0.1875 
0.3639395906256323 1:0.4375 2:0.3125 3:0.8125 4:0.9375 5:0.6875 6:0.875 7:1.0 8:1.0 9:0.625 10:0.9375 11:0.875 12:0.6875 13:0.625 14:0.0 15:0.25 
0.3425914474497178 1:0.4375 2:0.5 3:0.8125 4:0.0625 5:0.625 6:0.1875 7:0.875 8:0.3125 9:0.75 10:0.875 11:0.5 12:0.5625 13:0.3125 14:0.375 15:0.8125 
-0.5763990484688479 1:0.125 2:0.5 3:0.375 4:0.3125 5:0.5 6:0.8125 7:1.0 8:0.6875 9:0.9375 10:0.5 11:0.4375 12:0.0 13:0.25 14:0.125 15:0.5 
0.385203456879423 1:0.8125 2:0.875 3:0.9375 4:1.0 5:0.875 6:0.25 7:0.1875 8:0.5625 9:0.5 10:0.75 11:0.875 12:0.6875 13:0.875 14:0.5625 15:0.25 
0.4862700583511389 1:0.3125 2:1.0 3:0.625 4:0.5 5:0.5625 6:0.75 7:0.5625 8:0.5 9:0.375 10:0.5625 11:0.1875 12:0.0 13:0.4375 14:0.125 15:0.4375 
0.7106174761068306 1:0.25 2:0.375 3:0.125 4:0.375 5:0.5 6:0.4375 7:0.0625 8:0.4375 9:0.5625 10:0.0 11:0.0 12:0.8125 13:0.75 14:0.875 15:0.75 
-0.34553136241085464 1:0.4375 2:0.875 3:0.6875 4:0.75 5:0.5 6:0.5625 7:0.875 8:1.0 9:0.9375 10:0.75 11:0.6875 12:0.75 13:0.5 14:0.4375 15:0.5 
-0.35295420405094596 1:0.625 2:0.9375 3:0.9375 4:0.75 5:0.3125 6:0.6875 7:0.9375 8:0.5 9:0.5 10:0.6875 11:0.1875 12:0.0 13:0.0625 14:0.0 15:0.5 
0.030213635499903548 1:0.3125 2:0.6875 3:0.4375 4:0.75 5:0.375 6:0.75 7:0.3125 8:0.9375 9:0.1875 10:0.0625 11:0.5625 12:0.1875 13:0.625 14:0.4375 15:0.375 
-0.03697712780315789 1:0.25 2:0.125 3:0.25 4:0.0 5:0.0 6:0.0625 7:0.5625 8:0.375 9:0.5 10:0.875 11:0.5 12:0.875 13:0.5625 14:0.6875 15:0.625 
-0.46441614167315604 1:0.5625 2:0.125 3:0.1875 4:0.3125 5:1.0 6:0.0625 7:0.25 8:0.0 9:0.6875 10:0.5 11:0.1875 12:0.9375 13:0.5 14:0.75 15:0.8125 
-1.0 1:0.25 2:0.4375 3:0.4375 4:0.375 5:0.4375 6:0.25 7:0.5 8:0.625 9:0.625 10:0.4375 11:0.5 12:0.875 13:0.5 14:0.875 15:0.6875 
-1.0 1:0.1875 2:0.3125 3:0.4375 4:0.5 5:0.5625 6:0.125 7:0.3125 8:0.4375 9:0.4375 10:0.5 11:0.75 12:0.625 13:0.625 14:0.5625 15:0.4375 
-0.5442385374468797 1:0.0625 2:0.5 3:0.625 4:0.9375 5:0.375 6:0.8125 7:0.8125 8:0.875 9:0.25 10:0.75 11:0.9375 12:0.375 13:0.625 14:0.125 15:0.0625 
-0.251353547554143 1:0.625 2:1.0 3:0.8125 4:0.8125 5:0.5 6:0.5 7:0.4375 8:0.75 9:0.125 10:0.0625 11:0.4375 12:0.125 13:1.0 14:0.5 15:0.0 
0.21646317488099848 1:1.0 2:0.625 3:0.6875 4:0.9375 5:0.75 6:0.25 7:0.0 8:0.4375 9:0.25 10:0.6875 11:0.625 12:0.75 13:0.8125 14:0.6875 15:0.5 
-0.19306783277998335 1:1.0 2:0.4375 3:0.875 4:0.5 5:0.5 6:0.125 7:0.4375 8:0.375 9:0.0625 10:0.625 11:0.875 12:0.6875 13:0.1875 14:0.1875 15:0.125 
0.047942152953358394 1:0.625 2:0.4375 3:0.5625 4:1.0 5:0.6875 6:0.0625 7:0.4375 8:0.9375 9:0.5625 10:0.5 11:0.75 12:0.5 13:0.8125 14:0.5 15:0.0 
0.4489494086940207 1:0.5 2:0.125 3:0.0 4:0.375 5:0.625 6:0.0 7:0.125 8:0.375 9:0.875 10:0.625 11:0.9375 12:1.0 13:0.5 14:0.9375 15:1.0 
0.8798524289394631 1:0.625 2:0.375 3:0.375 4:0.5625 5:0.1875 6:0.625 7:0.5 8:0.8125 9:0.25 10:0.5 11:0.625 12:0.375 13:0.5625 14:0.375 15:0.0625 
0.4554411265397471 1:0.9375 2:0.5 3:0.875 4:0.8125 5:0.9375 6:0.375 7:0.625 8:0.5 9:0.9375 10:0.625 11:0.5 12:0.9375 13:0.0 14:0.5 15:0.875 
0.2702948008272207 1:0.8125 2:0.5 3:0.5 4:0.375 5:0.0625 6:0.25 7:0.0 8:0.0625 9:0.125 10:0.75 11:0.625 12:0.5 13:0.125 14:0.0 15:0.5 
-0.09597519640138381 1:0.625 2:0.75 3:0.8125 4:0.0625 5:0.5 6:0.3125 7:0.1875 8:0.25 9:0.375 10:0.5625 11:0.3125 12:0.3125 13:0.25 14:0.3125 15:0.625 
1.0 1:0.75 2:0.625 3:0.6875 4:0.75 5:0.625 6:0.875 7:0.5 8:0.6875 9:0.75 10:0.375 11:0.5 12:0.75 13:0.6875 14:0.6875 15:0.5 
-0.2257350362766993 1:0.8125 2:0.9375 3:0.9375 4:0.625 5:1.0 6:0.5 7:0.5 8:0.6875 9:0.75 10:0.6875 11:0.3125 12:0.75 13:0.375 14:0.5 15:0.5625 
-0.1268877107821194 1:0.375 2:0.5625 3:0.0 4:0.875 5:0.375 6:0.6875 7:0.3125 8:0.6875 9:0.5625 10:0.3125 11:1.0 12:0.4375 13:1.0 14:0.4375 15:0.3125 
0.4642010964973458 1:0.625 2:0.8125 3:0.5625 4:0.75 5:0.9375 6:0.5625 7:0.1875 8:0.3125 9:0.5 10:0.25 11:0.25 12:0.0 13:0.75 14:0.9375 15:0.5 
-0.21089365504375418 1:0.625 2:0.8125 3:0.875 4:0.5 5:0.75 6:0.3125 7:1.0 8:0.3125 9:0.8125 10:0.875 11:0.0625 12:0.5 13:0.0625 14:0.375 15:1.0 
0.10150325307657804 1:0.5 2:0.9375 3:0.8125 4:0.75 5:0.8125 6:0.9375 7:0.625 8:0.625 9:0.6875 10:0.5 11:0.6875 12:0.375 13:0.6875 14:0.0625 15:0.375 
0.21942952366763105 1:0.3125 2:0.4375 3:0.3125 4:0.0 5:0.375 6:0.625 7:0.875 8:0.25 9:0.5625 10:0.1875 11:0.25 12:0.5 13:0.125 14:0.375 15:0.875 
-0.12518687305999066 1:0.25 2:0.625 3:0.5 4:0.25 5:0.0 6:0.625 7:0.875 8:0.5625 9:0.3125 10:0.6875 11:0.25 12:0.3125 13:0.375 14:0.0625 15:0.375 
0.15175210095515232 1:0.375 2:0.25 3:0.125 4:0.25 5:0.0625 6:0.6875 7:0.0625 8:0.125 9:0.4375 10:0.0 11:0.25 12:0.5 13:0.5 14:0.875 15:0.8125 
0.6882526407622276 1:0.75 2:0.9375 3:0.875 4:0.5 5:1.0 6:0.375 7:0.625 8:0.5625 9:0.5625 10:0.625 11:0.625 12:0.625 13:0.0 14:0.5 15:0.625 
0.49575728494319377 1:0.0625 2:0.5 3:0.125 4:0.5625 5:0.5625 6:0.375 7:0.375 8:0.5625 9:0.625 10:0.4375 11:1.0 12:0.875 13:0.9375 14:0.9375 15:0.25 
-0.7225750113599779 1:0.6875 2:0.9375 3:0.75 4:1.0 5:0.5625 6:0.9375 7:0.5 8:0.75 9:0.875 10:0.1875 11:0.8125 12:0.5 13:0.9375 14:0.5 15:0.25 
0.06080376104142809 1:0.5 2:0.375 3:0.5 4:0.625 5:1.0 6:0.5 7:0.5 8:0.5625 9:0.6875 10:0.75 11:0.625 12:0.625 13:0.4375 14:0.5 15:0.9375 
-0.610252632549443 1:0.8125 2:0.8125 3:0.6875 4:0.875 5:0.625 6:0.25 7:0.5625 8:0.4375 9:0.0 10:0.625 11:0.6875 12:0.3125 13:0.875 14:0.1875 15:0.1875 
-0.5394073650820703 1:0.5 2:0.5625 3:0.5 4:0.9375 5:0.6875 6:0.375 7:0.875 8:0.625 9:0.6875 10:0.6875 11:1.0 12:0.8125 13:0.5625 14:0.4375 15:0.3125 
1.0 1:0.8125 2:0.5 3:0.4375 4:0.625 5:0.5 6:0.3125 7:0.25 8:0.1875 9:0.3125 10:0.1875 11:0.375 12:0.0625 13:0.875 14:0.6875 15:0.25 
0.23276802245814876 1:0.9375 2:0.9375 3:0.5625 4:0.875 5:0.875 6:0.5625 7:0.5 8:1.0 9:0.9375 10:0.1875 11:0.625 12:0.625 13:0.6875 14:0.5625 15:0.5 
-0.46435822700439583 1:0.8125 2:0.4375 3:0.5625 4:0.1875 5:0.75 6:0.25 7:0.4375 8:0.25 9:0.1875 10:1.0 11:0.4375 12:0.625 13:0.0 14:0.6875 15:0.75 
0.7022721724745132 1:0.9375 2:0.5625 3:0.0625 4:0.4375 5:0.375 6:0.5 7:0.3125 8:0.1875 9:0.375 10:0.1875 11:0.25 12:0.125 13:0.5 14:0.75 15:0.4375 
0.1565969930080597 1:0.5 2:0.8125 3:0.4375 4:0.5625 5:0.0625 6:0.5 7:0.4375 8:0.8125 9:0.3125 10:0.3125 11:0.4375 12:0.125 13:0.5 14:0.3125 15:0.4375 
0.34989005639196 1:0.25 2:0.375 3:0.5 4:0.4375 5:0.375 6:0.4375 7:0.8125 8:0.9375 9:0.4375 10:0.5 11:0.75 12:0.3125 13:0.8125 14:0.5 15:0.25 
-0.5824947808616349 1:0.4375 2:0.4375 3:0.3125 4:0.25 5:0.0 6:0.625 7:0.5625 8:0.5625 9:0.3125 10:0.4375 11:0.375 12:0.5 13:0.4375 14:0.25 15:0.0 
-0.43247688953662644 1:0.75 2:0.875 3:0.875 4:0.875 5:0.9375 6:0.5625 7:0.5625 8:0.5625 9:0.5 10:0.5 11:0.375 12:0.375 13:0.625 14:0.5 15:0.875 
0.1991810761049487 1:0.5625 2:0.75 3:0.625 4:0.625 5:0.5 6:0.4375 7:0.6875 8:0.6875 9:0.4375 10:0.5625 11:0.6875 12:0.3125 13:0.9375 14:0.125 15:0.1875 
-0.4022590577671705 1:0.125 2:0.625 3:0.5 4:0.3125 5:0.125 6:1.0 7:0.5625 8:1.0 9:0.6875 10:0.125 11:0.5 12:0.0 13:0.5 14:0.5 15:0.25 
0.0719384330902498 1:0.4375 2:0.375 3:0.25 4:0.125 5:0.5 6:0.125 7:0.8125 8:0.0625 9:0.875 10:0.8125 11:0.4375 12:0.875 13:0.1875 14:0.5 15:1.0 
-0.1424081606448376 1:0.9375 2:0.5 3:0.1875 4:0.6875 5:0.5625 6:0.125 7:0.0625 8:0.375 9:0.0625 10:0.125 11:0.3125 12:0.375 13:0.625 14:0.6875 15:0.3125 
0.3028483987091396 1:0.5625 2:0.4375 3:0.0625 4:0.5 5:0.3125 6:0.5 7:0.375 8:1.0 9:0.25 10:0.375 11:0.75 12:0.4375 13:0.6875 14:0.5 15:0.125 
0.3956258724911687 1:0.6875 2:0.3125 3:0.625 4:0.625 5:0.5625 6:0.0625 7:0.3125 8:0.5 9:0.25 10:0.9375 11:0.75 12:0.8125 13:0.5 14:0.5 15:0.0 
0.7273363107678892 1:0.25 2:0.1875 3:0.1875 4:0.125 5:0.0 6:0.1875 7:0.6875 8:0.25 9:0.625 10:0.875 11:0.4375 12:0.5625 13:0.375 14:0.1875 15:0.625 
1.0 1:0.375 2:0.5 3:0.625 4:0.875 5:0.5 6:0.25 7:0.875 8:0.875 9:0.875 10:0.8125 11:0.6875 12:1.0 13:0.4375 14:0.5 15:0.5 
-0.20599072707869154 1:0.125 2:0.3125 3:0.5 4:0.5 5:0.5 6:0.5 7:0.5625 8:0.5625 9:0.4375 10:0.5 11:0.875 12:0.5 13:0.375 14:0.5 15:0.4375 
-1.0 1:0.5625 2:0.75 3:0.4375 4:0.5 5:0.875 6:0.625 7:0.25 8:0.6875 9:0.5 10:0.375 11:0.5 12:0.8125 13:0.75 14:0.6875 15:0.5 
-1.0 1:0.625 2:0.3125 3:0.25 4:0.1875 5:0.4375 6:0.3125 7:0.25 8:0.25 9:0.4375 10:0.4375 11:0.1875 12:0.75 13:0.75 14:0.8125 15:0.9375 
-0.24657804077469275 1:0.0 2:0.5 3:0.4375 4:0.25 5:0.0 6:0.625 7:0.875 8:0.1875 9:0.3125 10:0.3125 11:0.375 12:0.25 13:0.3125 14:0.1875 15:0.3125 
0.27974334166935677 1:0.5 2:0.4375 3:0.25 4:0.25 5:0.4375 6:0.5625 7:0.3125 8:0.5 9:0.5 10:0.0 11:0.375 12:0.4375 13:0.9375 14:0.5 15:0.625 
0.6823236026727127 1:0.375 2:0.5 3:0.8125 4:0.5 5:0.6875 6:0.625 7:0.875 8:1.0 9:0.9375 10:0.5 11:0.6875 12:0.5 13:0.5625 14:0.5 15:0.25 
0.21922710851449073 1:0.125 2:0.4375 3:0.375 4:0.125 5:0.0 6:0.5 7:0.5625 8:0.5 9:0.4375 10:0.9375 11:0.625 12:0.125 13:0.4375 14:0.0 15:0.0 
-0.31864451588587445 1:0.375 2:0.5 3:0.3125 4:0.0 5:0.1875 6:0.75 7:0.5625 8:0.5 9:0.4375 10:0.125 11:0.1875 12:0.125 13:0.4375 14:0.75 15:0.6875 
-0.21202830619356916 1:0.3125 2:0.8125 3:0.9375 4:0.5 5:0.4375 6:1.0 7:0.625 8:0.75 9:0.5625 10:0.8125 11:0.4375 12:0.125 13:0.25 14:0.0625 15:0.375 
0.5442124516843271 1:0.25 2:0.5 3:0.6875 4:0.5 5:0.4375 6:0.375 7:0.75 8:0.5625 9:0.5 10:1.0 11:0.6875 12:1.0 13:0.25 14:0.0625 15:0.5625 
0.2614542691744411 1:0.0 2:0.375 3:0.5 4:0.0625 5:0.0625 6:0.6875 7:0.6875 8:0.375 9:0.0625 10:0.5625 11:0.5625 12:0.1875 13:0.1875 14:0.0625 15:0.125 
0.8494698183466696 1:0.4375 2:0.125 3:0.25 4:0.9375 5:0.625 6:0.4375 7:0.5 8:0.6875 9:0.6875 10:0.3125 11:0.8125 12:0.75 13:0.9375 14:1.0 15:0.6875 
0.3819483872385243 1:0.25 2:0.4375 3:0.75 4:0.5625 5:0.375 6:0.8125 7:0.625 8:0.875 9:1.0 10:0.5 11:0.5 12:0.25 13:0.5 14:0.1875 15:0.1875 
-0.8843034517139247 1:0.625 2:0.1875 3:0.3125 4:0.25 5:0.375 6:0.0 7:0.0 8:0.3125 9:0.1875 10:0.9375 11:0.5 12:0.8125 13:0.1875 14:0.3125 15:0.8125 
-0.3329154990358667 1:0.1875 2:0.5 3:0.1875 4:0.5 5:0.5 6:0.9375 7:1.0 8:0.6875 9:0.6875 10:0.5 11:0.875 12:0.5 13:0.9375 14:0.625 15:0.5 
0.23051138403317653 1:0.5 2:1.0 3:0.3125 4:0.4375 5:0.5 6:0.5 7:0.375 8:0.0625 9:0.125 10:0.25 11:0.3125 12:0.4375 13:0.6875 14:0.5625 15:0.75 
-0.4408141811771417 1:0.0625 2:0.1875 3:0.25 4:0.125 5:0.0 6:0.125 7:0.375 8:0.375 9:0.25 10:0.625 11:0.5 12:0.125 13:0.5 14:0.125 15:0.375 
-0.0897375017345424 1:1.0 2:0.6875 3:0.6875 4:0.4375 5:1.0 6:0.375 7:0.0 8:0.1875 9:0.25 10:0.5625 11:0.25 12:0.875 13:0.0 14:0.625 15:0.625 
-0.1222945112046796 1:0.9375 2:0.0 3:0.0625 4:0.625 5:0.5625 6:0.125 7:0.0 8:0.25 9:0.125 10:0.25 11:0.8125 12:0.5 13:0.8125 14:0.75 15:0.3125 
0.2212278423139683 1:0.625 2:1.0 3:0.8125 4:1.0 5:0.9375 6:0.625 7:0.9375 8:0.75 9:0.875 10:0.75 11:0.625 12:0.75 13:0.75 14:0.4375 15:0.125 
-0.11917391317521764 1:0.5 2:0.0 3:0.125 4:0.0625 5:0.125 6:0.25 7:0.125 8:0.375 9:0.5625 10:0.75 11:0.75 12:1.0 13:0.5 14:0.5 15:0.5 
-1.0 1:0.25 2:0.625 3:0.875 4:0.9375 5:0.75 6:0.5625 7:0.8125 8:0.9375 9:0.9375 10:0.5 11:0.625 12:0.875 13:0.5625 14:0.4375 15:0.1875 
-0.5300605620427431 1:0.875 2:0.75 3:0.5625 4:0.8125 5:1.0 6:0.0 7:0.125 8:0.4375 9:0.3125 10:0.6875 11:0.875 12:0.9375 13:0.875 14:0.75 15:0.25 
-0.3938801474995763 1:1.0 2:0.375 3:0.75 4:0.875 5:1.0 6:0.125 7:0.5 8:0.0 9:0.375 10:0.625 11:0.5625 12:1.0 13:0.3125 14:0.375 15:0.5625 
-0.5167790456032925 1:0.5 2:0.6875 3:0.5625 4:0.8125 5:0.25 6:0.625 7:0.5625 8:0.75 9:0.25 10:0.25 11:0.3125 12:0.0 13:0.5625 14:0.0625 15:0.3125 
0.2414476311117143 1:0.25 2:0.5 3:0.1875 4:0.3125 5:0.875 6:1.0 7:0.5625 8:0.5 9:1.0 10:0.4375 11:0.0 12:0.75 13:0.125 14:0.8125 15:0.875 
-1.0 1:0.5 2:0.4375 3:0.5 4:0.625 5:0.5625 6:0.625 7:0.5 8:0.625 9:0.5625 10:0.6875 11:0.6875 12:0.8125 13:0.5625 14:0.25 15:0.4375 
0.05776399871322851 1:0.5 2:0.875 3:0.6875 4:0.25 5:0.4375 6:0.75 7:0.3125 8:0.125 9:0.25 10:0.0 11:0.1875 12:0.0 13:0.375 14:0.4375 15:0.3125 
0.3719590846970403 1:0.375 2:0.0625 3:0.5625 4:0.1875 5:0.0625 6:0.3125 7:0.5 8:0.0625 9:0.0625 10:0.75 11:0.8125 12:0.5625 13:0.1875 14:0.0 15:0.625 
0.8605385123448878 1:0.6875 2:0.1875 3:0.0625 4:0.0625 5:0.5 6:0.0625 7:0.25 8:0.0625 9:0.125 10:0.6875 11:0.625 12:0.9375 13:0.6875 14:0.875 15:0.8125 
-0.9566169730619819 1:0.5 2:0.1875 3:0.25 4:0.5625 5:0.0625 6:0.25 7:0.25 8:0.8125 9:0.1875 10:0.3125 11:0.75 12:0.5 13:0.6875 14:0.375 15:0.0625 
-0.5496708187766893 1:0.375 2:0.5625 3:0.9375 4:0.75 5:0.6875 6:0.4375 7:0.9375 8:0.8125 9:0.9375 10:0.875 11:0.75 12:0.4375 13:0.3125 14:0.25 15:0.3125 
0.784792454142296 1:0.4375 2:0.5 3:0.6875 4:0.4375 5:0.3125 6:0.5 7:1.0 8:0.5 9:0.5 10:1.0 11:0.8125 12:0.0 13:0.375 14:0.125 15:0.125 
0.1340484166995767 1:0.625 2:0.5625 3:0.625 4:0.5 5:0.6875 6:0.9375 7:0.5625 8:0.125 9:0.8125 10:0.3125 11:0.125 12:0.5625 13:0.1875 14:0.625 15:0.625 
0.9874536544170608 1:0.375 2:0.1875 3:0.1875 4:0.0 5:0.4375 6:0.5 7:0.25 8:0.625 9:0.75 10:0.4375 11:0.75 12:1.0 13:0.875 14:0.8125 15:0.5625 
0.3961693109043812 1:0.625 2:0.4375 3:0.4375 4:0.0625 5:0.25 6:0.375 7:0.0625 8:0.0 9:0.4375 10:0.1875 11:0.0 12:0.3125 13:0.5625 14:0.5 15:0.75 
-0.3394242668764108 1:0.3125 2:0.5625 3:0.375 4:0.625 5:0.5625 6:0.9375 7:0.5 8:0.5625 9:0.9375 10:0.125 11:0.0625 12:0.5 13:1.0 14:0.6875 15:0.6875 
0.08942936743186167 1:0.9375 2:0.875 3:0.5625 4:0.875 5:0.1875 6:0.4375 7:0.3125 8:0.5625 9:0.125 10:0.5625 11:0.5 12:0.1875 13:0.625 14:0.375 15:0.0625 
-0.1469172769107112 1:0.4375 2:0.5 3:0.1875 4:0.5 5:0.5 6:0.5625 7:0.1875 8:0.5 9:0.8125 10:0.0 11:0.6875 12:0.375 13:1.0 14:1.0 15:0.625 
0.3760628484559471 1:0.5 2:0.3125 3:0.5 4:0.4375 5:0.6875 6:0.5 7:0.6875 8:0.5625 9:0.5625 10:0.5625 11:0.75 12:0.6875 13:0.0 14:0.4375 15:0.6875 
0.16285179709185976 1:0.625 2:0.625 3:0.0625 4:0.1875 5:0.0625 6:0.4375 7:0.25 8:0.3125 9:0.125 10:0.125 11:0.375 12:0.375 13:0.75 14:0.8125 15:0.5 
0.0453560963679615 1:0.875 2:0.75 3:0.3125 4:0.625 5:0.0625 6:0.8125 7:0.4375 8:0.5 9:0.25 10:0.125 11:0.0625 12:0.125 13:0.5625 14:0.375 15:0.0625 
0.9286190728828633 1:0.4375 2:0.6875 3:0.625 4:0.375 5:0.4375 6:0.5 7:0.625 8:0.375 9:0.4375 10:0.625 11:0.3125 12:0.1875 13:0.125 14:0.375 15:0.875 
-0.37672303277421776 1:0.875 2:0.5625 3:0.9375 4:0.8125 5:0.4375 6:0.5625 7:0.5 8:0.5 9:0.125 10:0.9375 11:0.5 12:0.0625 13:0.375 14:0.1875 15:0.4375 
0.23308424362530913 1:0.625 2:0.375 3:0.6875 4:0.5625 5:0.4375 6:0.0 7:0.625 8:0.125 9:0.3125 10:1.0 11:0.6875 12:0.875 13:0.0 14:0.0 15:0.5625 
0.1387856905754296 1:0.6875 2:0.75 3:0.8125 4:0.75 5:0.75 6:0.5 7:0.625 8:0.375 9:0.3125 10:0.375 11:0.25 12:0.5 13:0.0 14:0.375 15:0.625 
-1.0 1:0.4375 2:0.5 3:0.125 4:0.6875 5:0.375 6:0.5 7:0.125 8:0.375 9:0.4375 10:0.3125 11:0.4375 12:0.4375 13:1.0 14:0.5 15:0.3125 
-0.2447295543274913 1:0.1875 2:0.0 3:0.125 4:0.0625 5:0.3125 6:0.6875 7:1.0 8:0.75 9:0.75 10:0.75 11:0.5625 12:0.5 13:0.4375 14:0.5 15:0.75 
0.6423508200577256 1:0.1875 2:0.375 3:0.5 4:0.1875 5:0.625 6:1.0 7:0.6875 8:0.9375 9:0.875 10:0.375 11:0.5 12:0.875 13:0.3125 14:0.875 15:0.9375 
-0.43220956123492504 1:0.375 2:0.1875 3:0.25 4:0.125 5:0.5 6:0.5625 7:0.5 8:0.6875 9:0.875 10:0.4375 11:0.9375 12:0.875 13:0.8125 14:0.8125 15:0.9375 
-0.1313232895257894 1:0.5 2:0.375 3:0.4375 4:0.625 5:0.3125 6:0.3125 7:0.5 8:0.6875 9:0.0625 10:0.9375 11:0.625 12:0.1875 13:0.875 14:0.3125 15:0.125 
0.31537087012525067 1:0.0 2:0.3125 3:0.0 4:0.0625 5:0.25 6:0.5 7:0.3125 8:0.4375 9:0.0 10:0.5 11:0.5 12:0.5 13:0.5 14:0.25 15:0.5 
0.6239928283466113 1:0.375 2:0.25 3:0.5 4:0.0 5:0.25 6:0.5 7:0.5 8:0.5 9:0.4375 10:0.8125 11:0.25 12:0.5625 13:0.3125 14:0.5625 15:1.0 
-0.6904341499472875 1:0.5625 2:0.6875 3:0.8125 4:0.6875 5:0.9375 6:0.75 7:0.5625 8:0.3125 9:0.6875 10:0.9375 11:0.4375 12:1.0 13:0.25 14:0.5 15:0.9375 
0.32519309796023316 1:0.9375 2:1.0 3:0.4375 4:0.625 5:0.8125 6:0.0 7:0.0 8:0.5 9:0.125 10:0.0625 11:0.5 12:0.1875 13:1.0 14:0.5 15:0.25 
-0.17882127715196863 1:0.3125 2:0.25 3:0.0625 4:0.5 5:0.5 6:0.125 7:0.3125 8:0.3125 9:0.8125 10:0.8125 11:0.5625 12:0.8125 13:0.5 14:1.0 15:0.875 
0.24088720627802968 1:0.0 2:0.4375 3:0.0 4:0.5 5:0.25 6:0.6875 7:1.0 8:0.9375 9:0.375 10:0.5 11:0.5625 12:0.0625 13:0.5625 14:0.125 15:0.4375 
-1.0 1:0.1875 2:0.0625 3:0.25 4:0.1875 5:0.5 6:0.5625 7:0.5 8:0.6875 9:0.5 10:0.5 11:0.4375 12:1.0 13:0.5 14:0.6875 15:0.5 
0.010486955088335822 1:0.1875 2:0.0 3:0.25 4:0.0 5:0.4375 6:0.5 7:0.5625 8:0.75 9:0.625 10:0.6875 11:0.625 12:0.9375 13:0.5625 14:0.625 15:0.875 
0.933370114191739 1:0.375 2:0.25 3:0.0 4:0.3125 5:0.5 6:0.125 7:0.3125 8:0.0 9:0.8125 10:0.5625 11:0.1875 12:0.8125 13:0.4375 14:0.5625 15:0.8125 
0.07091266400792272 1:0.5 2:0.125 3:0.5 4:0.9375 5:0.375 6:0.1875 7:0.1875 8:0.5625 9:0.0 10:0.8125 11:0.9375 12:0.625 13:0.5625 14:0.5625 15:0.1875 
-0.03219953533692516 1:0.5 2:0.9375 3:0.0 4:0.5625 5:0.1875 6:0.75 7:0.5 8:1.0 9:0.5 10:0.25 11:0.4375 12:0.25 13:1.0 14:0.5 15:0.4375 
0.49353367227487216 1:1.0 2:0.5625 3:0.6875 4:0.8125 5:0.75 6:0.5 7:0.6875 8:0.625 9:0.8125 10:1.0 11:0.5 12:1.0 13:0.25 14:0.5625 15:0.5625 
-1.0 1:0.3125 2:0.3125 3:0.5625 4:0.5 5:0.5 6:0.875 7:0.9375 8:0.5625 9:0.75 10:0.5625 11:0.5625 12:0.25 13:0.5 14:0.25 15:0.375 
0.9392932543856997 1:0.75 2:0.8125 3:0.5 4:0.5 5:0.875 6:0.375 7:0.375 8:0.125 9:0.5625 10:0.5 11:0.5 12:0.6875 13:0.9375 14:0.875 15:0.875 
1.0 1:0.0 2:0.0 3:0.3125 4:0.125 5:0.4375 6:0.5 7:0.6875 8:0.3125 9:0.6875 10:0.75 11:0.6875 12:0.6875 13:0.3125 14:0.8125 15:0.6875 
0.565783743972375 1:0.8125 2:0.5 3:0.5 4:0.8125 5:0.5625 6:0.0 7:0.125 8:0.5625 9:0.3125 10:0.5 11:1.0 12:0.875 13:0.625 14:0.4375 15:0.3125 
-0.207109273256189 1:0.9375 2:0.875 3:0.875 4:1.0 5:0.625 6:0.75 7:0.4375 8:0.4375 9:0.5 10:0.25 11:0.5 12:0.5 13:0.625 14:1.0 15:0.5 
0.15829165191647995 1:0.1875 2:0.375 3:0.1875 4:0.0625 5:0.125 6:0.9375 7:0.8125 8:0.3125 9:0.1875 10:0.25 11:0.1875 12:0.0 13:0.125 14:0.0625 15:0.5625 
-0.2949337472234342 1:0.8125 2:0.5 3:0.875 4:0.5 5:0.1875 6:0.4375 7:0.125 8:0.4375 9:0.125 10:0.5 11:0.4375 12:0.0625 13:0.5 14:0.125 15:0.0 
0.163821335922523 1:0.8125 2:0.0 3:0.3125 4:0.3125 5:0.5625 6:0.0 7:0.0625 8:0.375 9:0.3125 10:0.375 11:0.5625 12:0.875 13:0.625 14:0.8125 15:0.625 
0.23377057712252042 1:0.9375 2:0.8125 3:0.9375 4:0.625 5:0.4375 6:0.6875 7:0.5625 8:0.0625 9:0.3125 10:0.25 11:0.25 12:0.125 13:0.4375 14:0.375 15:0.5 
0.7440189954154018 1:0.0625 2:0.4375 3:0.3125 4:0.4375 5:0.3125 6:0.4375 7:0.5 8:0.625 9:0.6875 10:0.5 11:0.5 12:0.5625 13:0.625 14:1.0 15:0.75 
-0.18973641367704955 1:0.3125 2:0.375 3:0.3125 4:0.5625 5:1.0 6:0.5 7:0.6875 8:0.8125 9:0.625 10:0.625 11:0.875 12:0.875 13:0.5 14:0.9375 15:0.5 
-0.4764876845398367 1:0.9375 2:0.625 3:0.5 4:0.625 5:0.875 6:0.5625 7:0.1875 8:0.75 9:0.8125 10:0.5 11:0.5625 12:1.0 13:0.875 14:1.0 15:0.625 
0.03369643166617457 1:0.875 2:0.625 3:0.625 4:0.5 5:0.6875 6:0.5 7:0.4375 8:0.0625 9:0.375 10:0.375 11:0.3125 12:0.0625 13:0.1875 14:0.5625 15:1.0 
0.16874809932894322 1:1.0 2:0.6875 3:0.25 4:0.5 5:0.5 6:0.8125 7:0.0 8:0.0625 9:0.3125 10:0.1875 11:0.1875 12:0.1875 13:0.5 14:0.5625 15:0.3125 
0.8065245011461141 1:0.9375 2:0.75 3:0.625 4:0.625 5:0.5 6:0.5 7:0.25 8:0.5625 9:0.1875 10:0.0625 11:0.1875 12:0.4375 13:0.75 14:0.5 15:0.0625 
-0.5532361200105903 1:0.8125 2:0.75 3:0.8125 4:0.5625 5:0.5 6:1.0 7:0.875 8:0.6875 9:0.5625 10:0.25 11:0.0625 12:0.3125 13:0.5 14:0.25 15:0.5 
0.12124747977931298 1:0.625 2:0.375 3:0.375 4:0.25 5:0.75 6:0.25 7:0.1875 8:0.1875 9:0.5 10:0.3125 11:0.1875 12:0.6875 13:0.1875 14:0.8125 15:1.0 
-0.16343647463709574 1:0.5 2:0.25 3:0.4375 4:1.0 5:0.625 6:0.25 7:0.1875 8:0.4375 9:0.5 10:0.5625 11:0.625 12:0.6875 13:0.625 14:1.0 15:0.375 
-0.04041831128914117 1:0.25 2:0.4375 3:0.875 4:0.6875 5:0.75 6:0.625 7:1.0 8:0.5625 9:0.75 10:0.9375 11:0.5625 12:0.875 13:0.125 14:0.125 15:0.625 
0.09709339756516491 1:0.875 2:0.6875 3:1.0 4:0.5625 5:0.5625 6:0.25 7:0.375 8:0.4375 9:0.375 10:0.5 11:0.5 12:0.375 13:0.0625 14:0.0625 15:0.1875 
-0.6419796507108722 1:0.9375 2:0.875 3:0.375 4:0.5625 5:0.5 6:0.5625 7:0.1875 8:0.0625 9:0.5 10:0.0 11:0.375 12:0.1875 13:0.4375 14:0.625 15:0.625 
1.0 1:0.625 2:0.6875 3:0.5 4:0.625 5:0.875 6:0.3125 7:0.4375 8:0.4375 9:0.5 10:0.3125 11:0.5 12:1.0 13:0.6875 14:0.875 15:1.0 
-0.38159379633580587 1:0.75 2:1.0 3:0.9375 4:1.0 5:0.625 6:0.4375 7:0.1875 8:0.5625 9:0.3125 10:0.5 11:0.5 12:0.0625 13:0.8125 14:0.5 15:0.375 
1.0 1:0.5 2:0.8125 3:0.5 4:0.8125 5:0.8125 6:0.625 7:0.625 8:0.75 9:0.5 10:0.5 11:0.5625 12:0.125 13:0.625 14:0.5625 15:0.1875 
-0.13328421204698981 1:0.6875 2:0.4375 3:0.4375 4:0.4375 5:0.5 6:0.375 7:0.3125 8:0.3125 9:0.375 10:0.3125 11:0.4375 12:0.0625 13:0.6875 14:0.3125 15:0.3125 
-0.1907152404108941 1:0.875 2:0.5 3:0.875 4:0.3125 5:0.9375 6:0.625 7:0.5 8:0.25 9:0.4375 10:0.5625 11:0.3125 12:0.4375 13:0.125 14:0.4375 15:0.875 
-0.004515524912099557 1:0.5 2:0.5 3:1.0 4:0.25 5:0.4375 6:0.6875 7:0.5 8:0.5 9:0.4375 10:0.6875 11:0.4375 12:0.3125 13:0.375 14:0.375 15:0.5 
-0.9512786189340183 1:0.5 2:0.3125 3:0.5625 4:0.4375 5:1.0 6:0.375 7:0.1875 8:0.0 9:0.5625 10:0.5 11:0.3125 12:0.75 13:0.3125 14:0.5 15:1.0 
0.6995332310412432 1:0.75 2:0.8125 3:1.0 4:0.5625 5:0.5625 6:0.5 7:0.625 8:0.5 9:0.375 10:0.625 11:0.625 12:0.0 13:0.375 14:0.0625 15:0.5 
-1.0 1:1.0 2:0.5 3:0.5 4:0.375 5:0.8125 6:0.0625 7:0.1875 8:0.0625 9:0.6875 10:0.25 11:0.625 12:0.75 13:0.5 14:0.8125 15:0.8125 
0.016105357447814113 1:0.5625 2:0.25 3:0.8125 4:0.9375 5:0.5 6:0.0625 7:0.875 8:0.5 9:0.0625 10:0.75 11:1.0 12:0.6875 13:0.5625 14:0.125 15:0.25 
-0.30236947742488984 1:0.125 2:0.0625 3:0.25 4:0.3125 5:0.5625 6:0.4375 7:0.0625 8:0.25 9:0.8125 10:0.5 11:0.625 12:0.75 13:1.0 14:0.9375 15:0.8125 
0.9052986420676006 1:0.5625 2:0.625 3:0.625 4:0.625 5:0.5 6:1.0 7:0.75 8:0.8125 9:0.625 10:0.0625 11:0.375 12:0.0625 13:0.5 14:0.4375 15:0.625 
-0.04327341848420246 1:0.9375 2:0.875 3:0.5625 4:0.4375 5:0.5625 6:0.5 7:0.3125 8:0.3125 9:0.0 10:0.125 11:0.0 12:0.25 13:0.375 14:0.9375 15:0.8125 
-1.0 1:0.0625 2:0.0 3:0.1875 4:0.375 5:0.25 6:0.5625 7:0.0 8:0.25 9:0.4375 10:0.0625 11:0.5 12:0.5 13:0.5625 14:0.625 15:0.4375 
0.1553707528342241 1:0.25 2:0.625 3:0.5625 4:0.5 5:0.9375 6:0.9375 7:0.625 8:0.875 9:0.75 10:0.25 11:0.5 12:0.8125 13:0.5 14:0.75 15:0.75 
0.31145554483588206 1:0.3125 2:0.0625 3:0.5625 4:0.5 5:0.875 6:0.6875 7:0.6875 8:0.5 9:0.6875 10:0.875 11:0.5 12:0.9375 13:0.4375 14:0.5 15:0.875 
0.18565601236148663 1:0.5 2:0.3125 3:0.0 4:0.875 5:0.25 6:0.125 7:0.375 8:0.9375 9:0.0625 10:0.375 11:0.6875 12:0.0 13:1.0 14:0.4375 15:0.0625 
-0.6493384283660677 1:0.4375 2:0.375 3:0.4375 4:0.375 5:0.375 6:0.5 7:0.6875 8:0.8125 9:0.875 10:0.875 11:0.4375 12:0.5 13:0.5 14:0.4375 15:0.5 
-0.27410554607265225 1:0.625 2:0.625 3:0.9375 4:0.6875 5:0.9375 6:0.625 7:0.625 8:0.875 9:0.625 10:0.375 11:0.5 12:0.1875 13:0.5 14:0.5 15:0.0 
0.4595371208148748 1:0.6875 2:0.625 3:1.0 4:0.75 5:0.875 6:0.5 7:0.4375 8:0.3125 9:0.5 10:0.25 11:0.125 12:0.4375 13:0.5625 14:0.6875 15:0.5 
1.0 1:0.9375 2:0.75 3:0.5625 4:0.5625 5:0.875 6:0.4375 7:0.3125 8:0.0625 9:0.0625 10:0.5 11:0.4375 12:0.6875 13:0.5 14:0.6875 15:0.5 
-0.39238085762784647 1:0.125 2:0.125 3:0.5 4:0.3125 5:0.75 6:0.5 7:0.8125 8:0.5 9:0.875 10:1.0 11:0.75 12:0.75 13:0.1875 14:0.75 15:0.875 
0.1802489745590603 1:0.125 2:0.875 3:0.1875 4:0.375 5:0.5625 6:1.0 7:0.9375 8:0.625 9:0.5625 10:0.0 11:0.0 12:0.375 13:0.5 14:0.5 15:0.5 
-0.6245755627878297 1:0.9375 2:0.6875 3:0.5 4:0.75 5:0.5625 6:0.625 7:0.0 8:0.25 9:0.125 10:0.1875 11:0.3125 12:0.375 13:0.8125 14:0.875 15:0.4375 
-0.121522694164229 1:0.375 2:0.3125 3:1.0 4:0.1875 5:0.5 6:0.1875 7:1.0 8:0.125 9:0.5 10:0.75 11:0.125 12:0.6875 13:0.0 14:0.1875 15:0.9375 
0.07798360983133895 1:0.6875 2:0.75 3:0.5625 4:1.0 5:0.6875 6:0.0 7:0.5 8:0.5625 9:0.375 10:0.625 11:1.0 12:0.6875 13:0.5 14:0.3125 15:0.5 
0.5687296433922326 1:0.75 2:0.3125 3:0.6875 4:0.25 5:0.6875 6:0.0 7:0.0 8:0.0 9:0.5 10:0.875 11:0.75 12:0.6875 13:0.5 14:0.625 15:0.875 
-0.14730852905689515 1:0.0 2:0.0625 3:0.4375 4:0.375 5:0.25 6:0.6875 7:0.6875 8:0.5625 9:0.8125 10:0.625 11:0.75 12:0.4375 13:0.5625 14:0.6875 15:0.5 
0.4175860593968632 1:0.5625 2:0.5 3:0.25 4:0.625 5:0.4375 6:0.3125 7:0.125 8:0.625 9:0.0 10:0.125 11:0.75 12:0.5625 13:1.0 14:0.6875 15:0.4375 
-1.0 1:0.4375 2:0.6875 3:0.5 4:0.125 5:0.3125 6:0.8125 7:1.0 8:0.375 9:0.5 10:0.4375 11:0.3125 12:0.0 13:0.125 14:0.375 15:0.9375 
-0.14678639487259762 1:0.0 2:0.25 3:0.5625 4:0.375 5:0.5625 6:0.9375 7:0.875 8:1.0 9:0.9375 10:0.5625 11:0.625 12:0.625 13:0.25 14:0.6875 15:0.9375 
-0.40585713165569715 1:0.8125 2:0.625 3:0.75 4:1.0 5:0.75 6:0.25 7:0.4375 8:0.4375 9:0.5 10:0.9375 11:0.4375 12:0.9375 13:0.0625 14:0.5 15:0.625 
-0.4144248729524238 1:0.75 2:0.0625 3:0.5 4:1.0 5:0.625 6:0.25 7:0.125 8:0.5625 9:0.375 10:0.5 11:0.875 12:0.5 13:0.6875 14:0.75 15:0.1875 
1.0 1:0.4375 2:0.9375 3:0.9375 4:0.9375 5:0.5625 6:0.5625 7:0.5 8:0.6875 9:0.4375 10:0.5 11:0.5 12:0.5625 13:0.625 14:0.4375 15:0.1875 
-0.615206170317554 1:0.9375 2:0.9375 3:0.75 4:0.625 5:0.5 6:0.5 7:0.5 8:0.375 9:0.4375 10:0.5 11:0.375 12:0.5 13:0.5625 14:0.4375 15:0.0 
-0.43357185073187127 1:0.5625 2:0.6875 3:0.625 4:0.625 5:0.9375 6:0.5 7:0.4375 8:0.5 9:0.5 10:0.125 11:0.5 12:0.9375 13:0.6875 14:0.6875 15:0.875 
0.07789699412508265 1:0.4375 2:0.25 3:0.1875 4:0.625 5:0.3125 6:0.0625 7:0.625 8:0.625 9:0.375 10:0.5625 11:0.75 12:0.5625 13:0.8125 14:0.3125 15:0.4375 
-0.09416975520653714 1:0.5 2:0.5 3:0.5 4:0.3125 5:0.0 6:0.1875 7:0.0625 8:0.1875 9:0.4375 10:0.5 11:0.25 12:0.5 13:0.125 14:0.25 15:0.625 
0.49212386230124205 1:0.75 2:0.375 3:0.375 4:0.625 5:0.75 6:0.0625 7:0.0 8:0.6875 9:0.5625 10:0.8125 11:0.875 12:0.875 13:0.9375 14:0.75 15:0.25 
-0.051803657713445396 1:0.3125 2:0.3125 3:0.3125 4:0.25 5:0.125 6:0.875 7:0.75 8:0.25 9:0.5 10:0.125 11:0.0625 12:0.0625 13:0.3125 14:0.375 15:0.5 
-0.7636632511811744 1:0.0625 2:0.125 3:0.4375 4:0.5 5:0.5 6:0.625 7:0.5 8:0.5 9:0.5625 10:0.375 11:0.75 12:1.0 13:0.75 14:0.9375 15:0.625 
-0.15388638867761478 1:0.5 2:0.9375 3:0.6875 4:0.5 5:0.4375 6:0.5 7:0.375 8:0.1875 9:0.4375 10:0.375 11:0.3125 12:0.0625 13:0.5 14:0.375 15:0.625 
0.24692419894760323 1:0.0625 2:0.5 3:0.5 4:0.3125 5:0.1875 6:0.9375 7:0.625 8:0.375 9:0.6875 10:0.125 11:0.1875 12:0.0625 13:0.0 14:0.0 15:0.6875 
-0.08676298752301241 1:0.1875 2:0.1875 3:0.4375 4:0.3125 5:0.125 6:0.25 7:0.5 8:0.4375 9:0.3125 10:0.625 11:0.8125 12:0.75 13:0.75 14:0.375 15:0.3125 
0.051165713275731425 1:0.5 2:0.3125 3:0.1875 4:0.25 5:0.3125 6:0.5 7:0.375 8:0.5 9:0.375 10:0.125 11:0.4375 12:0.3125 13:0.6875 14:0.1875 15:0.0 
0.7727517156495268 1:0.0625 2:0.25 3:0.1875 4:0.0 5:0.4375 6:0.375 7:0.25 8:0.25 9:0.5 10:0.5 11:0.125 12:1.0 13:0.375 14:0.625 15:0.8125 
-0.011457861463990342 1:0.625 2:1.0 3:0.9375 4:0.4375 5:0.5 6:0.5625 7:0.5 8:0.3125 9:0.0625 10:0.5625 11:0.1875 12:0.0 13:0.125 14:0.125 15:0.0625 
-0.30539464740750044 1:0.5 2:0.8125 3:0.5 4:0.6875 5:0.8125 6:0.4375 7:0.375 8:0.1875 9:0.5 10:0.0 11:0.125 12:0.4375 13:0.5 14:0.75 15:0.875 
0.12177597079716805 1:0.25 2:0.125 3:0.4375 4:0.25 5:0.125 6:0.25 7:0.8125 8:0.75 9:0.625 10:0.8125 11:0.625 12:0.75 13:0.125 14:0.1875 15:0.25 
0.2154463193203531 1:0.1875 2:0.75 3:0.25 4:0.5 5:0.5625 6:0.9375 7:0.625 8:1.0 9:1.0 10:0.4375 11:0.375 12:0.875 13:0.5 14:0.875 15:0.875 
-1.0 1:0.5 2:0.375 3:0.0 4:0.1875 5:0.5625 6:0.6875 7:0.3125 8:0.0625 9:0.75 10:0.4375 11:0.125 12:0.9375 13:0.1875 14:0.875 15:0.875 
0.018845163597917682 1:0.5625 2:0.375 3:0.0 4:0.0 5:0.4375 6:0.4375 7:0.0625 8:0.4375 9:0.3125 10:0.0625 11:0.375 12:0.5625 13:0.5625 14:0.875 15:1.0 
0.34275069479175957 1:0.125 2:0.0625 3:0.375 4:0.0 5:0.25 6:0.625 7:0.6875 8:0.6875 9:0.6875 10:0.25 11:0.5 12:0.625 13:0.5 14:0.5 15:0.875 
-0.1476050631374701 1:0.625 2:0.875 3:0.9375 4:0.6875 5:0.5 6:0.125 7:0.5 8:0.1875 9:0.0 10:0.625 11:0.375 12:0.0625 13:0.3125 14:0.3125 15:0.25 
0.40457190849428054 1:0.5625 2:0.3125 3:0.375 4:0.125 5:0.5625 6:0.4375 7:0.3125 8:0.0625 9:0.4375 10:0.8125 11:0.0 12:0.9375 13:0.3125 14:0.5625 15:0.9375 
-0.33128427569472646 1:0.9375 2:0.625 3:0.875 4:0.875 5:0.9375 6:0.3125 7:0.4375 8:0.0 9:0.3125 10:0.5 11:0.375 12:0.8125 13:0.375 14:0.9375 15:0.6875 
-0.4875221727133183 1:0.3125 2:0.5625 3:0.875 4:0.5625 5:0.375 6:0.5 7:0.5 8:0.9375 9:0.3125 10:0.625 11:0.5625 12:0.5 13:0.5 14:0.25 15:0.1875 
-0.39878734021874584 1:0.625 2:0.4375 3:0.3125 4:0.375 5:0.4375 6:0.1875 7:0.1875 8:0.1875 9:0.0625 10:0.1875 11:0.5 12:0.3125 13:0.8125 14:0.875 15:0.3125 
-0.447023518682798 1:0.4375 2:0.5 3:0.0 4:0.4375 5:0.125 6:0.75 7:0.375 8:0.0 9:0.25 10:0.375 11:0.0 12:0.0 13:0.5 14:0.5625 15:0.5 
-1.0 1:0.375 2:0.0625 3:0.1875 4:0.25 5:0.125 6:0.375 7:0.5 8:0.5625 9:0.375 10:0.6875 11:0.875 12:0.3125 13:0.375 14:0.5 15:0.25 
-0.5783525863135828 1:0.0625 2:0.4375 3:0.5 4:0.5625 5:0.375 6:0.5 7:0.75 8:0.5625 9:0.0625 10:0.5 11:0.875 12:0.375 13:0.625 14:0.4375 15:0.0 
0.3688070837928007 1:0.6875 2:0.4375 3:0.375 4:0.4375 5:0.5 6:0.4375 7:0.4375 8:0.0625 9:0.375 10:0.4375 11:0.5 12:0.5625 13:0.6875 14:0.5 15:0.3125 
-0.08571622554484117 1:0.125 2:0.625 3:0.625 4:0.75 5:0.875 6:0.6875 7:0.875 8:0.9375 9:0.75 10:1.0 11:0.75 12:0.8125 13:0.375 14:0.4375 15:0.375 
-1.0 1:0.5625 2:0.6875 3:0.6875 4:0.625 5:1.0 6:0.4375 7:0.6875 8:0.875 9:0.75 10:0.5 11:0.5 12:0.625 13:1.0 14:0.6875 15:0.5 
0.6102537025326649 1:0.5625 2:0.5625 3:0.8125 4:0.75 5:0.875 6:0.5 7:0.875 8:0.6875 9:0.5625 10:0.625 11:0.5625 12:1.0 13:0.6875 14:0.4375 15:0.5625 
-0.34412300824205855 1:0.5625 2:0.4375 3:0.5 4:0.5625 5:0.4375 6:0.6875 7:0.6875 8:0.875 9:0.5 10:0.75 11:0.875 12:0.5 13:0.5 14:0.4375 15:0.1875 
0.1589683929972517 1:0.125 2:0.3125 3:0.5 4:0.25 5:0.3125 6:0.875 7:1.0 8:0.875 9:0.625 10:0.6875 11:0.125 12:0.3125 13:0.0 14:0.25 15:0.6875 
-0.6206874363709528 1:0.3125 2:0.4375 3:0.8125 4:0.5 5:0.625 6:0.5625 7:0.8125 8:0.75 9:0.6875 10:0.5 11:0.4375 12:0.625 13:0.0 14:0.625 15:1.0 
0.8105375402870855 1:0.75 2:0.25 3:0.875 4:0.375 5:0.875 6:0.25 7:0.375 8:0.3125 9:0.4375 10:0.625 11:0.375 12:1.0 13:0.0625 14:0.5 15:0.8125 
-0.2917742215170249 1:0.8125 2:0.625 3:0.375 4:0.8125 5:0.3125 6:0.5625 7:0.0625 8:0.1875 9:0.25 10:0.0 11:0.5 12:0.3125 13:1.0 14:0.875 15:0.125 
0.6874850330690058 1:0.75 2:0.4375 3:0.75 4:0.9375 5:0.6875 6:0.25 7:0.4375 8:0.0625 9:0.25 10:0.625 11:0.75 12:0.625 13:0.375 14:0.0625 15:0.1875 
0.9228250105074012 1:0.5625 2:0.8125 3:0.6875 4:0.75 5:0.75 6:0.625 7:0.25 8:0.5 9:0.625 10:0.4375 11:0.5 12:0.6875 13:0.5625 14:0.625 15:0.5625 
0.9755398528531161 1:0.25 2:0.0 3:0.1875 4:0.1875 5:0.375 6:0.4375 7:0.1875 8:0.5 9:0.375 10:0.3125 11:0.625 12:0.375 13:0.5 14:0.625 15:0.1875 
0.22387624879193202 1:0.375 2:0.5 3:0.625 4:0.5625 5:0.9375 6:0.5625 7:0.9375 8:0.6875 9:0.75 10:0.6875 11:1.0 12:0.9375 13:0.5 14:0.5 15:0.9375 
0.20153034530015299 1:0.5 2:0.1875 3:0.5 4:1.0 5:0.625 6:0.3125 7:0.4375 8:0.75 9:0.5 10:0.6875 11:0.875 12:0.5 13:0.5625 14:0.1875 15:0.25 
-0.04693882836041561 1:0.125 2:0.3125 3:0.0 4:0.625 5:0.5625 6:0.875 7:0.5 8:0.9375 9:0.9375 10:0.375 11:0.5 12:1.0 13:0.8125 14:0.8125 15:0.4375 
1.0 1:0.1875 2:0.4375 3:0.5 4:0.5 5:0.375 6:0.5625 7:0.5 8:0.6875 9:0.6875 10:0.5625 11:0.5625 12:0.75 13:1.0 14:0.5 15:0.1875 
-0.15950625728937803 1:0.875 2:0.0 3:0.4375 4:0.5 5:0.1875 6:0.25 7:0.1875 8:0.1875 9:0.0625 10:0.5 11:0.5 12:0.25 13:0.75 14:0.3125 15:0.125 
-0.9058663433487384 1:0.9375 2:0.625 3:0.875 4:1.0 5:0.5625 6:0.3125 7:0.4375 8:0.5 9:0.6875 10:0.875 11:0.875 12:1.0 13:0.5625 14:0.5 15:0.625 
-0.002932379682029131 1:0.375 2:0.3125 3:0.625 4:0.6875 5:0.9375 6:0.9375 7:0.625 8:0.8125 9:1.0 10:0.5 11:1.0 12:0.9375 13:0.5 14:0.625 15:0.75 
0.002512126529441332 1:0.8125 2:0.8125 3:0.5625 4:0.875 5:0.625 6:0.75 7:0.4375 8:0.5625 9:0.0625 10:0.3125 11:0.625 12:0.4375 13:0.5 14:0.4375 15:0.0 
0.39732076491841634 1:0.3125 2:0.625 3:0.5625 4:1.0 5:0.875 6:0.6875 7:0.8125 8:1.0 9:0.9375 10:0.875 11:0.8125 12:0.6875 13:0.75 14:0.5625 15:0.375 
0.04040299977718267 1:0.5 2:0.5 3:0.4375 4:0.5 5:0.75 6:0.8125 7:0.5 8:0.75 9:0.5625 10:0.4375 11:0.5 12:0.5 13:0.75 14:0.5 15:0.375 
-0.010032315539036593 1:0.375 2:0.25 3:0.5625 4:0.4375 5:0.5 6:0.625 7:0.9375 8:1.0 9:1.0 10:1.0 11:0.625 12:0.875 13:0.5 14:0.25 15:0.125 
-0.23780957892826504 1:0.3125 2:0.3125 3:0.3125 4:0.4375 5:0.375 6:0.5 7:0.1875 8:0.25 9:0.375 10:0.0625 11:0.5 12:0.3125 13:0.6875 14:0.9375 15:0.625 
0.5135398795481353 1:0.375 2:0.4375 3:0.375 4:0.0625 5:0.3125 6:0.9375 7:0.8125 8:0.5 9:0.75 10:0.0 11:0.0625 12:0.0625 13:0.5625 14:0.5625 15:0.6875 
1.0 1:0.4375 2:0.1875 3:0.4375 4:0.5 5:1.0 6:0.375 7:0.125 8:0.5 9:0.5 10:0.375 11:0.75 12:0.8125 13:0.75 14:0.8125 15:0.5 
0.3619373004364251 1:0.3125 2:0.25 3:0.5 4:0.1875 5:0.25 6:0.25 7:0.4375 8:0.5 9:0.5 10:0.625 11:0.5625 12:0.3125 13:0.25 14:0.0625 15:0.5 
-0.5073824120084832 1:0.25 2:0.1875 3:0.25 4:0.25 5:0.3125 6:0.5625 7:0.625 8:0.625 9:0.625 10:0.5 11:0.0625 12:0.8125 13:0.1875 14:0.5 15:0.8125 
-0.02346692436767843 1:0.5625 2:1.0 3:0.4375 4:0.6875 5:0.875 6:0.6875 7:0.125 8:0.4375 9:0.75 10:0.1875 11:0.5 12:0.25 13:0.625 14:0.9375 15:0.75 
0.07281994806753829 1:0.5 2:1.0 3:0.75 4:1.0 5:0.75 6:0.9375 7:0.875 8:0.75 9:0.75 10:0.5 11:0.4375 12:0.6875 13:0.1875 14:0.375 15:0.75 
-0.26551492249695763 1:0.75 2:0.5 3:0.5 4:0.5 5:0.25 6:0.125 7:0.5 8:0.0625 9:0.1875 10:0.625 11:0.5 12:0.4375 13:0.0625 14:0.0625 15:0.75 
-0.6938061901750942 1:0.0 2:0.3125 3:0.5 4:0.0625 5:0.1875 6:0.625 7:0.625 8:0.375 9:0.3125 10:0.9375 11:0.3125 12:0.0 13:0.0625 14:0.125 15:0.4375 
0.25921845943027966 1:0.625 2:0.75 3:0.5625 4:0.5625 5:0.4375 6:0.4375 7:0.5625 8:0.5625 9:0.25 10:0.5 11:0.5 12:0.3125 13:0.3125 14:0.4375 15:0.5 
0.44838262574846105 1:0.375 2:0.1875 3:0.5625 4:0.5 5:0.0625 6:0.5 7:0.625 8:1.0 9:0.4375 10:0.9375 11:0.9375 12:0.625 13:0.5625 14:0.5 15:0.125 
-0.9128463234298908 1:0.5 2:0.5625 3:0.25 4:0.5 5:0.25 6:0.5 7:0.4375 8:0.9375 9:0.25 10:0.1875 11:0.6875 12:0.0 13:0.6875 14:0.5 15:0.0625 
0.17424847284613434 1:0.4375 2:0.375 3:0.3125 4:0.125 5:0.25 6:0.0625 7:0.0 8:0.4375 9:0.25 10:0.6875 11:0.5 12:0.5 13:0.5 14:0.5 15:0.625 
0.07266714517036917 1:0.75 2:0.75 3:0.6875 4:0.5625 5:1.0 6:0.1875 7:0.1875 8:0.0625 9:0.25 10:0.0625 11:0.125 12:0.5625 13:0.5 14:0.5 15:0.8125 
0.09302419995392408 1:0.375 2:0.3125 3:0.5 4:0.5 5:0.25 6:0.8125 7:0.9375 8:0.625 9:0.5 10:0.4375 11:0.25 12:0.3125 13:0.0 14:0.375 15:0.5 
1.0 1:0.375 2:0.25 3:0.25 4:0.375 5:0.4375 6:0.5 7:0.4375 8:0.1875 9:0.5 10:0.375 11:0.5 12:1.0 13:0.5 14:0.5625 15:0.75 
1.0 1:0.5625 2:0.5 3:0.625 4:0.625 5:0.3125 6:0.5625 7:0.1875 8:0.6875 9:0.0 10:0.5 11:0.6875 12:0.0 13:0.75 14:0.375 15:0.1875 
0.2730720252718394 1:0.9375 2:0.625 3:1.0 4:0.625 5:0.5 6:0.1875 7:0.125 8:0.0625 9:0.0625 10:0.5 11:0.0 12:0.5 13:0.0 14:0.5 15:0.5 
0.29063253804408523 1:0.5625 2:0.375 3:0.5 4:0.8125 5:0.375 6:0.125 7:0.3125 8:0.5625 9:0.0 10:0.75 11:0.6875 12:0.3125 13:0.4375 14:0.0625 15:0.25 
0.45276539348571176 1:0.25 2:0.5 3:0.5 4:0.875 5:0.4375 6:0.9375 7:1.0 8:0.9375 9:0.5 10:0.625 11:1.0 12:0.5 13:0.5 14:0.4375 15:0.125 
0.3563713094173312 1:1.0 2:0.9375 3:1.0 4:1.0 5:0.8125 6:0.625 7:0.875 8:0.75 9:1.0 10:0.875 11:0.5625 12:0.8125 13:0.375 14:0.625 15:0.6875 
-0.010353385992851417 1:0.4375 2:0.125 3:0.0 4:0.5 5:0.375 6:0.0 7:0.25 8:0.4375 9:0.6875 10:0.3125 11:0.625 12:0.75 13:0.5625 14:0.75 15:0.9375 
0.0024021928374483993 1:0.5 2:0.8125 3:0.375 4:0.8125 5:0.6875 6:0.4375 7:0.375 8:0.6875 9:0.75 10:0.25 11:1.0 12:0.5625 13:0.875 14:0.8125 15:0.0 
-0.14762558032294676 1:0.375 2:0.9375 3:0.5 4:0.5 5:0.4375 6:1.0 7:0.6875 8:0.9375 9:0.3125 10:0.1875 11:0.4375 12:0.125 13:0.5 14:0.0625 15:0.5 
1.0 1:0.9375 2:0.8125 3:0.5 4:1.0 5:0.875 6:0.5 7:0.0625 8:0.5625 9:0.75 10:0.4375 11:0.625 12:0.9375 13:0.625 14:0.625 15:0.5 
1.0 1:0.5 2:0.5625 3:0.3125 4:0.5 5:0.375 6:0.5 7:0.0 8:0.5625 9:0.4375 10:0.125 11:0.9375 12:0.375 13:0.625 14:0.5625 15:0.375 
-0.6493983312878576 1:0.5 2:0.6875 3:0.625 4:0.9375 5:1.0 6:0.625 7:0.4375 8:0.375 9:0.5 10:0.5 11:0.4375 12:0.5 13:0.5625 14:0.5625 15:0.4375 
-0.2749230701191926 1:0.8125 2:0.1875 3:0.4375 4:0.125 5:0.0625 6:0.375 7:0.0 8:0.0 9:0.0 10:0.0 11:0.4375 12:0.0625 13:0.5 14:0.5 15:0.375 
-0.281772050061304 1:0.8125 2:1.0 3:0.3125 4:0.4375 5:0.8125 6:0.1875 7:0.0 8:0.0625 9:0.0625 10:0.25 11:0.125 12:0.1875 13:0.5 14:0.75 15:0.8125 
0.5126021297879786 1:0.6875 2:0.8125 3:0.5 4:0.875 5:0.6875 6:0.5 7:0.0625 8:0.3125 9:0.75 10:0.375 11:0.6875 12:0.625 13:0.8125 14:0.9375 15:0.625 
-0.783446775009254 1:0.75 2:0.875 3:0.125 4:0.5 5:0.375 6:0.5 7:0.375 8:0.1875 9:0.375 10:0.0625 11:0.1875 12:0.0 13:0.9375 14:0.5 15:0.1875 
-0.226583783807125 1:0.0 2:0.4375 3:0.0 4:0.1875 5:0.4375 6:0.75 7:0.75 8:0.625 9:0.9375 10:0.625 11:0.5 12:0.5 13:0.5625 14:0.8125 15:0.875 
0.03306438367624025 1:0.1875 2:0.4375 3:0.125 4:0.125 5:0.5625 6:0.8125 7:0.3125 8:0.0625 9:0.75 10:0.375 11:0.1875 12:0.625 13:0.4375 14:1.0 15:0.9375 
-0.04974756569787386 1:0.5 2:0.25 3:0.4375 4:0.375 5:0.4375 6:0.0 7:0.25 8:0.6875 9:0.4375 10:0.6875 11:0.75 12:1.0 13:0.9375 14:0.6875 15:0.4375 
0.6249929288447683 1:0.375 2:0.75 3:0.3125 4:1.0 5:0.25 6:1.0 7:0.3125 8:0.625 9:0.5 10:0.125 11:0.4375 12:0.0625 13:0.9375 14:0.3125 15:0.0 
-0.36518669140794346 1:0.5 2:0.6875 3:0.5 4:0.875 5:0.625 6:0.8125 7:0.1875 8:0.75 9:0.875 10:0.25 11:0.5 12:0.1875 13:0.875 14:0.8125 15:0.25 
-0.09283707979150227 1:0.125 2:0.5 3:0.125 4:0.375 5:0.3125 6:0.625 7:0.75 8:0.6875 9:0.3125 10:0.5 11:0.5 12:0.125 13:0.8125 14:0.1875 15:0.0625 
-0.09142514711320307 1:0.125 2:0.4375 3:0.6875 4:0.1875 5:0.375 6:0.3125 7:0.8125 8:0.1875 9:0.5 10:0.625 11:0.4375 12:0.5 13:0.25 14:0.375 15:0.9375 
0.9962101009542493 1:0.0625 2:0.4375 3:0.3125 4:0.375 5:0.3125 6:0.6875 7:0.9375 8:0.8125 9:0.8125 10:0.4375 11:0.625 12:0.1875 13:0.5625 14:0.375 15:0.5 
-0.10563120543831797 1:0.4375 2:0.25 3:0.375 4:0.5 5:0.4375 6:0.1875 7:0.0625 8:0.375 9:0.375 10:0.0625 11:0.5 12:0.5 13:1.0 14:0.875 15:0.1875 
-0.013463442126549117 1:0.875 2:0.75 3:0.8125 4:0.75 5:1.0 6:0.0625 7:0.8125 8:0.4375 9:0.6875 10:0.8125 11:0.75 12:0.9375 13:0.5 14:0.5 15:0.8125 
-0.26540724660825765 1:0.625 2:0.4375 3:0.5625 4:0.0 5:0.5625 6:0.25 7:0.4375 8:0.125 9:0.3125 10:0.375 11:0.5 12:0.6875 13:0.4375 14:0.75 15:0.9375 
-0.9175527387702007 1:0.4375 2:0.5 3:0.1875 4:0.0625 5:0.5625 6:0.5625 7:0.25 8:0.4375 9:0.4375 10:0.25 11:0.4375 12:0.5625 13:0.625 14:0.5 15:0.625 
-0.6505014959726293 1:0.75 2:0.75 3:0.625 4:0.9375 5:0.4375 6:0.375 7:0.625 8:0.9375 9:0.3125 10:0.75 11:0.6875 12:0.5 13:0.375 14:0.125 15:0.0 
-0.8767953671002016 1:0.625 2:0.5625 3:0.1875 4:0.75 5:0.75 6:0.4375 7:0.0 8:0.625 9:0.5625 10:0.4375 11:1.0 12:0.8125 13:0.8125 14:0.8125 15:0.75 
0.0730241568062105 1:0.1875 2:0.0625 3:0.0625 4:0.1875 5:0.0 6:0.4375 7:0.8125 8:0.8125 9:0.75 10:0.6875 11:0.75 12:0.8125 13:0.8125 14:0.5625 15:0.1875 
0.04536598153111798 1:0.4375 2:0.3125 3:1.0 4:0.625 5:0.6875 6:0.375 7:0.6875 8:0.75 9:0.5 10:0.6875 11:0.8125 12:0.5625 13:0.5 14:0.0 15:0.0 
-0.5805722817702577 1:0.5625 2:0.25 3:0.3125 4:0.25 5:0.5 6:0.125 7:0.0625 8:0.0 9:0.0625 10:0.4375 11:0.75 12:1.0 13:0.9375 14:0.75 15:0.5625 
0.3360785721228225 1:0.0 2:0.0625 3:0.0625 4:0.25 5:0.375 6:0.1875 7:0.875 8:0.8125 9:0.9375 10:0.6875 11:0.625 12:1.0 13:0.25 14:0.5 15:0.625 
0.1350536271332237 1:0.75 2:0.125 3:0.0625 4:0.5625 5:0.375 6:0.0 7:0.1875 8:0.4375 9:0.0 10:0.9375 11:0.75 12:0.8125 13:0.6875 14:0.25 15:0.125 
-0.7183477884063092 1:0.625 2:0.3125 3:0.5625 4:0.5 5:0.5 6:0.4375 7:0.4375 8:0.0625 9:0.3125 10:1.0 11:0.5625 12:0.25 13:0.3125 14:0.0 15:0.4375 
-0.708677259805249 1:0.625 2:1.0 3:1.0 4:0.75 5:0.6875 6:0.5 7:0.625 8:0.25 9:0.125 10:0.3125 11:0.375 12:0.25 13:0.0 14:0.375 15:0.4375 
-1.0 1:0.5 2:0.3125 3:0.0625 4:0.25 5:0.5 6:0.4375 7:0.4375 8:0.3125 9:0.4375 10:0.4375 11:0.4375 12:0.9375 13:0.6875 14:0.8125 15:0.9375 
-0.7793230799857369 1:0.6875 2:0.75 3:0.5 4:0.625 5:0.9375 6:0.5625 7:0.0 8:0.3125 9:0.375 10:0.5 11:0.625 12:0.5 13:0.625 14:0.625 15:0.5 
0.11726469096073859 1:0.25 2:0.125 3:0.3125 4:0.5 5:0.5625 6:0.5 7:0.625 8:0.4375 9:1.0 10:0.75 11:0.9375 12:0.9375 13:0.5 14:0.625 15:0.625 
0.187949336222574 1:0.5 2:0.5 3:0.125 4:0.3125 5:0.5 6:0.5 7:0.0 8:0.0 9:0.1875 10:0.375 11:0.125 12:0.625 13:0.625 14:0.9375 15:1.0 
0.2620508091434589 1:0.9375 2:0.5 3:0.5 4:1.0 5:0.25 6:0.3125 7:0.375 8:1.0 9:0.375 10:0.3125 11:0.6875 12:0.125 13:0.8125 14:0.5 15:0.0 
0.9676755808865047 1:0.5 2:0.5 3:0.5 4:0.125 5:0.875 6:0.5 7:0.4375 8:0.5 9:0.8125 10:0.75 11:0.1875 12:0.5625 13:0.4375 14:0.625 15:1.0 
-0.3644837235887056 1:0.5 2:0.3125 3:0.1875 4:0.0 5:0.5 6:0.1875 7:0.5 8:0.4375 9:0.75 10:0.5625 11:0.1875 12:0.5625 13:0.3125 14:1.0 15:0.8125 
1.0 1:0.375 2:0.5 3:0.8125 4:0.4375 5:0.4375 6:0.9375 7:1.0 8:0.5 9:0.8125 10:0.875 11:0.0625 12:0.5625 13:0.3125 14:0.25 15:1.0 
-0.24525367575560733 1:0.0 2:0.3125 3:0.4375 4:0.375 5:0.375 6:1.0 7:0.5 8:1.0 9:0.6875 10:0.0 11:0.1875 12:0.0625 13:0.5625 14:0.5 15:0.375 
-0.17521975000123632 1:0.1875 2:0.0 3:0.3125 4:0.375 5:0.4375 6:0.0 7:0.3125 8:0.5625 9:0.625 10:0.6875 11:0.6875 12:0.875 13:0.9375 14:0.9375 15:0.3125 
-0.6436775600999918 1:0.5625 2:0.75 3:0.6875 4:0.0625 5:0.5 6:0.5 7:0.125 8:0.3125 9:0.25 10:0.0625 11:0.0625 12:0.1875 13:0.1875 14:0.5 15:0.875 
-0.5183118522175851 1:0.125 2:0.6875 3:0.875 4:0.5625 5:0.4375 6:1.0 7:0.625 8:0.6875 9:0.875 10:0.3125 11:0.5 12:0.25 13:0.625 14:0.5 15:0.4375 
