encog,SVM,java,3.2.0,1,1406057332473
[SVM]
[SVM:PARAMS]
[SVM:SVM-PARAM]
inputCount=6
C=1
cacheSize=100
coef0=0
degree=3
eps=0.001
gamma=1
kernelType=2
nrWeight=0
nu=0.5
p=0.1
probability=0
shrinking=1
svmType=3
weight=
weightLabel=
[SVM:SVM-MODEL]
svm_type epsilon_svr
kernel_type rbf
gamma 1.0
nr_class 2
total_sv 217
rho -0.5037777946461393
SV
-0.6368762442186352 1:0.5 2:0.5625 3:0.625 4:0.625 5:1.0 6:0.875 
0.8464693962027465 1:0.875 2:0.6875 3:0.75 4:0.1875 5:0.625 6:1.0 
1.0 1:0.6875 2:0.9375 3:0.75 4:0.625 5:0.4375 6:0.0 
1.0 1:0.25 2:0.5625 3:0.75 4:0.6875 5:0.6875 6:0.4375 
1.0 1:0.125 2:0.125 3:0.3125 4:0.6875 5:0.5625 6:0.3125 
-1.0 1:0.375 2:0.75 3:0.4375 4:0.5625 5:0.3125 6:0.0625 
1.0 1:0.5625 2:0.8125 3:1.0 4:0.8125 5:0.5625 6:0.5625 
-1.0 1:0.1875 2:0.125 3:0.0 4:0.0 5:0.1875 6:0.5625 
-1.0 1:0.1875 2:0.1875 3:0.5 4:0.5 5:0.75 6:0.5 
-1.0 1:0.5 2:0.375 3:1.0 4:0.5 5:0.875 6:0.75 
1.0 1:1.0 2:0.8125 3:1.0 4:0.5625 5:0.4375 6:0.125 
0.9207390305660662 1:0.5 2:0.25 3:0.9375 4:0.3125 5:0.8125 6:0.8125 
1.0 1:0.875 2:0.625 3:0.5625 4:0.5625 5:0.1875 6:0.0625 
0.8640538828970019 1:0.375 2:0.5 3:0.375 4:0.5 5:0.0 6:0.125 
-1.0 1:0.5 2:0.625 3:0.5625 4:0.5 5:0.3125 6:0.1875 
1.0 1:1.0 2:0.6875 3:1.0 4:0.0625 5:0.375 6:0.875 
1.0 1:0.5625 2:0.5 3:0.625 4:0.25 5:0.3125 6:0.5 
-1.0 1:0.4375 2:0.4375 3:0.75 4:0.8125 5:0.6875 6:0.5625 
-1.0 1:0.1875 2:0.0625 3:0.5 4:0.6875 5:0.875 6:0.5 
-1.0 1:0.3125 2:0.125 3:0.0 4:0.25 5:0.5 6:0.5 
-1.0 1:0.8125 2:0.8125 3:0.8125 4:0.75 5:0.5 6:0.25 
-1.0 1:0.9375 2:0.875 3:1.0 4:0.25 5:0.3125 6:0.625 
1.0 1:0.125 2:0.5625 3:0.125 4:0.875 5:0.1875 6:0.125 
1.0 1:0.125 2:0.125 3:0.125 4:0.6875 5:0.8125 6:0.5 
-1.0 1:0.5 2:0.625 3:0.0 4:0.6875 5:0.5 6:0.1875 
1.0 1:0.625 2:0.6875 3:0.625 4:0.5625 5:0.5625 6:0.75 
0.2719306856580111 1:0.375 2:0.6875 3:0.875 4:1.0 5:0.75 6:0.625 
-1.0 1:0.5 2:0.875 3:0.0625 4:0.5625 5:0.0 6:0.125 
-1.0 1:0.5 2:0.1875 3:0.9375 4:0.25 5:0.6875 6:0.75 
-1.0 1:0.75 2:0.875 3:0.875 4:0.75 5:0.375 6:0.3125 
1.0 1:0.5 2:0.0625 3:0.75 4:0.5 5:0.8125 6:0.9375 
0.8541425587849372 1:0.5 2:0.625 3:0.5 4:0.5625 5:0.1875 6:0.375 
0.05468470250860899 1:0.125 2:0.375 3:0.3125 4:1.0 5:1.0 6:0.5 
1.0 1:0.3125 2:0.5625 3:0.875 4:0.625 5:0.9375 6:0.5 
0.17636965530848803 1:0.125 2:0.5 3:0.0 4:1.0 5:0.5625 6:0.5 
-1.0 1:0.0 2:0.0625 3:0.0625 4:0.6875 5:0.875 6:0.5 
-0.47550460689434493 1:0.25 2:0.5625 3:0.3125 4:1.0 5:1.0 6:0.3125 
1.0 1:0.625 2:0.5 3:0.75 4:0.375 5:0.3125 6:0.75 
0.4018435289512975 1:0.375 2:0.75 3:0.5625 4:0.875 5:0.5 6:0.0 
1.0 1:0.6875 2:0.3125 3:1.0 4:0.0 5:0.5 6:0.6875 
1.0 1:0.5 2:0.5625 3:0.75 4:0.75 5:0.6875 6:0.375 
1.0 1:0.6875 2:1.0 3:0.875 4:0.875 5:0.625 6:0.1875 
1.0 1:0.4375 2:0.1875 3:0.5625 4:0.625 5:0.8125 6:1.0 
-1.0 1:0.375 2:0.4375 3:0.375 4:0.5625 5:0.1875 6:0.25 
1.0 1:0.0625 2:0.625 3:0.0625 4:1.0 5:0.4375 6:0.25 
-0.21152055034489883 1:0.1875 2:0.0625 3:0.0 4:0.3125 5:0.375 6:0.375 
-1.0 1:0.25 2:0.5 3:1.0 4:0.6875 5:0.8125 6:0.875 
0.2664304959694448 1:0.0625 2:0.75 3:0.8125 4:0.875 5:0.875 6:0.5 
1.0 1:0.4375 2:0.25 3:0.4375 4:0.625 5:0.8125 6:0.5625 
0.42796581256214095 1:0.5 2:0.0 3:0.3125 4:0.0 5:0.0625 6:0.3125 
1.0 1:0.75 2:1.0 3:0.75 4:0.625 5:0.0625 6:0.1875 
1.0 1:0.125 2:0.75 3:0.5625 4:0.8125 5:0.5625 6:0.1875 
-0.20204672654434894 1:0.8125 2:0.75 3:0.6875 4:0.5625 5:0.8125 6:0.5 
0.593800313394938 1:0.6875 2:0.5625 3:0.5 4:0.5625 5:0.4375 6:0.0 
-0.3916197248758044 1:0.375 2:0.0 3:0.0 4:0.5 5:0.0 6:0.1875 
1.0 1:1.0 2:0.9375 3:1.0 4:0.375 5:0.5 6:0.375 
-0.7212188034075341 1:0.375 2:0.1875 3:0.375 4:0.0 5:0.25 6:0.8125 
-0.3439800602049222 1:0.5 2:0.875 3:0.875 4:1.0 5:0.625 6:0.125 
1.0 1:0.3125 2:0.0 3:0.25 4:0.3125 5:0.8125 6:0.75 
-0.7002053419217341 1:0.5 2:0.875 3:0.125 4:0.625 5:0.3125 6:0.0625 
1.0 1:0.4375 2:0.375 3:0.4375 4:0.4375 5:0.0625 6:0.375 
-0.27010387444907735 1:0.875 2:0.875 3:0.1875 4:0.375 5:0.0 6:0.0625 
-1.0 1:0.1875 2:0.625 3:0.0 4:0.875 5:0.1875 6:0.0 
-1.0 1:0.8125 2:0.5625 3:0.75 4:0.5 5:0.5 6:1.0 
1.0 1:0.375 2:0.5625 3:0.9375 4:0.9375 5:0.8125 6:0.8125 
-1.0 1:0.125 2:0.625 3:0.1875 4:0.8125 5:0.6875 6:0.375 
-1.0 1:0.8125 2:0.4375 3:0.5 4:0.375 5:0.25 6:0.3125 
1.0 1:0.25 2:0.125 3:0.0625 4:0.125 5:0.5 6:0.875 
-0.2409125371735318 1:0.5625 2:0.5 3:0.5625 4:0.5 5:0.875 6:0.8125 
1.0 1:0.875 2:1.0 3:0.9375 4:0.875 5:0.5 6:0.25 
1.0 1:0.625 2:0.625 3:0.875 4:0.375 5:0.625 6:0.5 
1.0 1:0.5625 2:0.5625 3:0.625 4:0.75 5:0.5 6:0.25 
-1.0 1:0.125 2:0.4375 3:0.0 4:1.0 5:0.8125 6:0.125 
-0.24592387715892405 1:0.5 2:0.3125 3:0.25 4:0.1875 5:0.3125 6:0.8125 
-1.0 1:0.375 2:0.5 3:0.9375 4:0.75 5:0.8125 6:0.5 
1.0 1:0.5625 2:0.0625 3:0.125 4:0.125 5:0.1875 6:0.75 
1.0 1:0.6875 2:0.375 3:0.0625 4:0.0625 5:0.1875 6:0.1875 
1.0 1:0.625 2:0.3125 3:0.5625 4:0.25 5:0.5 6:0.5 
-1.0 1:0.375 2:0.375 3:0.0 4:0.125 5:0.375 6:0.5625 
-1.0 1:0.1875 2:0.75 3:0.625 4:0.8125 5:1.0 6:0.3125 
-1.0 1:0.875 2:0.4375 3:0.1875 4:0.0625 5:0.25 6:0.375 
-0.7488675256126286 1:0.1875 2:0.0625 3:0.0625 4:0.125 5:0.5 6:0.8125 
1.0 1:0.1875 2:0.3125 3:0.0625 4:0.8125 5:0.75 6:0.4375 
1.0 1:0.5 2:0.1875 3:0.0625 4:0.125 5:0.3125 6:0.8125 
-0.397308992015382 1:0.5 2:0.5 3:1.0 4:0.1875 5:0.75 6:0.8125 
0.3056184988822683 1:0.125 2:0.0 3:0.375 4:0.375 5:0.3125 6:0.5 
0.09200835813763125 1:0.4375 2:0.5 3:0.0625 4:0.4375 5:0.375 6:0.0 
1.0 1:0.5 2:0.6875 3:0.0625 4:0.625 5:0.25 6:0.3125 
-1.0 1:0.6875 2:0.5 3:0.875 4:0.4375 5:0.75 6:0.5625 
-1.0 1:1.0 2:0.875 3:0.8125 4:0.625 5:0.4375 6:0.0625 
-0.24209671399054067 1:0.4375 2:0.375 3:0.5 4:0.25 5:0.9375 6:1.0 
0.510319011472295 1:0.5625 2:0.6875 3:0.6875 4:1.0 5:0.5625 6:0.25 
-1.0 1:1.0 2:0.4375 3:0.875 4:0.1875 5:0.6875 6:0.75 
0.8168245676068693 1:0.375 2:0.375 3:0.0 4:0.25 5:0.4375 6:0.625 
-0.636301013974385 1:0.8125 2:0.875 3:0.75 4:0.875 5:0.4375 6:0.3125 
-0.1557991117028628 1:0.875 2:1.0 3:0.5 4:0.5625 5:0.5 6:0.375 
-1.0 1:0.4375 2:0.0 3:0.5 4:0.5 5:0.5625 6:0.5 
1.0 1:0.125 2:0.3125 3:1.0 4:0.5 5:0.9375 6:0.8125 
1.0 1:0.5625 2:1.0 3:1.0 4:0.5 5:0.5 6:0.5 
1.0 1:1.0 2:0.6875 3:0.75 4:0.5625 5:0.375 6:0.4375 
1.0 1:0.4375 2:1.0 3:0.0 4:0.8125 5:0.25 6:0.0 
-1.0 1:0.75 2:0.9375 3:0.25 4:0.5625 5:0.0625 6:0.125 
-1.0 1:0.4375 2:0.875 3:0.75 4:0.75 5:0.6875 6:0.6875 
1.0 1:0.6875 2:0.5625 3:0.6875 4:0.625 5:0.8125 6:0.5 
-1.0 1:0.5 2:0.4375 3:0.0625 4:0.5625 5:0.375 6:0.5 
-1.0 1:0.5625 2:0.8125 3:0.8125 4:0.8125 5:0.8125 6:0.25 
-1.0 1:0.5 2:0.5 3:0.4375 4:0.8125 5:0.3125 6:0.3125 
1.0 1:0.1875 2:0.625 3:1.0 4:0.8125 5:0.8125 6:0.6875 
-1.0 1:0.1875 2:0.5625 3:0.375 4:0.9375 5:0.3125 6:0.125 
-1.0 1:0.9375 2:0.75 3:0.8125 4:0.3125 5:0.0625 6:0.5 
1.0 1:0.5625 2:0.6875 3:0.5625 4:0.875 5:1.0 6:0.5 
-0.581784636708203 1:0.3125 2:0.9375 3:0.25 4:1.0 5:0.5625 6:0.25 
-1.0 1:0.375 2:0.25 3:0.5 4:0.625 5:0.5 6:0.5 
1.0 1:0.25 2:0.0625 3:0.0 4:0.5625 5:0.5 6:0.625 
-1.0 1:0.375 2:0.8125 3:0.375 4:0.8125 5:0.625 6:0.4375 
0.18130683615898244 1:1.0 2:0.5625 3:0.625 4:0.25 5:0.375 6:0.3125 
-0.04782416941449091 1:0.9375 2:0.75 3:1.0 4:0.5 5:0.3125 6:0.4375 
-1.0 1:0.5 2:0.875 3:0.8125 4:0.625 5:1.0 6:0.375 
-1.0 1:0.9375 2:0.8125 3:0.8125 4:0.8125 5:0.5 6:0.5 
0.3809014894003441 1:0.6875 2:0.5 3:1.0 4:0.5625 5:0.625 6:0.5625 
0.6623849659506678 1:0.375 2:0.0 3:0.875 4:0.375 5:0.75 6:1.0 
1.0 1:0.5 2:0.375 3:0.3125 4:0.1875 5:0.375 6:0.25 
-1.0 1:0.0 2:0.5625 3:0.5 4:0.75 5:0.5 6:0.1875 
1.0 1:0.0625 2:0.1875 3:0.8125 4:0.5 5:0.875 6:0.8125 
-1.0 1:0.75 2:0.4375 3:0.375 4:0.0625 5:0.125 6:0.25 
1.0 1:0.125 2:0.0625 3:0.25 4:0.625 5:0.6875 6:0.6875 
1.0 1:0.125 2:0.4375 3:0.3125 4:0.5625 5:0.25 6:0.1875 
-1.0 1:0.3125 2:0.5 3:0.1875 4:0.875 5:0.25 6:0.3125 
-0.43026151493312165 1:0.8125 2:0.0 3:0.1875 4:0.1875 5:0.125 6:0.5 
-1.0 1:0.875 2:0.4375 3:0.125 4:0.4375 5:0.0625 6:0.4375 
-0.05737120644277124 1:0.625 2:0.5625 3:0.5 4:0.0 5:0.0 6:0.25 
1.0 1:0.5625 2:0.5 3:0.25 4:0.6875 5:0.1875 6:0.0625 
-1.0 1:0.875 2:0.5 3:0.4375 4:0.375 5:0.3125 6:0.125 
1.0 1:0.375 2:0.5625 3:0.5625 4:0.75 5:0.75 6:0.1875 
1.0 1:0.75 2:0.625 3:0.5 4:0.0625 5:0.0625 6:0.25 
-1.0 1:0.5 2:0.5 3:0.5 4:0.5625 5:0.3125 6:0.25 
0.8239281903042105 1:0.1875 2:0.25 3:0.0625 4:0.0625 5:0.3125 6:0.5 
1.0 1:0.8125 2:0.9375 3:0.875 4:0.875 5:0.5625 6:0.25 
1.0 1:0.5 2:0.5625 3:0.625 4:0.375 5:0.8125 6:0.9375 
-1.0 1:0.0 2:0.3125 3:0.125 4:0.625 5:0.5 6:0.5625 
-1.0 1:0.8125 2:0.4375 3:0.5 4:0.25 5:0.5 6:1.0 
1.0 1:0.0 2:0.625 3:0.125 4:1.0 5:0.75 6:0.25 
0.03484902863666035 1:0.125 2:0.1875 3:0.625 4:0.5 5:0.6875 6:0.75 
0.5751852759864097 1:0.625 2:0.1875 3:0.6875 4:0.1875 5:0.5625 6:0.625 
1.0 1:0.4375 2:0.8125 3:0.625 4:0.875 5:1.0 6:0.6875 
-1.0 1:0.75 2:0.375 3:0.8125 4:0.0 5:0.375 6:0.5625 
-1.0 1:0.5 2:0.0 3:0.0 4:0.3125 5:0.375 6:0.3125 
1.0 1:0.6875 2:0.5 3:0.125 4:0.5625 5:0.125 6:0.1875 
1.0 1:0.6875 2:0.75 3:0.1875 4:0.5625 5:0.375 6:0.25 
1.0 1:0.6875 2:0.375 3:0.0 4:0.25 5:0.0625 6:0.5 
-1.0 1:0.5 2:0.375 3:0.5 4:0.0 5:0.0 6:0.5625 
1.0 1:0.5 2:0.6875 3:0.3125 4:0.75 5:0.0625 6:0.3125 
0.016469445810592852 1:0.8125 2:0.9375 3:1.0 4:0.625 5:0.5 6:0.0 
-1.0 1:0.4375 2:0.375 3:0.375 4:0.0625 5:0.5625 6:0.6875 
-0.5256050642900975 1:0.8125 2:0.5 3:0.8125 4:0.0 5:0.25 6:0.8125 
-1.0 1:0.375 2:0.875 3:0.75 4:0.6875 5:0.8125 6:0.4375 
-1.0 1:0.5 2:0.375 3:0.875 4:0.0625 5:0.5 6:0.6875 
-0.3104917535023343 1:0.75 2:0.5 3:0.3125 4:0.25 5:0.0 6:0.5625 
0.8067179882944072 1:0.4375 2:0.1875 3:0.125 4:0.125 5:0.4375 6:1.0 
-1.0 1:0.875 2:0.75 3:0.875 4:0.5625 5:0.25 6:0.25 
-1.0 1:0.6875 2:0.9375 3:0.875 4:0.625 5:0.3125 6:0.1875 
1.0 1:0.0625 2:0.5 3:0.4375 4:0.625 5:0.4375 6:0.3125 
0.8484104351405236 1:0.8125 2:0.75 3:0.875 4:0.375 5:0.1875 6:0.5625 
-1.0 1:0.25 2:0.0 3:0.75 4:0.25 5:0.9375 6:1.0 
1.0 1:0.1875 2:0.125 3:0.375 4:0.125 5:0.625 6:0.75 
-1.0 1:0.1875 2:0.0625 3:0.0 4:0.5 5:0.875 6:0.625 
-1.0 1:0.5 2:0.5 3:0.6875 4:0.625 5:0.5 6:0.5625 
0.07332355111583762 1:0.875 2:0.5625 3:1.0 4:0.5 5:0.5625 6:1.0 
0.5601947968272528 1:0.6875 2:0.625 3:1.0 4:0.6875 5:1.0 6:0.5625 
-0.0845315026434268 1:0.875 2:0.875 3:0.3125 4:0.5 5:0.1875 6:0.3125 
-1.0 1:0.3125 2:0.4375 3:0.9375 4:0.6875 5:0.8125 6:0.75 
1.0 1:0.0625 2:0.625 3:0.1875 4:0.75 5:0.6875 6:0.0 
-0.5335452507683445 1:0.4375 2:0.5 3:0.5 4:0.6875 5:0.5 6:0.0 
1.0 1:0.75 2:0.25 3:1.0 4:0.0 5:0.5625 6:0.8125 
1.0 1:0.8125 2:0.75 3:0.75 4:0.1875 5:0.5 6:0.875 
1.0 1:0.9375 2:0.625 3:0.1875 4:0.375 5:0.1875 6:0.125 
1.0 1:0.375 2:0.125 3:0.875 4:0.5 5:0.75 6:0.875 
1.0 1:0.5625 2:0.0 3:0.1875 4:0.4375 5:0.375 6:0.4375 
0.13728824790416247 1:0.875 2:1.0 3:0.625 4:0.125 5:0.375 6:0.4375 
1.0 1:0.8125 2:0.6875 3:0.875 4:0.25 5:0.1875 6:0.625 
1.0 1:0.6875 2:0.6875 3:0.75 4:0.9375 5:0.5 6:0.4375 
0.35315290327559395 1:0.5625 2:0.9375 3:0.625 4:0.5625 5:1.0 6:0.5625 
-1.0 1:0.375 2:0.0625 3:0.1875 4:0.1875 5:0.4375 6:0.9375 
-1.0 1:0.6875 2:0.8125 3:0.9375 4:0.1875 5:0.5625 6:0.75 
1.0 1:0.6875 2:0.75 3:0.0625 4:0.5625 5:0.0 6:0.25 
-1.0 1:0.125 2:0.0 3:0.5 4:0.4375 5:0.5 6:0.5625 
-1.0 1:0.5 2:0.6875 3:0.3125 4:0.5 5:0.5 6:0.25 
-1.0 1:0.25 2:0.5 3:0.1875 4:0.9375 5:0.625 6:0.5 
-1.0 1:0.0 2:0.625 3:0.0625 4:0.6875 5:0.5 6:0.125 
1.0 1:0.3125 2:0.0625 3:0.0625 4:0.0625 5:0.5625 6:0.6875 
1.0 1:0.75 2:0.625 3:0.5 4:0.1875 5:0.1875 6:0.125 
-1.0 1:0.5 2:0.4375 3:0.5 4:0.4375 5:0.75 6:1.0 
1.0 1:0.0625 2:0.5 3:0.1875 4:0.6875 5:0.8125 6:0.375 
-0.368094742528534 1:0.4375 2:0.0 3:0.25 4:0.3125 5:0.6875 6:0.8125 
-1.0 1:0.375 2:0.5 3:0.0 4:0.4375 5:0.0 6:0.3125 
-1.0 1:0.125 2:0.0 3:0.1875 4:0.5 5:0.6875 6:1.0 
1.0 1:0.875 2:0.625 3:0.9375 4:0.375 5:0.5625 6:0.5 
-1.0 1:0.5 2:0.5 3:0.75 4:0.75 5:0.75 6:0.5 
-1.0 1:0.875 2:0.6875 3:1.0 4:0.5 5:0.3125 6:0.375 
1.0 1:0.0625 2:0.125 3:0.125 4:0.5 5:0.75 6:0.5 
-0.89749175328 1:0.75 2:0.4375 3:0.0625 4:0.125 5:0.0625 6:0.0 
-1.0 1:0.9375 2:0.875 3:0.9375 4:0.125 5:0.4375 6:0.8125 
0.5935961444611021 1:0.5 2:0.125 3:0.25 4:0.5 5:0.1875 6:0.3125 
1.0 1:0.125 2:0.625 3:0.0 4:0.75 5:0.4375 6:0.3125 
-1.0 1:0.75 2:0.5 3:0.5 4:0.4375 5:0.25 6:0.1875 
-1.0 1:1.0 2:0.9375 3:0.9375 4:0.8125 5:0.5 6:0.25 
-1.0 1:0.5 2:0.75 3:0.9375 4:0.8125 5:0.5625 6:0.5625 
-1.0 1:0.25 2:0.375 3:0.4375 4:0.25 5:0.4375 6:0.5 
-1.0 1:0.75 2:1.0 3:1.0 4:0.6875 5:0.5 6:0.125 
-0.5779272729524998 1:0.125 2:0.4375 3:0.0 4:0.9375 5:0.1875 6:0.0 
-1.0 1:0.375 2:0.0 3:0.25 4:0.375 5:0.75 6:0.875 
1.0 1:0.5 2:0.8125 3:0.625 4:0.5 5:0.6875 6:0.6875 
-1.0 1:0.5 2:0.25 3:0.9375 4:0.5 5:1.0 6:0.8125 
1.0 1:0.625 2:0.75 3:0.8125 4:0.875 5:0.625 6:0.25 
0.15068824898178243 1:0.0 2:0.25 3:0.5 4:0.875 5:0.6875 6:0.5 
-1.0 1:0.1875 2:0.5625 3:0.8125 4:1.0 5:0.9375 6:0.75 
0.4336165248021035 1:1.0 2:0.25 3:0.5625 4:0.0 5:0.0625 6:0.625 
