encog,SVM,java,3.2.0,1,1406057134659
[SVM]
[SVM:PARAMS]
[SVM:SVM-PARAM]
inputCount=3
C=1
cacheSize=100
coef0=0
degree=3
eps=0.001
gamma=1
kernelType=2
nrWeight=0
nu=0.5
p=0.1
probability=0
shrinking=1
svmType=3
weight=
weightLabel=
[SVM:SVM-MODEL]
svm_type epsilon_svr
kernel_type rbf
gamma 1.0
nr_class 2
total_sv 126
rho -0.52827176179013
SV
-1.0 1:0.8125 2:0.5625 3:0.0 
-0.4099087904417152 1:0.9375 2:0.625 3:0.0625 
-1.0 1:0.9375 2:0.625 3:0.0 
-1.0 1:0.0625 2:0.25 3:0.8125 
1.0 1:0.875 2:1.0 3:0.75 
1.0 1:0.875 2:0.625 3:0.0625 
1.0 1:0.9375 2:0.75 3:0.1875 
-1.0 1:0.6875 2:0.9375 3:0.875 
-0.42174403575695074 1:0.75 2:0.75 3:0.6875 
1.0 1:0.0625 2:0.3125 3:0.9375 
1.0 1:0.9375 2:0.6875 3:0.125 
-1.0 1:0.6875 2:0.9375 3:0.875 
1.0 1:0.875 2:0.6875 3:0.125 
1.0 1:0.5 2:0.375 3:0.0 
-1.0 1:0.625 2:1.0 3:0.5 
-1.0 1:0.625 2:0.5 3:0.0 
-1.0 1:0.3125 2:0.4375 3:0.8125 
0.9589972762157161 1:0.4375 2:0.8125 3:0.6875 
1.0 1:0.8125 2:1.0 3:0.8125 
-1.0 1:0.625 2:0.5 3:0.5 
1.0 1:0.375 2:0.1875 3:0.1875 
0.5585999339310981 1:0.875 2:0.5 3:0.4375 
1.0 1:0.375 2:0.25 3:0.1875 
1.0 1:0.0 2:0.0 3:0.6875 
1.0 1:0.9375 2:0.625 3:0.0 
0.8218513929342243 1:0.9375 2:0.5625 3:0.5 
-1.0 1:0.875 2:1.0 3:0.75 
1.0 1:1.0 2:0.75 3:0.25 
1.0 1:0.875 2:0.625 3:0.0625 
1.0 1:0.875 2:0.5 3:0.4375 
-0.40792498720755593 1:0.3125 2:0.0625 3:0.125 
-1.0 1:0.5 2:0.4375 3:0.0625 
1.0 1:0.8125 2:0.625 3:0.125 
-1.0 1:0.4375 2:0.5 3:0.8125 
1.0 1:0.0625 2:0.3125 3:0.9375 
1.0 1:0.6875 2:0.5625 3:0.0625 
1.0 1:0.25 2:0.4375 3:1.0 
1.0 1:0.0 2:0.3125 3:0.9375 
-1.0 1:0.5 2:0.375 3:0.0 
1.0 1:0.0625 2:0.3125 3:0.875 
-1.0 1:1.0 2:0.375 3:0.0 
1.0 1:0.1875 2:0.375 3:0.9375 
1.0 1:0.1875 2:0.0625 3:0.25 
-1.0 1:0.6875 2:0.9375 3:0.875 
1.0 1:0.375 2:0.5 3:1.0 
-1.0 1:0.75 2:0.4375 3:0.375 
1.0 1:0.4375 2:0.3125 3:0.0625 
-1.0 1:0.5625 2:0.5 3:0.0625 
-1.0 1:0.0 2:0.1875 3:0.8125 
1.0 1:0.5625 2:0.8125 3:1.0 
-1.0 1:0.125 2:0.0 3:0.25 
-1.0 1:0.0625 2:0.3125 3:0.875 
1.0 1:0.5625 2:0.75 3:1.0 
1.0 1:0.9375 2:1.0 3:0.6875 
0.7849844253207965 1:0.5 2:0.5625 3:0.9375 
1.0 1:1.0 2:0.625 3:0.0 
1.0 1:0.4375 2:0.25 3:0.125 
1.0 1:0.5625 2:0.75 3:1.0 
-1.0 1:0.5625 2:0.75 3:0.875 
-1.0 1:0.625 2:0.5 3:0.5 
-1.0 1:0.125 2:0.375 3:0.875 
1.0 1:0.25 2:0.5625 3:0.625 
1.0 1:0.6875 2:0.9375 3:0.9375 
-1.0 1:0.625 2:0.5 3:0.5 
0.5925035480713695 1:0.5 2:0.125 3:0.4375 
1.0 1:0.4375 2:0.625 3:0.5625 
-1.0 1:0.625 2:0.3125 3:0.375 
1.0 1:0.4375 2:0.0625 3:0.5 
-1.0 1:0.375 2:0.0625 3:0.0 
-1.0 1:0.25 2:0.3125 3:0.75 
1.0 1:0.75 2:1.0 3:0.8125 
1.0 1:0.4375 2:0.0625 3:0.5 
-1.0 1:0.75 2:0.8125 3:0.75 
-1.0 1:0.6875 2:1.0 3:0.9375 
1.0 1:0.3125 2:0.5625 3:0.5625 
-1.0 1:0.0 2:0.125 3:0.75 
-1.0 1:1.0 2:0.9375 3:0.3125 
1.0 1:0.25 2:0.0625 3:0.25 
1.0 1:0.3125 2:0.0 3:0.125 
1.0 1:0.1875 2:0.4375 3:1.0 
-1.0 1:0.125 2:0.375 3:0.9375 
1.0 1:0.0 2:0.3125 3:0.875 
1.0 1:0.1875 2:0.4375 3:1.0 
0.9815262674782117 1:0.0625 2:0.0625 3:0.6875 
1.0 1:0.6875 2:0.9375 3:0.875 
-1.0 1:0.375 2:0.5 3:1.0 
1.0 1:0.5 2:0.625 3:1.0 
0.47596700531523845 1:0.9375 2:0.5625 3:0.5 
-1.0 1:0.875 2:0.625 3:0.125 
-1.0 1:0.0 2:0.1875 3:0.4375 
1.0 1:0.5 2:0.625 3:1.0 
-0.23883720432709687 1:0.9375 2:0.9375 3:0.3125 
-1.0 1:0.125 2:0.375 3:1.0 
-1.0 1:0.6875 2:1.0 3:0.9375 
-1.0 1:0.5625 2:0.75 3:0.9375 
-1.0 1:1.0 2:0.75 3:0.125 
-1.0 1:0.125 2:0.375 3:0.875 
-1.0 1:0.375 2:0.5 3:1.0 
-1.0 1:0.1875 2:0.0 3:0.1875 
-1.0 1:0.375 2:0.125 3:0.0 
-1.0 1:1.0 2:0.875 3:0.25 
-1.0 1:0.1875 2:0.4375 3:1.0 
1.0 1:0.375 2:0.6875 3:0.625 
1.0 1:1.0 2:0.6875 3:0.0 
1.0 1:0.8125 2:0.6875 3:0.1875 
-1.0 1:0.625 2:0.4375 3:0.4375 
-1.0 1:1.0 2:0.8125 3:0.1875 
0.9340820132023749 1:0.1875 2:0.4375 3:1.0 
-1.0 1:0.4375 2:0.0625 3:0.5 
0.36990315526428913 1:0.875 2:1.0 3:0.6875 
-1.0 1:0.1875 2:0.4375 3:1.0 
1.0 1:0.875 2:0.6875 3:0.25 
-1.0 1:1.0 2:0.375 3:0.0 
-1.0 1:0.1875 2:0.375 3:0.9375 
-1.0 1:0.1875 2:0.0 3:0.1875 
-1.0 1:0.5 2:0.4375 3:0.0625 
-1.0 1:0.1875 2:0.375 3:0.9375 
1.0 1:0.4375 2:0.375 3:0.25 
-1.0 1:1.0 2:0.8125 3:0.1875 
1.0 1:0.375 2:0.5 3:1.0 
-1.0 1:0.8125 2:0.4375 3:0.375 
1.0 1:0.375 2:0.125 3:0.0 
-1.0 1:0.5625 2:0.4375 3:0.5 
-1.0 1:0.5625 2:0.5 3:0.0625 
-1.0 1:0.625 2:0.875 3:1.0 
1.0 1:0.3125 2:0.25 3:0.3125 
