encog,SVM,java,3.2.0,1,1406057662973
[SVM]
[SVM:PARAMS]
[SVM:SVM-PARAM]
inputCount=15
C=1
cacheSize=100
coef0=0
degree=3
eps=0.001
gamma=1
kernelType=2
nrWeight=0
nu=0.5
p=0.1
probability=0
shrinking=1
svmType=3
weight=
weightLabel=
[SVM:SVM-MODEL]
svm_type epsilon_svr
kernel_type rbf
gamma 1.0
nr_class 2
total_sv 320
rho -0.4290832261754604
SV
0.03530831878869716 1:0.625 2:0.5625 3:0.9375 4:0.875 5:0.75 6:0.25 7:0.875 8:0.375 9:0.5625 10:0.6875 11:0.625 12:0.625 13:0.0 14:0.375 15:0.75 
0.05207315905888672 1:0.5 2:0.3125 3:0.5 4:0.3125 5:0.375 6:0.4375 7:0.1875 8:0.1875 9:0.1875 10:0.3125 11:0.25 12:0.4375 13:0.5 14:0.5 15:0.875 
-0.06893133388317714 1:0.75 2:0.9375 3:0.75 4:0.875 5:1.0 6:0.125 7:0.3125 8:0.3125 9:0.125 10:0.1875 11:0.375 12:0.5 13:0.75 14:0.625 15:0.5 
0.16426086627788958 1:0.75 2:1.0 3:0.625 4:0.9375 5:1.0 6:0.5 7:0.1875 8:0.625 9:0.625 10:0.5625 11:0.625 12:0.5625 13:0.9375 14:0.625 15:0.3125 
-0.941221609231101 1:0.3125 2:0.0625 3:0.0 4:0.5 5:0.0625 6:0.125 7:0.375 8:0.5 9:0.3125 10:0.375 11:0.5 12:0.6875 13:0.8125 14:0.625 15:0.3125 
0.09094030257807427 1:0.5 2:0.625 3:0.4375 4:0.5 5:0.1875 6:0.875 7:0.8125 8:0.8125 9:0.5625 10:0.5 11:0.375 12:0.375 13:0.375 14:0.25 15:0.0625 
-0.20712747760851885 1:0.75 2:0.625 3:0.625 4:0.6875 5:0.875 6:0.25 7:0.1875 8:0.5625 9:0.1875 10:0.5 11:0.6875 12:0.3125 13:0.625 14:0.25 15:0.375 
-0.34983603157504245 1:0.875 2:0.6875 3:0.9375 4:0.8125 5:0.625 6:0.1875 7:0.9375 8:0.25 9:0.5 10:0.8125 11:0.8125 12:0.5625 13:0.125 14:0.3125 15:0.5625 
0.06307266395391109 1:0.4375 2:0.5625 3:0.5 4:0.625 5:0.375 6:0.75 7:0.375 8:0.5625 9:0.5 10:0.1875 11:0.8125 12:0.125 13:0.8125 14:0.375 15:0.25 
0.06071532894891613 1:0.5 2:0.0625 3:0.25 4:0.5625 5:0.5625 6:0.0 7:0.5 8:0.5 9:0.5 10:0.875 11:0.9375 12:0.875 13:0.5625 14:1.0 15:0.3125 
-0.3781146542131638 1:0.625 2:0.25 3:0.375 4:0.5 5:0.375 6:0.375 7:0.1875 8:0.25 9:0.25 10:0.5625 11:0.4375 12:1.0 13:0.5 14:0.5 15:0.5625 
0.271581615328143 1:0.75 2:0.4375 3:0.875 4:0.5625 5:0.625 6:0.3125 7:0.875 8:0.5625 9:0.5 10:0.75 11:0.9375 12:0.5625 13:0.3125 14:0.0625 15:0.5 
0.12802293785900806 1:0.75 2:0.9375 3:0.8125 4:0.6875 5:0.9375 6:0.75 7:0.875 8:0.8125 9:0.625 10:0.0625 11:0.0625 12:0.4375 13:0.4375 14:0.375 15:0.625 
0.32671872550803344 1:0.5 2:0.6875 3:0.0625 4:0.5625 5:0.625 6:0.5 7:0.3125 8:0.625 9:0.9375 10:0.25 11:0.1875 12:0.6875 13:0.6875 14:0.9375 15:0.625 
0.057409611230760126 1:0.75 2:1.0 3:0.5625 4:0.5 5:0.75 6:0.5 7:0.375 8:0.125 9:0.5625 10:0.1875 11:0.375 12:0.4375 13:0.8125 14:0.75 15:0.8125 
-0.2262543728892435 1:0.5625 2:0.3125 3:0.625 4:0.8125 5:0.5625 6:0.5 7:0.5 8:0.6875 9:0.8125 10:0.5 11:0.625 12:0.75 13:0.5 14:0.625 15:0.75 
0.24520630778048977 1:0.4375 2:0.5 3:0.5 4:0.5 5:0.5 6:0.875 7:0.75 8:0.75 9:0.6875 10:0.5625 11:0.4375 12:0.4375 13:0.25 14:0.3125 15:0.1875 
-1.0 1:0.5 2:0.25 3:0.4375 4:0.625 5:0.4375 6:0.3125 7:0.5 8:0.5 9:0.3125 10:0.875 11:0.75 12:0.625 13:0.25 14:0.4375 15:0.0625 
-0.051641530053793794 1:0.375 2:0.5 3:0.5 4:0.5 5:0.5 6:0.9375 7:0.9375 8:1.0 9:0.5 10:0.5 11:0.75 12:0.125 13:0.875 14:0.3125 15:0.25 
-0.6556719037694047 1:0.9375 2:0.875 3:0.5625 4:0.75 5:0.6875 6:0.4375 7:0.25 8:0.375 9:0.5 10:0.3125 11:0.0 12:0.4375 13:0.4375 14:0.5 15:0.3125 
-0.23739421240547587 1:0.5 2:0.875 3:0.8125 4:0.6875 5:0.3125 6:0.5 7:0.5 8:0.625 9:0.0 10:0.3125 11:0.3125 12:0.25 13:0.5 14:0.125 15:0.4375 
0.03760460184430702 1:0.875 2:0.9375 3:0.4375 4:0.9375 5:0.875 6:0.4375 7:0.1875 8:0.6875 9:0.0 10:0.4375 11:1.0 12:0.5 13:0.875 14:0.5625 15:0.25 
0.8221813579377183 1:0.5625 2:0.25 3:1.0 4:0.9375 5:0.625 6:0.4375 7:0.9375 8:0.625 9:0.75 10:0.8125 11:0.75 12:1.0 13:0.3125 14:0.4375 15:0.5625 
0.051207683264359226 1:0.5 2:0.5 3:0.875 4:0.3125 5:0.8125 6:0.8125 7:0.875 8:0.5 9:0.875 10:0.625 11:0.0625 12:0.375 13:0.375 14:0.375 15:0.875 
0.17921008542191968 1:0.4375 2:0.4375 3:0.125 4:0.0625 5:0.125 6:0.5 7:0.4375 8:0.4375 9:0.3125 10:0.5625 11:0.0625 12:0.5 13:0.1875 14:0.1875 15:0.75 
1.0 1:0.5 2:0.0 3:0.1875 4:0.6875 5:0.5 6:0.25 7:0.125 8:0.5 9:0.75 10:0.5 11:0.6875 12:0.75 13:0.75 14:0.75 15:0.5625 
-0.5237588302494989 1:1.0 2:0.9375 3:0.625 4:0.75 5:0.8125 6:0.375 7:0.4375 8:0.0625 9:0.375 10:0.625 11:0.0625 12:0.125 13:0.25 14:0.375 15:0.6875 
-0.47088987282670824 1:0.125 2:0.6875 3:0.1875 4:0.4375 5:0.75 6:0.75 7:0.8125 8:0.875 9:0.8125 10:0.25 11:0.3125 12:0.5 13:0.375 14:0.9375 15:0.6875 
1.0 1:0.4375 2:0.5625 3:0.5625 4:1.0 5:0.6875 6:0.625 7:0.8125 8:0.6875 9:0.875 10:0.5 11:0.6875 12:0.875 13:0.5 14:0.6875 15:0.25 
-0.23592852625246 1:0.0 2:0.3125 3:0.4375 4:0.3125 5:0.125 6:0.25 7:0.875 8:0.75 9:0.4375 10:1.0 11:0.8125 12:0.8125 13:0.5 14:0.1875 15:0.3125 
-0.50325613992298 1:0.9375 2:0.6875 3:1.0 4:0.625 5:0.9375 6:0.5 7:0.875 8:0.375 9:0.0 10:0.75 11:0.5 12:0.5 13:0.3125 14:0.25 15:0.3125 
0.17566254405630527 1:0.625 2:0.6875 3:0.5625 4:1.0 5:0.5625 6:0.5 7:0.1875 8:1.0 9:0.1875 10:0.0625 11:0.6875 12:0.375 13:0.75 14:0.9375 15:0.25 
-0.3460606515661389 1:0.1875 2:0.375 3:0.375 4:0.5 5:0.125 6:0.75 7:0.75 8:0.9375 9:0.5 10:0.5625 11:0.625 12:0.5 13:0.1875 14:0.4375 15:0.5 
1.0 1:0.0625 2:0.3125 3:0.125 4:0.6875 5:0.5 6:0.5625 7:0.875 8:0.8125 9:0.625 10:1.0 11:0.9375 12:0.5625 13:0.8125 14:0.5 15:0.3125 
-0.38298528157083994 1:0.3125 2:0.375 3:0.5 4:0.6875 5:0.1875 6:0.375 7:0.625 8:0.75 9:0.5 10:0.75 11:0.875 12:0.375 13:0.75 14:0.5625 15:0.1875 
0.9616559162425931 1:0.6875 2:0.5 3:0.375 4:0.1875 5:0.5 6:0.4375 7:0.0625 8:0.1875 9:0.5625 10:0.5625 11:0.1875 12:0.8125 13:0.5 14:0.6875 15:0.75 
0.09237072751045987 1:0.6875 2:0.0625 3:0.5 4:0.4375 5:0.0 6:0.375 7:0.3125 8:0.4375 9:0.1875 10:0.6875 11:0.5625 12:0.0625 13:0.625 14:0.375 15:0.25 
-1.0 1:1.0 2:0.75 3:0.625 4:0.6875 5:0.625 6:0.5625 7:0.5625 8:0.75 9:0.4375 10:0.3125 11:0.625 12:0.0625 13:0.875 14:0.1875 15:0.375 
0.44887104275696266 1:0.5 2:0.625 3:0.1875 4:0.5625 5:0.4375 6:0.9375 7:0.25 8:0.3125 9:0.5 10:0.0 11:0.375 12:0.0 13:0.8125 14:0.5 15:0.25 
-0.990600433740967 1:0.6875 2:0.625 3:0.875 4:0.5 5:0.5 6:0.0625 7:0.25 8:0.375 9:0.4375 10:0.5625 11:0.5 12:0.375 13:0.125 14:0.5 15:0.6875 
0.1709048564610478 1:0.1875 2:0.3125 3:0.25 4:0.4375 5:0.0625 6:0.4375 7:0.375 8:0.25 9:0.5 10:0.625 11:0.5625 12:0.4375 13:0.375 14:0.5 15:0.5 
0.12138334800842028 1:0.625 2:0.125 3:1.0 4:0.75 5:0.5 6:0.1875 7:0.9375 8:0.5625 9:0.0625 10:0.9375 11:0.625 12:0.375 13:0.3125 14:0.125 15:0.25 
-0.8475021378034954 1:0.6875 2:0.3125 3:0.75 4:0.5 5:0.25 6:0.1875 7:0.5 8:0.8125 9:0.4375 10:0.625 11:0.8125 12:0.5625 13:0.625 14:0.25 15:0.0625 
-0.3400380474472436 1:0.1875 2:0.25 3:0.4375 4:0.0625 5:0.4375 6:0.3125 7:1.0 8:0.125 9:0.5625 10:0.8125 11:0.375 12:1.0 13:0.125 14:0.0625 15:1.0 
0.49037685522183216 1:0.5 2:0.75 3:0.625 4:0.875 5:0.125 6:1.0 7:0.625 8:0.6875 9:0.0625 10:0.375 11:0.5625 12:0.0 13:0.4375 14:0.0 15:0.1875 
0.07963559679984224 1:0.1875 2:0.5625 3:0.625 4:0.5625 5:0.3125 6:0.5625 7:0.625 8:0.625 9:0.0625 10:0.5 11:0.4375 12:0.375 13:0.4375 14:0.1875 15:0.1875 
0.24367205829301988 1:0.4375 2:0.3125 3:0.8125 4:0.9375 5:0.6875 6:0.875 7:1.0 8:1.0 9:0.625 10:0.9375 11:0.875 12:0.6875 13:0.625 14:0.0 15:0.25 
-0.09644131225193475 1:0.75 2:0.75 3:0.875 4:0.5625 5:0.9375 6:0.4375 7:0.125 8:0.3125 9:0.75 10:0.3125 11:0.4375 12:0.75 13:0.8125 14:0.75 15:0.625 
-0.24383344021183578 1:0.25 2:0.375 3:0.125 4:0.375 5:0.5 6:0.4375 7:0.0625 8:0.4375 9:0.5625 10:0.0 11:0.0 12:0.8125 13:0.75 14:0.875 15:0.75 
0.05366305885671812 1:0.125 2:0.25 3:0.5 4:0.0625 5:0.9375 6:0.25 7:0.6875 8:0.4375 9:0.9375 10:0.9375 11:0.625 12:0.9375 13:0.125 14:0.6875 15:0.875 
-1.0 1:0.5625 2:0.9375 3:0.4375 4:0.9375 5:0.6875 6:0.5625 7:0.3125 8:0.75 9:0.5625 10:0.4375 11:0.625 12:0.8125 13:0.5625 14:0.625 15:0.375 
-0.3836798942471736 1:0.1875 2:0.3125 3:0.4375 4:0.5 5:0.5625 6:0.125 7:0.3125 8:0.4375 9:0.4375 10:0.5 11:0.75 12:0.625 13:0.625 14:0.5625 15:0.4375 
0.40018061375576885 1:0.0 2:0.4375 3:0.375 4:0.25 5:0.3125 6:0.9375 7:0.625 8:0.75 9:0.9375 10:0.625 11:0.75 12:0.5625 13:0.5625 14:0.8125 15:0.5 
0.18163808348894128 1:0.625 2:1.0 3:0.8125 4:0.8125 5:0.5 6:0.5 7:0.4375 8:0.75 9:0.125 10:0.0625 11:0.4375 12:0.125 13:1.0 14:0.5 15:0.0 
-0.17146001102464492 1:0.1875 2:0.3125 3:0.125 4:0.125 5:0.25 6:0.5 7:0.5 8:0.6875 9:0.9375 10:0.3125 11:0.5 12:0.8125 13:0.75 14:0.875 15:0.9375 
0.06759841075248112 1:1.0 2:0.625 3:0.6875 4:0.9375 5:0.75 6:0.25 7:0.0 8:0.4375 9:0.25 10:0.6875 11:0.625 12:0.75 13:0.8125 14:0.6875 15:0.5 
-0.029151663483408113 1:0.5625 2:1.0 3:0.625 4:0.6875 5:0.75 6:0.875 7:0.625 8:0.6875 9:0.9375 10:0.0625 11:0.0625 12:0.375 13:0.0625 14:0.875 15:0.8125 
0.468435855062647 1:0.625 2:0.4375 3:0.5625 4:1.0 5:0.6875 6:0.0625 7:0.4375 8:0.9375 9:0.5625 10:0.5 11:0.75 12:0.5 13:0.8125 14:0.5 15:0.0 
0.06445778396361936 1:0.3125 2:0.5 3:0.3125 4:0.5625 5:0.875 6:0.5 7:1.0 8:1.0 9:1.0 10:0.5 11:0.5625 12:0.6875 13:0.5625 14:0.9375 15:0.625 
0.050418262534852744 1:0.9375 2:0.5 3:0.875 4:0.8125 5:0.9375 6:0.375 7:0.625 8:0.5 9:0.9375 10:0.625 11:0.5 12:0.9375 13:0.0 14:0.5 15:0.875 
0.03679872399684487 1:0.8125 2:0.5 3:0.5 4:0.375 5:0.0625 6:0.25 7:0.0 8:0.0625 9:0.125 10:0.75 11:0.625 12:0.5 13:0.125 14:0.0 15:0.5 
-0.8243256718581919 1:0.3125 2:0.75 3:0.875 4:0.875 5:0.5 6:0.625 7:1.0 8:0.8125 9:0.5 10:0.8125 11:0.8125 12:0.5 13:0.875 14:0.3125 15:0.25 
0.5382842767662851 1:0.625 2:0.75 3:0.8125 4:0.0625 5:0.5 6:0.3125 7:0.1875 8:0.25 9:0.375 10:0.5625 11:0.3125 12:0.3125 13:0.25 14:0.3125 15:0.625 
0.3775330927830159 1:0.75 2:0.625 3:0.6875 4:0.75 5:0.625 6:0.875 7:0.5 8:0.6875 9:0.75 10:0.375 11:0.5 12:0.75 13:0.6875 14:0.6875 15:0.5 
0.6529981401910303 1:0.1875 2:0.5 3:0.0625 4:0.4375 5:0.4375 6:0.5 7:0.3125 8:0.375 9:0.5 10:0.0625 11:0.1875 12:0.125 13:0.5 14:0.5 15:0.6875 
1.0 1:0.8125 2:0.9375 3:0.9375 4:0.625 5:1.0 6:0.5 7:0.5 8:0.6875 9:0.75 10:0.6875 11:0.3125 12:0.75 13:0.375 14:0.5 15:0.5625 
-0.39700141970129316 1:0.375 2:0.5625 3:0.0 4:0.875 5:0.375 6:0.6875 7:0.3125 8:0.6875 9:0.5625 10:0.3125 11:1.0 12:0.4375 13:1.0 14:0.4375 15:0.3125 
0.595511056533716 1:0.625 2:0.8125 3:0.5625 4:0.75 5:0.9375 6:0.5625 7:0.1875 8:0.3125 9:0.5 10:0.25 11:0.25 12:0.0 13:0.75 14:0.9375 15:0.5 
-0.5683383155323151 1:0.625 2:0.8125 3:0.875 4:0.5 5:0.75 6:0.3125 7:1.0 8:0.3125 9:0.8125 10:0.875 11:0.0625 12:0.5 13:0.0625 14:0.375 15:1.0 
0.1824864361278996 1:0.5 2:0.6875 3:0.8125 4:0.4375 5:0.875 6:0.5 7:0.875 8:0.0625 9:0.8125 10:0.6875 11:0.3125 12:0.625 13:0.3125 14:0.3125 15:0.9375 
-0.2002546534549897 1:0.0 2:0.1875 3:0.625 4:0.3125 5:0.3125 6:0.375 7:1.0 8:0.5 9:0.75 10:0.75 11:0.75 12:0.75 13:0.1875 14:0.5 15:0.4375 
0.7542732943377274 1:0.5 2:0.9375 3:0.8125 4:0.75 5:0.8125 6:0.9375 7:0.625 8:0.625 9:0.6875 10:0.5 11:0.6875 12:0.375 13:0.6875 14:0.0625 15:0.375 
0.07733577826748426 1:0.3125 2:0.4375 3:0.3125 4:0.0 5:0.375 6:0.625 7:0.875 8:0.25 9:0.5625 10:0.1875 11:0.25 12:0.5 13:0.125 14:0.375 15:0.875 
-0.09933105863219072 1:0.4375 2:0.125 3:0.5 4:0.3125 5:0.5625 6:0.5 7:0.75 8:0.0 9:0.6875 10:0.625 11:0.4375 12:0.6875 13:0.3125 14:0.1875 15:1.0 
0.1821748526908848 1:0.5 2:0.375 3:0.875 4:0.375 5:0.3125 6:0.0 7:0.75 8:0.1875 9:0.4375 10:1.0 11:0.25 12:0.5 13:0.0625 14:0.125 15:0.8125 
1.0 1:0.5 2:0.9375 3:0.5 4:0.75 5:0.625 6:0.5 7:0.3125 8:0.375 9:0.5625 10:0.3125 11:0.625 12:0.5 13:0.8125 14:0.6875 15:0.5 
-0.5514122327170153 1:0.75 2:0.9375 3:0.875 4:0.5 5:1.0 6:0.375 7:0.625 8:0.5625 9:0.5625 10:0.625 11:0.625 12:0.625 13:0.0 14:0.5 15:0.625 
0.7952113247071247 1:0.625 2:0.6875 3:0.625 4:0.75 5:0.375 6:0.5625 7:0.75 8:0.5625 9:0.375 10:1.0 11:0.75 12:0.0625 13:0.25 14:0.1875 15:0.1875 
0.15519466572109827 1:0.3125 2:0.3125 3:0.375 4:0.4375 5:0.125 6:0.5625 7:0.4375 8:0.5 9:0.0 10:0.3125 11:0.25 12:0.125 13:0.6875 14:0.0 15:0.25 
-0.057706351972047 1:0.5 2:0.5625 3:0.5 4:0.9375 5:0.6875 6:0.375 7:0.875 8:0.625 9:0.6875 10:0.6875 11:1.0 12:0.8125 13:0.5625 14:0.4375 15:0.3125 
-0.02597062137433613 1:0.4375 2:0.375 3:0.1875 4:0.9375 5:0.75 6:0.75 7:0.4375 8:0.8125 9:0.8125 10:0.5 11:0.8125 12:0.6875 13:0.6875 14:0.8125 15:0.6875 
-0.009778953131866561 1:0.9375 2:0.5625 3:0.0625 4:0.4375 5:0.375 6:0.5 7:0.3125 8:0.1875 9:0.375 10:0.1875 11:0.25 12:0.125 13:0.5 14:0.75 15:0.4375 
0.09470385074692325 1:0.125 2:0.0625 3:0.5 4:0.1875 5:0.3125 6:0.375 7:0.625 8:0.4375 9:0.0 10:0.75 11:0.5 12:0.125 13:0.25 14:0.25 15:0.0 
-0.35751714633688403 1:0.5 2:0.6875 3:0.75 4:0.8125 5:0.9375 6:0.75 7:1.0 8:0.6875 9:0.9375 10:0.9375 11:0.8125 12:0.6875 13:0.125 14:0.5 15:0.6875 
0.7976511310677332 1:0.8125 2:0.5625 3:0.5 4:0.375 5:0.4375 6:0.375 7:0.375 8:0.0 9:0.25 10:0.75 11:0.4375 12:0.25 13:0.1875 14:0.25 15:0.1875 
-1.0 1:0.75 2:0.875 3:0.875 4:0.875 5:0.9375 6:0.5625 7:0.5625 8:0.5625 9:0.5 10:0.5 11:0.375 12:0.375 13:0.625 14:0.5 15:0.875 
0.7617730957581 1:0.5625 2:0.75 3:0.625 4:0.625 5:0.5 6:0.4375 7:0.6875 8:0.6875 9:0.4375 10:0.5625 11:0.6875 12:0.3125 13:0.9375 14:0.125 15:0.1875 
-0.060372255832643065 1:0.125 2:0.625 3:0.5 4:0.3125 5:0.125 6:1.0 7:0.5625 8:1.0 9:0.6875 10:0.125 11:0.5 12:0.0 13:0.5 14:0.5 15:0.25 
0.9872433938447037 1:0.875 2:0.75 3:0.625 4:0.875 5:0.5625 6:0.1875 7:0.125 8:0.25 9:0.3125 10:0.3125 11:0.5 12:0.5 13:0.5 14:1.0 15:0.75 
-0.15147217628151302 1:0.5625 2:1.0 3:0.0625 4:0.1875 5:0.4375 6:0.5625 7:0.1875 8:0.5 9:0.0 10:0.0625 11:0.375 12:0.25 13:0.625 14:0.6875 15:0.5 
0.0547011592296635 1:0.4375 2:0.375 3:0.25 4:0.125 5:0.5 6:0.125 7:0.8125 8:0.0625 9:0.875 10:0.8125 11:0.4375 12:0.875 13:0.1875 14:0.5 15:1.0 
-0.43824040536428016 1:0.9375 2:0.5 3:0.1875 4:0.6875 5:0.5625 6:0.125 7:0.0625 8:0.375 9:0.0625 10:0.125 11:0.3125 12:0.375 13:0.625 14:0.6875 15:0.3125 
-1.0 1:0.25 2:0.5 3:0.125 4:0.5 5:0.5 6:0.875 7:0.75 8:0.625 9:0.875 10:0.25 11:0.0625 12:0.3125 13:0.4375 14:0.5625 15:0.5 
-0.05901134503635092 1:1.0 2:0.25 3:1.0 4:0.5625 5:0.9375 6:0.0625 7:0.75 8:0.5 9:1.0 10:0.9375 11:0.5 12:1.0 13:0.0 14:0.4375 15:0.8125 
0.4584012873007924 1:0.5625 2:0.8125 3:0.5625 4:0.625 5:0.5625 6:0.5625 7:0.625 8:0.9375 9:0.3125 10:0.4375 11:0.5 12:0.4375 13:0.5 14:0.5 15:0.25 
0.24449202011924903 1:0.0 2:0.5625 3:0.625 4:0.5 5:0.4375 6:0.9375 7:1.0 8:0.5 9:1.0 10:0.5625 11:0.0625 12:0.3125 13:0.125 14:0.125 15:0.5 
-0.09541908991049824 1:0.25 2:0.1875 3:0.1875 4:0.125 5:0.0 6:0.1875 7:0.6875 8:0.25 9:0.625 10:0.875 11:0.4375 12:0.5625 13:0.375 14:0.1875 15:0.625 
0.35966736188792975 1:0.75 2:0.5 3:0.9375 4:0.5625 5:0.1875 6:0.125 7:0.5 8:0.375 9:0.25 10:0.8125 11:0.9375 12:0.375 13:0.5 14:0.3125 15:0.0 
-0.1022326873586633 1:0.0625 2:0.0 3:0.25 4:0.4375 5:0.0625 6:0.4375 7:0.6875 8:0.875 9:0.625 10:0.4375 11:0.75 12:0.5625 13:0.6875 14:0.1875 15:0.0 
-0.7044980461468328 1:0.375 2:0.5 3:0.625 4:0.875 5:0.5 6:0.25 7:0.875 8:0.875 9:0.875 10:0.8125 11:0.6875 12:1.0 13:0.4375 14:0.5 15:0.5 
-1.0 1:0.4375 2:0.75 3:1.0 4:0.5 5:0.6875 6:0.8125 7:0.625 8:0.5625 9:0.5 10:0.4375 11:0.5 12:0.1875 13:0.3125 14:0.125 15:0.1875 
-0.8256701932722353 1:0.5625 2:0.75 3:0.4375 4:0.5 5:0.875 6:0.625 7:0.25 8:0.6875 9:0.5 10:0.375 11:0.5 12:0.8125 13:0.75 14:0.6875 15:0.5 
-0.04671109382909553 1:0.5 2:0.4375 3:0.25 4:0.25 5:0.4375 6:0.5625 7:0.3125 8:0.5 9:0.5 10:0.0 11:0.375 12:0.4375 13:0.9375 14:0.5 15:0.625 
0.5117996580473976 1:0.9375 2:0.8125 3:0.5 4:0.5625 5:0.5 6:0.5 7:0.125 8:0.0625 9:0.4375 10:0.5 11:0.1875 12:0.3125 13:0.5 14:0.25 15:0.6875 
-0.4310388496051668 1:0.375 2:0.5 3:0.8125 4:0.5 5:0.6875 6:0.625 7:0.875 8:1.0 9:0.9375 10:0.5 11:0.6875 12:0.5 13:0.5625 14:0.5 15:0.25 
-0.424125323898434 1:0.375 2:0.5 3:0.3125 4:0.0 5:0.1875 6:0.75 7:0.5625 8:0.5 9:0.4375 10:0.125 11:0.1875 12:0.125 13:0.4375 14:0.75 15:0.6875 
-0.15163252924640153 1:0.3125 2:0.8125 3:0.9375 4:0.5 5:0.4375 6:1.0 7:0.625 8:0.75 9:0.5625 10:0.8125 11:0.4375 12:0.125 13:0.25 14:0.0625 15:0.375 
-0.37229924645547535 1:0.5 2:0.0625 3:0.1875 4:0.5 5:0.5 6:0.3125 7:0.1875 8:0.625 9:0.0625 10:0.25 11:0.875 12:0.4375 13:0.9375 14:1.0 15:0.0625 
-0.17272482647570186 1:0.625 2:0.1875 3:0.3125 4:0.25 5:0.375 6:0.0 7:0.0 8:0.3125 9:0.1875 10:0.9375 11:0.5 12:0.8125 13:0.1875 14:0.3125 15:0.8125 
0.40171500418304684 1:0.625 2:0.8125 3:0.6875 4:0.5625 5:0.25 6:0.875 7:0.5 8:0.0625 9:0.125 10:0.375 11:0.1875 12:0.3125 13:0.3125 14:0.125 15:0.5 
-0.8307339691740071 1:0.1875 2:0.5 3:0.1875 4:0.5 5:0.5 6:0.9375 7:1.0 8:0.6875 9:0.6875 10:0.5 11:0.875 12:0.5 13:0.9375 14:0.625 15:0.5 
0.20024981726267835 1:0.1875 2:0.4375 3:0.125 4:0.75 5:0.4375 6:0.625 7:0.375 8:0.9375 9:1.0 10:0.1875 11:1.0 12:0.1875 13:1.0 14:0.625 15:0.25 
-0.6034430775732553 1:0.5 2:1.0 3:0.3125 4:0.4375 5:0.5 6:0.5 7:0.375 8:0.0625 9:0.125 10:0.25 11:0.3125 12:0.4375 13:0.6875 14:0.5625 15:0.75 
0.038671143727539325 1:0.5 2:0.5 3:0.5 4:0.1875 5:0.375 6:0.625 7:0.5625 8:0.125 9:0.3125 10:0.625 11:0.375 12:0.1875 13:0.0 14:0.4375 15:0.3125 
-0.05402131935181191 1:1.0 2:0.6875 3:0.6875 4:0.4375 5:1.0 6:0.375 7:0.0 8:0.1875 9:0.25 10:0.5625 11:0.25 12:0.875 13:0.0 14:0.625 15:0.625 
0.25643285381746767 1:0.9375 2:0.0 3:0.0625 4:0.625 5:0.5625 6:0.125 7:0.0 8:0.25 9:0.125 10:0.25 11:0.8125 12:0.5 13:0.8125 14:0.75 15:0.3125 
1.0 1:0.5 2:0.75 3:0.6875 4:1.0 5:0.75 6:0.3125 7:1.0 8:0.75 9:1.0 10:0.6875 11:0.8125 12:0.8125 13:0.4375 14:0.5 15:0.6875 
0.1334629918202131 1:0.75 2:0.6875 3:0.5 4:0.4375 5:1.0 6:0.1875 7:0.3125 8:0.0 9:0.5625 10:0.5 11:0.5 12:0.5625 13:0.125 14:0.5625 15:0.8125 
-0.11863685959762774 1:0.8125 2:0.4375 3:0.5 4:0.6875 5:0.8125 6:0.125 7:0.3125 8:0.6875 9:0.5625 10:0.6875 11:0.9375 12:0.9375 13:0.5 14:0.6875 15:0.875 
-0.5502674004057135 1:0.5 2:0.0 3:0.125 4:0.0625 5:0.125 6:0.25 7:0.125 8:0.375 9:0.5625 10:0.75 11:0.75 12:1.0 13:0.5 14:0.5 15:0.5 
-0.37568382659191135 1:0.25 2:0.625 3:0.875 4:0.9375 5:0.75 6:0.5625 7:0.8125 8:0.9375 9:0.9375 10:0.5 11:0.625 12:0.875 13:0.5625 14:0.4375 15:0.1875 
0.2754161595341924 1:0.5 2:1.0 3:0.8125 4:0.5625 5:0.3125 6:0.625 7:0.625 8:0.3125 9:0.375 10:0.4375 11:0.0 12:0.1875 13:0.3125 14:0.4375 15:0.5 
0.3902107664648574 1:0.5625 2:0.625 3:0.5625 4:0.875 5:0.75 6:0.75 7:0.1875 8:0.6875 9:0.6875 10:0.3125 11:0.875 12:0.625 13:0.75 14:0.9375 15:0.5 
-0.039775483713760405 1:1.0 2:0.375 3:0.75 4:0.875 5:1.0 6:0.125 7:0.5 8:0.0 9:0.375 10:0.625 11:0.5625 12:1.0 13:0.3125 14:0.375 15:0.5625 
0.5712590683615675 1:0.5 2:0.6875 3:0.5625 4:0.8125 5:0.25 6:0.625 7:0.5625 8:0.75 9:0.25 10:0.25 11:0.3125 12:0.0 13:0.5625 14:0.0625 15:0.3125 
0.16709937966353272 1:0.5625 2:0.3125 3:0.5 4:0.75 5:0.3125 6:0.0 7:0.4375 8:0.5625 9:0.0625 10:0.5625 11:0.5625 12:0.5 13:0.75 14:0.5 15:0.25 
-0.026027326340098654 1:0.25 2:0.5625 3:0.375 4:0.1875 5:0.0625 6:0.875 7:1.0 8:0.4375 9:0.875 10:0.0625 11:0.0625 12:0.125 13:0.1875 14:0.375 15:0.5 
0.07000257578300355 1:0.75 2:0.5 3:0.3125 4:0.625 5:0.1875 6:0.0 7:0.0 8:0.0 9:0.125 10:0.5 11:0.5 12:0.25 13:0.625 14:0.125 15:0.125 
-0.36426912666378924 1:0.5 2:0.4375 3:0.5 4:0.625 5:0.5625 6:0.625 7:0.5 8:0.625 9:0.5625 10:0.6875 11:0.6875 12:0.8125 13:0.5625 14:0.25 15:0.4375 
0.3139703523537165 1:0.5 2:0.875 3:0.6875 4:0.25 5:0.4375 6:0.75 7:0.3125 8:0.125 9:0.25 10:0.0 11:0.1875 12:0.0 13:0.375 14:0.4375 15:0.3125 
-0.16657627782456264 1:0.375 2:0.0625 3:0.5625 4:0.1875 5:0.0625 6:0.3125 7:0.5 8:0.0625 9:0.0625 10:0.75 11:0.8125 12:0.5625 13:0.1875 14:0.0 15:0.625 
0.08987003533793066 1:0.6875 2:0.1875 3:0.0625 4:0.0625 5:0.5 6:0.0625 7:0.25 8:0.0625 9:0.125 10:0.6875 11:0.625 12:0.9375 13:0.6875 14:0.875 15:0.8125 
-0.12560286982604546 1:0.375 2:0.125 3:0.375 4:0.125 5:0.375 6:0.0625 7:0.6875 8:0.1875 9:0.0 10:0.6875 11:0.5 12:0.5 13:0.25 14:0.0 15:0.4375 
1.0 1:0.5 2:0.1875 3:0.25 4:0.5625 5:0.0625 6:0.25 7:0.25 8:0.8125 9:0.1875 10:0.3125 11:0.75 12:0.5 13:0.6875 14:0.375 15:0.0625 
-1.0 1:0.375 2:0.25 3:0.5 4:0.5625 5:0.1875 6:0.3125 7:0.75 8:0.8125 9:0.25 10:0.6875 11:0.5 12:0.5 13:0.375 14:0.125 15:0.3125 
-0.7083158285856611 1:0.375 2:0.5625 3:0.9375 4:0.75 5:0.6875 6:0.4375 7:0.9375 8:0.8125 9:0.9375 10:0.875 11:0.75 12:0.4375 13:0.3125 14:0.25 15:0.3125 
-0.23497365964097908 1:0.4375 2:0.5 3:0.6875 4:0.4375 5:0.3125 6:0.5 7:1.0 8:0.5 9:0.5 10:1.0 11:0.8125 12:0.0 13:0.375 14:0.125 15:0.125 
0.10208818480039654 1:0.75 2:0.75 3:0.875 4:0.9375 5:0.25 6:0.6875 7:0.625 8:0.5 9:0.3125 10:0.5625 11:0.0625 12:0.0 13:0.3125 14:0.0625 15:0.3125 
-0.47329341108338857 1:1.0 2:0.875 3:0.4375 4:0.5625 5:0.5 6:0.6875 7:0.1875 8:0.4375 9:0.375 10:0.0 11:0.25 12:0.25 13:0.4375 14:0.5625 15:0.125 
0.12890390080612732 1:0.3125 2:0.5625 3:0.375 4:0.625 5:0.5625 6:0.9375 7:0.5 8:0.5625 9:0.9375 10:0.125 11:0.0625 12:0.5 13:1.0 14:0.6875 15:0.6875 
0.25675030581117647 1:0.4375 2:0.5 3:0.5 4:0.5 5:0.5 6:0.875 7:0.9375 8:0.6875 9:0.875 10:0.4375 11:0.4375 12:0.25 13:0.125 14:0.4375 15:0.3125 
0.5262040851795615 1:0.625 2:0.625 3:0.0625 4:0.1875 5:0.0625 6:0.4375 7:0.25 8:0.3125 9:0.125 10:0.125 11:0.375 12:0.375 13:0.75 14:0.8125 15:0.5 
0.3733460157514365 1:0.5 2:0.875 3:0.9375 4:0.9375 5:1.0 6:0.9375 7:0.875 8:0.875 9:0.5625 10:0.1875 11:0.25 12:0.25 13:0.625 14:0.4375 15:0.375 
0.07523965539439016 1:0.375 2:0.75 3:1.0 4:0.375 5:0.8125 6:0.875 7:0.875 8:0.5 9:0.8125 10:0.5 11:0.5 12:0.8125 13:0.0625 14:0.6875 15:0.6875 
0.8702753066651387 1:0.125 2:0.5625 3:0.4375 4:0.4375 5:0.6875 6:0.75 7:0.75 8:0.625 9:0.8125 10:0.5625 11:0.1875 12:0.5 13:0.25 14:0.8125 15:0.6875 
0.06372089472738321 1:0.875 2:0.75 3:0.3125 4:0.625 5:0.0625 6:0.8125 7:0.4375 8:0.5 9:0.25 10:0.125 11:0.0625 12:0.125 13:0.5625 14:0.375 15:0.0625 
-0.7357100480351635 1:0.8125 2:0.6875 3:0.5 4:0.125 5:0.5 6:0.3125 7:0.1875 8:0.375 9:0.25 10:0.4375 11:0.1875 12:0.1875 13:0.375 14:0.375 15:0.625 
0.04463238908976816 1:0.875 2:0.5625 3:0.9375 4:0.8125 5:0.4375 6:0.5625 7:0.5 8:0.5 9:0.125 10:0.9375 11:0.5 12:0.0625 13:0.375 14:0.1875 15:0.4375 
0.2060909218256627 1:0.625 2:0.375 3:0.6875 4:0.5625 5:0.4375 6:0.0 7:0.625 8:0.125 9:0.3125 10:1.0 11:0.6875 12:0.875 13:0.0 14:0.0 15:0.5625 
1.0 1:0.6875 2:0.75 3:0.8125 4:0.75 5:0.75 6:0.5 7:0.625 8:0.375 9:0.3125 10:0.375 11:0.25 12:0.5 13:0.0 14:0.375 15:0.625 
-0.7754681375847085 1:0.75 2:0.6875 3:0.375 4:0.625 5:0.625 6:0.125 7:0.0625 8:0.4375 9:0.125 10:0.375 11:0.625 12:0.375 13:0.8125 14:0.5625 15:0.625 
-1.0 1:0.5 2:0.625 3:0.875 4:0.5 5:0.75 6:0.4375 7:0.4375 8:0.0 9:0.4375 10:0.25 11:0.125 12:0.5 13:0.375 14:0.625 15:0.9375 
-0.5761334467288575 1:0.1875 2:0.375 3:0.5 4:0.1875 5:0.625 6:1.0 7:0.6875 8:0.9375 9:0.875 10:0.375 11:0.5 12:0.875 13:0.3125 14:0.875 15:0.9375 
0.16262728263663703 1:0.375 2:0.1875 3:0.25 4:0.125 5:0.5 6:0.5625 7:0.5 8:0.6875 9:0.875 10:0.4375 11:0.9375 12:0.875 13:0.8125 14:0.8125 15:0.9375 
-0.4656198005624796 1:0.4375 2:0.1875 3:0.0 4:0.0625 5:0.375 6:0.4375 7:0.25 8:0.75 9:0.4375 10:0.0625 11:0.5625 12:0.6875 13:0.6875 14:0.8125 15:0.5 
0.22397276497428853 1:0.75 2:0.5 3:0.5625 4:0.5 5:0.375 6:0.0 7:0.375 8:0.0625 9:0.25 10:0.375 11:0.375 12:0.4375 13:0.4375 14:0.25 15:0.8125 
-0.19292404844117828 1:0.875 2:0.5625 3:0.875 4:0.875 5:1.0 6:0.4375 7:0.75 8:0.5625 9:0.5 10:0.75 11:0.5 12:0.5625 13:0.25 14:0.375 15:0.25 
-0.03719570640804248 1:0.375 2:0.25 3:0.5 4:0.0 5:0.25 6:0.5 7:0.5 8:0.5 9:0.4375 10:0.8125 11:0.25 12:0.5625 13:0.3125 14:0.5625 15:1.0 
-0.24229512216538945 1:0.8125 2:0.75 3:0.9375 4:0.25 5:0.25 6:0.5 7:0.5 8:0.3125 9:0.0625 10:0.625 11:0.4375 12:0.1875 13:0.375 14:0.125 15:0.3125 
0.21450113813818447 1:0.3125 2:0.25 3:0.0625 4:0.5 5:0.5 6:0.125 7:0.3125 8:0.3125 9:0.8125 10:0.8125 11:0.5625 12:0.8125 13:0.5 14:1.0 15:0.875 
0.2593812917797826 1:0.0 2:0.4375 3:0.0 4:0.5 5:0.25 6:0.6875 7:1.0 8:0.9375 9:0.375 10:0.5 11:0.5625 12:0.0625 13:0.5625 14:0.125 15:0.4375 
-0.5958682865581543 1:0.25 2:0.4375 3:0.25 4:0.5 5:0.0 6:0.5 7:0.5 8:0.5625 9:0.5 10:0.0 11:0.4375 12:0.4375 13:0.6875 14:0.5 15:0.5 
0.20154351953611857 1:0.1875 2:0.3125 3:0.375 4:0.5 5:0.125 6:0.75 7:0.875 8:0.8125 9:0.8125 10:0.5 11:0.5 12:0.5 13:0.4375 14:0.5 15:0.3125 
0.4325564828101974 1:0.1875 2:0.0 3:0.25 4:0.0 5:0.4375 6:0.5 7:0.5625 8:0.75 9:0.625 10:0.6875 11:0.625 12:0.9375 13:0.5625 14:0.625 15:0.875 
0.07010549558645102 1:1.0 2:0.5625 3:0.6875 4:0.8125 5:0.75 6:0.5 7:0.6875 8:0.625 9:0.8125 10:1.0 11:0.5 12:1.0 13:0.25 14:0.5625 15:0.5625 
-0.6579603066188826 1:0.0 2:0.0 3:0.3125 4:0.125 5:0.4375 6:0.5 7:0.6875 8:0.3125 9:0.6875 10:0.75 11:0.6875 12:0.6875 13:0.3125 14:0.8125 15:0.6875 
-0.5072153084466737 1:0.9375 2:0.875 3:0.875 4:1.0 5:0.625 6:0.75 7:0.4375 8:0.4375 9:0.5 10:0.25 11:0.5 12:0.5 13:0.625 14:1.0 15:0.5 
0.07928310100570156 1:0.1875 2:0.375 3:0.1875 4:0.0625 5:0.125 6:0.9375 7:0.8125 8:0.3125 9:0.1875 10:0.25 11:0.1875 12:0.0 13:0.125 14:0.0625 15:0.5625 
-0.40775322995425495 1:0.5625 2:0.6875 3:0.5 4:0.75 5:0.625 6:0.25 7:0.4375 8:0.375 9:0.3125 10:0.5625 11:0.5 12:0.6875 13:0.5 14:0.9375 15:0.5625 
-0.08828885341861173 1:0.8125 2:0.5 3:0.875 4:0.5 5:0.1875 6:0.4375 7:0.125 8:0.4375 9:0.125 10:0.5 11:0.4375 12:0.0625 13:0.5 14:0.125 15:0.0 
0.4529630412679261 1:0.0625 2:0.4375 3:0.3125 4:0.4375 5:0.3125 6:0.4375 7:0.5 8:0.625 9:0.6875 10:0.5 11:0.5 12:0.5625 13:0.625 14:1.0 15:0.75 
-0.479332580782218 1:0.625 2:0.8125 3:0.5 4:0.375 5:0.8125 6:0.6875 7:0.5 8:0.6875 9:0.8125 10:0.375 11:0.1875 12:0.5625 13:0.5 14:0.875 15:0.6875 
-0.16048695312688824 1:0.8125 2:0.6875 3:0.625 4:0.4375 5:0.75 6:0.625 7:0.25 8:0.0625 9:0.1875 10:0.0625 11:0.1875 12:0.25 13:0.0 14:0.3125 15:0.6875 
1.0 1:0.125 2:0.125 3:0.125 4:0.0625 5:0.5 6:0.3125 7:0.25 8:0.3125 9:0.75 10:0.5 11:0.6875 12:0.875 13:0.75 14:0.75 15:0.5625 
0.26638415135047155 1:0.3125 2:0.3125 3:0.625 4:0.25 5:0.125 6:0.625 7:1.0 8:0.625 9:0.5625 10:0.8125 11:0.625 12:0.25 13:0.125 14:0.375 15:0.5625 
0.13939443512813368 1:0.875 2:0.625 3:0.625 4:0.5 5:0.6875 6:0.5 7:0.4375 8:0.0625 9:0.375 10:0.375 11:0.3125 12:0.0625 13:0.1875 14:0.5625 15:1.0 
-0.8456207530319839 1:0.5 2:1.0 3:0.6875 4:0.9375 5:0.625 6:0.5625 7:0.5 8:0.4375 9:0.5 10:0.0 11:0.375 12:0.0 13:0.625 14:0.5 15:0.5 
0.5236842506029808 1:0.9375 2:0.75 3:0.625 4:0.625 5:0.5 6:0.5 7:0.25 8:0.5625 9:0.1875 10:0.0625 11:0.1875 12:0.4375 13:0.75 14:0.5 15:0.0625 
-0.5102478948112311 1:0.8125 2:0.75 3:0.8125 4:0.5625 5:0.5 6:1.0 7:0.875 8:0.6875 9:0.5625 10:0.25 11:0.0625 12:0.3125 13:0.5 14:0.25 15:0.5 
0.20195301737082708 1:0.125 2:0.25 3:0.375 4:0.375 5:0.4375 6:0.875 7:0.6875 8:0.75 9:0.9375 10:0.4375 11:0.5625 12:0.625 13:1.0 14:0.9375 15:0.75 
1.0 1:0.5 2:0.5625 3:0.625 4:0.5625 5:0.5625 6:0.9375 7:0.6875 8:1.0 9:0.75 10:0.3125 11:0.625 12:0.4375 13:0.9375 14:0.3125 15:0.375 
-0.32105909359603757 1:0.25 2:0.25 3:0.125 4:0.0 5:0.0625 6:0.375 7:0.5 8:0.25 9:0.4375 10:0.4375 11:0.125 12:0.375 13:0.0625 14:0.1875 15:0.5625 
-1.0 1:0.5 2:0.25 3:0.4375 4:1.0 5:0.625 6:0.25 7:0.1875 8:0.4375 9:0.5 10:0.5625 11:0.625 12:0.6875 13:0.625 14:1.0 15:0.375 
-0.12763865654787926 1:0.1875 2:0.3125 3:0.1875 4:0.5 5:0.625 6:0.5 7:0.4375 8:0.9375 9:0.9375 10:0.9375 11:0.75 12:0.8125 13:0.6875 14:0.75 15:0.75 
0.371839187710504 1:0.625 2:0.6875 3:0.5 4:0.625 5:0.875 6:0.3125 7:0.4375 8:0.4375 9:0.5 10:0.3125 11:0.5 12:1.0 13:0.6875 14:0.875 15:1.0 
0.6754738964607827 1:0.75 2:1.0 3:0.9375 4:1.0 5:0.625 6:0.4375 7:0.1875 8:0.5625 9:0.3125 10:0.5 11:0.5 12:0.0625 13:0.8125 14:0.5 15:0.375 
0.9499734347339637 1:0.75 2:0.8125 3:1.0 4:0.5625 5:0.5625 6:0.5 7:0.625 8:0.5 9:0.375 10:0.625 11:0.625 12:0.0 13:0.375 14:0.0625 15:0.5 
-1.0 1:1.0 2:0.5 3:0.5 4:0.375 5:0.8125 6:0.0625 7:0.1875 8:0.0625 9:0.6875 10:0.25 11:0.625 12:0.75 13:0.5 14:0.8125 15:0.8125 
-0.8003941055606474 1:0.125 2:0.0625 3:0.25 4:0.3125 5:0.5625 6:0.4375 7:0.0625 8:0.25 9:0.8125 10:0.5 11:0.625 12:0.75 13:1.0 14:0.9375 15:0.8125 
0.8161818177148592 1:0.5625 2:0.625 3:0.625 4:0.625 5:0.5 6:1.0 7:0.75 8:0.8125 9:0.625 10:0.0625 11:0.375 12:0.0625 13:0.5 14:0.4375 15:0.625 
0.6609895278506225 1:0.0625 2:0.0 3:0.1875 4:0.375 5:0.25 6:0.5625 7:0.0 8:0.25 9:0.4375 10:0.0625 11:0.5 12:0.5 13:0.5625 14:0.625 15:0.4375 
-0.4055104721024323 1:0.3125 2:0.0625 3:0.5625 4:0.5 5:0.875 6:0.6875 7:0.6875 8:0.5 9:0.6875 10:0.875 11:0.5 12:0.9375 13:0.4375 14:0.5 15:0.875 
0.18409879774941496 1:0.5 2:0.3125 3:0.0 4:0.875 5:0.25 6:0.125 7:0.375 8:0.9375 9:0.0625 10:0.375 11:0.6875 12:0.0 13:1.0 14:0.4375 15:0.0625 
-0.25499482493673564 1:1.0 2:0.5 3:0.1875 4:0.3125 5:0.5625 6:0.125 7:0.0 8:0.0625 9:0.3125 10:0.1875 11:0.1875 12:0.625 13:0.3125 14:0.9375 15:0.9375 
1.0 1:0.8125 2:0.75 3:0.4375 4:0.5625 5:0.625 6:0.125 7:0.25 8:0.5 9:0.5 10:0.1875 11:0.6875 12:0.375 13:0.8125 14:0.6875 15:0.375 
-0.3281968510021582 1:0.0 2:0.5 3:0.4375 4:0.0 5:0.9375 6:0.625 7:0.5 8:0.5 9:0.8125 10:0.5625 11:0.4375 12:0.625 13:0.0 14:0.6875 15:0.8125 
-0.2980376210156417 1:0.1875 2:0.0 3:0.25 4:0.0 5:0.25 6:0.375 7:1.0 8:0.5 9:0.4375 10:0.5625 11:0.625 12:0.4375 13:0.0 14:0.125 15:0.5 
0.7133715419683473 1:0.5 2:0.5 3:0.625 4:0.375 5:0.625 6:0.375 7:0.8125 8:0.1875 9:0.3125 10:0.875 11:0.4375 12:0.75 13:0.3125 14:0.125 15:1.0 
-0.040836797745937604 1:0.4375 2:0.375 3:0.4375 4:0.375 5:0.375 6:0.5 7:0.6875 8:0.8125 9:0.875 10:0.875 11:0.4375 12:0.5 13:0.5 14:0.4375 15:0.5 
0.7170396662597266 1:0.625 2:0.625 3:0.9375 4:0.6875 5:0.9375 6:0.625 7:0.625 8:0.875 9:0.625 10:0.375 11:0.5 12:0.1875 13:0.5 14:0.5 15:0.0 
0.3841151692942268 1:0.625 2:0.3125 3:0.3125 4:0.625 5:0.8125 6:0.1875 7:0.1875 8:0.125 9:0.625 10:0.5 11:0.4375 12:0.625 13:0.625 14:0.6875 15:0.75 
-0.14448266654552236 1:0.5625 2:0.375 3:0.375 4:0.8125 5:0.4375 6:0.0625 7:0.5 8:0.5 9:0.375 10:1.0 11:0.6875 12:0.6875 13:0.75 14:0.625 15:0.5 
0.5097015288700252 1:0.6875 2:0.625 3:1.0 4:0.75 5:0.875 6:0.5 7:0.4375 8:0.3125 9:0.5 10:0.25 11:0.125 12:0.4375 13:0.5625 14:0.6875 15:0.5 
0.8194151234773808 1:0.125 2:0.125 3:0.5 4:0.3125 5:0.75 6:0.5 7:0.8125 8:0.5 9:0.875 10:1.0 11:0.75 12:0.75 13:0.1875 14:0.75 15:0.875 
0.2972809891968332 1:0.125 2:0.875 3:0.1875 4:0.375 5:0.5625 6:1.0 7:0.9375 8:0.625 9:0.5625 10:0.0 11:0.0 12:0.375 13:0.5 14:0.5 15:0.5 
0.05507236828563498 1:0.375 2:0.5625 3:0.625 4:0.5 5:0.6875 6:0.625 7:0.625 8:1.0 9:0.9375 10:0.1875 11:0.125 12:0.4375 13:0.5 14:0.8125 15:1.0 
-0.15265829467718597 1:0.125 2:0.5 3:0.375 4:0.5 5:0.5 6:0.5625 7:0.5 8:0.5 9:1.0 10:0.25 11:0.6875 12:0.8125 13:0.5625 14:1.0 15:0.5 
0.270654677147463 1:0.6875 2:0.75 3:0.5625 4:1.0 5:0.6875 6:0.0 7:0.5 8:0.5625 9:0.375 10:0.625 11:1.0 12:0.6875 13:0.5 14:0.3125 15:0.5 
-0.09934545407122457 1:0.25 2:0.5 3:0.875 4:0.5625 5:0.75 6:1.0 7:0.9375 8:1.0 9:0.75 10:0.5 11:0.4375 12:0.5625 13:0.5 14:0.125 15:0.5 
-0.04929657301717615 1:0.4375 2:0.6875 3:0.5 4:0.125 5:0.3125 6:0.8125 7:1.0 8:0.375 9:0.5 10:0.4375 11:0.3125 12:0.0 13:0.125 14:0.375 15:0.9375 
-0.2140086730678924 1:0.8125 2:0.625 3:0.75 4:1.0 5:0.75 6:0.25 7:0.4375 8:0.4375 9:0.5 10:0.9375 11:0.4375 12:0.9375 13:0.0625 14:0.5 15:0.625 
0.951130266380149 1:0.8125 2:0.625 3:0.5 4:0.75 5:0.0625 6:0.4375 7:0.5 8:0.75 9:0.3125 10:0.5625 11:0.75 12:0.4375 13:0.6875 14:0.5 15:0.0625 
-0.7336384167144786 1:0.4375 2:0.9375 3:0.9375 4:0.9375 5:0.5625 6:0.5625 7:0.5 8:0.6875 9:0.4375 10:0.5 11:0.5 12:0.5625 13:0.625 14:0.4375 15:0.1875 
0.4328788052047431 1:0.875 2:0.625 3:1.0 4:1.0 5:0.625 6:0.5 7:0.1875 8:0.5 9:0.0625 10:0.375 11:0.5625 12:0.5 13:0.6875 14:0.375 15:0.125 
0.29239832458893317 1:0.5625 2:0.6875 3:0.625 4:0.625 5:0.9375 6:0.5 7:0.4375 8:0.5 9:0.5 10:0.125 11:0.5 12:0.9375 13:0.6875 14:0.6875 15:0.875 
-0.7798151662908523 1:0.4375 2:0.375 3:0.4375 4:0.5625 5:0.3125 6:0.9375 7:0.4375 8:0.5 9:0.375 10:0.125 11:0.5 12:0.0625 13:0.5625 14:0.0625 15:0.125 
0.1603985055650499 1:0.75 2:0.375 3:0.375 4:0.625 5:0.75 6:0.0625 7:0.0 8:0.6875 9:0.5625 10:0.8125 11:0.875 12:0.875 13:0.9375 14:0.75 15:0.25 
0.6685900785893378 1:0.3125 2:0.3125 3:0.3125 4:0.25 5:0.125 6:0.875 7:0.75 8:0.25 9:0.5 10:0.125 11:0.0625 12:0.0625 13:0.3125 14:0.375 15:0.5 
-0.6634601681844418 1:0.5 2:0.5625 3:0.5 4:0.9375 5:0.6875 6:0.6875 7:0.9375 8:0.9375 9:0.875 10:0.5 11:0.5625 12:0.5 13:0.625 14:0.625 15:0.75 
-1.0 1:0.5 2:0.9375 3:0.6875 4:0.5 5:0.4375 6:0.5 7:0.375 8:0.1875 9:0.4375 10:0.375 11:0.3125 12:0.0625 13:0.5 14:0.375 15:0.625 
-0.06429890559060907 1:0.0625 2:0.5 3:0.5 4:0.3125 5:0.1875 6:0.9375 7:0.625 8:0.375 9:0.6875 10:0.125 11:0.1875 12:0.0625 13:0.0 14:0.0 15:0.6875 
0.22936355137955672 1:0.5 2:0.5625 3:0.4375 4:0.5625 5:0.9375 6:0.5 7:0.0 8:1.0 9:0.75 10:0.1875 11:0.4375 12:0.5625 13:0.9375 14:1.0 15:0.9375 
0.02532141552445762 1:0.1875 2:0.1875 3:0.4375 4:0.3125 5:0.125 6:0.25 7:0.5 8:0.4375 9:0.3125 10:0.625 11:0.8125 12:0.75 13:0.75 14:0.375 15:0.3125 
-0.32227134162170545 1:0.5 2:0.5625 3:1.0 4:0.75 5:1.0 6:0.875 7:0.75 8:0.875 9:0.75 10:0.625 11:0.4375 12:0.75 13:0.0 14:0.25 15:0.5 
-0.03225079959831633 1:0.8125 2:0.6875 3:0.1875 4:0.3125 5:0.375 6:0.3125 7:0.1875 8:0.1875 9:0.25 10:0.25 11:0.0 12:0.375 13:0.125 14:0.5 15:0.75 
-0.36774535163458527 1:0.0625 2:0.25 3:0.1875 4:0.0 5:0.4375 6:0.375 7:0.25 8:0.25 9:0.5 10:0.5 11:0.125 12:1.0 13:0.375 14:0.625 15:0.8125 
-0.009910642420051123 1:0.625 2:1.0 3:0.9375 4:0.4375 5:0.5 6:0.5625 7:0.5 8:0.3125 9:0.0625 10:0.5625 11:0.1875 12:0.0 13:0.125 14:0.125 15:0.0625 
0.1266332952501791 1:0.5 2:0.8125 3:0.5 4:0.6875 5:0.8125 6:0.4375 7:0.375 8:0.1875 9:0.5 10:0.0 11:0.125 12:0.4375 13:0.5 14:0.75 15:0.875 
1.0 1:0.25 2:0.125 3:0.4375 4:0.25 5:0.125 6:0.25 7:0.8125 8:0.75 9:0.625 10:0.8125 11:0.625 12:0.75 13:0.125 14:0.1875 15:0.25 
0.29050226911310045 1:0.1875 2:0.75 3:0.25 4:0.5 5:0.5625 6:0.9375 7:0.625 8:1.0 9:1.0 10:0.4375 11:0.375 12:0.875 13:0.5 14:0.875 15:0.875 
0.8248287477829096 1:0.5 2:0.375 3:0.3125 4:0.6875 5:0.375 6:0.375 7:0.4375 8:0.5 9:0.0625 10:1.0 11:0.875 12:0.75 13:0.75 14:0.375 15:0.1875 
-0.05370214682302979 1:0.5 2:0.3125 3:0.0 4:0.6875 5:0.375 6:0.1875 7:0.375 8:0.875 9:0.375 10:0.25 11:0.875 12:0.125 13:1.0 14:0.5625 15:0.125 
-0.24260409523000925 1:0.5 2:0.375 3:0.0 4:0.1875 5:0.5625 6:0.6875 7:0.3125 8:0.0625 9:0.75 10:0.4375 11:0.125 12:0.9375 13:0.1875 14:0.875 15:0.875 
0.24451016805577092 1:0.5 2:0.5625 3:0.9375 4:0.9375 5:0.6875 6:0.3125 7:1.0 8:0.8125 9:0.5625 10:1.0 11:0.9375 12:0.5625 13:0.0 14:0.0625 15:0.375 
1.0 1:0.625 2:0.875 3:0.9375 4:0.6875 5:0.5 6:0.125 7:0.5 8:0.1875 9:0.0 10:0.625 11:0.375 12:0.0625 13:0.3125 14:0.3125 15:0.25 
-0.5309502108071786 1:0.5625 2:0.3125 3:0.375 4:0.125 5:0.5625 6:0.4375 7:0.3125 8:0.0625 9:0.4375 10:0.8125 11:0.0 12:0.9375 13:0.3125 14:0.5625 15:0.9375 
-0.14014169276063082 1:0.625 2:0.5 3:0.9375 4:0.4375 5:0.0 6:0.4375 7:0.5625 8:0.375 9:0.0 10:0.9375 11:0.5625 12:0.1875 13:0.1875 14:0.0625 15:0.5625 
0.04543849071167985 1:0.9375 2:0.625 3:0.875 4:0.875 5:0.9375 6:0.3125 7:0.4375 8:0.0 9:0.3125 10:0.5 11:0.375 12:0.8125 13:0.375 14:0.9375 15:0.6875 
-0.5445909545166824 1:0.4375 2:0.5 3:0.0 4:0.4375 5:0.125 6:0.75 7:0.375 8:0.0 9:0.25 10:0.375 11:0.0 12:0.0 13:0.5 14:0.5625 15:0.5 
0.20435938653498076 1:0.875 2:0.9375 3:0.5 4:1.0 5:0.8125 6:0.5 7:0.3125 8:0.5625 9:0.4375 10:0.0 11:1.0 12:0.5 13:0.8125 14:1.0 15:0.375 
-0.2521026886392725 1:0.375 2:0.375 3:0.625 4:0.0625 5:0.0 6:0.75 7:0.625 8:0.6875 9:0.5 10:0.5625 11:0.5 12:0.25 13:0.5 14:0.3125 15:0.5 
0.49059162890178426 1:0.125 2:0.5 3:0.0 4:0.75 5:0.5 6:0.6875 7:0.5625 8:0.75 9:0.5 10:0.0625 11:0.5 12:0.5 13:1.0 14:0.625 15:0.375 
-0.8656028245853468 1:0.5625 2:0.6875 3:0.6875 4:0.625 5:1.0 6:0.4375 7:0.6875 8:0.875 9:0.75 10:0.5 11:0.5 12:0.625 13:1.0 14:0.6875 15:0.5 
-0.23393743080123597 1:0.5625 2:0.4375 3:0.5 4:0.5625 5:0.4375 6:0.6875 7:0.6875 8:0.875 9:0.5 10:0.75 11:0.875 12:0.5 13:0.5 14:0.4375 15:0.1875 
-0.25856310788077713 1:0.125 2:0.3125 3:0.5 4:0.25 5:0.3125 6:0.875 7:1.0 8:0.875 9:0.625 10:0.6875 11:0.125 12:0.3125 13:0.0 14:0.25 15:0.6875 
-0.022519508299342145 1:0.3125 2:0.4375 3:0.8125 4:0.5 5:0.625 6:0.5625 7:0.8125 8:0.75 9:0.6875 10:0.5 11:0.4375 12:0.625 13:0.0 14:0.625 15:1.0 
-0.8597526347602774 1:0.6875 2:1.0 3:0.9375 4:0.75 5:0.375 6:0.1875 7:0.6875 8:0.25 9:0.125 10:0.8125 11:0.5625 12:0.125 13:0.25 14:0.1875 15:0.1875 
-0.014068985766701896 1:0.75 2:0.25 3:0.875 4:0.375 5:0.875 6:0.25 7:0.375 8:0.3125 9:0.4375 10:0.625 11:0.375 12:1.0 13:0.0625 14:0.5 15:0.8125 
0.3772835202001132 1:0.125 2:0.4375 3:0.5 4:0.375 5:0.1875 6:0.8125 7:0.875 8:1.0 9:0.5 10:0.4375 11:0.375 12:0.5 13:0.25 14:0.25 15:0.5 
1.0 1:0.375 2:0.75 3:0.9375 4:0.625 5:0.875 6:0.5 7:0.9375 8:1.0 9:0.5 10:0.9375 11:0.6875 12:0.5 13:0.4375 14:0.4375 15:0.375 
-0.39217701163644153 1:0.5 2:0.75 3:0.8125 4:0.75 5:0.9375 6:0.5 7:0.4375 8:0.5625 9:0.4375 10:0.4375 11:0.5625 12:0.1875 13:0.5625 14:0.5 15:0.0625 
-0.37254402656970237 1:0.4375 2:0.8125 3:0.5 4:0.3125 5:0.3125 6:0.8125 7:0.625 8:0.5625 9:0.25 10:0.375 11:0.25 12:0.25 13:0.125 14:0.125 15:0.25 
-0.16099487316645003 1:0.75 2:0.4375 3:0.75 4:0.9375 5:0.6875 6:0.25 7:0.4375 8:0.0625 9:0.25 10:0.625 11:0.75 12:0.625 13:0.375 14:0.0625 15:0.1875 
0.46432142653919867 1:0.5625 2:0.8125 3:0.6875 4:0.75 5:0.75 6:0.625 7:0.25 8:0.5 9:0.625 10:0.4375 11:0.5 12:0.6875 13:0.5625 14:0.625 15:0.5625 
0.10183715778670392 1:0.25 2:0.0 3:0.1875 4:0.1875 5:0.375 6:0.4375 7:0.1875 8:0.5 9:0.375 10:0.3125 11:0.625 12:0.375 13:0.5 14:0.625 15:0.1875 
0.023606744462759004 1:0.1875 2:0.5 3:0.0625 4:0.5625 5:0.0 6:0.625 7:0.75 8:0.625 9:0.5 10:0.1875 11:0.75 12:0.125 13:1.0 14:0.5625 15:0.0 
-0.1619124854337056 1:0.4375 2:0.5 3:0.5625 4:0.9375 5:0.75 6:0.25 7:0.9375 8:0.875 9:0.875 10:0.9375 11:0.75 12:0.9375 13:0.5 14:0.75 15:0.4375 
0.036057524791663215 1:0.9375 2:0.625 3:0.875 4:1.0 5:0.5625 6:0.3125 7:0.4375 8:0.5 9:0.6875 10:0.875 11:0.875 12:1.0 13:0.5625 14:0.5 15:0.625 
-0.4884237539170597 1:0.6875 2:0.0625 3:0.25 4:0.875 5:0.5625 6:0.4375 7:0.1875 8:0.8125 9:0.3125 10:0.5 11:0.9375 12:0.5625 13:0.9375 14:0.625 15:0.4375 
-0.590682070185848 1:0.8125 2:0.8125 3:0.5625 4:0.875 5:0.625 6:0.75 7:0.4375 8:0.5625 9:0.0625 10:0.3125 11:0.625 12:0.4375 13:0.5 14:0.4375 15:0.0 
-0.02459266410465588 1:0.5 2:0.6875 3:0.375 4:0.25 5:0.1875 6:0.8125 7:0.3125 8:0.5 9:0.3125 10:0.1875 11:0.0625 12:0.4375 13:0.5625 14:0.3125 15:0.4375 
-0.21101976850697915 1:0.8125 2:0.625 3:0.6875 4:0.6875 5:0.9375 6:0.625 7:0.4375 8:0.375 9:0.5 10:0.125 11:0.1875 12:0.4375 13:0.375 14:0.9375 15:0.5 
0.19149721332653796 1:0.3125 2:0.625 3:0.5625 4:1.0 5:0.875 6:0.6875 7:0.8125 8:1.0 9:0.9375 10:0.875 11:0.8125 12:0.6875 13:0.75 14:0.5625 15:0.375 
0.10981989002683087 1:0.125 2:0.0625 3:0.8125 4:0.5625 5:0.3125 6:0.5 7:0.5625 8:0.8125 9:0.25 10:0.875 11:0.625 12:0.3125 13:0.5 14:0.125 15:0.0625 
-0.7252154013199759 1:0.3125 2:0.3125 3:0.3125 4:0.4375 5:0.375 6:0.5 7:0.1875 8:0.25 9:0.375 10:0.0625 11:0.5 12:0.3125 13:0.6875 14:0.9375 15:0.625 
0.045926242332877044 1:0.875 2:0.8125 3:0.9375 4:0.8125 5:0.875 6:0.5 7:0.3125 8:0.3125 9:0.5 10:0.625 11:0.5 12:0.625 13:0.5 14:0.4375 15:0.6875 
0.5127987478127981 1:0.5 2:0.0 3:0.75 4:0.3125 5:0.625 6:0.3125 7:0.5625 8:0.4375 9:0.8125 10:0.5625 11:0.5 12:0.75 13:0.0625 14:0.4375 15:0.6875 
0.48816167575958985 1:0.3125 2:0.25 3:0.5 4:0.1875 5:0.25 6:0.25 7:0.4375 8:0.5 9:0.5 10:0.625 11:0.5625 12:0.3125 13:0.25 14:0.0625 15:0.5 
0.2355676621643339 1:0.25 2:0.1875 3:0.25 4:0.25 5:0.3125 6:0.5625 7:0.625 8:0.625 9:0.625 10:0.5 11:0.0625 12:0.8125 13:0.1875 14:0.5 15:0.8125 
-0.8183984196368931 1:0.75 2:0.5 3:0.5 4:0.5 5:0.25 6:0.125 7:0.5 8:0.0625 9:0.1875 10:0.625 11:0.5 12:0.4375 13:0.0625 14:0.0625 15:0.75 
-0.013140631115383177 1:0.0 2:0.3125 3:0.5 4:0.0625 5:0.1875 6:0.625 7:0.625 8:0.375 9:0.3125 10:0.9375 11:0.3125 12:0.0 13:0.0625 14:0.125 15:0.4375 
-0.03622558738420367 1:0.5 2:0.25 3:0.5625 4:0.4375 5:0.0 6:0.3125 7:0.6875 8:0.5 9:0.125 10:0.5625 11:0.875 12:0.5 13:0.75 14:0.375 15:0.25 
0.21092975777122555 1:0.4375 2:0.5 3:0.0625 4:0.625 5:0.375 6:0.875 7:0.3125 8:0.6875 9:0.3125 10:0.0 11:0.75 12:0.0625 13:0.8125 14:0.8125 15:0.125 
-0.022705491559471682 1:1.0 2:0.8125 3:0.8125 4:0.5625 5:0.8125 6:0.5 7:0.25 8:0.25 9:0.0625 10:0.0 11:0.0 12:0.5 13:0.3125 14:0.6875 15:0.5 
0.71433425464518 1:0.625 2:0.75 3:0.5625 4:0.5625 5:0.4375 6:0.4375 7:0.5625 8:0.5625 9:0.25 10:0.5 11:0.5 12:0.3125 13:0.3125 14:0.4375 15:0.5 
0.05077651237071059 1:0.1875 2:0.1875 3:0.0 4:0.375 5:0.125 6:0.8125 7:0.5 8:0.5 9:0.4375 10:0.4375 11:0.5625 12:0.5 13:0.625 14:0.1875 15:0.375 
-0.7505399775236067 1:0.8125 2:0.8125 3:0.5625 4:0.5625 5:0.3125 6:0.4375 7:0.5 8:0.1875 9:0.1875 10:0.75 11:0.4375 12:0.3125 13:0.5 14:0.375 15:0.5 
0.33019293096942304 1:0.5 2:0.1875 3:0.1875 4:0.1875 5:0.375 6:0.3125 7:0.5625 8:0.3125 9:0.0 10:0.5625 11:0.375 12:0.5625 13:0.25 14:0.5 15:0.5625 
0.14800543635209726 1:0.75 2:0.75 3:0.6875 4:0.5625 5:1.0 6:0.1875 7:0.1875 8:0.0625 9:0.25 10:0.0625 11:0.125 12:0.5625 13:0.5 14:0.5 15:0.8125 
-0.9643162430924017 1:0.375 2:0.3125 3:0.5 4:0.5 5:0.25 6:0.8125 7:0.9375 8:0.625 9:0.5 10:0.4375 11:0.25 12:0.3125 13:0.0 14:0.375 15:0.5 
-0.4111481479925912 1:0.0 2:0.375 3:0.375 4:0.375 5:0.0 6:0.375 7:0.5 8:0.75 9:0.5 10:0.8125 11:1.0 12:0.6875 13:0.3125 14:0.375 15:0.4375 
0.5883390333949734 1:0.375 2:0.25 3:0.25 4:0.375 5:0.4375 6:0.5 7:0.4375 8:0.1875 9:0.5 10:0.375 11:0.5 12:1.0 13:0.5 14:0.5625 15:0.75 
0.062523059290408 1:0.8125 2:0.5625 3:0.625 4:0.1875 5:0.5 6:0.0 7:0.8125 8:0.0 9:0.5 10:0.6875 11:0.375 12:0.75 13:0.125 14:0.4375 15:1.0 
0.7710752668119816 1:0.9375 2:0.625 3:0.625 4:0.6875 5:1.0 6:0.25 7:0.375 8:0.1875 9:0.0625 10:0.6875 11:0.4375 12:0.625 13:0.0625 14:0.3125 15:0.5625 
0.11463488634484685 1:1.0 2:0.9375 3:1.0 4:1.0 5:0.8125 6:0.625 7:0.875 8:0.75 9:1.0 10:0.875 11:0.5625 12:0.8125 13:0.375 14:0.625 15:0.6875 
-0.7440026514305834 1:0.4375 2:0.125 3:0.0 4:0.5 5:0.375 6:0.0 7:0.25 8:0.4375 9:0.6875 10:0.3125 11:0.625 12:0.75 13:0.5625 14:0.75 15:0.9375 
0.45521261554760056 1:1.0 2:0.5625 3:0.6875 4:0.75 5:0.9375 6:0.125 7:0.8125 8:0.4375 9:0.5 10:0.8125 11:0.5 12:0.5 13:0.5 14:0.1875 15:0.5 
-0.1359310001306325 1:0.4375 2:0.5 3:0.5 4:0.375 5:0.4375 6:0.875 7:0.9375 8:1.0 9:0.5 10:0.5 11:0.625 12:0.25 13:0.5 14:0.1875 15:0.375 
0.9408000336240212 1:0.0625 2:0.1875 3:0.375 4:0.5625 5:0.1875 6:0.4375 7:0.875 8:0.5625 9:0.5 10:0.5625 11:0.6875 12:0.5625 13:0.5625 14:0.25 15:0.375 
-0.1395636932467432 1:0.375 2:0.9375 3:0.5 4:0.5 5:0.4375 6:1.0 7:0.6875 8:0.9375 9:0.3125 10:0.1875 11:0.4375 12:0.125 13:0.5 14:0.0625 15:0.5 
0.4812811806714371 1:0.9375 2:0.8125 3:0.5 4:1.0 5:0.875 6:0.5 7:0.0625 8:0.5625 9:0.75 10:0.4375 11:0.625 12:0.9375 13:0.625 14:0.625 15:0.5 
-0.245726716880284 1:0.5 2:0.6875 3:0.625 4:0.9375 5:1.0 6:0.625 7:0.4375 8:0.375 9:0.5 10:0.5 11:0.4375 12:0.5 13:0.5625 14:0.5625 15:0.4375 
-0.35426031035170974 1:0.8125 2:0.1875 3:0.4375 4:0.125 5:0.0625 6:0.375 7:0.0 8:0.0 9:0.0 10:0.0 11:0.4375 12:0.0625 13:0.5 14:0.5 15:0.375 
0.38175956412018475 1:0.6875 2:0.0 3:0.1875 4:0.375 5:0.1875 6:0.125 7:0.125 8:0.0 9:0.4375 10:0.375 11:0.3125 12:0.5625 13:0.4375 14:0.5625 15:1.0 
0.13699568773937607 1:0.625 2:1.0 3:0.5625 4:0.5625 5:1.0 6:0.3125 7:0.5 8:0.25 9:0.75 10:0.375 11:0.0625 12:0.625 13:0.5 14:0.875 15:0.6875 
0.9807334664366657 1:0.9375 2:0.9375 3:0.5 4:0.875 5:0.625 6:0.5625 7:0.4375 8:0.3125 9:0.5 10:0.3125 11:0.0625 12:0.0625 13:0.3125 14:0.625 15:0.75 
0.0955033844782134 1:0.375 2:0.3125 3:0.5 4:0.125 5:0.375 6:1.0 7:1.0 8:0.625 9:0.5 10:0.5625 11:0.3125 12:0.4375 13:0.4375 14:0.5 15:0.625 
1.0 1:0.5625 2:0.3125 3:0.375 4:0.75 5:0.75 6:0.25 7:0.375 8:0.875 9:0.4375 10:0.5 11:0.75 12:0.75 13:0.6875 14:0.9375 15:0.375 
0.3890388112198177 1:0.5 2:0.125 3:0.8125 4:0.5 5:0.125 6:0.5 7:0.6875 8:0.4375 9:0.5 10:0.875 11:0.4375 12:0.5 13:0.1875 14:0.375 15:0.3125 
-1.0 1:0.6875 2:0.8125 3:0.5 4:0.875 5:0.6875 6:0.5 7:0.0625 8:0.3125 9:0.75 10:0.375 11:0.6875 12:0.625 13:0.8125 14:0.9375 15:0.625 
-0.619008012990131 1:0.5 2:0.6875 3:0.5 4:0.875 5:0.625 6:0.8125 7:0.1875 8:0.75 9:0.875 10:0.25 11:0.5 12:0.1875 13:0.875 14:0.8125 15:0.25 
-0.9114465318309659 1:0.125 2:0.5 3:0.125 4:0.375 5:0.3125 6:0.625 7:0.75 8:0.6875 9:0.3125 10:0.5 11:0.5 12:0.125 13:0.8125 14:0.1875 15:0.0625 
0.06559919732102776 1:0.4375 2:0.25 3:0.375 4:0.5 5:0.4375 6:0.1875 7:0.0625 8:0.375 9:0.375 10:0.0625 11:0.5 12:0.5 13:1.0 14:0.875 15:0.1875 
-0.4406545475443169 1:0.875 2:0.75 3:0.8125 4:0.75 5:1.0 6:0.0625 7:0.8125 8:0.4375 9:0.6875 10:0.8125 11:0.75 12:0.9375 13:0.5 14:0.5 15:0.8125 
0.19959243209252586 1:0.625 2:0.4375 3:0.5625 4:0.0 5:0.5625 6:0.25 7:0.4375 8:0.125 9:0.3125 10:0.375 11:0.5 12:0.6875 13:0.4375 14:0.75 15:0.9375 
-0.1130686923448536 1:0.75 2:0.75 3:0.625 4:0.9375 5:0.4375 6:0.375 7:0.625 8:0.9375 9:0.3125 10:0.75 11:0.6875 12:0.5 13:0.375 14:0.125 15:0.0 
0.5990756834061634 1:0.625 2:0.5625 3:0.1875 4:0.75 5:0.75 6:0.4375 7:0.0 8:0.625 9:0.5625 10:0.4375 11:1.0 12:0.8125 13:0.8125 14:0.8125 15:0.75 
0.16843114240116197 1:0.4375 2:0.3125 3:1.0 4:0.625 5:0.6875 6:0.375 7:0.6875 8:0.75 9:0.5 10:0.6875 11:0.8125 12:0.5625 13:0.5 14:0.0 15:0.0 
0.02332473154331729 1:0.5625 2:0.25 3:0.3125 4:0.25 5:0.5 6:0.125 7:0.0625 8:0.0 9:0.0625 10:0.4375 11:0.75 12:1.0 13:0.9375 14:0.75 15:0.5625 
0.09009891766926381 1:0.8125 2:0.5 3:0.6875 4:0.0625 5:0.625 6:0.5 7:0.6875 8:0.25 9:0.5 10:0.75 11:0.375 12:1.0 13:0.125 14:0.125 15:1.0 
0.21761326475018677 1:0.875 2:0.5 3:0.0625 4:0.4375 5:0.25 6:0.25 7:0.1875 8:0.25 9:0.0625 10:0.25 11:0.3125 12:0.5 13:0.4375 14:0.4375 15:0.625 
-0.8136517398401264 1:0.625 2:0.3125 3:0.5625 4:0.5 5:0.5 6:0.4375 7:0.4375 8:0.0625 9:0.3125 10:1.0 11:0.5625 12:0.25 13:0.3125 14:0.0 15:0.4375 
0.503690627428682 1:0.625 2:0.1875 3:0.4375 4:0.5625 5:0.125 6:0.0 7:0.5 8:0.1875 9:0.125 10:0.9375 11:0.8125 12:0.75 13:0.375 14:0.25 15:0.5 
-1.0 1:0.25 2:0.125 3:0.3125 4:0.5 5:0.5625 6:0.5 7:0.625 8:0.4375 9:1.0 10:0.75 11:0.9375 12:0.9375 13:0.5 14:0.625 15:0.625 
0.031077950820794675 1:0.5 2:0.5 3:0.125 4:0.3125 5:0.5 6:0.5 7:0.0 8:0.0 9:0.1875 10:0.375 11:0.125 12:0.625 13:0.625 14:0.9375 15:1.0 
-0.9517957560864627 1:0.9375 2:0.5 3:0.5 4:1.0 5:0.25 6:0.3125 7:0.375 8:1.0 9:0.375 10:0.3125 11:0.6875 12:0.125 13:0.8125 14:0.5 15:0.0 
-0.14021944106102502 1:0.5 2:0.375 3:0.375 4:0.5 5:0.5 6:0.4375 7:0.125 8:0.8125 9:1.0 10:0.1875 11:0.625 12:0.875 13:0.9375 14:0.9375 15:0.375 
0.06563179763531088 1:0.0625 2:0.5625 3:0.1875 4:0.375 5:1.0 6:0.9375 7:0.9375 8:0.5625 9:0.8125 10:0.1875 11:0.25 12:0.5625 13:0.5 14:0.9375 15:1.0 
-0.6245531910114759 1:0.5625 2:0.1875 3:0.9375 4:0.0 5:0.4375 6:0.375 7:0.9375 8:0.5 9:0.5 10:1.0 11:0.5 12:1.0 13:0.1875 14:0.375 15:0.8125 
0.49097371682353946 1:0.5625 2:0.75 3:0.6875 4:0.0625 5:0.5 6:0.5 7:0.125 8:0.3125 9:0.25 10:0.0625 11:0.0625 12:0.1875 13:0.1875 14:0.5 15:0.875 
