encog,SVM,java,3.2.0,1,1406057739269
[SVM]
[SVM:PARAMS]
[SVM:SVM-PARAM]
inputCount=21
C=1
cacheSize=100
coef0=0
degree=3
eps=0.001
gamma=1
kernelType=2
nrWeight=0
nu=0.5
p=0.1
probability=0
shrinking=1
svmType=3
weight=
weightLabel=
[SVM:SVM-MODEL]
svm_type epsilon_svr
kernel_type rbf
gamma 1.0
nr_class 2
total_sv 379
rho -0.4502666937117875
SV
0.19617680696819825 1:0.3125 2:0.375 3:0.75 4:0.625 5:0.5 6:0.8125 7:0.5 8:0.875 9:0.8125 10:1.0 11:0.75 12:0.6875 13:0.75 14:0.625 15:0.8125 16:0.0 17:0.4375 18:0.4375 19:0.4375 20:0.4375 21:0.375 
0.7910154163067088 1:0.9375 2:0.5 3:0.6875 4:0.625 5:0.6875 6:1.0 7:0.4375 8:0.4375 9:0.875 10:0.625 11:0.875 12:0.4375 13:0.8125 14:1.0 15:0.5 16:0.75 17:0.8125 18:0.75 19:0.5 20:0.5 21:0.5625 
-0.28950897338640447 1:0.125 2:0.1875 3:0.4375 4:0.4375 5:0.4375 6:0.125 7:0.0 8:0.8125 9:0.5 10:0.75 11:0.0 12:0.75 13:0.6875 14:0.75 15:0.25 16:0.375 17:0.5 18:0.0 19:0.5 20:0.375 21:0.125 
0.1573152864681383 1:0.75 2:0.75 3:0.5 4:0.6875 5:0.625 6:0.625 7:0.875 8:0.4375 9:0.3125 10:0.25 11:0.5 12:0.25 13:0.125 14:0.0625 15:0.0625 16:0.5625 17:0.5625 18:0.3125 19:0.25 20:0.4375 21:0.625 
-0.32885601552080523 1:0.5 2:0.5 3:0.5625 4:0.5625 5:0.3125 6:0.875 7:0.8125 8:0.625 9:0.75 10:0.125 11:0.875 12:0.5 13:0.625 14:0.125 15:0.9375 16:0.75 17:0.25 18:0.875 19:0.375 20:0.375 21:0.875 
-0.44643380848992675 1:0.3125 2:0.125 3:0.3125 4:0.0 5:0.5 6:0.5 7:0.0625 8:0.3125 9:0.25 10:0.125 11:0.625 12:0.5625 13:0.5 14:0.375 15:0.5625 16:0.5 17:0.5 18:0.875 19:0.5 20:0.875 21:0.8125 
0.026759110853032557 1:0.4375 2:0.8125 3:0.25 4:0.3125 5:0.5 6:0.0625 7:0.75 8:0.375 9:0.375 10:0.4375 11:0.1875 12:0.0625 13:0.1875 14:0.375 15:0.375 16:0.75 17:1.0 18:0.5 19:0.875 20:0.3125 21:0.4375 
0.32379357189335073 1:0.5 2:0.25 3:0.5 4:0.4375 5:0.3125 6:0.1875 7:0.0 8:0.5625 9:0.625 10:0.4375 11:0.125 12:0.6875 13:0.8125 14:0.6875 15:0.6875 16:0.6875 17:0.5625 18:0.5 19:0.4375 20:0.125 21:0.25 
0.4573761522010067 1:0.8125 2:0.4375 3:0.875 4:0.5 5:0.5 6:0.5 7:0.25 8:0.5 9:0.5 10:0.375 11:0.3125 12:0.5625 13:0.8125 14:0.75 15:0.5625 16:0.5 17:0.1875 18:0.125 19:0.0 20:0.4375 21:0.5 
0.09725964367159297 1:0.5 2:0.4375 3:0.75 4:0.8125 5:0.0625 6:0.625 7:0.25 8:0.4375 9:0.9375 10:0.0 11:0.875 12:0.9375 13:0.875 14:0.5 15:0.6875 16:0.75 17:0.125 18:0.625 19:0.0625 20:0.25 21:0.75 
-0.3051998946247008 1:1.0 2:0.5 3:0.0 4:1.0 5:0.5 6:0.9375 7:0.1875 8:0.0 9:0.125 10:0.25 11:0.3125 12:0.375 13:0.5 14:0.0625 15:0.75 16:0.8125 17:0.625 18:0.9375 19:0.0 20:0.5 21:0.875 
-0.11290942368344997 1:0.5 2:0.875 3:0.375 4:0.4375 5:0.375 6:0.5625 7:0.9375 8:0.25 9:0.4375 10:0.125 11:0.5625 12:0.125 13:0.0625 14:0.25 15:0.4375 16:0.4375 17:0.375 18:1.0 19:0.8125 20:0.9375 21:0.875 
0.4805945027198931 1:0.875 2:0.625 3:0.4375 4:0.25 5:0.625 6:0.6875 7:0.0625 8:0.3125 9:0.0625 10:0.0 11:0.375 12:0.5 13:0.25 14:0.125 15:0.5625 16:0.5 17:0.625 18:0.75 19:0.875 20:0.8125 21:0.8125 
0.13602036065828216 1:0.0 2:0.3125 3:0.1875 4:0.375 5:0.6875 6:0.3125 7:0.5 8:0.8125 9:0.875 10:0.75 11:0.5625 12:0.5 13:0.9375 14:0.875 15:0.6875 16:0.75 17:0.5625 18:0.3125 19:0.5625 20:0.25 21:0.1875 
0.2719166536243214 1:0.375 2:0.3125 3:0.5 4:1.0 5:0.5 6:0.5 7:0.3125 8:0.9375 9:1.0 10:0.5 11:0.5 12:0.8125 13:1.0 14:0.8125 15:0.6875 16:0.8125 17:0.375 18:0.375 19:0.0 20:0.125 21:0.875 
-0.1937228747697013 1:0.75 2:1.0 3:0.9375 4:0.375 5:0.75 6:0.5 7:0.75 8:0.6875 9:0.125 10:0.5 11:0.6875 12:0.375 13:0.1875 14:0.1875 15:0.0625 16:0.125 17:0.3125 18:0.0 19:0.6875 20:1.0 21:0.5625 
0.4688372120987568 1:0.0625 2:0.1875 3:0.1875 4:0.0 5:0.25 6:0.125 7:0.4375 8:0.125 9:0.5 10:0.9375 11:0.5625 12:0.5 13:0.5625 14:0.625 15:0.8125 16:0.625 17:0.875 18:0.75 19:0.5 20:0.5 21:0.0625 
-0.5951861828246 1:0.6875 2:0.4375 3:0.5 4:0.25 5:0.25 6:0.6875 7:0.25 8:0.5 9:0.0 10:0.0 11:0.25 12:0.75 13:0.25 14:0.375 15:0.5625 16:0.1875 17:0.1875 18:0.375 19:0.375 20:0.4375 21:0.9375 
0.13939173801985918 1:0.875 2:0.9375 3:0.375 4:0.5625 5:0.5625 6:0.5 7:0.0625 8:0.0 9:0.25 10:0.1875 11:0.3125 12:0.25 13:0.4375 14:0.5 15:0.3125 16:0.9375 17:0.9375 18:0.6875 19:0.9375 20:0.125 21:0.0 
0.6220798440576372 1:0.5 2:0.5625 3:0.1875 4:0.375 5:0.1875 6:0.3125 7:0.625 8:0.5625 9:0.5 10:0.25 11:0.6875 12:0.125 13:0.0 14:0.0625 15:0.1875 16:0.5625 17:0.3125 18:0.8125 19:0.1875 20:0.625 21:0.75 
-0.3692426529803664 1:0.5625 2:0.5625 3:0.0 4:0.4375 5:0.125 6:0.125 7:0.625 8:0.25 9:0.5 10:0.125 11:0.1875 12:0.375 13:0.5 14:0.4375 15:0.25 16:0.75 17:0.5 18:0.0 19:0.4375 20:0.3125 21:0.5 
0.08008302243076106 1:0.4375 2:0.375 3:0.4375 4:0.75 5:0.4375 6:0.625 7:0.4375 8:0.375 9:0.75 10:0.0625 11:0.75 12:0.5625 13:0.625 14:0.375 15:0.6875 16:1.0 17:0.75 18:0.6875 19:0.25 20:0.3125 21:0.625 
0.06771547161367646 1:0.0625 2:0.1875 3:0.4375 4:0.25 5:0.5625 6:0.5 7:0.0625 8:0.4375 9:0.5 10:0.8125 11:0.5 12:0.75 13:0.9375 14:0.75 15:0.9375 16:0.6875 17:1.0 18:0.625 19:0.625 20:0.625 21:0.5 
-0.161359045170832 1:0.8125 2:0.5625 3:0.5625 4:0.5 5:0.5625 6:0.625 7:0.75 8:0.4375 9:0.1875 10:0.0 11:0.25 12:0.4375 13:0.0 14:0.0 15:0.125 16:0.0 17:0.5 18:0.4375 19:0.625 20:0.5 21:0.5 
-0.0026581351170308913 1:0.5 2:0.6875 3:0.375 4:0.1875 5:0.5 6:0.5625 7:0.8125 8:0.1875 9:0.625 10:0.75 11:0.5 12:0.3125 13:0.5 14:0.5 15:0.3125 16:0.5625 17:0.6875 18:0.875 19:0.5 20:0.5625 21:0.5 
0.16053512381145743 1:0.8125 2:0.4375 3:0.9375 4:0.0625 5:0.75 6:0.75 7:0.3125 8:0.4375 9:0.0 10:0.5 11:0.6875 12:0.8125 13:0.375 14:0.5 15:1.0 16:0.375 17:0.4375 18:0.6875 19:0.9375 20:1.0 21:0.6875 
-0.15825485178336723 1:0.3125 2:0.3125 3:0.75 4:0.75 5:0.4375 6:0.3125 7:0.625 8:0.9375 9:0.625 10:0.8125 11:0.0 12:0.9375 13:0.625 14:0.5625 15:0.25 16:0.4375 17:0.25 18:0.0 19:0.5 20:0.375 21:0.375 
0.230598678121267 1:0.1875 2:0.3125 3:0.0625 4:0.3125 5:0.3125 6:0.1875 7:0.25 8:0.3125 9:0.5625 10:0.625 11:0.875 12:0.25 13:0.5 14:0.75 15:0.875 16:0.5625 17:0.75 18:0.9375 19:0.8125 20:0.6875 21:0.75 
0.04692095289163756 1:0.0625 2:0.0 3:0.3125 4:0.3125 5:0.3125 6:0.0625 7:0.4375 8:0.5625 9:0.5625 10:0.6875 11:0.5 12:0.875 13:0.625 14:0.5 15:0.8125 16:0.75 17:0.4375 18:0.0 19:0.375 20:0.4375 21:0.5 
0.38103450723936144 1:0.0625 2:0.5625 3:0.0 4:0.5 5:0.25 6:0.5 7:0.75 8:0.9375 9:0.75 10:0.6875 11:0.8125 12:0.1875 13:0.3125 14:0.3125 15:0.5 16:0.9375 17:1.0 18:0.9375 19:0.3125 20:0.5 21:0.5 
-0.21072979142061002 1:0.4375 2:0.25 3:0.3125 4:0.3125 5:0.125 6:0.0 7:0.375 8:0.0 9:0.6875 10:0.1875 11:0.5 12:0.625 13:0.5625 14:0.375 15:0.5 16:0.5 17:0.5 18:0.5 19:0.3125 20:0.25 21:0.4375 
-0.39454271477937053 1:0.9375 2:0.5 3:0.0625 4:0.625 5:0.875 6:0.6875 7:0.375 8:0.1875 9:0.0625 10:0.6875 11:0.5625 12:0.0625 13:0.4375 14:0.875 15:0.6875 16:0.5 17:0.9375 18:0.875 19:0.875 20:0.5 21:0.3125 
0.2390399075386205 1:0.25 2:0.3125 3:1.0 4:0.6875 5:0.625 6:0.125 7:0.5625 8:0.875 9:1.0 10:0.5 11:0.5625 12:0.8125 13:0.75 14:0.5 15:0.4375 16:0.4375 17:0.3125 18:0.375 19:0.3125 20:0.3125 21:0.5 
-0.17496548486163796 1:0.5625 2:0.375 3:1.0 4:1.0 5:0.5 6:0.6875 7:0.0625 8:0.5 9:0.5625 10:0.5625 11:0.75 12:0.875 13:0.9375 14:0.9375 15:0.625 16:0.5 17:0.5 18:0.75 19:0.25 20:0.6875 21:0.5625 
-1.0 1:0.9375 2:0.625 3:0.4375 4:0.5 5:0.5 6:0.75 7:0.1875 8:0.125 9:0.125 10:0.1875 11:0.25 12:0.625 13:0.625 14:0.6875 15:0.625 16:0.75 17:0.5 18:0.8125 19:0.75 20:0.625 21:0.5 
0.26044874760339926 1:0.75 2:0.375 3:0.5625 4:0.75 5:0.6875 6:0.1875 7:0.125 8:0.4375 9:0.9375 10:0.375 11:0.125 12:0.8125 13:0.625 14:0.5 15:0.4375 16:0.5625 17:0.25 18:0.4375 19:0.25 20:0.0625 21:0.25 
0.16965799888741978 1:0.5625 2:0.875 3:0.5625 4:0.6875 5:0.1875 6:0.25 7:0.5 8:0.0 9:0.6875 10:0.375 11:0.25 12:0.0625 13:0.5 14:0.25 15:0.125 16:1.0 17:0.4375 18:0.625 19:0.1875 20:0.0625 21:0.5625 
-0.2091480027890784 1:0.375 2:0.75 3:0.125 4:0.25 5:0.4375 6:0.4375 7:0.9375 8:0.4375 9:0.5625 10:0.8125 11:0.625 12:0.1875 13:0.0625 14:0.25 15:0.0 16:0.75 17:0.5625 18:0.8125 19:0.5 20:0.4375 21:0.0 
-0.17704226575857285 1:0.375 2:0.3125 3:0.0625 4:0.25 5:0.4375 6:0.4375 7:0.125 8:0.4375 9:0.4375 10:0.8125 11:0.5625 12:1.0 13:0.5 14:0.75 15:0.5625 16:0.5 17:0.875 18:0.9375 19:0.6875 20:0.5625 21:0.4375 
0.3651581741235599 1:0.8125 2:0.5 3:0.0625 4:0.5 5:0.5 6:0.75 7:0.125 8:0.0 9:0.0625 10:0.5 11:0.5 12:0.25 13:0.5 14:0.625 15:0.875 16:0.875 17:0.875 18:0.9375 19:0.4375 20:0.9375 21:0.5 
-0.3486232385980293 1:1.0 2:0.8125 3:0.75 4:0.9375 5:0.9375 6:0.6875 7:0.625 8:0.6875 9:0.75 10:0.5625 11:0.625 12:0.6875 13:0.875 14:0.5 15:0.0625 16:0.75 17:0.25 18:0.4375 19:0.25 20:0.0625 21:0.5 
0.058581131890948115 1:0.5 2:0.5 3:0.6875 4:0.3125 5:0.25 6:0.625 7:0.5 8:0.5 9:0.1875 10:0.0625 11:0.1875 12:0.5625 13:0.4375 14:0.0 15:0.375 16:0.125 17:0.1875 18:0.5 19:0.0 20:0.875 21:0.6875 
0.12551503445813053 1:0.5 2:0.5 3:0.3125 4:0.375 5:0.5 6:0.1875 7:0.3125 8:0.4375 9:0.5 10:0.4375 11:0.125 12:0.5 13:0.5 14:0.625 15:0.1875 16:0.8125 17:0.75 18:0.25 19:0.25 20:0.0625 21:0.125 
-0.8332545448289732 1:0.4375 2:0.875 3:0.0625 4:0.3125 5:0.1875 6:0.5 7:0.4375 8:0.125 9:0.125 10:0.1875 11:0.625 12:0.1875 13:0.375 14:0.125 15:0.375 16:0.625 17:0.9375 18:0.875 19:0.5 20:0.6875 21:0.6875 
-0.2235241800006861 1:0.9375 2:0.9375 3:0.625 4:0.4375 5:0.9375 6:0.875 7:0.25 8:0.3125 9:0.1875 10:0.5 11:0.375 12:0.625 13:0.5 14:0.8125 15:0.875 16:0.3125 17:0.6875 18:0.5 19:0.8125 20:0.5625 21:0.625 
-0.23719934394854647 1:0.5 2:0.125 3:0.375 4:0.1875 5:0.3125 6:0.25 7:0.1875 8:0.6875 9:0.5 10:0.5 11:0.5 12:1.0 13:0.5 14:0.5 15:1.0 16:0.5 17:0.0625 18:0.5 19:0.1875 20:0.6875 21:0.5625 
-0.08021846806880158 1:0.625 2:0.9375 3:0.625 4:0.3125 5:0.5 6:0.4375 7:0.8125 8:0.5 9:0.1875 10:0.3125 11:0.1875 12:0.25 13:0.0 14:0.25 15:0.125 16:0.125 17:0.25 18:0.5625 19:0.75 20:0.5 21:0.6875 
0.045598525194556726 1:0.375 2:0.1875 3:0.75 4:0.25 5:0.3125 6:0.3125 7:0.4375 8:0.5 9:0.5 10:0.4375 11:0.25 12:0.875 13:0.5 14:0.875 15:0.6875 16:0.5 17:0.3125 18:0.375 19:0.375 20:0.5 21:0.5 
0.037586890954821706 1:0.375 2:0.75 3:0.6875 4:0.8125 5:0.4375 6:0.9375 7:0.9375 8:0.625 9:0.875 10:0.625 11:1.0 12:0.4375 13:0.5 14:0.375 15:1.0 16:0.875 17:0.375 18:1.0 19:0.1875 20:0.3125 21:0.75 
0.0472798152275296 1:0.25 2:0.5625 3:0.0625 4:0.3125 5:0.125 6:0.5 7:0.6875 8:0.25 9:0.1875 10:0.375 11:0.625 12:0.4375 13:0.25 14:0.4375 15:0.5 16:0.5625 17:0.4375 18:0.6875 19:0.375 20:0.625 21:0.6875 
0.04894289694930485 1:0.5625 2:0.6875 3:0.6875 4:0.5 5:0.75 6:0.5625 7:0.5625 8:0.125 9:0.3125 10:0.1875 11:0.5625 12:0.0 13:0.0625 14:0.1875 15:0.5 16:0.125 17:0.5 18:0.75 19:0.5 20:0.625 21:0.9375 
-0.2247901661661792 1:0.75 2:0.6875 3:0.5 4:0.5 5:0.6875 6:0.6875 7:0.75 8:0.1875 9:0.375 10:0.25 11:0.6875 12:0.3125 13:0.0 14:0.0 15:0.5 16:0.3125 17:0.1875 18:1.0 19:0.5 20:0.9375 21:0.875 
0.04060497009506811 1:0.625 2:0.5 3:0.75 4:0.625 5:0.8125 6:0.9375 7:0.4375 8:0.875 9:0.8125 10:0.4375 11:0.5625 12:0.875 13:0.6875 14:0.625 15:0.9375 16:0.125 17:0.375 18:0.5625 19:0.4375 20:0.375 21:0.875 
0.40611120512691723 1:0.5 2:0.5 3:0.375 4:0.8125 5:0.75 6:0.8125 7:0.5625 8:0.25 9:0.625 10:0.5 11:0.6875 12:0.125 13:0.9375 14:0.5 15:1.0 16:0.9375 17:0.5 18:0.9375 19:0.25 20:0.3125 21:0.6875 
0.5388795960038077 1:0.5625 2:0.3125 3:0.5 4:0.875 5:0.6875 6:0.625 7:0.0625 8:0.4375 9:0.5 10:1.0 11:0.5 12:0.6875 13:0.75 14:0.9375 15:0.9375 16:0.8125 17:0.875 18:0.625 19:0.625 20:0.625 21:0.625 
-0.10198253872941221 1:0.3125 2:0.25 3:0.5 4:0.25 5:0.3125 6:0.5 7:0.3125 8:1.0 9:0.5625 10:0.5 11:0.4375 12:0.6875 13:0.8125 14:0.5625 15:0.625 16:0.0 17:0.25 18:0.375 19:0.5 20:0.3125 21:0.625 
0.05726429334899235 1:0.0625 2:0.0625 3:0.1875 4:0.4375 5:0.375 6:0.25 7:0.125 8:0.125 9:0.8125 10:0.75 11:0.9375 12:0.625 13:0.8125 14:0.8125 15:0.75 16:0.875 17:0.9375 18:0.6875 19:0.5 20:0.5 21:0.4375 
0.058630593962539945 1:0.625 2:0.3125 3:0.5625 4:0.375 5:0.1875 6:0.5625 7:0.4375 8:0.5 9:0.125 10:0.3125 11:0.5 12:0.6875 13:0.125 14:0.3125 15:0.5 16:0.0625 17:0.5 18:0.3125 19:0.5 20:0.9375 21:0.75 
-0.2761346058297524 1:0.5 2:0.5625 3:0.6875 4:0.5 5:0.8125 6:0.375 7:0.3125 8:0.75 9:0.125 10:0.5 11:0.0 12:0.6875 13:0.0 14:0.4375 15:0.5 16:0.0625 17:0.125 18:0.3125 19:0.75 20:0.5 21:0.1875 
0.5966197185709671 1:0.0625 2:0.5 3:0.6875 4:0.375 5:0.375 6:0.6875 7:0.5 8:0.9375 9:0.5625 10:0.8125 11:0.9375 12:0.5625 13:0.5 14:0.625 15:0.6875 16:0.5 17:0.375 18:0.875 19:0.5 20:0.75 21:1.0 
-0.3532757455979792 1:0.1875 2:0.5 3:0.25 4:0.75 5:0.5 6:0.5625 7:0.5 8:0.6875 9:0.9375 10:0.6875 11:0.875 12:0.25 13:0.6875 14:0.3125 15:0.5 16:0.625 17:0.5 18:0.75 19:0.5 20:0.5 21:0.6875 
-0.23371466928190085 1:1.0 2:0.6875 3:0.75 4:0.9375 5:0.8125 6:1.0 7:0.3125 8:0.5625 9:0.5 10:0.4375 11:0.5 12:0.8125 13:0.5 14:0.5 15:0.5 16:0.0 17:0.1875 18:0.6875 19:0.5625 20:0.9375 21:0.8125 
0.11633336096534098 1:0.6875 2:0.4375 3:0.6875 4:0.375 5:0.9375 6:0.1875 7:0.5 8:0.6875 9:0.5 10:0.9375 11:0.25 12:0.5 13:0.375 14:0.875 15:0.3125 16:0.25 17:0.5625 18:0.0625 19:0.9375 20:0.75 21:0.0 
-0.527848716994279 1:0.75 2:0.625 3:0.75 4:0.625 5:0.8125 6:0.5625 7:0.75 8:0.5625 9:0.625 10:1.0 11:0.875 12:0.25 13:0.0 14:0.5 15:0.5 16:0.4375 17:0.5625 18:1.0 19:0.5 20:0.6875 21:0.5 
0.11576245991412293 1:0.625 2:0.25 3:0.3125 4:0.625 5:1.0 6:0.1875 7:0.5 8:0.5 9:0.5 10:0.5 11:0.125 12:0.5 13:1.0 14:1.0 15:0.0625 16:0.5625 17:0.75 18:0.3125 19:0.5625 20:0.0 21:0.125 
-0.579553061687898 1:1.0 2:0.4375 3:0.375 4:1.0 5:0.5625 6:0.75 7:0.3125 8:0.4375 9:0.375 10:0.5 11:0.75 12:0.5 13:0.75 14:0.9375 15:1.0 16:0.9375 17:0.9375 18:0.8125 19:0.5 20:0.4375 21:0.875 
-0.3097338485642637 1:0.5 2:0.3125 3:0.5 4:0.5 5:0.5 6:0.25 7:0.3125 8:0.625 9:0.5625 10:0.4375 11:0.375 12:0.6875 13:1.0 14:0.75 15:0.6875 16:0.875 17:0.625 18:0.0 19:0.25 20:0.0625 21:0.5 
0.305187254705545 1:0.9375 2:0.625 3:0.9375 4:0.6875 5:0.5 6:0.875 7:0.5 8:0.4375 9:0.6875 10:0.5 11:0.5 12:0.5625 13:0.75 14:0.3125 15:0.875 16:0.5 17:0.5 18:0.6875 19:0.0 20:0.5 21:0.875 
0.23157354249244175 1:0.4375 2:0.625 3:0.5625 4:0.875 5:0.9375 6:0.625 7:0.75 8:0.5625 9:0.6875 10:0.6875 11:0.9375 12:0.0625 13:0.5 14:0.6875 15:0.0 16:0.875 17:1.0 18:0.75 19:0.4375 20:0.125 21:0.0 
0.22174520232451994 1:0.4375 2:0.0625 3:0.1875 4:0.6875 5:0.5625 6:0.5625 7:0.5625 8:0.5 9:0.625 10:0.6875 11:0.6875 12:0.375 13:0.9375 14:0.8125 15:0.75 16:1.0 17:1.0 18:0.875 19:0.5 20:0.4375 21:0.8125 
-0.48910337063677756 1:0.0625 2:0.5 3:0.5 4:0.5 5:0.25 6:0.0625 7:0.6875 8:0.9375 9:1.0 10:0.875 11:0.9375 12:0.5 13:0.6875 14:0.5 15:0.4375 16:0.8125 17:0.5625 18:0.6875 19:0.5625 20:0.4375 21:0.5 
-0.11121705903847538 1:0.5 2:0.4375 3:0.5 4:0.5 5:0.5625 6:0.5625 7:0.5 8:0.625 9:0.75 10:0.8125 11:0.9375 12:0.5625 13:0.9375 14:0.6875 15:0.9375 16:0.5 17:0.1875 18:0.5 19:0.0625 20:0.6875 21:0.625 
-0.24928843173704388 1:0.5625 2:0.5 3:0.75 4:0.8125 5:0.0625 6:0.5 7:0.25 8:0.75 9:0.9375 10:0.1875 11:0.5625 12:0.6875 13:0.875 14:0.625 15:0.5 16:0.4375 17:0.1875 18:0.4375 19:0.1875 20:0.0625 21:0.5 
-0.04041674714807728 1:0.5625 2:0.375 3:0.25 4:0.25 5:0.625 6:0.6875 7:0.1875 8:0.0 9:0.1875 10:0.625 11:0.5 12:0.625 13:0.8125 14:0.9375 15:0.625 16:0.8125 17:0.75 18:1.0 19:0.625 20:0.75 21:0.375 
0.008921769833681852 1:0.75 2:0.75 3:1.0 4:0.75 5:0.6875 6:0.5 7:0.375 8:0.375 9:0.0 10:0.1875 11:0.0625 12:0.5625 13:0.625 14:0.6875 15:0.25 16:0.25 17:0.5625 18:0.5 19:0.625 20:0.3125 21:0.3125 
-0.2992453662843356 1:0.9375 2:0.125 3:1.0 4:0.5 5:0.8125 6:0.1875 7:0.3125 8:0.5 9:0.5 10:0.3125 11:0.0 12:1.0 13:0.6875 14:0.625 15:0.5 16:0.125 17:0.375 18:0.0 19:0.5625 20:0.375 21:0.25 
0.2663832001718126 1:0.5 2:0.5 3:0.5 4:0.8125 5:0.5 6:0.5 7:0.5625 8:0.0625 9:0.75 10:0.5 11:0.4375 12:0.3125 13:0.5 14:0.375 15:0.375 16:0.75 17:0.5 18:0.125 19:0.25 20:0.125 21:0.125 
-0.6530588958080288 1:0.4375 2:0.8125 3:0.125 4:0.4375 5:0.75 6:0.625 7:0.9375 8:0.625 9:0.5 10:0.75 11:1.0 12:0.4375 13:0.25 14:0.5 15:0.5 16:0.9375 17:0.8125 18:0.75 19:0.6875 20:0.625 21:0.5625 
-0.21194949375941 1:0.8125 2:0.625 3:0.625 4:0.6875 5:0.5625 6:0.5 7:0.5625 8:0.0 9:0.5625 10:0.4375 11:0.1875 12:0.125 13:0.5 14:0.5 15:0.5 16:0.5625 17:0.625 18:0.25 19:0.5625 20:0.0 21:0.0625 
0.0062857571332635915 1:0.5625 2:0.4375 3:0.5 4:0.1875 5:0.4375 6:0.4375 7:0.125 8:0.125 9:0.0625 10:0.3125 11:0.1875 12:1.0 13:0.5 14:0.25 15:0.5 16:0.5 17:0.1875 18:0.3125 19:0.3125 20:0.25 21:0.5625 
0.38485334927493187 1:0.4375 2:0.625 3:0.5 4:0.5 5:0.1875 6:0.5 7:0.5 8:0.5 9:1.0 10:0.5 11:0.75 12:0.3125 13:0.5 14:0.3125 15:0.3125 16:0.9375 17:0.1875 18:0.3125 19:0.1875 20:0.3125 21:0.625 
0.0733446177813827 1:0.4375 2:0.5 3:0.5 4:0.125 5:0.375 6:0.1875 7:0.5 8:0.8125 9:0.0 10:0.375 11:0.0625 12:0.875 13:0.0625 14:0.5625 15:0.1875 16:0.375 17:0.1875 18:0.0625 19:0.8125 20:0.5625 21:0.0 
-0.3399653205482824 1:0.8125 2:0.5625 3:0.75 4:0.5 5:0.8125 6:0.625 7:0.0625 8:0.5 9:0.0625 10:0.0 11:0.375 12:0.5625 13:0.3125 14:0.6875 15:0.625 16:0.0625 17:0.6875 18:0.125 19:0.6875 20:0.5625 21:0.4375 
-0.7825254745580258 1:0.625 2:0.6875 3:0.5 4:0.5 5:0.0 6:0.375 7:0.5 8:0.0625 9:0.5 10:0.1875 11:0.375 12:0.25 13:0.1875 14:0.25 15:0.125 16:0.8125 17:0.5 18:0.875 19:0.375 20:0.125 21:0.8125 
-0.1470369118877835 1:0.5 2:0.4375 3:0.1875 4:0.3125 5:0.8125 6:0.5625 7:0.5 8:0.375 9:0.0 10:0.3125 11:0.5 12:0.375 13:0.5 14:0.5 15:1.0 16:0.4375 17:0.625 18:0.9375 19:0.6875 20:0.9375 21:0.625 
0.10583693101927076 1:0.75 2:0.875 3:0.5 4:0.5 5:0.3125 6:0.5 7:0.5625 8:0.5 9:0.5625 10:0.0625 11:0.25 12:0.0625 13:0.125 14:0.1875 15:0.125 16:0.6875 17:0.5625 18:0.5 19:0.5 20:0.25 21:0.4375 
-0.03326559191027056 1:0.4375 2:0.4375 3:0.5625 4:0.0625 5:0.4375 6:0.4375 7:0.125 8:0.9375 9:0.4375 10:0.8125 11:0.625 12:0.9375 13:0.9375 14:0.875 15:0.75 16:0.25 17:0.25 18:0.4375 19:0.5 20:0.5 21:0.5 
0.1206908544946316 1:1.0 2:0.625 3:0.8125 4:0.5 5:0.875 6:0.875 7:0.5 8:0.5 9:0.0 10:0.5 11:0.4375 12:0.0625 13:0.0 14:0.3125 15:0.25 16:0.4375 17:0.5 18:0.6875 19:0.6875 20:0.5625 21:0.5625 
-0.33980305077577155 1:0.5 2:0.125 3:0.0625 4:0.5 5:0.5625 6:0.1875 7:0.0 8:0.5 9:0.375 10:0.5 11:0.25 12:0.6875 13:0.8125 14:0.875 15:0.375 16:0.375 17:1.0 18:0.4375 19:0.8125 20:0.125 21:0.3125 
-0.07304254535152375 1:0.25 2:0.25 3:0.0625 4:0.5 5:0.1875 6:0.125 7:0.125 8:0.25 9:0.75 10:0.625 11:0.5 12:0.5 13:0.6875 14:0.75 15:0.75 16:0.9375 17:0.5 18:0.9375 19:0.5 20:0.1875 21:0.5 
0.056667061150142826 1:0.3125 2:0.5 3:0.9375 4:0.6875 5:0.8125 6:0.6875 7:0.625 8:0.9375 9:0.5625 10:0.875 11:0.6875 12:0.375 13:0.4375 14:0.625 15:0.6875 16:0.5 17:0.8125 18:0.4375 19:0.8125 20:0.6875 21:0.375 
-0.24381601199560946 1:0.4375 2:0.0 3:0.5 4:0.5 5:0.5 6:0.5 7:0.4375 8:0.625 9:0.6875 10:0.3125 11:0.375 12:1.0 13:0.875 14:0.6875 15:0.4375 16:0.5 17:0.25 18:0.0625 19:0.0625 20:0.375 21:0.5625 
0.29082735542655747 1:0.625 2:0.1875 3:0.5 4:0.4375 5:0.375 6:0.5 7:0.0 8:0.375 9:0.4375 10:0.0 11:0.25 12:0.625 13:0.5 14:0.6875 15:0.5 16:0.0625 17:0.25 18:0.4375 19:0.5625 20:0.4375 21:0.5 
0.03558130333738029 1:0.9375 2:0.9375 3:0.9375 4:0.4375 5:0.625 6:0.9375 7:0.75 8:0.5 9:0.5 10:0.5625 11:1.0 12:0.4375 13:0.3125 14:0.3125 15:0.375 16:0.375 17:0.75 18:0.625 19:0.875 20:0.9375 21:0.4375 
0.09441359540805531 1:0.75 2:0.6875 3:0.625 4:1.0 5:0.75 6:0.75 7:0.4375 8:0.0 9:0.5 10:0.3125 11:0.125 12:0.4375 13:0.875 14:0.3125 15:0.3125 16:0.9375 17:0.125 18:0.6875 19:0.0 20:0.1875 21:0.625 
0.07173234099668424 1:0.9375 2:0.6875 3:0.75 4:0.6875 5:0.875 6:0.875 7:0.4375 8:0.6875 9:0.5 10:0.25 11:0.75 12:0.75 13:0.625 14:0.625 15:0.875 16:0.6875 17:0.5 18:0.6875 19:0.375 20:0.5625 21:0.75 
0.41827856394700486 1:0.125 2:0.0625 3:0.1875 4:0.1875 5:0.25 6:0.0 7:0.875 8:0.8125 9:0.5625 10:0.5625 11:0.25 12:0.8125 13:0.5 14:0.75 15:0.4375 16:0.3125 17:0.3125 18:0.25 19:0.5 20:0.5 21:0.0625 
-0.8926377231520571 1:0.5625 2:0.5 3:0.25 4:0.125 5:0.9375 6:0.4375 7:0.5625 8:0.1875 9:0.5 10:0.875 11:0.5625 12:0.4375 13:0.5 14:0.875 15:0.1875 16:0.8125 17:1.0 18:0.6875 19:0.6875 20:0.5625 21:0.25 
0.05413245070427642 1:0.25 2:0.1875 3:0.0625 4:0.1875 5:0.375 6:0.4375 7:1.0 8:0.9375 9:0.625 10:0.9375 11:0.8125 12:0.125 13:0.125 14:0.5625 15:0.4375 16:0.375 17:0.9375 18:0.6875 19:0.8125 20:0.5 21:0.0625 
0.35409158853896205 1:1.0 2:0.875 3:0.6875 4:0.875 5:0.8125 6:0.625 7:0.5625 8:0.25 9:0.375 10:0.375 11:0.3125 12:0.3125 13:0.5 14:0.6875 15:0.5 16:0.5 17:0.5625 18:0.9375 19:0.5 20:0.625 21:0.5 
0.4849047075510157 1:0.1875 2:0.5 3:0.4375 4:0.3125 5:0.875 6:0.5625 7:0.8125 8:0.1875 9:0.5 10:0.75 11:0.75 12:0.1875 13:0.5 14:0.5625 15:0.625 16:0.6875 17:1.0 18:0.75 19:0.5 20:0.75 21:0.5 
0.10206882625704183 1:0.6875 2:0.9375 3:0.625 4:0.5 5:0.1875 6:0.75 7:0.4375 8:0.5 9:0.3125 10:0.25 11:0.4375 12:0.8125 13:0.3125 14:0.0625 15:0.625 16:0.0625 17:0.3125 18:0.4375 19:0.25 20:1.0 21:0.6875 
-0.3653668696049451 1:0.5 2:0.5 3:0.125 4:0.5 5:0.375 6:0.6875 7:0.5 8:0.4375 9:0.625 10:0.5 11:0.625 12:0.75 13:0.9375 14:0.625 15:0.875 16:0.9375 17:0.5 18:0.6875 19:0.3125 20:0.3125 21:1.0 
0.09258587606222782 1:0.875 2:0.875 3:1.0 4:0.75 5:0.625 6:0.75 7:0.8125 8:0.5 9:0.625 10:0.125 11:0.4375 12:0.5 13:0.25 14:0.0 15:0.5 16:0.25 17:0.25 18:0.5625 19:0.5 20:0.5 21:0.5625 
0.1824123285337159 1:0.75 2:0.9375 3:0.5 4:0.6875 5:1.0 6:0.5 7:0.5625 8:0.25 9:0.625 10:0.6875 11:0.625 12:0.0 13:0.8125 14:0.5625 15:0.4375 16:0.9375 17:0.5625 18:0.75 19:0.5 20:0.4375 21:0.125 
-0.4458849290202028 1:0.375 2:0.5 3:0.0 4:0.375 5:0.3125 6:0.5625 7:0.25 8:0.125 9:0.375 10:0.4375 11:0.375 12:0.3125 13:0.5 14:0.6875 15:0.75 16:0.5625 17:0.625 18:0.6875 19:0.75 20:0.875 21:0.9375 
-0.359048557171306 1:0.1875 2:0.4375 3:0.5625 4:0.3125 5:1.0 6:1.0 7:0.5625 8:0.9375 9:0.75 10:0.75 11:0.625 12:0.8125 13:0.5625 14:0.625 15:0.875 16:0.4375 17:0.5 18:0.4375 19:0.5 20:0.8125 21:0.5 
-0.20401842835371725 1:0.625 2:0.25 3:0.5 4:0.8125 5:0.4375 6:0.3125 7:0.125 8:0.25 9:0.6875 10:0.4375 11:0.125 12:0.625 13:0.8125 14:0.4375 15:0.8125 16:0.625 17:0.5 18:0.1875 19:0.375 20:0.375 21:0.5 
-0.00519370717234419 1:0.3125 2:0.3125 3:0.4375 4:0.6875 5:0.125 6:0.375 7:0.4375 8:1.0 9:1.0 10:0.875 11:0.8125 12:0.625 13:1.0 14:0.6875 15:0.5 16:0.9375 17:0.625 18:0.5 19:0.125 20:0.4375 21:0.5625 
1.0 1:0.6875 2:0.375 3:0.3125 4:0.375 5:0.75 6:0.625 7:0.3125 8:0.1875 9:0.5 10:0.875 11:0.375 12:0.0625 13:0.5625 14:1.0 15:0.5625 16:0.875 17:0.9375 18:0.6875 19:0.6875 20:0.3125 21:0.1875 
0.05213015349336293 1:0.25 2:0.625 3:0.875 4:0.9375 5:1.0 6:0.625 7:0.5625 8:0.8125 9:0.8125 10:0.9375 11:0.75 12:0.8125 13:0.6875 14:0.75 15:0.875 16:0.5 17:0.6875 18:0.0625 19:0.5 20:0.5 21:0.0625 
-0.12491151986328071 1:0.1875 2:0.5625 3:0.25 4:0.0625 5:0.125 6:0.375 7:0.5 8:0.1875 9:0.5 10:0.4375 11:0.4375 12:0.0625 13:0.1875 14:0.0 15:0.25 16:0.625 17:0.5 18:0.375 19:0.0625 20:0.0 21:0.5625 
0.06508520637283827 1:1.0 2:0.875 3:0.6875 4:0.375 5:0.875 6:1.0 7:0.5625 8:0.5 9:0.25 10:0.8125 11:0.5625 12:0.4375 13:0.0625 14:0.625 15:0.75 16:0.0 17:0.5625 18:0.5 19:0.8125 20:0.75 21:0.0625 
0.020967314663175106 1:0.6875 2:0.125 3:0.75 4:0.375 5:0.625 6:0.4375 7:0.0 8:0.5625 9:0.0625 10:0.5 11:0.0 12:0.875 13:0.625 14:0.6875 15:0.9375 16:0.1875 17:0.3125 18:0.0 19:0.75 20:1.0 21:0.5625 
-0.33848635925032705 1:0.75 2:0.625 3:0.5 4:0.9375 5:0.6875 6:0.6875 7:0.5 8:0.0 9:0.125 10:0.25 11:0.5 12:0.0 13:0.125 14:0.4375 15:0.0625 16:0.625 17:0.6875 18:0.6875 19:0.1875 20:0.5 21:0.5 
0.19226751206427256 1:0.375 2:0.1875 3:0.5 4:0.5 5:0.9375 6:0.5 7:0.625 8:0.9375 9:0.6875 10:1.0 11:0.5625 12:0.5625 13:1.0 14:0.8125 15:0.6875 16:0.5625 17:0.5 18:0.3125 19:0.4375 20:0.1875 21:0.375 
0.4450163056763745 1:0.5 2:0.625 3:0.9375 4:0.5 5:0.75 6:0.875 7:0.9375 8:0.625 9:0.75 10:0.75 11:1.0 12:0.8125 13:0.875 14:0.5 15:0.875 16:0.5 17:0.4375 18:0.75 19:0.5625 20:0.875 21:0.6875 
0.05148134760637596 1:0.3125 2:0.375 3:0.3125 4:0.625 5:0.4375 6:0.4375 7:0.5 8:0.5 9:0.6875 10:0.5 11:0.3125 12:0.625 13:0.9375 14:0.375 15:0.25 16:0.75 17:0.3125 18:0.375 19:0.0625 20:0.0625 21:0.5625 
0.020502864977373154 1:0.75 2:0.125 3:0.0625 4:0.625 5:0.25 6:0.0 7:0.0625 8:0.1875 9:0.5 10:0.25 11:0.25 12:1.0 13:0.875 14:0.6875 15:0.8125 16:0.9375 17:0.4375 18:0.75 19:0.25 20:0.4375 21:0.5 
-0.15597192619038183 1:0.6875 2:0.6875 3:0.625 4:0.625 5:0.6875 6:1.0 7:0.25 8:0.375 9:0.375 10:0.6875 11:0.625 12:0.625 13:0.375 14:0.6875 15:0.4375 16:0.375 17:0.5 18:0.5 19:0.75 20:0.5 21:0.3125 
0.08571591919499778 1:0.625 2:0.5 3:0.625 4:0.1875 5:0.5 6:0.875 7:0.5 8:0.75 9:0.3125 10:0.25 11:0.5 12:0.9375 13:0.125 14:0.5 15:0.6875 16:0.25 17:0.0 18:0.375 19:0.3125 20:0.9375 21:0.625 
0.2462755253667116 1:0.75 2:0.6875 3:0.5625 4:0.375 5:0.5625 6:0.4375 7:0.5 8:0.1875 9:0.5 10:0.6875 11:0.5625 12:0.375 13:0.5 14:0.6875 15:0.4375 16:0.5625 17:0.875 18:0.625 19:0.9375 20:0.5625 21:0.0 
0.29747061065855435 1:0.75 2:0.625 3:0.4375 4:0.1875 5:0.4375 6:0.6875 7:0.0625 8:0.25 9:0.0625 10:0.3125 11:0.1875 12:0.0625 13:0.5 14:0.25 15:0.625 16:0.5 17:0.625 18:0.625 19:0.5625 20:0.6875 21:1.0 
-0.5849244861301552 1:0.9375 2:0.5 3:0.75 4:0.75 5:0.3125 6:0.5625 7:0.5 8:0.375 9:0.6875 10:0.25 11:0.8125 12:0.5 13:0.8125 14:0.1875 15:0.75 16:0.6875 17:0.125 18:0.625 19:0.0625 20:0.6875 21:0.9375 
0.37151650564076183 1:0.75 2:0.9375 3:0.75 4:0.6875 5:0.5 6:0.75 7:0.25 8:0.375 9:0.375 10:0.1875 11:0.4375 12:0.5 13:0.6875 14:0.5625 15:0.625 16:0.3125 17:0.0625 18:0.1875 19:0.375 20:0.5625 21:0.75 
0.5288763815106022 1:0.25 2:0.125 3:0.5 4:0.5625 5:0.125 6:0.125 7:0.25 8:0.5 9:0.5 10:0.8125 11:0.5 12:0.75 13:0.6875 14:1.0 15:0.5625 16:0.4375 17:0.5 18:0.0 19:0.625 20:0.3125 21:0.3125 
0.16131797420679136 1:0.5625 2:0.75 3:0.875 4:0.875 5:0.5 6:0.875 7:0.375 8:0.5625 9:0.5 10:0.4375 11:0.3125 12:0.5 13:0.3125 14:0.3125 15:0.375 16:0.1875 17:0.1875 18:0.0 19:0.0 20:0.5 21:0.5 
0.7171422232783087 1:0.625 2:0.625 3:0.5 4:0.75 5:0.5 6:0.9375 7:0.4375 8:0.5 9:0.6875 10:0.75 11:0.8125 12:0.625 13:0.9375 14:0.875 15:0.8125 16:0.6875 17:0.75 18:0.5625 19:0.5 20:0.4375 21:0.5 
-0.1614585170113365 1:0.5 2:0.1875 3:0.6875 4:0.25 5:0.4375 6:0.3125 7:0.25 8:0.5 9:0.4375 10:0.5625 11:0.0 12:0.75 13:0.375 14:0.875 15:0.5625 16:0.0 17:0.0 18:0.0 19:1.0 20:0.375 21:0.25 
0.012777872027046232 1:0.6875 2:0.5 3:0.125 4:0.5 5:0.8125 6:0.3125 7:0.3125 8:0.0 9:0.25 10:0.5 11:0.0 12:0.25 13:0.375 14:0.8125 15:0.1875 16:0.5625 17:0.5625 18:0.25 19:0.5 20:0.5 21:0.125 
0.021664926773277967 1:0.875 2:0.5 3:0.625 4:0.75 5:0.5 6:0.9375 7:0.1875 8:0.0 9:0.0625 10:0.0625 11:0.5 12:0.8125 13:0.875 14:0.5 15:0.9375 16:0.625 17:0.4375 18:0.625 19:0.5 20:0.6875 21:1.0 
0.1507717468628173 1:0.625 2:0.75 3:0.8125 4:0.9375 5:0.5 6:0.625 7:0.5 8:1.0 9:0.5625 10:0.0625 11:0.8125 12:0.5 13:0.5 14:0.3125 15:0.625 16:0.5 17:0.375 18:0.5625 19:0.5 20:0.5625 21:0.5625 
0.05445508810499754 1:0.875 2:0.6875 3:0.5 4:0.4375 5:0.5 6:0.8125 7:0.5 8:0.5 9:0.0 10:0.0625 11:0.6875 12:0.0625 13:0.0625 14:0.375 15:0.8125 16:0.25 17:0.625 18:0.75 19:0.875 20:0.9375 21:0.875 
-0.009437436209165654 1:0.4375 2:0.0 3:0.375 4:0.25 5:0.1875 6:0.0 7:0.375 8:0.375 9:0.1875 10:0.1875 11:0.5 12:0.1875 13:0.5 14:0.0625 15:0.3125 16:0.5625 17:0.5 18:0.5 19:0.25 20:0.25 21:0.5 
-0.22450149520353804 1:0.875 2:0.75 3:0.875 4:0.9375 5:0.9375 6:0.5 7:0.75 8:0.6875 9:0.5 10:0.8125 11:0.5 12:1.0 13:0.5625 14:0.8125 15:0.3125 16:0.4375 17:0.3125 18:0.375 19:0.5625 20:0.25 21:0.3125 
0.16574280164069374 1:0.4375 2:0.5625 3:0.5625 4:1.0 5:0.5 6:0.6875 7:0.8125 8:1.0 9:0.9375 10:0.625 11:1.0 12:0.5 13:0.875 14:0.1875 15:0.625 16:0.875 17:0.1875 18:0.1875 19:0.1875 20:0.0 21:0.6875 
-0.5739485029208286 1:0.4375 2:0.5625 3:0.0625 4:0.3125 5:0.5 6:0.5625 7:0.5 8:0.4375 9:0.6875 10:0.625 11:0.5 12:0.1875 13:0.5 14:0.6875 15:0.5 16:0.8125 17:0.9375 18:0.6875 19:0.5625 20:0.125 21:0.5 
-0.05090347497160334 1:0.3125 2:0.5625 3:0.8125 4:0.875 5:0.4375 6:0.5625 7:0.6875 8:0.875 9:0.5625 10:0.5625 11:0.5 12:0.9375 13:0.625 14:0.5625 15:0.5625 16:0.375 17:0.3125 18:0.375 19:0.5 20:0.5 21:0.5 
-0.35013257475056614 1:0.5 2:1.0 3:0.375 4:0.4375 5:0.75 6:0.75 7:0.75 8:0.8125 9:0.9375 10:0.8125 11:0.75 12:0.4375 13:0.5 14:0.8125 15:0.625 16:0.5 17:0.9375 18:0.75 19:0.9375 20:0.625 21:0.375 
-0.5420245745596108 1:0.5 2:0.4375 3:0.875 4:0.5 5:0.125 6:0.75 7:0.5625 8:0.5 9:0.625 10:0.25 11:0.5 12:0.875 13:0.4375 14:0.0625 15:0.625 16:0.4375 17:0.25 18:0.5 19:0.125 20:0.5625 21:0.6875 
-0.2894061559880661 1:0.375 2:0.0 3:0.3125 4:0.125 5:0.5 6:0.4375 7:0.375 8:0.0625 9:0.5 10:0.6875 11:0.4375 12:0.125 13:0.4375 14:0.75 15:0.5625 16:0.9375 17:0.6875 18:0.5 19:0.625 20:0.5625 21:0.375 
0.0408107842252334 1:0.75 2:0.5625 3:0.4375 4:0.875 5:0.625 6:0.875 7:0.5 8:0.5 9:0.5 10:0.4375 11:0.875 12:0.375 13:0.375 14:0.0 15:0.5 16:0.5625 17:0.5 18:0.75 19:0.0625 20:0.625 21:1.0 
-0.052558060313750356 1:0.375 2:0.625 3:1.0 4:0.75 5:0.625 6:0.0625 7:0.875 8:1.0 9:0.6875 10:0.625 11:0.8125 12:0.5 13:0.3125 14:0.1875 15:0.25 16:0.25 17:0.1875 18:0.125 19:0.5 20:0.4375 21:0.5 
0.10666660151841724 1:0.5 2:0.5625 3:0.5625 4:0.75 5:0.5 6:0.4375 7:0.125 8:0.75 9:0.9375 10:0.5 11:0.4375 12:0.5625 13:1.0 14:0.5625 15:0.75 16:0.5 17:0.1875 18:0.0625 19:0.375 20:0.0 21:0.5 
0.15110356863246532 1:0.125 2:0.375 3:0.25 4:0.0625 5:0.3125 6:0.6875 7:0.75 8:0.5 9:0.5 10:0.6875 11:0.875 12:0.25 13:0.3125 14:0.625 15:0.9375 16:0.75 17:1.0 18:1.0 19:0.5 20:0.8125 21:0.9375 
-0.18357695829097037 1:0.5 2:0.1875 3:0.5 4:0.5 5:0.8125 6:0.875 7:0.375 8:0.5 9:0.5625 10:0.75 11:0.5 12:0.75 13:0.8125 14:0.9375 15:0.875 16:0.4375 17:0.625 18:0.25 19:0.6875 20:0.625 21:0.3125 
0.5146077643146653 1:1.0 2:0.25 3:0.25 4:0.6875 5:0.75 6:1.0 7:0.0 8:0.125 9:0.375 10:0.5 11:0.3125 12:0.5625 13:0.5 14:0.6875 15:0.75 16:0.5 17:0.875 18:0.75 19:0.625 20:0.6875 21:0.4375 
-0.018284700173316123 1:0.5 2:0.1875 3:0.6875 4:0.375 5:0.4375 6:0.4375 7:0.25 8:0.5 9:0.5625 10:0.0625 11:0.5 12:0.75 13:0.9375 14:0.3125 15:0.5625 16:0.375 17:0.0625 18:0.125 19:0.5 20:0.5 21:0.625 
0.27505850732980625 1:0.3125 2:0.5625 3:0.625 4:0.625 5:0.375 6:0.4375 7:0.5 8:0.9375 9:0.5 10:0.5 11:0.1875 12:0.6875 13:0.5 14:0.1875 15:0.375 16:0.5625 17:0.0625 18:0.25 19:0.1875 20:0.375 21:0.1875 
-0.9463870166997664 1:0.5 2:0.5625 3:0.375 4:0.75 5:1.0 6:0.9375 7:0.375 8:0.25 9:0.9375 10:0.75 11:1.0 12:0.5 13:0.6875 14:0.9375 15:0.8125 16:0.9375 17:1.0 18:0.5 19:0.625 20:0.5 21:0.375 
-0.13252099429550354 1:0.25 2:0.4375 3:0.1875 4:0.625 5:0.4375 6:0.5 7:0.9375 8:0.4375 9:0.6875 10:0.5 11:0.4375 12:0.0 13:0.5 14:0.5 15:0.5625 16:0.875 17:0.6875 18:0.875 19:0.125 20:0.125 21:0.5 
-0.11215769433340878 1:0.25 2:0.375 3:0.375 4:0.25 5:0.25 6:0.1875 7:0.4375 8:0.8125 9:0.375 10:0.875 11:0.4375 12:0.8125 13:0.5625 14:0.625 15:0.3125 16:0.1875 17:0.5 18:0.0 19:0.5625 20:0.375 21:0.0 
0.18530181205724872 1:0.5 2:0.375 3:0.125 4:0.1875 5:0.1875 6:0.1875 7:0.0 8:0.1875 9:0.4375 10:0.25 11:0.3125 12:0.5 13:0.875 14:0.625 15:0.0625 16:0.6875 17:0.5 18:0.25 19:0.5625 20:0.25 21:0.25 
0.25851626275550327 1:0.5625 2:0.75 3:0.125 4:1.0 5:0.5 6:0.5625 7:0.5 8:0.375 9:0.5 10:0.1875 11:0.375 12:0.375 13:0.3125 14:0.0625 15:0.3125 16:0.6875 17:0.4375 18:0.8125 19:0.375 20:0.5 21:0.875 
0.24550034355469189 1:0.75 2:0.8125 3:0.5 4:0.75 5:0.75 6:0.75 7:0.5 8:0.4375 9:0.5 10:0.625 11:0.5625 12:0.25 13:0.0625 14:0.9375 15:0.625 16:0.625 17:1.0 18:0.8125 19:0.625 20:1.0 21:0.625 
-0.010734888686346387 1:0.5625 2:0.25 3:0.875 4:0.375 5:0.375 6:0.3125 7:0.375 8:0.5625 9:0.375 10:0.25 11:0.0 12:0.8125 13:0.5625 14:0.875 15:0.8125 16:0.0625 17:0.0 18:0.3125 19:0.5 20:0.375 21:0.125 
-0.12317469096655032 1:0.625 2:0.5 3:0.5 4:0.5625 5:0.6875 6:0.4375 7:0.5625 8:0.4375 9:0.5625 10:1.0 11:0.375 12:0.5 13:0.5 14:0.9375 15:0.0625 16:0.875 17:0.6875 18:0.5 19:0.6875 20:0.25 21:0.3125 
-0.2791212923935964 1:0.25 2:0.3125 3:0.0625 4:0.1875 5:0.3125 6:0.375 7:0.8125 8:0.5 9:0.75 10:0.875 11:0.875 12:0.1875 13:0.25 14:0.4375 15:0.1875 16:0.5625 17:0.9375 18:0.4375 19:0.75 20:0.6875 21:0.5 
-0.19514803279545123 1:0.1875 2:0.4375 3:0.0625 4:0.0 5:0.375 6:0.5 7:0.5 8:0.4375 9:0.25 10:0.1875 11:0.5 12:0.5 13:0.125 14:0.1875 15:0.8125 16:0.3125 17:0.375 18:0.5 19:1.0 20:0.8125 21:0.8125 
-1.0 1:0.5625 2:0.5 3:0.375 4:0.5625 5:0.625 6:0.875 7:0.3125 8:0.5 9:0.625 10:0.5625 11:0.75 12:0.8125 13:0.625 14:0.9375 15:0.8125 16:0.3125 17:0.625 18:0.6875 19:0.5625 20:0.625 21:0.875 
0.4823209396440628 1:0.5 2:0.4375 3:0.375 4:0.5 5:0.9375 6:0.75 7:0.3125 8:0.3125 9:0.375 10:0.5 11:1.0 12:0.5 13:0.5 14:0.8125 15:0.9375 16:0.5 17:0.8125 18:0.5625 19:0.5 20:0.875 21:0.625 
-0.13715762763079972 1:0.375 2:0.3125 3:0.1875 4:0.1875 5:0.4375 6:0.375 7:0.8125 8:0.4375 9:0.4375 10:0.4375 11:0.1875 12:0.3125 13:0.3125 14:0.1875 15:0.1875 16:0.75 17:0.4375 18:0.3125 19:0.375 20:0.0 21:0.5 
0.09731353487735224 1:0.4375 2:0.3125 3:0.5 4:0.125 5:0.0625 6:0.4375 7:0.875 8:0.6875 9:0.8125 10:0.3125 11:0.875 12:0.4375 13:0.5625 14:0.0625 15:0.625 16:0.5 17:0.0 18:0.625 19:0.25 20:0.6875 21:1.0 
-0.0391933926613149 1:0.375 2:0.3125 3:0.5 4:0.75 5:0.375 6:0.9375 7:0.375 8:0.375 9:0.5 10:0.5625 11:0.5625 12:0.4375 13:0.9375 14:0.375 15:0.75 16:0.75 17:0.5 18:0.625 19:0.1875 20:0.5625 21:0.75 
0.08249109746146915 1:1.0 2:0.9375 3:0.9375 4:0.9375 5:0.9375 6:1.0 7:0.25 8:0.4375 9:0.3125 10:0.4375 11:0.4375 12:0.1875 13:0.25 14:0.75 15:0.8125 16:0.5625 17:0.8125 18:0.875 19:0.6875 20:0.625 21:0.4375 
-0.30264351764663255 1:0.625 2:0.75 3:0.625 4:0.625 5:0.875 6:0.9375 7:0.75 8:0.4375 9:0.75 10:0.6875 11:0.6875 12:0.1875 13:0.5 14:0.4375 15:0.0 16:0.6875 17:0.75 18:0.5 19:0.75 20:0.5625 21:0.5 
-0.14706419764333198 1:0.875 2:0.8125 3:0.9375 4:0.9375 5:0.875 6:0.625 7:0.375 8:0.125 9:0.5 10:0.1875 11:0.0 12:0.4375 13:0.3125 14:0.3125 15:0.125 16:0.875 17:0.5625 18:0.4375 19:0.3125 20:0.5 21:0.25 
0.2704269002012614 1:0.125 2:0.5 3:0.4375 4:0.25 5:0.5625 6:0.3125 7:0.875 8:0.625 9:0.5 10:1.0 11:0.5 12:0.1875 13:0.375 14:0.9375 15:0.3125 16:0.625 17:0.625 18:0.5625 19:0.8125 20:0.25 21:0.125 
0.024803819909318802 1:0.9375 2:1.0 3:1.0 4:0.9375 5:0.6875 6:0.8125 7:0.75 8:0.5 9:0.5 10:0.5 11:0.75 12:0.375 13:0.0625 14:0.0625 15:0.3125 16:0.1875 17:0.0625 18:0.375 19:0.25 20:0.9375 21:0.8125 
-0.11886533364832275 1:0.9375 2:0.375 3:0.25 4:0.125 5:0.625 6:0.4375 7:0.1875 8:0.25 9:0.125 10:0.375 11:0.125 12:0.25 13:0.3125 14:0.9375 15:0.5625 16:0.25 17:0.8125 18:0.4375 19:0.8125 20:1.0 21:0.375 
0.08049563249573813 1:0.4375 2:0.3125 3:1.0 4:0.5 5:0.9375 6:0.5 7:0.125 8:0.875 9:0.375 10:0.625 11:0.5 12:1.0 13:0.5625 14:0.875 15:0.625 16:0.375 17:0.25 18:0.3125 19:0.75 20:0.875 21:0.25 
-0.16670208325949412 1:0.875 2:0.0625 3:0.3125 4:0.5625 5:0.5625 6:0.8125 7:0.0625 8:0.0 9:0.4375 10:0.125 11:0.125 12:0.5 13:0.5 14:0.6875 15:0.875 16:0.5625 17:0.625 18:1.0 19:0.75 20:1.0 21:0.625 
-0.03933756700896704 1:0.375 2:0.5 3:0.25 4:0.3125 5:0.3125 6:0.0625 7:1.0 8:0.4375 9:0.375 10:0.0625 11:0.0625 12:0.4375 13:0.4375 14:0.25 15:0.0 16:0.8125 17:0.4375 18:0.3125 19:0.0 20:0.0625 21:0.3125 
0.11454743905659263 1:0.5 2:0.9375 3:0.625 4:0.75 5:0.0 6:0.9375 7:0.875 8:0.75 9:0.5 10:0.375 11:0.875 12:0.375 13:0.1875 14:0.0 15:0.4375 16:0.5 17:0.375 18:0.6875 19:0.5 20:0.75 21:0.875 
0.4152733565299339 1:0.4375 2:0.875 3:0.5 4:0.9375 5:0.625 6:0.5625 7:0.875 8:0.5 9:0.5625 10:0.75 11:0.6875 12:0.375 13:0.1875 14:0.125 15:0.4375 16:0.5 17:0.5625 18:0.625 19:0.4375 20:0.0 21:0.5 
-0.04948305011666813 1:0.0625 2:0.375 3:0.9375 4:0.75 5:0.625 6:0.625 7:0.5 8:0.6875 9:0.625 10:0.6875 11:0.75 12:0.5625 13:0.6875 14:1.0 15:0.875 16:0.3125 17:0.3125 18:0.4375 19:0.5625 20:0.625 21:0.625 
0.04869987856292623 1:0.5 2:0.9375 3:0.375 4:0.9375 5:0.25 6:1.0 7:0.9375 8:0.375 9:0.875 10:0.375 11:0.625 12:0.0625 13:0.25 14:0.125 15:0.6875 16:0.6875 17:0.5 18:0.625 19:0.25 20:0.75 21:0.9375 
0.30658433922010303 1:0.875 2:0.125 3:0.4375 4:0.5625 5:0.4375 6:0.8125 7:0.125 8:0.0625 9:0.5 10:0.0 11:0.25 12:0.9375 13:0.75 14:0.5625 15:0.5625 16:0.8125 17:0.5625 18:0.5625 19:0.4375 20:0.5625 21:0.8125 
0.02977289770434209 1:0.4375 2:0.25 3:0.375 4:0.75 5:0.1875 6:0.4375 7:0.4375 8:0.5 9:0.625 10:0.125 11:0.25 12:0.5 13:0.5625 14:0.4375 15:0.8125 16:1.0 17:0.0625 18:0.5625 19:0.125 20:0.1875 21:0.9375 
-0.5398836928957194 1:0.9375 2:0.5 3:0.6875 4:0.8125 5:1.0 6:0.875 7:0.1875 8:1.0 9:0.3125 10:0.5 11:0.5625 12:1.0 13:0.5625 14:0.875 15:0.6875 16:0.5 17:0.3125 18:0.5 19:0.5 20:0.875 21:0.625 
0.14241638697234088 1:1.0 2:0.6875 3:0.8125 4:0.6875 5:0.625 6:0.625 7:0.375 8:0.5 9:0.375 10:0.25 11:0.3125 12:0.375 13:0.625 14:0.0625 15:0.0625 16:0.5625 17:0.0 18:0.0 19:0.3125 20:0.1875 21:0.75 
-0.293565545711867 1:0.4375 2:0.625 3:0.6875 4:0.5 5:0.8125 6:0.4375 7:0.5 8:0.9375 9:0.625 10:0.8125 11:0.75 12:0.75 13:0.5625 14:0.8125 15:0.875 16:0.5 17:0.5625 18:0.25 19:0.4375 20:0.5 21:0.4375 
0.5576482323767339 1:0.625 2:0.3125 3:0.0625 4:0.875 5:0.125 6:0.5 7:0.5 8:0.0 9:0.5625 10:0.3125 11:0.75 12:0.3125 13:0.5625 14:0.3125 15:0.8125 16:1.0 17:0.5625 18:0.6875 19:0.3125 20:0.625 21:1.0 
0.13693844938571015 1:0.5 2:0.75 3:0.5 4:0.6875 5:0.375 6:0.25 7:0.8125 8:0.375 9:0.5 10:0.125 11:0.125 12:0.0625 13:0.5 14:0.5 15:0.0 16:0.75 17:0.5 18:0.5 19:0.1875 20:0.3125 21:0.375 
-0.035957376151224255 1:0.3125 2:0.5625 3:0.75 4:0.625 5:0.4375 6:0.0625 7:0.5 8:0.8125 9:0.6875 10:0.375 11:0.0625 12:1.0 13:0.5625 14:0.25 15:0.1875 16:0.0625 17:0.125 18:0.125 19:0.0625 20:0.0625 21:0.5625 
0.5020544310354307 1:0.5 2:0.6875 3:0.375 4:0.375 5:0.5 6:0.6875 7:0.8125 8:0.375 9:0.5625 10:0.8125 11:0.5 12:0.3125 13:0.25 14:0.125 15:0.3125 16:0.5 17:0.5 18:0.875 19:0.625 20:0.6875 21:0.5625 
0.10591363484040227 1:0.6875 2:0.9375 3:0.9375 4:0.625 5:0.5 6:0.5625 7:0.9375 8:1.0 9:0.9375 10:0.625 11:0.9375 12:0.5 13:0.5 14:0.4375 15:0.8125 16:0.375 17:0.5 18:0.5625 19:0.5 20:0.5625 21:0.5625 
0.014325634040259879 1:0.125 2:0.375 3:0.1875 4:0.5 5:0.1875 6:0.0625 7:0.5 8:0.5 9:1.0 10:0.4375 11:0.5 12:0.5 13:0.9375 14:0.3125 15:0.6875 16:0.9375 17:0.625 18:0.9375 19:0.25 20:0.125 21:0.8125 
-0.18854220816881198 1:0.125 2:0.5625 3:0.5 4:0.75 5:0.0625 6:1.0 7:0.625 8:0.75 9:0.6875 10:0.5 11:0.875 12:0.4375 13:0.25 14:0.25 15:0.6875 16:0.5625 17:0.3125 18:0.8125 19:0.0 20:0.5 21:0.6875 
0.35725495843685756 1:0.8125 2:0.5625 3:0.5625 4:0.1875 5:0.8125 6:0.75 7:0.125 8:0.375 9:0.0625 10:0.125 11:0.0625 12:0.75 13:0.375 14:0.8125 15:0.5 16:0.375 17:0.5 18:0.1875 19:0.5625 20:0.6875 21:0.5 
0.34179508842269646 1:0.6875 2:0.5 3:1.0 4:0.25 5:0.3125 6:0.8125 7:0.4375 8:0.5 9:0.3125 10:0.5 11:0.5 12:0.8125 13:0.3125 14:0.0625 15:0.75 16:0.1875 17:0.0 18:0.3125 19:0.375 20:0.75 21:0.875 
0.011660985321074088 1:0.3125 2:0.3125 3:0.25 4:0.5 5:0.375 6:1.0 7:0.3125 8:0.4375 9:0.25 10:0.5 11:0.875 12:0.5 13:0.8125 14:0.6875 15:0.8125 16:0.6875 17:0.75 18:0.8125 19:0.4375 20:0.8125 21:0.5625 
-0.06512764645915264 1:0.3125 2:0.3125 3:0.5 4:0.4375 5:0.5 6:0.5625 7:0.875 8:0.625 9:0.1875 10:1.0 11:0.875 12:0.5 13:0.4375 14:1.0 15:0.625 16:0.4375 17:0.5625 18:1.0 19:0.75 20:0.9375 21:0.625 
0.0065387165698137 1:0.5 2:0.125 3:0.5 4:0.4375 5:0.375 6:0.375 7:0.25 8:0.0625 9:0.375 10:0.1875 11:0.25 12:0.6875 13:0.5625 14:0.5625 15:0.0625 16:0.5 17:0.3125 18:0.0 19:0.625 20:0.0 21:0.3125 
0.4249695909099348 1:0.5 2:0.25 3:0.5 4:0.1875 5:0.5 6:0.5625 7:0.4375 8:0.4375 9:0.0 10:0.4375 11:0.4375 12:0.6875 13:0.75 14:0.5625 15:0.625 16:0.3125 17:0.625 18:0.5625 19:0.625 20:0.6875 21:0.9375 
-0.2092150558473912 1:1.0 2:0.625 3:0.625 4:0.75 5:0.625 6:0.5 7:0.5625 8:0.375 9:0.5 10:0.5 11:0.3125 12:0.625 13:0.9375 14:0.625 15:0.1875 16:0.3125 17:0.5 18:0.1875 19:0.5 20:0.25 21:0.25 
0.0627797882515502 1:1.0 2:0.75 3:0.8125 4:0.625 5:0.1875 6:0.375 7:0.625 8:0.5 9:0.125 10:0.1875 11:0.1875 12:0.75 13:0.25 14:0.25 15:0.25 16:0.0625 17:0.0 18:0.0 19:0.1875 20:0.0625 21:0.5625 
0.24712990686323832 1:0.875 2:0.5 3:0.5 4:0.875 5:0.9375 6:0.9375 7:0.375 8:0.0625 9:0.75 10:0.9375 11:0.5 12:0.5 13:0.8125 14:0.6875 15:0.75 16:0.75 17:0.6875 18:0.625 19:0.75 20:0.0625 21:0.3125 
-0.07526579934210054 1:0.9375 2:0.5 3:0.4375 4:0.6875 5:0.625 6:0.9375 7:0.25 8:0.0 9:0.6875 10:0.75 11:0.6875 12:0.1875 13:0.5625 14:0.5625 15:0.625 16:0.6875 17:1.0 18:0.9375 19:0.375 20:0.625 21:0.625 
-0.32060525331631945 1:0.4375 2:0.75 3:0.625 4:0.8125 5:0.375 6:0.8125 7:0.8125 8:0.9375 9:0.5625 10:0.1875 11:0.8125 12:0.5 13:0.5 14:0.125 15:0.5 16:0.3125 17:0.0 18:0.1875 19:0.125 20:0.1875 21:1.0 
-0.0042617880562152936 1:0.5 2:0.5625 3:0.125 4:0.3125 5:0.1875 6:0.5 7:0.6875 8:0.3125 9:0.125 10:0.375 11:0.375 12:0.0 13:0.0 14:0.0625 15:0.0625 16:0.3125 17:0.1875 18:0.875 19:0.5 20:0.5 21:0.6875 
-0.18674218059623562 1:0.5625 2:0.625 3:0.5 4:0.5 5:0.875 6:0.75 7:0.0625 8:0.0 9:0.0625 10:0.5 11:0.25 12:0.5 13:0.25 14:0.875 15:0.5625 16:0.0625 17:0.8125 18:0.8125 19:0.9375 20:0.75 21:0.625 
-0.459596814213622 1:0.5 2:0.875 3:1.0 4:1.0 5:0.6875 6:0.6875 7:0.875 8:0.625 9:0.4375 10:0.75 11:0.6875 12:0.125 13:0.0625 14:0.4375 15:0.25 16:0.5 17:0.5 18:0.8125 19:0.5625 20:0.5 21:0.375 
0.09709583198314446 1:0.5 2:0.5 3:0.6875 4:0.8125 5:0.4375 6:1.0 7:0.5 8:0.4375 9:0.4375 10:0.25 11:0.5 12:0.9375 13:0.5 14:0.3125 15:1.0 16:0.25 17:0.25 18:0.625 19:0.4375 20:0.9375 21:0.6875 
0.6494762537523966 1:1.0 2:0.625 3:1.0 4:0.9375 5:0.5 6:1.0 7:0.4375 8:0.1875 9:0.25 10:0.1875 11:0.5 12:0.875 13:0.875 14:0.5 15:0.8125 16:0.5625 17:0.1875 18:0.8125 19:0.4375 20:0.875 21:0.875 
0.1501649614445925 1:0.25 2:0.3125 3:0.0625 4:0.25 5:0.0625 6:0.375 7:0.625 8:0.5 9:0.25 10:0.5 11:0.5 12:0.0625 13:0.125 14:0.1875 15:0.25 16:0.375 17:0.4375 18:0.6875 19:1.0 20:0.6875 21:0.5 
0.09998605158932564 1:0.875 2:0.9375 3:0.9375 4:0.875 5:0.9375 6:0.5 7:0.9375 8:0.375 9:0.4375 10:0.625 11:0.5 12:0.1875 13:0.0 14:0.4375 15:0.3125 16:0.125 17:0.4375 18:0.1875 19:0.875 20:0.5 21:0.3125 
-0.11167338942161235 1:0.5 2:0.5 3:0.6875 4:0.4375 5:0.3125 6:0.5 7:0.375 8:0.25 9:0.3125 10:0.0625 11:0.5625 12:0.875 13:0.5 14:0.5 15:0.5625 16:0.125 17:0.1875 18:0.5 19:0.0 20:1.0 21:0.875 
0.5767783712430453 1:0.75 2:0.6875 3:0.5 4:0.5625 5:0.625 6:1.0 7:0.375 8:0.5 9:0.1875 10:0.5 11:0.5 12:0.5 13:0.25 14:0.5 15:1.0 16:0.1875 17:0.5625 18:0.875 19:0.75 20:0.875 21:1.0 
0.21390482695637522 1:0.5 2:0.5 3:0.375 4:0.5625 5:0.5 6:0.9375 7:0.0 8:0.3125 9:0.125 10:0.3125 11:0.5 12:0.3125 13:0.625 14:0.8125 15:0.8125 16:0.75 17:0.6875 18:0.8125 19:0.5 20:0.6875 21:0.5 
-0.2846355657652058 1:0.375 2:0.5 3:0.1875 4:0.375 5:0.25 6:0.25 7:0.8125 8:0.5 9:0.5 10:0.5 11:0.625 12:0.4375 13:0.3125 14:0.375 15:0.0625 16:0.875 17:0.3125 18:0.375 19:0.4375 20:0.125 21:0.3125 
0.1113263067441327 1:0.4375 2:0.4375 3:0.375 4:0.4375 5:0.0625 6:0.1875 7:0.4375 8:0.1875 9:0.4375 10:0.0 11:0.0625 12:0.25 13:0.0625 14:0.4375 15:0.0625 16:0.5625 17:0.5 18:0.0 19:0.1875 20:0.25 21:0.25 
-0.14447995230541666 1:0.8125 2:0.625 3:0.75 4:0.9375 5:0.6875 6:0.875 7:0.375 8:0.5625 9:0.4375 10:0.0 11:0.375 12:0.625 13:0.3125 14:0.0 15:0.75 16:0.0625 17:0.0 18:0.5 19:0.3125 20:0.75 21:1.0 
1.0 1:0.5 2:0.625 3:0.625 4:0.625 5:0.875 6:0.8125 7:0.8125 8:0.875 9:0.625 10:0.625 11:0.6875 12:1.0 13:0.625 14:0.6875 15:0.625 16:0.5 17:0.375 18:0.625 19:0.5 20:0.6875 21:0.6875 
-0.1672716134871349 1:0.5625 2:0.125 3:0.1875 4:0.3125 5:0.1875 6:0.125 7:0.125 8:0.125 9:0.1875 10:0.625 11:0.1875 12:0.375 13:0.3125 14:0.625 15:0.5 16:0.5625 17:0.9375 18:0.4375 19:0.5625 20:0.5625 21:0.375 
-0.16084555532282735 1:0.0 2:0.0625 3:0.4375 4:0.3125 5:0.375 6:0.1875 7:0.3125 8:0.625 9:0.625 10:0.5 11:0.3125 12:1.0 13:1.0 14:0.75 15:0.8125 16:0.0 17:0.5 18:0.3125 19:0.75 20:0.4375 21:0.375 
0.43014836443663407 1:0.8125 2:0.375 3:0.25 4:0.625 5:0.375 6:0.3125 7:0.0625 8:0.25 9:0.4375 10:0.25 11:0.3125 12:0.75 13:0.75 14:0.5625 15:0.625 16:0.5625 17:0.5625 18:0.0625 19:0.5 20:0.4375 21:0.5 
5.450041162943751E-4 1:0.5625 2:1.0 3:0.125 4:0.375 5:0.9375 6:0.5 7:0.5625 8:0.0 9:0.0 10:0.5625 11:0.125 12:0.25 13:0.1875 14:0.8125 15:0.0 16:0.5 17:0.875 18:0.5 19:0.5625 20:0.5625 21:0.1875 
0.2045754863702794 1:0.0625 2:0.0 3:0.125 4:0.25 5:0.0625 6:0.3125 7:0.5625 8:0.875 9:0.75 10:1.0 11:1.0 12:0.9375 13:0.875 14:0.625 15:0.5625 16:0.4375 17:0.0625 18:0.5625 19:0.5625 20:0.5 21:0.8125 
0.6605680192910195 1:0.625 2:0.6875 3:0.6875 4:1.0 5:0.5 6:0.875 7:0.6875 8:0.25 9:0.5625 10:0.3125 11:0.875 12:0.5 13:0.4375 14:0.3125 15:0.375 16:0.625 17:0.375 18:1.0 19:0.375 20:0.4375 21:0.875 
-0.07438403844233187 1:1.0 2:0.8125 3:0.6875 4:0.75 5:0.8125 6:0.5 7:0.5 8:0.9375 9:0.375 10:0.25 11:0.3125 12:0.6875 13:0.3125 14:0.3125 15:0.1875 16:0.4375 17:0.0625 18:0.125 19:0.3125 20:0.4375 21:0.1875 
0.05459877311801449 1:0.4375 2:0.625 3:0.25 4:0.1875 5:0.1875 6:0.1875 7:0.8125 8:0.4375 9:0.125 10:0.125 11:0.5 12:0.3125 13:0.0625 14:0.3125 15:0.0625 16:0.625 17:0.375 18:0.5 19:0.4375 20:0.5 21:0.5625 
-1.0 1:0.5 2:0.5 3:0.6875 4:0.4375 5:0.5 6:0.875 7:0.375 8:0.25 9:0.25 10:0.3125 11:0.75 12:0.6875 13:0.5 14:0.4375 15:0.9375 16:0.625 17:0.5625 18:0.6875 19:0.5 20:0.8125 21:0.8125 
0.28422268421459906 1:0.9375 2:0.75 3:1.0 4:0.5 5:0.875 6:0.625 7:0.25 8:0.0625 9:0.25 10:0.4375 11:0.1875 12:0.25 13:0.0 14:0.5 15:0.4375 16:0.3125 17:0.5625 18:0.625 19:0.75 20:0.6875 21:0.4375 
-0.3766392005668896 1:0.9375 2:1.0 3:0.625 4:0.1875 5:0.25 6:0.5625 7:0.25 8:0.375 9:0.1875 10:0.3125 11:0.5 12:0.5 13:0.3125 14:0.0 15:0.5 16:0.25 17:0.3125 18:0.5 19:0.4375 20:0.6875 21:0.875 
-0.11461324933939816 1:0.4375 2:0.6875 3:0.75 4:0.6875 5:1.0 6:0.3125 7:0.875 8:0.6875 9:0.6875 10:0.875 11:0.5625 12:0.5 13:0.5625 14:0.6875 15:0.5 16:0.625 17:0.8125 18:0.4375 19:0.8125 20:0.1875 21:0.3125 
-0.10660047385179199 1:0.75 2:0.0625 3:0.625 4:0.625 5:0.5 6:0.75 7:0.1875 8:0.375 9:0.0625 10:0.5 11:0.4375 12:0.5 13:0.9375 14:0.75 15:0.8125 16:0.5 17:0.4375 18:0.625 19:0.5 20:0.6875 21:0.5 
-0.0942155647038773 1:0.5625 2:0.875 3:0.4375 4:0.5625 5:0.6875 6:0.8125 7:0.75 8:0.0 9:0.3125 10:0.3125 11:0.25 12:0.0 13:0.1875 14:0.375 15:0.4375 16:0.8125 17:0.6875 18:0.6875 19:0.5625 20:0.8125 21:0.25 
-0.35149239302199875 1:0.4375 2:0.3125 3:0.8125 4:0.0 5:0.375 6:0.625 7:1.0 8:0.9375 9:0.5625 10:0.5625 11:0.75 12:1.0 13:0.5 14:0.625 15:0.75 16:0.125 17:0.1875 18:0.5625 19:0.75 20:0.75 21:0.5625 
0.01542419398875999 1:0.5625 2:0.0 3:0.375 4:0.25 5:0.1875 6:0.5 7:0.3125 8:0.5 9:0.5 10:0.0625 11:0.625 12:0.5 13:0.5 14:0.125 15:0.5 16:0.5625 17:0.5 18:0.875 19:0.3125 20:0.8125 21:0.8125 
0.337798469439587 1:0.5 2:0.6875 3:0.3125 4:0.9375 5:0.6875 6:0.875 7:0.5 8:0.4375 9:0.75 10:1.0 11:0.5625 12:0.0 13:0.6875 14:0.5 15:0.625 16:1.0 17:0.9375 18:0.9375 19:0.4375 20:0.375 21:0.125 
0.03712578917033999 1:0.375 2:0.5625 3:0.5625 4:0.375 5:0.9375 6:0.5 7:0.5 8:1.0 9:0.4375 10:1.0 11:0.875 12:0.625 13:0.3125 14:0.6875 15:0.4375 16:0.1875 17:0.625 18:0.8125 19:1.0 20:0.75 21:0.4375 
-1.0 1:0.625 2:0.5 3:0.125 4:0.6875 5:0.5625 6:0.4375 7:0.6875 8:0.4375 9:0.5 10:0.6875 11:0.5 12:0.3125 13:0.5625 14:0.4375 15:0.4375 16:0.625 17:0.8125 18:0.8125 19:0.5 20:0.4375 21:0.0 
-0.06339048130746404 1:0.0625 2:0.125 3:0.1875 4:0.0625 5:0.1875 6:0.0 7:0.3125 8:0.5 9:0.5625 10:0.6875 11:0.875 12:0.6875 13:0.6875 14:0.75 15:0.6875 16:0.5 17:0.375 18:0.4375 19:0.125 20:0.5 21:0.75 
0.14492740091160428 1:0.625 2:0.8125 3:0.625 4:1.0 5:0.1875 6:0.625 7:0.875 8:0.6875 9:0.9375 10:0.0 11:0.5 12:0.0 13:0.5625 14:0.0 15:0.5 16:0.625 17:0.125 18:0.5625 19:0.0 20:0.3125 21:0.8125 
-0.00913948323947809 1:0.3125 2:0.5625 3:0.5 4:0.75 5:0.625 6:0.8125 7:0.8125 8:0.6875 9:0.8125 10:0.8125 11:0.75 12:0.5625 13:0.5625 14:0.625 15:0.5625 16:0.6875 17:0.625 18:0.375 19:0.125 20:0.5 21:0.3125 
0.29055987656279997 1:0.8125 2:0.625 3:0.75 4:0.8125 5:0.625 6:0.875 7:0.1875 8:0.0 9:0.1875 10:0.125 11:0.1875 12:0.5 13:1.0 14:0.375 15:0.625 16:0.5625 17:0.375 18:0.6875 19:0.3125 20:0.5 21:0.5625 
-0.08458892560457298 1:0.1875 2:0.125 3:0.375 4:0.4375 5:0.1875 6:0.5 7:0.6875 8:0.4375 9:0.6875 10:0.3125 11:1.0 12:0.375 13:0.4375 14:0.25 15:0.6875 16:0.375 17:0.0625 18:1.0 19:0.25 20:0.8125 21:0.875 
-0.29708833615225777 1:0.3125 2:0.25 3:0.125 4:0.25 5:0.0625 6:0.0625 7:0.3125 8:0.4375 9:0.25 10:0.0 11:0.0 12:0.5 13:0.375 14:0.5625 15:0.3125 16:0.0 17:0.1875 18:0.375 19:0.625 20:0.25 21:0.0 
-0.7055667010950492 1:0.5 2:0.375 3:0.5 4:0.5 5:0.3125 6:0.8125 7:0.5625 8:0.5 9:0.375 10:0.625 11:0.9375 12:0.625 13:0.4375 14:0.5625 15:0.875 16:0.375 17:0.625 18:0.5 19:0.625 20:1.0 21:0.75 
-0.08775735662032373 1:0.375 2:0.25 3:0.5 4:0.375 5:1.0 6:0.625 7:1.0 8:0.875 9:0.75 10:0.875 11:0.8125 12:0.625 13:0.5 14:0.875 15:0.8125 16:0.0625 17:0.8125 18:0.5625 19:0.6875 20:0.5 21:0.5 
0.2543979819423221 1:0.75 2:0.125 3:0.125 4:0.5 5:0.6875 6:0.1875 7:0.375 8:0.3125 9:0.3125 10:0.4375 11:0.3125 12:0.5625 13:0.8125 14:0.875 15:0.5625 16:0.625 17:0.875 18:0.1875 19:0.4375 20:0.4375 21:0.0625 
0.1553318790202444 1:0.375 2:0.5 3:0.125 4:0.25 5:0.375 6:0.875 7:0.6875 8:0.6875 9:0.5 10:0.5625 11:0.9375 12:0.5 13:0.1875 14:0.1875 15:0.5625 16:0.1875 17:0.4375 18:1.0 19:0.625 20:0.75 21:0.875 
-0.3291519350075605 1:0.1875 2:0.1875 3:0.6875 4:0.3125 5:0.3125 6:0.4375 7:0.875 8:0.9375 9:0.75 10:0.9375 11:0.5 12:1.0 13:0.6875 14:1.0 15:0.5 16:0.375 17:0.4375 18:0.0 19:0.5625 20:0.4375 21:0.25 
-0.19834142920327577 1:0.9375 2:0.625 3:0.9375 4:0.4375 5:0.8125 6:0.5 7:0.5 8:0.8125 9:0.125 10:0.5625 11:0.0625 12:0.4375 13:0.4375 14:0.8125 15:0.0 16:0.1875 17:0.4375 18:0.0 19:0.6875 20:0.625 21:0.1875 
0.029020847648461526 1:0.6875 2:0.6875 3:0.9375 4:0.5 5:0.875 6:0.1875 7:0.875 8:0.5 9:0.5 10:0.4375 11:0.125 12:0.4375 13:0.3125 14:0.5 15:0.1875 16:0.125 17:0.5 18:0.375 19:0.75 20:0.5 21:0.4375 
-0.09179234459534837 1:0.4375 2:0.3125 3:0.875 4:0.9375 5:0.4375 6:0.625 7:0.5 8:0.875 9:0.5 10:0.375 11:0.8125 12:0.8125 13:0.9375 14:0.875 15:1.0 16:0.625 17:0.0625 18:0.625 19:0.3125 20:0.5 21:0.875 
-0.9957195387722528 1:0.8125 2:0.5625 3:1.0 4:0.5 5:0.8125 6:0.875 7:0.25 8:0.125 9:0.125 10:0.25 11:0.25 12:0.5 13:0.5 14:0.75 15:0.8125 16:0.25 17:0.25 18:0.5625 19:0.6875 20:0.6875 21:0.8125 
0.025417084681574054 1:0.5625 2:0.8125 3:0.5625 4:0.1875 5:0.8125 6:1.0 7:0.8125 8:0.5 9:0.1875 10:0.8125 11:0.875 12:0.1875 13:0.125 14:0.125 15:0.1875 16:0.0625 17:0.4375 18:0.8125 19:0.9375 20:0.9375 21:0.5 
0.26507447847724624 1:0.4375 2:0.375 3:0.3125 4:0.125 5:0.0 6:0.375 7:0.1875 8:0.3125 9:0.0625 10:0.0625 11:0.3125 12:0.5625 13:0.1875 14:0.5 15:0.875 16:0.4375 17:0.375 18:0.8125 19:0.25 20:0.625 21:0.875 
0.336408539604966 1:0.6875 2:0.5 3:0.375 4:0.5 5:0.0 6:0.375 7:0.0625 8:0.1875 9:0.5 10:0.0625 11:0.4375 12:0.1875 13:0.5 14:0.125 15:0.0 16:1.0 17:0.5 18:0.9375 19:0.1875 20:0.125 21:0.5625 
0.2905845270370898 1:0.75 2:0.5 3:0.75 4:0.625 5:0.75 6:0.4375 7:0.0625 8:0.8125 9:0.375 10:0.6875 11:0.1875 12:0.625 13:0.4375 14:0.8125 15:0.25 16:0.125 17:0.4375 18:0.3125 19:0.6875 20:0.5 21:0.125 
0.08066751716236194 1:0.375 2:0.25 3:0.875 4:0.5 5:0.0 6:0.5625 7:0.5 8:0.9375 9:1.0 10:0.8125 11:1.0 12:0.75 13:1.0 14:0.5 15:0.8125 16:0.375 17:0.25 18:0.5 19:0.0 20:0.5 21:0.5625 
0.7417964849912015 1:0.9375 2:0.5625 3:0.875 4:0.5 5:0.9375 6:0.5 7:0.4375 8:0.5 9:0.4375 10:0.625 11:0.5625 12:0.8125 13:0.625 14:0.5 15:0.4375 16:0.4375 17:0.5 18:0.375 19:0.8125 20:0.25 21:0.375 
-0.1594729494804583 1:0.9375 2:1.0 3:1.0 4:0.625 5:0.9375 6:0.8125 7:0.75 8:0.5 9:0.5 10:0.5 11:0.4375 12:0.5 13:0.3125 14:0.375 15:0.5 16:0.5 17:0.1875 18:0.1875 19:0.0625 20:0.3125 21:0.5625 
0.14683694226138908 1:0.625 2:0.5 3:0.6875 4:1.0 5:0.5 6:0.5 7:0.625 8:0.5 9:0.8125 10:0.5 11:0.5 12:0.625 13:0.5625 14:0.6875 15:0.4375 16:0.5 17:0.5 18:0.1875 19:0.375 20:0.125 21:0.0 
0.3434456312150598 1:0.375 2:0.375 3:0.0625 4:0.5625 5:0.5 6:1.0 7:0.25 8:0.0 9:0.6875 10:0.875 11:1.0 12:0.4375 13:0.6875 14:0.75 15:0.625 16:0.875 17:0.8125 18:0.75 19:0.75 20:0.5625 21:0.5 
0.17282469774459192 1:0.25 2:0.4375 3:0.5 4:0.5 5:0.5 6:0.4375 7:0.75 8:0.75 9:0.8125 10:0.75 11:0.75 12:0.75 13:0.625 14:0.5 15:0.625 16:0.75 17:0.0 18:0.5625 19:0.1875 20:0.5625 21:0.625 
0.08182137257567199 1:1.0 2:0.125 3:0.625 4:0.75 5:0.25 6:0.625 7:0.0625 8:0.4375 9:0.4375 10:0.1875 11:0.5 12:0.9375 13:0.625 14:0.25 15:0.75 16:0.8125 17:0.3125 18:0.75 19:0.0 20:0.4375 21:0.9375 
-0.1130713940318587 1:0.3125 2:0.125 3:0.25 4:0.5 5:0.75 6:0.5 7:0.125 8:0.375 9:0.5 10:0.5 11:0.625 12:0.5 13:0.75 14:0.8125 15:0.75 16:0.5625 17:0.625 18:0.875 19:0.3125 20:0.5 21:0.375 
-0.5051071812490574 1:0.6875 2:0.5 3:0.4375 4:0.375 5:0.5 6:0.25 7:0.0 8:0.125 9:0.3125 10:0.25 11:0.1875 12:0.8125 13:0.5 14:0.375 15:0.3125 16:0.5 17:0.4375 18:0.0625 19:0.1875 20:0.4375 21:0.375 
0.0352907030796709 1:0.5 2:0.8125 3:0.625 4:0.6875 5:1.0 6:0.9375 7:0.5 8:0.4375 9:0.75 10:0.5 11:0.5625 12:0.4375 13:0.4375 14:0.4375 15:0.3125 16:0.5 17:0.5 18:0.75 19:0.625 20:0.5625 21:0.5625 
-0.13092191834588562 1:0.625 2:0.0 3:0.3125 4:0.375 5:0.125 6:0.3125 7:0.0625 8:0.0 9:0.25 10:0.4375 11:0.125 12:0.6875 13:1.0 14:0.5625 15:0.3125 16:1.0 17:0.625 18:0.4375 19:0.3125 20:0.3125 21:0.3125 
-0.46451183356967224 1:0.375 2:0.9375 3:0.875 4:0.8125 5:0.5625 6:0.8125 7:0.875 8:0.875 9:0.8125 10:0.6875 11:0.8125 12:0.625 13:0.875 14:0.25 15:0.75 16:0.4375 17:0.25 18:0.1875 19:0.5 20:0.5 21:0.5625 
0.35514336608079633 1:0.625 2:0.5625 3:0.0 4:0.1875 5:0.375 6:0.625 7:0.1875 8:0.0625 9:0.25 10:0.25 11:0.5 12:0.3125 13:0.5 14:0.4375 15:0.4375 16:0.5625 17:1.0 18:0.8125 19:0.375 20:0.8125 21:0.875 
-0.8424772910148409 1:0.8125 2:0.375 3:0.5 4:0.4375 5:0.75 6:0.5 7:0.25 8:0.125 9:0.5 10:0.9375 11:0.5 12:0.375 13:0.5 14:0.8125 15:0.5 16:0.6875 17:0.6875 18:0.5 19:0.8125 20:0.25 21:0.125 
0.08190926544889268 1:0.3125 2:1.0 3:0.5625 4:0.375 5:0.75 6:0.5 7:0.9375 8:0.5 9:0.625 10:0.9375 11:0.6875 12:0.5 13:0.0625 14:0.4375 15:0.0 16:0.125 17:0.5625 18:0.375 19:0.875 20:0.3125 21:0.0 
0.37268863526529566 1:0.3125 2:0.1875 3:0.625 4:0.4375 5:0.6875 6:0.8125 7:0.4375 8:0.6875 9:0.5625 10:0.875 11:0.5 12:0.875 13:0.5625 14:0.9375 15:0.6875 16:0.125 17:0.625 18:0.0625 19:0.6875 20:0.625 21:0.125 
0.040336184628979616 1:0.3125 2:0.375 3:0.5 4:0.625 5:0.8125 6:0.8125 7:0.6875 8:0.625 9:0.75 10:0.8125 11:0.6875 12:0.625 13:0.6875 14:0.75 15:0.8125 16:0.375 17:0.75 18:0.625 19:0.8125 20:0.9375 21:0.5 
-0.4247915483776705 1:0.875 2:0.8125 3:1.0 4:0.75 5:0.375 6:0.9375 7:0.3125 8:0.3125 9:0.5 10:0.0625 11:0.3125 12:1.0 13:0.6875 14:0.3125 15:0.75 16:0.375 17:0.0 18:0.625 19:0.1875 20:0.5 21:0.625 
0.4107268269402544 1:0.5 2:0.3125 3:0.3125 4:0.4375 5:0.0 6:0.1875 7:0.375 8:0.375 9:0.25 10:0.1875 11:0.125 12:0.5 13:0.4375 14:0.625 15:0.5625 16:0.6875 17:0.4375 18:0.3125 19:0.375 20:0.1875 21:0.3125 
0.1168090581012021 1:0.6875 2:0.4375 3:0.9375 4:0.375 5:0.6875 6:0.3125 7:0.375 8:0.5 9:0.375 10:1.0 11:0.1875 12:0.5 13:0.5625 14:0.8125 15:0.4375 16:0.125 17:0.4375 18:0.25 19:0.75 20:0.5 21:0.0625 
-0.12131520938646455 1:0.1875 2:0.0625 3:0.0625 4:0.1875 5:0.125 6:0.5 7:0.875 8:0.25 9:0.8125 10:0.5 11:0.9375 12:0.25 13:0.4375 14:0.0625 15:0.5625 16:0.8125 17:0.5 18:0.8125 19:0.5 20:0.6875 21:0.5 
-0.012048175180640755 1:0.375 2:0.0625 3:0.0 4:0.3125 5:0.375 6:0.375 7:0.3125 8:0.4375 9:0.75 10:0.3125 11:0.5625 12:0.375 13:0.9375 14:0.4375 15:0.6875 16:1.0 17:0.875 18:1.0 19:0.1875 20:0.125 21:0.8125 
0.03543723152215314 1:0.1875 2:0.5 3:0.375 4:0.3125 5:0.3125 6:0.625 7:1.0 8:0.875 9:0.5 10:0.5625 11:0.9375 12:0.375 13:0.5 14:0.25 15:0.6875 16:0.5625 17:0.6875 18:0.75 19:0.75 20:0.875 21:1.0 
0.05762679081085874 1:0.9375 2:0.5625 3:0.6875 4:0.5 5:0.375 6:0.625 7:0.6875 8:0.5 9:0.0 10:0.0625 11:0.125 12:0.1875 13:0.125 14:0.3125 15:0.0625 16:0.3125 17:0.0625 18:0.3125 19:0.5 20:0.5625 21:0.5 
-0.4262878777188819 1:0.375 2:0.3125 3:0.5625 4:0.4375 5:0.5625 6:0.625 7:0.625 8:0.5625 9:0.625 10:1.0 11:0.875 12:0.5625 13:0.625 14:0.5 15:0.9375 16:0.5 17:0.5 18:0.5625 19:0.125 20:0.75 21:0.9375 
0.09914695223840406 1:0.5 2:0.25 3:0.625 4:0.625 5:0.9375 6:0.5 7:0.5 8:1.0 9:0.875 10:0.5 11:0.5625 12:1.0 13:0.5625 14:0.5 15:0.6875 16:0.25 17:0.25 18:0.1875 19:0.375 20:0.4375 21:0.5 
0.19509020757227588 1:0.8125 2:0.5625 3:0.625 4:0.5625 5:0.75 6:0.0625 7:0.4375 8:0.25 9:0.5625 10:0.5 11:0.0625 12:0.4375 13:0.625 14:0.5625 15:0.0625 16:0.8125 17:0.75 18:0.5625 19:0.1875 20:0.0 21:0.0 
-0.04405490440613939 1:0.9375 2:0.9375 3:0.6875 4:1.0 5:0.75 6:0.375 7:0.375 8:0.4375 9:0.375 10:0.4375 11:0.0 12:0.5625 13:0.1875 14:0.5 15:0.375 16:0.125 17:0.25 18:0.1875 19:0.75 20:0.5 21:0.125 
0.7781754301061702 1:0.5625 2:0.4375 3:0.4375 4:0.5 5:0.5 6:0.375 7:0.4375 8:0.125 9:0.4375 10:0.5 11:0.5 12:0.5 13:0.25 14:0.5 15:0.625 16:0.5625 17:0.75 18:0.625 19:0.5 20:0.625 21:0.125 
0.09663044182060913 1:0.5 2:0.9375 3:0.9375 4:0.75 5:0.8125 6:0.875 7:0.3125 8:0.5 9:0.875 10:0.5625 11:0.9375 12:0.5 13:1.0 14:0.6875 15:0.8125 16:0.9375 17:0.5 18:0.75 19:0.375 20:0.4375 21:0.5 
0.13700688388507787 1:0.1875 2:0.125 3:0.375 4:0.1875 5:0.125 6:0.4375 7:0.625 8:0.875 9:0.5 10:0.4375 11:0.875 12:0.5 13:0.4375 14:0.1875 15:0.5625 16:0.75 17:0.3125 18:0.8125 19:0.3125 20:0.5 21:0.9375 
-0.10427461688075516 1:0.4375 2:0.0625 3:0.1875 4:0.5 5:0.5625 6:0.8125 7:0.5625 8:0.375 9:0.4375 10:1.0 11:0.8125 12:0.5 13:0.75 14:1.0 15:1.0 16:0.8125 17:0.6875 18:1.0 19:0.875 20:1.0 21:0.5 
0.9346787290893558 1:0.3125 2:0.3125 3:0.0 4:0.125 5:0.1875 6:0.1875 7:0.5 8:0.5 9:0.8125 10:0.5 11:0.5 12:0.4375 13:0.5 14:0.5 15:0.0625 16:1.0 17:0.9375 18:0.6875 19:0.4375 20:0.0 21:0.4375 
0.280355088739732 1:0.0 2:0.125 3:0.3125 4:0.0625 5:0.875 6:0.625 7:0.5625 8:0.5 9:0.1875 10:0.8125 11:0.6875 12:0.25 13:0.5 14:0.75 15:0.8125 16:0.625 17:0.8125 18:1.0 19:1.0 20:0.75 21:0.375 
0.1947444630342867 1:0.5 2:0.9375 3:0.4375 4:0.9375 5:0.6875 6:0.5 7:0.625 8:0.1875 9:0.6875 10:0.5 11:0.625 12:0.0625 13:0.875 14:0.125 15:0.0 16:0.8125 17:0.625 18:0.8125 19:0.125 20:0.4375 21:0.5 
-0.20047342318620437 1:0.4375 2:0.0625 3:0.625 4:0.3125 5:0.625 6:0.5 7:0.375 8:0.8125 9:0.5625 10:1.0 11:0.5625 12:0.75 13:0.8125 14:0.75 15:0.5625 16:0.125 17:0.375 18:0.1875 19:0.9375 20:0.25 21:0.125 
-0.271083204151073 1:0.375 2:0.375 3:0.6875 4:0.4375 5:0.125 6:0.125 7:0.625 8:0.8125 9:0.5 10:0.5 11:0.4375 12:0.5 13:0.0625 14:0.25 15:0.3125 16:0.1875 17:0.0625 18:0.25 19:0.0625 20:0.5625 21:0.75 
-0.5579897109682629 1:0.125 2:0.5 3:0.0625 4:0.0625 5:0.625 6:0.5 7:0.4375 8:0.125 9:0.25 10:0.5625 11:0.6875 12:0.5 13:0.375 14:0.5 15:0.9375 16:0.5625 17:0.9375 18:0.875 19:0.5625 20:0.8125 21:0.5625 
0.18616267178788753 1:0.3125 2:0.6875 3:0.25 4:0.75 5:0.5 6:0.25 7:0.8125 8:0.8125 9:1.0 10:0.6875 11:0.625 12:0.4375 13:0.5625 14:0.3125 15:0.125 16:0.75 17:0.5625 18:0.5 19:0.4375 20:0.1875 21:0.0 
-0.014183310668305724 1:0.5 2:0.4375 3:0.6875 4:0.875 5:0.5 6:0.375 7:0.0625 8:0.3125 9:0.375 10:0.375 11:0.1875 12:0.75 13:0.75 14:0.4375 15:0.1875 16:0.5 17:0.3125 18:0.125 19:0.1875 20:0.1875 21:0.375 
-0.04388079407222701 1:0.625 2:0.4375 3:0.375 4:0.875 5:0.5625 6:0.6875 7:0.4375 8:0.1875 9:0.4375 10:0.625 11:0.3125 12:0.6875 13:0.9375 14:0.625 15:0.6875 16:0.875 17:0.5625 18:0.75 19:0.5 20:0.4375 21:0.1875 
0.29307477962235196 1:0.3125 2:0.4375 3:0.625 4:0.5 5:0.1875 6:0.25 7:0.5625 8:0.75 9:0.5 10:0.0625 11:0.6875 12:0.8125 13:0.75 14:0.3125 15:0.75 16:0.5 17:0.125 18:0.5 19:0.3125 20:0.4375 21:0.75 
0.3354867300317626 1:0.5625 2:0.5 3:0.375 4:0.5 5:0.3125 6:0.5625 7:0.75 8:0.25 9:0.4375 10:0.5 11:0.4375 12:0.3125 13:0.3125 14:0.3125 15:0.25 16:0.875 17:0.875 18:0.5625 19:0.6875 20:0.5625 21:0.5 
0.16215694653096185 1:0.3125 2:0.5 3:0.25 4:0.75 5:0.4375 6:0.125 7:0.6875 8:0.5625 9:1.0 10:0.8125 11:0.9375 12:0.1875 13:0.875 14:0.3125 15:0.125 16:0.8125 17:0.625 18:0.5 19:0.375 20:0.1875 21:0.3125 
0.0677440914210577 1:0.4375 2:0.8125 3:0.4375 4:0.4375 5:0.5 6:0.5 7:0.9375 8:0.5 9:0.625 10:0.4375 11:0.5 12:0.125 13:0.125 14:0.1875 15:0.0 16:0.25 17:0.5 18:0.5625 19:0.75 20:0.4375 21:0.25 
-0.08879312693551766 1:1.0 2:0.625 3:0.3125 4:0.4375 5:0.5 6:0.1875 7:0.5 8:0.0 9:0.5 10:0.3125 11:0.125 12:0.0 13:0.375 14:0.4375 15:0.125 16:0.75 17:0.75 18:0.25 19:0.1875 20:0.4375 21:0.3125 
0.1317997063218916 1:0.0 2:0.4375 3:0.0625 4:0.3125 5:0.3125 6:0.375 7:1.0 8:0.4375 9:0.8125 10:0.6875 11:0.9375 12:0.25 13:0.5 14:0.5 15:0.75 16:0.5 17:0.875 18:1.0 19:0.375 20:0.625 21:0.5 
-0.06834693767771645 1:0.3125 2:0.5 3:0.25 4:0.125 5:0.1875 6:0.0 7:0.6875 8:0.4375 9:0.5 10:0.375 11:0.5 12:0.0625 13:0.125 14:0.125 15:0.1875 16:0.3125 17:0.1875 18:0.4375 19:0.25 20:0.9375 21:0.875 
-0.04636609524173523 1:1.0 2:0.5 3:0.375 4:0.0625 5:0.5 6:0.5 7:0.4375 8:0.0625 9:0.0625 10:0.0 11:0.0625 12:0.0625 13:0.0625 14:0.25 15:0.25 16:0.4375 17:0.25 18:0.875 19:0.75 20:0.6875 21:0.8125 
-0.8379717756045968 1:0.25 2:0.25 3:0.3125 4:0.25 5:0.25 6:0.3125 7:0.625 8:0.5 9:0.375 10:0.5 11:0.4375 12:0.1875 13:0.375 14:0.9375 15:0.5 16:0.5625 17:0.75 18:0.5625 19:0.75 20:0.8125 21:0.25 
-0.16569079446943874 1:0.625 2:0.4375 3:1.0 4:0.75 5:0.8125 6:0.8125 7:0.125 8:0.75 9:1.0 10:0.5 11:0.625 12:0.9375 13:1.0 14:0.625 15:0.625 16:0.5 17:0.25 18:0.1875 19:0.0 20:0.3125 21:0.375 
0.14486322237862817 1:0.6875 2:0.5 3:0.75 4:0.75 5:0.4375 6:1.0 7:0.1875 8:0.5 9:0.4375 10:0.1875 11:0.25 12:1.0 13:0.5 14:0.375 15:0.5625 16:0.3125 17:0.0625 18:0.625 19:0.375 20:0.75 21:1.0 
0.24689593094373047 1:0.875 2:0.75 3:0.0 4:0.8125 5:0.875 6:0.4375 7:0.6875 8:0.4375 9:0.8125 10:0.625 11:0.5 12:0.3125 13:0.6875 14:0.5625 15:0.1875 16:1.0 17:0.75 18:0.5625 19:0.5 20:0.125 21:0.0625 
0.1192306172453757 1:0.6875 2:0.25 3:0.6875 4:0.4375 5:0.875 6:0.625 7:0.125 8:0.25 9:0.375 10:0.4375 11:0.1875 12:0.8125 13:0.8125 14:0.8125 15:0.625 16:0.6875 17:0.5 18:0.5 19:0.75 20:0.4375 21:0.0625 
-0.29207546944310286 1:0.75 2:0.5 3:0.5 4:0.875 5:0.6875 6:0.75 7:0.4375 8:0.1875 9:0.4375 10:0.0625 11:0.3125 12:0.5 13:0.75 14:0.375 15:0.875 16:0.5625 17:0.9375 18:1.0 19:0.375 20:0.5 21:0.75 
-0.15295351686118427 1:0.125 2:0.5 3:0.875 4:0.625 5:0.5625 6:0.8125 7:0.75 8:0.8125 9:0.8125 10:0.5 11:1.0 12:0.875 13:0.875 14:0.75 15:0.875 16:0.5 17:0.5 18:0.8125 19:0.4375 20:0.75 21:1.0 
0.06597799304142289 1:0.75 2:0.9375 3:0.9375 4:0.875 5:0.4375 6:0.6875 7:0.5625 8:0.9375 9:0.9375 10:0.125 11:0.9375 12:0.5625 13:1.0 14:0.25 15:0.75 16:0.6875 17:0.1875 18:0.5 19:0.0 20:0.4375 21:0.6875 
0.33884385092853697 1:0.0 2:0.375 3:0.25 4:0.25 5:0.5 6:0.5 7:0.75 8:0.875 9:0.6875 10:0.6875 11:0.5 12:0.3125 13:0.5 14:0.5 15:0.4375 16:0.75 17:0.8125 18:0.8125 19:0.625 20:0.5625 21:0.5 
-0.20201306650734546 1:0.1875 2:0.1875 3:0.1875 4:0.0625 5:0.3125 6:0.125 7:0.6875 8:0.625 9:0.5 10:0.6875 11:0.4375 12:0.8125 13:0.25 14:0.75 15:0.5 16:0.1875 17:0.9375 18:0.375 19:0.8125 20:0.8125 21:0.0 
0.03586774661945091 1:0.5625 2:0.625 3:0.375 4:0.8125 5:0.6875 6:0.4375 7:0.25 8:0.0625 9:0.3125 10:0.4375 11:0.3125 12:0.0 13:0.8125 14:0.625 15:0.375 16:1.0 17:0.875 18:0.75 19:0.5 20:0.375 21:0.3125 
0.4667834160964918 1:0.4375 2:0.6875 3:0.5 4:0.4375 5:0.625 6:0.75 7:0.5 8:0.375 9:0.3125 10:0.5 11:0.875 12:0.4375 13:0.125 14:1.0 15:0.8125 16:0.1875 17:0.8125 18:0.8125 19:0.9375 20:0.75 21:0.625 
0.3944946085580975 1:0.0625 2:0.4375 3:0.3125 4:0.375 5:0.0625 6:0.5 7:0.5 8:0.4375 9:0.6875 10:0.3125 11:0.4375 12:0.4375 13:0.875 14:0.1875 15:0.5 16:0.6875 17:0.4375 18:0.6875 19:0.125 20:0.3125 21:0.8125 
0.20997624081774224 1:0.8125 2:0.625 3:0.5625 4:0.25 5:0.5625 6:0.5625 7:0.75 8:0.0625 9:0.0 10:0.25 11:0.125 12:0.25 13:0.375 14:0.5 15:0.3125 16:0.5 17:0.625 18:0.6875 19:0.8125 20:0.8125 21:0.5 
0.05726234351323036 1:0.5 2:0.625 3:0.625 4:0.5 5:1.0 6:0.625 7:0.625 8:0.8125 9:0.5 10:0.75 11:1.0 12:1.0 13:0.375 14:0.6875 15:0.8125 16:0.1875 17:0.25 18:0.5625 19:0.6875 20:0.625 21:0.5 
0.4941557085310999 1:0.9375 2:0.6875 3:0.8125 4:0.6875 5:1.0 6:0.8125 7:0.125 8:0.5 9:0.0625 10:0.3125 11:0.375 12:0.625 13:0.5625 14:0.6875 15:0.625 16:0.4375 17:0.6875 18:0.6875 19:0.5 20:0.8125 21:1.0 
-0.6419695458639694 1:0.0 2:0.5 3:0.3125 4:0.75 5:0.4375 6:0.25 7:0.5 8:0.5 9:1.0 10:0.5 11:0.5625 12:0.5 13:0.5 14:0.0625 15:0.25 16:1.0 17:0.5 18:0.4375 19:0.375 20:0.1875 21:0.6875 
-0.01716700097823107 1:0.8125 2:0.9375 3:0.25 4:0.6875 5:0.625 6:0.25 7:0.5 8:0.0625 9:0.875 10:0.625 11:0.3125 12:0.375 13:1.0 14:0.4375 15:0.0 16:0.8125 17:0.8125 18:0.4375 19:0.4375 20:0.0625 21:0.1875 
0.128107554912139 1:0.125 2:1.0 3:0.6875 4:0.625 5:0.4375 6:0.625 7:0.9375 8:0.5625 9:0.5 10:0.5 11:0.625 12:0.5 13:0.5 14:0.0625 15:0.5 16:0.5 17:0.4375 18:0.6875 19:0.0 20:0.875 21:0.875 
-0.663237789260177 1:0.5625 2:0.75 3:0.5 4:0.75 5:0.375 6:0.6875 7:0.5 8:0.6875 9:0.875 10:0.3125 11:0.5 12:0.1875 13:0.625 14:0.4375 15:0.375 16:0.875 17:0.25 18:0.625 19:0.3125 20:0.3125 21:0.75 
-0.376879428350823 1:0.0625 2:0.4375 3:0.8125 4:0.875 5:0.625 6:0.3125 7:0.375 8:0.6875 9:0.875 10:0.8125 11:0.5 12:0.5 13:0.8125 14:0.875 15:0.5625 16:0.5625 17:0.5 18:0.375 19:0.25 20:0.125 21:0.25 
0.5877796275161775 1:0.6875 2:0.5625 3:0.9375 4:0.375 5:0.75 6:0.5625 7:0.0 8:0.5 9:0.125 10:0.0 11:0.5 12:0.9375 13:0.5 14:0.5 15:1.0 16:0.25 17:0.4375 18:0.5625 19:0.75 20:0.6875 21:0.9375 
0.046758162161300666 1:0.5625 2:0.875 3:0.8125 4:0.75 5:1.0 6:1.0 7:1.0 8:0.5 9:0.5625 10:0.875 11:0.875 12:0.25 13:0.4375 14:0.4375 15:0.1875 16:0.125 17:0.75 18:0.5 19:0.8125 20:0.5625 21:0.5625 
-0.04073831572884917 1:0.6875 2:0.75 3:0.9375 4:0.75 5:0.375 6:0.9375 7:0.875 8:0.875 9:0.5 10:0.375 11:0.4375 12:0.3125 13:0.0625 14:0.1875 15:0.375 16:0.0625 17:0.25 18:0.5 19:0.375 20:0.9375 21:0.625 
-0.005697118685304636 1:0.75 2:0.75 3:0.625 4:0.625 5:0.875 6:0.5 7:0.6875 8:0.875 9:0.125 10:0.5 11:0.4375 12:0.5 13:0.25 14:0.0625 15:0.4375 16:0.375 17:0.3125 18:0.0 19:0.625 20:0.375 21:0.1875 
-0.05022331115815589 1:0.5625 2:0.3125 3:0.8125 4:1.0 5:0.875 6:0.6875 7:0.0 8:0.5 9:0.8125 10:0.375 11:0.5 12:1.0 13:0.75 14:0.8125 15:0.8125 16:0.5625 17:0.3125 18:0.6875 19:0.4375 20:0.4375 21:1.0 
0.0829494294129358 1:0.5 2:0.1875 3:0.5 4:0.5 5:0.5 6:0.375 7:0.0625 8:0.375 9:0.8125 10:0.1875 11:0.1875 12:0.6875 13:0.9375 14:0.9375 15:0.4375 16:0.625 17:0.5625 18:0.375 19:0.5 20:0.25 21:0.4375 
0.014557792327086677 1:0.9375 2:0.5 3:0.5 4:0.1875 5:0.0625 6:0.5 7:0.5625 8:0.0 9:0.0 10:0.125 11:0.125 12:0.3125 13:0.25 14:0.25 15:0.3125 16:0.5 17:0.375 18:0.5625 19:0.1875 20:0.5625 21:0.9375 
-0.04995619838646758 1:0.5 2:0.5 3:0.5625 4:0.375 5:0.875 6:0.4375 7:0.8125 8:1.0 9:0.6875 10:0.9375 11:0.625 12:0.6875 13:0.5 14:0.9375 15:0.3125 16:0.25 17:0.625 18:0.5 19:1.0 20:0.875 21:0.125 
0.06788031383128386 1:1.0 2:0.625 3:0.5 4:0.375 5:0.5 6:0.5625 7:0.25 8:0.25 9:0.0625 10:0.25 11:0.5 12:0.3125 13:0.375 14:0.5625 15:0.625 16:0.1875 17:0.1875 18:0.625 19:0.75 20:0.625 21:0.625 
0.5339924332680768 1:0.4375 2:0.25 3:0.125 4:0.125 5:0.5 6:0.3125 7:0.1875 8:0.25 9:0.4375 10:0.5625 11:0.0625 12:0.5 13:0.625 14:0.75 15:0.6875 16:0.4375 17:1.0 18:0.875 19:0.9375 20:0.625 21:0.4375 
-0.02735377836356983 1:0.25 2:0.125 3:0.6875 4:0.6875 5:0.8125 6:0.0625 7:0.375 8:0.875 9:0.6875 10:0.9375 11:0.375 12:0.9375 13:0.6875 14:0.9375 15:0.5 16:0.1875 17:0.0625 18:0.0625 19:0.375 20:0.3125 21:0.25 
-0.0681565177817797 1:0.875 2:0.25 3:0.625 4:0.4375 5:0.625 6:0.625 7:0.25 8:0.5625 9:0.25 10:0.4375 11:0.125 12:0.6875 13:0.5 14:0.9375 15:0.5 16:0.125 17:0.5 18:0.1875 19:0.75 20:1.0 21:0.375 
-0.331399514774813 1:0.8125 2:0.3125 3:0.4375 4:0.5 5:0.5 6:0.5 7:0.0 8:0.125 9:0.375 10:0.0625 11:0.375 12:0.625 13:0.75 14:0.9375 15:1.0 16:0.9375 17:0.5 18:0.25 19:0.5 20:0.25 21:0.375 
-0.3012631817060175 1:0.25 2:0.125 3:0.25 4:0.25 5:0.0625 6:0.25 7:0.1875 8:0.125 9:0.5625 10:0.1875 11:0.5 12:0.0625 13:0.9375 14:0.5 15:0.375 16:0.75 17:0.625 18:0.75 19:0.375 20:0.0625 21:0.5 
-0.02213626839030913 1:0.5 2:0.5 3:0.5 4:0.0 5:0.5 6:0.5 7:0.625 8:0.4375 9:0.25 10:0.625 11:0.6875 12:0.4375 13:0.4375 14:0.4375 15:0.4375 16:0.125 17:0.5 18:0.5 19:0.875 20:0.875 21:0.8125 
-0.1402375531945021 1:0.0 2:0.3125 3:0.5625 4:0.4375 5:0.0 6:0.0 7:0.5625 8:0.5 9:0.875 10:0.75 11:0.5 12:0.5625 13:0.8125 14:0.5 15:0.4375 16:0.875 17:0.5 18:0.25 19:0.25 20:0.0 21:0.1875 
0.28448788820018317 1:0.6875 2:0.5 3:0.75 4:0.5625 5:0.5 6:0.9375 7:0.5625 8:0.8125 9:0.8125 10:0.5625 11:0.5 12:0.75 13:0.8125 14:0.375 15:0.375 16:0.5 17:0.0 18:0.0 19:0.0625 20:0.25 21:0.6875 
-0.11606519991503005 1:0.375 2:0.875 3:0.5 4:0.5 5:0.4375 6:0.875 7:0.6875 8:0.5625 9:0.75 10:0.375 11:0.5625 12:0.0625 13:0.5 14:0.0625 15:0.125 16:0.8125 17:0.5 18:0.875 19:0.1875 20:0.75 21:0.75 
-0.23845920326950162 1:0.3125 2:0.5 3:0.8125 4:0.5 5:0.5625 6:1.0 7:0.875 8:0.875 9:0.6875 10:0.75 11:1.0 12:0.1875 13:0.1875 14:0.375 15:0.8125 16:0.5 17:0.375 18:0.875 19:0.625 20:0.75 21:0.9375 
-0.14781570642208303 1:0.1875 2:0.25 3:0.5 4:0.6875 5:0.8125 6:0.3125 7:0.5 8:0.5625 9:0.9375 10:1.0 11:0.625 12:1.0 13:0.5625 14:0.75 15:0.6875 16:0.3125 17:0.5 18:0.125 19:0.5 20:0.0 21:0.0 
-0.23081793138846526 1:0.5625 2:1.0 3:0.625 4:0.0625 5:0.625 6:0.25 7:0.625 8:0.375 9:0.25 10:0.125 11:0.25 12:0.25 13:0.125 14:0.5 15:0.0 16:0.125 17:0.375 18:0.4375 19:0.6875 20:0.5 21:0.375 
-0.0025203589440471424 1:0.5625 2:0.5 3:0.5625 4:1.0 5:0.9375 6:0.6875 7:0.4375 8:0.8125 9:0.5625 10:0.6875 11:0.9375 12:0.75 13:0.5 14:0.9375 15:0.75 16:0.0625 17:0.4375 18:0.625 19:0.5 20:0.5625 21:0.4375 
0.24052963102760633 1:0.5 2:0.25 3:0.0 4:0.3125 5:0.0625 6:0.5 7:0.1875 8:0.5 9:0.3125 10:0.375 11:0.5 12:0.875 13:0.5 14:0.5 15:0.8125 16:0.5 17:0.1875 18:0.75 19:0.3125 20:0.5 21:0.9375 
0.034007263771792286 1:0.125 2:0.5 3:0.5 4:0.625 5:0.5 6:0.5 7:1.0 8:0.875 9:0.9375 10:1.0 11:0.625 12:0.625 13:0.5625 14:0.75 15:0.6875 16:0.4375 17:0.625 18:0.5625 19:0.625 20:0.875 21:0.5 
0.8780430935159727 1:0.625 2:0.5 3:0.125 4:0.0 5:0.9375 6:0.5625 7:0.5625 8:0.25 9:0.25 10:0.5625 11:0.625 12:0.4375 13:0.125 14:0.875 15:0.5625 16:0.375 17:0.625 18:0.5625 19:0.875 20:0.9375 21:0.4375 
0.013841917389806408 1:0.4375 2:0.6875 3:0.875 4:0.8125 5:0.8125 6:0.1875 7:0.75 8:0.9375 9:1.0 10:0.875 11:0.5625 12:0.6875 13:0.3125 14:0.5 15:0.0 16:0.0625 17:0.625 18:0.0 19:0.6875 20:0.0625 21:0.125 
0.13777071431962612 1:0.375 2:0.125 3:1.0 4:0.5 5:0.875 6:0.625 7:0.1875 8:0.6875 9:0.5625 10:0.6875 11:1.0 12:0.6875 13:0.75 14:0.875 15:0.875 16:0.4375 17:0.4375 18:0.6875 19:0.5 20:1.0 21:0.5 
-0.052764289539494025 1:0.0625 2:0.25 3:0.0625 4:0.0625 5:0.375 6:0.1875 7:0.625 8:0.5 9:0.5625 10:1.0 11:0.875 12:0.1875 13:0.625 14:0.875 15:0.3125 16:0.625 17:0.75 18:0.9375 19:0.5 20:0.25 21:0.25 
0.26890567263399784 1:0.875 2:0.9375 3:0.5 4:0.4375 5:0.9375 6:0.75 7:0.3125 8:0.3125 9:0.0625 10:0.5625 11:0.1875 12:0.0625 13:0.375 14:0.75 15:0.0625 16:0.625 17:0.875 18:0.9375 19:0.8125 20:0.4375 21:0.125 
-0.019815481376259023 1:0.875 2:0.75 3:0.8125 4:0.5 5:0.9375 6:0.1875 7:0.625 8:0.8125 9:0.75 10:0.875 11:0.3125 12:0.5 13:0.5 14:0.5 15:0.125 16:0.5 17:0.6875 18:0.125 19:0.75 20:0.0625 21:0.1875 
0.32797213788995305 1:0.0 2:0.75 3:0.375 4:0.3125 5:0.5625 6:0.625 7:0.625 8:0.3125 9:0.9375 10:0.875 11:0.9375 12:0.0 13:0.125 14:0.3125 15:0.4375 16:0.6875 17:0.625 18:0.9375 19:0.625 20:0.75 21:0.5 
-0.6516508459723072 1:0.75 2:0.3125 3:0.5625 4:0.8125 5:0.875 6:0.9375 7:0.375 8:0.5 9:0.875 10:0.4375 11:0.25 12:0.5625 13:0.9375 14:0.75 15:0.5 16:0.9375 17:0.6875 18:0.5 19:0.1875 20:0.1875 21:0.25 
-0.23802167181579986 1:0.6875 2:0.6875 3:0.625 4:0.8125 5:0.75 6:0.5625 7:0.625 8:0.75 9:0.625 10:0.5 11:0.375 12:0.375 13:0.5 14:0.0625 15:0.125 16:0.4375 17:0.1875 18:0.0625 19:0.0 20:0.125 21:0.1875 
-0.34899004737726363 1:0.875 2:0.875 3:0.5625 4:1.0 5:0.75 6:0.375 7:0.5 8:0.4375 9:0.4375 10:0.1875 11:0.4375 12:0.1875 13:0.5 14:0.125 15:0.0 16:0.5 17:0.5 18:0.0 19:0.25 20:0.375 21:0.375 
-0.19762919029183487 1:0.0 2:0.25 3:0.0 4:0.6875 5:0.1875 6:0.375 7:0.4375 8:0.5 9:0.875 10:0.625 11:0.5 12:0.0 13:0.75 14:0.4375 15:0.0625 16:1.0 17:0.8125 18:0.5 19:0.1875 20:0.3125 21:0.3125 
0.6495931835268259 1:0.5 2:0.125 3:0.5 4:0.125 5:0.25 6:0.6875 7:0.125 8:0.5 9:0.4375 10:0.5 11:1.0 12:0.5625 13:0.5 14:1.0 15:1.0 16:0.4375 17:0.5625 18:0.6875 19:0.4375 20:1.0 21:0.75 
0.1730346206842663 1:0.875 2:0.5 3:0.5 4:0.1875 5:0.4375 6:0.375 7:0.3125 8:0.5625 9:0.0 10:0.1875 11:0.25 12:0.75 13:0.0625 14:0.375 15:0.25 16:0.125 17:0.125 18:0.0 19:0.5 20:0.0 21:0.1875 
-0.5200211987589377 1:0.4375 2:0.3125 3:0.1875 4:0.25 5:0.0 6:0.1875 7:0.1875 8:0.5 9:0.5625 10:0.125 11:0.25 12:0.875 13:0.9375 14:0.5625 15:0.8125 16:0.5625 17:0.25 18:0.4375 19:0.3125 20:0.0625 21:0.3125 
0.07465726637719386 1:0.5 2:0.5 3:0.5 4:0.625 5:1.0 6:1.0 7:0.125 8:0.5 9:0.8125 10:0.5 11:0.75 12:0.4375 13:1.0 14:0.9375 15:0.9375 16:0.8125 17:0.875 18:0.6875 19:0.3125 20:0.5625 21:0.625 
0.44245513523902474 1:0.4375 2:0.8125 3:0.0625 4:0.5 5:0.9375 6:0.625 7:0.6875 8:0.75 9:0.8125 10:0.8125 11:1.0 12:0.1875 13:0.375 14:0.6875 15:0.375 16:0.8125 17:0.8125 18:1.0 19:0.875 20:0.5 21:0.3125 
0.561648352390157 1:0.25 2:0.375 3:0.0625 4:0.125 5:0.0 6:0.5625 7:0.5 8:0.0 9:0.375 10:0.0625 11:0.5625 12:0.5 13:0.5 14:0.4375 15:1.0 16:0.5 17:0.875 18:0.875 19:0.5 20:0.6875 21:0.625 
-0.34651177603987676 1:0.5 2:0.25 3:0.9375 4:0.4375 5:0.4375 6:0.0625 7:0.125 8:0.5625 9:0.3125 10:0.5625 11:0.5625 12:0.8125 13:0.5 14:0.625 15:0.5 16:0.3125 17:0.5 18:0.25 19:0.75 20:0.5625 21:0.25 
-0.13063473465561176 1:0.9375 2:0.5 3:0.625 4:0.5 5:0.875 6:0.4375 7:0.25 8:0.125 9:0.3125 10:0.25 11:0.0625 12:0.5 13:0.875 14:0.75 15:0.25 16:0.4375 17:0.5625 18:0.1875 19:0.4375 20:0.0625 21:0.0625 
-0.24911775996491245 1:0.3125 2:0.1875 3:0.5 4:0.5 5:0.5 6:0.625 7:0.4375 8:0.625 9:0.625 10:0.75 11:0.9375 12:1.0 13:0.6875 14:0.5 15:0.5 16:0.5 17:0.5 18:0.5 19:0.0 20:0.5 21:0.75 
0.3700797489553849 1:0.4375 2:0.25 3:0.375 4:0.25 5:0.3125 6:0.625 7:0.0 8:0.4375 9:0.625 10:0.125 11:0.5625 12:1.0 13:0.625 14:0.5 15:0.5625 16:0.5625 17:0.0 18:0.6875 19:0.125 20:0.5 21:0.875 
-0.13836268333502333 1:0.5625 2:0.6875 3:1.0 4:0.6875 5:0.8125 6:0.4375 7:0.8125 8:0.6875 9:0.8125 10:0.5625 11:0.625 12:0.625 13:0.4375 14:0.6875 15:0.5 16:0.5 17:0.5 18:0.25 19:0.75 20:0.0 21:0.375 
0.16082736307526713 1:0.25 2:0.625 3:0.75 4:0.3125 5:0.375 6:0.125 7:0.5625 8:0.875 9:0.5 10:0.625 11:0.625 12:0.5625 13:0.25 14:0.0625 15:0.375 16:0.125 17:0.0625 18:0.125 19:0.6875 20:0.6875 21:0.9375 
-0.6423473422862173 1:1.0 2:0.625 3:0.625 4:0.125 5:0.9375 6:0.5625 7:0.4375 8:0.3125 9:0.25 10:0.75 11:0.5 12:0.625 13:0.3125 14:0.6875 15:0.75 16:0.0 17:0.75 18:0.8125 19:0.75 20:0.75 21:0.5 
0.06719297533717483 1:1.0 2:0.4375 3:0.0625 4:0.5 5:0.375 6:0.9375 7:0.0 8:0.25 9:0.1875 10:0.1875 11:0.5 12:0.375 13:0.625 14:0.375 15:0.5 16:0.5625 17:0.4375 18:0.6875 19:0.375 20:0.6875 21:0.9375 
0.15900610663116213 1:0.5 2:0.5 3:0.5 4:0.375 5:0.0625 6:0.5 7:0.5625 8:0.0625 9:0.25 10:0.4375 11:0.4375 12:0.3125 13:0.1875 14:0.1875 15:0.5 16:0.3125 17:0.5 18:0.6875 19:0.5 20:0.5625 21:0.5 
0.11941286609012541 1:0.25 2:0.25 3:0.25 4:0.375 5:0.125 6:0.5 7:0.6875 8:0.75 9:0.75 10:0.875 11:0.6875 12:0.8125 13:0.375 14:0.5625 15:1.0 16:0.5 17:0.625 18:0.6875 19:0.625 20:0.9375 21:0.625 
-0.8070548055935188 1:0.8125 2:0.9375 3:1.0 4:0.625 5:0.8125 6:0.8125 7:0.25 8:0.4375 9:0.5 10:0.875 11:0.625 12:0.1875 13:0.5625 14:0.625 15:0.625 16:0.75 17:0.9375 18:0.9375 19:0.6875 20:0.625 21:0.4375 
0.12992836077566386 1:0.4375 2:0.8125 3:0.75 4:1.0 5:0.875 6:0.75 7:0.875 8:0.875 9:1.0 10:1.0 11:0.75 12:0.4375 13:0.5 14:0.875 15:0.5 16:0.6875 17:0.5 18:0.1875 19:0.5 20:0.0 21:0.4375 
0.09730052315267823 1:0.5 2:0.375 3:0.1875 4:0.0625 5:0.375 6:0.1875 7:0.5 8:0.3125 9:0.25 10:0.3125 11:0.125 12:0.25 13:0.25 14:0.5 15:0.125 16:0.25 17:0.5625 18:0.5 19:0.75 20:0.5 21:0.6875 
-0.138325701534186 1:1.0 2:0.5 3:0.6875 4:0.875 5:0.625 6:0.5 7:0.0 8:0.5 9:0.4375 10:0.0625 11:0.375 12:0.5 13:0.875 14:0.625 15:0.5 16:0.625 17:0.0625 18:0.25 19:0.25 20:0.5 21:0.6875 
0.04393120649693113 1:0.875 2:0.5 3:0.9375 4:0.5625 5:0.4375 6:0.625 7:0.4375 8:0.75 9:0.4375 10:0.0625 11:0.5 12:0.4375 13:0.5 14:0.0625 15:0.5625 16:0.25 17:0.25 18:0.4375 19:0.25 20:0.5625 21:0.8125 
-0.0035719516633964657 1:0.875 2:0.875 3:1.0 4:0.75 5:0.8125 6:0.875 7:0.6875 8:0.5625 9:1.0 10:0.75 11:1.0 12:0.5625 13:0.5625 14:0.4375 15:1.0 16:0.9375 17:0.375 18:1.0 19:0.125 20:0.5 21:0.9375 
