encog,SVM,java,3.2.0,1,1406057333207
[SVM]
[SVM:PARAMS]
[SVM:SVM-PARAM]
inputCount=6
C=1
cacheSize=100
coef0=0
degree=3
eps=0.001
gamma=1
kernelType=2
nrWeight=0
nu=0.5
p=0.1
probability=0
shrinking=1
svmType=3
weight=
weightLabel=
[SVM:SVM-MODEL]
svm_type epsilon_svr
kernel_type rbf
gamma 1.0
nr_class 2
total_sv 150
rho -0.47198665392823197
SV
1.0 1:0.3125 2:0.0625 3:0.5 4:0.0 5:0.9375 6:1.0 
-1.0 1:0.1875 2:0.75 3:0.4375 4:0.8125 5:1.0 6:0.3125 
-0.05663729325596047 1:0.875 2:0.9375 3:0.9375 4:0.1875 5:0.1875 6:0.5 
1.0 1:0.4375 2:0.125 3:0.1875 4:0.1875 5:0.0 6:0.75 
-1.0 1:0.375 2:0.75 3:0.4375 4:0.5625 5:0.3125 6:0.0625 
-1.0 1:0.0625 2:0.4375 3:0.375 4:0.9375 5:0.6875 6:0.125 
1.0 1:0.0 2:0.1875 3:0.5 4:0.25 5:0.8125 6:0.75 
0.7364123013064208 1:0.3125 2:0.0 3:0.0 4:0.4375 5:0.3125 6:0.0 
-0.0346680805661699 1:0.5625 2:0.8125 3:1.0 4:0.8125 5:0.5625 6:0.5625 
-0.3942300891468236 1:0.5625 2:0.9375 3:0.125 4:1.0 5:0.1875 6:0.0 
-1.0 1:0.375 2:0.5 3:0.375 4:0.5 5:0.0 6:0.125 
-0.7373678233757622 1:0.5 2:0.625 3:0.5625 4:0.5 5:0.3125 6:0.1875 
-0.14811681804377208 1:1.0 2:0.6875 3:1.0 4:0.0625 5:0.375 6:0.875 
-1.0 1:0.625 2:0.4375 3:0.375 4:0.3125 5:0.4375 6:0.6875 
-0.12068037872585904 1:0.5 2:0.375 3:0.625 4:0.5 5:0.5 6:0.8125 
-1.0 1:0.1875 2:0.0625 3:0.5 4:0.6875 5:0.875 6:0.5 
-0.13022817376685597 1:0.125 2:0.125 3:0.5 4:0.625 5:0.6875 6:0.9375 
1.0 1:0.3125 2:0.4375 3:0.25 4:0.375 5:0.1875 6:0.1875 
-0.5979580887301259 1:0.4375 2:0.3125 3:0.0 4:0.25 5:0.3125 6:0.125 
0.45121235992971026 1:0.8125 2:0.5 3:0.75 4:0.5 5:0.875 6:0.875 
1.0 1:0.125 2:0.5625 3:0.125 4:0.875 5:0.1875 6:0.125 
-1.0 1:0.5 2:0.25 3:0.5 4:0.25 5:0.875 6:0.8125 
1.0 1:0.4375 2:0.5 3:0.0625 4:0.75 5:0.125 6:0.3125 
-0.16976621274179027 1:0.5 2:0.875 3:0.0625 4:0.5625 5:0.0 6:0.125 
-1.0 1:0.5625 2:0.4375 3:0.0625 4:0.4375 5:0.4375 6:0.3125 
0.520366551829051 1:0.5 2:0.625 3:0.5 4:0.5625 5:0.1875 6:0.375 
0.6571159480722667 1:0.5 2:1.0 3:0.5625 4:0.6875 5:0.75 6:0.1875 
-1.0 1:0.0625 2:0.125 3:0.25 4:0.4375 5:0.5 6:0.875 
1.0 1:0.625 2:0.875 3:0.5 4:0.6875 5:0.0625 6:0.375 
0.9386682757019984 1:0.125 2:0.375 3:0.3125 4:1.0 5:1.0 6:0.5 
-0.20806716027572164 1:0.125 2:0.5 3:0.0 4:1.0 5:0.5625 6:0.5 
-1.0 1:0.25 2:0.5625 3:0.3125 4:1.0 5:1.0 6:0.3125 
-0.5019285734191754 1:0.0625 2:0.0 3:0.125 4:0.125 5:0.5 6:0.5 
-1.0 1:0.4375 2:0.0625 3:0.25 4:0.5 5:0.0625 6:0.5 
1.0 1:0.0625 2:0.3125 3:0.5 4:0.5625 5:1.0 6:0.5 
-1.0 1:0.3125 2:0.0 3:0.5 4:0.25 5:0.9375 6:0.75 
0.9510081856714112 1:0.625 2:0.4375 3:0.75 4:0.25 5:0.875 6:0.875 
-0.6003058340917174 1:0.625 2:0.75 3:1.0 4:0.6875 5:0.875 6:1.0 
-0.1744256593329674 1:0.0 2:0.6875 3:0.4375 4:0.6875 5:0.5 6:0.25 
1.0 1:0.625 2:0.4375 3:0.875 4:0.0625 5:0.875 6:0.875 
-0.7914748405836199 1:0.125 2:0.75 3:0.625 4:0.75 5:0.625 6:0.5 
1.0 1:0.125 2:0.75 3:0.5625 4:0.8125 5:0.5625 6:0.1875 
-0.5921287465411235 1:0.375 2:0.0 3:0.0 4:0.5 5:0.0 6:0.1875 
-0.17084754130472823 1:0.25 2:0.1875 3:0.5 4:0.9375 5:1.0 6:0.75 
-0.428019948661545 1:1.0 2:0.9375 3:1.0 4:0.375 5:0.5 6:0.375 
1.0 1:0.375 2:0.1875 3:0.375 4:0.0 5:0.25 6:0.8125 
1.0 1:0.3125 2:0.0 3:0.25 4:0.3125 5:0.8125 6:0.75 
1.0 1:0.4375 2:0.375 3:0.4375 4:0.4375 5:0.0625 6:0.375 
1.0 1:0.1875 2:0.625 3:0.0 4:0.875 5:0.1875 6:0.0 
0.9092233650613112 1:0.8125 2:0.4375 3:0.5 4:0.375 5:0.25 6:0.3125 
-0.2749753047197334 1:0.625 2:0.5 3:0.0625 4:0.4375 5:0.0625 6:0.5 
-1.0 1:0.1875 2:0.25 3:0.0625 4:0.625 5:0.875 6:0.5 
-1.0 1:0.875 2:0.5 3:0.375 4:0.5 5:0.375 6:0.375 
0.6039418371557318 1:0.875 2:0.5625 3:0.625 4:0.1875 5:0.625 6:0.625 
0.7979078878258157 1:0.0625 2:0.0625 3:0.3125 4:0.8125 5:0.875 6:0.5 
-0.6293548113131305 1:0.0 2:0.25 3:0.5625 4:0.3125 5:0.625 6:1.0 
-1.0 1:0.4375 2:0.5 3:0.0625 4:0.4375 5:0.375 6:0.0 
-0.7313991293168983 1:0.625 2:0.3125 3:1.0 4:0.25 5:0.6875 6:0.8125 
-1.0 1:0.4375 2:0.25 3:0.625 4:0.25 5:0.75 6:0.75 
-0.5047463382723076 1:0.9375 2:0.1875 3:0.4375 4:0.1875 5:0.0 6:0.625 
0.711439805123353 1:0.1875 2:0.5625 3:0.25 4:0.875 5:0.875 6:0.25 
1.0 1:0.0625 2:0.3125 3:0.5 4:0.5 5:0.5625 6:0.9375 
-1.0 1:0.625 2:0.5625 3:1.0 4:0.3125 5:0.875 6:0.625 
-1.0 1:0.4375 2:0.375 3:0.5 4:0.25 5:0.9375 6:1.0 
1.0 1:0.5 2:0.1875 3:0.5 4:0.25 5:0.875 6:0.8125 
-0.009860537375128733 1:0.0625 2:0.625 3:0.3125 4:1.0 5:0.3125 6:0.0625 
1.0 1:0.0625 2:0.25 3:0.25 4:0.6875 5:1.0 6:0.5 
1.0 1:0.5 2:0.4375 3:0.0 4:0.5625 5:0.5 6:0.25 
-1.0 1:0.875 2:1.0 3:0.5 4:0.5625 5:0.5 6:0.375 
1.0 1:0.1875 2:0.125 3:0.3125 4:0.625 5:0.5625 6:0.8125 
-0.060533843127103075 1:0.3125 2:0.125 3:0.5625 4:0.3125 5:0.5 6:0.9375 
-0.9716974712563421 1:0.5 2:0.1875 3:0.375 4:0.0 5:0.25 6:1.0 
-1.0 1:0.5625 2:0.6875 3:0.4375 4:0.375 5:0.0625 6:0.4375 
0.769166866354102 1:0.5625 2:0.4375 3:0.0625 4:0.25 5:0.375 6:0.5 
-1.0 1:0.375 2:0.875 3:0.5625 4:0.875 5:0.5 6:0.4375 
1.0 1:0.3125 2:0.6875 3:0.125 4:0.8125 5:0.125 6:0.0 
-1.0 1:0.6875 2:0.5625 3:0.6875 4:0.625 5:0.8125 6:0.5 
0.7092315374576371 1:0.125 2:0.5 3:0.4375 4:0.75 5:0.75 6:0.125 
1.0 1:0.5 2:0.4375 3:0.0625 4:0.5625 5:0.375 6:0.5 
-1.0 1:0.5625 2:0.8125 3:0.8125 4:0.8125 5:0.8125 6:0.25 
-0.13129569396619384 1:0.875 2:0.9375 3:0.5625 4:0.4375 5:0.4375 6:0.0625 
-1.0 1:0.5 2:0.5 3:0.4375 4:0.8125 5:0.3125 6:0.3125 
-1.0 1:0.8125 2:0.8125 3:0.5 4:0.75 5:0.0 6:0.0 
0.07855401487609764 1:0.3125 2:0.9375 3:0.5 4:0.9375 5:0.75 6:0.0625 
-1.0 1:0.9375 2:0.75 3:0.8125 4:0.3125 5:0.0625 6:0.5 
1.0 1:0.5625 2:0.6875 3:0.5625 4:0.875 5:1.0 6:0.5 
1.0 1:0.6875 2:0.5625 3:0.5625 4:0.375 5:0.1875 6:0.6875 
-0.9901740999431867 1:0.125 2:0.4375 3:0.0 4:0.625 5:0.0625 6:0.125 
-0.28267858990572714 1:0.75 2:0.5 3:0.875 4:0.375 5:0.3125 6:0.5 
-1.0 1:0.5625 2:0.5625 3:0.625 4:0.8125 5:0.875 6:0.4375 
-0.4854855676983411 1:1.0 2:0.8125 3:0.5 4:0.5 5:0.125 6:0.5 
1.0 1:0.5 2:0.875 3:0.8125 4:0.625 5:1.0 6:0.375 
0.6125190634531654 1:0.8125 2:0.9375 3:1.0 4:0.8125 5:1.0 6:0.5625 
-0.3615091094035441 1:0.5 2:0.0 3:0.4375 4:0.1875 5:0.0 6:0.5 
-1.0 1:0.0625 2:0.0 3:0.25 4:0.5 5:0.9375 6:0.5 
-0.4367552490684486 1:0.0 2:0.25 3:0.375 4:0.5 5:0.5 6:0.6875 
1.0 1:0.375 2:0.0 3:0.875 4:0.375 5:0.75 6:1.0 
-1.0 1:0.6875 2:0.5 3:1.0 4:0.125 5:0.8125 6:0.875 
1.0 1:0.5 2:0.375 3:0.3125 4:0.1875 5:0.375 6:0.25 
1.0 1:0.9375 2:0.8125 3:0.6875 4:0.5625 5:0.5 6:0.0625 
-1.0 1:0.5625 2:0.875 3:1.0 4:0.875 5:0.9375 6:0.25 
-1.0 1:0.8125 2:0.4375 3:0.9375 4:0.25 5:0.875 6:1.0 
0.005645946881495626 1:1.0 2:0.4375 3:0.8125 4:0.0625 5:0.75 6:1.0 
0.11562684978335583 1:0.25 2:0.1875 3:0.0 4:0.0 5:0.5 6:0.5625 
-1.0 1:0.3125 2:0.5 3:0.1875 4:0.875 5:0.25 6:0.3125 
1.0 1:1.0 2:0.5625 3:1.0 4:0.125 5:0.875 6:0.9375 
1.0 1:0.875 2:0.75 3:0.5625 4:0.625 5:0.5 6:0.1875 
0.2974848333257691 1:0.375 2:0.5625 3:0.5625 4:0.75 5:0.75 6:0.1875 
-1.0 1:0.5 2:0.5625 3:0.625 4:0.375 5:0.8125 6:0.9375 
0.9769454702159165 1:0.5 2:0.4375 3:0.8125 4:0.25 5:0.9375 6:0.75 
1.0 1:0.3125 2:0.5 3:0.5 4:1.0 5:0.8125 6:0.25 
1.0 1:0.6875 2:0.5 3:0.125 4:0.5625 5:0.125 6:0.1875 
-1.0 1:0.6875 2:0.75 3:0.1875 4:0.5625 5:0.375 6:0.25 
-1.0 1:0.5 2:0.375 3:0.5 4:0.0 5:0.0 6:0.5625 
-1.0 1:0.625 2:0.3125 3:0.375 4:0.1875 5:0.5 6:0.5625 
-0.083959475468063 1:0.8125 2:0.5 3:0.8125 4:0.0 5:0.25 6:0.8125 
1.0 1:0.375 2:0.9375 3:0.5 4:0.875 5:0.6875 6:0.5 
-0.4805721407761475 1:0.75 2:0.5 3:0.3125 4:0.25 5:0.0 6:0.5625 
-0.5868953564356821 1:0.25 2:0.0 3:0.75 4:0.25 5:0.9375 6:1.0 
1.0 1:0.5625 2:0.625 3:0.375 4:0.5 5:0.0625 6:0.4375 
-1.0 1:0.8125 2:0.75 3:0.9375 4:0.5 5:1.0 6:0.75 
-1.0 1:0.6875 2:0.3125 3:0.4375 4:0.125 5:0.1875 6:0.9375 
1.0 1:0.6875 2:0.625 3:1.0 4:0.6875 5:1.0 6:0.5625 
-1.0 1:0.3125 2:0.5 3:0.625 4:0.9375 5:0.6875 6:0.375 
0.2369784211798979 1:0.0625 2:0.625 3:0.1875 4:0.75 5:0.6875 6:0.0 
-0.26975315417160894 1:0.125 2:0.5625 3:0.25 4:1.0 5:0.3125 6:0.125 
0.31728584378263663 1:0.3125 2:0.1875 3:0.125 4:0.5625 5:0.5625 6:0.25 
-0.23129728119500448 1:0.5 2:0.0625 3:0.3125 4:0.4375 5:0.0 6:0.375 
-1.0 1:0.875 2:0.625 3:0.875 4:0.25 5:0.0625 6:0.5 
-1.0 1:0.0 2:0.1875 3:0.3125 4:0.5625 5:1.0 6:0.4375 
1.0 1:0.8125 2:0.6875 3:0.875 4:0.25 5:0.1875 6:0.625 
-0.20241723465619488 1:0.1875 2:0.5 3:0.6875 4:0.9375 5:0.6875 6:0.6875 
1.0 1:0.5625 2:0.5 3:0.4375 4:0.5625 5:0.0 6:0.0 
1.0 1:0.5 2:0.4375 3:0.3125 4:0.625 5:0.25 6:0.4375 
-1.0 1:0.5 2:0.6875 3:0.3125 4:0.5 5:0.5 6:0.25 
0.12193423427206845 1:0.25 2:0.0 3:0.3125 4:0.5 5:0.6875 6:0.5 
1.0 1:0.875 2:0.8125 3:0.6875 4:0.1875 5:0.25 6:0.625 
-1.0 1:0.375 2:0.5 3:0.0 4:0.4375 5:0.0 6:0.3125 
0.3471778935754475 1:0.75 2:0.125 3:0.375 4:0.0 5:0.3125 6:1.0 
0.9412774276343852 1:0.0625 2:0.125 3:0.125 4:0.5 5:0.75 6:0.5 
0.47881620534635827 1:0.75 2:0.4375 3:0.0625 4:0.125 5:0.0625 6:0.0 
0.4484724315712807 1:0.875 2:0.875 3:1.0 4:0.5 5:0.9375 6:1.0 
1.0 1:0.5 2:0.75 3:0.9375 4:0.8125 5:0.5625 6:0.5625 
1.0 1:0.6875 2:0.25 3:0.5625 4:0.1875 5:0.1875 6:0.6875 
0.41392052871441837 1:0.9375 2:0.75 3:0.875 4:0.5 5:0.375 6:0.125 
-1.0 1:0.125 2:0.4375 3:0.0 4:0.9375 5:0.1875 6:0.0 
1.0 1:0.75 2:0.5 3:0.625 4:0.1875 5:0.125 6:0.8125 
1.0 1:0.5 2:0.8125 3:0.625 4:0.5 5:0.6875 6:0.6875 
1.0 1:0.5 2:0.25 3:0.9375 4:0.5 5:1.0 6:0.8125 
0.43387756453140286 1:0.5 2:0.75 3:0.5625 4:1.0 5:0.875 6:0.125 
