encog,SVM,java,3.2.0,1,1406057740454
[SVM]
[SVM:PARAMS]
[SVM:SVM-PARAM]
inputCount=21
C=1
cacheSize=100
coef0=0
degree=3
eps=0.001
gamma=1
kernelType=2
nrWeight=0
nu=0.5
p=0.1
probability=0
shrinking=1
svmType=3
weight=
weightLabel=
[SVM:SVM-MODEL]
svm_type epsilon_svr
kernel_type rbf
gamma 1.0
nr_class 2
total_sv 357
rho -0.4726699408274546
SV
-0.016920436454826063 1:0.3125 2:0.375 3:0.75 4:0.625 5:0.5 6:0.8125 7:0.5 8:0.875 9:0.8125 10:1.0 11:0.75 12:0.6875 13:0.75 14:0.625 15:0.8125 16:0.0 17:0.4375 18:0.4375 19:0.4375 20:0.4375 21:0.375 
0.863618300053485 1:0.9375 2:0.5 3:0.6875 4:0.625 5:0.6875 6:1.0 7:0.4375 8:0.4375 9:0.875 10:0.625 11:0.875 12:0.4375 13:0.8125 14:1.0 15:0.5 16:0.75 17:0.8125 18:0.75 19:0.5 20:0.5 21:0.5625 
-0.12466973732103716 1:0.125 2:0.1875 3:0.4375 4:0.4375 5:0.4375 6:0.125 7:0.0 8:0.8125 9:0.5 10:0.75 11:0.0 12:0.75 13:0.6875 14:0.75 15:0.25 16:0.375 17:0.5 18:0.0 19:0.5 20:0.375 21:0.125 
0.05307523635947525 1:0.1875 2:0.0625 3:0.375 4:0.0625 5:0.125 6:0.3125 7:0.0 8:0.625 9:0.125 10:0.625 11:0.8125 12:0.8125 13:0.9375 14:0.625 15:0.875 16:0.125 17:0.4375 18:0.5 19:0.625 20:0.6875 21:0.625 
0.043040105877261405 1:0.75 2:0.75 3:0.5 4:0.6875 5:0.625 6:0.625 7:0.875 8:0.4375 9:0.3125 10:0.25 11:0.5 12:0.25 13:0.125 14:0.0625 15:0.0625 16:0.5625 17:0.5625 18:0.3125 19:0.25 20:0.4375 21:0.625 
-0.5139870343539196 1:0.5 2:0.5 3:0.5625 4:0.5625 5:0.3125 6:0.875 7:0.8125 8:0.625 9:0.75 10:0.125 11:0.875 12:0.5 13:0.625 14:0.125 15:0.9375 16:0.75 17:0.25 18:0.875 19:0.375 20:0.375 21:0.875 
0.07176285302096853 1:0.4375 2:0.8125 3:0.25 4:0.3125 5:0.5 6:0.0625 7:0.75 8:0.375 9:0.375 10:0.4375 11:0.1875 12:0.0625 13:0.1875 14:0.375 15:0.375 16:0.75 17:1.0 18:0.5 19:0.875 20:0.3125 21:0.4375 
-0.1425021789111285 1:0.5 2:0.25 3:0.5 4:0.4375 5:0.3125 6:0.1875 7:0.0 8:0.5625 9:0.625 10:0.4375 11:0.125 12:0.6875 13:0.8125 14:0.6875 15:0.6875 16:0.6875 17:0.5625 18:0.5 19:0.4375 20:0.125 21:0.25 
-0.3971086503825451 1:0.5 2:0.0 3:0.1875 4:0.25 5:0.3125 6:0.1875 7:0.3125 8:0.0625 9:0.1875 10:0.375 11:0.0625 12:0.5 13:0.5625 14:0.75 15:0.375 16:0.3125 17:0.5 18:0.5625 19:0.6875 20:0.9375 21:0.3125 
0.2543725913476251 1:0.5 2:0.4375 3:0.75 4:0.8125 5:0.0625 6:0.625 7:0.25 8:0.4375 9:0.9375 10:0.0 11:0.875 12:0.9375 13:0.875 14:0.5 15:0.6875 16:0.75 17:0.125 18:0.625 19:0.0625 20:0.25 21:0.75 
-0.13633870827415054 1:1.0 2:0.5 3:0.0 4:1.0 5:0.5 6:0.9375 7:0.1875 8:0.0 9:0.125 10:0.25 11:0.3125 12:0.375 13:0.5 14:0.0625 15:0.75 16:0.8125 17:0.625 18:0.9375 19:0.0 20:0.5 21:0.875 
0.06839604169838742 1:0.5 2:0.875 3:0.375 4:0.4375 5:0.375 6:0.5625 7:0.9375 8:0.25 9:0.4375 10:0.125 11:0.5625 12:0.125 13:0.0625 14:0.25 15:0.4375 16:0.4375 17:0.375 18:1.0 19:0.8125 20:0.9375 21:0.875 
-0.32349088611421045 1:0.8125 2:0.6875 3:0.75 4:1.0 5:0.375 6:0.9375 7:0.8125 8:0.75 9:0.9375 10:0.3125 11:0.875 12:0.5 13:0.9375 14:0.1875 15:0.5 16:0.5 17:0.375 18:0.4375 19:0.25 20:0.25 21:1.0 
-0.05255349233261074 1:0.5625 2:0.1875 3:0.3125 4:0.1875 5:0.1875 6:0.0 7:0.0 8:0.375 9:0.0625 10:0.1875 11:0.3125 12:0.375 13:0.0 14:0.25 15:0.375 16:0.0625 17:0.125 18:0.375 19:0.5625 20:0.5 21:0.375 
-0.32109325613786266 1:0.875 2:0.625 3:0.4375 4:0.25 5:0.625 6:0.6875 7:0.0625 8:0.3125 9:0.0625 10:0.0 11:0.375 12:0.5 13:0.25 14:0.125 15:0.5625 16:0.5 17:0.625 18:0.75 19:0.875 20:0.8125 21:0.8125 
0.09691306463773483 1:0.5 2:0.125 3:0.5 4:0.5625 5:0.5 6:0.375 7:0.5 8:0.625 9:1.0 10:0.5625 11:0.1875 12:0.875 13:1.0 14:0.5 15:0.375 16:0.75 17:0.625 18:0.1875 19:0.25 20:0.25 21:0.4375 
-0.08340450743677288 1:0.5 2:0.25 3:0.5625 4:0.75 5:0.3125 6:0.8125 7:0.0625 8:0.5 9:0.8125 10:0.125 11:0.75 12:0.6875 13:0.875 14:0.9375 15:0.75 16:0.5 17:0.5 18:0.6875 19:0.375 20:0.5 21:0.9375 
0.7500084533629788 1:0.375 2:0.3125 3:0.5 4:1.0 5:0.5 6:0.5 7:0.3125 8:0.9375 9:1.0 10:0.5 11:0.5 12:0.8125 13:1.0 14:0.8125 15:0.6875 16:0.8125 17:0.375 18:0.375 19:0.0 20:0.125 21:0.875 
0.158578732098282 1:0.0625 2:0.1875 3:0.1875 4:0.0 5:0.25 6:0.125 7:0.4375 8:0.125 9:0.5 10:0.9375 11:0.5625 12:0.5 13:0.5625 14:0.625 15:0.8125 16:0.625 17:0.875 18:0.75 19:0.5 20:0.5 21:0.0625 
0.5513253964062815 1:0.3125 2:0.5 3:0.6875 4:0.9375 5:0.25 6:0.8125 7:0.8125 8:0.75 9:0.625 10:0.5 11:0.5625 12:0.8125 13:0.625 14:0.4375 15:0.6875 16:0.0 17:0.0 18:0.5 19:0.1875 20:0.5 21:0.625 
0.06319978443203082 1:0.6875 2:0.6875 3:0.5 4:0.125 5:0.0 6:0.25 7:0.5625 8:0.4375 9:0.1875 10:0.375 11:0.0625 12:0.5625 13:0.25 14:0.125 15:0.0625 16:0.0 17:0.4375 18:0.1875 19:0.625 20:0.6875 21:0.0625 
-0.45451287510555305 1:0.6875 2:0.4375 3:0.5 4:0.25 5:0.25 6:0.6875 7:0.25 8:0.5 9:0.0 10:0.0 11:0.25 12:0.75 13:0.25 14:0.375 15:0.5625 16:0.1875 17:0.1875 18:0.375 19:0.375 20:0.4375 21:0.9375 
0.01845960873942732 1:0.5625 2:0.9375 3:0.8125 4:0.5625 5:0.4375 6:0.1875 7:0.625 8:0.3125 9:0.25 10:0.4375 11:0.4375 12:0.375 13:0.0625 14:0.0 15:0.125 16:0.5 17:0.5 18:0.4375 19:0.5 20:0.25 21:0.5625 
0.03632786749971267 1:0.875 2:0.9375 3:0.375 4:0.5625 5:0.5625 6:0.5 7:0.0625 8:0.0 9:0.25 10:0.1875 11:0.3125 12:0.25 13:0.4375 14:0.5 15:0.3125 16:0.9375 17:0.9375 18:0.6875 19:0.9375 20:0.125 21:0.0 
0.2848587013840011 1:0.625 2:0.5 3:0.75 4:0.4375 5:0.4375 6:0.6875 7:0.0 8:0.5 9:0.375 10:0.0 11:0.5 12:0.625 13:0.4375 14:0.8125 15:0.8125 16:0.0625 17:0.375 18:0.8125 19:0.9375 20:0.75 21:0.8125 
0.17528706061065846 1:0.5625 2:0.5625 3:0.5625 4:0.9375 5:0.6875 6:0.4375 7:0.625 8:0.625 9:1.0 10:0.6875 11:0.75 12:0.75 13:0.5 14:0.4375 15:0.5 16:0.6875 17:0.5 18:0.375 19:0.4375 20:0.125 21:0.25 
-1.0 1:0.5 2:0.6875 3:0.375 4:0.1875 5:0.5 6:0.5625 7:0.8125 8:0.1875 9:0.625 10:0.75 11:0.5 12:0.3125 13:0.5 14:0.5 15:0.3125 16:0.5625 17:0.6875 18:0.875 19:0.5 20:0.5625 21:0.5 
-0.0174505559390572 1:0.3125 2:0.3125 3:0.75 4:0.75 5:0.4375 6:0.3125 7:0.625 8:0.9375 9:0.625 10:0.8125 11:0.0 12:0.9375 13:0.625 14:0.5625 15:0.25 16:0.4375 17:0.25 18:0.0 19:0.5 20:0.375 21:0.375 
0.21679363011426264 1:0.1875 2:0.3125 3:0.0625 4:0.3125 5:0.3125 6:0.1875 7:0.25 8:0.3125 9:0.5625 10:0.625 11:0.875 12:0.25 13:0.5 14:0.75 15:0.875 16:0.5625 17:0.75 18:0.9375 19:0.8125 20:0.6875 21:0.75 
-0.08798593473685501 1:0.4375 2:0.25 3:0.3125 4:0.3125 5:0.125 6:0.0 7:0.375 8:0.0 9:0.6875 10:0.1875 11:0.5 12:0.625 13:0.5625 14:0.375 15:0.5 16:0.5 17:0.5 18:0.5 19:0.3125 20:0.25 21:0.4375 
-0.17068308486233338 1:0.9375 2:0.5 3:0.0625 4:0.625 5:0.875 6:0.6875 7:0.375 8:0.1875 9:0.0625 10:0.6875 11:0.5625 12:0.0625 13:0.4375 14:0.875 15:0.6875 16:0.5 17:0.9375 18:0.875 19:0.875 20:0.5 21:0.3125 
0.4228041675649234 1:0.75 2:0.375 3:0.4375 4:0.0 5:0.5 6:0.5 7:0.375 8:0.1875 9:0.1875 10:0.125 11:0.4375 12:0.6875 13:0.375 14:0.5 15:0.5625 16:0.3125 17:0.875 18:0.9375 19:0.6875 20:0.8125 21:0.6875 
-0.2277617853399741 1:0.3125 2:0.3125 3:0.375 4:0.6875 5:0.75 6:0.1875 7:0.5 8:0.3125 9:0.75 10:0.75 11:0.4375 12:0.25 13:0.5 14:0.75 15:0.375 16:0.8125 17:0.8125 18:0.375 19:0.5 20:0.4375 21:0.3125 
0.3537947447140694 1:0.1875 2:0.5 3:0.5 4:0.1875 5:0.375 6:0.9375 7:0.8125 8:0.8125 9:1.0 10:0.6875 11:1.0 12:0.5 13:0.3125 14:0.125 15:0.625 16:0.4375 17:0.3125 18:0.5 19:0.6875 20:0.8125 21:0.9375 
0.03660302936244774 1:0.3125 2:0.8125 3:0.5625 4:0.6875 5:0.5 6:0.625 7:0.75 8:0.5 9:0.5 10:0.75 11:0.75 12:0.0625 13:0.0 14:0.4375 15:0.5625 16:0.75 17:0.9375 18:0.75 19:0.8125 20:0.625 21:0.625 
-0.2522222113256408 1:0.875 2:0.6875 3:0.4375 4:0.75 5:0.625 6:0.875 7:0.375 8:0.4375 9:0.875 10:0.4375 11:0.5 12:0.0 13:0.5625 14:0.5625 15:0.3125 16:0.875 17:0.875 18:0.5 19:0.4375 20:0.375 21:0.4375 
0.010315077675738017 1:0.75 2:0.375 3:0.5625 4:0.75 5:0.6875 6:0.1875 7:0.125 8:0.4375 9:0.9375 10:0.375 11:0.125 12:0.8125 13:0.625 14:0.5 15:0.4375 16:0.5625 17:0.25 18:0.4375 19:0.25 20:0.0625 21:0.25 
0.2464801769694563 1:0.375 2:0.75 3:0.125 4:0.25 5:0.4375 6:0.4375 7:0.9375 8:0.4375 9:0.5625 10:0.8125 11:0.625 12:0.1875 13:0.0625 14:0.25 15:0.0 16:0.75 17:0.5625 18:0.8125 19:0.5 20:0.4375 21:0.0 
0.36083319717202994 1:0.5 2:0.5 3:0.6875 4:0.3125 5:0.25 6:0.625 7:0.5 8:0.5 9:0.1875 10:0.0625 11:0.1875 12:0.5625 13:0.4375 14:0.0 15:0.375 16:0.125 17:0.1875 18:0.5 19:0.0 20:0.875 21:0.6875 
-0.09485381250480668 1:0.4375 2:0.875 3:0.0625 4:0.3125 5:0.1875 6:0.5 7:0.4375 8:0.125 9:0.125 10:0.1875 11:0.625 12:0.1875 13:0.375 14:0.125 15:0.375 16:0.625 17:0.9375 18:0.875 19:0.5 20:0.6875 21:0.6875 
-0.2859660419418357 1:0.375 2:0.1875 3:0.875 4:0.75 5:0.9375 6:0.5 7:0.5625 8:0.9375 9:0.5625 10:0.625 11:0.8125 12:0.875 13:0.625 14:0.9375 15:0.5 16:0.375 17:0.375 18:0.0625 19:0.5 20:0.5 21:0.125 
0.0077616513061640425 1:0.375 2:0.75 3:0.6875 4:0.8125 5:0.4375 6:0.9375 7:0.9375 8:0.625 9:0.875 10:0.625 11:1.0 12:0.4375 13:0.5 14:0.375 15:1.0 16:0.875 17:0.375 18:1.0 19:0.1875 20:0.3125 21:0.75 
0.22871557848585103 1:0.0 2:0.5 3:0.4375 4:0.375 5:0.875 6:0.375 7:0.6875 8:0.3125 9:0.5625 10:0.75 11:0.5 12:0.375 13:0.1875 14:0.875 15:0.25 16:0.625 17:0.9375 18:0.5625 19:0.875 20:0.8125 21:0.0 
0.024027624376145234 1:0.5625 2:0.6875 3:0.6875 4:0.5 5:0.75 6:0.5625 7:0.5625 8:0.125 9:0.3125 10:0.1875 11:0.5625 12:0.0 13:0.0625 14:0.1875 15:0.5 16:0.125 17:0.5 18:0.75 19:0.5 20:0.625 21:0.9375 
-0.05110653145905954 1:0.75 2:0.6875 3:0.5 4:0.5 5:0.6875 6:0.6875 7:0.75 8:0.1875 9:0.375 10:0.25 11:0.6875 12:0.3125 13:0.0 14:0.0 15:0.5 16:0.3125 17:0.1875 18:1.0 19:0.5 20:0.9375 21:0.875 
0.627840513838421 1:0.625 2:0.8125 3:0.9375 4:0.8125 5:0.5 6:0.8125 7:0.1875 8:0.5 9:0.5625 10:0.375 11:0.625 12:0.75 13:0.5625 14:0.3125 15:0.5625 16:0.6875 17:0.375 18:0.3125 19:0.125 20:0.375 21:0.75 
0.42354306713297035 1:0.625 2:0.5 3:0.75 4:0.625 5:0.8125 6:0.9375 7:0.4375 8:0.875 9:0.8125 10:0.4375 11:0.5625 12:0.875 13:0.6875 14:0.625 15:0.9375 16:0.125 17:0.375 18:0.5625 19:0.4375 20:0.375 21:0.875 
0.0644092469554215 1:0.5 2:0.5 3:0.375 4:0.8125 5:0.75 6:0.8125 7:0.5625 8:0.25 9:0.625 10:0.5 11:0.6875 12:0.125 13:0.9375 14:0.5 15:1.0 16:0.9375 17:0.5 18:0.9375 19:0.25 20:0.3125 21:0.6875 
0.1031432050518094 1:0.5625 2:0.3125 3:0.5 4:0.875 5:0.6875 6:0.625 7:0.0625 8:0.4375 9:0.5 10:1.0 11:0.5 12:0.6875 13:0.75 14:0.9375 15:0.9375 16:0.8125 17:0.875 18:0.625 19:0.625 20:0.625 21:0.625 
-0.006982278211093294 1:0.8125 2:0.0625 3:0.5 4:0.75 5:0.5 6:0.125 7:0.125 8:0.5 9:0.125 10:0.5 11:0.25 12:0.8125 13:0.8125 14:0.8125 15:0.5 16:0.5625 17:0.5 18:0.0 19:0.4375 20:0.375 21:0.5 
-0.4211517275334119 1:0.8125 2:0.1875 3:0.8125 4:0.5 5:0.1875 6:0.5 7:0.0625 8:0.3125 9:0.1875 10:0.1875 11:0.0625 12:0.875 13:0.6875 14:0.625 15:0.75 16:0.5 17:0.4375 18:0.6875 19:0.25 20:0.6875 21:1.0 
0.03202135981353166 1:0.6875 2:0.0 3:0.5625 4:0.375 5:0.5 6:0.5625 7:0.125 8:0.1875 9:0.0625 10:0.25 11:0.75 12:1.0 13:0.4375 14:0.5 15:0.6875 16:0.0625 17:0.4375 18:0.5 19:0.5 20:0.6875 21:1.0 
-0.06640737180849456 1:0.4375 2:0.4375 3:0.4375 4:0.5625 5:0.5 6:0.0 7:0.5 8:0.25 9:0.75 10:0.6875 11:0.125 12:0.3125 13:0.625 14:0.5 15:0.4375 16:0.5625 17:0.8125 18:0.3125 19:0.125 20:0.25 21:0.1875 
0.043482154052300694 1:0.375 2:0.5 3:0.5625 4:1.0 5:0.625 6:0.375 7:0.5625 8:0.6875 9:0.9375 10:0.625 11:0.375 12:0.3125 13:0.4375 14:0.25 15:0.3125 16:0.5 17:0.5 18:0.3125 19:0.25 20:0.0 21:0.1875 
-0.25213726273001896 1:0.8125 2:0.5 3:0.8125 4:0.9375 5:0.625 6:0.5 7:0.5625 8:0.625 9:0.9375 10:0.75 11:0.3125 12:0.5 13:0.5625 14:0.875 15:0.3125 16:0.9375 17:0.75 18:0.5 19:0.3125 20:0.0 21:0.25 
0.6712475981832862 1:0.5625 2:0.5 3:0.625 4:0.5625 5:0.6875 6:0.5 7:0.6875 8:0.5 9:0.5625 10:0.625 11:0.5625 12:0.25 13:0.25 14:0.5 15:0.25 16:0.6875 17:0.8125 18:0.5625 19:0.625 20:0.0 21:0.0 
0.47332265567789034 1:0.625 2:0.3125 3:0.5625 4:0.375 5:0.1875 6:0.5625 7:0.4375 8:0.5 9:0.125 10:0.3125 11:0.5 12:0.6875 13:0.125 14:0.3125 15:0.5 16:0.0625 17:0.5 18:0.3125 19:0.5 20:0.9375 21:0.75 
0.5544490101002246 1:0.0625 2:0.5 3:0.6875 4:0.375 5:0.375 6:0.6875 7:0.5 8:0.9375 9:0.5625 10:0.8125 11:0.9375 12:0.5625 13:0.5 14:0.625 15:0.6875 16:0.5 17:0.375 18:0.875 19:0.5 20:0.75 21:1.0 
-0.49601011824949415 1:1.0 2:0.6875 3:0.75 4:0.9375 5:0.8125 6:1.0 7:0.3125 8:0.5625 9:0.5 10:0.4375 11:0.5 12:0.8125 13:0.5 14:0.5 15:0.5 16:0.0 17:0.1875 18:0.6875 19:0.5625 20:0.9375 21:0.8125 
-0.032047390543814995 1:0.625 2:0.25 3:0.3125 4:0.625 5:1.0 6:0.1875 7:0.5 8:0.5 9:0.5 10:0.5 11:0.125 12:0.5 13:1.0 14:1.0 15:0.0625 16:0.5625 17:0.75 18:0.3125 19:0.5625 20:0.0 21:0.125 
0.14781700845318996 1:0.6875 2:0.5625 3:0.875 4:0.875 5:0.6875 6:1.0 7:0.0 8:0.5 9:0.5 10:0.5 11:0.6875 12:0.8125 13:0.625 14:0.75 15:0.6875 16:0.3125 17:0.6875 18:0.5 19:0.8125 20:0.625 21:0.6875 
-0.03600160896040031 1:1.0 2:0.4375 3:0.375 4:1.0 5:0.5625 6:0.75 7:0.3125 8:0.4375 9:0.375 10:0.5 11:0.75 12:0.5 13:0.75 14:0.9375 15:1.0 16:0.9375 17:0.9375 18:0.8125 19:0.5 20:0.4375 21:0.875 
-0.009597345732074169 1:0.1875 2:0.0625 3:0.625 4:1.0 5:0.625 6:0.375 7:0.625 8:0.75 9:0.625 10:0.5625 11:0.5 12:0.875 13:0.875 14:0.75 15:0.5 16:0.5625 17:0.1875 18:0.0625 19:0.125 20:0.0 21:0.0625 
-0.01053937457771691 1:1.0 2:1.0 3:0.75 4:0.8125 5:0.875 6:0.5 7:0.25 8:0.375 9:0.0625 10:0.1875 11:0.1875 12:0.25 13:0.0625 14:0.4375 15:0.125 16:0.5 17:0.0625 18:0.1875 19:0.4375 20:0.25 21:0.25 
-0.1791530706042091 1:0.5 2:0.3125 3:0.5 4:0.5 5:0.5 6:0.25 7:0.3125 8:0.625 9:0.5625 10:0.4375 11:0.375 12:0.6875 13:1.0 14:0.75 15:0.6875 16:0.875 17:0.625 18:0.0 19:0.25 20:0.0625 21:0.5 
0.4556905818516128 1:0.9375 2:0.625 3:0.9375 4:0.6875 5:0.5 6:0.875 7:0.5 8:0.4375 9:0.6875 10:0.5 11:0.5 12:0.5625 13:0.75 14:0.3125 15:0.875 16:0.5 17:0.5 18:0.6875 19:0.0 20:0.5 21:0.875 
-0.22643689899950176 1:0.625 2:0.5 3:0.5 4:0.5 5:0.875 6:0.6875 7:0.5 8:0.125 9:0.1875 10:1.0 11:0.375 12:0.375 13:0.0 14:1.0 15:0.4375 16:0.0625 17:1.0 18:0.6875 19:1.0 20:1.0 21:0.0 
0.30172612936007137 1:0.4375 2:0.0625 3:0.1875 4:0.6875 5:0.5625 6:0.5625 7:0.5625 8:0.5 9:0.625 10:0.6875 11:0.6875 12:0.375 13:0.9375 14:0.8125 15:0.75 16:1.0 17:1.0 18:0.875 19:0.5 20:0.4375 21:0.8125 
-0.16959000514941813 1:0.5625 2:0.5 3:0.75 4:0.8125 5:0.0625 6:0.5 7:0.25 8:0.75 9:0.9375 10:0.1875 11:0.5625 12:0.6875 13:0.875 14:0.625 15:0.5 16:0.4375 17:0.1875 18:0.4375 19:0.1875 20:0.0625 21:0.5 
-0.07908336685099403 1:0.9375 2:0.125 3:1.0 4:0.5 5:0.8125 6:0.1875 7:0.3125 8:0.5 9:0.5 10:0.3125 11:0.0 12:1.0 13:0.6875 14:0.625 15:0.5 16:0.125 17:0.375 18:0.0 19:0.5625 20:0.375 21:0.25 
-0.3940948856687399 1:0.8125 2:0.625 3:0.625 4:0.6875 5:0.5625 6:0.5 7:0.5625 8:0.0 9:0.5625 10:0.4375 11:0.1875 12:0.125 13:0.5 14:0.5 15:0.5 16:0.5625 17:0.625 18:0.25 19:0.5625 20:0.0 21:0.0625 
0.31492336401371457 1:0.8125 2:0.6875 3:0.5 4:0.125 5:0.5 6:0.5 7:0.5 8:0.0625 9:0.1875 10:0.25 11:0.5 12:0.375 13:0.0625 14:0.125 15:0.75 16:0.125 17:0.5 18:0.625 19:0.625 20:0.8125 21:0.625 
0.43653477572303984 1:0.4375 2:0.625 3:0.5 4:0.5 5:0.1875 6:0.5 7:0.5 8:0.5 9:1.0 10:0.5 11:0.75 12:0.3125 13:0.5 14:0.3125 15:0.3125 16:0.9375 17:0.1875 18:0.3125 19:0.1875 20:0.3125 21:0.625 
-0.2723512843604541 1:0.4375 2:0.5 3:0.5 4:0.125 5:0.375 6:0.1875 7:0.5 8:0.8125 9:0.0 10:0.375 11:0.0625 12:0.875 13:0.0625 14:0.5625 15:0.1875 16:0.375 17:0.1875 18:0.0625 19:0.8125 20:0.5625 21:0.0 
-0.12713923514380382 1:0.625 2:0.6875 3:0.5 4:0.5 5:0.0 6:0.375 7:0.5 8:0.0625 9:0.5 10:0.1875 11:0.375 12:0.25 13:0.1875 14:0.25 15:0.125 16:0.8125 17:0.5 18:0.875 19:0.375 20:0.125 21:0.8125 
-0.029541242591862134 1:0.5 2:0.4375 3:0.1875 4:0.3125 5:0.8125 6:0.5625 7:0.5 8:0.375 9:0.0 10:0.3125 11:0.5 12:0.375 13:0.5 14:0.5 15:1.0 16:0.4375 17:0.625 18:0.9375 19:0.6875 20:0.9375 21:0.625 
0.06552322876111026 1:0.5 2:0.9375 3:0.625 4:0.8125 5:0.5 6:0.1875 7:0.875 8:0.75 9:0.8125 10:0.5 11:0.625 12:0.75 13:0.625 14:0.4375 15:0.3125 16:0.4375 17:0.25 18:0.0 19:0.25 20:0.0625 21:0.5625 
0.19891064247575863 1:1.0 2:0.625 3:0.8125 4:0.5 5:0.875 6:0.875 7:0.5 8:0.5 9:0.0 10:0.5 11:0.4375 12:0.0625 13:0.0 14:0.3125 15:0.25 16:0.4375 17:0.5 18:0.6875 19:0.6875 20:0.5625 21:0.5625 
0.2082828435510527 1:0.4375 2:0.125 3:0.1875 4:0.25 5:0.75 6:0.1875 7:0.0625 8:0.5 9:0.1875 10:0.75 11:0.1875 12:0.75 13:0.6875 14:1.0 15:0.6875 16:0.125 17:0.9375 18:0.3125 19:0.875 20:0.625 21:0.4375 
0.024260209275159525 1:0.5625 2:0.125 3:0.8125 4:0.4375 5:0.0 6:0.25 7:0.125 8:1.0 9:0.4375 10:0.0625 11:0.0625 12:0.6875 13:0.5 14:0.1875 15:0.375 16:0.0 17:0.125 18:0.25 19:0.375 20:0.25 21:0.5625 
0.04388900949593164 1:0.9375 2:0.6875 3:0.5 4:1.0 5:0.375 6:0.4375 7:0.375 8:0.5 9:0.1875 10:0.125 11:0.1875 12:0.5 13:0.25 14:0.125 15:0.0625 16:0.5 17:0.0 18:0.25 19:0.375 20:0.25 21:0.5625 
0.006359918187360926 1:0.5625 2:0.4375 3:0.125 4:0.5 5:0.0625 6:0.0 7:0.25 8:0.5 9:0.4375 10:0.0 11:0.0 12:0.1875 13:0.375 14:0.3125 15:0.125 16:0.625 17:0.125 18:0.3125 19:0.1875 20:0.25 21:0.625 
0.34047447210136456 1:0.75 2:0.6875 3:0.625 4:1.0 5:0.75 6:0.75 7:0.4375 8:0.0 9:0.5 10:0.3125 11:0.125 12:0.4375 13:0.875 14:0.3125 15:0.3125 16:0.9375 17:0.125 18:0.6875 19:0.0 20:0.1875 21:0.625 
0.3473445819749279 1:0.125 2:0.0625 3:0.1875 4:0.1875 5:0.25 6:0.0 7:0.875 8:0.8125 9:0.5625 10:0.5625 11:0.25 12:0.8125 13:0.5 14:0.75 15:0.4375 16:0.3125 17:0.3125 18:0.25 19:0.5 20:0.5 21:0.0625 
0.0976611392238496 1:0.5625 2:0.5 3:0.25 4:0.125 5:0.9375 6:0.4375 7:0.5625 8:0.1875 9:0.5 10:0.875 11:0.5625 12:0.4375 13:0.5 14:0.875 15:0.1875 16:0.8125 17:1.0 18:0.6875 19:0.6875 20:0.5625 21:0.25 
-0.011766368263925915 1:1.0 2:0.875 3:0.6875 4:0.875 5:0.8125 6:0.625 7:0.5625 8:0.25 9:0.375 10:0.375 11:0.3125 12:0.3125 13:0.5 14:0.6875 15:0.5 16:0.5 17:0.5625 18:0.9375 19:0.5 20:0.625 21:0.5 
0.09206940746767976 1:0.1875 2:0.5 3:0.4375 4:0.3125 5:0.875 6:0.5625 7:0.8125 8:0.1875 9:0.5 10:0.75 11:0.75 12:0.1875 13:0.5 14:0.5625 15:0.625 16:0.6875 17:1.0 18:0.75 19:0.5 20:0.75 21:0.5 
0.10223442658088655 1:0.375 2:0.9375 3:0.9375 4:0.0625 5:0.5 6:0.3125 7:0.75 8:0.875 9:0.5 10:0.5 11:0.5 12:0.6875 13:0.0625 14:0.5 15:0.1875 16:0.0625 17:0.5625 18:0.0625 19:0.8125 20:0.5625 21:0.1875 
0.2643944598629451 1:0.6875 2:0.9375 3:0.625 4:0.5 5:0.1875 6:0.75 7:0.4375 8:0.5 9:0.3125 10:0.25 11:0.4375 12:0.8125 13:0.3125 14:0.0625 15:0.625 16:0.0625 17:0.3125 18:0.4375 19:0.25 20:1.0 21:0.6875 
-0.2485140882229824 1:0.5 2:0.5 3:0.125 4:0.5 5:0.375 6:0.6875 7:0.5 8:0.4375 9:0.625 10:0.5 11:0.625 12:0.75 13:0.9375 14:0.625 15:0.875 16:0.9375 17:0.5 18:0.6875 19:0.3125 20:0.3125 21:1.0 
0.07154619632761537 1:0.5 2:0.4375 3:0.3125 4:0.0625 5:0.0625 6:0.3125 7:0.0 8:0.1875 9:0.125 10:0.0 11:0.25 12:0.0625 13:0.125 14:0.5 15:0.875 16:0.5 17:0.5 18:0.6875 19:0.6875 20:0.75 21:0.8125 
-0.21446632863102424 1:0.75 2:0.9375 3:0.5 4:0.6875 5:1.0 6:0.5 7:0.5625 8:0.25 9:0.625 10:0.6875 11:0.625 12:0.0 13:0.8125 14:0.5625 15:0.4375 16:0.9375 17:0.5625 18:0.75 19:0.5 20:0.4375 21:0.125 
0.3737015441110478 1:0.5 2:0.375 3:0.625 4:0.75 5:0.875 6:0.375 7:0.0625 8:0.5625 9:0.625 10:0.5625 11:0.0625 12:1.0 13:0.9375 14:0.9375 15:0.5 16:0.3125 17:0.8125 18:0.25 19:0.375 20:0.25 21:0.25 
-0.010622958499601636 1:0.625 2:0.25 3:0.5 4:0.8125 5:0.4375 6:0.3125 7:0.125 8:0.25 9:0.6875 10:0.4375 11:0.125 12:0.625 13:0.8125 14:0.4375 15:0.8125 16:0.625 17:0.5 18:0.1875 19:0.375 20:0.375 21:0.5 
-0.214747429430365 1:0.3125 2:0.3125 3:0.4375 4:0.6875 5:0.125 6:0.375 7:0.4375 8:1.0 9:1.0 10:0.875 11:0.8125 12:0.625 13:1.0 14:0.6875 15:0.5 16:0.9375 17:0.625 18:0.5 19:0.125 20:0.4375 21:0.5625 
0.012187943118811013 1:0.4375 2:0.5 3:0.5625 4:0.5 5:0.875 6:1.0 7:0.6875 8:0.6875 9:0.5 10:0.75 11:0.5625 12:0.5 13:0.5 14:0.6875 15:0.4375 16:0.0 17:0.4375 18:0.5 19:0.8125 20:0.5625 21:0.5 
-0.937427937106134 1:0.5 2:0.625 3:0.9375 4:0.375 5:0.3125 6:0.5 7:0.875 8:0.875 9:0.125 10:0.5 11:0.5 12:0.375 13:0.1875 14:0.1875 15:0.375 16:0.25 17:0.3125 18:0.1875 19:0.8125 20:0.875 21:1.0 
0.05140457303320714 1:0.5 2:0.625 3:0.9375 4:0.5 5:0.75 6:0.875 7:0.9375 8:0.625 9:0.75 10:0.75 11:1.0 12:0.8125 13:0.875 14:0.5 15:0.875 16:0.5 17:0.4375 18:0.75 19:0.5625 20:0.875 21:0.6875 
0.18759016338585938 1:0.5625 2:1.0 3:1.0 4:0.8125 5:0.75 6:0.4375 7:0.5 8:0.1875 9:0.3125 10:0.5 11:0.0 12:0.375 13:0.0625 14:0.5 15:0.1875 16:0.5 17:0.5 18:0.0 19:0.375 20:0.0 21:0.0 
0.12814444630676305 1:0.75 2:0.4375 3:0.375 4:0.5625 5:0.6875 6:0.6875 7:0.3125 8:0.3125 9:0.25 10:0.125 11:0.5625 12:0.625 13:0.4375 14:0.625 15:0.5625 16:0.4375 17:0.9375 18:0.625 19:1.0 20:0.875 21:0.625 
0.011336999547504063 1:0.875 2:0.5 3:0.6875 4:0.5625 5:0.375 6:0.5 7:0.3125 8:0.5 9:0.3125 10:0.0625 11:0.125 12:0.8125 13:0.625 14:0.5 15:0.625 16:0.25 17:0.4375 18:0.4375 19:0.375 20:0.75 21:0.75 
-0.4486364884512434 1:0.9375 2:0.5 3:0.75 4:0.75 5:0.3125 6:0.5625 7:0.5 8:0.375 9:0.6875 10:0.25 11:0.8125 12:0.5 13:0.8125 14:0.1875 15:0.75 16:0.6875 17:0.125 18:0.625 19:0.0625 20:0.6875 21:0.9375 
0.04845225943048091 1:0.75 2:0.9375 3:0.75 4:0.6875 5:0.5 6:0.75 7:0.25 8:0.375 9:0.375 10:0.1875 11:0.4375 12:0.5 13:0.6875 14:0.5625 15:0.625 16:0.3125 17:0.0625 18:0.1875 19:0.375 20:0.5625 21:0.75 
0.2558654935230673 1:0.25 2:0.125 3:0.5 4:0.5625 5:0.125 6:0.125 7:0.25 8:0.5 9:0.5 10:0.8125 11:0.5 12:0.75 13:0.6875 14:1.0 15:0.5625 16:0.4375 17:0.5 18:0.0 19:0.625 20:0.3125 21:0.3125 
-0.14675675879916897 1:0.5625 2:0.75 3:0.875 4:0.875 5:0.5 6:0.875 7:0.375 8:0.5625 9:0.5 10:0.4375 11:0.3125 12:0.5 13:0.3125 14:0.3125 15:0.375 16:0.1875 17:0.1875 18:0.0 19:0.0 20:0.5 21:0.5 
0.017773538937835006 1:0.0 2:0.3125 3:0.375 4:0.3125 5:0.5 6:0.125 7:0.6875 8:0.5 9:0.5625 10:1.0 11:0.6875 12:0.25 13:0.75 14:0.6875 15:0.375 16:0.5 17:1.0 18:0.5 19:1.0 20:0.3125 21:0.1875 
0.5386396271992072 1:0.6875 2:0.5 3:0.125 4:0.5 5:0.8125 6:0.3125 7:0.3125 8:0.0 9:0.25 10:0.5 11:0.0 12:0.25 13:0.375 14:0.8125 15:0.1875 16:0.5625 17:0.5625 18:0.25 19:0.5 20:0.5 21:0.125 
0.4594089087411695 1:0.875 2:0.5 3:0.625 4:0.75 5:0.5 6:0.9375 7:0.1875 8:0.0 9:0.0625 10:0.0625 11:0.5 12:0.8125 13:0.875 14:0.5 15:0.9375 16:0.625 17:0.4375 18:0.625 19:0.5 20:0.6875 21:1.0 
0.02901779658376237 1:0.625 2:0.9375 3:0.3125 4:0.75 5:0.6875 6:0.5625 7:0.8125 8:0.4375 9:0.875 10:0.5 11:0.5 12:0.3125 13:0.5 14:0.5 15:0.625 16:0.8125 17:0.625 18:0.875 19:0.25 20:0.375 21:0.5 
-0.16202616162038083 1:0.75 2:0.5625 3:0.625 4:0.5 5:0.875 6:0.4375 7:0.75 8:0.5 9:0.1875 10:1.0 11:0.125 12:0.5 13:0.3125 14:0.9375 15:0.4375 16:0.3125 17:1.0 18:0.25 19:1.0 20:0.5 21:0.375 
0.25064913343091505 1:0.5625 2:0.875 3:0.5 4:0.6875 5:0.625 6:0.6875 7:0.625 8:0.5 9:0.5625 10:0.75 11:0.75 12:0.0625 13:0.8125 14:0.3125 15:0.5 16:0.8125 17:0.9375 18:0.75 19:0.125 20:0.5625 21:0.75 
-0.040391886584462966 1:0.625 2:0.75 3:0.8125 4:0.9375 5:0.5 6:0.625 7:0.5 8:1.0 9:0.5625 10:0.0625 11:0.8125 12:0.5 13:0.5 14:0.3125 15:0.625 16:0.5 17:0.375 18:0.5625 19:0.5 20:0.5625 21:0.5625 
0.03886741591598131 1:0.0 2:0.4375 3:0.1875 4:0.25 5:0.5 6:0.25 7:0.9375 8:0.4375 9:0.25 10:0.625 11:0.125 12:0.3125 13:0.3125 14:0.5 15:0.0 16:0.375 17:1.0 18:0.25 19:1.0 20:0.8125 21:0.3125 
0.33364800590632704 1:0.875 2:0.6875 3:0.5 4:0.4375 5:0.5 6:0.8125 7:0.5 8:0.5 9:0.0 10:0.0625 11:0.6875 12:0.0625 13:0.0625 14:0.375 15:0.8125 16:0.25 17:0.625 18:0.75 19:0.875 20:0.9375 21:0.875 
-0.21125926786709326 1:0.875 2:0.75 3:0.875 4:0.9375 5:0.9375 6:0.5 7:0.75 8:0.6875 9:0.5 10:0.8125 11:0.5 12:1.0 13:0.5625 14:0.8125 15:0.3125 16:0.4375 17:0.3125 18:0.375 19:0.5625 20:0.25 21:0.3125 
0.11443144503083494 1:0.4375 2:0.5625 3:0.5625 4:1.0 5:0.5 6:0.6875 7:0.8125 8:1.0 9:0.9375 10:0.625 11:1.0 12:0.5 13:0.875 14:0.1875 15:0.625 16:0.875 17:0.1875 18:0.1875 19:0.1875 20:0.0 21:0.6875 
0.28789750421106924 1:0.4375 2:0.5625 3:0.0625 4:0.3125 5:0.5 6:0.5625 7:0.5 8:0.4375 9:0.6875 10:0.625 11:0.5 12:0.1875 13:0.5 14:0.6875 15:0.5 16:0.8125 17:0.9375 18:0.6875 19:0.5625 20:0.125 21:0.5 
-0.5194620636220815 1:0.5 2:0.4375 3:0.875 4:0.5 5:0.125 6:0.75 7:0.5625 8:0.5 9:0.625 10:0.25 11:0.5 12:0.875 13:0.4375 14:0.0625 15:0.625 16:0.4375 17:0.25 18:0.5 19:0.125 20:0.5625 21:0.6875 
0.14950529875286184 1:0.375 2:0.0 3:0.3125 4:0.125 5:0.5 6:0.4375 7:0.375 8:0.0625 9:0.5 10:0.6875 11:0.4375 12:0.125 13:0.4375 14:0.75 15:0.5625 16:0.9375 17:0.6875 18:0.5 19:0.625 20:0.5625 21:0.375 
-0.4139466065295029 1:0.25 2:0.4375 3:0.1875 4:0.8125 5:0.1875 6:0.5 7:0.5 8:0.6875 9:0.6875 10:0.3125 11:0.6875 12:0.625 13:0.625 14:0.1875 15:0.625 16:0.5625 17:0.1875 18:0.5 19:0.4375 20:0.5 21:0.9375 
0.3099291497841478 1:0.125 2:0.375 3:0.25 4:0.0625 5:0.3125 6:0.6875 7:0.75 8:0.5 9:0.5 10:0.6875 11:0.875 12:0.25 13:0.3125 14:0.625 15:0.9375 16:0.75 17:1.0 18:1.0 19:0.5 20:0.8125 21:0.9375 
-0.19297203151786685 1:0.3125 2:0.0625 3:0.125 4:0.3125 5:0.25 6:0.5625 7:0.3125 8:0.5625 9:0.25 10:0.0625 11:0.8125 12:1.0 13:0.625 14:1.0 15:0.875 16:0.4375 17:0.375 18:0.5625 19:0.4375 20:0.625 21:0.5625 
0.41959973541324186 1:0.5 2:0.1875 3:0.6875 4:0.375 5:0.4375 6:0.4375 7:0.25 8:0.5 9:0.5625 10:0.0625 11:0.5 12:0.75 13:0.9375 14:0.3125 15:0.5625 16:0.375 17:0.0625 18:0.125 19:0.5 20:0.5 21:0.625 
-0.4986309069000802 1:0.6875 2:0.9375 3:0.625 4:0.4375 5:0.5625 6:0.6875 7:0.5625 8:0.5625 9:0.375 10:0.5 11:0.625 12:0.25 13:0.4375 14:0.4375 15:0.4375 16:0.5 17:0.75 18:0.5 19:0.5 20:1.0 21:0.75 
0.11829124642101209 1:0.1875 2:0.375 3:0.0 4:0.375 5:0.4375 6:0.0 7:0.3125 8:0.4375 9:0.5 10:0.75 11:0.25 12:0.25 13:0.5625 14:0.9375 15:0.625 16:0.5 17:0.75 18:0.5 19:1.0 20:0.375 21:0.375 
-0.5126408927501029 1:0.5 2:0.5625 3:0.375 4:0.75 5:1.0 6:0.9375 7:0.375 8:0.25 9:0.9375 10:0.75 11:1.0 12:0.5 13:0.6875 14:0.9375 15:0.8125 16:0.9375 17:1.0 18:0.5 19:0.625 20:0.5 21:0.375 
-0.15830093641407766 1:0.5 2:0.5 3:0.25 4:0.9375 5:0.1875 6:0.375 7:0.5 8:0.3125 9:0.625 10:0.4375 11:0.8125 12:0.0625 13:0.5625 14:0.375 15:0.5 16:0.6875 17:0.5 18:0.625 19:0.25 20:0.5 21:1.0 
-0.22417816777906918 1:0.25 2:0.4375 3:0.1875 4:0.625 5:0.4375 6:0.5 7:0.9375 8:0.4375 9:0.6875 10:0.5 11:0.4375 12:0.0 13:0.5 14:0.5 15:0.5625 16:0.875 17:0.6875 18:0.875 19:0.125 20:0.125 21:0.5 
-0.037578367158523585 1:0.1875 2:0.375 3:0.625 4:0.5 5:0.5 6:0.4375 7:0.5625 8:0.8125 9:1.0 10:0.5625 11:0.6875 12:0.9375 13:0.5 14:0.3125 15:0.875 16:0.0625 17:0.1875 18:0.1875 19:0.3125 20:0.5 21:0.6875 
-0.2511079174388524 1:0.25 2:0.375 3:0.375 4:0.25 5:0.25 6:0.1875 7:0.4375 8:0.8125 9:0.375 10:0.875 11:0.4375 12:0.8125 13:0.5625 14:0.625 15:0.3125 16:0.1875 17:0.5 18:0.0 19:0.5625 20:0.375 21:0.0 
0.2722173323806045 1:0.375 2:0.625 3:0.4375 4:0.875 5:0.5625 6:0.875 7:0.625 8:0.4375 9:0.875 10:0.6875 11:0.4375 12:0.375 13:0.8125 14:0.625 15:0.4375 16:0.8125 17:0.875 18:0.6875 19:0.4375 20:0.5 21:0.375 
0.004304121205637532 1:0.5 2:0.375 3:0.125 4:0.1875 5:0.1875 6:0.1875 7:0.0 8:0.1875 9:0.4375 10:0.25 11:0.3125 12:0.5 13:0.875 14:0.625 15:0.0625 16:0.6875 17:0.5 18:0.25 19:0.5625 20:0.25 21:0.25 
0.21974251137230516 1:0.5625 2:0.75 3:0.125 4:1.0 5:0.5 6:0.5625 7:0.5 8:0.375 9:0.5 10:0.1875 11:0.375 12:0.375 13:0.3125 14:0.0625 15:0.3125 16:0.6875 17:0.4375 18:0.8125 19:0.375 20:0.5 21:0.875 
0.3680341807518703 1:0.6875 2:0.3125 3:0.4375 4:0.75 5:0.5 6:0.5 7:0.125 8:0.0 9:0.4375 10:0.4375 11:0.375 12:0.4375 13:0.5 14:0.9375 15:0.8125 16:0.75 17:0.5625 18:0.9375 19:0.4375 20:0.5 21:0.5625 
-0.18077963019793153 1:0.8125 2:0.4375 3:0.8125 4:0.8125 5:0.625 6:0.8125 7:0.5 8:0.5 9:0.1875 10:0.5 11:0.8125 12:0.5 13:0.5625 14:0.5 15:0.8125 16:0.375 17:0.625 18:0.625 19:0.5 20:0.6875 21:0.9375 
0.21137508994056337 1:0.625 2:0.75 3:0.625 4:0.8125 5:1.0 6:0.75 7:0.3125 8:0.0625 9:0.1875 10:0.6875 11:0.4375 12:0.1875 13:0.4375 14:0.75 15:0.1875 16:0.5 17:0.6875 18:0.375 19:1.0 20:0.5625 21:0.0 
-0.6030569548477978 1:0.8125 2:0.5 3:0.25 4:0.375 5:0.5625 6:0.375 7:0.5 8:0.1875 9:0.25 10:0.5625 11:0.25 12:0.0 13:0.1875 14:0.3125 15:0.0 16:0.6875 17:0.875 18:0.3125 19:0.6875 20:0.5625 21:0.375 
-0.03585751386850144 1:0.5625 2:0.25 3:0.875 4:0.375 5:0.375 6:0.3125 7:0.375 8:0.5625 9:0.375 10:0.25 11:0.0 12:0.8125 13:0.5625 14:0.875 15:0.8125 16:0.0625 17:0.0 18:0.3125 19:0.5 20:0.375 21:0.125 
-0.23097185002999013 1:1.0 2:0.25 3:0.5625 4:0.75 5:0.3125 6:0.5 7:0.25 8:0.1875 9:0.8125 10:0.25 11:0.375 12:0.875 13:1.0 14:0.9375 15:0.6875 16:0.875 17:0.4375 18:0.6875 19:0.0625 20:0.3125 21:0.5 
0.07735786144882585 1:0.25 2:0.3125 3:0.0625 4:0.1875 5:0.3125 6:0.375 7:0.8125 8:0.5 9:0.75 10:0.875 11:0.875 12:0.1875 13:0.25 14:0.4375 15:0.1875 16:0.5625 17:0.9375 18:0.4375 19:0.75 20:0.6875 21:0.5 
-0.1776830760310415 1:0.1875 2:0.4375 3:0.0625 4:0.0 5:0.375 6:0.5 7:0.5 8:0.4375 9:0.25 10:0.1875 11:0.5 12:0.5 13:0.125 14:0.1875 15:0.8125 16:0.3125 17:0.375 18:0.5 19:1.0 20:0.8125 21:0.8125 
-0.9616554122395797 1:0.5625 2:0.5 3:0.375 4:0.5625 5:0.625 6:0.875 7:0.3125 8:0.5 9:0.625 10:0.5625 11:0.75 12:0.8125 13:0.625 14:0.9375 15:0.8125 16:0.3125 17:0.625 18:0.6875 19:0.5625 20:0.625 21:0.875 
0.49610785683770964 1:0.5 2:0.4375 3:0.375 4:0.5 5:0.9375 6:0.75 7:0.3125 8:0.3125 9:0.375 10:0.5 11:1.0 12:0.5 13:0.5 14:0.8125 15:0.9375 16:0.5 17:0.8125 18:0.5625 19:0.5 20:0.875 21:0.625 
0.411119054695353 1:0.4375 2:0.3125 3:0.5 4:0.125 5:0.0625 6:0.4375 7:0.875 8:0.6875 9:0.8125 10:0.3125 11:0.875 12:0.4375 13:0.5625 14:0.0625 15:0.625 16:0.5 17:0.0 18:0.625 19:0.25 20:0.6875 21:1.0 
-0.13555203520863732 1:0.9375 2:0.375 3:0.5 4:0.0625 5:0.5 6:0.5625 7:0.125 8:0.1875 9:0.0625 10:0.125 11:0.4375 12:0.5625 13:0.5 14:0.5 15:0.75 16:0.375 17:0.6875 18:0.5 19:0.4375 20:0.6875 21:0.625 
0.03479558147664912 1:0.3125 2:0.5625 3:0.75 4:0.9375 5:0.5625 6:0.6875 7:0.9375 8:0.5 9:1.0 10:0.75 11:0.875 12:0.25 13:0.625 14:0.6875 15:0.5625 16:0.9375 17:0.625 18:0.75 19:0.375 20:0.375 21:0.6875 
-0.029901178038019213 1:0.8125 2:0.5 3:0.875 4:0.8125 5:0.5625 6:0.75 7:0.5 8:0.5 9:0.5625 10:0.8125 11:0.5 12:1.0 13:0.75 14:1.0 15:0.5625 16:0.5625 17:0.5 18:0.375 19:0.4375 20:0.25 21:0.5 
-0.08527930418403559 1:0.875 2:0.8125 3:0.9375 4:0.9375 5:0.875 6:0.625 7:0.375 8:0.125 9:0.5 10:0.1875 11:0.0 12:0.4375 13:0.3125 14:0.3125 15:0.125 16:0.875 17:0.5625 18:0.4375 19:0.3125 20:0.5 21:0.25 
-0.007808491324094981 1:0.125 2:0.5 3:0.4375 4:0.25 5:0.5625 6:0.3125 7:0.875 8:0.625 9:0.5 10:1.0 11:0.5 12:0.1875 13:0.375 14:0.9375 15:0.3125 16:0.625 17:0.625 18:0.5625 19:0.8125 20:0.25 21:0.125 
-0.02146514153982024 1:0.4375 2:1.0 3:0.625 4:0.5625 5:0.625 6:0.875 7:1.0 8:0.875 9:0.875 10:0.9375 11:0.75 12:0.1875 13:0.5 14:0.25 15:0.8125 16:0.625 17:0.25 18:0.875 19:0.375 20:0.875 21:0.75 
0.0756479997913952 1:0.125 2:0.0625 3:0.3125 4:0.4375 5:0.375 6:0.125 7:0.0 8:0.375 9:0.625 10:0.375 11:0.3125 12:0.6875 13:0.9375 14:0.8125 15:1.0 16:0.6875 17:0.5 18:0.375 19:0.4375 20:0.125 21:0.1875 
0.020729457321379832 1:0.4375 2:0.3125 3:1.0 4:0.5 5:0.9375 6:0.5 7:0.125 8:0.875 9:0.375 10:0.625 11:0.5 12:1.0 13:0.5625 14:0.875 15:0.625 16:0.375 17:0.25 18:0.3125 19:0.75 20:0.875 21:0.25 
-0.10946222942486324 1:0.875 2:0.0625 3:0.3125 4:0.5625 5:0.5625 6:0.8125 7:0.0625 8:0.0 9:0.4375 10:0.125 11:0.125 12:0.5 13:0.5 14:0.6875 15:0.875 16:0.5625 17:0.625 18:1.0 19:0.75 20:1.0 21:0.625 
-0.21323138226655017 1:0.375 2:0.5 3:0.25 4:0.3125 5:0.3125 6:0.0625 7:1.0 8:0.4375 9:0.375 10:0.0625 11:0.0625 12:0.4375 13:0.4375 14:0.25 15:0.0 16:0.8125 17:0.4375 18:0.3125 19:0.0 20:0.0625 21:0.3125 
-0.4142669686030002 1:0.5 2:0.5625 3:0.625 4:1.0 5:0.75 6:0.875 7:0.1875 8:0.375 9:0.6875 10:0.5625 11:0.5 12:0.75 13:0.75 14:0.5625 15:1.0 16:0.5625 17:0.5 18:0.5 19:0.0 20:0.5 21:0.625 
-0.028744722299140504 1:0.9375 2:0.4375 3:0.5 4:0.1875 5:0.625 6:0.4375 7:0.125 8:0.5 9:0.125 10:0.0 11:0.375 12:0.8125 13:0.5 14:0.5625 15:0.4375 16:0.125 17:0.0 18:0.3125 19:0.625 20:0.5 21:0.375 
0.2541802547790041 1:0.5 2:0.1875 3:0.5 4:0.4375 5:0.375 6:0.4375 7:0.1875 8:0.3125 9:0.25 10:0.25 11:0.125 12:0.4375 13:0.3125 14:0.4375 15:0.5 16:0.5 17:0.375 18:0.1875 19:0.5 20:0.5625 21:0.75 
0.31631682037970527 1:0.5 2:0.9375 3:0.375 4:0.9375 5:0.25 6:1.0 7:0.9375 8:0.375 9:0.875 10:0.375 11:0.625 12:0.0625 13:0.25 14:0.125 15:0.6875 16:0.6875 17:0.5 18:0.625 19:0.25 20:0.75 21:0.9375 
-0.03897995005474232 1:0.1875 2:1.0 3:0.8125 4:0.9375 5:0.875 6:0.75 7:0.75 8:0.625 9:0.875 10:0.75 11:1.0 12:0.25 13:0.0 14:0.375 15:0.5625 16:0.5625 17:0.5 18:1.0 19:0.5625 20:0.9375 21:0.8125 
0.28598464632660037 1:0.625 2:0.3125 3:0.0625 4:0.875 5:0.125 6:0.5 7:0.5 8:0.0 9:0.5625 10:0.3125 11:0.75 12:0.3125 13:0.5625 14:0.3125 15:0.8125 16:1.0 17:0.5625 18:0.6875 19:0.3125 20:0.625 21:1.0 
0.05451365453813935 1:0.3125 2:0.5625 3:0.75 4:0.625 5:0.4375 6:0.0625 7:0.5 8:0.8125 9:0.6875 10:0.375 11:0.0625 12:1.0 13:0.5625 14:0.25 15:0.1875 16:0.0625 17:0.125 18:0.125 19:0.0625 20:0.0625 21:0.5625 
0.03922544159444597 1:0.5 2:0.6875 3:0.375 4:0.375 5:0.5 6:0.6875 7:0.8125 8:0.375 9:0.5625 10:0.8125 11:0.5 12:0.3125 13:0.25 14:0.125 15:0.3125 16:0.5 17:0.5 18:0.875 19:0.625 20:0.6875 21:0.5625 
0.2974957559891763 1:0.5625 2:0.875 3:1.0 4:0.375 5:0.3125 6:0.75 7:0.5 8:0.5 9:0.125 10:0.0 11:0.375 12:0.25 13:0.1875 14:0.1875 15:0.0625 16:0.1875 17:0.1875 18:0.25 19:0.4375 20:0.9375 21:0.6875 
-0.007425932700339577 1:0.0 2:0.3125 3:0.25 4:0.0625 5:0.0625 6:0.25 7:0.3125 8:0.0625 9:0.125 10:0.0 11:0.375 12:0.3125 13:0.25 14:0.5 15:0.5 16:0.3125 17:0.4375 18:0.5 19:0.9375 20:0.875 21:0.8125 
-0.14660933125589132 1:0.125 2:0.5625 3:0.5 4:0.75 5:0.0625 6:1.0 7:0.625 8:0.75 9:0.6875 10:0.5 11:0.875 12:0.4375 13:0.25 14:0.25 15:0.6875 16:0.5625 17:0.3125 18:0.8125 19:0.0 20:0.5 21:0.6875 
0.2711140892924249 1:0.6875 2:0.5 3:1.0 4:0.25 5:0.3125 6:0.8125 7:0.4375 8:0.5 9:0.3125 10:0.5 11:0.5 12:0.8125 13:0.3125 14:0.0625 15:0.75 16:0.1875 17:0.0 18:0.3125 19:0.375 20:0.75 21:0.875 
-0.5485057578009315 1:0.25 2:0.625 3:1.0 4:0.5625 5:0.5 6:0.8125 7:0.5 8:0.6875 9:0.625 10:0.6875 11:0.8125 12:0.6875 13:0.9375 14:0.6875 15:0.5625 16:0.5 17:0.5625 18:0.5 19:0.6875 20:0.5 21:0.4375 
-0.5003124822791366 1:0.6875 2:0.6875 3:0.8125 4:1.0 5:0.625 6:0.5 7:0.5 8:1.0 9:0.75 10:0.5 11:0.1875 12:0.5 13:0.75 14:0.4375 15:0.125 16:0.1875 17:0.5 18:0.0625 19:0.375 20:0.3125 21:0.0 
-0.08463395264996396 1:0.5 2:0.4375 3:0.6875 4:0.5 5:0.625 6:0.3125 7:0.5 8:0.9375 9:0.5 10:0.8125 11:0.125 12:0.375 13:0.4375 14:0.6875 15:0.0625 16:0.4375 17:1.0 18:0.0 19:0.875 20:0.25 21:0.0625 
0.6347350867031594 1:0.5 2:0.25 3:0.5 4:0.1875 5:0.5 6:0.5625 7:0.4375 8:0.4375 9:0.0 10:0.4375 11:0.4375 12:0.6875 13:0.75 14:0.5625 15:0.625 16:0.3125 17:0.625 18:0.5625 19:0.625 20:0.6875 21:0.9375 
0.037491728340444654 1:0.0 2:0.3125 3:0.0625 4:0.0 5:0.125 6:0.625 7:1.0 8:0.4375 9:0.3125 10:0.375 11:0.75 12:0.3125 13:0.125 14:0.3125 15:0.75 16:0.3125 17:0.5 18:0.6875 19:0.5625 20:0.9375 21:0.75 
0.37792697534851527 1:1.0 2:0.625 3:0.625 4:0.75 5:0.625 6:0.5 7:0.5625 8:0.375 9:0.5 10:0.5 11:0.3125 12:0.625 13:0.9375 14:0.625 15:0.1875 16:0.3125 17:0.5 18:0.1875 19:0.5 20:0.25 21:0.25 
0.08362173101798476 1:1.0 2:0.75 3:0.8125 4:0.625 5:0.1875 6:0.375 7:0.625 8:0.5 9:0.125 10:0.1875 11:0.1875 12:0.75 13:0.25 14:0.25 15:0.25 16:0.0625 17:0.0 18:0.0 19:0.1875 20:0.0625 21:0.5625 
-0.1363917535634109 1:0.5 2:0.0 3:0.375 4:0.625 5:0.3125 6:0.8125 7:0.1875 8:0.25 9:0.4375 10:0.1875 11:0.9375 12:0.4375 13:0.5 14:0.5 15:0.875 16:0.75 17:0.25 18:1.0 19:0.4375 20:1.0 21:0.875 
0.11195349542834811 1:0.375 2:0.4375 3:0.5 4:0.625 5:0.5 6:0.625 7:0.375 8:0.9375 9:0.75 10:0.9375 11:1.0 12:0.6875 13:0.875 14:0.6875 15:0.5625 16:0.5 17:0.5 18:0.5 19:0.5 20:0.125 21:0.25 
0.16917963701629773 1:0.875 2:0.5 3:0.5 4:0.875 5:0.9375 6:0.9375 7:0.375 8:0.0625 9:0.75 10:0.9375 11:0.5 12:0.5 13:0.8125 14:0.6875 15:0.75 16:0.75 17:0.6875 18:0.625 19:0.75 20:0.0625 21:0.3125 
-0.07761392000067611 1:0.9375 2:0.5 3:0.4375 4:0.6875 5:0.625 6:0.9375 7:0.25 8:0.0 9:0.6875 10:0.75 11:0.6875 12:0.1875 13:0.5625 14:0.5625 15:0.625 16:0.6875 17:1.0 18:0.9375 19:0.375 20:0.625 21:0.625 
0.0020647879332793793 1:0.4375 2:0.75 3:0.625 4:0.8125 5:0.375 6:0.8125 7:0.8125 8:0.9375 9:0.5625 10:0.1875 11:0.8125 12:0.5 13:0.5 14:0.125 15:0.5 16:0.3125 17:0.0 18:0.1875 19:0.125 20:0.1875 21:1.0 
-0.07568770790761396 1:0.5 2:0.5625 3:0.125 4:0.3125 5:0.1875 6:0.5 7:0.6875 8:0.3125 9:0.125 10:0.375 11:0.375 12:0.0 13:0.0 14:0.0625 15:0.0625 16:0.3125 17:0.1875 18:0.875 19:0.5 20:0.5 21:0.6875 
0.23955181123521574 1:0.0 2:0.4375 3:0.625 4:0.5 5:0.125 6:0.8125 7:1.0 8:0.6875 9:0.9375 10:0.375 11:1.0 12:0.625 13:0.5625 14:0.125 15:0.5625 16:0.375 17:0.125 18:0.4375 19:0.0 20:0.8125 21:0.75 
0.06513440534300843 1:0.5625 2:0.625 3:0.5 4:0.5 5:0.875 6:0.75 7:0.0625 8:0.0 9:0.0625 10:0.5 11:0.25 12:0.5 13:0.25 14:0.875 15:0.5625 16:0.0625 17:0.8125 18:0.8125 19:0.9375 20:0.75 21:0.625 
-0.4683460701808251 1:0.875 2:0.6875 3:0.125 4:0.875 5:0.5625 6:0.5625 7:0.3125 8:0.0 9:0.0 10:0.125 11:0.0625 12:0.125 13:0.4375 14:0.5 15:0.5 16:0.625 17:0.875 18:0.75 19:0.3125 20:0.4375 21:0.3125 
-0.21645753103414778 1:0.5 2:0.875 3:1.0 4:1.0 5:0.6875 6:0.6875 7:0.875 8:0.625 9:0.4375 10:0.75 11:0.6875 12:0.125 13:0.0625 14:0.4375 15:0.25 16:0.5 17:0.5 18:0.8125 19:0.5625 20:0.5 21:0.375 
-0.3416517878240448 1:0.5 2:0.5 3:0.6875 4:0.8125 5:0.4375 6:1.0 7:0.5 8:0.4375 9:0.4375 10:0.25 11:0.5 12:0.9375 13:0.5 14:0.3125 15:1.0 16:0.25 17:0.25 18:0.625 19:0.4375 20:0.9375 21:0.6875 
0.31025271038948693 1:1.0 2:0.625 3:1.0 4:0.9375 5:0.5 6:1.0 7:0.4375 8:0.1875 9:0.25 10:0.1875 11:0.5 12:0.875 13:0.875 14:0.5 15:0.8125 16:0.5625 17:0.1875 18:0.8125 19:0.4375 20:0.875 21:0.875 
0.027049908714038083 1:0.875 2:0.9375 3:0.9375 4:0.875 5:0.9375 6:0.5 7:0.9375 8:0.375 9:0.4375 10:0.625 11:0.5 12:0.1875 13:0.0 14:0.4375 15:0.3125 16:0.125 17:0.4375 18:0.1875 19:0.875 20:0.5 21:0.3125 
-0.48790289942374254 1:0.5 2:0.5 3:0.6875 4:0.4375 5:0.3125 6:0.5 7:0.375 8:0.25 9:0.3125 10:0.0625 11:0.5625 12:0.875 13:0.5 14:0.5 15:0.5625 16:0.125 17:0.1875 18:0.5 19:0.0 20:1.0 21:0.875 
0.0846496091113583 1:1.0 2:0.9375 3:0.5 4:1.0 5:0.625 6:0.8125 7:0.625 8:0.25 9:0.5 10:0.375 11:0.0625 12:0.375 13:0.4375 14:0.1875 15:0.25 16:0.6875 17:0.875 18:0.5 19:0.125 20:0.0625 21:0.5625 
-0.29931701070884636 1:0.6875 2:0.75 3:1.0 4:0.5625 5:0.875 6:0.8125 7:0.25 8:0.1875 9:0.0625 10:0.5625 11:0.375 12:0.5 13:0.125 14:0.875 15:0.375 16:0.25 17:0.8125 18:0.3125 19:0.8125 20:0.625 21:0.3125 
-0.00812592256193927 1:0.4375 2:0.4375 3:0.375 4:0.4375 5:0.0625 6:0.1875 7:0.4375 8:0.1875 9:0.4375 10:0.0 11:0.0625 12:0.25 13:0.0625 14:0.4375 15:0.0625 16:0.5625 17:0.5 18:0.0 19:0.1875 20:0.25 21:0.25 
0.177700973943534 1:0.5 2:0.625 3:0.625 4:0.625 5:0.875 6:0.8125 7:0.8125 8:0.875 9:0.625 10:0.625 11:0.6875 12:1.0 13:0.625 14:0.6875 15:0.625 16:0.5 17:0.375 18:0.625 19:0.5 20:0.6875 21:0.6875 
0.18128411503824082 1:0.75 2:0.125 3:0.5 4:0.0625 5:0.25 6:0.625 7:0.0 8:0.3125 9:0.0625 10:0.125 11:0.5 12:0.9375 13:0.0 14:0.4375 15:0.75 16:0.0625 17:0.0 18:0.6875 19:0.9375 20:0.9375 21:0.9375 
-0.12856666376113082 1:0.5625 2:1.0 3:0.125 4:0.375 5:0.9375 6:0.5 7:0.5625 8:0.0 9:0.0 10:0.5625 11:0.125 12:0.25 13:0.1875 14:0.8125 15:0.0 16:0.5 17:0.875 18:0.5 19:0.5625 20:0.5625 21:0.1875 
-0.034788435582635335 1:0.0 2:0.5 3:0.5625 4:0.1875 5:0.3125 6:0.5 7:0.875 8:1.0 9:0.625 10:1.0 11:0.625 12:0.75 13:0.4375 14:0.5 15:0.1875 16:0.5 17:0.4375 18:0.375 19:0.6875 20:0.5 21:0.1875 
0.4641487955355683 1:0.0625 2:0.0 3:0.125 4:0.25 5:0.0625 6:0.3125 7:0.5625 8:0.875 9:0.75 10:1.0 11:1.0 12:0.9375 13:0.875 14:0.625 15:0.5625 16:0.4375 17:0.0625 18:0.5625 19:0.5625 20:0.5 21:0.8125 
0.23650453384792555 1:0.625 2:0.6875 3:0.6875 4:1.0 5:0.5 6:0.875 7:0.6875 8:0.25 9:0.5625 10:0.3125 11:0.875 12:0.5 13:0.4375 14:0.3125 15:0.375 16:0.625 17:0.375 18:1.0 19:0.375 20:0.4375 21:0.875 
0.014408791222603053 1:1.0 2:0.8125 3:0.6875 4:0.75 5:0.8125 6:0.5 7:0.5 8:0.9375 9:0.375 10:0.25 11:0.3125 12:0.6875 13:0.3125 14:0.3125 15:0.1875 16:0.4375 17:0.0625 18:0.125 19:0.3125 20:0.4375 21:0.1875 
-0.255595540662831 1:0.5 2:0.5 3:0.6875 4:0.4375 5:0.5 6:0.875 7:0.375 8:0.25 9:0.25 10:0.3125 11:0.75 12:0.6875 13:0.5 14:0.4375 15:0.9375 16:0.625 17:0.5625 18:0.6875 19:0.5 20:0.8125 21:0.8125 
0.048560840029903844 1:0.4375 2:0.6875 3:0.75 4:0.6875 5:1.0 6:0.3125 7:0.875 8:0.6875 9:0.6875 10:0.875 11:0.5625 12:0.5 13:0.5625 14:0.6875 15:0.5 16:0.625 17:0.8125 18:0.4375 19:0.8125 20:0.1875 21:0.3125 
-0.1545919907978438 1:0.75 2:0.0625 3:0.625 4:0.625 5:0.5 6:0.75 7:0.1875 8:0.375 9:0.0625 10:0.5 11:0.4375 12:0.5 13:0.9375 14:0.75 15:0.8125 16:0.5 17:0.4375 18:0.625 19:0.5 20:0.6875 21:0.5 
0.0913478191582321 1:0.5625 2:0.875 3:0.4375 4:0.5625 5:0.6875 6:0.8125 7:0.75 8:0.0 9:0.3125 10:0.3125 11:0.25 12:0.0 13:0.1875 14:0.375 15:0.4375 16:0.8125 17:0.6875 18:0.6875 19:0.5625 20:0.8125 21:0.25 
-0.4292873864517933 1:0.4375 2:0.3125 3:0.8125 4:0.0 5:0.375 6:0.625 7:1.0 8:0.9375 9:0.5625 10:0.5625 11:0.75 12:1.0 13:0.5 14:0.625 15:0.75 16:0.125 17:0.1875 18:0.5625 19:0.75 20:0.75 21:0.5625 
-0.021889242171864734 1:0.5 2:0.4375 3:0.375 4:0.375 5:0.5 6:0.25 7:1.0 8:0.5625 9:0.5 10:0.6875 11:0.1875 12:0.5 13:0.25 14:0.5 15:0.125 16:0.6875 17:0.75 18:0.375 19:0.6875 20:0.125 21:0.0625 
-0.10751357031072412 1:0.625 2:0.5 3:0.125 4:0.6875 5:0.5625 6:0.4375 7:0.6875 8:0.4375 9:0.5 10:0.6875 11:0.5 12:0.3125 13:0.5625 14:0.4375 15:0.4375 16:0.625 17:0.8125 18:0.8125 19:0.5 20:0.4375 21:0.0 
0.2277063340033907 1:0.625 2:0.8125 3:0.625 4:1.0 5:0.1875 6:0.625 7:0.875 8:0.6875 9:0.9375 10:0.0 11:0.5 12:0.0 13:0.5625 14:0.0 15:0.5 16:0.625 17:0.125 18:0.5625 19:0.0 20:0.3125 21:0.8125 
-0.09622755874788039 1:0.3125 2:0.5625 3:0.5 4:0.75 5:0.625 6:0.8125 7:0.8125 8:0.6875 9:0.8125 10:0.8125 11:0.75 12:0.5625 13:0.5625 14:0.625 15:0.5625 16:0.6875 17:0.625 18:0.375 19:0.125 20:0.5 21:0.3125 
0.4014105141491379 1:0.8125 2:0.625 3:0.75 4:0.8125 5:0.625 6:0.875 7:0.1875 8:0.0 9:0.1875 10:0.125 11:0.1875 12:0.5 13:1.0 14:0.375 15:0.625 16:0.5625 17:0.375 18:0.6875 19:0.3125 20:0.5 21:0.5625 
-0.03445837344051659 1:0.1875 2:0.125 3:0.375 4:0.4375 5:0.1875 6:0.5 7:0.6875 8:0.4375 9:0.6875 10:0.3125 11:1.0 12:0.375 13:0.4375 14:0.25 15:0.6875 16:0.375 17:0.0625 18:1.0 19:0.25 20:0.8125 21:0.875 
-0.3397765400320574 1:0.3125 2:0.25 3:0.125 4:0.25 5:0.0625 6:0.0625 7:0.3125 8:0.4375 9:0.25 10:0.0 11:0.0 12:0.5 13:0.375 14:0.5625 15:0.3125 16:0.0 17:0.1875 18:0.375 19:0.625 20:0.25 21:0.0 
-0.3958021151233803 1:0.5 2:0.375 3:0.5 4:0.5 5:0.3125 6:0.8125 7:0.5625 8:0.5 9:0.375 10:0.625 11:0.9375 12:0.625 13:0.4375 14:0.5625 15:0.875 16:0.375 17:0.625 18:0.5 19:0.625 20:1.0 21:0.75 
0.0015591963380890378 1:0.375 2:0.25 3:0.5 4:0.375 5:1.0 6:0.625 7:1.0 8:0.875 9:0.75 10:0.875 11:0.8125 12:0.625 13:0.5 14:0.875 15:0.8125 16:0.0625 17:0.8125 18:0.5625 19:0.6875 20:0.5 21:0.5 
-0.07906787641186883 1:0.75 2:0.125 3:0.125 4:0.5 5:0.6875 6:0.1875 7:0.375 8:0.3125 9:0.3125 10:0.4375 11:0.3125 12:0.5625 13:0.8125 14:0.875 15:0.5625 16:0.625 17:0.875 18:0.1875 19:0.4375 20:0.4375 21:0.0625 
-0.35422157386333947 1:0.0625 2:0.125 3:0.5625 4:0.0625 5:0.375 6:0.1875 7:0.6875 8:0.875 9:0.5 10:0.5625 11:0.75 12:0.8125 13:0.75 14:0.3125 15:0.5 16:0.0625 17:0.25 18:0.1875 19:0.5625 20:0.5 21:0.6875 
0.26832655693895796 1:0.9375 2:0.625 3:0.9375 4:0.4375 5:0.8125 6:0.5 7:0.5 8:0.8125 9:0.125 10:0.5625 11:0.0625 12:0.4375 13:0.4375 14:0.8125 15:0.0 16:0.1875 17:0.4375 18:0.0 19:0.6875 20:0.625 21:0.1875 
0.19772734695014824 1:0.5625 2:0.5 3:0.625 4:0.4375 5:0.8125 6:0.5625 7:0.25 8:0.5 9:0.4375 10:0.6875 11:0.0625 12:0.625 13:0.375 14:0.625 15:0.375 16:0.375 17:0.625 18:0.0 19:0.6875 20:0.8125 21:0.375 
-0.5734932417246782 1:0.4375 2:0.3125 3:0.875 4:0.9375 5:0.4375 6:0.625 7:0.5 8:0.875 9:0.5 10:0.375 11:0.8125 12:0.8125 13:0.9375 14:0.875 15:1.0 16:0.625 17:0.0625 18:0.625 19:0.3125 20:0.5 21:0.875 
-0.3964750922658477 1:0.8125 2:0.5625 3:1.0 4:0.5 5:0.8125 6:0.875 7:0.25 8:0.125 9:0.125 10:0.25 11:0.25 12:0.5 13:0.5 14:0.75 15:0.8125 16:0.25 17:0.25 18:0.5625 19:0.6875 20:0.6875 21:0.8125 
0.14112519611843227 1:0.4375 2:0.375 3:0.3125 4:0.125 5:0.0 6:0.375 7:0.1875 8:0.3125 9:0.0625 10:0.0625 11:0.3125 12:0.5625 13:0.1875 14:0.5 15:0.875 16:0.4375 17:0.375 18:0.8125 19:0.25 20:0.625 21:0.875 
-0.1489964593398497 1:0.75 2:0.5 3:0.75 4:0.625 5:0.75 6:0.4375 7:0.0625 8:0.8125 9:0.375 10:0.6875 11:0.1875 12:0.625 13:0.4375 14:0.8125 15:0.25 16:0.125 17:0.4375 18:0.3125 19:0.6875 20:0.5 21:0.125 
-0.01338478837653157 1:0.5 2:0.4375 3:0.625 4:0.75 5:1.0 6:0.5625 7:0.625 8:0.9375 9:0.8125 10:0.6875 11:0.6875 12:0.75 13:0.8125 14:0.875 15:0.8125 16:0.0625 17:0.625 18:0.3125 19:0.8125 20:0.5 21:0.3125 
0.14582489782025537 1:0.375 2:0.25 3:0.875 4:0.5 5:0.0 6:0.5625 7:0.5 8:0.9375 9:1.0 10:0.8125 11:1.0 12:0.75 13:1.0 14:0.5 15:0.8125 16:0.375 17:0.25 18:0.5 19:0.0 20:0.5 21:0.5625 
-0.029346402552335896 1:0.3125 2:0.0 3:0.4375 4:0.0 5:0.25 6:0.0625 7:0.4375 8:0.625 9:0.625 10:0.9375 11:0.75 12:0.5625 13:0.625 14:0.9375 15:0.4375 16:0.4375 17:0.5 18:0.375 19:0.5 20:0.5 21:0.25 
0.8056159386749764 1:0.375 2:0.5 3:0.375 4:0.0 5:0.0625 6:0.3125 7:0.9375 8:0.8125 9:0.0625 10:0.5 11:0.5625 12:0.4375 13:0.125 14:0.25 15:0.25 16:0.25 17:0.3125 18:0.625 19:0.625 20:0.625 21:1.0 
-0.12802226290137134 1:0.8125 2:0.4375 3:0.5625 4:0.125 5:0.5 6:0.8125 7:0.3125 8:0.25 9:0.25 10:0.0 11:0.5 12:0.75 13:0.625 14:0.5 15:0.75 16:0.125 17:0.0 18:0.3125 19:0.5 20:0.875 21:0.9375 
-0.3162686391927238 1:0.0 2:0.1875 3:0.1875 4:0.4375 5:0.6875 6:0.0 7:0.9375 8:0.5 9:0.5 10:0.9375 11:0.5625 12:0.1875 13:0.375 14:0.875 15:0.5 16:0.875 17:0.9375 18:0.5 19:0.875 20:0.0625 21:0.0625 
0.5214018870717397 1:0.625 2:0.5 3:0.6875 4:1.0 5:0.5 6:0.5 7:0.625 8:0.5 9:0.8125 10:0.5 11:0.5 12:0.625 13:0.5625 14:0.6875 15:0.4375 16:0.5 17:0.5 18:0.1875 19:0.375 20:0.125 21:0.0 
-0.5003790494163037 1:0.5 2:0.125 3:0.375 4:0.4375 5:0.25 6:0.4375 7:0.3125 8:0.5625 9:0.6875 10:0.125 11:0.5 12:1.0 13:0.5 14:0.3125 15:0.625 16:0.4375 17:0.0 18:0.3125 19:0.1875 20:0.5 21:1.0 
0.31049771320586816 1:0.5 2:0.5 3:0.375 4:0.5625 5:0.5625 6:0.0625 7:0.8125 8:0.4375 9:0.6875 10:0.4375 11:0.3125 12:0.125 13:0.875 14:0.5 15:0.0625 16:0.75 17:0.8125 18:0.3125 19:0.125 20:0.125 21:0.1875 
0.34671594338057066 1:1.0 2:0.125 3:0.625 4:0.75 5:0.25 6:0.625 7:0.0625 8:0.4375 9:0.4375 10:0.1875 11:0.5 12:0.9375 13:0.625 14:0.25 15:0.75 16:0.8125 17:0.3125 18:0.75 19:0.0 20:0.4375 21:0.9375 
-0.27021293492576004 1:0.3125 2:0.125 3:0.25 4:0.5 5:0.75 6:0.5 7:0.125 8:0.375 9:0.5 10:0.5 11:0.625 12:0.5 13:0.75 14:0.8125 15:0.75 16:0.5625 17:0.625 18:0.875 19:0.3125 20:0.5 21:0.375 
0.026134705011263307 1:0.5 2:0.8125 3:0.625 4:0.6875 5:1.0 6:0.9375 7:0.5 8:0.4375 9:0.75 10:0.5 11:0.5625 12:0.4375 13:0.4375 14:0.4375 15:0.3125 16:0.5 17:0.5 18:0.75 19:0.625 20:0.5625 21:0.5625 
0.32961438926832626 1:0.625 2:0.5625 3:0.0 4:0.1875 5:0.375 6:0.625 7:0.1875 8:0.0625 9:0.25 10:0.25 11:0.5 12:0.3125 13:0.5 14:0.4375 15:0.4375 16:0.5625 17:1.0 18:0.8125 19:0.375 20:0.8125 21:0.875 
-0.3274283688992009 1:0.8125 2:0.375 3:0.5 4:0.4375 5:0.75 6:0.5 7:0.25 8:0.125 9:0.5 10:0.9375 11:0.5 12:0.375 13:0.5 14:0.8125 15:0.5 16:0.6875 17:0.6875 18:0.5 19:0.8125 20:0.25 21:0.125 
0.009478213189475893 1:0.375 2:0.5 3:0.0 4:0.5625 5:0.0625 6:0.5 7:1.0 8:0.375 9:0.75 10:0.8125 11:0.875 12:0.1875 13:0.5625 14:0.5625 15:0.75 16:0.6875 17:0.625 18:0.6875 19:0.125 20:0.5 21:0.5625 
-0.10671054290777716 1:0.5 2:0.3125 3:0.5 4:0.1875 5:0.4375 6:0.4375 7:0.3125 8:0.5 9:0.3125 10:0.25 11:0.375 12:0.5625 13:0.3125 14:0.5625 15:0.9375 16:0.1875 17:0.875 18:0.75 19:0.875 20:0.875 21:0.5 
-0.5445334822006647 1:0.875 2:0.8125 3:1.0 4:0.75 5:0.375 6:0.9375 7:0.3125 8:0.3125 9:0.5 10:0.0625 11:0.3125 12:1.0 13:0.6875 14:0.3125 15:0.75 16:0.375 17:0.0 18:0.625 19:0.1875 20:0.5 21:0.625 
0.09935881533265108 1:0.5 2:0.3125 3:0.3125 4:0.4375 5:0.0 6:0.1875 7:0.375 8:0.375 9:0.25 10:0.1875 11:0.125 12:0.5 13:0.4375 14:0.625 15:0.5625 16:0.6875 17:0.4375 18:0.3125 19:0.375 20:0.1875 21:0.3125 
0.20494215880714434 1:0.6875 2:0.4375 3:0.9375 4:0.375 5:0.6875 6:0.3125 7:0.375 8:0.5 9:0.375 10:1.0 11:0.1875 12:0.5 13:0.5625 14:0.8125 15:0.4375 16:0.125 17:0.4375 18:0.25 19:0.75 20:0.5 21:0.0625 
-0.49229502372726086 1:0.5 2:0.4375 3:0.5 4:0.125 5:0.0 6:0.5 7:0.375 8:0.5625 9:0.0625 10:0.375 11:0.5625 12:0.4375 13:0.25 14:0.1875 15:0.1875 16:0.125 17:0.375 18:0.625 19:0.5 20:0.625 21:1.0 
0.05723673389061992 1:0.5625 2:0.1875 3:0.3125 4:0.3125 5:0.0 6:0.0 7:0.4375 8:0.0 9:0.5625 10:0.375 11:0.0 12:0.3125 13:0.625 14:0.5 15:0.0 16:0.75 17:0.4375 18:0.3125 19:0.1875 20:0.0 21:0.1875 
-0.085204190415778 1:0.1875 2:0.0625 3:0.0625 4:0.1875 5:0.125 6:0.5 7:0.875 8:0.25 9:0.8125 10:0.5 11:0.9375 12:0.25 13:0.4375 14:0.0625 15:0.5625 16:0.8125 17:0.5 18:0.8125 19:0.5 20:0.6875 21:0.5 
0.31942772923939455 1:0.375 2:0.0625 3:0.0 4:0.3125 5:0.375 6:0.375 7:0.3125 8:0.4375 9:0.75 10:0.3125 11:0.5625 12:0.375 13:0.9375 14:0.4375 15:0.6875 16:1.0 17:0.875 18:1.0 19:0.1875 20:0.125 21:0.8125 
-0.4016381869368217 1:0.1875 2:0.5 3:0.375 4:0.3125 5:0.3125 6:0.625 7:1.0 8:0.875 9:0.5 10:0.5625 11:0.9375 12:0.375 13:0.5 14:0.25 15:0.6875 16:0.5625 17:0.6875 18:0.75 19:0.75 20:0.875 21:1.0 
-0.20041436532232387 1:0.0 2:1.0 3:0.75 4:0.625 5:0.1875 6:0.5 7:0.9375 8:0.6875 9:0.8125 10:0.125 11:0.5625 12:0.3125 13:0.4375 14:0.0 15:0.3125 16:0.25 17:0.25 18:0.1875 19:0.125 20:0.4375 21:0.75 
-0.023621402445567055 1:1.0 2:0.4375 3:0.3125 4:0.1875 5:0.5 6:0.5 7:0.1875 8:0.25 9:0.3125 10:0.1875 11:0.3125 12:0.5 13:0.5625 14:0.625 15:0.5625 16:0.75 17:0.5 18:0.5625 19:0.625 20:0.5 21:0.8125 
-0.15332463540794525 1:0.0 2:0.375 3:0.0 4:0.375 5:0.4375 6:0.0 7:0.375 8:0.25 9:0.3125 10:0.6875 11:0.4375 12:0.3125 13:0.4375 14:1.0 15:0.0625 16:0.8125 17:1.0 18:0.5 19:0.625 20:0.3125 21:0.125 
-0.4882713580327685 1:0.375 2:0.3125 3:0.5625 4:0.4375 5:0.5625 6:0.625 7:0.625 8:0.5625 9:0.625 10:1.0 11:0.875 12:0.5625 13:0.625 14:0.5 15:0.9375 16:0.5 17:0.5 18:0.5625 19:0.125 20:0.75 21:0.9375 
-0.0643825906125026 1:0.75 2:0.6875 3:0.4375 4:0.5 5:0.9375 6:0.25 7:0.5 8:0.25 9:0.5 10:0.6875 11:0.4375 12:0.125 13:0.25 14:0.5 15:0.4375 16:0.875 17:0.625 18:0.625 19:0.6875 20:0.3125 21:0.3125 
-0.10840549731228288 1:0.8125 2:0.5625 3:0.625 4:0.5625 5:0.75 6:0.0625 7:0.4375 8:0.25 9:0.5625 10:0.5 11:0.0625 12:0.4375 13:0.625 14:0.5625 15:0.0625 16:0.8125 17:0.75 18:0.5625 19:0.1875 20:0.0 21:0.0 
-0.056653611285724145 1:0.9375 2:0.9375 3:0.6875 4:1.0 5:0.75 6:0.375 7:0.375 8:0.4375 9:0.375 10:0.4375 11:0.0 12:0.5625 13:0.1875 14:0.5 15:0.375 16:0.125 17:0.25 18:0.1875 19:0.75 20:0.5 21:0.125 
0.43919635670119994 1:0.5625 2:0.4375 3:0.4375 4:0.5 5:0.5 6:0.375 7:0.4375 8:0.125 9:0.4375 10:0.5 11:0.5 12:0.5 13:0.25 14:0.5 15:0.625 16:0.5625 17:0.75 18:0.625 19:0.5 20:0.625 21:0.125 
-0.04903137707708777 1:0.5625 2:0.5 3:1.0 4:0.375 5:0.25 6:0.25 7:0.3125 8:0.875 9:0.3125 10:0.1875 11:0.1875 12:0.6875 13:0.875 14:0.5 15:0.4375 16:0.125 17:0.1875 18:0.125 19:0.3125 20:0.25 21:0.5 
0.016644124091942398 1:0.125 2:0.4375 3:0.3125 4:0.3125 5:0.125 6:0.25 7:0.5 8:0.625 9:0.9375 10:0.5 11:0.6875 12:0.625 13:0.875 14:0.5625 15:0.3125 16:0.5625 17:0.4375 18:0.125 19:0.0625 20:0.4375 21:0.3125 
0.12928798061554977 1:0.1875 2:0.125 3:0.375 4:0.1875 5:0.125 6:0.4375 7:0.625 8:0.875 9:0.5 10:0.4375 11:0.875 12:0.5 13:0.4375 14:0.1875 15:0.5625 16:0.75 17:0.3125 18:0.8125 19:0.3125 20:0.5 21:0.9375 
-0.1854679568767582 1:0.9375 2:0.0625 3:0.5 4:0.375 5:0.625 6:0.0625 7:0.0 8:0.1875 9:0.4375 10:0.625 11:0.25 12:0.8125 13:0.9375 14:1.0 15:0.5 16:0.375 17:1.0 18:0.125 19:1.0 20:0.0 21:0.125 
-0.021606721332260145 1:0.0 2:0.125 3:0.3125 4:0.0625 5:0.875 6:0.625 7:0.5625 8:0.5 9:0.1875 10:0.8125 11:0.6875 12:0.25 13:0.5 14:0.75 15:0.8125 16:0.625 17:0.8125 18:1.0 19:1.0 20:0.75 21:0.375 
-0.4212621631983467 1:0.6875 2:0.5625 3:0.625 4:0.875 5:0.5625 6:0.5625 7:0.125 8:0.5625 9:0.1875 10:0.4375 11:0.1875 12:0.875 13:0.5625 14:0.875 15:0.25 16:0.1875 17:0.4375 18:0.0 19:0.75 20:0.25 21:0.375 
-0.24858051280626167 1:0.8125 2:0.875 3:0.75 4:0.5625 5:0.6875 6:0.9375 7:0.625 8:0.4375 9:0.0625 10:0.5625 11:0.5 12:0.5 13:0.0625 14:0.4375 15:0.375 16:0.375 17:0.5625 18:0.4375 19:0.5625 20:0.625 21:0.125 
-0.21684388526476053 1:0.375 2:0.375 3:0.6875 4:0.4375 5:0.125 6:0.125 7:0.625 8:0.8125 9:0.5 10:0.5 11:0.4375 12:0.5 13:0.0625 14:0.25 15:0.3125 16:0.1875 17:0.0625 18:0.25 19:0.0625 20:0.5625 21:0.75 
-0.04490623918168715 1:0.5 2:0.6875 3:0.5625 4:0.6875 5:0.375 6:0.75 7:0.1875 8:0.25 9:0.5625 10:0.1875 11:0.5 12:0.375 13:0.75 14:0.5 15:0.6875 16:0.9375 17:0.375 18:0.625 19:0.0 20:0.25 21:0.5 
0.19671661844049335 1:0.5 2:0.4375 3:0.9375 4:0.75 5:0.75 6:0.3125 7:0.6875 8:1.0 9:1.0 10:0.625 11:0.5 12:0.5625 13:0.5625 14:0.4375 15:0.125 16:0.25 17:0.125 18:0.1875 19:0.4375 20:0.4375 21:0.125 
-0.6429925378285962 1:0.3125 2:0.6875 3:0.25 4:0.75 5:0.5 6:0.25 7:0.8125 8:0.8125 9:1.0 10:0.6875 11:0.625 12:0.4375 13:0.5625 14:0.3125 15:0.125 16:0.75 17:0.5625 18:0.5 19:0.4375 20:0.1875 21:0.0 
-0.13769673585275308 1:0.4375 2:0.25 3:0.5 4:0.4375 5:1.0 6:0.3125 7:0.3125 8:0.6875 9:0.6875 10:0.75 11:0.4375 12:0.8125 13:0.6875 14:1.0 15:0.3125 16:0.375 17:1.0 18:0.375 19:0.875 20:0.3125 21:0.25 
-0.2855031427985516 1:1.0 2:0.5 3:0.625 4:0.5 5:0.4375 6:1.0 7:0.625 8:0.5625 9:0.3125 10:0.0625 11:0.5 12:0.375 13:0.0625 14:0.25 15:0.625 16:0.3125 17:0.4375 18:0.625 19:0.1875 20:0.625 21:0.875 
-0.018082158898333093 1:0.1875 2:0.25 3:0.0 4:0.1875 5:0.125 6:0.5 7:0.5 8:0.0625 9:0.25 10:0.375 11:0.375 12:0.25 13:0.0 14:0.5 15:0.5 16:0.5 17:0.5625 18:0.5625 19:0.5 20:0.4375 21:0.5 
0.12875645025674892 1:0.625 2:0.4375 3:0.375 4:0.875 5:0.5625 6:0.6875 7:0.4375 8:0.1875 9:0.4375 10:0.625 11:0.3125 12:0.6875 13:0.9375 14:0.625 15:0.6875 16:0.875 17:0.5625 18:0.75 19:0.5 20:0.4375 21:0.1875 
0.4333356012567325 1:0.875 2:0.625 3:0.5 4:0.5 5:0.375 6:0.875 7:0.5625 8:0.125 9:0.375 10:0.5 11:0.5 12:0.0 13:0.5 14:0.0625 15:0.5 16:0.5 17:0.5625 18:0.75 19:0.5 20:0.6875 21:0.9375 
-0.4885434475221947 1:0.1875 2:0.375 3:0.5625 4:0.1875 5:0.0625 6:0.4375 7:0.5 8:0.625 9:0.8125 10:0.6875 11:0.875 12:0.875 13:0.5 14:0.625 15:0.625 16:0.5 17:0.4375 18:0.25 19:0.5 20:0.4375 21:0.8125 
0.018995722270758804 1:0.5 2:0.625 3:0.8125 4:0.5625 5:0.5625 6:0.75 7:0.375 8:0.375 9:0.25 10:0.5 11:0.5 12:0.875 13:0.5 14:0.8125 15:0.625 16:0.625 17:0.5 18:0.5625 19:0.5 20:0.5625 21:0.5 
0.11565097890580693 1:0.3125 2:0.4375 3:0.625 4:0.5 5:0.1875 6:0.25 7:0.5625 8:0.75 9:0.5 10:0.0625 11:0.6875 12:0.8125 13:0.75 14:0.3125 15:0.75 16:0.5 17:0.125 18:0.5 19:0.3125 20:0.4375 21:0.75 
0.48502229784384293 1:0.25 2:0.75 3:0.6875 4:0.5625 5:0.3125 6:0.5625 7:0.6875 8:0.875 9:0.5625 10:0.6875 11:0.6875 12:0.4375 13:0.5 14:0.4375 15:0.375 16:0.4375 17:0.4375 18:0.5 19:0.5625 20:0.8125 21:0.8125 
-0.6979641654877035 1:0.4375 2:0.875 3:0.625 4:0.0 5:0.5 6:0.5625 7:1.0 8:0.5 9:0.1875 10:0.1875 11:0.625 12:0.1875 13:0.25 14:0.3125 15:0.375 16:0.0625 17:0.375 18:0.3125 19:0.5625 20:0.625 21:0.625 
0.36506037241633926 1:0.3125 2:0.5 3:0.25 4:0.75 5:0.4375 6:0.125 7:0.6875 8:0.5625 9:1.0 10:0.8125 11:0.9375 12:0.1875 13:0.875 14:0.3125 15:0.125 16:0.8125 17:0.625 18:0.5 19:0.375 20:0.1875 21:0.3125 
0.16979690049688406 1:1.0 2:0.625 3:0.3125 4:0.4375 5:0.5 6:0.1875 7:0.5 8:0.0 9:0.5 10:0.3125 11:0.125 12:0.0 13:0.375 14:0.4375 15:0.125 16:0.75 17:0.75 18:0.25 19:0.1875 20:0.4375 21:0.3125 
-0.5419989095019174 1:0.0 2:0.5625 3:0.4375 4:0.5 5:0.6875 6:0.4375 7:0.75 8:0.5625 9:1.0 10:0.875 11:0.8125 12:0.3125 13:0.5625 14:0.375 15:0.5 16:0.5625 17:0.625 18:0.6875 19:0.375 20:0.5 21:0.9375 
-0.07987268219823301 1:0.3125 2:0.5 3:0.25 4:0.125 5:0.1875 6:0.0 7:0.6875 8:0.4375 9:0.5 10:0.375 11:0.5 12:0.0625 13:0.125 14:0.125 15:0.1875 16:0.3125 17:0.1875 18:0.4375 19:0.25 20:0.9375 21:0.875 
0.10270899859991163 1:1.0 2:0.5 3:0.375 4:0.0625 5:0.5 6:0.5 7:0.4375 8:0.0625 9:0.0625 10:0.0 11:0.0625 12:0.0625 13:0.0625 14:0.25 15:0.25 16:0.4375 17:0.25 18:0.875 19:0.75 20:0.6875 21:0.8125 
-0.41874072745101776 1:0.5 2:0.4375 3:0.4375 4:0.375 5:0.625 6:0.3125 7:0.25 8:0.0625 9:0.0625 10:0.4375 11:0.375 12:0.5625 13:0.5 14:0.8125 15:0.8125 16:0.5 17:1.0 18:0.4375 19:0.75 20:0.8125 21:0.5 
0.06837309290312733 1:0.625 2:0.25 3:0.25 4:0.5 5:0.5625 6:0.3125 7:0.0625 8:0.5 9:0.375 10:0.4375 11:0.4375 12:0.625 13:0.5 14:0.75 15:0.8125 16:0.5 17:0.8125 18:0.625 19:0.6875 20:0.4375 21:0.0625 
-0.1989027012398357 1:0.25 2:0.25 3:0.3125 4:0.25 5:0.25 6:0.3125 7:0.625 8:0.5 9:0.375 10:0.5 11:0.4375 12:0.1875 13:0.375 14:0.9375 15:0.5 16:0.5625 17:0.75 18:0.5625 19:0.75 20:0.8125 21:0.25 
-0.13252084143215026 1:0.625 2:0.4375 3:1.0 4:0.75 5:0.8125 6:0.8125 7:0.125 8:0.75 9:1.0 10:0.5 11:0.625 12:0.9375 13:1.0 14:0.625 15:0.625 16:0.5 17:0.25 18:0.1875 19:0.0 20:0.3125 21:0.375 
0.7096414465256444 1:0.6875 2:0.5 3:0.75 4:0.75 5:0.4375 6:1.0 7:0.1875 8:0.5 9:0.4375 10:0.1875 11:0.25 12:1.0 13:0.5 14:0.375 15:0.5625 16:0.3125 17:0.0625 18:0.625 19:0.375 20:0.75 21:1.0 
0.07455079832357339 1:0.125 2:0.4375 3:0.25 4:0.5 5:0.4375 6:0.5 7:0.75 8:0.6875 9:0.75 10:0.9375 11:0.625 12:0.3125 13:0.8125 14:0.75 15:0.625 16:0.625 17:0.875 18:0.5 19:0.8125 20:0.25 21:0.375 
-0.08758516205131774 1:0.875 2:0.75 3:0.0 4:0.8125 5:0.875 6:0.4375 7:0.6875 8:0.4375 9:0.8125 10:0.625 11:0.5 12:0.3125 13:0.6875 14:0.5625 15:0.1875 16:1.0 17:0.75 18:0.5625 19:0.5 20:0.125 21:0.0625 
-0.07520182956476346 1:0.75 2:0.5 3:0.5 4:0.875 5:0.6875 6:0.75 7:0.4375 8:0.1875 9:0.4375 10:0.0625 11:0.3125 12:0.5 13:0.75 14:0.375 15:0.875 16:0.5625 17:0.9375 18:1.0 19:0.375 20:0.5 21:0.75 
0.6235431435051534 1:0.125 2:0.5 3:0.875 4:0.625 5:0.5625 6:0.8125 7:0.75 8:0.8125 9:0.8125 10:0.5 11:1.0 12:0.875 13:0.875 14:0.75 15:0.875 16:0.5 17:0.5 18:0.8125 19:0.4375 20:0.75 21:1.0 
0.31891016188180055 1:0.75 2:0.9375 3:0.9375 4:0.875 5:0.4375 6:0.6875 7:0.5625 8:0.9375 9:0.9375 10:0.125 11:0.9375 12:0.5625 13:1.0 14:0.25 15:0.75 16:0.6875 17:0.1875 18:0.5 19:0.0 20:0.4375 21:0.6875 
-0.2682941880377929 1:0.1875 2:0.1875 3:0.1875 4:0.0625 5:0.3125 6:0.125 7:0.6875 8:0.625 9:0.5 10:0.6875 11:0.4375 12:0.8125 13:0.25 14:0.75 15:0.5 16:0.1875 17:0.9375 18:0.375 19:0.8125 20:0.8125 21:0.0 
-0.07067008342175582 1:0.9375 2:0.6875 3:0.8125 4:0.6875 5:1.0 6:0.8125 7:0.125 8:0.5 9:0.0625 10:0.3125 11:0.375 12:0.625 13:0.5625 14:0.6875 15:0.625 16:0.4375 17:0.6875 18:0.6875 19:0.5 20:0.8125 21:1.0 
-0.3010653437805656 1:0.875 2:0.625 3:0.5 4:1.0 5:0.375 6:0.5625 7:0.125 8:0.3125 9:0.375 10:0.25 11:0.375 12:0.4375 13:0.5 14:0.1875 15:0.5 16:0.75 17:0.25 18:0.125 19:0.25 20:0.375 21:0.5 
0.19297187367212465 1:0.125 2:1.0 3:0.6875 4:0.625 5:0.4375 6:0.625 7:0.9375 8:0.5625 9:0.5 10:0.5 11:0.625 12:0.5 13:0.5 14:0.0625 15:0.5 16:0.5 17:0.4375 18:0.6875 19:0.0 20:0.875 21:0.875 
-0.5442726542962493 1:0.5625 2:0.75 3:0.5 4:0.75 5:0.375 6:0.6875 7:0.5 8:0.6875 9:0.875 10:0.3125 11:0.5 12:0.1875 13:0.625 14:0.4375 15:0.375 16:0.875 17:0.25 18:0.625 19:0.3125 20:0.3125 21:0.75 
0.05055810714669984 1:0.0625 2:0.4375 3:0.8125 4:0.875 5:0.625 6:0.3125 7:0.375 8:0.6875 9:0.875 10:0.8125 11:0.5 12:0.5 13:0.8125 14:0.875 15:0.5625 16:0.5625 17:0.5 18:0.375 19:0.25 20:0.125 21:0.25 
0.08650308975873851 1:0.6875 2:0.5 3:0.8125 4:0.5625 5:1.0 6:0.5625 7:0.375 8:0.125 9:0.1875 10:0.5 11:0.125 12:0.5625 13:1.0 14:0.9375 15:0.5625 16:0.0625 17:0.625 18:0.4375 19:0.625 20:0.4375 21:0.3125 
0.16197064704297107 1:0.5625 2:0.875 3:0.8125 4:0.75 5:1.0 6:1.0 7:1.0 8:0.5 9:0.5625 10:0.875 11:0.875 12:0.25 13:0.4375 14:0.4375 15:0.1875 16:0.125 17:0.75 18:0.5 19:0.8125 20:0.5625 21:0.5625 
-0.005133517596320557 1:0.6875 2:0.75 3:0.9375 4:0.75 5:0.375 6:0.9375 7:0.875 8:0.875 9:0.5 10:0.375 11:0.4375 12:0.3125 13:0.0625 14:0.1875 15:0.375 16:0.0625 17:0.25 18:0.5 19:0.375 20:0.9375 21:0.625 
-0.29596824608892586 1:0.8125 2:1.0 3:0.625 4:0.5 5:1.0 6:0.5 7:0.9375 8:0.4375 9:0.5 10:0.5 11:0.3125 12:0.5 13:0.125 14:0.625 15:0.25 16:0.25 17:0.625 18:0.0 19:0.8125 20:0.3125 21:0.1875 
-0.15086152138379239 1:0.8125 2:0.5625 3:0.625 4:0.5 5:0.5625 6:0.5 7:0.4375 8:0.3125 9:0.4375 10:0.25 11:0.0 12:0.5 13:0.1875 14:0.4375 15:0.375 16:0.5625 17:0.8125 18:0.375 19:0.5 20:0.0 21:0.5 
-0.4071467284295378 1:0.5625 2:0.3125 3:0.8125 4:1.0 5:0.875 6:0.6875 7:0.0 8:0.5 9:0.8125 10:0.375 11:0.5 12:1.0 13:0.75 14:0.8125 15:0.8125 16:0.5625 17:0.3125 18:0.6875 19:0.4375 20:0.4375 21:1.0 
-0.21170824052355114 1:0.25 2:0.25 3:0.0625 4:0.375 5:0.0625 6:0.375 7:0.3125 8:0.8125 9:0.5625 10:0.5625 11:1.0 12:0.75 13:0.6875 14:0.5 15:0.5625 16:0.4375 17:0.0 18:0.5 19:0.1875 20:0.625 21:0.5625 
-0.16413898038961908 1:0.5 2:0.1875 3:0.5 4:0.5 5:0.5 6:0.375 7:0.0625 8:0.375 9:0.8125 10:0.1875 11:0.1875 12:0.6875 13:0.9375 14:0.9375 15:0.4375 16:0.625 17:0.5625 18:0.375 19:0.5 20:0.25 21:0.4375 
0.18616656645214952 1:0.5 2:0.1875 3:0.3125 4:0.5625 5:0.375 6:0.1875 7:0.125 8:0.0 9:0.1875 10:0.0625 11:0.25 12:0.5625 13:0.8125 14:0.9375 15:0.9375 16:0.5625 17:0.5 18:0.5 19:0.5 20:0.125 21:0.4375 
-0.0715116314842818 1:0.9375 2:0.5 3:0.5 4:0.1875 5:0.0625 6:0.5 7:0.5625 8:0.0 9:0.0 10:0.125 11:0.125 12:0.3125 13:0.25 14:0.25 15:0.3125 16:0.5 17:0.375 18:0.5625 19:0.1875 20:0.5625 21:0.9375 
-0.08787342296352324 1:0.5 2:0.5 3:0.5625 4:0.375 5:0.875 6:0.4375 7:0.8125 8:1.0 9:0.6875 10:0.9375 11:0.625 12:0.6875 13:0.5 14:0.9375 15:0.3125 16:0.25 17:0.625 18:0.5 19:1.0 20:0.875 21:0.125 
0.4617804551112302 1:0.5 2:0.625 3:0.75 4:0.4375 5:0.5 6:0.4375 7:0.875 8:0.75 9:0.375 10:0.75 11:0.4375 12:0.375 13:0.25 14:0.6875 15:0.4375 16:0.375 17:0.5625 18:0.0 19:0.6875 20:0.625 21:0.375 
-0.045753275438032065 1:1.0 2:0.625 3:0.5 4:0.375 5:0.5 6:0.5625 7:0.25 8:0.25 9:0.0625 10:0.25 11:0.5 12:0.3125 13:0.375 14:0.5625 15:0.625 16:0.1875 17:0.1875 18:0.625 19:0.75 20:0.625 21:0.625 
0.0714452378820384 1:0.1875 2:0.125 3:0.0625 4:0.4375 5:0.5625 6:0.0625 7:0.6875 8:0.5 9:0.625 10:0.6875 11:0.75 12:0.5 13:0.875 14:0.625 15:0.9375 16:0.6875 17:0.75 18:0.8125 19:0.625 20:0.4375 21:0.25 
-0.07114558357066869 1:0.25 2:0.0 3:0.0 4:1.0 5:0.5625 6:0.375 7:1.0 8:0.5625 9:0.9375 10:0.875 11:0.625 12:0.5 13:0.9375 14:0.75 15:0.5 16:0.6875 17:0.6875 18:0.3125 19:0.375 20:0.1875 21:0.25 
-0.24170836597721407 1:0.25 2:0.125 3:0.25 4:0.25 5:0.0625 6:0.25 7:0.1875 8:0.125 9:0.5625 10:0.1875 11:0.5 12:0.0625 13:0.9375 14:0.5 15:0.375 16:0.75 17:0.625 18:0.75 19:0.375 20:0.0625 21:0.5 
-0.04079077900742707 1:0.0 2:0.3125 3:0.5625 4:0.4375 5:0.0 6:0.0 7:0.5625 8:0.5 9:0.875 10:0.75 11:0.5 12:0.5625 13:0.8125 14:0.5 15:0.4375 16:0.875 17:0.5 18:0.25 19:0.25 20:0.0 21:0.1875 
-0.3634108554599572 1:0.5 2:0.0 3:0.0 4:0.3125 5:0.6875 6:0.375 7:0.125 8:0.0 9:0.375 10:0.4375 11:0.4375 12:0.6875 13:0.8125 14:0.75 15:0.875 16:1.0 17:1.0 18:0.8125 19:0.5 20:0.25 21:0.5 
-0.1802493950801359 1:0.3125 2:0.5 3:0.8125 4:0.5 5:0.5625 6:1.0 7:0.875 8:0.875 9:0.6875 10:0.75 11:1.0 12:0.1875 13:0.1875 14:0.375 15:0.8125 16:0.5 17:0.375 18:0.875 19:0.625 20:0.75 21:0.9375 
-0.009260053188886664 1:0.1875 2:0.25 3:0.5 4:0.6875 5:0.8125 6:0.3125 7:0.5 8:0.5625 9:0.9375 10:1.0 11:0.625 12:1.0 13:0.5625 14:0.75 15:0.6875 16:0.3125 17:0.5 18:0.125 19:0.5 20:0.0 21:0.0 
0.42156705437362463 1:0.5 2:0.25 3:0.0 4:0.3125 5:0.0625 6:0.5 7:0.1875 8:0.5 9:0.3125 10:0.375 11:0.5 12:0.875 13:0.5 14:0.5 15:0.8125 16:0.5 17:0.1875 18:0.75 19:0.3125 20:0.5 21:0.9375 
0.3585650217104483 1:0.5625 2:0.8125 3:0.8125 4:0.5 5:0.375 6:0.5625 7:1.0 8:0.75 9:0.5625 10:0.1875 11:0.5 12:0.5 13:0.125 14:0.375 15:0.4375 16:0.0 17:0.4375 18:0.25 19:0.5 20:0.5 21:0.8125 
0.4007771128358346 1:0.4375 2:0.4375 3:0.3125 4:0.4375 5:0.0 6:0.375 7:0.625 8:0.5 9:0.75 10:0.25 11:0.4375 12:0.4375 13:0.875 14:0.125 15:0.25 16:0.6875 17:0.25 18:0.5625 19:0.125 20:0.3125 21:1.0 
-0.11854537336025532 1:1.0 2:0.8125 3:0.6875 4:0.6875 5:0.5625 6:1.0 7:0.5625 8:0.5 9:0.6875 10:0.25 11:0.75 12:0.6875 13:1.0 14:0.25 15:0.5 16:0.4375 17:0.125 18:0.25 19:0.0 20:0.4375 21:0.8125 
0.37180630153787214 1:0.5 2:0.5 3:1.0 4:0.5 5:0.5 6:0.5 7:0.25 8:0.625 9:0.4375 10:0.25 11:0.5625 12:0.6875 13:0.5 14:0.75 15:0.875 16:0.25 17:0.5 18:0.5 19:0.875 20:0.5 21:0.5625 
-0.10622257509047972 1:0.75 2:0.875 3:0.8125 4:0.75 5:0.9375 6:0.8125 7:0.375 8:0.25 9:0.5625 10:0.5 11:0.1875 12:0.4375 13:0.6875 14:0.5 15:0.25 16:0.375 17:0.5 18:0.3125 19:0.4375 20:0.375 21:0.3125 
-0.15304849043081706 1:0.5 2:0.25 3:0.25 4:0.0 5:0.5 6:0.625 7:0.4375 8:0.375 9:0.125 10:0.625 11:0.6875 12:0.4375 13:0.375 14:0.875 15:0.9375 16:0.6875 17:0.625 18:0.9375 19:0.8125 20:0.6875 21:0.9375 
-0.03161923122249834 1:0.4375 2:0.875 3:0.375 4:0.5625 5:0.3125 6:0.5 7:0.75 8:0.5 9:0.625 10:0.6875 11:0.875 12:0.375 13:0.5 14:0.375 15:0.4375 16:0.9375 17:0.25 18:0.875 19:0.4375 20:0.5625 21:0.6875 
0.19604698803159762 1:0.5 2:0.5 3:0.25 4:0.375 5:0.875 6:0.25 7:0.5625 8:0.0625 9:0.1875 10:1.0 11:0.5625 12:0.5 13:0.25 14:0.8125 15:0.25 16:0.4375 17:1.0 18:0.6875 19:0.8125 20:0.75 21:0.0625 
-0.08812745371954389 1:0.1875 2:0.1875 3:0.3125 4:0.3125 5:0.5 6:0.0 7:0.75 8:0.8125 9:0.5 10:0.625 11:0.625 12:0.5625 13:0.3125 14:0.75 15:0.5 16:0.3125 17:0.75 18:0.25 19:1.0 20:0.9375 21:0.0625 
0.2741276358404664 1:0.4375 2:0.3125 3:0.5 4:0.875 5:0.375 6:0.6875 7:0.25 8:0.625 9:0.5625 10:0.0625 11:0.625 12:0.75 13:0.75 14:0.5625 15:0.75 16:0.4375 17:0.0 18:0.75 19:0.0 20:0.5 21:0.75 
-0.06567437532915942 1:0.0625 2:0.25 3:0.0625 4:0.0625 5:0.375 6:0.1875 7:0.625 8:0.5 9:0.5625 10:1.0 11:0.875 12:0.1875 13:0.625 14:0.875 15:0.3125 16:0.625 17:0.75 18:0.9375 19:0.5 20:0.25 21:0.25 
-0.04457512954046468 1:0.125 2:0.0625 3:0.3125 4:0.0625 5:0.0 6:0.1875 7:0.125 8:0.5 9:0.0 10:0.0625 11:0.5 12:0.75 13:0.625 14:0.75 15:0.6875 16:0.3125 17:0.25 18:0.5625 19:0.8125 20:0.75 21:0.8125 
0.34689824570134387 1:0.25 2:0.3125 3:0.625 4:0.375 5:0.4375 6:0.125 7:0.0 8:0.6875 9:0.5 10:0.3125 11:0.625 12:0.75 13:0.625 14:0.5 15:0.6875 16:0.1875 17:0.0625 18:0.0625 19:0.3125 20:0.625 21:0.6875 
0.4543582760858819 1:0.625 2:0.75 3:0.6875 4:0.3125 5:0.625 6:0.5625 7:1.0 8:0.5 9:0.5 10:0.375 11:0.6875 12:0.3125 13:0.1875 14:0.3125 15:0.6875 16:0.4375 17:0.3125 18:0.5625 19:0.6875 20:0.9375 21:0.875 
0.15052504191589478 1:0.875 2:0.9375 3:0.5 4:0.4375 5:0.9375 6:0.75 7:0.3125 8:0.3125 9:0.0625 10:0.5625 11:0.1875 12:0.0625 13:0.375 14:0.75 15:0.0625 16:0.625 17:0.875 18:0.9375 19:0.8125 20:0.4375 21:0.125 
-0.3508022043689366 1:0.125 2:0.125 3:0.25 4:0.125 5:0.5 6:0.0625 7:0.375 8:0.25 9:0.3125 10:0.5625 11:0.5 12:0.875 13:0.6875 14:0.75 15:1.0 16:0.0 17:0.6875 18:0.4375 19:0.875 20:0.75 21:0.5 
-0.08164867952357738 1:0.875 2:0.75 3:0.8125 4:0.5 5:0.9375 6:0.1875 7:0.625 8:0.8125 9:0.75 10:0.875 11:0.3125 12:0.5 13:0.5 14:0.5 15:0.125 16:0.5 17:0.6875 18:0.125 19:0.75 20:0.0625 21:0.1875 
0.227020972360415 1:0.5 2:0.5 3:0.875 4:0.9375 5:0.6875 6:0.5 7:0.3125 8:0.6875 9:0.625 10:0.9375 11:0.4375 12:0.875 13:0.875 14:0.75 15:0.3125 16:0.5625 17:0.9375 18:0.0 19:0.375 20:0.0625 21:0.125 
-0.5428416100321651 1:0.75 2:0.3125 3:0.5625 4:0.8125 5:0.875 6:0.9375 7:0.375 8:0.5 9:0.875 10:0.4375 11:0.25 12:0.5625 13:0.9375 14:0.75 15:0.5 16:0.9375 17:0.6875 18:0.5 19:0.1875 20:0.1875 21:0.25 
-0.11264086612018141 1:0.4375 2:0.6875 3:0.0625 4:0.125 5:0.375 6:0.5 7:0.5 8:0.375 9:0.4375 10:0.1875 11:0.125 12:0.3125 13:0.0625 14:0.3125 15:0.375 16:0.25 17:0.6875 18:0.5625 19:0.6875 20:0.8125 21:0.5 
-0.2253193120178329 1:0.0 2:0.25 3:0.0 4:0.6875 5:0.1875 6:0.375 7:0.4375 8:0.5 9:0.875 10:0.625 11:0.5 12:0.0 13:0.75 14:0.4375 15:0.0625 16:1.0 17:0.8125 18:0.5 19:0.1875 20:0.3125 21:0.3125 
0.15771633488853237 1:0.5 2:0.125 3:0.5 4:0.125 5:0.25 6:0.6875 7:0.125 8:0.5 9:0.4375 10:0.5 11:1.0 12:0.5625 13:0.5 14:1.0 15:1.0 16:0.4375 17:0.5625 18:0.6875 19:0.4375 20:1.0 21:0.75 
0.012152640754266123 1:0.875 2:0.5 3:0.5 4:0.1875 5:0.4375 6:0.375 7:0.3125 8:0.5625 9:0.0 10:0.1875 11:0.25 12:0.75 13:0.0625 14:0.375 15:0.25 16:0.125 17:0.125 18:0.0 19:0.5 20:0.0 21:0.1875 
-0.30485495465175405 1:0.8125 2:0.5 3:0.5625 4:0.3125 5:0.375 6:0.875 7:0.0625 8:0.0 9:0.1875 10:0.125 11:0.625 12:0.4375 13:0.5 14:0.5625 15:0.5 16:0.3125 17:0.5 18:0.8125 19:0.5 20:0.6875 21:0.625 
-0.11817268323381215 1:0.4375 2:0.3125 3:0.1875 4:0.25 5:0.0 6:0.1875 7:0.1875 8:0.5 9:0.5625 10:0.125 11:0.25 12:0.875 13:0.9375 14:0.5625 15:0.8125 16:0.5625 17:0.25 18:0.4375 19:0.3125 20:0.0625 21:0.3125 
0.16762471814374152 1:0.5 2:0.5 3:0.5 4:0.625 5:1.0 6:1.0 7:0.125 8:0.5 9:0.8125 10:0.5 11:0.75 12:0.4375 13:1.0 14:0.9375 15:0.9375 16:0.8125 17:0.875 18:0.6875 19:0.3125 20:0.5625 21:0.625 
0.07571131117494541 1:0.3125 2:0.1875 3:0.25 4:0.125 5:0.4375 6:0.0 7:0.4375 8:0.4375 9:0.9375 10:0.6875 11:0.5625 12:0.4375 13:0.625 14:0.9375 15:0.0 16:0.75 17:0.625 18:0.3125 19:0.5 20:0.0625 21:0.0625 
0.01104451161158007 1:0.4375 2:0.8125 3:0.0625 4:0.5 5:0.9375 6:0.625 7:0.6875 8:0.75 9:0.8125 10:0.8125 11:1.0 12:0.1875 13:0.375 14:0.6875 15:0.375 16:0.8125 17:0.8125 18:1.0 19:0.875 20:0.5 21:0.3125 
0.7053816800263754 1:0.875 2:0.5 3:0.5 4:0.5 5:0.75 6:0.9375 7:0.0625 8:0.5625 9:0.3125 10:0.375 11:0.75 12:0.8125 13:0.5 14:0.8125 15:0.75 16:0.1875 17:0.375 18:0.4375 19:0.5 20:0.625 21:0.75 
-0.049503070984469266 1:0.5 2:0.25 3:0.9375 4:0.4375 5:0.4375 6:0.0625 7:0.125 8:0.5625 9:0.3125 10:0.5625 11:0.5625 12:0.8125 13:0.5 14:0.625 15:0.5 16:0.3125 17:0.5 18:0.25 19:0.75 20:0.5625 21:0.25 
-0.1331574795736172 1:0.9375 2:0.5 3:0.625 4:0.5 5:0.875 6:0.4375 7:0.25 8:0.125 9:0.3125 10:0.25 11:0.0625 12:0.5 13:0.875 14:0.75 15:0.25 16:0.4375 17:0.5625 18:0.1875 19:0.4375 20:0.0625 21:0.0625 
0.1862414732571976 1:0.375 2:0.5625 3:0.125 4:0.4375 5:0.0 6:0.25 7:0.6875 8:0.375 9:0.6875 10:0.0625 11:0.25 12:0.3125 13:0.4375 14:0.375 15:0.0625 16:0.5 17:0.5 18:0.4375 19:0.0 20:0.4375 21:0.625 
0.2677279658583999 1:0.4375 2:0.25 3:0.375 4:0.25 5:0.3125 6:0.625 7:0.0 8:0.4375 9:0.625 10:0.125 11:0.5625 12:1.0 13:0.625 14:0.5 15:0.5625 16:0.5625 17:0.0 18:0.6875 19:0.125 20:0.5 21:0.875 
-0.10237078973937444 1:0.5625 2:0.6875 3:1.0 4:0.6875 5:0.8125 6:0.4375 7:0.8125 8:0.6875 9:0.8125 10:0.5625 11:0.625 12:0.625 13:0.4375 14:0.6875 15:0.5 16:0.5 17:0.5 18:0.25 19:0.75 20:0.0 21:0.375 
0.06120989174276238 1:1.0 2:0.4375 3:0.0625 4:0.5 5:0.375 6:0.9375 7:0.0 8:0.25 9:0.1875 10:0.1875 11:0.5 12:0.375 13:0.625 14:0.375 15:0.5 16:0.5625 17:0.4375 18:0.6875 19:0.375 20:0.6875 21:0.9375 
-0.18447889039520804 1:0.3125 2:0.5 3:0.5 4:0.875 5:0.5 6:0.1875 7:0.75 8:0.5 9:0.75 10:0.9375 11:0.375 12:0.375 13:0.75 14:0.625 15:0.1875 16:0.6875 17:0.8125 18:0.1875 19:0.6875 20:0.0625 21:0.125 
0.3037492697209622 1:0.25 2:0.25 3:0.25 4:0.375 5:0.125 6:0.5 7:0.6875 8:0.75 9:0.75 10:0.875 11:0.6875 12:0.8125 13:0.375 14:0.5625 15:1.0 16:0.5 17:0.625 18:0.6875 19:0.625 20:0.9375 21:0.625 
0.40607916432780633 1:0.5 2:0.375 3:0.1875 4:0.0625 5:0.375 6:0.1875 7:0.5 8:0.3125 9:0.25 10:0.3125 11:0.125 12:0.25 13:0.25 14:0.5 15:0.125 16:0.25 17:0.5625 18:0.5 19:0.75 20:0.5 21:0.6875 
0.03232876002341581 1:1.0 2:0.5 3:0.6875 4:0.875 5:0.625 6:0.5 7:0.0 8:0.5 9:0.4375 10:0.0625 11:0.375 12:0.5 13:0.875 14:0.625 15:0.5 16:0.625 17:0.0625 18:0.25 19:0.25 20:0.5 21:0.6875 
-0.5067649998081614 1:0.4375 2:0.875 3:0.9375 4:0.9375 5:0.1875 6:0.5625 7:0.625 8:0.6875 9:0.8125 10:0.5 11:0.6875 12:1.0 13:0.875 14:0.125 15:0.1875 16:0.4375 17:0.1875 18:0.0625 19:0.1875 20:0.1875 21:0.625 
0.36444361208381437 1:0.25 2:0.9375 3:0.75 4:0.25 5:0.3125 6:0.5625 7:0.9375 8:1.0 9:0.5 10:0.375 11:0.625 12:1.0 13:0.4375 14:0.25 15:0.4375 16:0.0625 17:0.0 18:0.0 19:0.5 20:0.8125 21:0.9375 
0.28210127384303985 1:0.375 2:0.5625 3:0.125 4:0.625 5:0.5625 6:0.5 7:0.6875 8:0.25 9:0.625 10:0.5 11:0.1875 12:0.125 13:0.875 14:0.3125 15:0.4375 16:0.9375 17:0.75 18:0.75 19:0.3125 20:0.0 21:0.625 
0.026349454301750997 1:0.875 2:0.875 3:1.0 4:0.75 5:0.8125 6:0.875 7:0.6875 8:0.5625 9:1.0 10:0.75 11:1.0 12:0.5625 13:0.5625 14:0.4375 15:1.0 16:0.9375 17:0.375 18:1.0 19:0.125 20:0.5 21:0.9375 
