encog,SVM,java,3.2.0,1,1406057664199
[SVM]
[SVM:PARAMS]
[SVM:SVM-PARAM]
inputCount=15
C=1
cacheSize=100
coef0=0
degree=3
eps=0.001
gamma=1
kernelType=2
nrWeight=0
nu=0.5
p=0.1
probability=0
shrinking=1
svmType=3
weight=
weightLabel=
[SVM:SVM-MODEL]
svm_type epsilon_svr
kernel_type rbf
gamma 1.0
nr_class 2
total_sv 321
rho -0.4826429901778532
SV
0.43589830558405823 1:0.75 2:1.0 3:0.625 4:0.9375 5:1.0 6:0.5 7:0.1875 8:0.625 9:0.625 10:0.5625 11:0.625 12:0.5625 13:0.9375 14:0.625 15:0.3125 
-0.2546872327683757 1:0.6875 2:0.6875 3:0.8125 4:0.5 5:0.625 6:0.5 7:0.5 8:0.125 9:0.3125 10:0.375 11:0.4375 12:0.5625 13:0.1875 14:0.5625 15:0.5 
-0.3745411080091338 1:0.5625 2:0.0 3:0.125 4:0.375 5:0.3125 6:0.125 7:0.125 8:0.1875 9:0.25 10:0.8125 11:0.8125 12:0.9375 13:0.9375 14:0.75 15:0.6875 
0.3331801626830069 1:0.375 2:0.0 3:0.0 4:0.25 5:0.0625 6:0.375 7:0.0625 8:0.5 9:0.5 10:0.625 11:0.6875 12:0.5625 13:0.5 14:0.875 15:0.5 
0.09926653077395445 1:0.4375 2:0.0625 3:0.25 4:0.3125 5:0.3125 6:0.125 7:0.5625 8:0.1875 9:0.5 10:0.5625 11:0.5 12:0.625 13:0.4375 14:0.4375 15:0.875 
0.13892021472736069 1:0.875 2:0.625 3:0.625 4:0.4375 5:0.625 6:0.5 7:0.125 8:0.125 9:0.0 10:0.5 11:0.3125 12:0.125 13:0.5 14:0.4375 15:0.1875 
0.37389878848021535 1:0.1875 2:0.0625 3:0.375 4:0.6875 5:0.125 6:0.375 7:0.875 8:0.9375 9:0.4375 10:1.0 11:0.75 12:0.5 13:0.8125 14:0.125 15:0.125 
0.42441896098016246 1:0.75 2:0.625 3:0.625 4:0.6875 5:0.875 6:0.25 7:0.1875 8:0.5625 9:0.1875 10:0.5 11:0.6875 12:0.3125 13:0.625 14:0.25 15:0.375 
0.23738619535211114 1:0.4375 2:0.3125 3:1.0 4:0.4375 5:0.1875 6:0.25 7:0.875 8:0.9375 9:0.1875 10:0.875 11:0.75 12:0.5625 13:0.1875 14:0.0 15:0.1875 
0.7862640636899361 1:0.625 2:0.5 3:0.0625 4:0.5625 5:0.6875 6:0.5 7:0.0 8:0.125 9:0.625 10:0.125 11:0.1875 12:0.6875 13:0.5 14:0.75 15:0.5625 
-0.1299500648175868 1:0.4375 2:0.5625 3:0.5 4:0.625 5:0.375 6:0.75 7:0.375 8:0.5625 9:0.5 10:0.1875 11:0.8125 12:0.125 13:0.8125 14:0.375 15:0.25 
0.3899722002524447 1:0.625 2:0.25 3:0.375 4:0.5 5:0.375 6:0.375 7:0.1875 8:0.25 9:0.25 10:0.5625 11:0.4375 12:1.0 13:0.5 14:0.5 15:0.5625 
-1.0 1:0.5625 2:0.75 3:0.5625 4:0.9375 5:0.9375 6:0.1875 7:0.25 8:0.375 9:0.4375 10:0.4375 11:0.6875 12:0.9375 13:0.5 14:0.5625 15:0.5625 
0.1665484210560211 1:0.125 2:0.125 3:0.375 4:0.5 5:0.5 6:0.6875 7:0.875 8:0.8125 9:0.8125 10:0.9375 11:0.75 12:0.5 13:0.5 14:0.625 15:0.4375 
-0.8269200626998153 1:0.75 2:1.0 3:0.5625 4:0.5 5:0.75 6:0.5 7:0.375 8:0.125 9:0.5625 10:0.1875 11:0.375 12:0.4375 13:0.8125 14:0.75 15:0.8125 
-1.0 1:0.5 2:0.25 3:0.4375 4:0.625 5:0.4375 6:0.3125 7:0.5 8:0.5 9:0.3125 10:0.875 11:0.75 12:0.625 13:0.25 14:0.4375 15:0.0625 
-0.023636065136751556 1:0.5 2:0.875 3:0.8125 4:0.6875 5:0.3125 6:0.5 7:0.5 8:0.625 9:0.0 10:0.3125 11:0.3125 12:0.25 13:0.5 14:0.125 15:0.4375 
-0.18216871243335314 1:0.875 2:0.9375 3:0.4375 4:0.9375 5:0.875 6:0.4375 7:0.1875 8:0.6875 9:0.0 10:0.4375 11:1.0 12:0.5 13:0.875 14:0.5625 15:0.25 
0.19502499777243573 1:0.5 2:0.5 3:0.875 4:0.3125 5:0.8125 6:0.8125 7:0.875 8:0.5 9:0.875 10:0.625 11:0.0625 12:0.375 13:0.375 14:0.375 15:0.875 
0.22016079603344 1:0.3125 2:0.1875 3:0.625 4:0.5 5:0.6875 6:0.75 7:0.8125 8:0.75 9:1.0 10:0.5625 11:0.5 12:1.0 13:0.5 14:0.8125 15:0.5 
1.0 1:0.125 2:0.6875 3:0.1875 4:0.4375 5:0.75 6:0.75 7:0.8125 8:0.875 9:0.8125 10:0.25 11:0.3125 12:0.5 13:0.375 14:0.9375 15:0.6875 
-0.33480973120388663 1:0.5 2:0.5625 3:0.75 4:0.6875 5:0.375 6:0.4375 7:0.5 8:0.75 9:0.5 10:0.6875 11:0.5625 12:0.375 13:0.3125 14:0.3125 15:0.5 
0.6642732687340379 1:0.4375 2:0.5625 3:0.5625 4:1.0 5:0.6875 6:0.625 7:0.8125 8:0.6875 9:0.875 10:0.5 11:0.6875 12:0.875 13:0.5 14:0.6875 15:0.25 
-0.05272842695587675 1:0.0 2:0.3125 3:0.4375 4:0.3125 5:0.125 6:0.25 7:0.875 8:0.75 9:0.4375 10:1.0 11:0.8125 12:0.8125 13:0.5 14:0.1875 15:0.3125 
0.1690593969304144 1:0.9375 2:0.6875 3:1.0 4:0.625 5:0.9375 6:0.5 7:0.875 8:0.375 9:0.0 10:0.75 11:0.5 12:0.5 13:0.3125 14:0.25 15:0.3125 
0.12788456399180542 1:0.0625 2:0.3125 3:0.125 4:0.6875 5:0.5 6:0.5625 7:0.875 8:0.8125 9:0.625 10:1.0 11:0.9375 12:0.5625 13:0.8125 14:0.5 15:0.3125 
-0.44783598735629143 1:0.1875 2:0.25 3:0.1875 4:0.1875 5:0.25 6:0.5 7:0.25 8:0.6875 9:0.375 10:0.5 11:0.5625 12:0.4375 13:0.9375 14:0.625 15:0.1875 
-0.22646906665980931 1:0.6875 2:0.5 3:0.375 4:0.1875 5:0.5 6:0.4375 7:0.0625 8:0.1875 9:0.5625 10:0.5625 11:0.1875 12:0.8125 13:0.5 14:0.6875 15:0.75 
0.005298869872873171 1:0.4375 2:0.4375 3:0.4375 4:0.1875 5:0.375 6:0.5 7:0.625 8:0.4375 9:0.1875 10:0.5 11:0.5 12:0.25 13:0.5 14:0.375 15:0.5 
-0.7163727415402732 1:0.6875 2:0.0625 3:0.5 4:0.4375 5:0.0 6:0.375 7:0.3125 8:0.4375 9:0.1875 10:0.6875 11:0.5625 12:0.0625 13:0.625 14:0.375 15:0.25 
-0.5834128529385886 1:0.8125 2:0.0 3:0.5 4:0.375 5:0.5 6:0.25 7:0.3125 8:0.4375 9:0.3125 10:0.5 11:0.5 12:0.875 13:0.5 14:0.8125 15:1.0 
0.03729048996248933 1:0.375 2:0.5 3:0.0 4:0.6875 5:0.25 6:0.8125 7:0.125 8:0.5 9:0.0 10:0.3125 11:0.5625 12:0.0625 13:0.8125 14:0.3125 15:0.1875 
0.2304643124320743 1:0.5 2:0.625 3:1.0 4:0.4375 5:0.9375 6:0.4375 7:0.6875 8:0.4375 9:0.5 10:0.6875 11:0.375 12:0.8125 13:0.4375 14:0.5625 15:0.5625 
0.18789514768487764 1:0.875 2:0.8125 3:0.3125 4:0.9375 5:0.8125 6:0.8125 7:0.3125 8:0.625 9:0.5 10:0.125 11:0.3125 12:0.0 13:0.75 14:0.625 15:0.5625 
0.023307665037098208 1:0.6875 2:0.5625 3:0.5 4:0.6875 5:0.5 6:0.3125 7:0.0 8:0.6875 9:0.375 10:0.4375 11:0.875 12:0.0 13:0.875 14:0.5 15:0.0625 
0.2438527067249556 1:0.6875 2:0.625 3:0.875 4:0.5 5:0.5 6:0.0625 7:0.25 8:0.375 9:0.4375 10:0.5625 11:0.5 12:0.375 13:0.125 14:0.5 15:0.6875 
0.2975679494618763 1:0.375 2:1.0 3:0.75 4:0.1875 5:0.5 6:0.8125 7:0.875 8:0.25 9:0.75 10:0.5 11:0.1875 12:0.125 13:0.0 14:0.5 15:0.9375 
-0.9366785648640754 1:0.1875 2:0.3125 3:0.25 4:0.4375 5:0.0625 6:0.4375 7:0.375 8:0.25 9:0.5 10:0.625 11:0.5625 12:0.4375 13:0.375 14:0.5 15:0.5 
0.37780533896271074 1:0.625 2:0.125 3:1.0 4:0.75 5:0.5 6:0.1875 7:0.9375 8:0.5625 9:0.0625 10:0.9375 11:0.625 12:0.375 13:0.3125 14:0.125 15:0.25 
-0.37029874211775815 1:0.75 2:0.75 3:0.875 4:0.75 5:0.8125 6:0.5 7:0.375 8:0.5 9:0.25 10:0.125 11:0.3125 12:0.1875 13:0.5 14:0.1875 15:0.0 
0.2829085218577092 1:0.375 2:0.375 3:0.4375 4:0.375 5:0.125 6:0.4375 7:0.1875 8:0.5 9:0.4375 10:0.5 11:0.625 12:0.125 13:0.8125 14:0.125 15:0.25 
-0.23268454558554058 1:0.9375 2:0.875 3:0.4375 4:0.6875 5:0.75 6:0.5625 7:0.125 8:0.3125 9:0.6875 10:0.375 11:0.0625 12:0.375 13:0.625 14:1.0 15:0.75 
0.46535569996769444 1:0.1875 2:0.25 3:0.4375 4:0.0625 5:0.4375 6:0.3125 7:1.0 8:0.125 9:0.5625 10:0.8125 11:0.375 12:1.0 13:0.125 14:0.0625 15:1.0 
-0.0247622290851769 1:0.9375 2:0.6875 3:0.625 4:0.5 5:1.0 6:0.625 7:0.1875 8:0.0625 9:0.4375 10:0.3125 11:0.3125 12:0.1875 13:0.5625 14:0.6875 15:0.4375 
1.0 1:0.1875 2:0.5625 3:0.625 4:0.5625 5:0.3125 6:0.5625 7:0.625 8:0.625 9:0.0625 10:0.5 11:0.4375 12:0.375 13:0.4375 14:0.1875 15:0.1875 
0.3923934333007037 1:0.4375 2:0.3125 3:0.8125 4:0.9375 5:0.6875 6:0.875 7:1.0 8:1.0 9:0.625 10:0.9375 11:0.875 12:0.6875 13:0.625 14:0.0 15:0.25 
-0.28700597206121703 1:0.4375 2:0.5 3:0.8125 4:0.0625 5:0.625 6:0.1875 7:0.875 8:0.3125 9:0.75 10:0.875 11:0.5 12:0.5625 13:0.3125 14:0.375 15:0.8125 
0.38336218965962704 1:0.3125 2:1.0 3:0.625 4:0.5 5:0.5625 6:0.75 7:0.5625 8:0.5 9:0.375 10:0.5625 11:0.1875 12:0.0 13:0.4375 14:0.125 15:0.4375 
0.6188815409382772 1:0.75 2:0.75 3:0.875 4:0.5625 5:0.9375 6:0.4375 7:0.125 8:0.3125 9:0.75 10:0.3125 11:0.4375 12:0.75 13:0.8125 14:0.75 15:0.625 
-0.5446424631317283 1:0.25 2:0.375 3:0.125 4:0.375 5:0.5 6:0.4375 7:0.0625 8:0.4375 9:0.5625 10:0.0 11:0.0 12:0.8125 13:0.75 14:0.875 15:0.75 
0.07400854722617727 1:0.625 2:0.9375 3:0.9375 4:0.75 5:0.3125 6:0.6875 7:0.9375 8:0.5 9:0.5 10:0.6875 11:0.1875 12:0.0 13:0.0625 14:0.0 15:0.5 
-0.24780639485436606 1:0.3125 2:0.6875 3:0.4375 4:0.75 5:0.375 6:0.75 7:0.3125 8:0.9375 9:0.1875 10:0.0625 11:0.5625 12:0.1875 13:0.625 14:0.4375 15:0.375 
-0.36992280700215374 1:0.5625 2:0.5625 3:0.875 4:0.8125 5:0.5 6:0.75 7:0.8125 8:0.9375 9:0.8125 10:0.6875 11:0.8125 12:0.5 13:0.75 14:0.5625 15:0.0 
0.34461915186410164 1:0.5625 2:0.125 3:0.1875 4:0.3125 5:1.0 6:0.0625 7:0.25 8:0.0 9:0.6875 10:0.5 11:0.1875 12:0.9375 13:0.5 14:0.75 15:0.8125 
0.6591269061991643 1:0.25 2:0.4375 3:0.4375 4:0.375 5:0.4375 6:0.25 7:0.5 8:0.625 9:0.625 10:0.4375 11:0.5 12:0.875 13:0.5 14:0.875 15:0.6875 
-0.1568735615452157 1:0.5 2:0.125 3:0.8125 4:0.5625 5:0.8125 6:0.4375 7:0.5 8:0.5625 9:0.9375 10:0.8125 11:0.75 12:0.6875 13:0.5 14:0.4375 15:0.4375 
0.12923936960670618 1:0.0625 2:0.5 3:0.625 4:0.9375 5:0.375 6:0.8125 7:0.8125 8:0.875 9:0.25 10:0.75 11:0.9375 12:0.375 13:0.625 14:0.125 15:0.0625 
-0.6780244680455269 1:1.0 2:0.625 3:0.6875 4:0.9375 5:0.75 6:0.25 7:0.0 8:0.4375 9:0.25 10:0.6875 11:0.625 12:0.75 13:0.8125 14:0.6875 15:0.5 
-1.0 1:0.5625 2:1.0 3:0.625 4:0.6875 5:0.75 6:0.875 7:0.625 8:0.6875 9:0.9375 10:0.0625 11:0.0625 12:0.375 13:0.0625 14:0.875 15:0.8125 
0.15746119574073378 1:0.75 2:0.625 3:0.625 4:0.9375 5:0.375 6:0.25 7:0.5625 8:0.5625 9:0.25 10:1.0 11:0.5 12:0.5 13:0.625 14:0.0625 15:0.1875 
0.10315457548915642 1:0.625 2:0.4375 3:0.5625 4:1.0 5:0.6875 6:0.0625 7:0.4375 8:0.9375 9:0.5625 10:0.5 11:0.75 12:0.5 13:0.8125 14:0.5 15:0.0 
0.26990793451011347 1:0.5 2:0.125 3:0.0 4:0.375 5:0.625 6:0.0 7:0.125 8:0.375 9:0.875 10:0.625 11:0.9375 12:1.0 13:0.5 14:0.9375 15:1.0 
0.15111680158052737 1:0.0 2:0.375 3:0.125 4:0.125 5:0.3125 6:0.75 7:0.5 8:0.625 9:0.5 10:0.5625 11:0.6875 12:0.4375 13:0.6875 14:0.5 15:0.0 
-0.3198220661412191 1:0.4375 2:0.25 3:0.3125 4:0.125 5:0.5 6:0.125 7:0.125 8:0.5 9:0.125 10:0.5625 11:0.5625 12:0.5 13:0.625 14:0.5 15:0.5 
0.2859973377806936 1:0.9375 2:0.5 3:0.875 4:0.8125 5:0.9375 6:0.375 7:0.625 8:0.5 9:0.9375 10:0.625 11:0.5 12:0.9375 13:0.0 14:0.5 15:0.875 
-1.0 1:0.3125 2:0.75 3:0.875 4:0.875 5:0.5 6:0.625 7:1.0 8:0.8125 9:0.5 10:0.8125 11:0.8125 12:0.5 13:0.875 14:0.3125 15:0.25 
-0.25898522076966307 1:0.9375 2:1.0 3:0.625 4:0.375 5:1.0 6:0.3125 7:0.4375 8:0.0625 9:0.6875 10:0.375 11:0.0625 12:0.8125 13:0.0 14:1.0 15:0.8125 
-0.011101418414353524 1:0.8125 2:0.9375 3:0.9375 4:0.625 5:1.0 6:0.5 7:0.5 8:0.6875 9:0.75 10:0.6875 11:0.3125 12:0.75 13:0.375 14:0.5 15:0.5625 
0.04168390159889969 1:0.375 2:0.5625 3:0.0 4:0.875 5:0.375 6:0.6875 7:0.3125 8:0.6875 9:0.5625 10:0.3125 11:1.0 12:0.4375 13:1.0 14:0.4375 15:0.3125 
0.024773762446184087 1:0.125 2:0.3125 3:0.1875 4:0.0625 5:0.0 6:0.4375 7:0.6875 8:0.0 9:0.375 10:0.625 11:0.375 12:0.625 13:0.3125 14:0.5625 15:0.625 
-0.14911700025371816 1:0.625 2:0.8125 3:0.5625 4:0.75 5:0.9375 6:0.5625 7:0.1875 8:0.3125 9:0.5 10:0.25 11:0.25 12:0.0 13:0.75 14:0.9375 15:0.5 
0.2546597055452627 1:0.0625 2:0.4375 3:0.125 4:0.125 5:0.375 6:0.8125 7:0.375 8:0.125 9:0.75 10:0.4375 11:0.3125 12:0.3125 13:0.4375 14:1.0 15:0.75 
0.39470419140991686 1:0.4375 2:0.3125 3:0.8125 4:0.5625 5:0.4375 6:0.0 7:0.875 8:0.5625 9:0.5625 10:0.875 11:0.875 12:0.875 13:0.4375 14:0.1875 15:0.5 
0.4790733942998736 1:0.5 2:0.6875 3:0.8125 4:0.4375 5:0.875 6:0.5 7:0.875 8:0.0625 9:0.8125 10:0.6875 11:0.3125 12:0.625 13:0.3125 14:0.3125 15:0.9375 
-0.9047243479274198 1:0.0 2:0.1875 3:0.625 4:0.3125 5:0.3125 6:0.375 7:1.0 8:0.5 9:0.75 10:0.75 11:0.75 12:0.75 13:0.1875 14:0.5 15:0.4375 
1.0 1:0.5 2:0.9375 3:0.8125 4:0.75 5:0.8125 6:0.9375 7:0.625 8:0.625 9:0.6875 10:0.5 11:0.6875 12:0.375 13:0.6875 14:0.0625 15:0.375 
0.06374564821271594 1:0.5 2:0.375 3:0.875 4:0.375 5:0.3125 6:0.0 7:0.75 8:0.1875 9:0.4375 10:1.0 11:0.25 12:0.5 13:0.0625 14:0.125 15:0.8125 
0.26092958134345495 1:0.75 2:0.9375 3:0.875 4:0.5 5:1.0 6:0.375 7:0.625 8:0.5625 9:0.5625 10:0.625 11:0.625 12:0.625 13:0.0 14:0.5 15:0.625 
0.2651381360773294 1:0.0625 2:0.5 3:0.125 4:0.5625 5:0.5625 6:0.375 7:0.375 8:0.5625 9:0.625 10:0.4375 11:1.0 12:0.875 13:0.9375 14:0.9375 15:0.25 
-0.12234453352103844 1:0.6875 2:0.9375 3:0.75 4:1.0 5:0.5625 6:0.9375 7:0.5 8:0.75 9:0.875 10:0.1875 11:0.8125 12:0.5 13:0.9375 14:0.5 15:0.25 
-0.32582035625438743 1:0.6875 2:0.0625 3:0.875 4:0.3125 5:0.375 6:0.25 7:0.25 8:0.0 9:0.125 10:0.625 11:0.5 12:0.5 13:0.0625 14:0.25 15:0.4375 
0.14917102864951767 1:0.8125 2:0.8125 3:0.6875 4:0.875 5:0.625 6:0.25 7:0.5625 8:0.4375 9:0.0 10:0.625 11:0.6875 12:0.3125 13:0.875 14:0.1875 15:0.1875 
-0.3678220385417748 1:0.5 2:0.5625 3:0.5 4:0.9375 5:0.6875 6:0.375 7:0.875 8:0.625 9:0.6875 10:0.6875 11:1.0 12:0.8125 13:0.5625 14:0.4375 15:0.3125 
0.951437031983359 1:0.8125 2:0.5 3:0.4375 4:0.625 5:0.5 6:0.3125 7:0.25 8:0.1875 9:0.3125 10:0.1875 11:0.375 12:0.0625 13:0.875 14:0.6875 15:0.25 
0.08829177714348163 1:0.6875 2:0.5 3:0.6875 4:0.25 5:0.5 6:0.4375 7:0.875 8:0.375 9:0.5 10:0.8125 11:0.375 12:0.5625 13:0.125 14:0.0 15:0.8125 
-0.12999785905821754 1:0.0 2:0.5 3:0.5 4:0.25 5:0.0 6:0.6875 7:1.0 8:0.25 9:0.1875 10:0.3125 11:0.0 12:0.1875 13:0.1875 14:0.375 15:0.5625 
-0.48300173875393043 1:0.25 2:0.375 3:0.5 4:0.4375 5:0.375 6:0.4375 7:0.8125 8:0.9375 9:0.4375 10:0.5 11:0.75 12:0.3125 13:0.8125 14:0.5 15:0.25 
-0.23119457773720878 1:0.5 2:0.6875 3:0.75 4:0.8125 5:0.9375 6:0.75 7:1.0 8:0.6875 9:0.9375 10:0.9375 11:0.8125 12:0.6875 13:0.125 14:0.5 15:0.6875 
0.27872974283205754 1:0.75 2:0.875 3:0.875 4:0.875 5:0.9375 6:0.5625 7:0.5625 8:0.5625 9:0.5 10:0.5 11:0.375 12:0.375 13:0.625 14:0.5 15:0.875 
0.1685215360836812 1:0.5625 2:0.75 3:0.625 4:0.625 5:0.5 6:0.4375 7:0.6875 8:0.6875 9:0.4375 10:0.5625 11:0.6875 12:0.3125 13:0.9375 14:0.125 15:0.1875 
-0.021483157603801543 1:0.125 2:0.625 3:0.5 4:0.3125 5:0.125 6:1.0 7:0.5625 8:1.0 9:0.6875 10:0.125 11:0.5 12:0.0 13:0.5 14:0.5 15:0.25 
-0.2079814559211137 1:0.875 2:0.75 3:0.625 4:0.875 5:0.5625 6:0.1875 7:0.125 8:0.25 9:0.3125 10:0.3125 11:0.5 12:0.5 13:0.5 14:1.0 15:0.75 
-0.09186349283338933 1:0.5625 2:1.0 3:0.0625 4:0.1875 5:0.4375 6:0.5625 7:0.1875 8:0.5 9:0.0 10:0.0625 11:0.375 12:0.25 13:0.625 14:0.6875 15:0.5 
-0.6668439171621997 1:0.9375 2:0.5 3:0.1875 4:0.6875 5:0.5625 6:0.125 7:0.0625 8:0.375 9:0.0625 10:0.125 11:0.3125 12:0.375 13:0.625 14:0.6875 15:0.3125 
-1.0 1:0.5625 2:0.4375 3:0.9375 4:0.625 5:0.75 6:0.3125 7:0.625 8:0.4375 9:0.375 10:0.875 11:0.5 12:0.4375 13:0.1875 14:0.375 15:0.5 
0.5700828062641571 1:0.6875 2:0.3125 3:0.625 4:0.625 5:0.5625 6:0.0625 7:0.3125 8:0.5 9:0.25 10:0.9375 11:0.75 12:0.8125 13:0.5 14:0.5 15:0.0 
-0.04844678681307093 1:0.25 2:0.8125 3:0.6875 4:0.5 5:0.0625 6:0.9375 7:0.5 8:0.375 9:0.1875 10:0.5 11:0.25 12:0.0625 13:0.1875 14:0.1875 15:0.375 
-0.16566198552465666 1:1.0 2:0.25 3:1.0 4:0.5625 5:0.9375 6:0.0625 7:0.75 8:0.5 9:1.0 10:0.9375 11:0.5 12:1.0 13:0.0 14:0.4375 15:0.8125 
0.6030962495878569 1:0.0 2:0.5625 3:0.625 4:0.5 5:0.4375 6:0.9375 7:1.0 8:0.5 9:1.0 10:0.5625 11:0.0625 12:0.3125 13:0.125 14:0.125 15:0.5 
-0.020591881539935273 1:0.25 2:0.1875 3:0.1875 4:0.125 5:0.0 6:0.1875 7:0.6875 8:0.25 9:0.625 10:0.875 11:0.4375 12:0.5625 13:0.375 14:0.1875 15:0.625 
0.050966860676026675 1:0.375 2:0.0625 3:0.0625 4:0.0 5:0.4375 6:0.5 7:0.5 8:0.625 9:0.8125 10:0.1875 11:0.625 12:0.875 13:0.9375 14:1.0 15:0.5 
-0.6340416608578379 1:0.0 2:0.375 3:0.0625 4:0.4375 5:0.5 6:1.0 7:0.75 8:0.75 9:0.8125 10:0.4375 11:0.5 12:0.0 13:0.75 14:0.625 15:0.3125 
0.36136440957831134 1:0.5625 2:0.6875 3:0.625 4:0.3125 5:0.3125 6:1.0 7:0.625 8:0.3125 9:0.5 10:0.5625 11:0.1875 12:0.4375 13:0.125 14:0.375 15:0.5 
-1.0 1:0.4375 2:0.75 3:1.0 4:0.5 5:0.6875 6:0.8125 7:0.625 8:0.5625 9:0.5 10:0.4375 11:0.5 12:0.1875 13:0.3125 14:0.125 15:0.1875 
-0.8359369171332264 1:0.5625 2:0.75 3:0.4375 4:0.5 5:0.875 6:0.625 7:0.25 8:0.6875 9:0.5 10:0.375 11:0.5 12:0.8125 13:0.75 14:0.6875 15:0.5 
-0.017252328429548734 1:0.0 2:0.5 3:0.4375 4:0.25 5:0.0 6:0.625 7:0.875 8:0.1875 9:0.3125 10:0.3125 11:0.375 12:0.25 13:0.3125 14:0.1875 15:0.3125 
-0.20796573570894783 1:0.125 2:0.4375 3:0.375 4:0.125 5:0.0 6:0.5 7:0.5625 8:0.5 9:0.4375 10:0.9375 11:0.625 12:0.125 13:0.4375 14:0.0 15:0.0 
0.1446012142103948 1:0.375 2:0.5 3:0.3125 4:0.0 5:0.1875 6:0.75 7:0.5625 8:0.5 9:0.4375 10:0.125 11:0.1875 12:0.125 13:0.4375 14:0.75 15:0.6875 
0.3742554330613307 1:0.3125 2:0.8125 3:0.9375 4:0.5 5:0.4375 6:1.0 7:0.625 8:0.75 9:0.5625 10:0.8125 11:0.4375 12:0.125 13:0.25 14:0.0625 15:0.375 
0.02743951536920664 1:0.6875 2:0.625 3:0.625 4:0.3125 5:0.5 6:0.5 7:0.4375 8:0.3125 9:0.5 10:0.0 11:0.0625 12:0.3125 13:0.5 14:0.4375 15:0.5 
-0.09988783365837198 1:0.8125 2:0.5 3:1.0 4:0.625 5:0.625 6:0.3125 7:0.75 8:0.6875 9:0.5625 10:0.6875 11:0.9375 12:0.5 13:0.1875 14:0.0 15:0.3125 
-0.06307844037887247 1:0.4375 2:0.125 3:0.25 4:0.9375 5:0.625 6:0.4375 7:0.5 8:0.6875 9:0.6875 10:0.3125 11:0.8125 12:0.75 13:0.9375 14:1.0 15:0.6875 
0.6012740231730203 1:0.25 2:0.4375 3:0.75 4:0.5625 5:0.375 6:0.8125 7:0.625 8:0.875 9:1.0 10:0.5 11:0.5 12:0.25 13:0.5 14:0.1875 15:0.1875 
0.5370336644411688 1:0.25 2:0.3125 3:0.0625 4:0.4375 5:0.125 6:0.1875 7:0.5 8:0.4375 9:0.5 10:0.75 11:0.875 12:0.4375 13:0.5 14:0.4375 15:0.5 
-1.0 1:0.1875 2:0.5 3:0.1875 4:0.5 5:0.5 6:0.9375 7:1.0 8:0.6875 9:0.6875 10:0.5 11:0.875 12:0.5 13:0.9375 14:0.625 15:0.5 
0.0293481413295816 1:0.1875 2:0.4375 3:0.125 4:0.75 5:0.4375 6:0.625 7:0.375 8:0.9375 9:1.0 10:0.1875 11:1.0 12:0.1875 13:1.0 14:0.625 15:0.25 
-0.6093998307827438 1:0.5 2:0.3125 3:0.875 4:0.5 5:0.6875 6:0.1875 7:0.75 8:0.4375 9:0.625 10:0.75 11:0.9375 12:0.8125 13:0.0625 14:0.6875 15:0.6875 
0.15176566315657292 1:0.5 2:0.5 3:0.5 4:0.1875 5:0.375 6:0.625 7:0.5625 8:0.125 9:0.3125 10:0.625 11:0.375 12:0.1875 13:0.0 14:0.4375 15:0.3125 
0.1314177569117812 1:1.0 2:0.6875 3:0.6875 4:0.4375 5:1.0 6:0.375 7:0.0 8:0.1875 9:0.25 10:0.5625 11:0.25 12:0.875 13:0.0 14:0.625 15:0.625 
0.1944350453685885 1:0.9375 2:0.0 3:0.0625 4:0.625 5:0.5625 6:0.125 7:0.0 8:0.25 9:0.125 10:0.25 11:0.8125 12:0.5 13:0.8125 14:0.75 15:0.3125 
1.0 1:0.5 2:0.75 3:0.6875 4:1.0 5:0.75 6:0.3125 7:1.0 8:0.75 9:1.0 10:0.6875 11:0.8125 12:0.8125 13:0.4375 14:0.5 15:0.6875 
0.2643847403300269 1:0.0625 2:0.375 3:0.375 4:0.1875 5:0.0 6:0.5 7:0.9375 8:0.8125 9:0.5 10:0.5625 11:0.9375 12:0.375 13:0.625 14:0.125 15:0.0625 
0.16112981878262464 1:0.8125 2:0.4375 3:0.5 4:0.6875 5:0.8125 6:0.125 7:0.3125 8:0.6875 9:0.5625 10:0.6875 11:0.9375 12:0.9375 13:0.5 14:0.6875 15:0.875 
-0.47585255701069656 1:0.625 2:1.0 3:0.8125 4:1.0 5:0.9375 6:0.625 7:0.9375 8:0.75 9:0.875 10:0.75 11:0.625 12:0.75 13:0.75 14:0.4375 15:0.125 
0.11825562329750633 1:0.5 2:0.0 3:0.125 4:0.0625 5:0.125 6:0.25 7:0.125 8:0.375 9:0.5625 10:0.75 11:0.75 12:1.0 13:0.5 14:0.5 15:0.5 
0.1933584188683878 1:0.25 2:0.625 3:0.875 4:0.9375 5:0.75 6:0.5625 7:0.8125 8:0.9375 9:0.9375 10:0.5 11:0.625 12:0.875 13:0.5625 14:0.4375 15:0.1875 
-0.40498214259332893 1:0.5625 2:0.625 3:0.5625 4:0.875 5:0.75 6:0.75 7:0.1875 8:0.6875 9:0.6875 10:0.3125 11:0.875 12:0.625 13:0.75 14:0.9375 15:0.5 
-0.3029325164234942 1:0.5 2:1.0 3:0.5 4:0.5625 5:0.625 6:0.625 7:1.0 8:0.625 9:0.625 10:0.5 11:0.125 12:0.5 13:0.375 14:0.1875 15:0.5 
0.05890182788909976 1:1.0 2:0.375 3:0.75 4:0.875 5:1.0 6:0.125 7:0.5 8:0.0 9:0.375 10:0.625 11:0.5625 12:1.0 13:0.3125 14:0.375 15:0.5625 
-0.387064981105729 1:0.5625 2:0.3125 3:0.5 4:0.75 5:0.3125 6:0.0 7:0.4375 8:0.5625 9:0.0625 10:0.5625 11:0.5625 12:0.5 13:0.75 14:0.5 15:0.25 
-0.1938487869302993 1:0.5 2:0.125 3:0.5625 4:0.3125 5:0.375 6:0.1875 7:0.5 8:0.25 9:0.75 10:0.5625 11:0.5 12:0.5625 13:0.0625 14:0.375 15:0.875 
0.29770981937426444 1:0.875 2:0.125 3:0.625 4:0.625 5:0.75 6:0.0625 7:0.125 8:0.1875 9:0.1875 10:0.625 11:1.0 12:0.8125 13:0.5 14:0.6875 15:0.875 
-0.07349308355946996 1:0.75 2:0.5 3:0.3125 4:0.625 5:0.1875 6:0.0 7:0.0 8:0.0 9:0.125 10:0.5 11:0.5 12:0.25 13:0.625 14:0.125 15:0.125 
-0.44570705822739326 1:0.5 2:0.5625 3:0.1875 4:0.625 5:0.6875 6:0.375 7:0.0 8:0.5625 9:0.8125 10:0.3125 11:0.8125 12:0.5 13:0.6875 14:0.75 15:0.4375 
1.0 1:0.125 2:0.1875 3:0.25 4:0.25 5:0.1875 6:0.9375 7:0.75 8:0.5 9:0.8125 10:0.5625 11:0.6875 12:0.625 13:0.3125 14:0.5 15:0.5 
0.386037848436954 1:0.375 2:0.125 3:0.375 4:0.125 5:0.375 6:0.0625 7:0.6875 8:0.1875 9:0.0 10:0.6875 11:0.5 12:0.5 13:0.25 14:0.0 15:0.4375 
-1.0 1:0.375 2:0.25 3:0.5 4:0.5625 5:0.1875 6:0.3125 7:0.75 8:0.8125 9:0.25 10:0.6875 11:0.5 12:0.5 13:0.375 14:0.125 15:0.3125 
-0.24303135073127882 1:1.0 2:0.5 3:0.625 4:0.5 5:0.8125 6:0.25 7:0.1875 8:0.375 9:0.25 10:0.5625 11:0.5 12:0.625 13:0.0 14:0.5625 15:0.9375 
0.15499610991552956 1:1.0 2:0.875 3:0.4375 4:0.5625 5:0.5 6:0.6875 7:0.1875 8:0.4375 9:0.375 10:0.0 11:0.25 12:0.25 13:0.4375 14:0.5625 15:0.125 
-0.14189227813213243 1:0.625 2:0.4375 3:0.4375 4:0.0625 5:0.25 6:0.375 7:0.0625 8:0.0 9:0.4375 10:0.1875 11:0.0 12:0.3125 13:0.5625 14:0.5 15:0.75 
0.243930551117078 1:0.9375 2:0.375 3:0.5625 4:0.25 5:0.4375 6:0.0 7:0.125 8:0.0 9:0.125 10:0.5625 11:0.375 12:0.25 13:0.0 14:0.5 15:0.8125 
-0.31576416138055924 1:0.9375 2:0.8125 3:0.9375 4:0.5 5:0.9375 6:0.4375 7:0.375 8:0.4375 9:1.0 10:0.4375 11:0.5 12:0.625 13:0.4375 14:0.625 15:0.75 
1.0 1:0.5 2:0.3125 3:0.5 4:0.4375 5:0.6875 6:0.5 7:0.6875 8:0.5625 9:0.5625 10:0.5625 11:0.75 12:0.6875 13:0.0 14:0.4375 15:0.6875 
0.4937434061439856 1:0.5 2:0.875 3:0.9375 4:0.9375 5:1.0 6:0.9375 7:0.875 8:0.875 9:0.5625 10:0.1875 11:0.25 12:0.25 13:0.625 14:0.4375 15:0.375 
-0.0823384178262011 1:0.375 2:0.75 3:1.0 4:0.375 5:0.8125 6:0.875 7:0.875 8:0.5 9:0.8125 10:0.5 11:0.5 12:0.8125 13:0.0625 14:0.6875 15:0.6875 
-1.0 1:0.0625 2:0.6875 3:0.875 4:0.6875 5:0.5 6:0.9375 7:0.875 8:0.625 9:0.875 10:0.3125 11:0.5 12:0.375 13:0.5625 14:0.125 15:0.3125 
-0.1056280465743084 1:0.6875 2:0.25 3:0.25 4:0.0625 5:0.6875 6:0.3125 7:0.1875 8:0.125 9:0.3125 10:0.4375 11:0.25 12:0.5625 13:0.1875 14:0.9375 15:0.6875 
0.8366926631838683 1:0.75 2:0.6875 3:0.375 4:0.625 5:0.625 6:0.125 7:0.0625 8:0.4375 9:0.125 10:0.375 11:0.625 12:0.375 13:0.8125 14:0.5625 15:0.625 
-0.13155100764437605 1:0.3125 2:0.3125 3:0.125 4:0.4375 5:0.125 6:0.125 7:0.125 8:0.4375 9:0.3125 10:0.0 11:0.5 12:0.375 13:0.875 14:0.5 15:0.0 
0.4453204706460121 1:0.4375 2:0.5 3:0.125 4:0.6875 5:0.375 6:0.5 7:0.125 8:0.375 9:0.4375 10:0.3125 11:0.4375 12:0.4375 13:1.0 14:0.5 15:0.3125 
-0.14479101565684346 1:0.3125 2:0.375 3:0.3125 4:0.75 5:0.25 6:0.5 7:0.5 8:0.5 9:0.3125 10:0.5625 11:0.75 12:0.5625 13:0.5625 14:0.5625 15:0.125 
-0.23125642128161839 1:0.375 2:0.1875 3:0.25 4:0.125 5:0.5 6:0.5625 7:0.5 8:0.6875 9:0.875 10:0.4375 11:0.9375 12:0.875 13:0.8125 14:0.8125 15:0.9375 
0.288541566036392 1:0.4375 2:1.0 3:0.5625 4:0.75 5:0.5 6:0.875 7:0.6875 8:0.8125 9:0.9375 10:0.375 11:0.25 12:0.5 13:0.375 14:0.5 15:0.5 
-1.0 1:0.75 2:0.5 3:0.5625 4:0.5 5:0.375 6:0.0 7:0.375 8:0.0625 9:0.25 10:0.375 11:0.375 12:0.4375 13:0.4375 14:0.25 15:0.8125 
-0.40602538443924624 1:0.375 2:0.25 3:0.5 4:0.0 5:0.25 6:0.5 7:0.5 8:0.5 9:0.4375 10:0.8125 11:0.25 12:0.5625 13:0.3125 14:0.5625 15:1.0 
-0.9315099867427761 1:0.0 2:0.625 3:0.6875 4:0.5625 5:0.5 6:0.875 7:0.875 8:0.875 9:0.75 10:1.0 11:0.8125 12:0.625 13:0.4375 14:0.0 15:0.25 
-0.0011993036280760986 1:0.8125 2:0.75 3:0.9375 4:0.25 5:0.25 6:0.5 7:0.5 8:0.3125 9:0.0625 10:0.625 11:0.4375 12:0.1875 13:0.375 14:0.125 15:0.3125 
-0.10411883870002844 1:0.3125 2:0.25 3:0.0625 4:0.5 5:0.5 6:0.125 7:0.3125 8:0.3125 9:0.8125 10:0.8125 11:0.5625 12:0.8125 13:0.5 14:1.0 15:0.875 
-0.49381794575189913 1:0.3125 2:0.375 3:0.5 4:0.125 5:0.5625 6:0.9375 7:0.75 8:0.4375 9:1.0 10:0.6875 11:0.0 12:0.4375 13:0.375 14:0.3125 15:0.625 
0.5524776564949019 1:0.3125 2:0.125 3:0.8125 4:0.625 5:0.375 6:0.4375 7:0.625 8:0.625 9:0.6875 10:1.0 11:0.9375 12:0.5 13:0.4375 14:0.0625 15:0.3125 
-0.17448440180000266 1:0.0 2:0.4375 3:0.0 4:0.5 5:0.25 6:0.6875 7:1.0 8:0.9375 9:0.375 10:0.5 11:0.5625 12:0.0625 13:0.5625 14:0.125 15:0.4375 
-0.6067532028721192 1:0.375 2:0.25 3:0.0 4:0.3125 5:0.5 6:0.125 7:0.3125 8:0.0 9:0.8125 10:0.5625 11:0.1875 12:0.8125 13:0.4375 14:0.5625 15:0.8125 
-0.00176220009870367 1:0.3125 2:0.3125 3:0.5625 4:0.5 5:0.5 6:0.875 7:0.9375 8:0.5625 9:0.75 10:0.5625 11:0.5625 12:0.25 13:0.5 14:0.25 15:0.375 
0.1330104303667563 1:1.0 2:1.0 3:0.75 4:0.875 5:0.625 6:0.5 7:0.0 8:0.8125 9:0.5 10:0.4375 11:0.5625 12:0.5 13:0.9375 14:0.875 15:0.4375 
0.06600526860170293 1:0.8125 2:1.0 3:0.5625 4:0.6875 5:0.4375 6:0.5 7:0.1875 8:0.375 9:0.5 10:0.0625 11:0.1875 12:0.25 13:0.625 14:0.5 15:0.5625 
0.45294917554880776 1:0.0 2:0.0 3:0.3125 4:0.125 5:0.4375 6:0.5 7:0.6875 8:0.3125 9:0.6875 10:0.75 11:0.6875 12:0.6875 13:0.3125 14:0.8125 15:0.6875 
-0.1703960862989392 1:0.8125 2:0.5 3:0.5 4:0.8125 5:0.5625 6:0.0 7:0.125 8:0.5625 9:0.3125 10:0.5 11:1.0 12:0.875 13:0.625 14:0.4375 15:0.3125 
-0.11590511957310644 1:0.25 2:0.6875 3:0.625 4:0.3125 5:0.4375 6:0.625 7:1.0 8:0.5625 9:0.5625 10:0.125 11:0.375 12:0.125 13:0.5 14:0.4375 15:0.5 
1.0 1:0.5625 2:0.6875 3:0.5 4:0.75 5:0.625 6:0.25 7:0.4375 8:0.375 9:0.3125 10:0.5625 11:0.5 12:0.6875 13:0.5 14:0.9375 15:0.5625 
0.46425354388660467 1:0.8125 2:0.5 3:0.875 4:0.5 5:0.1875 6:0.4375 7:0.125 8:0.4375 9:0.125 10:0.5 11:0.4375 12:0.0625 13:0.5 14:0.125 15:0.0 
-0.20408022946449114 1:0.8125 2:0.0 3:0.3125 4:0.3125 5:0.5625 6:0.0 7:0.0625 8:0.375 9:0.3125 10:0.375 11:0.5625 12:0.875 13:0.625 14:0.8125 15:0.625 
0.48132871117216586 1:0.9375 2:0.8125 3:0.9375 4:0.625 5:0.4375 6:0.6875 7:0.5625 8:0.0625 9:0.3125 10:0.25 11:0.25 12:0.125 13:0.4375 14:0.375 15:0.5 
0.6057074856308846 1:0.9375 2:0.625 3:0.5 4:0.625 5:0.875 6:0.5625 7:0.1875 8:0.75 9:0.8125 10:0.5 11:0.5625 12:1.0 13:0.875 14:1.0 15:0.625 
0.02060446879636687 1:0.3125 2:0.3125 3:0.625 4:0.25 5:0.125 6:0.625 7:1.0 8:0.625 9:0.5625 10:0.8125 11:0.625 12:0.25 13:0.125 14:0.375 15:0.5625 
-0.34026451879544284 1:0.5 2:1.0 3:0.6875 4:0.9375 5:0.625 6:0.5625 7:0.5 8:0.4375 9:0.5 10:0.0 11:0.375 12:0.0 13:0.625 14:0.5 15:0.5 
0.035880440206162725 1:1.0 2:0.6875 3:0.25 4:0.5 5:0.5 6:0.8125 7:0.0 8:0.0625 9:0.3125 10:0.1875 11:0.1875 12:0.1875 13:0.5 14:0.5625 15:0.3125 
3.330329903130809E-4 1:0.3125 2:0.125 3:0.5 4:0.5625 5:0.1875 6:0.4375 7:0.875 8:1.0 9:0.5625 10:0.75 11:0.9375 12:0.75 13:0.9375 14:0.0 15:0.4375 
0.019390381302350157 1:0.9375 2:0.75 3:0.625 4:0.625 5:0.5 6:0.5 7:0.25 8:0.5625 9:0.1875 10:0.0625 11:0.1875 12:0.4375 13:0.75 14:0.5 15:0.0625 
0.13251074196948348 1:0.8125 2:0.75 3:0.8125 4:0.5625 5:0.5 6:1.0 7:0.875 8:0.6875 9:0.5625 10:0.25 11:0.0625 12:0.3125 13:0.5 14:0.25 15:0.5 
0.7927183840542068 1:0.125 2:0.25 3:0.375 4:0.375 5:0.4375 6:0.875 7:0.6875 8:0.75 9:0.9375 10:0.4375 11:0.5625 12:0.625 13:1.0 14:0.9375 15:0.75 
0.7339427506160384 1:0.5 2:0.5625 3:0.625 4:0.5625 5:0.5625 6:0.9375 7:0.6875 8:1.0 9:0.75 10:0.3125 11:0.625 12:0.4375 13:0.9375 14:0.3125 15:0.375 
0.0012989314665947708 1:0.5 2:0.25 3:0.4375 4:1.0 5:0.625 6:0.25 7:0.1875 8:0.4375 9:0.5 10:0.5625 11:0.625 12:0.6875 13:0.625 14:1.0 15:0.375 
-0.15425527667210123 1:0.1875 2:0.3125 3:0.1875 4:0.5 5:0.625 6:0.5 7:0.4375 8:0.9375 9:0.9375 10:0.9375 11:0.75 12:0.8125 13:0.6875 14:0.75 15:0.75 
-0.08525100414795579 1:0.3125 2:0.8125 3:0.5 4:0.125 5:0.1875 6:0.5625 7:0.5625 8:0.4375 9:0.3125 10:0.625 11:0.4375 12:0.1875 13:0.25 14:0.125 15:0.5 
-0.37238265466929815 1:0.75 2:1.0 3:0.9375 4:1.0 5:0.625 6:0.4375 7:0.1875 8:0.5625 9:0.3125 10:0.5 11:0.5 12:0.0625 13:0.8125 14:0.5 15:0.375 
-0.7483869461400657 1:0.6875 2:0.4375 3:0.4375 4:0.4375 5:0.5 6:0.375 7:0.3125 8:0.3125 9:0.375 10:0.3125 11:0.4375 12:0.0625 13:0.6875 14:0.3125 15:0.3125 
-0.11168492981284947 1:0.75 2:0.5 3:0.5625 4:0.25 5:1.0 6:0.6875 7:0.6875 8:0.3125 9:0.875 10:0.5 11:0.125 12:0.8125 13:0.1875 14:0.625 15:0.75 
-0.27996906678043815 1:0.5625 2:0.25 3:0.8125 4:0.9375 5:0.5 6:0.0625 7:0.875 8:0.5 9:0.0625 10:0.75 11:1.0 12:0.6875 13:0.5625 14:0.125 15:0.25 
0.6246704179819645 1:0.5625 2:0.625 3:0.625 4:0.625 5:0.5 6:1.0 7:0.75 8:0.8125 9:0.625 10:0.0625 11:0.375 12:0.0625 13:0.5 14:0.4375 15:0.625 
0.08668668115471709 1:0.9375 2:0.875 3:0.5625 4:0.4375 5:0.5625 6:0.5 7:0.3125 8:0.3125 9:0.0 10:0.125 11:0.0 12:0.25 13:0.375 14:0.9375 15:0.8125 
0.0024840821258415007 1:1.0 2:0.5 3:0.1875 4:0.3125 5:0.5625 6:0.125 7:0.0 8:0.0625 9:0.3125 10:0.1875 11:0.1875 12:0.625 13:0.3125 14:0.9375 15:0.9375 
-0.6649017968746624 1:0.1875 2:0.0 3:0.25 4:0.0 5:0.25 6:0.375 7:1.0 8:0.5 9:0.4375 10:0.5625 11:0.625 12:0.4375 13:0.0 14:0.125 15:0.5 
-0.8040492147026294 1:0.5 2:0.5 3:0.625 4:0.375 5:0.625 6:0.375 7:0.8125 8:0.1875 9:0.3125 10:0.875 11:0.4375 12:0.75 13:0.3125 14:0.125 15:1.0 
0.21442014514086996 1:0.75 2:0.6875 3:0.75 4:0.5625 5:1.0 6:0.125 7:0.0625 8:0.125 9:0.0625 10:0.6875 11:0.3125 12:0.5 13:0.3125 14:0.4375 15:0.5 
0.13170610625175477 1:0.1875 2:0.375 3:0.3125 4:0.4375 5:0.0625 6:0.0625 7:0.5625 8:0.375 9:0.1875 10:0.75 11:0.5625 12:0.3125 13:0.4375 14:0.3125 15:0.5 
-0.5004135256536866 1:0.9375 2:0.75 3:0.5625 4:0.5625 5:0.875 6:0.4375 7:0.3125 8:0.0625 9:0.0625 10:0.5 11:0.4375 12:0.6875 13:0.5 14:0.6875 15:0.5 
-0.07443161640423249 1:0.125 2:0.125 3:0.5 4:0.3125 5:0.75 6:0.5 7:0.8125 8:0.5 9:0.875 10:1.0 11:0.75 12:0.75 13:0.1875 14:0.75 15:0.875 
0.21615591859115063 1:0.375 2:0.5625 3:0.625 4:0.5 5:0.6875 6:0.625 7:0.625 8:1.0 9:0.9375 10:0.1875 11:0.125 12:0.4375 13:0.5 14:0.8125 15:1.0 
-0.5577395793040396 1:0.9375 2:0.6875 3:0.5 4:0.75 5:0.5625 6:0.625 7:0.0 8:0.25 9:0.125 10:0.1875 11:0.3125 12:0.375 13:0.8125 14:0.875 15:0.4375 
-1.0 1:0.125 2:0.5 3:0.375 4:0.5 5:0.5 6:0.5625 7:0.5 8:0.5 9:1.0 10:0.25 11:0.6875 12:0.8125 13:0.5625 14:1.0 15:0.5 
-0.670234529490829 1:0.375 2:0.3125 3:1.0 4:0.1875 5:0.5 6:0.1875 7:1.0 8:0.125 9:0.5 10:0.75 11:0.125 12:0.6875 13:0.0 14:0.1875 15:0.9375 
0.2788964798428724 1:0.6875 2:0.75 3:0.5625 4:1.0 5:0.6875 6:0.0 7:0.5 8:0.5625 9:0.375 10:0.625 11:1.0 12:0.6875 13:0.5 14:0.3125 15:0.5 
-1.0 1:0.25 2:0.5 3:0.875 4:0.5625 5:0.75 6:1.0 7:0.9375 8:1.0 9:0.75 10:0.5 11:0.4375 12:0.5625 13:0.5 14:0.125 15:0.5 
0.6489598566894818 1:0.4375 2:0.9375 3:0.875 4:0.9375 5:0.1875 6:0.75 7:1.0 8:0.6875 9:0.625 10:0.5625 11:0.75 12:0.25 13:0.5 14:0.25 15:0.25 
0.12605935995580003 1:0.375 2:0.5 3:0.625 4:0.0625 5:0.125 6:0.9375 7:0.75 8:0.5 9:0.125 10:0.875 11:0.5 12:0.1875 13:0.0 14:0.125 15:0.5 
-0.28594835920719575 1:0.0 2:0.0625 3:0.4375 4:0.375 5:0.25 6:0.6875 7:0.6875 8:0.5625 9:0.8125 10:0.625 11:0.75 12:0.4375 13:0.5625 14:0.6875 15:0.5 
-0.4758622877227551 1:0.625 2:0.9375 3:0.8125 4:0.6875 5:0.625 6:0.9375 7:0.3125 8:0.3125 9:0.3125 10:0.1875 11:0.0625 12:0.1875 13:0.5 14:0.125 15:0.5 
-0.1287539693471337 1:0.5625 2:0.5 3:0.25 4:0.625 5:0.4375 6:0.3125 7:0.125 8:0.625 9:0.0 10:0.125 11:0.75 12:0.5625 13:1.0 14:0.6875 15:0.4375 
-0.2621378679562181 1:0.4375 2:0.6875 3:0.5 4:0.125 5:0.3125 6:0.8125 7:1.0 8:0.375 9:0.5 10:0.4375 11:0.3125 12:0.0 13:0.125 14:0.375 15:0.9375 
-0.718086107353285 1:0.0 2:0.25 3:0.5625 4:0.375 5:0.5625 6:0.9375 7:0.875 8:1.0 9:0.9375 10:0.5625 11:0.625 12:0.625 13:0.25 14:0.6875 15:0.9375 
-0.0839727775815113 1:0.8125 2:0.625 3:0.75 4:1.0 5:0.75 6:0.25 7:0.4375 8:0.4375 9:0.5 10:0.9375 11:0.4375 12:0.9375 13:0.0625 14:0.5 15:0.625 
0.06494477907144545 1:0.1875 2:0.5 3:0.1875 4:0.3125 5:0.6875 6:0.6875 7:0.3125 8:0.4375 9:0.625 10:0.125 11:0.375 12:0.9375 13:0.3125 14:1.0 15:0.875 
0.15458260335384708 1:0.5625 2:0.6875 3:0.625 4:0.625 5:0.9375 6:0.5 7:0.4375 8:0.5 9:0.5 10:0.125 11:0.5 12:0.9375 13:0.6875 14:0.6875 15:0.875 
0.4192311274105352 1:0.5 2:0.5 3:0.5 4:0.3125 5:0.0 6:0.1875 7:0.0625 8:0.1875 9:0.4375 10:0.5 11:0.25 12:0.5 13:0.125 14:0.25 15:0.625 
0.4960380343460532 1:0.3125 2:0.3125 3:0.3125 4:0.25 5:0.125 6:0.875 7:0.75 8:0.25 9:0.5 10:0.125 11:0.0625 12:0.0625 13:0.3125 14:0.375 15:0.5 
-1.0 1:0.5 2:0.5625 3:0.5 4:0.9375 5:0.6875 6:0.6875 7:0.9375 8:0.9375 9:0.875 10:0.5 11:0.5625 12:0.5 13:0.625 14:0.625 15:0.75 
0.11593148595211708 1:0.0625 2:0.125 3:0.4375 4:0.5 5:0.5 6:0.625 7:0.5 8:0.5 9:0.5625 10:0.375 11:0.75 12:1.0 13:0.75 14:0.9375 15:0.625 
-1.0 1:0.1875 2:0.1875 3:0.4375 4:0.3125 5:0.125 6:0.25 7:0.5 8:0.4375 9:0.3125 10:0.625 11:0.8125 12:0.75 13:0.75 14:0.375 15:0.3125 
1.0 1:0.9375 2:0.75 3:0.5625 4:0.8125 5:0.6875 6:0.5625 7:0.0 8:0.375 9:0.3125 10:0.1875 11:0.5 12:0.5 13:0.5 14:0.9375 15:0.5 
-0.7124523468194963 1:0.8125 2:0.6875 3:0.1875 4:0.3125 5:0.375 6:0.3125 7:0.1875 8:0.1875 9:0.25 10:0.25 11:0.0 12:0.375 13:0.125 14:0.5 15:0.75 
0.4561570591716172 1:0.5 2:0.8125 3:0.5 4:0.6875 5:0.8125 6:0.4375 7:0.375 8:0.1875 9:0.5 10:0.0 11:0.125 12:0.4375 13:0.5 14:0.75 15:0.875 
0.2962820583271387 1:0.25 2:0.125 3:0.4375 4:0.25 5:0.125 6:0.25 7:0.8125 8:0.75 9:0.625 10:0.8125 11:0.625 12:0.75 13:0.125 14:0.1875 15:0.25 
0.17131012850139626 1:0.5 2:0.375 3:0.3125 4:0.6875 5:0.375 6:0.375 7:0.4375 8:0.5 9:0.0625 10:1.0 11:0.875 12:0.75 13:0.75 14:0.375 15:0.1875 
-0.06340898096109668 1:0.5 2:0.3125 3:0.0 4:0.6875 5:0.375 6:0.1875 7:0.375 8:0.875 9:0.375 10:0.25 11:0.875 12:0.125 13:1.0 14:0.5625 15:0.125 
-0.25669918706330946 1:0.5625 2:0.375 3:0.0 4:0.0 5:0.4375 6:0.4375 7:0.0625 8:0.4375 9:0.3125 10:0.0625 11:0.375 12:0.5625 13:0.5625 14:0.875 15:1.0 
0.14891398968063219 1:0.125 2:0.0625 3:0.375 4:0.0 5:0.25 6:0.625 7:0.6875 8:0.6875 9:0.6875 10:0.25 11:0.5 12:0.625 13:0.5 14:0.5 15:0.875 
0.052090793714391626 1:0.5 2:0.5625 3:0.9375 4:0.9375 5:0.6875 6:0.3125 7:1.0 8:0.8125 9:0.5625 10:1.0 11:0.9375 12:0.5625 13:0.0 14:0.0625 15:0.375 
-0.11261945397666256 1:0.5625 2:0.3125 3:0.375 4:0.125 5:0.5625 6:0.4375 7:0.3125 8:0.0625 9:0.4375 10:0.8125 11:0.0 12:0.9375 13:0.3125 14:0.5625 15:0.9375 
-0.14967253541985046 1:0.625 2:0.5 3:0.9375 4:0.4375 5:0.0 6:0.4375 7:0.5625 8:0.375 9:0.0 10:0.9375 11:0.5625 12:0.1875 13:0.1875 14:0.0625 15:0.5625 
0.2811227965017373 1:0.3125 2:0.125 3:0.3125 4:0.25 5:0.0625 6:0.3125 7:0.4375 8:0.5 9:0.375 10:0.4375 11:0.5 12:0.375 13:0.3125 14:0.125 15:0.25 
-0.1963348256531199 1:0.3125 2:0.5625 3:0.875 4:0.5625 5:0.375 6:0.5 7:0.5 8:0.9375 9:0.3125 10:0.625 11:0.5625 12:0.5 13:0.5 14:0.25 15:0.1875 
-0.04021742495215767 1:0.875 2:0.9375 3:0.5 4:1.0 5:0.8125 6:0.5 7:0.3125 8:0.5625 9:0.4375 10:0.0 11:1.0 12:0.5 13:0.8125 14:1.0 15:0.375 
0.9677535615134709 1:0.5625 2:0.25 3:0.625 4:0.5 5:0.5 6:0.1875 7:0.75 8:0.3125 9:0.3125 10:0.75 11:0.375 12:0.5 13:0.25 14:0.4375 15:0.625 
0.41367185773912235 1:0.375 2:0.0625 3:0.1875 4:0.25 5:0.125 6:0.375 7:0.5 8:0.5625 9:0.375 10:0.6875 11:0.875 12:0.3125 13:0.375 14:0.5 15:0.25 
0.19431623258708328 1:0.125 2:0.3125 3:0.6875 4:0.25 5:0.375 6:0.25 7:0.8125 8:0.625 9:0.75 10:0.9375 11:0.8125 12:0.9375 13:0.3125 14:0.375 15:0.5625 
0.022213412852661152 1:0.1875 2:0.0625 3:0.5625 4:0.5 5:0.4375 6:0.875 7:0.8125 8:0.9375 9:0.5625 10:1.0 11:0.4375 12:0.5625 13:0.1875 14:0.3125 15:0.4375 
-0.6432510299049903 1:0.5625 2:0.6875 3:0.375 4:0.625 5:0.5625 6:0.5 7:0.1875 8:0.5625 9:0.5 10:0.25 11:0.4375 12:0.125 13:0.5625 14:1.0 15:0.75 
-0.012067085592197692 1:0.375 2:0.375 3:0.625 4:0.0625 5:0.0 6:0.75 7:0.625 8:0.6875 9:0.5 10:0.5625 11:0.5 12:0.25 13:0.5 14:0.3125 15:0.5 
-1.0 1:0.0 2:0.5 3:0.4375 4:0.375 5:0.25 6:0.8125 7:0.5625 8:0.4375 9:0.5625 10:0.5 11:0.5 12:0.4375 13:0.125 14:0.625 15:0.5625 
0.3248348879989598 1:0.125 2:0.5 3:0.0 4:0.75 5:0.5 6:0.6875 7:0.5625 8:0.75 9:0.5 10:0.0625 11:0.5 12:0.5 13:1.0 14:0.625 15:0.375 
-1.0 1:0.5625 2:0.6875 3:0.6875 4:0.625 5:1.0 6:0.4375 7:0.6875 8:0.875 9:0.75 10:0.5 11:0.5 12:0.625 13:1.0 14:0.6875 15:0.5 
-0.2142272341808371 1:0.375 2:0.9375 3:0.4375 4:1.0 5:0.5625 6:0.875 7:0.4375 8:0.9375 9:0.875 10:0.375 11:0.625 12:0.0625 13:0.875 14:0.6875 15:0.5 
-0.8515559793034284 1:0.5625 2:0.4375 3:0.5 4:0.5625 5:0.4375 6:0.6875 7:0.6875 8:0.875 9:0.5 10:0.75 11:0.875 12:0.5 13:0.5 14:0.4375 15:0.1875 
0.5996545978131299 1:0.125 2:0.3125 3:0.5 4:0.25 5:0.3125 6:0.875 7:1.0 8:0.875 9:0.625 10:0.6875 11:0.125 12:0.3125 13:0.0 14:0.25 15:0.6875 
0.3795402188001378 1:0.3125 2:0.4375 3:0.8125 4:0.5 5:0.625 6:0.5625 7:0.8125 8:0.75 9:0.6875 10:0.5 11:0.4375 12:0.625 13:0.0 14:0.625 15:1.0 
0.023621444056725525 1:0.6875 2:1.0 3:0.9375 4:0.75 5:0.375 6:0.1875 7:0.6875 8:0.25 9:0.125 10:0.8125 11:0.5625 12:0.125 13:0.25 14:0.1875 15:0.1875 
-0.38935265690050763 1:0.8125 2:0.625 3:0.375 4:0.8125 5:0.3125 6:0.5625 7:0.0625 8:0.1875 9:0.25 10:0.0 11:0.5 12:0.3125 13:1.0 14:0.875 15:0.125 
0.9202879711912955 1:0.375 2:0.75 3:0.9375 4:0.625 5:0.875 6:0.5 7:0.9375 8:1.0 9:0.5 10:0.9375 11:0.6875 12:0.5 13:0.4375 14:0.4375 15:0.375 
0.053552515116686336 1:0.5 2:0.75 3:0.8125 4:0.75 5:0.9375 6:0.5 7:0.4375 8:0.5625 9:0.4375 10:0.4375 11:0.5625 12:0.1875 13:0.5625 14:0.5 15:0.0625 
-0.22290109966764235 1:0.8125 2:0.5 3:0.5 4:0.5 5:0.9375 6:0.25 7:0.5 8:0.625 9:0.625 10:0.5 11:0.6875 12:1.0 13:0.625 14:0.6875 15:1.0 
0.14174481383155976 1:0.75 2:0.4375 3:0.75 4:0.9375 5:0.6875 6:0.25 7:0.4375 8:0.0625 9:0.25 10:0.625 11:0.75 12:0.625 13:0.375 14:0.0625 15:0.1875 
0.04817687799080241 1:0.0625 2:0.0625 3:0.3125 4:0.1875 5:0.0625 6:0.6875 7:0.6875 8:0.375 9:0.4375 10:0.5 11:0.1875 12:0.0 13:0.3125 14:0.5 15:0.5625 
-0.8444943063524206 1:0.4375 2:0.5 3:0.5625 4:0.9375 5:0.75 6:0.25 7:0.9375 8:0.875 9:0.875 10:0.9375 11:0.75 12:0.9375 13:0.5 14:0.75 15:0.4375 
-0.16078713853330334 1:0.875 2:0.8125 3:0.0625 4:0.375 5:0.375 6:0.5 7:0.125 8:0.3125 9:0.25 10:0.1875 11:0.4375 12:0.125 13:1.0 14:0.5 15:0.4375 
-0.2231088088370331 1:0.9375 2:0.8125 3:0.9375 4:0.75 5:0.5 6:0.625 7:0.8125 8:0.3125 9:0.25 10:0.5 11:0.125 12:0.1875 13:0.0625 14:0.4375 15:0.3125 
0.015316699360592849 1:0.1875 2:0.4375 3:0.5 4:0.5 5:0.375 6:0.5625 7:0.5 8:0.6875 9:0.6875 10:0.5625 11:0.5625 12:0.75 13:1.0 14:0.5 15:0.1875 
0.28259767762459403 1:0.0625 2:0.5 3:0.6875 4:0.8125 5:0.5625 6:0.625 7:0.9375 8:0.75 9:1.0 10:1.0 11:0.5625 12:0.75 13:0.375 14:0.5625 15:0.375 
0.3644667577879587 1:0.375 2:0.3125 3:0.625 4:0.6875 5:0.9375 6:0.9375 7:0.625 8:0.8125 9:1.0 10:0.5 11:1.0 12:0.9375 13:0.5 14:0.625 15:0.75 
0.3331014094009294 1:0.5625 2:0.0 3:0.875 4:0.5 5:0.9375 6:0.25 7:0.9375 8:0.25 9:0.875 10:0.875 11:0.5 12:0.875 13:0.0 14:0.5 15:0.8125 
-0.031248795697526748 1:0.0 2:0.1875 3:0.125 4:0.3125 5:0.125 6:0.5 7:0.125 8:0.5 9:0.25 10:0.3125 11:0.4375 12:0.0 13:0.6875 14:0.6875 15:0.3125 
0.4499127492887653 1:0.3125 2:0.625 3:0.5625 4:1.0 5:0.875 6:0.6875 7:0.8125 8:1.0 9:0.9375 10:0.875 11:0.8125 12:0.6875 13:0.75 14:0.5625 15:0.375 
-0.20769129570250133 1:0.125 2:0.0625 3:0.8125 4:0.5625 5:0.3125 6:0.5 7:0.5625 8:0.8125 9:0.25 10:0.875 11:0.625 12:0.3125 13:0.5 14:0.125 15:0.0625 
0.24483635297912482 1:0.0625 2:0.0 3:0.1875 4:0.5 5:0.0625 6:0.8125 7:1.0 8:0.6875 9:0.8125 10:0.625 11:0.5625 12:0.5 13:0.75 14:0.1875 15:0.375 
-0.3406240569350763 1:0.4375 2:0.75 3:0.6875 4:0.75 5:0.0 6:0.875 7:0.5 8:0.5625 9:0.3125 10:0.4375 11:0.5 12:0.0625 13:0.6875 14:0.0 15:0.25 
0.197292321107483 1:0.375 2:0.25 3:0.5625 4:0.4375 5:0.5 6:0.625 7:0.9375 8:1.0 9:1.0 10:1.0 11:0.625 12:0.875 13:0.5 14:0.25 15:0.125 
0.9238240247971687 1:0.3125 2:0.3125 3:0.3125 4:0.4375 5:0.375 6:0.5 7:0.1875 8:0.25 9:0.375 10:0.0625 11:0.5 12:0.3125 13:0.6875 14:0.9375 15:0.625 
-0.4437843904913343 1:0.375 2:0.4375 3:0.375 4:0.0625 5:0.3125 6:0.9375 7:0.8125 8:0.5 9:0.75 10:0.0 11:0.0625 12:0.0625 13:0.5625 14:0.5625 15:0.6875 
0.3439486511446293 1:0.5625 2:1.0 3:0.4375 4:0.6875 5:0.875 6:0.6875 7:0.125 8:0.4375 9:0.75 10:0.1875 11:0.5 12:0.25 13:0.625 14:0.9375 15:0.75 
0.6553093949584522 1:0.1875 2:0.4375 3:0.625 4:0.5 5:0.3125 6:0.75 7:0.5625 8:0.6875 9:0.3125 10:0.5 11:0.75 12:0.4375 13:0.75 14:0.3125 15:0.3125 
0.9607262591321591 1:0.5 2:0.25 3:0.5625 4:0.4375 5:0.0 6:0.3125 7:0.6875 8:0.5 9:0.125 10:0.5625 11:0.875 12:0.5 13:0.75 14:0.375 15:0.25 
-0.41581740259573846 1:0.5 2:0.3125 3:0.1875 4:0.5 5:0.6875 6:0.375 7:0.375 8:0.1875 9:0.4375 10:0.1875 11:0.1875 12:0.625 13:0.5 14:1.0 15:0.6875 
-1.0 1:0.1875 2:0.1875 3:0.0 4:0.375 5:0.125 6:0.8125 7:0.5 8:0.5 9:0.4375 10:0.4375 11:0.5625 12:0.5 13:0.625 14:0.1875 15:0.375 
0.24175193202075462 1:0.375 2:0.9375 3:0.625 4:0.625 5:0.8125 6:0.8125 7:0.625 8:0.5625 9:0.75 10:0.0 11:0.125 12:0.3125 13:0.375 14:0.75 15:0.5 
-0.10451857902716946 1:0.375 2:0.1875 3:0.5625 4:0.5 5:0.0625 6:0.5 7:0.625 8:1.0 9:0.4375 10:0.9375 11:0.9375 12:0.625 13:0.5625 14:0.5 15:0.125 
0.18218000160301154 1:0.4375 2:0.375 3:0.3125 4:0.125 5:0.25 6:0.0625 7:0.0 8:0.4375 9:0.25 10:0.6875 11:0.5 12:0.5 13:0.5 14:0.5 15:0.625 
0.11232098208420403 1:0.75 2:0.75 3:0.6875 4:0.5625 5:1.0 6:0.1875 7:0.1875 8:0.0625 9:0.25 10:0.0625 11:0.125 12:0.5625 13:0.5 14:0.5 15:0.8125 
-0.7839765686636697 1:0.375 2:0.3125 3:0.5 4:0.5 5:0.25 6:0.8125 7:0.9375 8:0.625 9:0.5 10:0.4375 11:0.25 12:0.3125 13:0.0 14:0.375 15:0.5 
0.03649861638551145 1:0.9375 2:0.625 3:1.0 4:0.625 5:0.5 6:0.1875 7:0.125 8:0.0625 9:0.0625 10:0.5 11:0.0 12:0.5 13:0.0 14:0.5 15:0.5 
0.7601765549746713 1:0.8125 2:0.5625 3:0.625 4:0.1875 5:0.5 6:0.0 7:0.8125 8:0.0 9:0.5 10:0.6875 11:0.375 12:0.75 13:0.125 14:0.4375 15:1.0 
0.09520406720320095 1:0.5625 2:0.375 3:0.5 4:0.8125 5:0.375 6:0.125 7:0.3125 8:0.5625 9:0.0 10:0.75 11:0.6875 12:0.3125 13:0.4375 14:0.0625 15:0.25 
0.05483025185757392 1:0.9375 2:0.625 3:0.625 4:0.6875 5:1.0 6:0.25 7:0.375 8:0.1875 9:0.0625 10:0.6875 11:0.4375 12:0.625 13:0.0625 14:0.3125 15:0.5625 
0.8372909150242906 1:0.25 2:0.5 3:0.5 4:0.875 5:0.4375 6:0.9375 7:1.0 8:0.9375 9:0.5 10:0.625 11:1.0 12:0.5 13:0.5 14:0.4375 15:0.125 
-0.7103552425269137 1:0.4375 2:0.125 3:0.0 4:0.5 5:0.375 6:0.0 7:0.25 8:0.4375 9:0.6875 10:0.3125 11:0.625 12:0.75 13:0.5625 14:0.75 15:0.9375 
0.12236270439538162 1:0.5 2:0.8125 3:0.375 4:0.8125 5:0.6875 6:0.4375 7:0.375 8:0.6875 9:0.75 10:0.25 11:1.0 12:0.5625 13:0.875 14:0.8125 15:0.0 
-0.17459810160032052 1:0.4375 2:0.5 3:0.5 4:0.375 5:0.4375 6:0.875 7:0.9375 8:1.0 9:0.5 10:0.5 11:0.625 12:0.25 13:0.5 14:0.1875 15:0.375 
0.5856657632058827 1:0.3125 2:0.5 3:0.75 4:0.625 5:0.9375 6:0.875 7:0.8125 8:0.6875 9:0.75 10:0.875 11:1.0 12:0.6875 13:0.5 14:0.6875 15:0.6875 
-0.17450020278668854 1:0.875 2:0.5 3:0.375 4:0.875 5:0.5 6:0.375 7:0.0 8:0.4375 9:0.375 10:0.0 11:0.3125 12:0.0625 13:0.875 14:0.5625 15:0.4375 
-0.5111153605618817 1:0.8125 2:0.1875 3:0.4375 4:0.125 5:0.0625 6:0.375 7:0.0 8:0.0 9:0.0 10:0.0 11:0.4375 12:0.0625 13:0.5 14:0.5 15:0.375 
0.6368997252056525 1:0.6875 2:0.0 3:0.1875 4:0.375 5:0.1875 6:0.125 7:0.125 8:0.0 9:0.4375 10:0.375 11:0.3125 12:0.5625 13:0.4375 14:0.5625 15:1.0 
0.13770830016959368 1:0.625 2:1.0 3:0.5625 4:0.5625 5:1.0 6:0.3125 7:0.5 8:0.25 9:0.75 10:0.375 11:0.0625 12:0.625 13:0.5 14:0.875 15:0.6875 
0.11408292142649146 1:0.375 2:0.3125 3:0.5 4:0.125 5:0.375 6:1.0 7:1.0 8:0.625 9:0.5 10:0.5625 11:0.3125 12:0.4375 13:0.4375 14:0.5 15:0.625 
0.33994098253740673 1:0.5625 2:0.3125 3:0.375 4:0.75 5:0.75 6:0.25 7:0.375 8:0.875 9:0.4375 10:0.5 11:0.75 12:0.75 13:0.6875 14:0.9375 15:0.375 
1.0 1:0.5 2:0.125 3:0.8125 4:0.5 5:0.125 6:0.5 7:0.6875 8:0.4375 9:0.5 10:0.875 11:0.4375 12:0.5 13:0.1875 14:0.375 15:0.3125 
-0.1028011475311634 1:0.0 2:0.4375 3:0.0 4:0.1875 5:0.4375 6:0.75 7:0.75 8:0.625 9:0.9375 10:0.625 11:0.5 12:0.5 13:0.5625 14:0.8125 15:0.875 
-0.06823166152983798 1:0.375 2:0.5 3:0.9375 4:0.5 5:0.9375 6:0.375 7:0.75 8:0.625 9:0.6875 10:0.9375 11:0.875 12:0.9375 13:0.5625 14:0.8125 15:0.8125 
0.7036335124402554 1:0.5 2:0.25 3:0.4375 4:0.375 5:0.4375 6:0.0 7:0.25 8:0.6875 9:0.4375 10:0.6875 11:0.75 12:1.0 13:0.9375 14:0.6875 15:0.4375 
-0.7028346000056668 1:0.9375 2:0.5 3:0.5 4:0.8125 5:0.1875 6:0.0 7:0.5 8:0.5 9:0.375 10:1.0 11:0.75 12:0.25 13:0.625 14:0.125 15:0.125 
-0.3121895940981584 1:0.375 2:0.75 3:0.3125 4:1.0 5:0.25 6:1.0 7:0.3125 8:0.625 9:0.5 10:0.125 11:0.4375 12:0.0625 13:0.9375 14:0.3125 15:0.0 
0.34341348699028673 1:0.5 2:0.6875 3:0.5 4:0.875 5:0.625 6:0.8125 7:0.1875 8:0.75 9:0.875 10:0.25 11:0.5 12:0.1875 13:0.875 14:0.8125 15:0.25 
0.634954736916135 1:0.125 2:0.5 3:0.125 4:0.375 5:0.3125 6:0.625 7:0.75 8:0.6875 9:0.3125 10:0.5 11:0.5 12:0.125 13:0.8125 14:0.1875 15:0.0625 
0.37391310127107374 1:0.125 2:0.4375 3:0.6875 4:0.1875 5:0.375 6:0.3125 7:0.8125 8:0.1875 9:0.5 10:0.625 11:0.4375 12:0.5 13:0.25 14:0.375 15:0.9375 
0.9694178266827116 1:0.0625 2:0.4375 3:0.3125 4:0.375 5:0.3125 6:0.6875 7:0.9375 8:0.8125 9:0.8125 10:0.4375 11:0.625 12:0.1875 13:0.5625 14:0.375 15:0.5 
-0.3066046785768703 1:0.5 2:0.5 3:0.8125 4:0.5 5:0.875 6:0.375 7:0.5 8:0.5625 9:1.0 10:0.8125 11:0.8125 12:0.9375 13:0.125 14:0.625 15:0.5 
-0.07727757416722711 1:0.625 2:0.4375 3:0.5625 4:0.0 5:0.5625 6:0.25 7:0.4375 8:0.125 9:0.3125 10:0.375 11:0.5 12:0.6875 13:0.4375 14:0.75 15:0.9375 
0.657337821206558 1:0.4375 2:0.5 3:0.1875 4:0.0625 5:0.5625 6:0.5625 7:0.25 8:0.4375 9:0.4375 10:0.25 11:0.4375 12:0.5625 13:0.625 14:0.5 15:0.625 
-0.15221875799238635 1:0.1875 2:0.0625 3:0.0625 4:0.1875 5:0.0 6:0.4375 7:0.8125 8:0.8125 9:0.75 10:0.6875 11:0.75 12:0.8125 13:0.8125 14:0.5625 15:0.1875 
-0.19129708439596668 1:0.5625 2:0.25 3:0.3125 4:0.25 5:0.5 6:0.125 7:0.0625 8:0.0 9:0.0625 10:0.4375 11:0.75 12:1.0 13:0.9375 14:0.75 15:0.5625 
0.22598528519200828 1:0.0 2:0.0625 3:0.0625 4:0.25 5:0.375 6:0.1875 7:0.875 8:0.8125 9:0.9375 10:0.6875 11:0.625 12:1.0 13:0.25 14:0.5 15:0.625 
1.0 1:0.875 2:0.5 3:0.0625 4:0.4375 5:0.25 6:0.25 7:0.1875 8:0.25 9:0.0625 10:0.25 11:0.3125 12:0.5 13:0.4375 14:0.4375 15:0.625 
0.2816610929918727 1:0.9375 2:0.8125 3:0.5 4:0.0625 5:0.625 6:0.375 7:0.0625 8:0.25 9:0.5625 10:0.375 11:0.0 12:0.4375 13:0.4375 14:0.9375 15:0.75 
-0.042422348976754155 1:1.0 2:0.875 3:0.5625 4:0.5 5:1.0 6:0.5 7:0.4375 8:0.4375 9:0.1875 10:0.3125 11:0.375 12:0.25 13:0.4375 14:0.125 15:0.5 
-0.22285127981854186 1:0.625 2:0.1875 3:0.4375 4:0.5625 5:0.125 6:0.0 7:0.5 8:0.1875 9:0.125 10:0.9375 11:0.8125 12:0.75 13:0.375 14:0.25 15:0.5 
1.0 1:0.5 2:0.3125 3:0.0625 4:0.25 5:0.5 6:0.4375 7:0.4375 8:0.3125 9:0.4375 10:0.4375 11:0.4375 12:0.9375 13:0.6875 14:0.8125 15:0.9375 
-0.2638713510329838 1:0.6875 2:0.75 3:0.5 4:0.625 5:0.9375 6:0.5625 7:0.0 8:0.3125 9:0.375 10:0.5 11:0.625 12:0.5 13:0.625 14:0.625 15:0.5 
-0.30715211109433893 1:0.5 2:0.5 3:0.125 4:0.3125 5:0.5 6:0.5 7:0.0 8:0.0 9:0.1875 10:0.375 11:0.125 12:0.625 13:0.625 14:0.9375 15:1.0 
0.19523410444868625 1:0.9375 2:0.5 3:0.5 4:1.0 5:0.25 6:0.3125 7:0.375 8:1.0 9:0.375 10:0.3125 11:0.6875 12:0.125 13:0.8125 14:0.5 15:0.0 
-0.2852455363179307 1:0.5 2:0.375 3:0.375 4:0.5 5:0.5 6:0.4375 7:0.125 8:0.8125 9:1.0 10:0.1875 11:0.625 12:0.875 13:0.9375 14:0.9375 15:0.375 
-0.24783620112918833 1:0.0625 2:0.5625 3:0.1875 4:0.375 5:1.0 6:0.9375 7:0.9375 8:0.5625 9:0.8125 10:0.1875 11:0.25 12:0.5625 13:0.5 14:0.9375 15:1.0 
-1.0 1:0.5 2:0.3125 3:0.25 4:0.25 5:0.5 6:0.5 7:0.5 8:0.4375 9:0.375 10:0.4375 11:0.5625 12:0.9375 13:0.5 14:0.875 15:0.75 
-0.032885176772547264 1:0.0 2:0.3125 3:0.4375 4:0.375 5:0.375 6:1.0 7:0.5 8:1.0 9:0.6875 10:0.0 11:0.1875 12:0.0625 13:0.5625 14:0.5 15:0.375 
-0.09372619010958602 1:0.25 2:0.5625 3:0.25 4:0.125 5:0.5 6:1.0 7:0.0 8:0.5 9:0.4375 10:0.125 11:0.0625 12:0.0625 13:0.8125 14:1.0 15:0.5625 
