encog,SVM,java,3.2.0,1,1406057586001
[SVM]
[SVM:PARAMS]
[SVM:SVM-PARAM]
inputCount=10
C=1
cacheSize=100
coef0=0
degree=3
eps=0.001
gamma=1
kernelType=2
nrWeight=0
nu=0.5
p=0.1
probability=0
shrinking=1
svmType=3
weight=
weightLabel=
[SVM:SVM-MODEL]
svm_type epsilon_svr
kernel_type rbf
gamma 1.0
nr_class 2
total_sv 249
rho -0.5136921736292284
SV
1.0 1:0.4375 2:0.125 3:0.4375 4:0.75 5:0.1875 6:0.3125 7:0.5625 8:0.625 9:0.625 10:0.8125 
-1.0 1:0.1875 2:0.9375 3:0.5625 4:0.4375 5:0.875 6:0.8125 7:0.5625 8:0.5 9:0.25 10:0.5625 
-1.0 1:0.5 2:0.8125 3:0.75 4:0.8125 5:0.5625 6:1.0 7:0.625 8:0.5625 9:0.6875 10:0.25 
-1.0 1:0.5 2:0.9375 3:0.1875 4:0.625 5:0.8125 6:0.5 7:0.5625 8:0.25 9:0.5 10:0.9375 
-0.12869409079868752 1:0.75 2:1.0 3:0.5 4:1.0 5:0.375 6:0.0625 7:0.375 8:0.0625 9:0.125 10:0.5 
-1.0 1:0.5 2:0.875 3:0.875 4:0.3125 5:0.5625 6:0.5 7:0.5 8:0.5 9:0.1875 10:0.4375 
0.18160577717555446 1:0.3125 2:0.1875 3:0.125 4:0.0625 5:0.5 6:0.5 7:0.1875 8:0.0625 9:0.3125 10:0.5 
-1.0 1:0.6875 2:0.375 3:0.6875 4:0.5 5:0.5 6:0.6875 7:0.5 8:0.6875 9:0.75 10:0.5 
0.1425563545193182 1:0.25 2:0.25 3:0.0625 4:0.3125 5:0.5 6:0.8125 7:0.9375 8:0.5 9:1.0 10:0.5 
-0.6122243197857358 1:0.0 2:0.0625 3:0.5 4:0.0 5:0.5 6:0.8125 7:0.4375 8:0.6875 9:0.0 10:0.25 
1.0 1:0.6875 2:0.8125 3:0.6875 4:0.6875 5:0.625 6:0.5 7:0.75 8:0.375 9:0.6875 10:0.5 
-1.0 1:0.4375 2:0.625 3:0.8125 4:0.625 5:0.5 6:0.9375 7:0.9375 8:0.75 9:0.9375 10:0.75 
-0.07108342779547182 1:0.6875 2:0.4375 3:0.9375 4:0.3125 5:0.5 6:0.875 7:0.3125 8:0.9375 9:0.25 10:0.1875 
-1.0 1:0.8125 2:0.9375 3:0.6875 4:0.8125 5:0.25 6:0.5 7:0.4375 8:0.5 9:0.8125 10:0.6875 
0.11023669582157943 1:0.0625 2:0.9375 3:0.3125 4:0.5 5:0.8125 6:0.5 7:0.875 8:0.375 9:0.1875 10:0.5625 
-0.4495437968334354 1:0.9375 2:0.25 3:0.6875 4:0.625 5:0.125 6:0.5 7:0.5625 8:0.875 9:1.0 10:0.75 
-0.6192484746895417 1:0.8125 2:0.125 3:0.4375 4:0.5625 5:0.3125 6:0.125 7:0.375 8:0.5 9:0.9375 10:1.0 
0.581731284488708 1:0.6875 2:0.875 3:0.6875 4:0.625 5:0.8125 6:0.0 7:0.5 8:0.1875 9:0.25 10:0.8125 
1.0 1:0.375 2:0.1875 3:0.3125 4:0.25 5:0.5625 6:0.625 7:0.375 8:0.5 9:0.5 10:0.5 
-0.31610242732464877 1:0.375 2:0.0625 3:0.5 4:0.875 5:0.3125 6:0.5625 7:0.875 8:0.875 9:0.875 10:0.5 
-1.0 1:0.8125 2:0.4375 3:0.8125 4:1.0 5:0.5 6:0.5625 7:0.625 8:0.5625 9:0.6875 10:0.625 
0.22590873987757865 1:0.5625 2:0.375 3:0.6875 4:0.5625 5:0.1875 6:0.5625 7:0.3125 8:0.6875 9:0.9375 10:0.0625 
-0.6306826100092437 1:0.5625 2:0.8125 3:0.3125 4:0.5 5:0.5625 6:0.0625 7:0.1875 8:0.375 9:0.4375 10:0.625 
-0.05684975376296471 1:1.0 2:0.25 3:0.0625 4:0.3125 5:0.0 6:0.0 7:0.3125 8:0.25 9:0.5625 10:0.875 
0.31075646559353826 1:0.1875 2:0.75 3:0.75 4:0.0 5:1.0 6:0.6875 7:0.5 8:0.375 9:0.0 10:0.0 
0.8408050626331305 1:0.5625 2:1.0 3:0.5625 4:0.5 5:0.5625 6:0.75 7:0.4375 8:0.3125 9:0.0625 10:0.0625 
0.2946776912548737 1:0.6875 2:0.5 3:0.4375 4:0.1875 5:0.0625 6:0.25 7:0.25 8:0.5625 9:0.0 10:0.25 
-1.0 1:0.1875 2:0.125 3:0.5625 4:0.5 5:0.75 6:0.75 7:0.9375 8:0.6875 9:0.5625 10:0.0625 
0.4864096838547462 1:0.0 2:0.0625 3:0.4375 4:0.4375 5:0.875 6:0.6875 7:0.6875 8:1.0 9:0.875 10:0.5 
-1.0 1:0.25 2:0.0625 3:0.4375 4:0.5 5:0.6875 6:0.9375 7:0.9375 8:0.5625 9:0.6875 10:0.8125 
-0.325691343188971 1:0.125 2:0.625 3:0.6875 4:0.5 5:0.9375 6:0.875 7:0.8125 8:0.5625 9:0.5625 10:0.625 
-1.0 1:0.6875 2:0.5 3:0.75 4:0.625 5:0.3125 6:0.625 7:0.75 8:0.5 9:0.5625 10:0.5 
0.2836807964283743 1:0.8125 2:0.625 3:0.5 4:0.0625 5:0.6875 6:0.25 7:0.0625 8:0.125 9:0.1875 10:0.5 
-0.14554921980510463 1:0.5 2:0.5625 3:0.5625 4:0.5 5:0.75 6:1.0 7:0.6875 8:0.375 9:0.125 10:0.0 
-0.08072799829227868 1:0.25 2:0.3125 3:0.5 4:0.3125 5:0.6875 6:0.8125 7:0.875 8:0.625 9:0.25 10:0.375 
-0.9744095793216528 1:0.5625 2:0.3125 3:0.5625 4:0.1875 5:0.0625 6:0.125 7:0.0 8:0.8125 9:0.875 10:0.4375 
1.0 1:0.25 2:1.0 3:0.75 4:0.875 5:0.9375 6:1.0 7:0.75 8:0.625 9:0.625 10:0.5 
-1.0 1:0.1875 2:0.5 3:0.4375 4:0.6875 5:0.5 6:0.625 7:0.625 8:0.6875 9:1.0 10:0.8125 
-0.35312739736598975 1:0.3125 2:0.9375 3:0.5625 4:0.5 5:1.0 6:0.625 7:0.9375 8:0.25 9:0.5 10:0.9375 
0.3632248542296598 1:0.375 2:0.3125 3:1.0 4:0.6875 5:0.4375 6:1.0 7:0.75 8:0.75 9:0.75 10:0.0 
0.8537073826805737 1:0.6875 2:1.0 3:0.5625 4:1.0 5:0.625 6:0.1875 7:0.5625 8:0.0 9:0.1875 10:0.5 
0.3571148714729663 1:0.875 2:0.75 3:0.5 4:0.875 5:0.5 6:0.375 7:0.5 8:0.375 9:0.9375 10:0.75 
-1.0 1:0.75 2:0.25 3:0.8125 4:0.8125 5:0.0625 6:0.5625 7:0.5625 8:0.6875 9:0.875 10:0.625 
1.0 1:0.625 2:0.625 3:0.75 4:0.9375 5:0.0 6:0.1875 7:0.4375 8:0.875 9:0.875 10:0.5 
1.0 1:0.9375 2:0.625 3:0.75 4:0.9375 5:0.5625 6:0.25 7:0.1875 8:0.375 9:0.4375 10:0.5 
-0.3631478361058055 1:0.5 2:0.5 3:0.5625 4:0.625 5:0.5 6:0.4375 7:0.625 8:0.0625 9:0.6875 10:1.0 
-0.04316697820259535 1:0.3125 2:0.9375 3:0.4375 4:0.9375 5:0.8125 6:0.5625 7:1.0 8:0.375 9:1.0 10:0.9375 
1.0 1:0.1875 2:0.75 3:0.375 4:0.5625 5:0.6875 6:0.5 7:0.8125 8:0.25 9:0.625 10:1.0 
-0.7490573915417582 1:0.4375 2:0.125 3:0.375 4:0.3125 5:0.5 6:0.625 7:0.4375 8:0.9375 9:0.375 10:0.4375 
-1.0 1:0.25 2:0.8125 3:0.375 4:0.3125 5:0.8125 6:0.75 7:0.6875 8:0.375 9:0.1875 10:0.3125 
-0.78595529801086 1:0.875 2:0.5 3:0.75 4:0.5 5:0.3125 6:0.25 7:0.3125 8:0.5 9:0.1875 10:0.25 
0.9792572584766301 1:0.6875 2:0.1875 3:0.4375 4:0.1875 5:0.375 6:0.4375 7:0.25 8:0.625 9:0.375 10:0.5 
1.0 1:0.4375 2:1.0 3:0.5 4:0.625 5:1.0 6:0.75 7:0.6875 8:0.3125 9:0.0625 10:0.8125 
-0.06330459857208422 1:0.25 2:0.125 3:0.375 4:0.875 5:0.5 6:0.9375 7:0.875 8:1.0 9:0.875 10:0.6875 
0.2918384031592492 1:0.9375 2:0.25 3:0.75 4:0.5 5:0.125 6:0.0625 7:0.1875 8:0.5625 9:0.875 10:0.5 
0.4647283383232079 1:1.0 2:0.5625 3:0.6875 4:0.8125 5:0.375 6:0.25 7:0.1875 8:0.3125 9:0.625 10:0.9375 
1.0 1:0.5 2:0.1875 3:0.4375 4:0.5 5:0.5 6:0.8125 7:0.5625 8:0.75 9:0.9375 10:0.6875 
0.18672405247159446 1:0.4375 2:0.5 3:0.75 4:0.1875 5:0.3125 6:0.6875 7:0.3125 8:0.6875 9:0.375 10:0.1875 
-1.0 1:0.75 2:1.0 3:0.875 4:0.9375 5:0.5 6:0.5 7:0.5 8:0.1875 9:0.5625 10:0.5 
-0.6501004344658161 1:1.0 2:0.375 3:0.875 4:0.9375 5:0.0 6:0.0 7:0.375 8:0.625 9:1.0 10:0.8125 
-0.5280952779329512 1:0.625 2:0.8125 3:0.6875 4:1.0 5:0.3125 6:0.125 7:0.6875 8:0.5 9:0.625 10:0.75 
0.3680540097757358 1:0.625 2:0.375 3:0.125 4:0.5 5:0.0625 6:0.4375 7:0.5 8:0.6875 9:0.625 10:0.8125 
0.5595675397792453 1:0.25 2:0.4375 3:0.375 4:0.0625 5:0.375 6:0.25 7:0.3125 8:0.625 9:0.5 10:0.4375 
1.0 1:0.75 2:1.0 3:0.5 4:0.4375 5:0.625 6:0.4375 7:0.5 8:0.3125 9:0.125 10:0.5625 
-0.09428904498033672 1:0.4375 2:0.625 3:0.5 4:0.9375 5:0.9375 6:0.25 7:0.5625 8:0.0625 9:0.5 10:0.6875 
0.2621373067748374 1:0.0625 2:0.3125 3:0.375 4:0.4375 5:0.4375 6:0.375 7:1.0 8:0.5625 9:0.8125 10:0.6875 
0.17534115120090973 1:0.5 2:0.5 3:0.75 4:0.75 5:0.4375 6:0.5 7:1.0 8:1.0 9:0.625 10:0.625 
-0.37218649302609275 1:0.5 2:0.0625 3:0.5 4:0.0625 5:0.1875 6:0.8125 7:0.5 8:0.875 9:0.9375 10:0.3125 
1.0 1:0.6875 2:0.5625 3:0.1875 4:0.1875 5:0.3125 6:0.0625 7:0.0625 8:0.5 9:0.375 10:0.5 
0.6328869192531285 1:0.1875 2:0.1875 3:0.3125 4:0.4375 5:0.625 6:0.8125 7:0.875 8:0.375 9:0.9375 10:0.875 
1.0 1:0.1875 2:0.125 3:0.0625 4:0.125 5:0.8125 6:0.6875 7:1.0 8:0.375 9:0.5625 10:0.75 
-1.0 1:0.3125 2:0.8125 3:0.4375 4:0.75 5:0.8125 6:0.125 7:0.8125 8:0.0625 9:0.5 10:0.75 
-0.45492716367648595 1:0.1875 2:0.4375 3:0.5625 4:1.0 5:1.0 6:0.5625 7:0.8125 8:0.5 9:0.625 10:0.9375 
-0.6605091504229853 1:0.75 2:0.6875 3:0.8125 4:0.5 5:0.25 6:0.0 7:0.0625 8:0.6875 9:0.4375 10:0.4375 
-1.0 1:0.5 2:0.3125 3:0.8125 4:0.8125 5:0.1875 6:0.875 7:0.5 8:0.8125 9:0.75 10:0.0 
0.4685365749868143 1:0.625 2:1.0 3:0.9375 4:0.75 5:0.6875 6:0.4375 7:0.75 8:0.125 9:0.25 10:0.8125 
0.24882372756289586 1:0.875 2:0.8125 3:0.1875 4:0.75 5:0.5625 6:0.25 7:0.5625 8:0.125 9:0.5 10:0.875 
1.0 1:0.75 2:0.0 3:0.75 4:0.625 5:0.0 6:0.4375 7:0.5625 8:0.8125 9:0.9375 10:0.5 
-1.0 1:0.75 2:0.875 3:0.9375 4:0.875 5:0.75 6:0.4375 7:0.6875 8:0.4375 9:0.3125 10:0.5 
-0.27142563220917537 1:0.0 2:1.0 3:0.25 4:0.5 5:0.8125 6:0.375 7:0.6875 8:0.125 9:0.125 10:0.75 
-1.0 1:0.1875 2:0.5 3:0.375 4:0.1875 5:0.5 6:0.25 7:0.125 8:0.4375 9:0.4375 10:0.3125 
0.14709672261337517 1:0.6875 2:0.3125 3:0.375 4:0.3125 5:0.125 6:0.125 7:0.125 8:0.9375 9:0.625 10:0.375 
0.8402997989339319 1:0.875 2:0.8125 3:0.375 4:1.0 5:0.25 6:0.0625 7:0.5 8:0.4375 9:0.6875 10:0.625 
0.2638988537157082 1:0.5625 2:0.5 3:0.5 4:0.5625 5:0.375 6:0.625 7:0.5 8:0.5625 9:0.875 10:0.6875 
-0.1036116230594358 1:0.75 2:0.125 3:0.3125 4:0.375 5:0.125 6:0.25 7:0.0625 8:0.5 9:0.6875 10:0.625 
-1.0 1:0.75 2:0.75 3:0.75 4:0.75 5:0.5 6:0.1875 7:0.1875 8:0.0625 9:0.375 10:0.5625 
1.0 1:0.25 2:0.375 3:0.375 4:0.5 5:0.375 6:0.5625 7:0.625 8:0.875 9:0.625 10:0.4375 
-0.26319896018970806 1:0.0 2:0.0625 3:0.0 4:0.4375 5:0.8125 6:0.1875 7:0.75 8:0.1875 9:0.6875 10:0.8125 
0.4016482328889251 1:0.0 2:0.6875 3:0.8125 4:0.5625 5:0.9375 6:1.0 7:0.9375 8:0.8125 9:0.4375 10:0.1875 
1.0 1:0.125 2:0.75 3:0.5 4:0.25 5:0.75 6:0.8125 7:0.625 8:0.4375 9:0.0625 10:0.25 
0.8095396455777364 1:0.625 2:0.4375 3:0.5 4:0.25 5:0.375 6:0.375 7:0.3125 8:0.9375 9:0.375 10:0.125 
1.0 1:0.5 2:0.625 3:0.6875 4:0.375 5:0.375 6:0.375 7:0.3125 8:0.5625 9:0.5 10:0.1875 
0.39201708337420493 1:0.25 2:0.1875 3:0.3125 4:0.1875 5:0.125 6:0.6875 7:0.1875 8:1.0 9:0.5 10:0.0 
0.32221375326556584 1:0.0625 2:0.5625 3:0.25 4:0.0625 5:1.0 6:0.5625 7:0.9375 8:0.25 9:0.25 10:0.875 
0.1118827022768447 1:0.875 2:1.0 3:0.875 4:0.6875 5:0.875 6:0.5625 7:0.5 8:0.0 9:0.125 10:0.1875 
-0.33942766286398524 1:0.375 2:0.375 3:0.0625 4:0.0625 5:0.0625 6:0.3125 7:0.0 8:0.5 9:0.0 10:0.3125 
-0.09991551034052253 1:0.625 2:0.5 3:0.5 4:0.6875 5:0.25 6:0.25 7:0.125 8:0.25 9:0.375 10:0.5625 
-0.1872805380109653 1:0.6875 2:0.875 3:0.0625 4:0.5 5:0.4375 6:0.0625 7:0.0 8:0.1875 9:0.125 10:0.625 
-1.0 1:0.5 2:0.0625 3:0.5 4:0.5 5:0.125 6:0.1875 7:0.125 8:0.75 9:0.5625 10:0.5 
-0.8017642342164929 1:0.5 2:0.9375 3:0.5 4:0.0 5:0.9375 6:0.75 7:0.25 8:0.125 9:0.0625 10:0.3125 
0.2598599781686426 1:0.5625 2:0.625 3:0.4375 4:0.0625 5:0.3125 6:0.25 7:0.25 8:0.25 9:0.375 10:0.5 
0.8432835993984469 1:0.5625 2:0.75 3:0.625 4:0.4375 5:0.5625 6:0.25 7:0.0 8:0.25 9:0.25 10:0.0625 
-1.0 1:0.25 2:0.25 3:0.1875 4:0.1875 5:0.875 6:0.6875 7:0.875 8:0.375 9:0.5 10:0.75 
0.46277745275633 1:0.0625 2:0.0 3:0.125 4:0.0 5:0.625 6:0.375 7:0.1875 8:0.375 9:0.1875 10:0.4375 
-0.45896491199913586 1:0.8125 2:0.625 3:0.6875 4:0.5625 5:0.75 6:0.5 7:0.25 8:0.1875 9:0.125 10:0.4375 
0.43716096124392634 1:0.5 2:0.0 3:0.375 4:0.25 5:0.1875 6:0.0 7:0.25 8:0.75 9:0.75 10:0.25 
-0.45355569957646136 1:0.6875 2:0.75 3:0.6875 4:0.4375 5:0.5 6:0.3125 7:0.1875 8:0.625 9:0.125 10:0.0 
-0.43032654828712336 1:0.5625 2:0.1875 3:0.0 4:0.8125 5:0.125 6:0.3125 7:0.8125 8:0.375 9:0.875 10:0.9375 
0.0232897128498086 1:0.0 2:0.625 3:0.5 4:0.25 5:0.9375 6:0.5 7:0.5625 8:0.125 9:0.0625 10:0.375 
-0.4700443733904446 1:0.0625 2:0.125 3:0.125 4:0.3125 5:0.625 6:0.4375 7:1.0 8:0.5 9:0.5 10:0.625 
1.0 1:0.625 2:0.125 3:0.5625 4:0.3125 5:0.125 6:1.0 7:0.4375 8:0.875 9:0.5 10:0.0 
-1.0 1:0.0 2:0.0 3:0.125 4:0.0625 5:0.8125 6:0.5625 7:0.5 8:0.625 9:0.4375 10:0.25 
-1.0 1:0.3125 2:0.0 3:0.125 4:0.75 5:0.1875 6:0.25 7:0.5625 8:0.5 9:0.875 10:0.875 
-0.985643442814722 1:0.6875 2:1.0 3:0.875 4:0.625 5:0.3125 6:0.375 7:0.1875 8:0.5625 9:0.0 10:0.125 
0.3895886366747172 1:0.625 2:0.625 3:0.875 4:0.75 5:0.4375 6:0.5 7:0.25 8:0.4375 9:0.25 10:0.25 
-0.844569539029097 1:0.0625 2:0.0625 3:0.25 4:0.0625 5:0.75 6:0.875 7:0.875 8:0.4375 9:0.75 10:0.625 
0.16083806578177154 1:0.0625 2:0.4375 3:0.5 4:0.125 5:0.5625 6:0.9375 7:0.0 8:0.5625 9:0.3125 10:0.0625 
0.509931099375053 1:0.9375 2:0.5625 3:0.6875 4:0.5625 5:0.5 6:0.5625 7:0.5 8:0.6875 9:0.125 10:0.375 
-1.0 1:0.875 2:0.875 3:0.875 4:0.875 5:0.4375 6:0.625 7:0.5 8:0.625 9:0.6875 10:0.125 
0.37530511341049433 1:0.4375 2:0.3125 3:0.625 4:0.375 5:0.0625 6:0.375 7:0.0 8:0.9375 9:0.625 10:0.375 
0.6317531625387932 1:0.625 2:0.75 3:0.875 4:0.75 5:0.375 6:0.5 7:0.8125 8:0.5 9:0.625 10:0.75 
0.4833132324982725 1:0.8125 2:0.8125 3:0.75 4:0.5 5:0.1875 6:0.125 7:0.0625 8:0.25 9:0.0 10:0.125 
0.028533961620031172 1:0.5625 2:0.0 3:0.0625 4:0.5625 5:0.375 6:0.125 7:0.5 8:0.75 9:0.9375 10:0.875 
-0.15782693668802547 1:0.5625 2:0.5 3:0.3125 4:0.9375 5:0.5 6:0.5 7:0.8125 8:0.1875 9:0.5 10:0.6875 
0.3284861384129209 1:0.0625 2:0.9375 3:0.9375 4:0.4375 5:1.0 6:0.6875 7:0.5 8:0.5 9:0.25 10:0.0625 
-0.27284387485231676 1:0.375 2:0.6875 3:0.75 4:0.5 5:0.75 6:0.875 7:0.25 8:0.375 9:0.25 10:0.0 
0.14923750733858127 1:0.1875 2:0.3125 3:0.125 4:0.3125 5:0.125 6:0.25 7:0.0625 8:0.375 9:0.5 10:0.5625 
-0.843115866747358 1:0.9375 2:0.5 3:0.75 4:0.9375 5:0.5 6:0.375 7:0.5 8:0.5 9:0.625 10:0.4375 
-0.433353623677068 1:1.0 2:0.6875 3:0.625 4:1.0 5:0.25 6:0.4375 7:0.0625 8:0.8125 9:0.625 10:0.5625 
0.23994227309662863 1:0.6875 2:0.8125 3:0.8125 4:0.5 5:0.0 6:0.4375 7:0.0625 8:0.5625 9:0.3125 10:0.125 
-0.8702893471564762 1:0.8125 2:0.9375 3:0.75 4:0.875 5:0.25 6:0.5 7:0.5 8:0.5 9:0.5 10:0.1875 
-0.3423399131431789 1:0.375 2:0.0 3:0.5 4:0.1875 5:0.3125 6:0.6875 7:0.125 8:0.9375 9:0.75 10:0.3125 
0.08724145253159167 1:0.25 2:0.1875 3:0.0625 4:0.625 5:0.625 6:0.25 7:0.875 8:0.0 9:1.0 10:1.0 
-0.9285174602416093 1:1.0 2:0.875 3:0.5 4:0.4375 5:0.375 6:0.0625 7:0.4375 8:0.5 9:0.4375 10:0.4375 
-0.17374874401783982 1:0.5625 2:0.625 3:0.9375 4:0.625 5:0.875 6:0.6875 7:0.3125 8:0.75 9:0.375 10:0.1875 
0.7691265330460759 1:0.5 2:0.9375 3:0.3125 4:0.75 5:0.75 6:0.0 7:1.0 8:0.125 9:0.5625 10:0.875 
-1.0 1:0.375 2:0.4375 3:0.625 4:0.4375 5:0.3125 6:0.5 7:0.3125 8:0.9375 9:0.6875 10:0.0 
-0.7124697213539521 1:0.1875 2:0.0 3:0.125 4:0.0625 5:0.5 6:0.5625 7:1.0 8:0.75 9:0.6875 10:0.8125 
0.10684335966858584 1:0.6875 2:0.5 3:0.6875 4:1.0 5:0.3125 6:0.75 7:0.5 8:0.875 9:0.6875 10:0.1875 
0.31382617615686687 1:0.5 2:0.9375 3:0.5 4:0.875 5:0.9375 6:0.625 7:0.5625 8:0.1875 9:0.5625 10:0.9375 
-1.0 1:0.6875 2:0.1875 3:1.0 4:0.5 5:0.1875 6:0.5 7:0.375 8:0.8125 9:0.6875 10:0.4375 
1.0 1:0.5 2:0.8125 3:0.5 4:0.875 5:0.625 6:1.0 7:0.6875 8:0.4375 9:0.6875 10:0.5625 
-0.4762121835247929 1:0.0625 2:0.4375 3:0.0625 4:0.5 5:0.5 6:0.5625 7:0.875 8:0.0 9:0.5 10:0.875 
0.07817275122482101 1:0.4375 2:0.625 3:0.6875 4:0.5625 5:0.5625 6:0.875 7:1.0 8:0.8125 9:0.9375 10:0.3125 
-1.0 1:0.1875 2:0.4375 3:0.5 4:0.0625 5:0.4375 6:0.5 7:0.375 8:0.375 9:0.0 10:0.0 
0.4064288723614559 1:0.625 2:0.375 3:0.4375 4:0.6875 5:0.1875 6:0.125 7:0.25 8:1.0 9:0.875 10:0.5 
1.0 1:0.5 2:0.1875 3:0.5 4:0.1875 5:0.4375 6:0.5 7:0.5 8:0.625 9:0.375 10:0.0625 
0.5815652811616173 1:0.25 2:0.125 3:0.5 4:0.3125 5:0.5 6:0.5625 7:1.0 8:0.75 9:0.5 10:0.375 
0.07062751749042864 1:1.0 2:0.25 3:0.5 4:0.0 5:0.125 6:0.375 7:0.125 8:0.5 9:0.5 10:0.0 
1.0 1:0.5 2:0.125 3:0.5 4:0.5 5:0.0625 6:0.4375 7:0.0625 8:0.5 9:0.625 10:0.5 
-0.6178483726850346 1:0.1875 2:0.1875 3:0.75 4:0.0625 5:0.8125 6:0.9375 7:0.625 8:0.75 9:0.4375 10:0.125 
0.015764347076697282 1:0.75 2:0.9375 3:0.6875 4:0.75 5:0.75 6:0.5 7:0.5 8:0.375 9:0.5 10:1.0 
0.0872664428744844 1:0.3125 2:0.625 3:0.5 4:0.0625 5:0.75 6:0.5625 7:0.4375 8:0.125 9:0.4375 10:0.375 
-0.077924890879063 1:0.625 2:0.0625 3:0.4375 4:0.0625 5:0.1875 6:0.1875 7:0.1875 8:0.9375 9:0.5 10:0.5 
-0.3287237377912844 1:0.1875 2:0.25 3:0.0 4:0.5 5:0.75 6:0.5 7:0.75 8:0.0625 9:0.625 10:0.5625 
0.7721441128389204 1:0.8125 2:0.875 3:0.8125 4:0.5625 5:0.375 6:0.0 7:0.1875 8:0.5 9:0.3125 10:0.5 
-0.14500419013919644 1:0.3125 2:0.6875 3:0.5 4:0.5 5:1.0 6:0.5 7:0.8125 8:0.5 9:0.5 10:0.5625 
0.23155870336245946 1:0.4375 2:0.875 3:0.75 4:0.9375 5:0.6875 6:1.0 7:0.9375 8:0.5 9:0.5 10:0.0625 
-1.0 1:0.5 2:1.0 3:0.5 4:1.0 5:0.6875 6:0.875 7:0.625 8:0.3125 9:0.5 10:0.5 
-0.3031159815101545 1:0.875 2:0.625 3:0.625 4:0.3125 5:0.5 6:0.3125 7:0.25 8:0.125 9:0.3125 10:0.4375 
-1.0 1:0.5 2:0.8125 3:0.25 4:0.5625 5:0.5625 6:0.1875 7:0.9375 8:0.1875 9:0.625 10:0.8125 
-1.0 1:0.375 2:0.25 3:0.3125 4:0.375 5:0.5625 6:0.625 7:0.5 8:0.5 9:0.6875 10:0.625 
-0.21188751055325708 1:0.875 2:0.75 3:0.875 4:1.0 5:0.875 6:0.625 7:1.0 8:0.5 9:0.6875 10:1.0 
-0.6698113546696687 1:0.625 2:0.5 3:0.625 4:0.5 5:0.6875 6:0.5 7:0.3125 8:0.5 9:0.125 10:0.4375 
0.2926678937467078 1:0.5 2:0.25 3:0.8125 4:0.125 5:0.1875 6:0.8125 7:0.0625 8:1.0 9:0.1875 10:0.0625 
1.0 1:0.1875 2:0.5625 3:0.625 4:0.75 5:0.8125 6:0.5625 7:0.875 8:0.375 9:0.4375 10:0.5 
0.03198740061547874 1:0.5 2:0.5 3:0.625 4:0.5625 5:0.3125 6:0.9375 7:0.4375 8:0.8125 9:0.5 10:0.375 
0.46223574122667005 1:0.8125 2:0.5625 3:1.0 4:0.8125 5:0.5625 6:0.5 7:0.25 8:0.5 9:0.5 10:0.25 
0.1680848209920106 1:0.125 2:0.6875 3:0.125 4:0.3125 5:0.625 6:0.5 7:0.5 8:0.4375 9:0.25 10:0.5625 
1.0 1:0.8125 2:0.8125 3:0.8125 4:0.5625 5:0.1875 6:0.5625 7:0.5 8:0.5625 9:0.5 10:0.5 
0.3701680794231444 1:0.0625 2:0.25 3:0.25 4:0.1875 5:0.5 6:0.6875 7:0.3125 8:0.5 9:0.25 10:0.0625 
0.3225196026221689 1:0.5 2:0.875 3:0.3125 4:0.6875 5:0.5 6:0.1875 7:0.625 8:0.125 9:0.9375 10:1.0 
0.35715084696856786 1:0.6875 2:1.0 3:0.875 4:0.875 5:0.875 6:0.625 7:0.625 8:0.3125 9:0.5 10:0.8125 
0.49363300577799335 1:0.625 2:0.875 3:0.75 4:0.0625 5:0.875 6:0.8125 7:0.0625 8:0.4375 9:0.125 10:0.125 
-0.005746706207491473 1:0.125 2:0.25 3:0.0625 4:0.125 5:0.5 6:0.875 7:0.5625 8:0.9375 9:0.5625 10:0.125 
1.0 1:0.5 2:0.625 3:0.9375 4:0.5 5:0.625 6:0.6875 7:0.75 8:0.6875 9:0.1875 10:0.0 
1.0 1:0.75 2:0.9375 3:0.75 4:0.5 5:0.375 6:0.4375 7:0.125 8:0.5625 9:0.5 10:0.25 
0.9170554018722499 1:0.8125 2:0.625 3:0.625 4:0.8125 5:0.0 6:0.0625 7:0.3125 8:0.5 9:1.0 10:0.9375 
-1.0 1:0.5625 2:0.4375 3:0.4375 4:0.875 5:0.125 6:0.4375 7:0.5625 8:1.0 9:0.9375 10:0.625 
1.0 1:0.625 2:0.5625 3:0.8125 4:0.75 5:0.375 6:0.4375 7:0.1875 8:0.8125 9:0.375 10:0.4375 
0.936159838215518 1:0.5625 2:0.5 3:0.625 4:0.8125 5:0.375 6:0.75 7:0.4375 8:0.8125 9:1.0 10:0.5 
0.46265678883768097 1:0.8125 2:0.625 3:0.3125 4:0.4375 5:0.9375 6:0.0625 7:0.3125 8:0.0 9:0.1875 10:0.6875 
-0.6817568711813277 1:0.375 2:0.0 3:0.125 4:0.0625 5:0.5625 6:0.8125 7:0.5 8:0.6875 9:0.5 10:0.25 
0.5025532881570559 1:0.5625 2:0.75 3:0.9375 4:0.9375 5:1.0 6:1.0 7:1.0 8:0.5 9:0.5 10:0.875 
-1.0 1:0.5 2:0.375 3:0.0625 4:0.0625 5:0.0625 6:0.375 7:0.125 8:0.5 9:0.3125 10:0.625 
1.0 1:0.25 2:0.9375 3:0.5 4:0.25 5:0.6875 6:0.6875 7:0.4375 8:0.4375 9:0.125 10:0.5 
-1.0 1:0.5 2:0.8125 3:0.375 4:0.4375 5:0.875 6:0.25 7:0.75 8:0.0625 9:0.0625 10:0.9375 
-0.49329028461202445 1:0.9375 2:0.625 3:0.1875 4:0.8125 5:0.5 6:0.0 7:0.1875 8:0.25 9:0.5 10:0.6875 
-0.4233237871103423 1:0.75 2:0.5 3:1.0 4:0.625 5:0.625 6:1.0 7:0.625 8:0.6875 9:0.5 10:0.5 
-1.0 1:0.5625 2:0.8125 3:0.3125 4:0.4375 5:0.4375 6:0.1875 7:0.25 8:0.0625 9:0.25 10:0.25 
-0.1363583820144333 1:0.4375 2:0.75 3:0.8125 4:0.0625 5:0.75 6:0.875 7:0.5 8:0.625 9:0.125 10:0.3125 
0.8244927030104535 1:0.9375 2:0.5625 3:0.8125 4:0.75 5:0.3125 6:0.75 7:0.75 8:0.875 9:1.0 10:0.625 
0.2524721390140932 1:0.625 2:0.0625 3:0.625 4:0.5 5:0.1875 6:0.75 7:0.4375 8:0.9375 9:0.75 10:0.5 
-0.34382302164422174 1:0.9375 2:0.75 3:0.5 4:0.5625 5:0.125 6:0.25 7:0.5 8:0.5 9:0.4375 10:0.5 
-0.36289694960171165 1:0.0 2:0.0 3:0.0625 4:0.4375 5:0.5625 6:1.0 7:0.5625 8:0.625 9:0.875 10:0.375 
1.0 1:0.1875 2:0.25 3:0.375 4:0.0 5:0.75 6:0.9375 7:0.75 8:0.5 9:0.5 10:0.5625 
0.10848494482249822 1:0.5625 2:0.1875 3:0.5 4:0.0625 5:0.1875 6:0.6875 7:0.125 8:0.6875 9:0.0 10:0.0625 
0.8922211118087214 1:0.5 2:0.9375 3:0.0 4:0.625 5:0.6875 6:0.1875 7:0.3125 8:0.0 9:0.25 10:0.6875 
0.3014293584491178 1:0.75 2:0.625 3:0.5 4:1.0 5:0.1875 6:0.4375 7:0.5 8:0.625 9:1.0 10:0.5625 
-1.0 1:0.4375 2:0.5 3:0.375 4:0.3125 5:0.375 6:0.5625 7:0.25 8:0.75 9:0.3125 10:0.125 
0.439978667982644 1:1.0 2:0.875 3:0.8125 4:1.0 5:0.0 6:0.5625 7:0.25 8:0.5625 9:0.4375 10:0.25 
1.0 1:0.0625 2:0.0 3:0.0 4:0.375 5:0.75 6:1.0 7:0.875 8:0.5 9:0.375 10:0.5625 
0.5527340207560426 1:0.25 2:0.75 3:0.125 4:0.3125 5:0.625 6:0.5 7:0.4375 8:0.0 9:0.0 10:0.1875 
-0.20178142332658944 1:0.4375 2:0.4375 3:0.75 4:0.875 5:0.9375 6:1.0 7:0.875 8:0.625 9:1.0 10:0.375 
0.9280980204702844 1:0.0 2:0.125 3:0.25 4:0.0 5:0.9375 6:0.75 7:0.25 8:0.625 9:0.25 10:0.0 
-1.0 1:0.3125 2:0.0625 3:0.3125 4:0.5625 5:0.3125 6:0.3125 7:0.8125 8:0.6875 9:0.625 10:0.6875 
-0.33675447554089927 1:0.8125 2:0.6875 3:0.75 4:0.8125 5:0.0625 6:0.375 7:0.0 8:0.9375 9:0.5 10:0.5 
0.44651960605428787 1:0.5625 2:0.0625 3:0.5625 4:0.6875 5:0.0625 6:0.25 7:0.6875 8:0.75 9:1.0 10:0.875 
0.4442902197099131 1:0.8125 2:0.6875 3:0.75 4:0.5625 5:0.5 6:0.8125 7:0.5625 8:0.625 9:0.6875 10:0.1875 
-0.006811352766429146 1:0.375 2:0.75 3:0.3125 4:0.5625 5:0.6875 6:0.3125 7:0.9375 8:0.25 9:0.3125 10:0.6875 
0.3972838862777183 1:0.9375 2:0.75 3:0.9375 4:0.625 5:0.5 6:0.0 7:0.375 8:0.1875 9:0.3125 10:0.375 
-0.23743953141673318 1:0.625 2:0.75 3:0.9375 4:0.25 5:1.0 6:0.5625 7:0.25 8:0.5625 9:0.125 10:0.125 
-1.0 1:0.75 2:0.0 3:0.5 4:0.25 5:0.3125 6:0.5 7:0.0625 8:0.5625 9:0.25 10:0.0 
-0.017243156301740867 1:0.875 2:1.0 3:0.875 4:0.875 5:0.5 6:0.6875 7:0.6875 8:1.0 9:0.5 10:0.125 
-0.8303142323514898 1:0.6875 2:0.75 3:0.75 4:0.9375 5:1.0 6:0.6875 7:0.8125 8:0.625 9:0.375 10:0.5 
0.023313472797283002 1:0.625 2:0.0 3:0.1875 4:0.0625 5:0.3125 6:0.0625 7:0.5 8:0.5 9:0.5625 10:0.625 
1.0 1:0.5625 2:0.0 3:0.0 4:0.625 5:0.0625 6:0.25 7:0.6875 8:0.4375 9:0.75 10:0.6875 
-1.0 1:0.4375 2:0.5 3:0.5625 4:0.5 5:0.1875 6:0.875 7:0.375 8:0.8125 9:0.4375 10:0.0625 
1.0 1:0.6875 2:0.75 3:0.3125 4:0.6875 5:0.5625 6:0.375 7:0.6875 8:0.3125 9:0.5 10:0.5625 
-0.18750812775465864 1:1.0 2:0.5 3:1.0 4:0.5625 5:0.5 6:0.5625 7:0.3125 8:0.75 9:0.5625 10:0.1875 
-0.7337711291345257 1:1.0 2:0.875 3:0.5 4:0.9375 5:0.8125 6:0.5 7:0.625 8:0.125 9:0.125 10:0.8125 
0.060841293954816966 1:0.25 2:0.0625 3:0.75 4:0.4375 5:0.5625 6:0.875 7:0.875 8:0.75 9:0.625 10:0.5 
0.07950578566379612 1:0.625 2:0.5625 3:0.4375 4:0.1875 5:0.125 6:0.125 7:0.25 8:0.25 9:0.0625 10:0.25 
-0.29773561327295134 1:0.375 2:0.5625 3:0.625 4:0.625 5:0.9375 6:1.0 7:0.5 8:0.3125 9:0.125 10:0.5 
0.8941778638362939 1:0.4375 2:0.25 3:1.0 4:0.75 5:0.5 6:0.9375 7:0.5625 8:0.875 9:1.0 10:0.625 
-0.021181506151649238 1:0.0 2:0.875 3:0.875 4:0.625 5:1.0 6:0.75 7:0.9375 8:0.3125 9:0.3125 10:0.5 
0.1296129319718278 1:0.3125 2:0.1875 3:0.5 4:0.4375 5:1.0 6:0.9375 7:0.875 8:0.8125 9:0.625 10:0.375 
1.0 1:0.375 2:0.125 3:0.5625 4:0.5 5:0.75 6:0.6875 7:0.5 8:0.75 9:0.5 10:0.25 
0.6527846281516636 1:0.625 2:0.3125 3:0.5625 4:0.8125 5:0.5 6:0.375 7:0.8125 8:0.4375 9:0.875 10:0.8125 
-0.2337833860366035 1:0.375 2:0.5 3:0.0 4:0.5625 5:0.9375 6:0.25 7:0.4375 8:0.0625 9:0.4375 10:0.6875 
-1.0 1:0.6875 2:0.4375 3:0.4375 4:0.3125 5:0.375 6:0.375 7:0.4375 8:0.625 9:0.5625 10:0.1875 
-0.5561341382932746 1:0.3125 2:0.4375 3:0.875 4:0.75 5:0.375 6:0.6875 7:0.6875 8:0.875 9:1.0 10:0.75 
0.7432230874864704 1:0.0 2:0.0625 3:0.4375 4:0.0625 5:0.5 6:0.625 7:0.4375 8:0.8125 9:0.625 10:0.5625 
0.6376760328679418 1:0.875 2:0.6875 3:1.0 4:0.9375 5:0.1875 6:0.5 7:0.625 8:0.625 9:0.75 10:0.25 
-0.5508368248989934 1:0.0625 2:0.3125 3:0.5 4:0.0625 5:0.375 6:1.0 7:0.125 8:0.75 9:0.5 10:0.3125 
1.0 1:0.5625 2:0.5625 3:0.625 4:0.6875 5:0.8125 6:0.5 7:0.8125 8:0.1875 9:0.5 10:1.0 
-0.6252410180156747 1:0.0 2:0.3125 3:0.125 4:0.1875 5:1.0 6:0.75 7:0.5 8:0.0625 9:0.0 10:0.5 
0.6878690151020261 1:0.6875 2:0.9375 3:0.8125 4:1.0 5:0.8125 6:1.0 7:0.4375 8:0.6875 9:0.375 10:0.1875 
1.0 1:0.0625 2:0.125 3:0.25 4:0.5 5:0.625 6:0.375 7:1.0 8:0.375 9:0.5 10:0.8125 
-0.67106581421959 1:0.9375 2:0.8125 3:0.625 4:0.8125 5:0.1875 6:0.1875 7:0.4375 8:0.5625 9:0.6875 10:0.875 
1.0 1:0.875 2:0.625 3:0.9375 4:0.875 5:0.3125 6:0.5625 7:0.5 8:0.5 9:0.4375 10:0.375 
-0.2245619791040888 1:0.875 2:0.5 3:0.5 4:0.8125 5:0.375 6:0.3125 7:0.625 8:0.0625 9:0.6875 10:0.625 
0.11970460612214666 1:0.625 2:0.5 3:0.0 4:0.375 5:0.1875 6:0.25 7:0.0625 8:0.3125 9:0.125 10:0.3125 
-0.38013919355130477 1:0.6875 2:0.5 3:0.5 4:0.625 5:0.5 6:0.0625 7:0.5625 8:0.4375 9:0.6875 10:0.5 
-0.3847666769501424 1:0.375 2:0.0625 3:0.4375 4:0.375 5:0.125 6:0.25 7:0.125 8:0.5 9:0.5 10:0.5 
1.0 1:0.0625 2:0.625 3:0.0 4:0.5625 5:0.8125 6:0.375 7:0.5 8:0.125 9:0.4375 10:0.5625 
1.0 1:0.9375 2:0.5625 3:0.875 4:1.0 5:0.6875 6:0.5625 7:0.625 8:0.375 9:0.5 10:0.5 
0.011341788823081856 1:0.125 2:0.0 3:0.0625 4:0.0 5:0.3125 6:0.0 7:0.3125 8:0.1875 9:0.375 10:0.6875 
-1.0 1:0.1875 2:0.9375 3:0.75 4:0.5625 5:0.8125 6:0.6875 7:0.75 8:0.5 9:0.0625 10:0.5 
