encog,SVM,java,3.2.0,1,1406057789162
[SVM]
[SVM:PARAMS]
[SVM:SVM-PARAM]
inputCount=28
C=1
cacheSize=100
coef0=0
degree=3
eps=0.001
gamma=1
kernelType=2
nrWeight=0
nu=0.5
p=0.1
probability=0
shrinking=1
svmType=3
weight=
weightLabel=
[SVM:SVM-MODEL]
svm_type epsilon_svr
kernel_type rbf
gamma 1.0
nr_class 2
total_sv 401
rho -0.3262109612416653
SV
0.015099979288298994 1:1.0 2:0.875 3:0.5 4:0.8125 5:0.25 6:0.9375 7:0.5 8:0.0625 9:0.125 10:0.5625 11:0.0 12:0.25 13:0.125 14:0.3125 15:0.625 16:0.25 17:0.6875 18:0.0625 19:0.625 20:0.1875 21:0.6875 22:0.5625 23:0.125 24:0.5 25:0.1875 26:0.8125 27:0.4375 28:0.0 
-0.17033734905050174 1:0.75 2:0.5 3:0.5625 4:0.5625 5:0.875 6:0.625 7:0.875 8:0.5 9:0.125 10:0.375 11:0.5 12:0.5 13:0.625 14:0.5 15:0.5 16:0.625 17:0.9375 18:0.75 19:0.75 20:1.0 21:0.75 22:0.6875 23:0.8125 24:0.4375 25:0.875 26:0.1875 27:0.25 28:1.0 
0.19166804978530866 1:0.375 2:0.375 3:0.5 4:0.3125 5:0.25 6:0.375 7:0.125 8:0.8125 9:0.5 10:0.625 11:0.5 12:0.5 13:0.375 14:0.75 15:0.125 16:0.0 17:0.5 18:0.4375 19:0.375 20:0.3125 21:0.3125 22:0.3125 23:0.375 24:0.625 25:0.0 26:0.6875 27:0.5625 28:0.125 
0.10784184286112906 1:0.6875 2:1.0 3:1.0 4:0.5 5:0.875 6:0.5 7:0.75 8:0.5 9:0.6875 10:0.25 11:0.1875 12:0.4375 13:0.5 14:0.625 15:0.125 16:0.125 17:0.5 18:0.5625 19:0.125 20:0.5 21:0.125 22:0.625 23:0.5 24:0.625 25:0.9375 26:0.5 27:0.6875 28:0.8125 
-0.10728363749522252 1:0.5 2:0.5625 3:0.625 4:0.5625 5:0.125 6:0.25 7:0.5625 8:0.875 9:0.5 10:0.6875 11:0.0 12:0.375 13:0.0625 14:0.0625 15:0.3125 16:0.0625 17:0.0 18:0.0625 19:0.9375 20:0.0 21:0.5 22:0.5 23:0.125 24:0.25 25:0.0 26:0.5625 27:0.8125 28:0.4375 
0.1065700217627578 1:1.0 2:0.625 3:0.625 4:0.5 5:0.9375 6:0.5625 7:0.5625 8:0.3125 9:0.5 10:0.125 11:0.8125 12:0.25 13:0.0625 14:0.5 15:0.0625 16:0.5625 17:0.5 18:0.5625 19:0.3125 20:0.6875 21:0.75 22:0.5 23:0.8125 24:1.0 25:0.6875 26:0.3125 27:0.5 28:0.5 
-0.017954726586272795 1:0.1875 2:0.5625 3:0.0625 4:0.25 5:0.125 6:0.5 7:0.5625 8:0.8125 9:0.9375 10:0.75 11:0.5 12:0.875 13:0.6875 14:0.375 15:0.1875 16:0.0 17:0.5625 18:0.375 19:0.5 20:0.5 21:0.5625 22:0.8125 23:0.6875 24:0.8125 25:0.9375 26:0.5625 27:0.9375 28:0.6875 
-0.10654717748600617 1:0.5 2:0.25 3:0.3125 4:0.0 5:0.9375 6:1.0 7:0.1875 8:0.5625 9:0.375 10:0.5 11:0.5 12:1.0 13:0.5 14:0.375 15:0.5625 16:0.5625 17:1.0 18:0.5 19:0.5 20:0.75 21:0.875 22:0.5625 23:1.0 24:0.875 25:0.6875 26:0.5625 27:0.375 28:0.375 
0.12630525162167935 1:0.0625 2:0.25 3:0.5 4:0.0625 5:0.3125 6:0.375 7:0.125 8:0.25 9:0.5 10:0.4375 11:0.4375 12:0.1875 13:0.5625 14:0.75 15:0.5 16:0.4375 17:0.5625 18:0.5 19:0.1875 20:0.0625 21:0.0625 22:0.25 23:0.5 24:0.375 25:0.4375 26:0.8125 27:0.8125 28:0.4375 
-0.14548123344562167 1:0.25 2:0.5625 3:0.875 4:0.0625 5:0.6875 6:0.1875 7:0.5 8:0.9375 9:0.875 10:0.1875 11:0.625 12:0.5625 13:0.5 14:0.25 15:0.125 16:0.4375 17:0.1875 18:0.4375 19:0.1875 20:0.8125 21:0.0625 22:0.5 23:1.0 24:0.5 25:1.0 26:0.375 27:0.4375 28:0.875 
0.17107491269038835 1:0.875 2:0.25 3:0.5 4:0.5 5:0.5 6:0.4375 7:1.0 8:0.25 9:0.5 10:0.375 11:0.3125 12:0.5 13:0.4375 14:0.5 15:0.625 16:0.5 17:0.5 18:0.5625 19:0.5 20:0.5 21:0.625 22:0.6875 23:0.5 24:0.5 25:0.6875 26:0.5 27:0.75 28:0.9375 
-0.22744181854587284 1:0.1875 2:0.4375 3:0.1875 4:0.625 5:0.5 6:0.0625 7:0.5 8:0.6875 9:0.375 10:0.5 11:0.75 12:0.4375 13:1.0 14:0.3125 15:0.625 16:0.5 17:0.5 18:0.6875 19:0.8125 20:0.8125 21:0.375 22:0.5 23:0.375 24:0.125 25:0.5 26:0.0625 27:0.375 28:0.9375 
-0.11716026385063583 1:0.4375 2:0.6875 3:0.5 4:0.8125 5:1.0 6:0.75 7:1.0 8:0.9375 9:0.5625 10:0.4375 11:0.9375 12:0.6875 13:0.6875 14:0.1875 15:0.375 16:0.8125 17:0.75 18:0.625 19:0.625 20:0.875 21:0.75 22:0.875 23:0.875 24:0.9375 25:0.875 26:0.75 27:0.8125 28:0.5 
0.054111027349786615 1:0.125 2:0.3125 3:0.5 4:0.125 5:0.0 6:0.25 7:0.3125 8:0.5625 9:0.8125 10:1.0 11:0.6875 12:0.9375 13:0.875 14:0.75 15:0.5 16:0.5625 17:0.4375 18:0.4375 19:0.5 20:0.4375 21:0.3125 22:0.4375 23:0.4375 24:0.125 25:0.3125 26:0.25 27:0.25 28:0.5 
-0.24505862804755799 1:0.625 2:0.5 3:0.5 4:0.6875 5:1.0 6:0.625 7:0.375 8:0.375 9:0.1875 10:1.0 11:0.3125 12:0.5 13:0.125 14:0.5 15:0.8125 16:1.0 17:0.875 18:0.5 19:1.0 20:0.9375 21:0.6875 22:0.75 23:0.1875 24:0.3125 25:0.125 26:0.5 27:0.5 28:0.0625 
0.07856021481107958 1:0.8125 2:0.5 3:0.375 4:0.5 5:0.4375 6:0.125 7:0.1875 8:0.25 9:0.25 10:0.125 11:0.25 12:0.0 13:0.4375 14:0.625 15:0.5 16:0.625 17:0.1875 18:0.5 19:0.4375 20:0.375 21:0.1875 22:0.5 23:0.3125 24:0.0 25:0.3125 26:0.0 27:0.3125 28:0.875 
-0.05133715820358033 1:0.5 2:0.25 3:0.875 4:0.5 5:0.3125 6:0.5625 7:0.8125 8:0.5 9:0.75 10:0.4375 11:0.6875 12:0.875 13:0.9375 14:1.0 15:0.5 16:0.5 17:0.9375 18:0.75 19:0.3125 20:0.3125 21:0.5 22:0.25 23:0.5 24:0.875 25:1.0 26:0.875 27:0.5 28:0.5 
-0.10256279989588897 1:0.0 2:0.375 3:0.5 4:0.125 5:0.0 6:0.1875 7:0.375 8:0.5625 9:0.9375 10:0.5 11:0.5625 12:0.875 13:0.625 14:0.5 15:0.1875 16:0.5625 17:0.5 18:0.5 19:0.1875 20:0.4375 21:0.375 22:0.0 23:0.8125 24:1.0 25:0.5 26:0.3125 27:0.5 28:0.6875 
0.11991174144441302 1:0.625 2:0.6875 3:0.5 4:0.0625 5:0.3125 6:0.8125 7:0.5625 8:0.8125 9:0.625 10:0.25 11:0.125 12:1.0 13:0.625 14:0.3125 15:0.25 16:0.125 17:0.75 18:0.125 19:0.125 20:0.4375 21:0.9375 22:0.5 23:0.625 24:0.8125 25:0.8125 26:0.75 27:0.6875 28:0.5 
0.06017189789931009 1:0.375 2:0.625 3:0.5625 4:0.5 5:0.6875 6:0.5 7:0.4375 8:0.5625 9:0.6875 10:0.8125 11:0.9375 12:0.9375 13:0.875 14:0.9375 15:0.3125 16:0.5 17:0.5 18:0.375 19:0.0625 20:0.5 21:0.4375 22:0.375 23:0.8125 24:0.9375 25:0.5 26:0.625 27:0.4375 28:0.0 
-0.12821617178486175 1:0.5 2:0.5625 3:0.3125 4:0.8125 5:0.5625 6:0.6875 7:0.5 8:0.5625 9:0.25 10:0.8125 11:0.5 12:0.5 13:0.6875 14:0.1875 15:0.3125 16:0.1875 17:0.1875 18:0.0625 19:0.9375 20:0.6875 21:1.0 22:0.875 23:0.3125 24:0.3125 25:0.25 26:0.6875 27:0.4375 28:0.25 
0.554895966175749 1:0.625 2:0.5625 3:0.875 4:0.875 5:0.875 6:1.0 7:0.9375 8:0.75 9:1.0 10:0.8125 11:1.0 12:0.6875 13:0.9375 14:0.5625 15:0.5625 16:0.3125 17:0.75 18:0.875 19:0.25 20:0.1875 21:0.75 22:0.5 23:0.125 24:0.75 25:0.8125 26:0.8125 27:0.875 28:0.4375 
-0.10001900112707415 1:0.0 2:0.8125 3:0.3125 4:0.3125 5:0.375 6:0.25 7:0.1875 8:0.9375 9:0.875 10:0.8125 11:0.625 12:0.875 13:0.6875 14:0.3125 15:0.5625 16:0.125 17:0.0 18:0.375 19:0.4375 20:0.1875 21:0.5 22:0.5 23:0.25 24:0.375 25:0.5 26:0.4375 27:0.75 28:0.75 
-0.22478496405520706 1:0.125 2:0.0 3:0.4375 4:0.1875 5:0.625 6:0.375 7:0.3125 8:0.5 9:0.8125 10:0.5625 11:0.6875 12:0.5625 13:0.5625 14:0.8125 15:0.5 16:0.9375 17:0.625 18:0.6875 19:0.5 20:0.5 21:0.5625 22:0.125 23:1.0 24:0.6875 25:0.9375 26:0.375 27:0.5 28:0.375 
-0.4043233102213265 1:0.9375 2:0.625 3:0.3125 4:0.9375 5:0.625 6:0.8125 7:0.8125 8:0.1875 9:0.1875 10:0.75 11:0.3125 12:0.0625 13:0.5625 14:0.375 15:1.0 16:0.3125 17:0.5 18:0.875 19:0.8125 20:0.625 21:0.75 22:0.9375 23:0.0 24:0.3125 25:0.0625 26:0.875 27:0.75 28:0.75 
-0.48172639440275467 1:0.375 2:0.875 3:0.4375 4:1.0 5:0.625 6:0.3125 7:0.5 8:0.9375 9:0.75 10:0.6875 11:0.5625 12:0.625 13:0.5625 14:0.3125 15:0.5 16:0.5 17:0.125 18:0.4375 19:0.6875 20:0.5 21:0.625 22:0.5 23:0.4375 24:0.5625 25:0.375 26:0.5 27:0.5 28:0.5 
0.024226637839728934 1:0.625 2:0.5625 3:0.5 4:0.75 5:0.9375 6:1.0 7:0.8125 8:0.375 9:1.0 10:0.5 11:0.6875 12:0.9375 13:0.9375 14:0.875 15:0.625 16:0.75 17:0.6875 18:1.0 19:0.4375 20:0.5 21:0.9375 22:0.5 23:0.875 24:0.9375 25:0.875 26:0.5 27:0.4375 28:0.25 
-0.14098631642905807 1:0.6875 2:0.1875 3:0.5 4:0.5 5:0.5 6:0.3125 7:0.625 8:0.25 9:0.125 10:0.1875 11:0.5 12:0.0 13:0.1875 14:1.0 15:0.625 16:0.9375 17:0.5625 18:0.5 19:0.5 20:0.6875 21:0.5 22:0.5625 23:1.0 24:0.0 25:0.8125 26:0.1875 27:0.25 28:0.625 
-0.34142573560681255 1:1.0 2:0.9375 3:0.4375 4:1.0 5:0.75 6:0.5 7:0.3125 8:0.4375 9:0.1875 10:0.5 11:0.1875 12:0.125 13:0.0 14:0.375 15:0.5625 16:0.4375 17:0.125 18:0.0 19:0.5625 20:1.0 21:0.4375 22:0.625 23:0.625 24:0.125 25:0.0 26:0.5 27:0.4375 28:0.5 
-0.015491427987305165 1:0.375 2:0.3125 3:0.8125 4:0.0625 5:1.0 6:0.875 7:0.625 8:0.5625 9:0.75 10:0.4375 11:1.0 12:0.8125 13:0.6875 14:0.5625 15:0.1875 16:0.9375 17:0.625 18:0.75 19:0.0625 20:0.875 21:0.75 22:0.5 23:0.875 24:0.9375 25:0.9375 26:0.25 27:0.0625 28:0.0 
-0.31482164096469684 1:0.875 2:0.5 3:0.6875 4:0.5 5:0.5625 6:0.625 7:0.75 8:0.5 9:0.5 10:0.625 11:0.8125 12:0.6875 13:0.5 14:0.5 15:0.4375 16:0.6875 17:0.6875 18:0.5 19:0.625 20:0.8125 21:0.75 22:0.875 23:0.6875 24:0.625 25:0.5 26:0.5 27:0.6875 28:0.5 
0.30972299624845184 1:0.3125 2:0.5625 3:1.0 4:1.0 5:0.625 6:0.6875 7:0.5 8:1.0 9:0.625 10:0.875 11:0.8125 12:0.875 13:0.5 14:0.3125 15:0.5 16:0.0625 17:0.5 18:0.0 19:0.625 20:0.3125 21:0.3125 22:0.1875 23:0.0625 24:0.1875 25:0.0 26:0.5 27:0.0625 28:0.0 
0.08402662651225261 1:0.3125 2:0.125 3:0.375 4:0.3125 5:0.0 6:0.0625 7:0.0625 8:0.5625 9:0.8125 10:0.875 11:0.5 12:0.5 13:0.125 14:1.0 15:0.5625 16:0.5625 17:0.375 18:0.3125 19:0.625 20:0.3125 21:0.375 22:0.25 23:0.4375 24:0.375 25:0.25 26:0.3125 27:0.5 28:0.5 
-0.007846474055082212 1:1.0 2:1.0 3:0.6875 4:0.5625 5:0.5 6:0.6875 7:0.75 8:0.5 9:0.375 10:0.4375 11:0.1875 12:0.125 13:0.4375 14:0.4375 15:0.75 16:0.4375 17:0.375 18:0.5625 19:0.4375 20:0.125 21:0.5 22:0.8125 23:0.375 24:0.5 25:0.375 26:0.875 27:0.75 28:0.8125 
-0.13532155701135573 1:0.5 2:0.625 3:0.5625 4:0.375 5:0.9375 6:0.25 7:0.5 8:0.5 9:0.3125 10:0.0 11:1.0 12:0.25 13:0.375 14:0.1875 15:0.125 16:0.8125 17:0.125 18:0.4375 19:0.4375 20:0.5 21:0.1875 22:0.5 23:1.0 24:0.1875 25:1.0 26:0.125 27:0.4375 28:0.8125 
0.13984918844309846 1:0.4375 2:0.25 3:0.625 4:0.75 5:0.25 6:0.5 7:0.375 8:0.4375 9:0.75 10:0.75 11:0.625 12:0.1875 13:0.5 14:0.9375 15:0.75 16:0.5 17:0.8125 18:0.75 19:0.8125 20:0.0625 21:0.3125 22:0.1875 23:0.125 24:0.25 25:0.0 26:0.5 27:0.5 28:0.625 
-0.32805860607128867 1:0.6875 2:0.3125 3:0.5 4:0.9375 5:0.125 6:0.4375 7:0.5 8:0.25 9:0.25 10:0.5625 11:0.1875 12:0.4375 13:0.25 14:0.5 15:0.625 16:0.5625 17:0.5 18:0.8125 19:0.8125 20:0.5 21:0.625 22:1.0 23:0.0 24:0.0625 25:0.125 26:0.375 27:0.5 28:0.8125 
-0.1724080967210012 1:0.75 2:0.625 3:0.75 4:0.875 5:0.875 6:1.0 7:0.625 8:0.25 9:0.1875 10:0.4375 11:0.1875 12:0.9375 13:0.0625 14:0.375 15:0.4375 16:0.5 17:0.5625 18:0.625 19:0.625 20:0.75 21:0.8125 22:0.8125 23:0.25 24:0.8125 25:0.5 26:0.75 27:0.5 28:0.125 
-0.1781719872047816 1:0.5 2:0.0625 3:0.3125 4:0.3125 5:0.5 6:0.5625 7:0.25 8:0.25 9:0.25 10:0.3125 11:0.3125 12:0.3125 13:0.1875 14:0.625 15:0.5625 16:0.5625 17:0.5 18:1.0 19:0.8125 20:0.5 21:0.5 22:0.5 23:0.5 24:0.5 25:0.25 26:0.6875 27:0.5625 28:0.4375 
0.19238074881613415 1:0.0625 2:0.5 3:0.6875 4:0.5625 5:0.625 6:0.4375 7:0.6875 8:0.5625 9:0.5625 10:0.75 11:1.0 12:0.8125 13:0.9375 14:0.5625 15:0.6875 16:0.5625 17:0.4375 18:0.875 19:0.875 20:0.9375 21:0.5 22:0.8125 23:0.8125 24:0.5 25:0.5625 26:0.0 27:0.625 28:0.875 
-0.02419511243138841 1:0.8125 2:0.5625 3:0.6875 4:0.8125 5:0.4375 6:0.125 7:0.8125 8:0.5 9:0.5625 10:0.75 11:0.4375 12:0.1875 13:0.5625 14:0.6875 15:0.5 16:0.125 17:0.1875 18:0.5625 19:0.625 20:0.3125 21:0.125 22:0.25 23:0.375 24:0.25 25:0.6875 26:0.375 27:0.8125 28:0.8125 
0.11663993730378026 1:0.5 2:0.3125 3:0.5625 4:0.5 5:0.625 6:0.5 7:0.4375 8:0.625 9:0.625 10:0.5 11:0.8125 12:0.875 13:0.5625 14:0.8125 15:0.75 16:0.8125 17:0.6875 18:0.5 19:0.5625 20:0.625 21:0.625 22:0.625 23:0.875 24:0.75 25:0.5 26:0.4375 27:0.3125 28:0.1875 
-0.03383776390209253 1:0.6875 2:0.75 3:0.4375 4:0.5 5:0.0 6:0.5 7:0.5 8:0.4375 9:0.0 10:0.5 11:0.0625 12:0.5 13:0.25 14:0.0625 15:0.5625 16:0.125 17:0.5 18:0.4375 19:1.0 20:0.875 21:0.8125 22:0.75 23:0.375 24:0.0 25:0.1875 26:0.875 27:0.5625 28:0.375 
-0.011168209754614767 1:0.5625 2:0.5 3:0.5 4:1.0 5:1.0 6:0.75 7:0.5625 8:0.5 9:0.0 10:0.5625 11:0.6875 12:0.25 13:0.1875 14:0.5 15:0.9375 16:0.625 17:0.375 18:0.5 19:0.8125 20:0.8125 21:0.625 22:0.125 23:0.5 24:0.25 25:0.0 26:0.5 27:0.25 28:0.5 
0.5652170256876712 1:1.0 2:0.9375 3:0.5 4:0.625 5:0.6875 6:0.625 7:0.6875 8:0.375 9:0.5 10:0.5 11:0.3125 12:0.4375 13:0.5 14:0.4375 15:0.625 16:0.125 17:0.5 18:0.5 19:0.875 20:0.375 21:0.5 22:0.9375 23:0.0 24:0.5 25:0.5625 26:0.875 27:0.8125 28:0.5 
-0.015797607295013286 1:0.875 2:1.0 3:0.5625 4:0.5 5:1.0 6:0.5 7:0.75 8:0.9375 9:0.125 10:0.375 11:0.25 12:0.1875 13:0.625 14:0.1875 15:0.25 16:0.3125 17:0.0 18:0.5625 19:0.5625 20:0.5 21:0.5 22:0.8125 23:0.3125 24:0.5625 25:0.625 26:0.125 27:0.6875 28:1.0 
-0.051482000890438535 1:0.6875 2:0.1875 3:0.25 4:0.25 5:0.0625 6:0.4375 7:0.1875 8:0.0 9:0.375 10:0.375 11:0.0 12:0.375 13:0.3125 14:0.375 15:0.625 16:0.5 17:0.5625 18:0.8125 19:0.5 20:0.6875 21:0.6875 22:0.9375 23:0.5625 24:0.9375 25:0.875 26:0.5 27:0.5 28:0.6875 
0.1608499461024212 1:0.9375 2:0.5 3:0.25 4:0.5 5:0.9375 6:0.625 7:0.75 8:0.5625 9:0.1875 10:0.5 11:1.0 12:0.75 13:0.5625 14:0.25 15:0.4375 16:0.5 17:0.5625 18:0.5 19:0.8125 20:0.75 21:0.75 22:0.6875 23:1.0 24:0.9375 25:1.0 26:0.5625 27:0.4375 28:0.125 
0.12780145840167112 1:0.0625 2:0.0625 3:0.25 4:0.3125 5:0.4375 6:0.25 7:0.125 8:0.5 9:0.4375 10:0.1875 11:0.375 12:0.6875 13:0.375 14:0.625 15:0.5625 16:0.625 17:0.8125 18:0.5 19:0.5625 20:0.5 21:0.6875 22:0.25 23:0.5 24:0.6875 25:0.6875 26:0.8125 27:0.25 28:0.1875 
0.12563924734436058 1:0.5 2:0.625 3:0.875 4:0.5 5:0.125 6:0.75 7:0.625 8:0.5 9:0.5625 10:0.5 11:0.25 12:0.5 13:0.5 14:0.5625 15:0.625 16:0.5625 17:0.4375 18:0.375 19:0.375 20:0.0625 21:0.3125 22:0.3125 23:0.3125 24:0.375 25:0.375 26:0.875 27:0.6875 28:0.4375 
0.02161259645526021 1:0.8125 2:0.3125 3:0.6875 4:0.8125 5:0.3125 6:0.5 7:0.75 8:0.375 9:0.375 10:0.4375 11:0.3125 12:0.0 13:0.4375 14:1.0 15:0.5625 16:0.5625 17:0.4375 18:0.75 19:0.5625 20:0.5 21:0.0 22:0.125 23:0.3125 24:0.25 25:0.375 26:0.4375 27:0.5 28:1.0 
-0.29078600472551946 1:0.625 2:0.75 3:1.0 4:0.6875 5:0.6875 6:0.625 7:0.5625 8:0.25 9:0.5 10:0.75 11:0.9375 12:0.0625 13:0.25 14:0.5 15:1.0 16:0.75 17:0.5 18:0.375 19:0.5 20:0.8125 21:0.25 22:0.0 23:0.5 24:0.1875 25:0.0625 26:0.0625 27:0.1875 28:0.1875 
0.5400537593898788 1:1.0 2:0.625 3:0.4375 4:0.9375 5:0.375 6:0.5 7:0.375 8:0.5625 9:0.3125 10:0.6875 11:0.0 12:0.0 13:0.3125 14:0.3125 15:0.9375 16:0.1875 17:0.1875 18:0.375 19:0.8125 20:0.25 21:0.625 22:0.3125 23:0.125 24:0.1875 25:0.3125 26:0.875 27:0.5625 28:0.375 
-0.2874978481882308 1:0.4375 2:0.8125 3:0.5625 4:0.5625 5:0.4375 6:0.5 7:0.5 8:0.5625 9:0.5 10:0.875 11:0.5 12:0.25 13:0.75 14:0.3125 15:0.375 16:0.25 17:0.25 18:0.25 19:0.625 20:0.3125 21:0.125 22:0.75 23:0.25 24:0.375 25:0.5625 26:0.3125 27:0.5 28:1.0 
-0.007177630543088768 1:0.875 2:0.6875 3:0.4375 4:0.5 5:0.25 6:0.8125 7:0.125 8:0.75 9:0.0 10:0.5625 11:0.25 12:0.875 13:0.3125 14:0.375 15:0.6875 16:0.0 17:0.5625 18:0.3125 19:1.0 20:0.5 21:1.0 22:0.5 23:0.0625 24:0.75 25:0.25 26:0.875 27:0.75 28:0.125 
0.004457102620571884 1:0.375 2:0.375 3:0.375 4:0.5 5:0.375 6:0.0625 7:0.125 8:0.25 9:0.0625 10:0.1875 11:0.375 12:0.25 13:0.5 14:0.5 15:0.5 16:0.1875 17:0.375 18:0.4375 19:0.5625 20:0.375 21:0.1875 22:0.375 23:0.375 24:0.25 25:0.3125 26:0.5 27:0.5 28:0.5 
-0.039756982505852426 1:1.0 2:0.6875 3:0.75 4:0.5 5:0.5625 6:0.3125 7:0.4375 8:0.4375 9:0.25 10:0.1875 11:0.125 12:0.0 13:0.0625 14:0.4375 15:0.1875 16:0.125 17:0.25 18:0.5 19:0.5 20:0.3125 21:0.375 22:0.125 23:0.5625 24:0.25 25:0.1875 26:0.375 27:0.5 28:1.0 
-0.10316396740379831 1:0.5625 2:0.5 3:0.8125 4:0.6875 5:0.375 6:0.8125 7:0.9375 8:0.0625 9:0.375 10:0.5 11:0.125 12:0.875 13:0.4375 14:0.5625 15:0.6875 16:0.5 17:0.75 18:0.5625 19:0.25 20:0.25 21:0.5 22:0.25 23:0.5 24:0.625 25:0.625 26:0.875 27:0.875 28:0.5 
-0.2954856190670128 1:0.625 2:0.3125 3:0.5 4:0.9375 5:0.5 6:0.5625 7:0.5625 8:0.125 9:0.375 10:0.75 11:0.6875 12:0.625 13:0.5 14:0.375 15:0.75 16:0.9375 17:0.9375 18:0.875 19:0.5625 20:0.75 21:0.9375 22:0.875 23:0.25 24:0.5 25:0.125 26:0.5 27:0.5625 28:0.3125 
-0.021284413668002548 1:0.5 2:0.8125 3:0.1875 4:0.125 5:0.25 6:0.625 7:0.125 8:0.5625 9:0.3125 10:0.5 11:0.0 12:0.8125 13:0.5 14:0.0 15:0.0 16:0.0 17:0.6875 18:0.5 19:0.625 20:0.3125 21:0.875 22:0.6875 23:0.5 24:0.6875 25:0.6875 26:0.875 27:0.5625 28:0.0625 
-0.3715843368337697 1:0.375 2:0.4375 3:0.3125 4:0.75 5:0.0625 6:0.1875 7:0.4375 8:0.75 9:0.6875 10:0.6875 11:0.5 12:0.0625 13:0.4375 14:0.9375 15:0.8125 16:0.1875 17:0.125 18:0.125 19:0.75 20:0.3125 21:0.1875 22:0.3125 23:0.1875 24:0.0 25:0.125 26:0.375 27:0.375 28:0.625 
0.049065320721652664 1:0.5 2:0.5 3:0.8125 4:0.6875 5:0.25 6:0.1875 7:0.5 8:0.125 9:0.5 10:0.5 11:0.0 12:0.375 13:0.4375 14:0.5625 15:0.875 16:0.5 17:0.375 18:0.4375 19:0.25 20:0.3125 21:0.3125 22:0.3125 23:0.0 24:0.3125 25:0.3125 26:0.3125 27:1.0 28:0.6875 
0.030115753662084962 1:0.9375 2:0.9375 3:0.4375 4:0.4375 5:0.6875 6:0.625 7:0.5 8:0.6875 9:0.0 10:0.1875 11:0.3125 12:0.4375 13:0.0 14:0.25 15:0.4375 16:0.25 17:0.5625 18:0.0 19:0.375 20:0.5 21:0.5 22:0.25 23:1.0 24:0.9375 25:0.4375 26:0.6875 27:0.5 28:0.1875 
-0.12689442053663835 1:0.5625 2:0.625 3:0.5 4:0.4375 5:0.8125 6:0.3125 7:0.0625 8:0.8125 9:0.4375 10:0.625 11:0.875 12:0.5 13:0.5 14:0.125 15:0.125 16:0.5625 17:0.25 18:0.375 19:0.5 20:0.6875 21:0.125 22:0.4375 23:0.5 24:0.4375 25:0.4375 26:0.0 27:0.4375 28:0.875 
-0.21646252676510977 1:0.5 2:0.625 3:0.9375 4:0.5625 5:0.75 6:0.125 7:0.625 8:0.375 9:0.625 10:0.6875 11:0.6875 12:0.3125 13:0.5 14:0.5 15:0.8125 16:0.6875 17:0.4375 18:0.875 19:0.5 20:0.375 21:0.3125 22:0.5 23:0.5 24:0.125 25:0.5 26:0.375 27:1.0 28:0.75 
-0.006621825803387937 1:0.5625 2:0.5625 3:0.4375 4:0.375 5:0.5 6:0.375 7:0.375 8:0.5 9:0.5 10:0.1875 11:0.0625 12:0.0625 13:0.5 14:0.625 15:0.25 16:0.5 17:0.25 18:0.0 19:0.125 20:0.3125 21:0.125 22:0.3125 23:0.5 24:0.875 25:0.6875 26:0.375 27:0.5 28:0.4375 
-0.12139450053923104 1:0.375 2:0.1875 3:0.4375 4:0.5 5:0.1875 6:0.1875 7:0.3125 8:0.0625 9:0.5 10:0.875 11:0.375 12:0.1875 13:0.625 14:0.9375 15:0.9375 16:0.75 17:0.5 18:0.5 19:0.5 20:0.125 21:0.4375 22:0.375 23:0.3125 24:0.3125 25:0.5 26:0.0 27:0.6875 28:0.8125 
0.1379510878092259 1:0.875 2:0.625 3:0.3125 4:0.0 5:0.5 6:0.25 7:0.625 8:0.4375 9:0.0625 10:0.1875 11:0.3125 12:0.0 13:0.1875 14:0.0625 15:0.25 16:0.5 17:0.375 18:0.0625 19:0.375 20:0.6875 21:1.0 22:0.5625 23:0.9375 24:0.625 25:0.8125 26:0.0 27:0.4375 28:0.6875 
-0.09861465470558682 1:0.5 2:0.3125 3:0.0 4:0.5 5:0.5 6:0.75 7:0.4375 8:0.375 9:0.125 10:0.5625 11:0.875 12:0.9375 13:0.625 14:0.25 15:0.6875 16:0.6875 17:0.5 18:0.6875 19:0.75 20:0.8125 21:0.75 22:0.6875 23:0.4375 24:0.5625 25:0.25 26:0.75 27:0.5 28:0.3125 
-0.1768710991581644 1:0.75 2:0.5 3:0.6875 4:1.0 5:0.5 6:0.6875 7:0.5 8:0.5 9:0.5 10:0.6875 11:0.25 12:0.5 13:0.5 14:0.5625 15:0.75 16:0.125 17:0.0 18:0.0 19:0.6875 20:0.0625 21:0.375 22:0.125 23:0.0 24:0.1875 25:0.0 26:0.6875 27:1.0 28:0.6875 
0.11836831448741778 1:0.125 2:0.1875 3:0.0 4:0.5 5:0.3125 6:0.0625 7:0.0 8:0.5625 9:0.375 10:0.5 11:0.75 12:0.5 13:0.5 14:0.25 15:0.5 16:0.375 17:0.125 18:0.125 19:0.8125 20:1.0 21:0.375 22:0.5625 23:0.5 24:0.1875 25:0.25 26:0.5 27:0.0625 28:0.875 
-0.06653532043772552 1:0.75 2:0.5625 3:0.625 4:0.875 5:0.6875 6:0.5 7:0.75 8:0.625 9:0.3125 10:0.625 11:0.1875 12:0.25 13:0.375 14:0.0 15:0.625 16:0.5 17:0.4375 18:0.4375 19:1.0 20:0.625 21:0.6875 22:0.75 23:0.25 24:0.0625 25:0.25 26:0.0625 27:0.5625 28:0.4375 
0.16837494666295333 1:0.625 2:0.375 3:0.9375 4:0.5625 5:0.8125 6:0.625 7:0.9375 8:0.4375 9:0.75 10:0.3125 11:0.5625 12:0.5625 13:0.625 14:0.75 15:0.75 16:0.875 17:1.0 18:0.625 19:0.4375 20:0.5 21:0.0625 22:0.375 23:0.9375 24:0.5 25:0.875 26:0.5 27:0.5625 28:0.5625 
-0.07699201247096223 1:0.5625 2:0.5625 3:0.75 4:0.5 5:0.5 6:0.625 7:0.5 8:0.125 9:0.25 10:0.0 11:0.5 12:0.125 13:0.0625 14:0.9375 15:0.5 16:0.6875 17:0.25 18:0.625 19:0.1875 20:0.5625 21:0.1875 22:0.1875 23:1.0 24:0.5625 25:0.5 26:0.3125 27:0.1875 28:0.5625 
-0.06884709382336596 1:0.3125 2:0.5 3:0.5 4:0.5 5:0.375 6:0.375 7:0.625 8:0.8125 9:0.5 10:1.0 11:0.9375 12:0.1875 13:0.6875 14:0.125 15:0.8125 16:0.625 17:0.25 18:1.0 19:0.8125 20:0.875 21:0.4375 22:0.9375 23:0.5625 24:0.1875 25:0.625 26:0.0625 27:0.625 28:0.9375 
-0.23726691839267464 1:0.5625 2:0.625 3:0.875 4:0.75 5:0.625 6:0.6875 7:0.4375 8:1.0 9:0.6875 10:0.6875 11:0.5 12:0.6875 13:0.5 14:0.375 15:0.125 16:0.3125 17:0.0 18:0.25 19:0.5 20:0.125 21:0.0 22:0.375 23:0.3125 24:0.3125 25:0.4375 26:0.4375 27:0.375 28:0.5625 
0.5643208032676528 1:0.875 2:0.875 3:0.875 4:0.625 5:0.8125 6:0.5 7:0.9375 8:0.375 9:0.4375 10:0.4375 11:0.375 12:0.125 13:0.5 14:0.4375 15:0.5625 16:0.8125 17:0.3125 18:0.75 19:0.3125 20:0.5 21:0.125 22:0.875 23:0.5625 24:0.5 25:0.8125 26:0.5 27:0.6875 28:0.8125 
0.16859035253890278 1:0.375 2:0.3125 3:1.0 4:0.75 5:0.6875 6:0.625 7:0.5 8:0.5 9:0.6875 10:1.0 11:0.75 12:0.875 13:0.5 14:0.8125 15:1.0 16:0.4375 17:0.5 18:0.4375 19:0.4375 20:0.4375 21:0.125 22:0.3125 23:0.5 24:0.3125 25:0.3125 26:0.5 27:0.4375 28:0.1875 
0.22599473343008422 1:0.5625 2:0.375 3:0.0625 4:0.4375 5:0.625 6:0.5 7:0.5 8:0.5625 9:0.375 10:0.4375 11:0.5625 12:0.5 13:0.625 14:0.0 15:0.3125 16:0.4375 17:0.25 18:0.5625 19:0.8125 20:0.9375 21:0.8125 22:0.6875 23:0.5 24:0.9375 25:0.5625 26:0.375 27:0.625 28:0.625 
-0.0508411879907462 1:0.375 2:0.625 3:0.4375 4:0.75 5:0.625 6:0.375 7:0.6875 8:0.5 9:0.1875 10:0.5 11:0.5 12:0.0625 13:0.6875 14:0.375 15:0.75 16:0.9375 17:0.5 18:0.75 19:0.9375 20:0.8125 21:0.625 22:0.9375 23:0.5 24:0.125 25:0.3125 26:0.3125 27:0.5 28:1.0 
-0.06388914848399374 1:0.625 2:0.75 3:0.5 4:0.9375 5:0.5 6:0.375 7:0.25 8:0.5625 9:0.625 10:0.5 11:0.0625 12:0.125 13:0.0 14:0.5 15:0.125 16:0.25 17:0.375 18:0.1875 19:0.5 20:0.125 21:0.3125 22:0.0625 23:0.3125 24:0.0625 25:0.25 26:0.625 27:0.125 28:0.125 
0.07552364747719532 1:0.5 2:0.1875 3:0.1875 4:0.625 5:0.3125 6:0.5 7:0.125 8:0.0 9:0.125 10:0.5 11:0.0 12:0.0 13:0.125 14:0.6875 15:0.875 16:0.8125 17:0.75 18:0.0 19:0.9375 20:0.5625 21:0.625 22:0.5 23:0.5 24:0.3125 25:0.125 26:0.375 27:0.0 28:0.3125 
0.22655311240479095 1:0.125 2:0.4375 3:0.5 4:0.5 5:0.625 6:0.875 7:0.4375 8:0.625 9:0.4375 10:0.6875 11:0.6875 12:0.9375 13:0.625 14:0.4375 15:0.625 16:0.5625 17:1.0 18:0.125 19:0.75 20:0.625 21:0.75 22:0.6875 23:0.625 24:0.5 25:0.4375 26:0.4375 27:0.3125 28:0.25 
0.5382103527640228 1:0.75 2:0.8125 3:0.625 4:0.875 5:0.8125 6:0.6875 7:0.4375 8:0.75 9:0.6875 10:0.625 11:0.625 12:1.0 13:0.375 14:0.1875 15:0.5 16:0.125 17:0.4375 18:0.3125 19:0.8125 20:0.375 21:0.75 22:0.0 23:0.0625 24:0.8125 25:0.25 26:0.625 27:0.4375 28:0.1875 
-0.22258700003504903 1:0.625 2:0.6875 3:0.9375 4:0.8125 5:0.5 6:0.6875 7:0.9375 8:0.875 9:0.75 10:0.625 11:0.0625 12:0.9375 13:0.5625 14:0.6875 15:0.4375 16:0.0625 17:0.5 18:0.25 19:0.5 20:0.0625 21:0.5625 22:0.0625 23:0.3125 24:0.5625 25:0.625 26:0.75 27:0.9375 28:0.0625 
-0.15467553004614448 1:0.5 2:0.1875 3:0.5625 4:0.5625 5:0.1875 6:0.5625 7:0.5 8:0.5 9:1.0 10:0.75 11:0.125 12:0.4375 13:0.5625 14:0.9375 15:0.6875 16:0.3125 17:0.75 18:0.875 19:0.5625 20:0.4375 21:0.125 22:0.25 23:0.25 24:0.25 25:0.5 26:0.5625 27:0.9375 28:0.625 
-0.02892526087084696 1:0.25 2:0.5 3:0.125 4:0.5 5:0.3125 6:0.125 7:0.1875 8:0.5 9:0.5 10:0.75 11:0.0625 12:0.125 13:0.625 14:0.5 15:0.5 16:0.1875 17:0.0625 18:0.0625 19:0.75 20:0.1875 21:0.125 22:0.25 23:0.0 24:0.25 25:0.4375 26:0.5625 27:0.5625 28:0.9375 
0.06891423517073128 1:0.8125 2:1.0 3:0.5 4:0.9375 5:0.75 6:0.625 7:0.875 8:0.0 9:0.3125 10:0.5 11:0.4375 12:0.3125 13:0.4375 14:0.5625 15:0.9375 16:0.625 17:0.8125 18:0.625 19:0.9375 20:0.6875 21:0.625 22:0.75 23:0.0 24:0.0625 25:0.1875 26:0.625 27:0.625 28:0.5625 
-0.09411141895600753 1:0.4375 2:0.625 3:0.0 4:0.875 5:0.8125 6:0.8125 7:0.1875 8:0.5625 9:0.375 10:0.6875 11:0.5 12:0.6875 13:0.5 14:0.0625 15:0.5 16:0.25 17:0.1875 18:0.1875 19:1.0 20:1.0 21:0.75 22:0.625 23:0.4375 24:0.0625 25:0.375 26:0.5 27:0.25 28:0.4375 
0.11913221821372873 1:0.5 2:0.8125 3:0.6875 4:0.875 5:0.25 6:0.4375 7:0.375 8:0.9375 9:0.5 10:0.9375 11:0.625 12:0.5 13:0.0 14:0.1875 15:0.4375 16:0.25 17:0.0 18:0.0 19:0.875 20:0.4375 21:0.75 22:0.4375 23:0.375 24:0.1875 25:0.0 26:0.5 27:0.5 28:0.4375 
0.07453829982445546 1:0.375 2:0.75 3:0.125 4:0.625 5:0.0625 6:0.4375 7:0.25 8:0.8125 9:0.6875 10:0.9375 11:0.4375 12:0.75 13:0.75 14:0.4375 15:0.5625 16:0.25 17:0.25 18:0.125 19:0.875 20:0.125 21:0.4375 22:0.375 23:0.1875 24:0.5 25:0.0625 26:0.625 27:0.5625 28:0.5 
-0.03349902080859403 1:0.5 2:0.3125 3:0.125 4:0.4375 5:0.3125 6:0.125 7:0.5625 8:0.4375 9:0.0 10:0.0 11:0.375 12:0.5 13:0.8125 14:0.625 15:0.5 16:0.5625 17:0.9375 18:1.0 19:0.5 20:0.5625 21:0.5 22:0.5625 23:0.375 24:0.5 25:0.9375 26:0.9375 27:0.75 28:0.625 
-0.2990927977572732 1:0.5 2:0.6875 3:1.0 4:0.625 5:0.4375 6:0.9375 7:0.6875 8:0.5 9:0.5 10:0.625 11:0.6875 12:0.75 13:0.6875 14:0.375 15:0.5 16:0.25 17:0.5 18:1.0 19:0.4375 20:0.5 21:0.625 22:0.6875 23:0.5625 24:1.0 25:0.75 26:0.875 27:0.8125 28:0.5625 
0.0027987533752262326 1:0.5 2:0.4375 3:0.1875 4:0.8125 5:0.9375 6:0.5 7:0.9375 8:0.375 9:0.1875 10:0.3125 11:0.5 12:0.375 13:0.75 14:0.1875 15:0.6875 16:0.6875 17:0.3125 18:0.75 19:0.625 20:1.0 21:0.8125 22:1.0 23:0.8125 24:0.4375 25:0.5 26:0.125 27:0.375 28:1.0 
0.8096047690841737 1:1.0 2:0.5625 3:0.5 4:1.0 5:0.75 6:0.5 7:0.9375 8:0.375 9:0.25 10:0.6875 11:0.5 12:0.1875 13:0.5625 14:0.125 15:0.75 16:0.5 17:0.3125 18:0.75 19:0.9375 20:1.0 21:0.9375 22:0.75 23:0.5625 24:0.25 25:0.25 26:0.3125 27:0.625 28:0.6875 
0.013877487955979855 1:0.0625 2:0.25 3:0.25 4:0.5 5:0.25 6:0.625 7:0.375 8:0.9375 9:0.5625 10:0.9375 11:0.625 12:0.6875 13:1.0 14:0.25 15:0.625 16:0.625 17:0.625 18:0.5625 19:0.8125 20:0.6875 21:1.0 22:0.6875 23:0.375 24:0.875 25:0.5 26:0.6875 27:0.8125 28:0.5625 
0.05754261284073834 1:0.875 2:0.375 3:0.4375 4:0.5 5:0.75 6:0.6875 7:0.6875 8:0.0625 9:0.0625 10:0.25 11:0.3125 12:0.0 13:0.5 14:0.875 15:0.6875 16:0.9375 17:0.75 18:1.0 19:1.0 20:1.0 21:0.5 22:0.6875 23:1.0 24:0.4375 25:0.4375 26:0.125 27:0.25 28:0.5625 
0.17275353750294847 1:0.8125 2:0.5 3:0.875 4:0.5 5:0.6875 6:0.9375 7:0.8125 8:0.0 9:0.125 10:0.4375 11:0.5 12:0.875 13:0.125 14:0.6875 15:0.25 16:0.5625 17:0.6875 18:0.5 19:0.25 20:0.5625 21:0.875 22:0.375 23:0.875 24:1.0 25:0.5 26:0.625 27:0.5 28:0.25 
0.08622609186967091 1:0.5 2:0.1875 3:0.375 4:0.125 5:0.375 6:0.875 7:0.25 8:0.4375 9:0.1875 10:0.3125 11:0.6875 12:0.5 13:0.375 14:0.375 15:0.4375 16:0.8125 17:0.8125 18:0.6875 19:0.5 20:0.5625 21:0.6875 22:0.375 23:0.75 24:0.625 25:0.5 26:0.8125 27:0.375 28:0.0625 
0.028258107970730202 1:0.3125 2:0.1875 3:0.375 4:0.0625 5:0.125 6:0.1875 7:0.5 8:0.625 9:0.6875 10:0.8125 11:0.3125 12:0.5 13:0.625 14:0.1875 15:0.1875 16:0.3125 17:0.1875 18:0.375 19:0.5 20:0.1875 21:0.0625 22:0.375 23:0.5 24:0.25 25:0.5625 26:0.5 27:0.75 28:0.875 
-0.04025591062624394 1:0.0 2:0.3125 3:0.3125 4:0.3125 5:0.1875 6:0.1875 7:0.375 8:0.75 9:0.4375 10:0.875 11:0.0625 12:0.875 13:0.4375 14:0.4375 15:0.5 16:0.4375 17:0.75 18:0.5 19:0.5625 20:0.5 21:0.5 22:0.5 23:0.0625 24:0.4375 25:0.25 26:0.625 27:0.625 28:0.25 
0.1247423858525471 1:0.125 2:0.0625 3:0.5 4:0.5 5:0.5 6:0.1875 7:0.0 8:1.0 9:0.875 10:0.5625 11:0.75 12:0.5 13:0.8125 14:0.6875 15:0.25 16:0.75 17:0.5 18:0.5 19:0.0625 20:0.625 21:0.375 22:0.125 23:0.5 24:0.4375 25:0.4375 26:0.375 27:0.25 28:0.5625 
0.10253093238008042 1:0.6875 2:0.625 3:0.875 4:0.4375 5:0.5 6:0.75 7:0.5625 8:0.5625 9:0.625 10:0.125 11:0.8125 12:1.0 13:0.5 14:0.5625 15:0.25 16:0.375 17:0.8125 18:0.375 19:0.25 20:0.125 21:0.5 22:0.3125 23:0.4375 24:0.875 25:0.5 26:0.6875 27:0.3125 28:0.0625 
-0.2572088725593471 1:0.375 2:0.375 3:0.75 4:1.0 5:1.0 6:0.8125 7:0.875 8:0.0 9:1.0 10:0.75 11:0.6875 12:0.625 13:0.9375 14:0.6875 15:0.75 16:0.875 17:0.9375 18:0.9375 19:0.5625 20:0.6875 21:0.1875 22:0.4375 23:0.5625 24:0.0 25:0.5 26:0.4375 27:0.5 28:0.5 
-0.05412512984849723 1:0.1875 2:0.0625 3:0.125 4:0.0 5:0.0625 6:0.4375 7:0.3125 8:0.4375 9:0.6875 10:0.0 11:0.0 12:0.4375 13:0.375 14:0.5625 15:0.6875 16:0.5625 17:0.875 18:0.5625 19:0.375 20:0.3125 21:0.5 22:0.1875 23:0.5625 24:0.8125 25:0.8125 26:0.9375 27:0.5625 28:0.375 
-0.21115282809880645 1:0.375 2:0.6875 3:0.75 4:0.5625 5:0.8125 6:0.625 7:0.5625 8:0.875 9:0.4375 10:0.625 11:1.0 12:1.0 13:0.75 14:0.4375 15:0.5 16:0.8125 17:0.25 18:0.4375 19:0.75 20:1.0 21:0.625 22:0.5 23:0.8125 24:0.1875 25:0.5 26:0.1875 27:0.125 28:0.5625 
0.1772955771789924 1:0.625 2:0.5 3:0.5 4:0.5625 5:0.5625 6:0.375 7:0.4375 8:0.625 9:0.375 10:0.5 11:0.25 12:0.0 13:0.25 14:0.3125 15:0.0 16:0.3125 17:0.0 18:0.0 19:0.25 20:0.125 21:0.0625 22:0.125 23:0.625 24:0.25 25:0.4375 26:0.0 27:0.4375 28:0.5625 
-0.26777040805003083 1:0.3125 2:0.5 3:0.5 4:0.4375 5:0.625 6:1.0 7:0.5 8:0.75 9:0.875 10:0.6875 11:0.5 12:0.9375 13:0.375 14:0.5 15:0.5625 16:0.5 17:0.5625 18:0.4375 19:0.5 20:0.25 21:0.875 22:0.1875 23:0.6875 24:0.875 25:0.3125 26:0.8125 27:0.3125 28:0.125 
-0.0038503497357692236 1:0.75 2:0.875 3:0.8125 4:0.75 5:0.5625 6:0.8125 7:0.5625 8:0.4375 9:0.5625 10:0.75 11:0.5 12:0.5 13:0.5 14:0.3125 15:0.9375 16:0.5 17:0.75 18:0.4375 19:0.75 20:0.625 21:0.625 22:0.875 23:0.5 24:0.375 25:0.4375 26:0.6875 27:0.5 28:0.1875 
-0.01780805440869816 1:0.5 2:0.875 3:0.625 4:0.5 5:0.5 6:1.0 7:0.5 8:1.0 9:1.0 10:0.5625 11:0.75 12:0.5625 13:0.5625 14:0.0625 15:0.1875 16:0.125 17:0.3125 18:0.0625 19:0.375 20:0.0 21:0.125 22:0.1875 23:0.375 24:0.375 25:0.5 26:0.4375 27:0.625 28:0.375 
-0.1821554961252089 1:0.375 2:0.5625 3:0.75 4:0.375 5:0.875 6:0.375 7:0.625 8:0.625 9:1.0 10:0.5 11:0.75 12:0.5 13:0.625 14:0.875 15:0.0 16:0.375 17:0.125 18:0.4375 19:0.1875 20:0.25 21:0.25 22:0.25 23:0.75 24:0.875 25:0.5625 26:0.25 27:0.6875 28:0.9375 
-0.25378042518152183 1:0.9375 2:0.5625 3:0.5625 4:1.0 5:0.75 6:0.875 7:0.625 8:0.3125 9:0.25 10:0.5625 11:0.6875 12:0.5 13:0.5625 14:1.0 15:0.75 16:0.8125 17:0.6875 18:0.875 19:0.75 20:0.5 21:0.5625 22:0.5 23:0.75 24:0.4375 25:0.375 26:0.1875 27:0.5 28:0.6875 
0.3427058826325266 1:0.5 2:0.6875 3:0.5625 4:0.875 5:0.75 6:0.875 7:0.8125 8:0.5625 9:0.5 10:0.5 11:1.0 12:1.0 13:0.75 14:0.1875 15:0.375 16:0.5 17:0.5 18:0.5 19:0.5625 20:0.5 21:0.5 22:0.875 23:0.75 24:0.75 25:0.875 26:0.5625 27:0.625 28:1.0 
0.06756213479842896 1:0.5 2:0.9375 3:0.9375 4:0.9375 5:1.0 6:0.8125 7:0.9375 8:0.875 9:0.625 10:0.875 11:0.9375 12:0.625 13:1.0 14:0.125 15:0.9375 16:0.8125 17:0.375 18:0.5625 19:0.75 20:0.625 21:0.0625 22:0.625 23:0.3125 24:0.0625 25:0.375 26:0.125 27:0.375 28:0.8125 
0.08225466361598092 1:0.5 2:0.0625 3:0.75 4:0.5 5:0.625 6:0.5625 7:0.5625 8:0.0625 9:0.4375 10:0.125 11:0.25 12:0.375 13:0.25 14:0.8125 15:0.5 16:0.625 17:1.0 18:0.5625 19:0.1875 20:0.1875 21:0.5 22:0.4375 23:0.9375 24:0.9375 25:0.875 26:0.5625 27:0.0625 28:0.1875 
-0.3015891312028411 1:0.25 2:0.5625 3:0.1875 4:0.375 5:0.5 6:0.375 7:0.3125 8:0.5625 9:0.1875 10:0.5 11:0.8125 12:0.8125 13:0.6875 14:0.25 15:0.25 16:0.1875 17:0.375 18:0.375 19:0.4375 20:0.9375 21:0.875 22:1.0 23:0.875 24:0.6875 25:0.625 26:0.5 27:0.125 28:0.1875 
-0.11057731178863722 1:0.3125 2:0.1875 3:0.3125 4:0.25 5:0.4375 6:0.625 7:0.125 8:0.4375 9:0.5 10:0.3125 11:0.375 12:0.5625 13:0.5625 14:0.875 15:0.125 16:0.3125 17:0.9375 18:0.8125 19:0.1875 20:0.0625 21:0.625 22:0.5 23:0.5 24:0.8125 25:0.5625 26:0.9375 27:0.5625 28:0.5 
0.1281285964598055 1:0.1875 2:0.4375 3:0.5 4:0.1875 5:0.625 6:0.5 7:0.8125 8:0.5625 9:1.0 10:0.8125 11:0.9375 12:0.5 13:0.875 14:0.625 15:0.4375 16:0.5625 17:0.3125 18:0.5 19:0.3125 20:0.6875 21:0.25 22:0.5 23:0.75 24:0.8125 25:0.75 26:0.375 27:0.5 28:0.5 
-0.09480612466265187 1:0.0625 2:0.5 3:0.625 4:0.4375 5:0.75 6:0.5 7:0.5 8:0.8125 9:0.875 10:0.5 11:0.75 12:0.875 13:0.625 14:0.5 15:0.5 16:0.875 17:0.6875 18:0.5 19:0.0 20:0.8125 21:0.125 22:0.5 23:0.875 24:0.875 25:0.5 26:0.125 27:0.1875 28:0.5625 
0.04590268751034084 1:1.0 2:0.5 3:0.8125 4:0.75 5:0.625 6:0.75 7:0.875 8:0.3125 9:0.5 10:0.25 11:0.3125 12:0.3125 13:0.1875 14:1.0 15:0.6875 16:0.875 17:1.0 18:0.6875 19:0.0 20:0.25 21:0.0625 22:0.3125 23:0.5 24:0.875 25:0.5625 26:0.5625 27:0.375 28:0.6875 
0.5234554574985432 1:0.5 2:0.625 3:0.625 4:1.0 5:0.6875 6:0.1875 7:0.5 8:1.0 9:0.8125 10:0.9375 11:0.4375 12:0.3125 13:0.5625 14:0.5 15:0.5625 16:0.0625 17:0.3125 18:0.5 19:0.625 20:0.3125 21:0.375 22:0.25 23:0.0625 24:0.1875 25:0.4375 26:0.5 27:0.6875 28:0.5 
-0.07000022957497 1:0.4375 2:0.5 3:0.5625 4:0.5 5:0.0 6:0.3125 7:0.6875 8:0.8125 9:1.0 10:0.6875 11:0.625 12:0.5 13:0.625 14:0.75 15:0.625 16:0.3125 17:0.1875 18:0.1875 19:0.4375 20:0.125 21:0.375 22:0.4375 23:0.1875 24:0.0625 25:0.5 26:0.625 27:0.5 28:0.5 
-0.19271143975404026 1:0.9375 2:0.375 3:0.25 4:0.9375 5:0.6875 6:0.5 7:0.6875 8:0.1875 9:0.375 10:0.875 11:0.5 12:0.25 13:0.375 14:0.3125 15:1.0 16:1.0 17:0.625 18:1.0 19:0.8125 20:0.875 21:0.625 22:0.6875 23:0.4375 24:0.375 25:0.5625 26:0.375 27:0.3125 28:0.5 
-0.13809848273832334 1:0.9375 2:0.9375 3:0.8125 4:0.5 5:0.5625 6:0.875 7:0.6875 8:0.5 9:0.75 10:0.3125 11:0.625 12:0.9375 13:0.9375 14:0.875 15:0.5 16:0.625 17:0.4375 18:0.6875 19:0.1875 20:0.25 21:0.0 22:0.5 23:0.5 24:0.6875 25:0.8125 26:0.5 27:0.5625 28:0.625 
-0.0785902311930559 1:0.75 2:0.5625 3:0.8125 4:0.625 5:0.25 6:0.3125 7:0.5625 8:0.375 9:0.25 10:0.4375 11:0.0 12:0.375 13:0.125 14:0.8125 15:0.1875 16:0.25 17:0.375 18:0.1875 19:0.0625 20:0.3125 21:0.125 22:0.1875 23:0.5 24:0.375 25:0.4375 26:0.5 27:0.5 28:0.5 
0.1790429925240249 1:0.625 2:0.25 3:0.5 4:0.5 5:0.6875 6:0.8125 7:0.75 8:0.5 9:0.5 10:0.8125 11:0.625 12:0.6875 13:0.5 14:0.6875 15:0.875 16:0.9375 17:0.875 18:1.0 19:0.5625 20:0.625 21:0.9375 22:0.8125 23:0.375 24:0.875 25:0.5 26:0.5 27:0.25 28:0.25 
0.19138341722577235 1:0.0 2:0.25 3:0.4375 4:0.125 5:0.4375 6:0.375 7:0.4375 8:0.375 9:0.5 10:0.4375 11:0.75 12:0.5625 13:0.9375 14:0.5625 15:0.3125 16:0.5 17:0.5625 18:0.5625 19:0.5 20:0.5625 21:0.9375 22:0.5 23:0.75 24:0.875 25:0.5625 26:0.5625 27:0.9375 28:0.625 
0.03363701644343316 1:0.875 2:0.9375 3:0.5625 4:0.5 5:0.3125 6:1.0 7:0.8125 8:0.1875 9:0.0 10:0.3125 11:0.125 12:0.3125 13:0.25 14:0.125 15:0.5 16:0.0625 17:0.5 18:0.5 19:0.5625 20:0.6875 21:0.75 22:0.75 23:0.625 24:0.8125 25:0.5625 26:0.6875 27:0.5 28:0.5625 
-0.15815435536164846 1:0.25 2:0.5 3:0.0625 4:0.5625 5:0.375 6:0.1875 7:0.3125 8:0.5 9:0.4375 10:0.625 11:0.3125 12:0.5 13:0.4375 14:0.4375 15:0.625 16:0.125 17:0.625 18:0.375 19:0.875 20:1.0 21:0.625 22:0.9375 23:0.3125 24:0.5 25:0.125 26:0.5 27:0.5 28:0.4375 
-0.24724221541826433 1:0.25 2:0.5625 3:1.0 4:0.5 5:0.5625 6:0.875 7:0.5 8:0.6875 9:0.6875 10:1.0 11:1.0 12:0.875 13:0.875 14:1.0 15:0.8125 16:0.8125 17:0.8125 18:0.8125 19:0.3125 20:0.3125 21:0.5 22:0.5625 23:0.4375 24:0.3125 25:0.5 26:0.5 27:0.5 28:0.5 
-0.03627911665952063 1:0.125 2:0.3125 3:0.1875 4:0.3125 5:0.25 6:0.125 7:0.25 8:0.8125 9:0.6875 10:0.75 11:0.8125 12:1.0 13:0.875 14:0.5 15:0.0625 16:0.25 17:0.5 18:0.375 19:0.4375 20:0.125 21:0.1875 22:0.0625 23:0.375 24:0.5 25:0.3125 26:0.5 27:0.3125 28:0.3125 
-0.14098286284665917 1:0.625 2:0.5625 3:0.875 4:1.0 5:0.5 6:0.6875 7:0.375 8:0.5625 9:0.6875 10:0.75 11:0.1875 12:0.625 13:0.3125 14:0.625 15:0.5 16:0.5 17:0.4375 18:0.0 19:0.1875 20:0.3125 21:0.125 22:0.1875 23:0.375 24:0.0 25:0.0625 26:0.625 27:0.5 28:0.5 
-0.017593277754161633 1:0.5 2:0.375 3:0.0625 4:0.4375 5:0.8125 6:0.125 7:0.375 8:0.125 9:0.25 10:0.25 11:0.625 12:0.4375 13:0.5 14:0.5 15:0.5 16:1.0 17:0.25 18:0.8125 19:1.0 20:0.875 21:0.5625 22:0.625 23:0.875 24:0.6875 25:0.75 26:0.1875 27:0.375 28:0.5625 
0.07491577586826516 1:0.375 2:0.0 3:0.4375 4:0.5 5:0.0 6:0.9375 7:0.5625 8:0.0 9:0.4375 10:0.8125 11:0.375 12:0.5 13:0.5 14:0.375 15:0.6875 16:0.4375 17:0.9375 18:0.8125 19:0.875 20:0.5 21:0.8125 22:1.0 23:0.1875 24:0.4375 25:0.375 26:0.8125 27:0.8125 28:0.375 
-0.2582687720513311 1:0.5 2:0.375 3:0.8125 4:0.8125 5:0.5 6:0.0625 7:0.0625 8:0.375 9:0.6875 10:0.5 11:0.75 12:0.375 13:0.125 14:0.875 15:1.0 16:0.5625 17:0.5 18:0.5 19:0.0625 20:0.3125 21:0.0 22:0.125 23:0.5 24:0.0 25:0.125 26:0.3125 27:0.375 28:0.9375 
-0.4125675405799256 1:0.0625 2:0.1875 3:1.0 4:0.9375 5:0.4375 6:0.6875 7:0.8125 8:0.375 9:0.625 10:0.875 11:0.5 12:0.625 13:0.5 14:1.0 15:0.75 16:0.5 17:0.75 18:0.6875 19:0.5625 20:0.0625 21:0.0625 22:0.1875 23:0.0 24:0.5 25:0.4375 26:0.6875 27:0.625 28:0.5 
0.017890119760197092 1:0.875 2:0.5 3:0.3125 4:0.5 5:0.375 6:1.0 7:1.0 8:0.375 9:0.3125 10:0.1875 11:0.0625 12:0.5 13:0.5625 14:0.5625 15:0.5 16:0.1875 17:0.5625 18:0.9375 19:0.375 20:0.25 21:0.75 22:1.0 23:0.1875 24:1.0 25:0.5625 26:0.625 27:0.875 28:0.375 
-0.13049149803745147 1:0.6875 2:0.875 3:0.875 4:0.9375 5:0.5 6:0.9375 7:0.9375 8:0.5 9:0.5 10:0.5 11:0.125 12:0.0625 13:0.5 14:0.625 15:0.625 16:0.1875 17:0.3125 18:0.4375 19:0.375 20:0.5 21:0.0 22:0.5 23:0.4375 24:0.0 25:0.1875 26:0.375 27:0.5 28:0.8125 
0.28231554934049696 1:0.6875 2:0.0 3:0.625 4:0.875 5:0.9375 6:0.125 7:0.5625 8:0.0625 9:0.5 10:0.5 11:0.625 12:0.0625 13:0.5 14:0.875 15:0.75 16:0.6875 17:0.75 18:0.75 19:0.6875 20:0.6875 21:0.375 22:1.0 23:0.5625 24:0.375 25:0.5625 26:0.3125 27:0.5 28:0.75 
0.4890939957151038 1:0.4375 2:0.8125 3:0.625 4:0.8125 5:0.0 6:0.75 7:0.375 8:1.0 9:0.9375 10:0.9375 11:0.375 12:0.5 13:0.625 14:0.375 15:0.5 16:0.0 17:0.3125 18:0.5 19:0.5625 20:0.0 21:0.5 22:0.0625 23:0.0 24:0.1875 25:0.0625 26:1.0 27:0.625 28:0.5 
0.05108869142756019 1:0.4375 2:1.0 3:0.375 4:0.4375 5:0.875 6:0.4375 7:0.5 8:1.0 9:0.4375 10:0.6875 11:0.5625 12:0.375 13:0.4375 14:0.25 15:0.125 16:0.5625 17:0.4375 18:0.3125 19:0.5625 20:0.8125 21:0.5625 22:0.625 23:0.5625 24:0.25 25:0.4375 26:0.4375 27:0.25 28:0.5625 
0.08447711209174838 1:0.625 2:0.625 3:0.5 4:0.625 5:0.3125 6:0.5625 7:0.75 8:1.0 9:0.5 10:0.4375 11:0.375 12:0.5625 13:0.875 14:0.5 15:0.0 16:0.0625 17:0.1875 18:0.0 19:0.5 20:0.4375 21:0.5 22:0.4375 23:0.4375 24:0.5 25:0.5 26:0.625 27:0.8125 28:0.6875 
-0.1301023725856008 1:0.5 2:0.25 3:0.6875 4:0.375 5:0.5 6:0.5 7:0.125 8:0.4375 9:0.375 10:0.0 11:0.0 12:0.1875 13:0.25 14:0.8125 15:0.5 16:0.5 17:0.3125 18:0.375 19:0.0 20:0.4375 21:0.1875 22:0.25 23:0.625 24:0.75 25:0.5 26:0.625 27:0.0 28:0.5 
0.21263427038453242 1:0.8125 2:0.5625 3:0.8125 4:0.5625 5:1.0 6:0.8125 7:0.5625 8:0.6875 9:0.9375 10:0.625 11:0.875 12:0.8125 13:0.5 14:0.9375 15:0.1875 16:0.625 17:0.5 18:0.4375 19:0.1875 20:0.0 21:0.25 22:0.125 23:0.75 24:0.5 25:0.3125 26:0.3125 27:0.375 28:0.25 
0.002324959622786926 1:0.25 2:0.5 3:0.4375 4:0.25 5:0.3125 6:0.4375 7:0.6875 8:0.4375 9:0.5625 10:0.0625 11:0.3125 12:0.1875 13:0.6875 14:0.4375 15:0.1875 16:0.375 17:0.375 18:0.8125 19:0.0 20:0.5625 21:0.125 22:0.8125 23:0.75 24:0.375 25:0.9375 26:0.25 27:0.6875 28:1.0 
0.43674371230203585 1:0.5 2:0.125 3:0.125 4:1.0 5:0.25 6:0.3125 7:0.4375 8:0.5 9:0.4375 10:0.6875 11:0.5625 12:0.5 13:0.625 14:0.25 15:0.9375 16:0.5 17:0.625 18:0.8125 19:0.6875 20:0.8125 21:1.0 22:0.625 23:0.3125 24:0.3125 25:0.5 26:0.625 27:0.5 28:0.5625 
-0.09386318656870708 1:0.3125 2:0.375 3:0.25 4:0.375 5:0.0625 6:0.4375 7:0.125 8:0.3125 9:0.375 10:0.0 11:0.125 12:0.1875 13:0.5 14:0.6875 15:0.3125 16:0.25 17:0.9375 18:0.5 19:0.0625 20:0.125 21:0.5625 22:0.4375 23:0.5625 24:0.8125 25:0.625 26:0.9375 27:0.875 28:0.5 
-0.30513424484789803 1:0.875 2:0.5 3:0.75 4:0.75 5:0.5 6:0.75 7:1.0 8:0.0 9:0.5 10:0.25 11:0.5 12:0.5 13:0.625 14:1.0 15:0.6875 16:0.5625 17:0.5 18:0.625 19:0.0 20:0.125 21:0.125 22:0.5 23:0.4375 24:0.5625 25:0.75 26:0.875 27:0.8125 28:0.4375 
-0.286122995825007 1:0.5 2:0.5 3:0.375 4:0.375 5:0.6875 6:0.5 7:0.5 8:0.0625 9:0.0625 10:0.4375 11:0.3125 12:0.125 13:0.875 14:0.5 15:0.9375 16:0.8125 17:0.625 18:0.9375 19:0.8125 20:0.75 21:0.5625 22:0.8125 23:0.5 24:0.4375 25:0.6875 26:0.5 27:0.8125 28:0.75 
-0.0313357689887547 1:0.375 2:0.75 3:0.5 4:0.0625 5:0.5 6:0.4375 7:0.0 8:0.75 9:0.9375 10:0.5 11:0.8125 12:0.75 13:0.5625 14:0.8125 15:0.375 16:0.5 17:0.5 18:0.25 19:0.0625 20:0.0 21:0.25 22:0.0625 23:0.75 24:0.9375 25:1.0 26:0.5 27:0.3125 28:0.25 
-0.0413345618420993 1:0.0625 2:0.3125 3:0.5 4:0.125 5:0.0 6:0.0 7:0.25 8:0.125 9:0.75 10:0.375 11:0.5 12:0.4375 13:0.3125 14:0.9375 15:0.5 16:0.625 17:0.9375 18:0.5625 19:0.1875 20:0.0 21:0.5 22:0.25 23:0.4375 24:0.5625 25:0.5 26:0.625 27:0.625 28:0.5625 
0.4501006344543514 1:0.25 2:0.5 3:0.5 4:0.625 5:0.3125 6:0.0625 7:0.25 8:0.6875 9:0.9375 10:0.9375 11:1.0 12:0.5625 13:0.4375 14:0.8125 15:0.75 16:0.875 17:0.4375 18:0.1875 19:0.5 20:0.375 21:0.1875 22:0.0625 23:0.5 24:0.1875 25:0.25 26:0.4375 27:0.375 28:0.5625 
-0.27428952573757975 1:0.5 2:1.0 3:0.375 4:0.875 5:0.5 6:0.5625 7:0.8125 8:0.6875 9:0.5 10:0.875 11:0.75 12:0.6875 13:0.5625 14:0.4375 15:0.4375 16:0.3125 17:0.75 18:0.5625 19:0.9375 20:0.625 21:1.0 22:0.875 23:0.1875 24:0.5 25:0.625 26:0.5625 27:0.625 28:0.5 
0.865214971895737 1:0.5 2:0.25 3:0.75 4:0.875 5:0.625 6:0.75 7:0.875 8:0.125 9:0.5625 10:0.6875 11:0.75 12:0.5 13:0.875 14:0.6875 15:0.8125 16:0.625 17:0.6875 18:0.9375 19:0.5 20:0.4375 21:0.3125 22:0.25 23:0.3125 24:0.0625 25:0.5 26:0.3125 27:0.5625 28:0.4375 
-0.2282937753437845 1:0.3125 2:0.75 3:1.0 4:0.8125 5:0.5 6:0.4375 7:0.375 8:1.0 9:0.8125 10:0.875 11:0.6875 12:0.75 13:0.625 14:0.5 15:0.375 16:0.125 17:0.0625 18:0.0 19:0.1875 20:0.5625 21:0.0625 22:0.3125 23:0.5625 24:0.375 25:0.3125 26:0.0625 27:0.125 28:0.75 
0.4824589795615775 1:0.625 2:0.25 3:0.6875 4:0.9375 5:1.0 6:0.3125 7:0.625 8:0.0625 9:0.0625 10:0.5 11:0.375 12:0.0 13:0.4375 14:0.4375 15:0.8125 16:0.9375 17:0.375 18:0.625 19:0.625 20:0.8125 21:0.1875 22:0.8125 23:0.25 24:0.125 25:0.4375 26:0.0625 27:0.5 28:0.8125 
0.024164855225436335 1:0.3125 2:0.375 3:0.375 4:0.4375 5:0.5 6:0.0 7:0.1875 8:0.625 9:0.5625 10:0.375 11:0.6875 12:0.375 13:0.5 14:0.4375 15:0.25 16:0.5 17:0.0625 18:0.125 19:0.5 20:0.8125 21:0.5 22:0.4375 23:0.75 24:0.4375 25:0.3125 26:0.1875 27:0.5 28:0.4375 
0.01664133093941786 1:0.3125 2:0.3125 3:0.3125 4:0.625 5:0.25 6:0.125 7:0.4375 8:0.875 9:0.8125 10:0.625 11:0.5 12:0.75 13:0.9375 14:0.625 15:0.875 16:0.375 17:0.5625 18:0.8125 19:0.5625 20:0.5 21:0.5 22:0.5 23:0.125 24:0.5 25:0.5 26:0.4375 27:0.5 28:0.5 
0.09981369403113183 1:0.875 2:0.0 3:0.5625 4:0.25 5:0.3125 6:0.5 7:0.4375 8:0.3125 9:0.125 10:0.0 11:0.1875 12:0.4375 13:0.0625 14:0.5625 15:0.3125 16:0.3125 17:0.625 18:0.5 19:0.5 20:0.0625 21:0.75 22:0.375 23:0.125 24:0.8125 25:0.1875 26:1.0 27:0.5625 28:0.1875 
-0.047653101531808566 1:0.9375 2:0.5 3:0.8125 4:0.625 5:0.375 6:0.6875 7:1.0 8:0.125 9:0.5625 10:0.5 11:0.4375 12:0.1875 13:0.875 14:0.9375 15:0.6875 16:0.5 17:0.4375 18:0.625 19:0.6875 20:0.125 21:0.25 22:0.875 23:0.125 24:0.25 25:0.5 26:0.75 27:0.8125 28:0.6875 
0.0841253889066213 1:0.5625 2:0.5 3:0.75 4:0.8125 5:0.6875 6:0.6875 7:0.8125 8:0.3125 9:1.0 10:0.625 11:0.75 12:0.5625 13:0.75 14:0.5625 15:0.6875 16:0.9375 17:0.75 18:0.875 19:0.9375 20:0.9375 21:0.8125 22:1.0 23:0.8125 24:0.625 25:0.625 26:0.4375 27:0.5 28:0.6875 
0.504054368898803 1:0.5 2:0.5625 3:0.875 4:1.0 5:0.5 6:0.9375 7:0.5 8:0.1875 9:0.5625 10:0.875 11:0.0625 12:0.5 13:0.4375 14:0.5625 15:0.5625 16:0.4375 17:0.5 18:0.4375 19:0.5 20:0.125 21:0.75 22:0.25 23:0.0625 24:0.375 25:0.3125 26:1.0 27:0.4375 28:0.125 
0.4343570385147821 1:0.6875 2:0.5 3:0.3125 4:0.6875 5:0.4375 6:0.4375 7:1.0 8:0.0 9:0.0 10:0.5 11:0.3125 12:0.0625 13:0.5 14:0.625 15:0.9375 16:0.625 17:0.125 18:0.625 19:0.6875 20:0.6875 21:0.3125 22:0.8125 23:0.375 24:0.0 25:0.5625 26:0.1875 27:0.625 28:0.6875 
-0.08874207363429505 1:0.4375 2:0.3125 3:0.375 4:0.3125 5:0.3125 6:1.0 7:0.75 8:0.5 9:0.5 10:0.4375 11:0.0 12:0.8125 13:0.8125 14:0.3125 15:0.6875 16:0.25 17:0.875 18:0.75 19:0.5625 20:0.5 21:1.0 22:0.6875 23:0.25 24:1.0 25:0.625 26:0.875 27:1.0 28:0.25 
0.06829157997516278 1:0.125 2:0.4375 3:0.375 4:0.1875 5:0.0625 6:0.375 7:0.0625 8:0.625 9:0.5 10:0.6875 11:0.5 12:0.875 13:0.5 14:0.375 15:0.1875 16:0.25 17:0.6875 18:0.375 19:0.375 20:0.5 21:0.75 22:0.4375 23:0.75 24:0.625 25:0.5625 26:0.4375 27:0.25 28:0.5 
-0.09241228027841376 1:0.0625 2:0.125 3:0.0 4:0.25 5:0.375 6:0.125 7:0.125 8:0.75 9:0.5 10:0.5625 11:0.3125 12:0.3125 13:0.3125 14:0.125 15:0.625 16:0.0 17:0.3125 18:0.375 19:1.0 20:0.3125 21:0.375 22:0.5 23:0.25 24:0.0 25:0.4375 26:0.3125 27:0.5 28:1.0 
-0.07619737685000422 1:0.25 2:0.25 3:0.0 4:0.125 5:0.375 6:0.3125 7:0.25 8:0.4375 9:0.4375 10:0.375 11:0.875 12:0.75 13:0.6875 14:0.4375 15:0.4375 16:0.6875 17:0.25 18:0.625 19:0.1875 20:0.9375 21:0.4375 22:0.625 23:0.8125 24:0.6875 25:0.6875 26:0.4375 27:0.5 28:0.6875 
0.011655055274888334 1:0.0 2:0.4375 3:0.125 4:0.5 5:0.5625 6:0.375 7:0.125 8:0.9375 9:0.5 10:0.5625 11:0.625 12:0.5 13:0.1875 14:0.1875 15:0.5 16:0.375 17:0.125 18:0.0 19:0.625 20:1.0 21:0.6875 22:0.5625 23:0.625 24:0.4375 25:0.5 26:0.5625 27:0.25 28:0.1875 
-0.12481332941486163 1:0.5 2:0.5 3:0.5 4:0.5625 5:0.875 6:0.9375 7:0.5 8:0.5625 9:0.875 10:0.5 11:1.0 12:0.875 13:0.0625 14:0.5 15:0.8125 16:0.8125 17:0.8125 18:0.375 19:0.5 20:0.5 21:0.5 22:0.25 23:0.5625 24:0.9375 25:0.0 26:0.6875 27:0.125 28:0.1875 
-0.004496131523514196 1:0.9375 2:0.5625 3:0.75 4:0.5625 5:0.6875 6:1.0 7:0.5 8:0.375 9:0.1875 10:0.375 11:0.125 12:0.4375 13:0.4375 14:0.625 15:0.375 16:0.0625 17:0.375 18:0.375 19:0.4375 20:0.4375 21:0.5625 22:0.6875 23:0.5 24:0.75 25:0.5 26:0.6875 27:0.625 28:0.5 
0.03345413201733066 1:0.25 2:0.75 3:0.3125 4:0.5 5:0.375 6:0.0625 7:0.75 8:0.75 9:0.4375 10:0.9375 11:0.6875 12:0.375 13:0.9375 14:0.125 15:0.6875 16:0.25 17:0.25 18:0.5625 19:0.6875 20:0.75 21:0.6875 22:0.75 23:0.3125 24:0.0 25:0.625 26:0.5 27:0.5 28:0.75 
-0.09159007371284379 1:0.5 2:0.125 3:0.125 4:0.375 5:0.0 6:0.3125 7:0.375 8:0.125 9:0.4375 10:0.0625 11:0.1875 12:0.0 13:0.0 14:0.625 15:1.0 16:0.4375 17:1.0 18:0.625 19:0.875 20:0.3125 21:0.9375 22:0.5625 23:0.25 24:0.4375 25:0.5 26:0.5625 27:0.5 28:0.4375 
-0.026370243878037644 1:0.4375 2:0.5 3:0.3125 4:0.1875 5:0.1875 6:0.0 7:0.0 8:0.5625 9:0.3125 10:0.0 11:0.375 12:0.0625 13:0.3125 14:0.5 15:0.125 16:0.0625 17:0.1875 18:0.125 19:0.375 20:0.375 21:0.4375 22:0.0625 23:0.5 24:0.5625 25:0.25 26:0.0 27:0.625 28:0.5 
0.2917648457115824 1:0.5 2:0.6875 3:0.5625 4:0.75 5:0.8125 6:0.625 7:0.75 8:0.3125 9:0.5 10:0.5 11:0.4375 12:0.3125 13:0.5 14:0.75 15:0.6875 16:0.625 17:0.25 18:0.5625 19:0.5625 20:0.5625 21:0.375 22:0.5 23:0.375 24:0.3125 25:0.5 26:0.1875 27:0.3125 28:0.8125 
-0.031687113463187457 1:0.5 2:0.5 3:0.3125 4:0.3125 5:0.0 6:0.125 7:0.0 8:0.3125 9:0.0625 10:0.3125 11:0.1875 12:0.0625 13:0.1875 14:0.25 15:0.375 16:0.4375 17:0.1875 18:0.3125 19:0.875 20:0.75 21:0.4375 22:0.4375 23:0.9375 24:0.5625 25:0.0625 26:0.4375 27:0.0625 28:0.4375 
0.17461107384013935 1:0.875 2:0.5625 3:0.5 4:0.75 5:0.8125 6:0.5625 7:0.75 8:0.375 9:0.375 10:0.3125 11:0.5 12:0.25 13:0.8125 14:0.5625 15:0.5625 16:0.875 17:0.8125 18:0.625 19:0.875 20:0.75 21:0.5 22:0.5625 23:0.5 24:0.5 25:0.75 26:0.3125 27:0.625 28:0.875 
-0.20561168752964396 1:0.5 2:0.25 3:0.625 4:0.5 5:0.625 6:0.875 7:0.5 8:0.1875 9:0.875 10:0.5 11:0.75 12:0.875 13:0.5 14:0.5625 15:0.9375 16:0.5625 17:0.6875 18:0.5 19:0.375 20:0.5 21:0.625 22:0.0625 23:0.375 24:1.0 25:0.1875 26:0.625 27:0.25 28:0.375 
-0.1498377337543936 1:0.8125 2:0.1875 3:0.4375 4:0.875 5:0.5 6:0.0625 7:0.0625 8:0.1875 9:0.25 10:0.5625 11:0.5 12:0.125 13:0.5 14:0.5 15:1.0 16:1.0 17:0.5 18:0.6875 19:1.0 20:0.9375 21:0.4375 22:0.5 23:0.625 24:0.0625 25:0.1875 26:0.1875 27:0.25 28:0.375 
-0.13888631200689372 1:0.0625 2:0.3125 3:0.375 4:0.4375 5:0.3125 6:0.1875 7:0.625 8:1.0 9:0.9375 10:0.875 11:0.875 12:0.75 13:0.75 14:0.25 15:0.125 16:0.5 17:0.5 18:0.75 19:0.5625 20:0.5 21:0.5 22:1.0 23:0.5625 24:0.625 25:0.6875 26:0.3125 27:0.5625 28:0.875 
0.17439655165624512 1:0.5 2:0.8125 3:0.25 4:0.5 5:0.5 6:0.5 7:0.3125 8:0.75 9:0.375 10:0.4375 11:0.625 12:0.8125 13:0.3125 14:0.125 15:0.0625 16:0.4375 17:0.0625 18:0.125 19:0.5 20:0.8125 21:1.0 22:0.875 23:0.5625 24:0.5 25:0.5 26:0.4375 27:0.125 28:0.125 
0.13046587459147554 1:0.0 2:0.5 3:0.125 4:0.875 5:0.5 6:0.3125 7:0.875 8:0.8125 9:0.5625 10:0.8125 11:0.75 12:0.5625 13:0.9375 14:0.1875 15:0.625 16:0.5 17:0.4375 18:0.875 19:0.8125 20:0.625 21:0.5 22:0.9375 23:0.0 24:0.0 25:0.9375 26:0.5 27:0.6875 28:0.6875 
0.005782454825346276 1:0.5625 2:0.25 3:0.125 4:0.1875 5:0.4375 6:0.3125 7:0.0 8:0.5 9:0.125 10:0.3125 11:0.5 12:0.5625 13:0.125 14:0.0 15:0.25 16:0.9375 17:0.75 18:0.5 19:0.5 20:0.8125 21:0.8125 22:0.875 23:0.875 24:0.75 25:0.9375 26:0.375 27:0.1875 28:0.3125 
-0.18014668088776561 1:0.3125 2:0.4375 3:0.3125 4:0.0625 5:0.5 6:0.3125 7:0.3125 8:0.375 9:0.8125 10:0.125 11:0.5 12:0.3125 13:0.4375 14:0.625 15:0.125 16:0.5 17:0.5 18:0.125 19:0.125 20:0.5625 21:0.0 22:0.125 23:0.625 24:0.75 25:0.3125 26:0.375 27:0.125 28:0.3125 
-0.1959727065705389 1:0.5 2:0.25 3:0.375 4:0.5 5:0.5 6:0.25 7:0.5 8:0.3125 9:0.3125 10:0.5 11:0.25 12:0.5 13:0.5 14:1.0 15:0.8125 16:0.9375 17:0.5 18:0.9375 19:0.4375 20:0.625 21:0.75 22:0.6875 23:0.5 24:0.3125 25:0.625 26:0.375 27:0.6875 28:0.75 
-0.4001131398535238 1:1.0 2:0.75 3:0.6875 4:0.8125 5:0.6875 6:0.5 7:0.8125 8:0.25 9:1.0 10:0.5 11:0.4375 12:0.375 13:0.625 14:0.6875 15:0.4375 16:0.5 17:0.5 18:0.625 19:0.4375 20:0.3125 21:0.3125 22:0.5 23:0.0625 24:0.125 25:0.375 26:0.5625 27:0.8125 28:0.9375 
-0.19671332576323264 1:0.875 2:0.0625 3:0.125 4:0.5 5:0.5 6:0.3125 7:0.4375 8:0.4375 9:0.375 10:0.4375 11:0.4375 12:0.0 13:0.1875 14:0.1875 15:0.5625 16:0.4375 17:0.1875 18:0.625 19:0.8125 20:0.875 21:0.6875 22:0.9375 23:0.5 24:0.25 25:0.5 26:0.4375 27:0.6875 28:0.75 
0.24009815662164988 1:0.6875 2:0.5 3:0.5 4:0.9375 5:0.5625 6:0.625 7:0.5 8:0.1875 9:0.3125 10:0.0 11:0.5 12:0.5 13:0.0 14:0.5 15:1.0 16:0.9375 17:0.875 18:0.6875 19:0.6875 20:0.5 21:0.75 22:0.5 23:0.4375 24:0.5 25:0.0 26:0.4375 27:0.0 28:0.125 
-0.23176772444848318 1:0.8125 2:0.8125 3:0.375 4:0.5 5:0.8125 6:0.5625 7:1.0 8:0.4375 9:0.375 10:0.5 11:0.6875 12:0.5 13:0.9375 14:0.1875 15:0.125 16:0.9375 17:0.1875 18:0.5 19:0.75 20:1.0 21:0.5625 22:0.875 23:0.6875 24:0.75 25:0.875 26:0.4375 27:0.5 28:1.0 
0.01043974439218212 1:0.5 2:0.75 3:0.1875 4:0.1875 5:0.375 6:0.4375 7:0.375 8:0.625 9:0.3125 10:0.125 11:0.3125 12:0.3125 13:0.5 14:0.1875 15:0.0625 16:0.3125 17:0.125 18:0.625 19:0.5 20:0.5625 21:0.625 22:0.5 23:0.5 24:0.5 25:0.8125 26:0.5 27:0.5 28:0.9375 
0.1844751178428394 1:0.3125 2:0.5 3:0.4375 4:0.3125 5:0.75 6:0.75 7:0.5625 8:0.625 9:0.625 10:1.0 11:0.75 12:1.0 13:0.5625 14:0.25 15:0.375 16:0.375 17:0.4375 18:0.5625 19:0.5 20:0.5625 21:0.9375 22:0.5625 23:0.8125 24:0.875 25:0.625 26:0.5625 27:0.5 28:0.625 
-0.08380257349576946 1:0.5 2:0.75 3:0.875 4:0.4375 5:0.9375 6:0.625 7:0.8125 8:0.5 9:0.125 10:0.4375 11:1.0 12:0.75 13:1.0 14:0.5625 15:0.4375 16:1.0 17:0.5 18:0.75 19:0.4375 20:0.6875 21:0.875 22:1.0 23:0.9375 24:0.5625 25:1.0 26:0.375 27:0.5 28:0.625 
-0.3499669301925742 1:0.5 2:0.9375 3:0.625 4:0.9375 5:0.6875 6:0.5 7:0.5 8:1.0 9:0.375 10:0.875 11:1.0 12:0.5625 13:0.375 14:0.5 15:0.25 16:0.5 17:0.375 18:0.4375 19:0.875 20:0.9375 21:0.375 22:0.5 23:0.5 24:0.25 25:0.375 26:0.1875 27:0.125 28:0.375 
-0.43148834934191255 1:0.6875 2:0.75 3:0.5 4:0.6875 5:0.1875 6:0.75 7:0.375 8:0.0 9:0.1875 10:0.3125 11:0.125 12:0.0625 13:0.1875 14:0.5 15:0.75 16:0.1875 17:0.5625 18:0.3125 19:0.6875 20:0.1875 21:0.8125 22:0.5 23:0.0 24:0.3125 25:0.125 26:0.5625 27:0.5625 28:0.0625 
-0.13420451721688528 1:0.5625 2:0.625 3:0.9375 4:0.625 5:0.5 6:0.75 7:0.875 8:0.8125 9:0.5625 10:0.5 11:0.4375 12:0.5 13:0.5625 14:0.1875 15:0.4375 16:0.0 17:0.1875 18:0.625 19:0.3125 20:0.5 21:0.5625 22:0.5625 23:0.3125 24:0.3125 25:0.5 26:0.9375 27:0.875 28:0.75 
-0.053525136558938445 1:0.5625 2:0.75 3:0.9375 4:0.3125 5:0.5625 6:0.1875 7:0.625 8:0.4375 9:0.8125 10:0.3125 11:0.625 12:0.125 13:0.5625 14:0.625 15:0.375 16:0.5 17:0.5 18:0.5 19:0.0 20:0.5 21:0.4375 22:0.25 23:1.0 24:0.5 25:0.9375 26:0.25 27:0.125 28:0.8125 
0.004090889147908168 1:0.625 2:0.5 3:0.4375 4:0.3125 5:0.5625 6:0.875 7:0.0625 8:0.375 9:0.5625 10:0.125 11:0.5625 12:0.4375 13:0.3125 14:0.4375 15:0.3125 16:0.625 17:0.625 18:0.4375 19:0.0 20:0.6875 21:0.625 22:0.1875 23:0.875 24:0.75 25:0.5 26:0.6875 27:0.4375 28:0.25 
0.017347118819963685 1:1.0 2:0.875 3:0.5625 4:0.625 5:0.5625 6:0.5625 7:0.6875 8:0.0625 9:0.1875 10:0.0 11:0.375 12:0.0625 13:0.375 14:0.375 15:0.5 16:0.1875 17:0.5 18:0.375 19:0.9375 20:0.75 21:0.6875 22:0.625 23:0.625 24:0.75 25:0.5 26:0.5625 27:0.25 28:0.5 
0.3858769455452667 1:0.75 2:0.375 3:0.6875 4:0.6875 5:0.8125 6:0.625 7:0.75 8:0.125 9:0.5 10:0.625 11:0.5 12:0.5 13:0.625 14:0.9375 15:0.875 16:1.0 17:0.75 18:0.875 19:0.6875 20:0.0 21:0.4375 22:0.5 23:0.4375 24:0.4375 25:0.875 26:0.5 27:0.875 28:0.625 
-0.1875686197626221 1:0.375 2:0.5 3:0.5 4:0.375 5:0.375 6:0.75 7:0.375 8:0.8125 9:0.875 10:0.25 11:0.5 12:0.8125 13:1.0 14:0.1875 15:0.1875 16:0.1875 17:0.4375 18:0.5 19:0.125 20:0.3125 21:0.5 22:0.5 23:0.25 24:0.875 25:0.75 26:0.6875 27:0.8125 28:0.5 
0.03750382997053202 1:1.0 2:0.3125 3:0.5625 4:0.4375 5:1.0 6:1.0 7:0.9375 8:0.0625 9:0.25 10:0.25 11:0.125 12:0.5 13:0.5 14:0.875 15:0.8125 16:0.8125 17:0.6875 18:0.875 19:0.125 20:0.5 21:0.875 22:0.6875 23:0.5625 24:0.625 25:0.75 26:0.8125 27:0.875 28:0.3125 
0.04852311562078436 1:0.5 2:0.5625 3:0.4375 4:0.1875 5:0.375 6:0.0 7:0.4375 8:0.4375 9:0.5 10:0.0625 11:0.5 12:0.1875 13:0.25 14:0.625 15:0.1875 16:0.8125 17:0.0625 18:0.8125 19:0.1875 20:0.5 21:0.0625 22:0.75 23:0.75 24:0.4375 25:0.75 26:0.0 27:0.375 28:0.8125 
-0.2907977063057173 1:0.625 2:0.75 3:1.0 4:0.625 5:0.8125 6:0.6875 7:0.5 8:0.8125 9:0.5 10:0.375 11:0.625 12:0.3125 13:0.375 14:0.25 15:0.4375 16:0.5625 17:0.3125 18:0.0625 19:0.8125 20:0.6875 21:0.6875 22:0.0625 23:0.75 24:0.5 25:0.375 26:0.125 27:0.3125 28:0.3125 
-0.10837038314764508 1:0.8125 2:0.5 3:0.6875 4:0.25 5:0.8125 6:0.5 7:0.4375 8:0.0625 9:0.4375 10:0.0625 11:0.75 12:0.3125 13:0.3125 14:0.875 15:0.4375 16:0.9375 17:0.5 18:1.0 19:0.25 20:0.6875 21:0.25 22:0.375 23:0.6875 24:0.75 25:0.9375 26:0.4375 27:0.5 28:0.625 
-0.04778848398412797 1:0.5 2:0.75 3:0.125 4:0.4375 5:0.4375 6:0.375 7:0.75 8:0.6875 9:0.625 10:0.5 11:0.4375 12:0.4375 13:0.5625 14:0.0 15:0.3125 16:0.25 17:0.0625 18:0.5625 19:0.6875 20:0.5 21:0.25 22:0.8125 23:0.375 24:0.4375 25:0.375 26:0.4375 27:0.8125 28:0.625 
0.025683722271530863 1:0.25 2:0.375 3:0.6875 4:0.4375 5:0.5 6:0.375 7:0.375 8:0.375 9:0.875 10:0.3125 11:0.6875 12:0.5625 13:0.5625 14:0.875 15:0.5 16:0.75 17:0.625 18:0.625 19:0.5 20:0.3125 21:0.5 22:0.3125 23:0.5 24:0.8125 25:0.375 26:0.4375 27:0.375 28:0.3125 
-0.07146468023543709 1:0.4375 2:0.375 3:0.25 4:0.75 5:0.5 6:0.75 7:0.25 8:0.5625 9:0.6875 10:1.0 11:0.5625 12:0.5 13:0.125 14:0.5625 15:1.0 16:0.4375 17:0.6875 18:0.5 19:0.5625 20:0.4375 21:0.9375 22:0.0625 23:0.0 24:0.5 25:0.0 26:0.625 27:0.4375 28:0.3125 
0.24480817522668905 1:0.5 2:0.625 3:0.8125 4:0.6875 5:0.5625 6:0.875 7:0.6875 8:0.4375 9:0.4375 10:0.5 11:0.5 12:0.5 13:0.4375 14:0.5625 15:0.375 16:0.375 17:0.6875 18:0.875 19:0.125 20:0.375 21:0.4375 22:0.375 23:0.5 24:0.9375 25:0.8125 26:1.0 27:0.6875 28:0.5625 
-0.13505606636120193 1:0.5 2:0.3125 3:0.5625 4:0.4375 5:0.6875 6:0.0625 7:0.625 8:0.3125 9:0.5625 10:0.3125 11:0.5 12:0.0625 13:0.25 14:0.5625 15:0.1875 16:0.5 17:0.0625 18:0.5625 19:0.1875 20:0.375 21:0.0 22:0.0 23:0.875 24:0.1875 25:0.5625 26:0.3125 27:0.0625 28:0.8125 
0.42340772217813355 1:0.4375 2:1.0 3:0.8125 4:0.8125 5:0.75 6:0.5625 7:0.75 8:0.6875 9:1.0 10:0.5625 11:0.8125 12:0.5 13:0.5 14:0.3125 15:0.5 16:0.6875 17:0.25 18:0.1875 19:0.75 20:0.75 21:0.4375 22:0.5 23:0.5625 24:0.5 25:0.5 26:0.3125 27:0.375 28:0.5 
0.08861217709103988 1:0.375 2:0.4375 3:0.5 4:0.3125 5:0.0625 6:0.75 7:0.625 8:0.4375 9:0.8125 10:0.625 11:0.625 12:0.75 13:0.625 14:0.8125 15:0.25 16:0.5625 17:0.9375 18:0.6875 19:0.375 20:0.1875 21:0.75 22:0.3125 23:0.5625 24:1.0 25:0.5625 26:0.875 27:0.6875 28:0.375 
0.323061857138884 1:0.625 2:0.5625 3:0.8125 4:0.5625 5:0.6875 6:0.625 7:0.5625 8:0.5 9:0.6875 10:0.25 11:0.5625 12:0.0 13:0.0625 14:0.6875 15:0.25 16:0.4375 17:0.1875 18:0.1875 19:0.0 20:0.5 21:0.3125 22:0.5 23:0.875 24:0.625 25:0.6875 26:0.25 27:0.0 28:0.5 
0.01948753703726488 1:0.5 2:0.5 3:0.5625 4:0.5 5:0.75 6:0.0625 7:0.625 8:0.8125 9:0.75 10:0.6875 11:0.875 12:0.6875 13:0.875 14:0.5625 15:0.8125 16:0.875 17:0.25 18:0.5625 19:0.5 20:0.75 21:0.4375 22:0.5625 23:0.9375 24:0.1875 25:0.875 26:0.0 27:0.125 28:0.625 
0.21483688767905612 1:0.5625 2:0.25 3:0.3125 4:0.625 5:0.0 6:0.5 7:0.25 8:0.0625 9:0.3125 10:0.5 11:0.25 12:0.5 13:0.0 14:0.5 15:0.8125 16:0.5 17:0.625 18:0.625 19:0.75 20:0.0 21:0.8125 22:0.5625 23:0.3125 24:0.0 25:0.5 26:0.875 27:0.6875 28:0.25 
0.36374124964447785 1:0.25 2:0.875 3:0.75 4:0.9375 5:0.5625 6:0.25 7:0.625 8:1.0 9:0.9375 10:0.6875 11:0.625 12:0.5 13:0.5 14:0.4375 15:0.4375 16:0.3125 17:0.0 18:0.3125 19:0.625 20:0.4375 21:0.375 22:0.6875 23:0.3125 24:0.0625 25:0.5 26:0.1875 27:1.0 28:0.8125 
0.013016773890381656 1:0.75 2:0.6875 3:0.4375 4:0.75 5:0.6875 6:0.8125 7:0.6875 8:0.625 9:0.4375 10:0.6875 11:0.9375 12:0.875 13:1.0 14:0.25 15:0.25 16:0.375 17:0.625 18:0.125 19:0.5625 20:0.8125 21:0.75 22:0.5625 23:0.5 24:0.9375 25:0.3125 26:0.5625 27:0.375 28:0.375 
0.18283404034406991 1:0.5625 2:0.625 3:0.6875 4:0.375 5:0.3125 6:0.0 7:0.5 8:0.5 9:0.4375 10:0.4375 11:0.5 12:0.0625 13:0.4375 14:0.5 15:0.3125 16:0.125 17:0.375 18:0.3125 19:0.3125 20:0.375 21:0.0 22:0.5 23:0.625 24:0.375 25:0.3125 26:0.25 27:0.625 28:0.5 
0.10793872315948269 1:0.3125 2:0.625 3:0.5625 4:0.25 5:0.5 6:0.3125 7:0.9375 8:1.0 9:0.9375 10:0.0 11:0.5 12:0.9375 13:1.0 14:0.5 15:0.3125 16:0.1875 17:0.4375 18:0.4375 19:0.125 20:0.5 21:0.375 22:0.5625 23:0.5625 24:0.75 25:0.75 26:0.625 27:0.6875 28:0.5625 
-0.29976887758460985 1:0.75 2:0.8125 3:0.8125 4:0.75 5:0.6875 6:1.0 7:0.625 8:0.5625 9:0.5 10:0.4375 11:0.375 12:0.5 13:0.3125 14:0.3125 15:0.3125 16:0.25 17:0.25 18:0.0 19:0.625 20:0.5 21:0.6875 22:0.5 23:0.125 24:0.5 25:0.6875 26:0.4375 27:0.5 28:0.4375 
-0.18436910936711254 1:0.5 2:0.0 3:0.0 4:0.5 5:0.3125 6:0.4375 7:0.5 8:0.5 9:0.5 10:0.6875 11:0.1875 12:0.5625 13:1.0 14:0.375 15:0.875 16:0.5625 17:0.5 18:0.75 19:0.8125 20:0.75 21:0.875 22:0.625 23:0.0625 24:0.25 25:0.625 26:0.5 27:1.0 28:1.0 
-0.08452479207810236 1:0.5 2:0.5 3:0.375 4:0.8125 5:0.6875 6:0.0625 7:0.5 8:0.4375 9:0.375 10:0.875 11:0.3125 12:0.125 13:0.6875 14:0.0625 15:0.6875 16:0.625 17:0.4375 18:0.6875 19:1.0 20:0.625 21:0.5625 22:1.0 23:0.375 24:0.0 25:0.1875 26:0.0625 27:1.0 28:0.9375 
0.06775250893534784 1:0.875 2:0.5 3:0.625 4:0.5 5:0.4375 6:0.5 7:0.6875 8:0.25 9:0.25 10:0.0 11:0.0625 12:0.0625 13:0.0625 14:0.8125 15:0.5 16:0.5 17:0.75 18:0.875 19:0.375 20:0.125 21:0.0625 22:0.375 23:0.5 24:0.75 25:0.875 26:0.5 27:0.5 28:0.3125 
0.07642457504131514 1:0.75 2:0.5 3:0.125 4:0.5 5:0.0 6:0.0 7:0.1875 8:0.5625 9:0.25 10:0.5 11:0.0625 12:0.375 13:0.5 14:0.0 15:0.5 16:0.0 17:0.125 18:0.25 19:0.625 20:0.5 21:1.0 22:0.875 23:0.0 24:0.0 25:0.5 26:0.75 27:0.625 28:0.9375 
0.02392340037710806 1:0.125 2:0.25 3:0.3125 4:0.5 5:0.375 6:0.875 7:0.75 8:0.625 9:0.625 10:0.8125 11:0.4375 12:0.75 13:0.75 14:0.5 15:0.8125 16:0.4375 17:0.625 18:1.0 19:0.5 20:0.25 21:0.5625 22:0.875 23:0.0625 24:0.8125 25:0.5 26:0.75 27:0.6875 28:0.25 
0.08586879317002125 1:0.3125 2:0.0625 3:0.0 4:0.375 5:0.0 6:0.375 7:0.3125 8:0.0 9:0.25 10:0.5 11:0.0625 12:0.4375 13:0.4375 14:0.5625 15:0.9375 16:0.5 17:0.5625 18:0.625 19:0.6875 20:0.6875 21:0.4375 22:0.875 23:0.375 24:0.125 25:0.5 26:0.9375 27:1.0 28:0.875 
0.33169164002068063 1:0.5625 2:0.5 3:0.5 4:0.9375 5:0.6875 6:0.9375 7:0.5 8:0.25 9:0.0 10:0.0625 11:0.125 12:0.4375 13:0.125 14:0.3125 15:0.8125 16:0.4375 17:1.0 18:0.5 19:0.75 20:0.875 21:1.0 22:0.5 23:0.1875 24:0.625 25:0.25 26:0.9375 27:0.0625 28:0.25 
0.016223103620900233 1:0.0 2:0.5625 3:0.6875 4:0.75 5:0.0 6:0.5 7:0.375 8:0.9375 9:0.9375 10:1.0 11:0.8125 12:0.8125 13:0.375 14:0.25 15:0.8125 16:0.4375 17:0.4375 18:0.1875 19:0.5 20:0.5 21:0.4375 22:0.25 23:0.375 24:0.4375 25:0.0625 26:0.5625 27:0.4375 28:0.3125 
-0.09402172518826099 1:0.5 2:0.4375 3:0.5 4:0.5 5:0.1875 6:0.8125 7:0.0625 8:0.5 9:0.875 10:0.1875 11:0.125 12:0.6875 13:0.1875 14:0.625 15:0.3125 16:0.3125 17:0.875 18:0.25 19:0.0 20:0.3125 21:0.5 22:0.25 23:0.3125 24:0.75 25:0.0 26:0.6875 27:0.125 28:0.0625 
-0.024634618559600578 1:0.8125 2:0.5625 3:0.8125 4:0.5625 5:0.9375 6:0.8125 7:0.75 8:0.875 9:0.6875 10:0.4375 11:0.5 12:0.5625 13:0.6875 14:0.5 15:0.5 16:0.625 17:0.5625 18:0.6875 19:0.3125 20:0.4375 21:0.4375 22:0.5625 23:0.75 24:0.5 25:0.5 26:0.5625 27:0.375 28:0.4375 
-0.0029852993699260033 1:0.6875 2:1.0 3:0.625 4:0.25 5:0.6875 6:0.75 7:0.9375 8:0.5 9:0.4375 10:0.1875 11:0.5 12:0.125 13:0.3125 14:0.25 15:0.125 16:0.5 17:0.3125 18:0.5 19:0.375 20:0.8125 21:0.5 22:0.5625 23:0.875 24:0.6875 25:0.5 26:0.625 27:0.5 28:0.5 
-0.18260752237514746 1:0.5 2:0.5 3:0.9375 4:0.625 5:0.9375 6:0.25 7:0.625 8:0.3125 9:0.5625 10:0.5 11:0.75 12:0.5 13:0.875 14:0.5 15:0.375 16:0.75 17:0.375 18:0.625 19:0.25 20:0.5 21:0.3125 22:0.8125 23:0.5 24:0.25 25:1.0 26:0.0625 27:0.5 28:0.9375 
-0.13750392720882493 1:0.375 2:0.25 3:0.5 4:0.375 5:0.375 6:0.125 7:0.0625 8:0.5625 9:0.5625 10:0.8125 11:0.6875 12:0.8125 13:0.3125 14:0.5 15:1.0 16:0.625 17:0.5 18:0.375 19:0.8125 20:0.6875 21:0.75 22:0.0625 23:0.125 24:0.375 25:0.1875 26:0.6875 27:0.3125 28:0.1875 
0.2197705037106286 1:0.6875 2:0.875 3:0.5 4:1.0 5:0.5 6:0.875 7:0.6875 8:0.625 9:0.125 10:0.625 11:0.5 12:0.625 13:0.375 14:0.0625 15:0.5 16:0.0 17:0.5 18:0.0625 19:0.9375 20:1.0 21:0.75 22:0.6875 23:0.0625 24:0.0 25:0.5 26:0.6875 27:0.9375 28:0.4375 
0.13243571364413406 1:0.25 2:0.5 3:0.5625 4:0.1875 5:0.125 6:0.4375 7:0.1875 8:0.5 9:0.5 10:0.5 11:0.5 12:0.75 13:0.4375 14:0.3125 15:0.3125 16:0.3125 17:0.3125 18:0.0625 19:0.5 20:0.3125 21:0.5 22:0.125 23:0.375 24:0.875 25:0.4375 26:0.75 27:0.8125 28:0.1875 
0.05735474690097112 1:0.4375 2:0.3125 3:0.3125 4:0.625 5:0.875 6:0.1875 7:0.25 8:0.5 9:0.8125 10:0.625 11:0.6875 12:0.375 13:0.5 14:0.8125 15:0.9375 16:1.0 17:0.5625 18:0.5625 19:0.625 20:0.75 21:0.375 22:0.125 23:0.4375 24:0.4375 25:0.0625 26:0.0 27:0.0625 28:0.4375 
0.17445410928080074 1:0.1875 2:0.375 3:0.1875 4:0.125 5:0.1875 6:0.125 7:0.4375 8:0.875 9:0.625 10:0.6875 11:0.625 12:0.75 13:0.875 14:0.3125 15:0.3125 16:0.125 17:0.5 18:0.6875 19:0.5 20:0.5 21:0.5 22:0.9375 23:0.5 24:0.5625 25:0.8125 26:0.625 27:0.5 28:0.25 
0.06734319952894084 1:0.375 2:1.0 3:0.6875 4:0.5625 5:0.875 6:0.9375 7:0.5 8:0.75 9:0.5 10:0.625 11:0.75 12:0.5625 13:0.875 14:0.125 15:0.125 16:0.5 17:0.25 18:0.1875 19:0.375 20:0.875 21:0.625 22:0.4375 23:1.0 24:0.8125 25:0.375 26:0.125 27:0.125 28:0.375 
0.029990758400151092 1:0.5625 2:0.8125 3:0.125 4:0.5625 5:0.5 6:0.625 7:0.6875 8:0.875 9:0.5 10:0.75 11:0.6875 12:0.375 13:0.5 14:0.125 15:0.375 16:0.1875 17:0.3125 18:0.375 19:0.5 20:0.625 21:0.6875 22:0.9375 23:0.5 24:0.5 25:0.625 26:0.5 27:0.6875 28:0.6875 
-0.16026742513646355 1:0.3125 2:0.375 3:0.3125 4:0.0625 5:0.0625 6:0.375 7:0.3125 8:0.5625 9:0.1875 10:0.375 11:0.375 12:0.4375 13:0.5 14:0.125 15:0.25 16:0.1875 17:0.0625 18:0.0625 19:0.4375 20:0.5 21:0.875 22:0.875 23:0.5625 24:0.5625 25:1.0 26:0.75 27:0.75 28:0.875 
-0.09102322980501587 1:0.5625 2:0.375 3:0.3125 4:0.4375 5:0.25 6:0.5 7:0.375 8:0.375 9:0.375 10:0.1875 11:0.25 12:0.25 13:0.1875 14:0.4375 15:0.1875 16:0.1875 17:0.4375 18:0.5 19:0.9375 20:0.5 21:0.875 22:0.5 23:0.3125 24:0.625 25:0.125 26:0.6875 27:0.625 28:0.375 
0.5380507312429688 1:0.625 2:0.625 3:0.3125 4:0.75 5:0.5625 6:0.5625 7:0.6875 8:0.3125 9:0.25 10:0.5 11:0.0625 12:0.3125 13:0.375 14:0.3125 15:0.5 16:0.5 17:0.5 18:0.375 19:0.75 20:0.75 21:0.75 22:0.875 23:0.0625 24:0.375 25:0.5625 26:0.375 27:0.5625 28:0.9375 
-0.15667962879276476 1:0.75 2:0.3125 3:0.75 4:0.4375 5:0.5 6:0.625 7:0.5625 8:0.3125 9:0.375 10:0.125 11:0.4375 12:0.25 13:0.1875 14:0.75 15:0.5 16:0.75 17:0.5 18:0.4375 19:0.375 20:0.0 21:0.1875 22:0.375 23:0.875 24:0.5625 25:0.75 26:0.4375 27:0.625 28:0.375 
0.06416327917449267 1:0.3125 2:0.375 3:0.8125 4:0.6875 5:0.5 6:0.75 7:0.5625 8:0.5 9:0.625 10:0.75 11:0.0625 12:0.5 13:0.8125 14:0.625 15:0.6875 16:0.25 17:0.5 18:0.5625 19:0.375 20:0.0 21:0.5 22:0.5625 23:0.0 24:0.25 25:0.5 26:0.5625 27:0.6875 28:0.625 
-0.0908175655721048 1:0.1875 2:0.1875 3:0.4375 4:0.375 5:0.4375 6:0.5 7:0.8125 8:0.5 9:0.5 10:0.375 11:0.5625 12:0.5 13:0.625 14:0.5625 15:0.625 16:0.5 17:0.625 18:1.0 19:0.0625 20:0.5 21:0.5 22:0.75 23:0.9375 24:0.875 25:0.8125 26:0.125 27:0.5625 28:0.5 
0.05840131135110976 1:0.75 2:0.625 3:0.8125 4:0.4375 5:0.5625 6:0.5625 7:0.9375 8:0.625 9:0.8125 10:0.4375 11:0.25 12:0.5 13:0.3125 14:0.75 15:0.5 16:0.1875 17:0.5 18:0.5 19:0.0 20:0.3125 21:0.25 22:0.0 23:0.6875 24:0.5625 25:0.5 26:0.5 27:0.3125 28:0.4375 
-0.26793717120281707 1:0.5 2:0.1875 3:0.5 4:0.5625 5:0.9375 6:0.8125 7:0.375 8:0.4375 9:0.625 10:0.6875 11:0.5625 12:0.625 13:0.4375 14:0.4375 15:0.5 16:0.8125 17:0.8125 18:0.125 19:0.5625 20:0.9375 21:0.8125 22:0.5625 23:0.6875 24:0.9375 25:0.125 26:0.625 27:0.25 28:0.0625 
0.16570533115782404 1:0.125 2:0.375 3:0.1875 4:0.8125 5:0.8125 6:0.4375 7:0.5 8:0.75 9:0.375 10:0.75 11:0.6875 12:0.5 13:0.8125 14:0.5 15:0.8125 16:0.5625 17:0.125 18:0.5625 19:1.0 20:1.0 21:0.375 22:0.8125 23:0.8125 24:0.125 25:0.4375 26:0.1875 27:0.125 28:0.8125 
0.0529393337897172 1:0.5 2:0.5 3:0.125 4:0.5 5:0.125 6:0.5625 7:0.0 8:0.375 9:0.4375 10:0.3125 11:0.5 12:0.5625 13:0.25 14:0.3125 15:0.8125 16:0.4375 17:0.6875 18:0.25 19:0.625 20:0.8125 21:0.5 22:0.3125 23:0.375 24:0.5 25:0.1875 26:0.75 27:0.25 28:0.125 
-0.14572833645928207 1:0.0625 2:0.5 3:0.4375 4:0.625 5:0.625 6:0.125 7:0.1875 8:0.8125 9:0.75 10:1.0 11:0.8125 12:0.75 13:0.125 14:0.5 15:0.6875 16:0.75 17:0.5 18:0.0 19:1.0 20:0.8125 21:0.5625 22:0.125 23:0.5 24:0.375 25:0.375 26:0.3125 27:0.25 28:0.25 
0.05697011020501828 1:0.4375 2:0.75 3:0.75 4:0.5 5:0.9375 6:0.8125 7:0.875 8:0.8125 9:0.5 10:0.5 11:0.8125 12:0.5625 13:0.625 14:0.3125 15:0.0 16:0.0625 17:0.0 18:0.25 19:0.3125 20:0.6875 21:0.5 22:0.5 23:0.75 24:0.5 25:0.5 26:0.3125 27:0.125 28:0.5625 
-0.015436886776544836 1:0.4375 2:0.5 3:0.75 4:0.375 5:0.1875 6:0.5 7:0.5625 8:0.5625 9:0.75 10:0.875 11:0.75 12:0.8125 13:0.75 14:0.875 15:0.5 16:0.75 17:1.0 18:0.6875 19:0.25 20:0.3125 21:0.4375 22:0.0 23:0.625 24:0.875 25:0.75 26:0.625 27:0.5625 28:0.0 
0.12529672469888556 1:0.75 2:0.6875 3:0.5625 4:0.0 5:0.5625 6:0.6875 7:0.0625 8:0.4375 9:1.0 10:0.125 11:0.5 12:0.625 13:0.1875 14:0.8125 15:0.3125 16:0.25 17:0.75 18:0.25 19:0.25 20:0.25 21:0.5 22:0.0625 23:0.75 24:0.9375 25:0.4375 26:0.5625 27:0.25 28:0.125 
-0.07525171933881071 1:0.25 2:0.5 3:0.5 4:0.6875 5:0.5625 6:0.375 7:0.625 8:0.6875 9:0.5 10:0.5 11:0.75 12:0.6875 13:1.0 14:0.5 15:0.75 16:0.9375 17:0.5625 18:0.5625 19:0.5625 20:0.625 21:1.0 22:0.875 23:0.875 24:0.5 25:0.625 26:0.1875 27:0.5 28:0.8125 
-0.0933143177989223 1:0.375 2:0.0625 3:0.25 4:0.125 5:0.375 6:0.0625 7:0.25 8:0.8125 9:0.375 10:0.25 11:0.3125 12:0.125 13:0.5625 14:0.1875 15:0.0 16:0.1875 17:0.25 18:0.4375 19:0.4375 20:0.9375 21:0.5625 22:0.9375 23:0.5 24:0.5 25:0.8125 26:0.5 27:0.6875 28:0.625 
0.07714851143502863 1:0.25 2:0.125 3:0.6875 4:0.1875 5:0.125 6:0.3125 7:0.0 8:0.25 9:1.0 10:0.75 11:0.75 12:0.5625 13:0.1875 14:0.8125 15:0.875 16:0.6875 17:0.625 18:0.6875 19:0.4375 20:0.125 21:0.1875 22:0.1875 23:0.0625 24:0.3125 25:0.1875 26:0.5 27:0.1875 28:0.4375 
0.6280312232693025 1:0.6875 2:0.875 3:0.9375 4:0.625 5:0.75 6:0.5625 7:0.75 8:0.75 9:0.875 10:0.875 11:0.9375 12:0.5 13:0.75 14:0.875 15:0.4375 16:0.8125 17:0.0 18:0.625 19:0.4375 20:0.125 21:0.3125 22:0.5 23:0.9375 24:0.3125 25:0.625 26:0.0 27:0.625 28:0.75 
-0.12245836847649455 1:0.9375 2:0.6875 3:0.75 4:1.0 5:0.8125 6:0.8125 7:0.875 8:0.0625 9:0.25 10:0.375 11:0.375 12:0.125 13:0.0 14:0.375 15:0.625 16:0.6875 17:0.5 18:0.5 19:0.4375 20:0.5625 21:0.5625 22:0.4375 23:0.9375 24:0.8125 25:0.5625 26:0.5 27:0.0 28:0.3125 
-0.40182556364984867 1:0.4375 2:0.375 3:0.5 4:0.5625 5:0.5625 6:0.375 7:0.1875 8:0.75 9:0.875 10:0.625 11:0.8125 12:0.375 13:0.125 14:0.8125 15:0.5625 16:0.5625 17:0.375 18:0.0625 19:0.5 20:0.375 21:0.5 22:0.0625 23:0.3125 24:0.5 25:0.25 26:0.25 27:0.0625 28:0.0 
0.10787398186305613 1:0.25 2:0.5 3:0.0625 4:0.4375 5:0.25 6:0.6875 7:0.9375 8:0.875 9:0.4375 10:0.8125 11:0.6875 12:0.75 13:0.875 14:0.5 15:0.6875 16:0.5 17:0.5625 18:0.8125 19:0.625 20:0.375 21:0.875 22:0.875 23:0.5 24:0.625 25:1.0 26:0.625 27:0.75 28:0.5625 
-0.0623193971489483 1:0.4375 2:0.8125 3:0.0625 4:0.25 5:0.3125 6:0.5625 7:0.5 8:0.875 9:0.5625 10:0.5 11:0.375 12:0.8125 13:0.6875 14:0.0625 15:0.375 16:0.125 17:0.25 18:0.5625 19:0.5 20:0.75 21:0.8125 22:1.0 23:0.375 24:0.75 25:0.5625 26:0.6875 27:1.0 28:0.25 
-0.1371040258020034 1:0.1875 2:0.1875 3:0.4375 4:0.0 5:0.5625 6:0.5 7:0.5 8:0.5 9:0.375 10:0.1875 11:0.875 12:0.625 13:0.25 14:0.0625 15:0.3125 16:0.5 17:0.625 18:0.5625 19:0.6875 20:0.875 21:0.6875 22:0.5625 23:0.75 24:0.6875 25:0.5625 26:0.5 27:0.4375 28:0.4375 
-0.155816711756187 1:0.8125 2:0.6875 3:0.5 4:0.75 5:0.4375 6:1.0 7:0.9375 8:0.3125 9:0.4375 10:0.1875 11:0.1875 12:0.6875 13:0.5 14:0.3125 15:0.0625 16:0.0 17:0.625 18:0.625 19:0.5 20:0.75 21:1.0 22:0.75 23:0.5625 24:0.875 25:0.625 26:0.625 27:0.8125 28:0.5625 
0.6365797541713524 1:0.625 2:0.875 3:0.625 4:0.6875 5:0.75 6:0.9375 7:0.5 8:0.5 9:0.5 10:0.9375 11:0.5625 12:0.6875 13:0.5 14:0.375 15:0.5625 16:0.9375 17:0.6875 18:0.375 19:0.3125 20:0.75 21:0.5 22:0.3125 23:0.5 24:0.4375 25:0.125 26:0.5 27:0.1875 28:0.3125 
-0.33678283263275965 1:0.5 2:0.6875 3:0.9375 4:0.75 5:0.5625 6:0.5 7:1.0 8:0.625 9:0.9375 10:0.75 11:0.875 12:0.4375 13:0.8125 14:0.3125 15:0.4375 16:0.375 17:0.125 18:0.25 19:0.4375 20:0.0625 21:0.375 22:0.25 23:0.75 24:0.5 25:0.5 26:0.4375 27:0.5 28:0.5 
-0.009111808636281435 1:0.625 2:0.3125 3:0.9375 4:0.9375 5:0.5 6:0.625 7:0.75 8:0.5 9:0.5625 10:0.5 11:0.0 12:0.625 13:0.6875 14:0.8125 15:0.9375 16:0.5 17:1.0 18:0.8125 19:0.1875 20:0.25 21:0.5 22:0.5 23:0.4375 24:0.3125 25:0.5 26:0.625 27:0.625 28:0.9375 
-0.04107058054554934 1:0.375 2:0.375 3:0.4375 4:0.75 5:0.625 6:0.6875 7:0.9375 8:0.5 9:0.125 10:1.0 11:0.625 12:0.6875 13:0.875 14:0.25 15:1.0 16:0.625 17:0.6875 18:0.5625 19:0.9375 20:0.625 21:0.6875 22:0.875 23:0.625 24:0.125 25:0.625 26:0.5 27:0.6875 28:0.75 
0.181554904326183 1:0.125 2:0.3125 3:0.25 4:0.1875 5:0.125 6:0.25 7:0.25 8:0.5 9:0.5 10:0.3125 11:0.3125 12:0.4375 13:0.6875 14:0.5 15:0.3125 16:0.4375 17:0.5 18:0.25 19:0.0 20:0.5625 21:0.4375 22:0.25 23:0.6875 24:0.875 25:0.75 26:0.5 27:0.6875 28:0.5 
0.03349533608749408 1:0.125 2:0.625 3:0.875 4:0.75 5:0.5 6:0.8125 7:0.5 8:0.8125 9:0.6875 10:0.9375 11:0.75 12:0.8125 13:0.8125 14:0.625 15:0.375 16:0.5 17:0.5 18:0.5 19:0.5 20:0.5625 21:0.6875 22:0.625 23:0.625 24:0.8125 25:0.5625 26:0.9375 27:0.4375 28:0.5 
-0.06773945897647887 1:1.0 2:0.375 3:0.375 4:0.4375 5:0.5625 6:0.625 7:0.5625 8:0.1875 9:0.0625 10:0.1875 11:0.1875 12:0.4375 13:0.25 14:0.375 15:0.5 16:0.625 17:0.75 18:0.6875 19:0.125 20:0.75 21:0.875 22:0.9375 23:0.6875 24:0.9375 25:0.9375 26:0.6875 27:0.125 28:0.4375 
0.010643991843491607 1:0.5 2:0.5 3:0.9375 4:0.5 5:0.625 6:0.375 7:0.75 8:0.75 9:0.8125 10:0.8125 11:0.5 12:0.4375 13:0.9375 14:0.9375 15:0.4375 16:1.0 17:0.5 18:0.625 19:0.0 20:0.375 21:0.125 22:0.25 23:0.5 24:0.5 25:0.9375 26:0.25 27:0.5 28:0.5625 
0.029364113366056925 1:0.0 2:0.0625 3:0.0625 4:0.25 5:0.1875 6:0.5 7:0.625 8:0.4375 9:0.3125 10:0.75 11:0.75 12:0.5 13:0.6875 14:0.75 15:0.75 16:0.9375 17:0.625 18:0.625 19:0.875 20:0.5625 21:0.6875 22:0.875 23:0.5 24:0.1875 25:0.5625 26:0.5 27:0.5 28:0.5625 
-0.05169069320480323 1:0.4375 2:0.5 3:0.5 4:0.1875 5:0.0625 6:0.375 7:0.1875 8:0.5 9:0.875 10:0.6875 11:0.5 12:0.6875 13:0.5 14:0.6875 15:0.4375 16:0.0 17:0.5 18:0.375 19:0.25 20:0.0 21:0.5 22:0.0 23:0.5 24:0.375 25:0.5625 26:0.5625 27:0.5625 28:0.5 
0.08744603628009934 1:0.75 2:1.0 3:0.9375 4:0.75 5:0.8125 6:0.6875 7:0.6875 8:0.8125 9:0.5 10:0.5625 11:0.9375 12:0.1875 13:0.75 14:0.625 15:0.5 16:0.875 17:0.25 18:0.5625 19:0.5 20:0.8125 21:0.0 22:0.5 23:0.5 24:0.375 25:0.5 26:0.125 27:0.1875 28:0.5 
-0.16965836939215614 1:0.6875 2:0.6875 3:0.75 4:0.875 5:0.5 6:0.75 7:0.6875 8:0.4375 9:0.3125 10:0.625 11:0.0625 12:0.25 13:0.25 14:0.4375 15:0.625 16:0.375 17:0.5 18:0.4375 19:0.8125 20:0.0 21:0.8125 22:0.25 23:0.25 24:0.125 25:0.25 26:0.625 27:1.0 28:0.1875 
-0.2831270990941774 1:0.3125 2:0.4375 3:0.5 4:0.5 5:0.5 6:0.125 7:0.875 8:0.125 9:0.4375 10:0.4375 11:0.5 12:0.25 13:0.8125 14:0.5 15:0.8125 16:0.5625 17:0.5 18:0.6875 19:0.75 20:1.0 21:0.5 22:0.6875 23:0.1875 24:0.25 25:0.75 26:0.375 27:0.75 28:0.6875 
0.17380978283403536 1:0.0625 2:0.625 3:0.4375 4:0.625 5:0.0625 6:0.3125 7:0.3125 8:0.9375 9:0.4375 10:0.6875 11:0.5625 12:0.3125 13:0.6875 14:0.0625 15:0.375 16:0.25 17:0.1875 18:0.0625 19:1.0 20:0.4375 21:0.3125 22:0.5 23:0.375 24:0.3125 25:0.5 26:0.625 27:0.5 28:0.625 
-0.4744577347792401 1:0.6875 2:0.625 3:0.75 4:0.875 5:0.9375 6:0.0 7:0.8125 8:0.0625 9:0.1875 10:0.5625 11:0.5 12:0.25 13:0.5625 14:0.4375 15:0.625 16:0.5 17:0.375 18:0.4375 19:0.75 20:0.8125 21:0.5 22:0.625 23:0.4375 24:0.0625 25:0.125 26:0.3125 27:0.4375 28:0.8125 
-0.053339477418081184 1:0.125 2:0.625 3:0.6875 4:0.625 5:0.875 6:0.875 7:0.625 8:0.75 9:0.6875 10:1.0 11:1.0 12:0.875 13:0.8125 14:0.625 15:0.75 16:0.5 17:0.5 18:0.6875 19:1.0 20:0.5625 21:0.375 22:0.75 23:0.5625 24:0.0625 25:0.375 26:0.375 27:0.5 28:1.0 
0.3711341882060395 1:0.1875 2:0.5625 3:0.375 4:0.5625 5:0.875 6:0.375 7:0.5 8:1.0 9:0.5 10:0.625 11:0.75 12:0.5 13:0.5 14:0.0625 15:0.5 16:0.6875 17:0.375 18:0.5 19:0.5625 20:0.8125 21:0.5 22:0.5 23:0.625 24:0.5625 25:0.5625 26:0.375 27:0.25 28:0.4375 
0.03374641889196315 1:0.3125 2:0.5 3:0.6875 4:0.1875 5:0.375 6:0.5625 7:0.5 8:0.3125 9:0.625 10:0.0 11:0.375 12:0.5 13:0.1875 14:1.0 15:0.375 16:0.0625 17:0.625 18:0.5625 19:0.25 20:0.125 21:0.375 22:0.0625 23:0.5 24:0.6875 25:0.5 26:0.5 27:0.4375 28:0.1875 
0.08136068253111971 1:0.4375 2:0.5625 3:0.5 4:0.1875 5:0.0625 6:0.8125 7:0.5 8:0.875 9:0.5 10:1.0 11:0.5 12:0.75 13:0.5625 14:0.375 15:0.5 16:0.0625 17:0.5625 18:0.1875 19:0.6875 20:0.3125 21:0.625 22:0.5625 23:0.125 24:0.5625 25:0.5625 26:0.875 27:0.5625 28:0.5 
0.011719974159236262 1:0.9375 2:0.0625 3:0.0625 4:0.5 5:0.625 6:0.5 7:0.0 8:0.0 9:0.375 10:0.4375 11:0.625 12:0.3125 13:0.0625 14:0.4375 15:0.5 16:0.6875 17:0.4375 18:0.5 19:0.75 20:0.8125 21:0.625 22:0.5 23:1.0 24:0.5 25:0.5625 26:0.4375 27:0.0 28:0.375 
0.09355006154089887 1:0.25 2:0.0625 3:0.5 4:0.6875 5:0.5 6:0.5 7:0.1875 8:0.375 9:0.875 10:0.6875 11:1.0 12:0.8125 13:0.375 14:0.9375 15:0.5625 16:0.875 17:0.75 18:0.625 19:0.5 20:0.5 21:0.6875 22:0.125 23:0.375 24:0.5625 25:0.3125 26:0.1875 27:0.25 28:0.25 
0.13052266352561173 1:0.25 2:0.0 3:0.5 4:0.625 5:0.1875 6:0.4375 7:0.1875 8:0.375 9:0.9375 10:0.8125 11:0.5 12:0.8125 13:0.625 14:0.6875 15:1.0 16:0.5 17:0.625 18:0.625 19:0.5625 20:0.5 21:0.5625 22:0.5 23:0.25 24:1.0 25:0.0625 26:1.0 27:0.5 28:0.25 
-0.257359635818672 1:0.75 2:0.5 3:0.3125 4:0.1875 5:0.25 6:0.625 7:0.1875 8:0.8125 9:0.4375 10:0.5 11:0.1875 12:0.5 13:0.375 14:0.0 15:0.5 16:0.25 17:0.5 18:0.375 19:0.5 20:0.5 21:0.625 22:0.375 23:0.125 24:0.625 25:0.3125 26:0.625 27:0.5625 28:0.0 
-0.29663961994934257 1:0.9375 2:0.75 3:0.5 4:0.875 5:0.5 6:0.8125 7:0.625 8:0.3125 9:0.5 10:0.75 11:0.375 12:0.8125 13:0.5 14:0.5 15:0.875 16:0.4375 17:0.75 18:1.0 19:0.5625 20:0.6875 21:1.0 22:1.0 23:0.3125 24:0.5625 25:0.875 26:0.75 27:0.625 28:0.5 
-0.07000078575705432 1:0.375 2:0.125 3:0.0 4:0.1875 5:0.3125 6:0.0 7:0.375 8:0.0 9:0.25 10:0.125 11:0.4375 12:0.125 13:0.3125 14:0.1875 15:0.5 16:0.75 17:0.375 18:0.25 19:0.75 20:0.875 21:0.875 22:0.4375 23:0.9375 24:0.5 25:0.375 26:0.125 27:0.0 28:0.625 
-0.1477974367934649 1:0.375 2:0.5 3:0.5 4:0.5 5:0.8125 6:0.5625 7:0.4375 8:0.5 9:0.625 10:0.5 11:0.9375 12:0.75 13:0.8125 14:0.8125 15:0.5625 16:0.625 17:0.5 18:0.5625 19:0.5625 20:0.5 21:0.25 22:0.5 23:0.75 24:0.1875 25:0.625 26:0.25 27:0.25 28:0.5 
-0.5083594756632641 1:0.125 2:0.5625 3:1.0 4:0.6875 5:0.75 6:0.625 7:0.5 8:0.9375 9:1.0 10:1.0 11:0.875 12:0.5625 13:0.6875 14:0.75 15:0.6875 16:0.5625 17:0.1875 18:0.625 19:0.5 20:0.5625 21:0.4375 22:0.0625 23:0.25 24:0.0 25:0.125 26:0.1875 27:0.5 28:0.625 
0.46109617536110636 1:0.5625 2:0.25 3:0.4375 4:0.875 5:0.6875 6:0.75 7:0.625 8:0.0 9:0.1875 10:1.0 11:0.5625 12:0.8125 13:0.5 14:0.4375 15:0.875 16:0.5625 17:0.875 18:0.6875 19:1.0 20:0.9375 21:1.0 22:0.6875 23:0.0625 24:0.375 25:0.125 26:0.6875 27:0.875 28:0.3125 
-0.11388537184259795 1:0.75 2:0.625 3:0.25 4:0.625 5:0.5625 6:0.4375 7:0.9375 8:0.625 9:0.1875 10:0.5625 11:0.5625 12:0.3125 13:0.5625 14:0.3125 15:0.4375 16:0.25 17:0.1875 18:0.875 19:0.75 20:0.5 21:0.0 22:0.8125 23:0.5625 24:0.1875 25:0.625 26:0.25 27:0.625 28:0.75 
0.49813865380488004 1:0.75 2:1.0 3:0.875 4:0.6875 5:0.75 6:0.875 7:0.8125 8:0.5625 9:0.5625 10:0.5 11:0.5 12:0.6875 13:0.5625 14:0.5 15:0.375 16:0.4375 17:0.0625 18:0.5 19:0.1875 20:0.375 21:0.75 22:0.4375 23:0.5625 24:0.5 25:0.625 26:0.6875 27:0.5 28:0.4375 
-0.8003271157256747 1:0.5 2:0.75 3:0.8125 4:0.75 5:1.0 6:0.8125 7:0.8125 8:0.75 9:0.6875 10:0.875 11:0.6875 12:0.5625 13:0.75 14:0.8125 15:0.5 16:0.5625 17:0.125 18:0.6875 19:0.375 20:0.25 21:0.4375 22:0.5 23:0.5625 24:0.5 25:0.6875 26:0.375 27:0.3125 28:0.5 
-0.04078188974707034 1:0.5 2:0.75 3:0.75 4:0.875 5:0.125 6:0.875 7:0.5 8:0.6875 9:0.8125 10:0.5 11:0.375 12:0.625 13:0.5625 14:0.5 15:0.25 16:0.375 17:0.875 18:0.3125 19:0.125 20:0.1875 21:0.5625 22:0.3125 23:0.25 24:1.0 25:0.5 26:0.6875 27:0.6875 28:0.375 
0.00922625682102005 1:0.4375 2:0.5625 3:0.5625 4:0.4375 5:0.5 6:0.75 7:0.9375 8:0.875 9:0.8125 10:0.5 11:0.6875 12:0.9375 13:0.5625 14:0.4375 15:0.1875 16:0.1875 17:0.8125 18:0.1875 19:0.0 20:0.3125 21:0.5 22:0.5 23:0.625 24:0.75 25:0.875 26:0.8125 27:0.5625 28:0.4375 
0.09652479303442071 1:0.3125 2:0.0625 3:0.25 4:0.5 5:0.75 6:0.0625 7:0.5 8:0.8125 9:0.625 10:0.6875 11:0.5625 12:0.5 13:0.8125 14:0.4375 15:0.6875 16:0.9375 17:0.5 18:1.0 19:0.625 20:0.5 21:0.5 22:0.8125 23:0.75 24:0.4375 25:0.8125 26:0.1875 27:0.5 28:1.0 
0.03818175213440984 1:0.625 2:0.5625 3:0.3125 4:0.25 5:0.75 6:0.0 7:0.5 8:0.5 9:0.625 10:0.375 11:0.5 12:0.1875 13:0.5 14:0.4375 15:0.3125 16:0.5 17:0.0 18:0.375 19:0.5 20:0.625 21:0.4375 22:0.625 23:0.5 24:0.5625 25:0.8125 26:0.4375 27:0.5 28:0.8125 
0.036875845263674184 1:0.5 2:0.9375 3:0.4375 4:0.5 5:0.625 6:0.5625 7:0.625 8:0.75 9:0.4375 10:0.5625 11:1.0 12:0.625 13:0.8125 14:0.0 15:0.1875 16:0.5 17:0.1875 18:0.5625 19:0.75 20:0.875 21:0.375 22:0.625 23:0.375 24:0.375 25:0.625 26:0.375 27:0.75 28:0.875 
-0.5606114432737334 1:0.0625 2:0.8125 3:0.6875 4:0.8125 5:0.4375 6:0.625 7:0.4375 8:0.75 9:0.5 10:0.9375 11:0.625 12:0.75 13:0.375 14:0.1875 15:0.5 16:0.0625 17:0.3125 18:0.1875 19:0.6875 20:0.4375 21:0.375 22:0.375 23:0.3125 24:0.5 25:0.3125 26:1.0 27:0.25 28:0.25 
-0.34042512752544907 1:0.6875 2:0.8125 3:0.9375 4:0.9375 5:0.75 6:0.5 7:0.875 8:0.125 9:0.625 10:0.6875 11:0.625 12:0.3125 13:0.375 14:0.5625 15:0.9375 16:0.6875 17:0.25 18:0.625 19:0.5 20:0.125 21:0.3125 22:0.5 23:0.3125 24:0.0 25:0.25 26:0.4375 27:0.25 28:0.6875 
0.0022238545032892514 1:0.125 2:0.5625 3:0.5 4:0.125 5:0.25 6:0.375 7:0.0 8:0.5625 9:0.5 10:0.3125 11:1.0 12:0.875 13:0.4375 14:0.5 15:0.375 16:0.625 17:0.5 18:0.4375 19:0.375 20:0.5 21:0.4375 22:0.5 23:1.0 24:0.75 25:0.4375 26:0.5625 27:0.0 28:0.0625 
0.0713208008491931 1:0.5625 2:0.0 3:0.375 4:0.3125 5:0.5 6:0.5 7:0.0 8:0.4375 9:0.6875 10:0.375 11:0.6875 12:0.3125 13:0.3125 14:0.625 15:0.5 16:0.8125 17:0.875 18:0.5625 19:0.375 20:0.5625 21:0.125 22:0.375 23:0.875 24:0.5 25:0.25 26:0.25 27:0.3125 28:0.1875 
-0.1212233645587271 1:0.25 2:0.5625 3:0.4375 4:0.5625 5:0.5 6:0.5 7:0.4375 8:0.8125 9:0.375 10:0.6875 11:0.5 12:0.75 13:0.6875 14:0.4375 15:0.6875 16:0.4375 17:0.3125 18:0.4375 19:0.8125 20:0.6875 21:0.6875 22:0.5625 23:0.125 24:0.375 25:0.5 26:0.625 27:0.1875 28:0.4375 
-0.22211259086676088 1:0.5 2:0.5 3:0.25 4:0.375 5:0.0 6:0.4375 7:0.25 8:0.625 9:0.5 10:0.625 11:0.1875 12:0.5 13:0.5 14:0.0625 15:0.5 16:0.125 17:0.5 18:0.3125 19:0.625 20:0.625 21:0.9375 22:0.75 23:0.375 24:0.625 25:0.8125 26:0.75 27:1.0 28:0.5 
0.06540606465510576 1:0.5625 2:0.375 3:0.9375 4:0.375 5:1.0 6:0.5 7:0.5625 8:0.5 9:0.8125 10:0.5 11:1.0 12:0.8125 13:0.625 14:0.625 15:0.375 16:0.5625 17:0.4375 18:0.5625 19:0.1875 20:0.25 21:0.3125 22:0.5625 23:0.5625 24:0.625 25:0.75 26:0.375 27:0.625 28:1.0 
-0.03374221948253983 1:0.9375 2:0.6875 3:0.9375 4:0.5 5:0.875 6:0.625 7:0.9375 8:0.5625 9:0.5 10:0.5 11:0.4375 12:0.25 13:0.625 14:0.4375 15:0.375 16:0.25 17:0.3125 18:0.75 19:0.125 20:0.0 21:0.1875 22:0.5 23:0.25 24:0.5625 25:0.75 26:0.5 27:0.75 28:0.5 
0.002664229501489334 1:0.5 2:0.25 3:0.0625 4:0.0 5:0.0625 6:0.5 7:0.0 8:0.25 9:0.0 10:0.1875 11:0.25 12:0.0625 13:0.0 14:0.25 15:0.375 16:0.4375 17:0.3125 18:0.0625 19:0.4375 20:0.375 21:0.4375 22:0.0625 23:1.0 24:0.875 25:0.3125 26:0.5 27:0.125 28:0.1875 
-0.012166808346718065 1:0.75 2:0.375 3:0.75 4:0.6875 5:0.5625 6:0.625 7:0.9375 8:0.375 9:0.5 10:0.3125 11:0.4375 12:0.4375 13:0.4375 14:0.625 15:0.9375 16:0.8125 17:0.625 18:0.5625 19:0.4375 20:0.5 21:0.0 22:0.4375 23:0.625 24:0.625 25:0.3125 26:0.1875 27:0.5 28:0.5625 
0.10897139939417794 1:0.75 2:0.3125 3:0.25 4:0.375 5:0.5 6:0.0 7:0.3125 8:0.0 9:0.25 10:0.3125 11:0.375 12:0.0 13:0.25 14:0.1875 15:0.6875 16:0.5 17:0.6875 18:0.9375 19:0.9375 20:0.9375 21:0.5625 22:0.6875 23:0.5625 24:0.1875 25:0.6875 26:0.4375 27:0.5 28:0.625 
-0.3529404161857131 1:0.6875 2:0.25 3:0.5 4:0.9375 5:0.625 6:0.5625 7:0.5625 8:0.375 9:0.0625 10:0.3125 11:0.5 12:0.25 13:0.625 14:0.5 15:0.875 16:0.8125 17:0.5625 18:0.6875 19:0.6875 20:0.6875 21:0.4375 22:0.5625 23:0.6875 24:0.25 25:0.625 26:0.0625 27:0.75 28:0.8125 
-0.0052606467028874365 1:0.25 2:0.5 3:0.4375 4:0.125 5:0.125 6:0.3125 7:0.4375 8:0.875 9:0.875 10:0.5 11:0.3125 12:0.5625 13:0.875 14:0.1875 15:0.4375 16:0.3125 17:0.125 18:0.0625 19:0.25 20:0.4375 21:0.375 22:0.625 23:0.3125 24:0.75 25:0.875 26:0.6875 27:0.8125 28:0.8125 
0.039084429304463035 1:0.1875 2:0.4375 3:1.0 4:0.9375 5:0.6875 6:0.875 7:1.0 8:1.0 9:0.875 10:1.0 11:0.8125 12:0.75 13:0.8125 14:0.9375 15:0.625 16:0.875 17:0.875 18:0.625 19:0.375 20:0.625 21:0.5625 22:0.0625 23:0.5 24:0.5625 25:0.5 26:0.5625 27:0.375 28:0.125 
-0.009613354183344906 1:0.9375 2:1.0 3:0.875 4:1.0 5:0.625 6:1.0 7:1.0 8:0.5 9:0.8125 10:0.625 11:0.5 12:0.5625 13:0.4375 14:0.25 15:0.75 16:0.125 17:0.4375 18:0.4375 19:1.0 20:0.5 21:0.6875 22:0.5 23:0.25 24:0.5 25:0.125 26:0.625 27:0.875 28:0.25 
0.3493490898553571 1:0.375 2:0.875 3:0.9375 4:1.0 5:0.75 6:0.9375 7:0.625 8:1.0 9:0.5 10:0.6875 11:0.8125 12:0.6875 13:0.75 14:0.375 15:0.125 16:0.5 17:0.25 18:0.125 19:0.8125 20:0.5625 21:0.875 22:0.4375 23:0.5 24:0.5625 25:0.5625 26:0.5 27:0.0 28:0.3125 
0.16271681043594746 1:0.5625 2:0.5 3:0.5 4:1.0 5:0.5625 6:0.8125 7:0.875 8:0.125 9:0.1875 10:0.75 11:0.3125 12:0.4375 13:0.6875 14:0.625 15:0.75 16:0.875 17:0.9375 18:0.75 19:0.5 20:0.5 21:0.6875 22:0.875 23:0.1875 24:0.5 25:0.75 26:0.625 27:0.5 28:0.6875 
0.007388645754011198 1:0.6875 2:0.5 3:0.5625 4:0.625 5:0.875 6:1.0 7:0.0625 8:0.1875 9:0.875 10:0.4375 11:0.4375 12:0.4375 13:0.125 14:0.75 15:0.6875 16:0.75 17:0.625 18:0.5 19:0.4375 20:0.3125 21:0.3125 22:0.25 23:0.8125 24:0.5625 25:0.25 26:0.3125 27:0.0 28:0.0625 
0.16923735776984256 1:0.875 2:0.5 3:0.5625 4:0.9375 5:0.3125 6:0.75 7:0.5625 8:0.625 9:0.5 10:0.5 11:0.4375 12:0.9375 13:0.6875 14:0.4375 15:0.5 16:0.125 17:0.8125 18:0.5 19:0.8125 20:0.0 21:0.875 22:0.625 23:0.0625 24:0.4375 25:0.5 26:1.0 27:0.9375 28:0.4375 
-0.3146455710520739 1:0.9375 2:0.875 3:0.75 4:0.8125 5:0.9375 6:0.625 7:0.625 8:0.375 9:0.5 10:0.8125 11:0.375 12:0.6875 13:0.375 14:0.75 15:0.6875 16:0.3125 17:0.6875 18:0.1875 19:0.625 20:0.5 21:0.875 22:0.0625 23:0.3125 24:0.5 25:0.0 26:0.8125 27:0.5 28:0.125 
0.17709416820270185 1:0.25 2:0.3125 3:0.0 4:0.0 5:0.1875 6:0.1875 7:0.0625 8:0.4375 9:0.25 10:0.4375 11:0.5625 12:0.4375 13:0.5 14:0.375 15:0.5625 16:0.5625 17:0.8125 18:0.5 19:0.875 20:0.5625 21:0.8125 22:0.875 23:0.3125 24:0.75 25:0.625 26:0.625 27:0.8125 28:0.125 
0.06188861730007089 1:0.125 2:0.5 3:0.125 4:0.5 5:0.5625 6:0.1875 7:0.125 8:0.875 9:0.5625 10:1.0 11:0.875 12:1.0 13:0.5 14:0.0625 15:0.0625 16:0.5 17:0.0625 18:0.375 19:0.5625 20:0.75 21:0.5 22:0.5625 23:1.0 24:0.4375 25:0.1875 26:0.4375 27:0.0625 28:0.375 
0.07809893482571588 1:0.8125 2:0.3125 3:0.375 4:0.5 5:0.625 6:0.125 7:0.625 8:0.0625 9:0.4375 10:0.5 11:0.5 12:0.25 13:0.4375 14:0.5 15:0.625 16:0.9375 17:1.0 18:0.6875 19:0.375 20:0.6875 21:0.5625 22:0.625 23:0.5 24:0.5 25:0.5625 26:0.4375 27:0.5625 28:0.6875 
0.03042116579612097 1:0.6875 2:0.3125 3:0.8125 4:0.3125 5:0.5625 6:0.1875 7:0.0625 8:0.25 9:0.75 10:0.3125 11:0.5 12:0.1875 13:0.3125 14:0.6875 15:0.5625 16:0.8125 17:0.4375 18:0.4375 19:0.0 20:0.3125 21:0.25 22:0.0 23:1.0 24:0.4375 25:0.4375 26:0.0 27:0.375 28:1.0 
-0.07429335388612632 1:0.5 2:0.6875 3:0.5 4:0.4375 5:0.1875 6:0.5 7:0.875 8:0.625 9:0.625 10:0.5 11:0.5 12:0.5 13:0.5 14:0.0 15:0.25 16:0.0 17:0.5 18:0.625 19:0.5 20:0.625 21:0.875 22:0.625 23:0.5625 24:0.6875 25:0.8125 26:1.0 27:0.9375 28:0.625 
0.011405450988298703 1:0.75 2:0.3125 3:0.6875 4:0.25 5:0.375 6:0.25 7:0.5 8:0.3125 9:0.6875 10:0.375 11:0.4375 12:0.5 13:0.125 14:0.875 15:0.6875 16:0.75 17:0.6875 18:0.5625 19:0.3125 20:0.5 21:0.5 22:0.3125 23:0.6875 24:0.625 25:0.8125 26:0.5 27:0.375 28:0.4375 
-0.22793930153480063 1:0.0 2:0.375 3:0.0625 4:0.3125 5:0.5625 6:0.4375 7:0.0 8:0.375 9:0.25 10:0.5625 11:0.8125 12:0.875 13:0.5 14:0.25 15:1.0 16:0.625 17:0.9375 18:0.5 19:0.75 20:0.9375 21:0.9375 22:0.3125 23:0.6875 24:0.5625 25:0.3125 26:0.75 27:0.375 28:0.125 
0.15024051116343612 1:0.625 2:0.8125 3:1.0 4:0.6875 5:0.5625 6:0.8125 7:0.375 8:0.75 9:0.6875 10:0.3125 11:0.3125 12:0.5 13:0.125 14:0.5 15:0.4375 16:0.1875 17:0.3125 18:0.1875 19:0.5 20:0.4375 21:0.5625 22:0.125 23:0.3125 24:0.8125 25:0.4375 26:0.5625 27:0.375 28:0.375 
-0.14989953928701505 1:0.5 2:0.5 3:0.875 4:0.625 5:0.4375 6:0.1875 7:0.4375 8:0.375 9:0.75 10:0.9375 11:0.5625 12:0.5 13:0.6875 14:0.875 15:0.5 16:0.5 17:0.5 18:0.5625 19:0.0 20:0.25 21:0.125 22:0.1875 23:0.125 24:0.375 25:0.3125 26:0.5 27:0.5 28:0.5 
-0.13123765599869713 1:0.3125 2:0.3125 3:0.5 4:0.75 5:0.6875 6:0.625 7:0.5 8:1.0 9:0.9375 10:0.9375 11:0.8125 12:0.625 13:0.9375 14:0.8125 15:0.6875 16:0.9375 17:0.9375 18:0.5 19:0.75 20:0.5625 21:0.5625 22:0.5 23:0.5625 24:0.375 25:0.5 26:0.0 27:0.0 28:0.4375 
-0.2406783211220719 1:0.5625 2:0.875 3:0.5 4:0.4375 5:0.625 6:0.5625 7:0.5 8:0.6875 9:0.4375 10:0.5 11:0.0 12:0.5 13:0.3125 14:0.5 15:0.1875 16:0.25 17:0.4375 18:0.5 19:0.4375 20:0.375 21:0.6875 22:0.5625 23:0.5 24:1.0 25:0.5 26:0.8125 27:0.5 28:0.5625 
0.2700765473469213 1:0.5 2:0.5625 3:0.75 4:0.625 5:0.9375 6:0.3125 7:0.375 8:0.625 9:0.5 10:0.75 11:0.6875 12:0.125 13:0.4375 14:0.875 15:0.625 16:0.75 17:0.4375 18:0.75 19:0.5 20:0.5 21:0.25 22:0.25 23:0.625 24:0.0625 25:0.0625 26:0.0 27:0.0 28:0.75 
-0.14298888731142317 1:0.1875 2:0.5625 3:0.625 4:0.625 5:0.6875 6:0.5 7:0.1875 8:0.875 9:0.9375 10:1.0 11:0.8125 12:0.5 13:0.125 14:0.5 15:0.625 16:0.5625 17:0.5 18:0.1875 19:0.4375 20:0.1875 21:0.3125 22:0.375 23:0.125 24:0.25 25:0.3125 26:0.375 27:0.125 28:0.4375 
0.2769503929657596 1:0.4375 2:0.5625 3:0.75 4:0.4375 5:0.4375 6:0.5 7:0.6875 8:1.0 9:0.875 10:0.4375 11:0.5 12:0.8125 13:0.875 14:0.875 15:0.625 16:0.5 17:0.5 18:0.8125 19:0.0625 20:0.4375 21:0.5 22:0.75 23:0.625 24:0.5 25:0.9375 26:0.625 27:0.75 28:0.8125 
-0.03976888728587898 1:0.25 2:0.5625 3:0.5 4:0.4375 5:0.125 6:0.5 7:0.1875 8:0.5625 9:0.3125 10:0.0625 11:0.25 12:0.0625 13:0.375 14:0.0625 15:0.125 16:0.0 17:0.4375 18:0.0 19:0.375 20:0.5 21:0.5625 22:0.375 23:0.0625 24:0.625 25:0.4375 26:0.5625 27:0.4375 28:0.375 
0.07409317177111331 1:0.6875 2:1.0 3:0.1875 4:0.125 5:0.9375 6:0.625 7:0.4375 8:0.8125 9:0.25 10:0.0 11:0.375 12:0.75 13:0.1875 14:0.0625 15:0.0625 16:0.4375 17:0.5625 18:0.0 19:0.5 20:0.8125 21:1.0 22:0.625 23:1.0 24:0.75 25:0.5 26:0.5 27:0.25 28:0.0 
-0.032954201440166225 1:0.625 2:0.75 3:0.8125 4:0.25 5:0.75 6:0.875 7:0.5 8:0.8125 9:0.625 10:0.5625 11:0.75 12:0.875 13:0.625 14:0.3125 15:0.125 16:0.5 17:0.1875 18:0.0625 19:0.5 20:0.875 21:0.5 22:0.3125 23:1.0 24:0.6875 25:0.625 26:0.4375 27:0.5 28:0.4375 
0.06910655346775726 1:0.375 2:0.375 3:0.5625 4:1.0 5:0.125 6:0.0625 7:0.5 8:0.3125 9:0.625 10:0.5 11:0.25 12:0.3125 13:0.5625 14:0.875 15:1.0 16:0.375 17:0.5 18:0.9375 19:0.75 20:0.25 21:0.125 22:0.4375 23:0.125 24:0.1875 25:0.0625 26:0.5 27:0.625 28:0.5 
0.1385093255090911 1:0.0 2:0.75 3:0.25 4:0.5 5:0.625 6:0.3125 7:0.3125 8:0.9375 9:0.5625 10:0.25 11:0.8125 12:0.5625 13:0.625 14:0.3125 15:0.0 16:0.1875 17:0.125 18:0.1875 19:0.5 20:0.875 21:0.5 22:0.625 23:0.75 24:0.5 25:0.5 26:0.4375 27:0.125 28:0.25 
-0.1475022342681939 1:0.75 2:0.8125 3:0.875 4:0.625 5:0.375 6:0.6875 7:0.4375 8:0.375 9:0.75 10:0.25 11:0.375 12:0.75 13:0.25 14:0.5 15:0.0625 16:0.375 17:1.0 18:0.5 19:0.0 20:0.0625 21:0.4375 22:0.25 23:0.5 24:1.0 25:0.9375 26:0.875 27:0.5625 28:0.125 
-0.12490558334561606 1:0.5 2:0.125 3:0.8125 4:0.5625 5:0.25 6:0.8125 7:0.6875 8:0.375 9:0.4375 10:0.5 11:0.0 12:0.4375 13:0.5625 14:0.8125 15:0.6875 16:0.125 17:0.5625 18:0.6875 19:0.5625 20:0.0625 21:0.9375 22:0.8125 23:0.0625 24:0.5 25:0.5625 26:1.0 27:0.875 28:0.5625 
-0.08556064621203328 1:0.9375 2:0.3125 3:0.625 4:0.25 5:0.8125 6:0.625 7:0.6875 8:0.25 9:0.1875 10:0.1875 11:0.25 12:0.4375 13:0.5 14:0.5625 15:0.4375 16:0.5 17:0.75 18:0.9375 19:0.125 20:0.75 21:0.5625 22:0.6875 23:1.0 24:0.6875 25:0.75 26:1.0 27:0.5625 28:0.5625 
0.10357866613450147 1:0.25 2:0.5 3:0.5625 4:0.25 5:0.4375 6:0.125 7:0.0625 8:0.875 9:0.625 10:0.375 11:0.625 12:0.1875 13:0.25 14:0.5 15:0.25 16:0.3125 17:0.3125 18:0.1875 19:0.375 20:0.625 21:0.25 22:0.125 23:1.0 24:0.25 25:0.5 26:0.0 27:0.25 28:0.25 
-0.1158277275263585 1:0.0 2:0.3125 3:0.1875 4:0.4375 5:0.125 6:0.1875 7:0.125 8:1.0 9:0.875 10:0.875 11:0.5 12:0.5625 13:0.6875 14:0.625 15:0.4375 16:0.3125 17:0.5 18:0.375 19:0.5 20:0.4375 21:0.4375 22:0.375 23:0.375 24:0.4375 25:0.4375 26:0.9375 27:0.1875 28:0.4375 
0.08288596200923411 1:0.0 2:0.125 3:0.5625 4:0.125 5:0.3125 6:0.0 7:0.25 8:0.0625 9:0.5 10:0.3125 11:0.4375 12:0.25 13:0.25 14:0.9375 15:0.75 16:0.9375 17:0.5 18:0.625 19:0.25 20:0.4375 21:0.1875 22:0.4375 23:0.625 24:1.0 25:0.5 26:0.375 27:0.375 28:0.3125 
0.019830825206923083 1:0.4375 2:0.1875 3:0.375 4:0.4375 5:0.625 6:0.75 7:0.5 8:0.5 9:0.3125 10:0.5 11:0.5 12:0.5625 13:1.0 14:0.75 15:0.5625 16:0.9375 17:0.9375 18:0.75 19:0.125 20:0.625 21:0.75 22:0.75 23:0.6875 24:0.625 25:0.9375 26:0.8125 27:0.5 28:0.5 
0.08548313834940964 1:0.5625 2:0.5625 3:0.125 4:0.8125 5:0.4375 6:0.5625 7:0.375 8:0.625 9:0.0 10:0.875 11:0.4375 12:0.4375 13:0.5625 14:0.0625 15:0.6875 16:0.5 17:0.1875 18:0.375 19:1.0 20:0.6875 21:0.75 22:0.8125 23:0.4375 24:0.1875 25:0.125 26:0.0 27:0.375 28:0.4375 
-0.1293071978227273 1:0.5 2:0.3125 3:0.3125 4:0.5625 5:0.5625 6:0.9375 7:0.9375 8:0.0625 9:0.4375 10:0.5 11:0.125 12:0.5 13:0.5 14:0.625 15:0.75 16:0.6875 17:0.75 18:0.9375 19:0.6875 20:0.375 21:0.9375 22:0.6875 23:0.125 24:0.5625 25:0.375 26:0.5 27:0.8125 28:0.375 
-0.14618274054045366 1:0.9375 2:0.5 3:0.375 4:0.25 5:0.5625 6:0.375 7:0.5625 8:0.5 9:0.25 10:0.3125 11:0.375 12:0.125 13:0.5 14:0.5 15:0.4375 16:0.5625 17:0.375 18:0.6875 19:0.25 20:0.5 21:0.625 22:0.625 23:0.6875 24:0.75 25:0.75 26:0.25 27:0.75 28:0.5 
-0.2633971973082279 1:0.4375 2:0.5 3:0.25 4:0.4375 5:0.5 6:0.125 7:0.3125 8:0.5 9:0.4375 10:0.5 11:0.875 12:0.3125 13:0.5625 14:0.3125 15:0.3125 16:1.0 17:0.1875 18:0.375 19:0.75 20:0.75 21:0.25 22:0.4375 23:0.75 24:0.25 25:0.125 26:0.125 27:0.0 28:0.3125 
0.051051880967906194 1:0.5 2:0.4375 3:0.0 4:0.0 5:0.4375 6:0.3125 7:0.3125 8:0.125 9:0.0 10:0.5 11:0.375 12:0.3125 13:0.25 14:0.5 15:0.625 16:0.8125 17:0.6875 18:0.375 19:0.875 20:0.875 21:0.75 22:0.9375 23:0.25 24:0.375 25:0.5 26:0.5625 27:0.375 28:0.4375 
-0.1329375167187919 1:0.5 2:0.8125 3:0.375 4:0.5625 5:0.8125 6:0.8125 7:0.625 8:1.0 9:0.3125 10:0.875 11:0.9375 12:0.75 13:0.875 14:0.1875 15:0.5625 16:0.5 17:0.8125 18:0.5 19:0.625 20:0.625 21:0.75 22:0.5 23:0.75 24:0.625 25:0.375 26:0.4375 27:0.5 28:0.3125 
0.33963708326511666 1:0.9375 2:0.5 3:0.375 4:0.75 5:0.6875 6:0.625 7:0.6875 8:0.1875 9:0.3125 10:0.0 11:0.375 12:0.25 13:0.1875 14:0.5 15:0.8125 16:0.9375 17:0.75 18:0.8125 19:0.8125 20:0.875 21:0.75 22:0.5625 23:0.5625 24:0.25 25:0.375 26:0.5 27:0.5 28:0.5 
-0.18810005618124123 1:0.875 2:0.75 3:0.625 4:0.4375 5:0.875 6:0.5625 7:0.75 8:0.5 9:0.3125 10:0.25 11:0.4375 12:0.5 13:0.3125 14:0.5625 15:0.5 16:0.625 17:0.625 18:0.625 19:0.125 20:0.5 21:0.375 22:0.375 23:1.0 24:0.5625 25:0.5 26:0.3125 27:0.0625 28:0.0 
0.09970074021330363 1:0.4375 2:0.5 3:0.625 4:0.625 5:0.3125 6:0.25 7:0.75 8:0.25 9:0.125 10:0.4375 11:0.125 12:0.0625 13:0.3125 14:0.5625 15:0.6875 16:0.625 17:0.5625 18:0.75 19:0.75 20:0.5 21:0.4375 22:0.8125 23:0.1875 24:0.0625 25:0.5 26:0.5 27:0.9375 28:0.75 
0.190054358005834 1:0.0 2:0.0625 3:0.125 4:0.625 5:0.3125 6:0.5625 7:0.25 8:0.5 9:0.5 10:0.5625 11:0.625 12:0.6875 13:0.625 14:0.5 15:0.875 16:0.8125 17:0.75 18:0.6875 19:1.0 20:0.625 21:0.9375 22:0.9375 23:0.625 24:0.9375 25:0.4375 26:0.5 27:0.0625 28:0.375 
0.07012731622092093 1:0.25 2:0.0 3:0.0 4:0.3125 5:0.0625 6:0.125 7:0.0 8:0.6875 9:0.25 10:0.5625 11:0.625 12:0.8125 13:0.9375 14:0.125 15:0.5625 16:0.1875 17:0.5 18:0.9375 19:0.6875 20:0.8125 21:1.0 22:0.875 23:0.4375 24:0.75 25:0.5625 26:0.5 27:0.625 28:0.5625 
-0.11401685458308822 1:0.375 2:0.5 3:0.875 4:0.375 5:0.0625 6:1.0 7:0.375 8:0.8125 9:0.8125 10:0.6875 11:0.4375 12:0.8125 13:0.5 14:0.6875 15:0.4375 16:0.0625 17:0.875 18:0.375 19:0.25 20:0.0625 21:0.0625 22:0.0 23:0.5625 24:0.5625 25:0.3125 26:1.0 27:0.375 28:0.0625 
-0.19572486420734564 1:0.4375 2:0.4375 3:0.5 4:0.625 5:1.0 6:1.0 7:0.625 8:0.5 9:0.75 10:0.75 11:0.75 12:0.9375 13:0.75 14:0.5 15:1.0 16:0.75 17:0.9375 18:0.6875 19:0.4375 20:0.625 21:0.375 22:0.5 23:0.5625 24:0.4375 25:0.5 26:0.25 27:0.5 28:0.375 
-0.08953636541309458 1:0.8125 2:0.75 3:0.875 4:0.5 5:0.9375 6:0.75 7:0.8125 8:0.4375 9:0.5 10:0.0 11:0.75 12:0.6875 13:0.75 14:0.75 15:0.4375 16:0.75 17:1.0 18:0.625 19:0.125 20:0.5 21:0.3125 22:0.625 23:0.625 24:0.75 25:1.0 26:0.3125 27:0.75 28:0.75 
-0.09466976601328046 1:0.5 2:0.3125 3:0.5625 4:0.5 5:0.5 6:0.5 7:0.4375 8:0.375 9:0.375 10:0.1875 11:0.5 12:0.125 13:0.3125 14:0.5625 15:0.6875 16:0.6875 17:0.5625 18:0.5 19:0.3125 20:0.0 21:0.4375 22:0.4375 23:1.0 24:0.4375 25:0.4375 26:0.5 27:0.375 28:0.4375 
-0.11627849266697868 1:0.375 2:0.75 3:0.5 4:0.0625 5:0.25 6:0.4375 7:0.1875 8:0.5 9:0.5 10:0.375 11:0.5 12:0.375 13:0.0 14:0.1875 15:0.125 16:0.25 17:0.3125 18:0.25 19:0.5 20:0.25 21:0.4375 22:0.125 23:0.625 24:0.25 25:0.3125 26:0.5 27:0.3125 28:0.375 
-0.2344554897876061 1:0.75 2:0.8125 3:0.3125 4:0.9375 5:0.875 6:0.8125 7:1.0 8:0.875 9:0.4375 10:0.6875 11:0.75 12:0.6875 13:0.5 14:0.1875 15:0.625 16:0.75 17:0.625 18:0.625 19:1.0 20:0.9375 21:1.0 22:0.875 23:0.9375 24:0.5625 25:0.5 26:0.625 27:0.375 28:0.5 
-0.019891545271267616 1:0.8125 2:0.5 3:0.875 4:0.5625 5:0.5 6:0.4375 7:1.0 8:0.375 9:0.5 10:0.125 11:0.375 12:0.5 13:0.625 14:1.0 15:0.75 16:0.125 17:0.375 18:0.8125 19:0.1875 20:0.0625 21:0.0625 22:0.5 23:0.25 24:0.4375 25:0.9375 26:0.5625 27:0.6875 28:0.625 
0.06384392930997478 1:0.5 2:0.6875 3:0.1875 4:0.8125 5:0.125 6:0.5 7:0.9375 8:0.8125 9:0.5 10:0.9375 11:0.25 12:0.625 13:0.5625 14:0.1875 15:0.375 16:0.125 17:0.5 18:0.4375 19:0.6875 20:0.375 21:0.625 22:0.6875 23:0.1875 24:0.3125 25:0.125 26:1.0 27:0.8125 28:0.5 
-0.04623985167014384 1:0.0625 2:0.125 3:0.4375 4:0.5 5:0.5 6:0.75 7:0.3125 8:0.3125 9:0.8125 10:0.5625 11:0.5625 12:0.875 13:0.9375 14:0.5625 15:0.6875 16:0.75 17:0.9375 18:1.0 19:0.5 20:0.5625 21:0.9375 22:0.8125 23:0.6875 24:0.9375 25:0.75 26:0.875 27:0.625 28:0.3125 
-0.16354618646463198 1:0.4375 2:1.0 3:0.6875 4:1.0 5:0.75 6:0.625 7:0.75 8:0.875 9:0.9375 10:0.625 11:0.75 12:0.75 13:0.6875 14:0.25 15:0.0625 16:0.5 17:0.375 18:0.4375 19:0.5 20:0.75 21:0.5 22:0.4375 23:0.6875 24:0.4375 25:0.6875 26:0.5 27:0.8125 28:0.9375 
0.47668015488267607 1:0.625 2:0.875 3:0.75 4:0.875 5:0.625 6:0.5 7:0.5 8:0.9375 9:0.5625 10:0.75 11:0.5 12:0.1875 13:0.5625 14:0.5 15:0.5 16:0.0625 17:0.1875 18:0.25 19:0.5 20:0.1875 21:0.5 22:0.375 23:0.125 24:0.0 25:0.25 26:0.0 27:0.25 28:0.5625 
0.15484445262164537 1:0.4375 2:0.5625 3:0.625 4:0.6875 5:0.8125 6:0.4375 7:0.5 8:0.5625 9:0.5625 10:0.75 11:0.6875 12:0.6875 13:0.4375 14:0.6875 15:0.3125 16:0.5 17:0.25 18:0.5 19:0.625 20:0.75 21:0.25 22:0.3125 23:0.5625 24:0.3125 25:0.125 26:0.375 27:0.3125 28:0.5 
-0.07085715965776837 1:0.5625 2:0.3125 3:0.125 4:0.1875 5:0.5 6:0.25 7:0.625 8:0.375 9:0.1875 10:0.375 11:0.0625 12:0.3125 13:0.3125 14:0.3125 15:0.5 16:0.6875 17:0.625 18:0.5 19:0.8125 20:0.625 21:0.625 22:0.6875 23:0.5 24:0.5625 25:0.8125 26:0.3125 27:0.4375 28:0.4375 
0.272126278941523 1:0.1875 2:0.5625 3:0.5625 4:0.5625 5:0.8125 6:0.4375 7:0.6875 8:0.5625 9:1.0 10:0.875 11:0.6875 12:0.5 13:0.8125 14:0.8125 15:1.0 16:0.8125 17:0.3125 18:0.8125 19:0.75 20:0.5625 21:0.4375 22:0.4375 23:0.3125 24:0.125 25:0.3125 26:0.4375 27:0.5625 28:0.75 
-0.1512388985208463 1:0.1875 2:0.5 3:0.8125 4:0.5 5:0.5625 6:0.625 7:0.75 8:0.5 9:0.9375 10:0.0 11:0.4375 12:0.75 13:1.0 14:0.625 15:0.375 16:0.5 17:0.75 18:0.8125 19:0.125 20:0.3125 21:0.1875 22:0.5 23:0.875 24:0.75 25:0.875 26:0.625 27:1.0 28:0.5625 
0.1935070205454893 1:0.0625 2:0.5 3:0.375 4:0.125 5:0.1875 6:0.5 7:0.4375 8:0.9375 9:0.4375 10:0.4375 11:0.125 12:0.9375 13:0.625 14:0.1875 15:0.0 16:0.0 17:0.4375 18:0.25 19:0.5 20:0.75 21:0.9375 22:0.8125 23:0.25 24:0.9375 25:0.6875 26:0.75 27:0.875 28:0.75 
0.21605606609334738 1:0.875 2:0.5625 3:0.5625 4:0.5625 5:0.625 6:0.4375 7:0.5 8:0.125 9:0.3125 10:0.5 11:0.25 12:0.3125 13:0.3125 14:0.75 15:0.5625 16:0.5 17:0.3125 18:0.3125 19:0.75 20:0.4375 21:0.0 22:0.125 23:0.3125 24:0.0625 25:0.375 26:0.125 27:0.5 28:0.5 
0.15198973287659884 1:0.25 2:0.5 3:0.125 4:0.5625 5:0.25 6:0.375 7:0.0 8:0.6875 9:0.5 10:0.75 11:0.625 12:0.9375 13:0.5625 14:0.1875 15:0.6875 16:0.375 17:0.5625 18:0.0625 19:0.625 20:0.75 21:0.625 22:0.5 23:0.5 24:0.25 25:0.125 26:0.5625 27:0.625 28:0.0 
0.08492150373427988 1:0.1875 2:0.125 3:0.4375 4:0.25 5:0.75 6:0.0625 7:0.5625 8:0.6875 9:0.625 10:0.5625 11:1.0 12:0.5625 13:0.5 14:0.75 15:0.375 16:1.0 17:0.5625 18:0.625 19:0.5 20:0.75 21:0.5 22:0.5 23:0.5625 24:0.5625 25:0.8125 26:0.125 27:0.1875 28:0.75 
0.2688668416607113 1:0.5 2:0.3125 3:0.75 4:0.8125 5:0.4375 6:0.4375 7:0.5625 8:0.1875 9:0.9375 10:0.4375 11:0.5 12:0.3125 13:0.5625 14:0.9375 15:0.75 16:0.4375 17:0.375 18:0.9375 19:0.0625 20:0.125 21:0.0625 22:0.25 23:0.125 24:0.0625 25:0.375 26:0.5625 27:0.75 28:0.875 
-0.4219223911075959 1:0.875 2:0.875 3:0.5625 4:0.875 5:0.875 6:0.5625 7:0.625 8:0.875 9:1.0 10:0.9375 11:1.0 12:0.5 13:0.5 14:0.75 15:0.6875 16:0.875 17:0.5 18:0.5625 19:0.8125 20:0.6875 21:0.125 22:0.375 23:0.5625 24:0.125 25:0.0 26:0.125 27:0.25 28:0.5 
0.06401610070226191 1:0.875 2:0.375 3:0.375 4:0.9375 5:0.5625 6:0.8125 7:0.1875 8:0.125 9:0.3125 10:0.0 11:0.0625 12:0.4375 13:0.25 14:0.5 15:0.9375 16:0.5 17:0.75 18:0.5 19:0.6875 20:0.3125 21:0.6875 22:0.0 23:0.0 24:0.5 25:0.3125 26:0.8125 27:0.4375 28:0.25 
-0.09293271230124323 1:0.875 2:0.8125 3:0.3125 4:0.625 5:0.8125 6:0.5 7:0.75 8:0.3125 9:0.4375 10:0.25 11:0.5 12:0.0625 13:0.3125 14:0.4375 15:0.0 16:0.5 17:0.3125 18:0.6875 19:0.5625 20:0.5 21:0.5 22:0.9375 23:0.5 24:0.5 25:0.8125 26:0.5 27:0.5625 28:0.625 
0.03711053120693861 1:0.0 2:0.375 3:0.0625 4:0.4375 5:0.125 6:0.0625 7:0.0 8:0.8125 9:0.3125 10:0.5 11:0.5 12:0.3125 13:0.3125 14:0.25 15:0.5625 16:0.4375 17:0.3125 18:0.25 19:0.875 20:0.5625 21:0.625 22:0.0625 23:0.375 24:0.0625 25:0.4375 26:0.375 27:0.375 28:0.5 
-0.1577847846204759 1:0.25 2:0.625 3:0.5625 4:0.6875 5:0.8125 6:0.6875 7:0.5625 8:0.9375 9:0.6875 10:0.5 11:0.8125 12:1.0 13:0.5625 14:0.1875 15:0.4375 16:0.6875 17:0.0625 18:0.3125 19:0.375 20:0.75 21:0.625 22:0.5625 23:1.0 24:0.4375 25:0.5 26:0.125 27:0.125 28:0.625 
-0.10991133809538813 1:0.25 2:0.5625 3:0.5 4:0.125 5:0.5625 6:0.25 7:0.1875 8:0.9375 9:0.75 10:0.4375 11:0.5625 12:0.5 13:0.1875 14:0.4375 15:0.0625 16:0.3125 17:0.4375 18:0.1875 19:0.3125 20:0.25 21:0.0625 22:0.125 23:0.8125 24:0.625 25:0.5625 26:0.0 27:0.375 28:0.625 
-0.05232121591262288 1:0.375 2:0.5 3:1.0 4:0.9375 5:0.5 6:0.3125 7:0.5625 8:0.5 9:1.0 10:0.75 11:0.8125 12:0.4375 13:0.875 14:0.8125 15:0.75 16:0.9375 17:0.4375 18:0.6875 19:0.1875 20:0.5 21:0.1875 22:0.0625 23:0.5625 24:0.25 25:0.1875 26:0.1875 27:0.0 28:0.5625 
-0.21897440594583753 1:0.0 2:0.0625 3:0.5 4:0.125 5:0.25 6:0.375 7:0.0625 8:1.0 9:0.6875 10:0.6875 11:0.75 12:0.6875 13:0.8125 14:0.5 15:0.125 16:0.3125 17:0.4375 18:0.375 19:0.5 20:0.5 21:0.5 22:0.125 23:0.5 24:0.5625 25:0.4375 26:0.375 27:0.375 28:0.25 
0.4040372107961593 1:1.0 2:0.75 3:1.0 4:0.8125 5:0.625 6:0.8125 7:0.5 8:0.5 9:0.375 10:0.25 11:0.3125 12:0.0625 13:0.0 14:0.5625 15:0.6875 16:0.4375 17:0.0 18:0.25 19:0.5 20:0.5 21:0.1875 22:0.125 23:0.5 24:0.5 25:0.25 26:0.5 27:0.0625 28:0.5 
