encog,SVM,java,3.2.0,1,1406057736128
[SVM]
[SVM:PARAMS]
[SVM:SVM-PARAM]
inputCount=21
C=1
cacheSize=100
coef0=0
degree=3
eps=0.001
gamma=1
kernelType=2
nrWeight=0
nu=0.5
p=0.1
probability=0
shrinking=1
svmType=3
weight=
weightLabel=
[SVM:SVM-MODEL]
svm_type epsilon_svr
kernel_type rbf
gamma 1.0
nr_class 2
total_sv 374
rho -0.4532718294247473
SV
-0.1602439553899828 1:0.3125 2:0.375 3:0.75 4:0.625 5:0.5 6:0.8125 7:0.5 8:0.875 9:0.8125 10:1.0 11:0.75 12:0.6875 13:0.75 14:0.625 15:0.8125 16:0.0 17:0.4375 18:0.4375 19:0.4375 20:0.4375 21:0.375 
-0.34771995504786946 1:0.9375 2:0.5 3:0.6875 4:0.625 5:0.6875 6:1.0 7:0.4375 8:0.4375 9:0.875 10:0.625 11:0.875 12:0.4375 13:0.8125 14:1.0 15:0.5 16:0.75 17:0.8125 18:0.75 19:0.5 20:0.5 21:0.5625 
0.0722066347005646 1:0.125 2:0.1875 3:0.4375 4:0.4375 5:0.4375 6:0.125 7:0.0 8:0.8125 9:0.5 10:0.75 11:0.0 12:0.75 13:0.6875 14:0.75 15:0.25 16:0.375 17:0.5 18:0.0 19:0.5 20:0.375 21:0.125 
0.1652876969378315 1:0.1875 2:0.0625 3:0.375 4:0.0625 5:0.125 6:0.3125 7:0.0 8:0.625 9:0.125 10:0.625 11:0.8125 12:0.8125 13:0.9375 14:0.625 15:0.875 16:0.125 17:0.4375 18:0.5 19:0.625 20:0.6875 21:0.625 
0.0664454189837566 1:0.1875 2:0.5 3:0.6875 4:0.375 5:0.5 6:0.5 7:0.75 8:0.875 9:0.5 10:1.0 11:0.875 12:0.3125 13:0.5 14:0.5625 15:0.5 16:0.3125 17:0.625 18:0.4375 19:0.8125 20:0.4375 21:0.3125 
-0.023276239900025572 1:0.75 2:0.75 3:0.5 4:0.6875 5:0.625 6:0.625 7:0.875 8:0.4375 9:0.3125 10:0.25 11:0.5 12:0.25 13:0.125 14:0.0625 15:0.0625 16:0.5625 17:0.5625 18:0.3125 19:0.25 20:0.4375 21:0.625 
-0.006858706720451736 1:0.8125 2:0.75 3:0.5 4:0.75 5:0.6875 6:0.5 7:0.75 8:0.5625 9:0.8125 10:0.1875 11:0.4375 12:0.125 13:0.4375 14:0.1875 15:0.0625 16:1.0 17:0.3125 18:0.5625 19:0.0 20:0.0625 21:0.625 
0.0035626033117681583 1:0.5625 2:0.4375 3:0.75 4:0.4375 5:0.75 6:1.0 7:0.5 8:0.75 9:0.5 10:0.875 11:0.5 12:0.9375 13:1.0 14:0.75 15:1.0 16:0.3125 17:0.4375 18:0.0625 19:0.6875 20:0.8125 21:0.5 
0.43549281432612774 1:0.3125 2:0.125 3:0.3125 4:0.0 5:0.5 6:0.5 7:0.0625 8:0.3125 9:0.25 10:0.125 11:0.625 12:0.5625 13:0.5 14:0.375 15:0.5625 16:0.5 17:0.5 18:0.875 19:0.5 20:0.875 21:0.8125 
-0.011213909313213926 1:0.4375 2:0.8125 3:0.25 4:0.3125 5:0.5 6:0.0625 7:0.75 8:0.375 9:0.375 10:0.4375 11:0.1875 12:0.0625 13:0.1875 14:0.375 15:0.375 16:0.75 17:1.0 18:0.5 19:0.875 20:0.3125 21:0.4375 
-0.47098688186085924 1:0.5 2:0.25 3:0.5 4:0.4375 5:0.3125 6:0.1875 7:0.0 8:0.5625 9:0.625 10:0.4375 11:0.125 12:0.6875 13:0.8125 14:0.6875 15:0.6875 16:0.6875 17:0.5625 18:0.5 19:0.4375 20:0.125 21:0.25 
-0.2687825652514843 1:0.8125 2:0.4375 3:0.875 4:0.5 5:0.5 6:0.5 7:0.25 8:0.5 9:0.5 10:0.375 11:0.3125 12:0.5625 13:0.8125 14:0.75 15:0.5625 16:0.5 17:0.1875 18:0.125 19:0.0 20:0.4375 21:0.5 
-0.0018834189572232668 1:0.5 2:0.4375 3:0.75 4:0.8125 5:0.0625 6:0.625 7:0.25 8:0.4375 9:0.9375 10:0.0 11:0.875 12:0.9375 13:0.875 14:0.5 15:0.6875 16:0.75 17:0.125 18:0.625 19:0.0625 20:0.25 21:0.75 
0.1329571747563103 1:0.9375 2:0.5625 3:0.5 4:0.5 5:0.5 6:0.5625 7:0.0625 8:0.125 9:0.375 10:0.1875 11:0.25 12:0.25 13:0.6875 14:0.3125 15:0.5625 16:0.5625 17:0.5 18:0.8125 19:0.0625 20:0.125 21:0.875 
-0.033642672081860156 1:1.0 2:0.5 3:0.0 4:1.0 5:0.5 6:0.9375 7:0.1875 8:0.0 9:0.125 10:0.25 11:0.3125 12:0.375 13:0.5 14:0.0625 15:0.75 16:0.8125 17:0.625 18:0.9375 19:0.0 20:0.5 21:0.875 
-0.26031307964408307 1:0.5625 2:0.1875 3:0.3125 4:0.1875 5:0.1875 6:0.0 7:0.0 8:0.375 9:0.0625 10:0.1875 11:0.3125 12:0.375 13:0.0 14:0.25 15:0.375 16:0.0625 17:0.125 18:0.375 19:0.5625 20:0.5 21:0.375 
-0.05875488952224938 1:0.875 2:0.625 3:0.4375 4:0.25 5:0.625 6:0.6875 7:0.0625 8:0.3125 9:0.0625 10:0.0 11:0.375 12:0.5 13:0.25 14:0.125 15:0.5625 16:0.5 17:0.625 18:0.75 19:0.875 20:0.8125 21:0.8125 
-0.598846654403087 1:0.5 2:0.125 3:0.5 4:0.5625 5:0.5 6:0.375 7:0.5 8:0.625 9:1.0 10:0.5625 11:0.1875 12:0.875 13:1.0 14:0.5 15:0.375 16:0.75 17:0.625 18:0.1875 19:0.25 20:0.25 21:0.4375 
-0.061310160849456 1:0.5 2:0.25 3:0.5625 4:0.75 5:0.3125 6:0.8125 7:0.0625 8:0.5 9:0.8125 10:0.125 11:0.75 12:0.6875 13:0.875 14:0.9375 15:0.75 16:0.5 17:0.5 18:0.6875 19:0.375 20:0.5 21:0.9375 
0.2787987793788896 1:0.375 2:0.3125 3:0.5 4:1.0 5:0.5 6:0.5 7:0.3125 8:0.9375 9:1.0 10:0.5 11:0.5 12:0.8125 13:1.0 14:0.8125 15:0.6875 16:0.8125 17:0.375 18:0.375 19:0.0 20:0.125 21:0.875 
0.3123993725660871 1:0.3125 2:0.5 3:0.6875 4:0.9375 5:0.25 6:0.8125 7:0.8125 8:0.75 9:0.625 10:0.5 11:0.5625 12:0.8125 13:0.625 14:0.4375 15:0.6875 16:0.0 17:0.0 18:0.5 19:0.1875 20:0.5 21:0.625 
-0.3102297860212348 1:0.6875 2:0.4375 3:0.5 4:0.25 5:0.25 6:0.6875 7:0.25 8:0.5 9:0.0 10:0.0 11:0.25 12:0.75 13:0.25 14:0.375 15:0.5625 16:0.1875 17:0.1875 18:0.375 19:0.375 20:0.4375 21:0.9375 
-0.1733816293073621 1:0.875 2:0.9375 3:0.375 4:0.5625 5:0.5625 6:0.5 7:0.0625 8:0.0 9:0.25 10:0.1875 11:0.3125 12:0.25 13:0.4375 14:0.5 15:0.3125 16:0.9375 17:0.9375 18:0.6875 19:0.9375 20:0.125 21:0.0 
0.06965939226962015 1:0.625 2:0.5 3:0.75 4:0.4375 5:0.4375 6:0.6875 7:0.0 8:0.5 9:0.375 10:0.0 11:0.5 12:0.625 13:0.4375 14:0.8125 15:0.8125 16:0.0625 17:0.375 18:0.8125 19:0.9375 20:0.75 21:0.8125 
0.025833334246730864 1:0.4375 2:0.375 3:0.4375 4:0.75 5:0.4375 6:0.625 7:0.4375 8:0.375 9:0.75 10:0.0625 11:0.75 12:0.5625 13:0.625 14:0.375 15:0.6875 16:1.0 17:0.75 18:0.6875 19:0.25 20:0.3125 21:0.625 
0.05881873394833048 1:0.625 2:0.4375 3:0.75 4:0.5625 5:0.1875 6:0.0625 7:0.5 8:0.5 9:0.5 10:0.0625 11:0.125 12:1.0 13:0.5 14:0.5 15:0.0625 16:0.625 17:0.1875 18:0.1875 19:0.375 20:0.0625 21:0.1875 
0.1290278011689237 1:0.0625 2:0.1875 3:0.4375 4:0.25 5:0.5625 6:0.5 7:0.0625 8:0.4375 9:0.5 10:0.8125 11:0.5 12:0.75 13:0.9375 14:0.75 15:0.9375 16:0.6875 17:1.0 18:0.625 19:0.625 20:0.625 21:0.5 
0.077735361249434 1:0.8125 2:0.4375 3:0.9375 4:0.0625 5:0.75 6:0.75 7:0.3125 8:0.4375 9:0.0 10:0.5 11:0.6875 12:0.8125 13:0.375 14:0.5 15:1.0 16:0.375 17:0.4375 18:0.6875 19:0.9375 20:1.0 21:0.6875 
0.1489133255663613 1:0.3125 2:0.3125 3:0.75 4:0.75 5:0.4375 6:0.3125 7:0.625 8:0.9375 9:0.625 10:0.8125 11:0.0 12:0.9375 13:0.625 14:0.5625 15:0.25 16:0.4375 17:0.25 18:0.0 19:0.5 20:0.375 21:0.375 
-0.08116747183576015 1:0.1875 2:0.3125 3:0.0625 4:0.3125 5:0.3125 6:0.1875 7:0.25 8:0.3125 9:0.5625 10:0.625 11:0.875 12:0.25 13:0.5 14:0.75 15:0.875 16:0.5625 17:0.75 18:0.9375 19:0.8125 20:0.6875 21:0.75 
-0.18695794247576922 1:0.0625 2:0.0 3:0.3125 4:0.3125 5:0.3125 6:0.0625 7:0.4375 8:0.5625 9:0.5625 10:0.6875 11:0.5 12:0.875 13:0.625 14:0.5 15:0.8125 16:0.75 17:0.4375 18:0.0 19:0.375 20:0.4375 21:0.5 
-0.025722563838778974 1:0.0625 2:0.5625 3:0.0 4:0.5 5:0.25 6:0.5 7:0.75 8:0.9375 9:0.75 10:0.6875 11:0.8125 12:0.1875 13:0.3125 14:0.3125 15:0.5 16:0.9375 17:1.0 18:0.9375 19:0.3125 20:0.5 21:0.5 
0.22592341463451254 1:0.625 2:1.0 3:0.9375 4:0.5 5:0.6875 6:1.0 7:0.0625 8:0.875 9:0.375 10:0.5625 11:0.4375 12:1.0 13:0.5 14:0.875 15:0.6875 16:0.125 17:0.375 18:0.3125 19:0.875 20:0.625 21:0.4375 
0.2576159183356462 1:0.4375 2:0.25 3:0.3125 4:0.3125 5:0.125 6:0.0 7:0.375 8:0.0 9:0.6875 10:0.1875 11:0.5 12:0.625 13:0.5625 14:0.375 15:0.5 16:0.5 17:0.5 18:0.5 19:0.3125 20:0.25 21:0.4375 
-0.05417820288387108 1:0.75 2:0.375 3:0.4375 4:0.0 5:0.5 6:0.5 7:0.375 8:0.1875 9:0.1875 10:0.125 11:0.4375 12:0.6875 13:0.375 14:0.5 15:0.5625 16:0.3125 17:0.875 18:0.9375 19:0.6875 20:0.8125 21:0.6875 
0.4417936356597855 1:0.3125 2:0.3125 3:0.375 4:0.6875 5:0.75 6:0.1875 7:0.5 8:0.3125 9:0.75 10:0.75 11:0.4375 12:0.25 13:0.5 14:0.75 15:0.375 16:0.8125 17:0.8125 18:0.375 19:0.5 20:0.4375 21:0.3125 
-0.15142880165644018 1:0.0625 2:0.5 3:0.25 4:0.5 5:0.625 6:0.4375 7:0.8125 8:0.875 9:0.8125 10:0.625 11:0.75 12:0.1875 13:0.375 14:0.5625 15:0.5 16:0.8125 17:1.0 18:0.4375 19:0.8125 20:0.375 21:0.0 
0.2942605018624664 1:0.25 2:0.3125 3:1.0 4:0.6875 5:0.625 6:0.125 7:0.5625 8:0.875 9:1.0 10:0.5 11:0.5625 12:0.8125 13:0.75 14:0.5 15:0.4375 16:0.4375 17:0.3125 18:0.375 19:0.3125 20:0.3125 21:0.5 
0.013584087277097468 1:0.375 2:0.4375 3:0.125 4:0.6875 5:0.1875 6:0.3125 7:0.8125 8:0.25 9:0.75 10:0.75 11:0.5625 12:0.0625 13:0.375 14:0.375 15:0.0 16:0.875 17:0.6875 18:0.5 19:0.3125 20:0.0625 21:0.5 
0.13151770345478345 1:0.375 2:0.6875 3:0.5625 4:0.875 5:0.5 6:0.75 7:0.5625 8:0.5 9:0.5625 10:0.5625 11:0.9375 12:0.375 13:0.6875 14:0.5625 15:0.5 16:0.5 17:0.875 18:0.625 19:0.375 20:0.4375 21:0.5625 
0.0860313848529066 1:0.4375 2:0.9375 3:0.4375 4:0.4375 5:0.625 6:0.4375 7:0.8125 8:0.4375 9:0.125 10:0.9375 11:0.375 12:0.4375 13:0.25 14:0.75 15:0.1875 16:0.5 17:0.9375 18:0.3125 19:0.9375 20:0.4375 21:0.1875 
0.35548857482974916 1:0.125 2:0.4375 3:0.5625 4:0.25 5:0.1875 6:0.5 7:0.75 8:0.875 9:0.8125 10:0.75 11:0.6875 12:0.5625 13:0.0 14:0.375 15:0.9375 16:0.5 17:0.25 18:0.5625 19:0.5625 20:0.9375 21:0.75 
0.17481552895696142 1:1.0 2:0.6875 3:0.5625 4:0.8125 5:0.875 6:0.5 7:0.3125 8:0.125 9:0.875 10:0.4375 11:0.125 12:0.75 13:0.9375 14:0.75 15:0.4375 16:0.9375 17:0.6875 18:0.625 19:0.4375 20:0.3125 21:0.4375 
1.0 1:0.9375 2:0.625 3:0.4375 4:0.5 5:0.5 6:0.75 7:0.1875 8:0.125 9:0.125 10:0.1875 11:0.25 12:0.625 13:0.625 14:0.6875 15:0.625 16:0.75 17:0.5 18:0.8125 19:0.75 20:0.625 21:0.5 
-0.3312062544591362 1:0.5625 2:0.875 3:0.5625 4:0.6875 5:0.1875 6:0.25 7:0.5 8:0.0 9:0.6875 10:0.375 11:0.25 12:0.0625 13:0.5 14:0.25 15:0.125 16:1.0 17:0.4375 18:0.625 19:0.1875 20:0.0625 21:0.5625 
-0.012290845608411677 1:0.375 2:0.3125 3:0.0625 4:0.25 5:0.4375 6:0.4375 7:0.125 8:0.4375 9:0.4375 10:0.8125 11:0.5625 12:1.0 13:0.5 14:0.75 15:0.5625 16:0.5 17:0.875 18:0.9375 19:0.6875 20:0.5625 21:0.4375 
0.1530415396058239 1:1.0 2:0.8125 3:0.75 4:0.9375 5:0.9375 6:0.6875 7:0.625 8:0.6875 9:0.75 10:0.5625 11:0.625 12:0.6875 13:0.875 14:0.5 15:0.0625 16:0.75 17:0.25 18:0.4375 19:0.25 20:0.0625 21:0.5 
-0.586998894998945 1:0.5 2:0.5 3:0.6875 4:0.3125 5:0.25 6:0.625 7:0.5 8:0.5 9:0.1875 10:0.0625 11:0.1875 12:0.5625 13:0.4375 14:0.0 15:0.375 16:0.125 17:0.1875 18:0.5 19:0.0 20:0.875 21:0.6875 
0.19876250101124468 1:0.625 2:0.1875 3:0.5 4:0.1875 5:0.5 6:0.3125 7:0.375 8:0.875 9:0.25 10:0.375 11:0.375 12:0.9375 13:0.5 14:0.5625 15:0.8125 16:0.1875 17:0.125 18:0.4375 19:0.625 20:0.8125 21:0.9375 
0.24071638082409097 1:0.5 2:0.5 3:0.3125 4:0.375 5:0.5 6:0.1875 7:0.3125 8:0.4375 9:0.5 10:0.4375 11:0.125 12:0.5 13:0.5 14:0.625 15:0.1875 16:0.8125 17:0.75 18:0.25 19:0.25 20:0.0625 21:0.125 
0.12756776812806264 1:0.4375 2:0.875 3:0.0625 4:0.3125 5:0.1875 6:0.5 7:0.4375 8:0.125 9:0.125 10:0.1875 11:0.625 12:0.1875 13:0.375 14:0.125 15:0.375 16:0.625 17:0.9375 18:0.875 19:0.5 20:0.6875 21:0.6875 
-0.13955222848797794 1:0.9375 2:0.9375 3:0.625 4:0.4375 5:0.9375 6:0.875 7:0.25 8:0.3125 9:0.1875 10:0.5 11:0.375 12:0.625 13:0.5 14:0.8125 15:0.875 16:0.3125 17:0.6875 18:0.5 19:0.8125 20:0.5625 21:0.625 
0.19690379254763504 1:0.5 2:0.125 3:0.375 4:0.1875 5:0.3125 6:0.25 7:0.1875 8:0.6875 9:0.5 10:0.5 11:0.5 12:1.0 13:0.5 14:0.5 15:1.0 16:0.5 17:0.0625 18:0.5 19:0.1875 20:0.6875 21:0.5625 
0.43878108672088045 1:0.625 2:0.9375 3:0.625 4:0.3125 5:0.5 6:0.4375 7:0.8125 8:0.5 9:0.1875 10:0.3125 11:0.1875 12:0.25 13:0.0 14:0.25 15:0.125 16:0.125 17:0.25 18:0.5625 19:0.75 20:0.5 21:0.6875 
-0.18166236600705765 1:0.625 2:0.4375 3:0.0625 4:0.875 5:0.6875 6:0.5 7:0.0 8:0.1875 9:0.1875 10:0.0625 11:0.0625 12:0.3125 13:0.5625 14:0.5625 15:0.375 16:1.0 17:0.8125 18:0.9375 19:0.375 20:0.125 21:0.375 
0.1729820831840434 1:0.4375 2:0.375 3:0.3125 4:0.1875 5:0.4375 6:0.3125 7:0.5625 8:0.375 9:0.5 10:0.5 11:0.25 12:0.4375 13:0.4375 14:0.75 15:0.625 16:0.8125 17:0.625 18:0.5 19:0.5 20:0.25 21:0.3125 
-0.43131513001681104 1:0.375 2:0.1875 3:0.75 4:0.25 5:0.3125 6:0.3125 7:0.4375 8:0.5 9:0.5 10:0.4375 11:0.25 12:0.875 13:0.5 14:0.875 15:0.6875 16:0.5 17:0.3125 18:0.375 19:0.375 20:0.5 21:0.5 
0.10286536884504731 1:0.25 2:0.5625 3:0.0625 4:0.3125 5:0.125 6:0.5 7:0.6875 8:0.25 9:0.1875 10:0.375 11:0.625 12:0.4375 13:0.25 14:0.4375 15:0.5 16:0.5625 17:0.4375 18:0.6875 19:0.375 20:0.625 21:0.6875 
-0.0642718573594475 1:0.0 2:0.5 3:0.4375 4:0.375 5:0.875 6:0.375 7:0.6875 8:0.3125 9:0.5625 10:0.75 11:0.5 12:0.375 13:0.1875 14:0.875 15:0.25 16:0.625 17:0.9375 18:0.5625 19:0.875 20:0.8125 21:0.0 
-0.18626325791584822 1:0.5625 2:0.6875 3:0.6875 4:0.5 5:0.75 6:0.5625 7:0.5625 8:0.125 9:0.3125 10:0.1875 11:0.5625 12:0.0 13:0.0625 14:0.1875 15:0.5 16:0.125 17:0.5 18:0.75 19:0.5 20:0.625 21:0.9375 
0.8985543665431276 1:0.625 2:0.8125 3:0.9375 4:0.8125 5:0.5 6:0.8125 7:0.1875 8:0.5 9:0.5625 10:0.375 11:0.625 12:0.75 13:0.5625 14:0.3125 15:0.5625 16:0.6875 17:0.375 18:0.3125 19:0.125 20:0.375 21:0.75 
0.23724095790827363 1:0.625 2:0.5 3:0.75 4:0.625 5:0.8125 6:0.9375 7:0.4375 8:0.875 9:0.8125 10:0.4375 11:0.5625 12:0.875 13:0.6875 14:0.625 15:0.9375 16:0.125 17:0.375 18:0.5625 19:0.4375 20:0.375 21:0.875 
0.18279436533426335 1:0.5 2:0.5 3:0.375 4:0.8125 5:0.75 6:0.8125 7:0.5625 8:0.25 9:0.625 10:0.5 11:0.6875 12:0.125 13:0.9375 14:0.5 15:1.0 16:0.9375 17:0.5 18:0.9375 19:0.25 20:0.3125 21:0.6875 
-0.09918076063303097 1:0.625 2:0.625 3:0.375 4:0.5 5:0.625 6:0.25 7:0.8125 8:0.125 9:0.5625 10:0.625 11:0.4375 12:0.375 13:0.5 14:0.0625 15:0.25 16:1.0 17:0.875 18:0.5625 19:0.25 20:0.0625 21:0.25 
0.5545427747830054 1:0.3125 2:0.5 3:0.5625 4:0.0 5:0.3125 6:0.4375 7:0.5625 8:0.6875 9:0.5625 10:0.0625 11:0.5 12:0.8125 13:0.4375 14:0.3125 15:0.125 16:0.125 17:0.125 18:0.3125 19:0.0625 20:0.4375 21:0.5 
0.029130332195855514 1:0.3125 2:0.25 3:0.5 4:0.25 5:0.3125 6:0.5 7:0.3125 8:1.0 9:0.5625 10:0.5 11:0.4375 12:0.6875 13:0.8125 14:0.5625 15:0.625 16:0.0 17:0.25 18:0.375 19:0.5 20:0.3125 21:0.625 
-0.11041383015582167 1:0.25 2:0.875 3:0.0625 4:0.375 5:0.5 6:0.0625 7:0.625 8:0.0 9:0.5625 10:0.9375 11:0.5 12:0.0 13:0.125 14:0.4375 15:0.125 16:0.9375 17:0.8125 18:0.375 19:0.5 20:0.0 21:0.0 
0.21993520388381624 1:0.0625 2:0.0625 3:0.1875 4:0.4375 5:0.375 6:0.25 7:0.125 8:0.125 9:0.8125 10:0.75 11:0.9375 12:0.625 13:0.8125 14:0.8125 15:0.75 16:0.875 17:0.9375 18:0.6875 19:0.5 20:0.5 21:0.4375 
0.6615964137920397 1:0.5625 2:0.5 3:0.625 4:0.5625 5:0.6875 6:0.5 7:0.6875 8:0.5 9:0.5625 10:0.625 11:0.5625 12:0.25 13:0.25 14:0.5 15:0.25 16:0.6875 17:0.8125 18:0.5625 19:0.625 20:0.0 21:0.0 
-0.14480823904882767 1:0.5625 2:0.5 3:0.5625 4:0.8125 5:0.5625 6:0.625 7:0.5 8:0.5 9:0.8125 10:0.6875 11:0.625 12:0.9375 13:0.75 14:0.5 15:0.5 16:0.75 17:0.0625 18:0.0625 19:0.25 20:0.3125 21:0.5625 
0.08857783209875496 1:0.5 2:0.5625 3:0.6875 4:0.5 5:0.8125 6:0.375 7:0.3125 8:0.75 9:0.125 10:0.5 11:0.0 12:0.6875 13:0.0 14:0.4375 15:0.5 16:0.0625 17:0.125 18:0.3125 19:0.75 20:0.5 21:0.1875 
0.4189614745107227 1:0.0625 2:0.5 3:0.6875 4:0.375 5:0.375 6:0.6875 7:0.5 8:0.9375 9:0.5625 10:0.8125 11:0.9375 12:0.5625 13:0.5 14:0.625 15:0.6875 16:0.5 17:0.375 18:0.875 19:0.5 20:0.75 21:1.0 
0.29943036026318764 1:0.1875 2:0.5 3:0.25 4:0.75 5:0.5 6:0.5625 7:0.5 8:0.6875 9:0.9375 10:0.6875 11:0.875 12:0.25 13:0.6875 14:0.3125 15:0.5 16:0.625 17:0.5 18:0.75 19:0.5 20:0.5 21:0.6875 
-0.3079858030458898 1:0.3125 2:0.25 3:0.0625 4:0.0 5:0.4375 6:0.25 7:0.1875 8:0.125 9:0.1875 10:0.375 11:0.25 12:0.1875 13:0.375 14:0.875 15:0.625 16:1.0 17:0.6875 18:0.5625 19:0.875 20:0.4375 21:0.375 
-0.5504503501978516 1:1.0 2:0.6875 3:0.75 4:0.9375 5:0.8125 6:1.0 7:0.3125 8:0.5625 9:0.5 10:0.4375 11:0.5 12:0.8125 13:0.5 14:0.5 15:0.5 16:0.0 17:0.1875 18:0.6875 19:0.5625 20:0.9375 21:0.8125 
-0.23574523851278836 1:0.3125 2:0.125 3:0.375 4:0.3125 5:0.5 6:0.125 7:0.1875 8:1.0 9:0.5 10:0.4375 11:0.4375 12:0.625 13:0.875 14:1.0 15:0.6875 16:0.0625 17:0.3125 18:0.1875 19:0.5 20:0.5 21:0.5 
-0.2723188683975682 1:0.625 2:0.25 3:0.3125 4:0.625 5:1.0 6:0.1875 7:0.5 8:0.5 9:0.5 10:0.5 11:0.125 12:0.5 13:1.0 14:1.0 15:0.0625 16:0.5625 17:0.75 18:0.3125 19:0.5625 20:0.0 21:0.125 
0.27205772116174093 1:0.6875 2:0.5625 3:0.875 4:0.875 5:0.6875 6:1.0 7:0.0 8:0.5 9:0.5 10:0.5 11:0.6875 12:0.8125 13:0.625 14:0.75 15:0.6875 16:0.3125 17:0.6875 18:0.5 19:0.8125 20:0.625 21:0.6875 
-0.06959101623284769 1:1.0 2:0.4375 3:0.375 4:1.0 5:0.5625 6:0.75 7:0.3125 8:0.4375 9:0.375 10:0.5 11:0.75 12:0.5 13:0.75 14:0.9375 15:1.0 16:0.9375 17:0.9375 18:0.8125 19:0.5 20:0.4375 21:0.875 
0.14308058710271201 1:0.375 2:0.1875 3:0.3125 4:0.1875 5:0.1875 6:0.6875 7:0.1875 8:0.4375 9:0.4375 10:0.0 11:0.8125 12:0.5 13:0.375 14:0.5625 15:0.75 16:0.5 17:0.625 18:0.875 19:0.375 20:0.6875 21:0.75 
0.39594051790367446 1:0.5 2:0.3125 3:0.5 4:0.5 5:0.5 6:0.25 7:0.3125 8:0.625 9:0.5625 10:0.4375 11:0.375 12:0.6875 13:1.0 14:0.75 15:0.6875 16:0.875 17:0.625 18:0.0 19:0.25 20:0.0625 21:0.5 
-0.13304278353037668 1:0.4375 2:0.625 3:0.5625 4:0.875 5:0.9375 6:0.625 7:0.75 8:0.5625 9:0.6875 10:0.6875 11:0.9375 12:0.0625 13:0.5 14:0.6875 15:0.0 16:0.875 17:1.0 18:0.75 19:0.4375 20:0.125 21:0.0 
-0.15766678352527283 1:0.625 2:0.5 3:0.5 4:0.5 5:0.875 6:0.6875 7:0.5 8:0.125 9:0.1875 10:1.0 11:0.375 12:0.375 13:0.0 14:1.0 15:0.4375 16:0.0625 17:1.0 18:0.6875 19:1.0 20:1.0 21:0.0 
-0.1456989132792511 1:0.3125 2:0.5 3:0.5 4:0.0625 5:0.4375 6:0.375 7:1.0 8:0.4375 9:0.3125 10:0.5 11:0.3125 12:0.0 13:0.25 14:0.25 15:0.25 16:0.5625 17:0.875 18:0.625 19:0.6875 20:0.375 21:0.375 
0.011847296714504307 1:0.5625 2:0.5 3:0.75 4:0.8125 5:0.0625 6:0.5 7:0.25 8:0.75 9:0.9375 10:0.1875 11:0.5625 12:0.6875 13:0.875 14:0.625 15:0.5 16:0.4375 17:0.1875 18:0.4375 19:0.1875 20:0.0625 21:0.5 
0.015248551536977005 1:0.5625 2:0.375 3:0.25 4:0.25 5:0.625 6:0.6875 7:0.1875 8:0.0 9:0.1875 10:0.625 11:0.5 12:0.625 13:0.8125 14:0.9375 15:0.625 16:0.8125 17:0.75 18:1.0 19:0.625 20:0.75 21:0.375 
0.26324460513242537 1:0.75 2:0.75 3:1.0 4:0.75 5:0.6875 6:0.5 7:0.375 8:0.375 9:0.0 10:0.1875 11:0.0625 12:0.5625 13:0.625 14:0.6875 15:0.25 16:0.25 17:0.5625 18:0.5 19:0.625 20:0.3125 21:0.3125 
0.4516313361966509 1:0.9375 2:0.125 3:1.0 4:0.5 5:0.8125 6:0.1875 7:0.3125 8:0.5 9:0.5 10:0.3125 11:0.0 12:1.0 13:0.6875 14:0.625 15:0.5 16:0.125 17:0.375 18:0.0 19:0.5625 20:0.375 21:0.25 
-0.24418422549126828 1:0.5 2:0.5 3:0.5 4:0.8125 5:0.5 6:0.5 7:0.5625 8:0.0625 9:0.75 10:0.5 11:0.4375 12:0.3125 13:0.5 14:0.375 15:0.375 16:0.75 17:0.5 18:0.125 19:0.25 20:0.125 21:0.125 
-0.010900277939683489 1:0.8125 2:0.625 3:0.625 4:0.6875 5:0.5625 6:0.5 7:0.5625 8:0.0 9:0.5625 10:0.4375 11:0.1875 12:0.125 13:0.5 14:0.5 15:0.5 16:0.5625 17:0.625 18:0.25 19:0.5625 20:0.0 21:0.0625 
-0.1500209731486119 1:0.4375 2:0.625 3:0.5 4:0.5 5:0.1875 6:0.5 7:0.5 8:0.5 9:1.0 10:0.5 11:0.75 12:0.3125 13:0.5 14:0.3125 15:0.3125 16:0.9375 17:0.1875 18:0.3125 19:0.1875 20:0.3125 21:0.625 
0.3810126356342087 1:0.625 2:0.6875 3:0.5 4:0.5 5:0.0 6:0.375 7:0.5 8:0.0625 9:0.5 10:0.1875 11:0.375 12:0.25 13:0.1875 14:0.25 15:0.125 16:0.8125 17:0.5 18:0.875 19:0.375 20:0.125 21:0.8125 
0.33377659015218913 1:0.875 2:0.625 3:0.875 4:0.8125 5:0.5 6:0.5 7:0.25 8:0.4375 9:0.625 10:0.375 11:0.25 12:0.75 13:0.625 14:0.375 15:0.375 16:0.9375 17:0.0 18:0.125 19:0.0625 20:0.25 21:0.375 
-0.19742140563272967 1:0.75 2:0.875 3:0.5 4:0.5 5:0.3125 6:0.5 7:0.5625 8:0.5 9:0.5625 10:0.0625 11:0.25 12:0.0625 13:0.125 14:0.1875 15:0.125 16:0.6875 17:0.5625 18:0.5 19:0.5 20:0.25 21:0.4375 
-0.1573430105584439 1:0.4375 2:0.4375 3:0.5625 4:0.0625 5:0.4375 6:0.4375 7:0.125 8:0.9375 9:0.4375 10:0.8125 11:0.625 12:0.9375 13:0.9375 14:0.875 15:0.75 16:0.25 17:0.25 18:0.4375 19:0.5 20:0.5 21:0.5 
-0.10911778800604395 1:1.0 2:0.625 3:0.8125 4:0.5 5:0.875 6:0.875 7:0.5 8:0.5 9:0.0 10:0.5 11:0.4375 12:0.0625 13:0.0 14:0.3125 15:0.25 16:0.4375 17:0.5 18:0.6875 19:0.6875 20:0.5625 21:0.5625 
0.41110450823874045 1:0.5 2:0.125 3:0.0625 4:0.5 5:0.5625 6:0.1875 7:0.0 8:0.5 9:0.375 10:0.5 11:0.25 12:0.6875 13:0.8125 14:0.875 15:0.375 16:0.375 17:1.0 18:0.4375 19:0.8125 20:0.125 21:0.3125 
0.01809328013544733 1:0.5625 2:0.125 3:0.8125 4:0.4375 5:0.0 6:0.25 7:0.125 8:1.0 9:0.4375 10:0.0625 11:0.0625 12:0.6875 13:0.5 14:0.1875 15:0.375 16:0.0 17:0.125 18:0.25 19:0.375 20:0.25 21:0.5625 
0.15474088243445977 1:0.9375 2:0.6875 3:0.5 4:1.0 5:0.375 6:0.4375 7:0.375 8:0.5 9:0.1875 10:0.125 11:0.1875 12:0.5 13:0.25 14:0.125 15:0.0625 16:0.5 17:0.0 18:0.25 19:0.375 20:0.25 21:0.5625 
-0.37004112547239215 1:0.3125 2:0.5 3:0.9375 4:0.6875 5:0.8125 6:0.6875 7:0.625 8:0.9375 9:0.5625 10:0.875 11:0.6875 12:0.375 13:0.4375 14:0.625 15:0.6875 16:0.5 17:0.8125 18:0.4375 19:0.8125 20:0.6875 21:0.375 
0.9501792364599289 1:0.4375 2:0.0 3:0.5 4:0.5 5:0.5 6:0.5 7:0.4375 8:0.625 9:0.6875 10:0.3125 11:0.375 12:1.0 13:0.875 14:0.6875 15:0.4375 16:0.5 17:0.25 18:0.0625 19:0.0625 20:0.375 21:0.5625 
-0.20677474072982394 1:0.5625 2:0.4375 3:0.125 4:0.5 5:0.0625 6:0.0 7:0.25 8:0.5 9:0.4375 10:0.0 11:0.0 12:0.1875 13:0.375 14:0.3125 15:0.125 16:0.625 17:0.125 18:0.3125 19:0.1875 20:0.25 21:0.625 
0.4167639027786895 1:0.5625 2:0.75 3:0.9375 4:0.5 5:0.75 6:1.0 7:0.5 8:0.875 9:0.375 10:1.0 11:0.625 12:0.6875 13:0.0 14:0.5625 15:0.3125 16:0.3125 17:0.6875 18:0.4375 19:0.9375 20:0.6875 21:0.25 
-0.31559379429523615 1:0.125 2:0.0625 3:0.1875 4:0.1875 5:0.25 6:0.0 7:0.875 8:0.8125 9:0.5625 10:0.5625 11:0.25 12:0.8125 13:0.5 14:0.75 15:0.4375 16:0.3125 17:0.3125 18:0.25 19:0.5 20:0.5 21:0.0625 
0.10399413249943111 1:0.5625 2:0.5 3:0.25 4:0.125 5:0.9375 6:0.4375 7:0.5625 8:0.1875 9:0.5 10:0.875 11:0.5625 12:0.4375 13:0.5 14:0.875 15:0.1875 16:0.8125 17:1.0 18:0.6875 19:0.6875 20:0.5625 21:0.25 
-0.20297772337651201 1:0.25 2:0.1875 3:0.0625 4:0.1875 5:0.375 6:0.4375 7:1.0 8:0.9375 9:0.625 10:0.9375 11:0.8125 12:0.125 13:0.125 14:0.5625 15:0.4375 16:0.375 17:0.9375 18:0.6875 19:0.8125 20:0.5 21:0.0625 
-0.4578426329820909 1:1.0 2:0.875 3:0.6875 4:0.875 5:0.8125 6:0.625 7:0.5625 8:0.25 9:0.375 10:0.375 11:0.3125 12:0.3125 13:0.5 14:0.6875 15:0.5 16:0.5 17:0.5625 18:0.9375 19:0.5 20:0.625 21:0.5 
0.15943220968899874 1:0.5 2:1.0 3:0.5 4:0.8125 5:1.0 6:0.4375 7:0.6875 8:0.5 9:0.75 10:1.0 11:0.625 12:0.0625 13:0.375 14:0.1875 15:0.375 16:0.5 17:0.6875 18:0.4375 19:0.5 20:0.5625 21:0.375 
-0.04400330143561697 1:0.375 2:0.9375 3:0.9375 4:0.0625 5:0.5 6:0.3125 7:0.75 8:0.875 9:0.5 10:0.5 11:0.5 12:0.6875 13:0.0625 14:0.5 15:0.1875 16:0.0625 17:0.5625 18:0.0625 19:0.8125 20:0.5625 21:0.1875 
0.12659801948579352 1:0.6875 2:0.9375 3:0.625 4:0.5 5:0.1875 6:0.75 7:0.4375 8:0.5 9:0.3125 10:0.25 11:0.4375 12:0.8125 13:0.3125 14:0.0625 15:0.625 16:0.0625 17:0.3125 18:0.4375 19:0.25 20:1.0 21:0.6875 
-0.2721012969362804 1:0.875 2:0.875 3:1.0 4:0.75 5:0.625 6:0.75 7:0.8125 8:0.5 9:0.625 10:0.125 11:0.4375 12:0.5 13:0.25 14:0.0 15:0.5 16:0.25 17:0.25 18:0.5625 19:0.5 20:0.5 21:0.5625 
0.05363071919393423 1:0.5 2:0.4375 3:0.3125 4:0.0625 5:0.0625 6:0.3125 7:0.0 8:0.1875 9:0.125 10:0.0 11:0.25 12:0.0625 13:0.125 14:0.5 15:0.875 16:0.5 17:0.5 18:0.6875 19:0.6875 20:0.75 21:0.8125 
0.13929583909005708 1:0.75 2:0.9375 3:0.5 4:0.6875 5:1.0 6:0.5 7:0.5625 8:0.25 9:0.625 10:0.6875 11:0.625 12:0.0 13:0.8125 14:0.5625 15:0.4375 16:0.9375 17:0.5625 18:0.75 19:0.5 20:0.4375 21:0.125 
-0.3727405494963346 1:0.375 2:0.5 3:0.0 4:0.375 5:0.3125 6:0.5625 7:0.25 8:0.125 9:0.375 10:0.4375 11:0.375 12:0.3125 13:0.5 14:0.6875 15:0.75 16:0.5625 17:0.625 18:0.6875 19:0.75 20:0.875 21:0.9375 
0.1489045959046098 1:0.5 2:0.375 3:0.625 4:0.75 5:0.875 6:0.375 7:0.0625 8:0.5625 9:0.625 10:0.5625 11:0.0625 12:1.0 13:0.9375 14:0.9375 15:0.5 16:0.3125 17:0.8125 18:0.25 19:0.375 20:0.25 21:0.25 
0.2951471789950561 1:0.625 2:0.25 3:0.5 4:0.8125 5:0.4375 6:0.3125 7:0.125 8:0.25 9:0.6875 10:0.4375 11:0.125 12:0.625 13:0.8125 14:0.4375 15:0.8125 16:0.625 17:0.5 18:0.1875 19:0.375 20:0.375 21:0.5 
-0.3650583482043194 1:0.3125 2:0.3125 3:0.4375 4:0.6875 5:0.125 6:0.375 7:0.4375 8:1.0 9:1.0 10:0.875 11:0.8125 12:0.625 13:1.0 14:0.6875 15:0.5 16:0.9375 17:0.625 18:0.5 19:0.125 20:0.4375 21:0.5625 
0.21421823112632882 1:0.6875 2:0.375 3:0.3125 4:0.375 5:0.75 6:0.625 7:0.3125 8:0.1875 9:0.5 10:0.875 11:0.375 12:0.0625 13:0.5625 14:1.0 15:0.5625 16:0.875 17:0.9375 18:0.6875 19:0.6875 20:0.3125 21:0.1875 
-0.020463015572787475 1:0.875 2:0.3125 3:0.5 4:0.375 5:0.75 6:0.75 7:0.125 8:0.1875 9:0.0625 10:0.4375 11:0.375 12:0.5625 13:1.0 14:0.6875 15:1.0 16:0.25 17:0.6875 18:0.8125 19:0.8125 20:0.9375 21:0.8125 
0.11787595943507262 1:0.6875 2:1.0 3:0.8125 4:1.0 5:0.9375 6:0.8125 7:1.0 8:0.6875 9:1.0 10:0.625 11:0.75 12:0.0625 13:0.625 14:0.0 15:0.375 16:0.6875 17:0.125 18:0.5 19:0.4375 20:0.5 21:0.6875 
-0.31203689126663675 1:0.5 2:0.375 3:0.625 4:0.5625 5:0.0625 6:0.25 7:0.625 8:0.75 9:0.9375 10:0.5 11:0.625 12:0.9375 13:0.625 14:0.5625 15:0.5 16:0.5 17:0.1875 18:0.1875 19:0.125 20:0.5625 21:0.5 
0.05602155155140322 1:0.25 2:0.625 3:0.875 4:0.9375 5:1.0 6:0.625 7:0.5625 8:0.8125 9:0.8125 10:0.9375 11:0.75 12:0.8125 13:0.6875 14:0.75 15:0.875 16:0.5 17:0.6875 18:0.0625 19:0.5 20:0.5 21:0.0625 
-0.20867048223606918 1:0.1875 2:0.5625 3:0.25 4:0.0625 5:0.125 6:0.375 7:0.5 8:0.1875 9:0.5 10:0.4375 11:0.4375 12:0.0625 13:0.1875 14:0.0 15:0.25 16:0.625 17:0.5 18:0.375 19:0.0625 20:0.0 21:0.5625 
-0.3382429262135244 1:0.5 2:0.75 3:0.6875 4:0.8125 5:0.5 6:0.9375 7:0.125 8:0.375 9:0.3125 10:0.3125 11:0.5 12:0.5 13:0.5 14:0.4375 15:0.875 16:0.5 17:0.0 18:0.5625 19:0.125 20:0.875 21:0.9375 
0.18923520209305478 1:0.375 2:0.25 3:0.0625 4:0.1875 5:0.0625 6:0.1875 7:0.3125 8:0.125 9:0.75 10:0.0625 11:0.0 12:0.3125 13:0.6875 14:0.125 15:0.3125 16:0.5625 17:0.4375 18:0.4375 19:0.4375 20:0.1875 21:0.4375 
0.1993270551705458 1:0.6875 2:0.125 3:0.75 4:0.375 5:0.625 6:0.4375 7:0.0 8:0.5625 9:0.0625 10:0.5 11:0.0 12:0.875 13:0.625 14:0.6875 15:0.9375 16:0.1875 17:0.3125 18:0.0 19:0.75 20:1.0 21:0.5625 
0.44703931822889786 1:0.75 2:0.625 3:0.5 4:0.9375 5:0.6875 6:0.6875 7:0.5 8:0.0 9:0.125 10:0.25 11:0.5 12:0.0 13:0.125 14:0.4375 15:0.0625 16:0.625 17:0.6875 18:0.6875 19:0.1875 20:0.5 21:0.5 
0.02337311854975762 1:0.5 2:0.625 3:0.9375 4:0.5 5:0.75 6:0.875 7:0.9375 8:0.625 9:0.75 10:0.75 11:1.0 12:0.8125 13:0.875 14:0.5 15:0.875 16:0.5 17:0.4375 18:0.75 19:0.5625 20:0.875 21:0.6875 
0.21611855806467772 1:0.3125 2:0.375 3:0.3125 4:0.625 5:0.4375 6:0.4375 7:0.5 8:0.5 9:0.6875 10:0.5 11:0.3125 12:0.625 13:0.9375 14:0.375 15:0.25 16:0.75 17:0.3125 18:0.375 19:0.0625 20:0.0625 21:0.5625 
0.11587920054413348 1:0.6875 2:0.6875 3:0.625 4:0.625 5:0.6875 6:1.0 7:0.25 8:0.375 9:0.375 10:0.6875 11:0.625 12:0.625 13:0.375 14:0.6875 15:0.4375 16:0.375 17:0.5 18:0.5 19:0.75 20:0.5 21:0.3125 
-0.18758650442130106 1:0.5625 2:0.125 3:0.4375 4:0.4375 5:0.625 6:0.4375 7:0.125 8:0.0 9:0.0625 10:0.4375 11:0.0 12:0.875 13:0.6875 14:0.875 15:0.9375 16:0.5 17:0.4375 18:0.0 19:1.0 20:0.4375 21:0.375 
-0.12895788759261337 1:0.625 2:0.5 3:0.625 4:0.1875 5:0.5 6:0.875 7:0.5 8:0.75 9:0.3125 10:0.25 11:0.5 12:0.9375 13:0.125 14:0.5 15:0.6875 16:0.25 17:0.0 18:0.375 19:0.3125 20:0.9375 21:0.625 
-0.016668770135470225 1:0.75 2:0.6875 3:0.5625 4:0.375 5:0.5625 6:0.4375 7:0.5 8:0.1875 9:0.5 10:0.6875 11:0.5625 12:0.375 13:0.5 14:0.6875 15:0.4375 16:0.5625 17:0.875 18:0.625 19:0.9375 20:0.5625 21:0.0 
0.05360093969393528 1:0.875 2:0.5 3:0.6875 4:0.5625 5:0.375 6:0.5 7:0.3125 8:0.5 9:0.3125 10:0.0625 11:0.125 12:0.8125 13:0.625 14:0.5 15:0.625 16:0.25 17:0.4375 18:0.4375 19:0.375 20:0.75 21:0.75 
0.2506953677044998 1:0.75 2:0.625 3:0.4375 4:0.1875 5:0.4375 6:0.6875 7:0.0625 8:0.25 9:0.0625 10:0.3125 11:0.1875 12:0.0625 13:0.5 14:0.25 15:0.625 16:0.5 17:0.625 18:0.625 19:0.5625 20:0.6875 21:1.0 
0.19443226569332517 1:0.75 2:0.0 3:0.3125 4:0.3125 5:0.0625 6:0.375 7:0.0 8:0.5 9:0.3125 10:0.25 11:0.0 12:1.0 13:0.5 14:0.5625 15:0.625 16:0.0625 17:0.4375 18:0.0 19:0.625 20:0.5 21:0.75 
-0.02965614197414316 1:0.9375 2:0.5 3:0.75 4:0.75 5:0.3125 6:0.5625 7:0.5 8:0.375 9:0.6875 10:0.25 11:0.8125 12:0.5 13:0.8125 14:0.1875 15:0.75 16:0.6875 17:0.125 18:0.625 19:0.0625 20:0.6875 21:0.9375 
-0.40732662654819807 1:0.25 2:0.125 3:0.5 4:0.5625 5:0.125 6:0.125 7:0.25 8:0.5 9:0.5 10:0.8125 11:0.5 12:0.75 13:0.6875 14:1.0 15:0.5625 16:0.4375 17:0.5 18:0.0 19:0.625 20:0.3125 21:0.3125 
-0.2915601171686827 1:0.5625 2:0.75 3:0.875 4:0.875 5:0.5 6:0.875 7:0.375 8:0.5625 9:0.5 10:0.4375 11:0.3125 12:0.5 13:0.3125 14:0.3125 15:0.375 16:0.1875 17:0.1875 18:0.0 19:0.0 20:0.5 21:0.5 
0.3201678181494565 1:0.5 2:0.1875 3:0.6875 4:0.25 5:0.4375 6:0.3125 7:0.25 8:0.5 9:0.4375 10:0.5625 11:0.0 12:0.75 13:0.375 14:0.875 15:0.5625 16:0.0 17:0.0 18:0.0 19:1.0 20:0.375 21:0.25 
-0.2614791757810195 1:0.6875 2:0.5 3:0.125 4:0.5 5:0.8125 6:0.3125 7:0.3125 8:0.0 9:0.25 10:0.5 11:0.0 12:0.25 13:0.375 14:0.8125 15:0.1875 16:0.5625 17:0.5625 18:0.25 19:0.5 20:0.5 21:0.125 
0.19053738350966412 1:0.875 2:0.5 3:0.625 4:0.75 5:0.5 6:0.9375 7:0.1875 8:0.0 9:0.0625 10:0.0625 11:0.5 12:0.8125 13:0.875 14:0.5 15:0.9375 16:0.625 17:0.4375 18:0.625 19:0.5 20:0.6875 21:1.0 
-0.09509238551833378 1:0.625 2:0.9375 3:0.3125 4:0.75 5:0.6875 6:0.5625 7:0.8125 8:0.4375 9:0.875 10:0.5 11:0.5 12:0.3125 13:0.5 14:0.5 15:0.625 16:0.8125 17:0.625 18:0.875 19:0.25 20:0.375 21:0.5 
0.04818057898175004 1:0.875 2:0.8125 3:0.5 4:0.5 5:0.6875 6:1.0 7:0.75 8:0.1875 9:0.125 10:0.375 11:0.5 12:0.1875 13:0.0 14:0.375 15:0.125 16:0.25 17:0.1875 18:0.5625 19:0.875 20:0.875 21:0.6875 
-0.14232262766601594 1:0.625 2:0.75 3:0.8125 4:0.9375 5:0.5 6:0.625 7:0.5 8:1.0 9:0.5625 10:0.0625 11:0.8125 12:0.5 13:0.5 14:0.3125 15:0.625 16:0.5 17:0.375 18:0.5625 19:0.5 20:0.5625 21:0.5625 
0.0073494500835805015 1:0.0 2:0.4375 3:0.1875 4:0.25 5:0.5 6:0.25 7:0.9375 8:0.4375 9:0.25 10:0.625 11:0.125 12:0.3125 13:0.3125 14:0.5 15:0.0 16:0.375 17:1.0 18:0.25 19:1.0 20:0.8125 21:0.3125 
0.00650977621602653 1:0.875 2:0.6875 3:0.5 4:0.4375 5:0.5 6:0.8125 7:0.5 8:0.5 9:0.0 10:0.0625 11:0.6875 12:0.0625 13:0.0625 14:0.375 15:0.8125 16:0.25 17:0.625 18:0.75 19:0.875 20:0.9375 21:0.875 
0.347450594559015 1:0.4375 2:0.0 3:0.375 4:0.25 5:0.1875 6:0.0 7:0.375 8:0.375 9:0.1875 10:0.1875 11:0.5 12:0.1875 13:0.5 14:0.0625 15:0.3125 16:0.5625 17:0.5 18:0.5 19:0.25 20:0.25 21:0.5 
0.584173318515404 1:0.5625 2:0.1875 3:0.875 4:0.6875 5:0.5625 6:0.5 7:0.5625 8:0.5 9:0.625 10:0.5625 11:0.5 12:0.75 13:0.8125 14:0.625 15:0.75 16:0.4375 17:0.5625 18:0.4375 19:0.75 20:0.4375 21:0.3125 
-0.21301839717505083 1:0.4375 2:0.5625 3:0.0625 4:0.3125 5:0.5 6:0.5625 7:0.5 8:0.4375 9:0.6875 10:0.625 11:0.5 12:0.1875 13:0.5 14:0.6875 15:0.5 16:0.8125 17:0.9375 18:0.6875 19:0.5625 20:0.125 21:0.5 
-0.1757497838148776 1:0.9375 2:0.5625 3:0.375 4:0.5 5:0.125 6:0.0625 7:0.375 8:0.25 9:0.0 10:0.0625 11:0.125 12:0.0625 13:0.25 14:0.125 15:0.3125 16:1.0 17:0.5625 18:0.5625 19:0.0 20:0.375 21:0.5 
0.12876231289105622 1:0.5 2:1.0 3:0.375 4:0.4375 5:0.75 6:0.75 7:0.75 8:0.8125 9:0.9375 10:0.8125 11:0.75 12:0.4375 13:0.5 14:0.8125 15:0.625 16:0.5 17:0.9375 18:0.75 19:0.9375 20:0.625 21:0.375 
-0.0051480858066235285 1:0.1875 2:0.0 3:0.625 4:0.625 5:0.5 6:0.125 7:0.6875 8:0.9375 9:1.0 10:1.0 11:0.8125 12:0.5 13:0.8125 14:0.625 15:0.375 16:0.625 17:0.5625 18:0.125 19:0.125 20:0.3125 21:0.4375 
-0.14697763424876398 1:0.5 2:0.4375 3:0.875 4:0.5 5:0.125 6:0.75 7:0.5625 8:0.5 9:0.625 10:0.25 11:0.5 12:0.875 13:0.4375 14:0.0625 15:0.625 16:0.4375 17:0.25 18:0.5 19:0.125 20:0.5625 21:0.6875 
0.00795485477323382 1:0.75 2:0.5625 3:0.4375 4:0.875 5:0.625 6:0.875 7:0.5 8:0.5 9:0.5 10:0.4375 11:0.875 12:0.375 13:0.375 14:0.0 15:0.5 16:0.5625 17:0.5 18:0.75 19:0.0625 20:0.625 21:1.0 
0.21423738045342977 1:0.25 2:0.4375 3:0.1875 4:0.8125 5:0.1875 6:0.5 7:0.5 8:0.6875 9:0.6875 10:0.3125 11:0.6875 12:0.625 13:0.625 14:0.1875 15:0.625 16:0.5625 17:0.1875 18:0.5 19:0.4375 20:0.5 21:0.9375 
0.2404789549623078 1:0.5 2:0.5625 3:0.5625 4:0.75 5:0.5 6:0.4375 7:0.125 8:0.75 9:0.9375 10:0.5 11:0.4375 12:0.5625 13:1.0 14:0.5625 15:0.75 16:0.5 17:0.1875 18:0.0625 19:0.375 20:0.0 21:0.5 
0.021248209035805966 1:1.0 2:0.25 3:0.25 4:0.6875 5:0.75 6:1.0 7:0.0 8:0.125 9:0.375 10:0.5 11:0.3125 12:0.5625 13:0.5 14:0.6875 15:0.75 16:0.5 17:0.875 18:0.75 19:0.625 20:0.6875 21:0.4375 
0.02004673918135389 1:0.1875 2:0.5 3:0.125 4:0.5625 5:0.125 6:0.125 7:0.625 8:0.3125 9:0.75 10:0.125 11:0.1875 12:0.3125 13:0.4375 14:0.125 15:0.0 16:0.9375 17:0.3125 18:0.5625 19:0.0 20:0.5 21:0.625 
-0.7824437358756219 1:0.1875 2:0.25 3:0.5 4:0.5625 5:0.125 6:0.0625 7:0.4375 8:0.4375 9:0.5625 10:0.5625 11:0.5 12:0.4375 13:0.9375 14:0.3125 15:0.5625 16:0.625 17:0.5 18:0.3125 19:0.375 20:0.1875 21:0.4375 
-0.2590056782861328 1:0.3125 2:0.0625 3:0.125 4:0.3125 5:0.25 6:0.5625 7:0.3125 8:0.5625 9:0.25 10:0.0625 11:0.8125 12:1.0 13:0.625 14:1.0 15:0.875 16:0.4375 17:0.375 18:0.5625 19:0.4375 20:0.625 21:0.5625 
-0.1135474202141007 1:0.3125 2:0.5625 3:0.625 4:0.625 5:0.375 6:0.4375 7:0.5 8:0.9375 9:0.5 10:0.5 11:0.1875 12:0.6875 13:0.5 14:0.1875 15:0.375 16:0.5625 17:0.0625 18:0.25 19:0.1875 20:0.375 21:0.1875 
0.09290371787328275 1:0.5 2:0.5 3:0.25 4:0.9375 5:0.1875 6:0.375 7:0.5 8:0.3125 9:0.625 10:0.4375 11:0.8125 12:0.0625 13:0.5625 14:0.375 15:0.5 16:0.6875 17:0.5 18:0.625 19:0.25 20:0.5 21:1.0 
0.2795726282554699 1:0.1875 2:0.375 3:0.625 4:0.5 5:0.5 6:0.4375 7:0.5625 8:0.8125 9:1.0 10:0.5625 11:0.6875 12:0.9375 13:0.5 14:0.3125 15:0.875 16:0.0625 17:0.1875 18:0.1875 19:0.3125 20:0.5 21:0.6875 
0.22082807793727882 1:0.25 2:0.375 3:0.375 4:0.25 5:0.25 6:0.1875 7:0.4375 8:0.8125 9:0.375 10:0.875 11:0.4375 12:0.8125 13:0.5625 14:0.625 15:0.3125 16:0.1875 17:0.5 18:0.0 19:0.5625 20:0.375 21:0.0 
0.19669815339521968 1:0.5 2:0.375 3:0.125 4:0.1875 5:0.1875 6:0.1875 7:0.0 8:0.1875 9:0.4375 10:0.25 11:0.3125 12:0.5 13:0.875 14:0.625 15:0.0625 16:0.6875 17:0.5 18:0.25 19:0.5625 20:0.25 21:0.25 
0.07714948772928581 1:0.625 2:0.75 3:0.625 4:0.8125 5:1.0 6:0.75 7:0.3125 8:0.0625 9:0.1875 10:0.6875 11:0.4375 12:0.1875 13:0.4375 14:0.75 15:0.1875 16:0.5 17:0.6875 18:0.375 19:1.0 20:0.5625 21:0.0 
-0.6298004686592151 1:0.5625 2:0.25 3:0.875 4:0.375 5:0.375 6:0.3125 7:0.375 8:0.5625 9:0.375 10:0.25 11:0.0 12:0.8125 13:0.5625 14:0.875 15:0.8125 16:0.0625 17:0.0 18:0.3125 19:0.5 20:0.375 21:0.125 
0.15395488620794512 1:0.625 2:0.5 3:0.5 4:0.5625 5:0.6875 6:0.4375 7:0.5625 8:0.4375 9:0.5625 10:1.0 11:0.375 12:0.5 13:0.5 14:0.9375 15:0.0625 16:0.875 17:0.6875 18:0.5 19:0.6875 20:0.25 21:0.3125 
-0.09808615633487151 1:0.0625 2:0.4375 3:0.0625 4:0.25 5:0.125 6:0.0625 7:0.625 8:0.1875 9:0.4375 10:0.375 11:0.5 12:0.375 13:0.125 14:0.0 15:0.3125 16:0.5625 17:0.8125 18:0.875 19:0.5 20:0.1875 21:0.5 
0.3949283104715959 1:0.25 2:0.3125 3:0.0625 4:0.1875 5:0.3125 6:0.375 7:0.8125 8:0.5 9:0.75 10:0.875 11:0.875 12:0.1875 13:0.25 14:0.4375 15:0.1875 16:0.5625 17:0.9375 18:0.4375 19:0.75 20:0.6875 21:0.5 
-0.2684682631645503 1:0.5625 2:0.5 3:0.375 4:0.5625 5:0.625 6:0.875 7:0.3125 8:0.5 9:0.625 10:0.5625 11:0.75 12:0.8125 13:0.625 14:0.9375 15:0.8125 16:0.3125 17:0.625 18:0.6875 19:0.5625 20:0.625 21:0.875 
-0.08495080893667034 1:1.0 2:0.875 3:0.6875 4:0.5 5:0.5 6:0.875 7:0.3125 8:0.25 9:0.0 10:0.375 11:0.4375 12:0.4375 13:0.1875 14:0.4375 15:0.4375 16:0.6875 17:0.6875 18:0.9375 19:0.4375 20:0.5625 21:0.5 
-0.19385115077374307 1:0.375 2:0.3125 3:0.5 4:0.75 5:0.375 6:0.9375 7:0.375 8:0.375 9:0.5 10:0.5625 11:0.5625 12:0.4375 13:0.9375 14:0.375 15:0.75 16:0.75 17:0.5 18:0.625 19:0.1875 20:0.5625 21:0.75 
-0.07355379275214348 1:1.0 2:0.9375 3:0.9375 4:0.9375 5:0.9375 6:1.0 7:0.25 8:0.4375 9:0.3125 10:0.4375 11:0.4375 12:0.1875 13:0.25 14:0.75 15:0.8125 16:0.5625 17:0.8125 18:0.875 19:0.6875 20:0.625 21:0.4375 
0.035133188575699074 1:0.4375 2:0.9375 3:0.25 4:0.8125 5:0.125 6:0.0625 7:0.5 8:0.5 9:0.875 10:0.3125 11:0.5 12:0.3125 13:0.5 14:0.3125 15:0.0625 16:0.6875 17:0.4375 18:0.375 19:0.125 20:0.3125 21:0.5625 
0.007388623560362444 1:0.3125 2:0.5625 3:0.75 4:0.9375 5:0.5625 6:0.6875 7:0.9375 8:0.5 9:1.0 10:0.75 11:0.875 12:0.25 13:0.625 14:0.6875 15:0.5625 16:0.9375 17:0.625 18:0.75 19:0.375 20:0.375 21:0.6875 
0.06232424868734093 1:0.625 2:0.75 3:0.625 4:0.625 5:0.875 6:0.9375 7:0.75 8:0.4375 9:0.75 10:0.6875 11:0.6875 12:0.1875 13:0.5 14:0.4375 15:0.0 16:0.6875 17:0.75 18:0.5 19:0.75 20:0.5625 21:0.5 
-0.06879237419928624 1:0.8125 2:0.5 3:0.875 4:0.8125 5:0.5625 6:0.75 7:0.5 8:0.5 9:0.5625 10:0.8125 11:0.5 12:1.0 13:0.75 14:1.0 15:0.5625 16:0.5625 17:0.5 18:0.375 19:0.4375 20:0.25 21:0.5 
-0.05299407727710499 1:0.875 2:0.8125 3:0.9375 4:0.9375 5:0.875 6:0.625 7:0.375 8:0.125 9:0.5 10:0.1875 11:0.0 12:0.4375 13:0.3125 14:0.3125 15:0.125 16:0.875 17:0.5625 18:0.4375 19:0.3125 20:0.5 21:0.25 
-0.39065997709806133 1:0.125 2:0.5 3:0.4375 4:0.25 5:0.5625 6:0.3125 7:0.875 8:0.625 9:0.5 10:1.0 11:0.5 12:0.1875 13:0.375 14:0.9375 15:0.3125 16:0.625 17:0.625 18:0.5625 19:0.8125 20:0.25 21:0.125 
0.0820165469576951 1:0.9375 2:0.375 3:0.25 4:0.125 5:0.625 6:0.4375 7:0.1875 8:0.25 9:0.125 10:0.375 11:0.125 12:0.25 13:0.3125 14:0.9375 15:0.5625 16:0.25 17:0.8125 18:0.4375 19:0.8125 20:1.0 21:0.375 
-0.3025963304362043 1:0.4375 2:1.0 3:0.625 4:0.5625 5:0.625 6:0.875 7:1.0 8:0.875 9:0.875 10:0.9375 11:0.75 12:0.1875 13:0.5 14:0.25 15:0.8125 16:0.625 17:0.25 18:0.875 19:0.375 20:0.875 21:0.75 
0.4307423001896028 1:0.125 2:0.0625 3:0.3125 4:0.4375 5:0.375 6:0.125 7:0.0 8:0.375 9:0.625 10:0.375 11:0.3125 12:0.6875 13:0.9375 14:0.8125 15:1.0 16:0.6875 17:0.5 18:0.375 19:0.4375 20:0.125 21:0.1875 
0.15040002160056545 1:0.4375 2:0.3125 3:1.0 4:0.5 5:0.9375 6:0.5 7:0.125 8:0.875 9:0.375 10:0.625 11:0.5 12:1.0 13:0.5625 14:0.875 15:0.625 16:0.375 17:0.25 18:0.3125 19:0.75 20:0.875 21:0.25 
-0.10517263123226274 1:0.5 2:0.9375 3:0.625 4:0.75 5:0.0 6:0.9375 7:0.875 8:0.75 9:0.5 10:0.375 11:0.875 12:0.375 13:0.1875 14:0.0 15:0.4375 16:0.5 17:0.375 18:0.6875 19:0.5 20:0.75 21:0.875 
-0.05892861993370101 1:0.625 2:0.9375 3:0.875 4:0.9375 5:0.1875 6:0.5 7:0.625 8:1.0 9:0.625 10:0.3125 11:0.4375 12:0.25 13:0.5 14:0.25 15:0.0 16:0.4375 17:0.25 18:0.1875 19:0.3125 20:0.3125 21:0.4375 
-0.1900430919346471 1:0.4375 2:0.875 3:0.5 4:0.9375 5:0.625 6:0.5625 7:0.875 8:0.5 9:0.5625 10:0.75 11:0.6875 12:0.375 13:0.1875 14:0.125 15:0.4375 16:0.5 17:0.5625 18:0.625 19:0.4375 20:0.0 21:0.5 
0.4148519691391847 1:0.0625 2:0.375 3:0.9375 4:0.75 5:0.625 6:0.625 7:0.5 8:0.6875 9:0.625 10:0.6875 11:0.75 12:0.5625 13:0.6875 14:1.0 15:0.875 16:0.3125 17:0.3125 18:0.4375 19:0.5625 20:0.625 21:0.625 
0.3765060011057415 1:0.9375 2:0.4375 3:0.5 4:0.1875 5:0.625 6:0.4375 7:0.125 8:0.5 9:0.125 10:0.0 11:0.375 12:0.8125 13:0.5 14:0.5625 15:0.4375 16:0.125 17:0.0 18:0.3125 19:0.625 20:0.5 21:0.375 
0.004533600822854016 1:0.5 2:0.9375 3:0.375 4:0.9375 5:0.25 6:1.0 7:0.9375 8:0.375 9:0.875 10:0.375 11:0.625 12:0.0625 13:0.25 14:0.125 15:0.6875 16:0.6875 17:0.5 18:0.625 19:0.25 20:0.75 21:0.9375 
-0.4493954633204469 1:0.875 2:0.125 3:0.4375 4:0.5625 5:0.4375 6:0.8125 7:0.125 8:0.0625 9:0.5 10:0.0 11:0.25 12:0.9375 13:0.75 14:0.5625 15:0.5625 16:0.8125 17:0.5625 18:0.5625 19:0.4375 20:0.5625 21:0.8125 
-0.0613229024366751 1:0.4375 2:0.25 3:0.375 4:0.75 5:0.1875 6:0.4375 7:0.4375 8:0.5 9:0.625 10:0.125 11:0.25 12:0.5 13:0.5625 14:0.4375 15:0.8125 16:1.0 17:0.0625 18:0.5625 19:0.125 20:0.1875 21:0.9375 
0.3184243463883854 1:0.9375 2:0.5 3:0.6875 4:0.8125 5:1.0 6:0.875 7:0.1875 8:1.0 9:0.3125 10:0.5 11:0.5625 12:1.0 13:0.5625 14:0.875 15:0.6875 16:0.5 17:0.3125 18:0.5 19:0.5 20:0.875 21:0.625 
0.050016484744961155 1:0.1875 2:1.0 3:0.8125 4:0.9375 5:0.875 6:0.75 7:0.75 8:0.625 9:0.875 10:0.75 11:1.0 12:0.25 13:0.0 14:0.375 15:0.5625 16:0.5625 17:0.5 18:1.0 19:0.5625 20:0.9375 21:0.8125 
0.30391679150785256 1:0.5 2:0.75 3:0.5 4:0.6875 5:0.375 6:0.25 7:0.8125 8:0.375 9:0.5 10:0.125 11:0.125 12:0.0625 13:0.5 14:0.5 15:0.0 16:0.75 17:0.5 18:0.5 19:0.1875 20:0.3125 21:0.375 
-0.19624465951032116 1:0.3125 2:0.5625 3:0.75 4:0.625 5:0.4375 6:0.0625 7:0.5 8:0.8125 9:0.6875 10:0.375 11:0.0625 12:1.0 13:0.5625 14:0.25 15:0.1875 16:0.0625 17:0.125 18:0.125 19:0.0625 20:0.0625 21:0.5625 
-0.10111827374959936 1:0.4375 2:0.25 3:1.0 4:0.5 5:0.1875 6:0.5 7:0.0 8:0.75 9:0.6875 10:0.5 11:0.6875 12:0.875 13:0.875 14:0.5 15:0.6875 16:0.3125 17:0.0625 18:0.1875 19:0.125 20:0.0625 21:0.9375 
0.08815537947633621 1:0.5625 2:0.875 3:1.0 4:0.375 5:0.3125 6:0.75 7:0.5 8:0.5 9:0.125 10:0.0 11:0.375 12:0.25 13:0.1875 14:0.1875 15:0.0625 16:0.1875 17:0.1875 18:0.25 19:0.4375 20:0.9375 21:0.6875 
-0.6711659689838091 1:0.8125 2:0.5625 3:0.5625 4:0.1875 5:0.8125 6:0.75 7:0.125 8:0.375 9:0.0625 10:0.125 11:0.0625 12:0.75 13:0.375 14:0.8125 15:0.5 16:0.375 17:0.5 18:0.1875 19:0.5625 20:0.6875 21:0.5 
-0.10541837154623374 1:0.6875 2:0.4375 3:0.5625 4:0.5625 5:0.75 6:0.8125 7:0.1875 8:0.6875 9:0.8125 10:0.5 11:0.5 12:0.6875 13:0.75 14:1.0 15:0.9375 16:0.75 17:0.5625 18:0.5625 19:0.5625 20:0.625 21:0.375 
0.2409510668169277 1:0.3125 2:0.3125 3:0.0625 4:0.3125 5:0.375 6:0.3125 7:0.75 8:0.5 9:0.25 10:0.8125 11:0.5625 12:0.5 13:0.5 14:0.5625 15:0.5 16:0.4375 17:0.5 18:0.8125 19:0.875 20:0.625 21:0.5625 
-0.4278672948695603 1:0.25 2:0.625 3:1.0 4:0.5625 5:0.5 6:0.8125 7:0.5 8:0.6875 9:0.625 10:0.6875 11:0.8125 12:0.6875 13:0.9375 14:0.6875 15:0.5625 16:0.5 17:0.5625 18:0.5 19:0.6875 20:0.5 21:0.4375 
0.1267087175786735 1:0.3125 2:0.3125 3:0.25 4:0.5 5:0.375 6:1.0 7:0.3125 8:0.4375 9:0.25 10:0.5 11:0.875 12:0.5 13:0.8125 14:0.6875 15:0.8125 16:0.6875 17:0.75 18:0.8125 19:0.4375 20:0.8125 21:0.5625 
-0.3827060746601886 1:0.3125 2:0.3125 3:0.5 4:0.4375 5:0.5 6:0.5625 7:0.875 8:0.625 9:0.1875 10:1.0 11:0.875 12:0.5 13:0.4375 14:1.0 15:0.625 16:0.4375 17:0.5625 18:1.0 19:0.75 20:0.9375 21:0.625 
-0.6432060160823021 1:0.5 2:0.125 3:0.5 4:0.4375 5:0.375 6:0.375 7:0.25 8:0.0625 9:0.375 10:0.1875 11:0.25 12:0.6875 13:0.5625 14:0.5625 15:0.0625 16:0.5 17:0.3125 18:0.0 19:0.625 20:0.0 21:0.3125 
-0.016658690689635672 1:0.6875 2:0.6875 3:0.8125 4:1.0 5:0.625 6:0.5 7:0.5 8:1.0 9:0.75 10:0.5 11:0.1875 12:0.5 13:0.75 14:0.4375 15:0.125 16:0.1875 17:0.5 18:0.0625 19:0.375 20:0.3125 21:0.0 
0.021029332750538816 1:1.0 2:0.625 3:0.625 4:0.75 5:0.625 6:0.5 7:0.5625 8:0.375 9:0.5 10:0.5 11:0.3125 12:0.625 13:0.9375 14:0.625 15:0.1875 16:0.3125 17:0.5 18:0.1875 19:0.5 20:0.25 21:0.25 
0.5423214237799632 1:0.375 2:0.4375 3:0.5 4:0.625 5:0.5 6:0.625 7:0.375 8:0.9375 9:0.75 10:0.9375 11:1.0 12:0.6875 13:0.875 14:0.6875 15:0.5625 16:0.5 17:0.5 18:0.5 19:0.5 20:0.125 21:0.25 
0.2608061229296591 1:0.9375 2:0.5 3:0.4375 4:0.6875 5:0.625 6:0.9375 7:0.25 8:0.0 9:0.6875 10:0.75 11:0.6875 12:0.1875 13:0.5625 14:0.5625 15:0.625 16:0.6875 17:1.0 18:0.9375 19:0.375 20:0.625 21:0.625 
-0.28421424885366825 1:0.5 2:0.5625 3:0.125 4:0.3125 5:0.1875 6:0.5 7:0.6875 8:0.3125 9:0.125 10:0.375 11:0.375 12:0.0 13:0.0 14:0.0625 15:0.0625 16:0.3125 17:0.1875 18:0.875 19:0.5 20:0.5 21:0.6875 
0.10766329807928432 1:0.0 2:0.4375 3:0.625 4:0.5 5:0.125 6:0.8125 7:1.0 8:0.6875 9:0.9375 10:0.375 11:1.0 12:0.625 13:0.5625 14:0.125 15:0.5625 16:0.375 17:0.125 18:0.4375 19:0.0 20:0.8125 21:0.75 
0.009681940901776863 1:0.5 2:0.875 3:1.0 4:1.0 5:0.6875 6:0.6875 7:0.875 8:0.625 9:0.4375 10:0.75 11:0.6875 12:0.125 13:0.0625 14:0.4375 15:0.25 16:0.5 17:0.5 18:0.8125 19:0.5625 20:0.5 21:0.375 
-0.306086406365111 1:0.5 2:0.5 3:0.6875 4:0.8125 5:0.4375 6:1.0 7:0.5 8:0.4375 9:0.4375 10:0.25 11:0.5 12:0.9375 13:0.5 14:0.3125 15:1.0 16:0.25 17:0.25 18:0.625 19:0.4375 20:0.9375 21:0.6875 
0.4702150776271899 1:0.75 2:0.625 3:0.625 4:0.4375 5:0.0 6:0.125 7:0.4375 8:0.6875 9:0.375 10:0.25 11:0.125 12:0.9375 13:0.625 14:0.0625 15:0.375 16:0.5 17:0.0625 18:0.0 19:0.0625 20:0.4375 21:0.4375 
0.011139954513894393 1:1.0 2:0.625 3:1.0 4:0.9375 5:0.5 6:1.0 7:0.4375 8:0.1875 9:0.25 10:0.1875 11:0.5 12:0.875 13:0.875 14:0.5 15:0.8125 16:0.5625 17:0.1875 18:0.8125 19:0.4375 20:0.875 21:0.875 
-0.346837931730792 1:0.875 2:0.9375 3:0.9375 4:0.875 5:0.9375 6:0.5 7:0.9375 8:0.375 9:0.4375 10:0.625 11:0.5 12:0.1875 13:0.0 14:0.4375 15:0.3125 16:0.125 17:0.4375 18:0.1875 19:0.875 20:0.5 21:0.3125 
-0.18547767118885636 1:1.0 2:0.8125 3:0.5625 4:0.9375 5:0.5 6:1.0 7:0.1875 8:0.3125 9:0.4375 10:0.125 11:0.4375 12:0.125 13:0.8125 14:0.1875 15:0.125 16:0.9375 17:0.5 18:0.5 19:0.125 20:0.5 21:0.5625 
0.3597615728438554 1:0.5 2:0.5 3:0.6875 4:0.4375 5:0.3125 6:0.5 7:0.375 8:0.25 9:0.3125 10:0.0625 11:0.5625 12:0.875 13:0.5 14:0.5 15:0.5625 16:0.125 17:0.1875 18:0.5 19:0.0 20:1.0 21:0.875 
-0.048744803130521805 1:1.0 2:0.9375 3:0.5 4:1.0 5:0.625 6:0.8125 7:0.625 8:0.25 9:0.5 10:0.375 11:0.0625 12:0.375 13:0.4375 14:0.1875 15:0.25 16:0.6875 17:0.875 18:0.5 19:0.125 20:0.0625 21:0.5625 
0.2818238411071157 1:0.5 2:0.4375 3:1.0 4:0.5 5:0.1875 6:0.4375 7:0.25 8:0.5 9:0.5 10:0.1875 11:0.25 12:0.875 13:0.5625 14:0.5 15:0.5 16:0.4375 17:0.25 18:0.0 19:0.5625 20:0.375 21:0.25 
0.06735579360123402 1:0.75 2:0.6875 3:0.5 4:0.5625 5:0.625 6:1.0 7:0.375 8:0.5 9:0.1875 10:0.5 11:0.5 12:0.5 13:0.25 14:0.5 15:1.0 16:0.1875 17:0.5625 18:0.875 19:0.75 20:0.875 21:1.0 
0.1156633044288421 1:0.5 2:0.5 3:0.375 4:0.5625 5:0.5 6:0.9375 7:0.0 8:0.3125 9:0.125 10:0.3125 11:0.5 12:0.3125 13:0.625 14:0.8125 15:0.8125 16:0.75 17:0.6875 18:0.8125 19:0.5 20:0.6875 21:0.5 
-0.0687887935261953 1:0.375 2:0.5 3:0.1875 4:0.375 5:0.25 6:0.25 7:0.8125 8:0.5 9:0.5 10:0.5 11:0.625 12:0.4375 13:0.3125 14:0.375 15:0.0625 16:0.875 17:0.3125 18:0.375 19:0.4375 20:0.125 21:0.3125 
0.073765320351064 1:0.6875 2:0.75 3:1.0 4:0.5625 5:0.875 6:0.8125 7:0.25 8:0.1875 9:0.0625 10:0.5625 11:0.375 12:0.5 13:0.125 14:0.875 15:0.375 16:0.25 17:0.8125 18:0.3125 19:0.8125 20:0.625 21:0.3125 
0.17745886557271118 1:0.8125 2:0.625 3:0.75 4:0.9375 5:0.6875 6:0.875 7:0.375 8:0.5625 9:0.4375 10:0.0 11:0.375 12:0.625 13:0.3125 14:0.0 15:0.75 16:0.0625 17:0.0 18:0.5 19:0.3125 20:0.75 21:1.0 
0.22734260663804112 1:0.75 2:0.125 3:0.5 4:0.0625 5:0.25 6:0.625 7:0.0 8:0.3125 9:0.0625 10:0.125 11:0.5 12:0.9375 13:0.0 14:0.4375 15:0.75 16:0.0625 17:0.0 18:0.6875 19:0.9375 20:0.9375 21:0.9375 
-0.16976692365762755 1:0.8125 2:0.375 3:0.25 4:0.625 5:0.375 6:0.3125 7:0.0625 8:0.25 9:0.4375 10:0.25 11:0.3125 12:0.75 13:0.75 14:0.5625 15:0.625 16:0.5625 17:0.5625 18:0.0625 19:0.5 20:0.4375 21:0.5 
-0.3081373795621812 1:0.625 2:0.6875 3:0.6875 4:1.0 5:0.5 6:0.875 7:0.6875 8:0.25 9:0.5625 10:0.3125 11:0.875 12:0.5 13:0.4375 14:0.3125 15:0.375 16:0.625 17:0.375 18:1.0 19:0.375 20:0.4375 21:0.875 
0.010908536412925931 1:0.9375 2:1.0 3:0.625 4:0.1875 5:0.25 6:0.5625 7:0.25 8:0.375 9:0.1875 10:0.3125 11:0.5 12:0.5 13:0.3125 14:0.0 15:0.5 16:0.25 17:0.3125 18:0.5 19:0.4375 20:0.6875 21:0.875 
-0.12581914433050934 1:0.75 2:0.0625 3:0.625 4:0.625 5:0.5 6:0.75 7:0.1875 8:0.375 9:0.0625 10:0.5 11:0.4375 12:0.5 13:0.9375 14:0.75 15:0.8125 16:0.5 17:0.4375 18:0.625 19:0.5 20:0.6875 21:0.5 
-0.2225843510981199 1:0.125 2:0.5625 3:0.3125 4:0.0625 5:0.5 6:0.75 7:1.0 8:0.5 9:0.5625 10:0.6875 11:1.0 12:0.0 13:0.0 14:0.25 15:0.0625 16:1.0 17:0.8125 18:0.9375 19:0.875 20:0.5625 21:0.5 
-0.4965846085898781 1:0.4375 2:0.3125 3:0.8125 4:0.0 5:0.375 6:0.625 7:1.0 8:0.9375 9:0.5625 10:0.5625 11:0.75 12:1.0 13:0.5 14:0.625 15:0.75 16:0.125 17:0.1875 18:0.5625 19:0.75 20:0.75 21:0.5625 
-0.78231952478544 1:0.5625 2:0.0 3:0.375 4:0.25 5:0.1875 6:0.5 7:0.3125 8:0.5 9:0.5 10:0.0625 11:0.625 12:0.5 13:0.5 14:0.125 15:0.5 16:0.5625 17:0.5 18:0.875 19:0.3125 20:0.8125 21:0.8125 
-0.2779099566265316 1:0.5 2:0.6875 3:0.3125 4:0.9375 5:0.6875 6:0.875 7:0.5 8:0.4375 9:0.75 10:1.0 11:0.5625 12:0.0 13:0.6875 14:0.5 15:0.625 16:1.0 17:0.9375 18:0.9375 19:0.4375 20:0.375 21:0.125 
-0.21212550495376567 1:0.5 2:0.4375 3:0.375 4:0.375 5:0.5 6:0.25 7:1.0 8:0.5625 9:0.5 10:0.6875 11:0.1875 12:0.5 13:0.25 14:0.5 15:0.125 16:0.6875 17:0.75 18:0.375 19:0.6875 20:0.125 21:0.0625 
-0.05876163922875686 1:0.0625 2:0.125 3:0.1875 4:0.0625 5:0.1875 6:0.0 7:0.3125 8:0.5 9:0.5625 10:0.6875 11:0.875 12:0.6875 13:0.6875 14:0.75 15:0.6875 16:0.5 17:0.375 18:0.4375 19:0.125 20:0.5 21:0.75 
-0.4204372458923049 1:0.625 2:0.8125 3:0.625 4:1.0 5:0.1875 6:0.625 7:0.875 8:0.6875 9:0.9375 10:0.0 11:0.5 12:0.0 13:0.5625 14:0.0 15:0.5 16:0.625 17:0.125 18:0.5625 19:0.0 20:0.3125 21:0.8125 
-0.052691313664462405 1:0.3125 2:0.5625 3:0.5 4:0.75 5:0.625 6:0.8125 7:0.8125 8:0.6875 9:0.8125 10:0.8125 11:0.75 12:0.5625 13:0.5625 14:0.625 15:0.5625 16:0.6875 17:0.625 18:0.375 19:0.125 20:0.5 21:0.3125 
0.004741341233345248 1:0.3125 2:0.25 3:0.125 4:0.25 5:0.0625 6:0.0625 7:0.3125 8:0.4375 9:0.25 10:0.0 11:0.0 12:0.5 13:0.375 14:0.5625 15:0.3125 16:0.0 17:0.1875 18:0.375 19:0.625 20:0.25 21:0.0 
0.03297769789600431 1:0.375 2:0.5 3:0.125 4:0.25 5:0.375 6:0.875 7:0.6875 8:0.6875 9:0.5 10:0.5625 11:0.9375 12:0.5 13:0.1875 14:0.1875 15:0.5625 16:0.1875 17:0.4375 18:1.0 19:0.625 20:0.75 21:0.875 
-0.47002612761796675 1:0.0625 2:0.125 3:0.5625 4:0.0625 5:0.375 6:0.1875 7:0.6875 8:0.875 9:0.5 10:0.5625 11:0.75 12:0.8125 13:0.75 14:0.3125 15:0.5 16:0.0625 17:0.25 18:0.1875 19:0.5625 20:0.5 21:0.6875 
0.6405959508568427 1:0.1875 2:0.1875 3:0.6875 4:0.3125 5:0.3125 6:0.4375 7:0.875 8:0.9375 9:0.75 10:0.9375 11:0.5 12:1.0 13:0.6875 14:1.0 15:0.5 16:0.375 17:0.4375 18:0.0 19:0.5625 20:0.4375 21:0.25 
-0.31048159421386273 1:0.4375 2:0.3125 3:0.875 4:0.9375 5:0.4375 6:0.625 7:0.5 8:0.875 9:0.5 10:0.375 11:0.8125 12:0.8125 13:0.9375 14:0.875 15:1.0 16:0.625 17:0.0625 18:0.625 19:0.3125 20:0.5 21:0.875 
0.1655180295720741 1:0.625 2:0.1875 3:0.5625 4:0.8125 5:0.75 6:0.0 7:0.3125 8:0.5 9:0.5625 10:0.75 11:0.0625 12:0.8125 13:0.75 14:0.875 15:0.5 16:0.75 17:0.5 18:0.0625 19:0.25 20:0.0625 21:0.375 
0.19456000611365137 1:0.5 2:0.4375 3:0.625 4:0.75 5:1.0 6:0.5625 7:0.625 8:0.9375 9:0.8125 10:0.6875 11:0.6875 12:0.75 13:0.8125 14:0.875 15:0.8125 16:0.0625 17:0.625 18:0.3125 19:0.8125 20:0.5 21:0.3125 
0.1816982379611571 1:0.375 2:0.25 3:0.875 4:0.5 5:0.0 6:0.5625 7:0.5 8:0.9375 9:1.0 10:0.8125 11:1.0 12:0.75 13:1.0 14:0.5 15:0.8125 16:0.375 17:0.25 18:0.5 19:0.0 20:0.5 21:0.5625 
-1.0 1:0.9375 2:0.5625 3:0.875 4:0.5 5:0.9375 6:0.5 7:0.4375 8:0.5 9:0.4375 10:0.625 11:0.5625 12:0.8125 13:0.625 14:0.5 15:0.4375 16:0.4375 17:0.5 18:0.375 19:0.8125 20:0.25 21:0.375 
0.5306696558534946 1:0.3125 2:0.0 3:0.4375 4:0.0 5:0.25 6:0.0625 7:0.4375 8:0.625 9:0.625 10:0.9375 11:0.75 12:0.5625 13:0.625 14:0.9375 15:0.4375 16:0.4375 17:0.5 18:0.375 19:0.5 20:0.5 21:0.25 
-0.18160430811629905 1:0.375 2:0.875 3:0.5625 4:0.5 5:0.9375 6:0.875 7:1.0 8:0.75 9:0.5 10:0.8125 11:0.6875 12:0.3125 13:0.0 14:0.0 15:0.5625 16:0.6875 17:0.625 18:0.5625 19:0.5625 20:0.6875 21:0.6875 
-0.14558862147826154 1:0.0 2:0.1875 3:0.1875 4:0.4375 5:0.6875 6:0.0 7:0.9375 8:0.5 9:0.5 10:0.9375 11:0.5625 12:0.1875 13:0.375 14:0.875 15:0.5 16:0.875 17:0.9375 18:0.5 19:0.875 20:0.0625 21:0.0625 
0.06267846804806071 1:0.9375 2:1.0 3:1.0 4:0.625 5:0.9375 6:0.8125 7:0.75 8:0.5 9:0.5 10:0.5 11:0.4375 12:0.5 13:0.3125 14:0.375 15:0.5 16:0.5 17:0.1875 18:0.1875 19:0.0625 20:0.3125 21:0.5625 
-0.35360908590228535 1:0.5 2:0.125 3:0.375 4:0.4375 5:0.25 6:0.4375 7:0.3125 8:0.5625 9:0.6875 10:0.125 11:0.5 12:1.0 13:0.5 14:0.3125 15:0.625 16:0.4375 17:0.0 18:0.3125 19:0.1875 20:0.5 21:1.0 
0.07323318657340235 1:0.5 2:0.5 3:0.375 4:0.5625 5:0.5625 6:0.0625 7:0.8125 8:0.4375 9:0.6875 10:0.4375 11:0.3125 12:0.125 13:0.875 14:0.5 15:0.0625 16:0.75 17:0.8125 18:0.3125 19:0.125 20:0.125 21:0.1875 
0.15140277972445018 1:0.75 2:0.5 3:0.375 4:0.5 5:0.625 6:0.625 7:0.5 8:0.1875 9:0.375 10:0.6875 11:0.5625 12:0.5 13:0.625 14:0.9375 15:0.5 16:0.75 17:0.625 18:1.0 19:0.5625 20:0.875 21:0.5 
-0.7412535423286505 1:0.3125 2:0.125 3:0.25 4:0.5 5:0.75 6:0.5 7:0.125 8:0.375 9:0.5 10:0.5 11:0.625 12:0.5 13:0.75 14:0.8125 15:0.75 16:0.5625 17:0.625 18:0.875 19:0.3125 20:0.5 21:0.375 
0.19486555194917546 1:0.5 2:0.8125 3:0.625 4:0.6875 5:1.0 6:0.9375 7:0.5 8:0.4375 9:0.75 10:0.5 11:0.5625 12:0.4375 13:0.4375 14:0.4375 15:0.3125 16:0.5 17:0.5 18:0.75 19:0.625 20:0.5625 21:0.5625 
0.054774859805396744 1:0.375 2:0.5 3:0.0 4:0.5625 5:0.0625 6:0.5 7:1.0 8:0.375 9:0.75 10:0.8125 11:0.875 12:0.1875 13:0.5625 14:0.5625 15:0.75 16:0.6875 17:0.625 18:0.6875 19:0.125 20:0.5 21:0.5625 
-0.22466898407453456 1:0.3125 2:1.0 3:0.5625 4:0.375 5:0.75 6:0.5 7:0.9375 8:0.5 9:0.625 10:0.9375 11:0.6875 12:0.5 13:0.0625 14:0.4375 15:0.0 16:0.125 17:0.5625 18:0.375 19:0.875 20:0.3125 21:0.0 
0.28513946923655176 1:0.9375 2:0.5 3:0.875 4:0.5 5:0.5625 6:0.6875 7:0.5 8:0.375 9:0.4375 10:0.5 11:0.625 12:0.5625 13:0.5 14:0.4375 15:0.875 16:0.125 17:0.25 18:0.6875 19:0.75 20:0.8125 21:0.5 
-0.19587898950338656 1:0.875 2:0.8125 3:1.0 4:0.75 5:0.375 6:0.9375 7:0.3125 8:0.3125 9:0.5 10:0.0625 11:0.3125 12:1.0 13:0.6875 14:0.3125 15:0.75 16:0.375 17:0.0 18:0.625 19:0.1875 20:0.5 21:0.625 
-0.13038471375953442 1:0.6875 2:0.4375 3:0.9375 4:0.375 5:0.6875 6:0.3125 7:0.375 8:0.5 9:0.375 10:1.0 11:0.1875 12:0.5 13:0.5625 14:0.8125 15:0.4375 16:0.125 17:0.4375 18:0.25 19:0.75 20:0.5 21:0.0625 
0.03886499806360359 1:0.5 2:0.4375 3:0.5 4:0.125 5:0.0 6:0.5 7:0.375 8:0.5625 9:0.0625 10:0.375 11:0.5625 12:0.4375 13:0.25 14:0.1875 15:0.1875 16:0.125 17:0.375 18:0.625 19:0.5 20:0.625 21:1.0 
0.007509181524426879 1:0.1875 2:0.0625 3:0.0625 4:0.1875 5:0.125 6:0.5 7:0.875 8:0.25 9:0.8125 10:0.5 11:0.9375 12:0.25 13:0.4375 14:0.0625 15:0.5625 16:0.8125 17:0.5 18:0.8125 19:0.5 20:0.6875 21:0.5 
0.464575704576831 1:0.0625 2:0.0625 3:0.4375 4:0.3125 5:0.25 6:0.25 7:0.375 8:0.8125 9:0.4375 10:0.5625 11:0.5 12:0.6875 13:0.8125 14:0.625 15:0.5 16:0.3125 17:0.125 18:0.0 19:0.0625 20:0.0625 21:0.5 
-0.17246475903990965 1:0.875 2:0.5625 3:0.5 4:0.5 5:0.1875 6:0.75 7:0.0 8:0.1875 9:0.5 10:0.375 11:0.5 12:0.5 13:0.5625 14:0.1875 15:0.8125 16:0.9375 17:0.5 18:0.625 19:0.3125 20:0.8125 21:0.8125 
0.010003532002260134 1:0.4375 2:0.0 3:0.1875 4:0.375 5:0.4375 6:0.25 7:0.0 8:0.125 9:0.25 10:0.375 11:0.125 12:0.0 13:0.5625 14:0.5 15:0.5 16:0.625 17:0.875 18:0.5 19:0.75 20:0.5 21:0.4375 
-0.07748317268895256 1:0.0 2:0.375 3:0.0 4:0.375 5:0.4375 6:0.0 7:0.375 8:0.25 9:0.3125 10:0.6875 11:0.4375 12:0.3125 13:0.4375 14:1.0 15:0.0625 16:0.8125 17:1.0 18:0.5 19:0.625 20:0.3125 21:0.125 
0.04350166179888359 1:0.375 2:0.5 3:0.625 4:0.625 5:0.5 6:0.3125 7:0.9375 8:0.8125 9:0.9375 10:0.3125 11:0.5625 12:0.5 13:0.5 14:0.125 15:0.0 16:0.75 17:0.375 18:0.3125 19:0.25 20:0.3125 21:0.3125 
-0.9394851766781172 1:0.5 2:0.25 3:0.625 4:0.625 5:0.9375 6:0.5 7:0.5 8:1.0 9:0.875 10:0.5 11:0.5625 12:1.0 13:0.5625 14:0.5 15:0.6875 16:0.25 17:0.25 18:0.1875 19:0.375 20:0.4375 21:0.5 
-0.12086171041059733 1:0.5 2:0.875 3:0.125 4:0.875 5:1.0 6:0.4375 7:1.0 8:0.0625 9:0.875 10:0.875 11:0.4375 12:0.125 13:0.6875 14:0.625 15:0.375 16:1.0 17:0.8125 18:0.5 19:0.3125 20:0.0 21:0.3125 
0.006537187862931701 1:0.9375 2:0.9375 3:0.6875 4:1.0 5:0.75 6:0.375 7:0.375 8:0.4375 9:0.375 10:0.4375 11:0.0 12:0.5625 13:0.1875 14:0.5 15:0.375 16:0.125 17:0.25 18:0.1875 19:0.75 20:0.5 21:0.125 
-0.02701943663913039 1:0.5625 2:0.4375 3:0.4375 4:0.5 5:0.5 6:0.375 7:0.4375 8:0.125 9:0.4375 10:0.5 11:0.5 12:0.5 13:0.25 14:0.5 15:0.625 16:0.5625 17:0.75 18:0.625 19:0.5 20:0.625 21:0.125 
-0.8979956660076908 1:0.125 2:0.4375 3:0.3125 4:0.3125 5:0.125 6:0.25 7:0.5 8:0.625 9:0.9375 10:0.5 11:0.6875 12:0.625 13:0.875 14:0.5625 15:0.3125 16:0.5625 17:0.4375 18:0.125 19:0.0625 20:0.4375 21:0.3125 
0.0375939945952411 1:0.1875 2:0.9375 3:0.9375 4:0.375 5:0.6875 6:0.6875 7:1.0 8:0.625 9:0.625 10:0.8125 11:0.875 12:0.25 13:0.0625 14:0.375 15:0.375 16:0.5 17:0.5625 18:0.25 19:0.875 20:0.5 21:0.3125 
0.26089358110962646 1:0.5625 2:0.4375 3:0.125 4:0.1875 5:0.4375 6:0.3125 7:0.125 8:0.125 9:0.1875 10:0.0 11:0.25 12:0.0625 13:0.0 14:0.3125 15:0.125 16:0.375 17:0.375 18:0.375 19:0.5625 20:0.5 21:0.75 
-0.055643302114704744 1:0.9375 2:0.0625 3:0.5 4:0.375 5:0.625 6:0.0625 7:0.0 8:0.1875 9:0.4375 10:0.625 11:0.25 12:0.8125 13:0.9375 14:1.0 15:0.5 16:0.375 17:1.0 18:0.125 19:1.0 20:0.0 21:0.125 
-0.3423684381282892 1:0.3125 2:0.3125 3:0.0 4:0.125 5:0.1875 6:0.1875 7:0.5 8:0.5 9:0.8125 10:0.5 11:0.5 12:0.4375 13:0.5 14:0.5 15:0.0625 16:1.0 17:0.9375 18:0.6875 19:0.4375 20:0.0 21:0.4375 
-0.05605760095080669 1:0.0 2:0.125 3:0.3125 4:0.0625 5:0.875 6:0.625 7:0.5625 8:0.5 9:0.1875 10:0.8125 11:0.6875 12:0.25 13:0.5 14:0.75 15:0.8125 16:0.625 17:0.8125 18:1.0 19:1.0 20:0.75 21:0.375 
0.12999147288666943 1:0.6875 2:0.5625 3:0.625 4:0.875 5:0.5625 6:0.5625 7:0.125 8:0.5625 9:0.1875 10:0.4375 11:0.1875 12:0.875 13:0.5625 14:0.875 15:0.25 16:0.1875 17:0.4375 18:0.0 19:0.75 20:0.25 21:0.375 
-0.1454296783767299 1:0.8125 2:0.875 3:0.75 4:0.5625 5:0.6875 6:0.9375 7:0.625 8:0.4375 9:0.0625 10:0.5625 11:0.5 12:0.5 13:0.0625 14:0.4375 15:0.375 16:0.375 17:0.5625 18:0.4375 19:0.5625 20:0.625 21:0.125 
-0.20365577947577201 1:0.5 2:0.25 3:0.4375 4:0.5 5:0.5 6:0.375 7:0.5 8:0.375 9:0.5 10:0.5625 11:0.5 12:0.375 13:0.5625 14:0.5 15:0.3125 16:0.625 17:0.625 18:0.625 19:0.5 20:0.5 21:0.6875 
-0.32833792538662504 1:0.5 2:0.6875 3:0.5625 4:0.6875 5:0.375 6:0.75 7:0.1875 8:0.25 9:0.5625 10:0.1875 11:0.5 12:0.375 13:0.75 14:0.5 15:0.6875 16:0.9375 17:0.375 18:0.625 19:0.0 20:0.25 21:0.5 
0.6125576134562314 1:0.5 2:0.4375 3:0.9375 4:0.75 5:0.75 6:0.3125 7:0.6875 8:1.0 9:1.0 10:0.625 11:0.5 12:0.5625 13:0.5625 14:0.4375 15:0.125 16:0.25 17:0.125 18:0.1875 19:0.4375 20:0.4375 21:0.125 
0.11313663241619756 1:0.125 2:0.5 3:0.0625 4:0.0625 5:0.625 6:0.5 7:0.4375 8:0.125 9:0.25 10:0.5625 11:0.6875 12:0.5 13:0.375 14:0.5 15:0.9375 16:0.5625 17:0.9375 18:0.875 19:0.5625 20:0.8125 21:0.5625 
0.0893162653093653 1:0.75 2:0.8125 3:0.6875 4:1.0 5:0.75 6:0.5625 7:0.625 8:0.5 9:0.9375 10:0.375 11:0.875 12:0.0625 13:0.4375 14:0.0 15:0.25 16:0.875 17:0.125 18:0.4375 19:0.0625 20:0.3125 21:0.625 
-0.04171052461272713 1:0.3125 2:0.125 3:0.1875 4:0.375 5:0.125 6:0.0625 7:0.125 8:0.0625 9:0.5625 10:0.5625 11:0.125 12:0.3125 13:1.0 14:1.0 15:0.5625 16:1.0 17:0.6875 18:0.3125 19:0.5 20:0.25 21:0.0 
0.11536437390684909 1:1.0 2:0.5 3:0.625 4:0.5 5:0.4375 6:1.0 7:0.625 8:0.5625 9:0.3125 10:0.0625 11:0.5 12:0.375 13:0.0625 14:0.25 15:0.625 16:0.3125 17:0.4375 18:0.625 19:0.1875 20:0.625 21:0.875 
0.1790578393137539 1:0.1875 2:0.25 3:0.0 4:0.1875 5:0.125 6:0.5 7:0.5 8:0.0625 9:0.25 10:0.375 11:0.375 12:0.25 13:0.0 14:0.5 15:0.5 16:0.5 17:0.5625 18:0.5625 19:0.5 20:0.4375 21:0.5 
-0.08251612730115161 1:0.625 2:0.4375 3:0.375 4:0.875 5:0.5625 6:0.6875 7:0.4375 8:0.1875 9:0.4375 10:0.625 11:0.3125 12:0.6875 13:0.9375 14:0.625 15:0.6875 16:0.875 17:0.5625 18:0.75 19:0.5 20:0.4375 21:0.1875 
-0.042922062846602146 1:0.0 2:0.75 3:0.375 4:0.125 5:0.25 6:0.0625 7:1.0 8:0.6875 9:0.9375 10:0.75 11:0.6875 12:0.0 13:0.3125 14:0.0 15:0.0625 16:0.3125 17:0.4375 18:0.25 19:0.125 20:0.5 21:0.5625 
-0.47753577746027037 1:0.25 2:0.75 3:0.6875 4:0.5625 5:0.3125 6:0.5625 7:0.6875 8:0.875 9:0.5625 10:0.6875 11:0.6875 12:0.4375 13:0.5 14:0.4375 15:0.375 16:0.4375 17:0.4375 18:0.5 19:0.5625 20:0.8125 21:0.8125 
0.06283954600323594 1:0.5625 2:0.5 3:0.375 4:0.5 5:0.3125 6:0.5625 7:0.75 8:0.25 9:0.4375 10:0.5 11:0.4375 12:0.3125 13:0.3125 14:0.3125 15:0.25 16:0.875 17:0.875 18:0.5625 19:0.6875 20:0.5625 21:0.5 
-0.10584604739296646 1:0.3125 2:0.5 3:0.25 4:0.75 5:0.4375 6:0.125 7:0.6875 8:0.5625 9:1.0 10:0.8125 11:0.9375 12:0.1875 13:0.875 14:0.3125 15:0.125 16:0.8125 17:0.625 18:0.5 19:0.375 20:0.1875 21:0.3125 
0.05760782422700726 1:0.25 2:0.4375 3:0.25 4:0.5 5:0.0625 6:0.5 7:0.5 8:0.6875 9:0.5625 10:0.25 11:0.8125 12:0.6875 13:0.625 14:0.0625 15:0.75 16:0.5 17:0.0 18:0.5 19:0.125 20:0.0625 21:0.8125 
-0.02650607773850787 1:0.0 2:0.4375 3:0.0625 4:0.3125 5:0.3125 6:0.375 7:1.0 8:0.4375 9:0.8125 10:0.6875 11:0.9375 12:0.25 13:0.5 14:0.5 15:0.75 16:0.5 17:0.875 18:1.0 19:0.375 20:0.625 21:0.5 
-0.5535169760275873 1:0.0 2:0.5625 3:0.4375 4:0.5 5:0.6875 6:0.4375 7:0.75 8:0.5625 9:1.0 10:0.875 11:0.8125 12:0.3125 13:0.5625 14:0.375 15:0.5 16:0.5625 17:0.625 18:0.6875 19:0.375 20:0.5 21:0.9375 
-0.024388186375683983 1:0.3125 2:0.5 3:0.25 4:0.125 5:0.1875 6:0.0 7:0.6875 8:0.4375 9:0.5 10:0.375 11:0.5 12:0.0625 13:0.125 14:0.125 15:0.1875 16:0.3125 17:0.1875 18:0.4375 19:0.25 20:0.9375 21:0.875 
0.003784406022077232 1:0.625 2:0.25 3:0.25 4:0.5 5:0.5625 6:0.3125 7:0.0625 8:0.5 9:0.375 10:0.4375 11:0.4375 12:0.625 13:0.5 14:0.75 15:0.8125 16:0.5 17:0.8125 18:0.625 19:0.6875 20:0.4375 21:0.0625 
0.14847330757784583 1:0.25 2:0.25 3:0.3125 4:0.25 5:0.25 6:0.3125 7:0.625 8:0.5 9:0.375 10:0.5 11:0.4375 12:0.1875 13:0.375 14:0.9375 15:0.5 16:0.5625 17:0.75 18:0.5625 19:0.75 20:0.8125 21:0.25 
0.1766353350784054 1:0.625 2:0.4375 3:1.0 4:0.75 5:0.8125 6:0.8125 7:0.125 8:0.75 9:1.0 10:0.5 11:0.625 12:0.9375 13:1.0 14:0.625 15:0.625 16:0.5 17:0.25 18:0.1875 19:0.0 20:0.3125 21:0.375 
0.45823834988986434 1:0.6875 2:0.5 3:0.75 4:0.75 5:0.4375 6:1.0 7:0.1875 8:0.5 9:0.4375 10:0.1875 11:0.25 12:1.0 13:0.5 14:0.375 15:0.5625 16:0.3125 17:0.0625 18:0.625 19:0.375 20:0.75 21:1.0 
0.20907710080241831 1:0.0 2:0.375 3:0.25 4:0.25 5:0.5 6:0.5 7:0.75 8:0.875 9:0.6875 10:0.6875 11:0.5 12:0.3125 13:0.5 14:0.5 15:0.4375 16:0.75 17:0.8125 18:0.8125 19:0.625 20:0.5625 21:0.5 
0.1802493646063246 1:0.1875 2:0.1875 3:0.1875 4:0.0625 5:0.3125 6:0.125 7:0.6875 8:0.625 9:0.5 10:0.6875 11:0.4375 12:0.8125 13:0.25 14:0.75 15:0.5 16:0.1875 17:0.9375 18:0.375 19:0.8125 20:0.8125 21:0.0 
-0.40730999174719895 1:0.5625 2:0.625 3:0.375 4:0.8125 5:0.6875 6:0.4375 7:0.25 8:0.0625 9:0.3125 10:0.4375 11:0.3125 12:0.0 13:0.8125 14:0.625 15:0.375 16:1.0 17:0.875 18:0.75 19:0.5 20:0.375 21:0.3125 
-0.4566049675489925 1:0.4375 2:0.6875 3:0.5 4:0.4375 5:0.625 6:0.75 7:0.5 8:0.375 9:0.3125 10:0.5 11:0.875 12:0.4375 13:0.125 14:1.0 15:0.8125 16:0.1875 17:0.8125 18:0.8125 19:0.9375 20:0.75 21:0.625 
0.0021861482116787593 1:0.25 2:0.0 3:0.4375 4:0.125 5:0.375 6:0.4375 7:0.5625 8:1.0 9:0.5625 10:0.625 11:0.4375 12:0.8125 13:0.9375 14:0.8125 15:0.4375 16:0.3125 17:0.4375 18:0.125 19:0.5 20:0.5 21:0.125 
0.6477628090777159 1:0.5 2:0.625 3:0.625 4:0.5 5:1.0 6:0.625 7:0.625 8:0.8125 9:0.5 10:0.75 11:1.0 12:1.0 13:0.375 14:0.6875 15:0.8125 16:0.1875 17:0.25 18:0.5625 19:0.6875 20:0.625 21:0.5 
0.13153080070188125 1:0.9375 2:0.6875 3:0.8125 4:0.6875 5:1.0 6:0.8125 7:0.125 8:0.5 9:0.0625 10:0.3125 11:0.375 12:0.625 13:0.5625 14:0.6875 15:0.625 16:0.4375 17:0.6875 18:0.6875 19:0.5 20:0.8125 21:1.0 
0.1903581102445488 1:0.0 2:0.5 3:0.3125 4:0.75 5:0.4375 6:0.25 7:0.5 8:0.5 9:1.0 10:0.5 11:0.5625 12:0.5 13:0.5 14:0.0625 15:0.25 16:1.0 17:0.5 18:0.4375 19:0.375 20:0.1875 21:0.6875 
-0.028690148106942977 1:0.8125 2:0.9375 3:0.25 4:0.6875 5:0.625 6:0.25 7:0.5 8:0.0625 9:0.875 10:0.625 11:0.3125 12:0.375 13:1.0 14:0.4375 15:0.0 16:0.8125 17:0.8125 18:0.4375 19:0.4375 20:0.0625 21:0.1875 
0.03211937403823919 1:0.125 2:1.0 3:0.6875 4:0.625 5:0.4375 6:0.625 7:0.9375 8:0.5625 9:0.5 10:0.5 11:0.625 12:0.5 13:0.5 14:0.0625 15:0.5 16:0.5 17:0.4375 18:0.6875 19:0.0 20:0.875 21:0.875 
0.11116468567208199 1:0.8125 2:0.5 3:0.6875 4:0.5625 5:0.5625 6:0.875 7:0.0 8:0.8125 9:0.375 10:0.1875 11:0.125 12:1.0 13:0.5 14:0.75 15:0.5625 16:0.1875 17:0.1875 18:0.1875 19:0.625 20:0.4375 21:0.625 
0.12239643374278233 1:0.4375 2:0.75 3:0.5625 4:0.625 5:0.5 6:0.5 7:0.9375 8:0.5 9:0.5625 10:0.875 11:0.125 12:0.375 13:0.375 14:0.0625 15:0.125 16:0.3125 17:0.5 18:0.4375 19:0.4375 20:0.4375 21:0.25 
0.5631773573715644 1:0.5625 2:0.75 3:0.5 4:0.75 5:0.375 6:0.6875 7:0.5 8:0.6875 9:0.875 10:0.3125 11:0.5 12:0.1875 13:0.625 14:0.4375 15:0.375 16:0.875 17:0.25 18:0.625 19:0.3125 20:0.3125 21:0.75 
-0.32873644718258616 1:0.0625 2:0.4375 3:0.8125 4:0.875 5:0.625 6:0.3125 7:0.375 8:0.6875 9:0.875 10:0.8125 11:0.5 12:0.5 13:0.8125 14:0.875 15:0.5625 16:0.5625 17:0.5 18:0.375 19:0.25 20:0.125 21:0.25 
-0.053250203782908075 1:0.6875 2:0.625 3:0.6875 4:0.5 5:0.8125 6:0.375 7:0.75 8:0.5 9:0.375 10:0.5 11:0.5 12:0.375 13:0.0 14:0.4375 15:0.0625 16:0.0 17:0.25 18:0.0625 19:0.75 20:0.8125 21:0.5 
0.39676139807714056 1:0.6875 2:0.5 3:0.8125 4:0.5625 5:1.0 6:0.5625 7:0.375 8:0.125 9:0.1875 10:0.5 11:0.125 12:0.5625 13:1.0 14:0.9375 15:0.5625 16:0.0625 17:0.625 18:0.4375 19:0.625 20:0.4375 21:0.3125 
0.33024284951313304 1:0.5625 2:0.6875 3:1.0 4:0.0625 5:0.9375 6:0.5625 7:0.5 8:0.625 9:0.3125 10:0.5 11:0.3125 12:0.75 13:0.25 14:0.5 15:0.5 16:0.25 17:0.5 18:0.5 19:0.75 20:0.8125 21:0.5 
-0.5284091119024228 1:0.6875 2:0.5625 3:0.9375 4:0.375 5:0.75 6:0.5625 7:0.0 8:0.5 9:0.125 10:0.0 11:0.5 12:0.9375 13:0.5 14:0.5 15:1.0 16:0.25 17:0.4375 18:0.5625 19:0.75 20:0.6875 21:0.9375 
0.17674387283767679 1:0.6875 2:0.75 3:0.9375 4:0.75 5:0.375 6:0.9375 7:0.875 8:0.875 9:0.5 10:0.375 11:0.4375 12:0.3125 13:0.0625 14:0.1875 15:0.375 16:0.0625 17:0.25 18:0.5 19:0.375 20:0.9375 21:0.625 
0.27032460420135396 1:0.8125 2:1.0 3:0.625 4:0.5 5:1.0 6:0.5 7:0.9375 8:0.4375 9:0.5 10:0.5 11:0.3125 12:0.5 13:0.125 14:0.625 15:0.25 16:0.25 17:0.625 18:0.0 19:0.8125 20:0.3125 21:0.1875 
-0.01060648449904849 1:0.0 2:0.625 3:0.25 4:0.0 5:0.0625 6:0.0625 7:0.8125 8:0.75 9:0.0625 10:0.3125 11:0.125 12:0.375 13:0.0625 14:0.25 15:0.125 16:0.1875 17:0.375 18:0.1875 19:0.4375 20:0.4375 21:0.6875 
-0.21190034982503786 1:0.5625 2:0.3125 3:0.8125 4:1.0 5:0.875 6:0.6875 7:0.0 8:0.5 9:0.8125 10:0.375 11:0.5 12:1.0 13:0.75 14:0.8125 15:0.8125 16:0.5625 17:0.3125 18:0.6875 19:0.4375 20:0.4375 21:1.0 
0.2224849450277992 1:0.25 2:0.375 3:0.25 4:0.5 5:0.0625 6:0.5625 7:0.4375 8:0.5625 9:0.875 10:0.125 11:0.5625 12:0.4375 13:0.875 14:0.375 15:0.5625 16:0.625 17:0.5625 18:0.6875 19:0.1875 20:0.625 21:0.8125 
0.2100406937048676 1:0.5 2:0.1875 3:0.3125 4:0.5625 5:0.375 6:0.1875 7:0.125 8:0.0 9:0.1875 10:0.0625 11:0.25 12:0.5625 13:0.8125 14:0.9375 15:0.9375 16:0.5625 17:0.5 18:0.5 19:0.5 20:0.125 21:0.4375 
0.059829212859601195 1:0.9375 2:0.5 3:0.5 4:0.1875 5:0.0625 6:0.5 7:0.5625 8:0.0 9:0.0 10:0.125 11:0.125 12:0.3125 13:0.25 14:0.25 15:0.3125 16:0.5 17:0.375 18:0.5625 19:0.1875 20:0.5625 21:0.9375 
-0.3534919494303376 1:1.0 2:0.625 3:0.5 4:0.375 5:0.5 6:0.5625 7:0.25 8:0.25 9:0.0625 10:0.25 11:0.5 12:0.3125 13:0.375 14:0.5625 15:0.625 16:0.1875 17:0.1875 18:0.625 19:0.75 20:0.625 21:0.625 
-0.47578242938667265 1:0.25 2:0.125 3:0.6875 4:0.6875 5:0.8125 6:0.0625 7:0.375 8:0.875 9:0.6875 10:0.9375 11:0.375 12:0.9375 13:0.6875 14:0.9375 15:0.5 16:0.1875 17:0.0625 18:0.0625 19:0.375 20:0.3125 21:0.25 
0.6408857471688484 1:0.0 2:0.3125 3:0.5625 4:0.4375 5:0.0 6:0.0 7:0.5625 8:0.5 9:0.875 10:0.75 11:0.5 12:0.5625 13:0.8125 14:0.5 15:0.4375 16:0.875 17:0.5 18:0.25 19:0.25 20:0.0 21:0.1875 
0.07314333905156983 1:0.5625 2:1.0 3:0.5 4:1.0 5:0.875 6:0.9375 7:0.5625 8:0.125 9:0.5625 10:0.5625 11:0.8125 12:0.4375 13:0.875 14:0.8125 15:0.625 16:0.75 17:0.75 18:0.875 19:0.375 20:0.75 21:0.5 
-0.3136819884934465 1:0.6875 2:0.5 3:0.75 4:0.5625 5:0.5 6:0.9375 7:0.5625 8:0.8125 9:0.8125 10:0.5625 11:0.5 12:0.75 13:0.8125 14:0.375 15:0.375 16:0.5 17:0.0 18:0.0 19:0.0625 20:0.25 21:0.6875 
-0.31839281214567117 1:0.625 2:0.6875 3:1.0 4:0.25 5:1.0 6:1.0 7:0.25 8:0.125 9:0.0625 10:0.5 11:0.4375 12:0.375 13:0.0 14:0.625 15:0.5 16:0.3125 17:0.9375 18:0.875 19:0.875 20:1.0 21:0.625 
0.1040338571964279 1:0.1875 2:0.25 3:0.5 4:0.6875 5:0.8125 6:0.3125 7:0.5 8:0.5625 9:0.9375 10:1.0 11:0.625 12:1.0 13:0.5625 14:0.75 15:0.6875 16:0.3125 17:0.5 18:0.125 19:0.5 20:0.0 21:0.0 
-0.1752057078409399 1:0.5625 2:1.0 3:0.625 4:0.0625 5:0.625 6:0.25 7:0.625 8:0.375 9:0.25 10:0.125 11:0.25 12:0.25 13:0.125 14:0.5 15:0.0 16:0.125 17:0.375 18:0.4375 19:0.6875 20:0.5 21:0.375 
0.41255686185402746 1:0.5 2:0.25 3:0.0 4:0.3125 5:0.0625 6:0.5 7:0.1875 8:0.5 9:0.3125 10:0.375 11:0.5 12:0.875 13:0.5 14:0.5 15:0.8125 16:0.5 17:0.1875 18:0.75 19:0.3125 20:0.5 21:0.9375 
0.12622719180750833 1:0.125 2:0.5 3:0.5 4:0.625 5:0.5 6:0.5 7:1.0 8:0.875 9:0.9375 10:1.0 11:0.625 12:0.625 13:0.5625 14:0.75 15:0.6875 16:0.4375 17:0.625 18:0.5625 19:0.625 20:0.875 21:0.5 
0.33596236918659134 1:1.0 2:0.8125 3:0.6875 4:0.6875 5:0.5625 6:1.0 7:0.5625 8:0.5 9:0.6875 10:0.25 11:0.75 12:0.6875 13:1.0 14:0.25 15:0.5 16:0.4375 17:0.125 18:0.25 19:0.0 20:0.4375 21:0.8125 
0.39732977142635867 1:0.5 2:0.5 3:1.0 4:0.5 5:0.5 6:0.5 7:0.25 8:0.625 9:0.4375 10:0.25 11:0.5625 12:0.6875 13:0.5 14:0.75 15:0.875 16:0.25 17:0.5 18:0.5 19:0.875 20:0.5 21:0.5625 
-0.2827337989820855 1:0.75 2:0.875 3:0.8125 4:0.75 5:0.9375 6:0.8125 7:0.375 8:0.25 9:0.5625 10:0.5 11:0.1875 12:0.4375 13:0.6875 14:0.5 15:0.25 16:0.375 17:0.5 18:0.3125 19:0.4375 20:0.375 21:0.3125 
-0.1096288884682865 1:0.5 2:0.5 3:0.25 4:0.375 5:0.875 6:0.25 7:0.5625 8:0.0625 9:0.1875 10:1.0 11:0.5625 12:0.5 13:0.25 14:0.8125 15:0.25 16:0.4375 17:1.0 18:0.6875 19:0.8125 20:0.75 21:0.0625 
0.06991785324162186 1:0.4375 2:0.3125 3:0.5 4:0.875 5:0.375 6:0.6875 7:0.25 8:0.625 9:0.5625 10:0.0625 11:0.625 12:0.75 13:0.75 14:0.5625 15:0.75 16:0.4375 17:0.0 18:0.75 19:0.0 20:0.5 21:0.75 
0.2859898490011266 1:0.25 2:0.3125 3:0.625 4:0.375 5:0.4375 6:0.125 7:0.0 8:0.6875 9:0.5 10:0.3125 11:0.625 12:0.75 13:0.625 14:0.5 15:0.6875 16:0.1875 17:0.0625 18:0.0625 19:0.3125 20:0.625 21:0.6875 
0.2855166133165567 1:0.625 2:0.75 3:0.6875 4:0.3125 5:0.625 6:0.5625 7:1.0 8:0.5 9:0.5 10:0.375 11:0.6875 12:0.3125 13:0.1875 14:0.3125 15:0.6875 16:0.4375 17:0.3125 18:0.5625 19:0.6875 20:0.9375 21:0.875 
-0.06360573839401895 1:0.875 2:0.9375 3:0.5 4:0.4375 5:0.9375 6:0.75 7:0.3125 8:0.3125 9:0.0625 10:0.5625 11:0.1875 12:0.0625 13:0.375 14:0.75 15:0.0625 16:0.625 17:0.875 18:0.9375 19:0.8125 20:0.4375 21:0.125 
0.10382216172371443 1:0.125 2:0.125 3:0.25 4:0.125 5:0.5 6:0.0625 7:0.375 8:0.25 9:0.3125 10:0.5625 11:0.5 12:0.875 13:0.6875 14:0.75 15:1.0 16:0.0 17:0.6875 18:0.4375 19:0.875 20:0.75 21:0.5 
0.8694849974451038 1:0.875 2:0.125 3:0.4375 4:0.5 5:0.1875 6:0.8125 7:0.25 8:0.1875 9:0.5 10:0.0625 11:0.375 12:0.625 13:0.6875 14:0.4375 15:0.6875 16:0.875 17:0.5 18:0.6875 19:0.25 20:0.75 21:0.9375 
-0.18044811758686174 1:0.0 2:0.75 3:0.375 4:0.3125 5:0.5625 6:0.625 7:0.625 8:0.3125 9:0.9375 10:0.875 11:0.9375 12:0.0 13:0.125 14:0.3125 15:0.4375 16:0.6875 17:0.625 18:0.9375 19:0.625 20:0.75 21:0.5 
-0.012960149614257286 1:0.875 2:0.875 3:0.5625 4:1.0 5:0.75 6:0.375 7:0.5 8:0.4375 9:0.4375 10:0.1875 11:0.4375 12:0.1875 13:0.5 14:0.125 15:0.0 16:0.5 17:0.5 18:0.0 19:0.25 20:0.375 21:0.375 
0.11952071195775293 1:0.0 2:0.25 3:0.0 4:0.6875 5:0.1875 6:0.375 7:0.4375 8:0.5 9:0.875 10:0.625 11:0.5 12:0.0 13:0.75 14:0.4375 15:0.0625 16:1.0 17:0.8125 18:0.5 19:0.1875 20:0.3125 21:0.3125 
0.08743829657802715 1:0.5625 2:0.5625 3:0.8125 4:1.0 5:0.5 6:0.9375 7:0.1875 8:0.625 9:0.9375 10:0.125 11:0.5 12:0.8125 13:0.9375 14:0.8125 15:0.6875 16:0.5 17:0.5 18:0.4375 19:0.375 20:0.5 21:0.875 
-0.6431948149622897 1:0.6875 2:0.5 3:0.75 4:0.3125 5:0.5625 6:0.6875 7:0.125 8:0.6875 9:0.4375 10:0.8125 11:0.625 12:0.6875 13:0.125 14:0.5625 15:0.5 16:0.125 17:0.5 18:0.4375 19:0.8125 20:0.5625 21:0.5 
-0.7645545818596536 1:0.6875 2:0.5625 3:0.5625 4:0.9375 5:0.25 6:0.4375 7:0.3125 8:0.6875 9:0.875 10:0.0625 11:0.375 12:0.75 13:0.5 14:0.375 15:0.375 16:0.6875 17:0.1875 18:0.125 19:0.25 20:0.25 21:0.5 
0.15167447011500348 1:0.875 2:0.5 3:0.5 4:0.1875 5:0.4375 6:0.375 7:0.3125 8:0.5625 9:0.0 10:0.1875 11:0.25 12:0.75 13:0.0625 14:0.375 15:0.25 16:0.125 17:0.125 18:0.0 19:0.5 20:0.0 21:0.1875 
-0.16248520099099598 1:0.3125 2:0.1875 3:0.25 4:0.125 5:0.4375 6:0.0 7:0.4375 8:0.4375 9:0.9375 10:0.6875 11:0.5625 12:0.4375 13:0.625 14:0.9375 15:0.0 16:0.75 17:0.625 18:0.3125 19:0.5 20:0.0625 21:0.0625 
-0.5473418072565037 1:0.25 2:0.375 3:0.0625 4:0.125 5:0.0 6:0.5625 7:0.5 8:0.0 9:0.375 10:0.0625 11:0.5625 12:0.5 13:0.5 14:0.4375 15:1.0 16:0.5 17:0.875 18:0.875 19:0.5 20:0.6875 21:0.625 
0.17911273261410926 1:0.5 2:0.5 3:0.0 4:0.375 5:0.5 6:0.125 7:0.3125 8:0.1875 9:0.3125 10:0.4375 11:0.375 12:0.0625 13:0.625 14:0.625 15:0.5 16:0.75 17:0.6875 18:0.3125 19:0.5 20:0.1875 21:0.25 
0.2808613597761265 1:0.875 2:0.5 3:0.5 4:0.5 5:0.75 6:0.9375 7:0.0625 8:0.5625 9:0.3125 10:0.375 11:0.75 12:0.8125 13:0.5 14:0.8125 15:0.75 16:0.1875 17:0.375 18:0.4375 19:0.5 20:0.625 21:0.75 
0.1087897351178453 1:0.3125 2:0.1875 3:0.5 4:0.5 5:0.5 6:0.625 7:0.4375 8:0.625 9:0.625 10:0.75 11:0.9375 12:1.0 13:0.6875 14:0.5 15:0.5 16:0.5 17:0.5 18:0.5 19:0.0 20:0.5 21:0.75 
-0.021505305982741117 1:0.5625 2:0.6875 3:1.0 4:0.6875 5:0.8125 6:0.4375 7:0.8125 8:0.6875 9:0.8125 10:0.5625 11:0.625 12:0.625 13:0.4375 14:0.6875 15:0.5 16:0.5 17:0.5 18:0.25 19:0.75 20:0.0 21:0.375 
0.183932189121073 1:0.0 2:0.4375 3:0.1875 4:0.5 5:0.1875 6:0.125 7:0.625 8:0.6875 9:0.9375 10:0.6875 11:0.8125 12:0.6875 13:0.6875 14:0.75 15:0.625 16:0.625 17:0.5625 18:1.0 19:0.5 20:0.25 21:0.5 
0.007113608096006108 1:0.25 2:0.625 3:0.75 4:0.3125 5:0.375 6:0.125 7:0.5625 8:0.875 9:0.5 10:0.625 11:0.625 12:0.5625 13:0.25 14:0.0625 15:0.375 16:0.125 17:0.0625 18:0.125 19:0.6875 20:0.6875 21:0.9375 
0.5879017875377205 1:1.0 2:0.625 3:0.625 4:0.125 5:0.9375 6:0.5625 7:0.4375 8:0.3125 9:0.25 10:0.75 11:0.5 12:0.625 13:0.3125 14:0.6875 15:0.75 16:0.0 17:0.75 18:0.8125 19:0.75 20:0.75 21:0.5 
-0.7477797788243373 1:1.0 2:0.4375 3:0.0625 4:0.5 5:0.375 6:0.9375 7:0.0 8:0.25 9:0.1875 10:0.1875 11:0.5 12:0.375 13:0.625 14:0.375 15:0.5 16:0.5625 17:0.4375 18:0.6875 19:0.375 20:0.6875 21:0.9375 
-0.36522480720744194 1:0.625 2:0.5625 3:0.6875 4:0.6875 5:0.875 6:0.625 7:0.5 8:0.6875 9:0.625 10:0.6875 11:0.5 12:0.6875 13:0.75 14:0.75 15:0.5625 16:0.5 17:0.4375 18:0.5 19:0.875 20:0.8125 21:0.625 
0.016779051454917582 1:0.5 2:0.5 3:0.5 4:0.375 5:0.0625 6:0.5 7:0.5625 8:0.0625 9:0.25 10:0.4375 11:0.4375 12:0.3125 13:0.1875 14:0.1875 15:0.5 16:0.3125 17:0.5 18:0.6875 19:0.5 20:0.5625 21:0.5 
-0.041584266048013095 1:0.3125 2:0.5 3:0.5 4:0.875 5:0.5 6:0.1875 7:0.75 8:0.5 9:0.75 10:0.9375 11:0.375 12:0.375 13:0.75 14:0.625 15:0.1875 16:0.6875 17:0.8125 18:0.1875 19:0.6875 20:0.0625 21:0.125 
-0.005543087944672909 1:0.25 2:0.25 3:0.25 4:0.375 5:0.125 6:0.5 7:0.6875 8:0.75 9:0.75 10:0.875 11:0.6875 12:0.8125 13:0.375 14:0.5625 15:1.0 16:0.5 17:0.625 18:0.6875 19:0.625 20:0.9375 21:0.625 
0.18879703196314185 1:0.8125 2:0.9375 3:1.0 4:0.625 5:0.8125 6:0.8125 7:0.25 8:0.4375 9:0.5 10:0.875 11:0.625 12:0.1875 13:0.5625 14:0.625 15:0.625 16:0.75 17:0.9375 18:0.9375 19:0.6875 20:0.625 21:0.4375 
-0.36986106268961166 1:0.5 2:0.375 3:0.1875 4:0.0625 5:0.375 6:0.1875 7:0.5 8:0.3125 9:0.25 10:0.3125 11:0.125 12:0.25 13:0.25 14:0.5 15:0.125 16:0.25 17:0.5625 18:0.5 19:0.75 20:0.5 21:0.6875 
-0.02986496005783172 1:1.0 2:0.5 3:0.6875 4:0.875 5:0.625 6:0.5 7:0.0 8:0.5 9:0.4375 10:0.0625 11:0.375 12:0.5 13:0.875 14:0.625 15:0.5 16:0.625 17:0.0625 18:0.25 19:0.25 20:0.5 21:0.6875 
-0.1332184526589727 1:0.5625 2:0.1875 3:0.875 4:0.6875 5:0.875 6:0.625 7:0.375 8:0.75 9:0.625 10:0.875 11:0.5 12:0.75 13:0.5625 14:1.0 15:0.625 16:0.0625 17:0.1875 18:0.125 19:0.875 20:0.625 21:0.25 
0.17816630023735433 1:0.0 2:0.25 3:0.1875 4:0.625 5:0.5 6:0.1875 7:1.0 8:0.875 9:0.9375 10:0.875 11:0.5625 12:0.6875 13:0.6875 14:0.5 15:0.5 16:1.0 17:0.6875 18:0.375 19:0.0625 20:0.0 21:0.125 
-0.10841441231715769 1:0.875 2:0.875 3:1.0 4:0.75 5:0.8125 6:0.875 7:0.6875 8:0.5625 9:1.0 10:0.75 11:1.0 12:0.5625 13:0.5625 14:0.4375 15:1.0 16:0.9375 17:0.375 18:1.0 19:0.125 20:0.5 21:0.9375 
