encog,SVM,java,3.2.0,1,1406057667513
[SVM]
[SVM:PARAMS]
[SVM:SVM-PARAM]
inputCount=15
C=1
cacheSize=100
coef0=0
degree=3
eps=0.001
gamma=1
kernelType=2
nrWeight=0
nu=0.5
p=0.1
probability=0
shrinking=1
svmType=3
weight=
weightLabel=
[SVM:SVM-MODEL]
svm_type epsilon_svr
kernel_type rbf
gamma 1.0
nr_class 2
total_sv 323
rho -0.48326010444845613
SV
-0.6589978413548215 1:0.625 2:0.5625 3:0.9375 4:0.875 5:0.75 6:0.25 7:0.875 8:0.375 9:0.5625 10:0.6875 11:0.625 12:0.625 13:0.0 14:0.375 15:0.75 
0.6048344142906952 1:0.5 2:0.3125 3:0.5 4:0.3125 5:0.375 6:0.4375 7:0.1875 8:0.1875 9:0.1875 10:0.3125 11:0.25 12:0.4375 13:0.5 14:0.5 15:0.875 
0.239783103340892 1:0.75 2:1.0 3:0.625 4:0.9375 5:1.0 6:0.5 7:0.1875 8:0.625 9:0.625 10:0.5625 11:0.625 12:0.5625 13:0.9375 14:0.625 15:0.3125 
-0.20002530818397532 1:0.6875 2:0.6875 3:0.8125 4:0.5 5:0.625 6:0.5 7:0.5 8:0.125 9:0.3125 10:0.375 11:0.4375 12:0.5625 13:0.1875 14:0.5625 15:0.5 
0.15999968159253286 1:0.5625 2:0.0 3:0.125 4:0.375 5:0.3125 6:0.125 7:0.125 8:0.1875 9:0.25 10:0.8125 11:0.8125 12:0.9375 13:0.9375 14:0.75 15:0.6875 
0.08577664321061237 1:0.3125 2:0.0625 3:0.0 4:0.5 5:0.0625 6:0.125 7:0.375 8:0.5 9:0.3125 10:0.375 11:0.5 12:0.6875 13:0.8125 14:0.625 15:0.3125 
-0.046290972543809886 1:0.4375 2:0.875 3:0.9375 4:0.5625 5:0.5 6:0.8125 7:1.0 8:1.0 9:0.875 10:0.5625 11:0.5 12:0.5 13:0.3125 14:0.375 15:0.875 
-0.7276146006340602 1:0.75 2:0.75 3:0.6875 4:0.125 5:0.75 6:0.4375 7:0.125 8:0.1875 9:0.5 10:0.1875 11:0.125 12:0.5625 13:0.0 14:0.625 15:0.9375 
0.007913607285167594 1:0.5 2:0.125 3:0.25 4:0.5 5:0.75 6:0.0625 7:0.25 8:0.375 9:0.3125 10:0.5 11:0.8125 12:0.8125 13:0.5625 14:0.625 15:0.875 
0.34874529599575416 1:0.125 2:0.25 3:0.0 4:0.4375 5:0.4375 6:1.0 7:0.4375 8:0.6875 9:0.75 10:0.1875 11:0.875 12:0.5 13:0.6875 14:0.5625 15:0.5 
0.8468125626751287 1:0.875 2:0.625 3:0.625 4:0.4375 5:0.625 6:0.5 7:0.125 8:0.125 9:0.0 10:0.5 11:0.3125 12:0.125 13:0.5 14:0.4375 15:0.1875 
-0.033049647555616395 1:0.1875 2:0.0625 3:0.375 4:0.6875 5:0.125 6:0.375 7:0.875 8:0.9375 9:0.4375 10:1.0 11:0.75 12:0.5 13:0.8125 14:0.125 15:0.125 
-0.8501856428028308 1:0.75 2:0.625 3:0.625 4:0.6875 5:0.875 6:0.25 7:0.1875 8:0.5625 9:0.1875 10:0.5 11:0.6875 12:0.3125 13:0.625 14:0.25 15:0.375 
0.16001593313257473 1:0.625 2:0.5 3:0.0625 4:0.5625 5:0.6875 6:0.5 7:0.0 8:0.125 9:0.625 10:0.125 11:0.1875 12:0.6875 13:0.5 14:0.75 15:0.5625 
-0.3478000517249496 1:0.375 2:0.625 3:0.25 4:0.875 5:0.6875 6:0.875 7:0.5 8:0.6875 9:0.6875 10:0.25 11:0.5625 12:0.9375 13:0.6875 14:0.6875 15:0.75 
0.7494136561244334 1:0.875 2:0.4375 3:0.6875 4:0.6875 5:0.5625 6:0.4375 7:0.125 8:0.6875 9:0.3125 10:0.5 11:0.75 12:0.75 13:0.9375 14:0.625 15:0.1875 
0.4971917719227092 1:0.75 2:1.0 3:0.5625 4:0.5 5:0.75 6:0.5 7:0.375 8:0.125 9:0.5625 10:0.1875 11:0.375 12:0.4375 13:0.8125 14:0.75 15:0.8125 
-0.0492323020896282 1:0.5625 2:0.3125 3:0.625 4:0.8125 5:0.5625 6:0.5 7:0.5 8:0.6875 9:0.8125 10:0.5 11:0.625 12:0.75 13:0.5 14:0.625 15:0.75 
-0.46724554969175364 1:0.4375 2:0.5 3:0.5 4:0.5 5:0.5 6:0.875 7:0.75 8:0.75 9:0.6875 10:0.5625 11:0.4375 12:0.4375 13:0.25 14:0.3125 15:0.1875 
1.0 1:0.5 2:0.25 3:0.4375 4:0.625 5:0.4375 6:0.3125 7:0.5 8:0.5 9:0.3125 10:0.875 11:0.75 12:0.625 13:0.25 14:0.4375 15:0.0625 
-0.06444012742788677 1:0.875 2:0.9375 3:0.4375 4:0.9375 5:0.875 6:0.4375 7:0.1875 8:0.6875 9:0.0 10:0.4375 11:1.0 12:0.5 13:0.875 14:0.5625 15:0.25 
0.8967651783471833 1:0.125 2:0.6875 3:0.1875 4:0.4375 5:0.75 6:0.75 7:0.8125 8:0.875 9:0.8125 10:0.25 11:0.3125 12:0.5 13:0.375 14:0.9375 15:0.6875 
-0.7407706625577735 1:0.125 2:0.5 3:0.5 4:0.125 5:0.0625 6:0.875 7:0.8125 8:0.5 9:0.3125 10:0.0 11:0.25 12:0.125 13:0.4375 14:0.4375 15:0.1875 
0.1728123278905221 1:0.125 2:0.0625 3:0.0 4:0.25 5:0.4375 6:0.4375 7:0.5 8:0.9375 9:0.5625 10:0.625 11:0.875 12:0.6875 13:0.5 14:0.3125 15:0.25 
-0.5649107090183297 1:0.5 2:0.5625 3:0.75 4:0.6875 5:0.375 6:0.4375 7:0.5 8:0.75 9:0.5 10:0.6875 11:0.5625 12:0.375 13:0.3125 14:0.3125 15:0.5 
-0.6653367321285658 1:0.4375 2:0.5625 3:0.5625 4:1.0 5:0.6875 6:0.625 7:0.8125 8:0.6875 9:0.875 10:0.5 11:0.6875 12:0.875 13:0.5 14:0.6875 15:0.25 
-0.40239510639867243 1:0.625 2:0.6875 3:0.5625 4:1.0 5:0.5625 6:0.5 7:0.1875 8:1.0 9:0.1875 10:0.0625 11:0.6875 12:0.375 13:0.75 14:0.9375 15:0.25 
-0.02202409447215007 1:0.1875 2:0.25 3:0.1875 4:0.1875 5:0.25 6:0.5 7:0.25 8:0.6875 9:0.375 10:0.5 11:0.5625 12:0.4375 13:0.9375 14:0.625 15:0.1875 
0.0954389695333122 1:0.4375 2:0.4375 3:0.4375 4:0.1875 5:0.375 6:0.5 7:0.625 8:0.4375 9:0.1875 10:0.5 11:0.5 12:0.25 13:0.5 14:0.375 15:0.5 
0.5609335865245194 1:0.3125 2:0.4375 3:0.375 4:0.25 5:0.0 6:0.8125 7:0.5625 8:0.8125 9:0.625 10:0.5 11:0.5 12:0.5625 13:0.375 14:0.375 15:0.625 
-0.39327753419465744 1:1.0 2:0.75 3:0.625 4:0.6875 5:0.625 6:0.5625 7:0.5625 8:0.75 9:0.4375 10:0.3125 11:0.625 12:0.0625 13:0.875 14:0.1875 15:0.375 
0.3330782492146914 1:0.375 2:0.1875 3:0.375 4:0.0625 5:0.3125 6:0.25 7:0.375 8:0.0 9:0.625 10:0.8125 11:0.375 12:0.6875 13:0.4375 14:0.5 15:0.9375 
0.1633581164208665 1:0.875 2:0.8125 3:0.3125 4:0.9375 5:0.8125 6:0.8125 7:0.3125 8:0.625 9:0.5 10:0.125 11:0.3125 12:0.0 13:0.75 14:0.625 15:0.5625 
0.7330973441005646 1:0.6875 2:0.625 3:0.875 4:0.5 5:0.5 6:0.0625 7:0.25 8:0.375 9:0.4375 10:0.5625 11:0.5 12:0.375 13:0.125 14:0.5 15:0.6875 
0.10930575561753754 1:0.375 2:1.0 3:0.75 4:0.1875 5:0.5 6:0.8125 7:0.875 8:0.25 9:0.75 10:0.5 11:0.1875 12:0.125 13:0.0 14:0.5 15:0.9375 
-1.0 1:0.1875 2:0.3125 3:0.25 4:0.4375 5:0.0625 6:0.4375 7:0.375 8:0.25 9:0.5 10:0.625 11:0.5625 12:0.4375 13:0.375 14:0.5 15:0.5 
-0.31052041262835706 1:0.625 2:0.125 3:1.0 4:0.75 5:0.5 6:0.1875 7:0.9375 8:0.5625 9:0.0625 10:0.9375 11:0.625 12:0.375 13:0.3125 14:0.125 15:0.25 
-0.6835745597319047 1:0.5625 2:0.4375 3:0.4375 4:0.6875 5:0.625 6:0.25 7:0.0 8:0.5 9:0.125 10:0.1875 11:0.6875 12:0.3125 13:0.9375 14:1.0 15:0.1875 
0.173436174652919 1:0.6875 2:0.3125 3:0.75 4:0.5 5:0.25 6:0.1875 7:0.5 8:0.8125 9:0.4375 10:0.625 11:0.8125 12:0.5625 13:0.625 14:0.25 15:0.0625 
0.43601737250080114 1:0.75 2:0.75 3:0.875 4:0.75 5:0.8125 6:0.5 7:0.375 8:0.5 9:0.25 10:0.125 11:0.3125 12:0.1875 13:0.5 14:0.1875 15:0.0 
0.30950695778090975 1:0.8125 2:0.625 3:0.875 4:0.4375 5:0.625 6:0.625 7:0.625 8:0.3125 9:0.8125 10:0.5 11:0.3125 12:0.9375 13:0.125 14:0.5625 15:0.625 
0.002820102476685552 1:0.1875 2:0.25 3:0.4375 4:0.0625 5:0.4375 6:0.3125 7:1.0 8:0.125 9:0.5625 10:0.8125 11:0.375 12:1.0 13:0.125 14:0.0625 15:1.0 
-0.09520198042953186 1:0.5 2:0.75 3:0.625 4:0.875 5:0.125 6:1.0 7:0.625 8:0.6875 9:0.0625 10:0.375 11:0.5625 12:0.0 13:0.4375 14:0.0 15:0.1875 
0.1601148872028555 1:0.125 2:0.5 3:0.375 4:0.3125 5:0.5 6:0.8125 7:1.0 8:0.6875 9:0.9375 10:0.5 11:0.4375 12:0.0 13:0.25 14:0.125 15:0.5 
-0.10977518672103014 1:0.8125 2:0.875 3:0.9375 4:1.0 5:0.875 6:0.25 7:0.1875 8:0.5625 9:0.5 10:0.75 11:0.875 12:0.6875 13:0.875 14:0.5625 15:0.25 
-0.0017490615896317329 1:0.75 2:0.75 3:0.875 4:0.5625 5:0.9375 6:0.4375 7:0.125 8:0.3125 9:0.75 10:0.3125 11:0.4375 12:0.75 13:0.8125 14:0.75 15:0.625 
-0.8853021552203141 1:0.4375 2:0.875 3:0.6875 4:0.75 5:0.5 6:0.5625 7:0.875 8:1.0 9:0.9375 10:0.75 11:0.6875 12:0.75 13:0.5 14:0.4375 15:0.5 
0.4642385314107811 1:0.3125 2:0.6875 3:0.4375 4:0.75 5:0.375 6:0.75 7:0.3125 8:0.9375 9:0.1875 10:0.0625 11:0.5625 12:0.1875 13:0.625 14:0.4375 15:0.375 
0.02507573830725301 1:0.25 2:0.125 3:0.25 4:0.0 5:0.0 6:0.0625 7:0.5625 8:0.375 9:0.5 10:0.875 11:0.5 12:0.875 13:0.5625 14:0.6875 15:0.625 
-0.10549124966241732 1:0.5625 2:0.5625 3:0.875 4:0.8125 5:0.5 6:0.75 7:0.8125 8:0.9375 9:0.8125 10:0.6875 11:0.8125 12:0.5 13:0.75 14:0.5625 15:0.0 
-0.18715333014478294 1:0.0625 2:0.5 3:0.625 4:0.9375 5:0.375 6:0.8125 7:0.8125 8:0.875 9:0.25 10:0.75 11:0.9375 12:0.375 13:0.625 14:0.125 15:0.0625 
0.025970321634869075 1:0.1875 2:0.25 3:0.3125 4:0.6875 5:0.5625 6:0.5 7:0.5625 8:1.0 9:0.625 10:0.75 11:1.0 12:0.9375 13:0.5 14:0.5 15:0.0 
-0.23138745080043355 1:0.625 2:1.0 3:0.8125 4:0.8125 5:0.5 6:0.5 7:0.4375 8:0.75 9:0.125 10:0.0625 11:0.4375 12:0.125 13:1.0 14:0.5 15:0.0 
-0.5543176675855935 1:0.5625 2:1.0 3:0.625 4:0.6875 5:0.75 6:0.875 7:0.625 8:0.6875 9:0.9375 10:0.0625 11:0.0625 12:0.375 13:0.0625 14:0.875 15:0.8125 
0.5381286740684925 1:1.0 2:0.4375 3:0.875 4:0.5 5:0.5 6:0.125 7:0.4375 8:0.375 9:0.0625 10:0.625 11:0.875 12:0.6875 13:0.1875 14:0.1875 15:0.125 
-0.05911334657569857 1:0.625 2:0.4375 3:0.5625 4:1.0 5:0.6875 6:0.0625 7:0.4375 8:0.9375 9:0.5625 10:0.5 11:0.75 12:0.5 13:0.8125 14:0.5 15:0.0 
0.4920350300953675 1:0.5 2:0.125 3:0.0 4:0.375 5:0.625 6:0.0 7:0.125 8:0.375 9:0.875 10:0.625 11:0.9375 12:1.0 13:0.5 14:0.9375 15:1.0 
0.16197440874821037 1:0.9375 2:0.5 3:0.875 4:0.8125 5:0.9375 6:0.375 7:0.625 8:0.5 9:0.9375 10:0.625 11:0.5 12:0.9375 13:0.0 14:0.5 15:0.875 
0.06773879533659984 1:0.8125 2:0.5 3:0.5 4:0.375 5:0.0625 6:0.25 7:0.0 8:0.0625 9:0.125 10:0.75 11:0.625 12:0.5 13:0.125 14:0.0 15:0.5 
-0.27603657123394065 1:0.3125 2:0.75 3:0.875 4:0.875 5:0.5 6:0.625 7:1.0 8:0.8125 9:0.5 10:0.8125 11:0.8125 12:0.5 13:0.875 14:0.3125 15:0.25 
0.05717607500550189 1:0.1875 2:0.5 3:0.0625 4:0.4375 5:0.4375 6:0.5 7:0.3125 8:0.375 9:0.5 10:0.0625 11:0.1875 12:0.125 13:0.5 14:0.5 15:0.6875 
0.15922683411111435 1:0.3125 2:0.0 3:0.0625 4:0.125 5:0.25 6:0.5 7:0.5 8:0.0625 9:0.125 10:0.75 11:0.0625 12:0.4375 13:0.0 14:0.5 15:0.625 
0.09242520278288685 1:0.0 2:0.4375 3:0.25 4:0.3125 5:0.5 6:0.5625 7:0.625 8:1.0 9:0.875 10:0.5625 11:0.6875 12:0.625 13:0.4375 14:0.5 15:0.5625 
0.13614299103098698 1:0.0625 2:0.4375 3:0.125 4:0.125 5:0.375 6:0.8125 7:0.375 8:0.125 9:0.75 10:0.4375 11:0.3125 12:0.3125 13:0.4375 14:1.0 15:0.75 
0.12396527239952503 1:0.5 2:0.6875 3:0.8125 4:0.4375 5:0.875 6:0.5 7:0.875 8:0.0625 9:0.8125 10:0.6875 11:0.3125 12:0.625 13:0.3125 14:0.3125 15:0.9375 
-0.2166541916223282 1:0.5 2:0.9375 3:0.8125 4:0.75 5:0.8125 6:0.9375 7:0.625 8:0.625 9:0.6875 10:0.5 11:0.6875 12:0.375 13:0.6875 14:0.0625 15:0.375 
-0.6889549838536355 1:0.4375 2:0.125 3:0.5 4:0.3125 5:0.5625 6:0.5 7:0.75 8:0.0 9:0.6875 10:0.625 11:0.4375 12:0.6875 13:0.3125 14:0.1875 15:1.0 
0.2726744555132344 1:0.75 2:0.5625 3:0.5 4:0.75 5:0.4375 6:0.0625 7:0.0 8:0.5 9:0.0 10:0.6875 11:0.6875 12:0.875 13:0.625 14:0.5 15:0.375 
0.15716304010107227 1:0.5 2:0.375 3:0.875 4:0.375 5:0.3125 6:0.0 7:0.75 8:0.1875 9:0.4375 10:1.0 11:0.25 12:0.5 13:0.0625 14:0.125 15:0.8125 
0.3228121651313491 1:0.4375 2:0.1875 3:0.3125 4:0.4375 5:0.5625 6:0.5625 7:0.4375 8:0.75 9:0.8125 10:0.625 11:0.5625 12:0.5625 13:0.625 14:0.625 15:0.5625 
0.04823428545212683 1:0.75 2:0.9375 3:0.875 4:0.5 5:1.0 6:0.375 7:0.625 8:0.5625 9:0.5625 10:0.625 11:0.625 12:0.625 13:0.0 14:0.5 15:0.625 
-0.4797045041257195 1:0.0625 2:0.5 3:0.125 4:0.5625 5:0.5625 6:0.375 7:0.375 8:0.5625 9:0.625 10:0.4375 11:1.0 12:0.875 13:0.9375 14:0.9375 15:0.25 
-0.2522607422012998 1:0.75 2:0.6875 3:0.6875 4:0.6875 5:0.1875 6:0.25 7:0.5 8:0.5625 9:0.0 10:0.6875 11:0.625 12:0.1875 13:0.25 14:0.125 15:0.0 
-0.49259072664013426 1:0.6875 2:0.9375 3:0.75 4:1.0 5:0.5625 6:0.9375 7:0.5 8:0.75 9:0.875 10:0.1875 11:0.8125 12:0.5 13:0.9375 14:0.5 15:0.25 
-0.5872051241499343 1:0.625 2:0.6875 3:0.625 4:0.75 5:0.375 6:0.5625 7:0.75 8:0.5625 9:0.375 10:1.0 11:0.75 12:0.0625 13:0.25 14:0.1875 15:0.1875 
-0.5925487722316861 1:0.5 2:0.375 3:0.5 4:0.625 5:1.0 6:0.5 7:0.5 8:0.5625 9:0.6875 10:0.75 11:0.625 12:0.625 13:0.4375 14:0.5 15:0.9375 
0.26071464534750455 1:0.375 2:0.25 3:0.375 4:0.0 5:0.375 6:0.875 7:0.6875 8:0.5 9:0.875 10:0.8125 11:0.4375 12:0.6875 13:0.1875 14:0.5625 15:0.875 
1.0 1:0.5 2:0.5 3:0.9375 4:0.8125 5:0.375 6:0.4375 7:0.9375 8:0.6875 9:0.75 10:0.875 11:0.875 12:0.4375 13:0.5 14:0.4375 15:0.0625 
0.14300073309319042 1:0.4375 2:0.375 3:0.1875 4:0.9375 5:0.75 6:0.75 7:0.4375 8:0.8125 9:0.8125 10:0.5 11:0.8125 12:0.6875 13:0.6875 14:0.8125 15:0.6875 
-0.08101489645661196 1:0.8125 2:0.5 3:0.4375 4:0.625 5:0.5 6:0.3125 7:0.25 8:0.1875 9:0.3125 10:0.1875 11:0.375 12:0.0625 13:0.875 14:0.6875 15:0.25 
-0.2033522998109648 1:0.125 2:0.0625 3:0.5 4:0.1875 5:0.3125 6:0.375 7:0.625 8:0.4375 9:0.0 10:0.75 11:0.5 12:0.125 13:0.25 14:0.25 15:0.0 
-0.06030086881810595 1:0.25 2:0.375 3:0.5 4:0.4375 5:0.375 6:0.4375 7:0.8125 8:0.9375 9:0.4375 10:0.5 11:0.75 12:0.3125 13:0.8125 14:0.5 15:0.25 
-0.43161513270470303 1:0.8125 2:0.5625 3:0.5 4:0.375 5:0.4375 6:0.375 7:0.375 8:0.0 9:0.25 10:0.75 11:0.4375 12:0.25 13:0.1875 14:0.25 15:0.1875 
-0.69310377181535 1:0.4375 2:0.4375 3:0.3125 4:0.25 5:0.0 6:0.625 7:0.5625 8:0.5625 9:0.3125 10:0.4375 11:0.375 12:0.5 13:0.4375 14:0.25 15:0.0 
-0.2427353384954635 1:0.75 2:0.875 3:0.875 4:0.875 5:0.9375 6:0.5625 7:0.5625 8:0.5625 9:0.5 10:0.5 11:0.375 12:0.375 13:0.625 14:0.5 15:0.875 
0.03066062122471513 1:0.5625 2:0.75 3:0.625 4:0.625 5:0.5 6:0.4375 7:0.6875 8:0.6875 9:0.4375 10:0.5625 11:0.6875 12:0.3125 13:0.9375 14:0.125 15:0.1875 
0.23593954832441008 1:0.4375 2:0.375 3:0.25 4:0.125 5:0.5 6:0.125 7:0.8125 8:0.0625 9:0.875 10:0.8125 11:0.4375 12:0.875 13:0.1875 14:0.5 15:1.0 
-0.0328504043428734 1:0.9375 2:0.5 3:0.1875 4:0.6875 5:0.5625 6:0.125 7:0.0625 8:0.375 9:0.0625 10:0.125 11:0.3125 12:0.375 13:0.625 14:0.6875 15:0.3125 
-0.5119454608650219 1:0.25 2:0.5 3:0.125 4:0.5 5:0.5 6:0.875 7:0.75 8:0.625 9:0.875 10:0.25 11:0.0625 12:0.3125 13:0.4375 14:0.5625 15:0.5 
-0.9659896737060316 1:0.6875 2:0.3125 3:0.625 4:0.625 5:0.5625 6:0.0625 7:0.3125 8:0.5 9:0.25 10:0.9375 11:0.75 12:0.8125 13:0.5 14:0.5 15:0.0 
0.015893015587869697 1:1.0 2:0.25 3:1.0 4:0.5625 5:0.9375 6:0.0625 7:0.75 8:0.5 9:1.0 10:0.9375 11:0.5 12:1.0 13:0.0 14:0.4375 15:0.8125 
0.37400312403291747 1:0.5625 2:0.8125 3:0.5625 4:0.625 5:0.5625 6:0.5625 7:0.625 8:0.9375 9:0.3125 10:0.4375 11:0.5 12:0.4375 13:0.5 14:0.5 15:0.25 
1.0 1:0.25 2:0.1875 3:0.1875 4:0.125 5:0.0 6:0.1875 7:0.6875 8:0.25 9:0.625 10:0.875 11:0.4375 12:0.5625 13:0.375 14:0.1875 15:0.625 
-0.24135308228508537 1:0.75 2:0.5 3:0.9375 4:0.5625 5:0.1875 6:0.125 7:0.5 8:0.375 9:0.25 10:0.8125 11:0.9375 12:0.375 13:0.5 14:0.3125 15:0.0 
0.1712827258234056 1:0.0 2:0.375 3:0.0625 4:0.4375 5:0.5 6:1.0 7:0.75 8:0.75 9:0.8125 10:0.4375 11:0.5 12:0.0 13:0.75 14:0.625 15:0.3125 
-0.16731419163562233 1:0.125 2:0.3125 3:0.5 4:0.5 5:0.5 6:0.5 7:0.5625 8:0.5625 9:0.4375 10:0.5 11:0.875 12:0.5 13:0.375 14:0.5 15:0.4375 
1.0 1:0.4375 2:0.75 3:1.0 4:0.5 5:0.6875 6:0.8125 7:0.625 8:0.5625 9:0.5 10:0.4375 11:0.5 12:0.1875 13:0.3125 14:0.125 15:0.1875 
-1.0 1:0.625 2:0.3125 3:0.25 4:0.1875 5:0.4375 6:0.3125 7:0.25 8:0.25 9:0.4375 10:0.4375 11:0.1875 12:0.75 13:0.75 14:0.8125 15:0.9375 
0.20066437925571376 1:1.0 2:0.625 3:0.75 4:0.6875 5:0.8125 6:0.5 7:0.5625 8:0.5 9:0.5625 10:0.0625 11:0.4375 12:0.5 13:0.4375 14:0.6875 15:0.8125 
-0.21292018094333973 1:0.0 2:0.5 3:0.4375 4:0.25 5:0.0 6:0.625 7:0.875 8:0.1875 9:0.3125 10:0.3125 11:0.375 12:0.25 13:0.3125 14:0.1875 15:0.3125 
-1.0 1:0.9375 2:0.8125 3:0.5 4:0.5625 5:0.5 6:0.5 7:0.125 8:0.0625 9:0.4375 10:0.5 11:0.1875 12:0.3125 13:0.5 14:0.25 15:0.6875 
-0.2524664505856378 1:0.125 2:0.4375 3:0.375 4:0.125 5:0.0 6:0.5 7:0.5625 8:0.5 9:0.4375 10:0.9375 11:0.625 12:0.125 13:0.4375 14:0.0 15:0.0 
1.0 1:0.4375 2:0.3125 3:0.625 4:0.4375 5:0.375 6:0.625 7:0.8125 8:0.5 9:0.5 10:0.9375 11:0.875 12:0.3125 13:0.3125 14:0.0 15:0.0 
0.8652801497785332 1:0.625 2:0.6875 3:0.5 4:0.3125 5:0.3125 6:0.5 7:0.1875 8:0.25 9:0.0 10:0.375 11:0.0625 12:0.1875 13:0.25 14:0.3125 15:0.8125 
-0.5433894634114957 1:0.3125 2:0.8125 3:0.9375 4:0.5 5:0.4375 6:1.0 7:0.625 8:0.75 9:0.5625 10:0.8125 11:0.4375 12:0.125 13:0.25 14:0.0625 15:0.375 
0.6317925703896224 1:0.0 2:0.375 3:0.5 4:0.0625 5:0.0625 6:0.6875 7:0.6875 8:0.375 9:0.0625 10:0.5625 11:0.5625 12:0.1875 13:0.1875 14:0.0625 15:0.125 
0.6368760474683808 1:0.5 2:0.0625 3:0.1875 4:0.5 5:0.5 6:0.3125 7:0.1875 8:0.625 9:0.0625 10:0.25 11:0.875 12:0.4375 13:0.9375 14:1.0 15:0.0625 
0.918061862903665 1:0.4375 2:0.125 3:0.25 4:0.9375 5:0.625 6:0.4375 7:0.5 8:0.6875 9:0.6875 10:0.3125 11:0.8125 12:0.75 13:0.9375 14:1.0 15:0.6875 
0.5269987802718464 1:0.25 2:0.4375 3:0.75 4:0.5625 5:0.375 6:0.8125 7:0.625 8:0.875 9:1.0 10:0.5 11:0.5 12:0.25 13:0.5 14:0.1875 15:0.1875 
0.3743671507958015 1:0.25 2:0.3125 3:0.0625 4:0.4375 5:0.125 6:0.1875 7:0.5 8:0.4375 9:0.5 10:0.75 11:0.875 12:0.4375 13:0.5 14:0.4375 15:0.5 
-0.16580523442617254 1:0.1875 2:0.4375 3:0.125 4:0.75 5:0.4375 6:0.625 7:0.375 8:0.9375 9:1.0 10:0.1875 11:1.0 12:0.1875 13:1.0 14:0.625 15:0.25 
-0.06519258445504354 1:0.5 2:1.0 3:0.3125 4:0.4375 5:0.5 6:0.5 7:0.375 8:0.0625 9:0.125 10:0.25 11:0.3125 12:0.4375 13:0.6875 14:0.5625 15:0.75 
-0.09927861244936702 1:0.0625 2:0.1875 3:0.25 4:0.125 5:0.0 6:0.125 7:0.375 8:0.375 9:0.25 10:0.625 11:0.5 12:0.125 13:0.5 14:0.125 15:0.375 
-0.29952310063045373 1:0.5 2:0.5 3:0.5 4:0.1875 5:0.375 6:0.625 7:0.5625 8:0.125 9:0.3125 10:0.625 11:0.375 12:0.1875 13:0.0 14:0.4375 15:0.3125 
-0.31742335280095746 1:0.9375 2:0.0 3:0.0625 4:0.625 5:0.5625 6:0.125 7:0.0 8:0.25 9:0.125 10:0.25 11:0.8125 12:0.5 13:0.8125 14:0.75 15:0.3125 
0.5260686942099311 1:0.5 2:0.75 3:0.6875 4:1.0 5:0.75 6:0.3125 7:1.0 8:0.75 9:1.0 10:0.6875 11:0.8125 12:0.8125 13:0.4375 14:0.5 15:0.6875 
0.24436785238678596 1:0.75 2:0.6875 3:0.5 4:0.4375 5:1.0 6:0.1875 7:0.3125 8:0.0 9:0.5625 10:0.5 11:0.5 12:0.5625 13:0.125 14:0.5625 15:0.8125 
-0.07872354207882601 1:0.0625 2:0.375 3:0.375 4:0.1875 5:0.0 6:0.5 7:0.9375 8:0.8125 9:0.5 10:0.5625 11:0.9375 12:0.375 13:0.625 14:0.125 15:0.0625 
-0.32686706432590135 1:0.8125 2:0.4375 3:0.5 4:0.6875 5:0.8125 6:0.125 7:0.3125 8:0.6875 9:0.5625 10:0.6875 11:0.9375 12:0.9375 13:0.5 14:0.6875 15:0.875 
-0.08698519833259502 1:0.625 2:1.0 3:0.8125 4:1.0 5:0.9375 6:0.625 7:0.9375 8:0.75 9:0.875 10:0.75 11:0.625 12:0.75 13:0.75 14:0.4375 15:0.125 
0.1778009110164178 1:0.6875 2:0.625 3:0.4375 4:0.8125 5:0.5 6:0.0625 7:0.1875 8:0.75 9:0.25 10:0.125 11:0.6875 12:0.3125 13:0.8125 14:0.625 15:0.3125 
0.1100185779944648 1:0.5 2:0.125 3:0.5625 4:0.3125 5:0.375 6:0.1875 7:0.5 8:0.25 9:0.75 10:0.5625 11:0.5 12:0.5625 13:0.0625 14:0.375 15:0.875 
-0.001503517718415131 1:0.25 2:0.5625 3:0.375 4:0.1875 5:0.0625 6:0.875 7:1.0 8:0.4375 9:0.875 10:0.0625 11:0.0625 12:0.125 13:0.1875 14:0.375 15:0.5 
0.5450705160072112 1:0.875 2:0.125 3:0.625 4:0.625 5:0.75 6:0.0625 7:0.125 8:0.1875 9:0.1875 10:0.625 11:1.0 12:0.8125 13:0.5 14:0.6875 15:0.875 
0.0032125631427795025 1:0.375 2:0.0625 3:0.5625 4:0.1875 5:0.0625 6:0.3125 7:0.5 8:0.0625 9:0.0625 10:0.75 11:0.8125 12:0.5625 13:0.1875 14:0.0 15:0.625 
-0.41359117732821926 1:0.6875 2:0.1875 3:0.0625 4:0.0625 5:0.5 6:0.0625 7:0.25 8:0.0625 9:0.125 10:0.6875 11:0.625 12:0.9375 13:0.6875 14:0.875 15:0.8125 
-0.6791697444685508 1:0.5 2:0.1875 3:0.25 4:0.5625 5:0.0625 6:0.25 7:0.25 8:0.8125 9:0.1875 10:0.3125 11:0.75 12:0.5 13:0.6875 14:0.375 15:0.0625 
-0.16623182927583138 1:0.375 2:0.5625 3:0.9375 4:0.75 5:0.6875 6:0.4375 7:0.9375 8:0.8125 9:0.9375 10:0.875 11:0.75 12:0.4375 13:0.3125 14:0.25 15:0.3125 
-0.13624624446961592 1:0.4375 2:0.5 3:0.6875 4:0.4375 5:0.3125 6:0.5 7:1.0 8:0.5 9:0.5 10:1.0 11:0.8125 12:0.0 13:0.375 14:0.125 15:0.125 
0.031662361301951866 1:1.0 2:0.5 3:0.625 4:0.5 5:0.8125 6:0.25 7:0.1875 8:0.375 9:0.25 10:0.5625 11:0.5 12:0.625 13:0.0 14:0.5625 15:0.9375 
0.7068478113731976 1:0.625 2:0.5625 3:0.625 4:0.5 5:0.6875 6:0.9375 7:0.5625 8:0.125 9:0.8125 10:0.3125 11:0.125 12:0.5625 13:0.1875 14:0.625 15:0.625 
0.3806053948589438 1:1.0 2:0.875 3:0.4375 4:0.5625 5:0.5 6:0.6875 7:0.1875 8:0.4375 9:0.375 10:0.0 11:0.25 12:0.25 13:0.4375 14:0.5625 15:0.125 
-0.2528678615017166 1:0.9375 2:0.375 3:0.5625 4:0.25 5:0.4375 6:0.0 7:0.125 8:0.0 9:0.125 10:0.5625 11:0.375 12:0.25 13:0.0 14:0.5 15:0.8125 
0.7838180363875368 1:0.125 2:0.5 3:0.125 4:0.25 5:0.5 6:0.9375 7:0.1875 8:0.25 9:0.6875 10:0.1875 11:0.25 12:0.4375 13:0.8125 14:0.75 15:1.0 
-0.3802628605619721 1:0.4375 2:0.4375 3:0.5 4:0.0 5:0.375 6:0.625 7:0.6875 8:0.5625 9:1.0 10:0.625 11:0.0 12:0.4375 13:0.4375 14:0.4375 15:0.625 
-0.1182371381933735 1:0.4375 2:0.5 3:0.5 4:0.5 5:0.5 6:0.875 7:0.9375 8:0.6875 9:0.875 10:0.4375 11:0.4375 12:0.25 13:0.125 14:0.4375 15:0.3125 
1.0 1:0.1875 2:0.4375 3:0.25 4:0.4375 5:0.125 6:0.8125 7:0.8125 8:0.625 9:0.625 10:0.5625 11:0.1875 12:0.25 13:0.375 14:0.4375 15:0.125 
0.3357948217979171 1:0.4375 2:0.75 3:0.6875 4:0.4375 5:0.6875 6:0.6875 7:0.9375 8:0.875 9:0.875 10:0.4375 11:0.5 12:0.4375 13:0.125 14:0.375 15:0.875 
-0.01519728747748127 1:0.4375 2:0.9375 3:0.5 4:0.5 5:0.875 6:1.0 7:0.8125 8:0.4375 9:1.0 10:0.3125 11:0.4375 12:0.625 13:0.1875 14:0.875 15:0.6875 
-0.14277400712147686 1:0.125 2:0.5625 3:0.4375 4:0.4375 5:0.6875 6:0.75 7:0.75 8:0.625 9:0.8125 10:0.5625 11:0.1875 12:0.5 13:0.25 14:0.8125 15:0.6875 
0.4464704867111218 1:0.875 2:0.75 3:0.3125 4:0.625 5:0.0625 6:0.8125 7:0.4375 8:0.5 9:0.25 10:0.125 11:0.0625 12:0.125 13:0.5625 14:0.375 15:0.0625 
0.302141295145716 1:0.4375 2:0.6875 3:0.625 4:0.375 5:0.4375 6:0.5 7:0.625 8:0.375 9:0.4375 10:0.625 11:0.3125 12:0.1875 13:0.125 14:0.375 15:0.875 
0.1164842617576418 1:0.875 2:0.5625 3:0.9375 4:0.8125 5:0.4375 6:0.5625 7:0.5 8:0.5 9:0.125 10:0.9375 11:0.5 12:0.0625 13:0.375 14:0.1875 15:0.4375 
0.7771979061882862 1:0.6875 2:0.25 3:0.25 4:0.0625 5:0.6875 6:0.3125 7:0.1875 8:0.125 9:0.3125 10:0.4375 11:0.25 12:0.5625 13:0.1875 14:0.9375 15:0.6875 
0.649535771082829 1:0.3125 2:0.3125 3:0.125 4:0.4375 5:0.125 6:0.125 7:0.125 8:0.4375 9:0.3125 10:0.0 11:0.5 12:0.375 13:0.875 14:0.5 15:0.0 
-0.625214139448534 1:0.4375 2:0.5 3:0.125 4:0.6875 5:0.375 6:0.5 7:0.125 8:0.375 9:0.4375 10:0.3125 11:0.4375 12:0.4375 13:1.0 14:0.5 15:0.3125 
-0.9119510046237009 1:0.1875 2:0.375 3:0.5 4:0.1875 5:0.625 6:1.0 7:0.6875 8:0.9375 9:0.875 10:0.375 11:0.5 12:0.875 13:0.3125 14:0.875 15:0.9375 
0.8287952496180948 1:0.3125 2:0.375 3:0.3125 4:0.75 5:0.25 6:0.5 7:0.5 8:0.5 9:0.3125 10:0.5625 11:0.75 12:0.5625 13:0.5625 14:0.5625 15:0.125 
-0.7065305928139604 1:0.75 2:0.5 3:0.5625 4:0.5 5:0.375 6:0.0 7:0.375 8:0.0625 9:0.25 10:0.375 11:0.375 12:0.4375 13:0.4375 14:0.25 15:0.8125 
0.5689723051719126 1:0.875 2:0.5625 3:0.875 4:0.875 5:1.0 6:0.4375 7:0.75 8:0.5625 9:0.5 10:0.75 11:0.5 12:0.5625 13:0.25 14:0.375 15:0.25 
-0.6020837189527588 1:0.375 2:0.25 3:0.5 4:0.0 5:0.25 6:0.5 7:0.5 8:0.5 9:0.4375 10:0.8125 11:0.25 12:0.5625 13:0.3125 14:0.5625 15:1.0 
0.5718518477370625 1:0.0 2:0.625 3:0.6875 4:0.5625 5:0.5 6:0.875 7:0.875 8:0.875 9:0.75 10:1.0 11:0.8125 12:0.625 13:0.4375 14:0.0 15:0.25 
0.052287125335428966 1:0.5625 2:0.6875 3:0.8125 4:0.6875 5:0.9375 6:0.75 7:0.5625 8:0.3125 9:0.6875 10:0.9375 11:0.4375 12:1.0 13:0.25 14:0.5 15:0.9375 
0.07782258816249242 1:0.9375 2:1.0 3:0.4375 4:0.625 5:0.8125 6:0.0 7:0.0 8:0.5 9:0.125 10:0.0625 11:0.5 12:0.1875 13:1.0 14:0.5 15:0.25 
-0.7133748002810476 1:0.8125 2:0.75 3:0.9375 4:0.25 5:0.25 6:0.5 7:0.5 8:0.3125 9:0.0625 10:0.625 11:0.4375 12:0.1875 13:0.375 14:0.125 15:0.3125 
-0.18928633908474163 1:0.3125 2:0.25 3:0.0625 4:0.5 5:0.5 6:0.125 7:0.3125 8:0.3125 9:0.8125 10:0.8125 11:0.5625 12:0.8125 13:0.5 14:1.0 15:0.875 
-0.3870341306655416 1:0.0 2:0.4375 3:0.0 4:0.5 5:0.25 6:0.6875 7:1.0 8:0.9375 9:0.375 10:0.5 11:0.5625 12:0.0625 13:0.5625 14:0.125 15:0.4375 
0.34625038372861106 1:0.25 2:0.4375 3:0.25 4:0.5 5:0.0 6:0.5 7:0.5 8:0.5625 9:0.5 10:0.0 11:0.4375 12:0.4375 13:0.6875 14:0.5 15:0.5 
-1.0 1:0.1875 2:0.0625 3:0.25 4:0.1875 5:0.5 6:0.5625 7:0.5 8:0.6875 9:0.5 10:0.5 11:0.4375 12:1.0 13:0.5 14:0.6875 15:0.5 
0.49348975139831786 1:0.1875 2:0.0 3:0.25 4:0.0 5:0.4375 6:0.5 7:0.5625 8:0.75 9:0.625 10:0.6875 11:0.625 12:0.9375 13:0.5625 14:0.625 15:0.875 
0.5724618186239742 1:0.375 2:0.5625 3:0.8125 4:0.5 5:0.8125 6:0.6875 7:0.5 8:0.875 9:0.9375 10:0.5625 11:0.5625 12:0.75 13:0.5 14:0.875 15:0.625 
-0.009147173672729108 1:0.5 2:0.125 3:0.5 4:0.9375 5:0.375 6:0.1875 7:0.1875 8:0.5625 9:0.0 10:0.8125 11:0.9375 12:0.625 13:0.5625 14:0.5625 15:0.1875 
-0.2345818167491159 1:0.5 2:0.9375 3:0.0 4:0.5625 5:0.1875 6:0.75 7:0.5 8:1.0 9:0.5 10:0.25 11:0.4375 12:0.25 13:1.0 14:0.5 15:0.4375 
-1.0 1:0.3125 2:0.3125 3:0.5625 4:0.5 5:0.5 6:0.875 7:0.9375 8:0.5625 9:0.75 10:0.5625 11:0.5625 12:0.25 13:0.5 14:0.25 15:0.375 
-0.21689406011767515 1:0.5 2:0.4375 3:0.4375 4:0.5625 5:0.625 6:0.5 7:0.1875 8:0.5625 9:0.5 10:0.25 11:0.875 12:0.6875 13:1.0 14:0.6875 15:0.8125 
0.24420954503489944 1:0.8125 2:1.0 3:0.5625 4:0.6875 5:0.4375 6:0.5 7:0.1875 8:0.375 9:0.5 10:0.0625 11:0.1875 12:0.25 13:0.625 14:0.5 15:0.5625 
0.270725538090574 1:0.1875 2:0.375 3:0.1875 4:0.0625 5:0.125 6:0.9375 7:0.8125 8:0.3125 9:0.1875 10:0.25 11:0.1875 12:0.0 13:0.125 14:0.0625 15:0.5625 
0.1664948017480103 1:0.25 2:0.6875 3:0.625 4:0.3125 5:0.4375 6:0.625 7:1.0 8:0.5625 9:0.5625 10:0.125 11:0.375 12:0.125 13:0.5 14:0.4375 15:0.5 
1.0 1:0.5625 2:0.6875 3:0.5 4:0.75 5:0.625 6:0.25 7:0.4375 8:0.375 9:0.3125 10:0.5625 11:0.5 12:0.6875 13:0.5 14:0.9375 15:0.5625 
-0.3083094645154476 1:0.8125 2:0.5 3:0.875 4:0.5 5:0.1875 6:0.4375 7:0.125 8:0.4375 9:0.125 10:0.5 11:0.4375 12:0.0625 13:0.5 14:0.125 15:0.0 
0.08218275471522928 1:0.8125 2:0.0 3:0.3125 4:0.3125 5:0.5625 6:0.0 7:0.0625 8:0.375 9:0.3125 10:0.375 11:0.5625 12:0.875 13:0.625 14:0.8125 15:0.625 
0.23130437070312082 1:0.0625 2:0.4375 3:0.3125 4:0.4375 5:0.3125 6:0.4375 7:0.5 8:0.625 9:0.6875 10:0.5 11:0.5 12:0.5625 13:0.625 14:1.0 15:0.75 
0.10810659019187725 1:0.5625 2:0.5625 3:0.3125 4:0.5 5:0.3125 6:0.5625 7:0.625 8:0.5 9:0.375 10:0.4375 11:0.0625 12:0.375 13:0.5 14:0.0 15:0.375 
-0.2507229413162755 1:0.8125 2:0.6875 3:0.625 4:0.4375 5:0.75 6:0.625 7:0.25 8:0.0625 9:0.1875 10:0.0625 11:0.1875 12:0.25 13:0.0 14:0.3125 15:0.6875 
-0.06210950223258173 1:0.9375 2:0.625 3:0.5 4:0.625 5:0.875 6:0.5625 7:0.1875 8:0.75 9:0.8125 10:0.5 11:0.5625 12:1.0 13:0.875 14:1.0 15:0.625 
0.27465452478915153 1:0.3125 2:0.3125 3:0.625 4:0.25 5:0.125 6:0.625 7:1.0 8:0.625 9:0.5625 10:0.8125 11:0.625 12:0.25 13:0.125 14:0.375 15:0.5625 
-1.0 1:0.3125 2:0.5 3:0.1875 4:0.4375 5:0.5 6:0.75 7:0.375 8:0.4375 9:0.625 10:0.5 11:0.5625 12:0.625 13:0.5 14:0.75 15:0.875 
0.7299460523528768 1:0.875 2:0.625 3:0.625 4:0.5 5:0.6875 6:0.5 7:0.4375 8:0.0625 9:0.375 10:0.375 11:0.3125 12:0.0625 13:0.1875 14:0.5625 15:1.0 
0.004279576316737353 1:0.5 2:1.0 3:0.6875 4:0.9375 5:0.625 6:0.5625 7:0.5 8:0.4375 9:0.5 10:0.0 11:0.375 12:0.0 13:0.625 14:0.5 15:0.5 
-0.25960210177961973 1:1.0 2:0.6875 3:0.25 4:0.5 5:0.5 6:0.8125 7:0.0 8:0.0625 9:0.3125 10:0.1875 11:0.1875 12:0.1875 13:0.5 14:0.5625 15:0.3125 
-0.7126015530314989 1:0.9375 2:0.75 3:0.625 4:0.625 5:0.5 6:0.5 7:0.25 8:0.5625 9:0.1875 10:0.0625 11:0.1875 12:0.4375 13:0.75 14:0.5 15:0.0625 
0.7482549565156998 1:0.5 2:0.5625 3:0.625 4:0.5625 5:0.5625 6:0.9375 7:0.6875 8:1.0 9:0.75 10:0.3125 11:0.625 12:0.4375 13:0.9375 14:0.3125 15:0.375 
-0.06548553814127074 1:0.25 2:0.25 3:0.125 4:0.0 5:0.0625 6:0.375 7:0.5 8:0.25 9:0.4375 10:0.4375 11:0.125 12:0.375 13:0.0625 14:0.1875 15:0.5625 
0.5330621786147612 1:0.625 2:0.375 3:0.375 4:0.25 5:0.75 6:0.25 7:0.1875 8:0.1875 9:0.5 10:0.3125 11:0.1875 12:0.6875 13:0.1875 14:0.8125 15:1.0 
-0.9196714003346973 1:0.5 2:0.25 3:0.4375 4:1.0 5:0.625 6:0.25 7:0.1875 8:0.4375 9:0.5 10:0.5625 11:0.625 12:0.6875 13:0.625 14:1.0 15:0.375 
0.16785765181901718 1:0.875 2:0.6875 3:1.0 4:0.5625 5:0.5625 6:0.25 7:0.375 8:0.4375 9:0.375 10:0.5 11:0.5 12:0.375 13:0.0625 14:0.0625 15:0.1875 
0.2306599996781027 1:0.625 2:0.6875 3:0.5 4:0.625 5:0.875 6:0.3125 7:0.4375 8:0.4375 9:0.5 10:0.3125 11:0.5 12:1.0 13:0.6875 14:0.875 15:1.0 
0.5866313785049734 1:0.6875 2:0.4375 3:0.4375 4:0.4375 5:0.5 6:0.375 7:0.3125 8:0.3125 9:0.375 10:0.3125 11:0.4375 12:0.0625 13:0.6875 14:0.3125 15:0.3125 
-0.15714307780541922 1:0.875 2:0.5 3:0.875 4:0.3125 5:0.9375 6:0.625 7:0.5 8:0.25 9:0.4375 10:0.5625 11:0.3125 12:0.4375 13:0.125 14:0.4375 15:0.875 
-1.0 1:0.5 2:0.3125 3:0.5625 4:0.4375 5:1.0 6:0.375 7:0.1875 8:0.0 9:0.5625 10:0.5 11:0.3125 12:0.75 13:0.3125 14:0.5 15:1.0 
0.24202688218247662 1:0.75 2:0.8125 3:1.0 4:0.5625 5:0.5625 6:0.5 7:0.625 8:0.5 9:0.375 10:0.625 11:0.625 12:0.0 13:0.375 14:0.0625 15:0.5 
-1.0 1:1.0 2:0.5 3:0.5 4:0.375 5:0.8125 6:0.0625 7:0.1875 8:0.0625 9:0.6875 10:0.25 11:0.625 12:0.75 13:0.5 14:0.8125 15:0.8125 
-0.0016846498258923787 1:0.75 2:0.5 3:0.5625 4:0.25 5:1.0 6:0.6875 7:0.6875 8:0.3125 9:0.875 10:0.5 11:0.125 12:0.8125 13:0.1875 14:0.625 15:0.75 
0.022284116605729043 1:0.9375 2:0.875 3:0.5625 4:0.4375 5:0.5625 6:0.5 7:0.3125 8:0.3125 9:0.0 10:0.125 11:0.0 12:0.25 13:0.375 14:0.9375 15:0.8125 
-0.26439238095953044 1:0.0625 2:0.0 3:0.1875 4:0.375 5:0.25 6:0.5625 7:0.0 8:0.25 9:0.4375 10:0.0625 11:0.5 12:0.5 13:0.5625 14:0.625 15:0.4375 
0.3591939475197144 1:0.3125 2:0.0625 3:0.5625 4:0.5 5:0.875 6:0.6875 7:0.6875 8:0.5 9:0.6875 10:0.875 11:0.5 12:0.9375 13:0.4375 14:0.5 15:0.875 
-0.0847376727748783 1:0.5 2:0.3125 3:0.0 4:0.875 5:0.25 6:0.125 7:0.375 8:0.9375 9:0.0625 10:0.375 11:0.6875 12:0.0 13:1.0 14:0.4375 15:0.0625 
-0.5456341569685959 1:0.625 2:0.6875 3:0.4375 4:0.125 5:0.25 6:0.4375 7:0.125 8:0.0625 9:0.0 10:0.5 11:0.375 12:0.0625 13:0.0625 14:0.25 15:0.875 
-0.49916938622140916 1:0.1875 2:0.0 3:0.25 4:0.0 5:0.25 6:0.375 7:1.0 8:0.5 9:0.4375 10:0.5625 11:0.625 12:0.4375 13:0.0 14:0.125 15:0.5 
0.12371009581172965 1:0.5 2:0.5 3:0.625 4:0.375 5:0.625 6:0.375 7:0.8125 8:0.1875 9:0.3125 10:0.875 11:0.4375 12:0.75 13:0.3125 14:0.125 15:1.0 
0.18629396743287244 1:0.1875 2:0.375 3:0.3125 4:0.4375 5:0.0625 6:0.0625 7:0.5625 8:0.375 9:0.1875 10:0.75 11:0.5625 12:0.3125 13:0.4375 14:0.3125 15:0.5 
-1.0 1:0.4375 2:0.375 3:0.4375 4:0.375 5:0.375 6:0.5 7:0.6875 8:0.8125 9:0.875 10:0.875 11:0.4375 12:0.5 13:0.5 14:0.4375 15:0.5 
-0.8006913155343757 1:0.625 2:0.625 3:0.9375 4:0.6875 5:0.9375 6:0.625 7:0.625 8:0.875 9:0.625 10:0.375 11:0.5 12:0.1875 13:0.5 14:0.5 15:0.0 
0.8031645465054605 1:0.625 2:0.3125 3:0.3125 4:0.625 5:0.8125 6:0.1875 7:0.1875 8:0.125 9:0.625 10:0.5 11:0.4375 12:0.625 13:0.625 14:0.6875 15:0.75 
0.04725529277516678 1:0.5625 2:0.375 3:0.375 4:0.8125 5:0.4375 6:0.0625 7:0.5 8:0.5 9:0.375 10:1.0 11:0.6875 12:0.6875 13:0.75 14:0.625 15:0.5 
-0.41950877282845844 1:0.9375 2:0.75 3:0.5625 4:0.5625 5:0.875 6:0.4375 7:0.3125 8:0.0625 9:0.0625 10:0.5 11:0.4375 12:0.6875 13:0.5 14:0.6875 15:0.5 
0.3704018939450555 1:0.375 2:0.5625 3:0.625 4:0.5 5:0.6875 6:0.625 7:0.625 8:1.0 9:0.9375 10:0.1875 11:0.125 12:0.4375 13:0.5 14:0.8125 15:1.0 
-0.13761467517067238 1:0.375 2:0.3125 3:1.0 4:0.1875 5:0.5 6:0.1875 7:1.0 8:0.125 9:0.5 10:0.75 11:0.125 12:0.6875 13:0.0 14:0.1875 15:0.9375 
-1.0 1:0.4375 2:0.5 3:0.3125 4:0.375 5:0.375 6:0.875 7:0.3125 8:0.3125 9:0.1875 10:0.3125 11:0.0625 12:0.0625 13:0.375 14:0.5 15:0.875 
-0.4113408345378864 1:0.25 2:0.5 3:0.875 4:0.5625 5:0.75 6:1.0 7:0.9375 8:1.0 9:0.75 10:0.5 11:0.4375 12:0.5625 13:0.5 14:0.125 15:0.5 
0.291775896307836 1:0.4375 2:0.6875 3:0.5 4:0.125 5:0.3125 6:0.8125 7:1.0 8:0.375 9:0.5 10:0.4375 11:0.3125 12:0.0 13:0.125 14:0.375 15:0.9375 
0.7329546396495584 1:0.0 2:0.25 3:0.5625 4:0.375 5:0.5625 6:0.9375 7:0.875 8:1.0 9:0.9375 10:0.5625 11:0.625 12:0.625 13:0.25 14:0.6875 15:0.9375 
0.4884524282857852 1:0.4375 2:0.9375 3:0.9375 4:0.9375 5:0.5625 6:0.5625 7:0.5 8:0.6875 9:0.4375 10:0.5 11:0.5 12:0.5625 13:0.625 14:0.4375 15:0.1875 
-0.8048744782589529 1:0.9375 2:0.9375 3:0.75 4:0.625 5:0.5 6:0.5 7:0.5 8:0.375 9:0.4375 10:0.5 11:0.375 12:0.5 13:0.5625 14:0.4375 15:0.0 
-0.773359360603151 1:0.875 2:0.625 3:1.0 4:1.0 5:0.625 6:0.5 7:0.1875 8:0.5 9:0.0625 10:0.375 11:0.5625 12:0.5 13:0.6875 14:0.375 15:0.125 
0.35853413347759455 1:0.5625 2:0.6875 3:0.625 4:0.625 5:0.9375 6:0.5 7:0.4375 8:0.5 9:0.5 10:0.125 11:0.5 12:0.9375 13:0.6875 14:0.6875 15:0.875 
0.3727990505631093 1:0.6875 2:0.6875 3:0.375 4:0.0 5:0.4375 6:0.4375 7:0.0625 8:0.375 9:0.4375 10:0.125 11:0.1875 12:0.3125 13:0.3125 14:0.75 15:1.0 
0.09040847411540132 1:0.0625 2:0.125 3:0.4375 4:0.5 5:0.5 6:0.625 7:0.5 8:0.5 9:0.5625 10:0.375 11:0.75 12:1.0 13:0.75 14:0.9375 15:0.625 
0.1786066250259443 1:0.5 2:0.9375 3:0.6875 4:0.5 5:0.4375 6:0.5 7:0.375 8:0.1875 9:0.4375 10:0.375 11:0.3125 12:0.0625 13:0.5 14:0.375 15:0.625 
0.18106471148017234 1:0.0625 2:0.5 3:0.5 4:0.3125 5:0.1875 6:0.9375 7:0.625 8:0.375 9:0.6875 10:0.125 11:0.1875 12:0.0625 13:0.0 14:0.0 15:0.6875 
-0.7812257790544606 1:0.5 2:0.8125 3:0.5 4:0.6875 5:0.8125 6:0.4375 7:0.375 8:0.1875 9:0.5 10:0.0 11:0.125 12:0.4375 13:0.5 14:0.75 15:0.875 
-0.5800845870493656 1:0.25 2:0.125 3:0.4375 4:0.25 5:0.125 6:0.25 7:0.8125 8:0.75 9:0.625 10:0.8125 11:0.625 12:0.75 13:0.125 14:0.1875 15:0.25 
0.2800775892973919 1:0.1875 2:0.75 3:0.25 4:0.5 5:0.5625 6:0.9375 7:0.625 8:1.0 9:1.0 10:0.4375 11:0.375 12:0.875 13:0.5 14:0.875 15:0.875 
-0.044924912864978295 1:0.5 2:0.375 3:0.0 4:0.1875 5:0.5625 6:0.6875 7:0.3125 8:0.0625 9:0.75 10:0.4375 11:0.125 12:0.9375 13:0.1875 14:0.875 15:0.875 
0.25329275067515306 1:0.5625 2:0.375 3:0.0 4:0.0 5:0.4375 6:0.4375 7:0.0625 8:0.4375 9:0.3125 10:0.0625 11:0.375 12:0.5625 13:0.5625 14:0.875 15:1.0 
0.15573973873890917 1:0.125 2:0.0625 3:0.375 4:0.0 5:0.25 6:0.625 7:0.6875 8:0.6875 9:0.6875 10:0.25 11:0.5 12:0.625 13:0.5 14:0.5 15:0.875 
-0.40690658484376574 1:0.625 2:0.875 3:0.9375 4:0.6875 5:0.5 6:0.125 7:0.5 8:0.1875 9:0.0 10:0.625 11:0.375 12:0.0625 13:0.3125 14:0.3125 15:0.25 
0.3289328192963785 1:0.625 2:0.5 3:0.9375 4:0.4375 5:0.0 6:0.4375 7:0.5625 8:0.375 9:0.0 10:0.9375 11:0.5625 12:0.1875 13:0.1875 14:0.0625 15:0.5625 
-0.041264585563598195 1:0.5625 2:0.625 3:0.5625 4:0.5 5:0.875 6:1.0 7:0.75 8:0.5 9:0.8125 10:0.75 11:0.125 12:0.5 13:0.0625 14:0.4375 15:0.5625 
0.151352898138092 1:0.875 2:0.5625 3:0.625 4:0.4375 5:0.8125 6:0.625 7:0.25 8:0.125 9:0.4375 10:0.0 11:0.125 12:0.4375 13:0.3125 14:0.625 15:0.8125 
1.0 1:0.3125 2:0.5625 3:0.875 4:0.5625 5:0.375 6:0.5 7:0.5 8:0.9375 9:0.3125 10:0.625 11:0.5625 12:0.5 13:0.5 14:0.25 15:0.1875 
-0.032114409049555204 1:0.875 2:0.9375 3:0.5 4:1.0 5:0.8125 6:0.5 7:0.3125 8:0.5625 9:0.4375 10:0.0 11:1.0 12:0.5 13:0.8125 14:1.0 15:0.375 
-0.600971734010291 1:0.0625 2:0.4375 3:0.5 4:0.5625 5:0.375 6:0.5 7:0.75 8:0.5625 9:0.0625 10:0.5 11:0.875 12:0.375 13:0.625 14:0.4375 15:0.0 
0.44567251015052484 1:0.9375 2:0.875 3:0.625 4:0.6875 5:0.4375 6:0.3125 7:0.75 8:0.4375 9:0.25 10:0.75 11:0.4375 12:0.125 13:0.375 14:0.0625 15:0.1875 
0.3467333975604555 1:0.0 2:0.5 3:0.4375 4:0.375 5:0.25 6:0.8125 7:0.5625 8:0.4375 9:0.5625 10:0.5 11:0.5 12:0.4375 13:0.125 14:0.625 15:0.5625 
-0.359990190795646 1:0.5625 2:0.6875 3:0.6875 4:0.625 5:1.0 6:0.4375 7:0.6875 8:0.875 9:0.75 10:0.5 11:0.5 12:0.625 13:1.0 14:0.6875 15:0.5 
0.25374939235045546 1:0.375 2:0.9375 3:0.4375 4:1.0 5:0.5625 6:0.875 7:0.4375 8:0.9375 9:0.875 10:0.375 11:0.625 12:0.0625 13:0.875 14:0.6875 15:0.5 
-0.4678478794859385 1:0.5625 2:0.4375 3:0.5 4:0.5625 5:0.4375 6:0.6875 7:0.6875 8:0.875 9:0.5 10:0.75 11:0.875 12:0.5 13:0.5 14:0.4375 15:0.1875 
-0.8855405276140172 1:0.375 2:0.375 3:0.5 4:0.625 5:0.625 6:0.625 7:0.5 8:0.6875 9:0.6875 10:0.3125 11:0.625 12:0.5 13:0.75 14:0.75 15:0.75 
-0.33205726046967354 1:0.3125 2:0.4375 3:0.8125 4:0.5 5:0.625 6:0.5625 7:0.8125 8:0.75 9:0.6875 10:0.5 11:0.4375 12:0.625 13:0.0 14:0.625 15:1.0 
0.2886995622802501 1:0.6875 2:1.0 3:0.9375 4:0.75 5:0.375 6:0.1875 7:0.6875 8:0.25 9:0.125 10:0.8125 11:0.5625 12:0.125 13:0.25 14:0.1875 15:0.1875 
-0.23650792942464957 1:1.0 2:0.4375 3:1.0 4:0.5 5:0.375 6:0.3125 7:0.5 8:0.3125 9:0.4375 10:0.8125 11:0.75 12:0.5 13:0.0625 14:0.375 15:0.375 
0.24818961180474455 1:0.8125 2:0.625 3:0.375 4:0.8125 5:0.3125 6:0.5625 7:0.0625 8:0.1875 9:0.25 10:0.0 11:0.5 12:0.3125 13:1.0 14:0.875 15:0.125 
0.11144646316808302 1:0.375 2:0.75 3:0.9375 4:0.625 5:0.875 6:0.5 7:0.9375 8:1.0 9:0.5 10:0.9375 11:0.6875 12:0.5 13:0.4375 14:0.4375 15:0.375 
0.06635370431319645 1:0.5 2:0.75 3:0.8125 4:0.75 5:0.9375 6:0.5 7:0.4375 8:0.5625 9:0.4375 10:0.4375 11:0.5625 12:0.1875 13:0.5625 14:0.5 15:0.0625 
-0.15103063998140875 1:0.8125 2:0.5 3:0.5 4:0.5 5:0.9375 6:0.25 7:0.5 8:0.625 9:0.625 10:0.5 11:0.6875 12:1.0 13:0.625 14:0.6875 15:1.0 
0.12325130042921906 1:0.75 2:0.4375 3:0.75 4:0.9375 5:0.6875 6:0.25 7:0.4375 8:0.0625 9:0.25 10:0.625 11:0.75 12:0.625 13:0.375 14:0.0625 15:0.1875 
0.18400013057780965 1:0.25 2:0.0 3:0.1875 4:0.1875 5:0.375 6:0.4375 7:0.1875 8:0.5 9:0.375 10:0.3125 11:0.625 12:0.375 13:0.5 14:0.625 15:0.1875 
-0.7053547775169915 1:0.0625 2:0.3125 3:0.8125 4:0.375 5:0.25 6:0.5 7:0.6875 8:0.5 9:0.375 10:0.9375 11:0.75 12:0.5 13:0.5 14:0.125 15:0.0625 
-0.12577587086484016 1:0.1875 2:0.5 3:0.0625 4:0.5625 5:0.0 6:0.625 7:0.75 8:0.625 9:0.5 10:0.1875 11:0.75 12:0.125 13:1.0 14:0.5625 15:0.0 
0.5369452801574535 1:0.375 2:0.5 3:0.625 4:0.5625 5:0.9375 6:0.5625 7:0.9375 8:0.6875 9:0.75 10:0.6875 11:1.0 12:0.9375 13:0.5 14:0.5 15:0.9375 
0.14089683202386669 1:0.5 2:0.1875 3:0.5 4:1.0 5:0.625 6:0.3125 7:0.4375 8:0.75 9:0.5 10:0.6875 11:0.875 12:0.5 13:0.5625 14:0.1875 15:0.25 
0.17812963535308118 1:0.875 2:0.8125 3:0.0625 4:0.375 5:0.375 6:0.5 7:0.125 8:0.3125 9:0.25 10:0.1875 11:0.4375 12:0.125 13:1.0 14:0.5 15:0.4375 
-0.3117238469657918 1:0.9375 2:0.8125 3:0.9375 4:0.75 5:0.5 6:0.625 7:0.8125 8:0.3125 9:0.25 10:0.5 11:0.125 12:0.1875 13:0.0625 14:0.4375 15:0.3125 
0.41673642851295817 1:0.1875 2:0.4375 3:0.5 4:0.5 5:0.375 6:0.5625 7:0.5 8:0.6875 9:0.6875 10:0.5625 11:0.5625 12:0.75 13:1.0 14:0.5 15:0.1875 
0.6515299611518219 1:0.25 2:0.25 3:0.6875 4:0.4375 5:0.1875 6:0.1875 7:0.75 8:0.5 9:0.4375 10:0.75 11:0.875 12:0.875 13:0.5 14:0.1875 15:0.0625 
0.03694286878393653 1:0.0625 2:0.5 3:0.6875 4:0.8125 5:0.5625 6:0.625 7:0.9375 8:0.75 9:1.0 10:1.0 11:0.5625 12:0.75 13:0.375 14:0.5625 15:0.375 
-0.19182041614061374 1:0.0 2:0.4375 3:0.0625 4:0.625 5:0.5 6:0.75 7:0.5 8:0.9375 9:1.0 10:0.5625 11:0.875 12:0.5625 13:0.75 14:0.5 15:0.1875 
-0.16817437192986992 1:0.375 2:0.3125 3:0.625 4:0.6875 5:0.9375 6:0.9375 7:0.625 8:0.8125 9:1.0 10:0.5 11:1.0 12:0.9375 13:0.5 14:0.625 15:0.75 
0.09751944278441341 1:0.5625 2:0.0 3:0.875 4:0.5 5:0.9375 6:0.25 7:0.9375 8:0.25 9:0.875 10:0.875 11:0.5 12:0.875 13:0.0 14:0.5 15:0.8125 
1.0 1:0.1875 2:0.125 3:0.5 4:0.3125 5:0.3125 6:0.75 7:0.6875 8:0.625 9:0.4375 10:0.5 11:0.5625 12:0.4375 13:0.5 14:0.375 15:0.5625 
0.8394548411869155 1:0.8125 2:0.8125 3:0.5625 4:0.875 5:0.625 6:0.75 7:0.4375 8:0.5625 9:0.0625 10:0.3125 11:0.625 12:0.4375 13:0.5 14:0.4375 15:0.0 
0.07819523770129298 1:0.5 2:0.8125 3:0.875 4:0.875 5:0.6875 6:0.875 7:0.625 8:0.875 9:0.625 10:0.5 11:0.9375 12:0.5 13:0.625 14:0.8125 15:0.5 
-0.07963502167806183 1:0.375 2:0.25 3:0.5625 4:0.4375 5:0.5 6:0.625 7:0.9375 8:1.0 9:1.0 10:1.0 11:0.625 12:0.875 13:0.5 14:0.25 15:0.125 
-0.5203349187509544 1:0.3125 2:0.3125 3:0.3125 4:0.4375 5:0.375 6:0.5 7:0.1875 8:0.25 9:0.375 10:0.0625 11:0.5 12:0.3125 13:0.6875 14:0.9375 15:0.625 
0.3330367940753589 1:0.375 2:0.4375 3:0.375 4:0.0625 5:0.3125 6:0.9375 7:0.8125 8:0.5 9:0.75 10:0.0 11:0.0625 12:0.0625 13:0.5625 14:0.5625 15:0.6875 
0.23703247568953437 1:0.25 2:0.1875 3:0.25 4:0.25 5:0.3125 6:0.5625 7:0.625 8:0.625 9:0.625 10:0.5 11:0.0625 12:0.8125 13:0.1875 14:0.5 15:0.8125 
-0.39786777844567506 1:0.5625 2:1.0 3:0.4375 4:0.6875 5:0.875 6:0.6875 7:0.125 8:0.4375 9:0.75 10:0.1875 11:0.5 12:0.25 13:0.625 14:0.9375 15:0.75 
0.49144439116731226 1:0.5 2:1.0 3:0.75 4:1.0 5:0.75 6:0.9375 7:0.875 8:0.75 9:0.75 10:0.5 11:0.4375 12:0.6875 13:0.1875 14:0.375 15:0.75 
0.8833361135811139 1:0.75 2:0.5 3:0.5 4:0.5 5:0.25 6:0.125 7:0.5 8:0.0625 9:0.1875 10:0.625 11:0.5 12:0.4375 13:0.0625 14:0.0625 15:0.75 
0.03671408016345968 1:0.375 2:0.1875 3:0.25 4:0.1875 5:0.375 6:0.4375 7:0.4375 8:0.3125 9:0.4375 10:0.5 11:0.875 12:0.625 13:0.5 14:0.5 15:0.6875 
-0.20058141823851344 1:0.4375 2:0.5 3:0.0625 4:0.625 5:0.375 6:0.875 7:0.3125 8:0.6875 9:0.3125 10:0.0 11:0.75 12:0.0625 13:0.8125 14:0.8125 15:0.125 
-0.2845779629643207 1:0.5 2:0.3125 3:0.1875 4:0.5 5:0.6875 6:0.375 7:0.375 8:0.1875 9:0.4375 10:0.1875 11:0.1875 12:0.625 13:0.5 14:1.0 15:0.6875 
-1.0 1:0.625 2:0.75 3:0.5625 4:0.5625 5:0.4375 6:0.4375 7:0.5625 8:0.5625 9:0.25 10:0.5 11:0.5 12:0.3125 13:0.3125 14:0.4375 15:0.5 
-0.7818424675163381 1:0.1875 2:0.1875 3:0.0 4:0.375 5:0.125 6:0.8125 7:0.5 8:0.5 9:0.4375 10:0.4375 11:0.5625 12:0.5 13:0.625 14:0.1875 15:0.375 
0.5731725793269433 1:0.8125 2:0.8125 3:0.5625 4:0.5625 5:0.3125 6:0.4375 7:0.5 8:0.1875 9:0.1875 10:0.75 11:0.4375 12:0.3125 13:0.5 14:0.375 15:0.5 
-0.18331461165910354 1:0.375 2:0.1875 3:0.5625 4:0.5 5:0.0625 6:0.5 7:0.625 8:1.0 9:0.4375 10:0.9375 11:0.9375 12:0.625 13:0.5625 14:0.5 15:0.125 
1.0 1:0.4375 2:0.5625 3:0.375 4:0.625 5:0.5 6:0.75 7:0.8125 8:0.75 9:0.875 10:0.4375 11:0.5 12:0.3125 13:0.5625 14:0.4375 15:0.4375 
0.4254306380341995 1:0.75 2:0.75 3:0.6875 4:0.5625 5:1.0 6:0.1875 7:0.1875 8:0.0625 9:0.25 10:0.0625 11:0.125 12:0.5625 13:0.5 14:0.5 15:0.8125 
0.4623994021657681 1:0.3125 2:0.0 3:0.125 4:0.375 5:0.3125 6:0.625 7:0.4375 8:0.5 9:0.6875 10:0.375 11:0.125 12:0.375 13:0.5 14:0.625 15:0.75 
0.29672724620130875 1:0.375 2:0.25 3:0.25 4:0.375 5:0.4375 6:0.5 7:0.4375 8:0.1875 9:0.5 10:0.375 11:0.5 12:1.0 13:0.5 14:0.5625 15:0.75 
0.0024518889928128763 1:0.5625 2:0.5 3:0.625 4:0.625 5:0.3125 6:0.5625 7:0.1875 8:0.6875 9:0.0 10:0.5 11:0.6875 12:0.0 13:0.75 14:0.375 15:0.1875 
0.2787934893532344 1:1.0 2:0.3125 3:0.75 4:0.5 5:0.75 6:0.1875 7:0.375 8:0.125 9:0.0625 10:1.0 11:0.5 12:0.8125 13:0.5 14:0.6875 15:0.875 
-0.014172387430587276 1:0.25 2:0.5 3:0.5 4:0.875 5:0.4375 6:0.9375 7:1.0 8:0.9375 9:0.5 10:0.625 11:1.0 12:0.5 13:0.5 14:0.4375 15:0.125 
0.4518976233043095 1:0.5 2:0.8125 3:0.375 4:0.8125 5:0.6875 6:0.4375 7:0.375 8:0.6875 9:0.75 10:0.25 11:1.0 12:0.5625 13:0.875 14:0.8125 15:0.0 
0.4885785178502854 1:0.4375 2:0.5 3:0.5 4:0.375 5:0.4375 6:0.875 7:0.9375 8:1.0 9:0.5 10:0.5 11:0.625 12:0.25 13:0.5 14:0.1875 15:0.375 
0.037263813511182714 1:0.0625 2:0.1875 3:0.375 4:0.5625 5:0.1875 6:0.4375 7:0.875 8:0.5625 9:0.5 10:0.5625 11:0.6875 12:0.5625 13:0.5625 14:0.25 15:0.375 
0.0974883621977703 1:0.875 2:0.5 3:0.375 4:0.875 5:0.5 6:0.375 7:0.0 8:0.4375 9:0.375 10:0.0 11:0.3125 12:0.0625 13:0.875 14:0.5625 15:0.4375 
-0.4896566702337969 1:0.375 2:0.9375 3:0.5 4:0.5 5:0.4375 6:1.0 7:0.6875 8:0.9375 9:0.3125 10:0.1875 11:0.4375 12:0.125 13:0.5 14:0.0625 15:0.5 
-0.2602420015372037 1:0.6875 2:0.0 3:0.1875 4:0.375 5:0.1875 6:0.125 7:0.125 8:0.0 9:0.4375 10:0.375 11:0.3125 12:0.5625 13:0.4375 14:0.5625 15:1.0 
0.09201441947677753 1:0.9375 2:0.9375 3:0.5 4:0.875 5:0.625 6:0.5625 7:0.4375 8:0.3125 9:0.5 10:0.3125 11:0.0625 12:0.0625 13:0.3125 14:0.625 15:0.75 
-0.06101595760291476 1:0.8125 2:1.0 3:0.3125 4:0.4375 5:0.8125 6:0.1875 7:0.0 8:0.0625 9:0.0625 10:0.25 11:0.125 12:0.1875 13:0.5 14:0.75 15:0.8125 
0.49685465213020047 1:0.6875 2:0.8125 3:0.5 4:0.875 5:0.6875 6:0.5 7:0.0625 8:0.3125 9:0.75 10:0.375 11:0.6875 12:0.625 13:0.8125 14:0.9375 15:0.625 
0.3349959846550314 1:0.75 2:0.375 3:0.375 4:0.25 5:0.5625 6:0.3125 7:0.1875 8:0.25 9:0.75 10:0.5 11:0.4375 12:0.625 13:0.1875 14:0.75 15:0.9375 
-0.4078245715185105 1:0.75 2:0.875 3:0.125 4:0.5 5:0.375 6:0.5 7:0.375 8:0.1875 9:0.375 10:0.0625 11:0.1875 12:0.0 13:0.9375 14:0.5 15:0.1875 
-0.4827769373898643 1:0.0 2:0.4375 3:0.0 4:0.1875 5:0.4375 6:0.75 7:0.75 8:0.625 9:0.9375 10:0.625 11:0.5 12:0.5 13:0.5625 14:0.8125 15:0.875 
-0.2991478727093186 1:0.375 2:0.75 3:0.3125 4:1.0 5:0.25 6:1.0 7:0.3125 8:0.625 9:0.5 10:0.125 11:0.4375 12:0.0625 13:0.9375 14:0.3125 15:0.0 
0.3167368441109434 1:0.5 2:0.6875 3:0.5 4:0.875 5:0.625 6:0.8125 7:0.1875 8:0.75 9:0.875 10:0.25 11:0.5 12:0.1875 13:0.875 14:0.8125 15:0.25 
0.7310470944529452 1:0.125 2:0.5 3:0.125 4:0.375 5:0.3125 6:0.625 7:0.75 8:0.6875 9:0.3125 10:0.5 11:0.5 12:0.125 13:0.8125 14:0.1875 15:0.0625 
-0.5873469801363072 1:0.125 2:0.4375 3:0.6875 4:0.1875 5:0.375 6:0.3125 7:0.8125 8:0.1875 9:0.5 10:0.625 11:0.4375 12:0.5 13:0.25 14:0.375 15:0.9375 
-1.0 1:0.0625 2:0.4375 3:0.3125 4:0.375 5:0.3125 6:0.6875 7:0.9375 8:0.8125 9:0.8125 10:0.4375 11:0.625 12:0.1875 13:0.5625 14:0.375 15:0.5 
-0.11388047454689362 1:0.5 2:0.5 3:0.8125 4:0.5 5:0.875 6:0.375 7:0.5 8:0.5625 9:1.0 10:0.8125 11:0.8125 12:0.9375 13:0.125 14:0.625 15:0.5 
0.3071950985995474 1:0.1875 2:0.125 3:0.25 4:0.125 5:0.5 6:0.0625 7:0.5625 8:0.3125 9:0.375 10:0.8125 11:0.4375 12:0.625 13:0.1875 14:0.25 15:0.8125 
0.15533328136726457 1:0.625 2:0.4375 3:0.5625 4:0.0 5:0.5625 6:0.25 7:0.4375 8:0.125 9:0.3125 10:0.375 11:0.5 12:0.6875 13:0.4375 14:0.75 15:0.9375 
-0.26948281316977174 1:0.75 2:0.75 3:0.625 4:0.9375 5:0.4375 6:0.375 7:0.625 8:0.9375 9:0.3125 10:0.75 11:0.6875 12:0.5 13:0.375 14:0.125 15:0.0 
-0.8700681274672867 1:0.4375 2:0.3125 3:1.0 4:0.625 5:0.6875 6:0.375 7:0.6875 8:0.75 9:0.5 10:0.6875 11:0.8125 12:0.5625 13:0.5 14:0.0 15:0.0 
-0.10248622575471353 1:0.8125 2:0.5 3:0.6875 4:0.0625 5:0.625 6:0.5 7:0.6875 8:0.25 9:0.5 10:0.75 11:0.375 12:1.0 13:0.125 14:0.125 15:1.0 
-0.22114002009972128 1:0.9375 2:0.8125 3:0.5 4:0.0625 5:0.625 6:0.375 7:0.0625 8:0.25 9:0.5625 10:0.375 11:0.0 12:0.4375 13:0.4375 14:0.9375 15:0.75 
0.6908566009102183 1:0.8125 2:0.5625 3:0.9375 4:0.875 5:0.5625 6:0.375 7:0.3125 8:0.5 9:0.0625 10:0.5625 11:0.6875 12:0.3125 13:0.75 14:0.1875 15:0.375 
-0.08025124023285404 1:0.625 2:1.0 3:1.0 4:0.75 5:0.6875 6:0.5 7:0.625 8:0.25 9:0.125 10:0.3125 11:0.375 12:0.25 13:0.0 14:0.375 15:0.4375 
-0.9824142043474811 1:0.625 2:0.1875 3:0.4375 4:0.5625 5:0.125 6:0.0 7:0.5 8:0.1875 9:0.125 10:0.9375 11:0.8125 12:0.75 13:0.375 14:0.25 15:0.5 
1.0 1:0.5 2:0.3125 3:0.0625 4:0.25 5:0.5 6:0.4375 7:0.4375 8:0.3125 9:0.4375 10:0.4375 11:0.4375 12:0.9375 13:0.6875 14:0.8125 15:0.9375 
0.4806388678127204 1:0.5 2:0.5 3:0.125 4:0.3125 5:0.5 6:0.5 7:0.0 8:0.0 9:0.1875 10:0.375 11:0.125 12:0.625 13:0.625 14:0.9375 15:1.0 
-0.14918434380837473 1:0.5 2:0.375 3:0.375 4:0.5 5:0.5 6:0.4375 7:0.125 8:0.8125 9:1.0 10:0.1875 11:0.625 12:0.875 13:0.9375 14:0.9375 15:0.375 
0.09681751497069459 1:0.0625 2:0.5625 3:0.1875 4:0.375 5:1.0 6:0.9375 7:0.9375 8:0.5625 9:0.8125 10:0.1875 11:0.25 12:0.5625 13:0.5 14:0.9375 15:1.0 
0.7859916764637641 1:0.5 2:0.5 3:0.5 4:0.125 5:0.875 6:0.5 7:0.4375 8:0.5 9:0.8125 10:0.75 11:0.1875 12:0.5625 13:0.4375 14:0.625 15:1.0 
0.4555898325923197 1:0.5625 2:0.1875 3:0.9375 4:0.0 5:0.4375 6:0.375 7:0.9375 8:0.5 9:0.5 10:1.0 11:0.5 12:1.0 13:0.1875 14:0.375 15:0.8125 
-1.0 1:0.5 2:0.3125 3:0.1875 4:0.0 5:0.5 6:0.1875 7:0.5 8:0.4375 9:0.75 10:0.5625 11:0.1875 12:0.5625 13:0.3125 14:1.0 15:0.8125 
-0.8741461805293359 1:0.5 2:0.3125 3:0.25 4:0.25 5:0.5 6:0.5 7:0.5 8:0.4375 9:0.375 10:0.4375 11:0.5625 12:0.9375 13:0.5 14:0.875 15:0.75 
-0.4266847237535511 1:0.0 2:0.3125 3:0.4375 4:0.375 5:0.375 6:1.0 7:0.5 8:1.0 9:0.6875 10:0.0 11:0.1875 12:0.0625 13:0.5625 14:0.5 15:0.375 
0.0991077436809342 1:0.0625 2:0.0625 3:0.4375 4:0.25 5:0.5 6:0.4375 7:0.5625 8:0.6875 9:0.75 10:0.5 11:0.75 12:0.8125 13:0.5 14:0.5625 15:0.9375 
0.060832461069073716 1:0.5625 2:0.75 3:0.6875 4:0.0625 5:0.5 6:0.5 7:0.125 8:0.3125 9:0.25 10:0.0625 11:0.0625 12:0.1875 13:0.1875 14:0.5 15:0.875 
-0.6001219756840516 1:0.125 2:0.6875 3:0.875 4:0.5625 5:0.4375 6:1.0 7:0.625 8:0.6875 9:0.875 10:0.3125 11:0.5 12:0.25 13:0.625 14:0.5 15:0.4375 
