encog,SVM,java,3.2.0,1,1406057665189
[SVM]
[SVM:PARAMS]
[SVM:SVM-PARAM]
inputCount=15
C=1
cacheSize=100
coef0=0
degree=3
eps=0.001
gamma=1
kernelType=2
nrWeight=0
nu=0.5
p=0.1
probability=0
shrinking=1
svmType=3
weight=
weightLabel=
[SVM:SVM-MODEL]
svm_type epsilon_svr
kernel_type rbf
gamma 1.0
nr_class 2
total_sv 334
rho -0.4472888672306208
SV
0.41947494206370894 1:0.75 2:1.0 3:0.625 4:0.9375 5:1.0 6:0.5 7:0.1875 8:0.625 9:0.625 10:0.5625 11:0.625 12:0.5625 13:0.9375 14:0.625 15:0.3125 
0.4287086911868828 1:0.6875 2:0.6875 3:0.8125 4:0.5 5:0.625 6:0.5 7:0.5 8:0.125 9:0.3125 10:0.375 11:0.4375 12:0.5625 13:0.1875 14:0.5625 15:0.5 
0.9254563531636236 1:0.625 2:0.75 3:0.5 4:0.5 5:0.9375 6:0.875 7:0.3125 8:0.5 9:0.6875 10:0.25 11:0.3125 12:0.0625 13:0.625 14:0.6875 15:0.5 
0.49714596788241383 1:0.5 2:0.625 3:0.4375 4:0.5 5:0.1875 6:0.875 7:0.8125 8:0.8125 9:0.5625 10:0.5 11:0.375 12:0.375 13:0.375 14:0.25 15:0.0625 
0.46968863008546147 1:0.875 2:0.625 3:0.625 4:0.4375 5:0.625 6:0.5 7:0.125 8:0.125 9:0.0 10:0.5 11:0.3125 12:0.125 13:0.5 14:0.4375 15:0.1875 
1.0 1:0.5625 2:0.8125 3:0.8125 4:0.5 5:0.75 6:0.6875 7:0.6875 8:0.4375 9:1.0 10:0.0625 11:0.0625 12:0.8125 13:0.125 14:0.875 15:0.8125 
-0.6300955692347708 1:0.875 2:0.6875 3:0.9375 4:0.8125 5:0.625 6:0.1875 7:0.9375 8:0.25 9:0.5 10:0.8125 11:0.8125 12:0.5625 13:0.125 14:0.3125 15:0.5625 
-0.07925619973362866 1:0.4375 2:0.5625 3:0.5 4:0.625 5:0.375 6:0.75 7:0.375 8:0.5625 9:0.5 10:0.1875 11:0.8125 12:0.125 13:0.8125 14:0.375 15:0.25 
0.19505290712050458 1:0.0625 2:0.3125 3:0.5 4:0.6875 5:0.1875 6:0.5625 7:0.5 8:0.5625 9:0.4375 10:0.625 11:0.8125 12:0.625 13:0.75 14:0.375 15:0.25 
-0.7142497230896965 1:0.625 2:0.25 3:0.375 4:0.5 5:0.375 6:0.375 7:0.1875 8:0.25 9:0.25 10:0.5625 11:0.4375 12:1.0 13:0.5 14:0.5 15:0.5625 
-0.07380706597035888 1:0.5625 2:0.75 3:0.5625 4:0.9375 5:0.9375 6:0.1875 7:0.25 8:0.375 9:0.4375 10:0.4375 11:0.6875 12:0.9375 13:0.5 14:0.5625 15:0.5625 
-0.24271061690050083 1:0.125 2:0.625 3:0.4375 4:0.1875 5:0.0625 6:0.875 7:0.8125 8:0.0 9:0.25 10:0.5 11:0.125 12:0.125 13:0.375 14:0.375 15:0.5 
0.6745643958781391 1:0.375 2:0.625 3:0.25 4:0.875 5:0.6875 6:0.875 7:0.5 8:0.6875 9:0.6875 10:0.25 11:0.5625 12:0.9375 13:0.6875 14:0.6875 15:0.75 
0.8150123346507471 1:0.5 2:0.4375 3:0.5 4:0.0625 5:0.1875 6:0.0 7:0.625 8:0.1875 9:0.0625 10:0.875 11:0.3125 12:0.5625 13:0.4375 14:0.0 15:0.5 
-0.08961188616614385 1:0.5 2:0.6875 3:0.0625 4:0.5625 5:0.625 6:0.5 7:0.3125 8:0.625 9:0.9375 10:0.25 11:0.1875 12:0.6875 13:0.6875 14:0.9375 15:0.625 
-1.0 1:0.5625 2:0.3125 3:0.625 4:0.8125 5:0.5625 6:0.5 7:0.5 8:0.6875 9:0.8125 10:0.5 11:0.625 12:0.75 13:0.5 14:0.625 15:0.75 
-0.05123966232610004 1:0.5 2:0.25 3:0.4375 4:0.625 5:0.4375 6:0.3125 7:0.5 8:0.5 9:0.3125 10:0.875 11:0.75 12:0.625 13:0.25 14:0.4375 15:0.0625 
0.09953117473526234 1:0.5 2:0.875 3:0.8125 4:0.6875 5:0.3125 6:0.5 7:0.5 8:0.625 9:0.0 10:0.3125 11:0.3125 12:0.25 13:0.5 14:0.125 15:0.4375 
-0.80925858707719 1:0.875 2:0.9375 3:0.4375 4:0.9375 5:0.875 6:0.4375 7:0.1875 8:0.6875 9:0.0 10:0.4375 11:1.0 12:0.5 13:0.875 14:0.5625 15:0.25 
0.018070542535260158 1:0.5625 2:0.25 3:1.0 4:0.9375 5:0.625 6:0.4375 7:0.9375 8:0.625 9:0.75 10:0.8125 11:0.75 12:1.0 13:0.3125 14:0.4375 15:0.5625 
-0.24516599093047842 1:0.4375 2:0.4375 3:0.125 4:0.0625 5:0.125 6:0.5 7:0.4375 8:0.4375 9:0.3125 10:0.5625 11:0.0625 12:0.5 13:0.1875 14:0.1875 15:0.75 
0.818445668134057 1:0.5 2:0.0 3:0.1875 4:0.6875 5:0.5 6:0.25 7:0.125 8:0.5 9:0.75 10:0.5 11:0.6875 12:0.75 13:0.75 14:0.75 15:0.5625 
-0.5614800537385981 1:1.0 2:0.9375 3:0.625 4:0.75 5:0.8125 6:0.375 7:0.4375 8:0.0625 9:0.375 10:0.625 11:0.0625 12:0.125 13:0.25 14:0.375 15:0.6875 
0.0634059925286019 1:0.125 2:0.6875 3:0.1875 4:0.4375 5:0.75 6:0.75 7:0.8125 8:0.875 9:0.8125 10:0.25 11:0.3125 12:0.5 13:0.375 14:0.9375 15:0.6875 
0.5751397606011123 1:0.4375 2:0.5 3:0.6875 4:0.875 5:0.625 6:0.75 7:0.8125 8:0.75 9:0.6875 10:0.6875 11:0.5 12:0.5 13:0.0625 14:0.3125 15:0.8125 
-0.6184590014434254 1:0.125 2:0.0625 3:0.0 4:0.25 5:0.4375 6:0.4375 7:0.5 8:0.9375 9:0.5625 10:0.625 11:0.875 12:0.6875 13:0.5 14:0.3125 15:0.25 
0.07436144322274162 1:0.5 2:0.5625 3:0.75 4:0.6875 5:0.375 6:0.4375 7:0.5 8:0.75 9:0.5 10:0.6875 11:0.5625 12:0.375 13:0.3125 14:0.3125 15:0.5 
0.14729036090231123 1:0.4375 2:0.5625 3:0.5625 4:1.0 5:0.6875 6:0.625 7:0.8125 8:0.6875 9:0.875 10:0.5 11:0.6875 12:0.875 13:0.5 14:0.6875 15:0.25 
0.26338618377233713 1:0.9375 2:0.6875 3:1.0 4:0.625 5:0.9375 6:0.5 7:0.875 8:0.375 9:0.0 10:0.75 11:0.5 12:0.5 13:0.3125 14:0.25 15:0.3125 
0.1361553599857138 1:0.625 2:0.6875 3:0.5625 4:1.0 5:0.5625 6:0.5 7:0.1875 8:1.0 9:0.1875 10:0.0625 11:0.6875 12:0.375 13:0.75 14:0.9375 15:0.25 
0.11212293418401781 1:0.0625 2:0.3125 3:0.125 4:0.6875 5:0.5 6:0.5625 7:0.875 8:0.8125 9:0.625 10:1.0 11:0.9375 12:0.5625 13:0.8125 14:0.5 15:0.3125 
0.32788613521332494 1:0.3125 2:0.375 3:0.5 4:0.6875 5:0.1875 6:0.375 7:0.625 8:0.75 9:0.5 10:0.75 11:0.875 12:0.375 13:0.75 14:0.5625 15:0.1875 
0.34505357507964396 1:0.6875 2:0.5 3:0.375 4:0.1875 5:0.5 6:0.4375 7:0.0625 8:0.1875 9:0.5625 10:0.5625 11:0.1875 12:0.8125 13:0.5 14:0.6875 15:0.75 
0.7083013753656511 1:0.3125 2:0.4375 3:0.375 4:0.25 5:0.0 6:0.8125 7:0.5625 8:0.8125 9:0.625 10:0.5 11:0.5 12:0.5625 13:0.375 14:0.375 15:0.625 
0.3224507904924876 1:0.375 2:0.5 3:0.0 4:0.6875 5:0.25 6:0.8125 7:0.125 8:0.5 9:0.0 10:0.3125 11:0.5625 12:0.0625 13:0.8125 14:0.3125 15:0.1875 
0.20927297605542539 1:0.375 2:0.1875 3:0.375 4:0.0625 5:0.3125 6:0.25 7:0.375 8:0.0 9:0.625 10:0.8125 11:0.375 12:0.6875 13:0.4375 14:0.5 15:0.9375 
-0.6834935932625206 1:0.6875 2:0.5625 3:0.5 4:0.6875 5:0.5 6:0.3125 7:0.0 8:0.6875 9:0.375 10:0.4375 11:0.875 12:0.0 13:0.875 14:0.5 15:0.0625 
0.8101146801964133 1:0.6875 2:0.625 3:0.875 4:0.5 5:0.5 6:0.0625 7:0.25 8:0.375 9:0.4375 10:0.5625 11:0.5 12:0.375 13:0.125 14:0.5 15:0.6875 
0.10338975069142449 1:0.375 2:1.0 3:0.75 4:0.1875 5:0.5 6:0.8125 7:0.875 8:0.25 9:0.75 10:0.5 11:0.1875 12:0.125 13:0.0 14:0.5 15:0.9375 
-1.0 1:0.1875 2:0.3125 3:0.25 4:0.4375 5:0.0625 6:0.4375 7:0.375 8:0.25 9:0.5 10:0.625 11:0.5625 12:0.4375 13:0.375 14:0.5 15:0.5 
-0.06349145685893325 1:0.6875 2:0.3125 3:0.75 4:0.5 5:0.25 6:0.1875 7:0.5 8:0.8125 9:0.4375 10:0.625 11:0.8125 12:0.5625 13:0.625 14:0.25 15:0.0625 
-0.45815115070585793 1:0.375 2:0.375 3:0.4375 4:0.375 5:0.125 6:0.4375 7:0.1875 8:0.5 9:0.4375 10:0.5 11:0.625 12:0.125 13:0.8125 14:0.125 15:0.25 
-0.4558441659356709 1:0.8125 2:0.625 3:0.875 4:0.4375 5:0.625 6:0.625 7:0.625 8:0.3125 9:0.8125 10:0.5 11:0.3125 12:0.9375 13:0.125 14:0.5625 15:0.625 
0.0647792701428634 1:0.0625 2:0.4375 3:0.625 4:0.3125 5:0.3125 6:0.5 7:0.75 8:0.875 9:0.5 10:0.625 11:0.625 12:0.1875 13:0.1875 14:0.0625 15:0.375 
-0.30587871101192016 1:0.5 2:0.625 3:0.5 4:1.0 5:0.3125 6:0.9375 7:0.25 8:0.8125 9:0.125 10:0.1875 11:0.4375 12:0.1875 13:0.625 14:0.375 15:0.25 
-0.46554808531086506 1:0.5 2:0.75 3:0.625 4:0.875 5:0.125 6:1.0 7:0.625 8:0.6875 9:0.0625 10:0.375 11:0.5625 12:0.0 13:0.4375 14:0.0 15:0.1875 
1.0 1:0.1875 2:0.5625 3:0.625 4:0.5625 5:0.3125 6:0.5625 7:0.625 8:0.625 9:0.0625 10:0.5 11:0.4375 12:0.375 13:0.4375 14:0.1875 15:0.1875 
0.28815262811783 1:0.4375 2:0.3125 3:0.8125 4:0.9375 5:0.6875 6:0.875 7:1.0 8:1.0 9:0.625 10:0.9375 11:0.875 12:0.6875 13:0.625 14:0.0 15:0.25 
-0.5077058492931155 1:0.125 2:0.5 3:0.375 4:0.3125 5:0.5 6:0.8125 7:1.0 8:0.6875 9:0.9375 10:0.5 11:0.4375 12:0.0 13:0.25 14:0.125 15:0.5 
0.10112815950411558 1:0.8125 2:0.875 3:0.9375 4:1.0 5:0.875 6:0.25 7:0.1875 8:0.5625 9:0.5 10:0.75 11:0.875 12:0.6875 13:0.875 14:0.5625 15:0.25 
0.01134802211332411 1:0.3125 2:1.0 3:0.625 4:0.5 5:0.5625 6:0.75 7:0.5625 8:0.5 9:0.375 10:0.5625 11:0.1875 12:0.0 13:0.4375 14:0.125 15:0.4375 
0.27099078831437673 1:0.5625 2:0.9375 3:0.4375 4:0.9375 5:0.6875 6:0.5625 7:0.3125 8:0.75 9:0.5625 10:0.4375 11:0.625 12:0.8125 13:0.5625 14:0.625 15:0.375 
-0.1671691496739201 1:0.5625 2:0.375 3:0.5 4:0.5 5:0.375 6:0.4375 7:0.5 8:0.4375 9:0.3125 10:0.5625 11:0.875 12:0.375 13:0.6875 14:0.25 15:0.5 
-0.46717386215515905 1:0.4375 2:0.875 3:0.6875 4:0.75 5:0.5 6:0.5625 7:0.875 8:1.0 9:0.9375 10:0.75 11:0.6875 12:0.75 13:0.5 14:0.4375 15:0.5 
0.06688605206348558 1:0.3125 2:0.6875 3:0.4375 4:0.75 5:0.375 6:0.75 7:0.3125 8:0.9375 9:0.1875 10:0.0625 11:0.5625 12:0.1875 13:0.625 14:0.4375 15:0.375 
-0.4756643793515548 1:0.5 2:0.4375 3:0.3125 4:0.375 5:0.4375 6:0.1875 7:0.3125 8:0.5 9:0.0 10:0.1875 11:0.6875 12:0.5 13:0.625 14:0.875 15:0.5 
0.37883036803040016 1:0.5 2:0.125 3:0.8125 4:0.5625 5:0.8125 6:0.4375 7:0.5 8:0.5625 9:0.9375 10:0.8125 11:0.75 12:0.6875 13:0.5 14:0.4375 15:0.4375 
-0.5251347160107607 1:0.0625 2:0.5 3:0.625 4:0.9375 5:0.375 6:0.8125 7:0.8125 8:0.875 9:0.25 10:0.75 11:0.9375 12:0.375 13:0.625 14:0.125 15:0.0625 
0.9363838904246538 1:0.0 2:0.4375 3:0.375 4:0.25 5:0.3125 6:0.9375 7:0.625 8:0.75 9:0.9375 10:0.625 11:0.75 12:0.5625 13:0.5625 14:0.8125 15:0.5 
0.07817407072256816 1:0.1875 2:0.25 3:0.3125 4:0.6875 5:0.5625 6:0.5 7:0.5625 8:1.0 9:0.625 10:0.75 11:1.0 12:0.9375 13:0.5 14:0.5 15:0.0 
-0.32309402278160543 1:0.1875 2:0.3125 3:0.125 4:0.125 5:0.25 6:0.5 7:0.5 8:0.6875 9:0.9375 10:0.3125 11:0.5 12:0.8125 13:0.75 14:0.875 15:0.9375 
-0.09428141405373332 1:1.0 2:0.625 3:0.6875 4:0.9375 5:0.75 6:0.25 7:0.0 8:0.4375 9:0.25 10:0.6875 11:0.625 12:0.75 13:0.8125 14:0.6875 15:0.5 
-1.0 1:0.5625 2:1.0 3:0.625 4:0.6875 5:0.75 6:0.875 7:0.625 8:0.6875 9:0.9375 10:0.0625 11:0.0625 12:0.375 13:0.0625 14:0.875 15:0.8125 
0.15301152882367947 1:0.75 2:0.625 3:0.625 4:0.9375 5:0.375 6:0.25 7:0.5625 8:0.5625 9:0.25 10:1.0 11:0.5 12:0.5 13:0.625 14:0.0625 15:0.1875 
-0.29246903689862846 1:1.0 2:0.4375 3:0.875 4:0.5 5:0.5 6:0.125 7:0.4375 8:0.375 9:0.0625 10:0.625 11:0.875 12:0.6875 13:0.1875 14:0.1875 15:0.125 
0.515143309948049 1:0.625 2:0.4375 3:0.5625 4:1.0 5:0.6875 6:0.0625 7:0.4375 8:0.9375 9:0.5625 10:0.5 11:0.75 12:0.5 13:0.8125 14:0.5 15:0.0 
0.27168821927983805 1:0.5 2:0.125 3:0.0 4:0.375 5:0.625 6:0.0 7:0.125 8:0.375 9:0.875 10:0.625 11:0.9375 12:1.0 13:0.5 14:0.9375 15:1.0 
0.18778902372991563 1:1.0 2:0.9375 3:0.8125 4:0.9375 5:0.625 6:0.5 7:0.5625 8:1.0 9:0.25 10:0.75 11:0.5 12:0.3125 13:0.4375 14:0.4375 15:0.3125 
0.5253772662144438 1:0.3125 2:0.5 3:0.3125 4:0.5625 5:0.875 6:0.5 7:1.0 8:1.0 9:1.0 10:0.5 11:0.5625 12:0.6875 13:0.5625 14:0.9375 15:0.625 
-0.4539310534245447 1:0.9375 2:0.5 3:0.875 4:0.8125 5:0.9375 6:0.375 7:0.625 8:0.5 9:0.9375 10:0.625 11:0.5 12:0.9375 13:0.0 14:0.5 15:0.875 
-0.9493817129694371 1:0.3125 2:0.75 3:0.875 4:0.875 5:0.5 6:0.625 7:1.0 8:0.8125 9:0.5 10:0.8125 11:0.8125 12:0.5 13:0.875 14:0.3125 15:0.25 
-0.46683441801914655 1:0.625 2:0.75 3:0.8125 4:0.0625 5:0.5 6:0.3125 7:0.1875 8:0.25 9:0.375 10:0.5625 11:0.3125 12:0.3125 13:0.25 14:0.3125 15:0.625 
0.11024480821893919 1:0.1875 2:0.5 3:0.0625 4:0.4375 5:0.4375 6:0.5 7:0.3125 8:0.375 9:0.5 10:0.0625 11:0.1875 12:0.125 13:0.5 14:0.5 15:0.6875 
0.3817726534879167 1:0.0 2:0.4375 3:0.25 4:0.3125 5:0.5 6:0.5625 7:0.625 8:1.0 9:0.875 10:0.5625 11:0.6875 12:0.625 13:0.4375 14:0.5 15:0.5625 
1.0 1:0.0625 2:0.4375 3:0.125 4:0.125 5:0.375 6:0.8125 7:0.375 8:0.125 9:0.75 10:0.4375 11:0.3125 12:0.3125 13:0.4375 14:1.0 15:0.75 
0.722410734148407 1:0.3125 2:0.3125 3:0.4375 4:0.1875 5:0.3125 6:0.625 7:0.5 8:0.0 9:0.0625 10:0.5 11:0.25 12:0.125 13:0.25 14:0.0 15:0.6875 
-0.35102275041086745 1:0.5 2:0.6875 3:0.8125 4:0.4375 5:0.875 6:0.5 7:0.875 8:0.0625 9:0.8125 10:0.6875 11:0.3125 12:0.625 13:0.3125 14:0.3125 15:0.9375 
0.8110154540208598 1:0.5 2:0.9375 3:0.8125 4:0.75 5:0.8125 6:0.9375 7:0.625 8:0.625 9:0.6875 10:0.5 11:0.6875 12:0.375 13:0.6875 14:0.0625 15:0.375 
0.3613964304145895 1:0.75 2:0.5625 3:0.5 4:0.75 5:0.4375 6:0.0625 7:0.0 8:0.5 9:0.0 10:0.6875 11:0.6875 12:0.875 13:0.625 14:0.5 15:0.375 
1.0 1:0.75 2:0.625 3:0.25 4:0.625 5:0.4375 6:0.5 7:0.25 8:0.5625 9:0.5 10:0.1875 11:0.5625 12:0.375 13:0.625 14:0.5625 15:0.375 
-0.8242616122473708 1:0.4375 2:0.1875 3:0.3125 4:0.4375 5:0.5625 6:0.5625 7:0.4375 8:0.75 9:0.8125 10:0.625 11:0.5625 12:0.5625 13:0.625 14:0.625 15:0.5625 
-0.08211683046852607 1:0.25 2:0.625 3:0.5 4:0.25 5:0.0 6:0.625 7:0.875 8:0.5625 9:0.3125 10:0.6875 11:0.25 12:0.3125 13:0.375 14:0.0625 15:0.375 
0.1309734466465639 1:0.75 2:0.9375 3:0.875 4:0.5 5:1.0 6:0.375 7:0.625 8:0.5625 9:0.5625 10:0.625 11:0.625 12:0.625 13:0.0 14:0.5 15:0.625 
-0.5413078396485437 1:0.75 2:0.6875 3:0.6875 4:0.6875 5:0.1875 6:0.25 7:0.5 8:0.5625 9:0.0 10:0.6875 11:0.625 12:0.1875 13:0.25 14:0.125 15:0.0 
-0.4002736866834926 1:0.6875 2:0.9375 3:0.75 4:1.0 5:0.5625 6:0.9375 7:0.5 8:0.75 9:0.875 10:0.1875 11:0.8125 12:0.5 13:0.9375 14:0.5 15:0.25 
0.0865202530694664 1:0.625 2:0.6875 3:0.625 4:0.75 5:0.375 6:0.5625 7:0.75 8:0.5625 9:0.375 10:1.0 11:0.75 12:0.0625 13:0.25 14:0.1875 15:0.1875 
-0.0015413028962074852 1:0.3125 2:0.3125 3:0.375 4:0.4375 5:0.125 6:0.5625 7:0.4375 8:0.5 9:0.0 10:0.3125 11:0.25 12:0.125 13:0.6875 14:0.0 15:0.25 
-0.521466156801562 1:0.5 2:0.375 3:0.5 4:0.625 5:1.0 6:0.5 7:0.5 8:0.5625 9:0.6875 10:0.75 11:0.625 12:0.625 13:0.4375 14:0.5 15:0.9375 
0.34226076275506645 1:0.375 2:0.25 3:0.375 4:0.0 5:0.375 6:0.875 7:0.6875 8:0.5 9:0.875 10:0.8125 11:0.4375 12:0.6875 13:0.1875 14:0.5625 15:0.875 
0.3293028740702781 1:0.5 2:0.5 3:0.9375 4:0.8125 5:0.375 6:0.4375 7:0.9375 8:0.6875 9:0.75 10:0.875 11:0.875 12:0.4375 13:0.5 14:0.4375 15:0.0625 
0.20764017419372394 1:0.9375 2:0.9375 3:0.5625 4:0.875 5:0.875 6:0.5625 7:0.5 8:1.0 9:0.9375 10:0.1875 11:0.625 12:0.625 13:0.6875 14:0.5625 15:0.5 
-0.5680612205183979 1:0.8125 2:0.4375 3:0.5625 4:0.1875 5:0.75 6:0.25 7:0.4375 8:0.25 9:0.1875 10:1.0 11:0.4375 12:0.625 13:0.0 14:0.6875 15:0.75 
-0.8928196387421502 1:0.5 2:0.8125 3:0.4375 4:0.5625 5:0.0625 6:0.5 7:0.4375 8:0.8125 9:0.3125 10:0.3125 11:0.4375 12:0.125 13:0.5 14:0.3125 15:0.4375 
-0.04912945235429396 1:0.375 2:0.1875 3:0.625 4:0.0 5:0.375 6:0.4375 7:0.5 8:0.0 9:0.0625 10:0.625 11:0.0 12:0.0625 13:0.0625 14:0.0625 15:0.5 
0.5665831429545553 1:0.5625 2:0.75 3:0.625 4:0.625 5:0.5 6:0.4375 7:0.6875 8:0.6875 9:0.4375 10:0.5625 11:0.6875 12:0.3125 13:0.9375 14:0.125 15:0.1875 
0.23694752783084286 1:0.4375 2:0.375 3:0.25 4:0.125 5:0.5 6:0.125 7:0.8125 8:0.0625 9:0.875 10:0.8125 11:0.4375 12:0.875 13:0.1875 14:0.5 15:1.0 
0.25970713562086173 1:0.5625 2:0.4375 3:0.9375 4:0.625 5:0.75 6:0.3125 7:0.625 8:0.4375 9:0.375 10:0.875 11:0.5 12:0.4375 13:0.1875 14:0.375 15:0.5 
-0.04168723812523112 1:0.25 2:0.8125 3:0.6875 4:0.5 5:0.0625 6:0.9375 7:0.5 8:0.375 9:0.1875 10:0.5 11:0.25 12:0.0625 13:0.1875 14:0.1875 15:0.375 
0.8336330014036404 1:0.0 2:0.5625 3:0.625 4:0.5 5:0.4375 6:0.9375 7:1.0 8:0.5 9:1.0 10:0.5625 11:0.0625 12:0.3125 13:0.125 14:0.125 15:0.5 
0.385394447877647 1:0.375 2:0.0625 3:0.0625 4:0.0 5:0.4375 6:0.5 7:0.5 8:0.625 9:0.8125 10:0.1875 11:0.625 12:0.875 13:0.9375 14:1.0 15:0.5 
-0.6791204521429427 1:0.375 2:0.5 3:0.625 4:0.875 5:0.5 6:0.25 7:0.875 8:0.875 9:0.875 10:0.8125 11:0.6875 12:1.0 13:0.4375 14:0.5 15:0.5 
0.03243479609688843 1:0.125 2:0.3125 3:0.5 4:0.5 5:0.5 6:0.5 7:0.5625 8:0.5625 9:0.4375 10:0.5 11:0.875 12:0.5 13:0.375 14:0.5 15:0.4375 
-0.008705622966503738 1:0.5625 2:0.75 3:0.4375 4:0.5 5:0.875 6:0.625 7:0.25 8:0.6875 9:0.5 10:0.375 11:0.5 12:0.8125 13:0.75 14:0.6875 15:0.5 
-0.12166101627134679 1:0.9375 2:0.8125 3:0.5 4:0.5625 5:0.5 6:0.5 7:0.125 8:0.0625 9:0.4375 10:0.5 11:0.1875 12:0.3125 13:0.5 14:0.25 15:0.6875 
0.0667522149260951 1:0.375 2:0.5 3:0.8125 4:0.5 5:0.6875 6:0.625 7:0.875 8:1.0 9:0.9375 10:0.5 11:0.6875 12:0.5 13:0.5625 14:0.5 15:0.25 
-0.15695524274117198 1:0.4375 2:0.3125 3:0.625 4:0.4375 5:0.375 6:0.625 7:0.8125 8:0.5 9:0.5 10:0.9375 11:0.875 12:0.3125 13:0.3125 14:0.0 15:0.0 
-0.4125250415478462 1:0.5625 2:0.3125 3:0.9375 4:0.5 5:0.125 6:0.3125 7:0.5625 8:0.4375 9:0.0625 10:0.6875 11:0.5 12:0.3125 13:0.5 14:0.0 15:0.125 
0.27907951129067715 1:0.375 2:0.375 3:0.4375 4:0.1875 5:0.25 6:0.6875 7:0.5 8:0.3125 9:0.5 10:0.75 11:0.5 12:0.5 13:0.125 14:0.5 15:0.625 
-0.24000235961538527 1:0.5 2:0.0625 3:0.1875 4:0.5 5:0.5 6:0.3125 7:0.1875 8:0.625 9:0.0625 10:0.25 11:0.875 12:0.4375 13:0.9375 14:1.0 15:0.0625 
0.3584061626248233 1:0.8125 2:0.5 3:1.0 4:0.625 5:0.625 6:0.3125 7:0.75 8:0.6875 9:0.5625 10:0.6875 11:0.9375 12:0.5 13:0.1875 14:0.0 15:0.3125 
0.274281153118317 1:0.5625 2:0.5 3:0.375 4:0.5 5:0.0625 6:0.4375 7:0.5 8:0.875 9:0.4375 10:0.3125 11:0.5 12:0.4375 13:0.8125 14:0.4375 15:0.3125 
-0.12361908896883905 1:0.4375 2:0.125 3:0.25 4:0.9375 5:0.625 6:0.4375 7:0.5 8:0.6875 9:0.6875 10:0.3125 11:0.8125 12:0.75 13:0.9375 14:1.0 15:0.6875 
1.0 1:0.25 2:0.3125 3:0.0625 4:0.4375 5:0.125 6:0.1875 7:0.5 8:0.4375 9:0.5 10:0.75 11:0.875 12:0.4375 13:0.5 14:0.4375 15:0.5 
0.6204011076093006 1:0.5 2:0.5 3:0.5 4:0.4375 5:0.75 6:0.4375 7:0.5 8:0.5 9:0.875 10:0.5625 11:0.1875 12:0.6875 13:0.5 14:0.5625 15:0.6875 
-1.0 1:0.1875 2:0.5 3:0.1875 4:0.5 5:0.5 6:0.9375 7:1.0 8:0.6875 9:0.6875 10:0.5 11:0.875 12:0.5 13:0.9375 14:0.625 15:0.5 
0.9198731220226729 1:0.1875 2:0.25 3:0.375 4:0.5 5:0.4375 6:0.8125 7:0.875 8:0.625 9:0.6875 10:0.5 11:0.75 12:0.25 13:0.6875 14:0.25 15:0.0625 
0.3177413709421064 1:0.0 2:0.625 3:0.125 4:0.0 5:0.25 6:0.75 7:0.5625 8:0.4375 9:0.6875 10:0.375 11:0.25 12:0.5625 13:0.3125 14:0.875 15:0.9375 
-0.18281984757272488 1:0.5 2:0.5 3:0.5 4:0.1875 5:0.375 6:0.625 7:0.5625 8:0.125 9:0.3125 10:0.625 11:0.375 12:0.1875 13:0.0 14:0.4375 15:0.3125 
-0.21672959855193874 1:0.375 2:0.5 3:0.25 4:0.8125 5:0.625 6:0.875 7:0.375 8:0.75 9:1.0 10:0.1875 11:0.5625 12:0.625 13:0.6875 14:1.0 15:0.1875 
0.07637491723533779 1:0.1875 2:0.3125 3:0.0625 4:0.1875 5:0.125 6:0.9375 7:0.8125 8:0.5 9:0.875 10:0.0 11:0.0 12:0.5 13:0.4375 14:0.8125 15:0.5625 
-0.42050863206677874 1:0.9375 2:0.0 3:0.0625 4:0.625 5:0.5625 6:0.125 7:0.0 8:0.25 9:0.125 10:0.25 11:0.8125 12:0.5 13:0.8125 14:0.75 15:0.3125 
1.0 1:0.5 2:0.75 3:0.6875 4:1.0 5:0.75 6:0.3125 7:1.0 8:0.75 9:1.0 10:0.6875 11:0.8125 12:0.8125 13:0.4375 14:0.5 15:0.6875 
-0.3112476351951769 1:0.5625 2:0.875 3:0.5625 4:0.5625 5:0.5625 6:1.0 7:0.5 8:0.8125 9:0.625 10:0.125 11:0.4375 12:0.5625 13:0.6875 14:0.6875 15:0.5 
0.5135136763019135 1:0.75 2:0.6875 3:0.5 4:0.4375 5:1.0 6:0.1875 7:0.3125 8:0.0 9:0.5625 10:0.5 11:0.5 12:0.5625 13:0.125 14:0.5625 15:0.8125 
-0.12368218361323324 1:0.625 2:1.0 3:0.8125 4:1.0 5:0.9375 6:0.625 7:0.9375 8:0.75 9:0.875 10:0.75 11:0.625 12:0.75 13:0.75 14:0.4375 15:0.125 
0.18102322041364657 1:0.5 2:0.0 3:0.125 4:0.0625 5:0.125 6:0.25 7:0.125 8:0.375 9:0.5625 10:0.75 11:0.75 12:1.0 13:0.5 14:0.5 15:0.5 
-0.018036871906511067 1:0.5625 2:0.3125 3:0.5 4:0.75 5:0.3125 6:0.0 7:0.4375 8:0.5625 9:0.0625 10:0.5625 11:0.5625 12:0.5 13:0.75 14:0.5 15:0.25 
-0.15296111048786215 1:0.5 2:0.125 3:0.5625 4:0.3125 5:0.375 6:0.1875 7:0.5 8:0.25 9:0.75 10:0.5625 11:0.5 12:0.5625 13:0.0625 14:0.375 15:0.875 
-0.14886269272842786 1:0.25 2:0.5625 3:0.375 4:0.1875 5:0.0625 6:0.875 7:1.0 8:0.4375 9:0.875 10:0.0625 11:0.0625 12:0.125 13:0.1875 14:0.375 15:0.5 
0.2391428321653061 1:0.875 2:0.125 3:0.625 4:0.625 5:0.75 6:0.0625 7:0.125 8:0.1875 9:0.1875 10:0.625 11:1.0 12:0.8125 13:0.5 14:0.6875 15:0.875 
0.14142169641863794 1:0.25 2:0.5 3:0.1875 4:0.3125 5:0.875 6:1.0 7:0.5625 8:0.5 9:1.0 10:0.4375 11:0.0 12:0.75 13:0.125 14:0.8125 15:0.875 
-1.0 1:0.5 2:0.4375 3:0.5 4:0.625 5:0.5625 6:0.625 7:0.5 8:0.625 9:0.5625 10:0.6875 11:0.6875 12:0.8125 13:0.5625 14:0.25 15:0.4375 
-0.16405762021300346 1:0.125 2:0.1875 3:0.25 4:0.25 5:0.1875 6:0.9375 7:0.75 8:0.5 9:0.8125 10:0.5625 11:0.6875 12:0.625 13:0.3125 14:0.5 15:0.5 
0.2971164701749594 1:0.375 2:0.0625 3:0.5625 4:0.1875 5:0.0625 6:0.3125 7:0.5 8:0.0625 9:0.0625 10:0.75 11:0.8125 12:0.5625 13:0.1875 14:0.0 15:0.625 
-0.5578509120830193 1:0.6875 2:0.1875 3:0.0625 4:0.0625 5:0.5 6:0.0625 7:0.25 8:0.0625 9:0.125 10:0.6875 11:0.625 12:0.9375 13:0.6875 14:0.875 15:0.8125 
-1.0 1:0.375 2:0.125 3:0.375 4:0.125 5:0.375 6:0.0625 7:0.6875 8:0.1875 9:0.0 10:0.6875 11:0.5 12:0.5 13:0.25 14:0.0 15:0.4375 
0.3494348437345875 1:0.5 2:0.1875 3:0.25 4:0.5625 5:0.0625 6:0.25 7:0.25 8:0.8125 9:0.1875 10:0.3125 11:0.75 12:0.5 13:0.6875 14:0.375 15:0.0625 
0.055299410838825135 1:0.5625 2:0.5 3:0.5625 4:0.25 5:0.0625 6:0.4375 7:0.4375 8:0.0625 9:0.125 10:0.0625 11:0.375 12:0.1875 13:0.125 14:0.3125 15:0.375 
-1.0 1:0.375 2:0.5625 3:0.9375 4:0.75 5:0.6875 6:0.4375 7:0.9375 8:0.8125 9:0.9375 10:0.875 11:0.75 12:0.4375 13:0.3125 14:0.25 15:0.3125 
-0.016551297416641037 1:0.3125 2:0.5625 3:0.375 4:0.625 5:0.5625 6:0.9375 7:0.5 8:0.5625 9:0.9375 10:0.125 11:0.0625 12:0.5 13:1.0 14:0.6875 15:0.6875 
-0.2634747961134533 1:0.9375 2:0.375 3:0.5625 4:0.25 5:0.4375 6:0.0 7:0.125 8:0.0 9:0.125 10:0.5625 11:0.375 12:0.25 13:0.0 14:0.5 15:0.8125 
0.3355138761343262 1:0.4375 2:0.5 3:0.1875 4:0.5 5:0.5 6:0.5625 7:0.1875 8:0.5 9:0.8125 10:0.0 11:0.6875 12:0.375 13:1.0 14:1.0 15:0.625 
-0.15353782462898227 1:0.9375 2:0.8125 3:0.9375 4:0.5 5:0.9375 6:0.4375 7:0.375 8:0.4375 9:1.0 10:0.4375 11:0.5 12:0.625 13:0.4375 14:0.625 15:0.75 
-0.15208628609863814 1:0.125 2:0.5 3:0.125 4:0.25 5:0.5 6:0.9375 7:0.1875 8:0.25 9:0.6875 10:0.1875 11:0.25 12:0.4375 13:0.8125 14:0.75 15:1.0 
-0.5380505338825253 1:0.4375 2:0.4375 3:0.5 4:0.0 5:0.375 6:0.625 7:0.6875 8:0.5625 9:1.0 10:0.625 11:0.0 12:0.4375 13:0.4375 14:0.4375 15:0.625 
-0.3130383062217326 1:0.1875 2:0.4375 3:0.25 4:0.4375 5:0.125 6:0.8125 7:0.8125 8:0.625 9:0.625 10:0.5625 11:0.1875 12:0.25 13:0.375 14:0.4375 15:0.125 
-0.16002647699937816 1:0.8125 2:0.5 3:0.1875 4:0.4375 5:0.375 6:0.5 7:0.3125 8:0.1875 9:0.5 10:0.1875 11:0.0625 12:0.0 13:0.5625 14:0.875 15:0.625 
-0.29327432083539995 1:0.375 2:0.75 3:1.0 4:0.375 5:0.8125 6:0.875 7:0.875 8:0.5 9:0.8125 10:0.5 11:0.5 12:0.8125 13:0.0625 14:0.6875 15:0.6875 
0.006875865397850614 1:0.4375 2:0.75 3:0.6875 4:0.4375 5:0.6875 6:0.6875 7:0.9375 8:0.875 9:0.875 10:0.4375 11:0.5 12:0.4375 13:0.125 14:0.375 15:0.875 
0.06842935102181066 1:0.875 2:0.75 3:0.3125 4:0.625 5:0.0625 6:0.8125 7:0.4375 8:0.5 9:0.25 10:0.125 11:0.0625 12:0.125 13:0.5625 14:0.375 15:0.0625 
0.27688054209520374 1:0.8125 2:0.6875 3:0.5 4:0.125 5:0.5 6:0.3125 7:0.1875 8:0.375 9:0.25 10:0.4375 11:0.1875 12:0.1875 13:0.375 14:0.375 15:0.625 
-0.33921340598488525 1:0.0625 2:0.6875 3:0.875 4:0.6875 5:0.5 6:0.9375 7:0.875 8:0.625 9:0.875 10:0.3125 11:0.5 12:0.375 13:0.5625 14:0.125 15:0.3125 
0.272348998099076 1:0.6875 2:0.25 3:0.25 4:0.0625 5:0.6875 6:0.3125 7:0.1875 8:0.125 9:0.3125 10:0.4375 11:0.25 12:0.5625 13:0.1875 14:0.9375 15:0.6875 
0.7296824858306186 1:0.75 2:0.6875 3:0.375 4:0.625 5:0.625 6:0.125 7:0.0625 8:0.4375 9:0.125 10:0.375 11:0.625 12:0.375 13:0.8125 14:0.5625 15:0.625 
0.17999113575515946 1:0.3125 2:0.3125 3:0.125 4:0.4375 5:0.125 6:0.125 7:0.125 8:0.4375 9:0.3125 10:0.0 11:0.5 12:0.375 13:0.875 14:0.5 15:0.0 
0.21204858387871878 1:0.1875 2:0.0 3:0.125 4:0.0625 5:0.3125 6:0.6875 7:1.0 8:0.75 9:0.75 10:0.75 11:0.5625 12:0.5 13:0.4375 14:0.5 15:0.75 
-0.2501447564726483 1:0.1875 2:0.375 3:0.5 4:0.1875 5:0.625 6:1.0 7:0.6875 8:0.9375 9:0.875 10:0.375 11:0.5 12:0.875 13:0.3125 14:0.875 15:0.9375 
-0.11554776844798485 1:0.3125 2:0.375 3:0.3125 4:0.75 5:0.25 6:0.5 7:0.5 8:0.5 9:0.3125 10:0.5625 11:0.75 12:0.5625 13:0.5625 14:0.5625 15:0.125 
0.08238213430450977 1:0.375 2:0.1875 3:0.25 4:0.125 5:0.5 6:0.5625 7:0.5 8:0.6875 9:0.875 10:0.4375 11:0.9375 12:0.875 13:0.8125 14:0.8125 15:0.9375 
0.05132440387719859 1:0.4375 2:1.0 3:0.5625 4:0.75 5:0.5 6:0.875 7:0.6875 8:0.8125 9:0.9375 10:0.375 11:0.25 12:0.5 13:0.375 14:0.5 15:0.5 
-0.4790976451035377 1:0.0 2:0.3125 3:0.0 4:0.0625 5:0.25 6:0.5 7:0.3125 8:0.4375 9:0.0 10:0.5 11:0.5 12:0.5 13:0.5 14:0.25 15:0.5 
-0.6307579875679494 1:0.875 2:0.5625 3:0.875 4:0.875 5:1.0 6:0.4375 7:0.75 8:0.5625 9:0.5 10:0.75 11:0.5 12:0.5625 13:0.25 14:0.375 15:0.25 
-1.0 1:0.375 2:0.25 3:0.5 4:0.0 5:0.25 6:0.5 7:0.5 8:0.5 9:0.4375 10:0.8125 11:0.25 12:0.5625 13:0.3125 14:0.5625 15:1.0 
0.6824792256082542 1:0.5625 2:0.6875 3:0.8125 4:0.6875 5:0.9375 6:0.75 7:0.5625 8:0.3125 9:0.6875 10:0.9375 11:0.4375 12:1.0 13:0.25 14:0.5 15:0.9375 
-0.11734049250561769 1:0.3125 2:0.25 3:0.0625 4:0.5 5:0.5 6:0.125 7:0.3125 8:0.3125 9:0.8125 10:0.8125 11:0.5625 12:0.8125 13:0.5 14:1.0 15:0.875 
0.6258605016208509 1:0.3125 2:0.125 3:0.8125 4:0.625 5:0.375 6:0.4375 7:0.625 8:0.625 9:0.6875 10:1.0 11:0.9375 12:0.5 13:0.4375 14:0.0625 15:0.3125 
0.03405152155644357 1:0.0 2:0.4375 3:0.0 4:0.5 5:0.25 6:0.6875 7:1.0 8:0.9375 9:0.375 10:0.5 11:0.5625 12:0.0625 13:0.5625 14:0.125 15:0.4375 
0.09348795023374896 1:0.25 2:0.4375 3:0.25 4:0.5 5:0.0 6:0.5 7:0.5 8:0.5625 9:0.5 10:0.0 11:0.4375 12:0.4375 13:0.6875 14:0.5 15:0.5 
-0.10432968299805698 1:0.1875 2:0.0625 3:0.25 4:0.1875 5:0.5 6:0.5625 7:0.5 8:0.6875 9:0.5 10:0.5 11:0.4375 12:1.0 13:0.5 14:0.6875 15:0.5 
0.43419230719207547 1:1.0 2:0.375 3:0.625 4:0.4375 5:0.375 6:0.4375 7:0.625 8:0.25 9:0.0 10:0.5625 11:0.6875 12:0.5 13:0.375 14:0.25 15:0.25 
-0.4705853203791053 1:0.5 2:0.125 3:0.5 4:0.9375 5:0.375 6:0.1875 7:0.1875 8:0.5625 9:0.0 10:0.8125 11:0.9375 12:0.625 13:0.5625 14:0.5625 15:0.1875 
0.5655052860742857 1:1.0 2:0.5625 3:0.6875 4:0.8125 5:0.75 6:0.5 7:0.6875 8:0.625 9:0.8125 10:1.0 11:0.5 12:1.0 13:0.25 14:0.5625 15:0.5625 
0.28614517112453025 1:0.75 2:0.8125 3:0.5 4:0.5 5:0.875 6:0.375 7:0.375 8:0.125 9:0.5625 10:0.5 11:0.5 12:0.6875 13:0.9375 14:0.875 15:0.875 
0.10131724466546274 1:0.1875 2:0.375 3:0.1875 4:0.0625 5:0.125 6:0.9375 7:0.8125 8:0.3125 9:0.1875 10:0.25 11:0.1875 12:0.0 13:0.125 14:0.0625 15:0.5625 
0.06301675341592157 1:0.5625 2:0.6875 3:0.5 4:0.75 5:0.625 6:0.25 7:0.4375 8:0.375 9:0.3125 10:0.5625 11:0.5 12:0.6875 13:0.5 14:0.9375 15:0.5625 
0.3513931621040991 1:0.9375 2:0.8125 3:0.9375 4:0.625 5:0.4375 6:0.6875 7:0.5625 8:0.0625 9:0.3125 10:0.25 11:0.25 12:0.125 13:0.4375 14:0.375 15:0.5 
0.3551652037923219 1:0.0625 2:0.4375 3:0.3125 4:0.4375 5:0.3125 6:0.4375 7:0.5 8:0.625 9:0.6875 10:0.5 11:0.5 12:0.5625 13:0.625 14:1.0 15:0.75 
-0.31595490238030494 1:0.5625 2:0.5625 3:0.3125 4:0.5 5:0.3125 6:0.5625 7:0.625 8:0.5 9:0.375 10:0.4375 11:0.0625 12:0.375 13:0.5 14:0.0 15:0.375 
-0.2887123403465104 1:0.8125 2:0.6875 3:0.625 4:0.4375 5:0.75 6:0.625 7:0.25 8:0.0625 9:0.1875 10:0.0625 11:0.1875 12:0.25 13:0.0 14:0.3125 15:0.6875 
0.20321325647661528 1:0.9375 2:0.625 3:0.5 4:0.625 5:0.875 6:0.5625 7:0.1875 8:0.75 9:0.8125 10:0.5 11:0.5625 12:1.0 13:0.875 14:1.0 15:0.625 
0.3665017298491847 1:1.0 2:0.6875 3:0.25 4:0.5 5:0.5 6:0.8125 7:0.0 8:0.0625 9:0.3125 10:0.1875 11:0.1875 12:0.1875 13:0.5 14:0.5625 15:0.3125 
0.12586880941511017 1:0.3125 2:0.125 3:0.5 4:0.5625 5:0.1875 6:0.4375 7:0.875 8:1.0 9:0.5625 10:0.75 11:0.9375 12:0.75 13:0.9375 14:0.0 15:0.4375 
-0.4156890503391747 1:0.9375 2:0.75 3:0.625 4:0.625 5:0.5 6:0.5 7:0.25 8:0.5625 9:0.1875 10:0.0625 11:0.1875 12:0.4375 13:0.75 14:0.5 15:0.0625 
-0.39085907432119504 1:0.8125 2:0.625 3:0.4375 4:0.75 5:0.6875 6:0.3125 7:0.5 8:0.625 9:0.5 10:0.4375 11:0.5 12:0.5 13:0.625 14:0.5 15:0.3125 
0.471690309675061 1:0.125 2:0.25 3:0.375 4:0.375 5:0.4375 6:0.875 7:0.6875 8:0.75 9:0.9375 10:0.4375 11:0.5625 12:0.625 13:1.0 14:0.9375 15:0.75 
0.38163313901633056 1:0.5 2:0.5625 3:0.625 4:0.5625 5:0.5625 6:0.9375 7:0.6875 8:1.0 9:0.75 10:0.3125 11:0.625 12:0.4375 13:0.9375 14:0.3125 15:0.375 
-1.0 1:0.5 2:0.25 3:0.4375 4:1.0 5:0.625 6:0.25 7:0.1875 8:0.4375 9:0.5 10:0.5625 11:0.625 12:0.6875 13:0.625 14:1.0 15:0.375 
-0.14102833820446276 1:0.1875 2:0.3125 3:0.1875 4:0.5 5:0.625 6:0.5 7:0.4375 8:0.9375 9:0.9375 10:0.9375 11:0.75 12:0.8125 13:0.6875 14:0.75 15:0.75 
-0.9621832859846502 1:0.9375 2:0.875 3:0.375 4:0.5625 5:0.5 6:0.5625 7:0.1875 8:0.0625 9:0.5 10:0.0 11:0.375 12:0.1875 13:0.4375 14:0.625 15:0.625 
-0.0010310766124425799 1:0.625 2:0.6875 3:0.5 4:0.625 5:0.875 6:0.3125 7:0.4375 8:0.4375 9:0.5 10:0.3125 11:0.5 12:1.0 13:0.6875 14:0.875 15:1.0 
0.019592581089784705 1:0.75 2:1.0 3:0.9375 4:1.0 5:0.625 6:0.4375 7:0.1875 8:0.5625 9:0.3125 10:0.5 11:0.5 12:0.0625 13:0.8125 14:0.5 15:0.375 
0.430405357942855 1:0.875 2:0.5 3:0.875 4:0.3125 5:0.9375 6:0.625 7:0.5 8:0.25 9:0.4375 10:0.5625 11:0.3125 12:0.4375 13:0.125 14:0.4375 15:0.875 
-0.9637714000672992 1:0.5 2:0.5 3:1.0 4:0.25 5:0.4375 6:0.6875 7:0.5 8:0.5 9:0.4375 10:0.6875 11:0.4375 12:0.3125 13:0.375 14:0.375 15:0.5 
-1.0 1:0.5 2:0.3125 3:0.5625 4:0.4375 5:1.0 6:0.375 7:0.1875 8:0.0 9:0.5625 10:0.5 11:0.3125 12:0.75 13:0.3125 14:0.5 15:1.0 
-0.8555690482909672 1:1.0 2:0.5 3:0.5 4:0.375 5:0.8125 6:0.0625 7:0.1875 8:0.0625 9:0.6875 10:0.25 11:0.625 12:0.75 13:0.5 14:0.8125 15:0.8125 
-0.3104892909095897 1:0.75 2:0.5 3:0.5625 4:0.25 5:1.0 6:0.6875 7:0.6875 8:0.3125 9:0.875 10:0.5 11:0.125 12:0.8125 13:0.1875 14:0.625 15:0.75 
0.12847816723294106 1:0.9375 2:0.875 3:0.5625 4:0.4375 5:0.5625 6:0.5 7:0.3125 8:0.3125 9:0.0 10:0.125 11:0.0 12:0.25 13:0.375 14:0.9375 15:0.8125 
-0.16630283841550628 1:0.0625 2:0.0 3:0.1875 4:0.375 5:0.25 6:0.5625 7:0.0 8:0.25 9:0.4375 10:0.0625 11:0.5 12:0.5 13:0.5625 14:0.625 15:0.4375 
0.5690484649056355 1:0.5 2:0.3125 3:0.0 4:0.875 5:0.25 6:0.125 7:0.375 8:0.9375 9:0.0625 10:0.375 11:0.6875 12:0.0 13:1.0 14:0.4375 15:0.0625 
0.27436672173325943 1:1.0 2:0.5 3:0.1875 4:0.3125 5:0.5625 6:0.125 7:0.0 8:0.0625 9:0.3125 10:0.1875 11:0.1875 12:0.625 13:0.3125 14:0.9375 15:0.9375 
0.4768972744307761 1:0.8125 2:0.75 3:0.4375 4:0.5625 5:0.625 6:0.125 7:0.25 8:0.5 9:0.5 10:0.1875 11:0.6875 12:0.375 13:0.8125 14:0.6875 15:0.375 
-0.11519568327452416 1:0.625 2:0.6875 3:0.4375 4:0.125 5:0.25 6:0.4375 7:0.125 8:0.0625 9:0.0 10:0.5 11:0.375 12:0.0625 13:0.0625 14:0.25 15:0.875 
-0.2651363588187383 1:0.1875 2:0.0 3:0.25 4:0.0 5:0.25 6:0.375 7:1.0 8:0.5 9:0.4375 10:0.5625 11:0.625 12:0.4375 13:0.0 14:0.125 15:0.5 
0.47778622685244576 1:0.75 2:0.6875 3:0.75 4:0.5625 5:1.0 6:0.125 7:0.0625 8:0.125 9:0.0625 10:0.6875 11:0.3125 12:0.5 13:0.3125 14:0.4375 15:0.5 
0.3123080625310468 1:0.625 2:0.625 3:0.9375 4:0.6875 5:0.9375 6:0.625 7:0.625 8:0.875 9:0.625 10:0.375 11:0.5 12:0.1875 13:0.5 14:0.5 15:0.0 
0.5996673611398677 1:0.625 2:0.3125 3:0.3125 4:0.625 5:0.8125 6:0.1875 7:0.1875 8:0.125 9:0.625 10:0.5 11:0.4375 12:0.625 13:0.625 14:0.6875 15:0.75 
-0.06377541569631537 1:0.5625 2:0.375 3:0.375 4:0.8125 5:0.4375 6:0.0625 7:0.5 8:0.5 9:0.375 10:1.0 11:0.6875 12:0.6875 13:0.75 14:0.625 15:0.5 
0.5856514053920419 1:0.9375 2:0.75 3:0.5625 4:0.5625 5:0.875 6:0.4375 7:0.3125 8:0.0625 9:0.0625 10:0.5 11:0.4375 12:0.6875 13:0.5 14:0.6875 15:0.5 
0.09169260842538325 1:0.125 2:0.125 3:0.5 4:0.3125 5:0.75 6:0.5 7:0.8125 8:0.5 9:0.875 10:1.0 11:0.75 12:0.75 13:0.1875 14:0.75 15:0.875 
0.2687544651588352 1:0.375 2:0.5625 3:0.625 4:0.5 5:0.6875 6:0.625 7:0.625 8:1.0 9:0.9375 10:0.1875 11:0.125 12:0.4375 13:0.5 14:0.8125 15:1.0 
-1.0 1:0.125 2:0.5 3:0.375 4:0.5 5:0.5 6:0.5625 7:0.5 8:0.5 9:1.0 10:0.25 11:0.6875 12:0.8125 13:0.5625 14:1.0 15:0.5 
-0.13841966772039802 1:0.375 2:0.3125 3:1.0 4:0.1875 5:0.5 6:0.1875 7:1.0 8:0.125 9:0.5 10:0.75 11:0.125 12:0.6875 13:0.0 14:0.1875 15:0.9375 
-0.770775368431092 1:0.4375 2:0.5 3:0.3125 4:0.375 5:0.375 6:0.875 7:0.3125 8:0.3125 9:0.1875 10:0.3125 11:0.0625 12:0.0625 13:0.375 14:0.5 15:0.875 
-0.7858619711943651 1:0.25 2:0.5 3:0.875 4:0.5625 5:0.75 6:1.0 7:0.9375 8:1.0 9:0.75 10:0.5 11:0.4375 12:0.5625 13:0.5 14:0.125 15:0.5 
0.41156266760724286 1:0.4375 2:0.9375 3:0.875 4:0.9375 5:0.1875 6:0.75 7:1.0 8:0.6875 9:0.625 10:0.5625 11:0.75 12:0.25 13:0.5 14:0.25 15:0.25 
-0.12251791834687836 1:0.375 2:0.5 3:0.625 4:0.0625 5:0.125 6:0.9375 7:0.75 8:0.5 9:0.125 10:0.875 11:0.5 12:0.1875 13:0.0 14:0.125 15:0.5 
-0.9074147053286936 1:0.0 2:0.0625 3:0.4375 4:0.375 5:0.25 6:0.6875 7:0.6875 8:0.5625 9:0.8125 10:0.625 11:0.75 12:0.4375 13:0.5625 14:0.6875 15:0.5 
0.8787126419001475 1:0.75 2:0.0625 3:0.5 4:1.0 5:0.625 6:0.25 7:0.125 8:0.5625 9:0.375 10:0.5 11:0.875 12:0.5 13:0.6875 14:0.75 15:0.1875 
-0.39939054421210474 1:0.8125 2:0.625 3:0.5 4:0.75 5:0.0625 6:0.4375 7:0.5 8:0.75 9:0.3125 10:0.5625 11:0.75 12:0.4375 13:0.6875 14:0.5 15:0.0625 
-0.19758037633235734 1:0.1875 2:0.5 3:0.1875 4:0.3125 5:0.6875 6:0.6875 7:0.3125 8:0.4375 9:0.625 10:0.125 11:0.375 12:0.9375 13:0.3125 14:1.0 15:0.875 
-0.19229354756440065 1:0.875 2:0.625 3:1.0 4:1.0 5:0.625 6:0.5 7:0.1875 8:0.5 9:0.0625 10:0.375 11:0.5625 12:0.5 13:0.6875 14:0.375 15:0.125 
-0.34267014237068094 1:0.4375 2:0.25 3:0.1875 4:0.625 5:0.3125 6:0.0625 7:0.625 8:0.625 9:0.375 10:0.5625 11:0.75 12:0.5625 13:0.8125 14:0.3125 15:0.4375 
-0.21340000324181307 1:0.4375 2:0.375 3:0.4375 4:0.5625 5:0.3125 6:0.9375 7:0.4375 8:0.5 9:0.375 10:0.125 11:0.5 12:0.0625 13:0.5625 14:0.0625 15:0.125 
0.1590935276367794 1:0.5 2:0.5625 3:0.5 4:0.9375 5:0.6875 6:0.6875 7:0.9375 8:0.9375 9:0.875 10:0.5 11:0.5625 12:0.5 13:0.625 14:0.625 15:0.75 
0.9377185116968 1:0.0625 2:0.125 3:0.4375 4:0.5 5:0.5 6:0.625 7:0.5 8:0.5 9:0.5625 10:0.375 11:0.75 12:1.0 13:0.75 14:0.9375 15:0.625 
0.4633518199079581 1:0.5 2:0.9375 3:0.6875 4:0.5 5:0.4375 6:0.5 7:0.375 8:0.1875 9:0.4375 10:0.375 11:0.3125 12:0.0625 13:0.5 14:0.375 15:0.625 
0.20730964015856454 1:0.4375 2:0.6875 3:0.3125 4:0.0625 5:0.0625 6:0.6875 7:0.625 8:0.4375 9:0.5 10:0.5 11:0.375 12:0.125 13:0.0 14:0.5 15:0.5 
0.11268863022045883 1:0.0625 2:0.5 3:0.5 4:0.3125 5:0.1875 6:0.9375 7:0.625 8:0.375 9:0.6875 10:0.125 11:0.1875 12:0.0625 13:0.0 14:0.0 15:0.6875 
-0.4767919052627285 1:0.1875 2:0.1875 3:0.4375 4:0.3125 5:0.125 6:0.25 7:0.5 8:0.4375 9:0.3125 10:0.625 11:0.8125 12:0.75 13:0.75 14:0.375 15:0.3125 
-0.6261391609351185 1:0.5 2:0.3125 3:0.1875 4:0.25 5:0.3125 6:0.5 7:0.375 8:0.5 9:0.375 10:0.125 11:0.4375 12:0.3125 13:0.6875 14:0.1875 15:0.0 
0.6039765804130725 1:0.5 2:0.5625 3:1.0 4:0.75 5:1.0 6:0.875 7:0.75 8:0.875 9:0.75 10:0.625 11:0.4375 12:0.75 13:0.0 14:0.25 15:0.5 
-0.1822550345811152 1:0.625 2:1.0 3:0.9375 4:0.4375 5:0.5 6:0.5625 7:0.5 8:0.3125 9:0.0625 10:0.5625 11:0.1875 12:0.0 13:0.125 14:0.125 15:0.0625 
0.07145039622590897 1:0.25 2:0.125 3:0.4375 4:0.25 5:0.125 6:0.25 7:0.8125 8:0.75 9:0.625 10:0.8125 11:0.625 12:0.75 13:0.125 14:0.1875 15:0.25 
0.7738366896976948 1:0.5 2:0.375 3:0.3125 4:0.6875 5:0.375 6:0.375 7:0.4375 8:0.5 9:0.0625 10:1.0 11:0.875 12:0.75 13:0.75 14:0.375 15:0.1875 
-0.8172661881827904 1:0.5 2:0.3125 3:0.0 4:0.6875 5:0.375 6:0.1875 7:0.375 8:0.875 9:0.375 10:0.25 11:0.875 12:0.125 13:1.0 14:0.5625 15:0.125 
-0.3654656732430767 1:0.5 2:0.375 3:0.0 4:0.1875 5:0.5625 6:0.6875 7:0.3125 8:0.0625 9:0.75 10:0.4375 11:0.125 12:0.9375 13:0.1875 14:0.875 15:0.875 
-0.8949849740694222 1:0.625 2:0.875 3:0.9375 4:0.6875 5:0.5 6:0.125 7:0.5 8:0.1875 9:0.0 10:0.625 11:0.375 12:0.0625 13:0.3125 14:0.3125 15:0.25 
0.061994721421945224 1:0.875 2:0.5625 3:0.625 4:0.4375 5:0.8125 6:0.625 7:0.25 8:0.125 9:0.4375 10:0.0 11:0.125 12:0.4375 13:0.3125 14:0.625 15:0.8125 
0.06608656017231655 1:0.3125 2:0.5625 3:0.875 4:0.5625 5:0.375 6:0.5 7:0.5 8:0.9375 9:0.3125 10:0.625 11:0.5625 12:0.5 13:0.5 14:0.25 15:0.1875 
0.04772707313443918 1:0.625 2:0.4375 3:0.3125 4:0.375 5:0.4375 6:0.1875 7:0.1875 8:0.1875 9:0.0625 10:0.1875 11:0.5 12:0.3125 13:0.8125 14:0.875 15:0.3125 
-0.017832734312072836 1:0.0625 2:0.4375 3:0.5 4:0.5625 5:0.375 6:0.5 7:0.75 8:0.5625 9:0.0625 10:0.5 11:0.875 12:0.375 13:0.625 14:0.4375 15:0.0 
0.08293130686154766 1:0.125 2:0.3125 3:0.6875 4:0.25 5:0.375 6:0.25 7:0.8125 8:0.625 9:0.75 10:0.9375 11:0.8125 12:0.9375 13:0.3125 14:0.375 15:0.5625 
0.290806659813176 1:0.6875 2:0.4375 3:0.375 4:0.4375 5:0.5 6:0.4375 7:0.4375 8:0.0625 9:0.375 10:0.4375 11:0.5 12:0.5625 13:0.6875 14:0.5 15:0.3125 
0.49599741766853095 1:0.375 2:0.375 3:0.625 4:0.0625 5:0.0 6:0.75 7:0.625 8:0.6875 9:0.5 10:0.5625 11:0.5 12:0.25 13:0.5 14:0.3125 15:0.5 
-0.30085897744372003 1:0.0 2:0.5 3:0.4375 4:0.375 5:0.25 6:0.8125 7:0.5625 8:0.4375 9:0.5625 10:0.5 11:0.5 12:0.4375 13:0.125 14:0.625 15:0.5625 
-0.12157677290083659 1:0.125 2:0.625 3:0.625 4:0.75 5:0.875 6:0.6875 7:0.875 8:0.9375 9:0.75 10:1.0 11:0.75 12:0.8125 13:0.375 14:0.4375 15:0.375 
-1.0 1:0.5625 2:0.6875 3:0.6875 4:0.625 5:1.0 6:0.4375 7:0.6875 8:0.875 9:0.75 10:0.5 11:0.5 12:0.625 13:1.0 14:0.6875 15:0.5 
-0.2922276258685146 1:0.375 2:0.9375 3:0.4375 4:1.0 5:0.5625 6:0.875 7:0.4375 8:0.9375 9:0.875 10:0.375 11:0.625 12:0.0625 13:0.875 14:0.6875 15:0.5 
0.20927922866584867 1:0.5625 2:0.5625 3:0.8125 4:0.75 5:0.875 6:0.5 7:0.875 8:0.6875 9:0.5625 10:0.625 11:0.5625 12:1.0 13:0.6875 14:0.4375 15:0.5625 
-1.0 1:0.5625 2:0.4375 3:0.5 4:0.5625 5:0.4375 6:0.6875 7:0.6875 8:0.875 9:0.5 10:0.75 11:0.875 12:0.5 13:0.5 14:0.4375 15:0.1875 
0.8551831440906429 1:0.6875 2:1.0 3:0.9375 4:0.75 5:0.375 6:0.1875 7:0.6875 8:0.25 9:0.125 10:0.8125 11:0.5625 12:0.125 13:0.25 14:0.1875 15:0.1875 
-0.14632973921840842 1:0.125 2:0.4375 3:0.5 4:0.375 5:0.1875 6:0.8125 7:0.875 8:1.0 9:0.5 10:0.4375 11:0.375 12:0.5 13:0.25 14:0.25 15:0.5 
0.3464941279462094 1:0.375 2:0.75 3:0.9375 4:0.625 5:0.875 6:0.5 7:0.9375 8:1.0 9:0.5 10:0.9375 11:0.6875 12:0.5 13:0.4375 14:0.4375 15:0.375 
-0.7160186707882424 1:0.5 2:0.75 3:0.8125 4:0.75 5:0.9375 6:0.5 7:0.4375 8:0.5625 9:0.4375 10:0.4375 11:0.5625 12:0.1875 13:0.5625 14:0.5 15:0.0625 
0.1797411746247913 1:0.75 2:0.4375 3:0.75 4:0.9375 5:0.6875 6:0.25 7:0.4375 8:0.0625 9:0.25 10:0.625 11:0.75 12:0.625 13:0.375 14:0.0625 15:0.1875 
0.43182912815023405 1:0.3125 2:0.4375 3:0.3125 4:0.25 5:0.375 6:0.5 7:0.5 8:0.5 9:0.8125 10:0.5625 11:0.375 12:0.6875 13:0.4375 14:0.3125 15:0.6875 
0.3542445855338322 1:0.25 2:0.0 3:0.1875 4:0.1875 5:0.375 6:0.4375 7:0.1875 8:0.5 9:0.375 10:0.3125 11:0.625 12:0.375 13:0.5 14:0.625 15:0.1875 
0.008702480432880518 1:0.1875 2:0.5 3:0.0625 4:0.5625 5:0.0 6:0.625 7:0.75 8:0.625 9:0.5 10:0.1875 11:0.75 12:0.125 13:1.0 14:0.5625 15:0.0 
-0.3233084314562549 1:0.625 2:0.875 3:0.625 4:0.8125 5:0.6875 6:0.3125 7:0.375 8:0.6875 9:0.5 10:0.875 11:0.5625 12:0.5625 13:0.6875 14:0.5 15:0.375 
-0.3419613055217076 1:0.875 2:0.8125 3:0.0625 4:0.375 5:0.375 6:0.5 7:0.125 8:0.3125 9:0.25 10:0.1875 11:0.4375 12:0.125 13:1.0 14:0.5 15:0.4375 
0.18742872401860516 1:0.25 2:0.25 3:0.6875 4:0.4375 5:0.1875 6:0.1875 7:0.75 8:0.5 9:0.4375 10:0.75 11:0.875 12:0.875 13:0.5 14:0.1875 15:0.0625 
0.30032564219432833 1:0.0625 2:0.5 3:0.6875 4:0.8125 5:0.5625 6:0.625 7:0.9375 8:0.75 9:1.0 10:1.0 11:0.5625 12:0.75 13:0.375 14:0.5625 15:0.375 
0.49634841633046867 1:0.0 2:0.4375 3:0.0625 4:0.625 5:0.5 6:0.75 7:0.5 8:0.9375 9:1.0 10:0.5625 11:0.875 12:0.5625 13:0.75 14:0.5 15:0.1875 
0.24209124896101203 1:0.5625 2:0.0 3:0.875 4:0.5 5:0.9375 6:0.25 7:0.9375 8:0.25 9:0.875 10:0.875 11:0.5 12:0.875 13:0.0 14:0.5 15:0.8125 
0.6069502559175108 1:0.8125 2:0.8125 3:0.5625 4:0.875 5:0.625 6:0.75 7:0.4375 8:0.5625 9:0.0625 10:0.3125 11:0.625 12:0.4375 13:0.5 14:0.4375 15:0.0 
0.32027312952191694 1:0.5 2:0.6875 3:0.375 4:0.25 5:0.1875 6:0.8125 7:0.3125 8:0.5 9:0.3125 10:0.1875 11:0.0625 12:0.4375 13:0.5625 14:0.3125 15:0.4375 
0.5409014491020848 1:0.3125 2:0.625 3:0.5625 4:1.0 5:0.875 6:0.6875 7:0.8125 8:1.0 9:0.9375 10:0.875 11:0.8125 12:0.6875 13:0.75 14:0.5625 15:0.375 
0.1353335977927783 1:0.1875 2:0.5625 3:0.6875 4:0.1875 5:0.3125 6:0.5 7:0.8125 8:0.5 9:0.5625 10:0.9375 11:0.3125 12:0.4375 13:0.0 14:0.4375 15:0.5 
-0.05072692408181037 1:0.125 2:0.0625 3:0.8125 4:0.5625 5:0.3125 6:0.5 7:0.5625 8:0.8125 9:0.25 10:0.875 11:0.625 12:0.3125 13:0.5 14:0.125 15:0.0625 
0.4666101509920437 1:0.5 2:0.8125 3:0.875 4:0.875 5:0.6875 6:0.875 7:0.625 8:0.875 9:0.625 10:0.5 11:0.9375 12:0.5 13:0.625 14:0.8125 15:0.5 
0.1091595877876551 1:0.0625 2:0.0 3:0.1875 4:0.5 5:0.0625 6:0.8125 7:1.0 8:0.6875 9:0.8125 10:0.625 11:0.5625 12:0.5 13:0.75 14:0.1875 15:0.375 
0.5062931545960001 1:0.4375 2:0.75 3:0.6875 4:0.75 5:0.0 6:0.875 7:0.5 8:0.5625 9:0.3125 10:0.4375 11:0.5 12:0.0625 13:0.6875 14:0.0 15:0.25 
-0.8105235032728736 1:0.3125 2:0.3125 3:0.3125 4:0.4375 5:0.375 6:0.5 7:0.1875 8:0.25 9:0.375 10:0.0625 11:0.5 12:0.3125 13:0.6875 14:0.9375 15:0.625 
0.08055519587463172 1:0.4375 2:0.1875 3:0.4375 4:0.5 5:1.0 6:0.375 7:0.125 8:0.5 9:0.5 10:0.375 11:0.75 12:0.8125 13:0.75 14:0.8125 15:0.5 
0.1047451733329332 1:0.875 2:0.8125 3:0.9375 4:0.8125 5:0.875 6:0.5 7:0.3125 8:0.3125 9:0.5 10:0.625 11:0.5 12:0.625 13:0.5 14:0.4375 15:0.6875 
0.3539472136154519 1:0.5 2:0.0 3:0.75 4:0.3125 5:0.625 6:0.3125 7:0.5625 8:0.4375 9:0.8125 10:0.5625 11:0.5 12:0.75 13:0.0625 14:0.4375 15:0.6875 
-0.4312269850068642 1:0.5625 2:1.0 3:0.4375 4:0.6875 5:0.875 6:0.6875 7:0.125 8:0.4375 9:0.75 10:0.1875 11:0.5 12:0.25 13:0.625 14:0.9375 15:0.75 
-0.3057664146074715 1:0.5 2:1.0 3:0.75 4:1.0 5:0.75 6:0.9375 7:0.875 8:0.75 9:0.75 10:0.5 11:0.4375 12:0.6875 13:0.1875 14:0.375 15:0.75 
0.09260718306117043 1:0.4375 2:0.5 3:0.0625 4:0.625 5:0.375 6:0.875 7:0.3125 8:0.6875 9:0.3125 10:0.0 11:0.75 12:0.0625 13:0.8125 14:0.8125 15:0.125 
-0.5944945187745019 1:0.8125 2:0.8125 3:0.5625 4:0.5625 5:0.3125 6:0.4375 7:0.5 8:0.1875 9:0.1875 10:0.75 11:0.4375 12:0.3125 13:0.5 14:0.375 15:0.5 
0.19844322330644174 1:0.375 2:0.9375 3:0.625 4:0.625 5:0.8125 6:0.8125 7:0.625 8:0.5625 9:0.75 10:0.0 11:0.125 12:0.3125 13:0.375 14:0.75 15:0.5 
0.015187797114008385 1:0.375 2:0.1875 3:0.5625 4:0.5 5:0.0625 6:0.5 7:0.625 8:1.0 9:0.4375 10:0.9375 11:0.9375 12:0.625 13:0.5625 14:0.5 15:0.125 
0.17577606388693418 1:0.1875 2:0.4375 3:0.1875 4:0.0 5:0.375 6:0.25 7:0.125 8:0.375 9:0.375 10:0.5 11:0.375 12:0.5 13:0.5 14:1.0 15:1.0 
0.17588978782863512 1:0.4375 2:0.5625 3:0.375 4:0.625 5:0.5 6:0.75 7:0.8125 8:0.75 9:0.875 10:0.4375 11:0.5 12:0.3125 13:0.5625 14:0.4375 15:0.4375 
1.0 1:0.5 2:0.1875 3:0.1875 4:0.1875 5:0.375 6:0.3125 7:0.5625 8:0.3125 9:0.0 10:0.5625 11:0.375 12:0.5625 13:0.25 14:0.5 15:0.5625 
0.02159663466299913 1:0.75 2:0.75 3:0.6875 4:0.5625 5:1.0 6:0.1875 7:0.1875 8:0.0625 9:0.25 10:0.0625 11:0.125 12:0.5625 13:0.5 14:0.5 15:0.8125 
0.7375905067708526 1:0.3125 2:0.0 3:0.125 4:0.375 5:0.3125 6:0.625 7:0.4375 8:0.5 9:0.6875 10:0.375 11:0.125 12:0.375 13:0.5 14:0.625 15:0.75 
-0.07197664239538139 1:0.375 2:0.3125 3:0.5 4:0.5 5:0.25 6:0.8125 7:0.9375 8:0.625 9:0.5 10:0.4375 11:0.25 12:0.3125 13:0.0 14:0.375 15:0.5 
-0.4516445766390222 1:0.0 2:0.375 3:0.375 4:0.375 5:0.0 6:0.375 7:0.5 8:0.75 9:0.5 10:0.8125 11:1.0 12:0.6875 13:0.3125 14:0.375 15:0.4375 
-0.024196558501541128 1:0.5 2:0.625 3:0.875 4:0.125 5:0.4375 6:0.75 7:0.5625 8:0.25 9:0.125 10:0.5625 11:0.4375 12:0.375 13:0.0 14:0.25 15:0.5 
1.0 1:0.5625 2:0.5 3:0.625 4:0.625 5:0.3125 6:0.5625 7:0.1875 8:0.6875 9:0.0 10:0.5 11:0.6875 12:0.0 13:0.75 14:0.375 15:0.1875 
-0.17521122910584744 1:0.9375 2:0.625 3:1.0 4:0.625 5:0.5 6:0.1875 7:0.125 8:0.0625 9:0.0625 10:0.5 11:0.0 12:0.5 13:0.0 14:0.5 15:0.5 
0.14865460380236242 1:0.5625 2:0.375 3:0.5 4:0.8125 5:0.375 6:0.125 7:0.3125 8:0.5625 9:0.0 10:0.75 11:0.6875 12:0.3125 13:0.4375 14:0.0625 15:0.25 
-0.41507294922266025 1:0.9375 2:0.625 3:0.625 4:0.6875 5:1.0 6:0.25 7:0.375 8:0.1875 9:0.0625 10:0.6875 11:0.4375 12:0.625 13:0.0625 14:0.3125 15:0.5625 
-0.027005435509218717 1:1.0 2:0.9375 3:1.0 4:1.0 5:0.8125 6:0.625 7:0.875 8:0.75 9:1.0 10:0.875 11:0.5625 12:0.8125 13:0.375 14:0.625 15:0.6875 
-0.07669880041505978 1:0.4375 2:0.125 3:0.0 4:0.5 5:0.375 6:0.0 7:0.25 8:0.4375 9:0.6875 10:0.3125 11:0.625 12:0.75 13:0.5625 14:0.75 15:0.9375 
0.130231159891886 1:1.0 2:0.5625 3:0.6875 4:0.75 5:0.9375 6:0.125 7:0.8125 8:0.4375 9:0.5 10:0.8125 11:0.5 12:0.5 13:0.5 14:0.1875 15:0.5 
0.2938113890377192 1:0.5 2:0.8125 3:0.375 4:0.8125 5:0.6875 6:0.4375 7:0.375 8:0.6875 9:0.75 10:0.25 11:1.0 12:0.5625 13:0.875 14:0.8125 15:0.0 
-0.03055822288059693 1:0.5625 2:0.0 3:0.6875 4:0.5 5:0.4375 6:0.25 7:0.75 8:0.3125 9:0.3125 10:1.0 11:0.75 12:0.9375 13:0.1875 14:0.0625 15:0.5625 
-0.3148761637770658 1:0.875 2:0.5 3:0.375 4:0.875 5:0.5 6:0.375 7:0.0 8:0.4375 9:0.375 10:0.0 11:0.3125 12:0.0625 13:0.875 14:0.5625 15:0.4375 
0.12744292394149206 1:0.9375 2:0.8125 3:0.5 4:1.0 5:0.875 6:0.5 7:0.0625 8:0.5625 9:0.75 10:0.4375 11:0.625 12:0.9375 13:0.625 14:0.625 15:0.5 
0.24257016691586059 1:0.5 2:0.5625 3:0.3125 4:0.5 5:0.375 6:0.5 7:0.0 8:0.5625 9:0.4375 10:0.125 11:0.9375 12:0.375 13:0.625 14:0.5625 15:0.375 
-0.6478811457985133 1:0.5 2:0.6875 3:0.625 4:0.9375 5:1.0 6:0.625 7:0.4375 8:0.375 9:0.5 10:0.5 11:0.4375 12:0.5 13:0.5625 14:0.5625 15:0.4375 
-0.1429751433991997 1:0.8125 2:0.1875 3:0.4375 4:0.125 5:0.0625 6:0.375 7:0.0 8:0.0 9:0.0 10:0.0 11:0.4375 12:0.0625 13:0.5 14:0.5 15:0.375 
0.6525872169413502 1:0.9375 2:0.9375 3:0.5 4:0.875 5:0.625 6:0.5625 7:0.4375 8:0.3125 9:0.5 10:0.3125 11:0.0625 12:0.0625 13:0.3125 14:0.625 15:0.75 
0.022047673391439752 1:0.8125 2:1.0 3:0.3125 4:0.4375 5:0.8125 6:0.1875 7:0.0 8:0.0625 9:0.0625 10:0.25 11:0.125 12:0.1875 13:0.5 14:0.75 15:0.8125 
0.18713464443167924 1:0.5 2:0.125 3:0.8125 4:0.5 5:0.125 6:0.5 7:0.6875 8:0.4375 9:0.5 10:0.875 11:0.4375 12:0.5 13:0.1875 14:0.375 15:0.3125 
0.14448744633663507 1:0.6875 2:0.8125 3:0.5 4:0.875 5:0.6875 6:0.5 7:0.0625 8:0.3125 9:0.75 10:0.375 11:0.6875 12:0.625 13:0.8125 14:0.9375 15:0.625 
1.0 1:0.75 2:0.375 3:0.375 4:0.25 5:0.5625 6:0.3125 7:0.1875 8:0.25 9:0.75 10:0.5 11:0.4375 12:0.625 13:0.1875 14:0.75 15:0.9375 
-1.0 1:0.0 2:0.4375 3:0.0 4:0.1875 5:0.4375 6:0.75 7:0.75 8:0.625 9:0.9375 10:0.625 11:0.5 12:0.5 13:0.5625 14:0.8125 15:0.875 
-0.597476636238756 1:0.375 2:0.75 3:0.3125 4:1.0 5:0.25 6:1.0 7:0.3125 8:0.625 9:0.5 10:0.125 11:0.4375 12:0.0625 13:0.9375 14:0.3125 15:0.0 
0.9312248210320893 1:0.5 2:0.6875 3:0.5 4:0.875 5:0.625 6:0.8125 7:0.1875 8:0.75 9:0.875 10:0.25 11:0.5 12:0.1875 13:0.875 14:0.8125 15:0.25 
0.026916807470312495 1:0.125 2:0.5 3:0.125 4:0.375 5:0.3125 6:0.625 7:0.75 8:0.6875 9:0.3125 10:0.5 11:0.5 12:0.125 13:0.8125 14:0.1875 15:0.0625 
0.16262716916648595 1:0.4375 2:0.25 3:0.375 4:0.5 5:0.4375 6:0.1875 7:0.0625 8:0.375 9:0.375 10:0.0625 11:0.5 12:0.5 13:1.0 14:0.875 15:0.1875 
0.1528952362454314 1:0.1875 2:0.125 3:0.25 4:0.125 5:0.5 6:0.0625 7:0.5625 8:0.3125 9:0.375 10:0.8125 11:0.4375 12:0.625 13:0.1875 14:0.25 15:0.8125 
0.12665852079078335 1:0.75 2:0.75 3:0.625 4:0.9375 5:0.4375 6:0.375 7:0.625 8:0.9375 9:0.3125 10:0.75 11:0.6875 12:0.5 13:0.375 14:0.125 15:0.0 
0.11875596301549822 1:0.1875 2:0.0625 3:0.0625 4:0.1875 5:0.0 6:0.4375 7:0.8125 8:0.8125 9:0.75 10:0.6875 11:0.75 12:0.8125 13:0.8125 14:0.5625 15:0.1875 
0.14728922789627505 1:0.5625 2:0.25 3:0.3125 4:0.25 5:0.5 6:0.125 7:0.0625 8:0.0 9:0.0625 10:0.4375 11:0.75 12:1.0 13:0.9375 14:0.75 15:0.5625 
0.39194247488601247 1:0.0 2:0.0625 3:0.0625 4:0.25 5:0.375 6:0.1875 7:0.875 8:0.8125 9:0.9375 10:0.6875 11:0.625 12:1.0 13:0.25 14:0.5 15:0.625 
-0.48189998846031423 1:0.9375 2:0.8125 3:0.5 4:0.0625 5:0.625 6:0.375 7:0.0625 8:0.25 9:0.5625 10:0.375 11:0.0 12:0.4375 13:0.4375 14:0.9375 15:0.75 
-0.45244458491276573 1:0.75 2:0.125 3:0.0625 4:0.5625 5:0.375 6:0.0 7:0.1875 8:0.4375 9:0.0 10:0.9375 11:0.75 12:0.8125 13:0.6875 14:0.25 15:0.125 
-0.29525707702177967 1:1.0 2:0.875 3:0.5625 4:0.5 5:1.0 6:0.5 7:0.4375 8:0.4375 9:0.1875 10:0.3125 11:0.375 12:0.25 13:0.4375 14:0.125 15:0.5 
-0.20907851166670557 1:0.625 2:0.3125 3:0.5625 4:0.5 5:0.5 6:0.4375 7:0.4375 8:0.0625 9:0.3125 10:1.0 11:0.5625 12:0.25 13:0.3125 14:0.0 15:0.4375 
-0.17660495582572808 1:0.8125 2:0.5625 3:0.9375 4:0.875 5:0.5625 6:0.375 7:0.3125 8:0.5 9:0.0625 10:0.5625 11:0.6875 12:0.3125 13:0.75 14:0.1875 15:0.375 
-0.10803821860886377 1:0.625 2:0.1875 3:0.4375 4:0.5625 5:0.125 6:0.0 7:0.5 8:0.1875 9:0.125 10:0.9375 11:0.8125 12:0.75 13:0.375 14:0.25 15:0.5 
-1.0 1:0.6875 2:0.75 3:0.5 4:0.625 5:0.9375 6:0.5625 7:0.0 8:0.3125 9:0.375 10:0.5 11:0.625 12:0.5 13:0.625 14:0.625 15:0.5 
-0.4044262583045649 1:0.9375 2:0.5 3:0.5 4:1.0 5:0.25 6:0.3125 7:0.375 8:1.0 9:0.375 10:0.3125 11:0.6875 12:0.125 13:0.8125 14:0.5 15:0.0 
-0.6006548307302341 1:0.5 2:0.375 3:0.375 4:0.5 5:0.5 6:0.4375 7:0.125 8:0.8125 9:1.0 10:0.1875 11:0.625 12:0.875 13:0.9375 14:0.9375 15:0.375 
0.606038196668554 1:0.5 2:0.5 3:0.5 4:0.125 5:0.875 6:0.5 7:0.4375 8:0.5 9:0.8125 10:0.75 11:0.1875 12:0.5625 13:0.4375 14:0.625 15:1.0 
-1.0 1:0.5 2:0.3125 3:0.1875 4:0.0 5:0.5 6:0.1875 7:0.5 8:0.4375 9:0.75 10:0.5625 11:0.1875 12:0.5625 13:0.3125 14:1.0 15:0.8125 
0.03736914400068565 1:0.625 2:0.6875 3:0.875 4:0.5625 5:0.8125 6:0.75 7:0.5625 8:0.5625 9:0.5625 10:0.4375 11:0.375 12:0.125 13:0.5 14:0.1875 15:0.3125 
-0.07217312597126023 1:0.25 2:0.5625 3:0.25 4:0.125 5:0.5 6:1.0 7:0.0 8:0.5 9:0.4375 10:0.125 11:0.0625 12:0.0625 13:0.8125 14:1.0 15:0.5625 
0.06393545631212587 1:0.1875 2:0.0 3:0.3125 4:0.375 5:0.4375 6:0.0 7:0.3125 8:0.5625 9:0.625 10:0.6875 11:0.6875 12:0.875 13:0.9375 14:0.9375 15:0.3125 
-0.22370497678683715 1:0.125 2:0.6875 3:0.875 4:0.5625 5:0.4375 6:1.0 7:0.625 8:0.6875 9:0.875 10:0.3125 11:0.5 12:0.25 13:0.625 14:0.5 15:0.4375 
