encog,SVM,java,3.2.0,1,1406057663422
[SVM]
[SVM:PARAMS]
[SVM:SVM-PARAM]
inputCount=15
C=1
cacheSize=100
coef0=0
degree=3
eps=0.001
gamma=1
kernelType=2
nrWeight=0
nu=0.5
p=0.1
probability=0
shrinking=1
svmType=3
weight=
weightLabel=
[SVM:SVM-MODEL]
svm_type epsilon_svr
kernel_type rbf
gamma 1.0
nr_class 2
total_sv 332
rho -0.41637883985276203
SV
0.538507492017369 1:0.5 2:0.875 3:0.125 4:0.5 5:0.8125 6:1.0 7:0.5 8:0.1875 9:0.6875 10:0.0625 11:0.0625 12:0.375 13:0.5 14:0.8125 15:0.75 
0.6564730546735891 1:0.625 2:0.5625 3:0.9375 4:0.875 5:0.75 6:0.25 7:0.875 8:0.375 9:0.5625 10:0.6875 11:0.625 12:0.625 13:0.0 14:0.375 15:0.75 
0.2807794132560869 1:0.75 2:1.0 3:0.625 4:0.9375 5:1.0 6:0.5 7:0.1875 8:0.625 9:0.625 10:0.5625 11:0.625 12:0.5625 13:0.9375 14:0.625 15:0.3125 
1.0 1:0.6875 2:0.6875 3:0.8125 4:0.5 5:0.625 6:0.5 7:0.5 8:0.125 9:0.3125 10:0.375 11:0.4375 12:0.5625 13:0.1875 14:0.5625 15:0.5 
-0.3545309121516866 1:0.5625 2:0.0 3:0.125 4:0.375 5:0.3125 6:0.125 7:0.125 8:0.1875 9:0.25 10:0.8125 11:0.8125 12:0.9375 13:0.9375 14:0.75 15:0.6875 
0.10890671380079484 1:0.8125 2:0.4375 3:0.6875 4:0.3125 5:0.625 6:0.3125 7:0.4375 8:0.0 9:0.1875 10:0.75 11:0.5625 12:0.75 13:0.25 14:0.1875 15:0.5625 
0.054978536234091886 1:0.3125 2:0.0625 3:0.0 4:0.5 5:0.0625 6:0.125 7:0.375 8:0.5 9:0.3125 10:0.375 11:0.5 12:0.6875 13:0.8125 14:0.625 15:0.3125 
-0.1433002662761345 1:0.375 2:0.0 3:0.0 4:0.25 5:0.0625 6:0.375 7:0.0625 8:0.5 9:0.5 10:0.625 11:0.6875 12:0.5625 13:0.5 14:0.875 15:0.5 
1.0 1:0.5 2:0.625 3:0.4375 4:0.5 5:0.1875 6:0.875 7:0.8125 8:0.8125 9:0.5625 10:0.5 11:0.375 12:0.375 13:0.375 14:0.25 15:0.0625 
0.5551656917063537 1:0.5 2:0.125 3:0.25 4:0.5 5:0.75 6:0.0625 7:0.25 8:0.375 9:0.3125 10:0.5 11:0.8125 12:0.8125 13:0.5625 14:0.625 15:0.875 
-0.6416015479815711 1:0.875 2:0.625 3:0.625 4:0.4375 5:0.625 6:0.5 7:0.125 8:0.125 9:0.0 10:0.5 11:0.3125 12:0.125 13:0.5 14:0.4375 15:0.1875 
-0.22297047510844126 1:0.5 2:1.0 3:0.75 4:0.8125 5:0.3125 6:0.5 7:0.5 8:0.6875 9:0.375 10:0.5625 11:0.5625 12:0.1875 13:0.875 14:0.25 15:0.125 
-0.1687761442821422 1:0.1875 2:0.0625 3:0.375 4:0.6875 5:0.125 6:0.375 7:0.875 8:0.9375 9:0.4375 10:1.0 11:0.75 12:0.5 13:0.8125 14:0.125 15:0.125 
-1.0 1:0.75 2:0.625 3:0.625 4:0.6875 5:0.875 6:0.25 7:0.1875 8:0.5625 9:0.1875 10:0.5 11:0.6875 12:0.3125 13:0.625 14:0.25 15:0.375 
0.16316998190483692 1:0.4375 2:0.3125 3:1.0 4:0.4375 5:0.1875 6:0.25 7:0.875 8:0.9375 9:0.1875 10:0.875 11:0.75 12:0.5625 13:0.1875 14:0.0 15:0.1875 
-0.424023691595911 1:0.875 2:0.6875 3:0.9375 4:0.8125 5:0.625 6:0.1875 7:0.9375 8:0.25 9:0.5 10:0.8125 11:0.8125 12:0.5625 13:0.125 14:0.3125 15:0.5625 
0.3730211072878166 1:0.0625 2:0.3125 3:0.5 4:0.6875 5:0.1875 6:0.5625 7:0.5 8:0.5625 9:0.4375 10:0.625 11:0.8125 12:0.625 13:0.75 14:0.375 15:0.25 
1.0 1:0.75 2:0.9375 3:0.8125 4:0.6875 5:0.9375 6:0.75 7:0.875 8:0.8125 9:0.625 10:0.0625 11:0.0625 12:0.4375 13:0.4375 14:0.375 15:0.625 
-0.031047826834312002 1:0.375 2:0.625 3:0.25 4:0.875 5:0.6875 6:0.875 7:0.5 8:0.6875 9:0.6875 10:0.25 11:0.5625 12:0.9375 13:0.6875 14:0.6875 15:0.75 
0.8563079766482342 1:0.875 2:0.4375 3:0.6875 4:0.6875 5:0.5625 6:0.4375 7:0.125 8:0.6875 9:0.3125 10:0.5 11:0.75 12:0.75 13:0.9375 14:0.625 15:0.1875 
0.04281486548908542 1:0.5 2:0.4375 3:0.5 4:0.0625 5:0.1875 6:0.0 7:0.625 8:0.1875 9:0.0625 10:0.875 11:0.3125 12:0.5625 13:0.4375 14:0.0 15:0.5 
-0.10024398609030453 1:0.5 2:0.25 3:0.4375 4:0.625 5:0.4375 6:0.3125 7:0.5 8:0.5 9:0.3125 10:0.875 11:0.75 12:0.625 13:0.25 14:0.4375 15:0.0625 
-0.012926097790885598 1:0.375 2:0.5 3:0.5 4:0.5 5:0.5 6:0.9375 7:0.9375 8:1.0 9:0.5 10:0.5 11:0.75 12:0.125 13:0.875 14:0.3125 15:0.25 
-0.10038411999977578 1:1.0 2:0.9375 3:0.625 4:0.75 5:0.8125 6:0.375 7:0.4375 8:0.0625 9:0.375 10:0.625 11:0.0625 12:0.125 13:0.25 14:0.375 15:0.6875 
-0.007734862584441838 1:0.625 2:0.75 3:0.625 4:0.0 5:0.4375 6:0.5625 7:0.5 8:0.0625 9:0.5 10:0.875 11:0.1875 12:0.5 13:0.0625 14:0.25 15:0.75 
1.0 1:0.4375 2:0.5 3:0.6875 4:0.875 5:0.625 6:0.75 7:0.8125 8:0.75 9:0.6875 10:0.6875 11:0.5 12:0.5 13:0.0625 14:0.3125 15:0.8125 
-0.1675469001092754 1:0.125 2:0.5 3:0.5 4:0.125 5:0.0625 6:0.875 7:0.8125 8:0.5 9:0.3125 10:0.0 11:0.25 12:0.125 13:0.4375 14:0.4375 15:0.1875 
-0.5169027972293606 1:0.125 2:0.0625 3:0.0 4:0.25 5:0.4375 6:0.4375 7:0.5 8:0.9375 9:0.5625 10:0.625 11:0.875 12:0.6875 13:0.5 14:0.3125 15:0.25 
-1.0 1:0.5 2:0.5625 3:0.75 4:0.6875 5:0.375 6:0.4375 7:0.5 8:0.75 9:0.5 10:0.6875 11:0.5625 12:0.375 13:0.3125 14:0.3125 15:0.5 
0.0780850355481786 1:0.0 2:0.3125 3:0.4375 4:0.3125 5:0.125 6:0.25 7:0.875 8:0.75 9:0.4375 10:1.0 11:0.8125 12:0.8125 13:0.5 14:0.1875 15:0.3125 
-0.13847957226703514 1:0.1875 2:0.375 3:0.375 4:0.5 5:0.125 6:0.75 7:0.75 8:0.9375 9:0.5 10:0.5625 11:0.625 12:0.5 13:0.1875 14:0.4375 15:0.5 
0.6797827791743182 1:0.1875 2:0.25 3:0.1875 4:0.1875 5:0.25 6:0.5 7:0.25 8:0.6875 9:0.375 10:0.5 11:0.5625 12:0.4375 13:0.9375 14:0.625 15:0.1875 
-0.3861530111216735 1:0.4375 2:0.4375 3:0.4375 4:0.1875 5:0.375 6:0.5 7:0.625 8:0.4375 9:0.1875 10:0.5 11:0.5 12:0.25 13:0.5 14:0.375 15:0.5 
0.7896817763677322 1:0.6875 2:0.0625 3:0.5 4:0.4375 5:0.0 6:0.375 7:0.3125 8:0.4375 9:0.1875 10:0.6875 11:0.5625 12:0.0625 13:0.625 14:0.375 15:0.25 
1.0 1:0.3125 2:0.4375 3:0.375 4:0.25 5:0.0 6:0.8125 7:0.5625 8:0.8125 9:0.625 10:0.5 11:0.5 12:0.5625 13:0.375 14:0.375 15:0.625 
-0.20151985117390345 1:0.375 2:0.5 3:0.0 4:0.6875 5:0.25 6:0.8125 7:0.125 8:0.5 9:0.0 10:0.3125 11:0.5625 12:0.0625 13:0.8125 14:0.3125 15:0.1875 
-0.2967480625094433 1:0.875 2:0.5625 3:0.5 4:0.6875 5:0.8125 6:0.5625 7:0.1875 8:0.0 9:0.25 10:0.0625 11:0.5 12:0.375 13:0.8125 14:1.0 15:0.5 
0.07283623503122863 1:0.6875 2:0.5625 3:0.5 4:0.6875 5:0.5 6:0.3125 7:0.0 8:0.6875 9:0.375 10:0.4375 11:0.875 12:0.0 13:0.875 14:0.5 15:0.0625 
-0.4795123175976532 1:0.1875 2:0.3125 3:0.25 4:0.4375 5:0.0625 6:0.4375 7:0.375 8:0.25 9:0.5 10:0.625 11:0.5625 12:0.4375 13:0.375 14:0.5 15:0.5 
-0.41482269557040513 1:0.625 2:0.125 3:1.0 4:0.75 5:0.5 6:0.1875 7:0.9375 8:0.5625 9:0.0625 10:0.9375 11:0.625 12:0.375 13:0.3125 14:0.125 15:0.25 
-0.39010584778604196 1:0.8125 2:0.625 3:0.875 4:0.4375 5:0.625 6:0.625 7:0.625 8:0.3125 9:0.8125 10:0.5 11:0.3125 12:0.9375 13:0.125 14:0.5625 15:0.625 
-0.041781302889194905 1:0.1875 2:0.25 3:0.4375 4:0.0625 5:0.4375 6:0.3125 7:1.0 8:0.125 9:0.5625 10:0.8125 11:0.375 12:1.0 13:0.125 14:0.0625 15:1.0 
-0.8672482329157447 1:0.5 2:0.75 3:0.625 4:0.875 5:0.125 6:1.0 7:0.625 8:0.6875 9:0.0625 10:0.375 11:0.5625 12:0.0 13:0.4375 14:0.0 15:0.1875 
0.9447564077099313 1:0.1875 2:0.5625 3:0.625 4:0.5625 5:0.3125 6:0.5625 7:0.625 8:0.625 9:0.0625 10:0.5 11:0.4375 12:0.375 13:0.4375 14:0.1875 15:0.1875 
0.18987599575066094 1:0.4375 2:0.3125 3:0.8125 4:0.9375 5:0.6875 6:0.875 7:1.0 8:1.0 9:0.625 10:0.9375 11:0.875 12:0.6875 13:0.625 14:0.0 15:0.25 
0.7312397420244896 1:0.4375 2:0.5 3:0.8125 4:0.0625 5:0.625 6:0.1875 7:0.875 8:0.3125 9:0.75 10:0.875 11:0.5 12:0.5625 13:0.3125 14:0.375 15:0.8125 
-0.24629915049258486 1:0.125 2:0.5 3:0.375 4:0.3125 5:0.5 6:0.8125 7:1.0 8:0.6875 9:0.9375 10:0.5 11:0.4375 12:0.0 13:0.25 14:0.125 15:0.5 
0.8080905459380927 1:0.0625 2:0.0 3:0.25 4:0.4375 5:0.625 6:0.5 7:0.625 8:0.5 9:0.75 10:0.3125 11:0.4375 12:0.5625 13:0.5625 14:0.875 15:0.5625 
0.19971639713256728 1:0.3125 2:1.0 3:0.625 4:0.5 5:0.5625 6:0.75 7:0.5625 8:0.5 9:0.375 10:0.5625 11:0.1875 12:0.0 13:0.4375 14:0.125 15:0.4375 
-1.0 1:0.75 2:0.75 3:0.875 4:0.5625 5:0.9375 6:0.4375 7:0.125 8:0.3125 9:0.75 10:0.3125 11:0.4375 12:0.75 13:0.8125 14:0.75 15:0.625 
0.16240306299169868 1:0.25 2:0.375 3:0.125 4:0.375 5:0.5 6:0.4375 7:0.0625 8:0.4375 9:0.5625 10:0.0 11:0.0 12:0.8125 13:0.75 14:0.875 15:0.75 
0.6543182555177722 1:0.125 2:0.25 3:0.5 4:0.0625 5:0.9375 6:0.25 7:0.6875 8:0.4375 9:0.9375 10:0.9375 11:0.625 12:0.9375 13:0.125 14:0.6875 15:0.875 
0.5744540331415472 1:0.5625 2:0.375 3:0.5 4:0.5 5:0.375 6:0.4375 7:0.5 8:0.4375 9:0.3125 10:0.5625 11:0.875 12:0.375 13:0.6875 14:0.25 15:0.5 
-0.2774515673362867 1:0.4375 2:0.875 3:0.6875 4:0.75 5:0.5 6:0.5625 7:0.875 8:1.0 9:0.9375 10:0.75 11:0.6875 12:0.75 13:0.5 14:0.4375 15:0.5 
-0.2161627825342357 1:0.625 2:0.9375 3:0.9375 4:0.75 5:0.3125 6:0.6875 7:0.9375 8:0.5 9:0.5 10:0.6875 11:0.1875 12:0.0 13:0.0625 14:0.0 15:0.5 
0.21211764702434877 1:0.25 2:0.125 3:0.25 4:0.0 5:0.0 6:0.0625 7:0.5625 8:0.375 9:0.5 10:0.875 11:0.5 12:0.875 13:0.5625 14:0.6875 15:0.625 
-0.7384022208108154 1:0.5625 2:0.125 3:0.1875 4:0.3125 5:1.0 6:0.0625 7:0.25 8:0.0 9:0.6875 10:0.5 11:0.1875 12:0.9375 13:0.5 14:0.75 15:0.8125 
-1.0 1:0.1875 2:0.3125 3:0.4375 4:0.5 5:0.5625 6:0.125 7:0.3125 8:0.4375 9:0.4375 10:0.5 11:0.75 12:0.625 13:0.625 14:0.5625 15:0.4375 
-0.13811005225644057 1:0.0625 2:0.5 3:0.625 4:0.9375 5:0.375 6:0.8125 7:0.8125 8:0.875 9:0.25 10:0.75 11:0.9375 12:0.375 13:0.625 14:0.125 15:0.0625 
-1.0 1:0.0 2:0.4375 3:0.375 4:0.25 5:0.3125 6:0.9375 7:0.625 8:0.75 9:0.9375 10:0.625 11:0.75 12:0.5625 13:0.5625 14:0.8125 15:0.5 
0.28886661404498376 1:0.1875 2:0.25 3:0.3125 4:0.6875 5:0.5625 6:0.5 7:0.5625 8:1.0 9:0.625 10:0.75 11:1.0 12:0.9375 13:0.5 14:0.5 15:0.0 
0.3515055955658366 1:0.75 2:0.625 3:0.625 4:0.9375 5:0.375 6:0.25 7:0.5625 8:0.5625 9:0.25 10:1.0 11:0.5 12:0.5 13:0.625 14:0.0625 15:0.1875 
0.5526782189369374 1:0.625 2:0.4375 3:0.5625 4:1.0 5:0.6875 6:0.0625 7:0.4375 8:0.9375 9:0.5625 10:0.5 11:0.75 12:0.5 13:0.8125 14:0.5 15:0.0 
0.14105669890055464 1:0.5 2:0.125 3:0.0 4:0.375 5:0.625 6:0.0 7:0.125 8:0.375 9:0.875 10:0.625 11:0.9375 12:1.0 13:0.5 14:0.9375 15:1.0 
0.03658202397794508 1:1.0 2:0.9375 3:0.8125 4:0.9375 5:0.625 6:0.5 7:0.5625 8:1.0 9:0.25 10:0.75 11:0.5 12:0.3125 13:0.4375 14:0.4375 15:0.3125 
-0.5743924449541663 1:0.0 2:0.375 3:0.125 4:0.125 5:0.3125 6:0.75 7:0.5 8:0.625 9:0.5 10:0.5625 11:0.6875 12:0.4375 13:0.6875 14:0.5 15:0.0 
-0.7839227718138202 1:0.4375 2:0.25 3:0.3125 4:0.125 5:0.5 6:0.125 7:0.125 8:0.5 9:0.125 10:0.5625 11:0.5625 12:0.5 13:0.625 14:0.5 15:0.5 
0.19535064047797882 1:0.9375 2:0.5 3:0.875 4:0.8125 5:0.9375 6:0.375 7:0.625 8:0.5 9:0.9375 10:0.625 11:0.5 12:0.9375 13:0.0 14:0.5 15:0.875 
-1.0 1:0.3125 2:0.75 3:0.875 4:0.875 5:0.5 6:0.625 7:1.0 8:0.8125 9:0.5 10:0.8125 11:0.8125 12:0.5 13:0.875 14:0.3125 15:0.25 
-0.008453711046641216 1:0.9375 2:1.0 3:0.625 4:0.375 5:1.0 6:0.3125 7:0.4375 8:0.0625 9:0.6875 10:0.375 11:0.0625 12:0.8125 13:0.0 14:1.0 15:0.8125 
0.6604011764774705 1:0.75 2:0.625 3:0.6875 4:0.75 5:0.625 6:0.875 7:0.5 8:0.6875 9:0.75 10:0.375 11:0.5 12:0.75 13:0.6875 14:0.6875 15:0.5 
0.37819481268965605 1:0.1875 2:0.5 3:0.0625 4:0.4375 5:0.4375 6:0.5 7:0.3125 8:0.375 9:0.5 10:0.0625 11:0.1875 12:0.125 13:0.5 14:0.5 15:0.6875 
0.710378676384768 1:0.625 2:0.8125 3:0.5625 4:0.75 5:0.9375 6:0.5625 7:0.1875 8:0.3125 9:0.5 10:0.25 11:0.25 12:0.0 13:0.75 14:0.9375 15:0.5 
0.5418412668128985 1:0.0 2:0.4375 3:0.25 4:0.3125 5:0.5 6:0.5625 7:0.625 8:1.0 9:0.875 10:0.5625 11:0.6875 12:0.625 13:0.4375 14:0.5 15:0.5625 
-0.5014887496104354 1:0.625 2:0.8125 3:0.875 4:0.5 5:0.75 6:0.3125 7:1.0 8:0.3125 9:0.8125 10:0.875 11:0.0625 12:0.5 13:0.0625 14:0.375 15:1.0 
-0.059011699135516 1:0.3125 2:0.3125 3:0.4375 4:0.1875 5:0.3125 6:0.625 7:0.5 8:0.0 9:0.0625 10:0.5 11:0.25 12:0.125 13:0.25 14:0.0 15:0.6875 
-0.9262818605751102 1:0.0 2:0.1875 3:0.625 4:0.3125 5:0.3125 6:0.375 7:1.0 8:0.5 9:0.75 10:0.75 11:0.75 12:0.75 13:0.1875 14:0.5 15:0.4375 
0.9536969130304092 1:0.5 2:0.9375 3:0.8125 4:0.75 5:0.8125 6:0.9375 7:0.625 8:0.625 9:0.6875 10:0.5 11:0.6875 12:0.375 13:0.6875 14:0.0625 15:0.375 
-1.0 1:0.4375 2:0.125 3:0.5 4:0.3125 5:0.5625 6:0.5 7:0.75 8:0.0 9:0.6875 10:0.625 11:0.4375 12:0.6875 13:0.3125 14:0.1875 15:1.0 
-0.016989141184758333 1:0.75 2:0.5625 3:0.5 4:0.75 5:0.4375 6:0.0625 7:0.0 8:0.5 9:0.0 10:0.6875 11:0.6875 12:0.875 13:0.625 14:0.5 15:0.375 
0.6682080684111019 1:0.4375 2:0.1875 3:0.3125 4:0.4375 5:0.5625 6:0.5625 7:0.4375 8:0.75 9:0.8125 10:0.625 11:0.5625 12:0.5625 13:0.625 14:0.625 15:0.5625 
1.0 1:0.5 2:0.9375 3:0.5 4:0.75 5:0.625 6:0.5 7:0.3125 8:0.375 9:0.5625 10:0.3125 11:0.625 12:0.5 13:0.8125 14:0.6875 15:0.5 
0.06660855872785224 1:0.0625 2:0.5 3:0.125 4:0.5625 5:0.5625 6:0.375 7:0.375 8:0.5625 9:0.625 10:0.4375 11:1.0 12:0.875 13:0.9375 14:0.9375 15:0.25 
0.5295549380427935 1:0.75 2:0.6875 3:0.6875 4:0.6875 5:0.1875 6:0.25 7:0.5 8:0.5625 9:0.0 10:0.6875 11:0.625 12:0.1875 13:0.25 14:0.125 15:0.0 
-0.34046894223835594 1:0.6875 2:0.9375 3:0.75 4:1.0 5:0.5625 6:0.9375 7:0.5 8:0.75 9:0.875 10:0.1875 11:0.8125 12:0.5 13:0.9375 14:0.5 15:0.25 
-0.6661898069701705 1:0.5 2:0.375 3:0.5 4:0.625 5:1.0 6:0.5 7:0.5 8:0.5625 9:0.6875 10:0.75 11:0.625 12:0.625 13:0.4375 14:0.5 15:0.9375 
-0.28029547256335746 1:0.8125 2:0.4375 3:0.5625 4:0.1875 5:0.75 6:0.25 7:0.4375 8:0.25 9:0.1875 10:1.0 11:0.4375 12:0.625 13:0.0 14:0.6875 15:0.75 
0.1862413550556149 1:0.9375 2:0.5625 3:0.0625 4:0.4375 5:0.375 6:0.5 7:0.3125 8:0.1875 9:0.375 10:0.1875 11:0.25 12:0.125 13:0.5 14:0.75 15:0.4375 
-0.41659346432996597 1:0.0 2:0.5 3:0.5 4:0.25 5:0.0 6:0.6875 7:1.0 8:0.25 9:0.1875 10:0.3125 11:0.0 12:0.1875 13:0.1875 14:0.375 15:0.5625 
0.7033737760024501 1:0.5 2:0.8125 3:0.4375 4:0.5625 5:0.0625 6:0.5 7:0.4375 8:0.8125 9:0.3125 10:0.3125 11:0.4375 12:0.125 13:0.5 14:0.3125 15:0.4375 
-1.0 1:0.5 2:0.6875 3:0.75 4:0.8125 5:0.9375 6:0.75 7:1.0 8:0.6875 9:0.9375 10:0.9375 11:0.8125 12:0.6875 13:0.125 14:0.5 15:0.6875 
0.43071462211224676 1:0.8125 2:0.5625 3:0.5 4:0.375 5:0.4375 6:0.375 7:0.375 8:0.0 9:0.25 10:0.75 11:0.4375 12:0.25 13:0.1875 14:0.25 15:0.1875 
-1.0 1:0.4375 2:0.4375 3:0.3125 4:0.25 5:0.0 6:0.625 7:0.5625 8:0.5625 9:0.3125 10:0.4375 11:0.375 12:0.5 13:0.4375 14:0.25 15:0.0 
-0.042020135579369615 1:0.375 2:0.1875 3:0.625 4:0.0 5:0.375 6:0.4375 7:0.5 8:0.0 9:0.0625 10:0.625 11:0.0 12:0.0625 13:0.0625 14:0.0625 15:0.5 
-1.0 1:0.75 2:0.875 3:0.875 4:0.875 5:0.9375 6:0.5625 7:0.5625 8:0.5625 9:0.5 10:0.5 11:0.375 12:0.375 13:0.625 14:0.5 15:0.875 
-0.2055489310911991 1:0.125 2:0.625 3:0.5 4:0.3125 5:0.125 6:1.0 7:0.5625 8:1.0 9:0.6875 10:0.125 11:0.5 12:0.0 13:0.5 14:0.5 15:0.25 
-0.028986796128385544 1:0.875 2:0.75 3:0.625 4:0.875 5:0.5625 6:0.1875 7:0.125 8:0.25 9:0.3125 10:0.3125 11:0.5 12:0.5 13:0.5 14:1.0 15:0.75 
-0.30542130446642246 1:0.5625 2:1.0 3:0.0625 4:0.1875 5:0.4375 6:0.5625 7:0.1875 8:0.5 9:0.0 10:0.0625 11:0.375 12:0.25 13:0.625 14:0.6875 15:0.5 
-0.019097195916027918 1:0.4375 2:0.375 3:0.25 4:0.125 5:0.5 6:0.125 7:0.8125 8:0.0625 9:0.875 10:0.8125 11:0.4375 12:0.875 13:0.1875 14:0.5 15:1.0 
-0.37461767175982275 1:0.9375 2:0.5 3:0.1875 4:0.6875 5:0.5625 6:0.125 7:0.0625 8:0.375 9:0.0625 10:0.125 11:0.3125 12:0.375 13:0.625 14:0.6875 15:0.3125 
0.029019832426632856 1:0.5625 2:0.4375 3:0.0625 4:0.5 5:0.3125 6:0.5 7:0.375 8:1.0 9:0.25 10:0.375 11:0.75 12:0.4375 13:0.6875 14:0.5 15:0.125 
-0.635501711019756 1:0.25 2:0.8125 3:0.6875 4:0.5 5:0.0625 6:0.9375 7:0.5 8:0.375 9:0.1875 10:0.5 11:0.25 12:0.0625 13:0.1875 14:0.1875 15:0.375 
-0.15361444796235965 1:0.5 2:0.75 3:0.5 4:0.4375 5:0.5 6:0.875 7:0.875 8:0.625 9:0.5625 10:0.625 11:0.1875 12:0.3125 13:0.4375 14:0.125 15:0.5 
0.004157924684345469 1:0.25 2:0.1875 3:0.1875 4:0.125 5:0.0 6:0.1875 7:0.6875 8:0.25 9:0.625 10:0.875 11:0.4375 12:0.5625 13:0.375 14:0.1875 15:0.625 
0.016788992785749215 1:0.375 2:0.0625 3:0.0625 4:0.0 5:0.4375 6:0.5 7:0.5 8:0.625 9:0.8125 10:0.1875 11:0.625 12:0.875 13:0.9375 14:1.0 15:0.5 
0.17587340421245956 1:0.75 2:0.5 3:0.9375 4:0.5625 5:0.1875 6:0.125 7:0.5 8:0.375 9:0.25 10:0.8125 11:0.9375 12:0.375 13:0.5 14:0.3125 15:0.0 
0.09167901474559702 1:0.0 2:0.375 3:0.0625 4:0.4375 5:0.5 6:1.0 7:0.75 8:0.75 9:0.8125 10:0.4375 11:0.5 12:0.0 13:0.75 14:0.625 15:0.3125 
-0.44316972986703274 1:0.0625 2:0.0 3:0.25 4:0.4375 5:0.0625 6:0.4375 7:0.6875 8:0.875 9:0.625 10:0.4375 11:0.75 12:0.5625 13:0.6875 14:0.1875 15:0.0 
-0.38978693700936334 1:0.375 2:0.5 3:0.625 4:0.875 5:0.5 6:0.25 7:0.875 8:0.875 9:0.875 10:0.8125 11:0.6875 12:1.0 13:0.4375 14:0.5 15:0.5 
-0.1867605814272698 1:0.125 2:0.3125 3:0.5 4:0.5 5:0.5 6:0.5 7:0.5625 8:0.5625 9:0.4375 10:0.5 11:0.875 12:0.5 13:0.375 14:0.5 15:0.4375 
-0.5081977838585138 1:0.5625 2:0.75 3:0.4375 4:0.5 5:0.875 6:0.625 7:0.25 8:0.6875 9:0.5 10:0.375 11:0.5 12:0.8125 13:0.75 14:0.6875 15:0.5 
-0.35489410243702424 1:1.0 2:0.625 3:0.75 4:0.6875 5:0.8125 6:0.5 7:0.5625 8:0.5 9:0.5625 10:0.0625 11:0.4375 12:0.5 13:0.4375 14:0.6875 15:0.8125 
0.5013506925132043 1:0.0 2:0.5 3:0.4375 4:0.25 5:0.0 6:0.625 7:0.875 8:0.1875 9:0.3125 10:0.3125 11:0.375 12:0.25 13:0.3125 14:0.1875 15:0.3125 
-1.0 1:0.5 2:0.4375 3:0.25 4:0.25 5:0.4375 6:0.5625 7:0.3125 8:0.5 9:0.5 10:0.0 11:0.375 12:0.4375 13:0.9375 14:0.5 15:0.625 
-0.10647253367470383 1:0.9375 2:0.8125 3:0.5 4:0.5625 5:0.5 6:0.5 7:0.125 8:0.0625 9:0.4375 10:0.5 11:0.1875 12:0.3125 13:0.5 14:0.25 15:0.6875 
-0.028030161016811463 1:0.5625 2:0.3125 3:0.9375 4:0.5 5:0.125 6:0.3125 7:0.5625 8:0.4375 9:0.0625 10:0.6875 11:0.5 12:0.3125 13:0.5 14:0.0 15:0.125 
0.6838468259389677 1:0.625 2:0.6875 3:0.5 4:0.3125 5:0.3125 6:0.5 7:0.1875 8:0.25 9:0.0 10:0.375 11:0.0625 12:0.1875 13:0.25 14:0.3125 15:0.8125 
0.13824679532964873 1:0.6875 2:0.625 3:0.625 4:0.3125 5:0.5 6:0.5 7:0.4375 8:0.3125 9:0.5 10:0.0 11:0.0625 12:0.3125 13:0.5 14:0.4375 15:0.5 
-0.13183103776922597 1:0.0 2:0.375 3:0.5 4:0.0625 5:0.0625 6:0.6875 7:0.6875 8:0.375 9:0.0625 10:0.5625 11:0.5625 12:0.1875 13:0.1875 14:0.0625 15:0.125 
1.0 1:0.25 2:0.3125 3:0.0625 4:0.4375 5:0.125 6:0.1875 7:0.5 8:0.4375 9:0.5 10:0.75 11:0.875 12:0.4375 13:0.5 14:0.4375 15:0.5 
0.4500470599628247 1:0.5 2:0.5 3:0.5 4:0.4375 5:0.75 6:0.4375 7:0.5 8:0.5 9:0.875 10:0.5625 11:0.1875 12:0.6875 13:0.5 14:0.5625 15:0.6875 
-0.5222660689718504 1:0.5 2:1.0 3:0.3125 4:0.4375 5:0.5 6:0.5 7:0.375 8:0.0625 9:0.125 10:0.25 11:0.3125 12:0.4375 13:0.6875 14:0.5625 15:0.75 
0.0390489696301934 1:0.5 2:0.3125 3:0.875 4:0.5 5:0.6875 6:0.1875 7:0.75 8:0.4375 9:0.625 10:0.75 11:0.9375 12:0.8125 13:0.0625 14:0.6875 15:0.6875 
-0.383895462698901 1:0.0625 2:0.1875 3:0.25 4:0.125 5:0.0 6:0.125 7:0.375 8:0.375 9:0.25 10:0.625 11:0.5 12:0.125 13:0.5 14:0.125 15:0.375 
-0.20145197902672785 1:0.1875 2:0.25 3:0.375 4:0.5 5:0.4375 6:0.8125 7:0.875 8:0.625 9:0.6875 10:0.5 11:0.75 12:0.25 13:0.6875 14:0.25 15:0.0625 
0.21356153941542086 1:0.0 2:0.625 3:0.125 4:0.0 5:0.25 6:0.75 7:0.5625 8:0.4375 9:0.6875 10:0.375 11:0.25 12:0.5625 13:0.3125 14:0.875 15:0.9375 
0.3368557001900072 1:1.0 2:0.6875 3:0.6875 4:0.4375 5:1.0 6:0.375 7:0.0 8:0.1875 9:0.25 10:0.5625 11:0.25 12:0.875 13:0.0 14:0.625 15:0.625 
-0.035126385568094706 1:0.9375 2:0.0 3:0.0625 4:0.625 5:0.5625 6:0.125 7:0.0 8:0.25 9:0.125 10:0.25 11:0.8125 12:0.5 13:0.8125 14:0.75 15:0.3125 
0.7509676287953725 1:0.5 2:0.75 3:0.6875 4:1.0 5:0.75 6:0.3125 7:1.0 8:0.75 9:1.0 10:0.6875 11:0.8125 12:0.8125 13:0.4375 14:0.5 15:0.6875 
0.47356170294271815 1:0.5625 2:0.1875 3:0.5625 4:0.5 5:0.75 6:0.0625 7:0.4375 8:0.1875 9:0.4375 10:1.0 11:0.4375 12:1.0 13:0.5 14:0.75 15:0.875 
-0.0444125306612951 1:0.625 2:1.0 3:0.8125 4:1.0 5:0.9375 6:0.625 7:0.9375 8:0.75 9:0.875 10:0.75 11:0.625 12:0.75 13:0.75 14:0.4375 15:0.125 
0.14379026347588122 1:0.5 2:0.0 3:0.125 4:0.0625 5:0.125 6:0.25 7:0.125 8:0.375 9:0.5625 10:0.75 11:0.75 12:1.0 13:0.5 14:0.5 15:0.5 
0.3002265266018659 1:0.875 2:0.75 3:0.5625 4:0.8125 5:1.0 6:0.0 7:0.125 8:0.4375 9:0.3125 10:0.6875 11:0.875 12:0.9375 13:0.875 14:0.75 15:0.25 
-0.46390588862533416 1:1.0 2:0.375 3:0.75 4:0.875 5:1.0 6:0.125 7:0.5 8:0.0 9:0.375 10:0.625 11:0.5625 12:1.0 13:0.3125 14:0.375 15:0.5625 
0.16267554269144313 1:0.5625 2:0.3125 3:0.5 4:0.75 5:0.3125 6:0.0 7:0.4375 8:0.5625 9:0.0625 10:0.5625 11:0.5625 12:0.5 13:0.75 14:0.5 15:0.25 
0.46622559210765724 1:0.875 2:0.125 3:0.625 4:0.625 5:0.75 6:0.0625 7:0.125 8:0.1875 9:0.1875 10:0.625 11:1.0 12:0.8125 13:0.5 14:0.6875 15:0.875 
0.29455577375707714 1:0.25 2:0.5 3:0.1875 4:0.3125 5:0.875 6:1.0 7:0.5625 8:0.5 9:1.0 10:0.4375 11:0.0 12:0.75 13:0.125 14:0.8125 15:0.875 
-1.0 1:0.5 2:0.4375 3:0.5 4:0.625 5:0.5625 6:0.625 7:0.5 8:0.625 9:0.5625 10:0.6875 11:0.6875 12:0.8125 13:0.5625 14:0.25 15:0.4375 
0.3009434439825285 1:0.125 2:0.1875 3:0.25 4:0.25 5:0.1875 6:0.9375 7:0.75 8:0.5 9:0.8125 10:0.5625 11:0.6875 12:0.625 13:0.3125 14:0.5 15:0.5 
0.2257888039221824 1:0.375 2:0.0625 3:0.5625 4:0.1875 5:0.0625 6:0.3125 7:0.5 8:0.0625 9:0.0625 10:0.75 11:0.8125 12:0.5625 13:0.1875 14:0.0 15:0.625 
0.08941979846932425 1:0.5 2:0.1875 3:0.25 4:0.5625 5:0.0625 6:0.25 7:0.25 8:0.8125 9:0.1875 10:0.3125 11:0.75 12:0.5 13:0.6875 14:0.375 15:0.0625 
0.2872808062296933 1:0.5625 2:0.5 3:0.5625 4:0.25 5:0.0625 6:0.4375 7:0.4375 8:0.0625 9:0.125 10:0.0625 11:0.375 12:0.1875 13:0.125 14:0.3125 15:0.375 
-0.45125362093421295 1:0.625 2:0.5625 3:0.625 4:0.5 5:0.6875 6:0.9375 7:0.5625 8:0.125 9:0.8125 10:0.3125 11:0.125 12:0.5625 13:0.1875 14:0.625 15:0.625 
0.5573349947492723 1:0.75 2:0.75 3:0.875 4:0.9375 5:0.25 6:0.6875 7:0.625 8:0.5 9:0.3125 10:0.5625 11:0.0625 12:0.0 13:0.3125 14:0.0625 15:0.3125 
0.8353115858978447 1:0.625 2:0.4375 3:0.4375 4:0.0625 5:0.25 6:0.375 7:0.0625 8:0.0 9:0.4375 10:0.1875 11:0.0 12:0.3125 13:0.5625 14:0.5 15:0.75 
0.17282606200503026 1:0.9375 2:0.875 3:0.5625 4:0.875 5:0.1875 6:0.4375 7:0.3125 8:0.5625 9:0.125 10:0.5625 11:0.5 12:0.1875 13:0.625 14:0.375 15:0.0625 
0.6037295939018585 1:0.9375 2:0.8125 3:0.9375 4:0.5 5:0.9375 6:0.4375 7:0.375 8:0.4375 9:1.0 10:0.4375 11:0.5 12:0.625 13:0.4375 14:0.625 15:0.75 
-0.37614837647608423 1:0.4375 2:0.4375 3:0.5 4:0.0 5:0.375 6:0.625 7:0.6875 8:0.5625 9:1.0 10:0.625 11:0.0 12:0.4375 13:0.4375 14:0.4375 15:0.625 
-0.6111459006163388 1:0.4375 2:0.5 3:0.5 4:0.5 5:0.5 6:0.875 7:0.9375 8:0.6875 9:0.875 10:0.4375 11:0.4375 12:0.25 13:0.125 14:0.4375 15:0.3125 
0.17215889689428748 1:0.1875 2:0.4375 3:0.25 4:0.4375 5:0.125 6:0.8125 7:0.8125 8:0.625 9:0.625 10:0.5625 11:0.1875 12:0.25 13:0.375 14:0.4375 15:0.125 
0.20316867603589064 1:0.625 2:0.625 3:0.0625 4:0.1875 5:0.0625 6:0.4375 7:0.25 8:0.3125 9:0.125 10:0.125 11:0.375 12:0.375 13:0.75 14:0.8125 15:0.5 
0.2689606658060036 1:0.5 2:0.875 3:0.9375 4:0.9375 5:1.0 6:0.9375 7:0.875 8:0.875 9:0.5625 10:0.1875 11:0.25 12:0.25 13:0.625 14:0.4375 15:0.375 
-0.37643372424721516 1:0.8125 2:0.5 3:0.1875 4:0.4375 5:0.375 6:0.5 7:0.3125 8:0.1875 9:0.5 10:0.1875 11:0.0625 12:0.0 13:0.5625 14:0.875 15:0.625 
-0.015734946595731547 1:0.5 2:0.9375 3:0.9375 4:0.6875 5:0.6875 6:0.75 7:0.75 8:0.4375 9:0.8125 10:0.25 11:0.25 12:0.0 13:0.125 14:0.5 15:0.5 
0.12695048048426108 1:0.375 2:0.75 3:1.0 4:0.375 5:0.8125 6:0.875 7:0.875 8:0.5 9:0.8125 10:0.5 11:0.5 12:0.8125 13:0.0625 14:0.6875 15:0.6875 
0.02394151019415691 1:0.4375 2:0.9375 3:0.5 4:0.5 5:0.875 6:1.0 7:0.8125 8:0.4375 9:1.0 10:0.3125 11:0.4375 12:0.625 13:0.1875 14:0.875 15:0.6875 
-0.4749858152121189 1:0.125 2:0.5625 3:0.4375 4:0.4375 5:0.6875 6:0.75 7:0.75 8:0.625 9:0.8125 10:0.5625 11:0.1875 12:0.5 13:0.25 14:0.8125 15:0.6875 
0.06316363707826159 1:0.875 2:0.75 3:0.3125 4:0.625 5:0.0625 6:0.8125 7:0.4375 8:0.5 9:0.25 10:0.125 11:0.0625 12:0.125 13:0.5625 14:0.375 15:0.0625 
1.0 1:0.8125 2:0.6875 3:0.5 4:0.125 5:0.5 6:0.3125 7:0.1875 8:0.375 9:0.25 10:0.4375 11:0.1875 12:0.1875 13:0.375 14:0.375 15:0.625 
-0.1815828140323266 1:0.6875 2:0.75 3:0.8125 4:0.75 5:0.75 6:0.5 7:0.625 8:0.375 9:0.3125 10:0.375 11:0.25 12:0.5 13:0.0 14:0.375 15:0.625 
-0.2466473435505914 1:0.3125 2:0.3125 3:0.125 4:0.4375 5:0.125 6:0.125 7:0.125 8:0.4375 9:0.3125 10:0.0 11:0.5 12:0.375 13:0.875 14:0.5 15:0.0 
-1.0 1:0.5 2:0.625 3:0.875 4:0.5 5:0.75 6:0.4375 7:0.4375 8:0.0 9:0.4375 10:0.25 11:0.125 12:0.5 13:0.375 14:0.625 15:0.9375 
0.30825974842446835 1:0.4375 2:0.5 3:0.125 4:0.6875 5:0.375 6:0.5 7:0.125 8:0.375 9:0.4375 10:0.3125 11:0.4375 12:0.4375 13:1.0 14:0.5 15:0.3125 
-0.19116928378102643 1:0.1875 2:0.0 3:0.125 4:0.0625 5:0.3125 6:0.6875 7:1.0 8:0.75 9:0.75 10:0.75 11:0.5625 12:0.5 13:0.4375 14:0.5 15:0.75 
-0.6781319999529545 1:0.4375 2:0.1875 3:0.0 4:0.0625 5:0.375 6:0.4375 7:0.25 8:0.75 9:0.4375 10:0.0625 11:0.5625 12:0.6875 13:0.6875 14:0.8125 15:0.5 
-0.12960722231619293 1:0.4375 2:1.0 3:0.5625 4:0.75 5:0.5 6:0.875 7:0.6875 8:0.8125 9:0.9375 10:0.375 11:0.25 12:0.5 13:0.375 14:0.5 15:0.5 
-0.6333514821696992 1:0.75 2:0.5 3:0.5625 4:0.5 5:0.375 6:0.0 7:0.375 8:0.0625 9:0.25 10:0.375 11:0.375 12:0.4375 13:0.4375 14:0.25 15:0.8125 
0.14628217418040165 1:0.0 2:0.3125 3:0.0 4:0.0625 5:0.25 6:0.5 7:0.3125 8:0.4375 9:0.0 10:0.5 11:0.5 12:0.5 13:0.5 14:0.25 15:0.5 
-0.20318895269482148 1:0.875 2:0.5625 3:0.875 4:0.875 5:1.0 6:0.4375 7:0.75 8:0.5625 9:0.5 10:0.75 11:0.5 12:0.5625 13:0.25 14:0.375 15:0.25 
-0.008769456492973487 1:0.375 2:0.25 3:0.5 4:0.0 5:0.25 6:0.5 7:0.5 8:0.5 9:0.4375 10:0.8125 11:0.25 12:0.5625 13:0.3125 14:0.5625 15:1.0 
-0.04380558241189976 1:0.0 2:0.625 3:0.6875 4:0.5625 5:0.5 6:0.875 7:0.875 8:0.875 9:0.75 10:1.0 11:0.8125 12:0.625 13:0.4375 14:0.0 15:0.25 
-0.31087412005123666 1:0.8125 2:0.75 3:0.9375 4:0.25 5:0.25 6:0.5 7:0.5 8:0.3125 9:0.0625 10:0.625 11:0.4375 12:0.1875 13:0.375 14:0.125 15:0.3125 
-0.07230301094725751 1:0.3125 2:0.25 3:0.0625 4:0.5 5:0.5 6:0.125 7:0.3125 8:0.3125 9:0.8125 10:0.8125 11:0.5625 12:0.8125 13:0.5 14:1.0 15:0.875 
0.3019318712782456 1:0.3125 2:0.375 3:0.5 4:0.125 5:0.5625 6:0.9375 7:0.75 8:0.4375 9:1.0 10:0.6875 11:0.0 12:0.4375 13:0.375 14:0.3125 15:0.625 
-0.23266394380740074 1:0.3125 2:0.125 3:0.8125 4:0.625 5:0.375 6:0.4375 7:0.625 8:0.625 9:0.6875 10:1.0 11:0.9375 12:0.5 13:0.4375 14:0.0625 15:0.3125 
-0.37809155936234806 1:0.25 2:0.4375 3:0.25 4:0.5 5:0.0 6:0.5 7:0.5 8:0.5625 9:0.5 10:0.0 11:0.4375 12:0.4375 13:0.6875 14:0.5 15:0.5 
-0.1479649231557301 1:0.1875 2:0.3125 3:0.375 4:0.5 5:0.125 6:0.75 7:0.875 8:0.8125 9:0.8125 10:0.5 11:0.5 12:0.5 13:0.4375 14:0.5 15:0.3125 
-0.653720062502053 1:0.1875 2:0.0625 3:0.25 4:0.1875 5:0.5 6:0.5625 7:0.5 8:0.6875 9:0.5 10:0.5 11:0.4375 12:1.0 13:0.5 14:0.6875 15:0.5 
0.004689953340801588 1:0.1875 2:0.0 3:0.25 4:0.0 5:0.4375 6:0.5 7:0.5625 8:0.75 9:0.625 10:0.6875 11:0.625 12:0.9375 13:0.5625 14:0.625 15:0.875 
0.385632148494518 1:0.375 2:0.25 3:0.0 4:0.3125 5:0.5 6:0.125 7:0.3125 8:0.0 9:0.8125 10:0.5625 11:0.1875 12:0.8125 13:0.4375 14:0.5625 15:0.8125 
0.3532968649496279 1:0.375 2:0.5625 3:0.8125 4:0.5 5:0.8125 6:0.6875 7:0.5 8:0.875 9:0.9375 10:0.5625 11:0.5625 12:0.75 13:0.5 14:0.875 15:0.625 
-0.024723062601051858 1:0.5 2:0.125 3:0.5 4:0.9375 5:0.375 6:0.1875 7:0.1875 8:0.5625 9:0.0 10:0.8125 11:0.9375 12:0.625 13:0.5625 14:0.5625 15:0.1875 
-0.1684523341430959 1:0.5 2:0.9375 3:0.0 4:0.5625 5:0.1875 6:0.75 7:0.5 8:1.0 9:0.5 10:0.25 11:0.4375 12:0.25 13:1.0 14:0.5 15:0.4375 
0.32381640771541254 1:0.75 2:0.8125 3:0.5 4:0.5 5:0.875 6:0.375 7:0.375 8:0.125 9:0.5625 10:0.5 11:0.5 12:0.6875 13:0.9375 14:0.875 15:0.875 
-0.020949798046678923 1:0.8125 2:0.5 3:0.5 4:0.8125 5:0.5625 6:0.0 7:0.125 8:0.5625 9:0.3125 10:0.5 11:1.0 12:0.875 13:0.625 14:0.4375 15:0.3125 
-0.1784099029584097 1:0.9375 2:0.875 3:0.875 4:1.0 5:0.625 6:0.75 7:0.4375 8:0.4375 9:0.5 10:0.25 11:0.5 12:0.5 13:0.625 14:1.0 15:0.5 
0.32483957215953774 1:0.25 2:0.6875 3:0.625 4:0.3125 5:0.4375 6:0.625 7:1.0 8:0.5625 9:0.5625 10:0.125 11:0.375 12:0.125 13:0.5 14:0.4375 15:0.5 
-0.47837621506079225 1:0.5625 2:0.3125 3:0.625 4:0.5625 5:0.8125 6:0.125 7:0.5 8:0.375 9:0.875 10:0.5625 11:0.8125 12:0.9375 13:0.625 14:0.5 15:0.625 
-0.7693243675419095 1:0.8125 2:0.5 3:0.875 4:0.5 5:0.1875 6:0.4375 7:0.125 8:0.4375 9:0.125 10:0.5 11:0.4375 12:0.0625 13:0.5 14:0.125 15:0.0 
0.19249801474898848 1:0.8125 2:0.0 3:0.3125 4:0.3125 5:0.5625 6:0.0 7:0.0625 8:0.375 9:0.3125 10:0.375 11:0.5625 12:0.875 13:0.625 14:0.8125 15:0.625 
-0.18518222649176852 1:0.3125 2:0.375 3:0.3125 4:0.5625 5:1.0 6:0.5 7:0.6875 8:0.8125 9:0.625 10:0.625 11:0.875 12:0.875 13:0.5 14:0.9375 15:0.5 
-0.15771466399286474 1:0.5625 2:0.5625 3:0.3125 4:0.5 5:0.3125 6:0.5625 7:0.625 8:0.5 9:0.375 10:0.4375 11:0.0625 12:0.375 13:0.5 14:0.0 15:0.375 
-1.0 1:0.3125 2:0.5 3:0.1875 4:0.4375 5:0.5 6:0.75 7:0.375 8:0.4375 9:0.625 10:0.5 11:0.5625 12:0.625 13:0.5 14:0.75 15:0.875 
1.0 1:0.875 2:0.625 3:0.625 4:0.5 5:0.6875 6:0.5 7:0.4375 8:0.0625 9:0.375 10:0.375 11:0.3125 12:0.0625 13:0.1875 14:0.5625 15:1.0 
-0.6670491052592128 1:0.875 2:0.9375 3:0.5 4:0.375 5:1.0 6:0.5 7:0.5 8:0.3125 9:0.4375 10:0.3125 11:0.4375 12:0.5625 13:0.5 14:0.5 15:0.75 
-1.0 1:0.8125 2:0.75 3:0.8125 4:0.5625 5:0.5 6:1.0 7:0.875 8:0.6875 9:0.5625 10:0.25 11:0.0625 12:0.3125 13:0.5 14:0.25 15:0.5 
0.9520745082397202 1:0.5 2:0.5625 3:0.625 4:0.5625 5:0.5625 6:0.9375 7:0.6875 8:1.0 9:0.75 10:0.3125 11:0.625 12:0.4375 13:0.9375 14:0.3125 15:0.375 
-0.13284867802328618 1:0.25 2:0.25 3:0.125 4:0.0 5:0.0625 6:0.375 7:0.5 8:0.25 9:0.4375 10:0.4375 11:0.125 12:0.375 13:0.0625 14:0.1875 15:0.5625 
1.0 1:0.625 2:0.375 3:0.375 4:0.25 5:0.75 6:0.25 7:0.1875 8:0.1875 9:0.5 10:0.3125 11:0.1875 12:0.6875 13:0.1875 14:0.8125 15:1.0 
-0.6971306092027019 1:0.5 2:0.25 3:0.4375 4:1.0 5:0.625 6:0.25 7:0.1875 8:0.4375 9:0.5 10:0.5625 11:0.625 12:0.6875 13:0.625 14:1.0 15:0.375 
-0.9672904922504272 1:0.6875 2:0.4375 3:0.4375 4:0.4375 5:0.5 6:0.375 7:0.3125 8:0.3125 9:0.375 10:0.3125 11:0.4375 12:0.0625 13:0.6875 14:0.3125 15:0.3125 
-0.4871756959552394 1:0.875 2:0.5 3:0.875 4:0.3125 5:0.9375 6:0.625 7:0.5 8:0.25 9:0.4375 10:0.5625 11:0.3125 12:0.4375 13:0.125 14:0.4375 15:0.875 
-1.0 1:0.5 2:0.3125 3:0.5625 4:0.4375 5:1.0 6:0.375 7:0.1875 8:0.0 9:0.5625 10:0.5 11:0.3125 12:0.75 13:0.3125 14:0.5 15:1.0 
0.5657404549800622 1:0.75 2:0.8125 3:1.0 4:0.5625 5:0.5625 6:0.5 7:0.625 8:0.5 9:0.375 10:0.625 11:0.625 12:0.0 13:0.375 14:0.0625 15:0.5 
-1.0 1:1.0 2:0.5 3:0.5 4:0.375 5:0.8125 6:0.0625 7:0.1875 8:0.0625 9:0.6875 10:0.25 11:0.625 12:0.75 13:0.5 14:0.8125 15:0.8125 
0.40488701015149087 1:0.75 2:0.5 3:0.5625 4:0.25 5:1.0 6:0.6875 7:0.6875 8:0.3125 9:0.875 10:0.5 11:0.125 12:0.8125 13:0.1875 14:0.625 15:0.75 
-0.15302674793979676 1:0.125 2:0.0625 3:0.25 4:0.3125 5:0.5625 6:0.4375 7:0.0625 8:0.25 9:0.8125 10:0.5 11:0.625 12:0.75 13:1.0 14:0.9375 15:0.8125 
-0.23957048473700687 1:0.0625 2:0.0 3:0.1875 4:0.375 5:0.25 6:0.5625 7:0.0 8:0.25 9:0.4375 10:0.0625 11:0.5 12:0.5 13:0.5625 14:0.625 15:0.4375 
0.05303626787381412 1:1.0 2:0.5 3:0.1875 4:0.3125 5:0.5625 6:0.125 7:0.0 8:0.0625 9:0.3125 10:0.1875 11:0.1875 12:0.625 13:0.3125 14:0.9375 15:0.9375 
0.6742872577328425 1:0.8125 2:0.75 3:0.4375 4:0.5625 5:0.625 6:0.125 7:0.25 8:0.5 9:0.5 10:0.1875 11:0.6875 12:0.375 13:0.8125 14:0.6875 15:0.375 
-0.42358228428655675 1:0.0 2:0.5 3:0.4375 4:0.0 5:0.9375 6:0.625 7:0.5 8:0.5 9:0.8125 10:0.5625 11:0.4375 12:0.625 13:0.0 14:0.6875 15:0.8125 
-0.1560634723129002 1:0.625 2:0.6875 3:0.4375 4:0.125 5:0.25 6:0.4375 7:0.125 8:0.0625 9:0.0 10:0.5 11:0.375 12:0.0625 13:0.0625 14:0.25 15:0.875 
1.0 1:0.5 2:0.5 3:0.625 4:0.375 5:0.625 6:0.375 7:0.8125 8:0.1875 9:0.3125 10:0.875 11:0.4375 12:0.75 13:0.3125 14:0.125 15:1.0 
-0.039901944275746094 1:0.75 2:0.6875 3:0.75 4:0.5625 5:1.0 6:0.125 7:0.0625 8:0.125 9:0.0625 10:0.6875 11:0.3125 12:0.5 13:0.3125 14:0.4375 15:0.5 
-0.1781139043106488 1:0.4375 2:0.375 3:0.4375 4:0.375 5:0.375 6:0.5 7:0.6875 8:0.8125 9:0.875 10:0.875 11:0.4375 12:0.5 13:0.5 14:0.4375 15:0.5 
1.0 1:0.625 2:0.3125 3:0.3125 4:0.625 5:0.8125 6:0.1875 7:0.1875 8:0.125 9:0.625 10:0.5 11:0.4375 12:0.625 13:0.625 14:0.6875 15:0.75 
-0.26639770842439175 1:0.5625 2:0.375 3:0.375 4:0.8125 5:0.4375 6:0.0625 7:0.5 8:0.5 9:0.375 10:1.0 11:0.6875 12:0.6875 13:0.75 14:0.625 15:0.5 
0.5242738786683131 1:0.6875 2:0.625 3:1.0 4:0.75 5:0.875 6:0.5 7:0.4375 8:0.3125 9:0.5 10:0.25 11:0.125 12:0.4375 13:0.5625 14:0.6875 15:0.5 
0.15398542237359866 1:0.9375 2:0.75 3:0.5625 4:0.5625 5:0.875 6:0.4375 7:0.3125 8:0.0625 9:0.0625 10:0.5 11:0.4375 12:0.6875 13:0.5 14:0.6875 15:0.5 
0.08997168504244275 1:0.375 2:0.5625 3:0.625 4:0.5 5:0.6875 6:0.625 7:0.625 8:1.0 9:0.9375 10:0.1875 11:0.125 12:0.4375 13:0.5 14:0.8125 15:1.0 
-1.0 1:0.25 2:0.5 3:0.875 4:0.5625 5:0.75 6:1.0 7:0.9375 8:1.0 9:0.75 10:0.5 11:0.4375 12:0.5625 13:0.5 14:0.125 15:0.5 
0.007536707756612618 1:0.75 2:0.3125 3:0.6875 4:0.25 5:0.6875 6:0.0 7:0.0 8:0.0 9:0.5 10:0.875 11:0.75 12:0.6875 13:0.5 14:0.625 15:0.875 
0.2731774823366019 1:0.4375 2:0.9375 3:0.875 4:0.9375 5:0.1875 6:0.75 7:1.0 8:0.6875 9:0.625 10:0.5625 11:0.75 12:0.25 13:0.5 14:0.25 15:0.25 
0.6794603278145871 1:0.0 2:0.0625 3:0.4375 4:0.375 5:0.25 6:0.6875 7:0.6875 8:0.5625 9:0.8125 10:0.625 11:0.75 12:0.4375 13:0.5625 14:0.6875 15:0.5 
0.13770739024538065 1:0.625 2:0.9375 3:0.8125 4:0.6875 5:0.625 6:0.9375 7:0.3125 8:0.3125 9:0.3125 10:0.1875 11:0.0625 12:0.1875 13:0.5 14:0.125 15:0.5 
-0.20486159262640652 1:0.8125 2:0.625 3:0.75 4:1.0 5:0.75 6:0.25 7:0.4375 8:0.4375 9:0.5 10:0.9375 11:0.4375 12:0.9375 13:0.0625 14:0.5 15:0.625 
-0.7606158441361326 1:0.75 2:0.0625 3:0.5 4:1.0 5:0.625 6:0.25 7:0.125 8:0.5625 9:0.375 10:0.5 11:0.875 12:0.5 13:0.6875 14:0.75 15:0.1875 
-0.30911652741901335 1:0.1875 2:0.5 3:0.1875 4:0.3125 5:0.6875 6:0.6875 7:0.3125 8:0.4375 9:0.625 10:0.125 11:0.375 12:0.9375 13:0.3125 14:1.0 15:0.875 
-1.0 1:0.4375 2:0.9375 3:0.9375 4:0.9375 5:0.5625 6:0.5625 7:0.5 8:0.6875 9:0.4375 10:0.5 11:0.5 12:0.5625 13:0.625 14:0.4375 15:0.1875 
1.0 1:0.5625 2:0.6875 3:0.625 4:0.625 5:0.9375 6:0.5 7:0.4375 8:0.5 9:0.5 10:0.125 11:0.5 12:0.9375 13:0.6875 14:0.6875 15:0.875 
-0.21296077108862832 1:0.4375 2:0.375 3:0.4375 4:0.5625 5:0.3125 6:0.9375 7:0.4375 8:0.5 9:0.375 10:0.125 11:0.5 12:0.0625 13:0.5625 14:0.0625 15:0.125 
0.10635455697796663 1:0.3125 2:0.3125 3:0.3125 4:0.25 5:0.125 6:0.875 7:0.75 8:0.25 9:0.5 10:0.125 11:0.0625 12:0.0625 13:0.3125 14:0.375 15:0.5 
-0.3807702417349179 1:0.5 2:0.5625 3:0.5 4:0.9375 5:0.6875 6:0.6875 7:0.9375 8:0.9375 9:0.875 10:0.5 11:0.5625 12:0.5 13:0.625 14:0.625 15:0.75 
0.11171012632628766 1:0.0625 2:0.125 3:0.4375 4:0.5 5:0.5 6:0.625 7:0.5 8:0.5 9:0.5625 10:0.375 11:0.75 12:1.0 13:0.75 14:0.9375 15:0.625 
-0.357350234237333 1:0.5 2:0.9375 3:0.6875 4:0.5 5:0.4375 6:0.5 7:0.375 8:0.1875 9:0.4375 10:0.375 11:0.3125 12:0.0625 13:0.5 14:0.375 15:0.625 
-0.34321867469434614 1:0.4375 2:0.6875 3:0.3125 4:0.0625 5:0.0625 6:0.6875 7:0.625 8:0.4375 9:0.5 10:0.5 11:0.375 12:0.125 13:0.0 14:0.5 15:0.5 
0.07008249425098702 1:0.0625 2:0.5 3:0.5 4:0.3125 5:0.1875 6:0.9375 7:0.625 8:0.375 9:0.6875 10:0.125 11:0.1875 12:0.0625 13:0.0 14:0.0 15:0.6875 
0.20437704390090838 1:0.5 2:0.5625 3:0.4375 4:0.5625 5:0.9375 6:0.5 7:0.0 8:1.0 9:0.75 10:0.1875 11:0.4375 12:0.5625 13:0.9375 14:1.0 15:0.9375 
0.8284518794234549 1:0.5 2:0.3125 3:0.1875 4:0.25 5:0.3125 6:0.5 7:0.375 8:0.5 9:0.375 10:0.125 11:0.4375 12:0.3125 13:0.6875 14:0.1875 15:0.0 
-0.23328008818986806 1:0.5 2:0.5625 3:1.0 4:0.75 5:1.0 6:0.875 7:0.75 8:0.875 9:0.75 10:0.625 11:0.4375 12:0.75 13:0.0 14:0.25 15:0.5 
0.5544765027597152 1:0.9375 2:0.75 3:0.5625 4:0.8125 5:0.6875 6:0.5625 7:0.0 8:0.375 9:0.3125 10:0.1875 11:0.5 12:0.5 13:0.5 14:0.9375 15:0.5 
-1.0 1:0.8125 2:0.6875 3:0.1875 4:0.3125 5:0.375 6:0.3125 7:0.1875 8:0.1875 9:0.25 10:0.25 11:0.0 12:0.375 13:0.125 14:0.5 15:0.75 
-1.0 1:0.5 2:0.8125 3:0.5 4:0.6875 5:0.8125 6:0.4375 7:0.375 8:0.1875 9:0.5 10:0.0 11:0.125 12:0.4375 13:0.5 14:0.75 15:0.875 
0.2016959613617691 1:0.25 2:0.125 3:0.4375 4:0.25 5:0.125 6:0.25 7:0.8125 8:0.75 9:0.625 10:0.8125 11:0.625 12:0.75 13:0.125 14:0.1875 15:0.25 
0.40016220833952754 1:0.1875 2:0.0 3:0.5 4:0.125 5:0.25 6:0.6875 7:0.875 8:0.625 9:0.1875 10:0.75 11:0.5625 12:0.3125 13:0.5 14:0.0 15:0.25 
0.060422304353869624 1:0.5625 2:0.375 3:0.0 4:0.0 5:0.4375 6:0.4375 7:0.0625 8:0.4375 9:0.3125 10:0.0625 11:0.375 12:0.5625 13:0.5625 14:0.875 15:1.0 
0.37699541121219077 1:0.125 2:0.0625 3:0.375 4:0.0 5:0.25 6:0.625 7:0.6875 8:0.6875 9:0.6875 10:0.25 11:0.5 12:0.625 13:0.5 14:0.5 15:0.875 
0.06202389861095511 1:0.5625 2:0.3125 3:0.375 4:0.125 5:0.5625 6:0.4375 7:0.3125 8:0.0625 9:0.4375 10:0.8125 11:0.0 12:0.9375 13:0.3125 14:0.5625 15:0.9375 
0.7073650274344406 1:0.5625 2:0.625 3:0.5625 4:0.5 5:0.875 6:1.0 7:0.75 8:0.5 9:0.8125 10:0.75 11:0.125 12:0.5 13:0.0625 14:0.4375 15:0.5625 
0.5063945645972868 1:0.875 2:0.5625 3:0.625 4:0.4375 5:0.8125 6:0.625 7:0.25 8:0.125 9:0.4375 10:0.0 11:0.125 12:0.4375 13:0.3125 14:0.625 15:0.8125 
-0.3328397500201212 1:0.375 2:0.0625 3:0.1875 4:0.25 5:0.125 6:0.375 7:0.5 8:0.5625 9:0.375 10:0.6875 11:0.875 12:0.3125 13:0.375 14:0.5 15:0.25 
0.45754940995733145 1:0.6875 2:0.4375 3:0.375 4:0.4375 5:0.5 6:0.4375 7:0.4375 8:0.0625 9:0.375 10:0.4375 11:0.5 12:0.5625 13:0.6875 14:0.5 15:0.3125 
0.022933892170060113 1:0.1875 2:0.0625 3:0.5625 4:0.5 5:0.4375 6:0.875 7:0.8125 8:0.9375 9:0.5625 10:1.0 11:0.4375 12:0.5625 13:0.1875 14:0.3125 15:0.4375 
0.296386183553813 1:0.5625 2:0.6875 3:0.375 4:0.625 5:0.5625 6:0.5 7:0.1875 8:0.5625 9:0.5 10:0.25 11:0.4375 12:0.125 13:0.5625 14:1.0 15:0.75 
-0.6063834266648238 1:0.375 2:0.375 3:0.625 4:0.0625 5:0.0 6:0.75 7:0.625 8:0.6875 9:0.5 10:0.5625 11:0.5 12:0.25 13:0.5 14:0.3125 15:0.5 
1.0 1:0.0 2:0.5 3:0.4375 4:0.375 5:0.25 6:0.8125 7:0.5625 8:0.4375 9:0.5625 10:0.5 11:0.5 12:0.4375 13:0.125 14:0.625 15:0.5625 
-1.0 1:0.5625 2:0.6875 3:0.6875 4:0.625 5:1.0 6:0.4375 7:0.6875 8:0.875 9:0.75 10:0.5 11:0.5 12:0.625 13:1.0 14:0.6875 15:0.5 
0.3865963034974418 1:0.5625 2:0.5625 3:0.8125 4:0.75 5:0.875 6:0.5 7:0.875 8:0.6875 9:0.5625 10:0.625 11:0.5625 12:1.0 13:0.6875 14:0.4375 15:0.5625 
-0.12877527341637965 1:0.125 2:0.3125 3:0.5 4:0.25 5:0.3125 6:0.875 7:1.0 8:0.875 9:0.625 10:0.6875 11:0.125 12:0.3125 13:0.0 14:0.25 15:0.6875 
-0.057524761348080655 1:0.3125 2:0.4375 3:0.8125 4:0.5 5:0.625 6:0.5625 7:0.8125 8:0.75 9:0.6875 10:0.5 11:0.4375 12:0.625 13:0.0 14:0.625 15:1.0 
-0.24444049983573451 1:0.75 2:0.25 3:0.875 4:0.375 5:0.875 6:0.25 7:0.375 8:0.3125 9:0.4375 10:0.625 11:0.375 12:1.0 13:0.0625 14:0.5 15:0.8125 
1.0 1:0.375 2:0.75 3:0.9375 4:0.625 5:0.875 6:0.5 7:0.9375 8:1.0 9:0.5 10:0.9375 11:0.6875 12:0.5 13:0.4375 14:0.4375 15:0.375 
0.6008580791531476 1:0.75 2:0.4375 3:0.75 4:0.9375 5:0.6875 6:0.25 7:0.4375 8:0.0625 9:0.25 10:0.625 11:0.75 12:0.625 13:0.375 14:0.0625 15:0.1875 
1.0 1:0.25 2:0.0 3:0.1875 4:0.1875 5:0.375 6:0.4375 7:0.1875 8:0.5 9:0.375 10:0.3125 11:0.625 12:0.375 13:0.5 14:0.625 15:0.1875 
-0.15672162856087107 1:0.0625 2:0.3125 3:0.8125 4:0.375 5:0.25 6:0.5 7:0.6875 8:0.5 9:0.375 10:0.9375 11:0.75 12:0.5 13:0.5 14:0.125 15:0.0625 
0.03224202701985064 1:0.375 2:0.5 3:0.625 4:0.5625 5:0.9375 6:0.5625 7:0.9375 8:0.6875 9:0.75 10:0.6875 11:1.0 12:0.9375 13:0.5 14:0.5 15:0.9375 
0.5882207581372391 1:0.625 2:0.875 3:0.625 4:0.8125 5:0.6875 6:0.3125 7:0.375 8:0.6875 9:0.5 10:0.875 11:0.5625 12:0.5625 13:0.6875 14:0.5 15:0.375 
1.0 1:0.5 2:0.1875 3:0.5 4:1.0 5:0.625 6:0.3125 7:0.4375 8:0.75 9:0.5 10:0.6875 11:0.875 12:0.5 13:0.5625 14:0.1875 15:0.25 
0.043283028877434175 1:0.125 2:0.3125 3:0.0 4:0.625 5:0.5625 6:0.875 7:0.5 8:0.9375 9:0.9375 10:0.375 11:0.5 12:1.0 13:0.8125 14:0.8125 15:0.4375 
-0.7772367257196079 1:0.4375 2:0.5 3:0.25 4:0.75 5:0.1875 6:0.3125 7:0.25 8:0.625 9:0.3125 10:0.5 11:1.0 12:0.125 13:0.75 14:0.5 15:0.375 
-0.25280803760108655 1:0.1875 2:0.4375 3:0.5 4:0.5 5:0.375 6:0.5625 7:0.5 8:0.6875 9:0.6875 10:0.5625 11:0.5625 12:0.75 13:1.0 14:0.5 15:0.1875 
0.4170968557093618 1:0.25 2:0.25 3:0.6875 4:0.4375 5:0.1875 6:0.1875 7:0.75 8:0.5 9:0.4375 10:0.75 11:0.875 12:0.875 13:0.5 14:0.1875 15:0.0625 
0.6008767664055743 1:0.0625 2:0.5 3:0.6875 4:0.8125 5:0.5625 6:0.625 7:0.9375 8:0.75 9:1.0 10:1.0 11:0.5625 12:0.75 13:0.375 14:0.5625 15:0.375 
-0.34623592364910855 1:0.375 2:0.3125 3:0.625 4:0.6875 5:0.9375 6:0.9375 7:0.625 8:0.8125 9:1.0 10:0.5 11:1.0 12:0.9375 13:0.5 14:0.625 15:0.75 
0.4211361010172039 1:0.5625 2:0.0 3:0.875 4:0.5 5:0.9375 6:0.25 7:0.9375 8:0.25 9:0.875 10:0.875 11:0.5 12:0.875 13:0.0 14:0.5 15:0.8125 
-0.64042631793002 1:0.1875 2:0.125 3:0.5 4:0.3125 5:0.3125 6:0.75 7:0.6875 8:0.625 9:0.4375 10:0.5 11:0.5625 12:0.4375 13:0.5 14:0.375 15:0.5625 
0.1175178200901512 1:0.8125 2:0.8125 3:0.5625 4:0.875 5:0.625 6:0.75 7:0.4375 8:0.5625 9:0.0625 10:0.3125 11:0.625 12:0.4375 13:0.5 14:0.4375 15:0.0 
-0.07507225626760135 1:0.0 2:0.1875 3:0.125 4:0.3125 5:0.125 6:0.5 7:0.125 8:0.5 9:0.25 10:0.3125 11:0.4375 12:0.0 13:0.6875 14:0.6875 15:0.3125 
0.11469460701734537 1:0.8125 2:0.625 3:0.6875 4:0.6875 5:0.9375 6:0.625 7:0.4375 8:0.375 9:0.5 10:0.125 11:0.1875 12:0.4375 13:0.375 14:0.9375 15:0.5 
0.46210298092233104 1:0.3125 2:0.625 3:0.5625 4:1.0 5:0.875 6:0.6875 7:0.8125 8:1.0 9:0.9375 10:0.875 11:0.8125 12:0.6875 13:0.75 14:0.5625 15:0.375 
0.010948898333621712 1:0.125 2:0.0625 3:0.8125 4:0.5625 5:0.3125 6:0.5 7:0.5625 8:0.8125 9:0.25 10:0.875 11:0.625 12:0.3125 13:0.5 14:0.125 15:0.0625 
0.063041667979681 1:0.0625 2:0.0 3:0.1875 4:0.5 5:0.0625 6:0.8125 7:1.0 8:0.6875 9:0.8125 10:0.625 11:0.5625 12:0.5 13:0.75 14:0.1875 15:0.375 
0.6737596615901913 1:0.4375 2:0.75 3:0.6875 4:0.75 5:0.0 6:0.875 7:0.5 8:0.5625 9:0.3125 10:0.4375 11:0.5 12:0.0625 13:0.6875 14:0.0 15:0.25 
0.19592232315302804 1:0.375 2:0.4375 3:0.375 4:0.0625 5:0.3125 6:0.9375 7:0.8125 8:0.5 9:0.75 10:0.0 11:0.0625 12:0.0625 13:0.5625 14:0.5625 15:0.6875 
0.747884727785692 1:0.4375 2:0.1875 3:0.4375 4:0.5 5:1.0 6:0.375 7:0.125 8:0.5 9:0.5 10:0.375 11:0.75 12:0.8125 13:0.75 14:0.8125 15:0.5 
0.6946859721932207 1:0.875 2:0.8125 3:0.9375 4:0.8125 5:0.875 6:0.5 7:0.3125 8:0.3125 9:0.5 10:0.625 11:0.5 12:0.625 13:0.5 14:0.4375 15:0.6875 
0.12501517591552422 1:0.5 2:0.0 3:0.75 4:0.3125 5:0.625 6:0.3125 7:0.5625 8:0.4375 9:0.8125 10:0.5625 11:0.5 12:0.75 13:0.0625 14:0.4375 15:0.6875 
0.30820221459075925 1:0.3125 2:0.25 3:0.5 4:0.1875 5:0.25 6:0.25 7:0.4375 8:0.5 9:0.5 10:0.625 11:0.5625 12:0.3125 13:0.25 14:0.0625 15:0.5 
0.05603403742895784 1:0.8125 2:0.9375 3:0.8125 4:0.8125 5:0.5625 6:0.625 7:0.5 8:0.875 9:0.25 10:0.5 11:0.5 12:0.0 13:0.875 14:0.125 15:0.0 
0.13329315339045938 1:0.5 2:1.0 3:0.75 4:1.0 5:0.75 6:0.9375 7:0.875 8:0.75 9:0.75 10:0.5 11:0.4375 12:0.6875 13:0.1875 14:0.375 15:0.75 
-0.6588596809900575 1:0.75 2:0.5 3:0.5 4:0.5 5:0.25 6:0.125 7:0.5 8:0.0625 9:0.1875 10:0.625 11:0.5 12:0.4375 13:0.0625 14:0.0625 15:0.75 
-0.6473077863007183 1:0.5 2:0.25 3:0.5625 4:0.4375 5:0.0 6:0.3125 7:0.6875 8:0.5 9:0.125 10:0.5625 11:0.875 12:0.5 13:0.75 14:0.375 15:0.25 
0.015601407219843507 1:0.4375 2:0.5 3:0.0625 4:0.625 5:0.375 6:0.875 7:0.3125 8:0.6875 9:0.3125 10:0.0 11:0.75 12:0.0625 13:0.8125 14:0.8125 15:0.125 
-0.46348962487552703 1:1.0 2:0.8125 3:0.8125 4:0.5625 5:0.8125 6:0.5 7:0.25 8:0.25 9:0.0625 10:0.0 11:0.0 12:0.5 13:0.3125 14:0.6875 15:0.5 
-0.5079391751513024 1:0.375 2:0.9375 3:0.625 4:0.625 5:0.8125 6:0.8125 7:0.625 8:0.5625 9:0.75 10:0.0 11:0.125 12:0.3125 13:0.375 14:0.75 15:0.5 
1.0 1:0.75 2:0.75 3:0.6875 4:0.5625 5:1.0 6:0.1875 7:0.1875 8:0.0625 9:0.25 10:0.0625 11:0.125 12:0.5625 13:0.5 14:0.5 15:0.8125 
-0.6744166581533957 1:0.3125 2:0.0 3:0.125 4:0.375 5:0.3125 6:0.625 7:0.4375 8:0.5 9:0.6875 10:0.375 11:0.125 12:0.375 13:0.5 14:0.625 15:0.75 
0.0980124715364482 1:0.375 2:0.3125 3:0.5 4:0.5 5:0.25 6:0.8125 7:0.9375 8:0.625 9:0.5 10:0.4375 11:0.25 12:0.3125 13:0.0 14:0.375 15:0.5 
0.7360909120656947 1:0.5625 2:0.5 3:0.625 4:0.625 5:0.3125 6:0.5625 7:0.1875 8:0.6875 9:0.0 10:0.5 11:0.6875 12:0.0 13:0.75 14:0.375 15:0.1875 
0.3665256795546327 1:0.9375 2:0.625 3:0.625 4:0.6875 5:1.0 6:0.25 7:0.375 8:0.1875 9:0.0625 10:0.6875 11:0.4375 12:0.625 13:0.0625 14:0.3125 15:0.5625 
0.07117979964576848 1:0.25 2:0.5 3:0.5 4:0.875 5:0.4375 6:0.9375 7:1.0 8:0.9375 9:0.5 10:0.625 11:1.0 12:0.5 13:0.5 14:0.4375 15:0.125 
0.7779263192445968 1:0.3125 2:0.5 3:0.75 4:0.625 5:0.9375 6:0.875 7:0.8125 8:0.6875 9:0.75 10:0.875 11:1.0 12:0.6875 13:0.5 14:0.6875 15:0.6875 
-0.8310209911290338 1:0.5 2:0.6875 3:0.625 4:0.9375 5:1.0 6:0.625 7:0.4375 8:0.375 9:0.5 10:0.5 11:0.4375 12:0.5 13:0.5625 14:0.5625 15:0.4375 
-0.2802858313925877 1:0.8125 2:0.1875 3:0.4375 4:0.125 5:0.0625 6:0.375 7:0.0 8:0.0 9:0.0 10:0.0 11:0.4375 12:0.0625 13:0.5 14:0.5 15:0.375 
0.7635095405752709 1:0.625 2:1.0 3:0.5625 4:0.5625 5:1.0 6:0.3125 7:0.5 8:0.25 9:0.75 10:0.375 11:0.0625 12:0.625 13:0.5 14:0.875 15:0.6875 
0.016884881400868298 1:0.9375 2:0.9375 3:0.5 4:0.875 5:0.625 6:0.5625 7:0.4375 8:0.3125 9:0.5 10:0.3125 11:0.0625 12:0.0625 13:0.3125 14:0.625 15:0.75 
0.5270836302341464 1:0.8125 2:1.0 3:0.3125 4:0.4375 5:0.8125 6:0.1875 7:0.0 8:0.0625 9:0.0625 10:0.25 11:0.125 12:0.1875 13:0.5 14:0.75 15:0.8125 
0.33839757079016924 1:0.375 2:0.3125 3:0.5 4:0.125 5:0.375 6:1.0 7:1.0 8:0.625 9:0.5 10:0.5625 11:0.3125 12:0.4375 13:0.4375 14:0.5 15:0.625 
0.5159765671096439 1:0.375 2:0.25 3:0.5 4:0.25 5:0.875 6:0.5 7:0.6875 8:0.1875 9:0.5625 10:0.5625 11:0.125 12:0.5 13:0.0 14:0.5625 15:0.875 
0.04864877621210793 1:0.5 2:0.125 3:0.8125 4:0.5 5:0.125 6:0.5 7:0.6875 8:0.4375 9:0.5 10:0.875 11:0.4375 12:0.5 13:0.1875 14:0.375 15:0.3125 
0.19136253181048324 1:0.75 2:0.375 3:0.375 4:0.25 5:0.5625 6:0.3125 7:0.1875 8:0.25 9:0.75 10:0.5 11:0.4375 12:0.625 13:0.1875 14:0.75 15:0.9375 
-0.17095435928896022 1:0.75 2:0.875 3:0.125 4:0.5 5:0.375 6:0.5 7:0.375 8:0.1875 9:0.375 10:0.0625 11:0.1875 12:0.0 13:0.9375 14:0.5 15:0.1875 
0.055481605429550176 1:0.0 2:0.4375 3:0.0 4:0.1875 5:0.4375 6:0.75 7:0.75 8:0.625 9:0.9375 10:0.625 11:0.5 12:0.5 13:0.5625 14:0.8125 15:0.875 
0.08834289508458276 1:0.1875 2:0.4375 3:0.125 4:0.125 5:0.5625 6:0.8125 7:0.3125 8:0.0625 9:0.75 10:0.375 11:0.1875 12:0.625 13:0.4375 14:1.0 15:0.9375 
-0.4255501437145913 1:0.375 2:0.5 3:0.9375 4:0.5 5:0.9375 6:0.375 7:0.75 8:0.625 9:0.6875 10:0.9375 11:0.875 12:0.9375 13:0.5625 14:0.8125 15:0.8125 
-0.1344784478259195 1:0.9375 2:0.5 3:0.5 4:0.8125 5:0.1875 6:0.0 7:0.5 8:0.5 9:0.375 10:1.0 11:0.75 12:0.25 13:0.625 14:0.125 15:0.125 
-0.21764600975302126 1:0.5 2:0.6875 3:0.5 4:0.875 5:0.625 6:0.8125 7:0.1875 8:0.75 9:0.875 10:0.25 11:0.5 12:0.1875 13:0.875 14:0.8125 15:0.25 
-0.09057176006117267 1:0.0625 2:0.4375 3:0.3125 4:0.375 5:0.3125 6:0.6875 7:0.9375 8:0.8125 9:0.8125 10:0.4375 11:0.625 12:0.1875 13:0.5625 14:0.375 15:0.5 
1.0 1:0.4375 2:0.5 3:0.1875 4:0.0625 5:0.5625 6:0.5625 7:0.25 8:0.4375 9:0.4375 10:0.25 11:0.4375 12:0.5625 13:0.625 14:0.5 15:0.625 
-1.0 1:0.75 2:0.75 3:0.625 4:0.9375 5:0.4375 6:0.375 7:0.625 8:0.9375 9:0.3125 10:0.75 11:0.6875 12:0.5 13:0.375 14:0.125 15:0.0 
0.38995323565891815 1:0.1875 2:0.0625 3:0.0625 4:0.1875 5:0.0 6:0.4375 7:0.8125 8:0.8125 9:0.75 10:0.6875 11:0.75 12:0.8125 13:0.8125 14:0.5625 15:0.1875 
0.006122236304937599 1:0.4375 2:0.3125 3:1.0 4:0.625 5:0.6875 6:0.375 7:0.6875 8:0.75 9:0.5 10:0.6875 11:0.8125 12:0.5625 13:0.5 14:0.0 15:0.0 
0.18919667309752303 1:0.8125 2:0.5 3:0.6875 4:0.0625 5:0.625 6:0.5 7:0.6875 8:0.25 9:0.5 10:0.75 11:0.375 12:1.0 13:0.125 14:0.125 15:1.0 
-1.0 1:0.9375 2:0.8125 3:0.5 4:0.0625 5:0.625 6:0.375 7:0.0625 8:0.25 9:0.5625 10:0.375 11:0.0 12:0.4375 13:0.4375 14:0.9375 15:0.75 
-0.5760462069182152 1:0.625 2:0.3125 3:0.5625 4:0.5 5:0.5 6:0.4375 7:0.4375 8:0.0625 9:0.3125 10:1.0 11:0.5625 12:0.25 13:0.3125 14:0.0 15:0.4375 
0.17608220328520718 1:0.8125 2:0.5625 3:0.9375 4:0.875 5:0.5625 6:0.375 7:0.3125 8:0.5 9:0.0625 10:0.5625 11:0.6875 12:0.3125 13:0.75 14:0.1875 15:0.375 
0.19572147332877798 1:0.5 2:0.3125 3:0.0625 4:0.25 5:0.5 6:0.4375 7:0.4375 8:0.3125 9:0.4375 10:0.4375 11:0.4375 12:0.9375 13:0.6875 14:0.8125 15:0.9375 
-0.7752282380807808 1:0.6875 2:0.75 3:0.5 4:0.625 5:0.9375 6:0.5625 7:0.0 8:0.3125 9:0.375 10:0.5 11:0.625 12:0.5 13:0.625 14:0.625 15:0.5 
-0.45069303176042474 1:0.9375 2:0.5 3:0.5 4:1.0 5:0.25 6:0.3125 7:0.375 8:1.0 9:0.375 10:0.3125 11:0.6875 12:0.125 13:0.8125 14:0.5 15:0.0 
-0.4187608801895716 1:0.5625 2:0.1875 3:0.9375 4:0.0 5:0.4375 6:0.375 7:0.9375 8:0.5 9:0.5 10:1.0 11:0.5 12:1.0 13:0.1875 14:0.375 15:0.8125 
-0.9665730828105183 1:0.5 2:0.3125 3:0.1875 4:0.0 5:0.5 6:0.1875 7:0.5 8:0.4375 9:0.75 10:0.5625 11:0.1875 12:0.5625 13:0.3125 14:1.0 15:0.8125 
-0.12927356450133606 1:0.5625 2:0.75 3:0.6875 4:0.0625 5:0.5 6:0.5 7:0.125 8:0.3125 9:0.25 10:0.0625 11:0.0625 12:0.1875 13:0.1875 14:0.5 15:0.875 
