encog,SVM,java,3.2.0,1,1406057588498
[SVM]
[SVM:PARAMS]
[SVM:SVM-PARAM]
inputCount=10
C=1
cacheSize=100
coef0=0
degree=3
eps=0.001
gamma=1
kernelType=2
nrWeight=0
nu=0.5
p=0.1
probability=0
shrinking=1
svmType=3
weight=
weightLabel=
[SVM:SVM-MODEL]
svm_type epsilon_svr
kernel_type rbf
gamma 1.0
nr_class 2
total_sv 236
rho -0.5001575495043609
SV
1.0 1:0.5 2:0.8125 3:0.75 4:0.8125 5:0.5625 6:1.0 7:0.625 8:0.5625 9:0.6875 10:0.25 
0.7590399695923984 1:0.5625 2:0.3125 3:0.1875 4:0.625 5:0.375 6:0.0 7:0.5625 8:0.625 9:0.75 10:0.8125 
-1.0 1:0.5 2:0.125 3:1.0 4:0.25 5:0.25 6:0.6875 7:0.5 8:1.0 9:0.625 10:0.4375 
-0.9677841989126738 1:0.3125 2:0.1875 3:0.125 4:0.0625 5:0.5 6:0.5 7:0.1875 8:0.0625 9:0.3125 10:0.5 
-0.35633348304107715 1:0.25 2:0.25 3:0.0625 4:0.3125 5:0.5 6:0.8125 7:0.9375 8:0.5 9:1.0 10:0.5 
-0.46683530423064606 1:0.75 2:0.5625 3:0.1875 4:0.75 5:0.375 6:0.3125 7:0.5 8:0.0625 9:0.5 10:1.0 
0.35037554792992487 1:0.0 2:0.0625 3:0.5 4:0.0 5:0.5 6:0.8125 7:0.4375 8:0.6875 9:0.0 10:0.25 
-1.0 1:0.4375 2:0.625 3:0.8125 4:0.625 5:0.5 6:0.9375 7:0.9375 8:0.75 9:0.9375 10:0.75 
-0.9449623721506811 1:0.6875 2:0.4375 3:0.9375 4:0.3125 5:0.5 6:0.875 7:0.3125 8:0.9375 9:0.25 10:0.1875 
1.0 1:0.5 2:0.6875 3:0.8125 4:0.375 5:0.625 6:0.625 7:0.3125 8:0.875 9:0.1875 10:0.125 
-1.0 1:0.3125 2:0.25 3:0.5 4:0.3125 5:0.3125 6:0.4375 7:0.375 8:0.875 9:0.625 10:0.5625 
-0.27357899525999885 1:0.5 2:0.5 3:0.5 4:0.0 5:0.375 6:0.0625 7:0.125 8:0.125 9:0.1875 10:0.125 
-1.0 1:0.75 2:0.75 3:0.6875 4:0.5 5:0.625 6:0.5625 7:0.5 8:0.1875 9:0.375 10:0.0625 
-1.0 1:0.5 2:0.4375 3:0.6875 4:0.75 5:0.4375 6:0.875 7:0.75 8:0.5625 9:0.875 10:0.4375 
-1.0 1:0.5 2:0.5625 3:0.5625 4:0.9375 5:0.6875 6:0.625 7:0.625 8:1.0 9:0.625 10:0.4375 
-0.2799476168429326 1:0.875 2:0.5 3:0.3125 4:0.5625 5:0.25 6:0.3125 7:0.75 8:0.5 9:1.0 10:0.8125 
0.33369475112071056 1:0.8125 2:0.5 3:0.25 4:0.3125 5:0.25 6:0.1875 7:0.0625 8:0.125 9:0.5625 10:0.75 
-0.0638179359352988 1:1.0 2:0.25 3:0.0625 4:0.3125 5:0.0 6:0.0 7:0.3125 8:0.25 9:0.5625 10:0.875 
-0.186313458183708 1:0.1875 2:0.75 3:0.75 4:0.0 5:1.0 6:0.6875 7:0.5 8:0.375 9:0.0 10:0.0 
-0.13468353336513963 1:0.5625 2:1.0 3:0.5625 4:0.5 5:0.5625 6:0.75 7:0.4375 8:0.3125 9:0.0625 10:0.0625 
1.0 1:0.6875 2:0.9375 3:0.8125 4:0.8125 5:1.0 6:0.5625 7:0.9375 8:0.625 9:0.5 10:0.5 
-0.3061901377557773 1:0.0 2:0.0625 3:0.4375 4:0.4375 5:0.875 6:0.6875 7:0.6875 8:1.0 9:0.875 10:0.5 
1.0 1:0.1875 2:0.25 3:0.125 4:0.375 5:0.5 6:0.125 7:0.8125 8:0.1875 9:0.5 10:1.0 
0.7982734212707202 1:0.4375 2:0.75 3:0.75 4:0.4375 5:0.75 6:0.5625 7:0.0625 8:0.375 9:0.125 10:0.1875 
-0.2457569239379627 1:0.5 2:0.5625 3:0.5625 4:0.5 5:0.75 6:1.0 7:0.6875 8:0.375 9:0.125 10:0.0 
1.0 1:0.0625 2:0.125 3:0.375 4:0.3125 5:0.1875 6:0.375 7:0.5 8:1.0 9:0.8125 10:0.6875 
0.7874975560745782 1:0.8125 2:0.75 3:0.625 4:0.5625 5:0.3125 6:0.1875 7:0.375 8:0.3125 9:0.3125 10:0.25 
0.6970747629258519 1:0.375 2:0.8125 3:0.875 4:0.75 5:0.8125 6:1.0 7:0.875 8:0.875 9:0.875 10:0.5 
0.9649445268698275 1:0.375 2:0.3125 3:1.0 4:0.6875 5:0.4375 6:1.0 7:0.75 8:0.75 9:0.75 10:0.0 
-0.8921367517854581 1:0.6875 2:1.0 3:0.5625 4:1.0 5:0.625 6:0.1875 7:0.5625 8:0.0 9:0.1875 10:0.5 
0.6133786010642892 1:0.8125 2:0.875 3:0.875 4:0.8125 5:0.4375 6:0.125 7:0.0 8:0.5 9:0.125 10:0.375 
1.0 1:0.375 2:0.25 3:0.5 4:0.625 5:0.375 6:0.5625 7:0.5 8:0.875 9:0.625 10:0.5 
0.6538412647983868 1:0.75 2:0.25 3:0.8125 4:0.8125 5:0.0625 6:0.5625 7:0.5625 8:0.6875 9:0.875 10:0.625 
1.0 1:0.5 2:0.5 3:0.5625 4:0.625 5:0.5 6:0.4375 7:0.625 8:0.0625 9:0.6875 10:1.0 
-1.0 1:0.6875 2:0.5 3:0.5625 4:0.75 5:0.5625 6:0.5 7:0.6875 8:0.75 9:0.6875 10:0.5 
-0.07121873517027479 1:0.5 2:0.0625 3:0.6875 4:0.375 5:0.25 6:0.6875 7:0.625 8:0.9375 9:0.8125 10:0.5 
-0.9519939242991102 1:0.25 2:0.625 3:0.5 4:0.5 5:0.75 6:0.75 7:0.5 8:0.125 9:0.1875 10:0.25 
-0.8405836513060274 1:0.875 2:0.5 3:0.5 4:0.75 5:0.25 6:0.25 7:0.1875 8:1.0 9:0.75 10:0.625 
1.0 1:0.8125 2:0.6875 3:0.6875 4:0.8125 5:0.5 6:0.0625 7:0.6875 8:0.125 9:0.6875 10:1.0 
-0.04998462063062229 1:0.9375 2:0.25 3:0.75 4:0.5 5:0.125 6:0.0625 7:0.1875 8:0.5625 9:0.875 10:0.5 
-0.5204919473982043 1:0.6875 2:0.5 3:1.0 4:0.875 5:0.1875 6:0.5 7:0.375 8:0.5 9:0.875 10:0.625 
0.006965945658834885 1:0.625 2:0.8125 3:0.6875 4:1.0 5:0.3125 6:0.125 7:0.6875 8:0.5 9:0.625 10:0.75 
-1.0 1:0.375 2:0.3125 3:0.8125 4:0.875 5:0.3125 6:0.875 7:0.875 8:0.8125 9:0.625 10:0.375 
0.7476241233986669 1:0.8125 2:0.875 3:0.5 4:0.8125 5:0.4375 6:0.25 7:0.4375 8:0.5625 9:0.5 10:0.5 
0.1436555689513236 1:0.25 2:0.0625 3:0.1875 4:0.25 5:0.125 6:0.25 7:0.4375 8:0.8125 9:0.625 10:0.5 
0.057114069510846306 1:0.625 2:0.5625 3:0.875 4:0.8125 5:0.6875 6:0.8125 7:0.8125 8:0.875 9:0.8125 10:0.625 
1.0 1:0.5625 2:0.6875 3:0.6875 4:0.5 5:0.625 6:0.5625 7:0.4375 8:0.0 9:0.125 10:0.125 
-0.2721002607508088 1:0.4375 2:0.625 3:0.5 4:0.9375 5:0.9375 6:0.25 7:0.5625 8:0.0625 9:0.5 10:0.6875 
-1.0 1:0.5 2:0.5 3:0.75 4:0.75 5:0.4375 6:0.5 7:1.0 8:1.0 9:0.625 10:0.625 
1.0 1:0.5 2:0.5 3:0.5625 4:0.625 5:0.5625 6:0.9375 7:0.8125 8:0.9375 9:0.5625 10:0.5625 
0.49786379306592304 1:0.9375 2:0.4375 3:0.9375 4:0.8125 5:0.0 6:0.75 7:0.3125 8:1.0 9:0.5 10:0.1875 
0.22756279450221023 1:0.875 2:0.6875 3:0.625 4:0.625 5:0.0625 6:0.0625 7:0.0 8:0.3125 9:0.5 10:1.0 
-0.8943331384800524 1:0.8125 2:0.875 3:0.8125 4:0.4375 5:0.75 6:0.5 7:0.3125 8:0.0625 9:0.25 10:0.4375 
0.55688747576509 1:0.5625 2:0.5 3:0.625 4:0.5 5:0.25 6:0.4375 7:0.125 8:0.75 9:0.0 10:0.25 
0.3421537551565239 1:0.75 2:1.0 3:0.875 4:0.5 5:0.5 6:0.75 7:0.375 8:0.8125 9:0.125 10:0.3125 
1.0 1:0.5 2:0.5 3:0.5 4:0.6875 5:0.5 6:0.75 7:0.8125 8:0.9375 9:0.5625 10:0.4375 
1.0 1:0.0625 2:0.5 3:0.3125 4:0.5 5:0.875 6:0.875 7:0.6875 8:0.5 9:0.0 10:0.375 
0.22365647163182484 1:0.3125 2:0.1875 3:0.25 4:0.0 5:0.25 6:0.5 7:0.625 8:0.875 9:0.625 10:0.5 
-0.0032692491505138255 1:0.4375 2:0.8125 3:0.3125 4:0.625 5:0.9375 6:0.375 7:1.0 8:0.125 9:0.625 10:0.875 
0.32831885227482716 1:0.0625 2:0.0 3:0.0 4:0.125 5:0.6875 6:0.375 7:0.6875 8:0.5 9:0.6875 10:0.9375 
1.0 1:0.25 2:0.25 3:0.25 4:0.0 5:0.8125 6:0.5625 7:0.5 8:0.0 9:0.0 10:0.625 
-1.0 1:0.6875 2:0.3125 3:0.375 4:0.3125 5:0.125 6:0.125 7:0.125 8:0.9375 9:0.625 10:0.375 
0.9006757552033646 1:0.25 2:0.375 3:0.5 4:0.4375 5:0.6875 6:0.8125 7:0.625 8:0.3125 9:0.5625 10:0.5625 
-0.8286151078434536 1:0.5625 2:0.75 3:0.9375 4:0.75 5:0.625 6:0.5625 7:0.9375 8:0.1875 9:0.4375 10:0.4375 
1.0 1:0.5 2:0.875 3:1.0 4:0.875 5:0.875 6:0.6875 7:0.9375 8:0.9375 9:0.5 10:0.5 
0.09441718888831518 1:0.25 2:0.375 3:0.375 4:0.5 5:0.375 6:0.5625 7:0.625 8:0.875 9:0.625 10:0.4375 
0.14715183665504103 1:0.0 2:0.5 3:0.3125 4:0.5 5:0.8125 6:0.8125 7:0.5625 8:0.5625 9:0.5 10:0.25 
-0.5500727659748591 1:0.0 2:0.6875 3:0.8125 4:0.5625 5:0.9375 6:1.0 7:0.9375 8:0.8125 9:0.4375 10:0.1875 
-0.36768724892714966 1:0.625 2:0.125 3:0.3125 4:0.4375 5:0.3125 6:0.3125 7:0.0625 8:0.875 9:0.9375 10:0.5 
-0.8620769802997562 1:0.3125 2:0.6875 3:0.3125 4:0.4375 5:0.625 6:0.125 7:0.4375 8:0.0 9:0.0625 10:0.5 
-0.8755301253314702 1:0.5625 2:0.625 3:0.6875 4:0.8125 5:0.4375 6:0.5625 7:0.75 8:0.6875 9:0.5 10:0.25 
-0.23680472509924902 1:0.6875 2:0.5 3:0.375 4:0.9375 5:0.125 6:0.3125 7:0.4375 8:0.3125 9:0.875 10:0.75 
0.11263773062690388 1:0.0 2:0.0625 3:0.125 4:0.0 5:0.4375 6:0.1875 7:0.25 8:0.0 9:0.5 10:0.5 
0.011669061510770105 1:0.375 2:0.375 3:0.0625 4:0.0625 5:0.0625 6:0.3125 7:0.0 8:0.5 9:0.0 10:0.3125 
-0.04558722100786397 1:0.875 2:0.5 3:0.5 4:0.6875 5:0.375 6:0.375 7:0.5 8:0.125 9:0.875 10:0.625 
-0.25831539714895596 1:0.25 2:0.5625 3:0.375 4:0.125 5:0.9375 6:0.9375 7:0.625 8:0.1875 9:0.0 10:0.25 
-0.5075199825374223 1:1.0 2:0.5 3:0.9375 4:0.75 5:0.25 6:0.375 7:0.4375 8:0.8125 9:0.5625 10:0.0 
0.7873534843414951 1:0.5 2:0.5 3:0.0 4:0.125 5:0.3125 6:0.3125 7:0.0 8:0.4375 9:0.25 10:0.625 
1.0 1:0.6875 2:0.9375 3:0.8125 4:0.6875 5:0.75 6:0.75 7:0.5 8:0.1875 9:0.3125 10:0.1875 
-0.3390002242435339 1:0.8125 2:0.75 3:0.875 4:0.9375 5:0.5 6:0.0 7:0.5 8:0.125 9:0.5 10:0.8125 
-0.3616292063944072 1:0.9375 2:0.6875 3:0.5 4:0.75 5:0.4375 6:0.5 7:0.5625 8:0.1875 9:0.5 10:0.625 
-0.11677393690939422 1:0.0 2:0.4375 3:0.9375 4:0.6875 5:0.8125 6:0.9375 7:0.8125 8:0.875 9:0.5 10:0.5 
-1.0 1:0.6875 2:0.625 3:0.3125 4:0.125 5:0.5 6:0.1875 7:0.0625 8:0.0 9:0.375 10:0.4375 
-0.522883756275451 1:0.5 2:0.9375 3:0.5 4:0.0 5:0.9375 6:0.75 7:0.25 8:0.125 9:0.0625 10:0.3125 
1.0 1:0.6875 2:0.375 3:0.4375 4:0.625 5:0.25 6:0.0625 7:0.0 8:0.8125 9:0.75 10:0.625 
-0.9475777402440404 1:0.5625 2:0.75 3:0.625 4:0.4375 5:0.5625 6:0.25 7:0.0 8:0.25 9:0.25 10:0.0625 
-0.6716771026689093 1:0.0 2:0.25 3:0.0 4:0.0 5:0.6875 6:0.3125 7:1.0 8:0.25 9:0.625 10:1.0 
0.7593648022220446 1:0.0625 2:0.375 3:1.0 4:0.5625 5:0.5 6:0.8125 7:0.75 8:0.9375 9:1.0 10:0.5625 
0.5122176441082206 1:0.5625 2:0.5 3:0.625 4:0.125 5:0.0625 6:0.4375 7:0.3125 8:0.75 9:0.3125 10:0.3125 
-0.1953927288960789 1:0.5625 2:0.5625 3:0.5 4:0.5 5:0.4375 6:0.0 7:0.5625 8:0.1875 9:0.375 10:1.0 
-1.0 1:0.625 2:0.5 3:0.25 4:0.5 5:0.5 6:0.125 7:0.75 8:0.0625 9:0.6875 10:1.0 
-0.9016185780417652 1:0.25 2:0.5625 3:0.125 4:0.0 5:0.875 6:0.375 7:0.375 8:0.375 9:0.125 10:0.6875 
-0.7541461086952699 1:0.5625 2:0.1875 3:0.125 4:0.75 5:0.125 6:0.1875 7:0.5 8:0.875 9:0.875 10:0.75 
0.41861501509663884 1:0.5625 2:0.1875 3:0.9375 4:0.875 5:0.125 6:0.5625 7:0.5 8:0.9375 9:0.75 10:0.0 
-0.6216287915875371 1:0.5625 2:0.5 3:1.0 4:0.5625 5:0.75 6:1.0 7:0.625 8:1.0 9:0.75 10:0.0625 
0.4868221347967718 1:0.0 2:0.0 3:0.125 4:0.0625 5:0.8125 6:0.5625 7:0.5 8:0.625 9:0.4375 10:0.25 
1.0 1:0.25 2:0.3125 3:0.5 4:0.1875 5:0.25 6:0.625 7:0.0 8:0.625 9:0.5 10:0.3125 
-0.4971047256797915 1:0.875 2:0.6875 3:0.9375 4:0.6875 5:0.5625 6:0.8125 7:0.375 8:0.875 9:0.4375 10:0.375 
-0.2368493404114206 1:0.0 2:0.1875 3:0.0625 4:0.5 5:0.6875 6:0.75 7:0.6875 8:0.6875 9:0.9375 10:0.625 
0.25064115388394387 1:0.875 2:0.875 3:0.875 4:0.875 5:0.4375 6:0.625 7:0.5 8:0.625 9:0.6875 10:0.125 
0.6377440865822106 1:0.5 2:0.8125 3:1.0 4:0.4375 5:0.625 6:0.875 7:0.5625 8:0.875 9:0.0 10:0.0 
-1.0 1:0.8125 2:0.8125 3:0.75 4:0.5 5:0.1875 6:0.125 7:0.0625 8:0.25 9:0.0 10:0.125 
-0.029173833606673756 1:0.3125 2:0.8125 3:0.5 4:0.875 5:0.625 6:0.625 7:0.9375 8:0.1875 9:0.5625 10:0.5625 
1.0 1:0.5 2:0.5625 3:0.5625 4:0.875 5:0.9375 6:0.5625 7:0.5 8:0.1875 9:0.5 10:0.5 
0.412110277050577 1:0.5 2:0.0625 3:0.6875 4:0.5 5:0.375 6:0.75 7:0.0625 8:0.9375 9:0.5 10:0.375 
-1.0 1:0.9375 2:0.9375 3:0.8125 4:1.0 5:0.3125 6:0.3125 7:0.375 8:0.5 9:0.4375 10:0.75 
-0.7943364173533887 1:0.625 2:0.9375 3:0.75 4:0.625 5:0.8125 6:0.5 7:0.25 8:0.125 9:0.3125 10:0.3125 
-0.3386601070705495 1:0.875 2:0.75 3:0.9375 4:1.0 5:0.75 6:0.4375 7:0.75 8:0.3125 9:0.375 10:0.8125 
-1.0 1:0.75 2:0.375 3:0.5 4:0.125 5:0.125 6:0.5 7:0.3125 8:0.6875 9:0.1875 10:0.125 
1.0 1:0.375 2:0.5 3:0.5 4:0.125 5:0.6875 6:0.6875 7:0.375 8:0.0625 9:0.375 10:0.375 
1.0 1:0.4375 2:0.75 3:0.5 4:0.6875 5:0.625 6:0.5 7:0.5625 8:0.25 9:0.0625 10:0.875 
0.3378296984288085 1:0.3125 2:0.3125 3:0.5 4:0.3125 5:0.5 6:0.625 7:0.875 8:0.9375 9:0.75 10:0.5 
0.8067316635753596 1:1.0 2:0.6875 3:0.625 4:1.0 5:0.25 6:0.4375 7:0.0625 8:0.8125 9:0.625 10:0.5625 
0.5168407866010294 1:0.3125 2:0.875 3:0.4375 4:0.5 5:0.6875 6:0.5 7:0.5625 8:0.0 9:0.0625 10:0.375 
-0.4972603141645373 1:0.25 2:0.1875 3:0.0625 4:0.625 5:0.625 6:0.25 7:0.875 8:0.0 9:1.0 10:1.0 
0.2620337143932616 1:0.5625 2:0.625 3:0.9375 4:0.625 5:0.875 6:0.6875 7:0.3125 8:0.75 9:0.375 10:0.1875 
-1.0 1:0.9375 2:0.5 3:0.75 4:0.875 5:0.0 6:0.5625 7:0.375 8:0.625 9:0.9375 10:0.5625 
-0.1049222659269296 1:0.5 2:0.9375 3:0.3125 4:0.75 5:0.75 6:0.0 7:1.0 8:0.125 9:0.5625 10:0.875 
1.0 1:0.1875 2:0.8125 3:0.5 4:0.25 5:1.0 6:0.875 7:0.25 8:0.1875 9:0.125 10:0.125 
0.36330616140975963 1:0.5625 2:0.5625 3:0.375 4:0.5 5:0.4375 6:0.375 7:0.0 8:0.0 9:0.25 10:0.25 
-0.3180793640696916 1:0.5 2:0.9375 3:0.5 4:0.875 5:0.9375 6:0.625 7:0.5625 8:0.1875 9:0.5625 10:0.9375 
-0.1886358275829625 1:0.25 2:0.4375 3:0.5 4:0.5 5:1.0 6:0.5 7:0.9375 8:0.125 9:0.625 10:0.625 
-0.1331086641020875 1:0.5 2:0.8125 3:0.5 4:0.875 5:0.625 6:1.0 7:0.6875 8:0.4375 9:0.6875 10:0.5625 
1.0 1:0.0625 2:0.4375 3:0.0625 4:0.5 5:0.5 6:0.5625 7:0.875 8:0.0 9:0.5 10:0.875 
-0.890093835932857 1:0.4375 2:0.625 3:0.6875 4:0.5625 5:0.5625 6:0.875 7:1.0 8:0.8125 9:0.9375 10:0.3125 
0.9241339708038939 1:0.875 2:0.875 3:0.8125 4:0.625 5:0.0625 6:0.5 7:0.0625 8:0.9375 9:0.6875 10:0.375 
-1.0 1:0.625 2:0.375 3:0.4375 4:0.6875 5:0.1875 6:0.125 7:0.25 8:1.0 9:0.875 10:0.5 
-0.23425189742074748 1:0.5 2:0.1875 3:0.5 4:0.1875 5:0.4375 6:0.5 7:0.5 8:0.625 9:0.375 10:0.0625 
-0.21056582737338905 1:0.9375 2:0.75 3:0.75 4:0.6875 5:0.0625 6:0.5 7:0.0 8:0.5 9:0.25 10:0.0625 
0.7980421282910125 1:0.25 2:0.375 3:0.0625 4:0.3125 5:1.0 6:0.625 7:0.8125 8:0.4375 9:0.4375 10:0.6875 
1.0 1:0.875 2:0.625 3:0.8125 4:0.875 5:0.375 6:0.625 7:1.0 8:0.5625 9:0.75 10:1.0 
0.1797602423215568 1:0.75 2:0.9375 3:0.6875 4:0.75 5:0.75 6:0.5 7:0.5 8:0.375 9:0.5 10:1.0 
0.43839076012710493 1:0.5 2:0.0625 3:0.0625 4:0.25 5:0.25 6:0.125 7:0.0625 8:0.8125 9:0.6875 10:0.5 
0.32583584417411343 1:0.5 2:0.75 3:0.8125 4:0.6875 5:0.375 6:0.625 7:0.9375 8:0.8125 9:0.75 10:0.5 
-0.03311660523787315 1:0.8125 2:0.5625 3:0.8125 4:0.6875 5:0.0 6:0.1875 7:0.125 8:0.875 9:0.5 10:0.5625 
0.30739732094758127 1:0.125 2:0.625 3:0.5625 4:0.375 5:0.75 6:1.0 7:0.8125 8:0.25 9:0.0 10:0.125 
-1.0 1:0.625 2:0.0625 3:0.4375 4:0.0625 5:0.1875 6:0.1875 7:0.1875 8:0.9375 9:0.5 10:0.5 
0.23777534728110353 1:0.625 2:0.25 3:0.4375 4:0.0625 5:0.1875 6:0.6875 7:0.0 8:0.8125 9:0.5 10:0.1875 
1.0 1:0.75 2:0.6875 3:0.75 4:0.5625 5:0.625 6:0.875 7:0.25 8:0.6875 9:0.125 10:0.25 
0.47990922729407276 1:0.625 2:0.375 3:0.0 4:0.0625 5:0.25 6:0.0625 7:0.4375 8:0.125 9:0.625 10:0.75 
-1.0 1:0.125 2:0.125 3:0.5 4:0.5 5:0.3125 6:0.4375 7:0.5 8:0.875 9:0.625 10:0.375 
0.8269990688986524 1:0.3125 2:0.5 3:0.1875 4:0.5 5:0.875 6:0.75 7:0.8125 8:0.1875 9:0.5 10:0.4375 
-0.13657439805555466 1:0.5 2:0.5 3:0.375 4:0.0625 5:0.5625 6:0.0 7:0.3125 8:0.125 9:0.5 10:0.5 
-0.32248691581914624 1:0.875 2:0.4375 3:0.5 4:0.5 5:0.0 6:0.375 7:0.4375 8:0.9375 9:0.5 10:0.0625 
0.3257187367217052 1:0.5 2:1.0 3:0.5 4:1.0 5:0.6875 6:0.875 7:0.625 8:0.3125 9:0.5 10:0.5 
1.0 1:0.875 2:0.625 3:0.625 4:0.3125 5:0.5 6:0.3125 7:0.25 8:0.125 9:0.3125 10:0.4375 
0.8324419667901584 1:0.1875 2:0.5 3:0.0625 4:0.4375 5:0.75 6:0.375 7:0.375 8:0.4375 9:0.25 10:0.4375 
1.0 1:0.8125 2:0.375 3:0.625 4:0.8125 5:0.25 6:0.6875 7:0.75 8:0.5625 9:1.0 10:0.5 
0.8448890205491664 1:0.6875 2:0.25 3:0.5625 4:0.4375 5:0.1875 6:0.25 7:0.1875 8:0.9375 9:0.375 10:0.125 
0.48927379408881383 1:0.375 2:0.25 3:0.0 4:0.25 5:0.5625 6:0.5 7:0.875 8:0.125 9:0.5625 10:0.9375 
-1.0 1:0.25 2:0.25 3:0.375 4:0.125 5:0.6875 6:0.5625 7:0.1875 8:0.8125 9:0.3125 10:0.25 
-1.0 1:0.875 2:0.75 3:0.875 4:1.0 5:0.875 6:0.625 7:1.0 8:0.5 9:0.6875 10:1.0 
1.0 1:0.8125 2:0.4375 3:0.6875 4:0.9375 5:0.25 6:0.5625 7:0.3125 8:0.875 9:0.8125 10:0.5625 
-1.0 1:0.5625 2:0.5 3:0.5 4:0.6875 5:0.5 6:0.5 7:0.625 8:0.1875 9:0.75 10:0.9375 
-1.0 1:0.4375 2:0.4375 3:1.0 4:0.125 5:0.375 6:0.5 7:0.25 8:0.6875 9:0.25 10:0.0625 
1.0 1:0.8125 2:0.875 3:0.8125 4:0.75 5:0.75 6:0.1875 7:0.4375 8:0.1875 9:0.0 10:0.375 
0.08337924357454979 1:0.625 2:0.3125 3:0.5 4:0.75 5:0.375 6:0.0625 7:0.5 8:0.6875 9:0.875 10:0.75 
-0.10667420975126275 1:0.5 2:0.875 3:0.3125 4:0.6875 5:0.5 6:0.1875 7:0.625 8:0.125 9:0.9375 10:1.0 
-0.1474490724205472 1:1.0 2:0.5 3:0.5 4:0.1875 5:0.4375 6:0.3125 7:0.0 8:0.5 9:0.0625 10:0.5 
-0.35525919949238066 1:1.0 2:0.8125 3:0.4375 4:0.625 5:0.5 6:0.4375 7:0.1875 8:0.1875 9:0.375 10:0.5 
1.0 1:0.625 2:0.5 3:0.875 4:0.875 5:0.5 6:0.5 7:0.8125 8:0.75 9:0.5625 10:0.5625 
0.1798026526660263 1:0.75 2:0.4375 3:0.125 4:0.9375 5:0.5 6:0.1875 7:0.625 8:0.0 9:0.9375 10:1.0 
0.3737326784910926 1:0.125 2:0.25 3:0.0625 4:0.125 5:0.5 6:0.875 7:0.5625 8:0.9375 9:0.5625 10:0.125 
-0.1272934238489354 1:0.5 2:0.625 3:0.9375 4:0.5 5:0.625 6:0.6875 7:0.75 8:0.6875 9:0.1875 10:0.0 
1.0 1:0.5625 2:0.4375 3:0.4375 4:0.875 5:0.125 6:0.4375 7:0.5625 8:1.0 9:0.9375 10:0.625 
-0.9887518354024415 1:0.1875 2:0.5 3:0.25 4:0.5 5:0.8125 6:0.8125 7:0.625 8:0.0 9:0.25 10:0.5 
-1.0 1:0.625 2:0.5625 3:0.8125 4:0.75 5:0.375 6:0.4375 7:0.1875 8:0.8125 9:0.375 10:0.4375 
-0.46910599316987434 1:0.8125 2:0.625 3:0.3125 4:0.4375 5:0.9375 6:0.0625 7:0.3125 8:0.0 9:0.1875 10:0.6875 
-0.5110550495238128 1:0.0 2:0.125 3:0.1875 4:0.5625 5:0.25 6:0.3125 7:0.625 8:0.375 9:0.9375 10:0.8125 
-0.8117666095627728 1:0.4375 2:0.5 3:0.5 4:0.375 5:1.0 6:0.25 7:0.375 8:0.0 9:0.125 10:0.5 
-1.0 1:0.5 2:0.375 3:0.0625 4:0.0625 5:0.0625 6:0.375 7:0.125 8:0.5 9:0.3125 10:0.625 
0.7220681708972986 1:0.625 2:0.0625 3:0.5625 4:0.0 5:0.4375 6:0.5625 7:0.0 8:0.875 9:0.4375 10:0.375 
0.021331306934103914 1:0.625 2:0.5625 3:0.625 4:0.9375 5:0.625 6:0.625 7:0.9375 8:0.75 9:0.75 10:0.5 
-1.0 1:0.3125 2:0.875 3:0.5 4:0.4375 5:0.8125 6:0.9375 7:0.25 8:0.375 9:0.1875 10:0.125 
0.5827627371803432 1:0.25 2:0.9375 3:0.5 4:0.25 5:0.6875 6:0.6875 7:0.4375 8:0.4375 9:0.125 10:0.5 
1.0 1:0.5 2:0.8125 3:0.375 4:0.4375 5:0.875 6:0.25 7:0.75 8:0.0625 9:0.0625 10:0.9375 
-0.43831101420637314 1:0.9375 2:0.625 3:0.1875 4:0.8125 5:0.5 6:0.0 7:0.1875 8:0.25 9:0.5 10:0.6875 
0.6243225087217219 1:0.75 2:0.5 3:1.0 4:0.625 5:0.625 6:1.0 7:0.625 8:0.6875 9:0.5 10:0.5 
1.0 1:0.5625 2:0.8125 3:0.3125 4:0.4375 5:0.4375 6:0.1875 7:0.25 8:0.0625 9:0.25 10:0.25 
0.6504556764608985 1:0.8125 2:0.6875 3:0.5 4:0.25 5:0.5 6:0.3125 7:0.0625 8:0.0625 9:0.1875 10:0.0 
0.1343618892385223 1:0.4375 2:0.75 3:0.8125 4:0.0625 5:0.75 6:0.875 7:0.5 8:0.625 9:0.125 10:0.3125 
0.8937906821184465 1:0.375 2:0.8125 3:0.1875 4:0.0 5:0.9375 6:0.0625 7:0.125 8:0.1875 9:0.0625 10:0.4375 
1.0 1:0.6875 2:0.625 3:0.625 4:0.5 5:0.6875 6:0.1875 7:0.5 8:0.1875 9:0.4375 10:0.5 
1.0 1:0.625 2:0.25 3:0.5 4:0.0625 5:0.1875 6:0.0 7:0.125 8:1.0 9:0.5 10:0.375 
0.1928462350281903 1:0.375 2:0.375 3:0.5625 4:0.125 5:1.0 6:0.5625 7:0.4375 8:0.5 9:0.375 10:0.4375 
-0.008337285642983373 1:0.5 2:0.9375 3:0.0 4:0.625 5:0.6875 6:0.1875 7:0.3125 8:0.0 9:0.25 10:0.6875 
-1.0 1:0.5 2:0.125 3:0.5625 4:0.5 5:0.0 6:0.8125 7:0.5 8:0.625 9:1.0 10:0.3125 
0.5322703186231174 1:1.0 2:0.875 3:0.8125 4:1.0 5:0.0 6:0.5625 7:0.25 8:0.5625 9:0.4375 10:0.25 
-0.9320264283807119 1:0.1875 2:0.4375 3:0.5 4:0.3125 5:0.75 6:1.0 7:0.5 8:0.9375 9:0.375 10:0.4375 
-0.5288032443720925 1:0.0625 2:0.1875 3:0.3125 4:0.0 5:1.0 6:0.5 7:0.875 8:0.0 9:0.4375 10:0.5625 
-0.8081351491722294 1:0.625 2:0.8125 3:0.5 4:0.75 5:0.8125 6:0.5625 7:0.625 8:0.375 9:0.1875 10:0.625 
-1.0 1:0.0625 2:0.0 3:0.0 4:0.375 5:0.75 6:1.0 7:0.875 8:0.5 9:0.375 10:0.5625 
0.1337419142174242 1:0.25 2:0.75 3:0.125 4:0.3125 5:0.625 6:0.5 7:0.4375 8:0.0 9:0.0 10:0.1875 
-0.1921974453527243 1:0.6875 2:0.6875 3:0.4375 4:0.8125 5:0.75 6:0.4375 7:0.625 8:0.1875 9:0.9375 10:0.9375 
-0.4821220227562122 1:0.0625 2:0.6875 3:0.0 4:0.25 5:0.6875 6:0.5 7:0.75 8:0.0 9:0.25 10:0.6875 
-1.0 1:0.8125 2:0.6875 3:0.75 4:0.8125 5:0.0625 6:0.375 7:0.0 8:0.9375 9:0.5 10:0.5 
-1.0 1:0.375 2:0.5625 3:0.3125 4:0.5625 5:0.5 6:0.3125 7:0.75 8:0.125 9:0.3125 10:1.0 
-0.030026857936637515 1:0.5 2:0.0 3:0.375 4:0.25 5:0.1875 6:0.375 7:0.0625 8:0.25 9:0.4375 10:0.5 
0.10367296062431357 1:0.5 2:0.25 3:0.375 4:0.0625 5:0.1875 6:0.0 7:0.0625 8:0.8125 9:0.25 10:0.125 
-0.29845943104288997 1:0.9375 2:0.75 3:0.9375 4:0.625 5:0.5 6:0.0 7:0.375 8:0.1875 9:0.3125 10:0.375 
-0.5531315072203431 1:0.4375 2:0.9375 3:1.0 4:0.5625 5:0.5 6:1.0 7:0.4375 8:0.75 9:0.1875 10:0.1875 
1.0 1:0.125 2:0.0625 3:0.0625 4:0.375 5:0.25 6:0.8125 7:0.625 8:0.5625 9:1.0 10:0.5 
-1.0 1:0.4375 2:0.75 3:0.5625 4:0.5 5:0.5 6:0.5625 7:0.0625 8:0.4375 9:0.1875 10:0.1875 
-0.9689858798997941 1:0.875 2:1.0 3:0.875 4:0.875 5:0.5 6:0.6875 7:0.6875 8:1.0 9:0.5 10:0.125 
0.4360024966221997 1:0.375 2:0.5625 3:0.5 4:0.875 5:0.5 6:0.5 7:0.625 8:0.125 9:0.5 10:1.0 
-0.32710446232357 1:0.4375 2:0.5 3:0.5625 4:0.5 5:0.1875 6:0.875 7:0.375 8:0.8125 9:0.4375 10:0.0625 
0.2902306530460192 1:0.125 2:0.5625 3:0.5 4:0.9375 5:0.5625 6:0.8125 7:1.0 8:0.5625 9:0.5 10:0.5 
0.5241039518125197 1:0.25 2:0.0625 3:0.75 4:0.4375 5:0.5625 6:0.875 7:0.875 8:0.75 9:0.625 10:0.5 
0.23985118200370914 1:0.625 2:0.5625 3:0.4375 4:0.1875 5:0.125 6:0.125 7:0.25 8:0.25 9:0.0625 10:0.25 
0.30357162949692645 1:0.25 2:0.125 3:0.5 4:0.5 5:0.3125 6:0.75 7:1.0 8:1.0 9:0.9375 10:0.25 
-1.0 1:0.375 2:0.5625 3:0.625 4:0.625 5:0.9375 6:1.0 7:0.5 8:0.3125 9:0.125 10:0.5 
-0.07059097640942062 1:0.25 2:0.0625 3:0.0625 4:0.25 5:0.375 6:0.75 7:0.75 8:0.8125 9:0.9375 10:0.5 
0.4416514683059225 1:0.3125 2:0.1875 3:0.5 4:0.4375 5:1.0 6:0.9375 7:0.875 8:0.8125 9:0.625 10:0.375 
-1.0 1:0.625 2:1.0 3:0.9375 4:0.5625 5:0.8125 6:0.625 7:0.625 8:0.5 9:0.0 10:0.5625 
1.0 1:0.375 2:0.5 3:0.0 4:0.5625 5:0.9375 6:0.25 7:0.4375 8:0.0625 9:0.4375 10:0.6875 
-0.3470575926095908 1:0.0 2:0.0625 3:0.4375 4:0.0625 5:0.5 6:0.625 7:0.4375 8:0.8125 9:0.625 10:0.5625 
0.25473485566292975 1:0.9375 2:0.875 3:0.625 4:0.6875 5:0.5625 6:0.4375 7:0.75 8:0.125 9:0.375 10:0.5625 
-1.0 1:0.25 2:0.5625 3:0.125 4:0.3125 5:0.875 6:0.4375 7:0.5 8:0.4375 9:0.5 10:0.625 
0.13003950382549245 1:0.875 2:0.6875 3:1.0 4:0.9375 5:0.1875 6:0.5 7:0.625 8:0.625 9:0.75 10:0.25 
-0.5619966626508234 1:0.125 2:0.875 3:0.4375 4:0.5 5:0.8125 6:1.0 7:0.9375 8:0.0 9:0.3125 10:0.5 
-1.0 1:0.25 2:0.125 3:0.1875 4:0.4375 5:0.5625 6:0.5 7:0.75 8:0.3125 9:0.3125 10:0.6875 
-0.5350914184308208 1:0.5625 2:0.375 3:0.3125 4:0.1875 5:0.4375 6:0.0625 7:0.25 8:0.375 9:0.0625 10:0.75 
-0.33396661544842887 1:0.5625 2:0.5625 3:0.625 4:0.6875 5:0.8125 6:0.5 7:0.8125 8:0.1875 9:0.5 10:1.0 
1.0 1:0.8125 2:0.3125 3:0.375 4:0.5625 5:0.125 6:0.1875 7:0.375 8:0.875 9:0.6875 10:0.5625 
-0.08464762319932338 1:0.0 2:0.3125 3:0.125 4:0.1875 5:1.0 6:0.75 7:0.5 8:0.0625 9:0.0 10:0.5 
0.311444944826348 1:0.6875 2:0.9375 3:0.8125 4:1.0 5:0.8125 6:1.0 7:0.4375 8:0.6875 9:0.375 10:0.1875 
0.11245527259050297 1:1.0 2:0.8125 3:0.9375 4:0.875 5:0.5625 6:0.1875 7:0.5625 8:0.5 9:0.5 10:0.5 
-1.0 1:0.625 2:0.75 3:0.75 4:1.0 5:0.8125 6:0.875 7:0.5625 8:0.8125 9:0.5 10:0.375 
-0.3348270641340801 1:0.6875 2:1.0 3:0.4375 4:0.0 5:0.5625 6:0.0 7:0.3125 8:0.125 9:0.125 10:0.375 
0.4068253937350188 1:0.625 2:0.5 3:0.8125 4:0.1875 5:0.25 6:0.375 7:0.3125 8:1.0 9:0.5 10:0.0625 
0.7984751272384515 1:0.5625 2:0.875 3:0.5625 4:1.0 5:0.8125 6:0.5 7:0.5 8:0.0 9:0.625 10:0.9375 
-0.7888220543501699 1:0.0625 2:0.625 3:0.0 4:0.5625 5:0.8125 6:0.375 7:0.5 8:0.125 9:0.4375 10:0.5625 
1.0 1:0.5625 2:0.25 3:1.0 4:0.0625 5:0.3125 6:0.625 7:0.5 8:1.0 9:0.5 10:0.0 
0.1638184486726447 1:0.0625 2:0.25 3:0.25 4:0.5 5:0.625 6:0.625 7:0.875 8:0.125 9:0.8125 10:1.0 
0.08716976594028458 1:0.8125 2:0.4375 3:0.0 4:0.3125 5:0.25 6:0.0625 7:0.25 8:0.0 9:0.0625 10:0.5 
0.14650389145115256 1:0.9375 2:0.625 3:0.6875 4:0.5 5:0.375 6:0.5 7:0.5 8:0.875 9:0.5625 10:0.0 
