encog,SVM,java,3.2.0,1,1406057732235
[SVM]
[SVM:PARAMS]
[SVM:SVM-PARAM]
inputCount=21
C=1
cacheSize=100
coef0=0
degree=3
eps=0.001
gamma=1
kernelType=2
nrWeight=0
nu=0.5
p=0.1
probability=0
shrinking=1
svmType=3
weight=
weightLabel=
[SVM:SVM-MODEL]
svm_type epsilon_svr
kernel_type rbf
gamma 1.0
nr_class 2
total_sv 400
rho -0.4133071835396766
SV
0.2808755058085768 1:0.3125 2:0.375 3:0.75 4:0.625 5:0.5 6:0.8125 7:0.5 8:0.875 9:0.8125 10:1.0 11:0.75 12:0.6875 13:0.75 14:0.625 15:0.8125 16:0.0 17:0.4375 18:0.4375 19:0.4375 20:0.4375 21:0.375 
0.08090626255809806 1:0.8125 2:0.0625 3:0.375 4:1.0 5:0.5625 6:0.25 7:0.25 8:0.3125 9:0.625 10:0.5625 11:0.125 12:0.5 13:0.9375 14:0.6875 15:0.0625 16:1.0 17:0.6875 18:0.3125 19:0.0625 20:0.0625 21:0.25 
0.05891615007392987 1:0.9375 2:0.5 3:0.6875 4:0.625 5:0.6875 6:1.0 7:0.4375 8:0.4375 9:0.875 10:0.625 11:0.875 12:0.4375 13:0.8125 14:1.0 15:0.5 16:0.75 17:0.8125 18:0.75 19:0.5 20:0.5 21:0.5625 
0.040012430692543184 1:0.125 2:0.1875 3:0.4375 4:0.4375 5:0.4375 6:0.125 7:0.0 8:0.8125 9:0.5 10:0.75 11:0.0 12:0.75 13:0.6875 14:0.75 15:0.25 16:0.375 17:0.5 18:0.0 19:0.5 20:0.375 21:0.125 
-0.2074411159495932 1:0.1875 2:0.0625 3:0.375 4:0.0625 5:0.125 6:0.3125 7:0.0 8:0.625 9:0.125 10:0.625 11:0.8125 12:0.8125 13:0.9375 14:0.625 15:0.875 16:0.125 17:0.4375 18:0.5 19:0.625 20:0.6875 21:0.625 
0.00889824563718004 1:0.5 2:0.5 3:0.5625 4:0.5625 5:0.3125 6:0.875 7:0.8125 8:0.625 9:0.75 10:0.125 11:0.875 12:0.5 13:0.625 14:0.125 15:0.9375 16:0.75 17:0.25 18:0.875 19:0.375 20:0.375 21:0.875 
-0.05583912853458127 1:0.8125 2:0.75 3:0.5 4:0.75 5:0.6875 6:0.5 7:0.75 8:0.5625 9:0.8125 10:0.1875 11:0.4375 12:0.125 13:0.4375 14:0.1875 15:0.0625 16:1.0 17:0.3125 18:0.5625 19:0.0 20:0.0625 21:0.625 
-0.4063659975603653 1:0.625 2:0.875 3:0.3125 4:0.4375 5:0.125 6:0.25 7:0.875 8:0.5625 9:0.6875 10:0.0625 11:0.25 12:0.125 13:0.25 14:0.0625 15:0.0 16:0.5625 17:0.1875 18:0.1875 19:0.25 20:0.3125 21:0.375 
-0.23435952114857822 1:1.0 2:0.5 3:0.0 4:1.0 5:0.5 6:0.9375 7:0.1875 8:0.0 9:0.125 10:0.25 11:0.3125 12:0.375 13:0.5 14:0.0625 15:0.75 16:0.8125 17:0.625 18:0.9375 19:0.0 20:0.5 21:0.875 
-0.15855350810915622 1:0.5 2:0.875 3:0.375 4:0.4375 5:0.375 6:0.5625 7:0.9375 8:0.25 9:0.4375 10:0.125 11:0.5625 12:0.125 13:0.0625 14:0.25 15:0.4375 16:0.4375 17:0.375 18:1.0 19:0.8125 20:0.9375 21:0.875 
-0.17638891614854071 1:0.8125 2:0.6875 3:0.75 4:1.0 5:0.375 6:0.9375 7:0.8125 8:0.75 9:0.9375 10:0.3125 11:0.875 12:0.5 13:0.9375 14:0.1875 15:0.5 16:0.5 17:0.375 18:0.4375 19:0.25 20:0.25 21:1.0 
0.20284329520451383 1:0.875 2:0.625 3:0.4375 4:0.25 5:0.625 6:0.6875 7:0.0625 8:0.3125 9:0.0625 10:0.0 11:0.375 12:0.5 13:0.25 14:0.125 15:0.5625 16:0.5 17:0.625 18:0.75 19:0.875 20:0.8125 21:0.8125 
0.4453763002408395 1:0.6875 2:1.0 3:0.6875 4:1.0 5:0.875 6:0.75 7:0.875 8:0.9375 9:0.5625 10:0.5 11:0.6875 12:0.4375 13:0.1875 14:0.0625 15:0.25 16:0.625 17:0.4375 18:0.25 19:0.125 20:0.125 21:0.4375 
0.041850116768279204 1:0.0 2:0.3125 3:0.1875 4:0.375 5:0.6875 6:0.3125 7:0.5 8:0.8125 9:0.875 10:0.75 11:0.5625 12:0.5 13:0.9375 14:0.875 15:0.6875 16:0.75 17:0.5625 18:0.3125 19:0.5625 20:0.25 21:0.1875 
0.5183522624311971 1:0.375 2:0.3125 3:0.5 4:1.0 5:0.5 6:0.5 7:0.3125 8:0.9375 9:1.0 10:0.5 11:0.5 12:0.8125 13:1.0 14:0.8125 15:0.6875 16:0.8125 17:0.375 18:0.375 19:0.0 20:0.125 21:0.875 
-0.07469025449575593 1:0.75 2:1.0 3:0.9375 4:0.375 5:0.75 6:0.5 7:0.75 8:0.6875 9:0.125 10:0.5 11:0.6875 12:0.375 13:0.1875 14:0.1875 15:0.0625 16:0.125 17:0.3125 18:0.0 19:0.6875 20:1.0 21:0.5625 
-0.07037983294858165 1:0.6875 2:0.6875 3:0.5 4:0.125 5:0.0 6:0.25 7:0.5625 8:0.4375 9:0.1875 10:0.375 11:0.0625 12:0.5625 13:0.25 14:0.125 15:0.0625 16:0.0 17:0.4375 18:0.1875 19:0.625 20:0.6875 21:0.0625 
0.2598003114674157 1:0.5625 2:0.9375 3:0.8125 4:0.5625 5:0.4375 6:0.1875 7:0.625 8:0.3125 9:0.25 10:0.4375 11:0.4375 12:0.375 13:0.0625 14:0.0 15:0.125 16:0.5 17:0.5 18:0.4375 19:0.5 20:0.25 21:0.5625 
-0.07944976486790217 1:0.875 2:0.9375 3:0.375 4:0.5625 5:0.5625 6:0.5 7:0.0625 8:0.0 9:0.25 10:0.1875 11:0.3125 12:0.25 13:0.4375 14:0.5 15:0.3125 16:0.9375 17:0.9375 18:0.6875 19:0.9375 20:0.125 21:0.0 
0.1512760066923064 1:0.5625 2:0.5625 3:0.0 4:0.4375 5:0.125 6:0.125 7:0.625 8:0.25 9:0.5 10:0.125 11:0.1875 12:0.375 13:0.5 14:0.4375 15:0.25 16:0.75 17:0.5 18:0.0 19:0.4375 20:0.3125 21:0.5 
0.1361881972614437 1:0.625 2:0.5 3:0.75 4:0.4375 5:0.4375 6:0.6875 7:0.0 8:0.5 9:0.375 10:0.0 11:0.5 12:0.625 13:0.4375 14:0.8125 15:0.8125 16:0.0625 17:0.375 18:0.8125 19:0.9375 20:0.75 21:0.8125 
-0.35639118973673045 1:0.5625 2:0.5625 3:0.5625 4:0.9375 5:0.6875 6:0.4375 7:0.625 8:0.625 9:1.0 10:0.6875 11:0.75 12:0.75 13:0.5 14:0.4375 15:0.5 16:0.6875 17:0.5 18:0.375 19:0.4375 20:0.125 21:0.25 
0.10595933562228448 1:0.4375 2:0.4375 3:0.8125 4:0.5 5:0.5625 6:0.9375 7:0.4375 8:0.9375 9:0.125 10:0.6875 11:0.8125 12:0.9375 13:0.5625 14:0.75 15:1.0 16:0.125 17:0.5 18:0.3125 19:1.0 20:0.8125 21:0.875 
-0.21079882190290525 1:0.0625 2:0.1875 3:0.4375 4:0.25 5:0.5625 6:0.5 7:0.0625 8:0.4375 9:0.5 10:0.8125 11:0.5 12:0.75 13:0.9375 14:0.75 15:0.9375 16:0.6875 17:1.0 18:0.625 19:0.625 20:0.625 21:0.5 
0.04561888301093989 1:0.8125 2:0.5625 3:0.5625 4:0.5 5:0.5625 6:0.625 7:0.75 8:0.4375 9:0.1875 10:0.0 11:0.25 12:0.4375 13:0.0 14:0.0 15:0.125 16:0.0 17:0.5 18:0.4375 19:0.625 20:0.5 21:0.5 
0.1725181025706426 1:0.5625 2:0.625 3:0.25 4:0.9375 5:0.625 6:0.9375 7:0.5 8:0.0 9:0.75 10:0.5625 11:0.5 12:0.1875 13:0.5 14:0.5625 15:0.25 16:1.0 17:0.875 18:1.0 19:0.375 20:0.1875 21:0.5 
0.11567977969652486 1:0.8125 2:0.5625 3:0.375 4:0.875 5:0.5 6:1.0 7:0.25 8:0.1875 9:0.625 10:0.0 11:0.6875 12:0.375 13:0.625 14:0.125 15:0.5 16:0.8125 17:0.3125 18:0.625 19:0.0625 20:0.1875 21:0.75 
0.04849366191299635 1:0.8125 2:0.4375 3:0.9375 4:0.0625 5:0.75 6:0.75 7:0.3125 8:0.4375 9:0.0 10:0.5 11:0.6875 12:0.8125 13:0.375 14:0.5 15:1.0 16:0.375 17:0.4375 18:0.6875 19:0.9375 20:1.0 21:0.6875 
0.06790219529122002 1:0.1875 2:0.3125 3:0.0625 4:0.3125 5:0.3125 6:0.1875 7:0.25 8:0.3125 9:0.5625 10:0.625 11:0.875 12:0.25 13:0.5 14:0.75 15:0.875 16:0.5625 17:0.75 18:0.9375 19:0.8125 20:0.6875 21:0.75 
0.21660343189828626 1:0.0625 2:0.5625 3:0.0 4:0.5 5:0.25 6:0.5 7:0.75 8:0.9375 9:0.75 10:0.6875 11:0.8125 12:0.1875 13:0.3125 14:0.3125 15:0.5 16:0.9375 17:1.0 18:0.9375 19:0.3125 20:0.5 21:0.5 
-0.08510028880779484 1:0.75 2:0.375 3:0.4375 4:0.0 5:0.5 6:0.5 7:0.375 8:0.1875 9:0.1875 10:0.125 11:0.4375 12:0.6875 13:0.375 14:0.5 15:0.5625 16:0.3125 17:0.875 18:0.9375 19:0.6875 20:0.8125 21:0.6875 
-0.0416162588019913 1:0.3125 2:0.3125 3:0.375 4:0.6875 5:0.75 6:0.1875 7:0.5 8:0.3125 9:0.75 10:0.75 11:0.4375 12:0.25 13:0.5 14:0.75 15:0.375 16:0.8125 17:0.8125 18:0.375 19:0.5 20:0.4375 21:0.3125 
1.0 1:0.25 2:0.3125 3:1.0 4:0.6875 5:0.625 6:0.125 7:0.5625 8:0.875 9:1.0 10:0.5 11:0.5625 12:0.8125 13:0.75 14:0.5 15:0.4375 16:0.4375 17:0.3125 18:0.375 19:0.3125 20:0.3125 21:0.5 
-0.08017069852069712 1:0.5625 2:0.375 3:1.0 4:1.0 5:0.5 6:0.6875 7:0.0625 8:0.5 9:0.5625 10:0.5625 11:0.75 12:0.875 13:0.9375 14:0.9375 15:0.625 16:0.5 17:0.5 18:0.75 19:0.25 20:0.6875 21:0.5625 
0.26350543675611265 1:1.0 2:0.6875 3:0.5625 4:0.8125 5:0.875 6:0.5 7:0.3125 8:0.125 9:0.875 10:0.4375 11:0.125 12:0.75 13:0.9375 14:0.75 15:0.4375 16:0.9375 17:0.6875 18:0.625 19:0.4375 20:0.3125 21:0.4375 
0.5395593991008673 1:0.875 2:0.6875 3:0.4375 4:0.75 5:0.625 6:0.875 7:0.375 8:0.4375 9:0.875 10:0.4375 11:0.5 12:0.0 13:0.5625 14:0.5625 15:0.3125 16:0.875 17:0.875 18:0.5 19:0.4375 20:0.375 21:0.4375 
-0.8081055119571432 1:0.9375 2:0.625 3:0.4375 4:0.5 5:0.5 6:0.75 7:0.1875 8:0.125 9:0.125 10:0.1875 11:0.25 12:0.625 13:0.625 14:0.6875 15:0.625 16:0.75 17:0.5 18:0.8125 19:0.75 20:0.625 21:0.5 
-0.020607427983303846 1:0.5625 2:0.875 3:0.5625 4:0.6875 5:0.1875 6:0.25 7:0.5 8:0.0 9:0.6875 10:0.375 11:0.25 12:0.0625 13:0.5 14:0.25 15:0.125 16:1.0 17:0.4375 18:0.625 19:0.1875 20:0.0625 21:0.5625 
-0.40329596772506376 1:0.375 2:0.75 3:0.125 4:0.25 5:0.4375 6:0.4375 7:0.9375 8:0.4375 9:0.5625 10:0.8125 11:0.625 12:0.1875 13:0.0625 14:0.25 15:0.0 16:0.75 17:0.5625 18:0.8125 19:0.5 20:0.4375 21:0.0 
-0.1363288515765318 1:0.375 2:0.3125 3:0.0625 4:0.25 5:0.4375 6:0.4375 7:0.125 8:0.4375 9:0.4375 10:0.8125 11:0.5625 12:1.0 13:0.5 14:0.75 15:0.5625 16:0.5 17:0.875 18:0.9375 19:0.6875 20:0.5625 21:0.4375 
-0.13687486682827876 1:0.4375 2:0.5 3:0.3125 4:0.0 5:0.1875 6:0.125 7:0.8125 8:0.5625 9:0.5 10:0.5625 11:0.75 12:0.3125 13:0.25 14:0.0 15:0.3125 16:0.4375 17:0.1875 18:0.3125 19:0.8125 20:0.75 21:0.5 
-0.17605586477836654 1:0.625 2:0.1875 3:0.5 4:0.1875 5:0.5 6:0.3125 7:0.375 8:0.875 9:0.25 10:0.375 11:0.375 12:0.9375 13:0.5 14:0.5625 15:0.8125 16:0.1875 17:0.125 18:0.4375 19:0.625 20:0.8125 21:0.9375 
-0.40700816274127954 1:0.4375 2:0.875 3:0.0625 4:0.3125 5:0.1875 6:0.5 7:0.4375 8:0.125 9:0.125 10:0.1875 11:0.625 12:0.1875 13:0.375 14:0.125 15:0.375 16:0.625 17:0.9375 18:0.875 19:0.5 20:0.6875 21:0.6875 
0.5703995608436438 1:0.5 2:0.125 3:0.375 4:0.1875 5:0.3125 6:0.25 7:0.1875 8:0.6875 9:0.5 10:0.5 11:0.5 12:1.0 13:0.5 14:0.5 15:1.0 16:0.5 17:0.0625 18:0.5 19:0.1875 20:0.6875 21:0.5625 
-0.13453960202262377 1:0.625 2:0.9375 3:0.625 4:0.3125 5:0.5 6:0.4375 7:0.8125 8:0.5 9:0.1875 10:0.3125 11:0.1875 12:0.25 13:0.0 14:0.25 15:0.125 16:0.125 17:0.25 18:0.5625 19:0.75 20:0.5 21:0.6875 
-0.07442901296651656 1:0.625 2:0.4375 3:0.0625 4:0.875 5:0.6875 6:0.5 7:0.0 8:0.1875 9:0.1875 10:0.0625 11:0.0625 12:0.3125 13:0.5625 14:0.5625 15:0.375 16:1.0 17:0.8125 18:0.9375 19:0.375 20:0.125 21:0.375 
0.4313338027977358 1:0.4375 2:0.375 3:0.3125 4:0.1875 5:0.4375 6:0.3125 7:0.5625 8:0.375 9:0.5 10:0.5 11:0.25 12:0.4375 13:0.4375 14:0.75 15:0.625 16:0.8125 17:0.625 18:0.5 19:0.5 20:0.25 21:0.3125 
-0.22133351435677695 1:0.375 2:0.1875 3:0.75 4:0.25 5:0.3125 6:0.3125 7:0.4375 8:0.5 9:0.5 10:0.4375 11:0.25 12:0.875 13:0.5 14:0.875 15:0.6875 16:0.5 17:0.3125 18:0.375 19:0.375 20:0.5 21:0.5 
0.18342627311893797 1:0.375 2:0.75 3:0.6875 4:0.8125 5:0.4375 6:0.9375 7:0.9375 8:0.625 9:0.875 10:0.625 11:1.0 12:0.4375 13:0.5 14:0.375 15:1.0 16:0.875 17:0.375 18:1.0 19:0.1875 20:0.3125 21:0.75 
0.030234798125239163 1:0.5625 2:0.6875 3:0.6875 4:0.5 5:0.75 6:0.5625 7:0.5625 8:0.125 9:0.3125 10:0.1875 11:0.5625 12:0.0 13:0.0625 14:0.1875 15:0.5 16:0.125 17:0.5 18:0.75 19:0.5 20:0.625 21:0.9375 
0.26518465704738686 1:0.375 2:0.9375 3:0.375 4:0.875 5:0.6875 6:0.875 7:0.625 8:0.4375 9:0.9375 10:0.75 11:0.5625 12:0.375 13:0.8125 14:0.6875 15:0.8125 16:0.8125 17:0.9375 18:0.625 19:0.5625 20:0.5625 21:0.375 
0.20462620190520742 1:0.5 2:0.5 3:0.375 4:0.8125 5:0.75 6:0.8125 7:0.5625 8:0.25 9:0.625 10:0.5 11:0.6875 12:0.125 13:0.9375 14:0.5 15:1.0 16:0.9375 17:0.5 18:0.9375 19:0.25 20:0.3125 21:0.6875 
0.09746105927025261 1:0.3125 2:0.5 3:0.5625 4:0.0 5:0.3125 6:0.4375 7:0.5625 8:0.6875 9:0.5625 10:0.0625 11:0.5 12:0.8125 13:0.4375 14:0.3125 15:0.125 16:0.125 17:0.125 18:0.3125 19:0.0625 20:0.4375 21:0.5 
-0.2754631824199165 1:1.0 2:0.5 3:0.5 4:0.3125 5:0.6875 6:1.0 7:0.0 8:0.25 9:0.0 10:0.1875 11:0.0625 12:0.4375 13:0.0 14:0.5 15:0.8125 16:0.4375 17:0.625 18:0.875 19:0.9375 20:0.75 21:1.0 
-0.6698219100930426 1:0.8125 2:0.1875 3:0.8125 4:0.5 5:0.1875 6:0.5 7:0.0625 8:0.3125 9:0.1875 10:0.1875 11:0.0625 12:0.875 13:0.6875 14:0.625 15:0.75 16:0.5 17:0.4375 18:0.6875 19:0.25 20:0.6875 21:1.0 
-0.038520165827069915 1:0.75 2:0.9375 3:0.875 4:0.6875 5:0.5 6:0.5 7:0.75 8:0.8125 9:1.0 10:0.9375 11:0.5 12:0.1875 13:0.4375 14:0.1875 15:0.0 16:0.5625 17:0.4375 18:0.0625 19:0.0625 20:0.125 21:0.4375 
0.2500681783326678 1:0.6875 2:0.0 3:0.5625 4:0.375 5:0.5 6:0.5625 7:0.125 8:0.1875 9:0.0625 10:0.25 11:0.75 12:1.0 13:0.4375 14:0.5 15:0.6875 16:0.0625 17:0.4375 18:0.5 19:0.5 20:0.6875 21:1.0 
0.13283480008481902 1:0.4375 2:0.4375 3:0.4375 4:0.5625 5:0.5 6:0.0 7:0.5 8:0.25 9:0.75 10:0.6875 11:0.125 12:0.3125 13:0.625 14:0.5 15:0.4375 16:0.5625 17:0.8125 18:0.3125 19:0.125 20:0.25 21:0.1875 
-0.6608355658422014 1:0.8125 2:0.4375 3:0.0 4:0.6875 5:0.5 6:0.1875 7:0.25 8:0.3125 9:0.4375 10:0.4375 11:0.375 12:0.4375 13:0.875 14:0.4375 15:0.25 16:0.75 17:0.875 18:0.625 19:0.1875 20:0.375 21:0.5 
0.10942507623786976 1:0.0625 2:0.0625 3:0.1875 4:0.4375 5:0.375 6:0.25 7:0.125 8:0.125 9:0.8125 10:0.75 11:0.9375 12:0.625 13:0.8125 14:0.8125 15:0.75 16:0.875 17:0.9375 18:0.6875 19:0.5 20:0.5 21:0.4375 
-0.8618074393915891 1:0.5625 2:0.5 3:0.625 4:0.5625 5:0.6875 6:0.5 7:0.6875 8:0.5 9:0.5625 10:0.625 11:0.5625 12:0.25 13:0.25 14:0.5 15:0.25 16:0.6875 17:0.8125 18:0.5625 19:0.625 20:0.0 21:0.0 
-0.017510254306574997 1:0.25 2:0.3125 3:0.5625 4:0.625 5:0.375 6:0.1875 7:0.4375 8:0.8125 9:0.9375 10:0.5625 11:0.5625 12:0.5 13:0.8125 14:0.625 15:0.875 16:0.625 17:0.1875 18:0.5 19:0.125 20:0.375 21:0.4375 
0.17211649067793958 1:0.1875 2:0.5 3:0.25 4:0.75 5:0.5 6:0.5625 7:0.5 8:0.6875 9:0.9375 10:0.6875 11:0.875 12:0.25 13:0.6875 14:0.3125 15:0.5 16:0.625 17:0.5 18:0.75 19:0.5 20:0.5 21:0.6875 
0.14122928929920522 1:0.375 2:0.375 3:0.625 4:0.375 5:0.3125 6:0.1875 7:0.5 8:0.625 9:0.5625 10:0.625 11:0.0 12:0.6875 13:0.375 14:0.375 15:0.375 16:0.375 17:0.375 18:0.0625 19:0.3125 20:0.125 21:0.1875 
0.19405970959079766 1:0.6875 2:0.4375 3:0.6875 4:0.375 5:0.9375 6:0.1875 7:0.5 8:0.6875 9:0.5 10:0.9375 11:0.25 12:0.5 13:0.375 14:0.875 15:0.3125 16:0.25 17:0.5625 18:0.0625 19:0.9375 20:0.75 21:0.0 
0.145300024049064 1:0.75 2:0.625 3:0.75 4:0.625 5:0.8125 6:0.5625 7:0.75 8:0.5625 9:0.625 10:1.0 11:0.875 12:0.25 13:0.0 14:0.5 15:0.5 16:0.4375 17:0.5625 18:1.0 19:0.5 20:0.6875 21:0.5 
0.24879396166473267 1:0.3125 2:0.125 3:0.375 4:0.3125 5:0.5 6:0.125 7:0.1875 8:1.0 9:0.5 10:0.4375 11:0.4375 12:0.625 13:0.875 14:1.0 15:0.6875 16:0.0625 17:0.3125 18:0.1875 19:0.5 20:0.5 21:0.5 
0.7430635724823902 1:0.625 2:0.25 3:0.3125 4:0.625 5:1.0 6:0.1875 7:0.5 8:0.5 9:0.5 10:0.5 11:0.125 12:0.5 13:1.0 14:1.0 15:0.0625 16:0.5625 17:0.75 18:0.3125 19:0.5625 20:0.0 21:0.125 
-0.16357578669568143 1:1.0 2:0.4375 3:0.375 4:1.0 5:0.5625 6:0.75 7:0.3125 8:0.4375 9:0.375 10:0.5 11:0.75 12:0.5 13:0.75 14:0.9375 15:1.0 16:0.9375 17:0.9375 18:0.8125 19:0.5 20:0.4375 21:0.875 
0.009589403510914 1:0.1875 2:0.0625 3:0.625 4:1.0 5:0.625 6:0.375 7:0.625 8:0.75 9:0.625 10:0.5625 11:0.5 12:0.875 13:0.875 14:0.75 15:0.5 16:0.5625 17:0.1875 18:0.0625 19:0.125 20:0.0 21:0.0625 
0.11139391360513062 1:0.4375 2:0.625 3:0.5625 4:0.875 5:0.9375 6:0.625 7:0.75 8:0.5625 9:0.6875 10:0.6875 11:0.9375 12:0.0625 13:0.5 14:0.6875 15:0.0 16:0.875 17:1.0 18:0.75 19:0.4375 20:0.125 21:0.0 
-0.04124417728783739 1:0.625 2:0.5 3:0.5 4:0.5 5:0.875 6:0.6875 7:0.5 8:0.125 9:0.1875 10:1.0 11:0.375 12:0.375 13:0.0 14:1.0 15:0.4375 16:0.0625 17:1.0 18:0.6875 19:1.0 20:1.0 21:0.0 
0.32768446036778204 1:0.4375 2:0.0625 3:0.1875 4:0.6875 5:0.5625 6:0.5625 7:0.5625 8:0.5 9:0.625 10:0.6875 11:0.6875 12:0.375 13:0.9375 14:0.8125 15:0.75 16:1.0 17:1.0 18:0.875 19:0.5 20:0.4375 21:0.8125 
-0.21239610251047977 1:0.0625 2:0.5 3:0.5 4:0.5 5:0.25 6:0.0625 7:0.6875 8:0.9375 9:1.0 10:0.875 11:0.9375 12:0.5 13:0.6875 14:0.5 15:0.4375 16:0.8125 17:0.5625 18:0.6875 19:0.5625 20:0.4375 21:0.5 
-0.4267475747943376 1:0.5 2:0.4375 3:0.5 4:0.5 5:0.5625 6:0.5625 7:0.5 8:0.625 9:0.75 10:0.8125 11:0.9375 12:0.5625 13:0.9375 14:0.6875 15:0.9375 16:0.5 17:0.1875 18:0.5 19:0.0625 20:0.6875 21:0.625 
-0.01516606784868743 1:0.5625 2:0.5 3:0.75 4:0.8125 5:0.0625 6:0.5 7:0.25 8:0.75 9:0.9375 10:0.1875 11:0.5625 12:0.6875 13:0.875 14:0.625 15:0.5 16:0.4375 17:0.1875 18:0.4375 19:0.1875 20:0.0625 21:0.5 
0.16608800390170697 1:0.75 2:0.75 3:1.0 4:0.75 5:0.6875 6:0.5 7:0.375 8:0.375 9:0.0 10:0.1875 11:0.0625 12:0.5625 13:0.625 14:0.6875 15:0.25 16:0.25 17:0.5625 18:0.5 19:0.625 20:0.3125 21:0.3125 
0.13574282253441602 1:0.9375 2:0.125 3:1.0 4:0.5 5:0.8125 6:0.1875 7:0.3125 8:0.5 9:0.5 10:0.3125 11:0.0 12:1.0 13:0.6875 14:0.625 15:0.5 16:0.125 17:0.375 18:0.0 19:0.5625 20:0.375 21:0.25 
0.39151143815895056 1:0.8125 2:0.625 3:0.625 4:0.6875 5:0.5625 6:0.5 7:0.5625 8:0.0 9:0.5625 10:0.4375 11:0.1875 12:0.125 13:0.5 14:0.5 15:0.5 16:0.5625 17:0.625 18:0.25 19:0.5625 20:0.0 21:0.0625 
0.002987526215019125 1:0.4375 2:0.625 3:0.5 4:0.5 5:0.1875 6:0.5 7:0.5 8:0.5 9:1.0 10:0.5 11:0.75 12:0.3125 13:0.5 14:0.3125 15:0.3125 16:0.9375 17:0.1875 18:0.3125 19:0.1875 20:0.3125 21:0.625 
0.47727907780584455 1:0.875 2:0.625 3:0.875 4:0.8125 5:0.5 6:0.5 7:0.25 8:0.4375 9:0.625 10:0.375 11:0.25 12:0.75 13:0.625 14:0.375 15:0.375 16:0.9375 17:0.0 18:0.125 19:0.0625 20:0.25 21:0.375 
0.11951533723584601 1:0.75 2:0.875 3:0.5 4:0.5 5:0.3125 6:0.5 7:0.5625 8:0.5 9:0.5625 10:0.0625 11:0.25 12:0.0625 13:0.125 14:0.1875 15:0.125 16:0.6875 17:0.5625 18:0.5 19:0.5 20:0.25 21:0.4375 
0.1526282372650077 1:0.5 2:0.9375 3:0.625 4:0.8125 5:0.5 6:0.1875 7:0.875 8:0.75 9:0.8125 10:0.5 11:0.625 12:0.75 13:0.625 14:0.4375 15:0.3125 16:0.4375 17:0.25 18:0.0 19:0.25 20:0.0625 21:0.5625 
0.21645748097553513 1:1.0 2:0.625 3:0.8125 4:0.5 5:0.875 6:0.875 7:0.5 8:0.5 9:0.0 10:0.5 11:0.4375 12:0.0625 13:0.0 14:0.3125 15:0.25 16:0.4375 17:0.5 18:0.6875 19:0.6875 20:0.5625 21:0.5625 
-0.07840723976673178 1:1.0 2:0.8125 3:0.5625 4:0.8125 5:0.625 6:1.0 7:0.0625 8:0.5 9:0.25 10:0.4375 11:0.5625 12:0.5 13:0.5625 14:0.5625 15:0.5 16:0.5625 17:0.125 18:0.5 19:0.25 20:0.5 21:0.75 
0.15750119201036758 1:0.4375 2:0.125 3:0.1875 4:0.25 5:0.75 6:0.1875 7:0.0625 8:0.5 9:0.1875 10:0.75 11:0.1875 12:0.75 13:0.6875 14:1.0 15:0.6875 16:0.125 17:0.9375 18:0.3125 19:0.875 20:0.625 21:0.4375 
0.06204495877578557 1:0.25 2:0.25 3:0.0625 4:0.5 5:0.1875 6:0.125 7:0.125 8:0.25 9:0.75 10:0.625 11:0.5 12:0.5 13:0.6875 14:0.75 15:0.75 16:0.9375 17:0.5 18:0.9375 19:0.5 20:0.1875 21:0.5 
0.06581567086929199 1:0.5625 2:0.125 3:0.8125 4:0.4375 5:0.0 6:0.25 7:0.125 8:1.0 9:0.4375 10:0.0625 11:0.0625 12:0.6875 13:0.5 14:0.1875 15:0.375 16:0.0 17:0.125 18:0.25 19:0.375 20:0.25 21:0.5625 
0.11713674910529173 1:0.3125 2:0.5 3:0.9375 4:0.6875 5:0.8125 6:0.6875 7:0.625 8:0.9375 9:0.5625 10:0.875 11:0.6875 12:0.375 13:0.4375 14:0.625 15:0.6875 16:0.5 17:0.8125 18:0.4375 19:0.8125 20:0.6875 21:0.375 
0.15287386122552157 1:0.625 2:0.1875 3:0.5 4:0.4375 5:0.375 6:0.5 7:0.0 8:0.375 9:0.4375 10:0.0 11:0.25 12:0.625 13:0.5 14:0.6875 15:0.5 16:0.0625 17:0.25 18:0.4375 19:0.5625 20:0.4375 21:0.5 
0.00253555772365519 1:0.5625 2:0.75 3:0.9375 4:0.5 5:0.75 6:1.0 7:0.5 8:0.875 9:0.375 10:1.0 11:0.625 12:0.6875 13:0.0 14:0.5625 15:0.3125 16:0.3125 17:0.6875 18:0.4375 19:0.9375 20:0.6875 21:0.25 
0.011307796008406451 1:0.9375 2:0.9375 3:0.9375 4:0.4375 5:0.625 6:0.9375 7:0.75 8:0.5 9:0.5 10:0.5625 11:1.0 12:0.4375 13:0.3125 14:0.3125 15:0.375 16:0.375 17:0.75 18:0.625 19:0.875 20:0.9375 21:0.4375 
0.14876415034942517 1:0.75 2:0.6875 3:0.625 4:1.0 5:0.75 6:0.75 7:0.4375 8:0.0 9:0.5 10:0.3125 11:0.125 12:0.4375 13:0.875 14:0.3125 15:0.3125 16:0.9375 17:0.125 18:0.6875 19:0.0 20:0.1875 21:0.625 
0.8806140485170557 1:0.9375 2:0.6875 3:0.75 4:0.6875 5:0.875 6:0.875 7:0.4375 8:0.6875 9:0.5 10:0.25 11:0.75 12:0.75 13:0.625 14:0.625 15:0.875 16:0.6875 17:0.5 18:0.6875 19:0.375 20:0.5625 21:0.75 
-0.1345412832963421 1:0.125 2:0.0625 3:0.1875 4:0.1875 5:0.25 6:0.0 7:0.875 8:0.8125 9:0.5625 10:0.5625 11:0.25 12:0.8125 13:0.5 14:0.75 15:0.4375 16:0.3125 17:0.3125 18:0.25 19:0.5 20:0.5 21:0.0625 
-0.11049274370530736 1:0.25 2:0.1875 3:0.0625 4:0.1875 5:0.375 6:0.4375 7:1.0 8:0.9375 9:0.625 10:0.9375 11:0.8125 12:0.125 13:0.125 14:0.5625 15:0.4375 16:0.375 17:0.9375 18:0.6875 19:0.8125 20:0.5 21:0.0625 
-0.08572332771312655 1:1.0 2:0.875 3:0.6875 4:0.875 5:0.8125 6:0.625 7:0.5625 8:0.25 9:0.375 10:0.375 11:0.3125 12:0.3125 13:0.5 14:0.6875 15:0.5 16:0.5 17:0.5625 18:0.9375 19:0.5 20:0.625 21:0.5 
-0.6404475926098727 1:0.5 2:1.0 3:0.5 4:0.8125 5:1.0 6:0.4375 7:0.6875 8:0.5 9:0.75 10:1.0 11:0.625 12:0.0625 13:0.375 14:0.1875 15:0.375 16:0.5 17:0.6875 18:0.4375 19:0.5 20:0.5625 21:0.375 
0.14373553006679057 1:0.1875 2:0.5 3:0.4375 4:0.3125 5:0.875 6:0.5625 7:0.8125 8:0.1875 9:0.5 10:0.75 11:0.75 12:0.1875 13:0.5 14:0.5625 15:0.625 16:0.6875 17:1.0 18:0.75 19:0.5 20:0.75 21:0.5 
-0.188820335717249 1:0.375 2:0.9375 3:0.9375 4:0.0625 5:0.5 6:0.3125 7:0.75 8:0.875 9:0.5 10:0.5 11:0.5 12:0.6875 13:0.0625 14:0.5 15:0.1875 16:0.0625 17:0.5625 18:0.0625 19:0.8125 20:0.5625 21:0.1875 
-0.36801057622802774 1:0.5 2:0.5 3:0.125 4:0.5 5:0.375 6:0.6875 7:0.5 8:0.4375 9:0.625 10:0.5 11:0.625 12:0.75 13:0.9375 14:0.625 15:0.875 16:0.9375 17:0.5 18:0.6875 19:0.3125 20:0.3125 21:1.0 
0.08173764595292299 1:0.875 2:0.875 3:1.0 4:0.75 5:0.625 6:0.75 7:0.8125 8:0.5 9:0.625 10:0.125 11:0.4375 12:0.5 13:0.25 14:0.0 15:0.5 16:0.25 17:0.25 18:0.5625 19:0.5 20:0.5 21:0.5625 
-0.26334350297344833 1:0.5 2:0.4375 3:0.3125 4:0.0625 5:0.0625 6:0.3125 7:0.0 8:0.1875 9:0.125 10:0.0 11:0.25 12:0.0625 13:0.125 14:0.5 15:0.875 16:0.5 17:0.5 18:0.6875 19:0.6875 20:0.75 21:0.8125 
0.030150651382311582 1:0.75 2:0.9375 3:0.5 4:0.6875 5:1.0 6:0.5 7:0.5625 8:0.25 9:0.625 10:0.6875 11:0.625 12:0.0 13:0.8125 14:0.5625 15:0.4375 16:0.9375 17:0.5625 18:0.75 19:0.5 20:0.4375 21:0.125 
0.2520984845572257 1:0.375 2:0.5 3:0.0 4:0.375 5:0.3125 6:0.5625 7:0.25 8:0.125 9:0.375 10:0.4375 11:0.375 12:0.3125 13:0.5 14:0.6875 15:0.75 16:0.5625 17:0.625 18:0.6875 19:0.75 20:0.875 21:0.9375 
-0.8057575647869415 1:0.5 2:0.375 3:0.625 4:0.75 5:0.875 6:0.375 7:0.0625 8:0.5625 9:0.625 10:0.5625 11:0.0625 12:1.0 13:0.9375 14:0.9375 15:0.5 16:0.3125 17:0.8125 18:0.25 19:0.375 20:0.25 21:0.25 
-0.6438146040546583 1:0.625 2:0.25 3:0.5 4:0.8125 5:0.4375 6:0.3125 7:0.125 8:0.25 9:0.6875 10:0.4375 11:0.125 12:0.625 13:0.8125 14:0.4375 15:0.8125 16:0.625 17:0.5 18:0.1875 19:0.375 20:0.375 21:0.5 
0.2170891617214881 1:0.25 2:0.1875 3:0.25 4:0.3125 5:0.25 6:0.25 7:0.125 8:0.0 9:0.0 10:0.0625 11:0.25 12:0.1875 13:0.75 14:0.5 15:0.5625 16:0.625 17:0.625 18:0.5 19:0.5 20:0.625 21:0.5625 
-0.13445650814779975 1:0.875 2:0.3125 3:0.5 4:0.375 5:0.75 6:0.75 7:0.125 8:0.1875 9:0.0625 10:0.4375 11:0.375 12:0.5625 13:1.0 14:0.6875 15:1.0 16:0.25 17:0.6875 18:0.8125 19:0.8125 20:0.9375 21:0.8125 
0.40402905400649197 1:0.6875 2:1.0 3:0.8125 4:1.0 5:0.9375 6:0.8125 7:1.0 8:0.6875 9:1.0 10:0.625 11:0.75 12:0.0625 13:0.625 14:0.0 15:0.375 16:0.6875 17:0.125 18:0.5 19:0.4375 20:0.5 21:0.6875 
-0.16140608454839708 1:0.75 2:0.6875 3:1.0 4:0.8125 5:0.5625 6:0.5625 7:0.125 8:0.0625 9:0.4375 10:0.0 11:0.0 12:0.625 13:0.625 14:0.5 15:0.75 16:0.5 17:0.125 18:0.0 19:0.5 20:0.375 21:0.6875 
0.0013396671120507967 1:0.4375 2:0.5 3:0.5625 4:0.5 5:0.875 6:1.0 7:0.6875 8:0.6875 9:0.5 10:0.75 11:0.5625 12:0.5 13:0.5 14:0.6875 15:0.4375 16:0.0 17:0.4375 18:0.5 19:0.8125 20:0.5625 21:0.5 
0.0587167012196121 1:0.5 2:0.625 3:0.9375 4:0.375 5:0.3125 6:0.5 7:0.875 8:0.875 9:0.125 10:0.5 11:0.5 12:0.375 13:0.1875 14:0.1875 15:0.375 16:0.25 17:0.3125 18:0.1875 19:0.8125 20:0.875 21:1.0 
0.14853967091147743 1:0.1875 2:0.5625 3:0.25 4:0.0625 5:0.125 6:0.375 7:0.5 8:0.1875 9:0.5 10:0.4375 11:0.4375 12:0.0625 13:0.1875 14:0.0 15:0.25 16:0.625 17:0.5 18:0.375 19:0.0625 20:0.0 21:0.5625 
0.12530041892392077 1:0.75 2:0.5 3:0.75 4:0.5 5:0.6875 6:0.6875 7:0.4375 8:0.5 9:0.1875 10:0.5 11:0.4375 12:0.625 13:0.5625 14:0.625 15:0.75 16:0.3125 17:0.5625 18:0.1875 19:0.5 20:0.5625 21:0.3125 
-0.4048387468566324 1:0.375 2:0.25 3:0.0625 4:0.1875 5:0.0625 6:0.1875 7:0.3125 8:0.125 9:0.75 10:0.0625 11:0.0 12:0.3125 13:0.6875 14:0.125 15:0.3125 16:0.5625 17:0.4375 18:0.4375 19:0.4375 20:0.1875 21:0.4375 
-0.47679251375184023 1:0.75 2:0.625 3:0.5 4:0.9375 5:0.6875 6:0.6875 7:0.5 8:0.0 9:0.125 10:0.25 11:0.5 12:0.0 13:0.125 14:0.4375 15:0.0625 16:0.625 17:0.6875 18:0.6875 19:0.1875 20:0.5 21:0.5 
0.08229866555247678 1:0.3125 2:0.375 3:0.3125 4:0.625 5:0.4375 6:0.4375 7:0.5 8:0.5 9:0.6875 10:0.5 11:0.3125 12:0.625 13:0.9375 14:0.375 15:0.25 16:0.75 17:0.3125 18:0.375 19:0.0625 20:0.0625 21:0.5625 
0.7676147528398503 1:0.6875 2:0.6875 3:0.625 4:0.625 5:0.6875 6:1.0 7:0.25 8:0.375 9:0.375 10:0.6875 11:0.625 12:0.625 13:0.375 14:0.6875 15:0.4375 16:0.375 17:0.5 18:0.5 19:0.75 20:0.5 21:0.3125 
-0.14347781486843608 1:0.5625 2:0.125 3:0.4375 4:0.4375 5:0.625 6:0.4375 7:0.125 8:0.0 9:0.0625 10:0.4375 11:0.0 12:0.875 13:0.6875 14:0.875 15:0.9375 16:0.5 17:0.4375 18:0.0 19:1.0 20:0.4375 21:0.375 
0.051634650166913945 1:0.625 2:0.5 3:0.625 4:0.1875 5:0.5 6:0.875 7:0.5 8:0.75 9:0.3125 10:0.25 11:0.5 12:0.9375 13:0.125 14:0.5 15:0.6875 16:0.25 17:0.0 18:0.375 19:0.3125 20:0.9375 21:0.625 
0.5943848843285413 1:0.75 2:0.6875 3:0.5625 4:0.375 5:0.5625 6:0.4375 7:0.5 8:0.1875 9:0.5 10:0.6875 11:0.5625 12:0.375 13:0.5 14:0.6875 15:0.4375 16:0.5625 17:0.875 18:0.625 19:0.9375 20:0.5625 21:0.0 
-0.3155925499322875 1:0.5625 2:1.0 3:1.0 4:0.8125 5:0.75 6:0.4375 7:0.5 8:0.1875 9:0.3125 10:0.5 11:0.0 12:0.375 13:0.0625 14:0.5 15:0.1875 16:0.5 17:0.5 18:0.0 19:0.375 20:0.0 21:0.0 
0.007129853766012565 1:0.5625 2:0.0 3:0.5625 4:0.625 5:0.0625 6:0.5625 7:0.25 8:0.1875 9:0.4375 10:0.0 11:0.0625 12:1.0 13:1.0 14:0.4375 15:0.5 16:0.9375 17:0.0625 18:0.5 19:0.25 20:0.4375 21:1.0 
-0.03142320296107901 1:0.75 2:0.4375 3:0.375 4:0.5625 5:0.6875 6:0.6875 7:0.3125 8:0.3125 9:0.25 10:0.125 11:0.5625 12:0.625 13:0.4375 14:0.625 15:0.5625 16:0.4375 17:0.9375 18:0.625 19:1.0 20:0.875 21:0.625 
0.7046999500556775 1:0.875 2:0.5 3:0.6875 4:0.5625 5:0.375 6:0.5 7:0.3125 8:0.5 9:0.3125 10:0.0625 11:0.125 12:0.8125 13:0.625 14:0.5 15:0.625 16:0.25 17:0.4375 18:0.4375 19:0.375 20:0.75 21:0.75 
-0.1792947735576758 1:0.75 2:0.0 3:0.3125 4:0.3125 5:0.0625 6:0.375 7:0.0 8:0.5 9:0.3125 10:0.25 11:0.0 12:1.0 13:0.5 14:0.5625 15:0.625 16:0.0625 17:0.4375 18:0.0 19:0.625 20:0.5 21:0.75 
-0.20110195915259843 1:0.9375 2:0.5 3:0.75 4:0.75 5:0.3125 6:0.5625 7:0.5 8:0.375 9:0.6875 10:0.25 11:0.8125 12:0.5 13:0.8125 14:0.1875 15:0.75 16:0.6875 17:0.125 18:0.625 19:0.0625 20:0.6875 21:0.9375 
0.08822068720457422 1:0.75 2:0.9375 3:0.75 4:0.6875 5:0.5 6:0.75 7:0.25 8:0.375 9:0.375 10:0.1875 11:0.4375 12:0.5 13:0.6875 14:0.5625 15:0.625 16:0.3125 17:0.0625 18:0.1875 19:0.375 20:0.5625 21:0.75 
-0.4372043047841237 1:0.1875 2:0.0625 3:0.125 4:0.5 5:0.0 6:0.25 7:0.5625 8:0.5625 9:0.9375 10:0.5 11:0.6875 12:0.375 13:1.0 14:0.5 15:0.625 16:0.625 17:0.5 18:0.8125 19:0.0 20:0.5625 21:0.4375 
-9.193520355672412E-4 1:0.5625 2:0.75 3:0.875 4:0.875 5:0.5 6:0.875 7:0.375 8:0.5625 9:0.5 10:0.4375 11:0.3125 12:0.5 13:0.3125 14:0.3125 15:0.375 16:0.1875 17:0.1875 18:0.0 19:0.0 20:0.5 21:0.5 
-0.19273341227394192 1:0.6875 2:0.5 3:0.125 4:0.5 5:0.8125 6:0.3125 7:0.3125 8:0.0 9:0.25 10:0.5 11:0.0 12:0.25 13:0.375 14:0.8125 15:0.1875 16:0.5625 17:0.5625 18:0.25 19:0.5 20:0.5 21:0.125 
0.5370532728217388 1:0.875 2:0.5 3:0.625 4:0.75 5:0.5 6:0.9375 7:0.1875 8:0.0 9:0.0625 10:0.0625 11:0.5 12:0.8125 13:0.875 14:0.5 15:0.9375 16:0.625 17:0.4375 18:0.625 19:0.5 20:0.6875 21:1.0 
-0.14352024718639236 1:0.875 2:0.8125 3:0.5 4:0.5 5:0.6875 6:1.0 7:0.75 8:0.1875 9:0.125 10:0.375 11:0.5 12:0.1875 13:0.0 14:0.375 15:0.125 16:0.25 17:0.1875 18:0.5625 19:0.875 20:0.875 21:0.6875 
0.10290771201158395 1:0.5625 2:0.875 3:0.5 4:0.6875 5:0.625 6:0.6875 7:0.625 8:0.5 9:0.5625 10:0.75 11:0.75 12:0.0625 13:0.8125 14:0.3125 15:0.5 16:0.8125 17:0.9375 18:0.75 19:0.125 20:0.5625 21:0.75 
-0.7662249265750544 1:0.625 2:0.75 3:0.8125 4:0.9375 5:0.5 6:0.625 7:0.5 8:1.0 9:0.5625 10:0.0625 11:0.8125 12:0.5 13:0.5 14:0.3125 15:0.625 16:0.5 17:0.375 18:0.5625 19:0.5 20:0.5625 21:0.5625 
-0.11648080264992666 1:0.0 2:0.4375 3:0.1875 4:0.25 5:0.5 6:0.25 7:0.9375 8:0.4375 9:0.25 10:0.625 11:0.125 12:0.3125 13:0.3125 14:0.5 15:0.0 16:0.375 17:1.0 18:0.25 19:1.0 20:0.8125 21:0.3125 
0.10982913183240955 1:0.875 2:0.6875 3:0.5 4:0.4375 5:0.5 6:0.8125 7:0.5 8:0.5 9:0.0 10:0.0625 11:0.6875 12:0.0625 13:0.0625 14:0.375 15:0.8125 16:0.25 17:0.625 18:0.75 19:0.875 20:0.9375 21:0.875 
0.05527797795554216 1:0.5625 2:0.1875 3:0.875 4:0.6875 5:0.5625 6:0.5 7:0.5625 8:0.5 9:0.625 10:0.5625 11:0.5 12:0.75 13:0.8125 14:0.625 15:0.75 16:0.4375 17:0.5625 18:0.4375 19:0.75 20:0.4375 21:0.3125 
-0.26449848472360327 1:0.4375 2:0.5625 3:0.5625 4:1.0 5:0.5 6:0.6875 7:0.8125 8:1.0 9:0.9375 10:0.625 11:1.0 12:0.5 13:0.875 14:0.1875 15:0.625 16:0.875 17:0.1875 18:0.1875 19:0.1875 20:0.0 21:0.6875 
-0.3058233203469658 1:0.4375 2:0.5625 3:0.0625 4:0.3125 5:0.5 6:0.5625 7:0.5 8:0.4375 9:0.6875 10:0.625 11:0.5 12:0.1875 13:0.5 14:0.6875 15:0.5 16:0.8125 17:0.9375 18:0.6875 19:0.5625 20:0.125 21:0.5 
0.1753867224024314 1:0.3125 2:0.5625 3:0.8125 4:0.875 5:0.4375 6:0.5625 7:0.6875 8:0.875 9:0.5625 10:0.5625 11:0.5 12:0.9375 13:0.625 14:0.5625 15:0.5625 16:0.375 17:0.3125 18:0.375 19:0.5 20:0.5 21:0.5 
0.3460668403656783 1:0.5625 2:1.0 3:0.6875 4:0.6875 5:0.9375 6:0.5625 7:0.5 8:0.5625 9:0.375 10:0.8125 11:0.5 12:0.5625 13:0.375 14:0.9375 15:0.375 16:0.1875 17:0.5 18:0.4375 19:1.0 20:0.1875 21:0.375 
-0.060570010932038 1:0.5 2:1.0 3:0.375 4:0.4375 5:0.75 6:0.75 7:0.75 8:0.8125 9:0.9375 10:0.8125 11:0.75 12:0.4375 13:0.5 14:0.8125 15:0.625 16:0.5 17:0.9375 18:0.75 19:0.9375 20:0.625 21:0.375 
-0.08182457513759096 1:0.1875 2:0.0 3:0.625 4:0.625 5:0.5 6:0.125 7:0.6875 8:0.9375 9:1.0 10:1.0 11:0.8125 12:0.5 13:0.8125 14:0.625 15:0.375 16:0.625 17:0.5625 18:0.125 19:0.125 20:0.3125 21:0.4375 
0.33711012655262357 1:0.5 2:0.4375 3:0.875 4:0.5 5:0.125 6:0.75 7:0.5625 8:0.5 9:0.625 10:0.25 11:0.5 12:0.875 13:0.4375 14:0.0625 15:0.625 16:0.4375 17:0.25 18:0.5 19:0.125 20:0.5625 21:0.6875 
-0.43189206677603487 1:0.375 2:0.0 3:0.3125 4:0.125 5:0.5 6:0.4375 7:0.375 8:0.0625 9:0.5 10:0.6875 11:0.4375 12:0.125 13:0.4375 14:0.75 15:0.5625 16:0.9375 17:0.6875 18:0.5 19:0.625 20:0.5625 21:0.375 
0.4606811149570612 1:0.375 2:0.625 3:1.0 4:0.75 5:0.625 6:0.0625 7:0.875 8:1.0 9:0.6875 10:0.625 11:0.8125 12:0.5 13:0.3125 14:0.1875 15:0.25 16:0.25 17:0.1875 18:0.125 19:0.5 20:0.4375 21:0.5 
0.47731309884487155 1:0.25 2:0.4375 3:0.1875 4:0.8125 5:0.1875 6:0.5 7:0.5 8:0.6875 9:0.6875 10:0.3125 11:0.6875 12:0.625 13:0.625 14:0.1875 15:0.625 16:0.5625 17:0.1875 18:0.5 19:0.4375 20:0.5 21:0.9375 
0.02530936092002909 1:0.5 2:0.1875 3:0.5 4:0.5 5:0.8125 6:0.875 7:0.375 8:0.5 9:0.5625 10:0.75 11:0.5 12:0.75 13:0.8125 14:0.9375 15:0.875 16:0.4375 17:0.625 18:0.25 19:0.6875 20:0.625 21:0.3125 
0.39856266365092863 1:0.1875 2:0.5 3:0.125 4:0.5625 5:0.125 6:0.125 7:0.625 8:0.3125 9:0.75 10:0.125 11:0.1875 12:0.3125 13:0.4375 14:0.125 15:0.0 16:0.9375 17:0.3125 18:0.5625 19:0.0 20:0.5 21:0.625 
0.4076147554134352 1:0.75 2:0.5625 3:0.875 4:0.6875 5:0.5 6:0.5 7:0.5 8:0.9375 9:1.0 10:0.625 11:0.25 12:0.5625 13:0.75 14:0.5 15:0.3125 16:0.5 17:0.1875 18:0.3125 19:0.125 20:0.125 21:0.5 
0.1454326748717344 1:0.5 2:0.1875 3:0.6875 4:0.375 5:0.4375 6:0.4375 7:0.25 8:0.5 9:0.5625 10:0.0625 11:0.5 12:0.75 13:0.9375 14:0.3125 15:0.5625 16:0.375 17:0.0625 18:0.125 19:0.5 20:0.5 21:0.625 
-0.15892889589349263 1:0.1875 2:0.375 3:0.0 4:0.375 5:0.4375 6:0.0 7:0.3125 8:0.4375 9:0.5 10:0.75 11:0.25 12:0.25 13:0.5625 14:0.9375 15:0.625 16:0.5 17:0.75 18:0.5 19:1.0 20:0.375 21:0.375 
0.003356697564100437 1:0.3125 2:0.5625 3:0.625 4:0.625 5:0.375 6:0.4375 7:0.5 8:0.9375 9:0.5 10:0.5 11:0.1875 12:0.6875 13:0.5 14:0.1875 15:0.375 16:0.5625 17:0.0625 18:0.25 19:0.1875 20:0.375 21:0.1875 
-0.7267950136612534 1:0.5 2:0.5625 3:0.375 4:0.75 5:1.0 6:0.9375 7:0.375 8:0.25 9:0.9375 10:0.75 11:1.0 12:0.5 13:0.6875 14:0.9375 15:0.8125 16:0.9375 17:1.0 18:0.5 19:0.625 20:0.5 21:0.375 
-1.0 1:0.875 2:0.75 3:0.6875 4:0.5625 5:0.75 6:0.875 7:0.8125 8:0.5 9:0.625 10:0.375 11:0.5 12:0.0625 13:0.375 14:0.1875 15:0.3125 16:0.75 17:0.3125 18:0.5625 19:0.4375 20:0.1875 21:0.4375 
0.016792771218455644 1:0.4375 2:0.4375 3:0.375 4:0.5 5:0.875 6:0.625 7:0.0625 8:0.125 9:0.625 10:0.625 11:0.75 12:0.375 13:0.75 14:0.8125 15:0.625 16:0.75 17:0.6875 18:0.75 19:0.6875 20:0.5 21:0.3125 
-0.323542481059744 1:0.25 2:0.4375 3:0.1875 4:0.625 5:0.4375 6:0.5 7:0.9375 8:0.4375 9:0.6875 10:0.5 11:0.4375 12:0.0 13:0.5 14:0.5 15:0.5625 16:0.875 17:0.6875 18:0.875 19:0.125 20:0.125 21:0.5 
-0.433667538593561 1:0.1875 2:0.375 3:0.625 4:0.5 5:0.5 6:0.4375 7:0.5625 8:0.8125 9:1.0 10:0.5625 11:0.6875 12:0.9375 13:0.5 14:0.3125 15:0.875 16:0.0625 17:0.1875 18:0.1875 19:0.3125 20:0.5 21:0.6875 
0.11868318345140781 1:0.5 2:0.375 3:0.125 4:0.1875 5:0.1875 6:0.1875 7:0.0 8:0.1875 9:0.4375 10:0.25 11:0.3125 12:0.5 13:0.875 14:0.625 15:0.0625 16:0.6875 17:0.5 18:0.25 19:0.5625 20:0.25 21:0.25 
0.33337701317629387 1:0.6875 2:0.3125 3:0.4375 4:0.75 5:0.5 6:0.5 7:0.125 8:0.0 9:0.4375 10:0.4375 11:0.375 12:0.4375 13:0.5 14:0.9375 15:0.8125 16:0.75 17:0.5625 18:0.9375 19:0.4375 20:0.5 21:0.5625 
0.3521065583057484 1:0.75 2:0.8125 3:0.5 4:0.75 5:0.75 6:0.75 7:0.5 8:0.4375 9:0.5 10:0.625 11:0.5625 12:0.25 13:0.0625 14:0.9375 15:0.625 16:0.625 17:1.0 18:0.8125 19:0.625 20:1.0 21:0.625 
-0.5294165550131797 1:0.8125 2:0.4375 3:0.8125 4:0.8125 5:0.625 6:0.8125 7:0.5 8:0.5 9:0.1875 10:0.5 11:0.8125 12:0.5 13:0.5625 14:0.5 15:0.8125 16:0.375 17:0.625 18:0.625 19:0.5 20:0.6875 21:0.9375 
-0.3263303270655066 1:0.625 2:0.75 3:0.625 4:0.8125 5:1.0 6:0.75 7:0.3125 8:0.0625 9:0.1875 10:0.6875 11:0.4375 12:0.1875 13:0.4375 14:0.75 15:0.1875 16:0.5 17:0.6875 18:0.375 19:1.0 20:0.5625 21:0.0 
-0.20276699852903227 1:0.8125 2:0.5 3:0.25 4:0.375 5:0.5625 6:0.375 7:0.5 8:0.1875 9:0.25 10:0.5625 11:0.25 12:0.0 13:0.1875 14:0.3125 15:0.0 16:0.6875 17:0.875 18:0.3125 19:0.6875 20:0.5625 21:0.375 
-0.22631120387915324 1:1.0 2:0.25 3:0.5625 4:0.75 5:0.3125 6:0.5 7:0.25 8:0.1875 9:0.8125 10:0.25 11:0.375 12:0.875 13:1.0 14:0.9375 15:0.6875 16:0.875 17:0.4375 18:0.6875 19:0.0625 20:0.3125 21:0.5 
-0.06361381991608436 1:0.0625 2:0.4375 3:0.0625 4:0.25 5:0.125 6:0.0625 7:0.625 8:0.1875 9:0.4375 10:0.375 11:0.5 12:0.375 13:0.125 14:0.0 15:0.3125 16:0.5625 17:0.8125 18:0.875 19:0.5 20:0.1875 21:0.5 
-0.01541143178513291 1:0.1875 2:0.4375 3:0.0625 4:0.0 5:0.375 6:0.5 7:0.5 8:0.4375 9:0.25 10:0.1875 11:0.5 12:0.5 13:0.125 14:0.1875 15:0.8125 16:0.3125 17:0.375 18:0.5 19:1.0 20:0.8125 21:0.8125 
0.18489933816670773 1:1.0 2:0.875 3:0.6875 4:0.5 5:0.5 6:0.875 7:0.3125 8:0.25 9:0.0 10:0.375 11:0.4375 12:0.4375 13:0.1875 14:0.4375 15:0.4375 16:0.6875 17:0.6875 18:0.9375 19:0.4375 20:0.5625 21:0.5 
-0.17483647166684388 1:0.4375 2:0.3125 3:0.5 4:0.125 5:0.0625 6:0.4375 7:0.875 8:0.6875 9:0.8125 10:0.3125 11:0.875 12:0.4375 13:0.5625 14:0.0625 15:0.625 16:0.5 17:0.0 18:0.625 19:0.25 20:0.6875 21:1.0 
-0.8840402619125439 1:0.375 2:0.3125 3:0.5 4:0.75 5:0.375 6:0.9375 7:0.375 8:0.375 9:0.5 10:0.5625 11:0.5625 12:0.4375 13:0.9375 14:0.375 15:0.75 16:0.75 17:0.5 18:0.625 19:0.1875 20:0.5625 21:0.75 
-0.04447636763128224 1:1.0 2:0.9375 3:0.9375 4:0.9375 5:0.9375 6:1.0 7:0.25 8:0.4375 9:0.3125 10:0.4375 11:0.4375 12:0.1875 13:0.25 14:0.75 15:0.8125 16:0.5625 17:0.8125 18:0.875 19:0.6875 20:0.625 21:0.4375 
0.4049892877335112 1:0.9375 2:0.375 3:0.5 4:0.0625 5:0.5 6:0.5625 7:0.125 8:0.1875 9:0.0625 10:0.125 11:0.4375 12:0.5625 13:0.5 14:0.5 15:0.75 16:0.375 17:0.6875 18:0.5 19:0.4375 20:0.6875 21:0.625 
0.18355987568254162 1:0.3125 2:0.5625 3:0.75 4:0.9375 5:0.5625 6:0.6875 7:0.9375 8:0.5 9:1.0 10:0.75 11:0.875 12:0.25 13:0.625 14:0.6875 15:0.5625 16:0.9375 17:0.625 18:0.75 19:0.375 20:0.375 21:0.6875 
0.20107677881772076 1:0.8125 2:0.5 3:0.875 4:0.8125 5:0.5625 6:0.75 7:0.5 8:0.5 9:0.5625 10:0.8125 11:0.5 12:1.0 13:0.75 14:1.0 15:0.5625 16:0.5625 17:0.5 18:0.375 19:0.4375 20:0.25 21:0.5 
0.0563262885115061 1:0.875 2:0.8125 3:0.9375 4:0.9375 5:0.875 6:0.625 7:0.375 8:0.125 9:0.5 10:0.1875 11:0.0 12:0.4375 13:0.3125 14:0.3125 15:0.125 16:0.875 17:0.5625 18:0.4375 19:0.3125 20:0.5 21:0.25 
0.05138388377503004 1:0.9375 2:1.0 3:1.0 4:0.9375 5:0.6875 6:0.8125 7:0.75 8:0.5 9:0.5 10:0.5 11:0.75 12:0.375 13:0.0625 14:0.0625 15:0.3125 16:0.1875 17:0.0625 18:0.375 19:0.25 20:0.9375 21:0.8125 
-0.13569138055876376 1:0.4375 2:1.0 3:0.625 4:0.5625 5:0.625 6:0.875 7:1.0 8:0.875 9:0.875 10:0.9375 11:0.75 12:0.1875 13:0.5 14:0.25 15:0.8125 16:0.625 17:0.25 18:0.875 19:0.375 20:0.875 21:0.75 
0.4386312981017574 1:0.5 2:0.5 3:0.1875 4:0.625 5:0.6875 6:0.375 7:0.875 8:0.4375 9:0.8125 10:0.75 11:0.4375 12:0.3125 13:0.4375 14:0.3125 15:0.0625 16:0.75 17:0.8125 18:0.3125 19:0.625 20:0.125 21:0.1875 
0.14661928678652864 1:0.875 2:0.0625 3:0.3125 4:0.5625 5:0.5625 6:0.8125 7:0.0625 8:0.0 9:0.4375 10:0.125 11:0.125 12:0.5 13:0.5 14:0.6875 15:0.875 16:0.5625 17:0.625 18:1.0 19:0.75 20:1.0 21:0.625 
0.28157620014064955 1:0.5 2:0.9375 3:0.625 4:0.75 5:0.0 6:0.9375 7:0.875 8:0.75 9:0.5 10:0.375 11:0.875 12:0.375 13:0.1875 14:0.0 15:0.4375 16:0.5 17:0.375 18:0.6875 19:0.5 20:0.75 21:0.875 
0.7928387438336425 1:0.625 2:0.9375 3:0.875 4:0.9375 5:0.1875 6:0.5 7:0.625 8:1.0 9:0.625 10:0.3125 11:0.4375 12:0.25 13:0.5 14:0.25 15:0.0 16:0.4375 17:0.25 18:0.1875 19:0.3125 20:0.3125 21:0.4375 
0.7281584884454082 1:0.5 2:0.5625 3:0.625 4:1.0 5:0.75 6:0.875 7:0.1875 8:0.375 9:0.6875 10:0.5625 11:0.5 12:0.75 13:0.75 14:0.5625 15:1.0 16:0.5625 17:0.5 18:0.5 19:0.0 20:0.5 21:0.625 
0.41857865531643423 1:0.0625 2:0.375 3:0.9375 4:0.75 5:0.625 6:0.625 7:0.5 8:0.6875 9:0.625 10:0.6875 11:0.75 12:0.5625 13:0.6875 14:1.0 15:0.875 16:0.3125 17:0.3125 18:0.4375 19:0.5625 20:0.625 21:0.625 
-0.15048601660287247 1:0.5 2:0.9375 3:0.375 4:0.9375 5:0.25 6:1.0 7:0.9375 8:0.375 9:0.875 10:0.375 11:0.625 12:0.0625 13:0.25 14:0.125 15:0.6875 16:0.6875 17:0.5 18:0.625 19:0.25 20:0.75 21:0.9375 
0.07716824271307447 1:0.75 2:0.1875 3:0.3125 4:0.875 5:0.5 6:0.5 7:0.5 8:0.4375 9:0.9375 10:0.5 11:0.25 12:0.5 13:1.0 14:0.9375 15:0.5625 16:0.875 17:0.875 18:0.4375 19:0.25 20:0.125 21:0.375 
0.07484858013765962 1:0.875 2:0.125 3:0.4375 4:0.5625 5:0.4375 6:0.8125 7:0.125 8:0.0625 9:0.5 10:0.0 11:0.25 12:0.9375 13:0.75 14:0.5625 15:0.5625 16:0.8125 17:0.5625 18:0.5625 19:0.4375 20:0.5625 21:0.8125 
-0.21931571870868327 1:0.1875 2:1.0 3:0.8125 4:0.9375 5:0.875 6:0.75 7:0.75 8:0.625 9:0.875 10:0.75 11:1.0 12:0.25 13:0.0 14:0.375 15:0.5625 16:0.5625 17:0.5 18:1.0 19:0.5625 20:0.9375 21:0.8125 
-0.05629054385554367 1:0.75 2:0.25 3:0.3125 4:0.25 5:1.0 6:0.625 7:0.0625 8:0.375 9:0.4375 10:0.875 11:0.5 12:1.0 13:0.5 14:0.875 15:0.9375 16:0.1875 17:0.875 18:0.6875 19:0.9375 20:0.6875 21:0.5 
0.3085849423435399 1:0.5 2:0.75 3:0.5 4:0.6875 5:0.375 6:0.25 7:0.8125 8:0.375 9:0.5 10:0.125 11:0.125 12:0.0625 13:0.5 14:0.5 15:0.0 16:0.75 17:0.5 18:0.5 19:0.1875 20:0.3125 21:0.375 
0.05301166399174008 1:0.4375 2:0.25 3:1.0 4:0.5 5:0.1875 6:0.5 7:0.0 8:0.75 9:0.6875 10:0.5 11:0.6875 12:0.875 13:0.875 14:0.5 15:0.6875 16:0.3125 17:0.0625 18:0.1875 19:0.125 20:0.0625 21:0.9375 
0.09426402454815984 1:0.125 2:0.375 3:0.1875 4:0.5 5:0.1875 6:0.0625 7:0.5 8:0.5 9:1.0 10:0.4375 11:0.5 12:0.5 13:0.9375 14:0.3125 15:0.6875 16:0.9375 17:0.625 18:0.9375 19:0.25 20:0.125 21:0.8125 
-0.48350066000985364 1:0.8125 2:0.5625 3:0.5625 4:0.1875 5:0.8125 6:0.75 7:0.125 8:0.375 9:0.0625 10:0.125 11:0.0625 12:0.75 13:0.375 14:0.8125 15:0.5 16:0.375 17:0.5 18:0.1875 19:0.5625 20:0.6875 21:0.5 
-0.16073611724435422 1:0.6875 2:0.5 3:1.0 4:0.25 5:0.3125 6:0.8125 7:0.4375 8:0.5 9:0.3125 10:0.5 11:0.5 12:0.8125 13:0.3125 14:0.0625 15:0.75 16:0.1875 17:0.0 18:0.3125 19:0.375 20:0.75 21:0.875 
-0.15986759847962004 1:0.6875 2:0.4375 3:0.5625 4:0.5625 5:0.75 6:0.8125 7:0.1875 8:0.6875 9:0.8125 10:0.5 11:0.5 12:0.6875 13:0.75 14:1.0 15:0.9375 16:0.75 17:0.5625 18:0.5625 19:0.5625 20:0.625 21:0.375 
-0.14452575046633823 1:0.25 2:0.625 3:1.0 4:0.5625 5:0.5 6:0.8125 7:0.5 8:0.6875 9:0.625 10:0.6875 11:0.8125 12:0.6875 13:0.9375 14:0.6875 15:0.5625 16:0.5 17:0.5625 18:0.5 19:0.6875 20:0.5 21:0.4375 
0.3509603359268268 1:0.3125 2:0.3125 3:0.25 4:0.5 5:0.375 6:1.0 7:0.3125 8:0.4375 9:0.25 10:0.5 11:0.875 12:0.5 13:0.8125 14:0.6875 15:0.8125 16:0.6875 17:0.75 18:0.8125 19:0.4375 20:0.8125 21:0.5625 
-0.2557480261245617 1:0.3125 2:0.3125 3:0.5 4:0.4375 5:0.5 6:0.5625 7:0.875 8:0.625 9:0.1875 10:1.0 11:0.875 12:0.5 13:0.4375 14:1.0 15:0.625 16:0.4375 17:0.5625 18:1.0 19:0.75 20:0.9375 21:0.625 
-0.09393818431964958 1:0.5 2:0.125 3:0.5 4:0.4375 5:0.375 6:0.375 7:0.25 8:0.0625 9:0.375 10:0.1875 11:0.25 12:0.6875 13:0.5625 14:0.5625 15:0.0625 16:0.5 17:0.3125 18:0.0 19:0.625 20:0.0 21:0.3125 
0.31733236738873216 1:0.6875 2:0.6875 3:0.8125 4:1.0 5:0.625 6:0.5 7:0.5 8:1.0 9:0.75 10:0.5 11:0.1875 12:0.5 13:0.75 14:0.4375 15:0.125 16:0.1875 17:0.5 18:0.0625 19:0.375 20:0.3125 21:0.0 
-0.1343475048855301 1:0.0 2:0.3125 3:0.0625 4:0.0 5:0.125 6:0.625 7:1.0 8:0.4375 9:0.3125 10:0.375 11:0.75 12:0.3125 13:0.125 14:0.3125 15:0.75 16:0.3125 17:0.5 18:0.6875 19:0.5625 20:0.9375 21:0.75 
-1.0 1:1.0 2:0.625 3:0.625 4:0.75 5:0.625 6:0.5 7:0.5625 8:0.375 9:0.5 10:0.5 11:0.3125 12:0.625 13:0.9375 14:0.625 15:0.1875 16:0.3125 17:0.5 18:0.1875 19:0.5 20:0.25 21:0.25 
-0.04092904987538732 1:1.0 2:0.75 3:0.8125 4:0.625 5:0.1875 6:0.375 7:0.625 8:0.5 9:0.125 10:0.1875 11:0.1875 12:0.75 13:0.25 14:0.25 15:0.25 16:0.0625 17:0.0 18:0.0 19:0.1875 20:0.0625 21:0.5625 
0.21985183678459963 1:0.875 2:0.5 3:0.5 4:0.875 5:0.9375 6:0.9375 7:0.375 8:0.0625 9:0.75 10:0.9375 11:0.5 12:0.5 13:0.8125 14:0.6875 15:0.75 16:0.75 17:0.6875 18:0.625 19:0.75 20:0.0625 21:0.3125 
0.34316005020365004 1:0.4375 2:0.75 3:0.625 4:0.8125 5:0.375 6:0.8125 7:0.8125 8:0.9375 9:0.5625 10:0.1875 11:0.8125 12:0.5 13:0.5 14:0.125 15:0.5 16:0.3125 17:0.0 18:0.1875 19:0.125 20:0.1875 21:1.0 
0.011499644709646725 1:0.0 2:0.4375 3:0.625 4:0.5 5:0.125 6:0.8125 7:1.0 8:0.6875 9:0.9375 10:0.375 11:1.0 12:0.625 13:0.5625 14:0.125 15:0.5625 16:0.375 17:0.125 18:0.4375 19:0.0 20:0.8125 21:0.75 
0.5446465363814378 1:0.875 2:0.6875 3:0.125 4:0.875 5:0.5625 6:0.5625 7:0.3125 8:0.0 9:0.0 10:0.125 11:0.0625 12:0.125 13:0.4375 14:0.5 15:0.5 16:0.625 17:0.875 18:0.75 19:0.3125 20:0.4375 21:0.3125 
-0.45934349798235025 1:0.5 2:0.5 3:0.6875 4:0.8125 5:0.4375 6:1.0 7:0.5 8:0.4375 9:0.4375 10:0.25 11:0.5 12:0.9375 13:0.5 14:0.3125 15:1.0 16:0.25 17:0.25 18:0.625 19:0.4375 20:0.9375 21:0.6875 
0.14426067485258284 1:1.0 2:0.625 3:1.0 4:0.9375 5:0.5 6:1.0 7:0.4375 8:0.1875 9:0.25 10:0.1875 11:0.5 12:0.875 13:0.875 14:0.5 15:0.8125 16:0.5625 17:0.1875 18:0.8125 19:0.4375 20:0.875 21:0.875 
0.0414277412285499 1:0.25 2:0.3125 3:0.0625 4:0.25 5:0.0625 6:0.375 7:0.625 8:0.5 9:0.25 10:0.5 11:0.5 12:0.0625 13:0.125 14:0.1875 15:0.25 16:0.375 17:0.4375 18:0.6875 19:1.0 20:0.6875 21:0.5 
0.4342735015255152 1:0.875 2:0.9375 3:0.9375 4:0.875 5:0.9375 6:0.5 7:0.9375 8:0.375 9:0.4375 10:0.625 11:0.5 12:0.1875 13:0.0 14:0.4375 15:0.3125 16:0.125 17:0.4375 18:0.1875 19:0.875 20:0.5 21:0.3125 
0.2499027073705281 1:1.0 2:0.8125 3:0.5625 4:0.9375 5:0.5 6:1.0 7:0.1875 8:0.3125 9:0.4375 10:0.125 11:0.4375 12:0.125 13:0.8125 14:0.1875 15:0.125 16:0.9375 17:0.5 18:0.5 19:0.125 20:0.5 21:0.5625 
0.25798894511337284 1:1.0 2:0.9375 3:0.5 4:1.0 5:0.625 6:0.8125 7:0.625 8:0.25 9:0.5 10:0.375 11:0.0625 12:0.375 13:0.4375 14:0.1875 15:0.25 16:0.6875 17:0.875 18:0.5 19:0.125 20:0.0625 21:0.5625 
0.08183913667826342 1:0.5 2:0.4375 3:1.0 4:0.5 5:0.1875 6:0.4375 7:0.25 8:0.5 9:0.5 10:0.1875 11:0.25 12:0.875 13:0.5625 14:0.5 15:0.5 16:0.4375 17:0.25 18:0.0 19:0.5625 20:0.375 21:0.25 
0.3319837424414234 1:0.75 2:0.6875 3:0.5 4:0.5625 5:0.625 6:1.0 7:0.375 8:0.5 9:0.1875 10:0.5 11:0.5 12:0.5 13:0.25 14:0.5 15:1.0 16:0.1875 17:0.5625 18:0.875 19:0.75 20:0.875 21:1.0 
0.08139490066650297 1:0.5 2:0.5 3:0.375 4:0.5625 5:0.5 6:0.9375 7:0.0 8:0.3125 9:0.125 10:0.3125 11:0.5 12:0.3125 13:0.625 14:0.8125 15:0.8125 16:0.75 17:0.6875 18:0.8125 19:0.5 20:0.6875 21:0.5 
-0.15185317403226453 1:0.5 2:0.9375 3:0.75 4:0.25 5:0.0 6:0.3125 7:0.625 8:0.875 9:0.375 10:0.5 11:0.1875 12:0.375 13:0.125 14:0.1875 15:0.0625 16:0.0625 17:0.0 18:0.125 19:0.5 20:0.75 21:0.3125 
0.34677198572705703 1:0.6875 2:0.75 3:1.0 4:0.5625 5:0.875 6:0.8125 7:0.25 8:0.1875 9:0.0625 10:0.5625 11:0.375 12:0.5 13:0.125 14:0.875 15:0.375 16:0.25 17:0.8125 18:0.3125 19:0.8125 20:0.625 21:0.3125 
-0.08254652813838437 1:0.8125 2:0.625 3:0.75 4:0.9375 5:0.6875 6:0.875 7:0.375 8:0.5625 9:0.4375 10:0.0 11:0.375 12:0.625 13:0.3125 14:0.0 15:0.75 16:0.0625 17:0.0 18:0.5 19:0.3125 20:0.75 21:1.0 
0.4829251816350346 1:0.5 2:0.625 3:0.625 4:0.625 5:0.875 6:0.8125 7:0.8125 8:0.875 9:0.625 10:0.625 11:0.6875 12:1.0 13:0.625 14:0.6875 15:0.625 16:0.5 17:0.375 18:0.625 19:0.5 20:0.6875 21:0.6875 
0.1202573755512152 1:0.5625 2:0.125 3:0.1875 4:0.3125 5:0.1875 6:0.125 7:0.125 8:0.125 9:0.1875 10:0.625 11:0.1875 12:0.375 13:0.3125 14:0.625 15:0.5 16:0.5625 17:0.9375 18:0.4375 19:0.5625 20:0.5625 21:0.375 
-0.08791684390077004 1:0.5625 2:1.0 3:0.125 4:0.375 5:0.9375 6:0.5 7:0.5625 8:0.0 9:0.0 10:0.5625 11:0.125 12:0.25 13:0.1875 14:0.8125 15:0.0 16:0.5 17:0.875 18:0.5 19:0.5625 20:0.5625 21:0.1875 
0.09784716166500661 1:0.0 2:0.5 3:0.5625 4:0.1875 5:0.3125 6:0.5 7:0.875 8:1.0 9:0.625 10:1.0 11:0.625 12:0.75 13:0.4375 14:0.5 15:0.1875 16:0.5 17:0.4375 18:0.375 19:0.6875 20:0.5 21:0.1875 
0.20774782101201264 1:0.625 2:0.6875 3:0.6875 4:1.0 5:0.5 6:0.875 7:0.6875 8:0.25 9:0.5625 10:0.3125 11:0.875 12:0.5 13:0.4375 14:0.3125 15:0.375 16:0.625 17:0.375 18:1.0 19:0.375 20:0.4375 21:0.875 
0.07109370078636336 1:0.9375 2:0.75 3:1.0 4:0.5 5:0.875 6:0.625 7:0.25 8:0.0625 9:0.25 10:0.4375 11:0.1875 12:0.25 13:0.0 14:0.5 15:0.4375 16:0.3125 17:0.5625 18:0.625 19:0.75 20:0.6875 21:0.4375 
0.11560229327542751 1:0.9375 2:1.0 3:0.625 4:0.1875 5:0.25 6:0.5625 7:0.25 8:0.375 9:0.1875 10:0.3125 11:0.5 12:0.5 13:0.3125 14:0.0 15:0.5 16:0.25 17:0.3125 18:0.5 19:0.4375 20:0.6875 21:0.875 
0.14827116821752276 1:0.4375 2:0.6875 3:0.75 4:0.6875 5:1.0 6:0.3125 7:0.875 8:0.6875 9:0.6875 10:0.875 11:0.5625 12:0.5 13:0.5625 14:0.6875 15:0.5 16:0.625 17:0.8125 18:0.4375 19:0.8125 20:0.1875 21:0.3125 
0.5515701942971809 1:0.75 2:0.0625 3:0.625 4:0.625 5:0.5 6:0.75 7:0.1875 8:0.375 9:0.0625 10:0.5 11:0.4375 12:0.5 13:0.9375 14:0.75 15:0.8125 16:0.5 17:0.4375 18:0.625 19:0.5 20:0.6875 21:0.5 
0.27448521866979764 1:0.5625 2:0.875 3:0.4375 4:0.5625 5:0.6875 6:0.8125 7:0.75 8:0.0 9:0.3125 10:0.3125 11:0.25 12:0.0 13:0.1875 14:0.375 15:0.4375 16:0.8125 17:0.6875 18:0.6875 19:0.5625 20:0.8125 21:0.25 
0.17319012177303653 1:0.125 2:0.5625 3:0.3125 4:0.0625 5:0.5 6:0.75 7:1.0 8:0.5 9:0.5625 10:0.6875 11:1.0 12:0.0 13:0.0 14:0.25 15:0.0625 16:1.0 17:0.8125 18:0.9375 19:0.875 20:0.5625 21:0.5 
0.4036155406478261 1:0.5 2:0.6875 3:0.3125 4:0.9375 5:0.6875 6:0.875 7:0.5 8:0.4375 9:0.75 10:1.0 11:0.5625 12:0.0 13:0.6875 14:0.5 15:0.625 16:1.0 17:0.9375 18:0.9375 19:0.4375 20:0.375 21:0.125 
0.1743465730831231 1:0.375 2:0.5625 3:0.5625 4:0.375 5:0.9375 6:0.5 7:0.5 8:1.0 9:0.4375 10:1.0 11:0.875 12:0.625 13:0.3125 14:0.6875 15:0.4375 16:0.1875 17:0.625 18:0.8125 19:1.0 20:0.75 21:0.4375 
0.5818475765095993 1:0.625 2:0.8125 3:0.625 4:1.0 5:0.1875 6:0.625 7:0.875 8:0.6875 9:0.9375 10:0.0 11:0.5 12:0.0 13:0.5625 14:0.0 15:0.5 16:0.625 17:0.125 18:0.5625 19:0.0 20:0.3125 21:0.8125 
-0.14601746815480543 1:0.3125 2:0.5625 3:0.5 4:0.75 5:0.625 6:0.8125 7:0.8125 8:0.6875 9:0.8125 10:0.8125 11:0.75 12:0.5625 13:0.5625 14:0.625 15:0.5625 16:0.6875 17:0.625 18:0.375 19:0.125 20:0.5 21:0.3125 
-0.007373375804976358 1:0.1875 2:0.125 3:0.375 4:0.4375 5:0.1875 6:0.5 7:0.6875 8:0.4375 9:0.6875 10:0.3125 11:1.0 12:0.375 13:0.4375 14:0.25 15:0.6875 16:0.375 17:0.0625 18:1.0 19:0.25 20:0.8125 21:0.875 
-0.1470951862805648 1:0.3125 2:0.25 3:0.125 4:0.25 5:0.0625 6:0.0625 7:0.3125 8:0.4375 9:0.25 10:0.0 11:0.0 12:0.5 13:0.375 14:0.5625 15:0.3125 16:0.0 17:0.1875 18:0.375 19:0.625 20:0.25 21:0.0 
-0.17925972120312642 1:0.5 2:0.375 3:0.5 4:0.5 5:0.3125 6:0.8125 7:0.5625 8:0.5 9:0.375 10:0.625 11:0.9375 12:0.625 13:0.4375 14:0.5625 15:0.875 16:0.375 17:0.625 18:0.5 19:0.625 20:1.0 21:0.75 
-0.5365785487443161 1:0.375 2:0.25 3:0.5 4:0.375 5:1.0 6:0.625 7:1.0 8:0.875 9:0.75 10:0.875 11:0.8125 12:0.625 13:0.5 14:0.875 15:0.8125 16:0.0625 17:0.8125 18:0.5625 19:0.6875 20:0.5 21:0.5 
0.39160098500162277 1:0.8125 2:0.625 3:0.9375 4:0.5625 5:0.8125 6:0.8125 7:0.1875 8:0.6875 9:0.3125 10:0.125 11:0.4375 12:0.75 13:0.5 14:0.6875 15:0.6875 16:0.4375 17:0.3125 18:0.25 19:0.5625 20:0.5625 21:0.5 
-0.02986689422688327 1:0.75 2:0.125 3:0.125 4:0.5 5:0.6875 6:0.1875 7:0.375 8:0.3125 9:0.3125 10:0.4375 11:0.3125 12:0.5625 13:0.8125 14:0.875 15:0.5625 16:0.625 17:0.875 18:0.1875 19:0.4375 20:0.4375 21:0.0625 
-0.12112093483635926 1:0.375 2:0.5 3:0.125 4:0.25 5:0.375 6:0.875 7:0.6875 8:0.6875 9:0.5 10:0.5625 11:0.9375 12:0.5 13:0.1875 14:0.1875 15:0.5625 16:0.1875 17:0.4375 18:1.0 19:0.625 20:0.75 21:0.875 
-0.1422083226962838 1:0.5625 2:0.5 3:0.625 4:0.4375 5:0.8125 6:0.5625 7:0.25 8:0.5 9:0.4375 10:0.6875 11:0.0625 12:0.625 13:0.375 14:0.625 15:0.375 16:0.375 17:0.625 18:0.0 19:0.6875 20:0.8125 21:0.375 
-0.57519293690159 1:0.4375 2:0.3125 3:0.875 4:0.9375 5:0.4375 6:0.625 7:0.5 8:0.875 9:0.5 10:0.375 11:0.8125 12:0.8125 13:0.9375 14:0.875 15:1.0 16:0.625 17:0.0625 18:0.625 19:0.3125 20:0.5 21:0.875 
0.08272597233174933 1:0.5625 2:0.8125 3:0.5625 4:0.1875 5:0.8125 6:1.0 7:0.8125 8:0.5 9:0.1875 10:0.8125 11:0.875 12:0.1875 13:0.125 14:0.125 15:0.1875 16:0.0625 17:0.4375 18:0.8125 19:0.9375 20:0.9375 21:0.5 
0.19963668898920428 1:0.625 2:0.1875 3:0.5625 4:0.8125 5:0.75 6:0.0 7:0.3125 8:0.5 9:0.5625 10:0.75 11:0.0625 12:0.8125 13:0.75 14:0.875 15:0.5 16:0.75 17:0.5 18:0.0625 19:0.25 20:0.0625 21:0.375 
0.009076097321796267 1:0.6875 2:0.5 3:0.375 4:0.5 5:0.0 6:0.375 7:0.0625 8:0.1875 9:0.5 10:0.0625 11:0.4375 12:0.1875 13:0.5 14:0.125 15:0.0 16:1.0 17:0.5 18:0.9375 19:0.1875 20:0.125 21:0.5625 
0.08685712519403176 1:0.75 2:0.5 3:0.75 4:0.625 5:0.75 6:0.4375 7:0.0625 8:0.8125 9:0.375 10:0.6875 11:0.1875 12:0.625 13:0.4375 14:0.8125 15:0.25 16:0.125 17:0.4375 18:0.3125 19:0.6875 20:0.5 21:0.125 
0.6647592970229674 1:0.5 2:0.4375 3:0.625 4:0.75 5:1.0 6:0.5625 7:0.625 8:0.9375 9:0.8125 10:0.6875 11:0.6875 12:0.75 13:0.8125 14:0.875 15:0.8125 16:0.0625 17:0.625 18:0.3125 19:0.8125 20:0.5 21:0.3125 
0.14213395074574275 1:0.375 2:0.25 3:0.875 4:0.5 5:0.0 6:0.5625 7:0.5 8:0.9375 9:1.0 10:0.8125 11:1.0 12:0.75 13:1.0 14:0.5 15:0.8125 16:0.375 17:0.25 18:0.5 19:0.0 20:0.5 21:0.5625 
-0.3212400937469286 1:0.375 2:0.875 3:0.5625 4:0.5 5:0.9375 6:0.875 7:1.0 8:0.75 9:0.5 10:0.8125 11:0.6875 12:0.3125 13:0.0 14:0.0 15:0.5625 16:0.6875 17:0.625 18:0.5625 19:0.5625 20:0.6875 21:0.6875 
-0.1629083069394203 1:0.375 2:0.5 3:0.375 4:0.0 5:0.0625 6:0.3125 7:0.9375 8:0.8125 9:0.0625 10:0.5 11:0.5625 12:0.4375 13:0.125 14:0.25 15:0.25 16:0.25 17:0.3125 18:0.625 19:0.625 20:0.625 21:1.0 
0.12142360288690277 1:0.9375 2:1.0 3:1.0 4:0.625 5:0.9375 6:0.8125 7:0.75 8:0.5 9:0.5 10:0.5 11:0.4375 12:0.5 13:0.3125 14:0.375 15:0.5 16:0.5 17:0.1875 18:0.1875 19:0.0625 20:0.3125 21:0.5625 
-0.18838973923403393 1:0.625 2:0.5 3:0.6875 4:1.0 5:0.5 6:0.5 7:0.625 8:0.5 9:0.8125 10:0.5 11:0.5 12:0.625 13:0.5625 14:0.6875 15:0.4375 16:0.5 17:0.5 18:0.1875 19:0.375 20:0.125 21:0.0 
0.018072889694765372 1:0.375 2:0.375 3:0.0625 4:0.5625 5:0.5 6:1.0 7:0.25 8:0.0 9:0.6875 10:0.875 11:1.0 12:0.4375 13:0.6875 14:0.75 15:0.625 16:0.875 17:0.8125 18:0.75 19:0.75 20:0.5625 21:0.5 
-0.3645382945433081 1:0.5 2:0.125 3:0.375 4:0.4375 5:0.25 6:0.4375 7:0.3125 8:0.5625 9:0.6875 10:0.125 11:0.5 12:1.0 13:0.5 14:0.3125 15:0.625 16:0.4375 17:0.0 18:0.3125 19:0.1875 20:0.5 21:1.0 
-0.41088227118715803 1:0.5 2:0.5 3:0.375 4:0.5625 5:0.5625 6:0.0625 7:0.8125 8:0.4375 9:0.6875 10:0.4375 11:0.3125 12:0.125 13:0.875 14:0.5 15:0.0625 16:0.75 17:0.8125 18:0.3125 19:0.125 20:0.125 21:0.1875 
0.18134511106562098 1:0.25 2:0.4375 3:0.5 4:0.5 5:0.5 6:0.4375 7:0.75 8:0.75 9:0.8125 10:0.75 11:0.75 12:0.75 13:0.625 14:0.5 15:0.625 16:0.75 17:0.0 18:0.5625 19:0.1875 20:0.5625 21:0.625 
0.054140626499770625 1:0.75 2:0.5 3:0.375 4:0.5 5:0.625 6:0.625 7:0.5 8:0.1875 9:0.375 10:0.6875 11:0.5625 12:0.5 13:0.625 14:0.9375 15:0.5 16:0.75 17:0.625 18:1.0 19:0.5625 20:0.875 21:0.5 
0.022373803846585126 1:0.5 2:0.8125 3:0.625 4:0.6875 5:1.0 6:0.9375 7:0.5 8:0.4375 9:0.75 10:0.5 11:0.5625 12:0.4375 13:0.4375 14:0.4375 15:0.3125 16:0.5 17:0.5 18:0.75 19:0.625 20:0.5625 21:0.5625 
0.2719219482238918 1:0.375 2:0.9375 3:0.875 4:0.8125 5:0.5625 6:0.8125 7:0.875 8:0.875 9:0.8125 10:0.6875 11:0.8125 12:0.625 13:0.875 14:0.25 15:0.75 16:0.4375 17:0.25 18:0.1875 19:0.5 20:0.5 21:0.5625 
0.33472831608483405 1:0.375 2:0.5 3:0.0 4:0.5625 5:0.0625 6:0.5 7:1.0 8:0.375 9:0.75 10:0.8125 11:0.875 12:0.1875 13:0.5625 14:0.5625 15:0.75 16:0.6875 17:0.625 18:0.6875 19:0.125 20:0.5 21:0.5625 
0.7514541789087671 1:0.3125 2:0.375 3:0.5 4:0.625 5:0.8125 6:0.8125 7:0.6875 8:0.625 9:0.75 10:0.8125 11:0.6875 12:0.625 13:0.6875 14:0.75 15:0.8125 16:0.375 17:0.75 18:0.625 19:0.8125 20:0.9375 21:0.5 
-0.15829566490924005 1:0.5 2:0.3125 3:0.5 4:0.1875 5:0.4375 6:0.4375 7:0.3125 8:0.5 9:0.3125 10:0.25 11:0.375 12:0.5625 13:0.3125 14:0.5625 15:0.9375 16:0.1875 17:0.875 18:0.75 19:0.875 20:0.875 21:0.5 
-0.5827397536536149 1:0.875 2:0.8125 3:1.0 4:0.75 5:0.375 6:0.9375 7:0.3125 8:0.3125 9:0.5 10:0.0625 11:0.3125 12:1.0 13:0.6875 14:0.3125 15:0.75 16:0.375 17:0.0 18:0.625 19:0.1875 20:0.5 21:0.625 
0.11950553177589546 1:0.6875 2:0.4375 3:0.9375 4:0.375 5:0.6875 6:0.3125 7:0.375 8:0.5 9:0.375 10:1.0 11:0.1875 12:0.5 13:0.5625 14:0.8125 15:0.4375 16:0.125 17:0.4375 18:0.25 19:0.75 20:0.5 21:0.0625 
-0.029738361749518945 1:0.5 2:0.4375 3:0.5 4:0.125 5:0.0 6:0.5 7:0.375 8:0.5625 9:0.0625 10:0.375 11:0.5625 12:0.4375 13:0.25 14:0.1875 15:0.1875 16:0.125 17:0.375 18:0.625 19:0.5 20:0.625 21:1.0 
0.05094263325318856 1:0.0625 2:0.0625 3:0.4375 4:0.3125 5:0.25 6:0.25 7:0.375 8:0.8125 9:0.4375 10:0.5625 11:0.5 12:0.6875 13:0.8125 14:0.625 15:0.5 16:0.3125 17:0.125 18:0.0 19:0.0625 20:0.0625 21:0.5 
-0.05179584575057068 1:0.0 2:1.0 3:0.75 4:0.625 5:0.1875 6:0.5 7:0.9375 8:0.6875 9:0.8125 10:0.125 11:0.5625 12:0.3125 13:0.4375 14:0.0 15:0.3125 16:0.25 17:0.25 18:0.1875 19:0.125 20:0.4375 21:0.75 
0.4227042848991881 1:1.0 2:0.4375 3:0.3125 4:0.1875 5:0.5 6:0.5 7:0.1875 8:0.25 9:0.3125 10:0.1875 11:0.3125 12:0.5 13:0.5625 14:0.625 15:0.5625 16:0.75 17:0.5 18:0.5625 19:0.625 20:0.5 21:0.8125 
0.09673728699096147 1:0.875 2:0.5625 3:0.5 4:0.5 5:0.1875 6:0.75 7:0.0 8:0.1875 9:0.5 10:0.375 11:0.5 12:0.5 13:0.5625 14:0.1875 15:0.8125 16:0.9375 17:0.5 18:0.625 19:0.3125 20:0.8125 21:0.8125 
-0.10337591169972495 1:0.4375 2:0.0 3:0.1875 4:0.375 5:0.4375 6:0.25 7:0.0 8:0.125 9:0.25 10:0.375 11:0.125 12:0.0 13:0.5625 14:0.5 15:0.5 16:0.625 17:0.875 18:0.5 19:0.75 20:0.5 21:0.4375 
-0.1549803104913182 1:0.0 2:0.375 3:0.0 4:0.375 5:0.4375 6:0.0 7:0.375 8:0.25 9:0.3125 10:0.6875 11:0.4375 12:0.3125 13:0.4375 14:1.0 15:0.0625 16:0.8125 17:1.0 18:0.5 19:0.625 20:0.3125 21:0.125 
-0.11367964870333815 1:0.375 2:0.3125 3:0.5625 4:0.4375 5:0.5625 6:0.625 7:0.625 8:0.5625 9:0.625 10:1.0 11:0.875 12:0.5625 13:0.625 14:0.5 15:0.9375 16:0.5 17:0.5 18:0.5625 19:0.125 20:0.75 21:0.9375 
-0.09292435871116972 1:0.375 2:0.5 3:0.625 4:0.625 5:0.5 6:0.3125 7:0.9375 8:0.8125 9:0.9375 10:0.3125 11:0.5625 12:0.5 13:0.5 14:0.125 15:0.0 16:0.75 17:0.375 18:0.3125 19:0.25 20:0.3125 21:0.3125 
-0.15380861255987854 1:0.5 2:0.25 3:0.625 4:0.625 5:0.9375 6:0.5 7:0.5 8:1.0 9:0.875 10:0.5 11:0.5625 12:1.0 13:0.5625 14:0.5 15:0.6875 16:0.25 17:0.25 18:0.1875 19:0.375 20:0.4375 21:0.5 
0.31088992298958673 1:0.9375 2:0.9375 3:0.6875 4:1.0 5:0.75 6:0.375 7:0.375 8:0.4375 9:0.375 10:0.4375 11:0.0 12:0.5625 13:0.1875 14:0.5 15:0.375 16:0.125 17:0.25 18:0.1875 19:0.75 20:0.5 21:0.125 
-0.8259330861069095 1:0.5625 2:0.4375 3:0.4375 4:0.5 5:0.5 6:0.375 7:0.4375 8:0.125 9:0.4375 10:0.5 11:0.5 12:0.5 13:0.25 14:0.5 15:0.625 16:0.5625 17:0.75 18:0.625 19:0.5 20:0.625 21:0.125 
-0.49686445620856634 1:0.5625 2:0.5 3:1.0 4:0.375 5:0.25 6:0.25 7:0.3125 8:0.875 9:0.3125 10:0.1875 11:0.1875 12:0.6875 13:0.875 14:0.5 15:0.4375 16:0.125 17:0.1875 18:0.125 19:0.3125 20:0.25 21:0.5 
0.05527352707019078 1:0.5 2:0.9375 3:0.9375 4:0.75 5:0.8125 6:0.875 7:0.3125 8:0.5 9:0.875 10:0.5625 11:0.9375 12:0.5 13:1.0 14:0.6875 15:0.8125 16:0.9375 17:0.5 18:0.75 19:0.375 20:0.4375 21:0.5 
0.08300925853149832 1:0.1875 2:0.125 3:0.375 4:0.1875 5:0.125 6:0.4375 7:0.625 8:0.875 9:0.5 10:0.4375 11:0.875 12:0.5 13:0.4375 14:0.1875 15:0.5625 16:0.75 17:0.3125 18:0.8125 19:0.3125 20:0.5 21:0.9375 
-0.417291628451543 1:0.1875 2:0.9375 3:0.9375 4:0.375 5:0.6875 6:0.6875 7:1.0 8:0.625 9:0.625 10:0.8125 11:0.875 12:0.25 13:0.0625 14:0.375 15:0.375 16:0.5 17:0.5625 18:0.25 19:0.875 20:0.5 21:0.3125 
-0.13564557811660896 1:0.9375 2:0.0625 3:0.5 4:0.375 5:0.625 6:0.0625 7:0.0 8:0.1875 9:0.4375 10:0.625 11:0.25 12:0.8125 13:0.9375 14:1.0 15:0.5 16:0.375 17:1.0 18:0.125 19:1.0 20:0.0 21:0.125 
-0.13751178997473357 1:0.0 2:0.125 3:0.3125 4:0.0625 5:0.875 6:0.625 7:0.5625 8:0.5 9:0.1875 10:0.8125 11:0.6875 12:0.25 13:0.5 14:0.75 15:0.8125 16:0.625 17:0.8125 18:1.0 19:1.0 20:0.75 21:0.375 
-0.11087202463521352 1:0.0625 2:0.5 3:0.375 4:0.1875 5:0.25 6:0.25 7:0.6875 8:1.0 9:0.4375 10:0.3125 11:0.5 12:0.4375 13:0.0 14:0.3125 15:0.625 16:0.375 17:0.0625 18:0.3125 19:0.3125 20:0.6875 21:0.625 
0.336825613579472 1:0.6875 2:0.5625 3:0.625 4:0.875 5:0.5625 6:0.5625 7:0.125 8:0.5625 9:0.1875 10:0.4375 11:0.1875 12:0.875 13:0.5625 14:0.875 15:0.25 16:0.1875 17:0.4375 18:0.0 19:0.75 20:0.25 21:0.375 
0.21225875651310058 1:0.5 2:0.9375 3:0.4375 4:0.9375 5:0.6875 6:0.5 7:0.625 8:0.1875 9:0.6875 10:0.5 11:0.625 12:0.0625 13:0.875 14:0.125 15:0.0 16:0.8125 17:0.625 18:0.8125 19:0.125 20:0.4375 21:0.5 
-0.142821140623437 1:0.4375 2:0.0625 3:0.625 4:0.3125 5:0.625 6:0.5 7:0.375 8:0.8125 9:0.5625 10:1.0 11:0.5625 12:0.75 13:0.8125 14:0.75 15:0.5625 16:0.125 17:0.375 18:0.1875 19:0.9375 20:0.25 21:0.125 
0.5509256559224206 1:0.5 2:0.25 3:0.4375 4:0.5 5:0.5 6:0.375 7:0.5 8:0.375 9:0.5 10:0.5625 11:0.5 12:0.375 13:0.5625 14:0.5 15:0.3125 16:0.625 17:0.625 18:0.625 19:0.5 20:0.5 21:0.6875 
-0.9366547056051938 1:0.5 2:0.4375 3:0.9375 4:0.75 5:0.75 6:0.3125 7:0.6875 8:1.0 9:1.0 10:0.625 11:0.5 12:0.5625 13:0.5625 14:0.4375 15:0.125 16:0.25 17:0.125 18:0.1875 19:0.4375 20:0.4375 21:0.125 
0.2584506224844897 1:0.125 2:0.5 3:0.0625 4:0.0625 5:0.625 6:0.5 7:0.4375 8:0.125 9:0.25 10:0.5625 11:0.6875 12:0.5 13:0.375 14:0.5 15:0.9375 16:0.5625 17:0.9375 18:0.875 19:0.5625 20:0.8125 21:0.5625 
0.38627296918327914 1:0.3125 2:0.6875 3:0.25 4:0.75 5:0.5 6:0.25 7:0.8125 8:0.8125 9:1.0 10:0.6875 11:0.625 12:0.4375 13:0.5625 14:0.3125 15:0.125 16:0.75 17:0.5625 18:0.5 19:0.4375 20:0.1875 21:0.0 
0.13389097537152544 1:0.875 2:0.5625 3:0.75 4:0.6875 5:0.5 6:0.5 7:0.4375 8:0.25 9:0.5 10:0.125 11:0.5 12:0.5 13:0.5 14:0.5 15:0.625 16:0.5 17:0.3125 18:0.3125 19:0.375 20:0.25 21:0.625 
-0.2543022726056516 1:0.4375 2:0.25 3:0.5 4:0.4375 5:1.0 6:0.3125 7:0.3125 8:0.6875 9:0.6875 10:0.75 11:0.4375 12:0.8125 13:0.6875 14:1.0 15:0.3125 16:0.375 17:1.0 18:0.375 19:0.875 20:0.3125 21:0.25 
0.22356667873628924 1:0.75 2:0.8125 3:0.6875 4:1.0 5:0.75 6:0.5625 7:0.625 8:0.5 9:0.9375 10:0.375 11:0.875 12:0.0625 13:0.4375 14:0.0 15:0.25 16:0.875 17:0.125 18:0.4375 19:0.0625 20:0.3125 21:0.625 
0.024113539388505262 1:0.3125 2:0.125 3:0.1875 4:0.375 5:0.125 6:0.0625 7:0.125 8:0.0625 9:0.5625 10:0.5625 11:0.125 12:0.3125 13:1.0 14:1.0 15:0.5625 16:1.0 17:0.6875 18:0.3125 19:0.5 20:0.25 21:0.0 
0.21992426604141116 1:0.1875 2:0.25 3:0.0 4:0.1875 5:0.125 6:0.5 7:0.5 8:0.0625 9:0.25 10:0.375 11:0.375 12:0.25 13:0.0 14:0.5 15:0.5 16:0.5 17:0.5625 18:0.5625 19:0.5 20:0.4375 21:0.5 
-0.08752814953759398 1:0.625 2:0.4375 3:0.375 4:0.875 5:0.5625 6:0.6875 7:0.4375 8:0.1875 9:0.4375 10:0.625 11:0.3125 12:0.6875 13:0.9375 14:0.625 15:0.6875 16:0.875 17:0.5625 18:0.75 19:0.5 20:0.4375 21:0.1875 
0.02341276799152515 1:0.0 2:0.75 3:0.375 4:0.125 5:0.25 6:0.0625 7:1.0 8:0.6875 9:0.9375 10:0.75 11:0.6875 12:0.0 13:0.3125 14:0.0 15:0.0625 16:0.3125 17:0.4375 18:0.25 19:0.125 20:0.5 21:0.5625 
0.08896363602474018 1:0.875 2:0.625 3:0.5 4:0.5 5:0.375 6:0.875 7:0.5625 8:0.125 9:0.375 10:0.5 11:0.5 12:0.0 13:0.5 14:0.0625 15:0.5 16:0.5 17:0.5625 18:0.75 19:0.5 20:0.6875 21:0.9375 
0.26796982054785634 1:0.1875 2:0.375 3:0.5625 4:0.1875 5:0.0625 6:0.4375 7:0.5 8:0.625 9:0.8125 10:0.6875 11:0.875 12:0.875 13:0.5 14:0.625 15:0.625 16:0.5 17:0.4375 18:0.25 19:0.5 20:0.4375 21:0.8125 
-0.776018936823515 1:0.5 2:0.625 3:0.8125 4:0.5625 5:0.5625 6:0.75 7:0.375 8:0.375 9:0.25 10:0.5 11:0.5 12:0.875 13:0.5 14:0.8125 15:0.625 16:0.625 17:0.5 18:0.5625 19:0.5 20:0.5625 21:0.5 
0.0542692838422498 1:0.3125 2:0.4375 3:0.625 4:0.5 5:0.1875 6:0.25 7:0.5625 8:0.75 9:0.5 10:0.0625 11:0.6875 12:0.8125 13:0.75 14:0.3125 15:0.75 16:0.5 17:0.125 18:0.5 19:0.3125 20:0.4375 21:0.75 
-0.32479931489526814 1:0.5625 2:0.5 3:0.375 4:0.5 5:0.3125 6:0.5625 7:0.75 8:0.25 9:0.4375 10:0.5 11:0.4375 12:0.3125 13:0.3125 14:0.3125 15:0.25 16:0.875 17:0.875 18:0.5625 19:0.6875 20:0.5625 21:0.5 
-0.15041087027766745 1:0.4375 2:0.875 3:0.625 4:0.0 5:0.5 6:0.5625 7:1.0 8:0.5 9:0.1875 10:0.1875 11:0.625 12:0.1875 13:0.25 14:0.3125 15:0.375 16:0.0625 17:0.375 18:0.3125 19:0.5625 20:0.625 21:0.625 
0.6570660176158405 1:0.3125 2:0.5 3:0.25 4:0.75 5:0.4375 6:0.125 7:0.6875 8:0.5625 9:1.0 10:0.8125 11:0.9375 12:0.1875 13:0.875 14:0.3125 15:0.125 16:0.8125 17:0.625 18:0.5 19:0.375 20:0.1875 21:0.3125 
0.40426439198335656 1:0.4375 2:0.8125 3:0.4375 4:0.4375 5:0.5 6:0.5 7:0.9375 8:0.5 9:0.625 10:0.4375 11:0.5 12:0.125 13:0.125 14:0.1875 15:0.0 16:0.25 17:0.5 18:0.5625 19:0.75 20:0.4375 21:0.25 
-0.5438445012290696 1:0.0 2:0.4375 3:0.0625 4:0.3125 5:0.3125 6:0.375 7:1.0 8:0.4375 9:0.8125 10:0.6875 11:0.9375 12:0.25 13:0.5 14:0.5 15:0.75 16:0.5 17:0.875 18:1.0 19:0.375 20:0.625 21:0.5 
-6.92060470965433E-4 1:0.3125 2:0.5 3:0.25 4:0.125 5:0.1875 6:0.0 7:0.6875 8:0.4375 9:0.5 10:0.375 11:0.5 12:0.0625 13:0.125 14:0.125 15:0.1875 16:0.3125 17:0.1875 18:0.4375 19:0.25 20:0.9375 21:0.875 
0.11481333402901564 1:0.5 2:0.4375 3:0.4375 4:0.375 5:0.625 6:0.3125 7:0.25 8:0.0625 9:0.0625 10:0.4375 11:0.375 12:0.5625 13:0.5 14:0.8125 15:0.8125 16:0.5 17:1.0 18:0.4375 19:0.75 20:0.8125 21:0.5 
0.42955377295844377 1:0.625 2:0.25 3:0.25 4:0.5 5:0.5625 6:0.3125 7:0.0625 8:0.5 9:0.375 10:0.4375 11:0.4375 12:0.625 13:0.5 14:0.75 15:0.8125 16:0.5 17:0.8125 18:0.625 19:0.6875 20:0.4375 21:0.0625 
0.12779338914444255 1:0.25 2:0.25 3:0.3125 4:0.25 5:0.25 6:0.3125 7:0.625 8:0.5 9:0.375 10:0.5 11:0.4375 12:0.1875 13:0.375 14:0.9375 15:0.5 16:0.5625 17:0.75 18:0.5625 19:0.75 20:0.8125 21:0.25 
0.021354230765461567 1:0.625 2:0.4375 3:1.0 4:0.75 5:0.8125 6:0.8125 7:0.125 8:0.75 9:1.0 10:0.5 11:0.625 12:0.9375 13:1.0 14:0.625 15:0.625 16:0.5 17:0.25 18:0.1875 19:0.0 20:0.3125 21:0.375 
0.741560319410212 1:0.6875 2:0.5 3:0.75 4:0.75 5:0.4375 6:1.0 7:0.1875 8:0.5 9:0.4375 10:0.1875 11:0.25 12:1.0 13:0.5 14:0.375 15:0.5625 16:0.3125 17:0.0625 18:0.625 19:0.375 20:0.75 21:1.0 
-0.2740471686405637 1:0.125 2:0.4375 3:0.25 4:0.5 5:0.4375 6:0.5 7:0.75 8:0.6875 9:0.75 10:0.9375 11:0.625 12:0.3125 13:0.8125 14:0.75 15:0.625 16:0.625 17:0.875 18:0.5 19:0.8125 20:0.25 21:0.375 
0.3956628975221529 1:0.5 2:0.4375 3:0.125 4:0.6875 5:0.5 6:0.375 7:0.5 8:0.0 9:0.5625 10:0.625 11:0.5 12:0.1875 13:0.5 14:0.5 15:0.1875 16:0.8125 17:1.0 18:0.5625 19:0.0 20:0.5 21:0.4375 
0.07099361463802364 1:0.875 2:0.75 3:0.0 4:0.8125 5:0.875 6:0.4375 7:0.6875 8:0.4375 9:0.8125 10:0.625 11:0.5 12:0.3125 13:0.6875 14:0.5625 15:0.1875 16:1.0 17:0.75 18:0.5625 19:0.5 20:0.125 21:0.0625 
0.17438121644988494 1:0.6875 2:0.25 3:0.6875 4:0.4375 5:0.875 6:0.625 7:0.125 8:0.25 9:0.375 10:0.4375 11:0.1875 12:0.8125 13:0.8125 14:0.8125 15:0.625 16:0.6875 17:0.5 18:0.5 19:0.75 20:0.4375 21:0.0625 
-0.25624810798934167 1:0.75 2:0.5 3:0.5 4:0.875 5:0.6875 6:0.75 7:0.4375 8:0.1875 9:0.4375 10:0.0625 11:0.3125 12:0.5 13:0.75 14:0.375 15:0.875 16:0.5625 17:0.9375 18:1.0 19:0.375 20:0.5 21:0.75 
-0.3427479210829252 1:0.125 2:0.5 3:0.875 4:0.625 5:0.5625 6:0.8125 7:0.75 8:0.8125 9:0.8125 10:0.5 11:1.0 12:0.875 13:0.875 14:0.75 15:0.875 16:0.5 17:0.5 18:0.8125 19:0.4375 20:0.75 21:1.0 
0.25654120229148664 1:0.75 2:0.9375 3:0.9375 4:0.875 5:0.4375 6:0.6875 7:0.5625 8:0.9375 9:0.9375 10:0.125 11:0.9375 12:0.5625 13:1.0 14:0.25 15:0.75 16:0.6875 17:0.1875 18:0.5 19:0.0 20:0.4375 21:0.6875 
-0.17803269648101963 1:0.0 2:0.375 3:0.25 4:0.25 5:0.5 6:0.5 7:0.75 8:0.875 9:0.6875 10:0.6875 11:0.5 12:0.3125 13:0.5 14:0.5 15:0.4375 16:0.75 17:0.8125 18:0.8125 19:0.625 20:0.5625 21:0.5 
-0.0255172350765629 1:0.1875 2:0.1875 3:0.1875 4:0.0625 5:0.3125 6:0.125 7:0.6875 8:0.625 9:0.5 10:0.6875 11:0.4375 12:0.8125 13:0.25 14:0.75 15:0.5 16:0.1875 17:0.9375 18:0.375 19:0.8125 20:0.8125 21:0.0 
0.21792269008391307 1:0.5625 2:0.625 3:0.375 4:0.8125 5:0.6875 6:0.4375 7:0.25 8:0.0625 9:0.3125 10:0.4375 11:0.3125 12:0.0 13:0.8125 14:0.625 15:0.375 16:1.0 17:0.875 18:0.75 19:0.5 20:0.375 21:0.3125 
-0.13186118318874154 1:0.25 2:0.0 3:0.4375 4:0.125 5:0.375 6:0.4375 7:0.5625 8:1.0 9:0.5625 10:0.625 11:0.4375 12:0.8125 13:0.9375 14:0.8125 15:0.4375 16:0.3125 17:0.4375 18:0.125 19:0.5 20:0.5 21:0.125 
0.05013388851798716 1:0.5 2:0.625 3:0.625 4:0.5 5:1.0 6:0.625 7:0.625 8:0.8125 9:0.5 10:0.75 11:1.0 12:1.0 13:0.375 14:0.6875 15:0.8125 16:0.1875 17:0.25 18:0.5625 19:0.6875 20:0.625 21:0.5 
0.7095840728841796 1:0.375 2:0.6875 3:0.5 4:0.0625 5:0.5625 6:0.5625 7:1.0 8:0.8125 9:0.6875 10:0.75 11:0.75 12:0.3125 13:0.1875 14:0.4375 15:0.5 16:0.5625 17:0.8125 18:0.6875 19:0.5625 20:0.4375 21:0.375 
-0.5824393610352228 1:0.0 2:0.5 3:0.3125 4:0.75 5:0.4375 6:0.25 7:0.5 8:0.5 9:1.0 10:0.5 11:0.5625 12:0.5 13:0.5 14:0.0625 15:0.25 16:1.0 17:0.5 18:0.4375 19:0.375 20:0.1875 21:0.6875 
-0.2763785493198854 1:0.875 2:0.625 3:0.5 4:1.0 5:0.375 6:0.5625 7:0.125 8:0.3125 9:0.375 10:0.25 11:0.375 12:0.4375 13:0.5 14:0.1875 15:0.5 16:0.75 17:0.25 18:0.125 19:0.25 20:0.375 21:0.5 
-0.2024350594895413 1:0.8125 2:0.9375 3:0.25 4:0.6875 5:0.625 6:0.25 7:0.5 8:0.0625 9:0.875 10:0.625 11:0.3125 12:0.375 13:1.0 14:0.4375 15:0.0 16:0.8125 17:0.8125 18:0.4375 19:0.4375 20:0.0625 21:0.1875 
0.13384271877663634 1:0.125 2:1.0 3:0.6875 4:0.625 5:0.4375 6:0.625 7:0.9375 8:0.5625 9:0.5 10:0.5 11:0.625 12:0.5 13:0.5 14:0.0625 15:0.5 16:0.5 17:0.4375 18:0.6875 19:0.0 20:0.875 21:0.875 
-0.18296671585651866 1:0.6875 2:0.125 3:0.5 4:0.0 5:0.1875 6:0.4375 7:0.0625 8:0.4375 9:0.375 10:0.25 11:0.0625 12:0.8125 13:0.5625 14:0.5 15:0.9375 16:0.125 17:0.4375 18:0.3125 19:0.625 20:0.875 21:0.5625 
-1.0 1:0.5625 2:0.75 3:0.5 4:0.75 5:0.375 6:0.6875 7:0.5 8:0.6875 9:0.875 10:0.3125 11:0.5 12:0.1875 13:0.625 14:0.4375 15:0.375 16:0.875 17:0.25 18:0.625 19:0.3125 20:0.3125 21:0.75 
-0.5492911802509447 1:0.0625 2:0.4375 3:0.8125 4:0.875 5:0.625 6:0.3125 7:0.375 8:0.6875 9:0.875 10:0.8125 11:0.5 12:0.5 13:0.8125 14:0.875 15:0.5625 16:0.5625 17:0.5 18:0.375 19:0.25 20:0.125 21:0.25 
-0.5908532088667562 1:0.9375 2:0.625 3:1.0 4:0.5 5:0.875 6:0.3125 7:0.4375 8:0.25 9:0.0625 10:0.3125 11:0.375 12:0.5625 13:0.1875 14:0.75 15:0.5 16:0.125 17:0.5625 18:0.4375 19:1.0 20:0.75 21:0.25 
0.31315737762928014 1:0.5625 2:0.6875 3:1.0 4:0.0625 5:0.9375 6:0.5625 7:0.5 8:0.625 9:0.3125 10:0.5 11:0.3125 12:0.75 13:0.25 14:0.5 15:0.5 16:0.25 17:0.5 18:0.5 19:0.75 20:0.8125 21:0.5 
0.42478136409565415 1:0.8125 2:0.1875 3:0.5 4:0.5625 5:0.0625 6:0.3125 7:0.25 8:0.3125 9:0.4375 10:0.25 11:0.1875 12:0.6875 13:1.0 14:0.4375 15:0.6875 16:0.5 17:0.4375 18:0.375 19:0.375 20:0.125 21:0.4375 
0.0432605178999494 1:0.5625 2:0.875 3:0.8125 4:0.75 5:1.0 6:1.0 7:1.0 8:0.5 9:0.5625 10:0.875 11:0.875 12:0.25 13:0.4375 14:0.4375 15:0.1875 16:0.125 17:0.75 18:0.5 19:0.8125 20:0.5625 21:0.5625 
-0.12239162265660543 1:0.75 2:0.75 3:0.625 4:0.625 5:0.875 6:0.5 7:0.6875 8:0.875 9:0.125 10:0.5 11:0.4375 12:0.5 13:0.25 14:0.0625 15:0.4375 16:0.375 17:0.3125 18:0.0 19:0.625 20:0.375 21:0.1875 
-0.12762185946539795 1:0.5625 2:0.3125 3:0.8125 4:1.0 5:0.875 6:0.6875 7:0.0 8:0.5 9:0.8125 10:0.375 11:0.5 12:1.0 13:0.75 14:0.8125 15:0.8125 16:0.5625 17:0.3125 18:0.6875 19:0.4375 20:0.4375 21:1.0 
-0.3384117987121937 1:0.25 2:0.25 3:0.0625 4:0.375 5:0.0625 6:0.375 7:0.3125 8:0.8125 9:0.5625 10:0.5625 11:1.0 12:0.75 13:0.6875 14:0.5 15:0.5625 16:0.4375 17:0.0 18:0.5 19:0.1875 20:0.625 21:0.5625 
0.27774031085913914 1:0.25 2:0.375 3:0.25 4:0.5 5:0.0625 6:0.5625 7:0.4375 8:0.5625 9:0.875 10:0.125 11:0.5625 12:0.4375 13:0.875 14:0.375 15:0.5625 16:0.625 17:0.5625 18:0.6875 19:0.1875 20:0.625 21:0.8125 
0.022070544632140386 1:0.5 2:0.1875 3:0.3125 4:0.5625 5:0.375 6:0.1875 7:0.125 8:0.0 9:0.1875 10:0.0625 11:0.25 12:0.5625 13:0.8125 14:0.9375 15:0.9375 16:0.5625 17:0.5 18:0.5 19:0.5 20:0.125 21:0.4375 
-0.25510907201239474 1:0.9375 2:0.5 3:0.5 4:0.1875 5:0.0625 6:0.5 7:0.5625 8:0.0 9:0.0 10:0.125 11:0.125 12:0.3125 13:0.25 14:0.25 15:0.3125 16:0.5 17:0.375 18:0.5625 19:0.1875 20:0.5625 21:0.9375 
-0.3940623294640559 1:0.5 2:0.5 3:0.5625 4:0.375 5:0.875 6:0.4375 7:0.8125 8:1.0 9:0.6875 10:0.9375 11:0.625 12:0.6875 13:0.5 14:0.9375 15:0.3125 16:0.25 17:0.625 18:0.5 19:1.0 20:0.875 21:0.125 
0.016156759686313513 1:1.0 2:0.625 3:0.5 4:0.375 5:0.5 6:0.5625 7:0.25 8:0.25 9:0.0625 10:0.25 11:0.5 12:0.3125 13:0.375 14:0.5625 15:0.625 16:0.1875 17:0.1875 18:0.625 19:0.75 20:0.625 21:0.625 
-0.004553200622551758 1:0.4375 2:0.25 3:0.125 4:0.125 5:0.5 6:0.3125 7:0.1875 8:0.25 9:0.4375 10:0.5625 11:0.0625 12:0.5 13:0.625 14:0.75 15:0.6875 16:0.4375 17:1.0 18:0.875 19:0.9375 20:0.625 21:0.4375 
0.1788532073306799 1:0.4375 2:0.1875 3:0.0625 4:0.75 5:0.25 6:0.5 7:0.125 8:0.625 9:0.6875 10:0.5 11:0.5625 12:0.75 13:1.0 14:0.6875 15:0.75 16:0.6875 17:0.0 18:0.6875 19:0.1875 20:0.3125 21:0.9375 
-0.5608502694157382 1:0.5 2:1.0 3:0.6875 4:0.875 5:0.25 6:0.3125 7:0.875 8:0.75 9:0.625 10:0.5 11:0.3125 12:0.4375 13:0.4375 14:0.1875 15:0.0 16:0.5 17:0.125 18:0.4375 19:0.125 20:0.375 21:0.625 
-0.07829129305536178 1:0.25 2:0.125 3:0.6875 4:0.6875 5:0.8125 6:0.0625 7:0.375 8:0.875 9:0.6875 10:0.9375 11:0.375 12:0.9375 13:0.6875 14:0.9375 15:0.5 16:0.1875 17:0.0625 18:0.0625 19:0.375 20:0.3125 21:0.25 
0.02907862896157308 1:0.875 2:0.25 3:0.625 4:0.4375 5:0.625 6:0.625 7:0.25 8:0.5625 9:0.25 10:0.4375 11:0.125 12:0.6875 13:0.5 14:0.9375 15:0.5 16:0.125 17:0.5 18:0.1875 19:0.75 20:1.0 21:0.375 
0.4366091047401037 1:0.25 2:0.0 3:0.0 4:1.0 5:0.5625 6:0.375 7:1.0 8:0.5625 9:0.9375 10:0.875 11:0.625 12:0.5 13:0.9375 14:0.75 15:0.5 16:0.6875 17:0.6875 18:0.3125 19:0.375 20:0.1875 21:0.25 
0.0942008145563505 1:0.5625 2:1.0 3:0.5 4:1.0 5:0.875 6:0.9375 7:0.5625 8:0.125 9:0.5625 10:0.5625 11:0.8125 12:0.4375 13:0.875 14:0.8125 15:0.625 16:0.75 17:0.75 18:0.875 19:0.375 20:0.75 21:0.5 
-0.11138763042086149 1:0.5 2:0.0 3:0.0 4:0.3125 5:0.6875 6:0.375 7:0.125 8:0.0 9:0.375 10:0.4375 11:0.4375 12:0.6875 13:0.8125 14:0.75 15:0.875 16:1.0 17:1.0 18:0.8125 19:0.5 20:0.25 21:0.5 
-0.7702932412738139 1:0.6875 2:0.5 3:0.75 4:0.5625 5:0.5 6:0.9375 7:0.5625 8:0.8125 9:0.8125 10:0.5625 11:0.5 12:0.75 13:0.8125 14:0.375 15:0.375 16:0.5 17:0.0 18:0.0 19:0.0625 20:0.25 21:0.6875 
-0.18301158875597365 1:0.625 2:0.6875 3:1.0 4:0.25 5:1.0 6:1.0 7:0.25 8:0.125 9:0.0625 10:0.5 11:0.4375 12:0.375 13:0.0 14:0.625 15:0.5 16:0.3125 17:0.9375 18:0.875 19:0.875 20:1.0 21:0.625 
0.060314943109913956 1:0.1875 2:0.25 3:0.5 4:0.6875 5:0.8125 6:0.3125 7:0.5 8:0.5625 9:0.9375 10:1.0 11:0.625 12:1.0 13:0.5625 14:0.75 15:0.6875 16:0.3125 17:0.5 18:0.125 19:0.5 20:0.0 21:0.0 
0.1495580481666046 1:0.5625 2:1.0 3:0.625 4:0.0625 5:0.625 6:0.25 7:0.625 8:0.375 9:0.25 10:0.125 11:0.25 12:0.25 13:0.125 14:0.5 15:0.0 16:0.125 17:0.375 18:0.4375 19:0.6875 20:0.5 21:0.375 
-0.3724119185833463 1:0.5625 2:0.5 3:0.5625 4:1.0 5:0.9375 6:0.6875 7:0.4375 8:0.8125 9:0.5625 10:0.6875 11:0.9375 12:0.75 13:0.5 14:0.9375 15:0.75 16:0.0625 17:0.4375 18:0.625 19:0.5 20:0.5625 21:0.4375 
0.16773644506411292 1:0.625 2:0.5 3:0.125 4:0.0 5:0.9375 6:0.5625 7:0.5625 8:0.25 9:0.25 10:0.5625 11:0.625 12:0.4375 13:0.125 14:0.875 15:0.5625 16:0.375 17:0.625 18:0.5625 19:0.875 20:0.9375 21:0.4375 
-0.023618482369529858 1:0.4375 2:0.6875 3:0.875 4:0.8125 5:0.8125 6:0.1875 7:0.75 8:0.9375 9:1.0 10:0.875 11:0.5625 12:0.6875 13:0.3125 14:0.5 15:0.0 16:0.0625 17:0.625 18:0.0 19:0.6875 20:0.0625 21:0.125 
0.19101167074091482 1:0.375 2:0.125 3:1.0 4:0.5 5:0.875 6:0.625 7:0.1875 8:0.6875 9:0.5625 10:0.6875 11:1.0 12:0.6875 13:0.75 14:0.875 15:0.875 16:0.4375 17:0.4375 18:0.6875 19:0.5 20:1.0 21:0.5 
0.5015330627892538 1:1.0 2:0.8125 3:0.6875 4:0.6875 5:0.5625 6:1.0 7:0.5625 8:0.5 9:0.6875 10:0.25 11:0.75 12:0.6875 13:1.0 14:0.25 15:0.5 16:0.4375 17:0.125 18:0.25 19:0.0 20:0.4375 21:0.8125 
-0.2166449397100976 1:0.75 2:0.875 3:0.8125 4:0.75 5:0.9375 6:0.8125 7:0.375 8:0.25 9:0.5625 10:0.5 11:0.1875 12:0.4375 13:0.6875 14:0.5 15:0.25 16:0.375 17:0.5 18:0.3125 19:0.4375 20:0.375 21:0.3125 
-0.269495723362559 1:0.5 2:0.25 3:0.25 4:0.0 5:0.5 6:0.625 7:0.4375 8:0.375 9:0.125 10:0.625 11:0.6875 12:0.4375 13:0.375 14:0.875 15:0.9375 16:0.6875 17:0.625 18:0.9375 19:0.8125 20:0.6875 21:0.9375 
0.15781403870470803 1:0.4375 2:0.875 3:0.375 4:0.5625 5:0.3125 6:0.5 7:0.75 8:0.5 9:0.625 10:0.6875 11:0.875 12:0.375 13:0.5 14:0.375 15:0.4375 16:0.9375 17:0.25 18:0.875 19:0.4375 20:0.5625 21:0.6875 
0.06767824049502016 1:0.1875 2:0.1875 3:0.3125 4:0.3125 5:0.5 6:0.0 7:0.75 8:0.8125 9:0.5 10:0.625 11:0.625 12:0.5625 13:0.3125 14:0.75 15:0.5 16:0.3125 17:0.75 18:0.25 19:1.0 20:0.9375 21:0.0625 
0.20576603385210437 1:0.0625 2:0.25 3:0.0625 4:0.0625 5:0.375 6:0.1875 7:0.625 8:0.5 9:0.5625 10:1.0 11:0.875 12:0.1875 13:0.625 14:0.875 15:0.3125 16:0.625 17:0.75 18:0.9375 19:0.5 20:0.25 21:0.25 
-0.00830639876836667 1:0.125 2:0.0625 3:0.3125 4:0.0625 5:0.0 6:0.1875 7:0.125 8:0.5 9:0.0 10:0.0625 11:0.5 12:0.75 13:0.625 14:0.75 15:0.6875 16:0.3125 17:0.25 18:0.5625 19:0.8125 20:0.75 21:0.8125 
-0.05851732636279495 1:0.25 2:0.3125 3:0.625 4:0.375 5:0.4375 6:0.125 7:0.0 8:0.6875 9:0.5 10:0.3125 11:0.625 12:0.75 13:0.625 14:0.5 15:0.6875 16:0.1875 17:0.0625 18:0.0625 19:0.3125 20:0.625 21:0.6875 
0.17277165964354485 1:0.625 2:0.75 3:0.6875 4:0.3125 5:0.625 6:0.5625 7:1.0 8:0.5 9:0.5 10:0.375 11:0.6875 12:0.3125 13:0.1875 14:0.3125 15:0.6875 16:0.4375 17:0.3125 18:0.5625 19:0.6875 20:0.9375 21:0.875 
0.005604080760110526 1:0.875 2:0.125 3:0.4375 4:0.5 5:0.1875 6:0.8125 7:0.25 8:0.1875 9:0.5 10:0.0625 11:0.375 12:0.625 13:0.6875 14:0.4375 15:0.6875 16:0.875 17:0.5 18:0.6875 19:0.25 20:0.75 21:0.9375 
0.06616811848702485 1:0.0 2:0.75 3:0.375 4:0.3125 5:0.5625 6:0.625 7:0.625 8:0.3125 9:0.9375 10:0.875 11:0.9375 12:0.0 13:0.125 14:0.3125 15:0.4375 16:0.6875 17:0.625 18:0.9375 19:0.625 20:0.75 21:0.5 
0.5608844677346263 1:0.5 2:0.5 3:0.875 4:0.9375 5:0.6875 6:0.5 7:0.3125 8:0.6875 9:0.625 10:0.9375 11:0.4375 12:0.875 13:0.875 14:0.75 15:0.3125 16:0.5625 17:0.9375 18:0.0 19:0.375 20:0.0625 21:0.125 
-0.24823355241986725 1:0.3125 2:0.8125 3:0.875 4:0.8125 5:0.625 6:1.0 7:0.9375 8:0.875 9:0.9375 10:0.625 11:0.875 12:0.5625 13:0.4375 14:0.375 15:0.1875 16:0.375 17:0.5625 18:0.5 19:0.8125 20:0.625 21:0.5 
0.10611398556914198 1:0.6875 2:0.6875 3:0.625 4:0.8125 5:0.75 6:0.5625 7:0.625 8:0.75 9:0.625 10:0.5 11:0.375 12:0.375 13:0.5 14:0.0625 15:0.125 16:0.4375 17:0.1875 18:0.0625 19:0.0 20:0.125 21:0.1875 
-0.06178607787629621 1:0.4375 2:0.6875 3:0.0625 4:0.125 5:0.375 6:0.5 7:0.5 8:0.375 9:0.4375 10:0.1875 11:0.125 12:0.3125 13:0.0625 14:0.3125 15:0.375 16:0.25 17:0.6875 18:0.5625 19:0.6875 20:0.8125 21:0.5 
-0.419944414981361 1:0.0 2:0.25 3:0.0 4:0.6875 5:0.1875 6:0.375 7:0.4375 8:0.5 9:0.875 10:0.625 11:0.5 12:0.0 13:0.75 14:0.4375 15:0.0625 16:1.0 17:0.8125 18:0.5 19:0.1875 20:0.3125 21:0.3125 
-0.44787154416154973 1:0.6875 2:0.5 3:0.75 4:0.3125 5:0.5625 6:0.6875 7:0.125 8:0.6875 9:0.4375 10:0.8125 11:0.625 12:0.6875 13:0.125 14:0.5625 15:0.5 16:0.125 17:0.5 18:0.4375 19:0.8125 20:0.5625 21:0.5 
0.021309717910683593 1:0.875 2:0.5 3:0.5 4:0.1875 5:0.4375 6:0.375 7:0.3125 8:0.5625 9:0.0 10:0.1875 11:0.25 12:0.75 13:0.0625 14:0.375 15:0.25 16:0.125 17:0.125 18:0.0 19:0.5 20:0.0 21:0.1875 
-0.5824564036015125 1:0.8125 2:0.5 3:0.5625 4:0.3125 5:0.375 6:0.875 7:0.0625 8:0.0 9:0.1875 10:0.125 11:0.625 12:0.4375 13:0.5 14:0.5625 15:0.5 16:0.3125 17:0.5 18:0.8125 19:0.5 20:0.6875 21:0.625 
-0.24725804266396037 1:0.5 2:0.1875 3:0.375 4:0.5 5:0.5 6:0.375 7:0.0 8:0.0625 9:0.1875 10:0.1875 11:0.125 12:0.5 13:0.5625 14:1.0 15:1.0 16:0.5 17:0.5 18:0.5 19:0.4375 20:0.625 21:0.5 
0.2245940754791284 1:0.5 2:0.5 3:0.5 4:0.625 5:1.0 6:1.0 7:0.125 8:0.5 9:0.8125 10:0.5 11:0.75 12:0.4375 13:1.0 14:0.9375 15:0.9375 16:0.8125 17:0.875 18:0.6875 19:0.3125 20:0.5625 21:0.625 
-0.07967888163120643 1:0.25 2:0.375 3:0.0625 4:0.125 5:0.0 6:0.5625 7:0.5 8:0.0 9:0.375 10:0.0625 11:0.5625 12:0.5 13:0.5 14:0.4375 15:1.0 16:0.5 17:0.875 18:0.875 19:0.5 20:0.6875 21:0.625 
-0.6817984715059456 1:0.875 2:0.5 3:0.5 4:0.5 5:0.75 6:0.9375 7:0.0625 8:0.5625 9:0.3125 10:0.375 11:0.75 12:0.8125 13:0.5 14:0.8125 15:0.75 16:0.1875 17:0.375 18:0.4375 19:0.5 20:0.625 21:0.75 
0.1628661093879963 1:0.75 2:0.75 3:0.9375 4:0.6875 5:0.6875 6:1.0 7:0.375 8:0.6875 9:0.8125 10:0.5 11:0.6875 12:1.0 13:0.75 14:0.5625 15:0.8125 16:0.0 17:0.0 18:0.125 19:0.375 20:0.8125 21:0.875 
0.14077606227797657 1:0.3125 2:0.1875 3:0.5 4:0.5 5:0.5 6:0.625 7:0.4375 8:0.625 9:0.625 10:0.75 11:0.9375 12:1.0 13:0.6875 14:0.5 15:0.5 16:0.5 17:0.5 18:0.5 19:0.0 20:0.5 21:0.75 
-0.06047675188346652 1:0.5625 2:0.6875 3:1.0 4:0.6875 5:0.8125 6:0.4375 7:0.8125 8:0.6875 9:0.8125 10:0.5625 11:0.625 12:0.625 13:0.4375 14:0.6875 15:0.5 16:0.5 17:0.5 18:0.25 19:0.75 20:0.0 21:0.375 
-1.0 1:0.625 2:0.5625 3:0.6875 4:0.6875 5:0.875 6:0.625 7:0.5 8:0.6875 9:0.625 10:0.6875 11:0.5 12:0.6875 13:0.75 14:0.75 15:0.5625 16:0.5 17:0.4375 18:0.5 19:0.875 20:0.8125 21:0.625 
0.33934644592507557 1:0.5 2:0.5 3:0.5 4:0.375 5:0.0625 6:0.5 7:0.5625 8:0.0625 9:0.25 10:0.4375 11:0.4375 12:0.3125 13:0.1875 14:0.1875 15:0.5 16:0.3125 17:0.5 18:0.6875 19:0.5 20:0.5625 21:0.5 
-0.5825753888887117 1:0.8125 2:0.9375 3:1.0 4:0.625 5:0.8125 6:0.8125 7:0.25 8:0.4375 9:0.5 10:0.875 11:0.625 12:0.1875 13:0.5625 14:0.625 15:0.625 16:0.75 17:0.9375 18:0.9375 19:0.6875 20:0.625 21:0.4375 
0.2452299236835838 1:0.4375 2:0.8125 3:0.75 4:1.0 5:0.875 6:0.75 7:0.875 8:0.875 9:1.0 10:1.0 11:0.75 12:0.4375 13:0.5 14:0.875 15:0.5 16:0.6875 17:0.5 18:0.1875 19:0.5 20:0.0 21:0.4375 
-0.08371810739315923 1:0.5 2:0.375 3:0.1875 4:0.0625 5:0.375 6:0.1875 7:0.5 8:0.3125 9:0.25 10:0.3125 11:0.125 12:0.25 13:0.25 14:0.5 15:0.125 16:0.25 17:0.5625 18:0.5 19:0.75 20:0.5 21:0.6875 
0.30554359929046676 1:1.0 2:0.5 3:0.6875 4:0.875 5:0.625 6:0.5 7:0.0 8:0.5 9:0.4375 10:0.0625 11:0.375 12:0.5 13:0.875 14:0.625 15:0.5 16:0.625 17:0.0625 18:0.25 19:0.25 20:0.5 21:0.6875 
-0.1189815591743463 1:0.5625 2:0.1875 3:0.875 4:0.6875 5:0.875 6:0.625 7:0.375 8:0.75 9:0.625 10:0.875 11:0.5 12:0.75 13:0.5625 14:1.0 15:0.625 16:0.0625 17:0.1875 18:0.125 19:0.875 20:0.625 21:0.25 
-0.024214719714724553 1:0.0 2:0.25 3:0.1875 4:0.625 5:0.5 6:0.1875 7:1.0 8:0.875 9:0.9375 10:0.875 11:0.5625 12:0.6875 13:0.6875 14:0.5 15:0.5 16:1.0 17:0.6875 18:0.375 19:0.0625 20:0.0 21:0.125 
-0.49025062421685356 1:0.875 2:0.5 3:0.9375 4:0.5625 5:0.4375 6:0.625 7:0.4375 8:0.75 9:0.4375 10:0.0625 11:0.5 12:0.4375 13:0.5 14:0.0625 15:0.5625 16:0.25 17:0.25 18:0.4375 19:0.25 20:0.5625 21:0.8125 
-0.5196986867026244 1:0.4375 2:0.875 3:0.9375 4:0.9375 5:0.1875 6:0.5625 7:0.625 8:0.6875 9:0.8125 10:0.5 11:0.6875 12:1.0 13:0.875 14:0.125 15:0.1875 16:0.4375 17:0.1875 18:0.0625 19:0.1875 20:0.1875 21:0.625 
0.25263536842806394 1:0.375 2:0.5625 3:0.125 4:0.625 5:0.5625 6:0.5 7:0.6875 8:0.25 9:0.625 10:0.5 11:0.1875 12:0.125 13:0.875 14:0.3125 15:0.4375 16:0.9375 17:0.75 18:0.75 19:0.3125 20:0.0 21:0.625 
-0.45938419683158227 1:0.4375 2:0.625 3:0.1875 4:0.6875 5:0.8125 6:0.75 7:0.5625 8:0.4375 9:0.875 10:0.5 11:0.5625 12:0.0625 13:0.8125 14:0.6875 15:0.5 16:1.0 17:0.9375 18:1.0 19:0.4375 20:0.5625 21:0.3125 
