encog,SVM,java,3.2.0,1,1406057735617
[SVM]
[SVM:PARAMS]
[SVM:SVM-PARAM]
inputCount=21
C=1
cacheSize=100
coef0=0
degree=3
eps=0.001
gamma=1
kernelType=2
nrWeight=0
nu=0.5
p=0.1
probability=0
shrinking=1
svmType=3
weight=
weightLabel=
[SVM:SVM-MODEL]
svm_type epsilon_svr
kernel_type rbf
gamma 1.0
nr_class 2
total_sv 407
rho -0.40605828432179014
SV
0.08015460846301337 1:0.3125 2:0.375 3:0.75 4:0.625 5:0.5 6:0.8125 7:0.5 8:0.875 9:0.8125 10:1.0 11:0.75 12:0.6875 13:0.75 14:0.625 15:0.8125 16:0.0 17:0.4375 18:0.4375 19:0.4375 20:0.4375 21:0.375 
-0.08953573774912288 1:0.8125 2:0.0625 3:0.375 4:1.0 5:0.5625 6:0.25 7:0.25 8:0.3125 9:0.625 10:0.5625 11:0.125 12:0.5 13:0.9375 14:0.6875 15:0.0625 16:1.0 17:0.6875 18:0.3125 19:0.0625 20:0.0625 21:0.25 
0.2549097267871713 1:0.9375 2:0.5 3:0.6875 4:0.625 5:0.6875 6:1.0 7:0.4375 8:0.4375 9:0.875 10:0.625 11:0.875 12:0.4375 13:0.8125 14:1.0 15:0.5 16:0.75 17:0.8125 18:0.75 19:0.5 20:0.5 21:0.5625 
-0.38995824999393924 1:0.125 2:0.1875 3:0.4375 4:0.4375 5:0.4375 6:0.125 7:0.0 8:0.8125 9:0.5 10:0.75 11:0.0 12:0.75 13:0.6875 14:0.75 15:0.25 16:0.375 17:0.5 18:0.0 19:0.5 20:0.375 21:0.125 
0.07210583907973234 1:0.1875 2:0.5 3:0.6875 4:0.375 5:0.5 6:0.5 7:0.75 8:0.875 9:0.5 10:1.0 11:0.875 12:0.3125 13:0.5 14:0.5625 15:0.5 16:0.3125 17:0.625 18:0.4375 19:0.8125 20:0.4375 21:0.3125 
-0.6482614832804069 1:0.5 2:0.5 3:0.5625 4:0.5625 5:0.3125 6:0.875 7:0.8125 8:0.625 9:0.75 10:0.125 11:0.875 12:0.5 13:0.625 14:0.125 15:0.9375 16:0.75 17:0.25 18:0.875 19:0.375 20:0.375 21:0.875 
-0.11204936746750203 1:0.8125 2:0.75 3:0.5 4:0.75 5:0.6875 6:0.5 7:0.75 8:0.5625 9:0.8125 10:0.1875 11:0.4375 12:0.125 13:0.4375 14:0.1875 15:0.0625 16:1.0 17:0.3125 18:0.5625 19:0.0 20:0.0625 21:0.625 
-0.005958016934495631 1:0.3125 2:0.125 3:0.3125 4:0.0 5:0.5 6:0.5 7:0.0625 8:0.3125 9:0.25 10:0.125 11:0.625 12:0.5625 13:0.5 14:0.375 15:0.5625 16:0.5 17:0.5 18:0.875 19:0.5 20:0.875 21:0.8125 
-0.3103394084928056 1:0.625 2:0.875 3:0.3125 4:0.4375 5:0.125 6:0.25 7:0.875 8:0.5625 9:0.6875 10:0.0625 11:0.25 12:0.125 13:0.25 14:0.0625 15:0.0 16:0.5625 17:0.1875 18:0.1875 19:0.25 20:0.3125 21:0.375 
0.1287651756721312 1:0.4375 2:0.8125 3:0.25 4:0.3125 5:0.5 6:0.0625 7:0.75 8:0.375 9:0.375 10:0.4375 11:0.1875 12:0.0625 13:0.1875 14:0.375 15:0.375 16:0.75 17:1.0 18:0.5 19:0.875 20:0.3125 21:0.4375 
-0.17488749965705327 1:0.5 2:0.4375 3:0.75 4:0.8125 5:0.0625 6:0.625 7:0.25 8:0.4375 9:0.9375 10:0.0 11:0.875 12:0.9375 13:0.875 14:0.5 15:0.6875 16:0.75 17:0.125 18:0.625 19:0.0625 20:0.25 21:0.75 
-0.05497519119821029 1:0.5 2:0.875 3:0.375 4:0.4375 5:0.375 6:0.5625 7:0.9375 8:0.25 9:0.4375 10:0.125 11:0.5625 12:0.125 13:0.0625 14:0.25 15:0.4375 16:0.4375 17:0.375 18:1.0 19:0.8125 20:0.9375 21:0.875 
0.014072615470167832 1:0.5625 2:0.1875 3:0.3125 4:0.1875 5:0.1875 6:0.0 7:0.0 8:0.375 9:0.0625 10:0.1875 11:0.3125 12:0.375 13:0.0 14:0.25 15:0.375 16:0.0625 17:0.125 18:0.375 19:0.5625 20:0.5 21:0.375 
-0.24243059637251899 1:0.875 2:0.625 3:0.4375 4:0.25 5:0.625 6:0.6875 7:0.0625 8:0.3125 9:0.0625 10:0.0 11:0.375 12:0.5 13:0.25 14:0.125 15:0.5625 16:0.5 17:0.625 18:0.75 19:0.875 20:0.8125 21:0.8125 
0.35341379862798866 1:0.0 2:0.3125 3:0.1875 4:0.375 5:0.6875 6:0.3125 7:0.5 8:0.8125 9:0.875 10:0.75 11:0.5625 12:0.5 13:0.9375 14:0.875 15:0.6875 16:0.75 17:0.5625 18:0.3125 19:0.5625 20:0.25 21:0.1875 
-0.27466744852592995 1:0.5 2:0.25 3:0.5625 4:0.75 5:0.3125 6:0.8125 7:0.0625 8:0.5 9:0.8125 10:0.125 11:0.75 12:0.6875 13:0.875 14:0.9375 15:0.75 16:0.5 17:0.5 18:0.6875 19:0.375 20:0.5 21:0.9375 
0.12656770929525754 1:0.375 2:0.3125 3:0.5 4:1.0 5:0.5 6:0.5 7:0.3125 8:0.9375 9:1.0 10:0.5 11:0.5 12:0.8125 13:1.0 14:0.8125 15:0.6875 16:0.8125 17:0.375 18:0.375 19:0.0 20:0.125 21:0.875 
0.3623056738384894 1:0.75 2:1.0 3:0.9375 4:0.375 5:0.75 6:0.5 7:0.75 8:0.6875 9:0.125 10:0.5 11:0.6875 12:0.375 13:0.1875 14:0.1875 15:0.0625 16:0.125 17:0.3125 18:0.0 19:0.6875 20:1.0 21:0.5625 
0.335410391538879 1:0.0625 2:0.1875 3:0.1875 4:0.0 5:0.25 6:0.125 7:0.4375 8:0.125 9:0.5 10:0.9375 11:0.5625 12:0.5 13:0.5625 14:0.625 15:0.8125 16:0.625 17:0.875 18:0.75 19:0.5 20:0.5 21:0.0625 
-0.06256837257000814 1:0.6875 2:0.6875 3:0.5 4:0.125 5:0.0 6:0.25 7:0.5625 8:0.4375 9:0.1875 10:0.375 11:0.0625 12:0.5625 13:0.25 14:0.125 15:0.0625 16:0.0 17:0.4375 18:0.1875 19:0.625 20:0.6875 21:0.0625 
-0.3179757763419412 1:0.6875 2:0.4375 3:0.5 4:0.25 5:0.25 6:0.6875 7:0.25 8:0.5 9:0.0 10:0.0 11:0.25 12:0.75 13:0.25 14:0.375 15:0.5625 16:0.1875 17:0.1875 18:0.375 19:0.375 20:0.4375 21:0.9375 
-0.41384305361048423 1:0.5625 2:0.9375 3:0.8125 4:0.5625 5:0.4375 6:0.1875 7:0.625 8:0.3125 9:0.25 10:0.4375 11:0.4375 12:0.375 13:0.0625 14:0.0 15:0.125 16:0.5 17:0.5 18:0.4375 19:0.5 20:0.25 21:0.5625 
0.03376340471979987 1:0.875 2:0.9375 3:0.375 4:0.5625 5:0.5625 6:0.5 7:0.0625 8:0.0 9:0.25 10:0.1875 11:0.3125 12:0.25 13:0.4375 14:0.5 15:0.3125 16:0.9375 17:0.9375 18:0.6875 19:0.9375 20:0.125 21:0.0 
0.004123975141426747 1:0.625 2:0.5 3:0.75 4:0.4375 5:0.4375 6:0.6875 7:0.0 8:0.5 9:0.375 10:0.0 11:0.5 12:0.625 13:0.4375 14:0.8125 15:0.8125 16:0.0625 17:0.375 18:0.8125 19:0.9375 20:0.75 21:0.8125 
1.0 1:0.5625 2:0.5625 3:0.5625 4:0.9375 5:0.6875 6:0.4375 7:0.625 8:0.625 9:1.0 10:0.6875 11:0.75 12:0.75 13:0.5 14:0.4375 15:0.5 16:0.6875 17:0.5 18:0.375 19:0.4375 20:0.125 21:0.25 
-0.0010307006902555873 1:0.0625 2:0.1875 3:0.4375 4:0.25 5:0.5625 6:0.5 7:0.0625 8:0.4375 9:0.5 10:0.8125 11:0.5 12:0.75 13:0.9375 14:0.75 15:0.9375 16:0.6875 17:1.0 18:0.625 19:0.625 20:0.625 21:0.5 
-0.8847547762347369 1:0.5 2:0.6875 3:0.375 4:0.1875 5:0.5 6:0.5625 7:0.8125 8:0.1875 9:0.625 10:0.75 11:0.5 12:0.3125 13:0.5 14:0.5 15:0.3125 16:0.5625 17:0.6875 18:0.875 19:0.5 20:0.5625 21:0.5 
0.08968856304773087 1:0.8125 2:0.5625 3:0.375 4:0.875 5:0.5 6:1.0 7:0.25 8:0.1875 9:0.625 10:0.0 11:0.6875 12:0.375 13:0.625 14:0.125 15:0.5 16:0.8125 17:0.3125 18:0.625 19:0.0625 20:0.1875 21:0.75 
0.36436625583176074 1:0.8125 2:0.4375 3:0.9375 4:0.0625 5:0.75 6:0.75 7:0.3125 8:0.4375 9:0.0 10:0.5 11:0.6875 12:0.8125 13:0.375 14:0.5 15:1.0 16:0.375 17:0.4375 18:0.6875 19:0.9375 20:1.0 21:0.6875 
-0.13916428792545643 1:0.3125 2:0.3125 3:0.75 4:0.75 5:0.4375 6:0.3125 7:0.625 8:0.9375 9:0.625 10:0.8125 11:0.0 12:0.9375 13:0.625 14:0.5625 15:0.25 16:0.4375 17:0.25 18:0.0 19:0.5 20:0.375 21:0.375 
0.11183928626392446 1:0.1875 2:0.3125 3:0.0625 4:0.3125 5:0.3125 6:0.1875 7:0.25 8:0.3125 9:0.5625 10:0.625 11:0.875 12:0.25 13:0.5 14:0.75 15:0.875 16:0.5625 17:0.75 18:0.9375 19:0.8125 20:0.6875 21:0.75 
0.27668747827246326 1:0.0625 2:0.0 3:0.3125 4:0.3125 5:0.3125 6:0.0625 7:0.4375 8:0.5625 9:0.5625 10:0.6875 11:0.5 12:0.875 13:0.625 14:0.5 15:0.8125 16:0.75 17:0.4375 18:0.0 19:0.375 20:0.4375 21:0.5 
0.6324954101772896 1:0.0625 2:0.5625 3:0.0 4:0.5 5:0.25 6:0.5 7:0.75 8:0.9375 9:0.75 10:0.6875 11:0.8125 12:0.1875 13:0.3125 14:0.3125 15:0.5 16:0.9375 17:1.0 18:0.9375 19:0.3125 20:0.5 21:0.5 
-0.2985701187027228 1:0.4375 2:0.25 3:0.3125 4:0.3125 5:0.125 6:0.0 7:0.375 8:0.0 9:0.6875 10:0.1875 11:0.5 12:0.625 13:0.5625 14:0.375 15:0.5 16:0.5 17:0.5 18:0.5 19:0.3125 20:0.25 21:0.4375 
-0.15443249557790667 1:0.9375 2:0.5 3:0.0625 4:0.625 5:0.875 6:0.6875 7:0.375 8:0.1875 9:0.0625 10:0.6875 11:0.5625 12:0.0625 13:0.4375 14:0.875 15:0.6875 16:0.5 17:0.9375 18:0.875 19:0.875 20:0.5 21:0.3125 
0.17172957309922843 1:0.75 2:0.375 3:0.4375 4:0.0 5:0.5 6:0.5 7:0.375 8:0.1875 9:0.1875 10:0.125 11:0.4375 12:0.6875 13:0.375 14:0.5 15:0.5625 16:0.3125 17:0.875 18:0.9375 19:0.6875 20:0.8125 21:0.6875 
-0.49022157821268125 1:0.3125 2:0.3125 3:0.375 4:0.6875 5:0.75 6:0.1875 7:0.5 8:0.3125 9:0.75 10:0.75 11:0.4375 12:0.25 13:0.5 14:0.75 15:0.375 16:0.8125 17:0.8125 18:0.375 19:0.5 20:0.4375 21:0.3125 
0.21918331925824266 1:0.1875 2:0.5 3:0.5 4:0.1875 5:0.375 6:0.9375 7:0.8125 8:0.8125 9:1.0 10:0.6875 11:1.0 12:0.5 13:0.3125 14:0.125 15:0.625 16:0.4375 17:0.3125 18:0.5 19:0.6875 20:0.8125 21:0.9375 
-0.3369000410254893 1:0.3125 2:0.8125 3:0.5625 4:0.6875 5:0.5 6:0.625 7:0.75 8:0.5 9:0.5 10:0.75 11:0.75 12:0.0625 13:0.0 14:0.4375 15:0.5625 16:0.75 17:0.9375 18:0.75 19:0.8125 20:0.625 21:0.625 
0.4327432273851655 1:0.25 2:0.3125 3:1.0 4:0.6875 5:0.625 6:0.125 7:0.5625 8:0.875 9:1.0 10:0.5 11:0.5625 12:0.8125 13:0.75 14:0.5 15:0.4375 16:0.4375 17:0.3125 18:0.375 19:0.3125 20:0.3125 21:0.5 
0.6427111920879625 1:0.375 2:0.4375 3:0.125 4:0.6875 5:0.1875 6:0.3125 7:0.8125 8:0.25 9:0.75 10:0.75 11:0.5625 12:0.0625 13:0.375 14:0.375 15:0.0 16:0.875 17:0.6875 18:0.5 19:0.3125 20:0.0625 21:0.5 
0.05746107558740415 1:1.0 2:0.6875 3:0.5625 4:0.8125 5:0.875 6:0.5 7:0.3125 8:0.125 9:0.875 10:0.4375 11:0.125 12:0.75 13:0.9375 14:0.75 15:0.4375 16:0.9375 17:0.6875 18:0.625 19:0.4375 20:0.3125 21:0.4375 
0.14699418830850364 1:0.0 2:0.125 3:0.6875 4:0.6875 5:0.375 6:0.375 7:0.6875 8:0.875 9:0.9375 10:0.375 11:0.5625 12:0.9375 13:0.75 14:0.3125 15:0.5 16:0.625 17:0.125 18:0.375 19:0.3125 20:0.0 21:0.375 
-0.30278406633839616 1:0.875 2:0.6875 3:0.4375 4:0.75 5:0.625 6:0.875 7:0.375 8:0.4375 9:0.875 10:0.4375 11:0.5 12:0.0 13:0.5625 14:0.5625 15:0.3125 16:0.875 17:0.875 18:0.5 19:0.4375 20:0.375 21:0.4375 
0.03746385450903192 1:0.75 2:0.375 3:0.5625 4:0.75 5:0.6875 6:0.1875 7:0.125 8:0.4375 9:0.9375 10:0.375 11:0.125 12:0.8125 13:0.625 14:0.5 15:0.4375 16:0.5625 17:0.25 18:0.4375 19:0.25 20:0.0625 21:0.25 
-0.09047274563401878 1:0.5625 2:0.875 3:0.5625 4:0.6875 5:0.1875 6:0.25 7:0.5 8:0.0 9:0.6875 10:0.375 11:0.25 12:0.0625 13:0.5 14:0.25 15:0.125 16:1.0 17:0.4375 18:0.625 19:0.1875 20:0.0625 21:0.5625 
0.0032854442096307483 1:1.0 2:0.8125 3:0.75 4:0.9375 5:0.9375 6:0.6875 7:0.625 8:0.6875 9:0.75 10:0.5625 11:0.625 12:0.6875 13:0.875 14:0.5 15:0.0625 16:0.75 17:0.25 18:0.4375 19:0.25 20:0.0625 21:0.5 
-0.25133183390904784 1:0.0 2:0.0 3:0.0 4:0.0 5:0.75 6:0.0 7:0.0625 8:0.125 9:0.3125 10:0.6875 11:0.5 12:0.5625 13:0.625 14:0.875 15:0.6875 16:0.6875 17:0.8125 18:1.0 19:0.875 20:0.5 21:0.0625 
0.11799348769958569 1:0.5 2:0.5 3:0.6875 4:0.3125 5:0.25 6:0.625 7:0.5 8:0.5 9:0.1875 10:0.0625 11:0.1875 12:0.5625 13:0.4375 14:0.0 15:0.375 16:0.125 17:0.1875 18:0.5 19:0.0 20:0.875 21:0.6875 
0.23142768576800232 1:0.625 2:0.1875 3:0.5 4:0.1875 5:0.5 6:0.3125 7:0.375 8:0.875 9:0.25 10:0.375 11:0.375 12:0.9375 13:0.5 14:0.5625 15:0.8125 16:0.1875 17:0.125 18:0.4375 19:0.625 20:0.8125 21:0.9375 
0.11972947289883501 1:0.375 2:0.1875 3:0.875 4:0.75 5:0.9375 6:0.5 7:0.5625 8:0.9375 9:0.5625 10:0.625 11:0.8125 12:0.875 13:0.625 14:0.9375 15:0.5 16:0.375 17:0.375 18:0.0625 19:0.5 20:0.5 21:0.125 
-0.12088712478942525 1:0.5 2:0.125 3:0.375 4:0.1875 5:0.3125 6:0.25 7:0.1875 8:0.6875 9:0.5 10:0.5 11:0.5 12:1.0 13:0.5 14:0.5 15:1.0 16:0.5 17:0.0625 18:0.5 19:0.1875 20:0.6875 21:0.5625 
-0.10054285517948541 1:0.625 2:0.9375 3:0.625 4:0.3125 5:0.5 6:0.4375 7:0.8125 8:0.5 9:0.1875 10:0.3125 11:0.1875 12:0.25 13:0.0 14:0.25 15:0.125 16:0.125 17:0.25 18:0.5625 19:0.75 20:0.5 21:0.6875 
-0.13763699540051846 1:0.625 2:0.4375 3:0.0625 4:0.875 5:0.6875 6:0.5 7:0.0 8:0.1875 9:0.1875 10:0.0625 11:0.0625 12:0.3125 13:0.5625 14:0.5625 15:0.375 16:1.0 17:0.8125 18:0.9375 19:0.375 20:0.125 21:0.375 
0.3785844629309453 1:0.4375 2:0.375 3:0.3125 4:0.1875 5:0.4375 6:0.3125 7:0.5625 8:0.375 9:0.5 10:0.5 11:0.25 12:0.4375 13:0.4375 14:0.75 15:0.625 16:0.8125 17:0.625 18:0.5 19:0.5 20:0.25 21:0.3125 
0.05584004890294034 1:0.375 2:0.1875 3:0.75 4:0.25 5:0.3125 6:0.3125 7:0.4375 8:0.5 9:0.5 10:0.4375 11:0.25 12:0.875 13:0.5 14:0.875 15:0.6875 16:0.5 17:0.3125 18:0.375 19:0.375 20:0.5 21:0.5 
0.8711705534061914 1:0.375 2:0.75 3:0.6875 4:0.8125 5:0.4375 6:0.9375 7:0.9375 8:0.625 9:0.875 10:0.625 11:1.0 12:0.4375 13:0.5 14:0.375 15:1.0 16:0.875 17:0.375 18:1.0 19:0.1875 20:0.3125 21:0.75 
0.42396612338716205 1:0.5625 2:0.6875 3:0.6875 4:0.5 5:0.75 6:0.5625 7:0.5625 8:0.125 9:0.3125 10:0.1875 11:0.5625 12:0.0 13:0.0625 14:0.1875 15:0.5 16:0.125 17:0.5 18:0.75 19:0.5 20:0.625 21:0.9375 
0.08586007504137685 1:0.375 2:0.9375 3:0.375 4:0.875 5:0.6875 6:0.875 7:0.625 8:0.4375 9:0.9375 10:0.75 11:0.5625 12:0.375 13:0.8125 14:0.6875 15:0.8125 16:0.8125 17:0.9375 18:0.625 19:0.5625 20:0.5625 21:0.375 
0.42364803353078834 1:0.625 2:0.8125 3:0.9375 4:0.8125 5:0.5 6:0.8125 7:0.1875 8:0.5 9:0.5625 10:0.375 11:0.625 12:0.75 13:0.5625 14:0.3125 15:0.5625 16:0.6875 17:0.375 18:0.3125 19:0.125 20:0.375 21:0.75 
0.0483799443649432 1:0.625 2:0.5 3:0.75 4:0.625 5:0.8125 6:0.9375 7:0.4375 8:0.875 9:0.8125 10:0.4375 11:0.5625 12:0.875 13:0.6875 14:0.625 15:0.9375 16:0.125 17:0.375 18:0.5625 19:0.4375 20:0.375 21:0.875 
0.2568529330876544 1:0.5 2:0.5 3:0.375 4:0.8125 5:0.75 6:0.8125 7:0.5625 8:0.25 9:0.625 10:0.5 11:0.6875 12:0.125 13:0.9375 14:0.5 15:1.0 16:0.9375 17:0.5 18:0.9375 19:0.25 20:0.3125 21:0.6875 
0.16625243615444282 1:0.5625 2:0.3125 3:0.5 4:0.875 5:0.6875 6:0.625 7:0.0625 8:0.4375 9:0.5 10:1.0 11:0.5 12:0.6875 13:0.75 14:0.9375 15:0.9375 16:0.8125 17:0.875 18:0.625 19:0.625 20:0.625 21:0.625 
0.05547843211039924 1:0.625 2:0.4375 3:0.5 4:0.5 5:0.625 6:0.3125 7:0.375 8:0.75 9:0.4375 10:0.5 11:0.25 12:0.6875 13:0.9375 14:0.8125 15:0.25 16:0.25 17:0.5 18:0.0 19:0.4375 20:0.3125 21:0.4375 
-0.5058612443907557 1:0.625 2:0.625 3:0.375 4:0.5 5:0.625 6:0.25 7:0.8125 8:0.125 9:0.5625 10:0.625 11:0.4375 12:0.375 13:0.5 14:0.0625 15:0.25 16:1.0 17:0.875 18:0.5625 19:0.25 20:0.0625 21:0.25 
0.05355616485564008 1:0.3125 2:0.5 3:0.5625 4:0.0 5:0.3125 6:0.4375 7:0.5625 8:0.6875 9:0.5625 10:0.0625 11:0.5 12:0.8125 13:0.4375 14:0.3125 15:0.125 16:0.125 17:0.125 18:0.3125 19:0.0625 20:0.4375 21:0.5 
0.024924915878716966 1:1.0 2:0.5 3:0.5 4:0.3125 5:0.6875 6:1.0 7:0.0 8:0.25 9:0.0 10:0.1875 11:0.0625 12:0.4375 13:0.0 14:0.5 15:0.8125 16:0.4375 17:0.625 18:0.875 19:0.9375 20:0.75 21:1.0 
0.33398714866084034 1:0.6875 2:0.0 3:0.5625 4:0.375 5:0.5 6:0.5625 7:0.125 8:0.1875 9:0.0625 10:0.25 11:0.75 12:1.0 13:0.4375 14:0.5 15:0.6875 16:0.0625 17:0.4375 18:0.5 19:0.5 20:0.6875 21:1.0 
-0.5837395491217754 1:0.375 2:0.5 3:0.5625 4:1.0 5:0.625 6:0.375 7:0.5625 8:0.6875 9:0.9375 10:0.625 11:0.375 12:0.3125 13:0.4375 14:0.25 15:0.3125 16:0.5 17:0.5 18:0.3125 19:0.25 20:0.0 21:0.1875 
-0.19628353943263507 1:0.8125 2:0.5 3:0.8125 4:0.9375 5:0.625 6:0.5 7:0.5625 8:0.625 9:0.9375 10:0.75 11:0.3125 12:0.5 13:0.5625 14:0.875 15:0.3125 16:0.9375 17:0.75 18:0.5 19:0.3125 20:0.0 21:0.25 
-0.2787659586401616 1:0.5625 2:0.5 3:0.625 4:0.5625 5:0.6875 6:0.5 7:0.6875 8:0.5 9:0.5625 10:0.625 11:0.5625 12:0.25 13:0.25 14:0.5 15:0.25 16:0.6875 17:0.8125 18:0.5625 19:0.625 20:0.0 21:0.0 
0.007568327344896729 1:0.6875 2:0.875 3:1.0 4:0.875 5:0.5 6:1.0 7:0.6875 8:0.8125 9:0.5 10:0.5 11:0.875 12:0.5 13:0.4375 14:0.0 15:0.9375 16:0.375 17:0.3125 18:0.3125 19:0.125 20:0.75 21:0.625 
-0.9387803617316709 1:0.25 2:0.3125 3:0.5625 4:0.625 5:0.375 6:0.1875 7:0.4375 8:0.8125 9:0.9375 10:0.5625 11:0.5625 12:0.5 13:0.8125 14:0.625 15:0.875 16:0.625 17:0.1875 18:0.5 19:0.125 20:0.375 21:0.4375 
0.2819885443755074 1:0.0625 2:0.5 3:0.6875 4:0.375 5:0.375 6:0.6875 7:0.5 8:0.9375 9:0.5625 10:0.8125 11:0.9375 12:0.5625 13:0.5 14:0.625 15:0.6875 16:0.5 17:0.375 18:0.875 19:0.5 20:0.75 21:1.0 
-1.0 1:0.1875 2:0.5 3:0.25 4:0.75 5:0.5 6:0.5625 7:0.5 8:0.6875 9:0.9375 10:0.6875 11:0.875 12:0.25 13:0.6875 14:0.3125 15:0.5 16:0.625 17:0.5 18:0.75 19:0.5 20:0.5 21:0.6875 
0.01537887417182798 1:0.3125 2:0.25 3:0.0625 4:0.0 5:0.4375 6:0.25 7:0.1875 8:0.125 9:0.1875 10:0.375 11:0.25 12:0.1875 13:0.375 14:0.875 15:0.625 16:1.0 17:0.6875 18:0.5625 19:0.875 20:0.4375 21:0.375 
0.4404890944824009 1:0.375 2:0.375 3:0.625 4:0.375 5:0.3125 6:0.1875 7:0.5 8:0.625 9:0.5625 10:0.625 11:0.0 12:0.6875 13:0.375 14:0.375 15:0.375 16:0.375 17:0.375 18:0.0625 19:0.3125 20:0.125 21:0.1875 
-0.02054809229024567 1:1.0 2:0.6875 3:0.75 4:0.9375 5:0.8125 6:1.0 7:0.3125 8:0.5625 9:0.5 10:0.4375 11:0.5 12:0.8125 13:0.5 14:0.5 15:0.5 16:0.0 17:0.1875 18:0.6875 19:0.5625 20:0.9375 21:0.8125 
-0.45519136808295935 1:0.6875 2:0.1875 3:0.0 4:0.4375 5:0.4375 6:0.3125 7:0.25 8:0.3125 9:0.3125 10:0.5 11:0.5 12:0.5 13:0.625 14:0.75 15:0.5 16:0.5 17:0.8125 18:0.8125 19:0.875 20:0.5 21:0.4375 
-0.053643595264684575 1:0.625 2:0.25 3:0.3125 4:0.625 5:1.0 6:0.1875 7:0.5 8:0.5 9:0.5 10:0.5 11:0.125 12:0.5 13:1.0 14:1.0 15:0.0625 16:0.5625 17:0.75 18:0.3125 19:0.5625 20:0.0 21:0.125 
0.2041900594907566 1:0.6875 2:0.5625 3:0.875 4:0.875 5:0.6875 6:1.0 7:0.0 8:0.5 9:0.5 10:0.5 11:0.6875 12:0.8125 13:0.625 14:0.75 15:0.6875 16:0.3125 17:0.6875 18:0.5 19:0.8125 20:0.625 21:0.6875 
-0.26398742252358676 1:1.0 2:0.4375 3:0.375 4:1.0 5:0.5625 6:0.75 7:0.3125 8:0.4375 9:0.375 10:0.5 11:0.75 12:0.5 13:0.75 14:0.9375 15:1.0 16:0.9375 17:0.9375 18:0.8125 19:0.5 20:0.4375 21:0.875 
0.10682961610492117 1:0.1875 2:0.0625 3:0.625 4:1.0 5:0.625 6:0.375 7:0.625 8:0.75 9:0.625 10:0.5625 11:0.5 12:0.875 13:0.875 14:0.75 15:0.5 16:0.5625 17:0.1875 18:0.0625 19:0.125 20:0.0 21:0.0625 
0.3537605552999171 1:0.375 2:0.1875 3:0.3125 4:0.1875 5:0.1875 6:0.6875 7:0.1875 8:0.4375 9:0.4375 10:0.0 11:0.8125 12:0.5 13:0.375 14:0.5625 15:0.75 16:0.5 17:0.625 18:0.875 19:0.375 20:0.6875 21:0.75 
0.4473786046524392 1:0.4375 2:0.625 3:0.5625 4:0.875 5:0.9375 6:0.625 7:0.75 8:0.5625 9:0.6875 10:0.6875 11:0.9375 12:0.0625 13:0.5 14:0.6875 15:0.0 16:0.875 17:1.0 18:0.75 19:0.4375 20:0.125 21:0.0 
0.26601992084238196 1:0.4375 2:0.0625 3:0.1875 4:0.6875 5:0.5625 6:0.5625 7:0.5625 8:0.5 9:0.625 10:0.6875 11:0.6875 12:0.375 13:0.9375 14:0.8125 15:0.75 16:1.0 17:1.0 18:0.875 19:0.5 20:0.4375 21:0.8125 
-0.6562720798152756 1:0.0625 2:0.5 3:0.5 4:0.5 5:0.25 6:0.0625 7:0.6875 8:0.9375 9:1.0 10:0.875 11:0.9375 12:0.5 13:0.6875 14:0.5 15:0.4375 16:0.8125 17:0.5625 18:0.6875 19:0.5625 20:0.4375 21:0.5 
0.3958749420453947 1:0.5625 2:0.5 3:0.75 4:0.8125 5:0.0625 6:0.5 7:0.25 8:0.75 9:0.9375 10:0.1875 11:0.5625 12:0.6875 13:0.875 14:0.625 15:0.5 16:0.4375 17:0.1875 18:0.4375 19:0.1875 20:0.0625 21:0.5 
-0.22619204240267723 1:0.9375 2:0.125 3:1.0 4:0.5 5:0.8125 6:0.1875 7:0.3125 8:0.5 9:0.5 10:0.3125 11:0.0 12:1.0 13:0.6875 14:0.625 15:0.5 16:0.125 17:0.375 18:0.0 19:0.5625 20:0.375 21:0.25 
0.4187710559125876 1:0.5 2:0.5 3:0.5 4:0.8125 5:0.5 6:0.5 7:0.5625 8:0.0625 9:0.75 10:0.5 11:0.4375 12:0.3125 13:0.5 14:0.375 15:0.375 16:0.75 17:0.5 18:0.125 19:0.25 20:0.125 21:0.125 
-0.9855223800504904 1:0.4375 2:0.8125 3:0.125 4:0.4375 5:0.75 6:0.625 7:0.9375 8:0.625 9:0.5 10:0.75 11:1.0 12:0.4375 13:0.25 14:0.5 15:0.5 16:0.9375 17:0.8125 18:0.75 19:0.6875 20:0.625 21:0.5625 
0.06792100056254985 1:0.8125 2:0.6875 3:0.5 4:0.125 5:0.5 6:0.5 7:0.5 8:0.0625 9:0.1875 10:0.25 11:0.5 12:0.375 13:0.0625 14:0.125 15:0.75 16:0.125 17:0.5 18:0.625 19:0.625 20:0.8125 21:0.625 
0.09320500395017803 1:0.4375 2:0.625 3:0.5 4:0.5 5:0.1875 6:0.5 7:0.5 8:0.5 9:1.0 10:0.5 11:0.75 12:0.3125 13:0.5 14:0.3125 15:0.3125 16:0.9375 17:0.1875 18:0.3125 19:0.1875 20:0.3125 21:0.625 
-0.1886364453912283 1:0.4375 2:0.5 3:0.5 4:0.125 5:0.375 6:0.1875 7:0.5 8:0.8125 9:0.0 10:0.375 11:0.0625 12:0.875 13:0.0625 14:0.5625 15:0.1875 16:0.375 17:0.1875 18:0.0625 19:0.8125 20:0.5625 21:0.0 
-0.3864989992658881 1:0.1875 2:0.4375 3:0.3125 4:0.625 5:0.3125 6:0.0 7:0.75 8:0.5 9:1.0 10:0.9375 11:0.5 12:0.5 13:1.0 14:0.3125 15:0.125 16:0.5625 17:0.25 18:0.0 19:0.25 20:0.0 21:0.5 
0.6651627389718248 1:0.375 2:0.4375 3:0.8125 4:0.1875 5:0.0 6:0.75 7:0.375 8:0.5625 9:0.4375 10:0.5 11:1.0 12:0.625 13:0.25 14:0.5 15:0.9375 16:0.3125 17:0.25 18:0.5 19:0.6875 20:0.9375 21:0.625 
-0.2863447596163409 1:0.875 2:0.625 3:0.875 4:0.8125 5:0.5 6:0.5 7:0.25 8:0.4375 9:0.625 10:0.375 11:0.25 12:0.75 13:0.625 14:0.375 15:0.375 16:0.9375 17:0.0 18:0.125 19:0.0625 20:0.25 21:0.375 
0.0540787441010935 1:0.75 2:0.875 3:0.5 4:0.5 5:0.3125 6:0.5 7:0.5625 8:0.5 9:0.5625 10:0.0625 11:0.25 12:0.0625 13:0.125 14:0.1875 15:0.125 16:0.6875 17:0.5625 18:0.5 19:0.5 20:0.25 21:0.4375 
0.10521127342714025 1:0.5 2:0.9375 3:0.625 4:0.8125 5:0.5 6:0.1875 7:0.875 8:0.75 9:0.8125 10:0.5 11:0.625 12:0.75 13:0.625 14:0.4375 15:0.3125 16:0.4375 17:0.25 18:0.0 19:0.25 20:0.0625 21:0.5625 
0.024410178377351585 1:1.0 2:0.625 3:0.8125 4:0.5 5:0.875 6:0.875 7:0.5 8:0.5 9:0.0 10:0.5 11:0.4375 12:0.0625 13:0.0 14:0.3125 15:0.25 16:0.4375 17:0.5 18:0.6875 19:0.6875 20:0.5625 21:0.5625 
0.26078031929737133 1:0.5 2:0.125 3:0.0625 4:0.5 5:0.5625 6:0.1875 7:0.0 8:0.5 9:0.375 10:0.5 11:0.25 12:0.6875 13:0.8125 14:0.875 15:0.375 16:0.375 17:1.0 18:0.4375 19:0.8125 20:0.125 21:0.3125 
-0.17883895019785845 1:0.5625 2:0.125 3:0.8125 4:0.4375 5:0.0 6:0.25 7:0.125 8:1.0 9:0.4375 10:0.0625 11:0.0625 12:0.6875 13:0.5 14:0.1875 15:0.375 16:0.0 17:0.125 18:0.25 19:0.375 20:0.25 21:0.5625 
-0.23640044913911837 1:0.5625 2:0.4375 3:0.125 4:0.5 5:0.0625 6:0.0 7:0.25 8:0.5 9:0.4375 10:0.0 11:0.0 12:0.1875 13:0.375 14:0.3125 15:0.125 16:0.625 17:0.125 18:0.3125 19:0.1875 20:0.25 21:0.625 
0.009183228303058448 1:0.5625 2:0.75 3:0.9375 4:0.5 5:0.75 6:1.0 7:0.5 8:0.875 9:0.375 10:1.0 11:0.625 12:0.6875 13:0.0 14:0.5625 15:0.3125 16:0.3125 17:0.6875 18:0.4375 19:0.9375 20:0.6875 21:0.25 
0.6435136495612513 1:0.9375 2:0.6875 3:0.75 4:0.6875 5:0.875 6:0.875 7:0.4375 8:0.6875 9:0.5 10:0.25 11:0.75 12:0.75 13:0.625 14:0.625 15:0.875 16:0.6875 17:0.5 18:0.6875 19:0.375 20:0.5625 21:0.75 
-0.3735512746817286 1:0.125 2:0.0625 3:0.1875 4:0.1875 5:0.25 6:0.0 7:0.875 8:0.8125 9:0.5625 10:0.5625 11:0.25 12:0.8125 13:0.5 14:0.75 15:0.4375 16:0.3125 17:0.3125 18:0.25 19:0.5 20:0.5 21:0.0625 
0.2498948682642749 1:0.25 2:0.1875 3:0.0625 4:0.1875 5:0.375 6:0.4375 7:1.0 8:0.9375 9:0.625 10:0.9375 11:0.8125 12:0.125 13:0.125 14:0.5625 15:0.4375 16:0.375 17:0.9375 18:0.6875 19:0.8125 20:0.5 21:0.0625 
0.37435122732720777 1:1.0 2:0.875 3:0.6875 4:0.875 5:0.8125 6:0.625 7:0.5625 8:0.25 9:0.375 10:0.375 11:0.3125 12:0.3125 13:0.5 14:0.6875 15:0.5 16:0.5 17:0.5625 18:0.9375 19:0.5 20:0.625 21:0.5 
-0.3918305718519134 1:0.5 2:1.0 3:0.5 4:0.8125 5:1.0 6:0.4375 7:0.6875 8:0.5 9:0.75 10:1.0 11:0.625 12:0.0625 13:0.375 14:0.1875 15:0.375 16:0.5 17:0.6875 18:0.4375 19:0.5 20:0.5625 21:0.375 
1.0 1:0.1875 2:0.5 3:0.4375 4:0.3125 5:0.875 6:0.5625 7:0.8125 8:0.1875 9:0.5 10:0.75 11:0.75 12:0.1875 13:0.5 14:0.5625 15:0.625 16:0.6875 17:1.0 18:0.75 19:0.5 20:0.75 21:0.5 
-0.3971505362912328 1:0.375 2:0.9375 3:0.9375 4:0.0625 5:0.5 6:0.3125 7:0.75 8:0.875 9:0.5 10:0.5 11:0.5 12:0.6875 13:0.0625 14:0.5 15:0.1875 16:0.0625 17:0.5625 18:0.0625 19:0.8125 20:0.5625 21:0.1875 
-0.8820016988260435 1:0.5 2:0.5 3:0.125 4:0.5 5:0.375 6:0.6875 7:0.5 8:0.4375 9:0.625 10:0.5 11:0.625 12:0.75 13:0.9375 14:0.625 15:0.875 16:0.9375 17:0.5 18:0.6875 19:0.3125 20:0.3125 21:1.0 
0.1965529475615235 1:0.875 2:0.875 3:1.0 4:0.75 5:0.625 6:0.75 7:0.8125 8:0.5 9:0.625 10:0.125 11:0.4375 12:0.5 13:0.25 14:0.0 15:0.5 16:0.25 17:0.25 18:0.5625 19:0.5 20:0.5 21:0.5625 
-0.3601039027881575 1:0.375 2:0.5 3:0.0 4:0.375 5:0.3125 6:0.5625 7:0.25 8:0.125 9:0.375 10:0.4375 11:0.375 12:0.3125 13:0.5 14:0.6875 15:0.75 16:0.5625 17:0.625 18:0.6875 19:0.75 20:0.875 21:0.9375 
0.02203460172920134 1:0.5 2:0.375 3:0.625 4:0.75 5:0.875 6:0.375 7:0.0625 8:0.5625 9:0.625 10:0.5625 11:0.0625 12:1.0 13:0.9375 14:0.9375 15:0.5 16:0.3125 17:0.8125 18:0.25 19:0.375 20:0.25 21:0.25 
-0.09923119463748174 1:0.1875 2:0.4375 3:0.5625 4:0.3125 5:1.0 6:1.0 7:0.5625 8:0.9375 9:0.75 10:0.75 11:0.625 12:0.8125 13:0.5625 14:0.625 15:0.875 16:0.4375 17:0.5 18:0.4375 19:0.5 20:0.8125 21:0.5 
0.015686065256857618 1:0.625 2:0.25 3:0.5 4:0.8125 5:0.4375 6:0.3125 7:0.125 8:0.25 9:0.6875 10:0.4375 11:0.125 12:0.625 13:0.8125 14:0.4375 15:0.8125 16:0.625 17:0.5 18:0.1875 19:0.375 20:0.375 21:0.5 
-0.17446692877259723 1:0.3125 2:0.3125 3:0.4375 4:0.6875 5:0.125 6:0.375 7:0.4375 8:1.0 9:1.0 10:0.875 11:0.8125 12:0.625 13:1.0 14:0.6875 15:0.5 16:0.9375 17:0.625 18:0.5 19:0.125 20:0.4375 21:0.5625 
0.24955502597531648 1:0.6875 2:0.375 3:0.3125 4:0.375 5:0.75 6:0.625 7:0.3125 8:0.1875 9:0.5 10:0.875 11:0.375 12:0.0625 13:0.5625 14:1.0 15:0.5625 16:0.875 17:0.9375 18:0.6875 19:0.6875 20:0.3125 21:0.1875 
0.18505113604851323 1:0.4375 2:0.5 3:0.5625 4:0.5 5:0.875 6:1.0 7:0.6875 8:0.6875 9:0.5 10:0.75 11:0.5625 12:0.5 13:0.5 14:0.6875 15:0.4375 16:0.0 17:0.4375 18:0.5 19:0.8125 20:0.5625 21:0.5 
-0.6970156604437517 1:0.5 2:0.375 3:0.625 4:0.5625 5:0.0625 6:0.25 7:0.625 8:0.75 9:0.9375 10:0.5 11:0.625 12:0.9375 13:0.625 14:0.5625 15:0.5 16:0.5 17:0.1875 18:0.1875 19:0.125 20:0.5625 21:0.5 
0.017389901876297176 1:0.25 2:0.625 3:0.875 4:0.9375 5:1.0 6:0.625 7:0.5625 8:0.8125 9:0.8125 10:0.9375 11:0.75 12:0.8125 13:0.6875 14:0.75 15:0.875 16:0.5 17:0.6875 18:0.0625 19:0.5 20:0.5 21:0.0625 
-0.5667977521257707 1:0.5 2:0.625 3:0.9375 4:0.375 5:0.3125 6:0.5 7:0.875 8:0.875 9:0.125 10:0.5 11:0.5 12:0.375 13:0.1875 14:0.1875 15:0.375 16:0.25 17:0.3125 18:0.1875 19:0.8125 20:0.875 21:1.0 
-0.18555449702183435 1:0.1875 2:0.5625 3:0.25 4:0.0625 5:0.125 6:0.375 7:0.5 8:0.1875 9:0.5 10:0.4375 11:0.4375 12:0.0625 13:0.1875 14:0.0 15:0.25 16:0.625 17:0.5 18:0.375 19:0.0625 20:0.0 21:0.5625 
0.1549716957637434 1:0.5 2:0.75 3:0.6875 4:0.8125 5:0.5 6:0.9375 7:0.125 8:0.375 9:0.3125 10:0.3125 11:0.5 12:0.5 13:0.5 14:0.4375 15:0.875 16:0.5 17:0.0 18:0.5625 19:0.125 20:0.875 21:0.9375 
-0.1516638634498558 1:0.9375 2:0.75 3:0.6875 4:0.0 5:0.875 6:0.375 7:0.4375 8:0.5 9:0.0 10:0.5 11:0.3125 12:0.625 13:0.0 14:0.9375 15:0.125 16:0.1875 17:0.75 18:0.0 19:0.8125 20:0.625 21:0.1875 
0.41843671534958404 1:0.75 2:0.5 3:0.75 4:0.5 5:0.6875 6:0.6875 7:0.4375 8:0.5 9:0.1875 10:0.5 11:0.4375 12:0.625 13:0.5625 14:0.625 15:0.75 16:0.3125 17:0.5625 18:0.1875 19:0.5 20:0.5625 21:0.3125 
0.13148515446045514 1:0.375 2:0.25 3:0.0625 4:0.1875 5:0.0625 6:0.1875 7:0.3125 8:0.125 9:0.75 10:0.0625 11:0.0 12:0.3125 13:0.6875 14:0.125 15:0.3125 16:0.5625 17:0.4375 18:0.4375 19:0.4375 20:0.1875 21:0.4375 
-0.3748285046344458 1:0.75 2:0.625 3:0.5 4:0.9375 5:0.6875 6:0.6875 7:0.5 8:0.0 9:0.125 10:0.25 11:0.5 12:0.0 13:0.125 14:0.4375 15:0.0625 16:0.625 17:0.6875 18:0.6875 19:0.1875 20:0.5 21:0.5 
0.5584712197026035 1:0.5 2:0.625 3:0.9375 4:0.5 5:0.75 6:0.875 7:0.9375 8:0.625 9:0.75 10:0.75 11:1.0 12:0.8125 13:0.875 14:0.5 15:0.875 16:0.5 17:0.4375 18:0.75 19:0.5625 20:0.875 21:0.6875 
-0.1327245224964591 1:0.75 2:0.125 3:0.0625 4:0.625 5:0.25 6:0.0 7:0.0625 8:0.1875 9:0.5 10:0.25 11:0.25 12:1.0 13:0.875 14:0.6875 15:0.8125 16:0.9375 17:0.4375 18:0.75 19:0.25 20:0.4375 21:0.5 
-0.49330164128765236 1:0.6875 2:0.6875 3:0.625 4:0.625 5:0.6875 6:1.0 7:0.25 8:0.375 9:0.375 10:0.6875 11:0.625 12:0.625 13:0.375 14:0.6875 15:0.4375 16:0.375 17:0.5 18:0.5 19:0.75 20:0.5 21:0.3125 
0.045881306865689836 1:0.5625 2:0.125 3:0.4375 4:0.4375 5:0.625 6:0.4375 7:0.125 8:0.0 9:0.0625 10:0.4375 11:0.0 12:0.875 13:0.6875 14:0.875 15:0.9375 16:0.5 17:0.4375 18:0.0 19:1.0 20:0.4375 21:0.375 
-0.024237768671301722 1:0.75 2:0.6875 3:0.5625 4:0.375 5:0.5625 6:0.4375 7:0.5 8:0.1875 9:0.5 10:0.6875 11:0.5625 12:0.375 13:0.5 14:0.6875 15:0.4375 16:0.5625 17:0.875 18:0.625 19:0.9375 20:0.5625 21:0.0 
0.04642065907968747 1:0.5625 2:1.0 3:1.0 4:0.8125 5:0.75 6:0.4375 7:0.5 8:0.1875 9:0.3125 10:0.5 11:0.0 12:0.375 13:0.0625 14:0.5 15:0.1875 16:0.5 17:0.5 18:0.0 19:0.375 20:0.0 21:0.0 
0.444018983933895 1:0.875 2:0.5 3:0.6875 4:0.5625 5:0.375 6:0.5 7:0.3125 8:0.5 9:0.3125 10:0.0625 11:0.125 12:0.8125 13:0.625 14:0.5 15:0.625 16:0.25 17:0.4375 18:0.4375 19:0.375 20:0.75 21:0.75 
0.24777389384253096 1:0.75 2:0.625 3:0.4375 4:0.1875 5:0.4375 6:0.6875 7:0.0625 8:0.25 9:0.0625 10:0.3125 11:0.1875 12:0.0625 13:0.5 14:0.25 15:0.625 16:0.5 17:0.625 18:0.625 19:0.5625 20:0.6875 21:1.0 
-0.3170613310549877 1:0.9375 2:0.5 3:0.75 4:0.75 5:0.3125 6:0.5625 7:0.5 8:0.375 9:0.6875 10:0.25 11:0.8125 12:0.5 13:0.8125 14:0.1875 15:0.75 16:0.6875 17:0.125 18:0.625 19:0.0625 20:0.6875 21:0.9375 
0.0800167800661385 1:0.75 2:0.9375 3:0.75 4:0.6875 5:0.5 6:0.75 7:0.25 8:0.375 9:0.375 10:0.1875 11:0.4375 12:0.5 13:0.6875 14:0.5625 15:0.625 16:0.3125 17:0.0625 18:0.1875 19:0.375 20:0.5625 21:0.75 
-0.03894103203734656 1:0.5625 2:0.75 3:0.875 4:0.875 5:0.5 6:0.875 7:0.375 8:0.5625 9:0.5 10:0.4375 11:0.3125 12:0.5 13:0.3125 14:0.3125 15:0.375 16:0.1875 17:0.1875 18:0.0 19:0.0 20:0.5 21:0.5 
0.06419524589764068 1:0.0 2:0.3125 3:0.375 4:0.3125 5:0.5 6:0.125 7:0.6875 8:0.5 9:0.5625 10:1.0 11:0.6875 12:0.25 13:0.75 14:0.6875 15:0.375 16:0.5 17:1.0 18:0.5 19:1.0 20:0.3125 21:0.1875 
0.6339442342416871 1:0.625 2:0.625 3:0.5 4:0.75 5:0.5 6:0.9375 7:0.4375 8:0.5 9:0.6875 10:0.75 11:0.8125 12:0.625 13:0.9375 14:0.875 15:0.8125 16:0.6875 17:0.75 18:0.5625 19:0.5 20:0.4375 21:0.5 
0.2965511322145457 1:0.875 2:0.5 3:0.625 4:0.75 5:0.5 6:0.9375 7:0.1875 8:0.0 9:0.0625 10:0.0625 11:0.5 12:0.8125 13:0.875 14:0.5 15:0.9375 16:0.625 17:0.4375 18:0.625 19:0.5 20:0.6875 21:1.0 
0.3369258146675053 1:0.125 2:0.75 3:0.5625 4:0.4375 5:0.25 6:0.0625 7:0.625 8:0.8125 9:0.5 10:0.4375 11:1.0 12:0.4375 13:0.3125 14:0.0 15:0.25 16:0.25 17:0.25 18:0.5 19:0.25 20:0.5625 21:0.625 
0.034694150326314406 1:0.625 2:0.9375 3:0.3125 4:0.75 5:0.6875 6:0.5625 7:0.8125 8:0.4375 9:0.875 10:0.5 11:0.5 12:0.3125 13:0.5 14:0.5 15:0.625 16:0.8125 17:0.625 18:0.875 19:0.25 20:0.375 21:0.5 
-0.20383187679010173 1:0.875 2:0.8125 3:0.5 4:0.5 5:0.6875 6:1.0 7:0.75 8:0.1875 9:0.125 10:0.375 11:0.5 12:0.1875 13:0.0 14:0.375 15:0.125 16:0.25 17:0.1875 18:0.5625 19:0.875 20:0.875 21:0.6875 
0.12464345534013782 1:0.5625 2:0.875 3:0.5 4:0.6875 5:0.625 6:0.6875 7:0.625 8:0.5 9:0.5625 10:0.75 11:0.75 12:0.0625 13:0.8125 14:0.3125 15:0.5 16:0.8125 17:0.9375 18:0.75 19:0.125 20:0.5625 21:0.75 
-0.5901419837559323 1:0.625 2:0.75 3:0.8125 4:0.9375 5:0.5 6:0.625 7:0.5 8:1.0 9:0.5625 10:0.0625 11:0.8125 12:0.5 13:0.5 14:0.3125 15:0.625 16:0.5 17:0.375 18:0.5625 19:0.5 20:0.5625 21:0.5625 
0.010565612659109404 1:0.0 2:0.4375 3:0.1875 4:0.25 5:0.5 6:0.25 7:0.9375 8:0.4375 9:0.25 10:0.625 11:0.125 12:0.3125 13:0.3125 14:0.5 15:0.0 16:0.375 17:1.0 18:0.25 19:1.0 20:0.8125 21:0.3125 
0.5698990172514874 1:0.875 2:0.6875 3:0.5 4:0.4375 5:0.5 6:0.8125 7:0.5 8:0.5 9:0.0 10:0.0625 11:0.6875 12:0.0625 13:0.0625 14:0.375 15:0.8125 16:0.25 17:0.625 18:0.75 19:0.875 20:0.9375 21:0.875 
0.1285032314711975 1:0.875 2:0.75 3:0.875 4:0.9375 5:0.9375 6:0.5 7:0.75 8:0.6875 9:0.5 10:0.8125 11:0.5 12:1.0 13:0.5625 14:0.8125 15:0.3125 16:0.4375 17:0.3125 18:0.375 19:0.5625 20:0.25 21:0.3125 
0.07135460375393783 1:0.5625 2:0.1875 3:0.875 4:0.6875 5:0.5625 6:0.5 7:0.5625 8:0.5 9:0.625 10:0.5625 11:0.5 12:0.75 13:0.8125 14:0.625 15:0.75 16:0.4375 17:0.5625 18:0.4375 19:0.75 20:0.4375 21:0.3125 
0.22548591821942904 1:0.4375 2:0.5625 3:0.5625 4:1.0 5:0.5 6:0.6875 7:0.8125 8:1.0 9:0.9375 10:0.625 11:1.0 12:0.5 13:0.875 14:0.1875 15:0.625 16:0.875 17:0.1875 18:0.1875 19:0.1875 20:0.0 21:0.6875 
0.1823999956763507 1:0.3125 2:0.5625 3:0.8125 4:0.875 5:0.4375 6:0.5625 7:0.6875 8:0.875 9:0.5625 10:0.5625 11:0.5 12:0.9375 13:0.625 14:0.5625 15:0.5625 16:0.375 17:0.3125 18:0.375 19:0.5 20:0.5 21:0.5 
-0.20974476177286672 1:0.5625 2:1.0 3:0.6875 4:0.6875 5:0.9375 6:0.5625 7:0.5 8:0.5625 9:0.375 10:0.8125 11:0.5 12:0.5625 13:0.375 14:0.9375 15:0.375 16:0.1875 17:0.5 18:0.4375 19:1.0 20:0.1875 21:0.375 
-0.22590969078967574 1:0.8125 2:0.5 3:0.3125 4:0.1875 5:0.5 6:0.5 7:0.5 8:0.1875 9:0.125 10:0.0 11:0.0625 12:0.5 13:0.375 14:0.375 15:0.4375 16:0.4375 17:0.75 18:0.3125 19:0.6875 20:0.8125 21:0.4375 
0.30271466054833873 1:0.1875 2:0.0 3:0.625 4:0.625 5:0.5 6:0.125 7:0.6875 8:0.9375 9:1.0 10:1.0 11:0.8125 12:0.5 13:0.8125 14:0.625 15:0.375 16:0.625 17:0.5625 18:0.125 19:0.125 20:0.3125 21:0.4375 
-0.6291424044243528 1:0.375 2:0.0 3:0.3125 4:0.125 5:0.5 6:0.4375 7:0.375 8:0.0625 9:0.5 10:0.6875 11:0.4375 12:0.125 13:0.4375 14:0.75 15:0.5625 16:0.9375 17:0.6875 18:0.5 19:0.625 20:0.5625 21:0.375 
0.29885131220747424 1:0.375 2:0.625 3:1.0 4:0.75 5:0.625 6:0.0625 7:0.875 8:1.0 9:0.6875 10:0.625 11:0.8125 12:0.5 13:0.3125 14:0.1875 15:0.25 16:0.25 17:0.1875 18:0.125 19:0.5 20:0.4375 21:0.5 
-0.5455625635991351 1:0.25 2:0.4375 3:0.1875 4:0.8125 5:0.1875 6:0.5 7:0.5 8:0.6875 9:0.6875 10:0.3125 11:0.6875 12:0.625 13:0.625 14:0.1875 15:0.625 16:0.5625 17:0.1875 18:0.5 19:0.4375 20:0.5 21:0.9375 
0.07341686172526007 1:0.5 2:0.5625 3:0.5625 4:0.75 5:0.5 6:0.4375 7:0.125 8:0.75 9:0.9375 10:0.5 11:0.4375 12:0.5625 13:1.0 14:0.5625 15:0.75 16:0.5 17:0.1875 18:0.0625 19:0.375 20:0.0 21:0.5 
0.10305104178289062 1:1.0 2:0.25 3:0.25 4:0.6875 5:0.75 6:1.0 7:0.0 8:0.125 9:0.375 10:0.5 11:0.3125 12:0.5625 13:0.5 14:0.6875 15:0.75 16:0.5 17:0.875 18:0.75 19:0.625 20:0.6875 21:0.4375 
0.1389629342858848 1:0.75 2:0.5625 3:0.875 4:0.6875 5:0.5 6:0.5 7:0.5 8:0.9375 9:1.0 10:0.625 11:0.25 12:0.5625 13:0.75 14:0.5 15:0.3125 16:0.5 17:0.1875 18:0.3125 19:0.125 20:0.125 21:0.5 
-0.37712763900080537 1:0.3125 2:0.0625 3:0.125 4:0.3125 5:0.25 6:0.5625 7:0.3125 8:0.5625 9:0.25 10:0.0625 11:0.8125 12:1.0 13:0.625 14:1.0 15:0.875 16:0.4375 17:0.375 18:0.5625 19:0.4375 20:0.625 21:0.5625 
0.16610521237853465 1:0.5 2:0.1875 3:0.6875 4:0.375 5:0.4375 6:0.4375 7:0.25 8:0.5 9:0.5625 10:0.0625 11:0.5 12:0.75 13:0.9375 14:0.3125 15:0.5625 16:0.375 17:0.0625 18:0.125 19:0.5 20:0.5 21:0.625 
-0.22316132664040608 1:0.0 2:0.1875 3:0.4375 4:0.5625 5:0.5 6:0.375 7:0.9375 8:0.6875 9:0.75 10:0.8125 11:0.5 12:0.0625 13:0.5 14:0.6875 15:0.5 16:0.5625 17:0.875 18:0.625 19:0.5 20:0.5 21:0.375 
-0.4841908907897614 1:0.6875 2:0.9375 3:0.625 4:0.4375 5:0.5625 6:0.6875 7:0.5625 8:0.5625 9:0.375 10:0.5 11:0.625 12:0.25 13:0.4375 14:0.4375 15:0.4375 16:0.5 17:0.75 18:0.5 19:0.5 20:1.0 21:0.75 
0.058587152546905025 1:0.1875 2:0.375 3:0.0 4:0.375 5:0.4375 6:0.0 7:0.3125 8:0.4375 9:0.5 10:0.75 11:0.25 12:0.25 13:0.5625 14:0.9375 15:0.625 16:0.5 17:0.75 18:0.5 19:1.0 20:0.375 21:0.375 
-0.8905168899986794 1:0.5 2:0.5625 3:0.375 4:0.75 5:1.0 6:0.9375 7:0.375 8:0.25 9:0.9375 10:0.75 11:1.0 12:0.5 13:0.6875 14:0.9375 15:0.8125 16:0.9375 17:1.0 18:0.5 19:0.625 20:0.5 21:0.375 
0.45430432389195785 1:0.4375 2:0.4375 3:0.375 4:0.5 5:0.875 6:0.625 7:0.0625 8:0.125 9:0.625 10:0.625 11:0.75 12:0.375 13:0.75 14:0.8125 15:0.625 16:0.75 17:0.6875 18:0.75 19:0.6875 20:0.5 21:0.3125 
-0.9934116383789707 1:0.25 2:0.4375 3:0.1875 4:0.625 5:0.4375 6:0.5 7:0.9375 8:0.4375 9:0.6875 10:0.5 11:0.4375 12:0.0 13:0.5 14:0.5 15:0.5625 16:0.875 17:0.6875 18:0.875 19:0.125 20:0.125 21:0.5 
0.03973513703893908 1:0.25 2:0.375 3:0.375 4:0.25 5:0.25 6:0.1875 7:0.4375 8:0.8125 9:0.375 10:0.875 11:0.4375 12:0.8125 13:0.5625 14:0.625 15:0.3125 16:0.1875 17:0.5 18:0.0 19:0.5625 20:0.375 21:0.0 
-0.0483189265073869 1:0.5 2:0.375 3:0.125 4:0.1875 5:0.1875 6:0.1875 7:0.0 8:0.1875 9:0.4375 10:0.25 11:0.3125 12:0.5 13:0.875 14:0.625 15:0.0625 16:0.6875 17:0.5 18:0.25 19:0.5625 20:0.25 21:0.25 
0.2992751192275521 1:0.75 2:0.8125 3:0.5 4:0.75 5:0.75 6:0.75 7:0.5 8:0.4375 9:0.5 10:0.625 11:0.5625 12:0.25 13:0.0625 14:0.9375 15:0.625 16:0.625 17:1.0 18:0.8125 19:0.625 20:1.0 21:0.625 
-0.27333730760597325 1:0.8125 2:0.4375 3:0.8125 4:0.8125 5:0.625 6:0.8125 7:0.5 8:0.5 9:0.1875 10:0.5 11:0.8125 12:0.5 13:0.5625 14:0.5 15:0.8125 16:0.375 17:0.625 18:0.625 19:0.5 20:0.6875 21:0.9375 
-0.0771086594646422 1:0.5625 2:0.25 3:0.875 4:0.375 5:0.375 6:0.3125 7:0.375 8:0.5625 9:0.375 10:0.25 11:0.0 12:0.8125 13:0.5625 14:0.875 15:0.8125 16:0.0625 17:0.0 18:0.3125 19:0.5 20:0.375 21:0.125 
-0.10605086361483466 1:1.0 2:0.25 3:0.5625 4:0.75 5:0.3125 6:0.5 7:0.25 8:0.1875 9:0.8125 10:0.25 11:0.375 12:0.875 13:1.0 14:0.9375 15:0.6875 16:0.875 17:0.4375 18:0.6875 19:0.0625 20:0.3125 21:0.5 
-0.04101011455743018 1:0.0625 2:0.4375 3:0.0625 4:0.25 5:0.125 6:0.0625 7:0.625 8:0.1875 9:0.4375 10:0.375 11:0.5 12:0.375 13:0.125 14:0.0 15:0.3125 16:0.5625 17:0.8125 18:0.875 19:0.5 20:0.1875 21:0.5 
-0.016609490319413497 1:0.25 2:0.3125 3:0.0625 4:0.1875 5:0.3125 6:0.375 7:0.8125 8:0.5 9:0.75 10:0.875 11:0.875 12:0.1875 13:0.25 14:0.4375 15:0.1875 16:0.5625 17:0.9375 18:0.4375 19:0.75 20:0.6875 21:0.5 
-0.18808276581241748 1:0.5625 2:0.5 3:0.375 4:0.5625 5:0.625 6:0.875 7:0.3125 8:0.5 9:0.625 10:0.5625 11:0.75 12:0.8125 13:0.625 14:0.9375 15:0.8125 16:0.3125 17:0.625 18:0.6875 19:0.5625 20:0.625 21:0.875 
-0.456947019420674 1:1.0 2:0.875 3:0.6875 4:0.5 5:0.5 6:0.875 7:0.3125 8:0.25 9:0.0 10:0.375 11:0.4375 12:0.4375 13:0.1875 14:0.4375 15:0.4375 16:0.6875 17:0.6875 18:0.9375 19:0.4375 20:0.5625 21:0.5 
0.15889333115794502 1:0.5 2:0.4375 3:0.375 4:0.5 5:0.9375 6:0.75 7:0.3125 8:0.3125 9:0.375 10:0.5 11:1.0 12:0.5 13:0.5 14:0.8125 15:0.9375 16:0.5 17:0.8125 18:0.5625 19:0.5 20:0.875 21:0.625 
-0.14395686924458279 1:0.375 2:0.3125 3:0.1875 4:0.1875 5:0.4375 6:0.375 7:0.8125 8:0.4375 9:0.4375 10:0.4375 11:0.1875 12:0.3125 13:0.3125 14:0.1875 15:0.1875 16:0.75 17:0.4375 18:0.3125 19:0.375 20:0.0 21:0.5 
0.2561327560887447 1:0.4375 2:0.3125 3:0.5 4:0.125 5:0.0625 6:0.4375 7:0.875 8:0.6875 9:0.8125 10:0.3125 11:0.875 12:0.4375 13:0.5625 14:0.0625 15:0.625 16:0.5 17:0.0 18:0.625 19:0.25 20:0.6875 21:1.0 
0.1631218402163392 1:0.4375 2:0.9375 3:0.25 4:0.8125 5:0.125 6:0.0625 7:0.5 8:0.5 9:0.875 10:0.3125 11:0.5 12:0.3125 13:0.5 14:0.3125 15:0.0625 16:0.6875 17:0.4375 18:0.375 19:0.125 20:0.3125 21:0.5625 
-0.363344396098542 1:0.9375 2:0.375 3:0.5 4:0.0625 5:0.5 6:0.5625 7:0.125 8:0.1875 9:0.0625 10:0.125 11:0.4375 12:0.5625 13:0.5 14:0.5 15:0.75 16:0.375 17:0.6875 18:0.5 19:0.4375 20:0.6875 21:0.625 
0.8491761579757474 1:0.9375 2:0.5625 3:0.3125 4:0.3125 5:0.5 6:0.6875 7:0.5625 8:0.3125 9:0.125 10:0.5 11:0.6875 12:0.25 13:0.375 14:0.3125 15:0.25 16:0.625 17:0.75 18:0.6875 19:0.5625 20:0.8125 21:0.5625 
0.40803526115655914 1:0.8125 2:0.5 3:0.875 4:0.8125 5:0.5625 6:0.75 7:0.5 8:0.5 9:0.5625 10:0.8125 11:0.5 12:1.0 13:0.75 14:1.0 15:0.5625 16:0.5625 17:0.5 18:0.375 19:0.4375 20:0.25 21:0.5 
0.037499361752490204 1:0.125 2:0.5 3:0.4375 4:0.25 5:0.5625 6:0.3125 7:0.875 8:0.625 9:0.5 10:1.0 11:0.5 12:0.1875 13:0.375 14:0.9375 15:0.3125 16:0.625 17:0.625 18:0.5625 19:0.8125 20:0.25 21:0.125 
0.02525030055035482 1:0.9375 2:1.0 3:1.0 4:0.9375 5:0.6875 6:0.8125 7:0.75 8:0.5 9:0.5 10:0.5 11:0.75 12:0.375 13:0.0625 14:0.0625 15:0.3125 16:0.1875 17:0.0625 18:0.375 19:0.25 20:0.9375 21:0.8125 
0.2782883871988092 1:0.9375 2:0.375 3:0.25 4:0.125 5:0.625 6:0.4375 7:0.1875 8:0.25 9:0.125 10:0.375 11:0.125 12:0.25 13:0.3125 14:0.9375 15:0.5625 16:0.25 17:0.8125 18:0.4375 19:0.8125 20:1.0 21:0.375 
-0.6894123507679276 1:0.4375 2:1.0 3:0.625 4:0.5625 5:0.625 6:0.875 7:1.0 8:0.875 9:0.875 10:0.9375 11:0.75 12:0.1875 13:0.5 14:0.25 15:0.8125 16:0.625 17:0.25 18:0.875 19:0.375 20:0.875 21:0.75 
-0.15024552488865295 1:0.8125 2:0.375 3:0.6875 4:1.0 5:0.625 6:0.1875 7:0.25 8:0.375 9:0.1875 10:0.25 11:0.0 12:0.75 13:0.8125 14:0.9375 15:0.25 16:0.5 17:0.5 18:0.0625 19:0.4375 20:0.375 21:0.3125 
-0.1510291015250587 1:0.375 2:0.5 3:0.25 4:0.3125 5:0.3125 6:0.0625 7:1.0 8:0.4375 9:0.375 10:0.0625 11:0.0625 12:0.4375 13:0.4375 14:0.25 15:0.0 16:0.8125 17:0.4375 18:0.3125 19:0.0 20:0.0625 21:0.3125 
0.6722082353129794 1:0.5 2:0.9375 3:0.625 4:0.75 5:0.0 6:0.9375 7:0.875 8:0.75 9:0.5 10:0.375 11:0.875 12:0.375 13:0.1875 14:0.0 15:0.4375 16:0.5 17:0.375 18:0.6875 19:0.5 20:0.75 21:0.875 
0.030552089043389206 1:0.625 2:0.9375 3:0.875 4:0.9375 5:0.1875 6:0.5 7:0.625 8:1.0 9:0.625 10:0.3125 11:0.4375 12:0.25 13:0.5 14:0.25 15:0.0 16:0.4375 17:0.25 18:0.1875 19:0.3125 20:0.3125 21:0.4375 
0.4781368693646265 1:0.4375 2:0.875 3:0.5 4:0.9375 5:0.625 6:0.5625 7:0.875 8:0.5 9:0.5625 10:0.75 11:0.6875 12:0.375 13:0.1875 14:0.125 15:0.4375 16:0.5 17:0.5625 18:0.625 19:0.4375 20:0.0 21:0.5 
0.2713372830744556 1:0.0625 2:0.375 3:0.9375 4:0.75 5:0.625 6:0.625 7:0.5 8:0.6875 9:0.625 10:0.6875 11:0.75 12:0.5625 13:0.6875 14:1.0 15:0.875 16:0.3125 17:0.3125 18:0.4375 19:0.5625 20:0.625 21:0.625 
0.19483390681893903 1:0.9375 2:0.4375 3:0.5 4:0.1875 5:0.625 6:0.4375 7:0.125 8:0.5 9:0.125 10:0.0 11:0.375 12:0.8125 13:0.5 14:0.5625 15:0.4375 16:0.125 17:0.0 18:0.3125 19:0.625 20:0.5 21:0.375 
0.4693223667070355 1:0.5 2:0.9375 3:0.375 4:0.9375 5:0.25 6:1.0 7:0.9375 8:0.375 9:0.875 10:0.375 11:0.625 12:0.0625 13:0.25 14:0.125 15:0.6875 16:0.6875 17:0.5 18:0.625 19:0.25 20:0.75 21:0.9375 
-0.11004759836952774 1:0.875 2:0.125 3:0.4375 4:0.5625 5:0.4375 6:0.8125 7:0.125 8:0.0625 9:0.5 10:0.0 11:0.25 12:0.9375 13:0.75 14:0.5625 15:0.5625 16:0.8125 17:0.5625 18:0.5625 19:0.4375 20:0.5625 21:0.8125 
0.06289639785660539 1:0.4375 2:0.25 3:0.375 4:0.75 5:0.1875 6:0.4375 7:0.4375 8:0.5 9:0.625 10:0.125 11:0.25 12:0.5 13:0.5625 14:0.4375 15:0.8125 16:1.0 17:0.0625 18:0.5625 19:0.125 20:0.1875 21:0.9375 
0.3713362537960118 1:0.9375 2:0.5 3:0.6875 4:0.8125 5:1.0 6:0.875 7:0.1875 8:1.0 9:0.3125 10:0.5 11:0.5625 12:1.0 13:0.5625 14:0.875 15:0.6875 16:0.5 17:0.3125 18:0.5 19:0.5 20:0.875 21:0.625 
-0.035127038346040994 1:1.0 2:0.6875 3:0.8125 4:0.6875 5:0.625 6:0.625 7:0.375 8:0.5 9:0.375 10:0.25 11:0.3125 12:0.375 13:0.625 14:0.0625 15:0.0625 16:0.5625 17:0.0 18:0.0 19:0.3125 20:0.1875 21:0.75 
-0.41357451180474253 1:0.1875 2:1.0 3:0.8125 4:0.9375 5:0.875 6:0.75 7:0.75 8:0.625 9:0.875 10:0.75 11:1.0 12:0.25 13:0.0 14:0.375 15:0.5625 16:0.5625 17:0.5 18:1.0 19:0.5625 20:0.9375 21:0.8125 
0.17441729451659743 1:0.625 2:0.3125 3:0.0625 4:0.875 5:0.125 6:0.5 7:0.5 8:0.0 9:0.5625 10:0.3125 11:0.75 12:0.3125 13:0.5625 14:0.3125 15:0.8125 16:1.0 17:0.5625 18:0.6875 19:0.3125 20:0.625 21:1.0 
0.026463375361037544 1:0.75 2:0.25 3:0.3125 4:0.25 5:1.0 6:0.625 7:0.0625 8:0.375 9:0.4375 10:0.875 11:0.5 12:1.0 13:0.5 14:0.875 15:0.9375 16:0.1875 17:0.875 18:0.6875 19:0.9375 20:0.6875 21:0.5 
0.0916969184083383 1:0.5 2:0.75 3:0.5 4:0.6875 5:0.375 6:0.25 7:0.8125 8:0.375 9:0.5 10:0.125 11:0.125 12:0.0625 13:0.5 14:0.5 15:0.0 16:0.75 17:0.5 18:0.5 19:0.1875 20:0.3125 21:0.375 
-0.27594903041708274 1:0.5625 2:0.875 3:1.0 4:0.375 5:0.3125 6:0.75 7:0.5 8:0.5 9:0.125 10:0.0 11:0.375 12:0.25 13:0.1875 14:0.1875 15:0.0625 16:0.1875 17:0.1875 18:0.25 19:0.4375 20:0.9375 21:0.6875 
-1.0 1:0.125 2:0.5625 3:0.5 4:0.75 5:0.0625 6:1.0 7:0.625 8:0.75 9:0.6875 10:0.5 11:0.875 12:0.4375 13:0.25 14:0.25 15:0.6875 16:0.5625 17:0.3125 18:0.8125 19:0.0 20:0.5 21:0.6875 
-0.06575627170008572 1:0.8125 2:0.5625 3:0.5625 4:0.1875 5:0.8125 6:0.75 7:0.125 8:0.375 9:0.0625 10:0.125 11:0.0625 12:0.75 13:0.375 14:0.8125 15:0.5 16:0.375 17:0.5 18:0.1875 19:0.5625 20:0.6875 21:0.5 
-0.5483859387591762 1:0.6875 2:0.4375 3:0.5625 4:0.5625 5:0.75 6:0.8125 7:0.1875 8:0.6875 9:0.8125 10:0.5 11:0.5 12:0.6875 13:0.75 14:1.0 15:0.9375 16:0.75 17:0.5625 18:0.5625 19:0.5625 20:0.625 21:0.375 
0.8370625539029547 1:0.3125 2:0.3125 3:0.0625 4:0.3125 5:0.375 6:0.3125 7:0.75 8:0.5 9:0.25 10:0.8125 11:0.5625 12:0.5 13:0.5 14:0.5625 15:0.5 16:0.4375 17:0.5 18:0.8125 19:0.875 20:0.625 21:0.5625 
-0.7350437637284251 1:0.25 2:0.625 3:1.0 4:0.5625 5:0.5 6:0.8125 7:0.5 8:0.6875 9:0.625 10:0.6875 11:0.8125 12:0.6875 13:0.9375 14:0.6875 15:0.5625 16:0.5 17:0.5625 18:0.5 19:0.6875 20:0.5 21:0.4375 
0.686266806694297 1:0.3125 2:0.3125 3:0.25 4:0.5 5:0.375 6:1.0 7:0.3125 8:0.4375 9:0.25 10:0.5 11:0.875 12:0.5 13:0.8125 14:0.6875 15:0.8125 16:0.6875 17:0.75 18:0.8125 19:0.4375 20:0.8125 21:0.5625 
0.22203783411570022 1:0.3125 2:0.3125 3:0.5 4:0.4375 5:0.5 6:0.5625 7:0.875 8:0.625 9:0.1875 10:1.0 11:0.875 12:0.5 13:0.4375 14:1.0 15:0.625 16:0.4375 17:0.5625 18:1.0 19:0.75 20:0.9375 21:0.625 
0.14563068233106066 1:0.6875 2:0.6875 3:0.8125 4:1.0 5:0.625 6:0.5 7:0.5 8:1.0 9:0.75 10:0.5 11:0.1875 12:0.5 13:0.75 14:0.4375 15:0.125 16:0.1875 17:0.5 18:0.0625 19:0.375 20:0.3125 21:0.0 
-0.01845612689508754 1:0.5 2:0.4375 3:0.6875 4:0.5 5:0.625 6:0.3125 7:0.5 8:0.9375 9:0.5 10:0.8125 11:0.125 12:0.375 13:0.4375 14:0.6875 15:0.0625 16:0.4375 17:1.0 18:0.0 19:0.875 20:0.25 21:0.0625 
0.09678510642558079 1:0.0 2:0.3125 3:0.0625 4:0.0 5:0.125 6:0.625 7:1.0 8:0.4375 9:0.3125 10:0.375 11:0.75 12:0.3125 13:0.125 14:0.3125 15:0.75 16:0.3125 17:0.5 18:0.6875 19:0.5625 20:0.9375 21:0.75 
0.13852067456315212 1:1.0 2:0.75 3:0.8125 4:0.625 5:0.1875 6:0.375 7:0.625 8:0.5 9:0.125 10:0.1875 11:0.1875 12:0.75 13:0.25 14:0.25 15:0.25 16:0.0625 17:0.0 18:0.0 19:0.1875 20:0.0625 21:0.5625 
-0.572915115843056 1:0.5 2:0.0 3:0.375 4:0.625 5:0.3125 6:0.8125 7:0.1875 8:0.25 9:0.4375 10:0.1875 11:0.9375 12:0.4375 13:0.5 14:0.5 15:0.875 16:0.75 17:0.25 18:1.0 19:0.4375 20:1.0 21:0.875 
0.28842113426404975 1:0.4375 2:0.75 3:0.625 4:0.8125 5:0.375 6:0.8125 7:0.8125 8:0.9375 9:0.5625 10:0.1875 11:0.8125 12:0.5 13:0.5 14:0.125 15:0.5 16:0.3125 17:0.0 18:0.1875 19:0.125 20:0.1875 21:1.0 
-0.25370391991675584 1:0.5 2:0.5625 3:0.125 4:0.3125 5:0.1875 6:0.5 7:0.6875 8:0.3125 9:0.125 10:0.375 11:0.375 12:0.0 13:0.0 14:0.0625 15:0.0625 16:0.3125 17:0.1875 18:0.875 19:0.5 20:0.5 21:0.6875 
0.11661669992201201 1:0.0 2:0.4375 3:0.625 4:0.5 5:0.125 6:0.8125 7:1.0 8:0.6875 9:0.9375 10:0.375 11:1.0 12:0.625 13:0.5625 14:0.125 15:0.5625 16:0.375 17:0.125 18:0.4375 19:0.0 20:0.8125 21:0.75 
-0.05433219905401342 1:0.875 2:0.6875 3:0.125 4:0.875 5:0.5625 6:0.5625 7:0.3125 8:0.0 9:0.0 10:0.125 11:0.0625 12:0.125 13:0.4375 14:0.5 15:0.5 16:0.625 17:0.875 18:0.75 19:0.3125 20:0.4375 21:0.3125 
-0.15640788091706745 1:0.5 2:0.5 3:0.6875 4:0.8125 5:0.4375 6:1.0 7:0.5 8:0.4375 9:0.4375 10:0.25 11:0.5 12:0.9375 13:0.5 14:0.3125 15:1.0 16:0.25 17:0.25 18:0.625 19:0.4375 20:0.9375 21:0.6875 
-0.02535394908762701 1:0.75 2:0.625 3:0.625 4:0.4375 5:0.0 6:0.125 7:0.4375 8:0.6875 9:0.375 10:0.25 11:0.125 12:0.9375 13:0.625 14:0.0625 15:0.375 16:0.5 17:0.0625 18:0.0 19:0.0625 20:0.4375 21:0.4375 
-0.014474645741373141 1:1.0 2:0.8125 3:0.5625 4:0.9375 5:0.5 6:1.0 7:0.1875 8:0.3125 9:0.4375 10:0.125 11:0.4375 12:0.125 13:0.8125 14:0.1875 15:0.125 16:0.9375 17:0.5 18:0.5 19:0.125 20:0.5 21:0.5625 
-0.4163190511465144 1:0.5 2:0.5 3:0.6875 4:0.4375 5:0.3125 6:0.5 7:0.375 8:0.25 9:0.3125 10:0.0625 11:0.5625 12:0.875 13:0.5 14:0.5 15:0.5625 16:0.125 17:0.1875 18:0.5 19:0.0 20:1.0 21:0.875 
0.4245881630114932 1:0.5 2:0.4375 3:1.0 4:0.5 5:0.1875 6:0.4375 7:0.25 8:0.5 9:0.5 10:0.1875 11:0.25 12:0.875 13:0.5625 14:0.5 15:0.5 16:0.4375 17:0.25 18:0.0 19:0.5625 20:0.375 21:0.25 
0.009377325332242085 1:0.75 2:0.6875 3:0.5 4:0.5625 5:0.625 6:1.0 7:0.375 8:0.5 9:0.1875 10:0.5 11:0.5 12:0.5 13:0.25 14:0.5 15:1.0 16:0.1875 17:0.5625 18:0.875 19:0.75 20:0.875 21:1.0 
0.1869361400944145 1:0.5 2:0.9375 3:0.75 4:0.25 5:0.0 6:0.3125 7:0.625 8:0.875 9:0.375 10:0.5 11:0.1875 12:0.375 13:0.125 14:0.1875 15:0.0625 16:0.0625 17:0.0 18:0.125 19:0.5 20:0.75 21:0.3125 
-0.222504681668694 1:0.375 2:0.5 3:0.1875 4:0.375 5:0.25 6:0.25 7:0.8125 8:0.5 9:0.5 10:0.5 11:0.625 12:0.4375 13:0.3125 14:0.375 15:0.0625 16:0.875 17:0.3125 18:0.375 19:0.4375 20:0.125 21:0.3125 
0.2493783411269405 1:0.6875 2:0.75 3:1.0 4:0.5625 5:0.875 6:0.8125 7:0.25 8:0.1875 9:0.0625 10:0.5625 11:0.375 12:0.5 13:0.125 14:0.875 15:0.375 16:0.25 17:0.8125 18:0.3125 19:0.8125 20:0.625 21:0.3125 
0.1155897989931048 1:0.5625 2:1.0 3:0.125 4:0.375 5:0.9375 6:0.5 7:0.5625 8:0.0 9:0.0 10:0.5625 11:0.125 12:0.25 13:0.1875 14:0.8125 15:0.0 16:0.5 17:0.875 18:0.5 19:0.5625 20:0.5625 21:0.1875 
0.20058036555480807 1:0.0 2:0.5 3:0.5625 4:0.1875 5:0.3125 6:0.5 7:0.875 8:1.0 9:0.625 10:1.0 11:0.625 12:0.75 13:0.4375 14:0.5 15:0.1875 16:0.5 17:0.4375 18:0.375 19:0.6875 20:0.5 21:0.1875 
0.4640329973107218 1:0.4375 2:0.625 3:0.25 4:0.1875 5:0.1875 6:0.1875 7:0.8125 8:0.4375 9:0.125 10:0.125 11:0.5 12:0.3125 13:0.0625 14:0.3125 15:0.0625 16:0.625 17:0.375 18:0.5 19:0.4375 20:0.5 21:0.5625 
-0.22278359283613056 1:0.5 2:0.5 3:0.6875 4:0.4375 5:0.5 6:0.875 7:0.375 8:0.25 9:0.25 10:0.3125 11:0.75 12:0.6875 13:0.5 14:0.4375 15:0.9375 16:0.625 17:0.5625 18:0.6875 19:0.5 20:0.8125 21:0.8125 
0.3261667021579129 1:0.4375 2:0.6875 3:0.75 4:0.6875 5:1.0 6:0.3125 7:0.875 8:0.6875 9:0.6875 10:0.875 11:0.5625 12:0.5 13:0.5625 14:0.6875 15:0.5 16:0.625 17:0.8125 18:0.4375 19:0.8125 20:0.1875 21:0.3125 
-0.24463483243891893 1:0.75 2:0.0625 3:0.625 4:0.625 5:0.5 6:0.75 7:0.1875 8:0.375 9:0.0625 10:0.5 11:0.4375 12:0.5 13:0.9375 14:0.75 15:0.8125 16:0.5 17:0.4375 18:0.625 19:0.5 20:0.6875 21:0.5 
0.16799713482423156 1:0.125 2:0.5625 3:0.3125 4:0.0625 5:0.5 6:0.75 7:1.0 8:0.5 9:0.5625 10:0.6875 11:1.0 12:0.0 13:0.0 14:0.25 15:0.0625 16:1.0 17:0.8125 18:0.9375 19:0.875 20:0.5625 21:0.5 
-0.6472370157060799 1:0.4375 2:0.3125 3:0.8125 4:0.0 5:0.375 6:0.625 7:1.0 8:0.9375 9:0.5625 10:0.5625 11:0.75 12:1.0 13:0.5 14:0.625 15:0.75 16:0.125 17:0.1875 18:0.5625 19:0.75 20:0.75 21:0.5625 
-1.0 1:0.5625 2:0.0 3:0.375 4:0.25 5:0.1875 6:0.5 7:0.3125 8:0.5 9:0.5 10:0.0625 11:0.625 12:0.5 13:0.5 14:0.125 15:0.5 16:0.5625 17:0.5 18:0.875 19:0.3125 20:0.8125 21:0.8125 
-0.07587275267687005 1:0.375 2:0.5625 3:0.5625 4:0.375 5:0.9375 6:0.5 7:0.5 8:1.0 9:0.4375 10:1.0 11:0.875 12:0.625 13:0.3125 14:0.6875 15:0.4375 16:0.1875 17:0.625 18:0.8125 19:1.0 20:0.75 21:0.4375 
-0.6897420440404717 1:0.625 2:0.5 3:0.125 4:0.6875 5:0.5625 6:0.4375 7:0.6875 8:0.4375 9:0.5 10:0.6875 11:0.5 12:0.3125 13:0.5625 14:0.4375 15:0.4375 16:0.625 17:0.8125 18:0.8125 19:0.5 20:0.4375 21:0.0 
0.02035529486806831 1:0.6875 2:0.9375 3:0.8125 4:0.6875 5:0.875 6:0.625 7:0.625 8:0.75 9:0.0 10:0.625 11:0.6875 12:0.625 13:0.0625 14:0.5625 15:0.125 16:0.1875 17:0.5 18:0.3125 19:0.6875 20:0.5 21:0.1875 
0.6113097986335311 1:0.1875 2:0.125 3:0.375 4:0.4375 5:0.1875 6:0.5 7:0.6875 8:0.4375 9:0.6875 10:0.3125 11:1.0 12:0.375 13:0.4375 14:0.25 15:0.6875 16:0.375 17:0.0625 18:1.0 19:0.25 20:0.8125 21:0.875 
-0.10478549954463787 1:0.3125 2:0.25 3:0.125 4:0.25 5:0.0625 6:0.0625 7:0.3125 8:0.4375 9:0.25 10:0.0 11:0.0 12:0.5 13:0.375 14:0.5625 15:0.3125 16:0.0 17:0.1875 18:0.375 19:0.625 20:0.25 21:0.0 
-0.6631295013205195 1:0.5 2:0.375 3:0.5 4:0.5 5:0.3125 6:0.8125 7:0.5625 8:0.5 9:0.375 10:0.625 11:0.9375 12:0.625 13:0.4375 14:0.5625 15:0.875 16:0.375 17:0.625 18:0.5 19:0.625 20:1.0 21:0.75 
-0.3998979602899645 1:0.375 2:0.25 3:0.5 4:0.375 5:1.0 6:0.625 7:1.0 8:0.875 9:0.75 10:0.875 11:0.8125 12:0.625 13:0.5 14:0.875 15:0.8125 16:0.0625 17:0.8125 18:0.5625 19:0.6875 20:0.5 21:0.5 
-0.008414763931517674 1:0.75 2:0.125 3:0.125 4:0.5 5:0.6875 6:0.1875 7:0.375 8:0.3125 9:0.3125 10:0.4375 11:0.3125 12:0.5625 13:0.8125 14:0.875 15:0.5625 16:0.625 17:0.875 18:0.1875 19:0.4375 20:0.4375 21:0.0625 
0.044583265278592375 1:0.375 2:0.5 3:0.125 4:0.25 5:0.375 6:0.875 7:0.6875 8:0.6875 9:0.5 10:0.5625 11:0.9375 12:0.5 13:0.1875 14:0.1875 15:0.5625 16:0.1875 17:0.4375 18:1.0 19:0.625 20:0.75 21:0.875 
-0.20214109222189222 1:0.0625 2:0.125 3:0.5625 4:0.0625 5:0.375 6:0.1875 7:0.6875 8:0.875 9:0.5 10:0.5625 11:0.75 12:0.8125 13:0.75 14:0.3125 15:0.5 16:0.0625 17:0.25 18:0.1875 19:0.5625 20:0.5 21:0.6875 
0.020849817398810776 1:0.1875 2:0.1875 3:0.6875 4:0.3125 5:0.3125 6:0.4375 7:0.875 8:0.9375 9:0.75 10:0.9375 11:0.5 12:1.0 13:0.6875 14:1.0 15:0.5 16:0.375 17:0.4375 18:0.0 19:0.5625 20:0.4375 21:0.25 
0.3438490256618572 1:0.5625 2:0.5 3:0.625 4:0.4375 5:0.8125 6:0.5625 7:0.25 8:0.5 9:0.4375 10:0.6875 11:0.0625 12:0.625 13:0.375 14:0.625 15:0.375 16:0.375 17:0.625 18:0.0 19:0.6875 20:0.8125 21:0.375 
-0.13600827812829694 1:0.6875 2:0.6875 3:0.9375 4:0.5 5:0.875 6:0.1875 7:0.875 8:0.5 9:0.5 10:0.4375 11:0.125 12:0.4375 13:0.3125 14:0.5 15:0.1875 16:0.125 17:0.5 18:0.375 19:0.75 20:0.5 21:0.4375 
-0.31959411318455627 1:0.4375 2:0.3125 3:0.875 4:0.9375 5:0.4375 6:0.625 7:0.5 8:0.875 9:0.5 10:0.375 11:0.8125 12:0.8125 13:0.9375 14:0.875 15:1.0 16:0.625 17:0.0625 18:0.625 19:0.3125 20:0.5 21:0.875 
-0.3492510707239854 1:0.8125 2:0.5625 3:1.0 4:0.5 5:0.8125 6:0.875 7:0.25 8:0.125 9:0.125 10:0.25 11:0.25 12:0.5 13:0.5 14:0.75 15:0.8125 16:0.25 17:0.25 18:0.5625 19:0.6875 20:0.6875 21:0.8125 
-0.08339578087610171 1:0.5625 2:0.8125 3:0.5625 4:0.1875 5:0.8125 6:1.0 7:0.8125 8:0.5 9:0.1875 10:0.8125 11:0.875 12:0.1875 13:0.125 14:0.125 15:0.1875 16:0.0625 17:0.4375 18:0.8125 19:0.9375 20:0.9375 21:0.5 
0.1421779067287685 1:0.625 2:0.1875 3:0.5625 4:0.8125 5:0.75 6:0.0 7:0.3125 8:0.5 9:0.5625 10:0.75 11:0.0625 12:0.8125 13:0.75 14:0.875 15:0.5 16:0.75 17:0.5 18:0.0625 19:0.25 20:0.0625 21:0.375 
1.0 1:0.5 2:0.4375 3:0.625 4:0.75 5:1.0 6:0.5625 7:0.625 8:0.9375 9:0.8125 10:0.6875 11:0.6875 12:0.75 13:0.8125 14:0.875 15:0.8125 16:0.0625 17:0.625 18:0.3125 19:0.8125 20:0.5 21:0.3125 
0.8764475214115943 1:0.375 2:0.25 3:0.875 4:0.5 5:0.0 6:0.5625 7:0.5 8:0.9375 9:1.0 10:0.8125 11:1.0 12:0.75 13:1.0 14:0.5 15:0.8125 16:0.375 17:0.25 18:0.5 19:0.0 20:0.5 21:0.5625 
-0.2863156678354982 1:0.9375 2:0.5625 3:0.875 4:0.5 5:0.9375 6:0.5 7:0.4375 8:0.5 9:0.4375 10:0.625 11:0.5625 12:0.8125 13:0.625 14:0.5 15:0.4375 16:0.4375 17:0.5 18:0.375 19:0.8125 20:0.25 21:0.375 
0.12100548183976471 1:0.3125 2:0.0 3:0.4375 4:0.0 5:0.25 6:0.0625 7:0.4375 8:0.625 9:0.625 10:0.9375 11:0.75 12:0.5625 13:0.625 14:0.9375 15:0.4375 16:0.4375 17:0.5 18:0.375 19:0.5 20:0.5 21:0.25 
-0.18684196301836073 1:0.375 2:0.875 3:0.5625 4:0.5 5:0.9375 6:0.875 7:1.0 8:0.75 9:0.5 10:0.8125 11:0.6875 12:0.3125 13:0.0 14:0.0 15:0.5625 16:0.6875 17:0.625 18:0.5625 19:0.5625 20:0.6875 21:0.6875 
-0.4181665325886507 1:0.9375 2:1.0 3:1.0 4:0.625 5:0.9375 6:0.8125 7:0.75 8:0.5 9:0.5 10:0.5 11:0.4375 12:0.5 13:0.3125 14:0.375 15:0.5 16:0.5 17:0.1875 18:0.1875 19:0.0625 20:0.3125 21:0.5625 
-0.5029379400383838 1:0.625 2:0.5 3:0.6875 4:1.0 5:0.5 6:0.5 7:0.625 8:0.5 9:0.8125 10:0.5 11:0.5 12:0.625 13:0.5625 14:0.6875 15:0.4375 16:0.5 17:0.5 18:0.1875 19:0.375 20:0.125 21:0.0 
0.11124922487707871 1:0.375 2:0.375 3:0.0625 4:0.5625 5:0.5 6:1.0 7:0.25 8:0.0 9:0.6875 10:0.875 11:1.0 12:0.4375 13:0.6875 14:0.75 15:0.625 16:0.875 17:0.8125 18:0.75 19:0.75 20:0.5625 21:0.5 
0.31855655496665103 1:0.5 2:0.5 3:0.375 4:0.5625 5:0.5625 6:0.0625 7:0.8125 8:0.4375 9:0.6875 10:0.4375 11:0.3125 12:0.125 13:0.875 14:0.5 15:0.0625 16:0.75 17:0.8125 18:0.3125 19:0.125 20:0.125 21:0.1875 
0.41728541546990755 1:0.25 2:0.4375 3:0.5 4:0.5 5:0.5 6:0.4375 7:0.75 8:0.75 9:0.8125 10:0.75 11:0.75 12:0.75 13:0.625 14:0.5 15:0.625 16:0.75 17:0.0 18:0.5625 19:0.1875 20:0.5625 21:0.625 
0.09604859896924765 1:0.75 2:0.5 3:0.375 4:0.5 5:0.625 6:0.625 7:0.5 8:0.1875 9:0.375 10:0.6875 11:0.5625 12:0.5 13:0.625 14:0.9375 15:0.5 16:0.75 17:0.625 18:1.0 19:0.5625 20:0.875 21:0.5 
0.0047599215806813705 1:1.0 2:0.125 3:0.625 4:0.75 5:0.25 6:0.625 7:0.0625 8:0.4375 9:0.4375 10:0.1875 11:0.5 12:0.9375 13:0.625 14:0.25 15:0.75 16:0.8125 17:0.3125 18:0.75 19:0.0 20:0.4375 21:0.9375 
-0.06103156718600146 1:0.6875 2:0.5 3:0.4375 4:0.375 5:0.5 6:0.25 7:0.0 8:0.125 9:0.3125 10:0.25 11:0.1875 12:0.8125 13:0.5 14:0.375 15:0.3125 16:0.5 17:0.4375 18:0.0625 19:0.1875 20:0.4375 21:0.375 
0.6624376751394835 1:0.5 2:0.8125 3:0.625 4:0.6875 5:1.0 6:0.9375 7:0.5 8:0.4375 9:0.75 10:0.5 11:0.5625 12:0.4375 13:0.4375 14:0.4375 15:0.3125 16:0.5 17:0.5 18:0.75 19:0.625 20:0.5625 21:0.5625 
0.18492751136667973 1:0.375 2:0.9375 3:0.875 4:0.8125 5:0.5625 6:0.8125 7:0.875 8:0.875 9:0.8125 10:0.6875 11:0.8125 12:0.625 13:0.875 14:0.25 15:0.75 16:0.4375 17:0.25 18:0.1875 19:0.5 20:0.5 21:0.5625 
0.46246331703135074 1:0.375 2:0.5 3:0.0 4:0.5625 5:0.0625 6:0.5 7:1.0 8:0.375 9:0.75 10:0.8125 11:0.875 12:0.1875 13:0.5625 14:0.5625 15:0.75 16:0.6875 17:0.625 18:0.6875 19:0.125 20:0.5 21:0.5625 
0.2157591296412159 1:0.3125 2:1.0 3:0.5625 4:0.375 5:0.75 6:0.5 7:0.9375 8:0.5 9:0.625 10:0.9375 11:0.6875 12:0.5 13:0.0625 14:0.4375 15:0.0 16:0.125 17:0.5625 18:0.375 19:0.875 20:0.3125 21:0.0 
-0.4983319132680358 1:0.9375 2:0.5 3:0.875 4:0.5 5:0.5625 6:0.6875 7:0.5 8:0.375 9:0.4375 10:0.5 11:0.625 12:0.5625 13:0.5 14:0.4375 15:0.875 16:0.125 17:0.25 18:0.6875 19:0.75 20:0.8125 21:0.5 
0.06069757162194917 1:0.3125 2:0.375 3:0.5 4:0.625 5:0.8125 6:0.8125 7:0.6875 8:0.625 9:0.75 10:0.8125 11:0.6875 12:0.625 13:0.6875 14:0.75 15:0.8125 16:0.375 17:0.75 18:0.625 19:0.8125 20:0.9375 21:0.5 
-0.002364511391848394 1:0.875 2:0.8125 3:1.0 4:0.75 5:0.375 6:0.9375 7:0.3125 8:0.3125 9:0.5 10:0.0625 11:0.3125 12:1.0 13:0.6875 14:0.3125 15:0.75 16:0.375 17:0.0 18:0.625 19:0.1875 20:0.5 21:0.625 
0.1417044356346167 1:0.5 2:0.3125 3:0.3125 4:0.4375 5:0.0 6:0.1875 7:0.375 8:0.375 9:0.25 10:0.1875 11:0.125 12:0.5 13:0.4375 14:0.625 15:0.5625 16:0.6875 17:0.4375 18:0.3125 19:0.375 20:0.1875 21:0.3125 
0.10419282518008079 1:0.6875 2:0.4375 3:0.9375 4:0.375 5:0.6875 6:0.3125 7:0.375 8:0.5 9:0.375 10:1.0 11:0.1875 12:0.5 13:0.5625 14:0.8125 15:0.4375 16:0.125 17:0.4375 18:0.25 19:0.75 20:0.5 21:0.0625 
-0.11153479221177091 1:0.5 2:0.4375 3:0.5 4:0.125 5:0.0 6:0.5 7:0.375 8:0.5625 9:0.0625 10:0.375 11:0.5625 12:0.4375 13:0.25 14:0.1875 15:0.1875 16:0.125 17:0.375 18:0.625 19:0.5 20:0.625 21:1.0 
-0.15307177370465672 1:0.5625 2:0.1875 3:0.3125 4:0.3125 5:0.0 6:0.0 7:0.4375 8:0.0 9:0.5625 10:0.375 11:0.0 12:0.3125 13:0.625 14:0.5 15:0.0 16:0.75 17:0.4375 18:0.3125 19:0.1875 20:0.0 21:0.1875 
-0.220227007683195 1:0.1875 2:0.0625 3:0.0625 4:0.1875 5:0.125 6:0.5 7:0.875 8:0.25 9:0.8125 10:0.5 11:0.9375 12:0.25 13:0.4375 14:0.0625 15:0.5625 16:0.8125 17:0.5 18:0.8125 19:0.5 20:0.6875 21:0.5 
0.18214510457593916 1:0.375 2:0.0625 3:0.0 4:0.3125 5:0.375 6:0.375 7:0.3125 8:0.4375 9:0.75 10:0.3125 11:0.5625 12:0.375 13:0.9375 14:0.4375 15:0.6875 16:1.0 17:0.875 18:1.0 19:0.1875 20:0.125 21:0.8125 
-0.9074958091196269 1:0.1875 2:0.5 3:0.375 4:0.3125 5:0.3125 6:0.625 7:1.0 8:0.875 9:0.5 10:0.5625 11:0.9375 12:0.375 13:0.5 14:0.25 15:0.6875 16:0.5625 17:0.6875 18:0.75 19:0.75 20:0.875 21:1.0 
0.22045257345908423 1:1.0 2:0.4375 3:0.3125 4:0.1875 5:0.5 6:0.5 7:0.1875 8:0.25 9:0.3125 10:0.1875 11:0.3125 12:0.5 13:0.5625 14:0.625 15:0.5625 16:0.75 17:0.5 18:0.5625 19:0.625 20:0.5 21:0.8125 
-0.11774330770691994 1:0.875 2:0.5625 3:0.5 4:0.5 5:0.1875 6:0.75 7:0.0 8:0.1875 9:0.5 10:0.375 11:0.5 12:0.5 13:0.5625 14:0.1875 15:0.8125 16:0.9375 17:0.5 18:0.625 19:0.3125 20:0.8125 21:0.8125 
0.031074454943729166 1:0.0 2:0.375 3:0.0 4:0.375 5:0.4375 6:0.0 7:0.375 8:0.25 9:0.3125 10:0.6875 11:0.4375 12:0.3125 13:0.4375 14:1.0 15:0.0625 16:0.8125 17:1.0 18:0.5 19:0.625 20:0.3125 21:0.125 
0.12350725258546383 1:0.3125 2:0.5 3:0.375 4:0.4375 5:0.1875 6:0.25 7:0.5 8:0.3125 9:0.75 10:0.5 11:0.9375 12:0.5 13:0.625 14:0.25 15:0.5 16:0.9375 17:0.3125 18:0.6875 19:0.0 20:0.5 21:0.9375 
0.37643597117298705 1:0.9375 2:0.5625 3:0.6875 4:0.5 5:0.375 6:0.625 7:0.6875 8:0.5 9:0.0 10:0.0625 11:0.125 12:0.1875 13:0.125 14:0.3125 15:0.0625 16:0.3125 17:0.0625 18:0.3125 19:0.5 20:0.5625 21:0.5 
-1.0 1:0.375 2:0.3125 3:0.5625 4:0.4375 5:0.5625 6:0.625 7:0.625 8:0.5625 9:0.625 10:1.0 11:0.875 12:0.5625 13:0.625 14:0.5 15:0.9375 16:0.5 17:0.5 18:0.5625 19:0.125 20:0.75 21:0.9375 
-0.7084756289271182 1:0.5 2:0.25 3:0.625 4:0.625 5:0.9375 6:0.5 7:0.5 8:1.0 9:0.875 10:0.5 11:0.5625 12:1.0 13:0.5625 14:0.5 15:0.6875 16:0.25 17:0.25 18:0.1875 19:0.375 20:0.4375 21:0.5 
0.2920092987481369 1:0.8125 2:0.5625 3:0.625 4:0.5625 5:0.75 6:0.0625 7:0.4375 8:0.25 9:0.5625 10:0.5 11:0.0625 12:0.4375 13:0.625 14:0.5625 15:0.0625 16:0.8125 17:0.75 18:0.5625 19:0.1875 20:0.0 21:0.0 
-0.016201652585017913 1:0.9375 2:0.9375 3:0.6875 4:1.0 5:0.75 6:0.375 7:0.375 8:0.4375 9:0.375 10:0.4375 11:0.0 12:0.5625 13:0.1875 14:0.5 15:0.375 16:0.125 17:0.25 18:0.1875 19:0.75 20:0.5 21:0.125 
0.6581022466786739 1:0.5625 2:0.4375 3:0.4375 4:0.5 5:0.5 6:0.375 7:0.4375 8:0.125 9:0.4375 10:0.5 11:0.5 12:0.5 13:0.25 14:0.5 15:0.625 16:0.5625 17:0.75 18:0.625 19:0.5 20:0.625 21:0.125 
-0.37133417708695404 1:0.5625 2:0.5 3:1.0 4:0.375 5:0.25 6:0.25 7:0.3125 8:0.875 9:0.3125 10:0.1875 11:0.1875 12:0.6875 13:0.875 14:0.5 15:0.4375 16:0.125 17:0.1875 18:0.125 19:0.3125 20:0.25 21:0.5 
0.2761489242517935 1:0.5 2:0.9375 3:0.9375 4:0.75 5:0.8125 6:0.875 7:0.3125 8:0.5 9:0.875 10:0.5625 11:0.9375 12:0.5 13:1.0 14:0.6875 15:0.8125 16:0.9375 17:0.5 18:0.75 19:0.375 20:0.4375 21:0.5 
0.22794628250022486 1:0.1875 2:0.125 3:0.375 4:0.1875 5:0.125 6:0.4375 7:0.625 8:0.875 9:0.5 10:0.4375 11:0.875 12:0.5 13:0.4375 14:0.1875 15:0.5625 16:0.75 17:0.3125 18:0.8125 19:0.3125 20:0.5 21:0.9375 
-0.121683212531155 1:0.9375 2:0.0625 3:0.5 4:0.375 5:0.625 6:0.0625 7:0.0 8:0.1875 9:0.4375 10:0.625 11:0.25 12:0.8125 13:0.9375 14:1.0 15:0.5 16:0.375 17:1.0 18:0.125 19:1.0 20:0.0 21:0.125 
0.09934859871287846 1:0.5 2:0.9375 3:0.4375 4:0.9375 5:0.6875 6:0.5 7:0.625 8:0.1875 9:0.6875 10:0.5 11:0.625 12:0.0625 13:0.875 14:0.125 15:0.0 16:0.8125 17:0.625 18:0.8125 19:0.125 20:0.4375 21:0.5 
0.23769137838027438 1:0.8125 2:0.875 3:0.75 4:0.5625 5:0.6875 6:0.9375 7:0.625 8:0.4375 9:0.0625 10:0.5625 11:0.5 12:0.5 13:0.0625 14:0.4375 15:0.375 16:0.375 17:0.5625 18:0.4375 19:0.5625 20:0.625 21:0.125 
0.9235037532058098 1:0.5 2:0.25 3:0.4375 4:0.5 5:0.5 6:0.375 7:0.5 8:0.375 9:0.5 10:0.5625 11:0.5 12:0.375 13:0.5625 14:0.5 15:0.3125 16:0.625 17:0.625 18:0.625 19:0.5 20:0.5 21:0.6875 
-0.18971224924870775 1:0.125 2:0.5 3:0.0625 4:0.0625 5:0.625 6:0.5 7:0.4375 8:0.125 9:0.25 10:0.5625 11:0.6875 12:0.5 13:0.375 14:0.5 15:0.9375 16:0.5625 17:0.9375 18:0.875 19:0.5625 20:0.8125 21:0.5625 
0.0992421856256653 1:0.3125 2:0.6875 3:0.25 4:0.75 5:0.5 6:0.25 7:0.8125 8:0.8125 9:1.0 10:0.6875 11:0.625 12:0.4375 13:0.5625 14:0.3125 15:0.125 16:0.75 17:0.5625 18:0.5 19:0.4375 20:0.1875 21:0.0 
0.16760697885461975 1:0.3125 2:0.125 3:0.1875 4:0.375 5:0.125 6:0.0625 7:0.125 8:0.0625 9:0.5625 10:0.5625 11:0.125 12:0.3125 13:1.0 14:1.0 15:0.5625 16:1.0 17:0.6875 18:0.3125 19:0.5 20:0.25 21:0.0 
-0.056933899222712844 1:0.5 2:0.4375 3:0.6875 4:0.875 5:0.5 6:0.375 7:0.0625 8:0.3125 9:0.375 10:0.375 11:0.1875 12:0.75 13:0.75 14:0.4375 15:0.1875 16:0.5 17:0.3125 18:0.125 19:0.1875 20:0.1875 21:0.375 
-0.34457401026447476 1:0.625 2:0.4375 3:0.375 4:0.875 5:0.5625 6:0.6875 7:0.4375 8:0.1875 9:0.4375 10:0.625 11:0.3125 12:0.6875 13:0.9375 14:0.625 15:0.6875 16:0.875 17:0.5625 18:0.75 19:0.5 20:0.4375 21:0.1875 
-0.7745348231907144 1:0.1875 2:0.375 3:0.5625 4:0.1875 5:0.0625 6:0.4375 7:0.5 8:0.625 9:0.8125 10:0.6875 11:0.875 12:0.875 13:0.5 14:0.625 15:0.625 16:0.5 17:0.4375 18:0.25 19:0.5 20:0.4375 21:0.8125 
-0.441842206036031 1:0.5 2:0.625 3:0.8125 4:0.5625 5:0.5625 6:0.75 7:0.375 8:0.375 9:0.25 10:0.5 11:0.5 12:0.875 13:0.5 14:0.8125 15:0.625 16:0.625 17:0.5 18:0.5625 19:0.5 20:0.5625 21:0.5 
0.1646248824082789 1:0.3125 2:0.4375 3:0.625 4:0.5 5:0.1875 6:0.25 7:0.5625 8:0.75 9:0.5 10:0.0625 11:0.6875 12:0.8125 13:0.75 14:0.3125 15:0.75 16:0.5 17:0.125 18:0.5 19:0.3125 20:0.4375 21:0.75 
1.0 1:0.25 2:0.75 3:0.6875 4:0.5625 5:0.3125 6:0.5625 7:0.6875 8:0.875 9:0.5625 10:0.6875 11:0.6875 12:0.4375 13:0.5 14:0.4375 15:0.375 16:0.4375 17:0.4375 18:0.5 19:0.5625 20:0.8125 21:0.8125 
-0.3863380694066807 1:0.4375 2:0.875 3:0.625 4:0.0 5:0.5 6:0.5625 7:1.0 8:0.5 9:0.1875 10:0.1875 11:0.625 12:0.1875 13:0.25 14:0.3125 15:0.375 16:0.0625 17:0.375 18:0.3125 19:0.5625 20:0.625 21:0.625 
0.3289932657581813 1:0.3125 2:0.5 3:0.25 4:0.75 5:0.4375 6:0.125 7:0.6875 8:0.5625 9:1.0 10:0.8125 11:0.9375 12:0.1875 13:0.875 14:0.3125 15:0.125 16:0.8125 17:0.625 18:0.5 19:0.375 20:0.1875 21:0.3125 
0.2440199415958586 1:0.25 2:0.4375 3:0.25 4:0.5 5:0.0625 6:0.5 7:0.5 8:0.6875 9:0.5625 10:0.25 11:0.8125 12:0.6875 13:0.625 14:0.0625 15:0.75 16:0.5 17:0.0 18:0.5 19:0.125 20:0.0625 21:0.8125 
-0.013093810714833468 1:1.0 2:0.625 3:0.3125 4:0.4375 5:0.5 6:0.1875 7:0.5 8:0.0 9:0.5 10:0.3125 11:0.125 12:0.0 13:0.375 14:0.4375 15:0.125 16:0.75 17:0.75 18:0.25 19:0.1875 20:0.4375 21:0.3125 
-0.35232842270732007 1:0.5 2:0.4375 3:0.4375 4:0.375 5:0.625 6:0.3125 7:0.25 8:0.0625 9:0.0625 10:0.4375 11:0.375 12:0.5625 13:0.5 14:0.8125 15:0.8125 16:0.5 17:1.0 18:0.4375 19:0.75 20:0.8125 21:0.5 
-0.7738657760496809 1:0.25 2:0.25 3:0.3125 4:0.25 5:0.25 6:0.3125 7:0.625 8:0.5 9:0.375 10:0.5 11:0.4375 12:0.1875 13:0.375 14:0.9375 15:0.5 16:0.5625 17:0.75 18:0.5625 19:0.75 20:0.8125 21:0.25 
0.25208297076836383 1:0.875 2:0.75 3:0.0 4:0.8125 5:0.875 6:0.4375 7:0.6875 8:0.4375 9:0.8125 10:0.625 11:0.5 12:0.3125 13:0.6875 14:0.5625 15:0.1875 16:1.0 17:0.75 18:0.5625 19:0.5 20:0.125 21:0.0625 
0.12104556067102315 1:0.6875 2:0.25 3:0.6875 4:0.4375 5:0.875 6:0.625 7:0.125 8:0.25 9:0.375 10:0.4375 11:0.1875 12:0.8125 13:0.8125 14:0.8125 15:0.625 16:0.6875 17:0.5 18:0.5 19:0.75 20:0.4375 21:0.0625 
-0.1956200948218225 1:0.75 2:0.5 3:0.5 4:0.875 5:0.6875 6:0.75 7:0.4375 8:0.1875 9:0.4375 10:0.0625 11:0.3125 12:0.5 13:0.75 14:0.375 15:0.875 16:0.5625 17:0.9375 18:1.0 19:0.375 20:0.5 21:0.75 
-0.12922924483716922 1:0.125 2:0.5 3:0.875 4:0.625 5:0.5625 6:0.8125 7:0.75 8:0.8125 9:0.8125 10:0.5 11:1.0 12:0.875 13:0.875 14:0.75 15:0.875 16:0.5 17:0.5 18:0.8125 19:0.4375 20:0.75 21:1.0 
0.2240576860789988 1:0.75 2:0.9375 3:0.9375 4:0.875 5:0.4375 6:0.6875 7:0.5625 8:0.9375 9:0.9375 10:0.125 11:0.9375 12:0.5625 13:1.0 14:0.25 15:0.75 16:0.6875 17:0.1875 18:0.5 19:0.0 20:0.4375 21:0.6875 
0.10470454830227793 1:0.4375 2:0.6875 3:0.5 4:0.4375 5:0.625 6:0.75 7:0.5 8:0.375 9:0.3125 10:0.5 11:0.875 12:0.4375 13:0.125 14:1.0 15:0.8125 16:0.1875 17:0.8125 18:0.8125 19:0.9375 20:0.75 21:0.625 
-0.2390298601787951 1:0.0625 2:0.4375 3:0.3125 4:0.375 5:0.0625 6:0.5 7:0.5 8:0.4375 9:0.6875 10:0.3125 11:0.4375 12:0.4375 13:0.875 14:0.1875 15:0.5 16:0.6875 17:0.4375 18:0.6875 19:0.125 20:0.3125 21:0.8125 
0.17882796397779097 1:0.8125 2:0.625 3:0.5625 4:0.25 5:0.5625 6:0.5625 7:0.75 8:0.0625 9:0.0 10:0.25 11:0.125 12:0.25 13:0.375 14:0.5 15:0.3125 16:0.5 17:0.625 18:0.6875 19:0.8125 20:0.8125 21:0.5 
0.22933517512159474 1:0.25 2:0.0 3:0.4375 4:0.125 5:0.375 6:0.4375 7:0.5625 8:1.0 9:0.5625 10:0.625 11:0.4375 12:0.8125 13:0.9375 14:0.8125 15:0.4375 16:0.3125 17:0.4375 18:0.125 19:0.5 20:0.5 21:0.125 
1.0 1:0.5 2:0.625 3:0.625 4:0.5 5:1.0 6:0.625 7:0.625 8:0.8125 9:0.5 10:0.75 11:1.0 12:1.0 13:0.375 14:0.6875 15:0.8125 16:0.1875 17:0.25 18:0.5625 19:0.6875 20:0.625 21:0.5 
0.09499845999002791 1:0.375 2:0.6875 3:0.5 4:0.0625 5:0.5625 6:0.5625 7:1.0 8:0.8125 9:0.6875 10:0.75 11:0.75 12:0.3125 13:0.1875 14:0.4375 15:0.5 16:0.5625 17:0.8125 18:0.6875 19:0.5625 20:0.4375 21:0.375 
-0.033017702653654155 1:0.0 2:0.5 3:0.3125 4:0.75 5:0.4375 6:0.25 7:0.5 8:0.5 9:1.0 10:0.5 11:0.5625 12:0.5 13:0.5 14:0.0625 15:0.25 16:1.0 17:0.5 18:0.4375 19:0.375 20:0.1875 21:0.6875 
-0.1128035451085368 1:0.875 2:0.625 3:0.5 4:1.0 5:0.375 6:0.5625 7:0.125 8:0.3125 9:0.375 10:0.25 11:0.375 12:0.4375 13:0.5 14:0.1875 15:0.5 16:0.75 17:0.25 18:0.125 19:0.25 20:0.375 21:0.5 
-0.33237306917482073 1:0.8125 2:0.9375 3:0.25 4:0.6875 5:0.625 6:0.25 7:0.5 8:0.0625 9:0.875 10:0.625 11:0.3125 12:0.375 13:1.0 14:0.4375 15:0.0 16:0.8125 17:0.8125 18:0.4375 19:0.4375 20:0.0625 21:0.1875 
0.11238396158473973 1:0.125 2:1.0 3:0.6875 4:0.625 5:0.4375 6:0.625 7:0.9375 8:0.5625 9:0.5 10:0.5 11:0.625 12:0.5 13:0.5 14:0.0625 15:0.5 16:0.5 17:0.4375 18:0.6875 19:0.0 20:0.875 21:0.875 
-0.12366402209649523 1:0.8125 2:0.5 3:0.6875 4:0.5625 5:0.5625 6:0.875 7:0.0 8:0.8125 9:0.375 10:0.1875 11:0.125 12:1.0 13:0.5 14:0.75 15:0.5625 16:0.1875 17:0.1875 18:0.1875 19:0.625 20:0.4375 21:0.625 
-0.09406645868268051 1:0.6875 2:0.125 3:0.5 4:0.0 5:0.1875 6:0.4375 7:0.0625 8:0.4375 9:0.375 10:0.25 11:0.0625 12:0.8125 13:0.5625 14:0.5 15:0.9375 16:0.125 17:0.4375 18:0.3125 19:0.625 20:0.875 21:0.5625 
-0.18710745580331473 1:0.5625 2:0.75 3:0.5 4:0.75 5:0.375 6:0.6875 7:0.5 8:0.6875 9:0.875 10:0.3125 11:0.5 12:0.1875 13:0.625 14:0.4375 15:0.375 16:0.875 17:0.25 18:0.625 19:0.3125 20:0.3125 21:0.75 
-0.3968329535317764 1:0.0625 2:0.4375 3:0.8125 4:0.875 5:0.625 6:0.3125 7:0.375 8:0.6875 9:0.875 10:0.8125 11:0.5 12:0.5 13:0.8125 14:0.875 15:0.5625 16:0.5625 17:0.5 18:0.375 19:0.25 20:0.125 21:0.25 
0.06295948907776848 1:0.8125 2:0.1875 3:0.5 4:0.5625 5:0.0625 6:0.3125 7:0.25 8:0.3125 9:0.4375 10:0.25 11:0.1875 12:0.6875 13:1.0 14:0.4375 15:0.6875 16:0.5 17:0.4375 18:0.375 19:0.375 20:0.125 21:0.4375 
-0.45315415360536476 1:0.6875 2:0.75 3:0.9375 4:0.75 5:0.375 6:0.9375 7:0.875 8:0.875 9:0.5 10:0.375 11:0.4375 12:0.3125 13:0.0625 14:0.1875 15:0.375 16:0.0625 17:0.25 18:0.5 19:0.375 20:0.9375 21:0.625 
-0.022919336570664448 1:0.8125 2:0.5625 3:0.625 4:0.5 5:0.5625 6:0.5 7:0.4375 8:0.3125 9:0.4375 10:0.25 11:0.0 12:0.5 13:0.1875 14:0.4375 15:0.375 16:0.5625 17:0.8125 18:0.375 19:0.5 20:0.0 21:0.5 
-0.06330569022098831 1:0.25 2:0.25 3:0.0625 4:0.375 5:0.0625 6:0.375 7:0.3125 8:0.8125 9:0.5625 10:0.5625 11:1.0 12:0.75 13:0.6875 14:0.5 15:0.5625 16:0.4375 17:0.0 18:0.5 19:0.1875 20:0.625 21:0.5625 
-0.23238542499653736 1:0.5 2:0.1875 3:0.5 4:0.5 5:0.5 6:0.375 7:0.0625 8:0.375 9:0.8125 10:0.1875 11:0.1875 12:0.6875 13:0.9375 14:0.9375 15:0.4375 16:0.625 17:0.5625 18:0.375 19:0.5 20:0.25 21:0.4375 
1.0 1:0.25 2:0.375 3:0.25 4:0.5 5:0.0625 6:0.5625 7:0.4375 8:0.5625 9:0.875 10:0.125 11:0.5625 12:0.4375 13:0.875 14:0.375 15:0.5625 16:0.625 17:0.5625 18:0.6875 19:0.1875 20:0.625 21:0.8125 
-0.08597164952891495 1:0.9375 2:0.5 3:0.5 4:0.1875 5:0.0625 6:0.5 7:0.5625 8:0.0 9:0.0 10:0.125 11:0.125 12:0.3125 13:0.25 14:0.25 15:0.3125 16:0.5 17:0.375 18:0.5625 19:0.1875 20:0.5625 21:0.9375 
-0.09720257954342504 1:0.5 2:0.5 3:0.5625 4:0.375 5:0.875 6:0.4375 7:0.8125 8:1.0 9:0.6875 10:0.9375 11:0.625 12:0.6875 13:0.5 14:0.9375 15:0.3125 16:0.25 17:0.625 18:0.5 19:1.0 20:0.875 21:0.125 
0.12212473295159085 1:0.5 2:0.625 3:0.75 4:0.4375 5:0.5 6:0.4375 7:0.875 8:0.75 9:0.375 10:0.75 11:0.4375 12:0.375 13:0.25 14:0.6875 15:0.4375 16:0.375 17:0.5625 18:0.0 19:0.6875 20:0.625 21:0.375 
-0.46677327217686143 1:1.0 2:0.625 3:0.5 4:0.375 5:0.5 6:0.5625 7:0.25 8:0.25 9:0.0625 10:0.25 11:0.5 12:0.3125 13:0.375 14:0.5625 15:0.625 16:0.1875 17:0.1875 18:0.625 19:0.75 20:0.625 21:0.625 
-0.15151515785034125 1:0.4375 2:0.25 3:0.125 4:0.125 5:0.5 6:0.3125 7:0.1875 8:0.25 9:0.4375 10:0.5625 11:0.0625 12:0.5 13:0.625 14:0.75 15:0.6875 16:0.4375 17:1.0 18:0.875 19:0.9375 20:0.625 21:0.4375 
0.455624106071744 1:0.4375 2:0.1875 3:0.0625 4:0.75 5:0.25 6:0.5 7:0.125 8:0.625 9:0.6875 10:0.5 11:0.5625 12:0.75 13:1.0 14:0.6875 15:0.75 16:0.6875 17:0.0 18:0.6875 19:0.1875 20:0.3125 21:0.9375 
-0.08754147205080176 1:0.5 2:1.0 3:0.6875 4:0.875 5:0.25 6:0.3125 7:0.875 8:0.75 9:0.625 10:0.5 11:0.3125 12:0.4375 13:0.4375 14:0.1875 15:0.0 16:0.5 17:0.125 18:0.4375 19:0.125 20:0.375 21:0.625 
0.056459297922544796 1:0.1875 2:0.125 3:0.0625 4:0.4375 5:0.5625 6:0.0625 7:0.6875 8:0.5 9:0.625 10:0.6875 11:0.75 12:0.5 13:0.875 14:0.625 15:0.9375 16:0.6875 17:0.75 18:0.8125 19:0.625 20:0.4375 21:0.25 
-0.17051135720665214 1:0.8125 2:0.3125 3:0.4375 4:0.5 5:0.5 6:0.5 7:0.0 8:0.125 9:0.375 10:0.0625 11:0.375 12:0.625 13:0.75 14:0.9375 15:1.0 16:0.9375 17:0.5 18:0.25 19:0.5 20:0.25 21:0.375 
0.06174963824034999 1:0.25 2:0.0 3:0.0 4:1.0 5:0.5625 6:0.375 7:1.0 8:0.5625 9:0.9375 10:0.875 11:0.625 12:0.5 13:0.9375 14:0.75 15:0.5 16:0.6875 17:0.6875 18:0.3125 19:0.375 20:0.1875 21:0.25 
0.12630372646677865 1:0.5 2:0.5 3:0.5 4:0.0 5:0.5 6:0.5 7:0.625 8:0.4375 9:0.25 10:0.625 11:0.6875 12:0.4375 13:0.4375 14:0.4375 15:0.4375 16:0.125 17:0.5 18:0.5 19:0.875 20:0.875 21:0.8125 
-0.14730267922284968 1:0.5625 2:1.0 3:0.5 4:1.0 5:0.875 6:0.9375 7:0.5625 8:0.125 9:0.5625 10:0.5625 11:0.8125 12:0.4375 13:0.875 14:0.8125 15:0.625 16:0.75 17:0.75 18:0.875 19:0.375 20:0.75 21:0.5 
-0.40294141547558554 1:0.625 2:0.6875 3:1.0 4:0.25 5:1.0 6:1.0 7:0.25 8:0.125 9:0.0625 10:0.5 11:0.4375 12:0.375 13:0.0 14:0.625 15:0.5 16:0.3125 17:0.9375 18:0.875 19:0.875 20:1.0 21:0.625 
0.12555213673346138 1:0.6875 2:0.875 3:0.9375 4:0.5 5:0.75 6:1.0 7:0.8125 8:0.625 9:0.125 10:0.5 11:0.125 12:0.5 13:0.125 14:0.125 15:0.1875 16:0.0 17:0.375 18:0.5 19:0.5 20:0.5625 21:0.4375 
0.5601334538611848 1:0.3125 2:0.5 3:0.8125 4:0.5 5:0.5625 6:1.0 7:0.875 8:0.875 9:0.6875 10:0.75 11:1.0 12:0.1875 13:0.1875 14:0.375 15:0.8125 16:0.5 17:0.375 18:0.875 19:0.625 20:0.75 21:0.9375 
0.12245723193120273 1:0.5625 2:1.0 3:0.625 4:0.0625 5:0.625 6:0.25 7:0.625 8:0.375 9:0.25 10:0.125 11:0.25 12:0.25 13:0.125 14:0.5 15:0.0 16:0.125 17:0.375 18:0.4375 19:0.6875 20:0.5 21:0.375 
-1.0 1:0.5625 2:0.5 3:0.5625 4:1.0 5:0.9375 6:0.6875 7:0.4375 8:0.8125 9:0.5625 10:0.6875 11:0.9375 12:0.75 13:0.5 14:0.9375 15:0.75 16:0.0625 17:0.4375 18:0.625 19:0.5 20:0.5625 21:0.4375 
0.06955585223250142 1:0.4375 2:0.6875 3:0.875 4:0.8125 5:0.8125 6:0.1875 7:0.75 8:0.9375 9:1.0 10:0.875 11:0.5625 12:0.6875 13:0.3125 14:0.5 15:0.0 16:0.0625 17:0.625 18:0.0 19:0.6875 20:0.0625 21:0.125 
0.16885433834511832 1:0.5625 2:0.8125 3:0.8125 4:0.5 5:0.375 6:0.5625 7:1.0 8:0.75 9:0.5625 10:0.1875 11:0.5 12:0.5 13:0.125 14:0.375 15:0.4375 16:0.0 17:0.4375 18:0.25 19:0.5 20:0.5 21:0.8125 
0.4967134680955624 1:0.375 2:0.125 3:1.0 4:0.5 5:0.875 6:0.625 7:0.1875 8:0.6875 9:0.5625 10:0.6875 11:1.0 12:0.6875 13:0.75 14:0.875 15:0.875 16:0.4375 17:0.4375 18:0.6875 19:0.5 20:1.0 21:0.5 
0.2672870886352002 1:0.5 2:0.5 3:1.0 4:0.5 5:0.5 6:0.5 7:0.25 8:0.625 9:0.4375 10:0.25 11:0.5625 12:0.6875 13:0.5 14:0.75 15:0.875 16:0.25 17:0.5 18:0.5 19:0.875 20:0.5 21:0.5625 
0.03406454145993518 1:0.5 2:0.25 3:0.25 4:0.0 5:0.5 6:0.625 7:0.4375 8:0.375 9:0.125 10:0.625 11:0.6875 12:0.4375 13:0.375 14:0.875 15:0.9375 16:0.6875 17:0.625 18:0.9375 19:0.8125 20:0.6875 21:0.9375 
-0.28206594578044897 1:0.5 2:0.5 3:0.25 4:0.375 5:0.875 6:0.25 7:0.5625 8:0.0625 9:0.1875 10:1.0 11:0.5625 12:0.5 13:0.25 14:0.8125 15:0.25 16:0.4375 17:1.0 18:0.6875 19:0.8125 20:0.75 21:0.0625 
0.22081894132781865 1:0.1875 2:0.1875 3:0.3125 4:0.3125 5:0.5 6:0.0 7:0.75 8:0.8125 9:0.5 10:0.625 11:0.625 12:0.5625 13:0.3125 14:0.75 15:0.5 16:0.3125 17:0.75 18:0.25 19:1.0 20:0.9375 21:0.0625 
0.06378810532898979 1:0.4375 2:0.3125 3:0.5 4:0.875 5:0.375 6:0.6875 7:0.25 8:0.625 9:0.5625 10:0.0625 11:0.625 12:0.75 13:0.75 14:0.5625 15:0.75 16:0.4375 17:0.0 18:0.75 19:0.0 20:0.5 21:0.75 
-0.3530980904018639 1:0.0625 2:0.25 3:0.0625 4:0.0625 5:0.375 6:0.1875 7:0.625 8:0.5 9:0.5625 10:1.0 11:0.875 12:0.1875 13:0.625 14:0.875 15:0.3125 16:0.625 17:0.75 18:0.9375 19:0.5 20:0.25 21:0.25 
0.08094196294302343 1:0.25 2:0.3125 3:0.625 4:0.375 5:0.4375 6:0.125 7:0.0 8:0.6875 9:0.5 10:0.3125 11:0.625 12:0.75 13:0.625 14:0.5 15:0.6875 16:0.1875 17:0.0625 18:0.0625 19:0.3125 20:0.625 21:0.6875 
0.2560811504110852 1:0.625 2:0.75 3:0.6875 4:0.3125 5:0.625 6:0.5625 7:1.0 8:0.5 9:0.5 10:0.375 11:0.6875 12:0.3125 13:0.1875 14:0.3125 15:0.6875 16:0.4375 17:0.3125 18:0.5625 19:0.6875 20:0.9375 21:0.875 
-0.03912308048561422 1:0.875 2:0.9375 3:0.5 4:0.4375 5:0.9375 6:0.75 7:0.3125 8:0.3125 9:0.0625 10:0.5625 11:0.1875 12:0.0625 13:0.375 14:0.75 15:0.0625 16:0.625 17:0.875 18:0.9375 19:0.8125 20:0.4375 21:0.125 
-0.13423920182516896 1:0.125 2:0.125 3:0.25 4:0.125 5:0.5 6:0.0625 7:0.375 8:0.25 9:0.3125 10:0.5625 11:0.5 12:0.875 13:0.6875 14:0.75 15:1.0 16:0.0 17:0.6875 18:0.4375 19:0.875 20:0.75 21:0.5 
0.3224664851304201 1:0.875 2:0.125 3:0.4375 4:0.5 5:0.1875 6:0.8125 7:0.25 8:0.1875 9:0.5 10:0.0625 11:0.375 12:0.625 13:0.6875 14:0.4375 15:0.6875 16:0.875 17:0.5 18:0.6875 19:0.25 20:0.75 21:0.9375 
0.4817695303502613 1:0.0 2:0.75 3:0.375 4:0.3125 5:0.5625 6:0.625 7:0.625 8:0.3125 9:0.9375 10:0.875 11:0.9375 12:0.0 13:0.125 14:0.3125 15:0.4375 16:0.6875 17:0.625 18:0.9375 19:0.625 20:0.75 21:0.5 
-0.06211594915216888 1:0.3125 2:0.8125 3:0.875 4:0.8125 5:0.625 6:1.0 7:0.9375 8:0.875 9:0.9375 10:0.625 11:0.875 12:0.5625 13:0.4375 14:0.375 15:0.1875 16:0.375 17:0.5625 18:0.5 19:0.8125 20:0.625 21:0.5 
8.133312705227277E-4 1:0.6875 2:0.6875 3:0.625 4:0.8125 5:0.75 6:0.5625 7:0.625 8:0.75 9:0.625 10:0.5 11:0.375 12:0.375 13:0.5 14:0.0625 15:0.125 16:0.4375 17:0.1875 18:0.0625 19:0.0 20:0.125 21:0.1875 
-0.011961223179198373 1:0.875 2:0.875 3:0.5625 4:1.0 5:0.75 6:0.375 7:0.5 8:0.4375 9:0.4375 10:0.1875 11:0.4375 12:0.1875 13:0.5 14:0.125 15:0.0 16:0.5 17:0.5 18:0.0 19:0.25 20:0.375 21:0.375 
-0.28565943235298535 1:0.0 2:0.25 3:0.0 4:0.6875 5:0.1875 6:0.375 7:0.4375 8:0.5 9:0.875 10:0.625 11:0.5 12:0.0 13:0.75 14:0.4375 15:0.0625 16:1.0 17:0.8125 18:0.5 19:0.1875 20:0.3125 21:0.3125 
0.2639897987946491 1:0.5 2:0.125 3:0.5 4:0.125 5:0.25 6:0.6875 7:0.125 8:0.5 9:0.4375 10:0.5 11:1.0 12:0.5625 13:0.5 14:1.0 15:1.0 16:0.4375 17:0.5625 18:0.6875 19:0.4375 20:1.0 21:0.75 
-0.1262374506328813 1:0.0625 2:0.5625 3:0.375 4:0.4375 5:0.5 6:0.25 7:0.9375 8:0.5625 9:0.4375 10:1.0 11:0.6875 12:0.5 13:0.25 14:0.625 15:0.5 16:0.5 17:0.5625 18:0.5 19:0.8125 20:0.9375 21:0.5 
0.024352185751756926 1:0.875 2:0.5 3:0.5 4:0.1875 5:0.4375 6:0.375 7:0.3125 8:0.5625 9:0.0 10:0.1875 11:0.25 12:0.75 13:0.0625 14:0.375 15:0.25 16:0.125 17:0.125 18:0.0 19:0.5 20:0.0 21:0.1875 
0.23053654812295515 1:0.8125 2:0.5 3:0.5625 4:0.3125 5:0.375 6:0.875 7:0.0625 8:0.0 9:0.1875 10:0.125 11:0.625 12:0.4375 13:0.5 14:0.5625 15:0.5 16:0.3125 17:0.5 18:0.8125 19:0.5 20:0.6875 21:0.625 
0.4575749345592367 1:0.5 2:0.1875 3:0.375 4:0.5 5:0.5 6:0.375 7:0.0 8:0.0625 9:0.1875 10:0.1875 11:0.125 12:0.5 13:0.5625 14:1.0 15:1.0 16:0.5 17:0.5 18:0.5 19:0.4375 20:0.625 21:0.5 
0.1639700378678637 1:0.5 2:0.5 3:0.5 4:0.625 5:1.0 6:1.0 7:0.125 8:0.5 9:0.8125 10:0.5 11:0.75 12:0.4375 13:1.0 14:0.9375 15:0.9375 16:0.8125 17:0.875 18:0.6875 19:0.3125 20:0.5625 21:0.625 
-0.08549869288254466 1:0.3125 2:0.1875 3:0.25 4:0.125 5:0.4375 6:0.0 7:0.4375 8:0.4375 9:0.9375 10:0.6875 11:0.5625 12:0.4375 13:0.625 14:0.9375 15:0.0 16:0.75 17:0.625 18:0.3125 19:0.5 20:0.0625 21:0.0625 
0.49172022775344615 1:0.4375 2:0.8125 3:0.0625 4:0.5 5:0.9375 6:0.625 7:0.6875 8:0.75 9:0.8125 10:0.8125 11:1.0 12:0.1875 13:0.375 14:0.6875 15:0.375 16:0.8125 17:0.8125 18:1.0 19:0.875 20:0.5 21:0.3125 
0.04569056963274057 1:0.875 2:0.5 3:0.5 4:0.5 5:0.75 6:0.9375 7:0.0625 8:0.5625 9:0.3125 10:0.375 11:0.75 12:0.8125 13:0.5 14:0.8125 15:0.75 16:0.1875 17:0.375 18:0.4375 19:0.5 20:0.625 21:0.75 
-0.2007733171949002 1:0.5 2:0.25 3:0.9375 4:0.4375 5:0.4375 6:0.0625 7:0.125 8:0.5625 9:0.3125 10:0.5625 11:0.5625 12:0.8125 13:0.5 14:0.625 15:0.5 16:0.3125 17:0.5 18:0.25 19:0.75 20:0.5625 21:0.25 
-0.09771114844291086 1:0.9375 2:0.5 3:0.625 4:0.5 5:0.875 6:0.4375 7:0.25 8:0.125 9:0.3125 10:0.25 11:0.0625 12:0.5 13:0.875 14:0.75 15:0.25 16:0.4375 17:0.5625 18:0.1875 19:0.4375 20:0.0625 21:0.0625 
-0.16890249162142643 1:0.3125 2:0.1875 3:0.5 4:0.5 5:0.5 6:0.625 7:0.4375 8:0.625 9:0.625 10:0.75 11:0.9375 12:1.0 13:0.6875 14:0.5 15:0.5 16:0.5 17:0.5 18:0.5 19:0.0 20:0.5 21:0.75 
0.7036914979726846 1:0.4375 2:0.25 3:0.375 4:0.25 5:0.3125 6:0.625 7:0.0 8:0.4375 9:0.625 10:0.125 11:0.5625 12:1.0 13:0.625 14:0.5 15:0.5625 16:0.5625 17:0.0 18:0.6875 19:0.125 20:0.5 21:0.875 
-0.7123435681690443 1:0.5625 2:0.6875 3:1.0 4:0.6875 5:0.8125 6:0.4375 7:0.8125 8:0.6875 9:0.8125 10:0.5625 11:0.625 12:0.625 13:0.4375 14:0.6875 15:0.5 16:0.5 17:0.5 18:0.25 19:0.75 20:0.0 21:0.375 
0.41784292745663354 1:0.0 2:0.4375 3:0.1875 4:0.5 5:0.1875 6:0.125 7:0.625 8:0.6875 9:0.9375 10:0.6875 11:0.8125 12:0.6875 13:0.6875 14:0.75 15:0.625 16:0.625 17:0.5625 18:1.0 19:0.5 20:0.25 21:0.5 
0.27469209753699614 1:0.5 2:0.4375 3:0.5 4:0.375 5:0.4375 6:0.125 7:0.625 8:0.5625 9:0.8125 10:0.4375 11:0.3125 12:0.375 13:0.5 14:0.25 15:0.25 16:0.8125 17:0.25 18:0.4375 19:0.0 20:0.0625 21:0.3125 
-0.25423036871839805 1:1.0 2:0.625 3:0.625 4:0.125 5:0.9375 6:0.5625 7:0.4375 8:0.3125 9:0.25 10:0.75 11:0.5 12:0.625 13:0.3125 14:0.6875 15:0.75 16:0.0 17:0.75 18:0.8125 19:0.75 20:0.75 21:0.5 
-0.8893568969956716 1:0.625 2:0.5625 3:0.6875 4:0.6875 5:0.875 6:0.625 7:0.5 8:0.6875 9:0.625 10:0.6875 11:0.5 12:0.6875 13:0.75 14:0.75 15:0.5625 16:0.5 17:0.4375 18:0.5 19:0.875 20:0.8125 21:0.625 
0.7818832723732306 1:0.25 2:0.25 3:0.25 4:0.375 5:0.125 6:0.5 7:0.6875 8:0.75 9:0.75 10:0.875 11:0.6875 12:0.8125 13:0.375 14:0.5625 15:1.0 16:0.5 17:0.625 18:0.6875 19:0.625 20:0.9375 21:0.625 
0.006360427382822845 1:0.4375 2:0.8125 3:0.75 4:1.0 5:0.875 6:0.75 7:0.875 8:0.875 9:1.0 10:1.0 11:0.75 12:0.4375 13:0.5 14:0.875 15:0.5 16:0.6875 17:0.5 18:0.1875 19:0.5 20:0.0 21:0.4375 
-0.16543924873983012 1:0.5 2:0.375 3:0.1875 4:0.0625 5:0.375 6:0.1875 7:0.5 8:0.3125 9:0.25 10:0.3125 11:0.125 12:0.25 13:0.25 14:0.5 15:0.125 16:0.25 17:0.5625 18:0.5 19:0.75 20:0.5 21:0.6875 
-0.2419244348611115 1:0.5625 2:0.1875 3:0.875 4:0.6875 5:0.875 6:0.625 7:0.375 8:0.75 9:0.625 10:0.875 11:0.5 12:0.75 13:0.5625 14:1.0 15:0.625 16:0.0625 17:0.1875 18:0.125 19:0.875 20:0.625 21:0.25 
-0.5801772226153659 1:0.4375 2:0.875 3:0.9375 4:0.9375 5:0.1875 6:0.5625 7:0.625 8:0.6875 9:0.8125 10:0.5 11:0.6875 12:1.0 13:0.875 14:0.125 15:0.1875 16:0.4375 17:0.1875 18:0.0625 19:0.1875 20:0.1875 21:0.625 
0.12347568343311871 1:0.25 2:0.9375 3:0.75 4:0.25 5:0.3125 6:0.5625 7:0.9375 8:1.0 9:0.5 10:0.375 11:0.625 12:1.0 13:0.4375 14:0.25 15:0.4375 16:0.0625 17:0.0 18:0.0 19:0.5 20:0.8125 21:0.9375 
0.5254980196169816 1:0.375 2:0.5625 3:0.125 4:0.625 5:0.5625 6:0.5 7:0.6875 8:0.25 9:0.625 10:0.5 11:0.1875 12:0.125 13:0.875 14:0.3125 15:0.4375 16:0.9375 17:0.75 18:0.75 19:0.3125 20:0.0 21:0.625 
-0.17716101890161098 1:0.875 2:0.875 3:1.0 4:0.75 5:0.8125 6:0.875 7:0.6875 8:0.5625 9:1.0 10:0.75 11:1.0 12:0.5625 13:0.5625 14:0.4375 15:1.0 16:0.9375 17:0.375 18:1.0 19:0.125 20:0.5 21:0.9375 
-0.04624826501506416 1:0.4375 2:0.625 3:0.1875 4:0.6875 5:0.8125 6:0.75 7:0.5625 8:0.4375 9:0.875 10:0.5 11:0.5625 12:0.0625 13:0.8125 14:0.6875 15:0.5 16:1.0 17:0.9375 18:1.0 19:0.4375 20:0.5625 21:0.3125 
