encog,SVM,java,3.2.0,1,1406057735189
[SVM]
[SVM:PARAMS]
[SVM:SVM-PARAM]
inputCount=21
C=1
cacheSize=100
coef0=0
degree=3
eps=0.001
gamma=1
kernelType=2
nrWeight=0
nu=0.5
p=0.1
probability=0
shrinking=1
svmType=3
weight=
weightLabel=
[SVM:SVM-MODEL]
svm_type epsilon_svr
kernel_type rbf
gamma 1.0
nr_class 2
total_sv 383
rho -0.3992668698443511
SV
0.05616963223790573 1:0.8125 2:0.0625 3:0.375 4:1.0 5:0.5625 6:0.25 7:0.25 8:0.3125 9:0.625 10:0.5625 11:0.125 12:0.5 13:0.9375 14:0.6875 15:0.0625 16:1.0 17:0.6875 18:0.3125 19:0.0625 20:0.0625 21:0.25 
-0.11596218587589642 1:0.9375 2:0.5 3:0.6875 4:0.625 5:0.6875 6:1.0 7:0.4375 8:0.4375 9:0.875 10:0.625 11:0.875 12:0.4375 13:0.8125 14:1.0 15:0.5 16:0.75 17:0.8125 18:0.75 19:0.5 20:0.5 21:0.5625 
0.37384845048373383 1:0.125 2:0.1875 3:0.4375 4:0.4375 5:0.4375 6:0.125 7:0.0 8:0.8125 9:0.5 10:0.75 11:0.0 12:0.75 13:0.6875 14:0.75 15:0.25 16:0.375 17:0.5 18:0.0 19:0.5 20:0.375 21:0.125 
0.19527925673732738 1:0.1875 2:0.0625 3:0.375 4:0.0625 5:0.125 6:0.3125 7:0.0 8:0.625 9:0.125 10:0.625 11:0.8125 12:0.8125 13:0.9375 14:0.625 15:0.875 16:0.125 17:0.4375 18:0.5 19:0.625 20:0.6875 21:0.625 
0.008484549384761175 1:0.1875 2:0.5 3:0.6875 4:0.375 5:0.5 6:0.5 7:0.75 8:0.875 9:0.5 10:1.0 11:0.875 12:0.3125 13:0.5 14:0.5625 15:0.5 16:0.3125 17:0.625 18:0.4375 19:0.8125 20:0.4375 21:0.3125 
-0.12303369513244528 1:0.75 2:0.75 3:0.5 4:0.6875 5:0.625 6:0.625 7:0.875 8:0.4375 9:0.3125 10:0.25 11:0.5 12:0.25 13:0.125 14:0.0625 15:0.0625 16:0.5625 17:0.5625 18:0.3125 19:0.25 20:0.4375 21:0.625 
0.3343461618495278 1:0.5 2:0.5 3:0.5625 4:0.5625 5:0.3125 6:0.875 7:0.8125 8:0.625 9:0.75 10:0.125 11:0.875 12:0.5 13:0.625 14:0.125 15:0.9375 16:0.75 17:0.25 18:0.875 19:0.375 20:0.375 21:0.875 
0.17733593650510998 1:0.5 2:0.25 3:0.5 4:0.4375 5:0.3125 6:0.1875 7:0.0 8:0.5625 9:0.625 10:0.4375 11:0.125 12:0.6875 13:0.8125 14:0.6875 15:0.6875 16:0.6875 17:0.5625 18:0.5 19:0.4375 20:0.125 21:0.25 
-0.11623589121695978 1:0.5 2:0.4375 3:0.75 4:0.8125 5:0.0625 6:0.625 7:0.25 8:0.4375 9:0.9375 10:0.0 11:0.875 12:0.9375 13:0.875 14:0.5 15:0.6875 16:0.75 17:0.125 18:0.625 19:0.0625 20:0.25 21:0.75 
-0.18942637430283812 1:0.9375 2:0.5625 3:0.5 4:0.5 5:0.5 6:0.5625 7:0.0625 8:0.125 9:0.375 10:0.1875 11:0.25 12:0.25 13:0.6875 14:0.3125 15:0.5625 16:0.5625 17:0.5 18:0.8125 19:0.0625 20:0.125 21:0.875 
-0.04949517752636021 1:1.0 2:0.5 3:0.0 4:1.0 5:0.5 6:0.9375 7:0.1875 8:0.0 9:0.125 10:0.25 11:0.3125 12:0.375 13:0.5 14:0.0625 15:0.75 16:0.8125 17:0.625 18:0.9375 19:0.0 20:0.5 21:0.875 
-0.37303262069351784 1:0.5 2:0.875 3:0.375 4:0.4375 5:0.375 6:0.5625 7:0.9375 8:0.25 9:0.4375 10:0.125 11:0.5625 12:0.125 13:0.0625 14:0.25 15:0.4375 16:0.4375 17:0.375 18:1.0 19:0.8125 20:0.9375 21:0.875 
0.07091406766275592 1:0.8125 2:0.6875 3:0.75 4:1.0 5:0.375 6:0.9375 7:0.8125 8:0.75 9:0.9375 10:0.3125 11:0.875 12:0.5 13:0.9375 14:0.1875 15:0.5 16:0.5 17:0.375 18:0.4375 19:0.25 20:0.25 21:1.0 
0.175639991151768 1:0.5625 2:0.1875 3:0.3125 4:0.1875 5:0.1875 6:0.0 7:0.0 8:0.375 9:0.0625 10:0.1875 11:0.3125 12:0.375 13:0.0 14:0.25 15:0.375 16:0.0625 17:0.125 18:0.375 19:0.5625 20:0.5 21:0.375 
0.031844497974633006 1:0.875 2:0.625 3:0.4375 4:0.25 5:0.625 6:0.6875 7:0.0625 8:0.3125 9:0.0625 10:0.0 11:0.375 12:0.5 13:0.25 14:0.125 15:0.5625 16:0.5 17:0.625 18:0.75 19:0.875 20:0.8125 21:0.8125 
0.1352081953215478 1:0.6875 2:1.0 3:0.6875 4:1.0 5:0.875 6:0.75 7:0.875 8:0.9375 9:0.5625 10:0.5 11:0.6875 12:0.4375 13:0.1875 14:0.0625 15:0.25 16:0.625 17:0.4375 18:0.25 19:0.125 20:0.125 21:0.4375 
0.07372464395636681 1:0.375 2:0.3125 3:0.5 4:1.0 5:0.5 6:0.5 7:0.3125 8:0.9375 9:1.0 10:0.5 11:0.5 12:0.8125 13:1.0 14:0.8125 15:0.6875 16:0.8125 17:0.375 18:0.375 19:0.0 20:0.125 21:0.875 
-0.021179367483857445 1:0.5 2:0.5625 3:0.1875 4:0.375 5:0.1875 6:0.3125 7:0.625 8:0.5625 9:0.5 10:0.25 11:0.6875 12:0.125 13:0.0 14:0.0625 15:0.1875 16:0.5625 17:0.3125 18:0.8125 19:0.1875 20:0.625 21:0.75 
-0.0049769276624549025 1:0.4375 2:0.375 3:0.4375 4:0.75 5:0.4375 6:0.625 7:0.4375 8:0.375 9:0.75 10:0.0625 11:0.75 12:0.5625 13:0.625 14:0.375 15:0.6875 16:1.0 17:0.75 18:0.6875 19:0.25 20:0.3125 21:0.625 
-1.0 1:0.5 2:0.6875 3:0.375 4:0.1875 5:0.5 6:0.5625 7:0.8125 8:0.1875 9:0.625 10:0.75 11:0.5 12:0.3125 13:0.5 14:0.5 15:0.3125 16:0.5625 17:0.6875 18:0.875 19:0.5 20:0.5625 21:0.5 
0.2176474386901674 1:0.5625 2:0.625 3:0.25 4:0.9375 5:0.625 6:0.9375 7:0.5 8:0.0 9:0.75 10:0.5625 11:0.5 12:0.1875 13:0.5 14:0.5625 15:0.25 16:1.0 17:0.875 18:1.0 19:0.375 20:0.1875 21:0.5 
0.026269668716212478 1:0.8125 2:0.4375 3:0.9375 4:0.0625 5:0.75 6:0.75 7:0.3125 8:0.4375 9:0.0 10:0.5 11:0.6875 12:0.8125 13:0.375 14:0.5 15:1.0 16:0.375 17:0.4375 18:0.6875 19:0.9375 20:1.0 21:0.6875 
0.22946853666071798 1:0.3125 2:0.3125 3:0.75 4:0.75 5:0.4375 6:0.3125 7:0.625 8:0.9375 9:0.625 10:0.8125 11:0.0 12:0.9375 13:0.625 14:0.5625 15:0.25 16:0.4375 17:0.25 18:0.0 19:0.5 20:0.375 21:0.375 
0.2796871426548813 1:0.1875 2:0.3125 3:0.0625 4:0.3125 5:0.3125 6:0.1875 7:0.25 8:0.3125 9:0.5625 10:0.625 11:0.875 12:0.25 13:0.5 14:0.75 15:0.875 16:0.5625 17:0.75 18:0.9375 19:0.8125 20:0.6875 21:0.75 
0.12237729908968527 1:0.0625 2:0.0 3:0.3125 4:0.3125 5:0.3125 6:0.0625 7:0.4375 8:0.5625 9:0.5625 10:0.6875 11:0.5 12:0.875 13:0.625 14:0.5 15:0.8125 16:0.75 17:0.4375 18:0.0 19:0.375 20:0.4375 21:0.5 
0.041466185279246136 1:0.625 2:1.0 3:0.9375 4:0.5 5:0.6875 6:1.0 7:0.0625 8:0.875 9:0.375 10:0.5625 11:0.4375 12:1.0 13:0.5 14:0.875 15:0.6875 16:0.125 17:0.375 18:0.3125 19:0.875 20:0.625 21:0.4375 
-0.33941494035785713 1:0.4375 2:0.25 3:0.3125 4:0.3125 5:0.125 6:0.0 7:0.375 8:0.0 9:0.6875 10:0.1875 11:0.5 12:0.625 13:0.5625 14:0.375 15:0.5 16:0.5 17:0.5 18:0.5 19:0.3125 20:0.25 21:0.4375 
-0.3506121938398515 1:0.9375 2:0.5 3:0.0625 4:0.625 5:0.875 6:0.6875 7:0.375 8:0.1875 9:0.0625 10:0.6875 11:0.5625 12:0.0625 13:0.4375 14:0.875 15:0.6875 16:0.5 17:0.9375 18:0.875 19:0.875 20:0.5 21:0.3125 
0.16879876137772204 1:0.1875 2:0.5 3:0.5 4:0.1875 5:0.375 6:0.9375 7:0.8125 8:0.8125 9:1.0 10:0.6875 11:1.0 12:0.5 13:0.3125 14:0.125 15:0.625 16:0.4375 17:0.3125 18:0.5 19:0.6875 20:0.8125 21:0.9375 
0.24712070327049798 1:0.0625 2:0.5 3:0.25 4:0.5 5:0.625 6:0.4375 7:0.8125 8:0.875 9:0.8125 10:0.625 11:0.75 12:0.1875 13:0.375 14:0.5625 15:0.5 16:0.8125 17:1.0 18:0.4375 19:0.8125 20:0.375 21:0.0 
-0.03621943627625885 1:0.3125 2:0.8125 3:0.5625 4:0.6875 5:0.5 6:0.625 7:0.75 8:0.5 9:0.5 10:0.75 11:0.75 12:0.0625 13:0.0 14:0.4375 15:0.5625 16:0.75 17:0.9375 18:0.75 19:0.8125 20:0.625 21:0.625 
0.07844293750864972 1:0.25 2:0.3125 3:1.0 4:0.6875 5:0.625 6:0.125 7:0.5625 8:0.875 9:1.0 10:0.5 11:0.5625 12:0.8125 13:0.75 14:0.5 15:0.4375 16:0.4375 17:0.3125 18:0.375 19:0.3125 20:0.3125 21:0.5 
0.04889213749836248 1:0.375 2:0.4375 3:0.125 4:0.6875 5:0.1875 6:0.3125 7:0.8125 8:0.25 9:0.75 10:0.75 11:0.5625 12:0.0625 13:0.375 14:0.375 15:0.0 16:0.875 17:0.6875 18:0.5 19:0.3125 20:0.0625 21:0.5 
0.7461607208273647 1:0.4375 2:0.9375 3:0.4375 4:0.4375 5:0.625 6:0.4375 7:0.8125 8:0.4375 9:0.125 10:0.9375 11:0.375 12:0.4375 13:0.25 14:0.75 15:0.1875 16:0.5 17:0.9375 18:0.3125 19:0.9375 20:0.4375 21:0.1875 
-0.020935351050239963 1:0.5625 2:0.375 3:0.0625 4:0.25 5:0.25 6:0.375 7:0.0 8:0.125 9:0.0 10:0.1875 11:0.0 12:0.125 13:0.4375 14:0.375 15:0.5 16:0.375 17:0.4375 18:0.4375 19:0.0 20:0.5625 21:0.75 
0.15314826017317967 1:0.125 2:0.4375 3:0.5625 4:0.25 5:0.1875 6:0.5 7:0.75 8:0.875 9:0.8125 10:0.75 11:0.6875 12:0.5625 13:0.0 14:0.375 15:0.9375 16:0.5 17:0.25 18:0.5625 19:0.5625 20:0.9375 21:0.75 
-0.3537008711913391 1:0.75 2:0.375 3:0.5625 4:0.75 5:0.6875 6:0.1875 7:0.125 8:0.4375 9:0.9375 10:0.375 11:0.125 12:0.8125 13:0.625 14:0.5 15:0.4375 16:0.5625 17:0.25 18:0.4375 19:0.25 20:0.0625 21:0.25 
-0.1030429354174163 1:0.375 2:0.3125 3:0.0625 4:0.25 5:0.4375 6:0.4375 7:0.125 8:0.4375 9:0.4375 10:0.8125 11:0.5625 12:1.0 13:0.5 14:0.75 15:0.5625 16:0.5 17:0.875 18:0.9375 19:0.6875 20:0.5625 21:0.4375 
0.07918146827170171 1:0.4375 2:0.5 3:0.3125 4:0.0 5:0.1875 6:0.125 7:0.8125 8:0.5625 9:0.5 10:0.5625 11:0.75 12:0.3125 13:0.25 14:0.0 15:0.3125 16:0.4375 17:0.1875 18:0.3125 19:0.8125 20:0.75 21:0.5 
-0.8932991516201054 1:0.5 2:0.5 3:0.3125 4:0.375 5:0.5 6:0.1875 7:0.3125 8:0.4375 9:0.5 10:0.4375 11:0.125 12:0.5 13:0.5 14:0.625 15:0.1875 16:0.8125 17:0.75 18:0.25 19:0.25 20:0.0625 21:0.125 
-0.07233960203016983 1:0.5 2:0.125 3:0.375 4:0.1875 5:0.3125 6:0.25 7:0.1875 8:0.6875 9:0.5 10:0.5 11:0.5 12:1.0 13:0.5 14:0.5 15:1.0 16:0.5 17:0.0625 18:0.5 19:0.1875 20:0.6875 21:0.5625 
-0.0894946869443125 1:0.625 2:0.4375 3:0.0625 4:0.875 5:0.6875 6:0.5 7:0.0 8:0.1875 9:0.1875 10:0.0625 11:0.0625 12:0.3125 13:0.5625 14:0.5625 15:0.375 16:1.0 17:0.8125 18:0.9375 19:0.375 20:0.125 21:0.375 
0.05446466890318766 1:0.4375 2:0.375 3:0.3125 4:0.1875 5:0.4375 6:0.3125 7:0.5625 8:0.375 9:0.5 10:0.5 11:0.25 12:0.4375 13:0.4375 14:0.75 15:0.625 16:0.8125 17:0.625 18:0.5 19:0.5 20:0.25 21:0.3125 
-0.4203243074104918 1:0.0 2:0.5 3:0.4375 4:0.375 5:0.875 6:0.375 7:0.6875 8:0.3125 9:0.5625 10:0.75 11:0.5 12:0.375 13:0.1875 14:0.875 15:0.25 16:0.625 17:0.9375 18:0.5625 19:0.875 20:0.8125 21:0.0 
0.18957586209558175 1:0.75 2:0.6875 3:0.5 4:0.5 5:0.6875 6:0.6875 7:0.75 8:0.1875 9:0.375 10:0.25 11:0.6875 12:0.3125 13:0.0 14:0.0 15:0.5 16:0.3125 17:0.1875 18:1.0 19:0.5 20:0.9375 21:0.875 
0.2629545074302842 1:0.375 2:0.9375 3:0.375 4:0.875 5:0.6875 6:0.875 7:0.625 8:0.4375 9:0.9375 10:0.75 11:0.5625 12:0.375 13:0.8125 14:0.6875 15:0.8125 16:0.8125 17:0.9375 18:0.625 19:0.5625 20:0.5625 21:0.375 
0.009746075018409133 1:0.625 2:0.5 3:0.75 4:0.625 5:0.8125 6:0.9375 7:0.4375 8:0.875 9:0.8125 10:0.4375 11:0.5625 12:0.875 13:0.6875 14:0.625 15:0.9375 16:0.125 17:0.375 18:0.5625 19:0.4375 20:0.375 21:0.875 
-0.15790579123018259 1:0.5 2:0.5 3:0.375 4:0.8125 5:0.75 6:0.8125 7:0.5625 8:0.25 9:0.625 10:0.5 11:0.6875 12:0.125 13:0.9375 14:0.5 15:1.0 16:0.9375 17:0.5 18:0.9375 19:0.25 20:0.3125 21:0.6875 
0.03429004693923445 1:0.625 2:0.625 3:0.375 4:0.5 5:0.625 6:0.25 7:0.8125 8:0.125 9:0.5625 10:0.625 11:0.4375 12:0.375 13:0.5 14:0.0625 15:0.25 16:1.0 17:0.875 18:0.5625 19:0.25 20:0.0625 21:0.25 
0.3256702345647246 1:0.3125 2:0.5 3:0.5625 4:0.0 5:0.3125 6:0.4375 7:0.5625 8:0.6875 9:0.5625 10:0.0625 11:0.5 12:0.8125 13:0.4375 14:0.3125 15:0.125 16:0.125 17:0.125 18:0.3125 19:0.0625 20:0.4375 21:0.5 
-0.15806989648765904 1:1.0 2:0.5 3:0.5 4:0.3125 5:0.6875 6:1.0 7:0.0 8:0.25 9:0.0 10:0.1875 11:0.0625 12:0.4375 13:0.0 14:0.5 15:0.8125 16:0.4375 17:0.625 18:0.875 19:0.9375 20:0.75 21:1.0 
-0.04375769159243408 1:0.8125 2:0.0625 3:0.5 4:0.75 5:0.5 6:0.125 7:0.125 8:0.5 9:0.125 10:0.5 11:0.25 12:0.8125 13:0.8125 14:0.8125 15:0.5 16:0.5625 17:0.5 18:0.0 19:0.4375 20:0.375 21:0.5 
0.2260506723621571 1:0.8125 2:0.1875 3:0.8125 4:0.5 5:0.1875 6:0.5 7:0.0625 8:0.3125 9:0.1875 10:0.1875 11:0.0625 12:0.875 13:0.6875 14:0.625 15:0.75 16:0.5 17:0.4375 18:0.6875 19:0.25 20:0.6875 21:1.0 
-0.2817426400678689 1:0.3125 2:0.25 3:0.5 4:0.25 5:0.3125 6:0.5 7:0.3125 8:1.0 9:0.5625 10:0.5 11:0.4375 12:0.6875 13:0.8125 14:0.5625 15:0.625 16:0.0 17:0.25 18:0.375 19:0.5 20:0.3125 21:0.625 
-0.06175372629161341 1:0.6875 2:0.0 3:0.5625 4:0.375 5:0.5 6:0.5625 7:0.125 8:0.1875 9:0.0625 10:0.25 11:0.75 12:1.0 13:0.4375 14:0.5 15:0.6875 16:0.0625 17:0.4375 18:0.5 19:0.5 20:0.6875 21:1.0 
0.6053522459185745 1:0.4375 2:0.4375 3:0.4375 4:0.5625 5:0.5 6:0.0 7:0.5 8:0.25 9:0.75 10:0.6875 11:0.125 12:0.3125 13:0.625 14:0.5 15:0.4375 16:0.5625 17:0.8125 18:0.3125 19:0.125 20:0.25 21:0.1875 
-1.0 1:0.5625 2:0.5 3:0.625 4:0.5625 5:0.6875 6:0.5 7:0.6875 8:0.5 9:0.5625 10:0.625 11:0.5625 12:0.25 13:0.25 14:0.5 15:0.25 16:0.6875 17:0.8125 18:0.5625 19:0.625 20:0.0 21:0.0 
-0.13551311787603132 1:0.625 2:0.3125 3:0.5625 4:0.375 5:0.1875 6:0.5625 7:0.4375 8:0.5 9:0.125 10:0.3125 11:0.5 12:0.6875 13:0.125 14:0.3125 15:0.5 16:0.0625 17:0.5 18:0.3125 19:0.5 20:0.9375 21:0.75 
-0.03505080631729139 1:0.5625 2:0.5 3:0.5625 4:0.8125 5:0.5625 6:0.625 7:0.5 8:0.5 9:0.8125 10:0.6875 11:0.625 12:0.9375 13:0.75 14:0.5 15:0.5 16:0.75 17:0.0625 18:0.0625 19:0.25 20:0.3125 21:0.5625 
-0.4527173701575803 1:0.5 2:0.5625 3:0.6875 4:0.5 5:0.8125 6:0.375 7:0.3125 8:0.75 9:0.125 10:0.5 11:0.0 12:0.6875 13:0.0 14:0.4375 15:0.5 16:0.0625 17:0.125 18:0.3125 19:0.75 20:0.5 21:0.1875 
0.13887749715592526 1:0.6875 2:0.875 3:1.0 4:0.875 5:0.5 6:1.0 7:0.6875 8:0.8125 9:0.5 10:0.5 11:0.875 12:0.5 13:0.4375 14:0.0 15:0.9375 16:0.375 17:0.3125 18:0.3125 19:0.125 20:0.75 21:0.625 
0.1184876601026147 1:0.25 2:0.3125 3:0.5625 4:0.625 5:0.375 6:0.1875 7:0.4375 8:0.8125 9:0.9375 10:0.5625 11:0.5625 12:0.5 13:0.8125 14:0.625 15:0.875 16:0.625 17:0.1875 18:0.5 19:0.125 20:0.375 21:0.4375 
0.21151450067819133 1:0.0625 2:0.5 3:0.6875 4:0.375 5:0.375 6:0.6875 7:0.5 8:0.9375 9:0.5625 10:0.8125 11:0.9375 12:0.5625 13:0.5 14:0.625 15:0.6875 16:0.5 17:0.375 18:0.875 19:0.5 20:0.75 21:1.0 
0.3790545989246903 1:0.375 2:0.375 3:0.625 4:0.375 5:0.3125 6:0.1875 7:0.5 8:0.625 9:0.5625 10:0.625 11:0.0 12:0.6875 13:0.375 14:0.375 15:0.375 16:0.375 17:0.375 18:0.0625 19:0.3125 20:0.125 21:0.1875 
-0.10050101245407853 1:1.0 2:0.6875 3:0.75 4:0.9375 5:0.8125 6:1.0 7:0.3125 8:0.5625 9:0.5 10:0.4375 11:0.5 12:0.8125 13:0.5 14:0.5 15:0.5 16:0.0 17:0.1875 18:0.6875 19:0.5625 20:0.9375 21:0.8125 
0.026144516468708807 1:0.6875 2:0.4375 3:0.6875 4:0.375 5:0.9375 6:0.1875 7:0.5 8:0.6875 9:0.5 10:0.9375 11:0.25 12:0.5 13:0.375 14:0.875 15:0.3125 16:0.25 17:0.5625 18:0.0625 19:0.9375 20:0.75 21:0.0 
-0.29102392611602107 1:0.3125 2:0.125 3:0.375 4:0.3125 5:0.5 6:0.125 7:0.1875 8:1.0 9:0.5 10:0.4375 11:0.4375 12:0.625 13:0.875 14:1.0 15:0.6875 16:0.0625 17:0.3125 18:0.1875 19:0.5 20:0.5 21:0.5 
0.182653920171239 1:0.6875 2:0.5625 3:0.875 4:0.875 5:0.6875 6:1.0 7:0.0 8:0.5 9:0.5 10:0.5 11:0.6875 12:0.8125 13:0.625 14:0.75 15:0.6875 16:0.3125 17:0.6875 18:0.5 19:0.8125 20:0.625 21:0.6875 
0.26790689488607655 1:0.1875 2:0.0625 3:0.625 4:1.0 5:0.625 6:0.375 7:0.625 8:0.75 9:0.625 10:0.5625 11:0.5 12:0.875 13:0.875 14:0.75 15:0.5 16:0.5625 17:0.1875 18:0.0625 19:0.125 20:0.0 21:0.0625 
0.04226227064081812 1:0.375 2:0.1875 3:0.3125 4:0.1875 5:0.1875 6:0.6875 7:0.1875 8:0.4375 9:0.4375 10:0.0 11:0.8125 12:0.5 13:0.375 14:0.5625 15:0.75 16:0.5 17:0.625 18:0.875 19:0.375 20:0.6875 21:0.75 
0.01403570926605498 1:1.0 2:1.0 3:0.75 4:0.8125 5:0.875 6:0.5 7:0.25 8:0.375 9:0.0625 10:0.1875 11:0.1875 12:0.25 13:0.0625 14:0.4375 15:0.125 16:0.5 17:0.0625 18:0.1875 19:0.4375 20:0.25 21:0.25 
-0.15905329598356993 1:0.9375 2:0.625 3:0.9375 4:0.6875 5:0.5 6:0.875 7:0.5 8:0.4375 9:0.6875 10:0.5 11:0.5 12:0.5625 13:0.75 14:0.3125 15:0.875 16:0.5 17:0.5 18:0.6875 19:0.0 20:0.5 21:0.875 
0.3510849323314101 1:0.4375 2:0.625 3:0.5625 4:0.875 5:0.9375 6:0.625 7:0.75 8:0.5625 9:0.6875 10:0.6875 11:0.9375 12:0.0625 13:0.5 14:0.6875 15:0.0 16:0.875 17:1.0 18:0.75 19:0.4375 20:0.125 21:0.0 
0.21328984708414725 1:0.625 2:0.5 3:0.5 4:0.5 5:0.875 6:0.6875 7:0.5 8:0.125 9:0.1875 10:1.0 11:0.375 12:0.375 13:0.0 14:1.0 15:0.4375 16:0.0625 17:1.0 18:0.6875 19:1.0 20:1.0 21:0.0 
0.1628513366518894 1:0.4375 2:0.0625 3:0.1875 4:0.6875 5:0.5625 6:0.5625 7:0.5625 8:0.5 9:0.625 10:0.6875 11:0.6875 12:0.375 13:0.9375 14:0.8125 15:0.75 16:1.0 17:1.0 18:0.875 19:0.5 20:0.4375 21:0.8125 
-0.3087086101914143 1:0.3125 2:0.5 3:0.5 4:0.0625 5:0.4375 6:0.375 7:1.0 8:0.4375 9:0.3125 10:0.5 11:0.3125 12:0.0 13:0.25 14:0.25 15:0.25 16:0.5625 17:0.875 18:0.625 19:0.6875 20:0.375 21:0.375 
-1.0 1:0.0625 2:0.5 3:0.5 4:0.5 5:0.25 6:0.0625 7:0.6875 8:0.9375 9:1.0 10:0.875 11:0.9375 12:0.5 13:0.6875 14:0.5 15:0.4375 16:0.8125 17:0.5625 18:0.6875 19:0.5625 20:0.4375 21:0.5 
0.07948257604665637 1:0.5 2:0.4375 3:0.5 4:0.5 5:0.5625 6:0.5625 7:0.5 8:0.625 9:0.75 10:0.8125 11:0.9375 12:0.5625 13:0.9375 14:0.6875 15:0.9375 16:0.5 17:0.1875 18:0.5 19:0.0625 20:0.6875 21:0.625 
0.19747995019252285 1:0.5625 2:0.5 3:0.75 4:0.8125 5:0.0625 6:0.5 7:0.25 8:0.75 9:0.9375 10:0.1875 11:0.5625 12:0.6875 13:0.875 14:0.625 15:0.5 16:0.4375 17:0.1875 18:0.4375 19:0.1875 20:0.0625 21:0.5 
-0.3883547965701894 1:0.4375 2:0.8125 3:0.125 4:0.4375 5:0.75 6:0.625 7:0.9375 8:0.625 9:0.5 10:0.75 11:1.0 12:0.4375 13:0.25 14:0.5 15:0.5 16:0.9375 17:0.8125 18:0.75 19:0.6875 20:0.625 21:0.5625 
0.1653217298280647 1:0.8125 2:0.625 3:0.625 4:0.6875 5:0.5625 6:0.5 7:0.5625 8:0.0 9:0.5625 10:0.4375 11:0.1875 12:0.125 13:0.5 14:0.5 15:0.5 16:0.5625 17:0.625 18:0.25 19:0.5625 20:0.0 21:0.0625 
-0.04263783277754656 1:0.4375 2:0.5 3:0.5 4:0.125 5:0.375 6:0.1875 7:0.5 8:0.8125 9:0.0 10:0.375 11:0.0625 12:0.875 13:0.0625 14:0.5625 15:0.1875 16:0.375 17:0.1875 18:0.0625 19:0.8125 20:0.5625 21:0.0 
-0.01576026310326464 1:0.625 2:0.6875 3:0.5 4:0.5 5:0.0 6:0.375 7:0.5 8:0.0625 9:0.5 10:0.1875 11:0.375 12:0.25 13:0.1875 14:0.25 15:0.125 16:0.8125 17:0.5 18:0.875 19:0.375 20:0.125 21:0.8125 
0.12733150407837635 1:0.75 2:0.875 3:0.5 4:0.5 5:0.3125 6:0.5 7:0.5625 8:0.5 9:0.5625 10:0.0625 11:0.25 12:0.0625 13:0.125 14:0.1875 15:0.125 16:0.6875 17:0.5625 18:0.5 19:0.5 20:0.25 21:0.4375 
0.044166885052581824 1:1.0 2:0.625 3:0.8125 4:0.5 5:0.875 6:0.875 7:0.5 8:0.5 9:0.0 10:0.5 11:0.4375 12:0.0625 13:0.0 14:0.3125 15:0.25 16:0.4375 17:0.5 18:0.6875 19:0.6875 20:0.5625 21:0.5625 
-0.008871727832300691 1:1.0 2:0.8125 3:0.5625 4:0.8125 5:0.625 6:1.0 7:0.0625 8:0.5 9:0.25 10:0.4375 11:0.5625 12:0.5 13:0.5625 14:0.5625 15:0.5 16:0.5625 17:0.125 18:0.5 19:0.25 20:0.5 21:0.75 
-0.1567921680483417 1:0.5625 2:0.125 3:0.8125 4:0.4375 5:0.0 6:0.25 7:0.125 8:1.0 9:0.4375 10:0.0625 11:0.0625 12:0.6875 13:0.5 14:0.1875 15:0.375 16:0.0 17:0.125 18:0.25 19:0.375 20:0.25 21:0.5625 
-0.0522248194953702 1:0.3125 2:0.5 3:0.9375 4:0.6875 5:0.8125 6:0.6875 7:0.625 8:0.9375 9:0.5625 10:0.875 11:0.6875 12:0.375 13:0.4375 14:0.625 15:0.6875 16:0.5 17:0.8125 18:0.4375 19:0.8125 20:0.6875 21:0.375 
-0.14659289763114605 1:0.4375 2:0.0 3:0.5 4:0.5 5:0.5 6:0.5 7:0.4375 8:0.625 9:0.6875 10:0.3125 11:0.375 12:1.0 13:0.875 14:0.6875 15:0.4375 16:0.5 17:0.25 18:0.0625 19:0.0625 20:0.375 21:0.5625 
-0.2513030358896168 1:0.625 2:0.1875 3:0.5 4:0.4375 5:0.375 6:0.5 7:0.0 8:0.375 9:0.4375 10:0.0 11:0.25 12:0.625 13:0.5 14:0.6875 15:0.5 16:0.0625 17:0.25 18:0.4375 19:0.5625 20:0.4375 21:0.5 
0.1672932044853817 1:0.4375 2:0.8125 3:0.6875 4:0.6875 5:0.5625 6:0.1875 7:0.875 8:1.0 9:0.875 10:0.8125 11:0.5625 12:0.5 13:0.0625 14:0.5625 15:0.125 16:0.375 17:0.0625 18:0.25 19:0.5 20:0.4375 21:0.125 
-0.20409849714162503 1:0.5625 2:0.4375 3:0.125 4:0.5 5:0.0625 6:0.0 7:0.25 8:0.5 9:0.4375 10:0.0 11:0.0 12:0.1875 13:0.375 14:0.3125 15:0.125 16:0.625 17:0.125 18:0.3125 19:0.1875 20:0.25 21:0.625 
0.12544866111707131 1:0.75 2:0.6875 3:0.625 4:1.0 5:0.75 6:0.75 7:0.4375 8:0.0 9:0.5 10:0.3125 11:0.125 12:0.4375 13:0.875 14:0.3125 15:0.3125 16:0.9375 17:0.125 18:0.6875 19:0.0 20:0.1875 21:0.625 
-0.47545014037281635 1:0.125 2:0.0625 3:0.1875 4:0.1875 5:0.25 6:0.0 7:0.875 8:0.8125 9:0.5625 10:0.5625 11:0.25 12:0.8125 13:0.5 14:0.75 15:0.4375 16:0.3125 17:0.3125 18:0.25 19:0.5 20:0.5 21:0.0625 
-0.2798854008606577 1:0.5625 2:0.5 3:0.25 4:0.125 5:0.9375 6:0.4375 7:0.5625 8:0.1875 9:0.5 10:0.875 11:0.5625 12:0.4375 13:0.5 14:0.875 15:0.1875 16:0.8125 17:1.0 18:0.6875 19:0.6875 20:0.5625 21:0.25 
-0.9265758145312933 1:0.5 2:1.0 3:0.5 4:0.8125 5:1.0 6:0.4375 7:0.6875 8:0.5 9:0.75 10:1.0 11:0.625 12:0.0625 13:0.375 14:0.1875 15:0.375 16:0.5 17:0.6875 18:0.4375 19:0.5 20:0.5625 21:0.375 
-0.40423369626147687 1:0.5 2:0.5 3:0.375 4:0.6875 5:0.375 6:0.375 7:0.9375 8:0.4375 9:0.6875 10:0.5 11:0.6875 12:0.1875 13:0.6875 14:0.0625 15:0.3125 16:0.9375 17:0.4375 18:0.5 19:0.25 20:0.5 21:1.0 
0.1165423847642123 1:0.1875 2:0.5 3:0.4375 4:0.3125 5:0.875 6:0.5625 7:0.8125 8:0.1875 9:0.5 10:0.75 11:0.75 12:0.1875 13:0.5 14:0.5625 15:0.625 16:0.6875 17:1.0 18:0.75 19:0.5 20:0.75 21:0.5 
-0.715019210204219 1:0.375 2:0.9375 3:0.9375 4:0.0625 5:0.5 6:0.3125 7:0.75 8:0.875 9:0.5 10:0.5 11:0.5 12:0.6875 13:0.0625 14:0.5 15:0.1875 16:0.0625 17:0.5625 18:0.0625 19:0.8125 20:0.5625 21:0.1875 
-0.39062707981353356 1:0.5 2:0.5 3:0.125 4:0.5 5:0.375 6:0.6875 7:0.5 8:0.4375 9:0.625 10:0.5 11:0.625 12:0.75 13:0.9375 14:0.625 15:0.875 16:0.9375 17:0.5 18:0.6875 19:0.3125 20:0.3125 21:1.0 
0.02941429904780716 1:0.875 2:0.875 3:1.0 4:0.75 5:0.625 6:0.75 7:0.8125 8:0.5 9:0.625 10:0.125 11:0.4375 12:0.5 13:0.25 14:0.0 15:0.5 16:0.25 17:0.25 18:0.5625 19:0.5 20:0.5 21:0.5625 
0.645212783171712 1:0.75 2:0.9375 3:0.5 4:0.6875 5:1.0 6:0.5 7:0.5625 8:0.25 9:0.625 10:0.6875 11:0.625 12:0.0 13:0.8125 14:0.5625 15:0.4375 16:0.9375 17:0.5625 18:0.75 19:0.5 20:0.4375 21:0.125 
-0.0318135822460365 1:0.375 2:0.5 3:0.0 4:0.375 5:0.3125 6:0.5625 7:0.25 8:0.125 9:0.375 10:0.4375 11:0.375 12:0.3125 13:0.5 14:0.6875 15:0.75 16:0.5625 17:0.625 18:0.6875 19:0.75 20:0.875 21:0.9375 
0.7938381028246616 1:0.6875 2:0.375 3:0.3125 4:0.375 5:0.75 6:0.625 7:0.3125 8:0.1875 9:0.5 10:0.875 11:0.375 12:0.0625 13:0.5625 14:1.0 15:0.5625 16:0.875 17:0.9375 18:0.6875 19:0.6875 20:0.3125 21:0.1875 
0.05892689001547773 1:0.6875 2:1.0 3:0.8125 4:1.0 5:0.9375 6:0.8125 7:1.0 8:0.6875 9:1.0 10:0.625 11:0.75 12:0.0625 13:0.625 14:0.0 15:0.375 16:0.6875 17:0.125 18:0.5 19:0.4375 20:0.5 21:0.6875 
0.29476741925498146 1:0.4375 2:0.5 3:0.5625 4:0.5 5:0.875 6:1.0 7:0.6875 8:0.6875 9:0.5 10:0.75 11:0.5625 12:0.5 13:0.5 14:0.6875 15:0.4375 16:0.0 17:0.4375 18:0.5 19:0.8125 20:0.5625 21:0.5 
-0.08702807424678762 1:0.5 2:0.375 3:0.625 4:0.5625 5:0.0625 6:0.25 7:0.625 8:0.75 9:0.9375 10:0.5 11:0.625 12:0.9375 13:0.625 14:0.5625 15:0.5 16:0.5 17:0.1875 18:0.1875 19:0.125 20:0.5625 21:0.5 
0.3348689090169781 1:0.25 2:0.625 3:0.875 4:0.9375 5:1.0 6:0.625 7:0.5625 8:0.8125 9:0.8125 10:0.9375 11:0.75 12:0.8125 13:0.6875 14:0.75 15:0.875 16:0.5 17:0.6875 18:0.0625 19:0.5 20:0.5 21:0.0625 
0.07751639220933884 1:0.5 2:0.75 3:0.6875 4:0.8125 5:0.5 6:0.9375 7:0.125 8:0.375 9:0.3125 10:0.3125 11:0.5 12:0.5 13:0.5 14:0.4375 15:0.875 16:0.5 17:0.0 18:0.5625 19:0.125 20:0.875 21:0.9375 
0.0353386866736072 1:0.9375 2:0.75 3:0.6875 4:0.0 5:0.875 6:0.375 7:0.4375 8:0.5 9:0.0 10:0.5 11:0.3125 12:0.625 13:0.0 14:0.9375 15:0.125 16:0.1875 17:0.75 18:0.0 19:0.8125 20:0.625 21:0.1875 
0.26234387852130453 1:0.75 2:0.5 3:0.75 4:0.5 5:0.6875 6:0.6875 7:0.4375 8:0.5 9:0.1875 10:0.5 11:0.4375 12:0.625 13:0.5625 14:0.625 15:0.75 16:0.3125 17:0.5625 18:0.1875 19:0.5 20:0.5625 21:0.3125 
0.22919139597467622 1:1.0 2:0.875 3:0.6875 4:0.375 5:0.875 6:1.0 7:0.5625 8:0.5 9:0.25 10:0.8125 11:0.5625 12:0.4375 13:0.0625 14:0.625 15:0.75 16:0.0 17:0.5625 18:0.5 19:0.8125 20:0.75 21:0.0625 
-0.17651283127307885 1:0.75 2:0.625 3:0.5 4:0.9375 5:0.6875 6:0.6875 7:0.5 8:0.0 9:0.125 10:0.25 11:0.5 12:0.0 13:0.125 14:0.4375 15:0.0625 16:0.625 17:0.6875 18:0.6875 19:0.1875 20:0.5 21:0.5 
0.2764970207915595 1:0.375 2:0.1875 3:0.5 4:0.5 5:0.9375 6:0.5 7:0.625 8:0.9375 9:0.6875 10:1.0 11:0.5625 12:0.5625 13:1.0 14:0.8125 15:0.6875 16:0.5625 17:0.5 18:0.3125 19:0.4375 20:0.1875 21:0.375 
0.002155283507093443 1:0.5 2:0.625 3:0.9375 4:0.5 5:0.75 6:0.875 7:0.9375 8:0.625 9:0.75 10:0.75 11:1.0 12:0.8125 13:0.875 14:0.5 15:0.875 16:0.5 17:0.4375 18:0.75 19:0.5625 20:0.875 21:0.6875 
0.34087238602808884 1:0.3125 2:0.375 3:0.3125 4:0.625 5:0.4375 6:0.4375 7:0.5 8:0.5 9:0.6875 10:0.5 11:0.3125 12:0.625 13:0.9375 14:0.375 15:0.25 16:0.75 17:0.3125 18:0.375 19:0.0625 20:0.0625 21:0.5625 
-0.09077548788718154 1:0.5625 2:1.0 3:1.0 4:0.8125 5:0.75 6:0.4375 7:0.5 8:0.1875 9:0.3125 10:0.5 11:0.0 12:0.375 13:0.0625 14:0.5 15:0.1875 16:0.5 17:0.5 18:0.0 19:0.375 20:0.0 21:0.0 
-0.12868969357609494 1:0.5625 2:0.0 3:0.5625 4:0.625 5:0.0625 6:0.5625 7:0.25 8:0.1875 9:0.4375 10:0.0 11:0.0625 12:1.0 13:1.0 14:0.4375 15:0.5 16:0.9375 17:0.0625 18:0.5 19:0.25 20:0.4375 21:1.0 
-0.36054558269933196 1:0.75 2:0.4375 3:0.375 4:0.5625 5:0.6875 6:0.6875 7:0.3125 8:0.3125 9:0.25 10:0.125 11:0.5625 12:0.625 13:0.4375 14:0.625 15:0.5625 16:0.4375 17:0.9375 18:0.625 19:1.0 20:0.875 21:0.625 
-0.23347530065306768 1:0.875 2:0.5 3:0.6875 4:0.5625 5:0.375 6:0.5 7:0.3125 8:0.5 9:0.3125 10:0.0625 11:0.125 12:0.8125 13:0.625 14:0.5 15:0.625 16:0.25 17:0.4375 18:0.4375 19:0.375 20:0.75 21:0.75 
-0.08152213128464923 1:0.75 2:0.625 3:0.4375 4:0.1875 5:0.4375 6:0.6875 7:0.0625 8:0.25 9:0.0625 10:0.3125 11:0.1875 12:0.0625 13:0.5 14:0.25 15:0.625 16:0.5 17:0.625 18:0.625 19:0.5625 20:0.6875 21:1.0 
-0.5730055591430878 1:0.25 2:0.125 3:0.5 4:0.5625 5:0.125 6:0.125 7:0.25 8:0.5 9:0.5 10:0.8125 11:0.5 12:0.75 13:0.6875 14:1.0 15:0.5625 16:0.4375 17:0.5 18:0.0 19:0.625 20:0.3125 21:0.3125 
0.12718420531327435 1:0.5625 2:0.75 3:0.875 4:0.875 5:0.5 6:0.875 7:0.375 8:0.5625 9:0.5 10:0.4375 11:0.3125 12:0.5 13:0.3125 14:0.3125 15:0.375 16:0.1875 17:0.1875 18:0.0 19:0.0 20:0.5 21:0.5 
0.5131782703295121 1:0.0 2:0.3125 3:0.375 4:0.3125 5:0.5 6:0.125 7:0.6875 8:0.5 9:0.5625 10:1.0 11:0.6875 12:0.25 13:0.75 14:0.6875 15:0.375 16:0.5 17:1.0 18:0.5 19:1.0 20:0.3125 21:0.1875 
0.38338724224638787 1:0.5 2:0.1875 3:0.6875 4:0.25 5:0.4375 6:0.3125 7:0.25 8:0.5 9:0.4375 10:0.5625 11:0.0 12:0.75 13:0.375 14:0.875 15:0.5625 16:0.0 17:0.0 18:0.0 19:1.0 20:0.375 21:0.25 
-0.0987817451191784 1:0.6875 2:0.5 3:0.125 4:0.5 5:0.8125 6:0.3125 7:0.3125 8:0.0 9:0.25 10:0.5 11:0.0 12:0.25 13:0.375 14:0.8125 15:0.1875 16:0.5625 17:0.5625 18:0.25 19:0.5 20:0.5 21:0.125 
-0.08216205721720321 1:0.875 2:0.5 3:0.625 4:0.75 5:0.5 6:0.9375 7:0.1875 8:0.0 9:0.0625 10:0.0625 11:0.5 12:0.8125 13:0.875 14:0.5 15:0.9375 16:0.625 17:0.4375 18:0.625 19:0.5 20:0.6875 21:1.0 
-0.32369787568264424 1:0.875 2:0.8125 3:0.5 4:0.5 5:0.6875 6:1.0 7:0.75 8:0.1875 9:0.125 10:0.375 11:0.5 12:0.1875 13:0.0 14:0.375 15:0.125 16:0.25 17:0.1875 18:0.5625 19:0.875 20:0.875 21:0.6875 
0.1527094619884707 1:0.5625 2:0.875 3:0.5 4:0.6875 5:0.625 6:0.6875 7:0.625 8:0.5 9:0.5625 10:0.75 11:0.75 12:0.0625 13:0.8125 14:0.3125 15:0.5 16:0.8125 17:0.9375 18:0.75 19:0.125 20:0.5625 21:0.75 
-0.2796495259474345 1:0.625 2:0.75 3:0.8125 4:0.9375 5:0.5 6:0.625 7:0.5 8:1.0 9:0.5625 10:0.0625 11:0.8125 12:0.5 13:0.5 14:0.3125 15:0.625 16:0.5 17:0.375 18:0.5625 19:0.5 20:0.5625 21:0.5625 
0.04948428954840125 1:0.875 2:0.6875 3:0.5 4:0.4375 5:0.5 6:0.8125 7:0.5 8:0.5 9:0.0 10:0.0625 11:0.6875 12:0.0625 13:0.0625 14:0.375 15:0.8125 16:0.25 17:0.625 18:0.75 19:0.875 20:0.9375 21:0.875 
1.0 1:0.5625 2:0.1875 3:0.875 4:0.6875 5:0.5625 6:0.5 7:0.5625 8:0.5 9:0.625 10:0.5625 11:0.5 12:0.75 13:0.8125 14:0.625 15:0.75 16:0.4375 17:0.5625 18:0.4375 19:0.75 20:0.4375 21:0.3125 
0.05575834130778608 1:0.5625 2:1.0 3:0.6875 4:0.6875 5:0.9375 6:0.5625 7:0.5 8:0.5625 9:0.375 10:0.8125 11:0.5 12:0.5625 13:0.375 14:0.9375 15:0.375 16:0.1875 17:0.5 18:0.4375 19:1.0 20:0.1875 21:0.375 
-0.04913633336196384 1:0.8125 2:0.5 3:0.3125 4:0.1875 5:0.5 6:0.5 7:0.5 8:0.1875 9:0.125 10:0.0 11:0.0625 12:0.5 13:0.375 14:0.375 15:0.4375 16:0.4375 17:0.75 18:0.3125 19:0.6875 20:0.8125 21:0.4375 
-0.13143933645438535 1:0.5 2:1.0 3:0.375 4:0.4375 5:0.75 6:0.75 7:0.75 8:0.8125 9:0.9375 10:0.8125 11:0.75 12:0.4375 13:0.5 14:0.8125 15:0.625 16:0.5 17:0.9375 18:0.75 19:0.9375 20:0.625 21:0.375 
0.004827141695067442 1:0.1875 2:0.0 3:0.625 4:0.625 5:0.5 6:0.125 7:0.6875 8:0.9375 9:1.0 10:1.0 11:0.8125 12:0.5 13:0.8125 14:0.625 15:0.375 16:0.625 17:0.5625 18:0.125 19:0.125 20:0.3125 21:0.4375 
-1.0 1:0.375 2:0.0 3:0.3125 4:0.125 5:0.5 6:0.4375 7:0.375 8:0.0625 9:0.5 10:0.6875 11:0.4375 12:0.125 13:0.4375 14:0.75 15:0.5625 16:0.9375 17:0.6875 18:0.5 19:0.625 20:0.5625 21:0.375 
0.15693731141274594 1:0.75 2:0.5625 3:0.4375 4:0.875 5:0.625 6:0.875 7:0.5 8:0.5 9:0.5 10:0.4375 11:0.875 12:0.375 13:0.375 14:0.0 15:0.5 16:0.5625 17:0.5 18:0.75 19:0.0625 20:0.625 21:1.0 
0.12201448861711836 1:0.375 2:0.625 3:1.0 4:0.75 5:0.625 6:0.0625 7:0.875 8:1.0 9:0.6875 10:0.625 11:0.8125 12:0.5 13:0.3125 14:0.1875 15:0.25 16:0.25 17:0.1875 18:0.125 19:0.5 20:0.4375 21:0.5 
-0.040727338681417195 1:0.25 2:0.4375 3:0.1875 4:0.8125 5:0.1875 6:0.5 7:0.5 8:0.6875 9:0.6875 10:0.3125 11:0.6875 12:0.625 13:0.625 14:0.1875 15:0.625 16:0.5625 17:0.1875 18:0.5 19:0.4375 20:0.5 21:0.9375 
0.041923301258029774 1:0.5 2:0.5625 3:0.5625 4:0.75 5:0.5 6:0.4375 7:0.125 8:0.75 9:0.9375 10:0.5 11:0.4375 12:0.5625 13:1.0 14:0.5625 15:0.75 16:0.5 17:0.1875 18:0.0625 19:0.375 20:0.0 21:0.5 
0.3289094059121318 1:0.5 2:0.1875 3:0.5 4:0.5 5:0.8125 6:0.875 7:0.375 8:0.5 9:0.5625 10:0.75 11:0.5 12:0.75 13:0.8125 14:0.9375 15:0.875 16:0.4375 17:0.625 18:0.25 19:0.6875 20:0.625 21:0.3125 
0.4271154794494487 1:0.75 2:0.5625 3:0.875 4:0.6875 5:0.5 6:0.5 7:0.5 8:0.9375 9:1.0 10:0.625 11:0.25 12:0.5625 13:0.75 14:0.5 15:0.3125 16:0.5 17:0.1875 18:0.3125 19:0.125 20:0.125 21:0.5 
-0.5218440125222602 1:0.1875 2:0.25 3:0.5 4:0.5625 5:0.125 6:0.0625 7:0.4375 8:0.4375 9:0.5625 10:0.5625 11:0.5 12:0.4375 13:0.9375 14:0.3125 15:0.5625 16:0.625 17:0.5 18:0.3125 19:0.375 20:0.1875 21:0.4375 
-0.13395766525683453 1:0.1875 2:0.375 3:0.0 4:0.375 5:0.4375 6:0.0 7:0.3125 8:0.4375 9:0.5 10:0.75 11:0.25 12:0.25 13:0.5625 14:0.9375 15:0.625 16:0.5 17:0.75 18:0.5 19:1.0 20:0.375 21:0.375 
-0.4440630839813781 1:0.3125 2:0.5625 3:0.625 4:0.625 5:0.375 6:0.4375 7:0.5 8:0.9375 9:0.5 10:0.5 11:0.1875 12:0.6875 13:0.5 14:0.1875 15:0.375 16:0.5625 17:0.0625 18:0.25 19:0.1875 20:0.375 21:0.1875 
-0.29637214526255024 1:0.5 2:0.5625 3:0.375 4:0.75 5:1.0 6:0.9375 7:0.375 8:0.25 9:0.9375 10:0.75 11:1.0 12:0.5 13:0.6875 14:0.9375 15:0.8125 16:0.9375 17:1.0 18:0.5 19:0.625 20:0.5 21:0.375 
0.21369713847839047 1:0.4375 2:0.4375 3:0.375 4:0.5 5:0.875 6:0.625 7:0.0625 8:0.125 9:0.625 10:0.625 11:0.75 12:0.375 13:0.75 14:0.8125 15:0.625 16:0.75 17:0.6875 18:0.75 19:0.6875 20:0.5 21:0.3125 
-0.3103806437695894 1:0.25 2:0.4375 3:0.1875 4:0.625 5:0.4375 6:0.5 7:0.9375 8:0.4375 9:0.6875 10:0.5 11:0.4375 12:0.0 13:0.5 14:0.5 15:0.5625 16:0.875 17:0.6875 18:0.875 19:0.125 20:0.125 21:0.5 
0.48913482963673616 1:0.25 2:0.375 3:0.375 4:0.25 5:0.25 6:0.1875 7:0.4375 8:0.8125 9:0.375 10:0.875 11:0.4375 12:0.8125 13:0.5625 14:0.625 15:0.3125 16:0.1875 17:0.5 18:0.0 19:0.5625 20:0.375 21:0.0 
0.26219720051532375 1:0.375 2:0.625 3:0.4375 4:0.875 5:0.5625 6:0.875 7:0.625 8:0.4375 9:0.875 10:0.6875 11:0.4375 12:0.375 13:0.8125 14:0.625 15:0.4375 16:0.8125 17:0.875 18:0.6875 19:0.4375 20:0.5 21:0.375 
-0.6258441715067892 1:0.6875 2:0.3125 3:0.4375 4:0.75 5:0.5 6:0.5 7:0.125 8:0.0 9:0.4375 10:0.4375 11:0.375 12:0.4375 13:0.5 14:0.9375 15:0.8125 16:0.75 17:0.5625 18:0.9375 19:0.4375 20:0.5 21:0.5625 
0.13499071043145555 1:0.75 2:0.8125 3:0.5 4:0.75 5:0.75 6:0.75 7:0.5 8:0.4375 9:0.5 10:0.625 11:0.5625 12:0.25 13:0.0625 14:0.9375 15:0.625 16:0.625 17:1.0 18:0.8125 19:0.625 20:1.0 21:0.625 
-0.45316155705330685 1:0.8125 2:0.4375 3:0.8125 4:0.8125 5:0.625 6:0.8125 7:0.5 8:0.5 9:0.1875 10:0.5 11:0.8125 12:0.5 13:0.5625 14:0.5 15:0.8125 16:0.375 17:0.625 18:0.625 19:0.5 20:0.6875 21:0.9375 
-0.006337978037279339 1:0.625 2:0.75 3:0.625 4:0.8125 5:1.0 6:0.75 7:0.3125 8:0.0625 9:0.1875 10:0.6875 11:0.4375 12:0.1875 13:0.4375 14:0.75 15:0.1875 16:0.5 17:0.6875 18:0.375 19:1.0 20:0.5625 21:0.0 
0.17180821972596463 1:0.8125 2:0.5 3:0.25 4:0.375 5:0.5625 6:0.375 7:0.5 8:0.1875 9:0.25 10:0.5625 11:0.25 12:0.0 13:0.1875 14:0.3125 15:0.0 16:0.6875 17:0.875 18:0.3125 19:0.6875 20:0.5625 21:0.375 
0.1750888213412438 1:1.0 2:0.25 3:0.5625 4:0.75 5:0.3125 6:0.5 7:0.25 8:0.1875 9:0.8125 10:0.25 11:0.375 12:0.875 13:1.0 14:0.9375 15:0.6875 16:0.875 17:0.4375 18:0.6875 19:0.0625 20:0.3125 21:0.5 
-0.30738130514899276 1:0.25 2:0.3125 3:0.0625 4:0.1875 5:0.3125 6:0.375 7:0.8125 8:0.5 9:0.75 10:0.875 11:0.875 12:0.1875 13:0.25 14:0.4375 15:0.1875 16:0.5625 17:0.9375 18:0.4375 19:0.75 20:0.6875 21:0.5 
-0.28453700943278465 1:0.1875 2:0.4375 3:0.0625 4:0.0 5:0.375 6:0.5 7:0.5 8:0.4375 9:0.25 10:0.1875 11:0.5 12:0.5 13:0.125 14:0.1875 15:0.8125 16:0.3125 17:0.375 18:0.5 19:1.0 20:0.8125 21:0.8125 
-0.0014223882616797305 1:0.5625 2:0.5 3:0.375 4:0.5625 5:0.625 6:0.875 7:0.3125 8:0.5 9:0.625 10:0.5625 11:0.75 12:0.8125 13:0.625 14:0.9375 15:0.8125 16:0.3125 17:0.625 18:0.6875 19:0.5625 20:0.625 21:0.875 
-0.15367049005623284 1:1.0 2:0.875 3:0.6875 4:0.5 5:0.5 6:0.875 7:0.3125 8:0.25 9:0.0 10:0.375 11:0.4375 12:0.4375 13:0.1875 14:0.4375 15:0.4375 16:0.6875 17:0.6875 18:0.9375 19:0.4375 20:0.5625 21:0.5 
0.28776157580189343 1:0.375 2:0.3125 3:0.1875 4:0.1875 5:0.4375 6:0.375 7:0.8125 8:0.4375 9:0.4375 10:0.4375 11:0.1875 12:0.3125 13:0.3125 14:0.1875 15:0.1875 16:0.75 17:0.4375 18:0.3125 19:0.375 20:0.0 21:0.5 
0.22424890363107902 1:1.0 2:0.9375 3:0.9375 4:0.9375 5:0.9375 6:1.0 7:0.25 8:0.4375 9:0.3125 10:0.4375 11:0.4375 12:0.1875 13:0.25 14:0.75 15:0.8125 16:0.5625 17:0.8125 18:0.875 19:0.6875 20:0.625 21:0.4375 
0.29024186469576846 1:0.9375 2:0.375 3:0.5 4:0.0625 5:0.5 6:0.5625 7:0.125 8:0.1875 9:0.0625 10:0.125 11:0.4375 12:0.5625 13:0.5 14:0.5 15:0.75 16:0.375 17:0.6875 18:0.5 19:0.4375 20:0.6875 21:0.625 
0.2631739504591771 1:0.3125 2:0.5625 3:0.75 4:0.9375 5:0.5625 6:0.6875 7:0.9375 8:0.5 9:1.0 10:0.75 11:0.875 12:0.25 13:0.625 14:0.6875 15:0.5625 16:0.9375 17:0.625 18:0.75 19:0.375 20:0.375 21:0.6875 
0.10056544180072549 1:0.9375 2:0.5625 3:0.3125 4:0.3125 5:0.5 6:0.6875 7:0.5625 8:0.3125 9:0.125 10:0.5 11:0.6875 12:0.25 13:0.375 14:0.3125 15:0.25 16:0.625 17:0.75 18:0.6875 19:0.5625 20:0.8125 21:0.5625 
0.43657642050846 1:0.8125 2:0.5 3:0.875 4:0.8125 5:0.5625 6:0.75 7:0.5 8:0.5 9:0.5625 10:0.8125 11:0.5 12:1.0 13:0.75 14:1.0 15:0.5625 16:0.5625 17:0.5 18:0.375 19:0.4375 20:0.25 21:0.5 
0.27341345539908646 1:0.875 2:0.8125 3:0.9375 4:0.9375 5:0.875 6:0.625 7:0.375 8:0.125 9:0.5 10:0.1875 11:0.0 12:0.4375 13:0.3125 14:0.3125 15:0.125 16:0.875 17:0.5625 18:0.4375 19:0.3125 20:0.5 21:0.25 
-0.24736544437237562 1:0.9375 2:1.0 3:1.0 4:0.9375 5:0.6875 6:0.8125 7:0.75 8:0.5 9:0.5 10:0.5 11:0.75 12:0.375 13:0.0625 14:0.0625 15:0.3125 16:0.1875 17:0.0625 18:0.375 19:0.25 20:0.9375 21:0.8125 
0.30208955682464284 1:0.4375 2:0.3125 3:1.0 4:0.5 5:0.9375 6:0.5 7:0.125 8:0.875 9:0.375 10:0.625 11:0.5 12:1.0 13:0.5625 14:0.875 15:0.625 16:0.375 17:0.25 18:0.3125 19:0.75 20:0.875 21:0.25 
0.3699424858064171 1:0.875 2:0.0625 3:0.3125 4:0.5625 5:0.5625 6:0.8125 7:0.0625 8:0.0 9:0.4375 10:0.125 11:0.125 12:0.5 13:0.5 14:0.6875 15:0.875 16:0.5625 17:0.625 18:1.0 19:0.75 20:1.0 21:0.625 
0.0011886366514118193 1:0.5 2:0.9375 3:0.625 4:0.75 5:0.0 6:0.9375 7:0.875 8:0.75 9:0.5 10:0.375 11:0.875 12:0.375 13:0.1875 14:0.0 15:0.4375 16:0.5 17:0.375 18:0.6875 19:0.5 20:0.75 21:0.875 
0.09494574483097604 1:0.625 2:0.9375 3:0.875 4:0.9375 5:0.1875 6:0.5 7:0.625 8:1.0 9:0.625 10:0.3125 11:0.4375 12:0.25 13:0.5 14:0.25 15:0.0 16:0.4375 17:0.25 18:0.1875 19:0.3125 20:0.3125 21:0.4375 
0.22067677663311233 1:0.4375 2:0.875 3:0.5 4:0.9375 5:0.625 6:0.5625 7:0.875 8:0.5 9:0.5625 10:0.75 11:0.6875 12:0.375 13:0.1875 14:0.125 15:0.4375 16:0.5 17:0.5625 18:0.625 19:0.4375 20:0.0 21:0.5 
0.10935061171813504 1:0.5 2:0.5 3:0.3125 4:0.9375 5:0.625 6:0.6875 7:0.125 8:0.375 9:0.75 10:0.5 11:0.1875 12:0.4375 13:0.5625 14:0.8125 15:0.5625 16:0.8125 17:0.75 18:0.625 19:0.5 20:0.5 21:0.25 
0.3559433836597077 1:0.5 2:0.5625 3:0.625 4:1.0 5:0.75 6:0.875 7:0.1875 8:0.375 9:0.6875 10:0.5625 11:0.5 12:0.75 13:0.75 14:0.5625 15:1.0 16:0.5625 17:0.5 18:0.5 19:0.0 20:0.5 21:0.625 
-0.20851537306703435 1:0.9375 2:0.4375 3:0.5 4:0.1875 5:0.625 6:0.4375 7:0.125 8:0.5 9:0.125 10:0.0 11:0.375 12:0.8125 13:0.5 14:0.5625 15:0.4375 16:0.125 17:0.0 18:0.3125 19:0.625 20:0.5 21:0.375 
-0.025607779149344957 1:0.5 2:0.1875 3:0.5 4:0.4375 5:0.375 6:0.4375 7:0.1875 8:0.3125 9:0.25 10:0.25 11:0.125 12:0.4375 13:0.3125 14:0.4375 15:0.5 16:0.5 17:0.375 18:0.1875 19:0.5 20:0.5625 21:0.75 
-0.026094522559030834 1:0.5 2:0.9375 3:0.375 4:0.9375 5:0.25 6:1.0 7:0.9375 8:0.375 9:0.875 10:0.375 11:0.625 12:0.0625 13:0.25 14:0.125 15:0.6875 16:0.6875 17:0.5 18:0.625 19:0.25 20:0.75 21:0.9375 
-0.28104016761813233 1:0.1875 2:1.0 3:0.8125 4:0.9375 5:0.875 6:0.75 7:0.75 8:0.625 9:0.875 10:0.75 11:1.0 12:0.25 13:0.0 14:0.375 15:0.5625 16:0.5625 17:0.5 18:1.0 19:0.5625 20:0.9375 21:0.8125 
-0.17330860133375917 1:0.625 2:0.3125 3:0.0625 4:0.875 5:0.125 6:0.5 7:0.5 8:0.0 9:0.5625 10:0.3125 11:0.75 12:0.3125 13:0.5625 14:0.3125 15:0.8125 16:1.0 17:0.5625 18:0.6875 19:0.3125 20:0.625 21:1.0 
0.15201080987292417 1:0.75 2:0.25 3:0.3125 4:0.25 5:1.0 6:0.625 7:0.0625 8:0.375 9:0.4375 10:0.875 11:0.5 12:1.0 13:0.5 14:0.875 15:0.9375 16:0.1875 17:0.875 18:0.6875 19:0.9375 20:0.6875 21:0.5 
0.22617803698039612 1:0.5 2:0.6875 3:0.375 4:0.375 5:0.5 6:0.6875 7:0.8125 8:0.375 9:0.5625 10:0.8125 11:0.5 12:0.3125 13:0.25 14:0.125 15:0.3125 16:0.5 17:0.5 18:0.875 19:0.625 20:0.6875 21:0.5625 
-0.2941122982482852 1:0.5625 2:0.875 3:1.0 4:0.375 5:0.3125 6:0.75 7:0.5 8:0.5 9:0.125 10:0.0 11:0.375 12:0.25 13:0.1875 14:0.1875 15:0.0625 16:0.1875 17:0.1875 18:0.25 19:0.4375 20:0.9375 21:0.6875 
-0.0566970890491428 1:0.6875 2:0.9375 3:0.9375 4:0.625 5:0.5 6:0.5625 7:0.9375 8:1.0 9:0.9375 10:0.625 11:0.9375 12:0.5 13:0.5 14:0.4375 15:0.8125 16:0.375 17:0.5 18:0.5625 19:0.5 20:0.5625 21:0.5625 
-0.3901733130354545 1:0.5625 2:0.5625 3:0.9375 4:0.5 5:0.75 6:1.0 7:0.5 8:0.875 9:0.25 10:0.5 11:0.5 12:0.5 13:0.375 14:1.0 15:0.9375 16:0.375 17:0.5 18:0.5625 19:0.75 20:0.9375 21:0.8125 
0.12167326892819076 1:0.0 2:0.3125 3:0.25 4:0.0625 5:0.0625 6:0.25 7:0.3125 8:0.0625 9:0.125 10:0.0 11:0.375 12:0.3125 13:0.25 14:0.5 15:0.5 16:0.3125 17:0.4375 18:0.5 19:0.9375 20:0.875 21:0.8125 
-0.4621201301994142 1:0.125 2:0.375 3:0.1875 4:0.5 5:0.1875 6:0.0625 7:0.5 8:0.5 9:1.0 10:0.4375 11:0.5 12:0.5 13:0.9375 14:0.3125 15:0.6875 16:0.9375 17:0.625 18:0.9375 19:0.25 20:0.125 21:0.8125 
-0.5149981898538585 1:0.125 2:0.5625 3:0.5 4:0.75 5:0.0625 6:1.0 7:0.625 8:0.75 9:0.6875 10:0.5 11:0.875 12:0.4375 13:0.25 14:0.25 15:0.6875 16:0.5625 17:0.3125 18:0.8125 19:0.0 20:0.5 21:0.6875 
-0.8325573045242176 1:0.6875 2:0.4375 3:0.5625 4:0.5625 5:0.75 6:0.8125 7:0.1875 8:0.6875 9:0.8125 10:0.5 11:0.5 12:0.6875 13:0.75 14:1.0 15:0.9375 16:0.75 17:0.5625 18:0.5625 19:0.5625 20:0.625 21:0.375 
0.11071355731812216 1:0.3125 2:0.3125 3:0.0625 4:0.3125 5:0.375 6:0.3125 7:0.75 8:0.5 9:0.25 10:0.8125 11:0.5625 12:0.5 13:0.5 14:0.5625 15:0.5 16:0.4375 17:0.5 18:0.8125 19:0.875 20:0.625 21:0.5625 
-0.17533469257396028 1:0.25 2:0.625 3:1.0 4:0.5625 5:0.5 6:0.8125 7:0.5 8:0.6875 9:0.625 10:0.6875 11:0.8125 12:0.6875 13:0.9375 14:0.6875 15:0.5625 16:0.5 17:0.5625 18:0.5 19:0.6875 20:0.5 21:0.4375 
-0.335622227437816 1:0.3125 2:0.3125 3:0.5 4:0.4375 5:0.5 6:0.5625 7:0.875 8:0.625 9:0.1875 10:1.0 11:0.875 12:0.5 13:0.4375 14:1.0 15:0.625 16:0.4375 17:0.5625 18:1.0 19:0.75 20:0.9375 21:0.625 
0.21429317362258304 1:0.6875 2:0.6875 3:0.8125 4:1.0 5:0.625 6:0.5 7:0.5 8:1.0 9:0.75 10:0.5 11:0.1875 12:0.5 13:0.75 14:0.4375 15:0.125 16:0.1875 17:0.5 18:0.0625 19:0.375 20:0.3125 21:0.0 
-0.6669556999821611 1:0.5 2:0.4375 3:0.6875 4:0.5 5:0.625 6:0.3125 7:0.5 8:0.9375 9:0.5 10:0.8125 11:0.125 12:0.375 13:0.4375 14:0.6875 15:0.0625 16:0.4375 17:1.0 18:0.0 19:0.875 20:0.25 21:0.0625 
-0.16972673617462608 1:1.0 2:0.625 3:0.625 4:0.75 5:0.625 6:0.5 7:0.5625 8:0.375 9:0.5 10:0.5 11:0.3125 12:0.625 13:0.9375 14:0.625 15:0.1875 16:0.3125 17:0.5 18:0.1875 19:0.5 20:0.25 21:0.25 
-0.09988193420827698 1:0.5 2:0.0 3:0.375 4:0.625 5:0.3125 6:0.8125 7:0.1875 8:0.25 9:0.4375 10:0.1875 11:0.9375 12:0.4375 13:0.5 14:0.5 15:0.875 16:0.75 17:0.25 18:1.0 19:0.4375 20:1.0 21:0.875 
-0.22277175896046697 1:0.4375 2:0.75 3:0.625 4:0.8125 5:0.375 6:0.8125 7:0.8125 8:0.9375 9:0.5625 10:0.1875 11:0.8125 12:0.5 13:0.5 14:0.125 15:0.5 16:0.3125 17:0.0 18:0.1875 19:0.125 20:0.1875 21:1.0 
-0.18813781575439636 1:0.0 2:0.4375 3:0.625 4:0.5 5:0.125 6:0.8125 7:1.0 8:0.6875 9:0.9375 10:0.375 11:1.0 12:0.625 13:0.5625 14:0.125 15:0.5625 16:0.375 17:0.125 18:0.4375 19:0.0 20:0.8125 21:0.75 
-0.2625438802444864 1:0.5625 2:0.625 3:0.5 4:0.5 5:0.875 6:0.75 7:0.0625 8:0.0 9:0.0625 10:0.5 11:0.25 12:0.5 13:0.25 14:0.875 15:0.5625 16:0.0625 17:0.8125 18:0.8125 19:0.9375 20:0.75 21:0.625 
0.01860322365825469 1:0.5 2:0.875 3:1.0 4:1.0 5:0.6875 6:0.6875 7:0.875 8:0.625 9:0.4375 10:0.75 11:0.6875 12:0.125 13:0.0625 14:0.4375 15:0.25 16:0.5 17:0.5 18:0.8125 19:0.5625 20:0.5 21:0.375 
-0.026086741990722143 1:0.5 2:0.5 3:0.6875 4:0.8125 5:0.4375 6:1.0 7:0.5 8:0.4375 9:0.4375 10:0.25 11:0.5 12:0.9375 13:0.5 14:0.3125 15:1.0 16:0.25 17:0.25 18:0.625 19:0.4375 20:0.9375 21:0.6875 
-0.17118259863256238 1:0.75 2:0.625 3:0.625 4:0.4375 5:0.0 6:0.125 7:0.4375 8:0.6875 9:0.375 10:0.25 11:0.125 12:0.9375 13:0.625 14:0.0625 15:0.375 16:0.5 17:0.0625 18:0.0 19:0.0625 20:0.4375 21:0.4375 
-0.10699165387385623 1:1.0 2:0.625 3:1.0 4:0.9375 5:0.5 6:1.0 7:0.4375 8:0.1875 9:0.25 10:0.1875 11:0.5 12:0.875 13:0.875 14:0.5 15:0.8125 16:0.5625 17:0.1875 18:0.8125 19:0.4375 20:0.875 21:0.875 
-0.022660876650755245 1:1.0 2:0.8125 3:0.5625 4:0.9375 5:0.5 6:1.0 7:0.1875 8:0.3125 9:0.4375 10:0.125 11:0.4375 12:0.125 13:0.8125 14:0.1875 15:0.125 16:0.9375 17:0.5 18:0.5 19:0.125 20:0.5 21:0.5625 
0.2413137324330824 1:0.5 2:0.9375 3:0.75 4:0.25 5:0.0 6:0.3125 7:0.625 8:0.875 9:0.375 10:0.5 11:0.1875 12:0.375 13:0.125 14:0.1875 15:0.0625 16:0.0625 17:0.0 18:0.125 19:0.5 20:0.75 21:0.3125 
-0.037381522725425796 1:0.375 2:0.5 3:0.1875 4:0.375 5:0.25 6:0.25 7:0.8125 8:0.5 9:0.5 10:0.5 11:0.625 12:0.4375 13:0.3125 14:0.375 15:0.0625 16:0.875 17:0.3125 18:0.375 19:0.4375 20:0.125 21:0.3125 
0.05023247713135861 1:0.6875 2:0.75 3:1.0 4:0.5625 5:0.875 6:0.8125 7:0.25 8:0.1875 9:0.0625 10:0.5625 11:0.375 12:0.5 13:0.125 14:0.875 15:0.375 16:0.25 17:0.8125 18:0.3125 19:0.8125 20:0.625 21:0.3125 
-0.029519496854897864 1:0.4375 2:0.4375 3:0.375 4:0.4375 5:0.0625 6:0.1875 7:0.4375 8:0.1875 9:0.4375 10:0.0 11:0.0625 12:0.25 13:0.0625 14:0.4375 15:0.0625 16:0.5625 17:0.5 18:0.0 19:0.1875 20:0.25 21:0.25 
0.07965761992609378 1:0.8125 2:0.625 3:0.75 4:0.9375 5:0.6875 6:0.875 7:0.375 8:0.5625 9:0.4375 10:0.0 11:0.375 12:0.625 13:0.3125 14:0.0 15:0.75 16:0.0625 17:0.0 18:0.5 19:0.3125 20:0.75 21:1.0 
0.4048388418243603 1:0.5625 2:0.125 3:0.1875 4:0.3125 5:0.1875 6:0.125 7:0.125 8:0.125 9:0.1875 10:0.625 11:0.1875 12:0.375 13:0.3125 14:0.625 15:0.5 16:0.5625 17:0.9375 18:0.4375 19:0.5625 20:0.5625 21:0.375 
-0.34859141036504426 1:0.0 2:0.0625 3:0.4375 4:0.3125 5:0.375 6:0.1875 7:0.3125 8:0.625 9:0.625 10:0.5 11:0.3125 12:1.0 13:1.0 14:0.75 15:0.8125 16:0.0 17:0.5 18:0.3125 19:0.75 20:0.4375 21:0.375 
0.43248066354561926 1:0.8125 2:0.375 3:0.25 4:0.625 5:0.375 6:0.3125 7:0.0625 8:0.25 9:0.4375 10:0.25 11:0.3125 12:0.75 13:0.75 14:0.5625 15:0.625 16:0.5625 17:0.5625 18:0.0625 19:0.5 20:0.4375 21:0.5 
0.023299506055277804 1:0.5625 2:1.0 3:0.125 4:0.375 5:0.9375 6:0.5 7:0.5625 8:0.0 9:0.0 10:0.5625 11:0.125 12:0.25 13:0.1875 14:0.8125 15:0.0 16:0.5 17:0.875 18:0.5 19:0.5625 20:0.5625 21:0.1875 
-0.22186258499368264 1:0.75 2:0.0625 3:0.625 4:0.625 5:0.5 6:0.75 7:0.1875 8:0.375 9:0.0625 10:0.5 11:0.4375 12:0.5 13:0.9375 14:0.75 15:0.8125 16:0.5 17:0.4375 18:0.625 19:0.5 20:0.6875 21:0.5 
0.03889235790563568 1:0.125 2:0.5625 3:0.3125 4:0.0625 5:0.5 6:0.75 7:1.0 8:0.5 9:0.5625 10:0.6875 11:1.0 12:0.0 13:0.0 14:0.25 15:0.0625 16:1.0 17:0.8125 18:0.9375 19:0.875 20:0.5625 21:0.5 
-0.11526733638132246 1:0.4375 2:0.3125 3:0.8125 4:0.0 5:0.375 6:0.625 7:1.0 8:0.9375 9:0.5625 10:0.5625 11:0.75 12:1.0 13:0.5 14:0.625 15:0.75 16:0.125 17:0.1875 18:0.5625 19:0.75 20:0.75 21:0.5625 
-0.24411809092099118 1:0.5625 2:0.0 3:0.375 4:0.25 5:0.1875 6:0.5 7:0.3125 8:0.5 9:0.5 10:0.0625 11:0.625 12:0.5 13:0.5 14:0.125 15:0.5 16:0.5625 17:0.5 18:0.875 19:0.3125 20:0.8125 21:0.8125 
-0.0846479434462426 1:0.5 2:0.6875 3:0.3125 4:0.9375 5:0.6875 6:0.875 7:0.5 8:0.4375 9:0.75 10:1.0 11:0.5625 12:0.0 13:0.6875 14:0.5 15:0.625 16:1.0 17:0.9375 18:0.9375 19:0.4375 20:0.375 21:0.125 
0.05452489770096848 1:0.5 2:0.4375 3:0.375 4:0.375 5:0.5 6:0.25 7:1.0 8:0.5625 9:0.5 10:0.6875 11:0.1875 12:0.5 13:0.25 14:0.5 15:0.125 16:0.6875 17:0.75 18:0.375 19:0.6875 20:0.125 21:0.0625 
0.19422731453957426 1:0.375 2:0.5625 3:0.5625 4:0.375 5:0.9375 6:0.5 7:0.5 8:1.0 9:0.4375 10:1.0 11:0.875 12:0.625 13:0.3125 14:0.6875 15:0.4375 16:0.1875 17:0.625 18:0.8125 19:1.0 20:0.75 21:0.4375 
-0.5339319752036131 1:0.0625 2:0.125 3:0.1875 4:0.0625 5:0.1875 6:0.0 7:0.3125 8:0.5 9:0.5625 10:0.6875 11:0.875 12:0.6875 13:0.6875 14:0.75 15:0.6875 16:0.5 17:0.375 18:0.4375 19:0.125 20:0.5 21:0.75 
-0.32684603473796286 1:0.625 2:0.8125 3:0.625 4:1.0 5:0.1875 6:0.625 7:0.875 8:0.6875 9:0.9375 10:0.0 11:0.5 12:0.0 13:0.5625 14:0.0 15:0.5 16:0.625 17:0.125 18:0.5625 19:0.0 20:0.3125 21:0.8125 
0.2922333354455704 1:0.3125 2:0.5625 3:0.5 4:0.75 5:0.625 6:0.8125 7:0.8125 8:0.6875 9:0.8125 10:0.8125 11:0.75 12:0.5625 13:0.5625 14:0.625 15:0.5625 16:0.6875 17:0.625 18:0.375 19:0.125 20:0.5 21:0.3125 
0.1976856855504009 1:0.5 2:0.375 3:0.5 4:0.5 5:0.3125 6:0.8125 7:0.5625 8:0.5 9:0.375 10:0.625 11:0.9375 12:0.625 13:0.4375 14:0.5625 15:0.875 16:0.375 17:0.625 18:0.5 19:0.625 20:1.0 21:0.75 
-0.4130621609967089 1:0.375 2:0.25 3:0.5 4:0.375 5:1.0 6:0.625 7:1.0 8:0.875 9:0.75 10:0.875 11:0.8125 12:0.625 13:0.5 14:0.875 15:0.8125 16:0.0625 17:0.8125 18:0.5625 19:0.6875 20:0.5 21:0.5 
0.15147464740021235 1:0.375 2:0.5 3:0.125 4:0.25 5:0.375 6:0.875 7:0.6875 8:0.6875 9:0.5 10:0.5625 11:0.9375 12:0.5 13:0.1875 14:0.1875 15:0.5625 16:0.1875 17:0.4375 18:1.0 19:0.625 20:0.75 21:0.875 
0.4259765096236067 1:0.1875 2:0.1875 3:0.6875 4:0.3125 5:0.3125 6:0.4375 7:0.875 8:0.9375 9:0.75 10:0.9375 11:0.5 12:1.0 13:0.6875 14:1.0 15:0.5 16:0.375 17:0.4375 18:0.0 19:0.5625 20:0.4375 21:0.25 
-0.2805405160622162 1:0.9375 2:0.625 3:0.9375 4:0.4375 5:0.8125 6:0.5 7:0.5 8:0.8125 9:0.125 10:0.5625 11:0.0625 12:0.4375 13:0.4375 14:0.8125 15:0.0 16:0.1875 17:0.4375 18:0.0 19:0.6875 20:0.625 21:0.1875 
-0.21872576025531457 1:0.5625 2:0.5 3:0.625 4:0.4375 5:0.8125 6:0.5625 7:0.25 8:0.5 9:0.4375 10:0.6875 11:0.0625 12:0.625 13:0.375 14:0.625 15:0.375 16:0.375 17:0.625 18:0.0 19:0.6875 20:0.8125 21:0.375 
-0.2401872194221751 1:0.4375 2:0.3125 3:0.875 4:0.9375 5:0.4375 6:0.625 7:0.5 8:0.875 9:0.5 10:0.375 11:0.8125 12:0.8125 13:0.9375 14:0.875 15:1.0 16:0.625 17:0.0625 18:0.625 19:0.3125 20:0.5 21:0.875 
-0.05554040922558083 1:0.5625 2:0.8125 3:0.5625 4:0.1875 5:0.8125 6:1.0 7:0.8125 8:0.5 9:0.1875 10:0.8125 11:0.875 12:0.1875 13:0.125 14:0.125 15:0.1875 16:0.0625 17:0.4375 18:0.8125 19:0.9375 20:0.9375 21:0.5 
0.0692671816457979 1:0.625 2:0.1875 3:0.5625 4:0.8125 5:0.75 6:0.0 7:0.3125 8:0.5 9:0.5625 10:0.75 11:0.0625 12:0.8125 13:0.75 14:0.875 15:0.5 16:0.75 17:0.5 18:0.0625 19:0.25 20:0.0625 21:0.375 
-0.267624899592962 1:0.4375 2:0.375 3:0.3125 4:0.125 5:0.0 6:0.375 7:0.1875 8:0.3125 9:0.0625 10:0.0625 11:0.3125 12:0.5625 13:0.1875 14:0.5 15:0.875 16:0.4375 17:0.375 18:0.8125 19:0.25 20:0.625 21:0.875 
1.0 1:0.75 2:0.5 3:0.75 4:0.625 5:0.75 6:0.4375 7:0.0625 8:0.8125 9:0.375 10:0.6875 11:0.1875 12:0.625 13:0.4375 14:0.8125 15:0.25 16:0.125 17:0.4375 18:0.3125 19:0.6875 20:0.5 21:0.125 
0.07800104237928006 1:0.5 2:0.4375 3:0.625 4:0.75 5:1.0 6:0.5625 7:0.625 8:0.9375 9:0.8125 10:0.6875 11:0.6875 12:0.75 13:0.8125 14:0.875 15:0.8125 16:0.0625 17:0.625 18:0.3125 19:0.8125 20:0.5 21:0.3125 
0.07958946880238231 1:0.375 2:0.25 3:0.875 4:0.5 5:0.0 6:0.5625 7:0.5 8:0.9375 9:1.0 10:0.8125 11:1.0 12:0.75 13:1.0 14:0.5 15:0.8125 16:0.375 17:0.25 18:0.5 19:0.0 20:0.5 21:0.5625 
-0.833622874856143 1:0.9375 2:0.5625 3:0.875 4:0.5 5:0.9375 6:0.5 7:0.4375 8:0.5 9:0.4375 10:0.625 11:0.5625 12:0.8125 13:0.625 14:0.5 15:0.4375 16:0.4375 17:0.5 18:0.375 19:0.8125 20:0.25 21:0.375 
0.43401704042611067 1:0.3125 2:0.0 3:0.4375 4:0.0 5:0.25 6:0.0625 7:0.4375 8:0.625 9:0.625 10:0.9375 11:0.75 12:0.5625 13:0.625 14:0.9375 15:0.4375 16:0.4375 17:0.5 18:0.375 19:0.5 20:0.5 21:0.25 
-0.28029754362357906 1:0.375 2:0.875 3:0.5625 4:0.5 5:0.9375 6:0.875 7:1.0 8:0.75 9:0.5 10:0.8125 11:0.6875 12:0.3125 13:0.0 14:0.0 15:0.5625 16:0.6875 17:0.625 18:0.5625 19:0.5625 20:0.6875 21:0.6875 
0.16367072841173114 1:0.375 2:0.5 3:0.375 4:0.0 5:0.0625 6:0.3125 7:0.9375 8:0.8125 9:0.0625 10:0.5 11:0.5625 12:0.4375 13:0.125 14:0.25 15:0.25 16:0.25 17:0.3125 18:0.625 19:0.625 20:0.625 21:1.0 
-0.04034322294036777 1:0.8125 2:0.4375 3:0.5625 4:0.125 5:0.5 6:0.8125 7:0.3125 8:0.25 9:0.25 10:0.0 11:0.5 12:0.75 13:0.625 14:0.5 15:0.75 16:0.125 17:0.0 18:0.3125 19:0.5 20:0.875 21:0.9375 
-0.286752750384839 1:0.9375 2:1.0 3:1.0 4:0.625 5:0.9375 6:0.8125 7:0.75 8:0.5 9:0.5 10:0.5 11:0.4375 12:0.5 13:0.3125 14:0.375 15:0.5 16:0.5 17:0.1875 18:0.1875 19:0.0625 20:0.3125 21:0.5625 
-0.7059580852575719 1:0.625 2:0.5 3:0.6875 4:1.0 5:0.5 6:0.5 7:0.625 8:0.5 9:0.8125 10:0.5 11:0.5 12:0.625 13:0.5625 14:0.6875 15:0.4375 16:0.5 17:0.5 18:0.1875 19:0.375 20:0.125 21:0.0 
0.0026527571640555443 1:0.375 2:0.375 3:0.0625 4:0.5625 5:0.5 6:1.0 7:0.25 8:0.0 9:0.6875 10:0.875 11:1.0 12:0.4375 13:0.6875 14:0.75 15:0.625 16:0.875 17:0.8125 18:0.75 19:0.75 20:0.5625 21:0.5 
0.8477549568125651 1:0.75 2:0.5 3:0.375 4:0.5 5:0.625 6:0.625 7:0.5 8:0.1875 9:0.375 10:0.6875 11:0.5625 12:0.5 13:0.625 14:0.9375 15:0.5 16:0.75 17:0.625 18:1.0 19:0.5625 20:0.875 21:0.5 
-0.1467651732635512 1:0.625 2:0.0 3:0.3125 4:0.375 5:0.125 6:0.3125 7:0.0625 8:0.0 9:0.25 10:0.4375 11:0.125 12:0.6875 13:1.0 14:0.5625 15:0.3125 16:1.0 17:0.625 18:0.4375 19:0.3125 20:0.3125 21:0.3125 
0.251988349436481 1:0.375 2:0.9375 3:0.875 4:0.8125 5:0.5625 6:0.8125 7:0.875 8:0.875 9:0.8125 10:0.6875 11:0.8125 12:0.625 13:0.875 14:0.25 15:0.75 16:0.4375 17:0.25 18:0.1875 19:0.5 20:0.5 21:0.5625 
0.6636829478898721 1:0.375 2:0.5 3:0.0 4:0.5625 5:0.0625 6:0.5 7:1.0 8:0.375 9:0.75 10:0.8125 11:0.875 12:0.1875 13:0.5625 14:0.5625 15:0.75 16:0.6875 17:0.625 18:0.6875 19:0.125 20:0.5 21:0.5625 
0.28380011001026667 1:0.3125 2:1.0 3:0.5625 4:0.375 5:0.75 6:0.5 7:0.9375 8:0.5 9:0.625 10:0.9375 11:0.6875 12:0.5 13:0.0625 14:0.4375 15:0.0 16:0.125 17:0.5625 18:0.375 19:0.875 20:0.3125 21:0.0 
-0.07280848620840527 1:0.3125 2:0.1875 3:0.625 4:0.4375 5:0.6875 6:0.8125 7:0.4375 8:0.6875 9:0.5625 10:0.875 11:0.5 12:0.875 13:0.5625 14:0.9375 15:0.6875 16:0.125 17:0.625 18:0.0625 19:0.6875 20:0.625 21:0.125 
-0.1456096620032546 1:0.9375 2:0.5 3:0.875 4:0.5 5:0.5625 6:0.6875 7:0.5 8:0.375 9:0.4375 10:0.5 11:0.625 12:0.5625 13:0.5 14:0.4375 15:0.875 16:0.125 17:0.25 18:0.6875 19:0.75 20:0.8125 21:0.5 
0.024193494607573224 1:0.875 2:0.8125 3:1.0 4:0.75 5:0.375 6:0.9375 7:0.3125 8:0.3125 9:0.5 10:0.0625 11:0.3125 12:1.0 13:0.6875 14:0.3125 15:0.75 16:0.375 17:0.0 18:0.625 19:0.1875 20:0.5 21:0.625 
0.10729788805105231 1:0.5 2:0.3125 3:0.3125 4:0.4375 5:0.0 6:0.1875 7:0.375 8:0.375 9:0.25 10:0.1875 11:0.125 12:0.5 13:0.4375 14:0.625 15:0.5625 16:0.6875 17:0.4375 18:0.3125 19:0.375 20:0.1875 21:0.3125 
-0.8457216353681338 1:0.6875 2:0.4375 3:0.9375 4:0.375 5:0.6875 6:0.3125 7:0.375 8:0.5 9:0.375 10:1.0 11:0.1875 12:0.5 13:0.5625 14:0.8125 15:0.4375 16:0.125 17:0.4375 18:0.25 19:0.75 20:0.5 21:0.0625 
0.1738935560457458 1:0.375 2:0.0625 3:0.0 4:0.3125 5:0.375 6:0.375 7:0.3125 8:0.4375 9:0.75 10:0.3125 11:0.5625 12:0.375 13:0.9375 14:0.4375 15:0.6875 16:1.0 17:0.875 18:1.0 19:0.1875 20:0.125 21:0.8125 
-0.6356624848837503 1:0.1875 2:0.5 3:0.375 4:0.3125 5:0.3125 6:0.625 7:1.0 8:0.875 9:0.5 10:0.5625 11:0.9375 12:0.375 13:0.5 14:0.25 15:0.6875 16:0.5625 17:0.6875 18:0.75 19:0.75 20:0.875 21:1.0 
0.5286836725489824 1:0.0625 2:0.0625 3:0.4375 4:0.3125 5:0.25 6:0.25 7:0.375 8:0.8125 9:0.4375 10:0.5625 11:0.5 12:0.6875 13:0.8125 14:0.625 15:0.5 16:0.3125 17:0.125 18:0.0 19:0.0625 20:0.0625 21:0.5 
0.2433390312622641 1:0.0 2:1.0 3:0.75 4:0.625 5:0.1875 6:0.5 7:0.9375 8:0.6875 9:0.8125 10:0.125 11:0.5625 12:0.3125 13:0.4375 14:0.0 15:0.3125 16:0.25 17:0.25 18:0.1875 19:0.125 20:0.4375 21:0.75 
-0.37878395166096124 1:0.4375 2:0.0 3:0.1875 4:0.375 5:0.4375 6:0.25 7:0.0 8:0.125 9:0.25 10:0.375 11:0.125 12:0.0 13:0.5625 14:0.5 15:0.5 16:0.625 17:0.875 18:0.5 19:0.75 20:0.5 21:0.4375 
0.26157309906262194 1:0.0 2:0.375 3:0.0 4:0.375 5:0.4375 6:0.0 7:0.375 8:0.25 9:0.3125 10:0.6875 11:0.4375 12:0.3125 13:0.4375 14:1.0 15:0.0625 16:0.8125 17:1.0 18:0.5 19:0.625 20:0.3125 21:0.125 
0.2741776028080685 1:0.3125 2:0.5 3:0.375 4:0.4375 5:0.1875 6:0.25 7:0.5 8:0.3125 9:0.75 10:0.5 11:0.9375 12:0.5 13:0.625 14:0.25 15:0.5 16:0.9375 17:0.3125 18:0.6875 19:0.0 20:0.5 21:0.9375 
-0.5781382727831776 1:0.375 2:0.3125 3:0.5625 4:0.4375 5:0.5625 6:0.625 7:0.625 8:0.5625 9:0.625 10:1.0 11:0.875 12:0.5625 13:0.625 14:0.5 15:0.9375 16:0.5 17:0.5 18:0.5625 19:0.125 20:0.75 21:0.9375 
0.0492457081253456 1:0.375 2:0.5 3:0.625 4:0.625 5:0.5 6:0.3125 7:0.9375 8:0.8125 9:0.9375 10:0.3125 11:0.5625 12:0.5 13:0.5 14:0.125 15:0.0 16:0.75 17:0.375 18:0.3125 19:0.25 20:0.3125 21:0.3125 
-0.17890686039157166 1:0.5 2:0.25 3:0.625 4:0.625 5:0.9375 6:0.5 7:0.5 8:1.0 9:0.875 10:0.5 11:0.5625 12:1.0 13:0.5625 14:0.5 15:0.6875 16:0.25 17:0.25 18:0.1875 19:0.375 20:0.4375 21:0.5 
0.7241408400058537 1:0.75 2:0.6875 3:0.4375 4:0.5 5:0.9375 6:0.25 7:0.5 8:0.25 9:0.5 10:0.6875 11:0.4375 12:0.125 13:0.25 14:0.5 15:0.4375 16:0.875 17:0.625 18:0.625 19:0.6875 20:0.3125 21:0.3125 
0.13203182605523692 1:0.5 2:0.875 3:0.125 4:0.875 5:1.0 6:0.4375 7:1.0 8:0.0625 9:0.875 10:0.875 11:0.4375 12:0.125 13:0.6875 14:0.625 15:0.375 16:1.0 17:0.8125 18:0.5 19:0.3125 20:0.0 21:0.3125 
0.11172852296214394 1:0.8125 2:0.5625 3:0.625 4:0.5625 5:0.75 6:0.0625 7:0.4375 8:0.25 9:0.5625 10:0.5 11:0.0625 12:0.4375 13:0.625 14:0.5625 15:0.0625 16:0.8125 17:0.75 18:0.5625 19:0.1875 20:0.0 21:0.0 
-0.14726000956439136 1:0.9375 2:0.9375 3:0.6875 4:1.0 5:0.75 6:0.375 7:0.375 8:0.4375 9:0.375 10:0.4375 11:0.0 12:0.5625 13:0.1875 14:0.5 15:0.375 16:0.125 17:0.25 18:0.1875 19:0.75 20:0.5 21:0.125 
-0.6213798186586033 1:0.125 2:0.4375 3:0.3125 4:0.3125 5:0.125 6:0.25 7:0.5 8:0.625 9:0.9375 10:0.5 11:0.6875 12:0.625 13:0.875 14:0.5625 15:0.3125 16:0.5625 17:0.4375 18:0.125 19:0.0625 20:0.4375 21:0.3125 
0.19627545873984217 1:0.5 2:0.9375 3:0.9375 4:0.75 5:0.8125 6:0.875 7:0.3125 8:0.5 9:0.875 10:0.5625 11:0.9375 12:0.5 13:1.0 14:0.6875 15:0.8125 16:0.9375 17:0.5 18:0.75 19:0.375 20:0.4375 21:0.5 
-0.011898279314833048 1:0.375 2:0.5 3:0.5 4:0.5 5:0.25 6:0.0 7:0.25 8:0.5 9:0.5 10:0.3125 11:0.4375 12:0.5625 13:0.5 14:0.1875 15:0.5 16:0.625 17:0.375 18:0.0625 19:0.3125 20:0.25 21:0.25 
-0.1897576962947837 1:0.9375 2:0.0625 3:0.5 4:0.375 5:0.625 6:0.0625 7:0.0 8:0.1875 9:0.4375 10:0.625 11:0.25 12:0.8125 13:0.9375 14:1.0 15:0.5 16:0.375 17:1.0 18:0.125 19:1.0 20:0.0 21:0.125 
0.13390145959278138 1:0.4375 2:0.0625 3:0.1875 4:0.5 5:0.5625 6:0.8125 7:0.5625 8:0.375 9:0.4375 10:1.0 11:0.8125 12:0.5 13:0.75 14:1.0 15:1.0 16:0.8125 17:0.6875 18:1.0 19:0.875 20:1.0 21:0.5 
0.10538149496643441 1:0.0 2:0.125 3:0.3125 4:0.0625 5:0.875 6:0.625 7:0.5625 8:0.5 9:0.1875 10:0.8125 11:0.6875 12:0.25 13:0.5 14:0.75 15:0.8125 16:0.625 17:0.8125 18:1.0 19:1.0 20:0.75 21:0.375 
-0.08133192409202453 1:0.0625 2:0.5 3:0.375 4:0.1875 5:0.25 6:0.25 7:0.6875 8:1.0 9:0.4375 10:0.3125 11:0.5 12:0.4375 13:0.0 14:0.3125 15:0.625 16:0.375 17:0.0625 18:0.3125 19:0.3125 20:0.6875 21:0.625 
-0.030233034711898275 1:0.4375 2:0.0625 3:0.625 4:0.3125 5:0.625 6:0.5 7:0.375 8:0.8125 9:0.5625 10:1.0 11:0.5625 12:0.75 13:0.8125 14:0.75 15:0.5625 16:0.125 17:0.375 18:0.1875 19:0.9375 20:0.25 21:0.125 
0.2416268321096361 1:0.8125 2:0.875 3:0.75 4:0.5625 5:0.6875 6:0.9375 7:0.625 8:0.4375 9:0.0625 10:0.5625 11:0.5 12:0.5 13:0.0625 14:0.4375 15:0.375 16:0.375 17:0.5625 18:0.4375 19:0.5625 20:0.625 21:0.125 
-0.40332657798043525 1:0.375 2:0.375 3:0.6875 4:0.4375 5:0.125 6:0.125 7:0.625 8:0.8125 9:0.5 10:0.5 11:0.4375 12:0.5 13:0.0625 14:0.25 15:0.3125 16:0.1875 17:0.0625 18:0.25 19:0.0625 20:0.5625 21:0.75 
0.44861631447144995 1:0.5 2:0.25 3:0.4375 4:0.5 5:0.5 6:0.375 7:0.5 8:0.375 9:0.5 10:0.5625 11:0.5 12:0.375 13:0.5625 14:0.5 15:0.3125 16:0.625 17:0.625 18:0.625 19:0.5 20:0.5 21:0.6875 
-0.44516321574377604 1:0.5 2:0.4375 3:0.9375 4:0.75 5:0.75 6:0.3125 7:0.6875 8:1.0 9:1.0 10:0.625 11:0.5 12:0.5625 13:0.5625 14:0.4375 15:0.125 16:0.25 17:0.125 18:0.1875 19:0.4375 20:0.4375 21:0.125 
0.16625781485114705 1:0.3125 2:0.6875 3:0.25 4:0.75 5:0.5 6:0.25 7:0.8125 8:0.8125 9:1.0 10:0.6875 11:0.625 12:0.4375 13:0.5625 14:0.3125 15:0.125 16:0.75 17:0.5625 18:0.5 19:0.4375 20:0.1875 21:0.0 
0.32452708673711184 1:0.875 2:0.5625 3:0.75 4:0.6875 5:0.5 6:0.5 7:0.4375 8:0.25 9:0.5 10:0.125 11:0.5 12:0.5 13:0.5 14:0.5 15:0.625 16:0.5 17:0.3125 18:0.3125 19:0.375 20:0.25 21:0.625 
0.21461963817612553 1:0.4375 2:0.25 3:0.5 4:0.4375 5:1.0 6:0.3125 7:0.3125 8:0.6875 9:0.6875 10:0.75 11:0.4375 12:0.8125 13:0.6875 14:1.0 15:0.3125 16:0.375 17:1.0 18:0.375 19:0.875 20:0.3125 21:0.25 
0.12963644224691337 1:0.75 2:0.8125 3:0.6875 4:1.0 5:0.75 6:0.5625 7:0.625 8:0.5 9:0.9375 10:0.375 11:0.875 12:0.0625 13:0.4375 14:0.0 15:0.25 16:0.875 17:0.125 18:0.4375 19:0.0625 20:0.3125 21:0.625 
0.7019004504712952 1:0.3125 2:0.125 3:0.1875 4:0.375 5:0.125 6:0.0625 7:0.125 8:0.0625 9:0.5625 10:0.5625 11:0.125 12:0.3125 13:1.0 14:1.0 15:0.5625 16:1.0 17:0.6875 18:0.3125 19:0.5 20:0.25 21:0.0 
0.1769522448500999 1:1.0 2:0.5 3:0.625 4:0.5 5:0.4375 6:1.0 7:0.625 8:0.5625 9:0.3125 10:0.0625 11:0.5 12:0.375 13:0.0625 14:0.25 15:0.625 16:0.3125 17:0.4375 18:0.625 19:0.1875 20:0.625 21:0.875 
-0.11391009146275743 1:0.5 2:0.4375 3:0.6875 4:0.875 5:0.5 6:0.375 7:0.0625 8:0.3125 9:0.375 10:0.375 11:0.1875 12:0.75 13:0.75 14:0.4375 15:0.1875 16:0.5 17:0.3125 18:0.125 19:0.1875 20:0.1875 21:0.375 
-0.7861752976406221 1:0.625 2:0.4375 3:0.375 4:0.875 5:0.5625 6:0.6875 7:0.4375 8:0.1875 9:0.4375 10:0.625 11:0.3125 12:0.6875 13:0.9375 14:0.625 15:0.6875 16:0.875 17:0.5625 18:0.75 19:0.5 20:0.4375 21:0.1875 
0.24793196785524427 1:0.875 2:0.625 3:0.5 4:0.5 5:0.375 6:0.875 7:0.5625 8:0.125 9:0.375 10:0.5 11:0.5 12:0.0 13:0.5 14:0.0625 15:0.5 16:0.5 17:0.5625 18:0.75 19:0.5 20:0.6875 21:0.9375 
0.37375881087220625 1:0.3125 2:0.4375 3:0.625 4:0.5 5:0.1875 6:0.25 7:0.5625 8:0.75 9:0.5 10:0.0625 11:0.6875 12:0.8125 13:0.75 14:0.3125 15:0.75 16:0.5 17:0.125 18:0.5 19:0.3125 20:0.4375 21:0.75 
0.14441354856360578 1:0.25 2:0.75 3:0.6875 4:0.5625 5:0.3125 6:0.5625 7:0.6875 8:0.875 9:0.5625 10:0.6875 11:0.6875 12:0.4375 13:0.5 14:0.4375 15:0.375 16:0.4375 17:0.4375 18:0.5 19:0.5625 20:0.8125 21:0.8125 
0.21141332775676872 1:0.3125 2:0.5 3:0.25 4:0.75 5:0.4375 6:0.125 7:0.6875 8:0.5625 9:1.0 10:0.8125 11:0.9375 12:0.1875 13:0.875 14:0.3125 15:0.125 16:0.8125 17:0.625 18:0.5 19:0.375 20:0.1875 21:0.3125 
0.013389763498059001 1:0.4375 2:0.8125 3:0.4375 4:0.4375 5:0.5 6:0.5 7:0.9375 8:0.5 9:0.625 10:0.4375 11:0.5 12:0.125 13:0.125 14:0.1875 15:0.0 16:0.25 17:0.5 18:0.5625 19:0.75 20:0.4375 21:0.25 
-0.013682736634653643 1:0.25 2:0.4375 3:0.25 4:0.5 5:0.0625 6:0.5 7:0.5 8:0.6875 9:0.5625 10:0.25 11:0.8125 12:0.6875 13:0.625 14:0.0625 15:0.75 16:0.5 17:0.0 18:0.5 19:0.125 20:0.0625 21:0.8125 
-0.05242958053478832 1:1.0 2:0.625 3:0.3125 4:0.4375 5:0.5 6:0.1875 7:0.5 8:0.0 9:0.5 10:0.3125 11:0.125 12:0.0 13:0.375 14:0.4375 15:0.125 16:0.75 17:0.75 18:0.25 19:0.1875 20:0.4375 21:0.3125 
0.005009253849605048 1:0.0 2:0.4375 3:0.0625 4:0.3125 5:0.3125 6:0.375 7:1.0 8:0.4375 9:0.8125 10:0.6875 11:0.9375 12:0.25 13:0.5 14:0.5 15:0.75 16:0.5 17:0.875 18:1.0 19:0.375 20:0.625 21:0.5 
-0.03164209473165164 1:0.6875 2:0.5 3:0.75 4:0.75 5:0.4375 6:1.0 7:0.1875 8:0.5 9:0.4375 10:0.1875 11:0.25 12:1.0 13:0.5 14:0.375 15:0.5625 16:0.3125 17:0.0625 18:0.625 19:0.375 20:0.75 21:1.0 
-0.5421147614611479 1:0.125 2:0.4375 3:0.25 4:0.5 5:0.4375 6:0.5 7:0.75 8:0.6875 9:0.75 10:0.9375 11:0.625 12:0.3125 13:0.8125 14:0.75 15:0.625 16:0.625 17:0.875 18:0.5 19:0.8125 20:0.25 21:0.375 
0.10585946353880966 1:0.5 2:0.4375 3:0.125 4:0.6875 5:0.5 6:0.375 7:0.5 8:0.0 9:0.5625 10:0.625 11:0.5 12:0.1875 13:0.5 14:0.5 15:0.1875 16:0.8125 17:1.0 18:0.5625 19:0.0 20:0.5 21:0.4375 
-0.2787521241214753 1:0.125 2:0.5 3:0.875 4:0.625 5:0.5625 6:0.8125 7:0.75 8:0.8125 9:0.8125 10:0.5 11:1.0 12:0.875 13:0.875 14:0.75 15:0.875 16:0.5 17:0.5 18:0.8125 19:0.4375 20:0.75 21:1.0 
0.8764133453211258 1:0.0 2:0.375 3:0.25 4:0.25 5:0.5 6:0.5 7:0.75 8:0.875 9:0.6875 10:0.6875 11:0.5 12:0.3125 13:0.5 14:0.5 15:0.4375 16:0.75 17:0.8125 18:0.8125 19:0.625 20:0.5625 21:0.5 
0.28049992581584293 1:0.1875 2:0.1875 3:0.1875 4:0.0625 5:0.3125 6:0.125 7:0.6875 8:0.625 9:0.5 10:0.6875 11:0.4375 12:0.8125 13:0.25 14:0.75 15:0.5 16:0.1875 17:0.9375 18:0.375 19:0.8125 20:0.8125 21:0.0 
-0.037789417151270065 1:0.25 2:0.0 3:0.4375 4:0.125 5:0.375 6:0.4375 7:0.5625 8:1.0 9:0.5625 10:0.625 11:0.4375 12:0.8125 13:0.9375 14:0.8125 15:0.4375 16:0.3125 17:0.4375 18:0.125 19:0.5 20:0.5 21:0.125 
0.2231698322140287 1:0.5 2:0.625 3:0.625 4:0.5 5:1.0 6:0.625 7:0.625 8:0.8125 9:0.5 10:0.75 11:1.0 12:1.0 13:0.375 14:0.6875 15:0.8125 16:0.1875 17:0.25 18:0.5625 19:0.6875 20:0.625 21:0.5 
0.1350628716884197 1:0.375 2:0.6875 3:0.5 4:0.0625 5:0.5625 6:0.5625 7:1.0 8:0.8125 9:0.6875 10:0.75 11:0.75 12:0.3125 13:0.1875 14:0.4375 15:0.5 16:0.5625 17:0.8125 18:0.6875 19:0.5625 20:0.4375 21:0.375 
0.38505242278782387 1:0.9375 2:0.6875 3:0.8125 4:0.6875 5:1.0 6:0.8125 7:0.125 8:0.5 9:0.0625 10:0.3125 11:0.375 12:0.625 13:0.5625 14:0.6875 15:0.625 16:0.4375 17:0.6875 18:0.6875 19:0.5 20:0.8125 21:1.0 
-0.23359634435230964 1:0.0 2:0.5 3:0.3125 4:0.75 5:0.4375 6:0.25 7:0.5 8:0.5 9:1.0 10:0.5 11:0.5625 12:0.5 13:0.5 14:0.0625 15:0.25 16:1.0 17:0.5 18:0.4375 19:0.375 20:0.1875 21:0.6875 
-0.007783727822875343 1:0.875 2:0.625 3:0.5 4:1.0 5:0.375 6:0.5625 7:0.125 8:0.3125 9:0.375 10:0.25 11:0.375 12:0.4375 13:0.5 14:0.1875 15:0.5 16:0.75 17:0.25 18:0.125 19:0.25 20:0.375 21:0.5 
-0.041722917271490884 1:0.8125 2:0.9375 3:0.25 4:0.6875 5:0.625 6:0.25 7:0.5 8:0.0625 9:0.875 10:0.625 11:0.3125 12:0.375 13:1.0 14:0.4375 15:0.0 16:0.8125 17:0.8125 18:0.4375 19:0.4375 20:0.0625 21:0.1875 
0.20338990185369135 1:0.125 2:1.0 3:0.6875 4:0.625 5:0.4375 6:0.625 7:0.9375 8:0.5625 9:0.5 10:0.5 11:0.625 12:0.5 13:0.5 14:0.0625 15:0.5 16:0.5 17:0.4375 18:0.6875 19:0.0 20:0.875 21:0.875 
-0.389206012508051 1:0.4375 2:0.75 3:0.5625 4:0.625 5:0.5 6:0.5 7:0.9375 8:0.5 9:0.5625 10:0.875 11:0.125 12:0.375 13:0.375 14:0.0625 15:0.125 16:0.3125 17:0.5 18:0.4375 19:0.4375 20:0.4375 21:0.25 
-0.4033385070238673 1:0.5625 2:0.75 3:0.5 4:0.75 5:0.375 6:0.6875 7:0.5 8:0.6875 9:0.875 10:0.3125 11:0.5 12:0.1875 13:0.625 14:0.4375 15:0.375 16:0.875 17:0.25 18:0.625 19:0.3125 20:0.3125 21:0.75 
-0.8885901009054773 1:0.0625 2:0.4375 3:0.8125 4:0.875 5:0.625 6:0.3125 7:0.375 8:0.6875 9:0.875 10:0.8125 11:0.5 12:0.5 13:0.8125 14:0.875 15:0.5625 16:0.5625 17:0.5 18:0.375 19:0.25 20:0.125 21:0.25 
0.2517174397061757 1:0.6875 2:0.625 3:0.6875 4:0.5 5:0.8125 6:0.375 7:0.75 8:0.5 9:0.375 10:0.5 11:0.5 12:0.375 13:0.0 14:0.4375 15:0.0625 16:0.0 17:0.25 18:0.0625 19:0.75 20:0.8125 21:0.5 
0.09388213530194324 1:0.9375 2:0.625 3:1.0 4:0.5 5:0.875 6:0.3125 7:0.4375 8:0.25 9:0.0625 10:0.3125 11:0.375 12:0.5625 13:0.1875 14:0.75 15:0.5 16:0.125 17:0.5625 18:0.4375 19:1.0 20:0.75 21:0.25 
0.3838063286321035 1:0.5625 2:0.6875 3:1.0 4:0.0625 5:0.9375 6:0.5625 7:0.5 8:0.625 9:0.3125 10:0.5 11:0.3125 12:0.75 13:0.25 14:0.5 15:0.5 16:0.25 17:0.5 18:0.5 19:0.75 20:0.8125 21:0.5 
0.23631769384970552 1:0.5625 2:0.875 3:0.8125 4:0.75 5:1.0 6:1.0 7:1.0 8:0.5 9:0.5625 10:0.875 11:0.875 12:0.25 13:0.4375 14:0.4375 15:0.1875 16:0.125 17:0.75 18:0.5 19:0.8125 20:0.5625 21:0.5625 
-0.12679884951151632 1:0.6875 2:0.75 3:0.9375 4:0.75 5:0.375 6:0.9375 7:0.875 8:0.875 9:0.5 10:0.375 11:0.4375 12:0.3125 13:0.0625 14:0.1875 15:0.375 16:0.0625 17:0.25 18:0.5 19:0.375 20:0.9375 21:0.625 
-0.2817061411424836 1:0.0 2:0.625 3:0.25 4:0.0 5:0.0625 6:0.0625 7:0.8125 8:0.75 9:0.0625 10:0.3125 11:0.125 12:0.375 13:0.0625 14:0.25 15:0.125 16:0.1875 17:0.375 18:0.1875 19:0.4375 20:0.4375 21:0.6875 
0.20479276897826462 1:0.75 2:0.75 3:0.625 4:0.625 5:0.875 6:0.5 7:0.6875 8:0.875 9:0.125 10:0.5 11:0.4375 12:0.5 13:0.25 14:0.0625 15:0.4375 16:0.375 17:0.3125 18:0.0 19:0.625 20:0.375 21:0.1875 
0.16496879110340465 1:0.25 2:0.25 3:0.0625 4:0.375 5:0.0625 6:0.375 7:0.3125 8:0.8125 9:0.5625 10:0.5625 11:1.0 12:0.75 13:0.6875 14:0.5 15:0.5625 16:0.4375 17:0.0 18:0.5 19:0.1875 20:0.625 21:0.5625 
0.05656523493061687 1:0.5 2:0.1875 3:0.5 4:0.5 5:0.5 6:0.375 7:0.0625 8:0.375 9:0.8125 10:0.1875 11:0.1875 12:0.6875 13:0.9375 14:0.9375 15:0.4375 16:0.625 17:0.5625 18:0.375 19:0.5 20:0.25 21:0.4375 
0.48132796045995924 1:0.25 2:0.375 3:0.25 4:0.5 5:0.0625 6:0.5625 7:0.4375 8:0.5625 9:0.875 10:0.125 11:0.5625 12:0.4375 13:0.875 14:0.375 15:0.5625 16:0.625 17:0.5625 18:0.6875 19:0.1875 20:0.625 21:0.8125 
0.2587148826530522 1:0.5 2:0.1875 3:0.3125 4:0.5625 5:0.375 6:0.1875 7:0.125 8:0.0 9:0.1875 10:0.0625 11:0.25 12:0.5625 13:0.8125 14:0.9375 15:0.9375 16:0.5625 17:0.5 18:0.5 19:0.5 20:0.125 21:0.4375 
-0.1372716894769977 1:0.4375 2:0.1875 3:0.0625 4:0.75 5:0.25 6:0.5 7:0.125 8:0.625 9:0.6875 10:0.5 11:0.5625 12:0.75 13:1.0 14:0.6875 15:0.75 16:0.6875 17:0.0 18:0.6875 19:0.1875 20:0.3125 21:0.9375 
0.24741694572090414 1:0.5 2:1.0 3:0.6875 4:0.875 5:0.25 6:0.3125 7:0.875 8:0.75 9:0.625 10:0.5 11:0.3125 12:0.4375 13:0.4375 14:0.1875 15:0.0 16:0.5 17:0.125 18:0.4375 19:0.125 20:0.375 21:0.625 
-0.36116162376701066 1:0.25 2:0.125 3:0.6875 4:0.6875 5:0.8125 6:0.0625 7:0.375 8:0.875 9:0.6875 10:0.9375 11:0.375 12:0.9375 13:0.6875 14:0.9375 15:0.5 16:0.1875 17:0.0625 18:0.0625 19:0.375 20:0.3125 21:0.25 
0.003524066667185067 1:0.875 2:0.25 3:0.625 4:0.4375 5:0.625 6:0.625 7:0.25 8:0.5625 9:0.25 10:0.4375 11:0.125 12:0.6875 13:0.5 14:0.9375 15:0.5 16:0.125 17:0.5 18:0.1875 19:0.75 20:1.0 21:0.375 
-0.02995782373428643 1:0.1875 2:0.125 3:0.0625 4:0.4375 5:0.5625 6:0.0625 7:0.6875 8:0.5 9:0.625 10:0.6875 11:0.75 12:0.5 13:0.875 14:0.625 15:0.9375 16:0.6875 17:0.75 18:0.8125 19:0.625 20:0.4375 21:0.25 
-0.27634498584499084 1:0.8125 2:0.3125 3:0.4375 4:0.5 5:0.5 6:0.5 7:0.0 8:0.125 9:0.375 10:0.0625 11:0.375 12:0.625 13:0.75 14:0.9375 15:1.0 16:0.9375 17:0.5 18:0.25 19:0.5 20:0.25 21:0.375 
0.11127230533945096 1:0.25 2:0.0 3:0.0 4:1.0 5:0.5625 6:0.375 7:1.0 8:0.5625 9:0.9375 10:0.875 11:0.625 12:0.5 13:0.9375 14:0.75 15:0.5 16:0.6875 17:0.6875 18:0.3125 19:0.375 20:0.1875 21:0.25 
0.14725099218456142 1:0.25 2:0.125 3:0.25 4:0.25 5:0.0625 6:0.25 7:0.1875 8:0.125 9:0.5625 10:0.1875 11:0.5 12:0.0625 13:0.9375 14:0.5 15:0.375 16:0.75 17:0.625 18:0.75 19:0.375 20:0.0625 21:0.5 
0.16691763847723426 1:0.0 2:0.3125 3:0.5625 4:0.4375 5:0.0 6:0.0 7:0.5625 8:0.5 9:0.875 10:0.75 11:0.5 12:0.5625 13:0.8125 14:0.5 15:0.4375 16:0.875 17:0.5 18:0.25 19:0.25 20:0.0 21:0.1875 
0.08489201057770922 1:1.0 2:0.8125 3:0.75 4:1.0 5:0.9375 6:0.5625 7:0.375 8:0.4375 9:0.125 10:0.625 11:0.25 12:0.375 13:0.125 14:0.5625 15:0.25 16:0.25 17:1.0 18:0.4375 19:0.75 20:0.6875 21:0.3125 
0.06510756196319267 1:0.625 2:0.6875 3:1.0 4:0.25 5:1.0 6:1.0 7:0.25 8:0.125 9:0.0625 10:0.5 11:0.4375 12:0.375 13:0.0 14:0.625 15:0.5 16:0.3125 17:0.9375 18:0.875 19:0.875 20:1.0 21:0.625 
0.23271793567544724 1:0.6875 2:0.875 3:0.9375 4:0.5 5:0.75 6:1.0 7:0.8125 8:0.625 9:0.125 10:0.5 11:0.125 12:0.5 13:0.125 14:0.125 15:0.1875 16:0.0 17:0.375 18:0.5 19:0.5 20:0.5625 21:0.4375 
0.3806905961614542 1:0.3125 2:0.5 3:0.8125 4:0.5 5:0.5625 6:1.0 7:0.875 8:0.875 9:0.6875 10:0.75 11:1.0 12:0.1875 13:0.1875 14:0.375 15:0.8125 16:0.5 17:0.375 18:0.875 19:0.625 20:0.75 21:0.9375 
0.3366612445078423 1:0.1875 2:0.25 3:0.5 4:0.6875 5:0.8125 6:0.3125 7:0.5 8:0.5625 9:0.9375 10:1.0 11:0.625 12:1.0 13:0.5625 14:0.75 15:0.6875 16:0.3125 17:0.5 18:0.125 19:0.5 20:0.0 21:0.0 
0.005492461243547775 1:0.5 2:0.25 3:0.0 4:0.3125 5:0.0625 6:0.5 7:0.1875 8:0.5 9:0.3125 10:0.375 11:0.5 12:0.875 13:0.5 14:0.5 15:0.8125 16:0.5 17:0.1875 18:0.75 19:0.3125 20:0.5 21:0.9375 
0.32891431209735006 1:0.125 2:0.5 3:0.5 4:0.625 5:0.5 6:0.5 7:1.0 8:0.875 9:0.9375 10:1.0 11:0.625 12:0.625 13:0.5625 14:0.75 15:0.6875 16:0.4375 17:0.625 18:0.5625 19:0.625 20:0.875 21:0.5 
0.17266376971128927 1:0.625 2:0.5 3:0.125 4:0.0 5:0.9375 6:0.5625 7:0.5625 8:0.25 9:0.25 10:0.5625 11:0.625 12:0.4375 13:0.125 14:0.875 15:0.5625 16:0.375 17:0.625 18:0.5625 19:0.875 20:0.9375 21:0.4375 
0.3704085360641946 1:0.4375 2:0.6875 3:0.875 4:0.8125 5:0.8125 6:0.1875 7:0.75 8:0.9375 9:1.0 10:0.875 11:0.5625 12:0.6875 13:0.3125 14:0.5 15:0.0 16:0.0625 17:0.625 18:0.0 19:0.6875 20:0.0625 21:0.125 
0.2533491169393312 1:0.375 2:0.125 3:1.0 4:0.5 5:0.875 6:0.625 7:0.1875 8:0.6875 9:0.5625 10:0.6875 11:1.0 12:0.6875 13:0.75 14:0.875 15:0.875 16:0.4375 17:0.4375 18:0.6875 19:0.5 20:1.0 21:0.5 
0.0026504299801452585 1:1.0 2:0.8125 3:0.6875 4:0.6875 5:0.5625 6:1.0 7:0.5625 8:0.5 9:0.6875 10:0.25 11:0.75 12:0.6875 13:1.0 14:0.25 15:0.5 16:0.4375 17:0.125 18:0.25 19:0.0 20:0.4375 21:0.8125 
-0.34328947961005757 1:0.75 2:0.875 3:0.8125 4:0.75 5:0.9375 6:0.8125 7:0.375 8:0.25 9:0.5625 10:0.5 11:0.1875 12:0.4375 13:0.6875 14:0.5 15:0.25 16:0.375 17:0.5 18:0.3125 19:0.4375 20:0.375 21:0.3125 
0.39828081041215785 1:0.5 2:0.25 3:0.25 4:0.0 5:0.5 6:0.625 7:0.4375 8:0.375 9:0.125 10:0.625 11:0.6875 12:0.4375 13:0.375 14:0.875 15:0.9375 16:0.6875 17:0.625 18:0.9375 19:0.8125 20:0.6875 21:0.9375 
-0.3679875885055861 1:0.5 2:0.5 3:0.25 4:0.375 5:0.875 6:0.25 7:0.5625 8:0.0625 9:0.1875 10:1.0 11:0.5625 12:0.5 13:0.25 14:0.8125 15:0.25 16:0.4375 17:1.0 18:0.6875 19:0.8125 20:0.75 21:0.0625 
-0.3105446875451938 1:0.0625 2:0.25 3:0.0625 4:0.0625 5:0.375 6:0.1875 7:0.625 8:0.5 9:0.5625 10:1.0 11:0.875 12:0.1875 13:0.625 14:0.875 15:0.3125 16:0.625 17:0.75 18:0.9375 19:0.5 20:0.25 21:0.25 
0.24940275967153994 1:0.625 2:0.75 3:0.6875 4:0.3125 5:0.625 6:0.5625 7:1.0 8:0.5 9:0.5 10:0.375 11:0.6875 12:0.3125 13:0.1875 14:0.3125 15:0.6875 16:0.4375 17:0.3125 18:0.5625 19:0.6875 20:0.9375 21:0.875 
0.03311441630386753 1:0.125 2:0.125 3:0.25 4:0.125 5:0.5 6:0.0625 7:0.375 8:0.25 9:0.3125 10:0.5625 11:0.5 12:0.875 13:0.6875 14:0.75 15:1.0 16:0.0 17:0.6875 18:0.4375 19:0.875 20:0.75 21:0.5 
0.7817041259993304 1:0.875 2:0.75 3:0.8125 4:0.5 5:0.9375 6:0.1875 7:0.625 8:0.8125 9:0.75 10:0.875 11:0.3125 12:0.5 13:0.5 14:0.5 15:0.125 16:0.5 17:0.6875 18:0.125 19:0.75 20:0.0625 21:0.1875 
0.27651116788094754 1:0.0 2:0.75 3:0.375 4:0.3125 5:0.5625 6:0.625 7:0.625 8:0.3125 9:0.9375 10:0.875 11:0.9375 12:0.0 13:0.125 14:0.3125 15:0.4375 16:0.6875 17:0.625 18:0.9375 19:0.625 20:0.75 21:0.5 
-0.08310310676176613 1:0.5 2:0.5 3:0.875 4:0.9375 5:0.6875 6:0.5 7:0.3125 8:0.6875 9:0.625 10:0.9375 11:0.4375 12:0.875 13:0.875 14:0.75 15:0.3125 16:0.5625 17:0.9375 18:0.0 19:0.375 20:0.0625 21:0.125 
-0.3247750588203158 1:0.6875 2:0.6875 3:0.625 4:0.8125 5:0.75 6:0.5625 7:0.625 8:0.75 9:0.625 10:0.5 11:0.375 12:0.375 13:0.5 14:0.0625 15:0.125 16:0.4375 17:0.1875 18:0.0625 19:0.0 20:0.125 21:0.1875 
-0.2617017515310276 1:0.6875 2:0.5 3:0.75 4:0.3125 5:0.5625 6:0.6875 7:0.125 8:0.6875 9:0.4375 10:0.8125 11:0.625 12:0.6875 13:0.125 14:0.5625 15:0.5 16:0.125 17:0.5 18:0.4375 19:0.8125 20:0.5625 21:0.5 
0.1346937785195385 1:0.5 2:0.1875 3:0.375 4:0.5 5:0.5 6:0.375 7:0.0 8:0.0625 9:0.1875 10:0.1875 11:0.125 12:0.5 13:0.5625 14:1.0 15:1.0 16:0.5 17:0.5 18:0.5 19:0.4375 20:0.625 21:0.5 
0.14505335710885792 1:0.5 2:0.5 3:0.5 4:0.625 5:1.0 6:1.0 7:0.125 8:0.5 9:0.8125 10:0.5 11:0.75 12:0.4375 13:1.0 14:0.9375 15:0.9375 16:0.8125 17:0.875 18:0.6875 19:0.3125 20:0.5625 21:0.625 
0.3328088473423306 1:0.4375 2:0.8125 3:0.0625 4:0.5 5:0.9375 6:0.625 7:0.6875 8:0.75 9:0.8125 10:0.8125 11:1.0 12:0.1875 13:0.375 14:0.6875 15:0.375 16:0.8125 17:0.8125 18:1.0 19:0.875 20:0.5 21:0.3125 
-0.2283668262463963 1:0.25 2:0.375 3:0.0625 4:0.125 5:0.0 6:0.5625 7:0.5 8:0.0 9:0.375 10:0.0625 11:0.5625 12:0.5 13:0.5 14:0.4375 15:1.0 16:0.5 17:0.875 18:0.875 19:0.5 20:0.6875 21:0.625 
-0.016454081182105593 1:0.5 2:0.5 3:0.0 4:0.375 5:0.5 6:0.125 7:0.3125 8:0.1875 9:0.3125 10:0.4375 11:0.375 12:0.0625 13:0.625 14:0.625 15:0.5 16:0.75 17:0.6875 18:0.3125 19:0.5 20:0.1875 21:0.25 
0.11312908808693636 1:0.875 2:0.5 3:0.5 4:0.5 5:0.75 6:0.9375 7:0.0625 8:0.5625 9:0.3125 10:0.375 11:0.75 12:0.8125 13:0.5 14:0.8125 15:0.75 16:0.1875 17:0.375 18:0.4375 19:0.5 20:0.625 21:0.75 
0.10608613909983275 1:0.9375 2:0.5 3:0.625 4:0.5 5:0.875 6:0.4375 7:0.25 8:0.125 9:0.3125 10:0.25 11:0.0625 12:0.5 13:0.875 14:0.75 15:0.25 16:0.4375 17:0.5625 18:0.1875 19:0.4375 20:0.0625 21:0.0625 
0.014364241624986644 1:0.75 2:0.75 3:0.9375 4:0.6875 5:0.6875 6:1.0 7:0.375 8:0.6875 9:0.8125 10:0.5 11:0.6875 12:1.0 13:0.75 14:0.5625 15:0.8125 16:0.0 17:0.0 18:0.125 19:0.375 20:0.8125 21:0.875 
0.02152259342004453 1:0.375 2:0.5625 3:0.125 4:0.4375 5:0.0 6:0.25 7:0.6875 8:0.375 9:0.6875 10:0.0625 11:0.25 12:0.3125 13:0.4375 14:0.375 15:0.0625 16:0.5 17:0.5 18:0.4375 19:0.0 20:0.4375 21:0.625 
0.28561730402935775 1:0.4375 2:0.25 3:0.375 4:0.25 5:0.3125 6:0.625 7:0.0 8:0.4375 9:0.625 10:0.125 11:0.5625 12:1.0 13:0.625 14:0.5 15:0.5625 16:0.5625 17:0.0 18:0.6875 19:0.125 20:0.5 21:0.875 
0.06264377820680733 1:0.5625 2:0.6875 3:1.0 4:0.6875 5:0.8125 6:0.4375 7:0.8125 8:0.6875 9:0.8125 10:0.5625 11:0.625 12:0.625 13:0.4375 14:0.6875 15:0.5 16:0.5 17:0.5 18:0.25 19:0.75 20:0.0 21:0.375 
0.8964500215637344 1:0.0 2:0.4375 3:0.1875 4:0.5 5:0.1875 6:0.125 7:0.625 8:0.6875 9:0.9375 10:0.6875 11:0.8125 12:0.6875 13:0.6875 14:0.75 15:0.625 16:0.625 17:0.5625 18:1.0 19:0.5 20:0.25 21:0.5 
0.43131329947184827 1:0.25 2:0.625 3:0.75 4:0.3125 5:0.375 6:0.125 7:0.5625 8:0.875 9:0.5 10:0.625 11:0.625 12:0.5625 13:0.25 14:0.0625 15:0.375 16:0.125 17:0.0625 18:0.125 19:0.6875 20:0.6875 21:0.9375 
0.21500903513847677 1:0.5 2:0.4375 3:0.5 4:0.375 5:0.4375 6:0.125 7:0.625 8:0.5625 9:0.8125 10:0.4375 11:0.3125 12:0.375 13:0.5 14:0.25 15:0.25 16:0.8125 17:0.25 18:0.4375 19:0.0 20:0.0625 21:0.3125 
-0.4347355448622052 1:1.0 2:0.625 3:0.625 4:0.125 5:0.9375 6:0.5625 7:0.4375 8:0.3125 9:0.25 10:0.75 11:0.5 12:0.625 13:0.3125 14:0.6875 15:0.75 16:0.0 17:0.75 18:0.8125 19:0.75 20:0.75 21:0.5 
-0.0517502873913013 1:1.0 2:0.4375 3:0.0625 4:0.5 5:0.375 6:0.9375 7:0.0 8:0.25 9:0.1875 10:0.1875 11:0.5 12:0.375 13:0.625 14:0.375 15:0.5 16:0.5625 17:0.4375 18:0.6875 19:0.375 20:0.6875 21:0.9375 
-0.16901306950727255 1:0.625 2:0.5625 3:0.6875 4:0.6875 5:0.875 6:0.625 7:0.5 8:0.6875 9:0.625 10:0.6875 11:0.5 12:0.6875 13:0.75 14:0.75 15:0.5625 16:0.5 17:0.4375 18:0.5 19:0.875 20:0.8125 21:0.625 
0.3664111742000794 1:0.5 2:0.5 3:0.5 4:0.375 5:0.0625 6:0.5 7:0.5625 8:0.0625 9:0.25 10:0.4375 11:0.4375 12:0.3125 13:0.1875 14:0.1875 15:0.5 16:0.3125 17:0.5 18:0.6875 19:0.5 20:0.5625 21:0.5 
0.05818095127915393 1:0.3125 2:0.5 3:0.5 4:0.875 5:0.5 6:0.1875 7:0.75 8:0.5 9:0.75 10:0.9375 11:0.375 12:0.375 13:0.75 14:0.625 15:0.1875 16:0.6875 17:0.8125 18:0.1875 19:0.6875 20:0.0625 21:0.125 
-0.564949977817619 1:0.8125 2:0.9375 3:1.0 4:0.625 5:0.8125 6:0.8125 7:0.25 8:0.4375 9:0.5 10:0.875 11:0.625 12:0.1875 13:0.5625 14:0.625 15:0.625 16:0.75 17:0.9375 18:0.9375 19:0.6875 20:0.625 21:0.4375 
0.16205049407353161 1:0.5625 2:0.125 3:0.0625 4:0.5 5:0.375 6:0.5 7:0.375 8:0.375 9:0.375 10:0.0 11:0.125 12:0.5625 13:0.75 14:0.1875 15:0.75 16:1.0 17:0.3125 18:0.5 19:0.0625 20:0.5 21:0.8125 
-0.4381025228301129 1:0.5625 2:0.1875 3:0.875 4:0.6875 5:0.875 6:0.625 7:0.375 8:0.75 9:0.625 10:0.875 11:0.5 12:0.75 13:0.5625 14:1.0 15:0.625 16:0.0625 17:0.1875 18:0.125 19:0.875 20:0.625 21:0.25 
0.07549479744123062 1:0.875 2:0.5 3:0.9375 4:0.5625 5:0.4375 6:0.625 7:0.4375 8:0.75 9:0.4375 10:0.0625 11:0.5 12:0.4375 13:0.5 14:0.0625 15:0.5625 16:0.25 17:0.25 18:0.4375 19:0.25 20:0.5625 21:0.8125 
-0.0707441955996768 1:0.375 2:0.5625 3:0.4375 4:0.375 5:0.5 6:0.5 7:0.8125 8:0.25 9:0.4375 10:0.3125 11:0.5 12:0.25 13:0.375 14:0.0625 15:0.25 16:0.875 17:0.75 18:0.5 19:0.3125 20:0.25 21:0.5 
-0.39809972030396695 1:0.25 2:0.9375 3:0.75 4:0.25 5:0.3125 6:0.5625 7:0.9375 8:1.0 9:0.5 10:0.375 11:0.625 12:1.0 13:0.4375 14:0.25 15:0.4375 16:0.0625 17:0.0 18:0.0 19:0.5 20:0.8125 21:0.9375 
0.018778029337977474 1:0.875 2:0.875 3:1.0 4:0.75 5:0.8125 6:0.875 7:0.6875 8:0.5625 9:1.0 10:0.75 11:1.0 12:0.5625 13:0.5625 14:0.4375 15:1.0 16:0.9375 17:0.375 18:1.0 19:0.125 20:0.5 21:0.9375 
-0.4724078136769535 1:0.4375 2:0.625 3:0.1875 4:0.6875 5:0.8125 6:0.75 7:0.5625 8:0.4375 9:0.875 10:0.5 11:0.5625 12:0.0625 13:0.8125 14:0.6875 15:0.5 16:1.0 17:0.9375 18:1.0 19:0.4375 20:0.5625 21:0.3125 
