encog,SVM,java,3.2.0,1,1406057134483
[SVM]
[SVM:PARAMS]
[SVM:SVM-PARAM]
inputCount=3
C=85
cacheSize=100
coef0=0
degree=3
eps=0.001
gamma=1
kernelType=2
nrWeight=0
nu=0.5
p=0.1
probability=0
shrinking=1
svmType=3
weight=
weightLabel=
[SVM:SVM-MODEL]
svm_type epsilon_svr
kernel_type rbf
gamma 1.0
nr_class 2
total_sv 209
rho -0.49877566846384885
SV
-18.788876739663994 1:0.5 2:0.5625 3:0.9375 
-85.0 1:0.6875 2:0.875 3:0.4375 
85.0 1:0.1875 2:0.375 3:0.4375 
85.0 1:0.9375 2:0.75 3:0.1875 
85.0 1:0.4375 2:0.375 3:0.1875 
-85.0 1:0.75 2:0.875 3:0.4375 
85.0 1:0.25 2:0.125 3:0.5625 
-85.0 1:0.5 2:0.0625 3:0.4375 
-4.077829081288386 1:0.0 2:0.0625 3:0.375 
-85.0 1:0.5625 2:0.625 3:0.8125 
1.1061922290473603 1:0.5 2:0.375 3:0.0 
-85.0 1:0.5 2:0.5 3:0.3125 
85.0 1:0.625 2:0.8125 3:0.4375 
65.69509659661871 1:0.4375 2:0.3125 3:0.0625 
85.0 1:0.1875 2:0.25 3:0.6875 
-85.0 1:0.625 2:1.0 3:0.5 
-85.0 1:0.125 2:0.4375 3:0.5 
13.991003905468252 1:0.0 2:0.625 3:1.0 
-85.0 1:0.8125 2:0.25 3:0.0625 
85.0 1:0.25 2:0.75 3:0.875 
85.0 1:0.4375 2:0.8125 3:0.6875 
1.06436094997468 1:0.125 2:0.4375 3:0.5 
85.0 1:0.8125 2:0.75 3:0.625 
85.0 1:0.3125 2:0.375 3:0.375 
85.0 1:1.0 2:1.0 3:0.375 
85.0 1:0.6875 2:0.8125 3:0.4375 
-85.0 1:0.625 2:0.0 3:0.0625 
-85.0 1:0.375 2:0.0 3:0.5 
85.0 1:1.0 2:1.0 3:0.375 
3.8081938611995203 1:0.0 2:0.0 3:0.6875 
-59.857015556279165 1:0.5 2:0.5625 3:0.875 
-85.0 1:0.3125 2:0.75 3:0.8125 
85.0 1:0.6875 2:0.125 3:0.0625 
54.92266997894154 1:0.875 2:0.75 3:0.3125 
-76.76512082004983 1:0.9375 2:0.5625 3:0.5 
85.0 1:0.4375 2:0.9375 3:0.75 
85.0 1:0.625 2:0.625 3:0.6875 
-85.0 1:0.25 2:0.0 3:0.5625 
-85.0 1:0.375 2:0.5 3:0.5 
85.0 1:0.5 2:0.5625 3:0.8125 
85.0 1:0.75 2:0.25 3:0.0 
-3.9741557132085874 1:0.0625 2:0.0 3:0.3125 
-85.0 1:0.625 2:0.1875 3:0.25 
85.0 1:0.625 2:0.125 3:0.1875 
41.47059375984021 1:0.4375 2:0.375 3:0.25 
-15.182142683482436 1:0.5 2:0.125 3:0.4375 
85.0 1:0.1875 2:0.375 3:0.4375 
85.0 1:0.3125 2:0.9375 3:1.0 
-85.0 1:0.75 2:0.75 3:0.375 
-85.0 1:0.4375 2:0.9375 3:0.75 
-85.0 1:0.6875 2:0.1875 3:0.0625 
-85.0 1:0.8125 2:0.25 3:0.0625 
-85.0 1:0.3125 2:0.4375 3:0.4375 
-85.0 1:0.25 2:0.25 3:0.6875 
85.0 1:0.0625 2:0.3125 3:0.9375 
85.0 1:0.75 2:0.875 3:0.4375 
85.0 1:0.9375 2:0.3125 3:0.0 
-9.041142322558029 1:0.5 2:0.5625 3:0.9375 
-85.0 1:0.3125 2:0.9375 3:0.9375 
-70.07621875301831 1:0.1875 2:0.75 3:1.0 
-8.744632963393453 1:0.0 2:0.0625 3:0.375 
-85.0 1:0.4375 2:0.4375 3:0.3125 
-85.0 1:0.5 2:0.375 3:0.0 
-4.45037081863246 1:0.5 2:0.0 3:0.375 
85.0 1:0.6875 2:0.1875 3:0.0625 
85.0 1:0.5625 2:0.625 3:0.8125 
85.0 1:0.5625 2:0.0625 3:0.3125 
-85.0 1:0.375 2:1.0 3:0.9375 
85.0 1:0.5625 2:0.9375 3:0.5 
85.0 1:0.1875 2:0.4375 3:0.5 
85.0 1:0.625 2:0.1875 3:0.25 
54.016801980976936 1:0.5625 2:0.5 3:0.125 
85.0 1:0.4375 2:0.3125 3:0.0625 
85.0 1:0.5625 2:0.125 3:0.25 
-85.0 1:0.4375 2:0.9375 3:0.6875 
85.0 1:0.6875 2:0.8125 3:0.4375 
-7.914072119666782 1:0.5 2:0.0 3:0.375 
-24.531432397443925 1:0.0 2:0.25 3:0.8125 
-85.0 1:0.375 2:1.0 3:0.875 
85.0 1:0.375 2:0.9375 3:0.8125 
85.0 1:0.5625 2:0.5625 3:0.625 
-85.0 1:0.375 2:0.5 3:0.5 
-85.0 1:0.0 2:0.1875 3:0.8125 
85.0 1:1.0 2:0.625 3:0.5 
-85.0 1:0.5 2:0.8125 3:0.5625 
85.0 1:0.4375 2:0.375 3:0.1875 
-85.0 1:0.3125 2:0.8125 3:0.875 
-52.14376109894094 1:0.5 2:0.125 3:0.4375 
-85.0 1:0.4375 2:1.0 3:0.75 
9.507087334236447 1:0.625 2:0.25 3:0.3125 
85.0 1:0.875 2:0.5625 3:0.5 
85.0 1:0.6875 2:0.0625 3:0.0625 
85.0 1:0.25 2:0.0 3:0.5625 
-0.8941238840229667 1:0.5 2:0.5625 3:0.9375 
-85.0 1:0.6875 2:0.25 3:0.25 
-85.0 1:0.8125 2:0.1875 3:0.0 
13.636168719623676 1:0.5625 2:0.75 3:1.0 
85.0 1:0.5625 2:0.8125 3:0.5 
85.0 1:1.0 2:1.0 3:0.375 
-55.43794424875937 1:0.0 2:0.25 3:0.8125 
85.0 1:0.4375 2:0.375 3:0.1875 
85.0 1:0.625 2:0.1875 3:0.25 
-85.0 1:0.875 2:0.9375 3:0.375 
85.0 1:0.6875 2:0.875 3:0.4375 
-85.0 1:0.375 2:0.4375 3:0.4375 
-85.0 1:0.375 2:0.6875 3:0.6875 
-64.75904944627037 1:0.75 2:0.75 3:0.6875 
-21.46744675957012 1:0.0 2:0.0625 3:0.375 
-85.0 1:0.875 2:0.9375 3:0.375 
85.0 1:0.125 2:0.0 3:0.625 
85.0 1:0.25 2:0.6875 3:0.75 
-85.0 1:0.875 2:0.9375 3:0.375 
85.0 1:0.625 2:0.625 3:0.625 
-11.283254111108475 1:0.875 2:0.5625 3:0.5 
85.0 1:0.5625 2:0.25 3:0.375 
85.0 1:0.3125 2:0.25 3:0.625 
85.0 1:0.5625 2:0.3125 3:0.4375 
-85.0 1:0.875 2:0.875 3:0.375 
-85.0 1:0.75 2:0.25 3:0.1875 
85.0 1:0.3125 2:1.0 3:1.0 
-85.0 1:0.5 2:0.4375 3:0.125 
-14.690389718903171 1:0.9375 2:1.0 3:0.375 
85.0 1:0.5625 2:0.125 3:0.3125 
85.0 1:0.4375 2:0.0625 3:0.5 
-85.0 1:0.875 2:0.875 3:0.375 
85.0 1:0.3125 2:0.9375 3:0.9375 
-85.0 1:0.375 2:0.9375 3:0.875 
-85.0 1:0.625 2:0.625 3:0.6875 
-85.0 1:0.3125 2:0.875 3:0.9375 
23.81434241794916 1:0.75 2:1.0 3:0.8125 
85.0 1:0.6875 2:0.9375 3:0.4375 
-85.0 1:0.4375 2:0.125 3:0.5 
-85.0 1:0.25 2:0.75 3:0.8125 
-85.0 1:0.4375 2:0.0625 3:0.5 
-85.0 1:0.6875 2:0.0625 3:0.0625 
10.02198202153009 1:0.4375 2:0.375 3:0.25 
38.47093138164704 1:0.125 2:0.4375 3:0.5 
85.0 1:0.3125 2:0.5625 3:0.5625 
-85.0 1:0.0 2:0.125 3:0.75 
85.0 1:0.8125 2:0.875 3:0.375 
85.0 1:0.0625 2:0.0 3:0.625 
-85.0 1:0.3125 2:0.8125 3:0.9375 
85.0 1:0.5625 2:0.3125 3:0.4375 
70.30951872874913 1:0.4375 2:0.75 3:0.625 
-85.0 1:0.4375 2:0.25 3:0.0625 
-85.0 1:0.5 2:0.5 3:0.3125 
85.0 1:0.3125 2:1.0 3:1.0 
85.0 1:1.0 2:0.8125 3:0.25 
-85.0 1:0.75 2:0.75 3:0.6875 
85.0 1:0.6875 2:0.0 3:0.0 
85.0 1:0.0 2:0.3125 3:0.875 
85.0 1:0.375 2:0.9375 3:0.9375 
85.0 1:0.0625 2:0.0625 3:0.6875 
-85.0 1:0.875 2:0.875 3:0.375 
85.0 1:0.75 2:0.25 3:0.1875 
7.5070339517805404 1:0.5625 2:0.5 3:0.125 
-85.0 1:0.5 2:0.5 3:0.375 
85.0 1:0.0625 2:0.125 3:0.6875 
-49.98951630461902 1:0.5 2:1.0 3:0.625 
-49.76362365458517 1:0.9375 2:0.5625 3:0.5 
-84.6655908253847 1:0.875 2:0.5625 3:0.5 
85.0 1:0.3125 2:0.125 3:0.5625 
-85.0 1:0.3125 2:0.875 3:1.0 
-7.546163285733219 1:0.75 2:0.75 3:0.6875 
-85.0 1:0.9375 2:0.9375 3:0.3125 
-85.0 1:0.4375 2:0.5 3:0.4375 
85.0 1:0.8125 2:0.3125 3:0.0625 
85.0 1:1.0 2:1.0 3:0.3125 
85.0 1:0.5625 2:0.875 3:0.5 
-81.39389324835938 1:0.625 2:0.0 3:0.0 
-85.0 1:0.1875 2:0.125 3:0.625 
-85.0 1:0.1875 2:0.0 3:0.5625 
-85.0 1:0.375 2:0.5 3:0.5 
85.0 1:0.1875 2:0.375 3:0.4375 
-85.0 1:0.25 2:0.375 3:0.4375 
85.0 1:0.6875 2:0.0625 3:0.0625 
-85.0 1:0.3125 2:0.3125 3:0.375 
48.81078724037249 1:0.625 2:0.25 3:0.3125 
-85.0 1:1.0 2:0.875 3:0.25 
-10.34988831217448 1:1.0 2:0.75 3:0.5625 
-85.0 1:0.6875 2:0.125 3:0.0625 
-48.473256366445156 1:0.0 2:0.25 3:0.8125 
60.97213839604473 1:0.8125 2:0.6875 3:0.1875 
-85.0 1:1.0 2:0.8125 3:0.1875 
-85.0 1:0.75 2:0.25 3:0.125 
-85.0 1:0.5 2:0.0625 3:0.4375 
-85.0 1:0.9375 2:1.0 3:0.375 
81.8886772510675 1:0.3125 2:0.75 3:0.8125 
85.0 1:0.25 2:0.8125 3:0.9375 
-85.0 1:0.375 2:0.375 3:0.375 
-53.03607699384249 1:0.75 2:0.1875 3:0.0 
85.0 1:0.625 2:0.5625 3:0.5625 
85.0 1:0.5625 2:0.875 3:0.5 
73.0423416121556 1:0.125 2:0.125 3:0.6875 
-85.0 1:0.0625 2:0.0625 3:0.625 
85.0 1:0.375 2:0.9375 3:0.9375 
4.583185766189292 1:0.5625 2:0.5 3:0.125 
55.71744675333091 1:0.5625 2:0.5 3:0.125 
-17.505539066724893 1:0.875 2:0.25 3:0.0 
-54.31657460161933 1:0.1875 2:0.8125 3:1.0 
6.152053538429565 1:0.4375 2:0.375 3:0.25 
85.0 1:0.625 2:0.125 3:0.125 
-85.0 1:0.0625 2:0.25 3:0.8125 
-85.0 1:0.5 2:0.5 3:0.3125 
-85.0 1:0.5 2:0.5 3:0.375 
-85.0 1:0.6875 2:0.1875 3:0.1875 
-85.0 1:0.4375 2:0.3125 3:0.125 
76.65389462196107 1:0.1875 2:0.6875 3:0.8125 
-6.043401101385829 1:0.0 2:0.0625 3:0.375 
