encog,SVM,java,3.2.0,1,1406057332820
[SVM]
[SVM:PARAMS]
[SVM:SVM-PARAM]
inputCount=6
C=1
cacheSize=100
coef0=0
degree=3
eps=0.001
gamma=1
kernelType=2
nrWeight=0
nu=0.5
p=0.1
probability=0
shrinking=1
svmType=3
weight=
weightLabel=
[SVM:SVM-MODEL]
svm_type epsilon_svr
kernel_type rbf
gamma 1.0
nr_class 2
total_sv 198
rho -0.5523572080384515
SV
0.7732328672231397 1:0.3125 2:0.0625 3:0.5 4:0.0 5:0.9375 6:1.0 
0.5627723196525979 1:0.375 2:0.4375 3:0.5 4:1.0 5:0.75 6:0.625 
0.6787407891455445 1:0.5625 2:0.6875 3:1.0 4:0.8125 5:0.5 6:0.4375 
1.0 1:0.6875 2:0.8125 3:0.5 4:0.9375 5:0.1875 6:0.1875 
0.31830066973217724 1:0.5 2:0.5625 3:0.125 4:0.375 5:0.0 6:0.1875 
-1.0 1:0.875 2:0.5 3:0.5 4:0.5 5:0.4375 6:0.5 
-1.0 1:0.5625 2:0.8125 3:1.0 4:0.8125 5:0.5625 6:0.5625 
-0.2044576294394893 1:0.1875 2:0.125 3:0.0 4:0.0 5:0.1875 6:0.5625 
-0.1522924987616918 1:0.875 2:0.875 3:0.3125 4:0.5 5:0.1875 6:0.375 
-0.8097713464012444 1:1.0 2:0.9375 3:0.5 4:0.0625 5:0.0625 6:0.1875 
1.0 1:0.5 2:0.6875 3:0.125 4:0.9375 5:0.4375 6:0.1875 
-1.0 1:0.4375 2:0.4375 3:0.5 4:0.0625 5:0.375 6:0.5625 
0.8288663356850423 1:1.0 2:0.6875 3:1.0 4:0.0625 5:0.375 6:0.875 
-0.5471127653628408 1:0.5 2:0.875 3:0.9375 4:0.5 5:1.0 6:0.75 
-1.0 1:0.375 2:0.4375 3:0.0625 4:1.0 5:0.4375 6:0.3125 
1.0 1:0.25 2:0.25 3:0.125 4:0.0625 5:0.1875 6:0.4375 
0.23281481231528275 1:0.125 2:0.375 3:0.375 4:0.625 5:1.0 6:0.4375 
-1.0 1:0.25 2:0.5 3:0.625 4:0.875 5:0.9375 6:0.875 
1.0 1:0.5 2:0.375 3:0.625 4:0.5 5:0.5 6:0.8125 
1.0 1:0.6875 2:0.875 3:0.5 4:0.75 5:0.3125 6:0.375 
1.0 1:0.6875 2:0.8125 3:0.4375 4:0.9375 5:0.5 6:0.0 
1.0 1:0.0625 2:0.0 3:0.1875 4:0.6875 5:0.5 6:0.1875 
1.0 1:0.3125 2:0.125 3:0.0 4:0.25 5:0.5 6:0.5 
-1.0 1:0.5 2:0.3125 3:0.3125 4:0.5 5:0.1875 6:0.5 
-1.0 1:0.9375 2:0.875 3:1.0 4:0.25 5:0.3125 6:0.625 
-1.0 1:0.5 2:0.25 3:0.5 4:0.25 5:0.875 6:0.8125 
0.19196810095394173 1:0.625 2:0.6875 3:0.625 4:0.5625 5:0.5625 6:0.75 
1.0 1:0.4375 2:0.5 3:0.0625 4:0.75 5:0.125 6:0.3125 
1.0 1:1.0 2:0.6875 3:0.3125 4:0.0625 5:0.0625 6:0.3125 
-0.8176827397793979 1:0.9375 2:0.5 3:1.0 4:0.4375 5:0.4375 6:0.5625 
-1.0 1:0.4375 2:0.625 3:0.5625 4:1.0 5:0.625 6:0.625 
0.7996916227246931 1:0.625 2:0.875 3:0.5 4:0.6875 5:0.0625 6:0.375 
1.0 1:0.3125 2:0.625 3:0.8125 4:0.9375 5:0.9375 6:0.75 
1.0 1:0.625 2:0.5 3:0.75 4:0.375 5:0.3125 6:0.75 
-1.0 1:0.0625 2:0.0 3:0.125 4:0.125 5:0.5 6:0.5 
-1.0 1:0.75 2:0.875 3:0.5625 4:0.875 5:0.375 6:0.0 
-1.0 1:0.3125 2:0.0 3:0.5 4:0.25 5:0.9375 6:0.75 
0.35824804169342334 1:0.4375 2:0.1875 3:0.5625 4:0.625 5:0.8125 6:1.0 
-1.0 1:0.0625 2:0.625 3:0.0625 4:1.0 5:0.4375 6:0.25 
-1.0 1:0.375 2:0.375 3:0.375 4:0.6875 5:0.8125 6:0.625 
1.0 1:0.625 2:0.4375 3:0.875 4:0.0625 5:0.875 6:0.875 
1.0 1:0.6875 2:0.6875 3:0.375 4:0.125 5:0.0 6:0.375 
-1.0 1:0.5625 2:0.375 3:0.4375 4:0.25 5:0.5 6:0.9375 
1.0 1:0.5 2:0.5 3:0.25 4:0.875 5:0.3125 6:0.125 
-1.0 1:0.5625 2:0.5 3:0.1875 4:0.1875 5:0.25 6:0.25 
-0.33022842299029154 1:0.5 2:0.0 3:0.3125 4:0.0 5:0.0625 6:0.3125 
1.0 1:0.625 2:0.9375 3:0.1875 4:0.8125 5:0.125 6:0.0625 
1.0 1:0.9375 2:0.5625 3:0.875 4:0.1875 5:0.8125 6:0.8125 
1.0 1:0.25 2:0.1875 3:0.5 4:0.9375 5:1.0 6:0.75 
-1.0 1:0.6875 2:0.625 3:0.9375 4:0.0 5:0.5 6:0.6875 
0.4164542922733043 1:0.5 2:0.875 3:0.875 4:1.0 5:0.625 6:0.125 
-0.5528370971502825 1:0.3125 2:0.0 3:0.25 4:0.3125 5:0.8125 6:0.75 
1.0 1:0.5625 2:0.25 3:0.4375 4:0.4375 5:0.4375 6:0.875 
-1.0 1:0.5 2:0.8125 3:0.6875 4:0.9375 5:0.4375 6:0.125 
0.39495965709429026 1:0.9375 2:0.75 3:0.625 4:0.5625 5:0.1875 6:0.4375 
-0.07151085719385399 1:0.8125 2:0.6875 3:0.3125 4:0.25 5:0.0625 6:0.1875 
-1.0 1:0.8125 2:0.5625 3:0.75 4:0.5 5:0.5 6:1.0 
-1.0 1:0.375 2:0.5625 3:0.9375 4:0.9375 5:0.8125 6:0.8125 
-1.0 1:0.625 2:0.375 3:0.5 4:0.5 5:0.5 6:0.5625 
1.0 1:0.8125 2:0.4375 3:0.5 4:0.375 5:0.25 6:0.3125 
-1.0 1:0.625 2:0.5 3:0.0625 4:0.4375 5:0.0625 6:0.5 
-1.0 1:0.875 2:0.5 3:0.375 4:0.5 5:0.375 6:0.375 
-0.8213657503606049 1:0.125 2:0.5 3:0.0625 4:0.5 5:0.25 6:0.3125 
-1.0 1:0.4375 2:0.1875 3:0.125 4:0.0 5:0.125 6:0.375 
-0.01125141751781454 1:0.5 2:0.3125 3:0.375 4:0.0 5:0.5 6:0.8125 
-1.0 1:0.875 2:0.4375 3:0.5625 4:0.375 5:0.3125 6:0.875 
0.7135849558987769 1:0.0625 2:0.4375 3:0.5 4:1.0 5:1.0 6:1.0 
1.0 1:0.875 2:1.0 3:0.9375 4:0.875 5:0.5 6:0.25 
1.0 1:0.0625 2:0.3125 3:0.875 4:0.5625 5:0.9375 6:0.75 
1.0 1:0.875 2:0.5625 3:0.625 4:0.1875 5:0.625 6:0.625 
1.0 1:0.6875 2:0.375 3:0.0625 4:0.0625 5:0.1875 6:0.1875 
-1.0 1:0.1875 2:0.1875 3:0.375 4:0.8125 5:0.9375 6:0.5 
1.0 1:0.5 2:0.1875 3:0.375 4:0.4375 5:0.4375 6:0.9375 
-0.033027809473340684 1:0.0 2:0.25 3:0.5625 4:0.3125 5:0.625 6:1.0 
-1.0 1:0.75 2:0.9375 3:0.5 4:0.875 5:0.4375 6:0.25 
-1.0 1:0.1875 2:0.3125 3:0.0625 4:0.8125 5:0.75 6:0.4375 
1.0 1:0.4375 2:0.125 3:0.5 4:0.1875 5:0.625 6:0.5625 
1.0 1:0.5 2:0.25 3:0.5625 4:0.3125 5:0.375 6:0.9375 
1.0 1:0.5625 2:0.6875 3:0.6875 4:1.0 5:0.5625 6:0.25 
-1.0 1:0.75 2:0.8125 3:0.3125 4:0.8125 5:0.125 6:0.0625 
0.37956695832499926 1:0.0625 2:0.625 3:0.3125 4:1.0 5:0.3125 6:0.0625 
1.0 1:0.625 2:0.5 3:0.625 4:0.25 5:0.5625 6:0.5 
1.0 1:0.1875 2:0.125 3:0.3125 4:0.625 5:0.5625 6:0.8125 
1.0 1:0.5 2:0.625 3:0.6875 4:0.375 5:0.5 6:0.625 
0.6348358763641346 1:0.125 2:0.375 3:0.0 4:1.0 5:0.875 6:0.5 
1.0 1:0.3125 2:0.6875 3:0.125 4:0.8125 5:0.125 6:0.0 
-1.0 1:0.6875 2:0.5625 3:0.6875 4:0.625 5:0.8125 6:0.5 
-0.12688976732357757 1:0.3125 2:0.1875 3:0.3125 4:0.375 5:0.375 6:0.8125 
-1.0 1:0.5625 2:0.3125 3:0.5625 4:0.4375 5:0.4375 6:0.875 
0.22492299379217368 1:0.375 2:0.125 3:0.625 4:0.25 5:0.5 6:0.8125 
1.0 1:0.5 2:0.4375 3:0.0625 4:0.5625 5:0.375 6:0.5 
-0.4207730393305292 1:0.5 2:0.0 3:0.125 4:0.0625 5:0.4375 6:0.9375 
1.0 1:1.0 2:0.6875 3:0.8125 4:0.3125 5:0.6875 6:0.875 
-1.0 1:0.1875 2:0.5625 3:0.375 4:0.9375 5:0.3125 6:0.125 
1.0 1:0.375 2:0.25 3:0.25 4:0.8125 5:0.5625 6:0.5 
0.8473225550931767 1:0.25 2:0.0625 3:0.0 4:0.5625 5:0.5 6:0.625 
1.0 1:0.625 2:0.625 3:0.5 4:0.0625 5:0.375 6:0.5 
-1.0 1:0.6875 2:0.5625 3:0.5625 4:0.375 5:0.1875 6:0.6875 
-1.0 1:0.6875 2:0.625 3:0.375 4:0.0 5:0.0 6:0.375 
-1.0 1:0.75 2:0.5 3:0.875 4:0.375 5:0.3125 6:0.5 
1.0 1:1.0 2:0.5625 3:0.625 4:0.25 5:0.375 6:0.3125 
1.0 1:0.5625 2:0.5625 3:0.625 4:0.8125 5:0.875 6:0.4375 
-1.0 1:0.5 2:0.125 3:0.1875 4:0.25 5:0.5 6:0.875 
0.4153053779463101 1:0.8125 2:0.9375 3:1.0 4:0.8125 5:1.0 6:0.5625 
-1.0 1:0.9375 2:0.625 3:0.5 4:0.25 5:0.1875 6:0.0625 
1.0 1:0.5 2:0.5 3:0.5 4:1.0 5:0.5 6:0.4375 
1.0 1:0.75 2:0.6875 3:0.9375 4:0.25 5:0.6875 6:0.8125 
-1.0 1:0.5 2:0.3125 3:0.5625 4:0.25 5:0.75 6:0.625 
1.0 1:0.4375 2:0.0625 3:0.5 4:0.0625 5:0.6875 6:0.625 
-1.0 1:0.6875 2:0.5 3:1.0 4:0.125 5:0.8125 6:0.875 
-1.0 1:0.5 2:0.375 3:0.3125 4:0.1875 5:0.375 6:0.25 
1.0 1:0.75 2:0.4375 3:0.375 4:0.0625 5:0.125 6:0.25 
0.44758674952794236 1:0.4375 2:0.375 3:0.375 4:0.3125 5:0.125 6:0.5625 
0.4029450680198386 1:0.3125 2:0.75 3:0.4375 4:0.875 5:0.375 6:0.125 
-1.0 1:0.625 2:0.5625 3:0.6875 4:0.0 5:0.375 6:0.5 
1.0 1:0.5 2:0.8125 3:0.9375 4:0.75 5:0.875 6:0.875 
-1.0 1:1.0 2:0.4375 3:0.8125 4:0.0625 5:0.75 6:1.0 
-1.0 1:0.3125 2:0.5 3:0.1875 4:0.875 5:0.25 6:0.3125 
1.0 1:0.5 2:0.25 3:0.375 4:0.1875 5:0.625 6:0.75 
1.0 1:0.875 2:0.4375 3:0.125 4:0.4375 5:0.0625 6:0.4375 
0.4389776729892167 1:0.75 2:0.125 3:0.4375 4:0.25 5:0.3125 6:0.75 
1.0 1:0.625 2:0.5625 3:0.5 4:0.0 5:0.0 6:0.25 
0.9585876559312814 1:1.0 2:0.5625 3:1.0 4:0.125 5:0.875 6:0.9375 
-1.0 1:0.5625 2:0.5 3:0.25 4:0.6875 5:0.1875 6:0.0625 
-1.0 1:0.125 2:0.0 3:0.0625 4:0.0625 5:0.5 6:0.8125 
0.7783143295240245 1:0.9375 2:0.5625 3:0.6875 4:0.25 5:0.3125 6:0.9375 
-1.0 1:0.75 2:0.9375 3:0.875 4:0.875 5:0.75 6:0.625 
-1.0 1:0.625 2:0.5625 3:0.625 4:0.4375 5:0.3125 6:0.625 
0.212649322572642 1:0.25 2:0.3125 3:0.0 4:1.0 5:0.5 6:0.0 
-1.0 1:0.75 2:0.625 3:0.5 4:0.0625 5:0.0625 6:0.25 
-1.0 1:0.5 2:0.5 3:0.1875 4:0.125 5:0.1875 6:0.3125 
0.12537345002333616 1:0.0 2:0.125 3:0.5 4:1.0 5:0.875 6:0.625 
-1.0 1:0.3125 2:0.375 3:0.5 4:0.875 5:0.6875 6:0.75 
-1.0 1:0.75 2:0.5 3:1.0 4:0.1875 5:0.875 6:0.8125 
1.0 1:0.0 2:0.4375 3:0.0 4:1.0 5:0.625 6:0.5 
-1.0 1:0.8125 2:0.4375 3:0.5 4:0.25 5:0.5 6:1.0 
1.0 1:0.4375 2:0.5 3:0.375 4:0.875 5:0.625 6:0.5 
-0.29007620974594744 1:0.25 2:0.25 3:0.6875 4:0.3125 5:0.875 6:0.9375 
0.5202769644979469 1:0.1875 2:0.25 3:0.0625 4:0.875 5:0.5 6:0.375 
0.9560106608628697 1:0.4375 2:0.8125 3:0.625 4:0.875 5:1.0 6:0.6875 
-0.5492423306024689 1:0.75 2:0.375 3:0.8125 4:0.0 5:0.375 6:0.5625 
1.0 1:0.625 2:0.75 3:0.875 4:1.0 5:0.5 6:0.4375 
-1.0 1:0.6875 2:0.25 3:0.3125 4:0.375 5:0.125 6:0.4375 
1.0 1:0.8125 2:0.375 3:0.6875 4:0.375 5:0.4375 6:0.8125 
-1.0 1:0.75 2:0.875 3:0.375 4:0.875 5:0.25 6:0.0 
-0.1664617498107045 1:0.8125 2:0.9375 3:1.0 4:0.625 5:0.5 6:0.0 
1.0 1:0.4375 2:0.375 3:0.375 4:0.0625 5:0.5625 6:0.6875 
-0.23243305126657102 1:0.0625 2:0.5625 3:0.1875 4:0.6875 5:0.625 6:0.0625 
1.0 1:0.375 2:0.9375 3:0.5 4:0.875 5:0.6875 6:0.5 
1.0 1:0.9375 2:0.5625 3:0.4375 4:0.5 5:0.0625 6:0.4375 
-1.0 1:0.25 2:0.125 3:0.5 4:0.1875 5:0.6875 6:0.75 
-0.4441902176726427 1:0.625 2:0.75 3:0.625 4:0.9375 5:0.6875 6:0.25 
-1.0 1:1.0 2:0.5 3:0.875 4:0.125 5:0.6875 6:0.875 
-1.0 1:0.25 2:0.0 3:0.75 4:0.25 5:0.9375 6:1.0 
1.0 1:0.1875 2:0.125 3:0.375 4:0.125 5:0.625 6:0.75 
-0.9813766862999146 1:0.4375 2:0.875 3:0.5 4:0.75 5:0.375 6:0.3125 
1.0 1:1.0 2:0.6875 3:0.75 4:0.1875 5:0.375 6:0.375 
1.0 1:0.4375 2:0.25 3:0.1875 4:0.0625 5:0.0625 6:0.3125 
-1.0 1:0.375 2:0.1875 3:0.5625 4:0.125 5:0.5625 6:0.75 
-0.08921374651928714 1:0.375 2:0.75 3:0.3125 4:0.625 5:0.5 6:0.0625 
1.0 1:0.125 2:0.5625 3:0.25 4:1.0 5:0.3125 6:0.125 
1.0 1:0.5 2:0.0625 3:0.3125 4:0.4375 5:0.0 6:0.375 
0.10869280129322338 1:0.9375 2:0.75 3:0.3125 4:0.25 5:0.0625 6:0.0 
-1.0 1:0.5 2:0.25 3:0.0625 4:0.5 5:0.1875 6:0.5 
-1.0 1:0.5625 2:0.0 3:0.1875 4:0.4375 5:0.375 6:0.4375 
-1.0 1:0.875 2:1.0 3:0.625 4:0.125 5:0.375 6:0.4375 
0.5163279331270808 1:0.25 2:0.0625 3:0.625 4:0.125 5:0.875 6:0.9375 
-1.0 1:0.6875 2:0.6875 3:0.75 4:0.9375 5:0.5 6:0.4375 
-1.0 1:0.5625 2:0.9375 3:0.625 4:0.5625 5:1.0 6:0.5625 
-1.0 1:0.25 2:0.6875 3:0.6875 4:0.875 5:0.8125 6:0.6875 
0.9003427087168091 1:0.6875 2:1.0 3:0.375 4:0.8125 5:0.375 6:0.0 
-1.0 1:0.1875 2:0.5 3:0.6875 4:0.9375 5:0.6875 6:0.6875 
1.0 1:0.6875 2:0.8125 3:0.9375 4:0.1875 5:0.5625 6:0.75 
1.0 1:0.5625 2:0.5 3:0.4375 4:0.375 5:0.5625 6:0.5625 
0.5016389718523725 1:0.875 2:0.75 3:1.0 4:0.6875 5:0.875 6:0.75 
-0.03610564462120813 1:0.875 2:0.75 3:0.875 4:0.375 5:0.875 6:0.75 
1.0 1:0.3125 2:0.0625 3:0.0625 4:0.0625 5:0.5625 6:0.6875 
1.0 1:0.75 2:0.625 3:0.5 4:0.1875 5:0.1875 6:0.125 
-1.0 1:0.25 2:0.0 3:0.0 4:0.75 5:0.5625 6:0.5 
1.0 1:0.5625 2:0.25 3:0.625 4:0.5 5:0.625 6:0.8125 
1.0 1:0.4375 2:0.0 3:0.25 4:0.3125 5:0.6875 6:0.8125 
-0.2139135589186384 1:0.4375 2:0.6875 3:0.25 4:0.8125 5:0.25 6:0.1875 
1.0 1:0.4375 2:0.8125 3:0.5 4:0.625 5:0.6875 6:0.3125 
-0.245010625571134 1:0.75 2:0.4375 3:0.0625 4:0.125 5:0.0625 6:0.0 
-1.0 1:0.0 2:0.25 3:0.125 4:0.8125 5:0.625 6:0.625 
-1.0 1:0.4375 2:0.25 3:0.5 4:0.375 5:0.4375 6:0.875 
0.10497210109765168 1:0.5 2:0.125 3:0.25 4:0.5 5:0.1875 6:0.3125 
-1.0 1:0.875 2:0.3125 3:0.25 4:0.0625 5:0.0 6:0.375 
0.7218498439676782 1:1.0 2:0.9375 3:0.9375 4:0.8125 5:0.5 6:0.25 
1.0 1:0.5 2:0.75 3:0.9375 4:0.8125 5:0.5625 6:0.5625 
-0.37180305331411106 1:0.75 2:0.875 3:0.375 4:0.8125 5:0.25 6:0.125 
-1.0 1:0.5 2:0.6875 3:0.1875 4:1.0 5:0.3125 6:0.0625 
-1.0 1:0.625 2:0.875 3:0.5 4:1.0 5:0.1875 6:0.125 
-1.0 1:0.5 2:0.6875 3:0.5 4:0.875 5:0.8125 6:0.5 
0.17852035036816308 1:0.75 2:0.5 3:0.625 4:0.1875 5:0.125 6:0.8125 
-1.0 1:0.75 2:0.875 3:1.0 4:1.0 5:0.8125 6:0.4375 
-1.0 1:1.0 2:0.875 3:0.9375 4:0.25 5:0.625 6:0.75 
-0.12562679485749773 1:1.0 2:0.25 3:0.5625 4:0.0 5:0.0625 6:0.625 
