encog,SVM,java,3.2.0,1,1406057660765
[SVM]
[SVM:PARAMS]
[SVM:SVM-PARAM]
inputCount=15
C=1
cacheSize=100
coef0=0
degree=3
eps=0.001
gamma=1
kernelType=2
nrWeight=0
nu=0.5
p=0.1
probability=0
shrinking=1
svmType=3
weight=
weightLabel=
[SVM:SVM-MODEL]
svm_type epsilon_svr
kernel_type rbf
gamma 1.0
nr_class 2
total_sv 302
rho -0.4595197720185159
SV
-0.2611016574610464 1:0.3125 2:0.0625 3:0.0 4:0.5 5:0.0625 6:0.125 7:0.375 8:0.5 9:0.3125 10:0.375 11:0.5 12:0.6875 13:0.8125 14:0.625 15:0.3125 
0.6098082958096571 1:0.5 2:0.625 3:0.4375 4:0.5 5:0.1875 6:0.875 7:0.8125 8:0.8125 9:0.5625 10:0.5 11:0.375 12:0.375 13:0.375 14:0.25 15:0.0625 
-0.07613775183133198 1:0.125 2:0.25 3:0.0 4:0.4375 5:0.4375 6:1.0 7:0.4375 8:0.6875 9:0.75 10:0.1875 11:0.875 12:0.5 13:0.6875 14:0.5625 15:0.5 
0.3008254538736764 1:0.875 2:0.625 3:0.625 4:0.4375 5:0.625 6:0.5 7:0.125 8:0.125 9:0.0 10:0.5 11:0.3125 12:0.125 13:0.5 14:0.4375 15:0.1875 
-0.08615517537573794 1:0.5625 2:0.8125 3:0.8125 4:0.5 5:0.75 6:0.6875 7:0.6875 8:0.4375 9:1.0 10:0.0625 11:0.0625 12:0.8125 13:0.125 14:0.875 15:0.8125 
-1.0 1:0.75 2:0.625 3:0.625 4:0.6875 5:0.875 6:0.25 7:0.1875 8:0.5625 9:0.1875 10:0.5 11:0.6875 12:0.3125 13:0.625 14:0.25 15:0.375 
-0.011146514122220421 1:0.875 2:0.6875 3:0.9375 4:0.8125 5:0.625 6:0.1875 7:0.9375 8:0.25 9:0.5 10:0.8125 11:0.8125 12:0.5625 13:0.125 14:0.3125 15:0.5625 
-0.46113077809899256 1:0.125 2:0.75 3:0.375 4:0.375 5:0.5 6:0.875 7:0.75 8:0.625 9:1.0 10:0.1875 11:0.1875 12:0.1875 13:0.25 14:0.5 15:0.9375 
-0.3768722754546096 1:0.3125 2:0.5 3:0.125 4:0.5 5:0.4375 6:1.0 7:0.5625 8:0.75 9:0.9375 10:0.25 11:0.4375 12:0.6875 13:0.8125 14:0.6875 15:0.75 
-0.29278908564968864 1:0.875 2:0.4375 3:0.6875 4:0.6875 5:0.5625 6:0.4375 7:0.125 8:0.6875 9:0.3125 10:0.5 11:0.75 12:0.75 13:0.9375 14:0.625 15:0.1875 
0.03676586739188016 1:0.5 2:0.6875 3:0.0625 4:0.5625 5:0.625 6:0.5 7:0.3125 8:0.625 9:0.9375 10:0.25 11:0.1875 12:0.6875 13:0.6875 14:0.9375 15:0.625 
0.26844705495350146 1:0.75 2:1.0 3:0.5625 4:0.5 5:0.75 6:0.5 7:0.375 8:0.125 9:0.5625 10:0.1875 11:0.375 12:0.4375 13:0.8125 14:0.75 15:0.8125 
0.19096597663593776 1:0.5625 2:0.3125 3:0.625 4:0.8125 5:0.5625 6:0.5 7:0.5 8:0.6875 9:0.8125 10:0.5 11:0.625 12:0.75 13:0.5 14:0.625 15:0.75 
-1.0 1:0.4375 2:0.5 3:0.5 4:0.5 5:0.5 6:0.875 7:0.75 8:0.75 9:0.6875 10:0.5625 11:0.4375 12:0.4375 13:0.25 14:0.3125 15:0.1875 
0.20883633728706252 1:0.875 2:0.9375 3:0.4375 4:0.9375 5:0.875 6:0.4375 7:0.1875 8:0.6875 9:0.0 10:0.4375 11:1.0 12:0.5 13:0.875 14:0.5625 15:0.25 
0.22234304477054204 1:0.5625 2:0.25 3:1.0 4:0.9375 5:0.625 6:0.4375 7:0.9375 8:0.625 9:0.75 10:0.8125 11:0.75 12:1.0 13:0.3125 14:0.4375 15:0.5625 
0.1719746801985655 1:0.0625 2:0.5 3:0.3125 4:0.625 5:0.25 6:0.9375 7:0.1875 8:0.5625 9:0.5 10:0.125 11:0.6875 12:0.1875 13:0.75 14:0.4375 15:0.0625 
1.0 1:0.125 2:0.0625 3:0.0 4:0.25 5:0.4375 6:0.4375 7:0.5 8:0.9375 9:0.5625 10:0.625 11:0.875 12:0.6875 13:0.5 14:0.3125 15:0.25 
0.45295028813633503 1:0.0 2:0.3125 3:0.4375 4:0.3125 5:0.125 6:0.25 7:0.875 8:0.75 9:0.4375 10:1.0 11:0.8125 12:0.8125 13:0.5 14:0.1875 15:0.3125 
-0.7936130386198096 1:0.0625 2:0.3125 3:0.125 4:0.6875 5:0.5 6:0.5625 7:0.875 8:0.8125 9:0.625 10:1.0 11:0.9375 12:0.5625 13:0.8125 14:0.5 15:0.3125 
0.36892679425431546 1:0.6875 2:0.5 3:0.375 4:0.1875 5:0.5 6:0.4375 7:0.0625 8:0.1875 9:0.5625 10:0.5625 11:0.1875 12:0.8125 13:0.5 14:0.6875 15:0.75 
0.45901444490856935 1:0.6875 2:0.0625 3:0.5 4:0.4375 5:0.0 6:0.375 7:0.3125 8:0.4375 9:0.1875 10:0.6875 11:0.5625 12:0.0625 13:0.625 14:0.375 15:0.25 
-0.34989675669757203 1:1.0 2:0.75 3:0.625 4:0.6875 5:0.625 6:0.5625 7:0.5625 8:0.75 9:0.4375 10:0.3125 11:0.625 12:0.0625 13:0.875 14:0.1875 15:0.375 
-0.4534554234110301 1:0.0 2:0.5 3:0.5 4:0.0 5:0.4375 6:0.6875 7:0.625 8:0.8125 9:0.875 10:0.625 11:0.375 12:0.375 13:0.125 14:0.5 15:0.5 
0.1375373691105191 1:0.5 2:0.625 3:0.1875 4:0.5625 5:0.4375 6:0.9375 7:0.25 8:0.3125 9:0.5 10:0.0 11:0.375 12:0.0 13:0.8125 14:0.5 15:0.25 
-0.5231057171269217 1:0.875 2:0.5625 3:0.5 4:0.6875 5:0.8125 6:0.5625 7:0.1875 8:0.0 9:0.25 10:0.0625 11:0.5 12:0.375 13:0.8125 14:1.0 15:0.5 
-0.446514104498995 1:0.875 2:0.8125 3:0.3125 4:0.9375 5:0.8125 6:0.8125 7:0.3125 8:0.625 9:0.5 10:0.125 11:0.3125 12:0.0 13:0.75 14:0.625 15:0.5625 
0.21456858780636834 1:0.6875 2:0.5625 3:0.5 4:0.6875 5:0.5 6:0.3125 7:0.0 8:0.6875 9:0.375 10:0.4375 11:0.875 12:0.0 13:0.875 14:0.5 15:0.0625 
-1.0 1:0.6875 2:0.625 3:0.875 4:0.5 5:0.5 6:0.0625 7:0.25 8:0.375 9:0.4375 10:0.5625 11:0.5 12:0.375 13:0.125 14:0.5 15:0.6875 
1.0 1:0.1875 2:0.3125 3:0.25 4:0.4375 5:0.0625 6:0.4375 7:0.375 8:0.25 9:0.5 10:0.625 11:0.5625 12:0.4375 13:0.375 14:0.5 15:0.5 
0.4851601989468008 1:0.5625 2:0.4375 3:0.4375 4:0.6875 5:0.625 6:0.25 7:0.0 8:0.5 9:0.125 10:0.1875 11:0.6875 12:0.3125 13:0.9375 14:1.0 15:0.1875 
0.38529736383353597 1:0.75 2:0.75 3:0.875 4:0.75 5:0.8125 6:0.5 7:0.375 8:0.5 9:0.25 10:0.125 11:0.3125 12:0.1875 13:0.5 14:0.1875 15:0.0 
-0.4425776842576044 1:0.9375 2:0.875 3:0.4375 4:0.6875 5:0.75 6:0.5625 7:0.125 8:0.3125 9:0.6875 10:0.375 11:0.0625 12:0.375 13:0.625 14:1.0 15:0.75 
0.17750691692808102 1:0.8125 2:0.625 3:0.875 4:0.4375 5:0.625 6:0.625 7:0.625 8:0.3125 9:0.8125 10:0.5 11:0.3125 12:0.9375 13:0.125 14:0.5625 15:0.625 
0.2658209238310186 1:0.625 2:0.5625 3:0.5 4:0.0625 5:0.6875 6:0.5625 7:0.5 8:0.4375 9:0.9375 10:0.4375 11:0.25 12:0.4375 13:0.25 14:1.0 15:1.0 
0.08455724088216413 1:0.5 2:0.75 3:0.625 4:0.875 5:0.125 6:1.0 7:0.625 8:0.6875 9:0.0625 10:0.375 11:0.5625 12:0.0 13:0.4375 14:0.0 15:0.1875 
-0.46404795542813604 1:0.9375 2:0.6875 3:0.625 4:0.5 5:1.0 6:0.625 7:0.1875 8:0.0625 9:0.4375 10:0.3125 11:0.3125 12:0.1875 13:0.5625 14:0.6875 15:0.4375 
-0.9616160842891908 1:0.1875 2:0.5625 3:0.625 4:0.5625 5:0.3125 6:0.5625 7:0.625 8:0.625 9:0.0625 10:0.5 11:0.4375 12:0.375 13:0.4375 14:0.1875 15:0.1875 
0.016521571583924803 1:0.3125 2:1.0 3:0.625 4:0.5 5:0.5625 6:0.75 7:0.5625 8:0.5 9:0.375 10:0.5625 11:0.1875 12:0.0 13:0.4375 14:0.125 15:0.4375 
-0.5990816823614895 1:0.75 2:0.75 3:0.875 4:0.5625 5:0.9375 6:0.4375 7:0.125 8:0.3125 9:0.75 10:0.3125 11:0.4375 12:0.75 13:0.8125 14:0.75 15:0.625 
0.17251339128764118 1:0.25 2:0.375 3:0.125 4:0.375 5:0.5 6:0.4375 7:0.0625 8:0.4375 9:0.5625 10:0.0 11:0.0 12:0.8125 13:0.75 14:0.875 15:0.75 
0.44690027580187563 1:0.25 2:0.125 3:0.25 4:0.0 5:0.0 6:0.0625 7:0.5625 8:0.375 9:0.5 10:0.875 11:0.5 12:0.875 13:0.5625 14:0.6875 15:0.625 
-1.0 1:0.25 2:0.4375 3:0.4375 4:0.375 5:0.4375 6:0.25 7:0.5 8:0.625 9:0.625 10:0.4375 11:0.5 12:0.875 13:0.5 14:0.875 15:0.6875 
-1.0 1:0.5 2:0.125 3:0.8125 4:0.5625 5:0.8125 6:0.4375 7:0.5 8:0.5625 9:0.9375 10:0.8125 11:0.75 12:0.6875 13:0.5 14:0.4375 15:0.4375 
0.5631411060916658 1:0.1875 2:0.3125 3:0.4375 4:0.5 5:0.5625 6:0.125 7:0.3125 8:0.4375 9:0.4375 10:0.5 11:0.75 12:0.625 13:0.625 14:0.5625 15:0.4375 
-0.5577961840147658 1:0.0 2:0.4375 3:0.375 4:0.25 5:0.3125 6:0.9375 7:0.625 8:0.75 9:0.9375 10:0.625 11:0.75 12:0.5625 13:0.5625 14:0.8125 15:0.5 
-0.9072938143994232 1:0.1875 2:0.25 3:0.3125 4:0.6875 5:0.5625 6:0.5 7:0.5625 8:1.0 9:0.625 10:0.75 11:1.0 12:0.9375 13:0.5 14:0.5 15:0.0 
0.06913115163791882 1:0.625 2:1.0 3:0.8125 4:0.8125 5:0.5 6:0.5 7:0.4375 8:0.75 9:0.125 10:0.0625 11:0.4375 12:0.125 13:1.0 14:0.5 15:0.0 
0.350892620086447 1:1.0 2:0.625 3:0.6875 4:0.9375 5:0.75 6:0.25 7:0.0 8:0.4375 9:0.25 10:0.6875 11:0.625 12:0.75 13:0.8125 14:0.6875 15:0.5 
0.6790320826430343 1:0.5625 2:1.0 3:0.625 4:0.6875 5:0.75 6:0.875 7:0.625 8:0.6875 9:0.9375 10:0.0625 11:0.0625 12:0.375 13:0.0625 14:0.875 15:0.8125 
0.5467157368682308 1:0.3125 2:0.5 3:0.625 4:0.5 5:0.625 6:0.4375 7:0.625 8:0.75 9:0.6875 10:0.875 11:0.8125 12:0.5 13:0.375 14:0.0625 15:0.3125 
0.0348826150126504 1:0.5 2:0.125 3:0.0 4:0.375 5:0.625 6:0.0 7:0.125 8:0.375 9:0.875 10:0.625 11:0.9375 12:1.0 13:0.5 14:0.9375 15:1.0 
-0.3067656830513166 1:1.0 2:0.9375 3:0.8125 4:0.9375 5:0.625 6:0.5 7:0.5625 8:1.0 9:0.25 10:0.75 11:0.5 12:0.3125 13:0.4375 14:0.4375 15:0.3125 
-0.5502468203879808 1:0.0 2:0.375 3:0.125 4:0.125 5:0.3125 6:0.75 7:0.5 8:0.625 9:0.5 10:0.5625 11:0.6875 12:0.4375 13:0.6875 14:0.5 15:0.0 
0.2595645039525604 1:0.9375 2:0.5 3:0.875 4:0.8125 5:0.9375 6:0.375 7:0.625 8:0.5 9:0.9375 10:0.625 11:0.5 12:0.9375 13:0.0 14:0.5 15:0.875 
0.2242610161968983 1:0.9375 2:1.0 3:0.625 4:0.375 5:1.0 6:0.3125 7:0.4375 8:0.0625 9:0.6875 10:0.375 11:0.0625 12:0.8125 13:0.0 14:1.0 15:0.8125 
1.0 1:0.625 2:0.75 3:0.8125 4:0.0625 5:0.5 6:0.3125 7:0.1875 8:0.25 9:0.375 10:0.5625 11:0.3125 12:0.3125 13:0.25 14:0.3125 15:0.625 
-0.3732305698642022 1:0.75 2:0.625 3:0.6875 4:0.75 5:0.625 6:0.875 7:0.5 8:0.6875 9:0.75 10:0.375 11:0.5 12:0.75 13:0.6875 14:0.6875 15:0.5 
0.2618168400316379 1:0.1875 2:0.5 3:0.0625 4:0.4375 5:0.4375 6:0.5 7:0.3125 8:0.375 9:0.5 10:0.0625 11:0.1875 12:0.125 13:0.5 14:0.5 15:0.6875 
0.3137672374551582 1:0.8125 2:0.9375 3:0.9375 4:0.625 5:1.0 6:0.5 7:0.5 8:0.6875 9:0.75 10:0.6875 11:0.3125 12:0.75 13:0.375 14:0.5 15:0.5625 
-0.021155416969860442 1:0.375 2:0.5625 3:0.0 4:0.875 5:0.375 6:0.6875 7:0.3125 8:0.6875 9:0.5625 10:0.3125 11:1.0 12:0.4375 13:1.0 14:0.4375 15:0.3125 
-0.779505661013215 1:0.125 2:0.3125 3:0.1875 4:0.0625 5:0.0 6:0.4375 7:0.6875 8:0.0 9:0.375 10:0.625 11:0.375 12:0.625 13:0.3125 14:0.5625 15:0.625 
1.0 1:0.625 2:0.8125 3:0.5625 4:0.75 5:0.9375 6:0.5625 7:0.1875 8:0.3125 9:0.5 10:0.25 11:0.25 12:0.0 13:0.75 14:0.9375 15:0.5 
-0.1190798268192593 1:0.0 2:0.4375 3:0.25 4:0.3125 5:0.5 6:0.5625 7:0.625 8:1.0 9:0.875 10:0.5625 11:0.6875 12:0.625 13:0.4375 14:0.5 15:0.5625 
0.08843790635718157 1:0.625 2:0.8125 3:0.875 4:0.5 5:0.75 6:0.3125 7:1.0 8:0.3125 9:0.8125 10:0.875 11:0.0625 12:0.5 13:0.0625 14:0.375 15:1.0 
-0.7408196537083667 1:0.0625 2:0.4375 3:0.125 4:0.125 5:0.375 6:0.8125 7:0.375 8:0.125 9:0.75 10:0.4375 11:0.3125 12:0.3125 13:0.4375 14:1.0 15:0.75 
-0.17682061315225206 1:0.4375 2:0.125 3:0.5 4:0.3125 5:0.5625 6:0.5 7:0.75 8:0.0 9:0.6875 10:0.625 11:0.4375 12:0.6875 13:0.3125 14:0.1875 15:1.0 
-0.040133631689108315 1:0.75 2:0.5625 3:0.5 4:0.75 5:0.4375 6:0.0625 7:0.0 8:0.5 9:0.0 10:0.6875 11:0.6875 12:0.875 13:0.625 14:0.5 15:0.375 
0.2519270711069888 1:0.75 2:0.625 3:0.25 4:0.625 5:0.4375 6:0.5 7:0.25 8:0.5625 9:0.5 10:0.1875 11:0.5625 12:0.375 13:0.625 14:0.5625 15:0.375 
-0.5649236079775435 1:0.5 2:0.9375 3:0.5 4:0.75 5:0.625 6:0.5 7:0.3125 8:0.375 9:0.5625 10:0.3125 11:0.625 12:0.5 13:0.8125 14:0.6875 15:0.5 
-0.413452085111361 1:0.75 2:0.9375 3:0.875 4:0.5 5:1.0 6:0.375 7:0.625 8:0.5625 9:0.5625 10:0.625 11:0.625 12:0.625 13:0.0 14:0.5 15:0.625 
0.22743768818795815 1:0.0625 2:0.5 3:0.125 4:0.5625 5:0.5625 6:0.375 7:0.375 8:0.5625 9:0.625 10:0.4375 11:1.0 12:0.875 13:0.9375 14:0.9375 15:0.25 
0.6793544194446608 1:0.6875 2:0.9375 3:0.75 4:1.0 5:0.5625 6:0.9375 7:0.5 8:0.75 9:0.875 10:0.1875 11:0.8125 12:0.5 13:0.9375 14:0.5 15:0.25 
0.4124436336004049 1:0.8125 2:0.8125 3:0.6875 4:0.875 5:0.625 6:0.25 7:0.5625 8:0.4375 9:0.0 10:0.625 11:0.6875 12:0.3125 13:0.875 14:0.1875 15:0.1875 
-0.7900046004419374 1:0.5 2:0.5 3:0.9375 4:0.8125 5:0.375 6:0.4375 7:0.9375 8:0.6875 9:0.75 10:0.875 11:0.875 12:0.4375 13:0.5 14:0.4375 15:0.0625 
-0.8815404636620086 1:0.8125 2:0.5 3:0.4375 4:0.625 5:0.5 6:0.3125 7:0.25 8:0.1875 9:0.3125 10:0.1875 11:0.375 12:0.0625 13:0.875 14:0.6875 15:0.25 
0.4374197140182664 1:0.6875 2:0.5 3:0.6875 4:0.25 5:0.5 6:0.4375 7:0.875 8:0.375 9:0.5 10:0.8125 11:0.375 12:0.5625 13:0.125 14:0.0 15:0.8125 
0.19953588508563025 1:0.9375 2:0.5625 3:0.0625 4:0.4375 5:0.375 6:0.5 7:0.3125 8:0.1875 9:0.375 10:0.1875 11:0.25 12:0.125 13:0.5 14:0.75 15:0.4375 
-0.06002613968154816 1:0.0 2:0.5 3:0.5 4:0.25 5:0.0 6:0.6875 7:1.0 8:0.25 9:0.1875 10:0.3125 11:0.0 12:0.1875 13:0.1875 14:0.375 15:0.5625 
-0.24176057291213943 1:0.25 2:0.375 3:0.5 4:0.4375 5:0.375 6:0.4375 7:0.8125 8:0.9375 9:0.4375 10:0.5 11:0.75 12:0.3125 13:0.8125 14:0.5 15:0.25 
-0.3887267862205114 1:0.8125 2:0.5625 3:0.5 4:0.375 5:0.4375 6:0.375 7:0.375 8:0.0 9:0.25 10:0.75 11:0.4375 12:0.25 13:0.1875 14:0.25 15:0.1875 
0.16939619793472502 1:0.4375 2:0.4375 3:0.3125 4:0.25 5:0.0 6:0.625 7:0.5625 8:0.5625 9:0.3125 10:0.4375 11:0.375 12:0.5 13:0.4375 14:0.25 15:0.0 
-0.9894233957065015 1:0.75 2:0.875 3:0.875 4:0.875 5:0.9375 6:0.5625 7:0.5625 8:0.5625 9:0.5 10:0.5 11:0.375 12:0.375 13:0.625 14:0.5 15:0.875 
0.18920476492766986 1:0.875 2:0.75 3:0.625 4:0.875 5:0.5625 6:0.1875 7:0.125 8:0.25 9:0.3125 10:0.3125 11:0.5 12:0.5 13:0.5 14:1.0 15:0.75 
-0.5152898251195448 1:0.9375 2:0.5 3:0.1875 4:0.6875 5:0.5625 6:0.125 7:0.0625 8:0.375 9:0.0625 10:0.125 11:0.3125 12:0.375 13:0.625 14:0.6875 15:0.3125 
1.0 1:0.5625 2:0.4375 3:0.9375 4:0.625 5:0.75 6:0.3125 7:0.625 8:0.4375 9:0.375 10:0.875 11:0.5 12:0.4375 13:0.1875 14:0.375 15:0.5 
0.03305216788946346 1:1.0 2:0.25 3:1.0 4:0.5625 5:0.9375 6:0.0625 7:0.75 8:0.5 9:1.0 10:0.9375 11:0.5 12:1.0 13:0.0 14:0.4375 15:0.8125 
0.4148152045808134 1:0.25 2:0.1875 3:0.1875 4:0.125 5:0.0 6:0.1875 7:0.6875 8:0.25 9:0.625 10:0.875 11:0.4375 12:0.5625 13:0.375 14:0.1875 15:0.625 
-0.018417629627227886 1:0.375 2:0.0625 3:0.0625 4:0.0 5:0.4375 6:0.5 7:0.5 8:0.625 9:0.8125 10:0.1875 11:0.625 12:0.875 13:0.9375 14:1.0 15:0.5 
0.5468836884467912 1:0.0 2:0.375 3:0.0625 4:0.4375 5:0.5 6:1.0 7:0.75 8:0.75 9:0.8125 10:0.4375 11:0.5 12:0.0 13:0.75 14:0.625 15:0.3125 
0.3900829130694757 1:0.0625 2:0.0 3:0.25 4:0.4375 5:0.0625 6:0.4375 7:0.6875 8:0.875 9:0.625 10:0.4375 11:0.75 12:0.5625 13:0.6875 14:0.1875 15:0.0 
0.5497471513058338 1:0.375 2:0.5 3:0.625 4:0.875 5:0.5 6:0.25 7:0.875 8:0.875 9:0.875 10:0.8125 11:0.6875 12:1.0 13:0.4375 14:0.5 15:0.5 
-1.0 1:0.125 2:0.3125 3:0.5 4:0.5 5:0.5 6:0.5 7:0.5625 8:0.5625 9:0.4375 10:0.5 11:0.875 12:0.5 13:0.375 14:0.5 15:0.4375 
-0.5426266576046525 1:0.5625 2:0.75 3:0.4375 4:0.5 5:0.875 6:0.625 7:0.25 8:0.6875 9:0.5 10:0.375 11:0.5 12:0.8125 13:0.75 14:0.6875 15:0.5 
-0.772564347256462 1:1.0 2:0.625 3:0.75 4:0.6875 5:0.8125 6:0.5 7:0.5625 8:0.5 9:0.5625 10:0.0625 11:0.4375 12:0.5 13:0.4375 14:0.6875 15:0.8125 
-0.056375530093997976 1:0.5 2:0.4375 3:0.25 4:0.25 5:0.4375 6:0.5625 7:0.3125 8:0.5 9:0.5 10:0.0 11:0.375 12:0.4375 13:0.9375 14:0.5 15:0.625 
-0.9477293847645459 1:0.9375 2:0.8125 3:0.5 4:0.5625 5:0.5 6:0.5 7:0.125 8:0.0625 9:0.4375 10:0.5 11:0.1875 12:0.3125 13:0.5 14:0.25 15:0.6875 
-0.08648569879992105 1:0.375 2:0.5 3:0.8125 4:0.5 5:0.6875 6:0.625 7:0.875 8:1.0 9:0.9375 10:0.5 11:0.6875 12:0.5 13:0.5625 14:0.5 15:0.25 
-0.5449438752131317 1:0.375 2:0.375 3:0.4375 4:0.1875 5:0.25 6:0.6875 7:0.5 8:0.3125 9:0.5 10:0.75 11:0.5 12:0.5 13:0.125 14:0.5 15:0.625 
-0.3329072301605304 1:0.25 2:0.5 3:0.6875 4:0.5 5:0.4375 6:0.375 7:0.75 8:0.5625 9:0.5 10:1.0 11:0.6875 12:1.0 13:0.25 14:0.0625 15:0.5625 
0.7324634562094086 1:0.0 2:0.375 3:0.5 4:0.0625 5:0.0625 6:0.6875 7:0.6875 8:0.375 9:0.0625 10:0.5625 11:0.5625 12:0.1875 13:0.1875 14:0.0625 15:0.125 
-0.2954059211963503 1:0.5 2:0.0625 3:0.1875 4:0.5 5:0.5 6:0.3125 7:0.1875 8:0.625 9:0.0625 10:0.25 11:0.875 12:0.4375 13:0.9375 14:1.0 15:0.0625 
0.2056223589044403 1:0.5625 2:0.5 3:0.375 4:0.5 5:0.0625 6:0.4375 7:0.5 8:0.875 9:0.4375 10:0.3125 11:0.5 12:0.4375 13:0.8125 14:0.4375 15:0.3125 
0.1487023855041788 1:0.4375 2:0.125 3:0.25 4:0.9375 5:0.625 6:0.4375 7:0.5 8:0.6875 9:0.6875 10:0.3125 11:0.8125 12:0.75 13:0.9375 14:1.0 15:0.6875 
0.08422638543462277 1:0.25 2:0.4375 3:0.75 4:0.5625 5:0.375 6:0.8125 7:0.625 8:0.875 9:1.0 10:0.5 11:0.5 12:0.25 13:0.5 14:0.1875 15:0.1875 
-0.48282263904289485 1:0.625 2:0.1875 3:0.3125 4:0.25 5:0.375 6:0.0 7:0.0 8:0.3125 9:0.1875 10:0.9375 11:0.5 12:0.8125 13:0.1875 14:0.3125 15:0.8125 
0.3444313222295244 1:0.625 2:0.8125 3:0.6875 4:0.5625 5:0.25 6:0.875 7:0.5 8:0.0625 9:0.125 10:0.375 11:0.1875 12:0.3125 13:0.3125 14:0.125 15:0.5 
0.34605084243381085 1:0.1875 2:0.5 3:0.1875 4:0.5 5:0.5 6:0.9375 7:1.0 8:0.6875 9:0.6875 10:0.5 11:0.875 12:0.5 13:0.9375 14:0.625 15:0.5 
-0.04429744637192656 1:0.1875 2:0.4375 3:0.125 4:0.75 5:0.4375 6:0.625 7:0.375 8:0.9375 9:1.0 10:0.1875 11:1.0 12:0.1875 13:1.0 14:0.625 15:0.25 
-0.1067976611367021 1:0.1875 2:0.25 3:0.375 4:0.5 5:0.4375 6:0.8125 7:0.875 8:0.625 9:0.6875 10:0.5 11:0.75 12:0.25 13:0.6875 14:0.25 15:0.0625 
0.9763236544300693 1:0.0 2:0.625 3:0.125 4:0.0 5:0.25 6:0.75 7:0.5625 8:0.4375 9:0.6875 10:0.375 11:0.25 12:0.5625 13:0.3125 14:0.875 15:0.9375 
0.15073675570564007 1:0.375 2:0.5 3:0.25 4:0.8125 5:0.625 6:0.875 7:0.375 8:0.75 9:1.0 10:0.1875 11:0.5625 12:0.625 13:0.6875 14:1.0 15:0.1875 
0.09291231705860548 1:1.0 2:0.6875 3:0.6875 4:0.4375 5:1.0 6:0.375 7:0.0 8:0.1875 9:0.25 10:0.5625 11:0.25 12:0.875 13:0.0 14:0.625 15:0.625 
0.34020493333342333 1:0.75 2:0.6875 3:0.5 4:0.4375 5:1.0 6:0.1875 7:0.3125 8:0.0 9:0.5625 10:0.5 11:0.5 12:0.5625 13:0.125 14:0.5625 15:0.8125 
-0.6599575840120642 1:0.0625 2:0.375 3:0.375 4:0.1875 5:0.0 6:0.5 7:0.9375 8:0.8125 9:0.5 10:0.5625 11:0.9375 12:0.375 13:0.625 14:0.125 15:0.0625 
-0.5950699034750758 1:0.8125 2:0.4375 3:0.5 4:0.6875 5:0.8125 6:0.125 7:0.3125 8:0.6875 9:0.5625 10:0.6875 11:0.9375 12:0.9375 13:0.5 14:0.6875 15:0.875 
0.4885090918874684 1:0.625 2:1.0 3:0.8125 4:1.0 5:0.9375 6:0.625 7:0.9375 8:0.75 9:0.875 10:0.75 11:0.625 12:0.75 13:0.75 14:0.4375 15:0.125 
-0.1377964135065501 1:0.5 2:0.0 3:0.125 4:0.0625 5:0.125 6:0.25 7:0.125 8:0.375 9:0.5625 10:0.75 11:0.75 12:1.0 13:0.5 14:0.5 15:0.5 
-0.46068238857626687 1:0.25 2:0.625 3:0.875 4:0.9375 5:0.75 6:0.5625 7:0.8125 8:0.9375 9:0.9375 10:0.5 11:0.625 12:0.875 13:0.5625 14:0.4375 15:0.1875 
-0.6113870873273358 1:0.5 2:1.0 3:0.5 4:0.5625 5:0.625 6:0.625 7:1.0 8:0.625 9:0.625 10:0.5 11:0.125 12:0.5 13:0.375 14:0.1875 15:0.5 
-0.09475125501659393 1:1.0 2:0.375 3:0.75 4:0.875 5:1.0 6:0.125 7:0.5 8:0.0 9:0.375 10:0.625 11:0.5625 12:1.0 13:0.3125 14:0.375 15:0.5625 
0.1457693407429867 1:0.9375 2:0.8125 3:0.75 4:0.625 5:0.875 6:0.3125 7:0.375 8:0.1875 9:0.375 10:1.0 11:0.1875 12:0.75 13:0.3125 14:0.5 15:0.8125 
0.02352084340622806 1:0.5 2:0.125 3:0.5625 4:0.3125 5:0.375 6:0.1875 7:0.5 8:0.25 9:0.75 10:0.5625 11:0.5 12:0.5625 13:0.0625 14:0.375 15:0.875 
0.49863018585595836 1:0.875 2:0.125 3:0.625 4:0.625 5:0.75 6:0.0625 7:0.125 8:0.1875 9:0.1875 10:0.625 11:1.0 12:0.8125 13:0.5 14:0.6875 15:0.875 
0.2951534360648921 1:0.75 2:0.5 3:0.3125 4:0.625 5:0.1875 6:0.0 7:0.0 8:0.0 9:0.125 10:0.5 11:0.5 12:0.25 13:0.625 14:0.125 15:0.125 
0.15377486407658944 1:0.125 2:0.1875 3:0.25 4:0.25 5:0.1875 6:0.9375 7:0.75 8:0.5 9:0.8125 10:0.5625 11:0.6875 12:0.625 13:0.3125 14:0.5 15:0.5 
-0.16460032007285308 1:0.5 2:0.875 3:0.6875 4:0.25 5:0.4375 6:0.75 7:0.3125 8:0.125 9:0.25 10:0.0 11:0.1875 12:0.0 13:0.375 14:0.4375 15:0.3125 
-0.12341456467723042 1:0.375 2:0.0625 3:0.5625 4:0.1875 5:0.0625 6:0.3125 7:0.5 8:0.0625 9:0.0625 10:0.75 11:0.8125 12:0.5625 13:0.1875 14:0.0 15:0.625 
0.16546250360298498 1:0.375 2:0.5625 3:0.9375 4:0.75 5:0.6875 6:0.4375 7:0.9375 8:0.8125 9:0.9375 10:0.875 11:0.75 12:0.4375 13:0.3125 14:0.25 15:0.3125 
0.6646054582506479 1:1.0 2:0.5 3:0.625 4:0.5 5:0.8125 6:0.25 7:0.1875 8:0.375 9:0.25 10:0.5625 11:0.5 12:0.625 13:0.0 14:0.5625 15:0.9375 
0.15965894087112487 1:0.75 2:0.75 3:0.875 4:0.9375 5:0.25 6:0.6875 7:0.625 8:0.5 9:0.3125 10:0.5625 11:0.0625 12:0.0 13:0.3125 14:0.0625 15:0.3125 
-0.02154429579086756 1:1.0 2:0.875 3:0.4375 4:0.5625 5:0.5 6:0.6875 7:0.1875 8:0.4375 9:0.375 10:0.0 11:0.25 12:0.25 13:0.4375 14:0.5625 15:0.125 
0.08179694605719975 1:0.3125 2:0.5625 3:0.375 4:0.625 5:0.5625 6:0.9375 7:0.5 8:0.5625 9:0.9375 10:0.125 11:0.0625 12:0.5 13:1.0 14:0.6875 15:0.6875 
-0.10622111014321836 1:0.9375 2:0.875 3:0.5625 4:0.875 5:0.1875 6:0.4375 7:0.3125 8:0.5625 9:0.125 10:0.5625 11:0.5 12:0.1875 13:0.625 14:0.375 15:0.0625 
0.8486947721209253 1:0.9375 2:0.8125 3:0.9375 4:0.5 5:0.9375 6:0.4375 7:0.375 8:0.4375 9:1.0 10:0.4375 11:0.5 12:0.625 13:0.4375 14:0.625 15:0.75 
-0.12053086476243759 1:0.125 2:0.5 3:0.125 4:0.25 5:0.5 6:0.9375 7:0.1875 8:0.25 9:0.6875 10:0.1875 11:0.25 12:0.4375 13:0.8125 14:0.75 15:1.0 
-0.46329388216751627 1:0.4375 2:0.4375 3:0.5 4:0.0 5:0.375 6:0.625 7:0.6875 8:0.5625 9:1.0 10:0.625 11:0.0 12:0.4375 13:0.4375 14:0.4375 15:0.625 
-0.22933916058564685 1:0.4375 2:0.5 3:0.5 4:0.5 5:0.5 6:0.875 7:0.9375 8:0.6875 9:0.875 10:0.4375 11:0.4375 12:0.25 13:0.125 14:0.4375 15:0.3125 
0.007334440346197461 1:0.5 2:0.875 3:0.9375 4:0.9375 5:1.0 6:0.9375 7:0.875 8:0.875 9:0.5625 10:0.1875 11:0.25 12:0.25 13:0.625 14:0.4375 15:0.375 
0.07985803541891742 1:0.375 2:0.75 3:1.0 4:0.375 5:0.8125 6:0.875 7:0.875 8:0.5 9:0.8125 10:0.5 11:0.5 12:0.8125 13:0.0625 14:0.6875 15:0.6875 
0.36186451082545895 1:0.4375 2:0.75 3:0.6875 4:0.4375 5:0.6875 6:0.6875 7:0.9375 8:0.875 9:0.875 10:0.4375 11:0.5 12:0.4375 13:0.125 14:0.375 15:0.875 
-0.0526969397546218 1:0.4375 2:0.9375 3:0.5 4:0.5 5:0.875 6:1.0 7:0.8125 8:0.4375 9:1.0 10:0.3125 11:0.4375 12:0.625 13:0.1875 14:0.875 15:0.6875 
0.06824783819425924 1:0.125 2:0.5625 3:0.4375 4:0.4375 5:0.6875 6:0.75 7:0.75 8:0.625 9:0.8125 10:0.5625 11:0.1875 12:0.5 13:0.25 14:0.8125 15:0.6875 
0.48704363587765126 1:0.0625 2:0.6875 3:0.875 4:0.6875 5:0.5 6:0.9375 7:0.875 8:0.625 9:0.875 10:0.3125 11:0.5 12:0.375 13:0.5625 14:0.125 15:0.3125 
0.7508255423593277 1:0.6875 2:0.75 3:0.8125 4:0.75 5:0.75 6:0.5 7:0.625 8:0.375 9:0.3125 10:0.375 11:0.25 12:0.5 13:0.0 14:0.375 15:0.625 
-0.8468554093863805 1:0.75 2:0.6875 3:0.375 4:0.625 5:0.625 6:0.125 7:0.0625 8:0.4375 9:0.125 10:0.375 11:0.625 12:0.375 13:0.8125 14:0.5625 15:0.625 
-0.22857424155370812 1:0.5 2:0.625 3:0.875 4:0.5 5:0.75 6:0.4375 7:0.4375 8:0.0 9:0.4375 10:0.25 11:0.125 12:0.5 13:0.375 14:0.625 15:0.9375 
-0.10768443362110297 1:0.1875 2:0.375 3:0.5 4:0.1875 5:0.625 6:1.0 7:0.6875 8:0.9375 9:0.875 10:0.375 11:0.5 12:0.875 13:0.3125 14:0.875 15:0.9375 
0.35063547007703316 1:0.3125 2:0.375 3:0.3125 4:0.75 5:0.25 6:0.5 7:0.5 8:0.5 9:0.3125 10:0.5625 11:0.75 12:0.5625 13:0.5625 14:0.5625 15:0.125 
-0.3922785913345638 1:0.375 2:0.1875 3:0.25 4:0.125 5:0.5 6:0.5625 7:0.5 8:0.6875 9:0.875 10:0.4375 11:0.9375 12:0.875 13:0.8125 14:0.8125 15:0.9375 
0.2960033925492259 1:0.0 2:0.3125 3:0.0 4:0.0625 5:0.25 6:0.5 7:0.3125 8:0.4375 9:0.0 10:0.5 11:0.5 12:0.5 13:0.5 14:0.25 15:0.5 
0.0072121047663032695 1:0.5 2:0.3125 3:0.0 4:0.125 5:0.5 6:0.4375 7:0.4375 8:0.0 9:0.3125 10:0.625 11:0.625 12:0.625 13:0.5 14:0.5 15:0.6875 
-0.07118197652197755 1:0.875 2:0.5625 3:0.875 4:0.875 5:1.0 6:0.4375 7:0.75 8:0.5625 9:0.5 10:0.75 11:0.5 12:0.5625 13:0.25 14:0.375 15:0.25 
0.33630868428071137 1:0.375 2:0.25 3:0.5 4:0.0 5:0.25 6:0.5 7:0.5 8:0.5 9:0.4375 10:0.8125 11:0.25 12:0.5625 13:0.3125 14:0.5625 15:1.0 
-0.05374753003858498 1:0.0 2:0.625 3:0.6875 4:0.5625 5:0.5 6:0.875 7:0.875 8:0.875 9:0.75 10:1.0 11:0.8125 12:0.625 13:0.4375 14:0.0 15:0.25 
0.3060036348029455 1:0.9375 2:1.0 3:0.4375 4:0.625 5:0.8125 6:0.0 7:0.0 8:0.5 9:0.125 10:0.0625 11:0.5 12:0.1875 13:1.0 14:0.5 15:0.25 
0.6305372978976265 1:0.3125 2:0.375 3:0.5 4:0.125 5:0.5625 6:0.9375 7:0.75 8:0.4375 9:1.0 10:0.6875 11:0.0 12:0.4375 13:0.375 14:0.3125 15:0.625 
0.011116179823525196 1:1.0 2:0.375 3:0.625 4:0.4375 5:0.375 6:0.4375 7:0.625 8:0.25 9:0.0 10:0.5625 11:0.6875 12:0.5 13:0.375 14:0.25 15:0.25 
0.3062370205834781 1:0.375 2:0.5625 3:0.8125 4:0.5 5:0.8125 6:0.6875 7:0.5 8:0.875 9:0.9375 10:0.5625 11:0.5625 12:0.75 13:0.5 14:0.875 15:0.625 
-0.7521493515039593 1:1.0 2:0.5625 3:0.6875 4:0.8125 5:0.75 6:0.5 7:0.6875 8:0.625 9:0.8125 10:1.0 11:0.5 12:1.0 13:0.25 14:0.5625 15:0.5625 
0.42373905357753916 1:1.0 2:1.0 3:0.75 4:0.875 5:0.625 6:0.5 7:0.0 8:0.8125 9:0.5 10:0.4375 11:0.5625 12:0.5 13:0.9375 14:0.875 15:0.4375 
0.513882086754155 1:0.75 2:0.8125 3:0.5 4:0.5 5:0.875 6:0.375 7:0.375 8:0.125 9:0.5625 10:0.5 11:0.5 12:0.6875 13:0.9375 14:0.875 15:0.875 
-0.2985505859858017 1:0.0 2:0.0 3:0.3125 4:0.125 5:0.4375 6:0.5 7:0.6875 8:0.3125 9:0.6875 10:0.75 11:0.6875 12:0.6875 13:0.3125 14:0.8125 15:0.6875 
0.22280066396355053 1:0.8125 2:0.0 3:0.3125 4:0.3125 5:0.5625 6:0.0 7:0.0625 8:0.375 9:0.3125 10:0.375 11:0.5625 12:0.875 13:0.625 14:0.8125 15:0.625 
-0.12073238199638249 1:0.3125 2:0.375 3:0.3125 4:0.5625 5:1.0 6:0.5 7:0.6875 8:0.8125 9:0.625 10:0.625 11:0.875 12:0.875 13:0.5 14:0.9375 15:0.5 
0.1865530661581887 1:0.5625 2:0.5625 3:0.3125 4:0.5 5:0.3125 6:0.5625 7:0.625 8:0.5 9:0.375 10:0.4375 11:0.0625 12:0.375 13:0.5 14:0.0 15:0.375 
-0.6493007133327002 1:0.8125 2:0.6875 3:0.625 4:0.4375 5:0.75 6:0.625 7:0.25 8:0.0625 9:0.1875 10:0.0625 11:0.1875 12:0.25 13:0.0 14:0.3125 15:0.6875 
0.26911672170222595 1:0.125 2:0.125 3:0.125 4:0.0625 5:0.5 6:0.3125 7:0.25 8:0.3125 9:0.75 10:0.5 11:0.6875 12:0.875 13:0.75 14:0.75 15:0.5625 
0.38088269761786925 1:0.875 2:0.625 3:0.625 4:0.5 5:0.6875 6:0.5 7:0.4375 8:0.0625 9:0.375 10:0.375 11:0.3125 12:0.0625 13:0.1875 14:0.5625 15:1.0 
-0.13863016531857766 1:0.875 2:0.9375 3:0.5 4:0.375 5:1.0 6:0.5 7:0.5 8:0.3125 9:0.4375 10:0.3125 11:0.4375 12:0.5625 13:0.5 14:0.5 15:0.75 
0.16332727207397363 1:0.9375 2:0.75 3:0.625 4:0.625 5:0.5 6:0.5 7:0.25 8:0.5625 9:0.1875 10:0.0625 11:0.1875 12:0.4375 13:0.75 14:0.5 15:0.0625 
-0.13770918512030833 1:0.8125 2:0.75 3:0.8125 4:0.5625 5:0.5 6:1.0 7:0.875 8:0.6875 9:0.5625 10:0.25 11:0.0625 12:0.3125 13:0.5 14:0.25 15:0.5 
1.0 1:0.8125 2:0.625 3:0.4375 4:0.75 5:0.6875 6:0.3125 7:0.5 8:0.625 9:0.5 10:0.4375 11:0.5 12:0.5 13:0.625 14:0.5 15:0.3125 
-1.0 1:0.5 2:0.25 3:0.4375 4:1.0 5:0.625 6:0.25 7:0.1875 8:0.4375 9:0.5 10:0.5625 11:0.625 12:0.6875 13:0.625 14:1.0 15:0.375 
-0.12479712712673163 1:0.25 2:0.4375 3:0.875 4:0.6875 5:0.75 6:0.625 7:1.0 8:0.5625 9:0.75 10:0.9375 11:0.5625 12:0.875 13:0.125 14:0.125 15:0.625 
0.06076150633493583 1:0.1875 2:0.3125 3:0.1875 4:0.5 5:0.625 6:0.5 7:0.4375 8:0.9375 9:0.9375 10:0.9375 11:0.75 12:0.8125 13:0.6875 14:0.75 15:0.75 
0.48888111667852135 1:0.9375 2:0.875 3:0.375 4:0.5625 5:0.5 6:0.5625 7:0.1875 8:0.0625 9:0.5 10:0.0 11:0.375 12:0.1875 13:0.4375 14:0.625 15:0.625 
0.011839664989656202 1:0.75 2:1.0 3:0.9375 4:1.0 5:0.625 6:0.4375 7:0.1875 8:0.5625 9:0.3125 10:0.5 11:0.5 12:0.0625 13:0.8125 14:0.5 15:0.375 
0.527830604057875 1:0.6875 2:0.4375 3:0.4375 4:0.4375 5:0.5 6:0.375 7:0.3125 8:0.3125 9:0.375 10:0.3125 11:0.4375 12:0.0625 13:0.6875 14:0.3125 15:0.3125 
-1.0 1:0.875 2:0.5 3:0.875 4:0.3125 5:0.9375 6:0.625 7:0.5 8:0.25 9:0.4375 10:0.5625 11:0.3125 12:0.4375 13:0.125 14:0.4375 15:0.875 
-0.3689286492764756 1:0.5 2:0.3125 3:0.5625 4:0.4375 5:1.0 6:0.375 7:0.1875 8:0.0 9:0.5625 10:0.5 11:0.3125 12:0.75 13:0.3125 14:0.5 15:1.0 
0.05220330493832776 1:0.75 2:0.8125 3:1.0 4:0.5625 5:0.5625 6:0.5 7:0.625 8:0.5 9:0.375 10:0.625 11:0.625 12:0.0 13:0.375 14:0.0625 15:0.5 
0.945118022892755 1:0.0625 2:0.1875 3:0.5625 4:0.5 5:0.5 6:0.3125 7:0.75 8:0.625 9:0.5 10:0.9375 11:0.875 12:0.5625 13:0.8125 14:0.375 15:0.0 
-1.0 1:1.0 2:0.5 3:0.5 4:0.375 5:0.8125 6:0.0625 7:0.1875 8:0.0625 9:0.6875 10:0.25 11:0.625 12:0.75 13:0.5 14:0.8125 15:0.8125 
-0.03598928546944392 1:0.75 2:0.5 3:0.5625 4:0.25 5:1.0 6:0.6875 7:0.6875 8:0.3125 9:0.875 10:0.5 11:0.125 12:0.8125 13:0.1875 14:0.625 15:0.75 
-0.1071810798349011 1:0.5625 2:0.25 3:0.8125 4:0.9375 5:0.5 6:0.0625 7:0.875 8:0.5 9:0.0625 10:0.75 11:1.0 12:0.6875 13:0.5625 14:0.125 15:0.25 
0.6150263769592581 1:0.5625 2:0.625 3:0.625 4:0.625 5:0.5 6:1.0 7:0.75 8:0.8125 9:0.625 10:0.0625 11:0.375 12:0.0625 13:0.5 14:0.4375 15:0.625 
0.17952681646499843 1:0.9375 2:0.875 3:0.5625 4:0.4375 5:0.5625 6:0.5 7:0.3125 8:0.3125 9:0.0 10:0.125 11:0.0 12:0.25 13:0.375 14:0.9375 15:0.8125 
0.27357243791899455 1:0.8125 2:0.75 3:0.4375 4:0.5625 5:0.625 6:0.125 7:0.25 8:0.5 9:0.5 10:0.1875 11:0.6875 12:0.375 13:0.8125 14:0.6875 15:0.375 
0.6062966573231003 1:0.1875 2:0.0 3:0.25 4:0.0 5:0.25 6:0.375 7:1.0 8:0.5 9:0.4375 10:0.5625 11:0.625 12:0.4375 13:0.0 14:0.125 15:0.5 
-0.9093729987869852 1:0.4375 2:0.375 3:0.4375 4:0.375 5:0.375 6:0.5 7:0.6875 8:0.8125 9:0.875 10:0.875 11:0.4375 12:0.5 13:0.5 14:0.4375 15:0.5 
0.04552781570876936 1:0.625 2:0.625 3:0.9375 4:0.6875 5:0.9375 6:0.625 7:0.625 8:0.875 9:0.625 10:0.375 11:0.5 12:0.1875 13:0.5 14:0.5 15:0.0 
0.3164513832000794 1:0.625 2:0.3125 3:0.3125 4:0.625 5:0.8125 6:0.1875 7:0.1875 8:0.125 9:0.625 10:0.5 11:0.4375 12:0.625 13:0.625 14:0.6875 15:0.75 
-0.00405727208366646 1:0.5625 2:0.375 3:0.375 4:0.8125 5:0.4375 6:0.0625 7:0.5 8:0.5 9:0.375 10:1.0 11:0.6875 12:0.6875 13:0.75 14:0.625 15:0.5 
0.7110376124264447 1:0.125 2:0.125 3:0.5 4:0.3125 5:0.75 6:0.5 7:0.8125 8:0.5 9:0.875 10:1.0 11:0.75 12:0.75 13:0.1875 14:0.75 15:0.875 
0.9576872038815398 1:0.9375 2:0.6875 3:0.5 4:0.75 5:0.5625 6:0.625 7:0.0 8:0.25 9:0.125 10:0.1875 11:0.3125 12:0.375 13:0.8125 14:0.875 15:0.4375 
0.6826615128272168 1:0.4375 2:0.5 3:0.6875 4:0.25 5:0.5 6:0.6875 7:0.75 8:0.8125 9:0.6875 10:0.6875 11:0.375 12:0.5 13:0.125 14:0.5 15:0.625 
1.0 1:0.125 2:0.5 3:0.375 4:0.5 5:0.5 6:0.5625 7:0.5 8:0.5 9:1.0 10:0.25 11:0.6875 12:0.8125 13:0.5625 14:1.0 15:0.5 
-0.01139166235314637 1:0.4375 2:0.5 3:0.3125 4:0.375 5:0.375 6:0.875 7:0.3125 8:0.3125 9:0.1875 10:0.3125 11:0.0625 12:0.0625 13:0.375 14:0.5 15:0.875 
0.1382880429557657 1:0.6875 2:0.75 3:0.5625 4:1.0 5:0.6875 6:0.0 7:0.5 8:0.5625 9:0.375 10:0.625 11:1.0 12:0.6875 13:0.5 14:0.3125 15:0.5 
-0.43226718658697255 1:0.1875 2:0.5 3:0.1875 4:0.3125 5:0.6875 6:0.6875 7:0.3125 8:0.4375 9:0.625 10:0.125 11:0.375 12:0.9375 13:0.3125 14:1.0 15:0.875 
-1.0 1:0.4375 2:0.9375 3:0.9375 4:0.9375 5:0.5625 6:0.5625 7:0.5 8:0.6875 9:0.4375 10:0.5 11:0.5 12:0.5625 13:0.625 14:0.4375 15:0.1875 
0.15996319917503557 1:0.875 2:0.625 3:1.0 4:1.0 5:0.625 6:0.5 7:0.1875 8:0.5 9:0.0625 10:0.375 11:0.5625 12:0.5 13:0.6875 14:0.375 15:0.125 
0.2760890701017204 1:0.5625 2:0.6875 3:0.625 4:0.625 5:0.9375 6:0.5 7:0.4375 8:0.5 9:0.5 10:0.125 11:0.5 12:0.9375 13:0.6875 14:0.6875 15:0.875 
-0.9680849468333724 1:0.4375 2:0.375 3:0.4375 4:0.5625 5:0.3125 6:0.9375 7:0.4375 8:0.5 9:0.375 10:0.125 11:0.5 12:0.0625 13:0.5625 14:0.0625 15:0.125 
-0.38122145803153873 1:0.5 2:0.5 3:0.5 4:0.3125 5:0.0 6:0.1875 7:0.0625 8:0.1875 9:0.4375 10:0.5 11:0.25 12:0.5 13:0.125 14:0.25 15:0.625 
-0.16430222633806582 1:0.0625 2:0.125 3:0.4375 4:0.5 5:0.5 6:0.625 7:0.5 8:0.5 9:0.5625 10:0.375 11:0.75 12:1.0 13:0.75 14:0.9375 15:0.625 
-0.11337612990668645 1:0.5 2:0.9375 3:0.6875 4:0.5 5:0.4375 6:0.5 7:0.375 8:0.1875 9:0.4375 10:0.375 11:0.3125 12:0.0625 13:0.5 14:0.375 15:0.625 
-0.7477133406072762 1:0.4375 2:0.6875 3:0.3125 4:0.0625 5:0.0625 6:0.6875 7:0.625 8:0.4375 9:0.5 10:0.5 11:0.375 12:0.125 13:0.0 14:0.5 15:0.5 
-0.9209699398232711 1:0.1875 2:0.1875 3:0.4375 4:0.3125 5:0.125 6:0.25 7:0.5 8:0.4375 9:0.3125 10:0.625 11:0.8125 12:0.75 13:0.75 14:0.375 15:0.3125 
-0.18135342256011025 1:0.8125 2:0.6875 3:0.1875 4:0.3125 5:0.375 6:0.3125 7:0.1875 8:0.1875 9:0.25 10:0.25 11:0.0 12:0.375 13:0.125 14:0.5 15:0.75 
0.0745003534306949 1:0.0625 2:0.25 3:0.1875 4:0.0 5:0.4375 6:0.375 7:0.25 8:0.25 9:0.5 10:0.5 11:0.125 12:1.0 13:0.375 14:0.625 15:0.8125 
-0.7403638412788945 1:0.5 2:0.8125 3:0.5 4:0.6875 5:0.8125 6:0.4375 7:0.375 8:0.1875 9:0.5 10:0.0 11:0.125 12:0.4375 13:0.5 14:0.75 15:0.875 
-0.5221974744205753 1:0.25 2:0.125 3:0.4375 4:0.25 5:0.125 6:0.25 7:0.8125 8:0.75 9:0.625 10:0.8125 11:0.625 12:0.75 13:0.125 14:0.1875 15:0.25 
-0.1367809500811644 1:0.5 2:0.375 3:0.3125 4:0.6875 5:0.375 6:0.375 7:0.4375 8:0.5 9:0.0625 10:1.0 11:0.875 12:0.75 13:0.75 14:0.375 15:0.1875 
-0.3980046368493806 1:0.1875 2:0.0 3:0.5 4:0.125 5:0.25 6:0.6875 7:0.875 8:0.625 9:0.1875 10:0.75 11:0.5625 12:0.3125 13:0.5 14:0.0 15:0.25 
0.09375295850151902 1:0.5625 2:0.375 3:0.0 4:0.0 5:0.4375 6:0.4375 7:0.0625 8:0.4375 9:0.3125 10:0.0625 11:0.375 12:0.5625 13:0.5625 14:0.875 15:1.0 
0.24975767981198957 1:0.5625 2:0.3125 3:0.375 4:0.125 5:0.5625 6:0.4375 7:0.3125 8:0.0625 9:0.4375 10:0.8125 11:0.0 12:0.9375 13:0.3125 14:0.5625 15:0.9375 
1.0 1:0.875 2:0.5625 3:0.625 4:0.4375 5:0.8125 6:0.625 7:0.25 8:0.125 9:0.4375 10:0.0 11:0.125 12:0.4375 13:0.3125 14:0.625 15:0.8125 
-0.629623854629307 1:0.1875 2:0.875 3:0.9375 4:0.3125 5:0.875 6:0.75 7:0.875 8:0.375 9:0.8125 10:0.625 11:0.25 12:0.5 13:0.0625 14:0.5 15:0.875 
0.1112414661865278 1:0.9375 2:0.625 3:0.875 4:0.875 5:0.9375 6:0.3125 7:0.4375 8:0.0 9:0.3125 10:0.5 11:0.375 12:0.8125 13:0.375 14:0.9375 15:0.6875 
0.7252613490245385 1:0.3125 2:0.5625 3:0.875 4:0.5625 5:0.375 6:0.5 7:0.5 8:0.9375 9:0.3125 10:0.625 11:0.5625 12:0.5 13:0.5 14:0.25 15:0.1875 
0.13646022799683624 1:0.875 2:0.9375 3:0.5 4:1.0 5:0.8125 6:0.5 7:0.3125 8:0.5625 9:0.4375 10:0.0 11:1.0 12:0.5 13:0.8125 14:1.0 15:0.375 
-0.45976191536598315 1:0.375 2:0.0625 3:0.1875 4:0.25 5:0.125 6:0.375 7:0.5 8:0.5625 9:0.375 10:0.6875 11:0.875 12:0.3125 13:0.375 14:0.5 15:0.25 
0.5511570311096003 1:0.0625 2:0.4375 3:0.5 4:0.5625 5:0.375 6:0.5 7:0.75 8:0.5625 9:0.0625 10:0.5 11:0.875 12:0.375 13:0.625 14:0.4375 15:0.0 
-0.28167024998362195 1:0.125 2:0.3125 3:0.6875 4:0.25 5:0.375 6:0.25 7:0.8125 8:0.625 9:0.75 10:0.9375 11:0.8125 12:0.9375 13:0.3125 14:0.375 15:0.5625 
0.3883786962103447 1:0.9375 2:0.875 3:0.625 4:0.6875 5:0.4375 6:0.3125 7:0.75 8:0.4375 9:0.25 10:0.75 11:0.4375 12:0.125 13:0.375 14:0.0625 15:0.1875 
-0.10873657778165859 1:0.375 2:0.375 3:0.625 4:0.0625 5:0.0 6:0.75 7:0.625 8:0.6875 9:0.5 10:0.5625 11:0.5 12:0.25 13:0.5 14:0.3125 15:0.5 
1.0 1:0.0 2:0.5 3:0.4375 4:0.375 5:0.25 6:0.8125 7:0.5625 8:0.4375 9:0.5625 10:0.5 11:0.5 12:0.4375 13:0.125 14:0.625 15:0.5625 
-0.36281900848353893 1:0.125 2:0.5 3:0.0 4:0.75 5:0.5 6:0.6875 7:0.5625 8:0.75 9:0.5 10:0.0625 11:0.5 12:0.5 13:1.0 14:0.625 15:0.375 
0.00483265587560078 1:0.375 2:0.9375 3:0.4375 4:1.0 5:0.5625 6:0.875 7:0.4375 8:0.9375 9:0.875 10:0.375 11:0.625 12:0.0625 13:0.875 14:0.6875 15:0.5 
1.0 1:0.5625 2:0.4375 3:0.5 4:0.5625 5:0.4375 6:0.6875 7:0.6875 8:0.875 9:0.5 10:0.75 11:0.875 12:0.5 13:0.5 14:0.4375 15:0.1875 
-0.27216200703430793 1:0.125 2:0.3125 3:0.5 4:0.25 5:0.3125 6:0.875 7:1.0 8:0.875 9:0.625 10:0.6875 11:0.125 12:0.3125 13:0.0 14:0.25 15:0.6875 
-0.8845289901949093 1:0.3125 2:0.4375 3:0.8125 4:0.5 5:0.625 6:0.5625 7:0.8125 8:0.75 9:0.6875 10:0.5 11:0.4375 12:0.625 13:0.0 14:0.625 15:1.0 
0.030570528721585954 1:0.6875 2:1.0 3:0.9375 4:0.75 5:0.375 6:0.1875 7:0.6875 8:0.25 9:0.125 10:0.8125 11:0.5625 12:0.125 13:0.25 14:0.1875 15:0.1875 
0.27900254716613415 1:1.0 2:0.4375 3:1.0 4:0.5 5:0.375 6:0.3125 7:0.5 8:0.3125 9:0.4375 10:0.8125 11:0.75 12:0.5 13:0.0625 14:0.375 15:0.375 
0.25894113860157003 1:0.8125 2:0.5 3:0.5 4:0.5 5:0.9375 6:0.25 7:0.5 8:0.625 9:0.625 10:0.5 11:0.6875 12:1.0 13:0.625 14:0.6875 15:1.0 
1.0 1:0.5625 2:0.8125 3:0.6875 4:0.75 5:0.75 6:0.625 7:0.25 8:0.5 9:0.625 10:0.4375 11:0.5 12:0.6875 13:0.5625 14:0.625 15:0.5625 
-0.20652397633129177 1:0.0625 2:0.0625 3:0.3125 4:0.1875 5:0.0625 6:0.6875 7:0.6875 8:0.375 9:0.4375 10:0.5 11:0.1875 12:0.0 13:0.3125 14:0.5 15:0.5625 
0.21527453947454828 1:0.25 2:0.0 3:0.1875 4:0.1875 5:0.375 6:0.4375 7:0.1875 8:0.5 9:0.375 10:0.3125 11:0.625 12:0.375 13:0.5 14:0.625 15:0.1875 
-0.22830386628988358 1:0.4375 2:0.5 3:0.25 4:0.75 5:0.1875 6:0.3125 7:0.25 8:0.625 9:0.3125 10:0.5 11:1.0 12:0.125 13:0.75 14:0.5 15:0.375 
0.15433004943516887 1:0.1875 2:0.4375 3:0.5 4:0.5 5:0.375 6:0.5625 7:0.5 8:0.6875 9:0.6875 10:0.5625 11:0.5625 12:0.75 13:1.0 14:0.5 15:0.1875 
0.03841690357400951 1:0.25 2:0.25 3:0.6875 4:0.4375 5:0.1875 6:0.1875 7:0.75 8:0.5 9:0.4375 10:0.75 11:0.875 12:0.875 13:0.5 14:0.1875 15:0.0625 
0.17348077605813558 1:0.0625 2:0.5 3:0.6875 4:0.8125 5:0.5625 6:0.625 7:0.9375 8:0.75 9:1.0 10:1.0 11:0.5625 12:0.75 13:0.375 14:0.5625 15:0.375 
0.32226438067686014 1:0.9375 2:0.625 3:0.875 4:1.0 5:0.5625 6:0.3125 7:0.4375 8:0.5 9:0.6875 10:0.875 11:0.875 12:1.0 13:0.5625 14:0.5 15:0.625 
-0.5777070765150469 1:0.8125 2:0.8125 3:0.5625 4:0.875 5:0.625 6:0.75 7:0.4375 8:0.5625 9:0.0625 10:0.3125 11:0.625 12:0.4375 13:0.5 14:0.4375 15:0.0 
-0.02751902457241023 1:0.5 2:0.6875 3:0.375 4:0.25 5:0.1875 6:0.8125 7:0.3125 8:0.5 9:0.3125 10:0.1875 11:0.0625 12:0.4375 13:0.5625 14:0.3125 15:0.4375 
-0.03538411601044606 1:0.0 2:0.1875 3:0.125 4:0.3125 5:0.125 6:0.5 7:0.125 8:0.5 9:0.25 10:0.3125 11:0.4375 12:0.0 13:0.6875 14:0.6875 15:0.3125 
0.13505236768337078 1:0.8125 2:0.625 3:0.6875 4:0.6875 5:0.9375 6:0.625 7:0.4375 8:0.375 9:0.5 10:0.125 11:0.1875 12:0.4375 13:0.375 14:0.9375 15:0.5 
0.6336445862141872 1:0.1875 2:0.5625 3:0.6875 4:0.1875 5:0.3125 6:0.5 7:0.8125 8:0.5 9:0.5625 10:0.9375 11:0.3125 12:0.4375 13:0.0 14:0.4375 15:0.5 
0.8050410070641846 1:0.5 2:0.5 3:0.4375 4:0.5 5:0.75 6:0.8125 7:0.5 8:0.75 9:0.5625 10:0.4375 11:0.5 12:0.5 13:0.75 14:0.5 15:0.375 
-0.45762892530969673 1:0.125 2:0.0625 3:0.8125 4:0.5625 5:0.3125 6:0.5 7:0.5625 8:0.8125 9:0.25 10:0.875 11:0.625 12:0.3125 13:0.5 14:0.125 15:0.0625 
-0.1894141716496842 1:0.0625 2:0.0 3:0.1875 4:0.5 5:0.0625 6:0.8125 7:1.0 8:0.6875 9:0.8125 10:0.625 11:0.5625 12:0.5 13:0.75 14:0.1875 15:0.375 
0.40577185235684055 1:0.375 2:0.25 3:0.5625 4:0.4375 5:0.5 6:0.625 7:0.9375 8:1.0 9:1.0 10:1.0 11:0.625 12:0.875 13:0.5 14:0.25 15:0.125 
-0.15310596485040767 1:0.375 2:0.4375 3:0.375 4:0.0625 5:0.3125 6:0.9375 7:0.8125 8:0.5 9:0.75 10:0.0 11:0.0625 12:0.0625 13:0.5625 14:0.5625 15:0.6875 
0.4156291570150184 1:0.5 2:0.0 3:0.75 4:0.3125 5:0.625 6:0.3125 7:0.5625 8:0.4375 9:0.8125 10:0.5625 11:0.5 12:0.75 13:0.0625 14:0.4375 15:0.6875 
-0.004746599584862984 1:0.25 2:0.1875 3:0.25 4:0.25 5:0.3125 6:0.5625 7:0.625 8:0.625 9:0.625 10:0.5 11:0.0625 12:0.8125 13:0.1875 14:0.5 15:0.8125 
-1.0 1:1.0 2:0.8125 3:0.8125 4:0.5625 5:0.8125 6:0.5 7:0.25 8:0.25 9:0.0625 10:0.0 11:0.0 12:0.5 13:0.3125 14:0.6875 15:0.5 
-0.12546520582132464 1:0.8125 2:0.8125 3:0.5625 4:0.5625 5:0.3125 6:0.4375 7:0.5 8:0.1875 9:0.1875 10:0.75 11:0.4375 12:0.3125 13:0.5 14:0.375 15:0.5 
-0.05732107923749022 1:0.375 2:0.9375 3:0.625 4:0.625 5:0.8125 6:0.8125 7:0.625 8:0.5625 9:0.75 10:0.0 11:0.125 12:0.3125 13:0.375 14:0.75 15:0.5 
-0.49814281865628635 1:0.1875 2:0.4375 3:0.1875 4:0.0 5:0.375 6:0.25 7:0.125 8:0.375 9:0.375 10:0.5 11:0.375 12:0.5 13:0.5 14:1.0 15:1.0 
-0.23125851942919903 1:0.125 2:0.375 3:0.3125 4:0.25 5:0.1875 6:0.6875 7:1.0 8:0.5625 9:0.5 10:0.5 11:0.5625 12:0.3125 13:0.0 14:0.125 15:0.4375 
-0.3966205550450004 1:0.4375 2:0.5625 3:0.375 4:0.625 5:0.5 6:0.75 7:0.8125 8:0.75 9:0.875 10:0.4375 11:0.5 12:0.3125 13:0.5625 14:0.4375 15:0.4375 
0.788493222600402 1:0.75 2:0.75 3:0.6875 4:0.5625 5:1.0 6:0.1875 7:0.1875 8:0.0625 9:0.25 10:0.0625 11:0.125 12:0.5625 13:0.5 14:0.5 15:0.8125 
0.29023626343837494 1:0.0 2:0.375 3:0.375 4:0.375 5:0.0 6:0.375 7:0.5 8:0.75 9:0.5 10:0.8125 11:1.0 12:0.6875 13:0.3125 14:0.375 15:0.4375 
-0.05947996383303165 1:0.5 2:0.625 3:0.875 4:0.125 5:0.4375 6:0.75 7:0.5625 8:0.25 9:0.125 10:0.5625 11:0.4375 12:0.375 13:0.0 14:0.25 15:0.5 
0.2308020373517524 1:0.9375 2:0.625 3:1.0 4:0.625 5:0.5 6:0.1875 7:0.125 8:0.0625 9:0.0625 10:0.5 11:0.0 12:0.5 13:0.0 14:0.5 15:0.5 
-0.11835423491877968 1:1.0 2:0.3125 3:0.75 4:0.5 5:0.75 6:0.1875 7:0.375 8:0.125 9:0.0625 10:1.0 11:0.5 12:0.8125 13:0.5 14:0.6875 15:0.875 
-0.009765696625428928 1:0.5625 2:0.375 3:0.5 4:0.8125 5:0.375 6:0.125 7:0.3125 8:0.5625 9:0.0 10:0.75 11:0.6875 12:0.3125 13:0.4375 14:0.0625 15:0.25 
0.1224636811714503 1:0.4375 2:0.125 3:0.0 4:0.5 5:0.375 6:0.0 7:0.25 8:0.4375 9:0.6875 10:0.3125 11:0.625 12:0.75 13:0.5625 14:0.75 15:0.9375 
-0.36991004007735806 1:0.5 2:0.8125 3:0.375 4:0.8125 5:0.6875 6:0.4375 7:0.375 8:0.6875 9:0.75 10:0.25 11:1.0 12:0.5625 13:0.875 14:0.8125 15:0.0 
0.07409514748825105 1:0.9375 2:0.8125 3:0.5 4:1.0 5:0.875 6:0.5 7:0.0625 8:0.5625 9:0.75 10:0.4375 11:0.625 12:0.9375 13:0.625 14:0.625 15:0.5 
0.5306399291053068 1:0.9375 2:0.9375 3:0.5 4:0.875 5:0.625 6:0.5625 7:0.4375 8:0.3125 9:0.5 10:0.3125 11:0.0625 12:0.0625 13:0.3125 14:0.625 15:0.75 
0.28538879679438744 1:0.375 2:0.3125 3:0.5 4:0.125 5:0.375 6:1.0 7:1.0 8:0.625 9:0.5 10:0.5625 11:0.3125 12:0.4375 13:0.4375 14:0.5 15:0.625 
1.0 1:0.5625 2:0.3125 3:0.375 4:0.75 5:0.75 6:0.25 7:0.375 8:0.875 9:0.4375 10:0.5 11:0.75 12:0.75 13:0.6875 14:0.9375 15:0.375 
-0.08488860098656571 1:1.0 2:0.875 3:0.625 4:0.375 5:0.375 6:0.75 7:0.5 8:0.5 9:0.3125 10:0.1875 11:0.0 12:0.0625 13:0.5 14:0.0625 15:0.5 
-0.1971896019787608 1:0.5 2:0.125 3:0.8125 4:0.5 5:0.125 6:0.5 7:0.6875 8:0.4375 9:0.5 10:0.875 11:0.4375 12:0.5 13:0.1875 14:0.375 15:0.3125 
-0.10826656440958901 1:0.375 2:0.5 3:0.9375 4:0.5 5:0.9375 6:0.375 7:0.75 8:0.625 9:0.6875 10:0.9375 11:0.875 12:0.9375 13:0.5625 14:0.8125 15:0.8125 
-0.4256961002522404 1:0.9375 2:0.5 3:0.5 4:0.8125 5:0.1875 6:0.0 7:0.5 8:0.5 9:0.375 10:1.0 11:0.75 12:0.25 13:0.625 14:0.125 15:0.125 
0.2806994249423343 1:0.375 2:0.75 3:0.3125 4:1.0 5:0.25 6:1.0 7:0.3125 8:0.625 9:0.5 10:0.125 11:0.4375 12:0.0625 13:0.9375 14:0.3125 15:0.0 
-1.0 1:0.5 2:0.6875 3:0.5 4:0.875 5:0.625 6:0.8125 7:0.1875 8:0.75 9:0.875 10:0.25 11:0.5 12:0.1875 13:0.875 14:0.8125 15:0.25 
-0.3470022266173034 1:0.125 2:0.5 3:0.125 4:0.375 5:0.3125 6:0.625 7:0.75 8:0.6875 9:0.3125 10:0.5 11:0.5 12:0.125 13:0.8125 14:0.1875 15:0.0625 
-0.5904759893303141 1:0.5 2:0.6875 3:0.9375 4:0.375 5:0.4375 6:0.1875 7:0.625 8:0.25 9:0.1875 10:0.875 11:0.4375 12:0.5 13:0.25 14:0.0625 15:0.625 
0.10700847412506086 1:0.125 2:0.4375 3:0.6875 4:0.1875 5:0.375 6:0.3125 7:0.8125 8:0.1875 9:0.5 10:0.625 11:0.4375 12:0.5 13:0.25 14:0.375 15:0.9375 
0.8888339966480818 1:0.0625 2:0.4375 3:0.3125 4:0.375 5:0.3125 6:0.6875 7:0.9375 8:0.8125 9:0.8125 10:0.4375 11:0.625 12:0.1875 13:0.5625 14:0.375 15:0.5 
-0.9291440826032558 1:0.1875 2:0.125 3:0.25 4:0.125 5:0.5 6:0.0625 7:0.5625 8:0.3125 9:0.375 10:0.8125 11:0.4375 12:0.625 13:0.1875 14:0.25 15:0.8125 
0.35710065984996175 1:0.625 2:0.4375 3:0.5625 4:0.0 5:0.5625 6:0.25 7:0.4375 8:0.125 9:0.3125 10:0.375 11:0.5 12:0.6875 13:0.4375 14:0.75 15:0.9375 
-0.4361997788496429 1:0.0 2:0.0625 3:0.0625 4:0.25 5:0.375 6:0.1875 7:0.875 8:0.8125 9:0.9375 10:0.6875 11:0.625 12:1.0 13:0.25 14:0.5 15:0.625 
-0.7164168375443413 1:0.9375 2:0.8125 3:0.5 4:0.0625 5:0.625 6:0.375 7:0.0625 8:0.25 9:0.5625 10:0.375 11:0.0 12:0.4375 13:0.4375 14:0.9375 15:0.75 
8.116737645361072E-4 1:0.75 2:0.125 3:0.0625 4:0.5625 5:0.375 6:0.0 7:0.1875 8:0.4375 9:0.0 10:0.9375 11:0.75 12:0.8125 13:0.6875 14:0.25 15:0.125 
0.4379199104496897 1:1.0 2:0.875 3:0.5625 4:0.5 5:1.0 6:0.5 7:0.4375 8:0.4375 9:0.1875 10:0.3125 11:0.375 12:0.25 13:0.4375 14:0.125 15:0.5 
0.22328895846988253 1:0.8125 2:0.5625 3:0.9375 4:0.875 5:0.5625 6:0.375 7:0.3125 8:0.5 9:0.0625 10:0.5625 11:0.6875 12:0.3125 13:0.75 14:0.1875 15:0.375 
1.0 1:0.625 2:0.1875 3:0.4375 4:0.5625 5:0.125 6:0.0 7:0.5 8:0.1875 9:0.125 10:0.9375 11:0.8125 12:0.75 13:0.375 14:0.25 15:0.5 
0.031489272242869806 1:0.5 2:0.3125 3:0.0625 4:0.25 5:0.5 6:0.4375 7:0.4375 8:0.3125 9:0.4375 10:0.4375 11:0.4375 12:0.9375 13:0.6875 14:0.8125 15:0.9375 
-0.0577542950920857 1:0.5 2:0.375 3:0.375 4:0.5 5:0.5 6:0.4375 7:0.125 8:0.8125 9:1.0 10:0.1875 11:0.625 12:0.875 13:0.9375 14:0.9375 15:0.375 
-0.20144733893114258 1:0.0625 2:0.5625 3:0.1875 4:0.375 5:1.0 6:0.9375 7:0.9375 8:0.5625 9:0.8125 10:0.1875 11:0.25 12:0.5625 13:0.5 14:0.9375 15:1.0 
0.12296237925545304 1:0.5 2:0.3125 3:0.1875 4:0.0 5:0.5 6:0.1875 7:0.5 8:0.4375 9:0.75 10:0.5625 11:0.1875 12:0.5625 13:0.3125 14:1.0 15:0.8125 
-0.3657665665839245 1:0.0 2:0.3125 3:0.4375 4:0.375 5:0.375 6:1.0 7:0.5 8:1.0 9:0.6875 10:0.0 11:0.1875 12:0.0625 13:0.5625 14:0.5 15:0.375 
-0.039099789794979314 1:0.25 2:0.5625 3:0.25 4:0.125 5:0.5 6:1.0 7:0.0 8:0.5 9:0.4375 10:0.125 11:0.0625 12:0.0625 13:0.8125 14:1.0 15:0.5625 
0.2332294214014119 1:0.0625 2:0.0625 3:0.4375 4:0.25 5:0.5 6:0.4375 7:0.5625 8:0.6875 9:0.75 10:0.5 11:0.75 12:0.8125 13:0.5 14:0.5625 15:0.9375 
0.5714100032485304 1:0.5625 2:0.75 3:0.6875 4:0.0625 5:0.5 6:0.5 7:0.125 8:0.3125 9:0.25 10:0.0625 11:0.0625 12:0.1875 13:0.1875 14:0.5 15:0.875 
-0.10441615847527717 1:0.125 2:0.6875 3:0.875 4:0.5625 5:0.4375 6:1.0 7:0.625 8:0.6875 9:0.875 10:0.3125 11:0.5 12:0.25 13:0.625 14:0.5 15:0.4375 
