encog,BasicNetwork,java,3.2.0,1,1415743130788
[BASIC]
[BASIC:PARAMS]
[BASIC:NETWORK]
beginTraining=0
connectionLimit=0
contextTargetOffset=0,0,0
contextTargetSize=0,0,0
endTraining=2
hasContext=f
inputCount=10
layerCounts=10,81,11
layerFeedCounts=10,80,10
layerContextCount=0,0,0
layerIndex=0,10,91
output=0,0,0,0,0,0,0,0,0,0,0,0,0,0,0,0,0,0,0,0,0,0,0,0,0,0,0,0,0,0,0,0,0,0,0,0,0,0,0,0,0,0,0,0,0,0,0,0,0,0,0,0,0,0,0,0,0,0,0,0,0,0,0,0,0,0,0,0,0,0,0,0,0,0,0,0,0,0,0,0,0,0,0,0,0,0,0,0,0,0,1,0,0,0,0,0,0,0,0,0,0,1
outputCount=10
weightIndex=0,810,1690
weights=-0.4857829077,-0.5945751353,-0.0813108887,-0.5406383242,1.0144387419,0.5959685091,0.5834414434,0.851893084,-0.5208559079,-0.1323969555,-0.9550991197,0.958110746,0.0719141263,-0.2864484028,-0.9582193349,0.1780829233,-0.6663713573,0.8847249378,-0.7629885241,-0.1047137781,-0.5656251928,0.5356322504,-0.836161852,1.3160150574,-1.1876764626,-0.3996725679,0.7510151266,0.6672192242,-0.3896247457,1.6505190425,1.2677301726,-1.7419495527,-0.3133578125,0.1355119017,1.3359400152,-0.1620907283,0.8260705528,-1.0623453755,-0.3272806831,-0.4627338441,0.8954248753,0.2262387113,-1.1474020476,-0.1706857878,1.1650784477,0.8314286495,0.0695029558,-1.1080984347,-0.1203409769,-0.4989698122,-0.7570682303,-0.6621990604,0.6215922654,0.2691652261,-0.716077922,1.1748810392,0.5182467536,0.4344191379,-0.9070782805,0.1269571766,-0.6166844205,0.8940435549,-0.658428057,0.7534098516,-0.407316898,-1.1564554509,0.6485330818,-0.1877797823,0.7821340793,0.1688346516,-0.2495344735,-0.0203763683,0.7044900556,0.052863181,0.5812162555,-0.5179880736,0.2632148757,0.1219317497,0.3497734136,-0.7266835517,-0.6724080555,0.0377297996,-0.5790090332,1.9121547713,0.4195482199,0.2400920406,-0.9789615906,0.7821378346,-0.3720404163,-0.6771044362,-0.7015054037,0.3153962517,0.1200022235,0.5333181573,-0.2310486469,-0.2486493529,1.2704303832,0.0877370536,0.0348472797,-0.7552648735,-0.4378889798,-0.3890325358,-0.0251227421,-0.2145294658,0.5301463987,0.3247415381,0.4728557399,-0.0276174134,-0.6200971805,0.1443548054,0.8802365482,0.7919390798,-1.5321301161,1.0674421044,-0.2812239892,0.7572036722,-0.8825876071,-0.1721892894,-0.1707771543,-0.7087724495,0.9502385472,0.5640010869,0.8487949758,-1.4225992228,0.3020036719,0.5215745473,0.4397140194,-0.4351035149,0.9830459169,-0.6039884053,-1.3124048048,0.0168599422,-0.3266189647,-0.33884239,-0.8200778178,-0.7566135094,-0.1156950622,-0.9525718245,0.5663530586,-0.8692247707,0.7975522398,0.3528354564,-0.5098464188,-0.7799868909,0.9805751943,-1.4108241939,0.6038878492,0.6354316431,-1.0369319001,-0.1548616308,0.4802621752,0.1023922056,0.6021462362,-0.771072876,-0.0544189761,0.7943520209,0.38399618,-1.417906369,0.72101489,0.3461784555,-1.1238380654,0.6205264977,0.162735944,-1.4550163276,-0.5113185039,0.4349351483,-0.5377496405,-0.3533823958,-0.3038123126,0.8938868581,-0.4413088758,-0.5987938414,-0.0040270092,-0.0632009796,0.5715637762,-0.2923363741,1.1829159511,0.0697273446,-0.5789074439,-0.9940550645,-0.8250312945,0.3120936722,-0.5335335163,-0.0763582012,-0.1455257933,-0.9951291745,0.4825815987,1.0933338384,0.1250552429,-0.5818924042,0.1501404024,-0.3729316382,-0.2557976726,-0.8463647871,-1.1307611705,-0.1749953265,1.2149557339,0.7485611926,-0.406230038,1.3642780905,0.7098993291,0.388995119,1.2364060757,0.0969521137,-1.3928577736,0.5549776856,-0.3062449804,1.0202933707,0.6867116255,-0.6274183452,0.0774608956,0.3534011815,-0.5474886549,0.5903074557,0.6708954962,0.6249807198,0.2300113877,-0.5117107969,-0.3114877918,-0.3349159447,0.2930914107,0.4579979177,-0.7301161923,0.8102260365,0.7696497657,-0.35863729,-0.5890600864,0.3895424443,0.3593489468,-0.3669587173,-0.6431375014,0.0406817935,0.7799958413,1.4721383587,-0.8777325421,0.8485811821,1.1217158012,-0.9515773724,-0.3710772795,-1.0434091954,-0.9311217521,0.6106578087,-0.1604091289,-0.6408719172,-0.4545403941,0.2112629321,0.7135901976,0.8509629907,-0.3074170465,0.4530025569,0.8748017399,0.033374603,-0.6371151774,0.0109411051,0.8059493859,0.4597966276,0.3410881773,0.5197257394,0.7387728836,-0.7647167482,-0.1937456603,-0.5095504552,0.4358794317,-0.1370165399,0.5613259564,0.089385531,-0.1170075807,0.0757869721,-0.5433335143,-0.2706438468,0.4659085962,-0.3923036237,0.2253243342,-0.78026643,-1.5356759724,-0.7425486237,0.5694891308,0.5372055529,-0.9405595314,-0.0321460903,1.4418905152,0.5335602505,0.5331151846,0.5720191671,-0.116870677,-0.1445148475,0.8482991251,0.1741571657,-0.1995756374,-1.0588898719,-0.6483356196,0.7107472482,-0.4228563723,-0.8935569383,0.1921642159,-0.1498091464,-0.5256543431,-0.0802432535,0.2023930596,0.0489230352,1.0681225456,-0.4285520418,0.8962901943,0.6434968705,1.1264386149,-0.6167094195,-0.6677985679,-1.2112563667,-0.7540708418,-1.0956664538,0.8148460763,-0.2523995065,0.131880385,0.6932620622,0.6539719886,-0.6788702591,-0.0547015882,-0.7902324568,-1.2727314878,-0.3026808001,0.2450978629,-0.562930978,0.7664623247,-0.4421081215,1.0310653788,0.897917332,-0.374460279,0.5081176682,0.5373517439,-0.5601758522,-0.2759056907,-0.2992857282,0.3160108449,-0.0134708288,-0.7267275762,-0.7408510335,-0.2881200416,-0.4597643345,-0.943451219,0.361204657,0.084711924,-0.8516997905,0.3088280642,0.104688862,0.5789025905,-0.4704818331,-0.6821444415,-0.8269733321,-0.6693017645,-0.5162474385,0.0457943501,1.030711185,-0.0074805345,0.0804584302,-0.2871667597,0.9295187597,-0.492307198,0.8300148057,0.4376954574,0.2428806472,-1.1351849921,1.6349889402,-0.086995939,-0.742071431,-0.2102264956,0.4138210262,-0.3750137096,-0.7267628326,0.7119481545,0.4035152835,0.3448824352,-0.4136706924,-0.2925433537,-0.025435318,-0.4025430087,0.1432739042,-0.0272633027,0.0426727468,-0.315186799,-1.1232866622,-0.9378449843,-0.7005597815,0.6631445218,0.3706124984,-1.0039926534,0.5173628188,-1.0683495783,-0.5457690365,0.1161785604,1.0722136138,-0.8588595174,-0.5926650079,0.8059943846,1.3848437101,-0.8332968857,1.5903226318,1.4092965204,0.0968159969,-0.7240853974,-0.9798142686,-0.2981284192,1.5161814935,-0.3945078704,-0.527877707,-0.8581305391,-0.5037489495,-0.7926416935,0.3226666929,-0.7771022546,-0.4262302276,0.6356542012,0.5676277369,0.7330988769,-0.2161499591,-0.2745955521,-1.0154837398,0.9078847298,0.43754099,0.1920397508,0.3685848884,-1.1832638789,0.5796496701,-1.1523878704,-0.3364307593,-0.1326598712,-0.334562705,-1.1485829903,-0.9935511509,-0.4462884653,0.8884831845,-0.2146589366,-0.2925220241,-0.2798694979,-0.6380742503,0.5128259823,-1.1352806705,1.3188431084,0.014904809,0.7722675504,-0.2935340424,-0.1952565466,0.1382258526,1.0566206038,0.8266238071,0.7978995944,-0.1557431839,-0.629050939,0.3035531383,0.2370494959,-0.115417076,0.6867430779,-1.2003861012,-0.8393476054,1.0440822569,-0.5142874528,-1.0045128928,-0.2207975867,0.3409675194,-0.4297611676,-0.5872682046,0.5482368665,0.6094837012,-0.495959674,0.5194807951,1.0893573234,-0.869276745,-0.7900878116,-0.5298276859,0.7866744858,0.1002348933,0.6113191092,0.7656291511,-0.5746080719,-0.1017492451,1.08395043,-0.013839082,0.3679167621,-0.5714972691,0.5124326184,0.4544124096,0.2134151707,-0.2007804654,-0.56993208,1.1670961742,-0.4723932253,-0.4628990602,0.4084597941,0.8097813277,0.8922861498,-0.6470834566,0.0231614893,-0.1633634107,0.2733679167,-0.7078547148,0.6042599751,-0.259309568,-1.1061169617,1.1360199165,0.34506088,-1.0100577456,0.1270452903,-0.3628589015,-0.3937830758,-1.03554288,-0.1056514086,0.1985142295,0.5695230246,1.3588783424,-0.2937689951,-1.1172248825,-0.8190552219,-0.7567360801,-0.5533909179,-0.3734284929,0.0324438184,-0.4327914165,0.0321349549,0.7467719005,-0.7997224607,0.8071536197,0.5832119598,-0.023818348,-0.0100999321,0.524800673,-1.0073352015,-0.1317069356,0.399432439,-1.2950053617,0.0896155409,1.0710142197,-1.0236569362,0.2107450819,-0.7237710813,-0.9471919211,-0.2560655513,0.7163330742,0.3927392014,0.8896780029,0.1845022524,1.1147307176,0.6917921158,-0.9951333623,0.8703619774,0.49401341,0.7803239385,0.5207161184,-0.4468003454,0.3129875323,-1.2249663649,-0.0711776805,-0.9337590485,1.004075736,0.6571788068,-0.2531068199,0.3813334782,-0.615200817,-0.5880732954,0.433155156,-0.269578902,-0.5817553274,-1.0208975192,-0.1304646971,-0.7380410273,-0.0779017851,0.5286012736,-1.0042741637,-0.4573190016,0.1967130822,0.3442432766,-0.8043360237,-1.0718197569,0.4634174868,-1.0622261025,0.4919808063,1.3710395979,0.919710468,0.3087432696,-0.4063478235,-0.5102343962,0.0644120999,0.559900979,0.2578202862,0.0721126491,0.4760255273,1.2133703049,-0.8458270696,1.0449829453,-1.1460709868,0.2268139881,0.1260573201,-1.1698412938,-0.0605002858,-0.6129898062,-0.6340660799,-1.0340949174,-0.3491638006,0.3449379018,-0.1991256142,-0.1461842699,-0.7649967548,-0.4932117824,0.3738333244,-0.1648530737,-0.3696820258,0.2152913222,0.6553162041,-0.3506483414,0.7010057005,-0.3842586788,-0.8476731132,0.6317362771,0.5588472019,-1.1286903195,-0.5046081342,-0.4837474492,0.0196146729,-0.2301181331,0.4271207618,0.9882332875,0.9354490514,0.9985393839,-1.037837043,-0.5092882774,1.5755306801,0.4345967139,0.590466072,-0.192154978,-0.4761949667,0.5415508388,0.3556936192,-0.3428493118,0.4761771775,0.2853350012,0.2201222897,-0.3316914585,-0.1044589519,0.9045453417,-0.1764491733,-0.4194283301,-0.0391108508,0.2903802549,0.7729644345,-0.531828167,0.499374797,0.2066926604,-1.0677261673,-0.7742657168,-0.7152724575,0.1907905721,-0.3458130237,-0.4879489764,1.3515737974,1.1063096157,-0.129719172,-0.3361145713,0.3499558724,0.3793557112,-1.0680974315,-0.1464531569,0.9929517673,0.4942025888,-0.8545419105,-0.3125066359,-1.7223599655,0.1508990904,-0.7303627351,0.2187371532,0.4880351707,0.3091213617,1.1005408544,-0.9666238912,0.0684258519,-0.5756505558,-0.2700874361,-0.5690252926,0.1955648291,-0.1095602045,-0.1972561135,0.476162961,0.0686219157,0.5101593963,0.0568827978,0.0122874651,-1.4045847667,-0.8270693504,0.9130409003,-0.5995116308,-0.3041253277,-0.7494164435,-1.023228831,0.9528040699,1.3556626246,0.2655064722,0.0545223953,-0.3713950642,0.590676983,-0.5396734266,-0.4414920752,-0.201855315,-0.6918139871,1.2111680318,-0.1547983457,-0.3838605838,0.0643699286,-0.6073238367,-0.2017805021,0.3102789544,0.5584715709,0.8153435695,-0.3039478455,0.2223234889,-0.7559786455,-0.2518394482,-0.636250463,0.4759093848,-0.7544374117,-0.3734991445,-0.4834593093,1.075413771,-0.7774764193,1.6467227535,-0.874970074,-0.233991267,-0.8187263269,0.6215339317,-1.4666489288,-0.4192907689,1.2112678847,0.3562104609,0.3165160038,0.1692389101,0.264653886,0.4498445891,0.5286584584,-0.5308477138,0.1529962743,-1.7765055768,0.6054639203,-0.1748509795,-0.444718828,0.5116882374,0.6845369029,-0.1411842061,0.4986051068,0.090101299,0.2568245133,0.8354401017,-0.3003956903,0.7270135958,-0.8604593738,-0.5538817488,-0.5187735605,0.2964214449,-0.5894950812,-0.7746149658,0.169685518,0.1413821894,-0.2908191484,0.9259100314,0.2865063265,-0.9728710182,0.2406260648,-0.4401127021,0.8478523985,0.5273991659,-0.0939324358,0.107372603,-0.2558213283,-0.1096536994,-0.3228019332,1.1378907951,0.5269102128,-0.849649454,0.952098809,0.1952494065,-0.4577090474,-0.5880548335,-1.1253884065,0.7084891584,0.2898912222,-1.1707145838,0.751280064,-0.0513300253,0.4646153953,0.0266400171,0.0213463208,-0.1244733191,0.5282563849,0.0105460341,-0.203146093,0.224139132,0.0337591288,-1.4696843018,0.9708493875,-0.3288016207,-0.4169470228,0.8152227711,0.1011097952,-1.2988483698,-0.597699567,-1.4516481186,-0.5232907139,-0.7033644452,-0.5469467935,0.6972320168,-0.2030143806,-0.5009594792,-1.1543853507,0.1989094677,0.5346498435,-0.4838022622,0.8841334198,0.7366661468,-0.0173132331,-0.0732144602,-0.595058099,-0.9420918371,0.6070885264,-0.4909645045,-0.7567132115,0.1963845881,1.5495644581,0.2436322814,1.5890275038,-0.3793668241,0.1267906884,-0.3621510813,0.7769376917,0.7912656332,-0.0433480337,0.5160518276,-0.1511882274,-0.5168591888,0.6725793821,-0.1028831281,-0.4806622256,2.2186875655,0.6055060725,0.5895613651,-1.0253394471,-1.5425162771,0.3167493164,-0.4134977726,-0.0128537378,0.1681850568,-0.3642259234,-0.6601401081,0.9562459308,0.7244687481,-1.5485142882,-0.7883694812,0.3997400809,0.4102606415,-0.5754905984,-0.6894000111,0.94970307,0.7376704535,0.5340684371,-0.3080777461,0.5737288453,-0.4395658456,0.0629071105,-0.9242227245,0.8337387572,0.5184592603,0.4839577638,-0.3614842725,-0.4597614049,-1.2241981956,0.3716226672,0.4800946466,-0.8136404176,-0.6570926529,0.0640829693,0.6278907003,-0.428291567,0.0313763896,1.0440825152,0.4568327713,-0.1946025162,-0.2431387964,-0.556375611,0.3858648882,1.026780429,-0.4226354771,0.4832466586,-0.332338509,0.8843541845,0.6620736264,2.6856501299,0.1051795485,-0.0943974298,0.4205336705,0.2707806176,0.5575621647,-0.9708039626,-0.4035943796,-1.8908498693,0.794432863,-0.2630396697,-0.2781965124,-0.3530476661,0.1011458602,0.5759191792,1.0413714964,0.9679842694,-0.5267997874,-0.1256593332,-0.0906607902,-0.8484519842,-0.7859996614,-0.8269698177,0.4422911772,0.4952960321,0.6657968832,-0.0147103606,0.7642063421,-0.3064844577,-0.9733725789,0.3266581143,-0.9945420449,0.7500455484,-0.9414615853,-0.302929712,0.0066898989,0.2664903312,-0.5037261364,-0.8050221286,0.6390687511,-0.3591363856,0.3626404883,0.5866044994,-0.4204374234,0.4940948903,0.7927688338,-0.2280722625,0.4895082487,0.5185915566,0.8778384999,-0.5828897259,-0.1303179892,-0.6004178362,0.5125416426,0.2759500628,-0.7621479761,0.1587899426,-0.6213199966,-1.1508561574,-0.4754388845,-0.122204788,-0.0078774223,1.1783530712,-0.2981882028,0.2432202007,-1.0520332212,0.4247401994,-0.7475422883,0.6351662298,-0.7170353179,-0.8525966162,0.5509942028,-0.2499371191,0.9483906136,0.25202732,0.0888996051,0.0770985074,0.8712943852,0.6178608658,-0.0639641054,-1.5898541697,-1.4532127578,0.0664346594,0.7985136221,0.544564622,-1.1377268029,0.8748052513,-0.1676798856,0.9513858856,-0.8681582632,-1.8265454599,-0.724569062,-1.8122323269,0.089071693,1.1695586472,1.0915682524,0.1522044422,0.7058308578,1.1742929202,-1.049653311,0.825129439,0.5369121759,-0.2832235948,0.553996696,-0.6092211619,0.6624344918,0.856780082,-0.616492065,-0.7631022782,0.8464423398,-0.2706351812,-0.9131181605,-0.482148045,-1.2409240172,0.4473113745,0.8442423021,0.050427883,0.6125375385,-0.9075140359,-0.0922034699,-0.4869184162,0.3246600873,-0.6345542547,-0.5010794813,0.7652443851,0.1173734261,-1.5424891833,-1.0920328253,-0.2184807699,0.2861121987,-0.0642293487,-0.0096856822,-0.5100803802,-0.439394819,0.7771093314,0.5452660921,-0.2402084791,0.3504547294,-0.4029365955,0.5444539385,0.541717412,-0.0664357769,-0.0402506535,-0.2553103948,0.9027805211,0.7532159258,0.0116384347,0.7374623884,-0.3566036306,-0.0741576898,-1.3595203811,-0.4941515767,-0.6015320394,-0.2468136893,-1.2907821231,0.2263098829,0.0390246934,-0.3050113946,0.6878236933,-0.6031243499,1.2833573207,1.548776591,-0.7275795552,0.1286831922,0.0169732062,-0.3636072136,0.2804578497,-1.2020270914,0.2932915646,0.5002373617,-0.4148082859,-0.2230333358,-0.537670074,0.4589394467,1.4765156899,-0.4700760282,-0.3434830122,0.2273369687,-0.1338003285,-2.7952006114,-0.0919314839,-0.9069546849,0.2917082215,0.3630236039,1.3858312406,-0.3446170681,-0.2263013783,-0.0751680573,0.4510453454,-0.695688384,1.6564476684,0.0387817401,1.0702596021,0.6028084593,-1.3465623668,-0.4185934651,0.0452458734,-1.157574247,0.6509910792,0.2481988389,0.6042232201,0.5678648898,-1.2224351509,0.2745020977,-0.8984664495,0.5071496775,-0.659927013,-0.017702921,0.0304787947,-0.1856126695,-0.3760998858,-0.2460117877,-0.0653380429,-0.5748522391,-0.3223692973,0.1626287732,0.2967633079,0.3005073309,-0.3715351254,1.2893078224,-0.1812961141,0.443165602,0.531322346,-0.0439699457,-0.1999702165,-1.4709919882,0.2547594463,1.04313086,0.6522434471,-1.0187036121,-0.1739082619,0.9119000635,-0.2539184175,0.2423796035,-0.8887391161,0.3341896045,-0.482428791,0.6621405612,-0.9910306621,0.5325933925,0.7095134299,-0.0577955851,1.4187217152,0.859808935,-0.0084094095,1.0152141324,-0.888869405,-0.7910194501,0.1599254592,-0.4915553015,-1.8239787151,1.3914494586,-0.7080462982,0.2942169768,-0.7469949507,-1.0447743848,-1.5881036316,-0.5680953599,0.5655587717,0.2052211446,0.0212885973,0.3687715833,-2.6559988657,-0.5863687604,0.2787896846,-2.6175629897,1.0583054692,0.0419000907,-1.2811342484,-0.0208441892,0.626125094,1.7917024113,1.5584531773,-0.5221822085,-1.0203730264,-0.1224590433,-1.6092358606,-0.6318848928,-1.1420434545,0.3455491749,1.3611367964,0.7332493214,-0.0583090491,0.9127576006,-1.2160141428,-0.6102871194,-1.1494148185,-0.8746430942,1.4156307527,0.9053430361,0.4468619197,-0.3932807599,-0.2755972114,-0.6946962806,0.5668608692,-1.1838267127,-0.7815839595,-1.2647399457,-0.5127842712,1.0949532021,0.3539070664,0.7510623436,-0.548569336,1.4581606396,0.2391886345,-0.1810174144,0.9360364221,0.7495645504,0.7510071201,0.3265253431,0.3971874396,-1.3555072998,-0.1198914616,0.2736638811,-1.3807827656,-0.6683370179,0.1033235498,-0.2462749455,0.4193961339,-0.6127320409,-0.4581179011,-0.9155196202,-0.4535912323,1.3359024301,-0.7203581849,0.2687198738,0.4119972099,-0.4981039182,-0.7250595857,-1.2044470196,0.077331258,0.2113030203,1.3238626312,-0.3283202103,2.3581695607,-1.0486499324,1.4892469575,0.4043920452,-1.7114626287,0.7647443749,-0.6830547529,-0.0803035682,-0.8832181293,-1.4488779127,0.8156064321,-1.3481413491,0.4879353498,-0.3133032631,-0.238139269,0.5937113507,-0.3339862351,0.3287668168,0.0849041294,-0.8148753009,-0.2397764909,0.7669702578,-0.126007452,-0.8588955067,0.7177361496,1.0278395543,1.1126118206,-0.2036435755,-0.6719746773,0.3013133001,1.2022190511,0.5558212146,0.4207981531,-0.6176134953,0.551104802,0.7216999813,-0.4288320275,1.1710282073,0.2868074429,0.879345281,0.8140735986,-0.2474138505,0.8037083575,0.9291337503,0.4567172936,-0.981678495,-1.7849382462,1.3396344819,0.1244846502,1.2024310756,-0.6276387767,-0.1206148981,-0.4827045232,-2.1371828809,1.0578740627,0.9800962435,0.0538158092,0.8104743084,1.4788874211,1.3934100839,0.1720086796,-0.9701241283,1.0770362648,-0.8604668463,-0.3070127761,-0.0637917255,-0.3861691125,-0.362797832,1.4937050376,-0.1736312017,0.5777895814,-0.1475415347,0.4580710498,0.7966263371,-0.1591914019,0.384707478,0.9705341524,-1.7678292689,-0.3008825925,0.1669414008,0.3314874757,-0.8841334163,-0.1879714532,0.649082502,0.30525215,0.1883476649,-0.3360305286,0.9773360039,0.3629050872,-1.6682400801,-0.2810937629,-0.7799431307,0.1415386868,0.3616523913,0.5353142383,0.5704397578,-0.1115336734,0.320432472,-0.3035594935,-0.6678319061,-0.1324039593,-0.6433986395,-0.4606200448,0.9877156302,-0.9289626245,1.1154847793,0.8452357963,-0.6772352792,1.5428065014,-0.5792142586,0.4512148224,0.135504125,-1.2927835812,-0.6640997853,0.6079721233,-1.1566089295,-0.1636369782,-0.7439098459,0.4240022326,-0.2115660372,-1.1812253734,-0.8054169188,-1.2758465851,-0.7994518794,0.243969416,0.2637017103,-0.4523639106,-0.4218989811,0.5725960621,0.2959727201,0.1499277111,0.4941472467,1.1498270771,0.7051701728,0.1965944763,0.096988559,-0.2671313578,0.2111405429,0.1625331599,-0.9476250528,-0.0940155537,0.6434978913,0.6307196964,-0.1492432411,-0.8452463487,-0.904921365,0.1537387086,-1.1029269821,0.0399532941,-0.0649198564,-0.927099238,-1.0225902177,-0.5859596154,-0.1641648484,0.7641254957,-0.2958531649,-0.2099158283,-1.8881612093,0.7923544642,-0.6867570143,0.5244513109,0.2681568478,-0.102875532,0.557888032,0.721095178,0.5910081908,0.4296204086,-0.2167328483,0.7321759459,-0.0256908242,0.9426994431,-0.1316184796,0.9820253527,-1.1756279424,-0.4866411192,0.0522240453,-0.177660626,-0.2212816353,0.4477272733,-0.1577601639,0.8486970713,-0.4007769435,0.179077395,0.768497129,-0.8031987052,-0.7457410237,0.3047989004,-0.2378298886,-0.2337317133,-1.1012744691,0.899580435,-0.7496000955,-0.0005937443,1.4356759527,-0.2312559937,-1.0053168762,-0.4616382778,0.6315767073,-0.6501725139,0.8214680691,-0.2512813022,0.6042421374,0.7854549255,-0.4550060386,-0.2738629651,-0.9068156112,0.58818247,0.7886747076,-0.8096212952,-0.9294832222,-0.1779146759,-0.9643649537,-1.441536865,0.0630104572,-0.0863742405,0.3101240399,-0.2442465127,0.4070916322,0.1511427547,0.4260258174,0.0526633497,1.2645157725,0.4577908324,-1.0295694803,0.5188581091,1.6919133602,0.3744899672,1.0713052475,0.8539181237,-0.7395125905,0.2628652264,-0.4168847525,0.5884026746,0.2909239057,0.102236916,0.7468065441,0.0367242755,1.1506994735,0.5955475088,-0.1842828246,-1.1593667298,0.6933785941,0.8021667299,-1.3988701444,0.9668904529,0.4815384471,-0.0714558842,-0.180944968,0.6316200115,-0.6075125255,0.5716808343,-0.1018127772,-0.1406851267,-0.792422887,-0.0084813821,0.523032653,-0.4806055504,-1.0189694553,0.4829082747,0.5967542979,0.6372100689,-1.0367950061,-0.1838804614,-1.145395201,-0.0036528718,-0.0468138242,1.3200480284,0.8543026632,1.0467860804,-1.2918431397,-0.8839234853,0.7500321735,-0.1937306092,-0.680004933,0.7278686922,0.5639364314,-1.2194134182,0.9855038925,0.6587880588,-1.0113744557,0.7072446647,0.2746868657,-1.2897123144,0.0278655436,-1.0220631546,-0.3139039175,-0.2188445124,-0.6308852384,-0.2853516016,-0.9672263032,1.2120694078,-0.6300179075,-0.9020386581,-1.6445295108,-0.5338215424,0.480537247,0.0230521345,0.2630457888,-0.4968638898,0.4206814206,0.4251504825,1.7667145097,1.6043664409,1.0224047749,-0.7430649146,-0.1259014174,-0.6035415374,0.3373599335,0.5247446526,0.7035114692,0.2790105659,0.6142228424,-0.152297215,0.6607543749,0.8970802299,0.7345378259,-0.5491494867,-0.2501994752,-0.2411521119,-0.0505774064,0.4285197454,0.5708252113,0.2650237099,-1.1188856665,0.5999287933,0.0361250195,-0.3449526983,0.8018068066,-0.4017474571,-1.0574313344,-0.1453121593,0.8103034134,-0.7749712801,-0.4725728867,-0.7251313342,-0.830346282,-0.4914551422,0.0544071465,-0.778900632,0.6005134069,0.8435943474,-0.7135722826,0.1679772245,0.0369285929,0.6799101797,-1.0451089069,-0.3268194942,-0.0713777192,-0.4620232497,0.6128265543,0.5213028324,0.8711107866,-0.7173400733,0.9864448752,-0.3397792627,-2.0944357366,0.508991892,0.2357929228,0.9029840503,-0.3957128742,1.6391749249,-0.903412669,-0.6928614174,-0.1704398128,0.903792949,-0.1881645521,-0.697239928,-0.0667269926,0.1488937886,1.2903201204,1.8086468473,-0.2921240935,0.0230917964,-0.5949683407,0.639551352,0.1587449865,-2.5536537326,0.5974515611,-1.0976580251,1.6044612582,-1.0062902727,-0.911376537,-0.9662770342,-1.2450508237,-1.077086321,-0.73106181,1.0406949459,2.0901247129,-1.0329206898,1.0015857805,0.4201254886,-0.9661422723,-0.4997040391,-1.3466079796,0.436395865,0.6089517904,0.4204448729,0.6241649464,0.308138752,-0.9296929489,-0.5711981636,0.3881376762,0.2557953357,-0.3442246424,-0.7512241225,0.7734090265,0.41711445,-1.3458485206,0.3437985313,0.0616322532,-0.966098587,-0.3655295728,-0.9912991647,-0.6470992892,1.0166158847,-1.1607496749,-0.6667032194,0.7900888847,0.2960539255,-1.3366552017,-0.1677562119,1.0669454218,0.2634162095,-1.2259304707,-0.9509269271,-0.2126322122,0.0281737115,-0.5573102787,0.7869563702,-0.867169966,-0.2747294389,0.0981038611,-1.109875715,-0.2863611649,0.0152529765,0.4296425913,-1.2280749316,0.988462893,1.8774723131,-0.9428279064,0.6160109861,-1.7549551137,-1.1003790201,0.7437007574,0.1571232556,0.7370137856,-0.2203995592,0.6623270065,0.7299329195,1.0616868593,0.9530620345,-0.5077576773,-0.887526984,0.7294937855,-1.5027148448,0.3365881855,0.8966168613,-0.2592646086,0.5458939398,-0.2036112041,0.5877583623,-1.0043762756,-0.9553899888,-0.7341457935,0.756140446,0.0278156568,0.426204053
biasActivation=0,1,1
[BASIC:ACTIVATION]
"org.encog.engine.network.activation.ActivationSigmoid"
"org.encog.engine.network.activation.ActivationSigmoid"
"org.encog.engine.network.activation.ActivationLinear"
