encog,BasicNetwork,java,3.2.0,1,1415739908331
[BASIC]
[BASIC:PARAMS]
[BASIC:NETWORK]
beginTraining=0
connectionLimit=0
contextTargetOffset=0,0,0
contextTargetSize=0,0,0
endTraining=2
hasContext=f
inputCount=21
layerCounts=21,81,22
layerFeedCounts=21,80,21
layerContextCount=0,0,0
layerIndex=0,21,102
output=0,0,0,0,0,0,0,0,0,0,0,0,0,0,0,0,0,0,0,0,0,0,0,0,0,0,0,0,0,0,0,0,0,0,0,0,0,0,0,0,0,0,0,0,0,0,0,0,0,0,0,0,0,0,0,0,0,0,0,0,0,0,0,0,0,0,0,0,0,0,0,0,0,0,0,0,0,0,0,0,0,0,0,0,0,0,0,0,0,0,0,0,0,0,0,0,0,0,0,0,0,1,0,0,0,0,0,0,0,0,0,0,0,0,0,0,0,0,0,0,0,0,0,1
outputCount=21
weightIndex=0,1701,3461
weights=##0
##double#3461
   0.0484136286,-0.2531360012,0.7763612966,-0.1777617442,0.7239494662,1.194271771,0.5065346569,-0.9100557011,-1.1492977151,0.7083195475,-0.8790368316,-0.8646132421,0.9010558348,-0.3568242955,0.2030229884,-0.4298108371,-0.1128818179,-0.7940728528,0.4635402365,-0.4133341663,0.8621265526,0.652954724,0.8384843376,-0.3385643716,-0.2319219908,0.7484358417,0.8366177925,-0.6939195551,-0.5740360208,-0.7732998164,-0.5346708394,0.1869381082,0.0805645673,0.0758138092,-0.715054666,0.6201777845,0.0272907276,0.5985038174,-0.8329932076,-0.264829496,0.2680791034,-0.4966148809,0.3572137262,-0.0161307456,1.0204173128,0.252424843,0.479704352,-0.7796022255,1.9802669356,-0.3039454411,0.084376027,0.1864628289,-0.383801229,0.7187904216,-0.3754862315,-0.8057804768,-0.5745867861,0.4451654939,-0.6776408695,-0.4927940011,0.0492201741,0.1251554417,-0.1187490939,-0.6599185324,-0.6262475888,0.0510785836,0.4846723397,0.5745622018,0.0516920943,-0.3485048896,-0.6311960433,-0.7181972738,-0.2305198421,-0.0184644104,-0.471161518,-0.0676198831,-0.743026031,1.1582105745,-0.7468980146,0.8314061437,0.2743379837,-0.2465170591,0.6105220358,-0.3503604733,0.7740922157,-0.6809062643,0.8486980584,-0.4621059612,0.0959000292,0.351176519,0.3700703757,-1.0536752589,-1.2923823302,0.1688089073,-1.8607832783,-0.9131364147,0.3136100489,-0.8208899793,0.1698944905,-1.3291929995,-0.6566212871,-0.9565504956,0.9129804601,0.4924060084,0.572695877,0.065788046,0.6032530162,0.299064273,0.1067845718,0.0211861264,0.5685144004,-0.8663361546,-1.0346711136,-0.0388200933,0.240862672,0.4998183342,0.8671804618,0.2407916653,0.7936958254,-1.6598042319,0.7554504592,3.0279983112,1.0053462695,-0.6435479758,-0.8136801674,0.103353538,0.0474920705,0.9850928598,0.2303063113,-0.1778506607,-0.6183014057,-0.1006139743,-0.9486598508,1.091833824,-0.778304808,-0.6800268619,0.7299482246,-0.7006393865,-1.0604907507,-0.3000259916,-0.0778927555,1.0130735865,-0.5082443198,-1.1272058734,0.2213025848,-1.5889859532,-0.3371494878,0.327774491,-0.2000803534,-0.1838612343,-0.5311780702,0.4105755964,-0.0400814181,-1.05518248,0.4686757925,0.528864312,0.0436859645,0.1680177206,0.0731346131,0.7811804026,-0.2612958036,-0.5765838233,-1.0028942478,0.5084749681,-0.8737446619,-0.7140721819,-0.4858431897,-0.2786402256,1.222123541,0.0648849041,-1.0869614254,0.4396929338,1.0213020478,-1.0149129496,-0.4943868768,0.4548140612,-0.0402362738,-2.5947682685,0.4056632918,0.5852959113,-1.2537476164,0.2849583318,-0.1430685068,-0.6178552395,1.1214496554,0.7280320933,0.4668718917,0.0015336292,0.4962747273,-0.1421591397,0.2472455215,-1.1772090471,-0.2278674143,-0.5383860653,-0.7770526013,-0.3967230218,-0.0549642657,0.796159056,-0.2512446389,0.0983762125,-0.3015635478,0.597806194,1.0062953453,0.5255363703,0.5073049122,0.3967769465,0.8605513518,-0.7646661507,-0.7035725469,0.3169587563,-0.5842088722,-0.1677824997,-1.3987372033,-0.1782810829,-0.4965756874,-0.8164710126,-0.8979013441,-0.0231358055,-0.9971569909,0.4756130495,0.8897727942,-0.3299632352,0.2832421116,0.0951814069,-0.0808430691,-0.4944832526,-0.8640109138,-0.6821796576,0.6067015129,0.1656346063,0.7229373411,0.1755774855,0.163798164,0.5523794984,-0.4300409309,-0.4562979107,0.040054412,-0.7251348975,-0.4993347055,0.1318768947,1.0067781572,0.1281549698,0.200917684,-0.9008310535,0.6334710019,-0.6926815311,-0.5315223274,-0.7725957994,0.9760353066,-0.8406009577,0.0000059807,0.9279612643,0.2058638445,-0.4387144784,-0.5907332924,-0.8772532789,-0.6725690899,0.5843865774,-0.9348576355,-0.3302528377,-1.9656649232,-0.6734034472,0.0313342016,-0.5722490282,-0.3894599337,-0.3426462801,-0.0491617528,-0.6377815445,0.3889398603,-0.2941573015,-0.0410295676,0.0159396531,0.3297913887,0.689139873,0.4564018334,0.5005847395,-1.3984226769,0.7125745825,-0.5129269641,-0.1451362703,0.5983465566,-0.3223933795,0.4758811511,0.1618613746,-0.0498599121,-1.0712961985,-0.3609073496,0.6948664026,-0.0763593473,-0.0448385978,0.9541671857,0.3488278215,0.0147020289,-0.5796253217,0.705320429,0.2456947854,-1.0879976971,-0.6250697319,-0.1793662609,0.269237446,-0.7712422042,0.5440165282,1.0280222856,0.8558626115,-0.7554987543,-0.7266272,-0.6817198668,-0.2446914195,0.2553840719,0.1650656097,-0.5219238692,0.4709686694,0.6954032407,-0.9623602438,-0.0981717158,-0.6262530322,-1.3056909419,0.3783454603,-0.7119943936,0.4411599558,0.0211182069,-0.8547000798,1.9161808612,0.2605852749,-1.2191551685,0.3329611969,0.3458441075,0.3204900771,0.0835101345,0.7671204488,-0.050747378,-0.0997860583,-1.0496815363,0.7665248542,1.1853653892,0.0890759937,0.3679651351,-1.4872885566,-0.1797301766,-0.0524342861,0.7406664756,-0.5431492836,-1.7216266445,-0.4599774474,0.2545355616,-0.0473644589,-0.2657654213,0.1518736174,0.6201532919,0.6160273236,0.2966050564,0.9476674333,0.3575171173,0.2609566266,0.0162225896,-0.7947768488,0.6741971032,0.5690041979,-1.2169551947,-0.1742313063,-0.6273702606,0.2424045516,0.0122428174,-0.8781761329,0.5816595958,0.8593072127,0.3819383705,1.0520888511,-0.59040453,-0.5711626022,-0.301748657,0.2261474455,-0.7909309844,-0.6012816292,0.0807387598,-0.8063761969,0.0938716542,-0.9082631654,0.1177564587,0.9409325746,-0.0511143957,0.3003033124,0.7709733071,-0.3732138045,-0.5289119197,-0.6189425348,-0.6685354817,-1.0099048691,0.2860867673,-0.5816626389,1.0065619025,0.7823612862,-1.297683936,-0.7850704737,-0.9047972544,0.4983791404,-1.2066495955,-1.5934852894,-0.8621826368,-0.0972172795,0.6973398838,-0.3763743354,-1.0667156579,0.6643894224,-0.7638942322,0.9406271069,-1.0325140387,-0.7162025078,0.0271655559,0.5136581005,0.5098313789,0.3433721319,0.1927888732,0.4066264916,1.0744090892,0.9780325786,-0.8329583265,-0.9674664246,-1.2287519455,0.1337976029,0.378830615,0.9634653139,0.0613357536,-1.6512326825,0.6776558668,-0.3828129545,-1.0911603621,1.2037964811,0.5702736355,-2.2491281982,1.206879361,-0.1072464674,-0.9343083768,0.4236197843,-0.2186223275,-0.1793469539,-0.4705234847,-0.5438532725,-0.3870792776,0.6981141134,-0.5330052929,0.1605426397,-0.8029839634,-0.6588637233,0.020868704,0.7444656221,0.3345343221,-0.78436342,-0.5241347492,0.6751052457,-0.7272963768,-0.4913636354,0.2591119367,-0.2736377897,-0.2724631254,-0.8330373336,-0.6541249066,0.4998129438,-0.5723132173,0.1326789743,0.5669404635,-0.9855937716,-0.16363185,-0.5103162336,-0.4599446779,-0.3781348792,-0.10765003,-0.3125780925,0.6242436606,0.0221471027,0.0449345982,-0.3406999919,-0.5592673012,-0.6754623607,1.2155407393,-1.8471514067,-0.5079045769,-0.952723227,-0.9951873985,-0.5459719298,0.1526402169,-0.3024533104,0.1985151172,-0.2207101927,0.0918914346,-0.2720435953,-0.1432626811,-0.3936691484,0.9701580254,0.2028154689,0.6491969081,0.9570650088,0.4078853935,1.5996524163,0.078755002,-0.8273991886,-0.758142841,-0.30541795,-0.4334741834,-0.0896708277,-0.8009047138,-1.3277511814,0.1889317153,-0.7078644962,0.3123019978,-0.7879178226,-0.4802200465,0.6881535213,-0.462405739,0.4637752091,0.06769143,0.1183581775,0.2135639235,0.0152096341,0.7718002611,-0.445611998,0.8736506586,-0.5497322843,-0.7873639992,0.2881549981,0.1821083302,0.000829966,-0.8702999188,-0.081008574,-0.3520853614,-0.6579594357,1.6170967842,-0.3699254317,-0.7624175348,-0.795306376,-0.0843102286,0.7959890896,0.1155882663,0.7521351425,-1.234715914,-0.2230409018,-1.0168223672,-0.5516526911,0.3032563601,-0.1297199287,-0.1883039043,0.2035809624,0.2303687349,-0.6412640939,0.4292055105,1.0932889828,0.889412766,0.2108807952,-0.8939249258,1.0828682984,-0.9213169777,0.2720186511,-0.1676009579,-0.0523131254,-0.704540487,-0.6741387213,0.5903838736,0.3316631471,-0.2449260735,0.2916503554,0.8087493172,0.9058294741,-0.5467503647,-1.4229424491,-0.3116107418,-0.2985034414,0.5988967656,-1.6651944785,-0.2546863519,-0.535986564,0.7210046267,0.7909166684,0.3390357762,0.142581541,0.8746601161,0.9736815682,0.2476264353,-0.9839658834,-0.6005207671,0.0094464639,-0.0326078697,0.6171071799,-0.9555569567,-0.028909328,0.0058112301,-0.9886116901,0.2113399501,-0.6643812938,-0.1015632171,-0.1180239216,0.2094568312,-0.3944939649,-0.7528447823,0.0746077882,-0.6808674834,-0.2281918118,0.1097214195,0.3536776631,0.5787895702,-1.2644831535,0.9253510565,-1.0640331572,-0.0370438738,-1.4552426488,-0.0063761052,-0.3617762108,0.8968651652,-0.2480984743,-0.9480048646,-0.0716739705,-0.9027439518,0.815400084,-0.1803504374,-0.1864946202,0.1440839589,-1.3666807247,0.7450972418,0.2853635634,-0.6350305663,0.0739414868,-0.3251540353,-0.1283466432,-0.678811123,-1.5956025584,0.0836875999,1.0445084872,0.3061112988,0.648701607,-0.2072444347,0.0935748325,0.8970093417,0.5034108935,0.261650391,0.7059409576,0.8445784707,-0.143228852,0.6066002226,0.9211126923,0.5598166237,0.1314967095,-0.1951386712,-0.950318559,-0.1190620869,0.5196686712,-1.190593777,0.5685821418,0.2661314857,-0.0924218938,-1.4902861879,0.1833874676,-0.2086349883,-0.5782889452,-0.6142668989,0.2256362866,-1.0107097872,0.5470427673,0.5736626079,-0.5093716159,0.2323115687,-1.0773834148,0.0497848152,-0.683705872,-0.8913475356,0.2256352171,-0.4878554719,-0.6874220808,-0.8754953227,0.7496797371,-0.8814164802,0.5719591191,0.4081310902,1.0687466787,-1.220531407,-1.0736501473,-1.1853056596,0.8328330822,0.9342890203,0.3794922529,0.5577495151,-0.3445277383,-0.8996214801,-0.1399358184,-0.7072498366,0.2063406967,-0.0224525171,0.3871331707,1.0605208567,0.228031043,0.7641563851,0.4638375639,0.0663894576,-1.1088200911,0.0906556227,-0.8964295089,-1.2897679107,0.6652588992,-1.1922035755,-0.0197257319,-0.2571935724,0.0684772052,0.0195411701,-0.9418788569,0.9718323291,0.4054273083,1.1596060823,0.7628180371,0.800386625,-0.4530348162,-0.5527468686,0.8800404993,-0.9111307728,0.5690251609,-0.4323242828,-0.0981315397,0.6729504285,0.5249316703,-0.5312675628,0.1186886066,0.0293185209,0.8485540997,-0.1794801999,0.8558496525,0.0923088087,-0.3556259745,-0.6138683482,-1.1378156644,-0.1682788936,-0.6123976621,0.7726986059,-0.5836923077,-0.280430535,0.5395597925,0.0729721583,0.9094095426,0.8277958258,-0.6022904436,-0.4032004967,0.4466168967,1.0541733873,0.8050790983,0.3583565361,-0.1992810745,-0.6374522198,-1.420990269,-0.0333625456,0.6225251703,-0.7572429366,-0.8873706611,-0.5861700666,-0.8654248895,0.288183056,-0.4348137913,0.088622828,-0.7737724292,-0.6549719449,-1.229267958,-0.5795700324,1.6183583135,0.4707582977,-0.0472869954,-0.4842786733,-1.063512077,0.4303171359,-0.7063239545,-0.0660288102,-0.0967365344,-0.1583562835,-0.2549981644,-0.9167397879,-0.44623619,-0.8684066598,-0.323179567,-0.0754673192,-0.7628076258,0.5491491028,-0.1897000251,-0.6720733542,-1.5817639276,0.7653739965,0.3744169622,-0.0437427372,0.1794826648,0.6189615061,0.2321534738,0.8943054173,-0.248218589,-0.5212686646,0.9279358317,-0.833657341,-0.110818279,0.5030755437,-0.0808220696,0.190811407,0.3640179756,-0.9371497287,-0.5891497477,1.0249260916,-1.1384808465,-0.382712201,-0.0705182892,0.7188580907,0.1808413726,0.5474461186,0.6089490284,0.0903530067,-0.0445888584,-1.1954634334,0.3161100121,-0.8722069016,0.4344662358,-1.537527424,-0.4435554378,-0.2194917604,0.4786720311,-0.0673252957,-0.1640605352,-0.3941122382,0.9555868519,0.3698468338,0.0105318749,0.9873434741,-0.1477739198,0.3985424227,-0.4742635409,0.0095697689,-0.6986604629,0.2663544545,-0.5905026623,-1.2069427116,0.0882551416,-0.643934518,0.2751386629,0.1112891877,0.389433195,-0.7546931771,0.8727424831,-0.6220641979,-0.8222757324,0.9852517507,0.5736939403,-0.0703502614,0.0121121217,-0.1440006634,-0.2219689744,-0.3075573754,-0.8037785424,-0.5967006382,-0.6246704877,-0.7521405678,0.2294940679,0.8282119592,-0.3592206089,-0.5568384081,-1.3865318451,-0.8882721259,-0.8764128576,0.3456742123,0.8053185887,-1.6265826351,-0.028181179,-0.4785854575,-1.0862443594,-0.3440167059,0.9161495148,1.1755553694,0.8056270329,-0.5229705661,0.1998134806,-0.5515782602,-0.7391648699,-0.8931465053,0.8941785109,1.0069401106,0.6932145445,0.2452410668,-0.0765980605,-0.3240156595,-0.5555213854,-0.0730081517,0.9060331182,-0.2567622174,-0.2604749243,0.731991492,-0.5120368461,-0.013147107,0.7130657594,0.384269264,-1.6885410621,-1.1696268333,-1.155783953,1.042955763,-0.0498308644,0.6180223536,-0.2622196245,-0.7937971952,-0.4564200366,-0.14819829,0.5467999859,0.2214562023,0.715679552,0.5321909264,-0.723430096,0.8477754913,0.7494895525,0.0129388066,0.288611939,-0.1055182463,-0.5894143835,0.4222719696,-0.680120066,-1.0117075843,-0.4412409545,-0.5936963845,-0.27677945,-0.4296421876,0.0906329799,0.4495079793,-1.3490202942,-0.4862187148,0.60902235,0.4692003736,0.3765620528,0.6105037606,0.2805067681,0.4649860007,0.8391665555,-0.7370930632,-0.357849741,-0.1156518094,0.9180040918,-0.3711572939,-0.817811298,0.850031556,0.6753367659,0.5670317845,0.2955038585,-0.3156200111,-0.7635649202,-0.8576780384,0.7313539608,-0.1579533778,-0.2386605213,-0.0328800859,-0.5999948068,-0.324845418,0.5500541593,0.1625586003,-0.5923395172,-0.2336124158,-0.218703672,-1.0932813003,-0.0762202587,0.2544913104,-0.3719559302,-0.0896585175,0.160761817,0.5867448559,-0.5294117822,-0.5600483199,-0.1439592675,1.0566946172,0.2318063767,-0.6059666173,-0.9176980366,0.5339122808,0.6545767502,-0.3083130156,-0.2403213637,0.3565446243,-0.189894233,-0.3028916786,0.4921085566,-0.7943215543,0.539490507,0.3883701079,-0.3047729688,0.5525453407,-1.1874242246,-0.9060348244,0.2766565958,-0.3061124544,0.3307567462,-0.0767724043,-0.5010010172,0.0632209769,0.3031135249,0.1539413922,0.5948822652,0.0631997449,-0.5498643704,0.7280736993,0.2655886079,0.0151214855,1.0531147674,-0.9407048759,1.0507958632,0.2075973707,-0.189700463,-0.6952544281,-0.3591768282,-0.0204751861,-0.0667807856,0.5105092597,-0.7449168446,-0.1249424176,-0.2107757839,-0.6002569931,-0.6712142055,0.1693592156,0.3059882608,0.4252071257,0.5412722445,-0.7944569059,0.6712126003,0.878123121,0.8484070615,-0.8309994365,-0.9859210596,-0.0415835747,1.3082905416,0.1601094205,0.6122234425,-0.1699332589,0.4521090999,0.0166706304,0.1620720834,-0.1027155097,0.2232820869,0.4728669045,-0.314497085,-0.7116426832,-0.7958242425,0.7488247354,-0.88198579,0.5951869833,-0.6991120458,-0.7460049734,0.8704324244,-0.4262533509,0.2297552224,-0.0961547844,1.1662811891,0.0026512591,-0.5321762417,-0.2939974161,-0.7778454951,0.6602261754,-0.4250480074,-0.4945277114,-0.110785209,-0.6699781974,0.3327395558,-0.1007369001,-0.5350572717,-0.4397580134,-0.0746941381,0.0884181183,0.2263236114,-0.4245671983,-0.044391247,0.2250045695,0.0936097189,0.2921612263,0.8749111656,-0.1196285409,0.9135855672,0.6428721282,0.3098372995,-0.1777635152,-0.8151748231,0.2509321179,0.0879105369,0.1476157581,-0.9779314203,0.1770355543,-0.1119873265,0.0149968326,-0.0251947607,-0.0633538335,0.7549327609,-0.6747908634,0.8156860279,-0.7513887108,-0.6784205023,-0.4483391435,-0.673120794,-0.1702659916,-0.1329562692,-1.1316161228,-0.1292145348,-0.7167680585,-0.0247875091,0.8044357001,-1.0279187098,0.5921989139,-0.5663729962,0.1339637203,-0.1887146127,-0.2398642836,0.5417863791,0.219701943,0.2221912753,0.2114328348,1.2939998414,0.0031715134,-0.4126130754,-0.1024795652,-0.6336123713,-0.5444280816,0.972799588,0.6921567711,-0.074421071,-1.0713010937,0.1936410018,0.6023703282,1.0928311882,-0.4040766079,0.0010496839,-0.1657149444,-0.879366587,0.7737400087,0.5613366616,-0.1580493998,-0.8455994904,0.5618291537,-0.0509408375,-0.8801611759,-0.5904093023,0.2575712071,0.4920262116,0.111959965,-1.2791268053,0.8349720052,0.5875170388,0.368448669,0.2680754315,-0.5860578979,0.3312815197,0.2466600376,-0.8858414319,-1.0168789421,0.8966041855,-0.7909957882,-1.1080059301,-0.1484480566,0.4009192404,-0.596354108,-0.5006555218,0.6713407437,-0.7134994828,-0.1523405651,-0.3094736818,0.0021931091,0.5892193292,1.0785453987,0.3935277801,0.693945379,-0.506067716,-0.0750016841,0.4537318263,-0.5764038175,-0.4021855334,-0.8783936972,-0.4956775935,-0.0697743686,-1.0446031826,-0.744201612,0.8444675737,0.1191244891,-0.3747043765,-0.958872893,0.1921787309,1.104583789,0.5327208656,0.1375670846,-0.1387161078,0.7106707549,0.3471828606,0.0837112029,-0.3919355303,0.3276724563,0.1648270139,0.0415664544,0.5733666662,0.0095869557,-0.2648337075,0.4792559113,0.8527080385,0.440244473,-0.0503500932,-0.4416747968,0.4289117213,0.08869348,0.0327463838,-0.2960297608,-0.5890305341,0.0933760173,-0.3154426947,-0.3659059197,-0.2345597038,-1.1563858262,0.4810467052,0.1144618911,-0.3850889591,-1.0879832046,-1.3267506449,-0.3760228716,0.4573543243,-0.3219329491,0.5278206489,0.1731064203,0.185182848,0.4736499054,0.3380760966,-0.3331045634,0.7773926509,0.4349096106,-0.4489451267,-1.2751991251,0.2380568233,0.0471402385,-0.8728001821,0.3415228988,0.1376502283,-0.7020737107,-0.8468747529,-0.4940681193,-0.3250921789,-0.5662128587,-0.3758386706,-0.1907239507,0.5334869508,-0.7305859825,-0.2064857848,0.6788557727,-0.1865958629,0.7543200295,-0.9620571601,0.916074539,0.7794144525,-0.2989027156,0.0015192228,0.111246966,0.1831958398,-0.5146208784,-0.2246377107,0.4082455226,-0.5905330884,-1.0106810947,-0.8563090763,-0.5504272564,-0.0374320347,-0.9454501764,-0.7711451264,0.831952874,-0.0471653708,0.7483444331,-0.6076027964,0.1259263572,-0.8567402589,0.2876509412,-0.5296953335,0.3975858269,0.4231764637,0.1281502207,0.2588619817,0.7817464802,0.984906919,-0.1780493975,0.8035625878,-0.4377485797,-0.0775620056,0.3617624847,-0.1043856469,0.6707940709,0.7089810147,-1.1457369546,-1.0277560112,-0.8676045363,-0.0549449797,0.6434918358,0.0158666385,1.2318203225,0.12119453,1.0510302955,-0.2279153584,0.4787075885,0.2863222692,0.1607158295,-1.0892769047,1.1772650603,-0.8081112321,-0.4147274468,-0.1048860749,0.0288257342,0.4225410064,0.6160711102,-0.6571821029,0.6400175132,0.4453570678,0.3372729157,-0.556035899,0.7207700642,0.0413673673,-0.6583361712,-0.3673935197,-0.5696221859,0.1715872415,-0.9975523828,-1.0813214606,-0.3773212593,-0.6292012104,0.1079957272,-0.507855567,0.4852508345,-0.2315148036,-0.0645791075,-0.1860926119,-1.0650876554,-0.641213223,-0.7268445627,1.0183704059,0.668607147,0.2519669692,-0.3489751298,-0.4994804038,-0.1069163256,0.0115705572,0.6288970828,-0.8528350959,-0.2043669451,-0.8658336393,0.3437844772,0.7264239323,0.0279447932,-0.2147416762,0.1648468859,0.2924276834,-0.5742892096,-0.4771053042,0.4186293657,0.7685292923,-0.551064376,0.5561758262,-0.0249689351,0.7868600131,1.0636692112,0.8172540695,0.6765269178,0.7178003084,0.1413773903,0.9542720525,0.2486812024,-1.4979146766,-0.1440042105,-0.2777545614,0.6517482119,-0.878930417,0.0590549722,-0.6670646711,0.1875901242,-0.5187169718,-0.0486553057,0.221702434,-1.4578083564,0.7309207842,0.0133848082,0.1924835306,0.9378370517,-0.2821189138,0.0073113959,0.5034006973,-0.585846735,0.0577238172,-0.1405513457,-0.0320801672,-0.0391352355,0.4076320464,0.7744019575,-0.9380996364,-0.0056591123,-1.0130272695,0.5739238006,-0.4438509935,0.1538371582,-0.4371777772,0.5419377615,0.539894487,-0.0422322308,-0.602008522,0.4837575914,-0.3349840858,-0.2458584839,0.6336802114,-0.3203538986,0.3339646596,1.0916852511,-1.0528301045,-0.6516561263,-0.5379323847,-1.201580338,-0.0692862477,0.537827992,0.8620370841,-0.7594599871,0.3917855684,0.1903465981,-0.1058690212,-0.150122017,-0.7923803382,-0.7317294427,0.5713494709,0.2901537481,0.8141270031,0.2360921025,0.3297063911,-0.3277360072,-0.2449449705,-0.8315132176,-0.6363461126,-0.2544422581,0.1255104927,0.1186915582,0.2857891407,0.729073188,0.072947764,0.3421551725,-0.43680045,-1.2426934267,-0.9315191087,-0.4005997853,-0.6409077413,0.1504536184,-0.3184480967,1.5595273472,-1.349745504,0.6089414405,-1.0982371863,-0.1631895734,0.186530885,0.3711853804,-0.8283124196,0.0169031302,-0.0023944522,-0.3216689814,-1.0874648181,0.620713045,-0.5381291249,-0.1523550317,0.7152365735,-0.2788598301,0.3933462443,1.1050732552,-0.9039460032,0.4158371071,-0.5086735575,-0.8320734007,0.0903513627,-0.2873962812,-0.2899777318,-0.6370468475,0.9980233547,-0.3050669697,1.0320186863,-0.2576938329,-0.3114046213,0.6029709773,0.699685554,0.1472587356,0.5254311868,0.8673597963,-0.4820422796,-1.3787404247,-0.5616654403,1.2944788782,0.7316836835,-0.4753352413,-1.2139993456,-0.6152471864,0.6335235772,-1.0863320047,-0.0672106012,0.003627487,-0.1986068888,-0.3446423015,0.4422846216,-0.1228817316,-0.5300492027,0.4521209561,-0.2746633643,-0.7793162367,-0.1689479162,0.1923432249,1.4786932905,-1.3171225185,0.1011584685,-0.5138713512,0.607335391,-0.0476692685,-0.601133286,0.0748205674,0.7872789841,0.074631032,-0.24636713,0.1697997888,0.8597232403,0.5977055339,1.1667952838,0.3449203677,0.9660167833,-0.058662401,1.0975384285,0.5971908347,-0.8823972357,0.3596799902,-0.801643286,-1.0070188305,-0.8027741693,0.641739762,-0.0295740326,0.3916166929,-0.0202087011,0.611529669,-0.4267783705,0.06136656,0.8280594967,0.2477698219,-0.7654091493,-0.7093427359,-0.1794749869,-0.4436337012,-0.7850366922,0.4662334002,1.1322930999,-0.2196414439,0.6100943595,-0.7822548129,-0.4237829757,-0.7944242986,0.6085964551,-1.4165027753,0.5856018365,-0.9387168306,-0.0936164305,-0.6410583412,-0.0980142155,-0.4316399979,-0.4044563498,-0.4521177443,-0.3284561471,0.7302430835,0.7241257621,0.5803969878,0.5596083294,-0.0350562021,0.4684607463,-0.0657259891,-0.5416306496,-1.1370191843,0.6947649649,0.6151328267,-0.9842953112,-1.0291785305,0.3950553511,-0.2251560995,-0.6483195971,-0.5056086462,0.932089851,0.070568283,-0.8469421264,-1.1070004167,-0.2820849783,-0.2571161516,-1.2102266416,-0.7421441933,-0.8235158281,-0.1176534477,-0.662249984,-0.3855343517,-0.2012590376,0.8730766744,-0.8491444927,0.9538342644,0.3095456402,0.8701261906,0.3379210488,0.9238071522,0.1718640101,0.9999649165,-0.7842008056,0.7665037802,-0.4750461826,-0.5195113457,0.4394127008,0.701682606,-0.9063153311,1.0735331431,-0.5285724821,0.5379880523,0.4027474867,-0.291197338,0.5866439237,0.8189937388,-0.3580546605,-0.7957371639,0.5317188373,0.3125701884,0.5202970528,0.6913749053,-0.8127689305,0.8918918945,-0.4765482794,0.6833313466,-0.5051641196,-0.4987824847,-0.045566056,0.0781935814,0.0336969997,-0.7143396112,0.7176441562,0.3189604419,-0.5316301636,-0.2152679695,0.7081466771,0.5837034408,-1.0378937109,0.5479149648,0.7174137781,0.0874797038,-0.1453781123,-0.0613056063,0.7487610506,-0.7806056162,-0.5889048489,-0.6316180572,0.2372932463,0.1759579277,-0.1166463794,-0.5336015661,0.2046644307,0.1470507245,0.7275616115,-0.2989621362,-0.3745304742,-0.001606083,1.2000101054,0.1139160583,-0.7485130368,0.1362657886,-0.5797306998,-0.1578590272,-0.049922844,-0.4629235934,0.3219035121,0.3213149771,0.274581815,-0.1403565018,-0.4438059383,-1.0965043255,1.1329087859,-0.1490273556,0.636518369,-0.8615099583,0.6928226994,-0.4007339746,-0.7551344059,-0.785941534,0.2906584997,0.8873581407,-0.2580041398,-0.9561493673,0.2607509064,-0.3383144421,-0.0330215368,0.070552715,0.8357454861,0.7499534902,-0.1562080314,-0.5983646965,0.7295600282,-0.482670327,0.650516016,-0.1875227768,-0.8457770653,0.4779404014,1.3183301153,0.4870975343,-1.0120587505,-0.8608825777,-0.6335758698,0.0647497602,-0.7347622649,0.5217504688,-0.4503110248,-0.9251796477,-0.3227028301,-0.3854710823,-0.3325615157,-0.1121233112,0.2827647276,0.0280529995,-0.1703969467,0.144065753,0.1977698978,0.4899074272,-0.3644003974,-1.138729102,-1.2622388513,1.851234597,-0.3570991718,-1.0141649719,-0.8246769617,-1.2683493578,-0.6576266645,-0.0961699057,-0.7622304976,0.6855102746,1.4907513151,0.5316618467,0.6416400537,0.9632664864,0.4628060215,-0.9553130985,0.5946420947,0.5708306793,0.6915523482,-0.0686893579,-0.2227900278,-0.1244505755,0.7655109789,0.2567914827,-0.4202179567,0.7298980495,-0.5192827024,0.2311491595,-0.3032597419,-0.2225443512,0.3873685664,0.5884205739,-0.3330351585,-0.223311554,-1.1033503951,-1.7259144885,-0.8659229346,0.7310154721,0.3018703072,0.5087003028,-1.1399756802,-0.4482301111,0.814610022,0.6193509795,0.2442255728,-0.3985961773,-0.1719516044,0.2707539858,-0.1714982931,0.1009901152,0.1158229596,-0.0098192564,-0.0404925028,-0.9289416755,1.0160201933,-1.3567138321,-1.1221482724,-0.4974591329,-0.1005473828,-0.2132865012,0.2859562905,-0.0800927221,0.082160075,-0.6634587246,0.3743857065,0.3337914406,-0.1257141411,-0.3032493163,0.4807346239,0.7513518431,0.2404098943,-0.9159678146,-0.1398112354,-0.4645298908,0.3954654709,-1.3024597857,0.7976835384,0.2900718541,0.7963454421,-0.9448404948,0.1265313773,-0.1742384261,-0.6574395738,0.2681806439,0.6842437722,0.3863484061,-0.2885306061,-0.092623639,-0.342943963,0.1055850761,-0.0942590696,0.9426242335,0.7137781225,0.4286329573,0.5598734767,0.416338601,-0.4388760724,-0.3088919522,0.117731042,-0.6659772353,-0.5289835548,-0.2173631641,0.9928816624,-0.8912367089,-0.0207768183,1.1540980992,0.6794622854,-0.285877929,0.2145711728,1.1900022571,-1.1069714207,-0.470837608,0.5398020172,0.7321912753,-0.0007470486,-0.328898511,-0.4835556762,0.0078107987,-0.9141471355,0.3460518726,-0.4426608419,0.7351235127,1.2360245342,-0.3059440677,-1.1316415396,-0.076953117,0.1172347837,0.8875381349,0.1600766009,-0.8822802456,-0.0066846363,-0.2441287906,0.0626322009,0.3827831157,-0.6775433323,0.5378236408,-0.2578690608,0.2421002999,0.4301092359,0.0260970936,-0.7198091647,-1.4089957762,0.8256898555,-0.5036982579,0.6277857955,-0.4228276935,0.7958963135,-0.1193392293,0.1422036614,0.4698390296,0.6748266052,-0.3661650196,-0.0239037778,-0.6349939165,1.4917678008,-0.4862510059,-0.0529701513,-0.4442297964,-1.1392793027,0.02268874,1.4048041674,0.926436738,1.1438825272,-0.3887554029,0.5268296516,-0.2534051363,0.4677625718,0.6183414315,0.0494940599,-0.1872283841,0.993200916,-0.5829036774,-0.8643569573,-0.3007724156,0.2421713514,-0.0095103988,0.5925096683,0.8995108723,-0.754412909,-0.8980833679,-0.1899508233,0.4627659245,0.5354304467,-0.6542980708,-1.5301029838,0.1137679065,-1.7178475514,-1.2549486538,0.0046557855,0.0972865243,1.1616198409,0.0933452678,-0.4998235443,-0.8929888593,-0.7392259581,1.061864096,0.3461415276,1.4371854548,0.229495032,0.3212492587,-0.0023599264,-1.2280635438,0.2442344454,0.2326374071,0.6334973889,0.2935241655,-0.8791467454,-0.2487155075,-0.2271761512,0.339119359,0.7989949653,0.418165952,-0.6318557029,0.6666369862,-0.3284878186,0.9406629913,-0.3812192352,-0.2556886628,0.7807330332,1.361194386,-0.1623583919,-0.1887463441,0.3553650644,-0.2648867313,0.0480475467,0.1086086121,-0.3750813579,1.3323515696,-0.4383465421,-0.9554200051,0.049027289,0.367804023,0.7140421894,-0.9162851014,0.2996884142,-0.2523383864,-0.0211716653,0.1687971072,0.3756061053,-0.0747475219,-0.3193531806,0.2094343618,1.3041576116,0.817719867,-0.3377524786,1.0717354802,0.0547435579,-0.4625678536,-1.254906227,0.698696767,0.4286107118,-0.364973156,0.3339317546,-0.9803695078,0.8404924415,0.3402242169,-0.1940856032,0.9527357978,0.2033967563,0.1061509542,-0.9309712758,-0.4823735896,-1.0014890374,-0.9391182019,-0.6438125431,-0.5957564324,-0.2734713461,0.6538737922,-0.4446362779,-0.8840195268,-0.7610759064,-0.6560395771,-0.1685168036,-0.4045301196,-0.2205799965,0.1437602911,0.1128070932,0.0749646559,-0.8574370982,0.3877688242,0.2314181281,-2.0258627979,0.3064789939,0.0641046121,1.0538811677,-0.5201102332,-0.5645038171,-0.0530148616,-0.2443802274,0.6290463735,-0.3528975311,-0.7747435927,-0.6866849858,-0.6733092189,-1.4128421101,0.2431588664,-0.9318661559,0.0938059814,-0.0667543674,-0.1279335425,0.2719483438,0.9067889722,-0.1122069292,0.9640467527,0.2194115402,0.0013955468,-0.1600371667,-0.922653621,-1.5403737092,-0.0235273281,0.7041097929,0.1472870478,-0.9597127455,0.3925687184,-0.1223481369,-0.6672494738,-0.120506679,-0.5978962823,-0.2772700654,-0.4507961706,-1.2196586596,1.4680670785,-0.3711840439,0.4609822272,0.8791254598,0.1588999083,2.2768103434,-1.4543800705,-1.1181029705,-0.7505669394,-0.9696347797,-0.7201193197,0.56466219,1.0591420938,0.5093858372,-1.2450857158,-0.1157615036,-0.1510629056,-0.4866166259,0.7944739475,-0.2584660158
   0.1365840741,-0.7356691549,-0.0173474296,0.1172367863,-0.8160025096,0.9518732331,0.2589705028,-1.1343991942,0.0020058365,1.193503603,-0.5729419431,-0.2442958414,-0.5786785489,0.2710699018,0.9287115862,-0.3005850495,0.1720779958,-0.1986492461,-0.8055805248,-0.6405548413,-0.1155410744,-1.0812259573,0.8851083546,1.2186860375,0.721105121,-0.3850589069,0.2816181076,-0.2783906377,0.1941683468,-0.411428182,0.5818668868,-0.7449652291,-1.3999027496,-0.00382063,-0.1841762535,-0.1149712205,0.467253926,-1.1390792146,0.3311051603,-0.2461780629,0.4986028605,-0.625699958,-1.2900429122,-0.3864498563,-0.140586944,1.0804028874,1.1104334994,0.6645086926,-0.2060419463,0.3029787237,-2.0810192193,1.5822747078,0.0956138834,-1.2559249259,1.1828462349,0.2588987827,-1.5526730138,0.3708255249,0.3325304004,0.6400469069,-0.922435523,-0.6131399719,-0.8597333241,-0.4281422099,0.3792385451,-0.063030588,-0.279459505,-0.5280933909,-0.6822865711,-0.9075054432,0.5316811303,-0.218266285,-0.2473281857,-0.5468222553,-0.2851662937,0.3040094025,0.1072636524,-0.3666137621,0.1978953648,-0.6382248604,0.118378538,0.1417928448,-0.0769606029,0.6191279008,0.0074539238,0.3608707338,0.4194983813,0.5154961146,1.0560998399,-1.0750950888,-0.7670312382,-0.0337772954,0.7036069606,0.1409210125,0.0929962726,-0.9228390662,1.0975251882,0.8146186589,-0.071089973,0.7309902718,-0.3790862545,-0.2674449375,-1.0259048834,-1.0945226282,-0.134006517,-0.4458689131,-0.8444626857,1.2575807595,0.4086959431,-0.3687920329,-0.6951422407,-0.5784377097,1.1902375816,0.1642020845,0.3867190678,-0.7256331939,-0.7475050924,-1.2375894883,-0.3503684324,0.5578357665,-0.2101690295,-0.08380101,-0.0285976493,0.4162759874,0.4713651843,-0.679734123,0.409842666,0.2087239468,-0.5183670565,-0.4755668052,0.9808462751,-0.7362763402,-0.430897863,-0.3505980057,0.0985038052,0.269746448,-1.1303575778,0.4399554736,0.6890034189,0.2922018941,0.1472440296,-0.4961019374,0.4604782493,0.4334700009,-0.6340781366,-0.6334656905,-0.6748882767,-0.3800152101,-1.1057084918,-0.2929347611,-0.9440087748,0.6929559153,0.0873295691,-0.7330735887,-0.7725990965,-0.5153746584,-0.1942087798,0.3442221601,1.0926433037,0.4935601244,-0.0957154407,0.8013853879,0.4606956292,0.5725823777,-0.7749445834,0.24300397,0.0894434191,0.3210443332,0.0946712353,0.299874332,0.0360752224,0.1157495087,-0.8951764799,-0.4413267793,0.5942730596,-0.4131595239,-1.680204293,-0.196996154,-1.2993430418,-0.6808733029,-0.1192533825,0.1881851147,-0.532471072,-0.6716587792,-0.3224771412,-0.408221095,2.0611766847,-0.3685446386,0.7668143945,0.5873414602,-0.7718542249,-0.6668514253,0.1271112325,-0.7628937004,0.5909730325,-0.7768469879,0.9417394751,-0.6396367433,-0.58310602,0.3562779064,-0.7421620825,-0.9319602969,0.2106043128,0.8055486681,-0.7342090282,0.5055474093,0.5229367137,0.2406251574,0.7412777793,-0.6479264546,0.5119762752,-0.0552473608,0.1333482654,-0.7932537032,-0.4359986204,-0.9749962831,-0.1395403805,0.0961588479,-0.5313268567,0.4949845805,-0.3544962924,-0.2697307979,0.5739658465,0.9644952924,-0.3169317588,0.1512032197,0.1866453699,-0.3326934224,-0.0110456151,-0.484849613,-0.0686401304,-0.6069912328,0.0084753928,0.3453274935,-0.6626742837,0.0433089563,1.0176706746,-1.4883306725,-0.5890398228,-1.2349576617,0.1886491646,0.7668724908,0.5519774571,-0.0726069349,0.2728391601,-0.9515225047,-0.1698970986,-0.8992154003,0.5182233054,-0.6718954203,0.0286278343,0.108423095,-0.0228308696,-0.0627200834,-1.2961535591,0.043078065,0.4610607375,0.0597871441,0.1752711728,-0.0418261421,-0.9094321924,-1.054564317,0.4730876942,-0.5392207444,0.1711909461,0.8158996364,0.2185310135,-0.0430591296,-1.0625690575,-0.2310514634,-0.3502304151,1.0467503899,-0.082041661,0.3599469622,-0.3287264133,0.0378424089,-0.1735318634,1.3183592341,-1.6001514126,1.136377572,-0.2418998753,-0.7352650865,0.9588460743,-1.0548347727,0.391115319,0.5136337109,0.1154899158,0.1927660938,0.6250064537,-0.9432028272,0.6480499078,0.4018958667,-0.3605494754,0.8916179352,1.1002150155,-0.262056527,0.4228410306,-0.1686028486,-0.7772555926,0.4420799756,0.7957460167,-0.8641887352,1.1115085439,-0.0531151165,-0.2636330523,-0.0565963249,0.3113563324,0.181428248,0.6765711728,0.1604647843,-0.0874423819,-0.6339062313,1.0736605706,0.7348482479,-0.7719919648,0.2925923063,-0.5099773641,-0.7250935956,-1.2566249549,-0.4892305008,0.2443323073,-0.2392589697,-0.1682331459,0.192751448,-0.5807318603,1.0483185141,-0.3741712856,0.8834598765,0.2521794882,-0.5520483388,-0.3005089596,0.5302004268,-1.1461420214,-0.4352022331,-1.0792734762,-0.7173693967,-0.8432625642,0.284550594,-0.5227442863,0.4184440296,0.7499776028,-0.1462814328,-0.1041572874,0.6868607559,-0.1677834914,0.2574128654,0.9485544891,-0.220745043,-0.3952797881,-1.0642491232,-0.0971071487,0.2507661271,-0.8077148604,0.0447288004,-1.2772067821,0.1124787821,0.9030546139,-0.1416613562,-0.4974594273,-0.1248242773,-0.8959208483,-0.322237685,-0.4066942726,-0.0368343942,1.0452261102,-0.4158020273,-0.9900527733,0.0862321818,-0.6227992293,0.0780720854,-0.3827704718,-0.9703711308,0.2071422436,0.7543565936,-0.2955483812,0.1879088767,0.1263782439,-1.1659396881,0.6165459869,-1.0389332511,-0.499745421,-0.682043002,-0.5661958512,0.8122708472,0.4642800389,0.6356588381,-0.3364707821,-0.0826716301,-0.2346814889,0.6526820899,0.5390007687,0.2345011742,0.6207741294,0.3779043418,-1.1718912051,-0.1600096657,-0.4927290845,0.7946900508,0.312790049,-0.7497907153,0.2278396317,-0.0253476531,-0.079878533,-0.6628845294,-0.3334181673,0.946015418,-0.3430958905,0.3395868345,-0.5704905728,0.6606579234,-0.3948389708,-0.1971914685,0.5387741845,-0.7355485143,-0.1892929996,0.8827652645,-0.2547949251,-1.0397471532,0.4266112355,-0.2045291553,-0.4610587334,-0.3251975879,-0.1924619114,0.0008822541,0.3615018201,0.2941441603,0.3292160521,-0.2956225768,-0.5796417491,-0.0534114748,0.6391067498,-0.9415719292,-0.9201273349,0.3124326024,-0.9431328177,0.770546145,-0.9490934187,-0.6428518623,-0.3303750676,0.0635019035,0.0218415599,1.2033442108,-0.5998739089,0.8279897015,-0.1600220986,-0.1276366789,0.5090604569,0.0596849915,-0.7141521683,-0.6377425433,-0.5112391003,0.5250300843,-0.3180669545,-0.1862483615,0.0094803312,-0.6427426914,-0.6319560543,0.9938378856,0.1365172965,-1.0620377302,0.3192664842,0.9913744617,1.4979003902,-1.1237784058,-0.5843611546,0.0532348001,0.5449292752,-0.4453585385,-0.2570259465,0.6463831573,0.3052447616,0.5350821765,0.5601205997,0.751977345,0.1484227589,0.6369244794,0.5215380135,-0.8865419908,-0.5914518668,-0.2528172683,0.0425234037,-0.9373562162,-0.8398987873,0.8352143228,0.4531558821,0.289988293,-0.3854406284,-0.5642795725,0.5646813516,0.1604345056,0.0520772839,-0.4075937567,-0.4381062191,-1.3655794143,-0.1716936426,-0.764906023,0.0672773186,-0.3826012464,0.1301658771,0.5798734083,1.3833753249,1.3498580939,0.5708731086,1.1852361478,-1.207311975,0.3991386206,0.1313539127,-0.0491194581,-0.938820632,-1.2757975575,0.2673901869,-0.1755296984,0.4362458518,-0.0092431655,-0.9308068665,-0.4575315324,0.5515351904,-0.3873482741,-0.635133184,0.7613813211,0.4640351946,0.9579135619,0.1516297824,0.3835801055,0.7224139745,0.4821790132,1.1981525044,-1.0512341103,-1.0154982131,0.0717345373,-0.0444892539,1.258024223,-0.5800892464,-0.0170009022,-3.4023772038,0.8628458183,0.9555249679,1.2782957856,1.0585071949,0.1286831454,0.1490633442,0.9321528138,-0.2140521999,0.0384884404,-0.4135834602,-1.1821694325,-1.3973186151,-1.4970099422,0.2738556358,0.6053475437,0.2397986987,-0.1681711677,0.8379633675,0.0254261403,1.8860512094,0.7889049389,0.3911611578,0.193205446,0.6214391297,0.4833649217,0.7586936528,0.0685322101,-0.9094567272,-0.0937139261,0.7987297237,0.1615086458,0.0303140087,0.0487945697,0.0288174345,-0.1606000915,0.1029596479,0.1875843298,-0.8945069417,-0.6103017075,0.5883903539,-0.5079846586,-1.4253516718,0.427454885,0.3235536079,0.1227726825,-1.2442963517,-0.3651628965,1.0851866978,-0.4409432526,0.2547098402,-0.0448359766,-0.0065788936,0.6582375334,-0.2299892234,0.3386990884,-1.0481577034,-0.0193106665,-0.2530744466,-0.7174042468,0.396337432,-0.1470861288,-1.1493999987,-1.5358660782,0.1108020684,0.9967697894,-0.9583637815,1.31223693,-0.8355334593,-0.7320414129,-0.0912303987,-1.3527175668,-0.7803389538,0.4886990808,-0.1977778148,0.2707119191,1.0316823369,0.0346674683,0.002112113,-0.4820960585,-0.2699396616,-0.8933874537,-0.1172307035,1.1000267911,0.1591401245,0.1213162965,0.1195774756,-0.1141478199,0.1338504028,1.0114690812,-0.2801297404,0.5646607145,0.8456861753,-1.1185531496,0.0163353777,0.5443824474,0.5911707022,0.1466886383,0.1930022249,-0.9518539247,-0.1066112467,0.1298190411,-1.2939156838,0.4422356474,-0.8173887739,-1.0373921018,0.478661162,-0.5337858199,-0.3618996479,-0.1515501023,0.3234706473,0.1448646484,-0.8196013509,-0.7567592689,0.3395030092,0.2300453499,-0.4860563635,-0.2444980606,-0.3690876123,0.7350690724,-0.1354950449,0.3718831851,0.1402155175,-0.9147455985,0.5000714874,0.1996092938,0.3190964122,-0.9129566127,0.565639698,-0.742203086,0.0266499314,0.5267064977,0.9731229393,-0.017566549,-0.2870910098,0.3448239782,-0.6084198924,-0.1575209732,0.3649791144,-0.3094076254,-0.9822072538,0.2189156956,-0.1942060029,-0.1299425649,0.532121663,-0.4733502373,-0.5585098049,-0.8649078626,0.7592935143,-0.1113853111,0.864703,-0.9851638826,0.2688515508,-0.4873128242,0.926958911,0.3409858435,-0.7911727424,0.6774682122,0.1558253523,0.2091053869,0.4904779951,-0.2702823123,0.3271750716,0.699540878,0.0839204279,1.184186486,-1.087070095,-0.5559097686,-0.4604608271,0.7167976915,0.6049844879,-0.2585613505,-0.141884244,0.4909001482,-0.6161877347,-1.8218322549,0.5742744255,0.8746595508,0.4702316423,0.6306392971,0.6489717124,-1.6279678769,-1.4927143267,-1.0543494186,-0.6397884647,-1.3853393858,1.2599558998,0.6502582301,1.1333367282,-0.6913038109,0.2177362701,0.3018095647,1.0161647738,1.4398580577,-0.0006943232,0.5172808467,1.4081252547,-0.4709140465,-0.4321190686,0.0265490135,-0.0935537232,-0.1696612496,0.2825956902,0.2138895356,1.3876856052,0.7727475037,-0.4522941613,-0.3620783562,0.1137543532,0.5967828407,-0.904756204,0.1122868447,-0.1538827139,1.1906210451,0.6195898952,0.9918053521,0.5471310388,0.0329591743,-0.7486385731,0.2770645214,0.2937893617,-0.7940911394,0.0936093965,0.8425930146,-0.1205403505,-0.4557729831,-0.7162755483,0.1203924444,0.1081807749,-0.9256927189,0.80168009,-0.2277438061,0.9756277333,0.6712909168,-0.5183112288,1.3758823552,0.0810309101,0.6107326815,-0.4329059471,-1.2836564683,0.1724378163,0.1017897976,0.1689055295,-0.5574818255,-0.2691257237,-0.1468613198,0.4001302828,0.3798534333,0.1132937272,-0.1979273425,-1.0948959939,0.7469601973,-0.3264686754,0.5947746804,0.4723846417,0.3261876527,0.3639058395,0.5042021391,-1.45927671,0.3804439272,0.3426515587,-0.022174687,-1.1244031421,-0.3242299529,0.0116522875,-0.0542393512,-0.3705397026,-0.0842485554,0.7909162209,0.6326477962,0.2565478871,0.2626691181,-0.3011956794,0.2331470348,-0.9088446113,-0.4487665133,-0.4623579618,-0.6538652132,0.8792390389,1.1165175496,-0.3758428332,0.7392708178,-0.0543375061,-1.0025067378,0.6490990181,0.3914056503,1.3129330043,0.7636189349,-1.2580650347,-0.74629364,-0.848392442,-0.5669175154,-0.0518085628,-0.1718278368,-0.3507189329,0.3253758287,-0.2960650645,0.4760646677,0.0511665033,0.5081497108,0.7098922108,0.3891394593,-0.1954926961,0.8374263924,-0.6645332789,0.2102717534,-1.362034531,-0.7092706849,0.4333094623,0.159223096,-0.7261183074,-1.0892722382,-0.5896475153,-0.3299824444,-0.2659849016,-0.1857640784,0.9846008702,-0.5861706682,-0.8257686996,0.17874437,-0.5254203661,0.4667273137,1.3563956308,0.4162069716,-0.2268301649,0.7356577158,0.760162203,0.5049162709,-0.234743857,-0.1293210194,0.7071131089,-0.0759727032,-0.939517658,-0.7168806607,1.0530146207,-0.5412418067,0.1982312988,-0.4635397468,0.9408109693,0.7711468039,0.4736221495,0.3283998054,-0.6851056815,0.4447354855,-0.4933620745,1.266764586,-0.3044781652,-1.2385631742,0.6241357235,0.2823901271,0.0583012325,-1.6892302101,-0.4304817194,-0.8637698887,0.8921033585,0.8420843176,-0.0920159633,-0.8104288015,0.3420327842,-0.702754433,-1.3418727087,-0.7003848961,-0.1759121108,-0.4476564017,0.780678766,-1.3200337971,0.8298053238,0.6957113987,0.6048460194,0.5769731118,-0.8922718868,0.2455455662,0.2255791945,-0.622776813,0.0759010121,-0.1792618904,-0.2305744549,0.5739465585,0.6222376266,-0.0046829576,0.431709012,-0.0865810347,-0.008113619,0.0831909964,-0.3177022498,0.2753834145,0.5074808433,0.4438299681,-0.0245189098,-1.6291170185,1.8238267028,-0.3887941368,0.9535352934,-0.5328938771,-0.5208057337,-0.0956723933,0.1757980302,0.7381787967,0.1887953312,-0.4326475503,0.6333655014,-0.5812755496,0.6897498202,0.6129448354,0.6142730265,1.1996661089,-0.3791537694,-0.6449728676,0.7391501332,-0.4009768838,0.0250545822,0.1353375763,-1.1556508174,-0.7580839233,-0.8075561447,-1.3996977538,0.4571310876,-0.2418882832,0.6450840666,-0.3574142379,-0.1647775549,-0.6375336999,0.1931525497,0.4712435873,-1.1314631515,0.6170273243,0.1882275972,-0.0965629427,-0.9240063886,-0.397060177,-1.0382491421,-0.2544224255,0.2774508341,-0.1734618211,0.6992386532,0.0412079951,-0.0969587209,0.7716355001,0.1026611028,0.0181062168,0.810771448,0.0413202948,-0.1005037078,0.4001283539,0.0937901493,-0.6364015135,-0.2169006897,-0.3591442937,-1.0289489586,-1.1193111026,0.2183256493,-0.7902646903,-0.8833070099,0.042140644,-0.5926531273,0.0735369592,-1.3424294634,-0.4311095921,-0.13243331,0.1799542554,0.2054496174,0.230139881,0.4566881202,0.0812852441,-0.4447321449,-0.6550761728,-0.6340486996,-0.0691548678,0.5641120226,0.6562536022,0.3811436872,0.5217739145,0.5383911684,-0.8740383107,-0.1325381735,0.1279504965,-0.5920611298,-0.8269068951,-0.7899223862,-0.4638010883,-0.9159045105,0.8973943045,0.1569930921,-0.5815036798,-1.2022713196,0.7773024692,0.1957935681,-0.9149701422,0.296599238,0.3640498789,-0.3671521361,0.5861962069,-0.3362692537,-0.9787164788,-0.3040628572,0.321470414,0.185765552,0.1178878989,-1.2733425938,0.737882409,0.1612670773,0.6244962703,1.3000382069,-0.7575435572,-0.3439705285,0.6215165648,-0.3496419948,-0.8335581253,0.1241127795,-0.671695824,-0.6076164963,0.6595964646,0.1535486858,0.2101934191,0.2464714978,1.4932299167,0.1328330242,-0.0220342962,-0.498216944,-0.9768962244,-0.2812233693,-1.1176962196,0.2662152181,-0.2015812063,1.0638982288,-0.2930353089,-0.0580097849,-0.0005588449,-1.6354562823,0.0231791109,0.2176362499,0.862411193,0.7410905971,0.9238202458,-0.51242077,0.5348910472,-0.2349257695,0.4459823361,-0.3909952602,-0.8386326376,-1.2437993449,-0.2560553049,-0.120266466,0.3315217318,-0.8207439606,-0.0273926683,-0.317982625,0.308311789,-0.56627899,0.3231541546,0.3434001535,-0.7828333542,-0.5043136066,-0.1015650215,0.1050509402,0.2173375624,0.4177644543,0.4955614699,0.2068630666,-0.0720552056,0.2312906114,0.2804306851,-0.6263713343,-0.6508826373,0.6743870307,-1.5494391704,-0.2888930206,-0.7060894255,-0.587761528,1.8137974375,-0.0128789283,1.0830234731,0.7890408477,0.6767342898,-0.2611735031,-0.441558604,0.3537914536,-0.7930299403,-0.3341889181,0.036724691,0.211479746,-0.5013069185,-0.0552818429,-0.4749174853,-0.9155259726,-1.4626640655,-0.7281446158,-0.5588197395,0.0357970354,-0.6496545568,-0.1370134468,0.6620909451,0.9413333588,0.431620289,-0.5599895212,-0.2657157322,0.5920493909,-0.4081057152,-0.4189390252,0.2881002009,0.7115670269,0.2735962922,0.1372192005,-0.0881528932,0.3125446564,-0.1264444565,0.5106177463,-0.0105065897,0.8276052357,0.2052732144,-0.8986859206,0.3911356992,-0.4946581371,-1.7472205087,0.3332362531,-0.3849664647,0.1251144109,0.1806265451,-0.8542001244,0.4600944158,0.6481789434,-0.3540188082,0.5893419782,-0.2618343386,0.8769441472,-1.1027408628,-0.0599664022,0.0214754961,-0.6968127023,0.7757219307,0.0301543885,-0.939742988,-1.3518105829,0.311256186,0.9112141996,-0.4625957311,0.8614777632,-0.2187607061,0.1977134784,-0.2570720978,0.1275008578,1.0624138884,0.083127094,-0.1396943658,-0.5930308461,0.0556063706,-0.6617820142,0.8214500957,0.1645327237,0.7325181947,-0.0167151453,0.8131755746,0.246122223,-0.1395664227,0.3112702388,-0.4830707152,-0.1031333854,-0.5457665425,-0.5696827444,-1.3031575983,0.3033575316,-0.67865427,1.0678876184,-0.7270887576,-0.4980442506,-0.1119233558,0.5686678241,-0.4125616717,-0.390982841,-0.6563579695,0.2107103953,0.2621669601,0.3163061406,-1.7051091368,-0.6439924517,-0.983692558,0.2283116661,0.4600438413,-0.0806794542,-0.5472711808,1.5600562204,0.1059015244,0.0000005444,0.276926362,-0.903419149,-0.205836458,-0.0710234249,0.6326162424,-0.2771867011,-0.5649900503,0.764856549,-0.4835750086,-0.4925147292,-0.595114152,0.2407820725,-1.4841164637,1.2476600947,0.6854303805,-0.8602131851,0.4892055012,0.8809375414,-1.4746507379,0.4202057507,1.1604472803,-0.9732892195,-0.6538827796,-0.6030950797,0.8462156715,-0.8453626454,-0.141762929,0.5740136226,1.0022873564,-0.0594818058,-0.1256809937,0.2965829789,-0.2195702184,-1.2258310093,-1.0590927482,0.0727039638,0.6098431037,0.0961616459,-0.6790734561,-0.1497332995,0.6400945716,-0.5044106411,0.2943470222,-0.7748513656,-0.4960663123,-1.4466230064,1.5682082591,-0.1604751384,0.2713140318,-0.1259240217,0.4877203501,-0.284376232,-0.4756663579,0.7498298642,0.4657874282,-0.8546918453,-0.7414258358,0.3660692291,-0.7906350963,-0.2569508067,-0.7328004003,0.5233197343,0.213655321,-0.1128751316,0.0285443136,0.3289339909,-0.2709900506,-0.5381680207,0.9223142943,0.4287259648,-0.7532587053,0.0370035533,0.9195165347,0.2961765805,-0.2297443226,-0.3488565205,0.5522768643,-0.9372020984,0.0022973256,-0.7641296058,-0.0219799898,-0.6214537627,-0.1193586767,-0.3583149487,-1.0076487031,0.9360390444,-0.2797804213,-0.0263674592,0.9412588477,-0.5712105246,-0.6030728581,0.5015333156,-0.1482349427,-0.5655923185,-0.1362077055,0.6171313634,0.2620482116,-0.3243896768,-1.4005244436,-0.479224209,0.6849872265,1.2849117279,-0.0753936184,1.183339626,1.2003018908,-0.5492858947,-0.5126531512,-1.0064674273,-0.9711100474,-0.8435860485,-0.3976560163,0.1394639566,-0.9494752288,0.8615274466,-0.0787078331,-0.4983660082,0.0378399001,-1.001819893,-0.4181007702,-0.7791152176,-0.5969429021,-0.7807471422,-0.0178801849,-0.5343223366,-0.4934942964,-0.9347107431,-0.3737157022,-0.1581462209,-1.1877559241,0.1352175787,0.4400120945,0.5523830152,-0.8272317959,0.9330814343,0.396804646,-0.5150694537,1.7835755082,-2.3525245596,-1.6845696116,-0.3704490234,1.0154427361,1.1677930021,0.5661824235,0.2146270405,-0.0544798507,-0.4045691384,-0.6554138701,-0.3428274707,-0.132564764,-0.6382737958,-1.2903908758,-0.4548512195,-0.1579449036,-0.0869209855,0.498474666,0.182224296,0.8763024302,-0.1158369916,-0.8050413018,-0.4600719924,0.2268066902,-0.704307599,0.7331017957,0.7981278306,-1.148405197,-0.9731325337,0.5485292667,-1.0079679372,-0.2170765975,-0.6131951314,-0.2277646964,-0.2049899652,0.6594411053,0.7512356871,1.6006255668,0.0711679262,0.1427755583,-1.1109941976,1.340534185,-0.2804522223,-0.3393504809,0.0063492507,0.6755600496,-0.0970236417,0.4189464526,-0.5734546482,0.9184810603,1.0286220529,-0.3684739928,0.0783496188,-0.4836253454,-0.0576670087,-1.2088219202,-1.7480115013,0.3858486843,1.1223362494
##end
biasActivation=0,1,1
[BASIC:ACTIVATION]
"org.encog.engine.network.activation.ActivationSigmoid"
"org.encog.engine.network.activation.ActivationSigmoid"
"org.encog.engine.network.activation.ActivationLinear"
