encog,BasicNetwork,java,3.2.0,1,1415751114132
[BASIC]
[BASIC:PARAMS]
[BASIC:NETWORK]
beginTraining=0
connectionLimit=0
contextTargetOffset=0,0,0
contextTargetSize=0,0,0
endTraining=2
hasContext=f
inputCount=15
layerCounts=15,81,16
layerFeedCounts=15,80,15
layerContextCount=0,0,0
layerIndex=0,15,96
output=0,0,0,0,0,0,0,0,0,0,0,0,0,0,0,0,0,0,0,0,0,0,0,0,0,0,0,0,0,0,0,0,0,0,0,0,0,0,0,0,0,0,0,0,0,0,0,0,0,0,0,0,0,0,0,0,0,0,0,0,0,0,0,0,0,0,0,0,0,0,0,0,0,0,0,0,0,0,0,0,0,0,0,0,0,0,0,0,0,0,0,0,0,0,0,1,0,0,0,0,0,0,0,0,0,0,0,0,0,0,0,1
outputCount=15
weightIndex=0,1215,2495
weights=##0
##double#2495
   1.0503031532,0.2805148294,-0.8690379379,-0.4841866842,1.3790257618,0.2289031621,0.1393647738,-0.4485040064,-1.3692615333,-0.5673798427,0.052323425,1.1144299905,-0.9418209038,-0.5281919273,1.5444325689,-1.390764743,0.216565474,-0.1471950302,-0.0714392861,0.7717850063,0.6555281968,-1.4740368264,-0.7067032353,0.9240423031,0.1946837354,1.3705000107,-0.7339422721,-1.973772001,1.3920547081,-1.4105365541,0.9579253611,0.6183113563,-0.9748634662,1.3142519873,0.0767920352,-0.7104449347,-0.069915135,0.1037258054,-1.9233110836,0.7488182145,-0.4980864879,0.5500168868,-1.1661500482,0.1513764083,-0.2773214634,0.5811711683,-1.0412449329,0.534851671,-0.8046704417,-2.165215522,0.3362300312,-0.3667340258,-1.0828782247,-0.6534840195,0.2287273683,1.4486487841,-0.3621876949,-0.2483490896,2.4149892372,-1.5714796797,0.4044185236,-0.729481385,0.8501843286,-1.0733542676,-0.2629543793,1.8794215463,-0.4949252344,1.6222044828,-1.5979292892,0.0568904669,0.5073163937,-0.5828135835,-1.0576260684,-1.1204358092,-0.0824508107,-0.7734657494,0.3611807187,2.1189210645,0.3297439148,1.6807371428,0.6006060956,0.6621174065,-1.9910287109,0.3760483619,-2.6801498513,0.228143263,0.9829961505,-0.2284654703,1.3101389131,0.4723710688,2.2941794349,0.4301168681,0.7814451981,-0.3878055089,1.5490660431,0.6400919091,-1.8663128424,-0.0474029258,0.966215992,-0.9666528274,-0.1862486395,-0.3337975241,-1.3787135028,-0.2781915247,-0.540885696,-1.6225112933,0.7865426164,0.3416460964,-2.0745153023,-0.9268362997,1.3039704804,0.3359477628,1.2897756502,-0.3621558411,2.4976072964,0.2924886686,0.5191916567,1.412873308,0.3472633697,-0.3658316023,1.5679420907,-1.3064046034,-0.2015482272,-0.2407360236,-1.1449038445,-0.4164019,-1.7515622297,-2.2940261916,0.3113542595,-0.5515678431,0.6042871785,-0.3296289561,0.279997948,1.2925030683,0.4748849525,-1.7498432915,-0.0544986733,-1.4293982836,1.6545942557,0.3176748416,0.5766907955,-1.2202386727,0.2934097336,0.6441638452,-1.698627986,-1.4239775007,1.4096624475,-0.45820693,1.5804724418,0.5363136197,-0.9278503269,0.0286560265,-1.722206791,-0.7974588047,0.7191752076,-2.0350643663,0.3621733272,0.003420006,1.6282940519,0.2960694549,1.4388684,-0.202638347,2.7337479648,-0.8635304219,1.297198446,-0.0873917723,0.8811624232,-0.2136513915,1.4220244217,1.4164357894,0.6284863357,0.9821814057,-0.7569406289,1.552177922,-0.6193532154,-0.101477708,0.970748117,-1.8877028093,-0.4521240069,-0.0568899671,-0.9328943438,-0.580810009,0.9610250614,-1.1874850221,0.0696639364,1.1868154952,-1.1617891777,-1.1711831859,1.098797701,-1.5122032416,0.601679401,0.3096050769,1.7648169047,1.1360612998,-1.0151423937,1.0305165374,1.1148043863,1.3565810441,-0.0674366273,1.7991043583,-0.3735749304,1.686677149,0.5376273565,2.2053179472,-1.3928027139,0.6082177884,0.99173825,-1.2287880225,0.8765493409,1.2343972348,-0.2382345478,-0.3511927102,-0.4085659264,-0.6964129256,-1.7782438794,-1.9404298623,-0.8363241837,-1.179699087,-2.0841326472,0.3280139163,-0.3551639088,0.203034536,0.0706562938,-1.9368054185,0.461489796,0.640840054,-1.6568156106,1.7169021194,-2.5730699737,0.4877365483,0.293474789,-1.1533259728,-1.7506714023,-1.3767309319,-0.6620915059,-1.1226148447,-0.3315477693,-0.4636467083,0.554634742,0.2591053877,0.069457972,0.3084213718,-0.6833123901,2.4142446329,-1.0812674077,1.4391358563,-1.3411250288,-1.5480356028,1.3496380666,0.1599875027,0.9763765883,0.90640158,-0.3812237361,-1.0597238279,0.963320892,-0.1253214608,0.6199694499,0.5080636624,0.9009643021,-0.0226790949,-0.874530714,0.8393750135,1.4546311111,-1.0701598317,-2.2464845126,-0.2153492114,-0.7680973683,0.2781965077,-0.7521977122,1.8236164032,-0.0407668601,-1.046268771,0.1789489882,-1.220526952,0.6232683744,-1.1932080766,1.4788007171,1.1198072481,0.7258250042,0.1886019477,0.5928511776,0.4478882819,1.2829929142,0.8650522211,-0.3287401742,0.4492274388,-0.2790986882,1.20338527,-1.126184641,-0.5504242769,-0.9108646144,0.4505508122,0.2950732606,-0.7083758595,-2.201340558,0.1184742636,-0.942174597,-1.1688892017,1.9269439505,-2.3769542459,1.7501229989,-0.8539268612,-1.7565708017,-1.6652586035,0.0136066026,2.6306812967,-2.3327476555,-0.0383665767,0.2794410325,-0.9026845354,2.2028328646,0.0588195141,-0.0899181193,-0.9431247954,-1.5327752465,-1.4509465738,0.8111105544,0.3430834537,0.4885231676,0.3757746168,1.9632567627,0.6454381367,0.3558239618,-0.9837035222,1.4402698394,1.2425787217,-0.6705991911,-0.5798456641,0.4673838141,-1.7099026576,-1.097278206,1.7881095826,-0.0097428783,0.7770116997,-0.4546981231,1.4722984,-0.53169598,-0.1438386514,-1.2664097194,-1.1970187971,0.8074342204,-1.7098952495,-0.9558420545,0.1145624765,0.9022812239,-2.4598007761,-1.9767230543,-0.8540385063,0.7123047575,1.5142296628,-0.2551780845,-0.2059570962,0.4990580137,0.4087532777,0.0542221391,1.3176925637,-1.1558508396,2.1182862479,-0.0245217303,-0.3646461884,2.5247460524,2.5829800779,-2.3833718157,0.5605876382,-2.3703742933,-0.4902487967,-0.5904993014,-0.4034879305,0.7973765195,-1.253174046,0.8435343942,-1.3624225946,-0.5972130609,-0.151657245,-2.0299132165,-2.1506497454,-0.9504897079,-0.8559644024,-0.2524255659,2.4310319098,-1.4755058761,0.0105306839,0.9571553278,1.0553302602,-0.1137337872,1.4297449897,2.8249195615,0.6400998537,0.7792104272,-0.258678594,-1.2359709397,1.6097515898,-0.2542342701,0.8992138734,-0.7115615842,0.1032175812,-1.7728290175,0.7380730622,-0.3344661761,-2.1925630689,0.0647552174,1.596069307,2.8141572499,0.5416545194,0.0515345413,0.4472860471,-0.8763252561,0.9172396856,-0.2640736686,-0.8384084521,0.0018038394,0.7316794325,0.8082276853,1.653586537,1.0786774249,1.2216858627,-0.4557457526,0.9035337031,-0.256407318,-0.6684532489,-0.3251353248,0.0896016494,2.7101921412,-1.4229865092,-0.7037739025,-0.1133301635,0.6524126937,0.2136945336,0.2771537049,-1.7207132765,0.3117385989,0.4015968825,-1.6774922122,-0.3820289461,0.6832551525,-0.0630159766,1.0925407939,-0.7402735943,0.5312549369,0.5486734633,0.9539038364,-0.1851239021,1.3920346403,-0.1144498071,0.2393858873,-1.7674793539,-1.3404383601,1.0644818163,-0.4872874622,-1.2751673339,1.1572687972,-0.3447756881,1.2085110202,1.0557677542,1.119329324,1.4041602427,0.3980254877,0.6628635664,0.9823890679,-1.6355816017,-1.51115106,-0.590697934,-1.2432860058,-0.6899518455,-0.2358896097,-2.2090917607,-0.8610665815,0.9734417141,0.2847866964,0.7825125285,-1.0852487399,-1.2925976615,-0.7658329642,1.8835515344,-0.8455468689,0.2600614216,0.0296845458,0.547790383,-0.1334615234,-0.8026012106,0.0155579366,-0.3389530854,-0.4764245519,-0.3132901741,-1.1886694184,0.7818743829,1.8510656099,-1.5949992311,2.8825963359,0.457879588,-0.7937047886,-1.0487563247,1.8293549152,-0.411705588,2.6682979005,-0.7433612949,-0.5358000825,-0.321327986,0.1273220777,-0.4512959911,-0.4115537627,1.1271161558,-1.7632076647,1.7033065358,-1.7676146381,-0.6436780228,0.0915104671,-0.0597686401,1.5437025245,1.694178557,-1.1788548005,-0.7807739046,-0.7070046228,0.9153129254,-1.2065576427,-0.8470267507,0.1282268948,1.2696845188,0.1726753542,0.508506477,0.5809553897,2.2651774211,-0.6558429607,1.8653351727,1.1875186528,1.4403570095,-0.0017340154,-0.0294665758,-0.8960710571,0.1746796757,2.0978314476,0.1956482044,1.3537756435,-0.5778506185,0.6410482776,1.4767002279,0.4697907753,-1.7803923009,-1.547874105,-1.6211147817,-1.3252473821,0.3958823169,-2.0204688576,-0.3587189047,-1.1323034715,1.6284920174,-0.7183787849,1.1704961121,0.4303265361,1.2766497052,0.2649905122,-0.9776938077,-1.6091810295,0.0800802199,1.1552691558,-0.0918480145,-1.9124700598,0.9823489951,0.0018223978,-0.5151746762,0.2798580075,-0.3446322539,0.3492562446,-0.8169196378,-0.2999386381,-2.5018133044,-0.048602594,2.5630131074,0.5961727787,1.3324348379,1.252339629,-1.7673746828,-1.4783383697,2.7602844049,0.7633421431,1.7511555225,-0.2375631015,-0.9120549978,-0.234886483,1.4323079024,-0.3085228813,-1.8905998542,0.0733702803,0.9860493028,2.0756655644,-0.5258743306,0.0993514446,-0.6741619532,-0.551188863,0.2344241795,0.4937926522,0.2695180835,-1.6715269187,-0.3723616905,1.8322486423,-1.9974779216,1.3429907348,-1.9461323024,-0.6473341468,-1.5085979549,0.0905415841,0.2345078667,1.071029068,-0.1562876295,0.357687209,0.1973365745,0.9938202871,0.4805098453,2.058168996,0.8061499357,0.2072619217,0.7162041221,0.3583224014,-0.4129416746,-0.9709068801,2.1771059342,1.6814128264,-0.6300027205,0.7761140656,0.0673730542,-0.6008463284,-1.1043740743,0.2006815394,-1.35038824,1.0231810579,-1.6578594895,0.80922454,-2.6274777926,0.5871838782,1.4407463502,0.2465150064,-0.6501061756,-1.676911433,-1.0087639734,-0.6157409373,1.1017259242,0.669527614,-2.3932895135,-0.787462503,-0.1230538546,-1.8291323697,0.0651451033,-0.2802529166,1.1235387732,-0.8597705438,-0.3185197573,-1.2520935456,-0.7024541944,0.2881447773,0.9833877665,1.3954663048,0.3010980811,-1.0889693693,-0.7267575169,-1.2991039812,0.845761767,1.7808643099,0.5266524488,-0.4157564542,1.1045577537,0.5098938173,0.3905223473,-1.9555414756,-1.1027666449,0.0437399982,-0.8940050008,-1.7651993294,-0.5256584663,1.9591893829,-0.302837494,-1.050410611,-0.4938072097,-0.1075339494,-0.7552282407,1.696421297,1.0235048366,-0.5334974512,1.6047898038,-0.462150965,0.9831136249,-1.6602625486,1.53982568,1.858640567,0.2378223484,-0.5029420794,0.9797500869,0.3218019487,0.4268390943,-0.2863770817,-0.5499171882,0.1197198334,2.0723159032,-1.2154724519,-0.7846656299,1.7116911458,-2.7762226156,0.1849154085,2.0706333965,-1.8937095442,-1.3968430622,0.5787202417,0.1907687829,0.4257332397,1.1038279574,-0.9339586983,-1.425320536,-1.7763394129,0.9258271999,-1.6205357617,0.7972882034,0.8854457215,0.499900252,2.1450795319,-0.2808979996,-0.4160257099,-0.6648283163,0.8719502593,0.9378703721,-1.3930516593,0.2160262611,-0.9211916154,-0.8058765388,0.6458865422,-1.7147330898,0.216981968,-0.119576335,2.0606211424,-0.890200462,-0.7785558366,1.9219157168,0.2341136881,-0.9394049006,0.4184594307,-0.0435169307,-0.40151285,-0.1044183316,0.04772198,0.3426198475,-0.2507891562,-1.3607330429,-0.1325427555,-0.2900010282,-2.3611928857,-0.0205016574,0.0043009866,0.9436843459,-0.250067245,0.4342199042,0.8403007963,0.3663368963,1.5625368618,0.2164363815,-1.4019807875,0.0347262684,0.2208930296,1.0220503574,1.231464876,0.5648335305,-0.5888278874,-1.2936994903,0.728480699,0.1189428322,0.8259725773,0.1555405392,1.828807706,-0.7134483896,0.9481368596,0.2164105578,0.6698615817,-0.3083418376,0.5820020555,-1.6691379693,2.1537436502,1.7753984603,-1.4318150964,0.8645407297,0.7845570024,0.2146288517,0.059344986,-0.439405393,-0.1881987288,-2.6396448396,-1.9673230814,1.158149459,-0.5832981617,-0.7042173876,1.2450233955,-0.469409508,0.4907706414,0.6179887761,-0.1814395089,-0.3786360973,-0.1980855216,1.0253956887,-0.4824347164,-0.3732307247,-0.9612550545,-0.4940240169,-0.6610291484,-0.766410326,1.8376787909,0.0268751607,-0.6199407933,0.663395218,0.0155766866,-0.9662271806,-1.0740633694,0.1774970272,-1.1437712421,-0.5499169841,2.4037885789,1.265838193,1.1394148376,0.8107210649,-2.415694692,0.0528899323,-0.886696813,-0.7856361864,-0.2311802021,-1.8348346595,-0.9297221566,0.2509423724,-0.4333425651,-1.8854234388,-1.6133257014,2.7219231378,-1.0936069138,1.8080113368,1.0863350732,2.7629525706,-0.8058339781,-0.5445733884,-0.2059897676,0.9058515058,1.5216751587,-0.3142312778,-0.1473531029,-0.1591624151,-1.621710007,-0.3645350965,-0.9348041767,-1.3734481663,-1.000407534,0.128782164,-0.666795129,-0.2701567314,1.9925480237,-1.2198200284,0.9753275971,-0.3427397715,1.594063528,1.1941227132,0.1491617293,1.3444655568,1.5668528722,0.3335271631,1.5413909432,0.1252954142,2.7365616559,-0.4876750465,0.6066443846,-1.2620849794,-1.4282290883,-2.5343487872,1.5564078011,0.4206752648,-0.1963598739,-0.1310854527,-1.9638620467,1.3514036487,-1.9053036543,2.2345836962,0.189589314,0.5290503644,0.1770841605,0.2203088269,-1.0763205806,0.9202817439,-0.7700408969,1.080294815,-1.8000129826,-1.1160006301,0.9571538989,-1.4031655199,0.93405351,0.0778797151,-1.6050479213,-1.014546255,0.4954681574,-0.5506876222,-0.1424524559,1.6234380744,1.3140106167,0.292953997,1.1108351592,0.19208399,-0.0106136049,-1.2303174493,1.3241880142,-0.8390918437,-0.637129893,-2.2339606734,1.0002326035,0.2065826315,-0.8326347982,-2.2566633955,0.6964995765,-0.7258213816,0.0828915939,-0.3076322018,0.2010297643,1.4889027953,-1.5591744519,-1.4652528459,0.3181295197,1.1145206472,0.4355636472,1.7320587176,1.0473073432,0.869706988,-0.4773801662,0.0916576706,0.0184808068,-1.2438754034,0.3245498066,-0.3923820517,-0.8351562735,-0.8652706214,-0.7807962199,-1.0400897505,-1.0409081241,0.9717600259,0.6626200511,-1.7009443471,2.4902705734,0.3028448813,-0.0984471677,-0.1074709399,-0.9617323387,0.0310506746,-1.1174277501,-1.4190580899,-0.3503492853,-1.72657333,-0.8856168754,1.6141689573,0.7749595443,-0.2064130833,-1.6559459758,0.5310307851,0.4549806367,0.631433109,-0.1554326045,0.6974918195,2.1082648842,0.9015187366,1.4600285487,-1.2511921609,0.1741206703,-1.5776920417,1.9007361494,-0.3810465517,1.0538511143,-0.7183736373,-0.73451457,2.1547305906,-1.6822061834,-0.5416916485,-0.0493265359,0.9664433277,0.7267626673,-0.2278570699,-1.0063983425,0.2833033772,-0.3935788004,-0.5726348726,0.0438577306,-1.3745116695,-0.2396636749,-0.1693138562,0.196357161,-1.0720845086,-0.6506613814,-0.7170648301,2.0735613276,-1.0864577275,0.0694003661,0.1187318071,0.0915387293,0.9741922865,0.6112785628,3.0420594708,-1.0774698631,-1.3606335239,0.3351236711,1.2538725034,1.0133429832,-1.2188294988,-0.1057387608,-1.0489453801,0.3254332179,-0.6022279248,-1.0886672313,-1.316561691,-2.4361829282,-0.0166499032,-0.0697655193,-1.6648141396,1.3154215313,-0.8976758411,-0.9247699215,-0.8947749812,-0.0946002514,-0.0488873877,2.2472220695,-0.0007177166,-0.0153484189,-0.0087675954,0.5411043683,-0.7848534047,1.3570422319,0.4489626041,0.2083063951,1.2751366781,0.4683732822,0.1550955812,0.7965335059,0.64992961,-0.5177030519,1.2405830652,-0.1493689109,-0.9654320028,-1.4375952683,-0.1250615346,2.1690794003,-1.6076598998,0.4391520993,0.6994363589,-0.2061089381,-0.0373046904,-0.1189274912,1.0816308943,-0.2021942696,-0.6829032768,0.3790579102,0.6069929481,0.401645497,-0.1306274613,0.2353853917,-0.0670760705,0.6939459335,0.0314176857,0.8822708723,-0.3556967857,1.8669489346,-0.6774346766,0.9816431516,-0.9887173515,-0.3630197648,-1.2849666784,0.4753000729,-0.3132390714,0.6855612888,-1.0465984325,-0.6022038219,2.3111329312,1.0336556236,-2.0437457939,-0.5494618519,-1.8348404843,-0.4399380076,-0.3367582018,0.4419772861,1.2230651353,-0.261661545,-2.951877623,-1.5284279659,1.4637593471,0.8975604891,0.658358008,0.0104796942,0.6084424363,0.9817647309,0.8287575841,-0.7661179059,-1.783282978,1.2181321014,-2.3198889214,-0.7208469211,0.2151672015,-0.2295673051,-0.3382615386,-1.1747618305,1.035876652,-0.0867813532,0.4274270233,1.0591810173,-0.2268406913,-0.0332887191,-0.1645462589,-1.6884371513,0.9495638353,-1.1217362997,-1.0171167308,1.3966607943,1.2396731914,0.5969954244,1.7330916826,1.4278531897,0.3292031354,-1.1847431731,-0.0067911718,-1.1755028361,-2.0090646571,-0.9757179458,1.1033859113,-0.3076821509,1.2549121129,2.4555980211,0.4062973223,-0.4895473457,-0.3934303751,1.8470964018,0.4374327267,-0.6547065982,-0.7684708581,1.0607549524,-0.2110570366,-1.1574912307,1.6531343358,1.1194393759,2.2408076418,0.2101192776,-0.6683212602,-0.5862274194,1.3519628473,-1.4290052268,0.7839767196,1.3005876791,-0.7543356056,-1.7046168833,1.0442223536,0.8816649747,2.5070279478,-1.1964503594,1.1182157086,-1.3209780425,0.8437608722,-0.9138112144,-1.3795276706,0.5355486182,-1.9218825967,-1.7395819138,-0.7628740851,2.1596216309,0.1405178348,-2.7362408105,1.6477279867,0.5761719664,0.0467728433,-0.1797399106,0.8324229675,1.0220201789,0.609010247,1.4364958666,1.1082217049,-0.4816788555,0.8902662819,-0.2084478575,0.2338104617,-0.4392012381,1.537050144,-0.5783000442,-1.1763706496,-1.7966593994,-0.5478777448,-1.2221475398,0.6760923422,-0.3399637965,-1.1640588388,-0.5686683528,-1.5680026826,-0.4370283493,-0.1536834752,-2.3906517623,-0.7126574645,-0.5608829896,0.4354685167,0.6978021381,0.6220154562,0.1804207756,-1.1119078085,0.8899994653,1.2130905984,1.1676743104,0.4613273996,0.3407148816,-0.2173009735,1.0090769269,0.4336019405,-0.1259754343,0.0539224599,-0.0516726264,0.8887994768,-0.3474001635,-0.3290976859,-1.4220442692,-0.9668954258,1.1226881424,-1.548311796,0.1845722433,0.6753489596,0.9446161343,0.6999002637,0.7173521528,-2.0493095195,2.5832719333,2.0622815724,0.0097699773,-0.3588601774,2.0358642177,-1.3241262405,0.4917949666,0.494222843,-2.0459437828,0.4655014149,2.8564946318,-1.7276136749,-1.9187165054,-2.3552917718,0.4020009386,1.8718683802,1.7219349653,1.8647865966,-0.9010115271,-4.1334672525,-1.4743531172,4.5575400943,0.0907807616,0.5720904772,0.0145161121,-0.069302196,-0.661998662,0.0100924311,0.5015353882,0.9586636147,0.6501639977,-1.1201988665,1.884505719,0.2939460546,-1.2847797456,2.5757051377,-0.1320141061,4.2329208334,-0.5091747114,-0.2760833992,-1.0138036711,0.039582444,0.4089162725,1.3727124896,-0.2481423948,0.9341573479,-3.16827904,1.6151920516,-2.2145297025,1.0603022458,-1.1773805689,3.104088962,0.3675394922,-1.0528317597,-0.7304050162,0.3400170598,-0.9796965734,0.4472670697,-1.0747251142,-0.3096333454,0.2365661777,0.4524228861,-1.7470692538,-1.754426343,0.1924853709,-0.012756872,-1.6044682453,0.0049867742,0.5377355794,-0.2479853423,0.4902085263,-2.9145580061,2.1619014598,1.4357614579,2.0626078443,2.0633408845,1.4101789399,0.041335665,-2.0822271034,-1.3683205328,0.4994117966,0.5402889981,-0.9374509886,0.2587551401,1.3503906282,-1.2859263773,-2.3313492797,1.7314227421,0.8260041093,-0.5939751602,-1.4129170215,-0.6442522383,-0.3821947533,1.0605924641,0.1556580539,0.2062936459,1.7277225919,-0.325106268,-2.4738214577,-1.1614221155,-2.0460972552,1.1684987318,3.5762423492,-1.898055499,1.5416376231,-1.2883490656,-0.7703695281,0.4053770223,1.1078417452,-0.9395100349,-0.5247224601,3.8426814579,-0.0050328996,2.4965042107,-2.0950207656,1.4990076405,-1.0520259155,-0.5583124099,-1.0074424377,-0.2122415641,-0.1941286496,1.4014384356,-0.4499674312,-0.6489389812,0.4542267034,-0.2622832541,-1.9170613103,3.18880979,-2.3793612449,-1.1300484529,1.3217844905,-2.8481023517,0.8848796552,-1.858834043,1.032604926,0.7354482156,-0.1840187798,0.8761468547,0.0999461733,1.3875811936,0.2578651398,-2.8894070529,0.1070379979,-2.1299241904,0.9003706232,-1.461672315,1.324052956,-0.1630718799,2.2653976338,0.0824687968,-0.2835644605,-0.6360638164,-2.3038759426,2.3199863485,-0.7212731538,-0.823309832,0.5449418372,0.3412825171,1.4119409626,-1.262295317,1.9802845555,0.1471710791,-0.3109116306,0.5679048857,2.4124741347,-2.0229126474,-0.8506932754,3.0071041639,-1.5681969642,0.0796512543,-1.058896167,1.4453518776,1.9019590026,-1.9322780093,0.3821842977,-1.0881270347,-0.6130211981,1.7876898355,-1.7698759453,-0.0945704078,1.277989693,2.4917258776,2.1388070381,0.3593610174,-0.4803859788,-1.897211514,-0.5975961294,-1.6634954363,-1.0420040684,1.223261483,-0.4551112553,1.3778999059,1.7925931807,-1.9088916692,0.4133363138,-2.6623945161,-1.3657231726,-1.6215804259,-2.4146390154,0.1959468178,1.7812163436,-1.1892660922,-0.0832372779,-0.2918513446,-2.9642679163,1.7291551305,-0.9305572214,0.1163233025,-1.4259020942,-1.3347878219,-0.1440664641,0.0934549605,-2.6422621729,-1.524047253,-0.6676568846,-0.744122102,1.6157221518,0.655938681,0.148682836,-0.677521674,-1.1822086149,-2.5542412318,2.0607024089,-0.9838650653,-0.5260019034,2.9287715358,0.9482274795,-0.388960815,-1.8926607646,-1.4174177477,-1.2461312224,2.1617359157,-1.9308546255,-2.9295813712,0.7677089881,0.186179807,0.584756182,-0.9964973043,1.8286780043,3.3023284373,1.4197527033,-0.2045609165,-1.2313764468,-2.9455580927,-1.2172223516,-1.878211655,-0.8843462617,2.137620525,0.7628734164,-2.0219089433,-0.5936318755,-2.9250253426,-0.1765621068,-1.2164722679,-0.482103038,1.64015235,-0.6373306844,-1.6136243972,-0.797908265,1.3050348512,-1.7548281725,0.4177498867,-0.547744658,-0.297635831,0.2874977728,-0.0766581992,1.7052705076,-0.0300210065,-0.8656495793,0.0598421937,0.041441494,1.0617973794,1.8026988265,0.3637081834,-1.6055608199,-1.3225739962,-0.1156461972,-0.2255388382,0.843674319,2.2235244606,-0.7557567955,-1.6411617295,1.5639568779,-1.122039637,1.1581585944,-0.2613109314,-2.1384694865,-1.9080598851,-0.885029347,0.8971962953,0.4791528831,-0.390129291,0.8792627136,-0.2712544111,-1.1343368556,-2.4944087299,-1.1669844336,1.7895620949,0.6053701754,-0.7439911785,-2.1529679109,2.3730789113,0.5691325985,1.0292543241,-1.0811820591,0.25354416,-0.319585518,0.5021790502,1.0828393177,0.8012081297,-0.1294193824,-0.865392706,-0.5830405922,1.8144219315,-0.5525523298,-0.3826777453,0.4859582673,-4.8970275624,1.406403882,-0.7189732746,0.8719359099,1.4143962107,1.9567158852,3.5285574382,1.5647118716,0.1989812355,-0.7320476845,-0.5833512384,-2.3096898364,-0.6222578167,0.2027810535,-2.3893836917,-3.0744510581,2.566549323,1.0387740084,-0.9873619423,-0.4177270516,-0.5117218359,-1.8593007073,-0.2324460086,-1.338879962,2.0866859818,-1.1458478651,2.6315046669,3.597082279,-0.0374852215,0.5959900117,1.9808367968,-0.5442020021,-1.0110881451,0.9842243911,-0.2249496075,-0.7628110517,1.097600093,3.8668814149,-0.3007812729,-0.7456080951,-0.9490349833,-1.8976569413,0.4265576096,-2.3711538921,0.6886211993,-1.738111719,-1.0703854737,-4.1064146592,1.1486620866,3.6756759131,-1.4970557682,-1.0729857373,1.967941079,-0.857389216,0.5105231077,-0.3781272112,0.4633853656,-1.5462432125,-0.106204068,0.0707587874,1.1474113936,0.4279348275,-1.5971047922,-1.020109926,1.0514210439,0.9877118117,0.9118795292,-2.157182367,-0.9490931589,-0.4261891926,-0.446664606,-0.1284754874,-0.2760922812,1.7027648099,1.2606596938,-0.1974137394,-3.1552431419,-1.3618539569,-1.0417010585,0.9063052234,1.704249856,0.2719591525,0.2003858987,-1.555961097,1.0731931013,1.2977937584,2.3455222055,2.401925064,-0.887961532,-0.0083691868,-1.2824730154,0.8872679456,0.6414131807,-0.4545291384,-0.4740939034,-0.6857669563,-0.4630595625,-0.835204378,-0.6820818669,-0.1210428375,-0.8844295444,0.7787850529,-1.8679777437,-0.8643114341,-1.4254517323,1.9944012657,-0.5620509403,2.2582231935,-0.4259238155,2.0287878655,-0.2445944889,0.3025868052,0.2273085487,-0.0816081761,-4.129233465,-0.0094887552,-0.2565066989,-0.0887247195,0.9018374282,-0.5494537744,-0.6677045212,-1.365628835,0.3964988348,-0.5379079636,2.8215602087,-0.2234776381,1.1137171019,0.369184108,-1.298206945,1.9003620583,0.5648942212,0.0471746017,0.7609383235,-1.3015556543,1.5719139343,-0.5984479258,-0.0695365173,0.0006894178,0.0472643717,-0.251089302,0.116648661,-1.0397974307,0.4574400992,-2.1816519584,-2.8841314086,-0.0208317985,-1.4571922883,0.4430196763,2.6052511479,1.3758465435,-0.4829747487,0.8422325918,-0.6215793635,-0.0831443347,1.8392528668,0.0218270709,-2.456218011,0.3889688852,0.5131082193,0.7905543522,0.1853555,0.8915883016,0.5134847276,-0.8524834651,-0.3153166452,-2.2712675557,-1.8387676011,-2.177737769,-0.7058329668,0.8068440569,0.6992223181,-2.0386062996,1.594154322,-1.4166096281,-0.3044589271,-0.2814080888,1.6141797173,0.8253267742,-2.5828250297,-0.2527594598,-1.06842263,-0.7598391455,0.0567381723,1.0058921748,1.7315598146,1.0674688046,0.7049203742,-0.769241657,1.8655366078,-0.8235418884,2.1936089631,-0.0320246035,-0.7000875188,-1.2301518069,-0.4975247726,-1.5946402064,1.7703816653,-3.2457175372,-0.8932934179,-1.4026386921,1.7612086428,0.5701885098,1.4849135618,1.9780631252,0.3431909073,-0.0795097187,0.8188245411,2.695179483,-0.6766826529,-1.9687508313,-2.5644897568,-1.6860558166,-1.3641154045,-1.9380834242,-0.0158961299,-0.2299645084,-2.4300675434,-1.8578564765,0.7879239434,-0.8860204525,0.5107233523,-1.6528001981,-0.8432745774,0.8341852655,0.0128993521,2.1823379115,-0.8407407456,0.0195274745,-1.2678852156,-0.6218952602,0.5284244967,1.4217979436,-1.7333825546,0.696266857,1.1250532437,-0.9243349639,-0.5432252673,0.650577856,-1.8300780055,2.2759732115,0.2532845861,-0.0193748474,-0.7287754056,2.2597849923,0.1914483266,0.7834244178,0.0733164045,-0.4421618998,-0.7770183817,1.6533502347,-4.6566879687,-2.8891997528,1.9227634583,-0.3889303349,-0.4761797087,0.9936993646,0.1205928126,-0.2571835979,-2.4236507248,-0.1751152447,0.2617965322,-0.9212546912,-1.9187176357,-1.5457519947,-0.3422884006,1.2313502172,0.6849620135,0.5234680801,2.2289568612,-0.2708215647,2.8569587677,0.6039859882,-1.2814176875,0.5877877382,1.6929290342,1.241379626,0.1568383729,0.7456926545,-0.3776291852,0.477851129,-0.4266684385,0.5160642087,1.2153782151,-0.8715263673,-3.3354680682,-1.1436426548,-4.6360052248,1.0886692852,-0.2969263876,0.3439725776,2.7271384848,-2.054154737,0.100263973,-0.799620982,-1.8390404041,0.78187725,-1.1617948869,1.4077413519,-0.934368567,1.2904581374,0.9397926985,1.3490090745,1.8758242646,-0.085634575,-1.0619216262,-0.0678327092,-0.0453155139,0.7185135064,1.0517639758,-1.3877265519,-0.3545561494,-0.1774839676,-1.3835150465,-2.16275947,1.9808571597,2.5009062063,1.600516633,0.606964345,-0.4517124058,0.5544456133,-2.1841574562,0.9272401102,-0.3216010138,-1.2417107517,0.7190337238,2.2670422074,1.2103055448,1.7740661745,-0.5507428217,-1.2222429769,1.2549890749,-1.0412237326,0.9818060965,0.189310961,-0.5138209718,1.7784779583,-2.3554095959,1.0510000144,2.4021347783,-1.2138443698,-0.6452347555,2.2457412826,-0.195887009,-0.2924563786,0.7811780355,1.2001882975,0.5815277267,0.4407291764,0.3919653297,-0.0727323724,-1.4719477501,-0.0823880382,-1.3089244899,-2.0290063809,-1.310627584,1.6047372155,0.0610172992,-0.5896704942,-0.036028273,3.9580245991,-0.6705356066,2.0631255075,-0.1594178729,1.2745835868,0.3301609324,-0.2730600532,-0.7986964442,-1.7022676773,-0.4746233164,-0.6139614371,-0.984345898,-1.6810885751,1.0750245241,-2.8479275715,-3.1024331593,-1.799236003,-0.16893997,-0.749765023,1.2056567604,1.5309044508,2.4507018816,0.3110277867,2.277879982,0.1100110123,-0.9447053175,-0.5412272636,-1.158617017,-1.251484111,-0.1439122735,0.8378086771,1.6107600371,1.4526056465,-1.43976876,-0.228591965,1.4464533427,2.2970776137,-2.171883678,0.6869756165,-1.2685785027,0.1922291436,1.7355787413,-0.7700236523,0.1341447378,-1.7405353151,-0.6260392718,-0.0259940751,-0.6596341369,3.1513132008,0.5857101039,-0.5502503117,-0.2125867234,-0.8881981862,1.3925888091,-0.0231147407,2.3355945234,-1.5368580087,-2.1208762327,1.1197106921,1.0577385714,1.954986511,-0.9427963004,-1.1424488946,0.4413534998,-0.8420104163,-1.0687778173,-0.4878964491,-1.431780392,-0.2247745794,1.7868680212,0.3745044294,0.9704062396,0.587822018,-1.3190040686,-0.021920774,-1.5777646098,0.8585444856,-0.1063994837,-0.9456330101,1.6773136405,1.8393989752,0.5797910218,-0.0031741595,-1.4323230758,1.4121218034,1.0219001156,-0.6838688189,1.8190249344,-4.4121796012,0.6425365029,-0.3387790625,-0.7339770661,0.4055021992,-0.3107665845,1.9767884286,0.1208422893,-0.7247958226,-2.2130899069,-0.4854543111,0.4082903389,1.122277046,-0.9933403026,2.828806709,1.529666042,0.4595977467,1.1525591298,-2.807728964,-1.4682142227,-0.5618534137,1.7100381368,1.3654664708,0.7805983407,3.3795799955,0.0744474095,0.4028056955,0.8023970322,0.568053498,-0.8165666554,-0.0165065683,1.6679267838,-2.8960847079,-0.9756953515,-2.709046931,0.6135329907,-0.2883351447,-0.2960181031,0.8309466211,0.2159580791,-1.0612949633,-1.1967559807,-1.4443041276,-1.2219460862,-0.2149988823,0.6279626613,-0.2635192228,-2.4741069256,2.6841384199,2.3832106096,-0.569544695,-2.0525664196,0.0754602868,1.1737261964,-1.7073823865,0.0435775194,1.4658726431,0.613372738,-0.8798512363,-0.5942837118,-2.5168003188,0.4599070431,0.1501458049,2.0285674832,-0.4292016674,1.9254584962,0.3071334067,-2.2446006357
   1.1000756948,-0.2071860727,0.181239778,0.4637549372,0.2737283781,1.5506193125,1.8573240186,0.1925406342,-0.8327204678,-2.7506781939,-0.0329170847,-2.9363876126,0.2623895459,-1.7223994714,0.5415173514,1.0406607264,1.4555821326,0.4779246971,-1.1293400167,-1.3595476296,0.2826042692,-3.7416881845,-1.6605755666,-0.3007351189,0.6340236662,0.9771798657,2.3299887346,1.7479897443,-1.7364157129,-2.2434327259,2.9490965142,-1.6609392802,3.8811470846,2.4432326611,-2.9503970875,-1.96478417,-0.1235120188,0.2819704118,-1.208399984,0.1615278789,0.5417535296,-0.8589171455,0.5831203615,-0.6052757696,0.9078546183,-0.932669864,-0.1552089067,-1.5180628044,2.1375153381,-0.801313641,-2.3835071179,0.177869888,0.0682628066,-0.6640224149,2.8225063451,-1.7967995402,1.1705570342,2.0877411676,2.4373165526,-0.2212428441,-0.9946525194,-0.4754931804,0.1847257335,-2.5678031577,0.7016547534,0.4260246656,2.094812919,0.7300804494,2.425023454,-4.7545117072,-1.0587792371,-0.5530656438,-2.8990586498,1.4634727973,1.526308138,-3.4174861867,0.3728056115,-1.6452597907,1.6268071932,1.1621991277,-0.6797142531,-0.9320631813,-1.8483975808,1.9641746038,1.6334406071,0.1982308097,1.7081671552,0.4910379871,-1.7390675104,0.3093202898,-1.3151679646,0.4661336668,0.8739725071,-1.6466248125,0.8110443395,1.1779251314,0.4209539382,-1.412088387,-0.2651523544,-1.4683122292,1.4382196212,-2.3896622899,1.1016953391,1.9565470004,2.5425864255,0.8120463028,-0.2597565716,-0.8605410623,1.1707628501,-0.9204951619,-0.1253763608,1.2356701188,1.9338438739,-0.1989250981,-0.2013056848,0.9011075059,-0.0693556518,0.5465661864,-2.1722056304,-0.7448784717,-0.7245554966,-2.0684196205,0.2478198174,-1.7306998393,-1.0701721624,2.143517346,0.8289486967,-0.6889305384,1.8387499382,0.9248080214,1.7041909879,-1.4169314835,3.135604035,0.342959635,-0.7815955597,0.8498908554,-0.5344040075,-1.2829292564,2.9848609074,0.6970269749,-3.5747329749,0.778440565,-2.3689409369,-0.3573106698,2.0548740028,0.0701054201,-1.3771455562,-0.6519204031,-1.9389312373,-0.0551591882,1.718093533,-1.1142884796,-0.4946519419,2.0392384358,1.0173214673,-0.8557045651,-1.9560884694,-0.4161005689,-1.3079997074,-2.5419777471,-0.5549872161,2.3482636227,2.099290715,-0.7439737371,-0.0705588443,0.4719362729,-2.4812170469,0.8903334741,0.1871668434,0.1471846367,0.4153894546,3.0358016148,0.6587450392,0.9623579287,-0.9413915144,0.1385284471,-2.8382217584,-0.3318002422,-0.548040603,-0.7761429887,0.1210547847,-0.8527462702,0.7282400527,0.3099856108,-1.3302883699,0.0225771962,0.6434499288,-0.7212484605,0.7872914303,-2.7956977053,3.2195163068,1.8223455133,-2.8165743129,-0.8289303976,-0.0111517462,-0.1456887688,-0.2992707518,2.4893010359,1.1382255206,0.7651049706,-0.2605508199,0.5751720696,-1.2122403983,-1.2587548145,-1.1026657644,0.730032183,-1.2203626557,2.4998708737,1.6941649326,-2.1515506657,-0.9690102938,1.0540516347,1.1211842859,1.2894570765,1.4042149958,-0.4100591403,1.563521243,-0.9396038817,1.0664150412,-0.3473449497,-1.0471995164,-2.0274341852,0.4532927416,3.3328977608,1.0536571188,0.7825751869,-0.0830942403,-0.3260153967,-1.6238505037,-0.0294079905,0.6922241405,-0.2570103088,-0.6686561378,-1.9194481875,-1.0590283683,-2.1389577112,-0.3555550977,1.3080921488,-1.1017765868,2.2989587529,0.0902643173,-1.6526099071,0.0467724752,-0.1963085785,-0.0426504797,0.4657480068,0.1256059011,-3.4077068533,-1.3505635547,0.5071589107,0.3207635593,2.1066720115,-1.3395886696,0.0556425686,1.620870872,-0.0134112092,0.4291903308,3.0540851124,-1.7106000741,1.2657325568,0.905198889,0.8657863967,0.5263620269,0.6674935483,0.5165093075,-2.4366252601,0.5314789277,-2.5280534114,-0.4086678387,1.9714486314,-0.9299368341,-2.8461110758,0.5802309214,-0.5442396792,0.3181065666,2.7082032777,1.8775785801,-1.193622868,1.8968973095,-0.124148799,-2.0986909653,-1.6123733538,1.0201778828,0.3568214557,2.0679421365,0.5410852165,0.0554738261,-1.7395104842,1.3733471932,-0.3901126619,1.3427792107,1.2976658511,-1.5659307744,1.6152438925,2.9727024143,-1.0344485513,-2.5875365299,-1.0533586632,2.6382092613,-1.968177445,2.3282019086,-1.1700193755,-0.5311991365,2.9806960712,0.1225970791,0.5010555356,-0.7270030878,-0.6337707841,-0.4307020317,0.7268213849,-0.2350124638,-0.1974748505,1.6595057193,-2.9034143812,-0.2787519484,-1.4126899246,0.759050444,-0.1368259923,1.370036525,0.7313237273,-1.36820086,-2.2982270347,-0.1001645032,1.3237996629,-0.4493516685,-0.9139229611,2.3961691266,1.6784377581,-0.8271721108,1.1795007575,-0.2019147494,0.9676424207,0.5807213527,-1.9211822943,-0.2355371283,-0.2012784961,-0.0097965663,0.5809498265,-2.0278496212,0.6364840691,0.3024035768,1.4522825554,-2.3678458808,1.4139658058,-1.934355886,0.3757571781,1.2345318214,-0.2406383285,0.0843252181,-1.7795022781,-0.6536807494,0.383442945,2.0044051381,-0.7243835159,-0.0781741029,1.5705414975,0.558887705,-0.2706378724,1.1969890845,0.9301263992,-1.6522083107,-0.0595881674,-1.4442684219,2.505507823,-0.1574039247,0.7319023071,-1.766209079,1.7415258518,-0.2071297517,1.2315568976,-1.2026424114,0.4285377099,0.6942608618,1.7964691474,-0.9148171237,-2.6052735477,-0.6882669879,1.8399159628,-0.9331104014,-1.8306987143,-0.8877559528,1.4235986336,1.7748401202,-1.436933082,-1.2243519143,-0.3691496255,0.459017748,-0.9824426838,1.0069161913,-0.8869239302,-1.0303812509,0.5948577802,-1.5367306138,0.4286858168,-0.8935128877,-0.9453956044,-1.918693277,1.2441877457,0.2762536845,4.0407223487,-0.2855233199,0.880774067,0.6347168205,-0.0085786429,-0.2809168177,1.2954683041,-3.0504158047,1.2366872339,-2.7141071383,-1.2188481711,-0.0184115144,0.4022206393,-0.834279013,1.1738154878,-0.9214725463,-1.2298950403,-1.832646789,1.9475436941,0.8189289886,3.0222210088,1.5641519582,-2.1268692167,-3.2708347018,2.3841556309,-1.2166798738,0.6657435198,0.3360400513,0.0192597592,-1.1197482116,2.3852442125,-2.3854387268,3.0746812449,-0.5139784117,0.3080896616,0.2131642604,0.1385420434,-3.5593135384,-3.1398071063,0.6247815661,1.6611522826,0.6846992958,0.1249095402,-1.2000175053,1.3142662003,1.9291258254,-2.1903501214,0.5941500181
##end
biasActivation=0,1,1
[BASIC:ACTIVATION]
"org.encog.engine.network.activation.ActivationSigmoid"
"org.encog.engine.network.activation.ActivationSigmoid"
"org.encog.engine.network.activation.ActivationLinear"
