encog,BasicNetwork,java,3.2.0,1,1415736309051
[BASIC]
[BASIC:PARAMS]
[BASIC:NETWORK]
beginTraining=0
connectionLimit=0
contextTargetOffset=0,0,0
contextTargetSize=0,0,0
endTraining=2
hasContext=f
inputCount=3
layerCounts=3,81,4
layerFeedCounts=3,80,3
layerContextCount=0,0,0
layerIndex=0,3,84
output=0,0,0,0,0,0,0,0,0,0,0,0,0,0,0,0,0,0,0,0,0,0,0,0,0,0,0,0,0,0,0,0,0,0,0,0,0,0,0,0,0,0,0,0,0,0,0,0,0,0,0,0,0,0,0,0,0,0,0,0,0,0,0,0,0,0,0,0,0,0,0,0,0,0,0,0,0,0,0,0,0,0,0,1,0,0,0,1
outputCount=3
weightIndex=0,243,563
weights=-0.5339455231,0.7971369016,-0.1348636991,0.1289092481,-1.0704277223,-0.7078367003,-0.8500085307,0.595670029,-0.3721295728,0.1791535702,-1.3651670201,0.7243002252,-0.4256230298,-0.7377585788,-1.1206852195,-0.9919869311,0.2454371655,-0.6519613001,-1.2559944671,1.0205529031,-0.1405731937,-0.7837578379,-0.658086242,1.1150583825,0.1208624424,-1.2460481702,0.9192030389,-0.3909049263,0.3249430631,0.1332766714,1.5508949675,-1.4255541747,-2.0044171163,0.6503948784,0.5817103094,1.0130923321,-1.3293737404,0.7369771959,-0.1843055049,0.3641075491,0.1889499056,-0.8360875118,-0.4426939461,1.9807761467,0.5041492012,0.7550254368,0.7206252117,-1.0825346828,0.5562998398,-0.7727317596,-0.3256158674,0.5483174015,-0.059161137,-0.7862570337,0.4869281578,-0.9487826278,1.4017556825,1.0925855658,-1.1303824992,0.1963221117,0.6961643845,0.2315143499,-0.9526436823,-0.5351290416,0.1483227105,0.7572622665,-0.9179449956,0.0575066853,-1.429488602,0.64115666,-0.581485464,-0.4562024569,-1.5060562641,0.7479072164,0.3524344865,-0.1219886382,-0.743082957,0.9971246013,-1.0681130301,0.6668961535,0.762750448,-0.264102713,-0.1162432201,-0.3893228007,0.4833399202,0.3876540313,0.9627141595,0.6527627839,-0.4499307774,0.5868972099,-0.209021563,-0.5586672848,0.4181284788,0.4361021718,0.9864953745,-1.4245054167,1.1115880984,-0.7097489608,-0.4647866141,-0.7308909603,-0.9792508775,-1.5110066143,0.3446160379,-0.9840183258,-0.1339943837,0.2632706752,-1.3231919935,0.8067765604,0.0552569229,0.7529653363,1.2567847632,2.0138516667,-1.2191896316,-1.090217383,-0.3116378805,-1.4202814857,0.0008194856,-0.1353474924,-1.0419575832,-0.4440455723,0.5705305892,-0.0572620232,0.7153314607,-0.5300550818,1.6921118106,-0.0027443803,-0.6114065252,0.8425632774,0.7248671618,0.9272584424,0.5251156121,-0.2915819452,0.4510142494,-1.7821020667,-0.6179819525,-1.1590700368,0.0377011028,0.4925098971,-0.8653661849,-0.8053876953,0.7078403315,0.3593258092,-0.2090829254,0.1328727786,-1.1918614051,-0.2605012146,1.1976949648,-0.0786011209,-0.3409847166,0.1970730585,-1.3643540857,0.5824579518,-0.2784240248,-0.8032767617,-0.5647758592,0.3500344349,-0.9040161587,-0.3494525048,-1.2905952032,-0.2901876862,-0.8864149816,-0.219153674,0.9776491881,0.4617048847,-0.6513995512,-0.3841540025,-0.2310603909,-0.2037904798,0.8030473423,0.7238824414,-0.758946187,-0.5362857017,-0.6700005137,0.204790549,-1.1983978504,0.5918842161,0.4096909475,0.9735785437,0.7179976693,-0.2084912235,0.9831593212,-0.9683831912,-1.030723031,-0.3902235005,0.1433129609,-0.0455967887,0.6280949459,0.7948027436,-0.7135568881,0.40752819,-0.6796476195,1.0308979118,-0.939439191,-0.7353200043,0.89586014,-0.4174653316,0.7376180492,-0.2673957887,-1.1638903484,0.510876389,-0.5917815724,0.4063675223,0.6208340316,0.6486070111,-0.948127397,0.4030063869,0.4339460807,0.4908436435,0.1094178686,-0.0496718706,-0.4857220594,-0.072732379,-1.0165409199,0.724709881,0.2028794335,1.0500198092,-0.1386678856,0.1093090401,-0.7842719708,-1.2232706164,0.3968540353,-0.3461158767,0.5875814288,-0.8900166486,0.5262386613,-0.4778307468,0.0833743987,0.772231026,-0.3477789443,-1.0845167223,-0.4945771989,0.0997201402,0.6270592661,-0.235869521,-0.9095613459,-0.4656428706,0.2012680973,0.3054837817,-0.0794686549,0.0220075007,-0.2632423817,-1.0327733458,-0.8902355341,-0.2785306105,0.5197370686,1.2620759634,0.2581742033,0.8287547085,0.6017912735,0.4996107798,-0.4159697503,0.138495566,-0.0887141017,-0.7776833029,-0.1426350349,0.6318237419,0.1175557434,0.1480507429,-0.61363321,-0.3075719918,0.6639620461,1.0438571645,0.3211346351,0.2217998815,0.7689812634,0.3020780363,-0.3929288242,-0.2889743003,0.4183172113,0.7264240084,-0.720993815,0.3810107108,0.6879566469,0.7571998505,-0.8200702566,0.9451557335,-0.427527148,-0.9564246534,-0.781559713,-0.619950007,-0.6980833968,-1.0354526848,0.6507735062,-1.5202469662,1.0711967979,-1.1738315005,-0.6247270639,0.243380633,-0.0225739966,0.4224058227,0.3456960042,0.5261248723,0.2040145125,-1.2956917022,-0.4200722033,0.6840629083,-0.8252267378,1.4387340085,-0.3382019761,-1.0895445389,-0.2303747712,1.7133234783,1.1086002818,1.0676272306,1.0952647002,1.8387961862,-0.8629660481,1.1228198648,0.9249155093,-0.9248389245,0.5165628117,-0.7181485166,0.5099629564,-0.3413130322,-0.509254405,-0.5038501419,-0.6899815446,1.1884307257,0.4761177865,0.1628290841,0.0191948392,-1.2056885706,-0.0292645681,-1.4725207123,-0.3818053742,-1.4487431463,0.7308158787,-0.67582175,-0.5897241751,-0.343019347,-0.3699019076,0.5846761541,0.6509072953,0.0355581967,0.8319386652,1.1436230092,-0.6361214517,0.8182676075,0.650710483,-0.2061788413,0.0253291954,-0.5937209741,0.2785779592,0.3654942597,-2.0634689794,1.0454996573,-0.2287608487,-0.0065398154,0.7725955298,-0.2251773489,-0.3610346544,-1.0207554635,0.754070511,0.0417789559,-0.2411390684,-0.760049669,0.1366068696,0.7531211749,-0.5785351531,1.0816447726,-0.7542573975,1.5993125534,0.5068038204,2.8979840357,-1.4282499672,1.9107985802,-0.007688307,0.5911045472,-1.7238444992,0.757595715,-0.5803572873,1.0856790641,-2.2429553488,1.3855458398,-1.028445526,-0.7444123736,-0.7202927381,-1.0835499905,-0.5615228627,-0.9218378064,-0.320753642,-1.0248410801,-0.6356158444,-0.0920349093,1.2814265951,-0.4685851587,0.2541637411,-0.9004600597,0.7363675074,-1.0218005069,-0.7226044172,-0.5572936398,-0.0329969484,0.1522517273,0.0265901752,0.8580305158,-0.225569509,-0.1172752239,-0.106995149,0.3235513262,0.5751592166,-0.0379979152,-0.9813945568,-0.4944970044,-0.3453559658,0.4403504032,0.5326380458,0.6418916207,0.5157277721,0.9176028381,0.6037134125,0.7047505488,-0.0703840482,0.0260569733,-0.6698123284,2.6537406212,-1.6100337738,2.2374157612,0.1087679858,-0.2393983978,0.1763983631,0.8582781415,-0.1416379236,-0.4387582144,0.2432042961,-0.3090699567,-0.3432263916,-0.1915909521,1.3918198885,-0.1592635613,-0.1467849898,-0.8959250847,0.1707876824,1.1082397923,-0.6130597363,-0.9531607807,1.2481194961,-0.1118718199,0.625797815,-0.2375100284,-0.1643448071,0.3190482851,0.3581519176,0.1327336329,0.3660462015,-1.2822840765,-0.1540736591,0.1864383766,0.1698712534,-0.209258801,-1.0664048752,-1.7736047394,0.7708939011,-1.0362764233,-0.4687506715,0.4313479349,0.4307280781,0.9813513499,-0.749191353,-0.858600557,0.806019994,-0.1118606329,-0.8007068344,-0.6974113257,0.5979549114,-0.0652518737,-0.8678903856,-1.1705143101,1.2897244567,-1.2092870904,1.4744252976,-0.3755803775,0.735885538,-1.1501526123,0.5488025152,0.2592616913,0.4430169495,0.696345723,0.8111088401,-0.0983833944,1.2712686982,-0.1150514675,-0.307098983,-0.3339529372,1.2882230276,-0.0509332001,0.0456928828,0.4850801049,0.6054359963,-0.3388063293,-0.8279290196,-0.6037153034,-0.8591711501,1.2155977301,0.0441441081,-0.0658320443,-0.6344806885,-0.830498487,0.6530576931,-0.3688282877,-0.9144172342,-0.3776809122,-0.2166327387,0.8961105258,1.1725914366,-0.4093323517,-1.6478129566,0.9047078476,0.7129362653,0.4298445653,-0.3692170738,0.6415417733,-0.3317820057,-0.6639163516,0.9496434902,-0.0354761255,-1.1255222797,0.838579126,-0.5836901694,-0.7359227049,-0.2125656582,-1.2889183677,0.4369788774,-0.400027556,0.6189006883,0.07515324,0.7332839635,0.2023998566,0.4472818262,0.7555570472,-0.4524470636,1.563699495,-1.6982839726,0.1376267312,-0.9859417587,0.2102845348,-0.6729267614,-0.6243223688,-0.823065879,0.4882376152,0.6775354294,0.1406970442,-1.0543690141,-0.3494212178,-0.2532742522,0.7887812399,-0.0237910017,-0.677436826,-0.8890955085,-0.0033360769,0.6465233008,1.0430396184,0.8808470172,-1.3966591823,0.9106344375,0.006253209,-0.2426778801,0.3126501839,0.5520963742,0.8044417873,-0.2365988625,-0.1341634364,-0.0530212799
biasActivation=0,1,1
[BASIC:ACTIVATION]
"org.encog.engine.network.activation.ActivationSigmoid"
"org.encog.engine.network.activation.ActivationSigmoid"
"org.encog.engine.network.activation.ActivationLinear"
