encog,BasicNetwork,java,3.2.0,1,1411490238277
[BASIC]
[BASIC:PARAMS]
[BASIC:NETWORK]
beginTraining=0
connectionLimit=0
contextTargetOffset=0,0,0
contextTargetSize=0,0,0
endTraining=2
hasContext=f
inputCount=28
layerCounts=28,81,29
layerFeedCounts=28,80,28
layerContextCount=0,0,0
layerIndex=0,28,109
output=0,0,0,0,0,0,0,0,0,0,0,0,0,0,0,0,0,0,0,0,0,0,0,0,0,0,0,0,0,0,0,0,0,0,0,0,0,0,0,0,0,0,0,0,0,0,0,0,0,0,0,0,0,0,0,0,0,0,0,0,0,0,0,0,0,0,0,0,0,0,0,0,0,0,0,0,0,0,0,0,0,0,0,0,0,0,0,0,0,0,0,0,0,0,0,0,0,0,0,0,0,0,0,0,0,0,0,0,1,0,0,0,0,0,0,0,0,0,0,0,0,0,0,0,0,0,0,0,0,0,0,0,0,0,0,0,0,1
outputCount=28
weightIndex=0,2268,4588
weights=##0
##double#4588
   -0.1574570757,-0.8568215695,0.2381713026,-0.2059989794,-0.0593054085,0.788748209,0.2131220993,0.1667515406,0.1100310389,0.5219862805,0.0927949653,-0.8109553821,0.7603022355,0.571127429,-0.3889959398,0.3677879371,0.6353848251,0.3177859746,-0.1925134591,-0.0147651744,0.3824952606,0.171793041,-0.1181843249,0.0019183757,0.0617649771,0.2635383988,-0.763734235,-0.0709133209,-0.3514207941,0.3976324192,-1.9020214779,0.0941618774,0.5332579494,-0.4294386937,0.241305304,0.2156685317,-0.4555389906,-0.7387793208,-1.2824702688,-0.3253836005,0.1370312007,0.5912057421,0.9520444101,0.7001812432,-0.9380338607,0.3634194921,0.0122216248,0.5002400907,-0.2288312136,-0.3511141214,-0.2916228394,0.35117146,-1.1888781692,-0.8028961532,0.6301511738,-0.4828405461,0.3597687359,-0.5115976529,0.5547868983,0.3473173627,-0.0708914214,-0.1196066424,-0.3638895926,-0.4260097409,-0.4603519635,-0.1369597284,-0.5280431998,0.3211621447,-1.1718789706,-0.4916272573,-0.8923651469,0.6371717314,-1.8223732958,-0.4990955878,0.5823278936,-0.8771814141,-0.5974800344,0.722353922,0.9005621818,0.7006230064,0.7144237516,-0.1658852485,-0.5841022755,0.2502298142,-0.4107030989,-0.2641558427,-0.4628367988,-0.5248014799,0.1685964275,0.1060262358,-0.660206334,1.1278600159,0.4182149706,-0.4076106844,-0.5575978953,-0.43465668,-0.7860379168,-0.1089690722,0.0597316655,0.3562590724,0.7166719055,-0.1547687762,0.5532209736,0.2537149598,0.9032999401,-0.9584898563,0.7170278344,0.2662208671,-2.5679242427,-0.3276428097,-0.6177095786,0.2785431011,0.0526651219,-0.1302604824,-0.5527764166,-0.985970639,0.4861103755,-1.4370334949,0.3407875225,-0.3740710396,-0.1861473492,-0.1855324066,0.8698542819,0.2945773448,0.1975683927,0.5512752741,-1.3366026554,0.6024922853,0.6554013192,0.5496680132,-0.1748886994,0.545824513,0.519886388,0.3353064805,-0.0151014986,0.5012351566,-0.2062499093,-0.057425637,-0.3827415087,0.0353857638,0.6741946956,0.5864583693,-0.3148494187,-0.6753528162,0.6579062078,0.2277462707,0.67155975,-1.4005221759,0.3152750718,-1.086010712,-0.6979640168,0.444613544,0.1406475764,0.065671876,0.5804793976,0.899168714,0.3644234081,0.1680296201,0.0559831115,-0.9217197185,0.0645270838,0.4009334836,0.6547771007,1.0528745623,0.3921065509,0.6363650192,-0.6418372629,0.4083760733,0.2851271868,0.3690265775,-0.1849243501,-0.6072842039,1.178507167,-0.5724700955,-0.3427373088,0.0630271985,0.4366437175,-0.5580754082,-0.6072148771,0.4617912023,0.7854269444,-0.4612792498,0.687439214,0.0870807098,-0.2521971955,-1.0110242485,-0.1673781546,0.0176170914,-0.1141635265,-0.6226240928,-1.3454438731,-0.2512115575,-0.1318505202,0.1263017904,-0.2536730419,0.5077682312,0.0472906361,0.7680231867,-0.0578510109,-0.2163300845,-0.1532365361,-0.3304471362,0.0689290054,0.3933905502,0.0539100668,-0.0193077396,0.6011122578,-0.0702255793,0.3555723878,0.3922431871,-0.4969046051,0.2876987958,-0.4611101798,0.2511310718,-0.518937234,-0.2276228276,-1.3728911899,-0.529893235,0.0624306415,-0.095481895,0.1822232507,0.774850172,0.2180497733,0.1333894248,0.4641628759,0.6760889244,-0.4767466596,0.7285958033,-0.3189858397,-0.078393461,-1.4148977065,-0.2525566065,0.117467871,-0.0539326116,-0.9417779969,0.0962687152,0.1607229943,-0.3841146042,0.7341798961,-0.9638313285,-0.4106157665,-0.2102977021,-0.0134139848,0.5206266617,-0.1273156069,0.1343758932,0.442142362,0.8438967231,-0.1142845203,0.5358781797,-0.5440545204,-0.337284125,-0.0387521188,-0.6506611896,-0.5670878277,-0.8165291379,-0.274389808,-1.0486169651,-0.5848556075,0.4863726991,-0.2665068492,-0.7012484048,0.0201905361,0.8816595307,-0.9463456868,0.5027623973,0.0063341767,-1.3970101376,0.1705064031,0.5035854879,-0.4554341024,-0.7292457876,-0.1438933744,-0.3590837615,0.5587452226,0.9029176169,-1.0137290192,-0.3384278761,-0.2553885957,0.7051624613,0.7379186485,-1.0407948662,-0.3697314618,0.835996784,1.0227811788,-0.7447094537,0.1498153987,0.4851529075,0.6176654144,-0.774978764,-0.6015540686,-0.0100786509,0.252654671,0.5245761854,0.7817162823,0.5251748701,0.6256841173,0.4053063405,-0.0441831574,-0.8427478795,0.3619823783,0.7404395776,-0.3138787447,-0.8632611283,-0.400571494,0.1027411149,0.1163159011,-0.4284373802,0.3877676142,-0.7872442727,-0.0449514719,-0.0093460382,1.0351261035,-0.1656037742,0.2169324732,-0.3599536456,0.3421707634,-0.0919009815,0.5867427629,-0.6181001018,0.1276755433,-0.0378009523,0.4330100499,-0.6111725529,-0.6140637698,0.3326722275,0.0525998543,0.4757632586,0.4956028461,-0.4604311122,-0.0438017714,-0.8440153852,0.3153398288,0.3223626936,0.2512478399,0.8456053911,0.4488661678,-1.5660757719,-0.2621917686,-0.0199657625,-0.9079359622,0.1121056107,-0.2016264599,0.0188303741,-0.1494518213,0.2834404965,0.1073781075,-0.6101111919,-0.9440880722,-0.6195903046,-0.2840334856,-0.2517695112,0.97150581,0.8886104031,0.1678408922,-0.9905195359,0.7247036644,-0.676734676,-0.2158483782,0.0593812406,-0.0664177917,0.803430275,-0.1389315248,-0.7476935372,-0.0928791283,0.9557136291,0.2518032356,-0.2519404278,0.0481892194,-0.0566654026,-0.1621483486,-0.3529985492,0.3951340576,-1.283081511,-0.8403656929,1.5108188466,-0.2606262756,0.080060164,0.2481898464,-0.5608356359,0.1699600807,0.10613282,0.593092978,1.6840302707,0.5492566561,-0.5947668627,-0.5819846523,0.8429883878,-0.4880824663,-0.1383323685,-0.6081103539,-1.1166391253,-0.4553571184,0.2794091899,-0.7519809977,-0.00112325,0.4324913856,0.0752595698,-0.0663523975,-1.2339490602,-0.801644251,-0.4599449079,-0.9103295899,-0.3482158117,0.7531771473,-0.5384298125,0.5619232757,-0.3259673879,-1.8310122292,0.4181544579,-0.5871837734,-0.8350572431,0.5644890803,0.5275332184,-0.2682295838,-0.0005253714,0.8576962252,-0.7471207872,-0.256261575,-1.0529790218,-0.0055299286,-0.2463442025,0.7325871927,-1.0116306501,0.4095082868,0.4977204065,0.0172863132,-0.340699809,-0.5803705701,-0.3682339751,-0.5056501905,-1.0703647165,-0.0518150993,0.2444122809,0.4256650567,0.9813026578,0.3891611534,0.6897790234,-0.4909936472,-1.0840479414,0.0263349254,-0.0945512086,0.018424781,0.4184130417,0.257476425,0.0183886833,1.2834975529,-1.1293751816,0.4133662058,-0.9151646388,-1.1932002782,0.1241627339,0.5319812229,-0.5853558312,-0.5382227758,0.4083563048,0.6170661513,0.1825414691,-0.2065050406,0.0994917453,-0.414389488,0.8848533117,-0.5184433261,-0.1955688574,0.6121332412,-1.0402414236,-0.1278801678,-0.1735131149,0.2229714475,-0.0694603257,0.1882376192,0.4720825983,0.1204870865,-0.033498803,-0.176803204,-1.0658167774,-0.274144604,-0.2562665152,0.4474570847,-0.8084033524,-1.5239438819,0.6376643544,0.3520230802,0.0388811721,-0.3690512422,-0.2615032861,0.3973181963,0.5067113529,-0.8748193196,-0.1540378195,-0.7458819831,-0.443315487,0.1818879263,-0.5049322078,-0.6720415702,-1.0623704963,0.7075238886,0.6168345498,-0.9063191192,-0.3479676694,-0.2315209069,-0.3215564235,-0.6423604546,0.0970964546,-1.0130744876,-0.3400594379,-0.1822382058,-0.6028663709,0.3752810889,0.2696282386,-1.5346842552,0.6026141316,0.7750802069,-0.3108443647,-0.9232433674,0.2159385397,0.0346613382,-0.6952848366,-0.3754913052,-0.0238090811,-0.5379176589,-1.0163484203,-0.8110896302,-0.5609148068,0.1631886681,-0.7703382722,0.7011097399,0.5624571038,0.6130751694,-0.0795429855,-0.5930952632,0.3405060048,0.1002422485,1.315243313,0.4857921877,-0.1361528615,-0.5689286267,-0.6424862981,-0.0239121332,-0.5313939023,-0.4158757749,1.2380942968,0.9696249452,-0.662786696,0.344734378,-0.2385507828,0.9945829181,-0.0219364711,-0.5364401024,0.1016458587,0.8918991561,-0.9765043725,0.7668826829,0.0328347881,-0.7642827049,0.1077000727,1.411202569,-0.3925267272,0.1587272965,-0.7796745031,-0.1172715102,-0.8332893717,0.233883886,-0.9107282333,-0.8585811206,-0.6767523342,-0.1652840158,-0.225972944,-0.6420440446,-0.2085304736,0.2721971451,-0.7703994103,-0.3173337114,0.7491275769,-0.8253351695,0.390425262,0.2130262667,-0.4057499968,0.142229804,-0.1041533355,-0.0876632417,0.1330644023,-0.7521584067,-1.0827324388,0.7624206459,0.0974427464,-0.6496386453,0.6317462901,-0.380349758,-0.701226032,-0.0428590809,-0.684427098,0.4651043252,-0.5211984759,-0.8858219087,0.0719393644,-0.0923588579,0.6757543976,0.333101944,-0.6889198345,-0.7741506872,0.2595641624,0.6671292876,-0.3024517214,0.6118803038,0.4847808302,1.4471779619,0.1034296072,-0.6542608038,0.4856212571,0.148700851,0.9166805469,-1.0066128436,0.9225312961,0.6802348224,0.9216700682,0.0442585944,-0.2459629477,-0.9053752213,0.9141460617,0.640043674,-0.3802019734,0.4811634252,-0.612170612,-0.4970599208,-0.0683587902,0.894180625,0.1789149485,0.7417207368,-0.8317384886,1.0710566072,0.5024850519,0.5165736119,-0.2023128803,-0.5240913857,-0.4897579317,-1.1918000591,-0.742404133,0.6362104334,0.3500228798,0.2118682282,-0.6827503118,-0.2671471922,0.3393676037,0.349148407,-0.5645369675,0.2417419849,0.63407009,0.1055081458,1.6864409054,-1.0313171763,-0.5229750481,-0.912590723,-0.6586312437,0.7235463179,0.0202672407,-0.6484292411,0.3419223553,0.5975878572,0.6065640597,-0.8676152505,-0.4239936841,-0.5121105759,0.4873712479,-0.482542569,0.7507716527,-0.8413294977,-0.8942469014,-0.784432651,0.5155492367,0.3404342812,0.4899269018,0.2234903408,-0.8948746315,-0.6860196835,-0.1144031264,-1.0245830186,0.2665957334,0.306061809,0.4892348706,0.9932288836,-0.1126859398,0.0109027508,0.1202201118,0.3322848842,-0.5473443024,-0.1170430161,0.0828751062,0.7606228384,-0.8253945655,-0.7428783616,-1.0175852824,0.8012905106,0.5472469385,0.1150179955,-1.0876656017,0.6165721415,0.5369668554,0.0061670923,-0.6360084861,-0.6928437356,0.3518551682,-1.213707929,0.4985823214,0.3251841361,1.3479511527,0.3245951734,0.2897652667,0.414711666,0.718047424,0.1661219959,-0.1328705261,0.389437451,1.0329352299,-0.7853073552,-0.2175541752,-0.6103380898,-1.3300042131,-0.0654120736,0.4909384392,0.5535526412,-0.7956592113,-0.8453964172,-0.232424201,-0.9042192262,-1.6030009314,0.0696699351,0.0342975147,0.5683333248,0.0698253138,0.9074667622,-0.9587419812,-1.2135215496,-0.4322131027,-1.0209704493,0.5922480385,-0.0864065481,0.4042205902,0.7055631542,-0.4550807787,0.6803010968,0.6298341148,-1.3247256986,0.4624867538,-0.0539781496,-0.6415198202,0.5341285278,-0.2632931179,-0.5810486118,0.0773948349,-0.3867869371,-0.5509474424,-1.1360782585,-0.6635584687,0.2584767971,-0.8761074799,0.0299719687,0.4935893528,-0.1628149815,1.0910385266,-0.4868406291,1.0590478267,0.7281548808,0.2610180971,0.4686712747,-0.0473833503,0.30807956,0.8337456638,0.9500887872,0.8521375202,0.5034635828,0.3536477698,-0.753993778,0.8852263041,0.3728293249,-0.9852577923,0.0559860692,0.3378638103,0.1111459695,1.4586945034,-0.8514520457,0.8933208493,0.2354150546,-0.3415101658,0.2716550174,0.0792095991,0.0362354141,0.9732703274,-0.6081252821,-0.3951037219,0.8502998816,-0.0708257948,-0.8437352949,-0.589251832,0.2311901718,0.2240940362,-0.6398586062,0.005486738,0.2352119641,-0.5843919607,-0.5327837202,1.3457063215,0.3087439518,-0.5227969727,1.4436568924,0.2664901989,-0.6337818889,-1.9689528093,-0.5709585232,-0.8225122042,0.0233265652,1.0566797555,-0.5596153271,0.2489666315,-0.2419735704,-0.8772616729,-0.4899857645,-0.8128482465,0.1576533667,0.4987441711,0.7291654686,-0.6626642032,-0.2441571595,-1.7288878485,0.0748128969,0.6365412199,-0.6098389622,0.1950569798,0.7009217938,-0.6270907374,-0.9735979716,-0.7247499774,-0.4240742014,0.9385783081,0.7725073968,-0.8282465872,-0.2063946993,-0.0657308442,-0.2442907391,0.6121645438,0.4120698451,-0.59634437,0.2775504578,-0.1223640522,0.5886124782,-0.3820289889,-0.5705333452,0.1924888337,1.4434373328,1.1815096012,1.3381558281,-0.3636972478,-1.0549880956,-1.3203156409,-0.5029600968,-0.8193168733,-0.5057404675,0.2925817492,0.8127244265,-0.7805739437,0.14376893,0.3717541985,-0.8189786497,0.914015575,-0.0846743315,-0.023824718,-0.7891128645,0.4509005552,-1.1959660598,-0.0915977352,-0.4918855907,0.237277292,0.3745070997,0.7351636092,-0.5782416706,0.0996371433,0.592118746,-0.2328041971,0.3485572876,-0.0687336038,0.6893190947,0.6234309372,0.2857573223,0.6949205962,0.0117528833,0.538569026,0.5076909037,-0.9158306442,-0.0391547208,-0.1235427766,0.2284576775,1.0573675624,0.7072418933,-0.5426650002,-1.1424605007,0.4067106756,-1.3362535612,-0.2952507097,0.0172533169,-0.0313244423,-0.8391384397,-0.0846287536,-0.5110457455,0.6649014718,-0.2495487354,-0.5047769635,0.5285562919,0.8376000634,1.104681816,-0.8209544326,-0.1613850436,0.5070959493,0.7682395534,-0.5755632233,-0.5799179075,-0.8487770913,-0.375655255,-0.27236763,-0.7659981307,-0.49638123,0.0707207734,1.1630788362,-0.0080449238,-0.7771531675,0.970189166,-1.9676004785,0.012749257,0.0405917726,-0.3559527108,1.4072475971,0.5222852831,0.885034582,-1.4969058243,-0.9751215759,-0.3260490656,0.9417389111,0.0489875777,-0.2606981821,0.106725119,0.4760845796,0.710336211,0.1067739359,-0.222409682,0.4229152897,-0.1511202896,-0.0995043201,-1.1076561421,0.5031747086,-0.3556590768,-0.4771230908,0.9807285674,-0.7170251463,-0.9541236591,-0.5824587891,0.5277932624,0.2347612194,0.5840986449,0.7714810461,-0.1553108499,0.5291436348,-0.1760695047,0.2087856798,-0.6571084436,0.876107552,-0.975015199,-0.2133506704,-0.1193693265,-0.8576731294,-1.0026013296,-1.4367226811,0.3628386512,-0.5344066926,-1.110786247,0.4969792874,0.1315749582,0.556462242,-0.3506763054,-1.3081451309,-0.8019085042,-0.2792407151,-0.7242605849,-0.3818853378,-1.0165033304,0.5485799014,-0.9338037835,-0.888813637,1.0398143782,-0.5292489204,-0.3795110863,1.4994042105,-0.8650550984,0.0607304597,-1.3754270936,-0.1140632134,0.5968347056,0.2798559418,-0.460998399,0.7788903533,0.2264614736,0.1299624678,-1.0980634934,-1.002595624,0.323217567,0.2937114367,1.2365254186,-0.6205439251,-0.6033797876,-0.2856789171,0.2593864991,-0.5239590789,0.8121514884,0.1810590247,0.300003656,0.4695983165,-0.1714494263,-0.6009038711,-0.1501565525,-0.2487086635,0.3380734501,1.0998793297,0.1339648514,-0.6513956045,0.1791307111,-0.7814945267,0.3534117032,-0.1243428228,0.0406824845,-0.4877718134,1.0285577147,0.6077076758,-0.0274551308,0.0217697153,-0.6012277809,0.6080073347,-0.1694105057,1.2426638111,-0.0852226368,-0.0079081514,-0.1060369823,0.3611874195,-0.3163274183,-1.3186854595,0.0534629992,-1.1000405903,1.4318077975,-1.0295975232,-0.310973766,0.283121719,-0.8769640926,-0.8582162895,-1.1965962046,0.0219823398,0.2087488237,-0.3388829263,1.0248446285,-1.0068433054,-0.8328645728,-1.0282560365,1.135060022,0.4725182536,-0.5928772122,-0.575207083,-1.0589605287,-0.260871563,0.8377282752,-0.743986324,-0.3689501808,-0.8034683383,0.4681506078,-0.0900855238,-0.2424631598,-0.3179213591,-0.2015406146,-0.2098496666,-0.3550059061,0.0204900988,-0.1621716211,1.172789721,-0.0669582863,0.321785277,1.0658271161,-0.5065269271,1.3246820525,-0.1449513759,0.2018308289,-0.5785907264,0.2266553959,0.3224787684,-0.4807417388,0.9745553519,0.1809009954,-0.0619373903,-0.7707910227,0.7715925776,-0.9161043978,-0.2924040184,-0.6522701886,-0.3194765637,0.2482304398,-0.5205879436,-0.1714721314,-0.0020747766,0.0343168828,-0.4225819213,-0.2372236462,0.4227207624,-0.1872475322,-1.5331251428,0.5716321047,0.4046770367,0.629264551,0.1762707457,-0.170649765,0.7196313089,0.9614288345,-0.0532811503,-0.5062127054,0.7392608734,-0.1687550855,0.3808668847,0.5799017777,-0.2258846253,-0.2463677538,-0.3842101439,0.2124846797,-0.0642828303,-0.0721570012,-0.2575906665,0.8232828871,-0.5203801832,-0.525945159,0.0863891051,0.4240851231,-0.4091450155,-0.682796595,-0.8632528344,-0.5258283627,-0.1048027332,-0.5888931524,0.1235192055,0.6344233613,-0.9849443341,-0.9631043239,0.2290399645,0.2532849617,0.3817550921,-0.5178666918,-0.0695948284,0.4031646957,0.1196677855,-0.17926958,-0.4017575833,-0.4273377094,0.9195178508,-0.4708549709,-0.7452033557,0.0067667098,-0.8638845439,0.226108943,-0.7767844815,0.1973156008,1.1453779923,0.3760773049,0.7932328762,1.4468715723,-0.3144884426,-0.0289434554,0.0866361396,-0.1671780627,-0.9082144179,0.0474335568,0.5078279097,-0.5402126417,0.4944090374,0.4745530304,0.7376200259,-0.9595901521,-0.3555274186,-0.6057545368,0.6373651525,-0.4952689084,0.4406175085,-0.2962808299,-0.4253315378,0.607308574,0.8677752244,0.7288634527,-0.5774993838,-0.810216425,-0.5032739728,-0.5152826623,1.191154546,-0.0103122859,-0.9233824081,0.6192116201,-0.3513880661,1.0660831418,0.1674854955,-0.4326716309,-0.436354848,0.8911469354,0.1451803956,0.1883556316,-0.4863723679,-0.6006793803,-0.2832989459,-0.4952889303,-0.1328419101,-1.0065361146,0.0860094535,-0.0522057567,0.3769106112,-0.4703348454,0.2606133149,0.2888530019,0.6322733347,0.4428360163,-1.0949444597,-1.0669337802,-0.819187312,1.2146045695,0.2149749709,-0.1106107013,-0.9104577993,-0.0545967298,-0.1674158552,-0.6411998176,-0.475168988,-0.5198656042,0.7459896277,0.014370607,1.1221063348,-0.5929470341,0.5397925692,0.9467370961,-1.2849949769,0.1521631174,-0.9334764698,-0.3686755675,-0.1843205314,0.4277719335,-1.1347830145,1.3743071049,0.0539829615,0.6987129898,0.1665315932,-0.4238920423,0.3967040295,0.8180861967,0.1664069312,0.2722424778,-0.8270078293,-0.8960814002,0.4789376939,-0.2242186002,0.7359375709,-0.0727914626,0.9674127296,-0.2638157564,0.126200412,-0.4573311851,-0.1787033682,-0.1537143657,-0.8843064202,-0.7617367239,-0.0275294025,0.1837309867,0.2373419043,0.8583553002,0.572848539,-0.2881756583,0.9011047472,-0.0748395881,-0.8009926203,-0.0137601001,0.337391116,0.8897832362,0.9654258294,-0.4827518305,-1.0085890766,-1.2621647849,0.9182934911,0.4169550754,-1.2751891301,-0.7077309034,-0.3467823779,-0.8108943472,0.2968803563,0.5917010035,0.9105651434,-0.409648242,0.6242615544,-0.4070466507,-0.529771574,-0.7156459169,0.3515245391,-0.6209022859,-0.7747812357,-0.6794861086,-0.5329590799,0.96721812,0.602884049,-0.0993426853,-0.1303258218,-0.3292420676,-0.827412163,-0.0059776966,0.6042865037,-0.0541003705,-0.2004336267,-0.3679820892,-0.6311735413,0.7209774684,-0.9699602277,0.5231430266,0.6772393424,-1.1973506659,0.8703624763,0.2554413872,0.4541447125,-0.5429107088,0.8246213528,0.107798532,0.5924443655,0.0328190716,1.0294677709,0.0708488398,-1.2039132317,0.6743352903,0.9761487823,0.6939205574,-0.1517958391,-0.4593858496,-0.5879336941,0.306136602,-0.4201858382,0.4239622103,-0.1490630178,-0.7300793871,0.4094942718,-0.7227271649,0.2149942403,0.9516720913,0.9565558789,-0.4677015942,0.1028481671,0.1475705887,-0.3673779089,-0.3599297558,-0.5209223789,0.5490895308,-0.2317907485,-0.3429926969,-0.7790146285,0.1047699828,0.324596484,-0.821719951,0.5815884521,-0.0980930388,0.0378646079,0.2866732815,-1.1364570777,-0.0044986273,-0.9897155259,-0.8291960303,-0.3358818455,-0.8223920788,-0.9663599574,0.3673079711,-0.3204052706,-0.1160456858,-0.5811246086,0.9586766268,0.6752960688,-0.8310993108,0.2125925517,0.5352096459,-1.056768225,0.1313526308,0.066495257,0.4273251576,-0.8960031546,1.3109098663,-0.6580334338,0.4912192044,-0.4515255709,0.3308638699,-1.0395464583,-0.0474839822,-1.0599325992,-0.3089030318,-0.192989712,0.0817420864,-0.2874583644,-0.9487529159,-0.7839961816,-0.8309421612,-0.6756433673,-0.1110816356,-0.9420362111,0.3121281229,-0.9837161576,-0.6171999319,0.1006524322,1.4291461724,-0.5336744673,0.6167760167,-0.068152578,-0.7821537488,0.1640698684,-0.2857127781,0.6377524052,0.4144040081,0.6862137435,-0.6435909318,-0.6822288578,-0.8488571848,0.2825702164,-0.4326517343,0.2267751287,0.1587489601,-0.1487636357,-0.1337538358,-1.0630426593,1.0835248912,-0.7171793943,-0.4725341307,-0.810515952,-0.6685725089,0.3637779863,-0.5136408917,-0.8954441251,0.6382223102,1.2635750499,-0.4833741934,0.0124624669,-0.3993864234,0.4551354064,0.4355500173,1.4384709327,0.3657966665,0.5023989453,-0.1889941019,1.0004774709,-0.0504308423,0.7654717893,-0.7338393656,0.259723073,-0.7180102119,0.6379745157,0.3442281958,-0.3923669925,0.5383532492,-0.7585194902,0.3862607379,-0.5980350399,0.4681412653,0.0834807751,-0.0491328353,-0.8776873913,-0.4037577419,0.3701792524,-1.0336775218,-0.4770795664,0.1536047448,-0.3618506975,-0.5030050521,-0.1699645194,0.0146344253,0.5440736157,0.3975840443,0.7446957557,-0.471856501,-0.6628265545,0.5381439315,-0.0604061909,-0.068358268,-0.752492896,0.1445672491,0.209466415,-0.1683856217,0.3885280696,-0.895663955,1.0885607915,-0.4161353115,0.0091129344,0.8358969901,0.7290154855,-0.7002147844,0.439341907,-0.3814699131,0.0211080645,-0.4054375773,-0.9422037948,-0.6199537105,-0.3914048026,-0.4424381111,-0.198380153,-0.7903871155,0.0732618013,-0.4968962249,-0.1372711364,-0.4884572353,0.2494913956,-0.7158425406,0.0734362234,-0.2937846966,-0.8606828767,0.8173883422,-0.535737608,-0.2905640438,-0.6147289955,0.6807948301,-0.5104881249,-0.5723938293,-0.0630624577,-1.0175344086,1.2351160923,0.1824005807,-0.1092660476,0.9606153358,0.946609815,-0.266983015,0.3717831837,0.7173975441,-0.2718478666,0.154471183,0.4267005172,0.1559892985,0.3797156301,0.7864113561,-0.2935516402,-0.8270669894,0.0152584668,-0.8851779651,-0.0969633149,0.5735310003,0.130322013,0.0914074553,-0.5052385649,-0.0771087081,-0.3983346881,-0.8135483792,-0.0449743857,0.8397745163,-0.9407850593,-0.3401985367,-0.3198762532,1.1419211967,-0.7541871246,-0.3196316873,0.6757039646,-0.5961463347,-0.2028198289,1.2718106384,0.6680096509,-0.6313770574,0.5557280031,-0.6487864817,0.4959635375,0.2219709027,-0.6445693937,-0.3395680407,-1.1432716529,0.9973003551,-0.2910769579,-0.1772102536,0.1574778016,-0.4720357846,-0.0328220994,0.4485613878,-0.4717802054,0.0587692656,-0.2109632114,-0.7966546363,-0.5820822963,-0.1952845835,-0.8868653482,-0.0950376521,0.814545908,-0.0275017241,0.6245021146,0.9558845307,0.1565324097,0.4996269689,0.367790846,0.3951212463,0.9780226039,-0.3283056139,-0.4419459766,-0.1363858878,0.1172510252,0.9435005805,-0.535279922,-0.0574589743,-0.2023737439,-0.1874822469,-0.9679758566,0.6738936888,-0.1590024383,-1.0109120385,-0.4327695049,-0.3273473956,-0.5009157905,-0.7451186305,-0.5298185182,0.3637800541,1.0274781546,-0.0160504756,-0.1266052835,1.0857538028,0.8350629671,-0.5218761358,-0.3107116892,0.1368389089,-0.516287427,-0.4173464062,-0.6021662243,-1.1320882269,-0.2615651261,-0.4949614486,-0.1520591112,0.3001837283,-0.3778895344,0.1903096225,0.1556995188,-0.7804474904,-1.0012248193,0.0178136203,0.6673416162,-0.3982538488,-0.6499683227,-0.1842611659,-0.449525745,0.1291720296,0.501852271,1.0698011492,-0.5525945005,-0.0820646619,-0.3585131065,-0.7028858737,-0.3001679828,1.079782351,-0.4282726148,-0.7798301774,-0.3052246193,-0.9188271504,0.1943073576,0.1540650385,-0.3837840226,0.2479970018,-0.2173402954,-0.1959303137,0.1617516208,0.3330864195,1.1448964361,0.0577830857,-0.3587986284,-0.2680860779,1.098847722,-0.570917446,0.4660068465,-1.5114438461,0.2442716268,-1.0435068672,-0.2232714266,-0.9386621709,0.85701365,-0.0846958915,-0.254219866,-0.3456146748,-0.0174112609,0.1905468305,0.5733641125,0.4826324066,0.5476874515,0.1957768547,-1.2013132722,0.0457158345,-0.2988105795,1.1867681004,-0.8368455512,0.2775262251,-1.0538789362,0.0836898978,0.0991336409,-0.1687179193,-0.9699457847,0.927741707,-1.0626750987,0.2855960916,-0.2780677244,0.4578283658,0.0371831625,0.3982871675,-0.2745225605,-0.7424182138,0.1459859313,0.2546420594,0.9700674388,-0.0698280044,-0.2573347724,-0.3566775407,0.3433910681,-0.4624105887,0.0883916724,-1.4964413092,-0.5542866468,-0.1818738112,-0.359432684,0.5337705673,-1.0274910963,-0.1549104532,0.4650140443,0.0395108494,-0.0667901953,-0.2994200537,-0.3159473694,0.1183734527,-0.2434504357,0.7834993112,0.3617176504,-0.3779832113,0.8115632632,0.2695275506,-0.7297511501,0.155370214,-0.5484877958,-0.2659311507,0.0148387681,0.9289904056,-0.0133481036,-0.2411544119,1.1484067433,-0.9627140734,-0.0848073716,-1.5173144578,0.0756896926,0.8514596584,-0.1231651643,0.617112427,0.1820766418,-0.5874418375,-0.4264897062,0.1675402419,0.5335567434,-0.1481739946,0.8028588056,0.8544066867,-0.7777752501,-0.829002998,0.4539189451,-0.6302442087,0.2102762719,-0.5162702672,-0.5571440726,0.5625848554,0.4119463216,-0.044884613,0.1988295225,0.3597092198,0.7472508041,-0.1048916283,0.4178926423,-0.5444100625,-0.7489296028,-0.5413963592,1.0216780979,-0.2969388587,0.7972466005,0.2781516019,1.5198842696,0.6088617027,0.0917109252,0.8148855925,0.3679447834,-0.6234453243,0.0525712793,0.6262738144,-0.0927635119,0.8263996999,-1.2472232157,-0.1451450565,0.3870607514,0.1161871022,0.8309881927,0.708887926,-0.1590828287,-0.0583751852,0.3249042307,0.1389373428,-0.2001168726,0.1759786297,0.519435047,-0.1318652216,-0.6583700602,-0.1700318933,1.5298333843,-0.4177907551,0.0207086139,0.6860597417,-0.3970418716,0.5549042152,-0.4460097883,-1.0003502858,0.7792495528,0.95520234,-0.7200442427,-1.3541535727,-0.8946678012,-0.7576927806,1.0327795058,0.249038468,-0.4111398775,0.4005568033,0.2349071954,0.3708660473,-0.2678779916,0.7390377362,0.0270713761,-0.1058159565,-0.0476380187,-1.0322969996,-0.2951436077,0.052817806,0.8449502074,-0.8245010108,-0.5879202776,-0.4268164698,0.2416360014,0.0136618252,-0.4038596314,-0.1910710677,0.7858191779,-0.5080591728,0.5085640601,0.6167710715,-0.6208393823,0.7847197646,-0.0838305661,-0.5402769738,0.0732017602,0.0090586936,0.0462934012,-0.794637432,0.860672149,-0.1916032246,-0.6243877255,-0.8528853986,-0.7945829155,0.6589081337,0.8354753717,1.2377970241,-0.6965572972,-0.1445537528,0.2377553119,-0.7579419711,-0.7717244525,0.96331842,0.5603543561,0.0618498626,0.1953515153,-0.8719528975,0.6518930396,-0.238280339,-0.6095319668,0.2257251509,0.1591940992,-1.0495759877,-1.2865969526,0.0309747747,-0.8211935271,0.1072562306,0.6950580637,-0.249648946,-0.4272650036,0.0342970106,-0.471275116,0.1820816261,-0.1724748943,0.6596724244,0.6213903989,-0.2199202135,0.2227059763,0.6323309807,0.5057619007,0.3600450263,0.0884878757,-0.0485456129,0.506774575,-0.165485057,-0.5998804517,-0.1396928917,0.3144083952,0.5623044887,0.1972851672,0.7954986054,-0.0585192025,0.9912095539,1.2054338414,0.1050520254,-0.1091967286,0.1921912159,0.220020151,-0.6774370673,0.1313069293,1.0449925045,-0.256480233,-0.8211533564,0.6942635528,0.1948712869,0.6896665195,-0.7149825039,-0.9859819,0.1480899685,-0.4791005394,-0.922556903,-0.2737579575,-0.3218287429,0.3595095331,-0.3992024799,-0.6983335653,0.2741885419,0.4951221105,-0.6980119768,0.1673982163,-0.4284093849,0.3779194375,-0.7528829501,1.4560421335,-0.659843598,-0.6648309643,0.4210741842,-1.2992108639,0.3638465349,0.564607101,-0.8306346743,0.0265288458,-0.2334600883,0.3289522879,0.7537861883,-0.2352346454,0.2933841285,-0.8419127568,-0.9169148635,0.6270904338,-0.017365027,0.4114319051,-0.8177826106,-0.5043291263,0.1889274895,1.2364646728,-0.3779304117,0.2510546063,-0.4835956019,0.1262738405,-0.699058192,0.3347746135,-0.0220193426,0.8529999966,0.2117186206,-0.2814676656,-0.8213372902,-0.8968123446,0.4159548977,0.0963046174,-0.35259925,-0.4676043907,0.2573140676,-0.7396708792,1.4730431075,0.3070623495,-0.1930778066,0.0455774881,0.2823164585,0.7336428589,-0.6702180933,0.5269156697,-0.5795088022,-0.0323013095,0.2055283169,-0.0622231959,-0.3307169637,-0.6114453251,0.9830820557,-0.6191816279,-0.3775796565,-1.4545651357,0.2107754476,-0.0143328908,0.7912810558,0.009036662,-1.0836710387,-0.4843205651,-0.4412065514,-0.7791051822,-0.3272663542,0.8163521866,0.549355159,0.0088268534,0.4266819304,-1.5476521446,0.5451534218,0.1074368333,1.0816559451,-0.466081266,0.1123212416,0.6123016105,-0.6109602107,-0.4267978359,-0.0381906446,0.3936850518,0.2079207956,-0.9723801494,0.3500488312,-0.9575648162,0.1699196226,0.559684695,0.5789569246,-0.1345329824,0.5233018486,0.3742981188,-0.1622672039,0.2471352121,-0.360651012,0.3108622476,0.4681873396,0.7494813929,-0.8463130812,0.4648802735,0.163914893,0.6022447362,0.1231150032,0.54128485,0.7055023436,0.754734803,0.8671489132,0.3316533165,-0.24807706,-1.0329564982,0.1451659279,-0.530441251,-0.5902607841,0.6899630007,-1.0248101418,0.9387148354,-0.8524309547,-0.0757595909
   -0.6912285406,-0.3985040471,-0.339624631,-0.7085653128,-0.2766574887,-0.9184361856,-0.2016285707,0.7188220522,-0.4502784672,0.0354984602,-0.6623552277,-0.5550515336,0.7380697563,0.4964949563,-0.7961362464,-0.5966483495,-0.0814961152,0.6171189202,0.4521021271,0.4279353251,0.7400591037,-0.0890396207,0.8441885358,0.7404041662,0.4435154063,-0.1907019253,-1.3795839854,-0.1476394421,-0.2845255514,0.2330187788,-0.9371065517,0.6622185743,0.2464595425,-0.6984322988,-0.7961382629,0.7455390109,-0.0977083008,-1.4805329933,-0.5202275359,0.8899228563,-0.6315015791,0.3339364409,-0.481739181,-0.541310538,-0.3722769005,0.9031300179,-0.8181384505,-0.0261979322,-1.5094901083,0.3670880364,0.4103504859,-0.9988448222,-0.2103016715,0.1712178829,0.1832406009,0.0714991771,-0.0408568985,0.4395006522,-0.7234610406,-0.6604354109,0.1985483234,-0.0672292639,-0.0591961354,-0.7066922511,-0.6971045723,-0.7682253016,0.4596589313,-1.4579998021,-0.421438941,0.9175556748,0.6184248091,-0.5742745725,0.0689108866,1.0205839991,-0.3098409437,-0.1979339968,0.8793004039,-0.9749124394,0.3821581748,0.4682615273,-0.4310069644,-0.8108784786,-0.0419534231,0.0021476829,0.9111919856,-0.0110641936,0.165818981,-0.1280135181,0.855050521,1.5668447334,0.5561221913,0.5695246359,-0.32184429,0.6008911373,-0.5408812381,0.2369153537,-0.4083558076,-0.3602581619,-1.5831247508,0.3369541105,-0.6309620512,-0.9604631831,0.2050611077,0.7139579503,-0.9327234534,0.7385099472,-0.2048844624,-0.3496348604,-0.2261833243,0.2396422852,-0.1540773558,-0.5581687041,-1.000645618,0.4104287057,0.7650603646,0.380189322,0.4082740052,-0.642647939,-0.951353103,0.3934853267,0.4621324201,0.7081183543,0.4063642554,-0.7255669001,0.7871750512,0.6624700024,0.0888998228,-0.763457827,1.287878413,-0.130189202,-0.1148108081,-0.1437283845,0.2096566602,-0.696225505,-0.297812556,0.5178712868,-0.8980413716,-0.977661376,-0.1006332011,-0.8235635605,0.4127138321,-0.4316558331,-0.4354304333,0.6264120486,-0.507657867,0.0541029826,0.0749583676,-0.7138761159,0.6770241615,-0.3401621749,-0.2964516714,0.5366554307,0.8347845311,0.8136321399,-0.2208182328,0.0444998111,0.4948508587,-0.0578475948,-0.137118675,-0.1281135892,0.689538937,-0.8853632116,-0.6508091451,0.8567244799,-0.0603712447,0.7454979503,-0.7669116779,-0.9610583332,-0.7417584649,-0.5152979997,-0.9047443363,-0.8587916982,-0.9482231353,0.429255104,-0.2043161677,-0.1753514838,-0.4264108132,-0.7094475842,0.4691398061,-0.5286585643,0.691294392,1.0050578432,0.0324580643,-0.5805007478,1.0950291573,-1.0001150491,1.1432380272,0.322522613,-0.7063964736,0.8214585455,0.2908322802,-0.4417262514,-0.454877629,-0.9046539581,-0.4409204822,-0.3471741654,-0.7154868275,-0.8088726465,-0.1072333103,0.5387452663,-0.4974975615,0.4922310432,-0.2079184097,-0.0934122714,-0.8123651896,0.858924118,-0.3965547631,-1.2391217962,-0.7032726397,0.6878794316,-0.4817360092,0.9790742957,0.2225749338,0.4691270741,0.4169646235,-0.2403757816,-0.248259554,-0.5858029349,0.2242121893,0.908566283,-0.0282920297,0.3329016507,0.7669984629,0.3533625158,-0.0659644947,-0.7392211123,-0.9491042325,0.5914474642,-0.5161243623,-0.8538646901,-0.3437339441,-0.9492719309,-0.728860714,-0.9093909115,-1.2311330382,0.0463710097,0.5769366878,-0.3926690725,-0.1500022313,-0.6436698123,-0.0358281062,-1.0648969085,-0.6035089307,-0.3377620613,-0.0640332788,0.681901179,-0.2068074265,-0.7859293468,-1.137152138,0.7321590011,0.2195650691,0.7367575064,-0.1448675906,0.197211853,-0.3543479183,0.9332661676,-0.1271201105,-0.8092848078,1.5134017545,0.3630379359,0.5145228941,-0.2486936006,0.5430361735,-0.4694686961,0.0809677969,0.5239225737,-0.2704611226,-1.7760387687,-0.699134251,-0.8766235294,0.3878793465,0.509819407,0.5031713964,1.6745581456,0.3872747533,-1.8140328026,0.9784891282,-0.7157581367,0.5483675532,0.0181018737,-0.1342269417,-0.0175941065,1.1111947214,0.2854641129,0.4853267392,-0.5311659652,-1.1436273988,0.4236877713,0.2090061804,0.2778947079,-0.5502074023,-0.2435764072,0.2583872648,-1.4010275206,1.0015075528,-0.6746777368,-0.6995098315,-0.7332199142,0.0074623358,0.5294989356,0.2220254246,-1.4086299828,0.876022516,0.4780025185,-0.3241109715,0.2453094679,-0.959881463,0.5389685139,-0.4267348264,-0.3606211797,-0.1969312195,0.1558722993,1.056162316,-1.3045450337,-0.2091984229,-0.4847866118,1.5762492227,-0.3496178499,-1.0663227321,-0.5344594662,-0.4647049642,0.2654759594,-0.0352981754,-0.5031465829,0.3878145966,0.2783140944,-0.3997902353,-0.5722835693,-0.3749987885,0.9312696086,0.0509710924,0.8556712451,-1.6752962328,0.2359500467,-0.0006276385,0.0148320677,-0.6932364793,0.7723585032,0.1407644299,0.4562767961,-0.4377749394,0.6100716689,-0.3979864072,-0.1200856224,-0.1132001683,0.1562943829,0.0561246483,0.3743575896,0.049289577,-0.0508219834,-0.628072039,0.1975713227,0.5196774939,-0.5619073891,-1.2043174865,0.3873023975,1.4056830117,-0.4829758072,0.1388863281,0.8884462168,-0.1750206873,0.1575931977,-0.3225314126,0.7579492406,-0.0125463538,0.4359014797,-0.0424140123,-0.3457654074,-0.5628307122,0.13174376,0.5315312393,-0.2531440825,-0.8668106829,-0.4124619789,0.1148712751,-0.5720979329,-1.2634962332,-0.4639795375,1.5350646283,0.2861395163,0.3208051526,0.4503039439,0.9591252326,-0.1735830146,0.3898048965,-0.1811182961,-1.0380194037,0.618557209,-1.0303154421,-0.9844560912,0.536642438,-0.9185866964,-1.3092032545,1.7683693283,0.1386174159,0.2014616293,-0.1452566097,-0.3527818704,-0.184077775,-0.8467791015,-0.0809530581,-0.0875497293,0.0008588693,0.5265022313,-0.6157053341,0.0137175424,1.0526269,-0.3002196879,0.0077833768,-0.4919377641,0.3743891605,0.0387107279,0.8529652335,-1.0510814474,-0.4623373921,-0.4781229236,0.505255057,-1.4651273515,-0.1501348703,0.1226326578,0.2809934784,0.4453539332,0.5322057415,0.1801138703,0.8722509276,0.7198051785,-0.6508969489,-0.5988022212,-0.3769507073,0.2327525158,-0.6773538268,0.1340788884,-0.4205359394,-0.355684513,-0.1116088023,0.2819104266,0.3084294274,-0.0219576662,-1.2459372959,0.7917913757,-0.4057402425,0.347277322,0.1445314112,-1.032843513,-0.795240507,0.4356327412,-0.141477589,1.6099021585,0.7584936872,-0.0087658525,0.1840476158,0.6884002313,0.111734981,-0.092241577,-0.1450235682,-0.3582997748,-0.2846118858,0.0209125564,0.241096211,0.4527397434,-0.5677277026,-0.6822757445,-0.2726137578,0.1503607595,1.0724633236,-0.3134298311,-1.3647395744,0.9396746651,-0.8707122416,-0.189451106,-0.4376292099,-0.3226093513,0.6272412532,0.0857914127,-0.599896493,-0.3681164726,-0.6162556546,0.2132307164,-0.140337487,-0.8690607618,1.0476848888,-0.7459994668,-0.5372788474,-0.8724711088,0.4664598836,0.0143814354,0.7115241965,0.555331561,0.6711274321,-0.1999441591,-0.8143229577,0.3469004511,0.248018887,0.3433089742,0.1086616123,-0.2154968428,0.0699888433,-0.3036599031,-0.6918070146,0.4312802171,1.1571155597,-0.4903816085,0.550815919,-0.3760957908,0.0813043252,0.3690811732,0.0230305708,-1.2958107823,0.4772132895,0.0237853949,-0.4495289131,0.9742600628,0.4445797477,0.0481119797,0.6082540785,0.6756343368,-0.5683171346,-0.6011091727,0.5682808695,-0.2016410914,-0.1562320668,-0.0483786382,0.1712459594,0.7610266068,-1.0921701307,0.2114962993,-0.3372760218,-0.4024887321,0.019590039,-0.6621358724,-0.571074429,-0.8117851935,-0.4049894269,0.721895806,-0.6226841109,1.0053492594,-1.0106046098,-0.862751318,1.0341736246,-0.1527180925,-0.3165987769,0.0242599732,0.2923343597,-0.3789713684,0.6461174871,0.5435756475,0.7793782778,-0.1545482845,0.6986536514,-0.1658297938,-0.305105101,-1.2709498505,-0.0238013585,0.4726239905,-0.2890193661,0.4408796869,-0.7361692276,0.376318419,0.4646898385,-0.9613124291,0.6285882795,0.911850895,0.4755839585,0.9726083574,0.9087615766,-0.4007559366,0.1794815991,0.6090835948,0.2834676106,0.3688396066,-0.8881461712,-0.5166285663,-0.7410069261,-0.9071107165,0.0412791696,-0.5297378601,-0.0277973531,0.7967720017,-0.2105350693,-1.0807588798,-0.4920373343,-0.1638736901,0.7851173159,0.0364774453,0.1874391147,0.6753250639,-0.4740017181,0.4080216336,-0.3283499278,0.5719588658,-0.5904258866,-0.2851116479,-0.6976227138,1.4229330539,-0.4094605583,-0.2975733606,-0.5452255151,0.366430071,-0.9952283844,0.3873295988,0.1498863473,1.0892858776,-1.5908853116,-0.5818280344,-0.140620498,-0.6524824692,1.2265948439,0.2501611283,-1.2464549705,-1.0936502129,-0.2992812683,-1.251318596,-0.2169178644,0.1997786191,-0.4831180166,0.6412988295,-1.3817320024,-0.1370042128,0.5293190526,-1.1891234274,1.0295030853,1.1670921034,0.5140205638,-0.1050192866,0.5957203039,0.5106413889,-0.7649001719,-0.324170926,0.8127956211,0.7802642038,-0.3211361561,-0.6267981236,-0.7442916176,-0.1016760014,0.6970504307,-0.2338493221,-0.0910137203,0.0903514379,-0.1441350729,-0.3011208818,-0.3139618102,0.5142176261,-0.1685807801,0.0997525987,-0.6051568693,0.2633204795,0.6197647981,1.0670878855,0.1440209139,-0.4810355926,-0.2955360213,-0.9564390101,-0.0274808021,0.6056284618,-0.3828175949,0.4679300814,0.3605714072,0.5892694231,-0.7827917412,-0.1771581378,-0.5957735982,-0.6913012803,-0.416023981,-0.1427894587,0.657410566,0.0526737337,-0.8013213257,-0.1931603849,-0.7804056929,-0.391527978,0.1448659942,0.0156844113,-0.0561089337,-0.7690195653,1.1041647819,0.8928346342,-0.9444924057,1.5000685162,-0.043889779,1.0261915274,-0.0766678477,0.7924435666,-0.6988676352,0.0379500162,1.3665189082,0.7404418987,-0.7761485442,0.6711812674,0.5726678378,-0.4242857541,0.6494330915,-0.5130676515,0.453240291,0.5314709874,-0.6734813569,0.6316834796,-0.1832612467,-0.7509988675,-0.8277263642,0.7155744063,-0.4516242244,1.1678015139,1.2469607959,1.2053480015,0.2197590458,0.5450594318,0.4810462291,0.8165466317,0.6332595098,0.4898420737,-0.5244593617,0.4765224248,0.7154559016,-0.6794525345,0.7925892162,0.7055614636,-0.2896112925,0.5147987001,0.1751469248,0.0707777954,0.797845868,0.4337869245,0.6536850441,-0.1683678221,0.6625446022,0.0262935724,-0.4417269003,-0.5153300571,-1.5811690161,-0.059045678,-0.6333898604,0.5704399964,-0.4893652005,-0.6447538522,-0.8055917343,0.2161993395,0.2940235662,-0.0345807589,-1.1252003577,-1.125234684,-0.578260069,-0.4031534208,-0.1886489104,-0.25648479,0.2260156643,0.272489973,-0.6726208554,0.6972957,0.1309550163,-0.6759543245,-0.7252508754,0.2727124281,0.4540295924,-0.3803665289,-1.165600093,-0.7893267046,-0.5430441121,0.7136052339,-0.6686455163,-1.0302367619,-0.7214891933,-0.1118329532,-0.9354350618,0.149039006,0.0118548846,0.9211354588,-0.5264375239,-0.8384136582,0.4592880719,-0.9679657408,0.0062106749,-0.0862332022,0.1626111945,-0.4850192595,-0.3859816502,0.3772819399,0.4375756742,0.4610256245,0.1443599762,-0.9879667711,0.60793423,0.1759564507,-0.2114044407,-0.393558046,0.2325838464,-0.2213834834,0.2161982669,0.7645160473,0.4724321676,-1.1316304207,-1.0121601042,-0.2470444857,0.6779251338,0.0985653116,-0.3142809521,-0.5075754414,-0.1481926926,-0.7461458162,-0.2054672152,0.1531763873,-0.3623011067,0.2454613781,-0.1425050611,0.6080523207,0.8266881205,0.2784534486,-0.0998232993,-0.1146677378,0.4303104793,-1.3231352416,-0.5836288525,0.1361417364,-0.7250327211,-0.9382289385,0.8835460816,0.9258374541,-1.389023703,-1.7959675715,-0.2082998264,-0.0373906465,-0.0090856574,0.6428257837,0.0469977213,0.2984508719,-0.3459093786,0.964014834,1.1117661832,0.3383253274,-1.4877074871,-0.8321070746,-0.629869676,-0.829302723,-0.8001289756,0.5047507099,-0.1831862585,0.2620316405,-0.2928816803,-0.4191718475,0.781795195,-0.9511093191,0.4146756267,0.0246925613,-0.724736049,-0.2135213395,0.6132445992,-0.5767312907,-0.2599303504,-0.952411312,0.641414791,0.3744530867,-1.0691960597,-0.4672750779,-0.2376761836,-0.018643184,-0.3197780968,0.2950440694,-0.7434443721,-0.3162251419,0.3290993123,0.1850014367,-0.2185271837,0.1228274254,-0.7860420683,0.3368757914,0.3516977732,-0.2527152646,0.0997909839,-0.3662062201,0.1093137455,-0.5593855058,-0.2543091804,-0.2092960753,-0.3051352473,0.6121523268,-0.8274455737,-0.6435018536,-0.2777991016,-0.927348863,1.2403761667,0.8068119355,-0.654654947,0.2956132854,-0.0398565311,0.4453930422,0.2704937307,-0.1363888117,-0.2705511144,0.3539186453,-0.3437896239,0.5145095783,0.4846699845,0.0277205641,-1.1738706568,-0.2982679207,-0.6036844083,-0.0634895514,-0.0115332445,0.1720911848,-0.0476107074,-0.0785297343,-1.1319860735,-0.3408305243,0.3013403937,-0.0277095503,-0.8429082302,-0.5248845234,-0.7091310131,-1.5840045953,-0.3507964974,0.9228844912,-0.3043396573,0.2425654205,0.3245541963,0.0583750941,-0.5134519843,-0.6898912814,-0.3342727796,-0.6617733541,-0.5344679432,0.5930387296,-0.36472216,-0.0132807511,-0.6151829511,0.6607615291,0.3842356429,-0.4871488234,-0.3552055076,-0.0570443186,-1.1569489307,0.0667648435,-0.06532746,0.5259050018,-0.1744141031,-0.9154877324,-0.4615968295,-0.905007198,-1.0161391332,-0.6013008574,1.3685773681,0.379639756,0.2368965766,0.5796935184,-0.4874287011,0.8890905283,1.1149824673,0.6524640787,-0.7985645574,0.2164427379,0.7034318784,0.5258692724,0.4903010377,-0.5518546321,0.7186942029,-0.2893035844,0.2564471539,-0.2343245057,0.044078316,-1.2493562274,0.074796709,-0.2233979193,-0.1414769281,-0.4309744545,-0.7724686815,0.9420943833,1.4969856713,0.548307637,0.1210042049,0.1572016077,0.404969748,-0.8375000547,0.1482766609,0.4504832614,-0.2558759124,0.6965099658,0.0958816439,0.3146439491,0.1832471514,-0.8369629381,-0.3613092365,0.0395642588,-0.4044362012,-0.0118018378,0.0738052852,-0.1380111638,-0.1520474365,0.1600378239,-0.1327580381,-0.149082554,-0.2667178314,0.436147111,0.0245237009,0.5851949123,0.2444350094,0.240700751,-0.9328930472,-0.1244078103,-1.8349010896,0.8020779753,1.5040712431,-1.0415501514,0.4020958448,0.5074263142,0.7087454652,-0.4601083566,3.3890792175,-0.6462601092,-0.3933395433,-0.1564300054,-1.1663873868,-0.5676373461,-1.523798122,0.0854792642,-0.0807535909,0.0874675913,0.3641903763,0.0078773236,0.270665302,0.7768386583,0.7226202903,0.0082597241,1.455962268,-0.1597483097,-0.2015777083,0.7885845286,-0.7971637106,-1.3198756116,-0.3683910062,0.3131783212,-0.8426863607,-0.6399852526,-0.4585725554,-0.7952640195,-0.8788793405,-0.7976345747,0.8393543961,-0.4394286967,-0.1195354006,-0.9761230342,-0.1612430601,-0.2569929624,0.3395624352,-0.8819947783,0.9366359958,-0.0458546605,-0.1531021165,0.3195314093,-0.9583421504,-0.3978395198,0.2636603042,-0.991214325,0.95341517,0.8115457067,0.1663152411,0.36296753,-0.5492534293,0.3209994197,0.1819727636,-1.383420092,0.2413212092,-0.8890927518,0.9967826164,0.5294849511,-0.2173621243,0.8980317766,0.5043596862,-0.2455997165,0.9769208141,-0.1974768107,-0.3400876941,0.1759178697,0.4974608206,-0.1103964007,0.8891333249,0.4605759479,-0.5778426899,-0.2507594921,0.5785284585,1.6800856012,0.0132646912,0.6104109037,-0.3840826882,-1.2537951309,0.9038814196,0.6756628942,-0.3114474119,-0.1701897395,-0.7849211674,-0.9621397288,-1.1426015797,-0.7087831382,2.3938459123,-0.716306328,-0.2948471954,-0.6927795053,-0.6850756676,-0.999902853,-1.3812837768,0.1575376972,0.3185881051,0.5366817079,0.3820316602,0.3405322949,0.6947444021,-0.7316839371,0.0769933595,0.2929755706,-0.5409191429,-0.0018016041,-0.4315721091,-0.4279025122,-0.4368718705,-0.8560581363,-0.4662910563,0.0802032588,-0.1365682145,1.2427798636,-0.0291846801,-0.7438273977,-0.6618359224,-0.1297634838,-0.6114765021,-0.1875956599,-0.6086581875,-0.0628267485,0.816796964,0.1435382251,-0.1154200898,0.5806419366,0.4158430813,0.5236946564,0.817489633,-0.2875851896,-0.2949378364,-0.6516979441,-0.8510447531,0.0381691665,-0.3229386427,0.9396278293,-0.5505537533,-0.1068265481,-0.0708682947,-0.3677523699,1.0295699509,0.2319939845,-0.0459544381,1.5694171261,-0.7664795863,0.2925363105,0.2594892678,-0.4332682959,0.1092377862,-0.6432278244,-0.3385917191,-0.4936745051,0.0939810251,-0.2071127584,0.0362755715,0.0842981674,0.4058047891,0.0402658139,-0.3236991864,-0.2328060613,0.3265987919,0.3040115276,-0.064583364,0.5041193184,0.1688984442,-0.5191756337,-0.6348113189,1.5115194751,0.6634538223,0.5696448219,-0.1122603358,-1.1540658868,1.0957064536,-0.0827620975,-1.1059917237,-0.485168844,-0.1050696191,-0.5233199798,-0.136090437,0.3646241673,0.6518200683,0.0605069902,-0.337028501,-0.232971942,-0.5568717257,0.5186493429,-0.11868627,0.8036031523,0.836610202,0.6026872882,-0.1238804661,0.5155840457,0.2558749531,0.5450007691,0.1628678681,0.0543507081,-1.1311183048,0.3040835065,1.2650785411,0.032962863,-0.2442303247,0.4872916444,-1.6973406005,-0.3193355643,-0.3228698935,-0.5061191195,-0.5804049134,-0.5151610483,0.3364743706,0.5600756265,0.050925628,0.0659137565,0.6360649999,-0.1552622892,-0.3809454129,1.2454636156,-1.5030691589,-0.0114959725,0.7483711767,0.145522751,-0.9412745464,0.1768032106,0.1070328705,-0.48790731,-0.2535192626,0.0623801535,-0.7533734114,-0.1749633815,-0.0948909746,-1.3642773072,0.6454632072,0.9735116012,-0.4230107643,-0.1123164561,0.4196382629,0.0544803288,0.8420482747,0.220563839,-0.7343549419,0.2715631256,0.8602767939,-0.2062093482,-0.2497499762,-0.1133776329,-0.0443164819,0.1775172202,-0.1729593966,-0.0455980954,-0.6773876807,-0.1776856481,-0.2678906403,-0.2123966475,-0.7758018297,0.7195694024,-1.3204813863,-0.008434695,1.0268606889,-0.414498234,0.4830214794,0.2891072691,-0.0309787961,0.1528656771,-0.5670458416,0.2269640823,-0.4452893996,-0.8521531662,-0.7432002467,-0.4433532556,0.8633937898,-0.513378423,-0.171837085,0.2402987831,-0.4224012755,0.3064447029,-0.0165938102,0.9392126842,0.091715532,0.2070412658,0.9513295267,0.8333504309,-0.0543641697,-0.7867895872,-0.4589596694,0.0203242658,0.2515770941,0.7663159295,-0.3683306415,0.0619054741,-0.2092050611,0.4274993327,-0.2542124562,-0.5948519507,0.2800434164,0.0814198807,0.1776734455,0.5435623408,0.3399567043,0.9641812366,0.0505049215,0.4049604269,0.1483925042,-0.695029893,-0.7729904788,-0.3177987394,0.5929620855,-0.7854525336,-1.081245379,0.1628598857,0.0420472713,-0.4006637015,-0.2566858566,-0.3558097938,0.907192638,-0.1085131692,-0.6355961967,-0.4382862663,-0.9026894091,-0.3851716658,-0.9237199213,-0.33096136,1.968957478,-1.0279857736,0.0175094707,-0.3870663737,-0.4496246147,-0.4037974136,-1.097777202,0.7037092393,0.5733980231,0.417074158,0.7944594616,0.978607067,0.918990247,-0.0099937512,-0.2251285091,-0.3727353185,0.511284118,-0.603104397,-0.5799283711,-1.1315995209,-0.9803536925,0.0416649371,0.325225966,0.0049644505,0.3466620436,-0.8185089367,-0.8583461234,-1.1020073041,-0.5742217298,-0.190715327,0.2985583674,-0.253890346,-1.0036728234,-0.5847130771,0.6075669572,0.2536801739,-1.9901813891,1.1245722176,0.5585767184,0.8458707965,0.2080489311,0.3022476662,0.2387345311,-0.3422899583,0.4431271548,-0.6695863611,-0.5381573057,-0.4057752949,0.185209715,1.4367916719,-0.3983481706,0.3357819299,-0.7140019775,-0.0032754986,0.4542980817,0.4366185654,1.0737333335,0.7888683713,-0.5639641897,-0.5052784654,-0.1727709304,0.7953818547,1.0408130854,0.358504711,-0.1491263905,0.0862824393,0.3626402323,0.1834923971,0.5718303508,0.358468344,0.1994795298,-0.5206459521,-0.007753883,0.4821171063,0.6083141105,0.8028072994,-0.8896373114,0.9370827082,-0.6066551719,0.7526080671,-1.5625240341,0.0718542289,0.4444404681,0.341325512,-2.0747266215,-0.7079061712,-1.27283097,0.8969067995,0.5111076696,0.5382673373,0.8715362398,0.8261193909,0.2692163603,-0.12478158,-0.8053389175,0.1562661179,0.1614196822,-0.4237248711,0.9366251346,-1.2298550411,-0.8081583005,-0.2459748403,-0.558489948,0.1352518394,0.3108851162,0.1108798257,-0.4622893309,-0.1429606012,-0.6123906666,-0.9626737091,-1.4158447854,-0.3368694292,-0.6105048934,-0.4376446445,1.051624049,-0.0469513909,0.7102793074,0.0707561001,0.1034933903,-0.9585085346,-0.7997241636,1.0000101428,-0.2606097166,0.1017461014,0.1141108112,0.0180257331,1.0392986454,-0.506059035,0.3046422498,-0.9767049937,-0.2985973029,-0.1715483198,-1.1258111934,0.0152688678,-0.6197730015,0.2886988897,-1.8651004385,0.112833964,0.9428534252,0.0353463236,0.4501761542,-0.1799726884,0.0318437665,1.8349472713,0.1463619962,1.0234683586,-0.1745348802,0.7955482437,-0.3045817776,-1.0953231842,-0.3578411877,-0.8682477901,0.0768932867,1.022237704,-0.0816117127,0.2094509879,0.4439221286,-0.194467853,-0.4906591376,-0.7176525897,-0.2129908175,0.063229344,0.2449312981,0.2016940614,0.463602069,-0.2089831603,1.094418919,0.333241995,1.5415144336,-1.7630740502,0.4043282108,-0.9051311104,-0.5065541222,0.2814967552,-0.4438627117,0.2597687072,0.7702025651,0.4382247909,0.7504086156,0.7292710234,-0.7050317215,-0.30407988,0.5073606674,0.3733316775,-0.4323287155,-0.0567074029,-0.4242294168,0.5675859763,-0.119803254,-0.4601263468,0.7427309717,-0.5702128886,-0.9879887486,0.5007284442,-1.3163786305,0.272604294,-1.2264419082,-0.7591784394,-0.6573343962,-0.3381332212,-0.1535254157,-0.7979405951,0.4663859485,0.2574330943,0.2626810129,-0.0802742477,-0.3131563968,-0.3539113229,1.1396225535,-0.4780638665,-0.7307424605,-0.1445034427,-0.4534529184,0.5245482312,-0.3409332309,0.3560770673,0.5194756222,-0.3854991397,0.6235065825,-0.1085955036,0.3970139702,-0.2851823173,0.0300055073,-0.5144392122,-0.2535763328,-0.6810496977,-1.2451232293,-0.3646484704,0.4350708512,0.1867601534,0.921824266,0.3384182976,-0.3446201714,0.3181267486,-0.2423975116,-0.1136715483,-0.200516626,-0.4308056377,-0.4061031736,-0.1780942676,-0.0516297294,-0.1379562112,-0.0064384519,-0.1688557947,-0.4079488777,-0.064965905,-0.2113301187,-0.2441333685,-0.9505219218,0.1581651987,-0.8911755525,0.6617998287,-0.9546738274,0.9646491067,0.4258093342,1.2220967636,1.4008049124,0.9182779915,-0.8111236416,-1.0902351915,0.5702267019,-0.8205116202,1.092579428,0.7644359355,-0.0793818302,0.4848491949,0.1589883736,0.1059383973,0.2765533596,0.3171953436,-0.2828253976,0.2635140792,0.1166975472,0.7549785093,-0.3825615336,-0.3886655807,-0.2011653074,1.0233849911,0.9743708913,-0.4453582128,-0.3415357819,0.6296347981,0.4243880991,-0.1010401647,-0.4294596373,0.3030914441,-0.1483730396,0.311256981,1.2866026689,-1.4157352612,-0.635693941,0.8133351134,-0.104123241,0.1777939241,0.1044774937,-0.9201160219,-0.9375182027,-0.6271032614,-0.6990378405,0.8520660078,-0.3451096538,0.7775842659,0.8127400745,-0.2062821617,-0.4545172578,-0.8819528476,-0.4723471925,0.0540783932,0.4924471309,0.8072657915,-0.0478464736,0.3183677743,0.1797219099,0.9098008629,-0.6485261985,-0.6871799983,0.3517937483,0.4636948916,1.0030683579,-0.6697961889,-0.30619857,0.1824652438,0.2158524872,-0.8095689798,0.3824908701,0.346070339,0.4391895802,0.4498213023,-0.1162194745,-0.5539522145,-0.0575515717,0.901760032,-1.0544273806,-0.0292233059,-0.3062237086,0.8352699998,0.4050479654,-1.1967590128,0.0329440096,0.2141410235,-0.7283751075,-0.2032478371,-0.6094438471,-0.352678867,-1.7416976434,-0.727715658,-0.2687733602,1.4236963067,-0.224020803,0.8899930515,-0.8115403082,-0.3755722159,0.6394312931,-0.192645131,-0.6320325649,-0.6447738854,-0.5183159926,-0.1378206089,-0.2808687171,0.6049449578,-0.0167064969,0.0647275816,0.8507650159,-0.7836792213,0.5725709694,0.0120662978,1.1417103488,-0.1360025608,0.0718402403,0.4501437551,-0.4128376148,-1.1159823368,-1.4630368486,0.6382385512,-0.3744387385,0.7066021682,0.9446790065,0.2984355819,0.013637731,0.3031645459,-0.2170752061,-0.5903912775,0.8822854464,1.1835285502,-0.0658453647,0.1151936889,-0.1107847993,0.6015950269,-1.1888025413,-0.3052428813,-0.328619538,0.6104747129,0.3996261675,0.5849779627,-0.8077097609,-0.5517684903,0.7789263129,0.1100617894,-0.6982631742,1.2474842104,-0.0353551393,-1.0430316448,-0.8308265258,-0.6798990838,0.4775905973,0.8282439127,-1.6717205753,0.5696091051,0.3949444811,-0.011824533,-0.4499599647,0.4878923168,0.5992818912,-0.217886861,-0.4143498265,-0.3459742239,-0.4292609104,-0.5718417139,-0.8959658948,-0.5450079818,-0.2237746493,0.0186108484,0.5076163373,0.273609468,1.0120223556,-0.2668149185,-0.1678137878,0.9905977092,-0.8414679112,-0.3700455899,0.2263631295,0.8955561733,-0.179597946,-0.7032612349,-0.6147731606,0.8785598752,0.3875333764,0.2510074679,-0.0288775321,0.0849744122,-0.0988456258,-0.0130164667,0.0875463722,0.4114809195,0.2176691872,0.8575819475,0.0587881272,0.3729011384,-0.2125191608,-0.8175147556,0.4536152185,-0.4733021969,-0.1867508574,-0.5247653322,0.166801075,0.7903542744,-1.2181521657,0.7167090644,-0.5730020298,0.460063053,-1.662235271,-0.8750490047,0.4197127467,-0.4372232811,-0.418870278,0.3454620017,0.7723054099,-0.7702018627,-0.8825270861,0.652963962,-0.1804405258,0.3671698173,-0.5158217458,0.7101727597,-1.1740457955,-0.5516421444,-0.1968820671,-0.6431350344,-0.5923333813,0.3779494851,-0.1661654005,0.0170744005,0.9611306347,0.9115226681,1.4170998603,0.0373808548,0.2821304604,-0.7319056574,1.2418155939,0.5761758206,-0.9755751735,-0.3901138425,-0.3798079957,0.171163756,0.6105762144,0.2523713442,-0.0775375576,-0.3872563281,0.558736787,-1.0563441413,0.3141139438,0.0497720881,0.3104209944,0.2922733855,0.5439705201,0.8045831814,-0.7686072673,0.6214075049,-0.4363143853,0.4336041176,-0.4500283336,-1.0401023621,0.2666463415,0.1716812134,0.2032433328,-0.6081283454,-0.3040236764,0.9246874174,-0.8537008673,0.5090458488,0.2973334758,1.0715836474,-0.9784711171,0.1976549704,-0.5744590914,0.8708084514,0.9947230299,0.7793362199,-0.8823743501,-0.7061395257,-0.4900451308,-0.5563848011,-0.0066397557,-0.0751111674,-0.6443227517,0.3522243653,-0.8980218462,0.5059964832,-0.0032515933,1.267967804,-0.0825614496,0.0300878189,-0.1191781338,0.9146316127,0.4322589721,0.398629961,-0.2777094944,-0.6574613803,0.6362822642,0.4426529212,0.1365317117,-0.3529297639,0.2356808645,-0.0809727579,-0.1138320691,0.3275975945,0.0378125284,-0.175915446,0.4610028325,0.453380347,0.138104566,0.2553172304,-0.0525767851,0.1557988215,0.3596796939,0.4468261898,0.1155359249,-0.6125061875,0.6968732881,-0.6998392131,0.4382982693,-1.2634157729,-0.4199217003,-0.2945913396,-0.2005054847,-1.6177975317,0.1425896351,0.3203687663,-0.6699503947,0.2939618225,0.9142644095,0.1351413509,0.3941778739,0.503727721,-0.6817257081,0.7290188933,-0.3253233385,-0.0420174443,0.4446709445,0.2858400666,1.1915059652,-0.5615681093,-0.4229980801,0.5022850136,0.0145507434,-0.275087292,-0.8797082634,-0.6424119904,-0.8554113307,-1.1065923347,-0.5205268452,0.2912747476,-0.9288375797,-0.691964133,0.7036363502,0.7358812794,0.7984756354,-1.2976258347,0.1852170388,-0.3451122497,1.4765838706,-0.5174784299,0.5082340529,-1.1579163151,1.1737968987,0.535593864,-0.8294755431,0.8268897879,-0.1235778546,0.3286359312,-0.5563909638,0.057537509,0.3711381239,0.4833749339,0.3022780628,0.2804877029,-0.3237553373,0.7685471736,-0.3905459696,-0.1533033693,-0.481310342,0.738442758,0.5487197104,0.2976196537,-0.1423852075,-1.5238951531,0.4580380305,0.3338941118,0.315060539,0.4099861534,0.010447489,0.1816455152,-0.4431198342,0.7012547068,-0.1152582075,-0.2614645,-0.3501943522,-0.4382635451,-0.2169994957,0.3326573682,-0.33509255,-0.175339245,0.5388088002,-0.4098524294,-0.5917371678,-0.5858302543,-0.5001902975,0.1295333408,1.0605748357,0.5960443555,0.080942093,-0.4494322634,1.7619822348,-1.8383234166,-1.5195878027,0.8663597172,0.2674952052,0.2644860351,0.3421559367,-0.36607482,-1.2357113108,-0.7916816829,-0.7695395788,-0.4931815448,0.5355345797,0.3713454257,0.0126908448,0.3013215556,-0.3816052799,-0.9445569132,-0.4910510184,0.2892729103,-0.8652780281,-0.9450868381,-0.5069041332,-1.0963713856,-0.9099947325,0.0280547024,-0.3229492221,0.6533470883,-0.6658383662,-1.0458303063,0.4084827532,0.2154181997,0.4168771102,0.621643146,0.1463818375,-0.5393972727,0.5572364533,-0.0461803177,-0.5464809494,0.3088067943,-0.2258876688,0.1221931841,0.7691296278,0.7363394912,-0.5081228898,0.1194519869,0.541174071,0.1562810082,-0.8688668911,0.7605454351,0.86694145,0.2403191912,1.4767165522,0.3443305929,-0.8737141549,0.2220567421,-0.9346434321,0.4758451537,-0.2842341599,0.1718039287,-0.4368404402,0.8923122778,0.386744098,-0.233124992
   0.4933235525,-0.3459457096,0.2689625226,-0.5928457451,0.2560282628,0.4785000399,0.1515965571,0.6723165606,-0.3129009115,1.3947050595,0.6247567502,-0.0404750494,-0.1923297749,-0.5771835932,0.1895119844,-0.4349097111,0.1528097475,0.0777013723,0.1971933728,-0.7841404238,0.121719354,0.5823718779,-0.6552810534,1.1771419435,-0.614004505,0.4721555317,0.2852155301,-0.6314258185,-0.3619249878,-0.4133038203,-0.3346421553,-0.1646859024,0.5791425268,0.3259406607,-0.1792516487,-0.5613836393,0.1173185605,-0.3765619558,0.4210273399,-0.2431259988,-0.0780660743,-0.8779878094,0.0647506049,-0.1321191444,0.1331573584,-0.5757398248,-0.7723294954,-0.5658779831,0.1946540904,-0.9599648187,0.2061907724,0.365746212,0.0491167618,1.0773645334,1.718956757,0.9447932185,-0.4114735082,0.4519619994,0.3939931867,-0.5293458593,-0.5299079158,-0.5012746229,0.159846095,-0.1506587897,0.731484635,0.1215099591,0.3560461339,0.8307224666,0.4418047225,-0.1594040054,-1.1019933157,-1.1214987583,0.898124735,-0.9748873027,0.0792428836,0.308352267,-0.9772748166,0.6920203217,-0.639943546,-1.1184239253,-0.3877957468,-0.958848675,0.0560618495,-0.7996903713,-1.2428107336,1.7713878761,0.5646549455,-0.0404181875,0.1997648185,-0.2375412719,-0.9885400818,0.436728673,-0.1186133907,0.0799705738,-0.4340289313,0.2670308913,-0.2427635494,-0.7764382903,0.2391907912,-0.3872581991,0.0091176635,0.678265385,-0.1883043609,0.5288670415,-0.0449782867,-0.3213427144,0.7213119416,1.2811049284,-0.950258077,1.5413368012,-0.5707324394,0.4466999266,-0.0706853474,0.3707749221,-0.0721240773,0.6193806191,0.1209749985,0.0892776841,0.5716295675,-1.1585910946,-0.748610166,0.5505593491,0.2725904071,-0.3734338428,-0.4160986009,-0.7918439856,0.7192292372,0.2514439201,-0.1717110614,-0.340322741,0.3405114967,-0.0723219027,-0.8088608884,-0.6427944889,-0.0797114829,-0.8269082538,0.4023152404,-0.2106803036,-1.3492863854,0.6894594888,-0.187719457,0.1606410946,0.3895865296,0.6853878046,-0.7105080145,-0.4123957538,-0.2785064771,-0.2910089728,0.0730042548,-0.0428050521,-0.8592782324,0.6021681625,0.5138199027,0.5429459425,-0.6478336741,-0.4072235402,-0.9581976605,-0.5386480675,0.5645195868,-0.4719376842,-0.0868642905,0.0176053212,0.62292879,1.3070810253,0.5571727489,1.3650613254,0.0607878517,-0.5224761213,0.4586644949,1.5864762827,-0.0280705647,-1.3728311112,0.094799807,0.3079668727,0.2581221096,-0.3853273633,0.443020232,0.8255430079,-0.4513135482,0.2185675559,-0.2508185506,0.0321785212,-1.0518870423,0.2058918494,-0.2086336692,0.6237160175,0.0205218622,0.5669452674,-0.1158697774,-0.7130242821,0.1249533845,0.6294782512,-0.3736119973,-0.6714384171,0.3326447887,0.5942116134,-0.181410427,-0.9094467651,-0.6741645272,-1.117905229,-0.1734854444,0.2746511767,-0.4447573488,0.3703762362,-0.0622221096,0.0464231586,-0.4195425679,-0.3181370309,-0.1914281943,0.1208623701,-0.1506693506,-0.1220795298,0.0934707092,-0.1675461856,0.6744121197,0.5540498407,-0.7800173556,-0.2357105343,-0.8587819501,0.1106374244,0.4246770361,-0.4366193676,-0.4793289789,1.7118915861,1.662813095,-1.0216470144,0.0844199327,0.0648870606,0.9721554222,0.1760458277,-0.5427710122,0.7597169014,0.7408722902,0.69793516,-0.2650582553,-0.2388697339,-0.1577482659,0.0882139543,0.2646476294,-0.9607965208,0.6232108119,-0.7920419319,-0.4715085392,-0.0204895568,0.3639704717,-1.1620849334,-0.0004651374,0.4576805708,-0.9949905054,0.0553008469,1.1103481019,-0.8843206336,0.3515642599,-0.6976461258,0.3536850234,-0.4411441311,-1.5050938051,0.1243611575,-0.0257255743,0.5807574616,2.0336477757,-0.6771646118,-1.0637005586,-0.7944655283,-0.0419499704,-0.751748427,-1.0044861287,1.2957761619,0.9248452304,0.3167007599,1.3722751043,0.5576642669,0.0406247087,-0.4352268294,-0.9194560361,-0.3953905071,-0.3901563315,-0.5082996687,0.3001088741,0.3721956974,-0.1346930832,-0.8450006604,0.018713873,0.6306977053,-0.7823304444,-0.5473325969,-0.7624330714,0.6721860374,-1.4155282293,-0.2006588275,-0.4429475618,-0.5568808643,-0.5445657792,0.4740494344,0.0843457502,0.5116295979,-0.645140182,0.2616252648,-0.8512565942,-0.4345506772,0.0034437053,0.1768402894,-0.7061439026,-1.069357082,0.2538764193,-0.819481935,-0.1721694825,-0.8416715894,0.2091515366,0.6321265188,0.2819592207,0.4391112326,-0.2575274105,-0.9861387649,0.6661794914,-0.8059627398,-0.0369882168,-0.1175125004,0.3282156457,0.009243693,-0.4083914159,-0.6570015125,0.537402066,0.3958348065,-0.3854573049,-0.6254736434,1.4214281675,-0.0041018038,-0.3641198909,-0.2916553287,-0.1157991362,-1.0106284581,1.2265166576,-0.5653701938,-0.1492537476,-1.1816014976,-0.5674116915,0.3665426866,0.1521303376,1.1768541933,-0.9861094634,0.5141667394,0.4314163463,-1.0264066828,0.6317295605,-0.5433294563,-0.7543292369,-1.3854979172,-0.2773778387,0.5580498521,0.361173724,-1.0509460385,0.7196609896,-0.6995840699,-0.5602267864,-0.1552062494,0.5695681573,0.6015235423,-0.2254511293,-0.2948550378,-0.1554055929,0.5927570599,0.6013810453,-1.1468434816,0.3240126684,1.0626143108,-0.3900029134,-0.458137595,-1.0857831541,-0.5025705278,0.0029372696,0.1816778109,-0.5711144365,-0.251505976,0.6575076094,-0.1380868008,-1.0827383064,-0.9551471846,-0.307016561,0.1195822456,-0.8874152488,0.4616889979,-0.1376482639,-0.595010295,0.208829902,-0.905097614,-0.4588009895,-1.1512524941,-0.6301923724,-1.1487221558,0.0414036916,-0.1839574957,-0.5066524796,-0.6827123116,-0.8526822757,-0.3544534433,-0.854552558,0.2209703899,0.5399400372,-0.8555658058,-0.7193891166,0.9191404731,-0.9014296078,0.6811333875,-0.463758795,0.5979268957,0.7547940994,-0.8852248076,0.7738013766,0.7253612488,-0.260835163,0.2678386757,-0.4653817598,-1.908344142,0.7270898961,-0.0928158302,0.9130318735,0.8477114273,0.2632461824,-0.3044418,0.1002839233,-0.1360958591,-0.3229374671,-0.6539793466,-1.1873362451,-1.299680441,0.3521075108,0.7207570801,0.6282314145,-0.5332495939,-1.0027534501,0.2521880699,-0.7337270824,-0.9443982458,0.3838988481,-0.0727842004,-0.0297646166,0.5102086803,0.285865045,0.2598107865,-1.0369893813,-0.9896795807,0.5912930732,-2.0666880572,0.9192873722,1.4401616093,-0.2352450821,-0.46321953,0.6133143982,-1.136872506,-0.4910664351,-0.0464213311,0.0173701033,-0.9691759454,0.3176349176,0.1283760689,-0.649190543,-0.444651108,-0.4707003242,-0.6973270723,-0.7768507235,-0.0805112936,0.4085691108,0.3277286445,-0.1656302854,0.4796222405,-0.4553081661,0.1874752918,-0.5551534376,-0.8434061585,0.5708697828,0.2064258548,-0.03356815,0.5578628587,-0.7325267095,0.3427516228,0.2160138022,-0.6628850663,0.1944230901,-0.2769491637,0.5499208882,-0.3193969561,-1.4741762869,0.3068160064,0.8370799431,0.5014219697,0.7986890143,-0.9003918765,0.5282089066,-0.8462983999,-0.4276885746,0.6400782812
##end
biasActivation=0,1,1
[BASIC:ACTIVATION]
"org.encog.engine.network.activation.ActivationSigmoid"
"org.encog.engine.network.activation.ActivationSigmoid"
"org.encog.engine.network.activation.ActivationLinear"
